svm_type one_class
kernel_type rbf
gamma 0.5
nr_class 2
total_sv 13642
rho 9725.87
SV
1 1:-0.991961 2:-0.974907 
1 1:-0.991961 2:-0.974907 
1 1:-0.991961 2:-0.974907 
1 1:-0.991961 2:-0.974907 
1 1:-0.991961 2:-0.974907 
1 1:-0.991961 2:-0.974907 
1 1:-0.991961 2:-0.974907 
1 1:-0.991961 2:-0.974907 
1 1:-0.991961 2:-0.974907 
1 1:-0.991961 2:-0.974907 
1 1:-0.991961 2:-0.974907 
1 1:-0.991961 2:-0.974907 
1 1:-0.991961 2:-0.974907 
1 1:-0.991961 2:-0.974907 
1 1:-0.991961 2:-0.974907 
1 1:-0.991961 2:-0.974907 
1 1:-0.991961 2:-0.974907 
1 1:-0.991961 2:-0.974907 
1 1:-0.991961 2:-0.974907 
1 1:-0.991961 2:-0.974907 
1 1:-0.991961 2:-0.974907 
1 1:-0.991961 2:-0.974907 
1 1:-0.991961 2:-0.974907 
1 1:-0.991961 2:-0.974907 
1 1:-0.991961 2:-0.974907 
1 1:-0.991961 2:-0.974907 
1 1:-0.991961 2:-0.974907 
1 1:-0.991961 2:-0.974907 
1 1:-0.991961 2:-0.974907 
1 1:-0.991961 2:-0.974907 
1 1:-0.991961 2:-0.974907 
1 1:-0.991961 2:-0.974907 
1 1:-0.991961 2:-0.974907 
1 1:-0.991961 2:-0.974907 
1 1:-0.991961 2:-0.974907 
1 1:-0.991961 2:-0.974907 
1 1:-0.991961 2:-0.974907 
1 1:-0.991961 2:-0.974907 
1 1:-0.991961 2:-0.974907 
1 1:-0.991961 2:-0.974907 
1 1:-0.991961 2:-0.974907 
1 1:-0.991961 2:-0.974907 
1 1:-0.991961 2:-0.974907 
1 1:-0.991961 2:-0.974907 
1 1:-0.991961 2:-0.974907 
1 1:-0.991961 2:-0.974907 
1 1:-0.991961 2:-0.974907 
1 1:-0.991961 2:-0.974907 
1 1:-0.991961 2:-0.974907 
1 1:-0.991961 2:-0.974907 
1 1:-0.991961 2:-0.974907 
1 1:-0.991961 2:-0.974907 
1 1:-0.991961 2:-0.974907 
1 1:-0.991961 2:-0.974907 
1 1:-0.991961 2:-0.974907 
1 1:-0.991961 2:-0.974907 
1 1:-0.991961 2:-0.974907 
1 1:-0.991961 2:-0.974907 
1 1:-0.991961 2:-0.974907 
1 1:-0.991961 2:-0.974907 
1 1:-0.991961 2:-0.974907 
1 1:-0.991961 2:-0.974907 
1 1:-0.991961 2:-0.974907 
1 1:-0.991961 2:-0.974907 
1 1:-0.991961 2:-0.974907 
1 1:-0.991961 2:-0.974907 
1 1:-0.991961 2:-0.974907 
1 1:-0.991961 2:-0.974907 
1 1:-0.991961 2:-0.974907 
1 1:-0.991961 2:-0.974907 
1 1:-0.991961 2:-0.974907 
1 1:-0.991961 2:-0.974907 
1 1:-0.991961 2:-0.974907 
1 1:-0.991961 2:-0.974907 
1 1:-0.991961 2:-0.974907 
1 1:-0.991961 2:-0.974907 
1 1:-0.991961 2:-0.974907 
1 1:-0.991961 2:-0.974907 
1 1:-0.991961 2:-0.974907 
1 1:-0.991961 2:-0.974907 
1 1:-0.991961 2:-0.974907 
1 1:-0.991961 2:-0.974907 
1 1:-0.991961 2:-0.974907 
1 1:-0.991961 2:-0.974907 
1 1:-0.991961 2:-0.974907 
1 1:-0.991961 2:-0.974907 
1 1:-0.991961 2:-0.974907 
1 1:-0.991961 2:-0.974907 
1 1:-0.991961 2:-0.974907 
1 1:-0.991961 2:-0.974907 
1 1:-0.991961 2:-0.974907 
1 1:-0.991961 2:-0.974907 
1 1:-0.991961 2:-0.974907 
1 1:-0.991961 2:-0.974907 
1 1:-0.991961 2:-0.974907 
1 1:-0.991961 2:-0.974907 
1 1:-0.991655 2:-0.990716 
1 1:-0.991655 2:-0.990716 
1 1:-0.991655 2:-0.990716 
1 1:-0.991655 2:-0.990716 
1 1:-0.991655 2:-0.990716 
1 1:-0.991655 2:-0.990716 
1 1:-0.991655 2:-0.990716 
1 1:-0.991655 2:-0.990716 
1 1:-0.991655 2:-0.990716 
1 1:-0.991655 2:-0.990716 
1 1:-0.991655 2:-0.990716 
1 1:-0.991655 2:-0.990716 
1 1:-0.991655 2:-0.990716 
1 1:-0.991655 2:-0.990716 
1 1:-0.991655 2:-0.990716 
1 1:-0.991655 2:-0.990716 
1 1:-0.991655 2:-0.990716 
1 1:-0.991655 2:-0.990716 
1 1:-0.991655 2:-0.990716 
1 1:-0.991655 2:-0.990716 
1 1:-0.991655 2:-0.990716 
1 1:-0.991655 2:-0.990716 
1 1:-0.991655 2:-0.990716 
1 1:-0.991655 2:-0.990716 
1 1:-0.991655 2:-0.990716 
1 1:-0.991655 2:-0.990716 
1 1:-0.991655 2:-0.990716 
1 1:-0.991655 2:-0.990716 
1 1:-0.991655 2:-0.990716 
1 1:-0.991655 2:-0.990716 
1 1:-0.991655 2:-0.990716 
1 1:-0.991655 2:-0.990716 
1 1:-0.991655 2:-0.990716 
1 1:-0.991655 2:-0.990716 
1 1:-0.991655 2:-0.990716 
1 1:-0.991655 2:-0.990716 
1 1:-0.991655 2:-0.990716 
1 1:-0.991655 2:-0.990716 
1 1:-0.991655 2:-0.990716 
1 1:-0.991655 2:-0.990716 
1 1:-0.991655 2:-0.990716 
1 1:-0.991655 2:-0.990716 
1 1:-0.991655 2:-0.990716 
1 1:-0.991655 2:-0.990716 
1 1:-0.991655 2:-0.990716 
1 1:-0.991655 2:-0.990716 
1 1:-0.991655 2:-0.990716 
1 1:-0.991655 2:-0.990716 
1 1:-0.991655 2:-0.990716 
1 1:-0.991655 2:-0.990716 
1 1:-0.991655 2:-0.990716 
1 1:-0.991655 2:-0.990716 
1 1:-0.991655 2:-0.990716 
1 1:-0.991655 2:-0.990716 
1 1:-0.991655 2:-0.990716 
1 1:-0.991655 2:-0.990716 
1 1:-0.991655 2:-0.990716 
1 1:-0.991655 2:-0.990716 
1 1:-0.991655 2:-0.990716 
1 1:-0.991655 2:-0.990716 
1 1:-0.991655 2:-0.990716 
1 1:-0.991655 2:-0.990716 
1 1:-0.991655 2:-0.990716 
1 1:-0.991655 2:-0.990716 
1 1:-0.991655 2:-0.990716 
1 1:-0.991655 2:-0.990716 
1 1:-0.991655 2:-0.990716 
1 1:-0.991655 2:-0.990716 
1 1:-0.991655 2:-0.990716 
1 1:-0.991655 2:-0.990716 
1 1:-0.991655 2:-0.990716 
1 1:-0.991655 2:-0.990716 
1 1:-0.991655 2:-0.990716 
1 1:-0.991655 2:-0.990716 
1 1:-0.991655 2:-0.990716 
1 1:-0.991655 2:-0.990716 
1 1:-0.991655 2:-0.990716 
1 1:-0.991655 2:-0.990716 
1 1:-0.991655 2:-0.990716 
1 1:-0.991655 2:-0.990716 
1 1:-0.991655 2:-0.990716 
1 1:-0.991655 2:-0.990716 
1 1:-0.991655 2:-0.990716 
1 1:-0.991655 2:-0.990716 
1 1:-0.991655 2:-0.990716 
1 1:-0.991655 2:-0.990716 
1 1:-0.991655 2:-0.990716 
1 1:-0.991655 2:-0.990716 
1 1:-0.991655 2:-0.990716 
1 1:-0.991655 2:-0.990716 
1 1:-0.991655 2:-0.990716 
1 1:-0.991655 2:-0.990716 
1 1:-0.991655 2:-0.990716 
1 1:-0.991655 2:-0.990716 
1 1:-0.991655 2:-0.990716 
1 1:-0.991655 2:-0.990716 
1 1:-0.968376 2:-0.979642 
1 1:-0.968376 2:-0.979642 
1 1:-0.968376 2:-0.979642 
1 1:-0.968376 2:-0.979642 
1 1:-0.968376 2:-0.979642 
1 1:-0.968376 2:-0.979642 
1 1:-0.968376 2:-0.979642 
1 1:-0.968376 2:-0.979642 
1 1:-0.968376 2:-0.979642 
1 1:-0.968376 2:-0.979642 
1 1:-0.968376 2:-0.979642 
1 1:-0.968376 2:-0.979642 
1 1:-0.968376 2:-0.979642 
1 1:-0.968376 2:-0.979642 
1 1:-0.968376 2:-0.979642 
1 1:-0.968376 2:-0.979642 
1 1:-0.968376 2:-0.979642 
1 1:-0.968376 2:-0.979642 
1 1:-0.968376 2:-0.979642 
1 1:-0.968376 2:-0.979642 
1 1:-0.968376 2:-0.979642 
1 1:-0.968376 2:-0.979642 
1 1:-0.968376 2:-0.979642 
1 1:-0.968376 2:-0.979642 
1 1:-0.968376 2:-0.979642 
1 1:-0.968376 2:-0.979642 
1 1:-0.968376 2:-0.979642 
1 1:-0.968376 2:-0.979642 
1 1:-0.968376 2:-0.979642 
1 1:-0.968376 2:-0.979642 
1 1:-0.968376 2:-0.979642 
1 1:-0.968376 2:-0.979642 
1 1:-0.968376 2:-0.979642 
1 1:-0.968376 2:-0.979642 
1 1:-0.968376 2:-0.979642 
1 1:-0.968376 2:-0.979642 
1 1:-0.968376 2:-0.979642 
1 1:-0.968376 2:-0.979642 
1 1:-0.968376 2:-0.979642 
1 1:-0.968376 2:-0.979642 
1 1:-0.968376 2:-0.979642 
1 1:-0.968376 2:-0.979642 
1 1:-0.968376 2:-0.979642 
1 1:-0.968376 2:-0.979642 
1 1:-0.968376 2:-0.979642 
1 1:-0.968376 2:-0.979642 
1 1:-0.968376 2:-0.979642 
1 1:-0.968376 2:-0.979642 
1 1:-0.968376 2:-0.979642 
1 1:-0.968376 2:-0.979642 
1 1:-0.968376 2:-0.979642 
1 1:-0.968376 2:-0.979642 
1 1:-0.968376 2:-0.979642 
1 1:-0.968376 2:-0.979642 
1 1:-0.968376 2:-0.979642 
1 1:-0.968376 2:-0.979642 
1 1:-0.968376 2:-0.979642 
1 1:-0.968376 2:-0.979642 
1 1:-0.968376 2:-0.979642 
1 1:-0.968376 2:-0.979642 
1 1:-0.968376 2:-0.979642 
1 1:-0.968376 2:-0.979642 
1 1:-0.968376 2:-0.979642 
1 1:-0.968376 2:-0.979642 
1 1:-0.968376 2:-0.979642 
1 1:-0.968376 2:-0.979642 
1 1:-0.968376 2:-0.979642 
1 1:-0.968376 2:-0.979642 
1 1:-0.968376 2:-0.979642 
1 1:-0.968376 2:-0.979642 
1 1:-0.968376 2:-0.979642 
1 1:-0.968376 2:-0.979642 
1 1:-0.968376 2:-0.979642 
1 1:-0.968376 2:-0.979642 
1 1:-0.968376 2:-0.979642 
1 1:-0.968376 2:-0.979642 
1 1:-0.968376 2:-0.979642 
1 1:-0.968376 2:-0.979642 
1 1:-0.968376 2:-0.979642 
1 1:-0.968376 2:-0.979642 
1 1:-0.968376 2:-0.979642 
1 1:-0.968376 2:-0.979642 
1 1:-0.968376 2:-0.979642 
1 1:-0.968376 2:-0.979642 
1 1:-0.968376 2:-0.979642 
1 1:-0.968376 2:-0.979642 
1 1:-0.968376 2:-0.979642 
1 1:-0.968376 2:-0.979642 
1 1:-0.968376 2:-0.979642 
1 1:-0.968376 2:-0.979642 
1 1:-0.968376 2:-0.979642 
1 1:-0.968376 2:-0.979642 
1 1:-0.968376 2:-0.979642 
1 1:-0.968376 2:-0.979642 
1 1:-0.968376 2:-0.979642 
1 1:-0.968376 2:-0.979642 
1 1:-0.823185 2:0.291457 
1 1:-0.711931 2:0.721759 
1 1:-0.823185 2:0.291457 
1 1:-0.711931 2:0.721759 
1 1:-0.823185 2:0.291457 
1 1:-0.711931 2:0.721759 
1 1:-0.823185 2:0.291457 
1 1:-0.711931 2:0.721759 
1 1:-0.823185 2:0.291457 
1 1:-0.711931 2:0.721759 
1 1:-0.823185 2:0.291457 
1 1:-0.711931 2:0.721759 
1 1:-0.823185 2:0.291457 
1 1:-0.711931 2:0.721759 
1 1:-0.823185 2:0.291457 
1 1:-0.711931 2:0.721759 
1 1:-0.823185 2:0.291457 
1 1:-0.711931 2:0.721759 
1 1:-0.823185 2:0.291457 
1 1:-0.711931 2:0.721759 
1 1:-0.823185 2:0.291457 
1 1:-0.711931 2:0.721759 
1 1:-0.823185 2:0.291457 
1 1:-0.711931 2:0.721759 
1 1:-0.823185 2:0.291457 
1 1:-0.711931 2:0.721759 
1 1:-0.823185 2:0.291457 
1 1:-0.711931 2:0.721759 
1 1:-0.823185 2:0.291457 
1 1:-0.711931 2:0.721759 
1 1:-0.823185 2:0.291457 
1 1:-0.711931 2:0.721759 
1 1:-0.823185 2:0.291457 
1 1:-0.711931 2:0.721759 
1 1:-0.823185 2:0.291457 
1 1:-0.711931 2:0.721759 
1 1:-0.823185 2:0.291457 
1 1:-0.711931 2:0.721759 
1 1:-0.823185 2:0.291457 
1 1:-0.711931 2:0.721759 
1 1:-0.823185 2:0.291457 
1 1:-0.711931 2:0.721759 
1 1:-0.823185 2:0.291457 
1 1:-0.711931 2:0.721759 
1 1:-0.823185 2:0.291457 
1 1:-0.711931 2:0.721759 
1 1:-0.823185 2:0.291457 
1 1:-0.711931 2:0.721759 
1 1:-0.823185 2:0.291457 
1 1:-0.711931 2:0.721759 
1 1:-0.823185 2:0.291457 
1 1:-0.711931 2:0.721759 
1 1:-0.823185 2:0.291457 
1 1:-0.711931 2:0.721759 
1 1:-0.823185 2:0.291457 
1 1:-0.711931 2:0.721759 
1 1:-0.823185 2:0.291457 
1 1:-0.711931 2:0.721759 
1 1:-0.823185 2:0.291457 
1 1:-0.711931 2:0.721759 
1 1:-0.823185 2:0.291457 
1 1:-0.711931 2:0.721759 
1 1:-0.823185 2:0.291457 
1 1:-0.711931 2:0.721759 
1 1:-0.823185 2:0.291457 
1 1:-0.711931 2:0.721759 
1 1:-0.823185 2:0.291457 
1 1:-0.711931 2:0.721759 
1 1:-0.823185 2:0.291457 
1 1:-0.711931 2:0.721759 
1 1:-0.823185 2:0.291457 
1 1:-0.711931 2:0.721759 
1 1:-0.823185 2:0.291457 
1 1:-0.711931 2:0.721759 
1 1:-0.823185 2:0.291457 
1 1:-0.711931 2:0.721759 
1 1:-0.823185 2:0.291457 
1 1:-0.711931 2:0.721759 
1 1:-0.823185 2:0.291457 
1 1:-0.711931 2:0.721759 
1 1:-0.823185 2:0.291457 
1 1:-0.711931 2:0.721759 
1 1:-0.823185 2:0.291457 
1 1:-0.711931 2:0.721759 
1 1:-0.823185 2:0.291457 
1 1:-0.711931 2:0.721759 
1 1:-0.823185 2:0.291457 
1 1:-0.711931 2:0.721759 
1 1:-0.823185 2:0.291457 
1 1:-0.711931 2:0.721759 
1 1:-0.823185 2:0.291457 
1 1:-0.711931 2:0.721759 
1 1:-0.823185 2:0.291457 
1 1:-0.711931 2:0.721759 
1 1:-0.823185 2:0.291457 
1 1:-0.711931 2:0.721759 
1 1:-0.823185 2:0.291457 
1 1:-0.711931 2:0.721759 
1 1:-0.823185 2:0.291457 
1 1:-0.711931 2:0.721759 
1 1:-0.823185 2:0.291457 
1 1:-0.711931 2:0.721759 
1 1:-0.823185 2:0.291457 
1 1:-0.711931 2:0.721759 
1 1:-0.823185 2:0.291457 
1 1:-0.711931 2:0.721759 
1 1:-0.823185 2:0.291457 
1 1:-0.711931 2:0.721759 
1 1:-0.823185 2:0.291457 
1 1:-0.711931 2:0.721759 
1 1:-0.823185 2:0.291457 
1 1:-0.711931 2:0.721759 
1 1:-0.823185 2:0.291457 
1 1:-0.711931 2:0.721759 
1 1:-0.823185 2:0.291457 
1 1:-0.711931 2:0.721759 
1 1:-0.823185 2:0.291457 
1 1:-0.711931 2:0.721759 
1 1:-0.823185 2:0.291457 
1 1:-0.711931 2:0.721759 
1 1:-0.823185 2:0.291457 
1 1:-0.711931 2:0.721759 
1 1:-0.823185 2:0.291457 
1 1:-0.711931 2:0.721759 
1 1:-0.823185 2:0.291457 
1 1:-0.711931 2:0.721759 
1 1:-0.823185 2:0.291457 
1 1:-0.711931 2:0.721759 
1 1:-0.823185 2:0.291457 
1 1:-0.711931 2:0.721759 
1 1:-0.823185 2:0.291457 
1 1:-0.711931 2:0.721759 
1 1:-0.823185 2:0.291457 
1 1:-0.711931 2:0.721759 
1 1:-0.823185 2:0.291457 
1 1:-0.711931 2:0.721759 
1 1:-0.823185 2:0.291457 
1 1:-0.711931 2:0.721759 
1 1:-0.823185 2:0.291457 
1 1:-0.711931 2:0.721759 
1 1:-0.823185 2:0.291457 
1 1:-0.711931 2:0.721759 
1 1:-0.823185 2:0.291457 
1 1:-0.711931 2:0.721759 
1 1:-0.823185 2:0.291457 
1 1:-0.711931 2:0.721759 
1 1:-0.823185 2:0.291457 
1 1:-0.711931 2:0.721759 
1 1:-0.823185 2:0.291457 
1 1:-0.711931 2:0.721759 
1 1:-0.823185 2:0.291457 
1 1:-0.711931 2:0.721759 
1 1:-0.823185 2:0.291457 
1 1:-0.711931 2:0.721759 
1 1:-0.823185 2:0.291457 
1 1:-0.711931 2:0.721759 
1 1:-0.823185 2:0.291457 
1 1:-0.711931 2:0.721759 
1 1:-0.823185 2:0.291457 
1 1:-0.711931 2:0.721759 
1 1:-0.823185 2:0.291457 
1 1:-0.711931 2:0.721759 
1 1:-0.823185 2:0.291457 
1 1:-0.711931 2:0.721759 
1 1:-0.823185 2:0.291457 
1 1:-0.711931 2:0.721759 
1 1:-0.823185 2:0.291457 
1 1:-0.711931 2:0.721759 
1 1:-0.823185 2:0.291457 
1 1:-0.711931 2:0.721759 
1 1:-0.823185 2:0.291457 
1 1:-0.711931 2:0.721759 
1 1:-0.823185 2:0.291457 
1 1:-0.711931 2:0.721759 
1 1:-0.823185 2:0.291457 
1 1:-0.711931 2:0.721759 
1 1:-0.823185 2:0.291457 
1 1:-0.711931 2:0.721759 
1 1:-0.823185 2:0.291457 
1 1:-0.711931 2:0.721759 
1 1:-0.823185 2:0.291457 
1 1:-0.711931 2:0.721759 
1 1:-0.823185 2:0.291457 
1 1:-0.711931 2:0.721759 
1 1:-0.823185 2:0.291457 
1 1:-0.711931 2:0.721759 
1 1:-0.823185 2:0.291457 
1 1:-0.711931 2:0.721759 
1 1:-0.823185 2:0.291457 
1 1:-0.711931 2:0.721759 
1 1:-0.980733 2:-0.968352 
1 1:-0.980733 2:-0.968352 
1 1:-0.980733 2:-0.968352 
1 1:-0.980733 2:-0.968352 
1 1:-0.980733 2:-0.968352 
1 1:-0.980733 2:-0.968352 
1 1:-0.980733 2:-0.968352 
1 1:-0.980733 2:-0.968352 
1 1:-0.980733 2:-0.968352 
1 1:-0.980733 2:-0.968352 
1 1:-0.980733 2:-0.968352 
1 1:-0.980733 2:-0.968352 
1 1:-0.980733 2:-0.968352 
1 1:-0.980733 2:-0.968352 
1 1:-0.980733 2:-0.968352 
1 1:-0.980733 2:-0.968352 
1 1:-0.980733 2:-0.968352 
1 1:-0.980733 2:-0.968352 
1 1:-0.980733 2:-0.968352 
1 1:-0.980733 2:-0.968352 
1 1:-0.980733 2:-0.968352 
1 1:-0.980733 2:-0.968352 
1 1:-0.980733 2:-0.968352 
1 1:-0.980733 2:-0.968352 
1 1:-0.980733 2:-0.968352 
1 1:-0.980733 2:-0.968352 
1 1:-0.980733 2:-0.968352 
1 1:-0.980733 2:-0.968352 
1 1:-0.980733 2:-0.968352 
1 1:-0.980733 2:-0.968352 
1 1:-0.980733 2:-0.968352 
1 1:-0.980733 2:-0.968352 
1 1:-0.980733 2:-0.968352 
1 1:-0.980733 2:-0.968352 
1 1:-0.980733 2:-0.968352 
1 1:-0.980733 2:-0.968352 
1 1:-0.980733 2:-0.968352 
1 1:-0.980733 2:-0.968352 
1 1:-0.980733 2:-0.968352 
1 1:-0.980733 2:-0.968352 
1 1:-0.980733 2:-0.968352 
1 1:-0.980733 2:-0.968352 
1 1:-0.980733 2:-0.968352 
1 1:-0.980733 2:-0.968352 
1 1:-0.980733 2:-0.968352 
1 1:-0.980733 2:-0.968352 
1 1:-0.980733 2:-0.968352 
1 1:-0.980733 2:-0.968352 
1 1:-0.980733 2:-0.968352 
1 1:-0.980733 2:-0.968352 
1 1:-0.980733 2:-0.968352 
1 1:-0.980733 2:-0.968352 
1 1:-0.980733 2:-0.968352 
1 1:-0.980733 2:-0.968352 
1 1:-0.980733 2:-0.968352 
1 1:-0.980733 2:-0.968352 
1 1:-0.980733 2:-0.968352 
1 1:-0.980733 2:-0.968352 
1 1:-0.980733 2:-0.968352 
1 1:-0.980733 2:-0.968352 
1 1:-0.980733 2:-0.968352 
1 1:-0.980733 2:-0.968352 
1 1:-0.980733 2:-0.968352 
1 1:-0.980733 2:-0.968352 
1 1:-0.980733 2:-0.968352 
1 1:-0.980733 2:-0.968352 
1 1:-0.980733 2:-0.968352 
1 1:-0.980733 2:-0.968352 
1 1:-0.980733 2:-0.968352 
1 1:-0.980733 2:-0.968352 
1 1:-0.980733 2:-0.968352 
1 1:-0.980733 2:-0.968352 
1 1:-0.980733 2:-0.968352 
1 1:-0.980733 2:-0.968352 
1 1:-0.980733 2:-0.968352 
1 1:-0.980733 2:-0.968352 
1 1:-0.980733 2:-0.968352 
1 1:-0.980733 2:-0.968352 
1 1:-0.980733 2:-0.968352 
1 1:-0.980733 2:-0.968352 
1 1:-0.980733 2:-0.968352 
1 1:-0.980733 2:-0.968352 
1 1:-0.980733 2:-0.968352 
1 1:-0.980733 2:-0.968352 
1 1:-0.980733 2:-0.968352 
1 1:-0.980733 2:-0.968352 
1 1:-0.980733 2:-0.968352 
1 1:-0.980733 2:-0.968352 
1 1:-0.980733 2:-0.968352 
1 1:-0.980733 2:-0.968352 
1 1:-0.980733 2:-0.968352 
1 1:-0.980733 2:-0.968352 
1 1:-0.980733 2:-0.968352 
1 1:-0.980733 2:-0.968352 
1 1:-0.980733 2:-0.968352 
1 1:-0.970906 2:-0.973301 
1 1:-0.970906 2:-0.973301 
1 1:-0.970906 2:-0.973301 
1 1:-0.970906 2:-0.973301 
1 1:-0.970906 2:-0.973301 
1 1:-0.970906 2:-0.973301 
1 1:-0.970906 2:-0.973301 
1 1:-0.970906 2:-0.973301 
1 1:-0.970906 2:-0.973301 
1 1:-0.970906 2:-0.973301 
1 1:-0.970906 2:-0.973301 
1 1:-0.970906 2:-0.973301 
1 1:-0.970906 2:-0.973301 
1 1:-0.970906 2:-0.973301 
1 1:-0.970906 2:-0.973301 
1 1:-0.970906 2:-0.973301 
1 1:-0.970906 2:-0.973301 
1 1:-0.970906 2:-0.973301 
1 1:-0.970906 2:-0.973301 
1 1:-0.970906 2:-0.973301 
1 1:-0.970906 2:-0.973301 
1 1:-0.970906 2:-0.973301 
1 1:-0.970906 2:-0.973301 
1 1:-0.970906 2:-0.973301 
1 1:-0.970906 2:-0.973301 
1 1:-0.970906 2:-0.973301 
1 1:-0.970906 2:-0.973301 
1 1:-0.970906 2:-0.973301 
1 1:-0.970906 2:-0.973301 
1 1:-0.970906 2:-0.973301 
1 1:-0.970906 2:-0.973301 
1 1:-0.970906 2:-0.973301 
1 1:-0.970906 2:-0.973301 
1 1:-0.970906 2:-0.973301 
1 1:-0.970906 2:-0.973301 
1 1:-0.970906 2:-0.973301 
1 1:-0.970906 2:-0.973301 
1 1:-0.970906 2:-0.973301 
1 1:-0.970906 2:-0.973301 
1 1:-0.970906 2:-0.973301 
1 1:-0.970906 2:-0.973301 
1 1:-0.970906 2:-0.973301 
1 1:-0.970906 2:-0.973301 
1 1:-0.970906 2:-0.973301 
1 1:-0.970906 2:-0.973301 
1 1:-0.970906 2:-0.973301 
1 1:-0.970906 2:-0.973301 
1 1:-0.970906 2:-0.973301 
1 1:-0.970906 2:-0.973301 
1 1:-0.970906 2:-0.973301 
1 1:-0.970906 2:-0.973301 
1 1:-0.970906 2:-0.973301 
1 1:-0.970906 2:-0.973301 
1 1:-0.970906 2:-0.973301 
1 1:-0.970906 2:-0.973301 
1 1:-0.970906 2:-0.973301 
1 1:-0.970906 2:-0.973301 
1 1:-0.970906 2:-0.973301 
1 1:-0.970906 2:-0.973301 
1 1:-0.970906 2:-0.973301 
1 1:-0.970906 2:-0.973301 
1 1:-0.970906 2:-0.973301 
1 1:-0.970906 2:-0.973301 
1 1:-0.970906 2:-0.973301 
1 1:-0.970906 2:-0.973301 
1 1:-0.970906 2:-0.973301 
1 1:-0.970906 2:-0.973301 
1 1:-0.970906 2:-0.973301 
1 1:-0.970906 2:-0.973301 
1 1:-0.970906 2:-0.973301 
1 1:-0.970906 2:-0.973301 
1 1:-0.970906 2:-0.973301 
1 1:-0.970906 2:-0.973301 
1 1:-0.970906 2:-0.973301 
1 1:-0.970906 2:-0.973301 
1 1:-0.970906 2:-0.973301 
1 1:-0.970906 2:-0.973301 
1 1:-0.970906 2:-0.973301 
1 1:-0.970906 2:-0.973301 
1 1:-0.970906 2:-0.973301 
1 1:-0.970906 2:-0.973301 
1 1:-0.970906 2:-0.973301 
1 1:-0.970906 2:-0.973301 
1 1:-0.970906 2:-0.973301 
1 1:-0.970906 2:-0.973301 
1 1:-0.970906 2:-0.973301 
1 1:-0.970906 2:-0.973301 
1 1:-0.970906 2:-0.973301 
1 1:-0.970906 2:-0.973301 
1 1:-0.970906 2:-0.973301 
1 1:-0.970906 2:-0.973301 
1 1:-0.970906 2:-0.973301 
1 1:-0.970906 2:-0.973301 
1 1:-0.970906 2:-0.973301 
1 1:-0.970906 2:-0.973301 
1 1:-0.973477 2:-0.976812 
1 1:-0.973477 2:-0.976812 
1 1:-0.973477 2:-0.976812 
1 1:-0.973477 2:-0.976812 
1 1:-0.973477 2:-0.976812 
1 1:-0.973477 2:-0.976812 
1 1:-0.973477 2:-0.976812 
1 1:-0.973477 2:-0.976812 
1 1:-0.973477 2:-0.976812 
1 1:-0.973477 2:-0.976812 
1 1:-0.973477 2:-0.976812 
1 1:-0.973477 2:-0.976812 
1 1:-0.973477 2:-0.976812 
1 1:-0.973477 2:-0.976812 
1 1:-0.973477 2:-0.976812 
1 1:-0.973477 2:-0.976812 
1 1:-0.973477 2:-0.976812 
1 1:-0.973477 2:-0.976812 
1 1:-0.973477 2:-0.976812 
1 1:-0.973477 2:-0.976812 
1 1:-0.973477 2:-0.976812 
1 1:-0.973477 2:-0.976812 
1 1:-0.973477 2:-0.976812 
1 1:-0.973477 2:-0.976812 
1 1:-0.973477 2:-0.976812 
1 1:-0.973477 2:-0.976812 
1 1:-0.973477 2:-0.976812 
1 1:-0.973477 2:-0.976812 
1 1:-0.973477 2:-0.976812 
1 1:-0.973477 2:-0.976812 
1 1:-0.973477 2:-0.976812 
1 1:-0.973477 2:-0.976812 
1 1:-0.973477 2:-0.976812 
1 1:-0.973477 2:-0.976812 
1 1:-0.973477 2:-0.976812 
1 1:-0.973477 2:-0.976812 
1 1:-0.973477 2:-0.976812 
1 1:-0.973477 2:-0.976812 
1 1:-0.973477 2:-0.976812 
1 1:-0.973477 2:-0.976812 
1 1:-0.973477 2:-0.976812 
1 1:-0.973477 2:-0.976812 
1 1:-0.973477 2:-0.976812 
1 1:-0.973477 2:-0.976812 
1 1:-0.973477 2:-0.976812 
1 1:-0.973477 2:-0.976812 
1 1:-0.973477 2:-0.976812 
1 1:-0.973477 2:-0.976812 
1 1:-0.973477 2:-0.976812 
1 1:-0.973477 2:-0.976812 
1 1:-0.973477 2:-0.976812 
1 1:-0.973477 2:-0.976812 
1 1:-0.973477 2:-0.976812 
1 1:-0.973477 2:-0.976812 
1 1:-0.973477 2:-0.976812 
1 1:-0.973477 2:-0.976812 
1 1:-0.973477 2:-0.976812 
1 1:-0.973477 2:-0.976812 
1 1:-0.973477 2:-0.976812 
1 1:-0.973477 2:-0.976812 
1 1:-0.973477 2:-0.976812 
1 1:-0.973477 2:-0.976812 
1 1:-0.973477 2:-0.976812 
1 1:-0.973477 2:-0.976812 
1 1:-0.973477 2:-0.976812 
1 1:-0.973477 2:-0.976812 
1 1:-0.973477 2:-0.976812 
1 1:-0.973477 2:-0.976812 
1 1:-0.973477 2:-0.976812 
1 1:-0.973477 2:-0.976812 
1 1:-0.973477 2:-0.976812 
1 1:-0.973477 2:-0.976812 
1 1:-0.973477 2:-0.976812 
1 1:-0.973477 2:-0.976812 
1 1:-0.973477 2:-0.976812 
1 1:-0.973477 2:-0.976812 
1 1:-0.973477 2:-0.976812 
1 1:-0.973477 2:-0.976812 
1 1:-0.973477 2:-0.976812 
1 1:-0.973477 2:-0.976812 
1 1:-0.973477 2:-0.976812 
1 1:-0.973477 2:-0.976812 
1 1:-0.973477 2:-0.976812 
1 1:-0.973477 2:-0.976812 
1 1:-0.973477 2:-0.976812 
1 1:-0.973477 2:-0.976812 
1 1:-0.973477 2:-0.976812 
1 1:-0.973477 2:-0.976812 
1 1:-0.973477 2:-0.976812 
1 1:-0.973477 2:-0.976812 
1 1:-0.973477 2:-0.976812 
1 1:-0.973477 2:-0.976812 
1 1:-0.973477 2:-0.976812 
1 1:-0.974521 2:-0.982436 
1 1:-0.974521 2:-0.982436 
1 1:-0.974521 2:-0.982436 
1 1:-0.974521 2:-0.982436 
1 1:-0.974521 2:-0.982436 
1 1:-0.974521 2:-0.982436 
1 1:-0.974521 2:-0.982436 
1 1:-0.974521 2:-0.982436 
1 1:-0.974521 2:-0.982436 
1 1:-0.974521 2:-0.982436 
1 1:-0.974521 2:-0.982436 
1 1:-0.974521 2:-0.982436 
1 1:-0.974521 2:-0.982436 
1 1:-0.974521 2:-0.982436 
1 1:-0.974521 2:-0.982436 
1 1:-0.974521 2:-0.982436 
1 1:-0.974521 2:-0.982436 
1 1:-0.974521 2:-0.982436 
1 1:-0.974521 2:-0.982436 
1 1:-0.974521 2:-0.982436 
1 1:-0.974521 2:-0.982436 
1 1:-0.974521 2:-0.982436 
1 1:-0.974521 2:-0.982436 
1 1:-0.974521 2:-0.982436 
1 1:-0.974521 2:-0.982436 
1 1:-0.974521 2:-0.982436 
1 1:-0.974521 2:-0.982436 
1 1:-0.974521 2:-0.982436 
1 1:-0.974521 2:-0.982436 
1 1:-0.974521 2:-0.982436 
1 1:-0.974521 2:-0.982436 
1 1:-0.974521 2:-0.982436 
1 1:-0.974521 2:-0.982436 
1 1:-0.974521 2:-0.982436 
1 1:-0.974521 2:-0.982436 
1 1:-0.974521 2:-0.982436 
1 1:-0.974521 2:-0.982436 
1 1:-0.974521 2:-0.982436 
1 1:-0.974521 2:-0.982436 
1 1:-0.974521 2:-0.982436 
1 1:-0.974521 2:-0.982436 
1 1:-0.974521 2:-0.982436 
1 1:-0.974521 2:-0.982436 
1 1:-0.974521 2:-0.982436 
1 1:-0.974521 2:-0.982436 
1 1:-0.974521 2:-0.982436 
1 1:-0.974521 2:-0.982436 
1 1:-0.974521 2:-0.982436 
1 1:-0.974521 2:-0.982436 
1 1:-0.974521 2:-0.982436 
1 1:-0.974521 2:-0.982436 
1 1:-0.974521 2:-0.982436 
1 1:-0.974521 2:-0.982436 
1 1:-0.974521 2:-0.982436 
1 1:-0.974521 2:-0.982436 
1 1:-0.974521 2:-0.982436 
1 1:-0.974521 2:-0.982436 
1 1:-0.974521 2:-0.982436 
1 1:-0.974521 2:-0.982436 
1 1:-0.974521 2:-0.982436 
1 1:-0.974521 2:-0.982436 
1 1:-0.974521 2:-0.982436 
1 1:-0.974521 2:-0.982436 
1 1:-0.974521 2:-0.982436 
1 1:-0.974521 2:-0.982436 
1 1:-0.974521 2:-0.982436 
1 1:-0.974521 2:-0.982436 
1 1:-0.974521 2:-0.982436 
1 1:-0.974521 2:-0.982436 
1 1:-0.974521 2:-0.982436 
1 1:-0.974521 2:-0.982436 
1 1:-0.974521 2:-0.982436 
1 1:-0.974521 2:-0.982436 
1 1:-0.974521 2:-0.982436 
1 1:-0.974521 2:-0.982436 
1 1:-0.974521 2:-0.982436 
1 1:-0.974521 2:-0.982436 
1 1:-0.974521 2:-0.982436 
1 1:-0.974521 2:-0.982436 
1 1:-0.974521 2:-0.982436 
1 1:-0.974521 2:-0.982436 
1 1:-0.974521 2:-0.982436 
1 1:-0.974521 2:-0.982436 
1 1:-0.974521 2:-0.982436 
1 1:-0.974521 2:-0.982436 
1 1:-0.974521 2:-0.982436 
1 1:-0.974521 2:-0.982436 
1 1:-0.974521 2:-0.982436 
1 1:-0.974521 2:-0.982436 
1 1:-0.974521 2:-0.982436 
1 1:-0.974521 2:-0.982436 
1 1:-0.974521 2:-0.982436 
1 1:-0.974521 2:-0.982436 
1 1:-0.974521 2:-0.982436 
1 1:-0.974521 2:-0.982436 
1 1:-0.974521 2:-0.982436 
1 1:-0.325978 2:-0.452049 
1 1:-0.316076 2:-0.085089 
1 1:-0.325978 2:-0.452049 
1 1:-0.316076 2:-0.085089 
1 1:-0.325978 2:-0.452049 
1 1:-0.316076 2:-0.085089 
1 1:-0.325978 2:-0.452049 
1 1:-0.316076 2:-0.085089 
1 1:-0.325978 2:-0.452049 
1 1:-0.316076 2:-0.085089 
1 1:-0.325978 2:-0.452049 
1 1:-0.316076 2:-0.085089 
1 1:-0.325978 2:-0.452049 
1 1:-0.316076 2:-0.085089 
1 1:-0.325978 2:-0.452049 
1 1:-0.316076 2:-0.085089 
1 1:-0.325978 2:-0.452049 
1 1:-0.316076 2:-0.085089 
1 1:-0.325978 2:-0.452049 
1 1:-0.316076 2:-0.085089 
1 1:-0.325978 2:-0.452049 
1 1:-0.316076 2:-0.085089 
1 1:-0.325978 2:-0.452049 
1 1:-0.316076 2:-0.085089 
1 1:-0.325978 2:-0.452049 
1 1:-0.316076 2:-0.085089 
1 1:-0.325978 2:-0.452049 
1 1:-0.316076 2:-0.085089 
1 1:-0.325978 2:-0.452049 
1 1:-0.316076 2:-0.085089 
1 1:-0.325978 2:-0.452049 
1 1:-0.316076 2:-0.085089 
1 1:-0.325978 2:-0.452049 
1 1:-0.316076 2:-0.085089 
1 1:-0.325978 2:-0.452049 
1 1:-0.316076 2:-0.085089 
1 1:-0.325978 2:-0.452049 
1 1:-0.316076 2:-0.085089 
1 1:-0.325978 2:-0.452049 
1 1:-0.316076 2:-0.085089 
1 1:-0.325978 2:-0.452049 
1 1:-0.316076 2:-0.085089 
1 1:-0.325978 2:-0.452049 
1 1:-0.316076 2:-0.085089 
1 1:-0.325978 2:-0.452049 
1 1:-0.316076 2:-0.085089 
1 1:-0.325978 2:-0.452049 
1 1:-0.316076 2:-0.085089 
1 1:-0.325978 2:-0.452049 
1 1:-0.316076 2:-0.085089 
1 1:-0.325978 2:-0.452049 
1 1:-0.316076 2:-0.085089 
1 1:-0.325978 2:-0.452049 
1 1:-0.316076 2:-0.085089 
1 1:-0.325978 2:-0.452049 
1 1:-0.316076 2:-0.085089 
1 1:-0.325978 2:-0.452049 
1 1:-0.316076 2:-0.085089 
1 1:-0.325978 2:-0.452049 
1 1:-0.316076 2:-0.085089 
1 1:-0.325978 2:-0.452049 
1 1:-0.316076 2:-0.085089 
1 1:-0.325978 2:-0.452049 
1 1:-0.316076 2:-0.085089 
1 1:-0.325978 2:-0.452049 
1 1:-0.316076 2:-0.085089 
1 1:-0.325978 2:-0.452049 
1 1:-0.316076 2:-0.085089 
1 1:-0.325978 2:-0.452049 
1 1:-0.316076 2:-0.085089 
1 1:-0.325978 2:-0.452049 
1 1:-0.316076 2:-0.085089 
1 1:-0.325978 2:-0.452049 
1 1:-0.316076 2:-0.085089 
1 1:-0.325978 2:-0.452049 
1 1:-0.316076 2:-0.085089 
1 1:-0.325978 2:-0.452049 
1 1:-0.316076 2:-0.085089 
1 1:-0.325978 2:-0.452049 
1 1:-0.316076 2:-0.085089 
1 1:-0.325978 2:-0.452049 
1 1:-0.316076 2:-0.085089 
1 1:-0.325978 2:-0.452049 
1 1:-0.316076 2:-0.085089 
1 1:-0.325978 2:-0.452049 
1 1:-0.316076 2:-0.085089 
1 1:-0.325978 2:-0.452049 
1 1:-0.316076 2:-0.085089 
1 1:-0.325978 2:-0.452049 
1 1:-0.316076 2:-0.085089 
1 1:-0.325978 2:-0.452049 
1 1:-0.316076 2:-0.085089 
1 1:-0.325978 2:-0.452049 
1 1:-0.316076 2:-0.085089 
1 1:-0.325978 2:-0.452049 
1 1:-0.316076 2:-0.085089 
1 1:-0.325978 2:-0.452049 
1 1:-0.316076 2:-0.085089 
1 1:-0.325978 2:-0.452049 
1 1:-0.316076 2:-0.085089 
1 1:-0.325978 2:-0.452049 
1 1:-0.316076 2:-0.085089 
1 1:-0.325978 2:-0.452049 
1 1:-0.316076 2:-0.085089 
1 1:-0.325978 2:-0.452049 
1 1:-0.316076 2:-0.085089 
1 1:-0.325978 2:-0.452049 
1 1:-0.316076 2:-0.085089 
1 1:-0.325978 2:-0.452049 
1 1:-0.316076 2:-0.085089 
1 1:-0.325978 2:-0.452049 
1 1:-0.316076 2:-0.085089 
1 1:-0.325978 2:-0.452049 
1 1:-0.316076 2:-0.085089 
1 1:-0.325978 2:-0.452049 
1 1:-0.316076 2:-0.085089 
1 1:-0.325978 2:-0.452049 
1 1:-0.316076 2:-0.085089 
1 1:-0.325978 2:-0.452049 
1 1:-0.316076 2:-0.085089 
1 1:-0.325978 2:-0.452049 
1 1:-0.316076 2:-0.085089 
1 1:-0.325978 2:-0.452049 
1 1:-0.316076 2:-0.085089 
1 1:-0.325978 2:-0.452049 
1 1:-0.316076 2:-0.085089 
1 1:-0.325978 2:-0.452049 
1 1:-0.316076 2:-0.085089 
1 1:-0.325978 2:-0.452049 
1 1:-0.316076 2:-0.085089 
1 1:-0.325978 2:-0.452049 
1 1:-0.316076 2:-0.085089 
1 1:-0.325978 2:-0.452049 
1 1:-0.316076 2:-0.085089 
1 1:-0.325978 2:-0.452049 
1 1:-0.316076 2:-0.085089 
1 1:-0.325978 2:-0.452049 
1 1:-0.316076 2:-0.085089 
1 1:-0.325978 2:-0.452049 
1 1:-0.316076 2:-0.085089 
1 1:-0.325978 2:-0.452049 
1 1:-0.316076 2:-0.085089 
1 1:-0.325978 2:-0.452049 
1 1:-0.316076 2:-0.085089 
1 1:-0.325978 2:-0.452049 
1 1:-0.316076 2:-0.085089 
1 1:-0.325978 2:-0.452049 
1 1:-0.316076 2:-0.085089 
1 1:-0.325978 2:-0.452049 
1 1:-0.316076 2:-0.085089 
1 1:-0.325978 2:-0.452049 
1 1:-0.316076 2:-0.085089 
1 1:-0.325978 2:-0.452049 
1 1:-0.316076 2:-0.085089 
1 1:-0.325978 2:-0.452049 
1 1:-0.316076 2:-0.085089 
1 1:-0.325978 2:-0.452049 
1 1:-0.316076 2:-0.085089 
1 1:-0.325978 2:-0.452049 
1 1:-0.316076 2:-0.085089 
1 1:-0.325978 2:-0.452049 
1 1:-0.316076 2:-0.085089 
1 1:-0.325978 2:-0.452049 
1 1:-0.316076 2:-0.085089 
1 1:-0.325978 2:-0.452049 
1 1:-0.316076 2:-0.085089 
1 1:-0.325978 2:-0.452049 
1 1:-0.316076 2:-0.085089 
1 1:-0.325978 2:-0.452049 
1 1:-0.316076 2:-0.085089 
1 1:-0.325978 2:-0.452049 
1 1:-0.316076 2:-0.085089 
1 1:-0.325978 2:-0.452049 
1 1:-0.316076 2:-0.085089 
1 1:-0.325978 2:-0.452049 
1 1:-0.316076 2:-0.085089 
1 1:-0.325978 2:-0.452049 
1 1:-0.316076 2:-0.085089 
1 1:-0.325978 2:-0.452049 
1 1:-0.316076 2:-0.085089 
1 1:-0.325978 2:-0.452049 
1 1:-0.316076 2:-0.085089 
1 1:-0.325978 2:-0.452049 
1 1:-0.316076 2:-0.085089 
1 1:-0.325978 2:-0.452049 
1 1:-0.316076 2:-0.085089 
1 1:-0.325978 2:-0.452049 
1 1:-0.316076 2:-0.085089 
1 1:-0.325978 2:-0.452049 
1 1:-0.316076 2:-0.085089 
1 1:-0.981646 2:-0.960401 
1 1:-0.981646 2:-0.960401 
1 1:-0.981646 2:-0.960401 
1 1:-0.981646 2:-0.960401 
1 1:-0.981646 2:-0.960401 
1 1:-0.981646 2:-0.960401 
1 1:-0.981646 2:-0.960401 
1 1:-0.981646 2:-0.960401 
1 1:-0.981646 2:-0.960401 
1 1:-0.981646 2:-0.960401 
1 1:-0.981646 2:-0.960401 
1 1:-0.981646 2:-0.960401 
1 1:-0.981646 2:-0.960401 
1 1:-0.981646 2:-0.960401 
1 1:-0.981646 2:-0.960401 
1 1:-0.981646 2:-0.960401 
1 1:-0.981646 2:-0.960401 
1 1:-0.981646 2:-0.960401 
1 1:-0.981646 2:-0.960401 
1 1:-0.981646 2:-0.960401 
1 1:-0.981646 2:-0.960401 
1 1:-0.981646 2:-0.960401 
1 1:-0.981646 2:-0.960401 
1 1:-0.981646 2:-0.960401 
1 1:-0.981646 2:-0.960401 
1 1:-0.981646 2:-0.960401 
1 1:-0.981646 2:-0.960401 
1 1:-0.981646 2:-0.960401 
1 1:-0.981646 2:-0.960401 
1 1:-0.981646 2:-0.960401 
1 1:-0.981646 2:-0.960401 
1 1:-0.981646 2:-0.960401 
1 1:-0.981646 2:-0.960401 
1 1:-0.981646 2:-0.960401 
1 1:-0.981646 2:-0.960401 
1 1:-0.981646 2:-0.960401 
1 1:-0.981646 2:-0.960401 
1 1:-0.981646 2:-0.960401 
1 1:-0.981646 2:-0.960401 
1 1:-0.981646 2:-0.960401 
1 1:-0.981646 2:-0.960401 
1 1:-0.981646 2:-0.960401 
1 1:-0.981646 2:-0.960401 
1 1:-0.981646 2:-0.960401 
1 1:-0.981646 2:-0.960401 
1 1:-0.981646 2:-0.960401 
1 1:-0.981646 2:-0.960401 
1 1:-0.981646 2:-0.960401 
1 1:-0.981646 2:-0.960401 
1 1:-0.981646 2:-0.960401 
1 1:-0.981646 2:-0.960401 
1 1:-0.981646 2:-0.960401 
1 1:-0.981646 2:-0.960401 
1 1:-0.981646 2:-0.960401 
1 1:-0.981646 2:-0.960401 
1 1:-0.981646 2:-0.960401 
1 1:-0.981646 2:-0.960401 
1 1:-0.981646 2:-0.960401 
1 1:-0.981646 2:-0.960401 
1 1:-0.981646 2:-0.960401 
1 1:-0.981646 2:-0.960401 
1 1:-0.981646 2:-0.960401 
1 1:-0.981646 2:-0.960401 
1 1:-0.981646 2:-0.960401 
1 1:-0.981646 2:-0.960401 
1 1:-0.981646 2:-0.960401 
1 1:-0.981646 2:-0.960401 
1 1:-0.981646 2:-0.960401 
1 1:-0.981646 2:-0.960401 
1 1:-0.981646 2:-0.960401 
1 1:-0.981646 2:-0.960401 
1 1:-0.981646 2:-0.960401 
1 1:-0.981646 2:-0.960401 
1 1:-0.981646 2:-0.960401 
1 1:-0.981646 2:-0.960401 
1 1:-0.981646 2:-0.960401 
1 1:-0.981646 2:-0.960401 
1 1:-0.981646 2:-0.960401 
1 1:-0.981646 2:-0.960401 
1 1:-0.981646 2:-0.960401 
1 1:-0.981646 2:-0.960401 
1 1:-0.981646 2:-0.960401 
1 1:-0.981646 2:-0.960401 
1 1:-0.981646 2:-0.960401 
1 1:-0.981646 2:-0.960401 
1 1:-0.981646 2:-0.960401 
1 1:-0.981646 2:-0.960401 
1 1:-0.981646 2:-0.960401 
1 1:-0.981646 2:-0.960401 
1 1:-0.981646 2:-0.960401 
1 1:-0.981646 2:-0.960401 
1 1:-0.981646 2:-0.960401 
1 1:-0.981646 2:-0.960401 
1 1:-0.981646 2:-0.960401 
1 1:-0.981646 2:-0.960401 
1 1:-0.972632 2:-0.969665 
1 1:-0.972632 2:-0.969665 
1 1:-0.972632 2:-0.969665 
1 1:-0.972632 2:-0.969665 
1 1:-0.972632 2:-0.969665 
1 1:-0.972632 2:-0.969665 
1 1:-0.972632 2:-0.969665 
1 1:-0.972632 2:-0.969665 
1 1:-0.972632 2:-0.969665 
1 1:-0.972632 2:-0.969665 
1 1:-0.972632 2:-0.969665 
1 1:-0.972632 2:-0.969665 
1 1:-0.972632 2:-0.969665 
1 1:-0.972632 2:-0.969665 
1 1:-0.972632 2:-0.969665 
1 1:-0.972632 2:-0.969665 
1 1:-0.972632 2:-0.969665 
1 1:-0.972632 2:-0.969665 
1 1:-0.972632 2:-0.969665 
1 1:-0.972632 2:-0.969665 
1 1:-0.972632 2:-0.969665 
1 1:-0.972632 2:-0.969665 
1 1:-0.972632 2:-0.969665 
1 1:-0.972632 2:-0.969665 
1 1:-0.972632 2:-0.969665 
1 1:-0.972632 2:-0.969665 
1 1:-0.972632 2:-0.969665 
1 1:-0.972632 2:-0.969665 
1 1:-0.972632 2:-0.969665 
1 1:-0.972632 2:-0.969665 
1 1:-0.972632 2:-0.969665 
1 1:-0.972632 2:-0.969665 
1 1:-0.972632 2:-0.969665 
1 1:-0.972632 2:-0.969665 
1 1:-0.972632 2:-0.969665 
1 1:-0.972632 2:-0.969665 
1 1:-0.972632 2:-0.969665 
1 1:-0.972632 2:-0.969665 
1 1:-0.972632 2:-0.969665 
1 1:-0.972632 2:-0.969665 
1 1:-0.972632 2:-0.969665 
1 1:-0.972632 2:-0.969665 
1 1:-0.972632 2:-0.969665 
1 1:-0.972632 2:-0.969665 
1 1:-0.972632 2:-0.969665 
1 1:-0.972632 2:-0.969665 
1 1:-0.972632 2:-0.969665 
1 1:-0.972632 2:-0.969665 
1 1:-0.972632 2:-0.969665 
1 1:-0.972632 2:-0.969665 
1 1:-0.972632 2:-0.969665 
1 1:-0.972632 2:-0.969665 
1 1:-0.972632 2:-0.969665 
1 1:-0.972632 2:-0.969665 
1 1:-0.972632 2:-0.969665 
1 1:-0.972632 2:-0.969665 
1 1:-0.972632 2:-0.969665 
1 1:-0.972632 2:-0.969665 
1 1:-0.972632 2:-0.969665 
1 1:-0.972632 2:-0.969665 
1 1:-0.972632 2:-0.969665 
1 1:-0.972632 2:-0.969665 
1 1:-0.972632 2:-0.969665 
1 1:-0.972632 2:-0.969665 
1 1:-0.972632 2:-0.969665 
1 1:-0.972632 2:-0.969665 
1 1:-0.972632 2:-0.969665 
1 1:-0.972632 2:-0.969665 
1 1:-0.972632 2:-0.969665 
1 1:-0.972632 2:-0.969665 
1 1:-0.972632 2:-0.969665 
1 1:-0.972632 2:-0.969665 
1 1:-0.972632 2:-0.969665 
1 1:-0.972632 2:-0.969665 
1 1:-0.972632 2:-0.969665 
1 1:-0.972632 2:-0.969665 
1 1:-0.972632 2:-0.969665 
1 1:-0.972632 2:-0.969665 
1 1:-0.972632 2:-0.969665 
1 1:-0.972632 2:-0.969665 
1 1:-0.972632 2:-0.969665 
1 1:-0.972632 2:-0.969665 
1 1:-0.972632 2:-0.969665 
1 1:-0.972632 2:-0.969665 
1 1:-0.972632 2:-0.969665 
1 1:-0.972632 2:-0.969665 
1 1:-0.972632 2:-0.969665 
1 1:-0.972632 2:-0.969665 
1 1:-0.972632 2:-0.969665 
1 1:-0.972632 2:-0.969665 
1 1:-0.972632 2:-0.969665 
1 1:-0.972632 2:-0.969665 
1 1:-0.972632 2:-0.969665 
1 1:-0.972632 2:-0.969665 
1 1:-0.972632 2:-0.969665 
1 1:-0.922253 2:0.236501 
1 1:-0.913571 2:0.490864 
1 1:-0.918586 2:0.211762 
1 1:-0.922253 2:0.236501 
1 1:-0.913571 2:0.490864 
1 1:-0.918586 2:0.211762 
1 1:-0.922253 2:0.236501 
1 1:-0.913571 2:0.490864 
1 1:-0.918586 2:0.211762 
1 1:-0.922253 2:0.236501 
1 1:-0.913571 2:0.490864 
1 1:-0.918586 2:0.211762 
1 1:-0.922253 2:0.236501 
1 1:-0.913571 2:0.490864 
1 1:-0.918586 2:0.211762 
1 1:-0.922253 2:0.236501 
1 1:-0.913571 2:0.490864 
1 1:-0.918586 2:0.211762 
1 1:-0.922253 2:0.236501 
1 1:-0.913571 2:0.490864 
1 1:-0.918586 2:0.211762 
1 1:-0.922253 2:0.236501 
1 1:-0.913571 2:0.490864 
1 1:-0.918586 2:0.211762 
1 1:-0.922253 2:0.236501 
1 1:-0.913571 2:0.490864 
1 1:-0.918586 2:0.211762 
1 1:-0.922253 2:0.236501 
1 1:-0.913571 2:0.490864 
1 1:-0.918586 2:0.211762 
1 1:-0.922253 2:0.236501 
1 1:-0.913571 2:0.490864 
1 1:-0.918586 2:0.211762 
1 1:-0.922253 2:0.236501 
1 1:-0.913571 2:0.490864 
1 1:-0.918586 2:0.211762 
1 1:-0.922253 2:0.236501 
1 1:-0.913571 2:0.490864 
1 1:-0.918586 2:0.211762 
1 1:-0.922253 2:0.236501 
1 1:-0.913571 2:0.490864 
1 1:-0.918586 2:0.211762 
1 1:-0.922253 2:0.236501 
1 1:-0.913571 2:0.490864 
1 1:-0.918586 2:0.211762 
1 1:-0.922253 2:0.236501 
1 1:-0.913571 2:0.490864 
1 1:-0.918586 2:0.211762 
1 1:-0.922253 2:0.236501 
1 1:-0.913571 2:0.490864 
1 1:-0.918586 2:0.211762 
1 1:-0.922253 2:0.236501 
1 1:-0.913571 2:0.490864 
1 1:-0.918586 2:0.211762 
1 1:-0.922253 2:0.236501 
1 1:-0.913571 2:0.490864 
1 1:-0.918586 2:0.211762 
1 1:-0.922253 2:0.236501 
1 1:-0.913571 2:0.490864 
1 1:-0.918586 2:0.211762 
1 1:-0.922253 2:0.236501 
1 1:-0.913571 2:0.490864 
1 1:-0.918586 2:0.211762 
1 1:-0.922253 2:0.236501 
1 1:-0.913571 2:0.490864 
1 1:-0.918586 2:0.211762 
1 1:-0.922253 2:0.236501 
1 1:-0.913571 2:0.490864 
1 1:-0.918586 2:0.211762 
1 1:-0.922253 2:0.236501 
1 1:-0.913571 2:0.490864 
1 1:-0.918586 2:0.211762 
1 1:-0.922253 2:0.236501 
1 1:-0.913571 2:0.490864 
1 1:-0.918586 2:0.211762 
1 1:-0.922253 2:0.236501 
1 1:-0.913571 2:0.490864 
1 1:-0.918586 2:0.211762 
1 1:-0.922253 2:0.236501 
1 1:-0.913571 2:0.490864 
1 1:-0.918586 2:0.211762 
1 1:-0.922253 2:0.236501 
1 1:-0.913571 2:0.490864 
1 1:-0.918586 2:0.211762 
1 1:-0.922253 2:0.236501 
1 1:-0.913571 2:0.490864 
1 1:-0.918586 2:0.211762 
1 1:-0.922253 2:0.236501 
1 1:-0.913571 2:0.490864 
1 1:-0.918586 2:0.211762 
1 1:-0.922253 2:0.236501 
1 1:-0.913571 2:0.490864 
1 1:-0.918586 2:0.211762 
1 1:-0.922253 2:0.236501 
1 1:-0.913571 2:0.490864 
1 1:-0.918586 2:0.211762 
1 1:-0.922253 2:0.236501 
1 1:-0.913571 2:0.490864 
1 1:-0.918586 2:0.211762 
1 1:-0.922253 2:0.236501 
1 1:-0.913571 2:0.490864 
1 1:-0.918586 2:0.211762 
1 1:-0.922253 2:0.236501 
1 1:-0.913571 2:0.490864 
1 1:-0.918586 2:0.211762 
1 1:-0.922253 2:0.236501 
1 1:-0.913571 2:0.490864 
1 1:-0.918586 2:0.211762 
1 1:-0.922253 2:0.236501 
1 1:-0.913571 2:0.490864 
1 1:-0.918586 2:0.211762 
1 1:-0.922253 2:0.236501 
1 1:-0.913571 2:0.490864 
1 1:-0.918586 2:0.211762 
1 1:-0.922253 2:0.236501 
1 1:-0.913571 2:0.490864 
1 1:-0.918586 2:0.211762 
1 1:-0.922253 2:0.236501 
1 1:-0.913571 2:0.490864 
1 1:-0.918586 2:0.211762 
1 1:-0.922253 2:0.236501 
1 1:-0.913571 2:0.490864 
1 1:-0.918586 2:0.211762 
1 1:-0.922253 2:0.236501 
1 1:-0.913571 2:0.490864 
1 1:-0.918586 2:0.211762 
1 1:-0.922253 2:0.236501 
1 1:-0.913571 2:0.490864 
1 1:-0.918586 2:0.211762 
1 1:-0.922253 2:0.236501 
1 1:-0.913571 2:0.490864 
1 1:-0.918586 2:0.211762 
1 1:-0.922253 2:0.236501 
1 1:-0.913571 2:0.490864 
1 1:-0.918586 2:0.211762 
1 1:-0.922253 2:0.236501 
1 1:-0.913571 2:0.490864 
1 1:-0.918586 2:0.211762 
1 1:-0.922253 2:0.236501 
1 1:-0.913571 2:0.490864 
1 1:-0.918586 2:0.211762 
1 1:-0.922253 2:0.236501 
1 1:-0.913571 2:0.490864 
1 1:-0.918586 2:0.211762 
1 1:-0.922253 2:0.236501 
1 1:-0.913571 2:0.490864 
1 1:-0.918586 2:0.211762 
1 1:-0.922253 2:0.236501 
1 1:-0.913571 2:0.490864 
1 1:-0.918586 2:0.211762 
1 1:-0.922253 2:0.236501 
1 1:-0.913571 2:0.490864 
1 1:-0.918586 2:0.211762 
1 1:-0.922253 2:0.236501 
1 1:-0.913571 2:0.490864 
1 1:-0.918586 2:0.211762 
1 1:-0.922253 2:0.236501 
1 1:-0.913571 2:0.490864 
1 1:-0.918586 2:0.211762 
1 1:-0.922253 2:0.236501 
1 1:-0.913571 2:0.490864 
1 1:-0.918586 2:0.211762 
1 1:-0.922253 2:0.236501 
1 1:-0.913571 2:0.490864 
1 1:-0.918586 2:0.211762 
1 1:-0.922253 2:0.236501 
1 1:-0.913571 2:0.490864 
1 1:-0.918586 2:0.211762 
1 1:-0.922253 2:0.236501 
1 1:-0.913571 2:0.490864 
1 1:-0.918586 2:0.211762 
1 1:-0.922253 2:0.236501 
1 1:-0.913571 2:0.490864 
1 1:-0.918586 2:0.211762 
1 1:-0.922253 2:0.236501 
1 1:-0.913571 2:0.490864 
1 1:-0.918586 2:0.211762 
1 1:-0.922253 2:0.236501 
1 1:-0.913571 2:0.490864 
1 1:-0.918586 2:0.211762 
1 1:-0.922253 2:0.236501 
1 1:-0.913571 2:0.490864 
1 1:-0.918586 2:0.211762 
1 1:-0.922253 2:0.236501 
1 1:-0.913571 2:0.490864 
1 1:-0.918586 2:0.211762 
1 1:-0.922253 2:0.236501 
1 1:-0.913571 2:0.490864 
1 1:-0.918586 2:0.211762 
1 1:-0.922253 2:0.236501 
1 1:-0.913571 2:0.490864 
1 1:-0.918586 2:0.211762 
1 1:-0.922253 2:0.236501 
1 1:-0.913571 2:0.490864 
1 1:-0.918586 2:0.211762 
1 1:-0.922253 2:0.236501 
1 1:-0.913571 2:0.490864 
1 1:-0.918586 2:0.211762 
1 1:-0.922253 2:0.236501 
1 1:-0.913571 2:0.490864 
1 1:-0.918586 2:0.211762 
1 1:-0.922253 2:0.236501 
1 1:-0.913571 2:0.490864 
1 1:-0.918586 2:0.211762 
1 1:-0.922253 2:0.236501 
1 1:-0.913571 2:0.490864 
1 1:-0.918586 2:0.211762 
1 1:-0.922253 2:0.236501 
1 1:-0.913571 2:0.490864 
1 1:-0.918586 2:0.211762 
1 1:-0.922253 2:0.236501 
1 1:-0.913571 2:0.490864 
1 1:-0.918586 2:0.211762 
1 1:-0.922253 2:0.236501 
1 1:-0.913571 2:0.490864 
1 1:-0.918586 2:0.211762 
1 1:-0.922253 2:0.236501 
1 1:-0.913571 2:0.490864 
1 1:-0.918586 2:0.211762 
1 1:-0.922253 2:0.236501 
1 1:-0.913571 2:0.490864 
1 1:-0.918586 2:0.211762 
1 1:-0.922253 2:0.236501 
1 1:-0.913571 2:0.490864 
1 1:-0.918586 2:0.211762 
1 1:-0.922253 2:0.236501 
1 1:-0.913571 2:0.490864 
1 1:-0.918586 2:0.211762 
1 1:-0.922253 2:0.236501 
1 1:-0.913571 2:0.490864 
1 1:-0.918586 2:0.211762 
1 1:-0.922253 2:0.236501 
1 1:-0.913571 2:0.490864 
1 1:-0.918586 2:0.211762 
1 1:-0.922253 2:0.236501 
1 1:-0.913571 2:0.490864 
1 1:-0.918586 2:0.211762 
1 1:-0.922253 2:0.236501 
1 1:-0.913571 2:0.490864 
1 1:-0.918586 2:0.211762 
1 1:-0.922253 2:0.236501 
1 1:-0.913571 2:0.490864 
1 1:-0.918586 2:0.211762 
1 1:-0.922253 2:0.236501 
1 1:-0.913571 2:0.490864 
1 1:-0.918586 2:0.211762 
1 1:-0.922253 2:0.236501 
1 1:-0.913571 2:0.490864 
1 1:-0.918586 2:0.211762 
1 1:-0.922253 2:0.236501 
1 1:-0.913571 2:0.490864 
1 1:-0.918586 2:0.211762 
1 1:-0.922253 2:0.236501 
1 1:-0.913571 2:0.490864 
1 1:-0.918586 2:0.211762 
1 1:-0.922253 2:0.236501 
1 1:-0.913571 2:0.490864 
1 1:-0.918586 2:0.211762 
1 1:-0.922253 2:0.236501 
1 1:-0.913571 2:0.490864 
1 1:-0.918586 2:0.211762 
1 1:-0.922253 2:0.236501 
1 1:-0.913571 2:0.490864 
1 1:-0.918586 2:0.211762 
1 1:-0.922253 2:0.236501 
1 1:-0.913571 2:0.490864 
1 1:-0.918586 2:0.211762 
1 1:-0.922253 2:0.236501 
1 1:-0.913571 2:0.490864 
1 1:-0.918586 2:0.211762 
1 1:-0.922253 2:0.236501 
1 1:-0.913571 2:0.490864 
1 1:-0.918586 2:0.211762 
1 1:-0.922253 2:0.236501 
1 1:-0.913571 2:0.490864 
1 1:-0.918586 2:0.211762 
1 1:-0.922253 2:0.236501 
1 1:-0.913571 2:0.490864 
1 1:-0.918586 2:0.211762 
1 1:-0.922253 2:0.236501 
1 1:-0.913571 2:0.490864 
1 1:-0.918586 2:0.211762 
1 1:-0.922253 2:0.236501 
1 1:-0.913571 2:0.490864 
1 1:-0.918586 2:0.211762 
1 1:-0.802156 2:0.235343 
1 1:-0.992484 2:-0.96082 
1 1:-0.949654 2:0.330711 
1 1:-0.802156 2:0.235343 
1 1:-0.992484 2:-0.96082 
1 1:-0.949654 2:0.330711 
1 1:-0.802156 2:0.235343 
1 1:-0.992484 2:-0.96082 
1 1:-0.949654 2:0.330711 
1 1:-0.802156 2:0.235343 
1 1:-0.992484 2:-0.96082 
1 1:-0.949654 2:0.330711 
1 1:-0.802156 2:0.235343 
1 1:-0.992484 2:-0.96082 
1 1:-0.949654 2:0.330711 
1 1:-0.802156 2:0.235343 
1 1:-0.992484 2:-0.96082 
1 1:-0.949654 2:0.330711 
1 1:-0.802156 2:0.235343 
1 1:-0.992484 2:-0.96082 
1 1:-0.949654 2:0.330711 
1 1:-0.802156 2:0.235343 
1 1:-0.992484 2:-0.96082 
1 1:-0.949654 2:0.330711 
1 1:-0.802156 2:0.235343 
1 1:-0.992484 2:-0.96082 
1 1:-0.949654 2:0.330711 
1 1:-0.802156 2:0.235343 
1 1:-0.992484 2:-0.96082 
1 1:-0.949654 2:0.330711 
1 1:-0.802156 2:0.235343 
1 1:-0.992484 2:-0.96082 
1 1:-0.949654 2:0.330711 
1 1:-0.802156 2:0.235343 
1 1:-0.992484 2:-0.96082 
1 1:-0.949654 2:0.330711 
1 1:-0.802156 2:0.235343 
1 1:-0.992484 2:-0.96082 
1 1:-0.949654 2:0.330711 
1 1:-0.802156 2:0.235343 
1 1:-0.992484 2:-0.96082 
1 1:-0.949654 2:0.330711 
1 1:-0.802156 2:0.235343 
1 1:-0.992484 2:-0.96082 
1 1:-0.949654 2:0.330711 
1 1:-0.802156 2:0.235343 
1 1:-0.992484 2:-0.96082 
1 1:-0.949654 2:0.330711 
1 1:-0.802156 2:0.235343 
1 1:-0.992484 2:-0.96082 
1 1:-0.949654 2:0.330711 
1 1:-0.802156 2:0.235343 
1 1:-0.992484 2:-0.96082 
1 1:-0.949654 2:0.330711 
1 1:-0.802156 2:0.235343 
1 1:-0.992484 2:-0.96082 
1 1:-0.949654 2:0.330711 
1 1:-0.802156 2:0.235343 
1 1:-0.992484 2:-0.96082 
1 1:-0.949654 2:0.330711 
1 1:-0.802156 2:0.235343 
1 1:-0.992484 2:-0.96082 
1 1:-0.949654 2:0.330711 
1 1:-0.802156 2:0.235343 
1 1:-0.992484 2:-0.96082 
1 1:-0.949654 2:0.330711 
1 1:-0.802156 2:0.235343 
1 1:-0.992484 2:-0.96082 
1 1:-0.949654 2:0.330711 
1 1:-0.802156 2:0.235343 
1 1:-0.992484 2:-0.96082 
1 1:-0.949654 2:0.330711 
1 1:-0.802156 2:0.235343 
1 1:-0.992484 2:-0.96082 
1 1:-0.949654 2:0.330711 
1 1:-0.802156 2:0.235343 
1 1:-0.992484 2:-0.96082 
1 1:-0.949654 2:0.330711 
1 1:-0.802156 2:0.235343 
1 1:-0.992484 2:-0.96082 
1 1:-0.949654 2:0.330711 
1 1:-0.802156 2:0.235343 
1 1:-0.992484 2:-0.96082 
1 1:-0.949654 2:0.330711 
1 1:-0.802156 2:0.235343 
1 1:-0.992484 2:-0.96082 
1 1:-0.949654 2:0.330711 
1 1:-0.802156 2:0.235343 
1 1:-0.992484 2:-0.96082 
1 1:-0.949654 2:0.330711 
1 1:-0.802156 2:0.235343 
1 1:-0.992484 2:-0.96082 
1 1:-0.949654 2:0.330711 
1 1:-0.802156 2:0.235343 
1 1:-0.992484 2:-0.96082 
1 1:-0.949654 2:0.330711 
1 1:-0.802156 2:0.235343 
1 1:-0.992484 2:-0.96082 
1 1:-0.949654 2:0.330711 
1 1:-0.802156 2:0.235343 
1 1:-0.992484 2:-0.96082 
1 1:-0.949654 2:0.330711 
1 1:-0.802156 2:0.235343 
1 1:-0.992484 2:-0.96082 
1 1:-0.949654 2:0.330711 
1 1:-0.802156 2:0.235343 
1 1:-0.992484 2:-0.96082 
1 1:-0.949654 2:0.330711 
1 1:-0.802156 2:0.235343 
1 1:-0.992484 2:-0.96082 
1 1:-0.949654 2:0.330711 
1 1:-0.802156 2:0.235343 
1 1:-0.992484 2:-0.96082 
1 1:-0.949654 2:0.330711 
1 1:-0.802156 2:0.235343 
1 1:-0.992484 2:-0.96082 
1 1:-0.949654 2:0.330711 
1 1:-0.802156 2:0.235343 
1 1:-0.992484 2:-0.96082 
1 1:-0.949654 2:0.330711 
1 1:-0.802156 2:0.235343 
1 1:-0.992484 2:-0.96082 
1 1:-0.949654 2:0.330711 
1 1:-0.802156 2:0.235343 
1 1:-0.992484 2:-0.96082 
1 1:-0.949654 2:0.330711 
1 1:-0.802156 2:0.235343 
1 1:-0.992484 2:-0.96082 
1 1:-0.949654 2:0.330711 
1 1:-0.802156 2:0.235343 
1 1:-0.992484 2:-0.96082 
1 1:-0.949654 2:0.330711 
1 1:-0.802156 2:0.235343 
1 1:-0.992484 2:-0.96082 
1 1:-0.949654 2:0.330711 
1 1:-0.802156 2:0.235343 
1 1:-0.992484 2:-0.96082 
1 1:-0.949654 2:0.330711 
1 1:-0.802156 2:0.235343 
1 1:-0.992484 2:-0.96082 
1 1:-0.949654 2:0.330711 
1 1:-0.802156 2:0.235343 
1 1:-0.992484 2:-0.96082 
1 1:-0.949654 2:0.330711 
1 1:-0.802156 2:0.235343 
1 1:-0.992484 2:-0.96082 
1 1:-0.949654 2:0.330711 
1 1:-0.802156 2:0.235343 
1 1:-0.992484 2:-0.96082 
1 1:-0.949654 2:0.330711 
1 1:-0.802156 2:0.235343 
1 1:-0.992484 2:-0.96082 
1 1:-0.949654 2:0.330711 
1 1:-0.802156 2:0.235343 
1 1:-0.992484 2:-0.96082 
1 1:-0.949654 2:0.330711 
1 1:-0.802156 2:0.235343 
1 1:-0.992484 2:-0.96082 
1 1:-0.949654 2:0.330711 
1 1:-0.802156 2:0.235343 
1 1:-0.992484 2:-0.96082 
1 1:-0.949654 2:0.330711 
1 1:-0.802156 2:0.235343 
1 1:-0.992484 2:-0.96082 
1 1:-0.949654 2:0.330711 
1 1:-0.802156 2:0.235343 
1 1:-0.992484 2:-0.96082 
1 1:-0.949654 2:0.330711 
1 1:-0.802156 2:0.235343 
1 1:-0.992484 2:-0.96082 
1 1:-0.949654 2:0.330711 
1 1:-0.802156 2:0.235343 
1 1:-0.992484 2:-0.96082 
1 1:-0.949654 2:0.330711 
1 1:-0.802156 2:0.235343 
1 1:-0.992484 2:-0.96082 
1 1:-0.949654 2:0.330711 
1 1:-0.802156 2:0.235343 
1 1:-0.992484 2:-0.96082 
1 1:-0.949654 2:0.330711 
1 1:-0.802156 2:0.235343 
1 1:-0.992484 2:-0.96082 
1 1:-0.949654 2:0.330711 
1 1:-0.802156 2:0.235343 
1 1:-0.992484 2:-0.96082 
1 1:-0.949654 2:0.330711 
1 1:-0.802156 2:0.235343 
1 1:-0.992484 2:-0.96082 
1 1:-0.949654 2:0.330711 
1 1:-0.802156 2:0.235343 
1 1:-0.992484 2:-0.96082 
1 1:-0.949654 2:0.330711 
1 1:-0.802156 2:0.235343 
1 1:-0.992484 2:-0.96082 
1 1:-0.949654 2:0.330711 
1 1:-0.802156 2:0.235343 
1 1:-0.992484 2:-0.96082 
1 1:-0.949654 2:0.330711 
1 1:-0.802156 2:0.235343 
1 1:-0.992484 2:-0.96082 
1 1:-0.949654 2:0.330711 
1 1:-0.802156 2:0.235343 
1 1:-0.992484 2:-0.96082 
1 1:-0.949654 2:0.330711 
1 1:-0.802156 2:0.235343 
1 1:-0.992484 2:-0.96082 
1 1:-0.949654 2:0.330711 
1 1:-0.802156 2:0.235343 
1 1:-0.992484 2:-0.96082 
1 1:-0.949654 2:0.330711 
1 1:-0.802156 2:0.235343 
1 1:-0.992484 2:-0.96082 
1 1:-0.949654 2:0.330711 
1 1:-0.802156 2:0.235343 
1 1:-0.992484 2:-0.96082 
1 1:-0.949654 2:0.330711 
1 1:-0.802156 2:0.235343 
1 1:-0.992484 2:-0.96082 
1 1:-0.949654 2:0.330711 
1 1:-0.802156 2:0.235343 
1 1:-0.992484 2:-0.96082 
1 1:-0.949654 2:0.330711 
1 1:-0.802156 2:0.235343 
1 1:-0.992484 2:-0.96082 
1 1:-0.949654 2:0.330711 
1 1:-0.802156 2:0.235343 
1 1:-0.992484 2:-0.96082 
1 1:-0.949654 2:0.330711 
1 1:-0.802156 2:0.235343 
1 1:-0.992484 2:-0.96082 
1 1:-0.949654 2:0.330711 
1 1:-0.802156 2:0.235343 
1 1:-0.992484 2:-0.96082 
1 1:-0.949654 2:0.330711 
1 1:-0.802156 2:0.235343 
1 1:-0.992484 2:-0.96082 
1 1:-0.949654 2:0.330711 
1 1:-0.802156 2:0.235343 
1 1:-0.992484 2:-0.96082 
1 1:-0.949654 2:0.330711 
1 1:-0.802156 2:0.235343 
1 1:-0.992484 2:-0.96082 
1 1:-0.949654 2:0.330711 
1 1:-0.802156 2:0.235343 
1 1:-0.992484 2:-0.96082 
1 1:-0.949654 2:0.330711 
1 1:-0.802156 2:0.235343 
1 1:-0.992484 2:-0.96082 
1 1:-0.949654 2:0.330711 
1 1:-0.802156 2:0.235343 
1 1:-0.992484 2:-0.96082 
1 1:-0.949654 2:0.330711 
1 1:-0.802156 2:0.235343 
1 1:-0.992484 2:-0.96082 
1 1:-0.949654 2:0.330711 
1 1:-0.802156 2:0.235343 
1 1:-0.992484 2:-0.96082 
1 1:-0.949654 2:0.330711 
1 1:-0.802156 2:0.235343 
1 1:-0.992484 2:-0.96082 
1 1:-0.949654 2:0.330711 
1 1:-0.802156 2:0.235343 
1 1:-0.992484 2:-0.96082 
1 1:-0.949654 2:0.330711 
1 1:-0.802156 2:0.235343 
1 1:-0.992484 2:-0.96082 
1 1:-0.949654 2:0.330711 
1 1:-0.802156 2:0.235343 
1 1:-0.992484 2:-0.96082 
1 1:-0.949654 2:0.330711 
1 1:-0.802156 2:0.235343 
1 1:-0.992484 2:-0.96082 
1 1:-0.949654 2:0.330711 
1 1:-0.802156 2:0.235343 
1 1:-0.992484 2:-0.96082 
1 1:-0.949654 2:0.330711 
1 1:-0.802156 2:0.235343 
1 1:-0.992484 2:-0.96082 
1 1:-0.949654 2:0.330711 
1 1:-0.802156 2:0.235343 
1 1:-0.992484 2:-0.96082 
1 1:-0.949654 2:0.330711 
1 1:-0.802156 2:0.235343 
1 1:-0.992484 2:-0.96082 
1 1:-0.949654 2:0.330711 
1 1:-0.806225 2:0.523164 
1 1:-0.991855 2:-0.962668 
1 1:-0.806225 2:0.523164 
1 1:-0.991855 2:-0.962668 
1 1:-0.806225 2:0.523164 
1 1:-0.991855 2:-0.962668 
1 1:-0.806225 2:0.523164 
1 1:-0.991855 2:-0.962668 
1 1:-0.806225 2:0.523164 
1 1:-0.991855 2:-0.962668 
1 1:-0.806225 2:0.523164 
1 1:-0.991855 2:-0.962668 
1 1:-0.806225 2:0.523164 
1 1:-0.991855 2:-0.962668 
1 1:-0.806225 2:0.523164 
1 1:-0.991855 2:-0.962668 
1 1:-0.806225 2:0.523164 
1 1:-0.991855 2:-0.962668 
1 1:-0.806225 2:0.523164 
1 1:-0.991855 2:-0.962668 
1 1:-0.806225 2:0.523164 
1 1:-0.991855 2:-0.962668 
1 1:-0.806225 2:0.523164 
1 1:-0.991855 2:-0.962668 
1 1:-0.806225 2:0.523164 
1 1:-0.991855 2:-0.962668 
1 1:-0.806225 2:0.523164 
1 1:-0.991855 2:-0.962668 
1 1:-0.806225 2:0.523164 
1 1:-0.991855 2:-0.962668 
1 1:-0.806225 2:0.523164 
1 1:-0.991855 2:-0.962668 
1 1:-0.806225 2:0.523164 
1 1:-0.991855 2:-0.962668 
1 1:-0.806225 2:0.523164 
1 1:-0.991855 2:-0.962668 
1 1:-0.806225 2:0.523164 
1 1:-0.991855 2:-0.962668 
1 1:-0.806225 2:0.523164 
1 1:-0.991855 2:-0.962668 
1 1:-0.806225 2:0.523164 
1 1:-0.991855 2:-0.962668 
1 1:-0.806225 2:0.523164 
1 1:-0.991855 2:-0.962668 
1 1:-0.806225 2:0.523164 
1 1:-0.991855 2:-0.962668 
1 1:-0.806225 2:0.523164 
1 1:-0.991855 2:-0.962668 
1 1:-0.806225 2:0.523164 
1 1:-0.991855 2:-0.962668 
1 1:-0.806225 2:0.523164 
1 1:-0.991855 2:-0.962668 
1 1:-0.806225 2:0.523164 
1 1:-0.991855 2:-0.962668 
1 1:-0.806225 2:0.523164 
1 1:-0.991855 2:-0.962668 
1 1:-0.806225 2:0.523164 
1 1:-0.991855 2:-0.962668 
1 1:-0.806225 2:0.523164 
1 1:-0.991855 2:-0.962668 
1 1:-0.806225 2:0.523164 
1 1:-0.991855 2:-0.962668 
1 1:-0.806225 2:0.523164 
1 1:-0.991855 2:-0.962668 
1 1:-0.806225 2:0.523164 
1 1:-0.991855 2:-0.962668 
1 1:-0.806225 2:0.523164 
1 1:-0.991855 2:-0.962668 
1 1:-0.806225 2:0.523164 
1 1:-0.991855 2:-0.962668 
1 1:-0.806225 2:0.523164 
1 1:-0.991855 2:-0.962668 
1 1:-0.806225 2:0.523164 
1 1:-0.991855 2:-0.962668 
1 1:-0.806225 2:0.523164 
1 1:-0.991855 2:-0.962668 
1 1:-0.806225 2:0.523164 
1 1:-0.991855 2:-0.962668 
1 1:-0.806225 2:0.523164 
1 1:-0.991855 2:-0.962668 
1 1:-0.806225 2:0.523164 
1 1:-0.991855 2:-0.962668 
1 1:-0.806225 2:0.523164 
1 1:-0.991855 2:-0.962668 
1 1:-0.806225 2:0.523164 
1 1:-0.991855 2:-0.962668 
1 1:-0.806225 2:0.523164 
1 1:-0.991855 2:-0.962668 
1 1:-0.806225 2:0.523164 
1 1:-0.991855 2:-0.962668 
1 1:-0.806225 2:0.523164 
1 1:-0.991855 2:-0.962668 
1 1:-0.806225 2:0.523164 
1 1:-0.991855 2:-0.962668 
1 1:-0.806225 2:0.523164 
1 1:-0.991855 2:-0.962668 
1 1:-0.806225 2:0.523164 
1 1:-0.991855 2:-0.962668 
1 1:-0.806225 2:0.523164 
1 1:-0.991855 2:-0.962668 
1 1:-0.806225 2:0.523164 
1 1:-0.991855 2:-0.962668 
1 1:-0.806225 2:0.523164 
1 1:-0.991855 2:-0.962668 
1 1:-0.806225 2:0.523164 
1 1:-0.991855 2:-0.962668 
1 1:-0.806225 2:0.523164 
1 1:-0.991855 2:-0.962668 
1 1:-0.806225 2:0.523164 
1 1:-0.991855 2:-0.962668 
1 1:-0.806225 2:0.523164 
1 1:-0.991855 2:-0.962668 
1 1:-0.806225 2:0.523164 
1 1:-0.991855 2:-0.962668 
1 1:-0.806225 2:0.523164 
1 1:-0.991855 2:-0.962668 
1 1:-0.806225 2:0.523164 
1 1:-0.991855 2:-0.962668 
1 1:-0.806225 2:0.523164 
1 1:-0.991855 2:-0.962668 
1 1:-0.806225 2:0.523164 
1 1:-0.991855 2:-0.962668 
1 1:-0.806225 2:0.523164 
1 1:-0.991855 2:-0.962668 
1 1:-0.806225 2:0.523164 
1 1:-0.991855 2:-0.962668 
1 1:-0.806225 2:0.523164 
1 1:-0.991855 2:-0.962668 
1 1:-0.806225 2:0.523164 
1 1:-0.991855 2:-0.962668 
1 1:-0.806225 2:0.523164 
1 1:-0.991855 2:-0.962668 
1 1:-0.806225 2:0.523164 
1 1:-0.991855 2:-0.962668 
1 1:-0.806225 2:0.523164 
1 1:-0.991855 2:-0.962668 
1 1:-0.806225 2:0.523164 
1 1:-0.991855 2:-0.962668 
1 1:-0.806225 2:0.523164 
1 1:-0.991855 2:-0.962668 
1 1:-0.806225 2:0.523164 
1 1:-0.991855 2:-0.962668 
1 1:-0.806225 2:0.523164 
1 1:-0.991855 2:-0.962668 
1 1:-0.806225 2:0.523164 
1 1:-0.991855 2:-0.962668 
1 1:-0.806225 2:0.523164 
1 1:-0.991855 2:-0.962668 
1 1:-0.806225 2:0.523164 
1 1:-0.991855 2:-0.962668 
1 1:-0.806225 2:0.523164 
1 1:-0.991855 2:-0.962668 
1 1:-0.806225 2:0.523164 
1 1:-0.991855 2:-0.962668 
1 1:-0.806225 2:0.523164 
1 1:-0.991855 2:-0.962668 
1 1:-0.806225 2:0.523164 
1 1:-0.991855 2:-0.962668 
1 1:-0.806225 2:0.523164 
1 1:-0.991855 2:-0.962668 
1 1:-0.806225 2:0.523164 
1 1:-0.991855 2:-0.962668 
1 1:-0.806225 2:0.523164 
1 1:-0.991855 2:-0.962668 
1 1:-0.806225 2:0.523164 
1 1:-0.991855 2:-0.962668 
1 1:-0.806225 2:0.523164 
1 1:-0.991855 2:-0.962668 
1 1:-0.806225 2:0.523164 
1 1:-0.991855 2:-0.962668 
1 1:-0.806225 2:0.523164 
1 1:-0.991855 2:-0.962668 
1 1:-0.806225 2:0.523164 
1 1:-0.991855 2:-0.962668 
1 1:-0.806225 2:0.523164 
1 1:-0.991855 2:-0.962668 
1 1:-0.806225 2:0.523164 
1 1:-0.991855 2:-0.962668 
1 1:-0.806225 2:0.523164 
1 1:-0.991855 2:-0.962668 
1 1:-0.806225 2:0.523164 
1 1:-0.991855 2:-0.962668 
1 1:-0.806225 2:0.523164 
1 1:-0.991855 2:-0.962668 
1 1:-0.806225 2:0.523164 
1 1:-0.991855 2:-0.962668 
1 1:-0.806225 2:0.523164 
1 1:-0.991855 2:-0.962668 
1 1:-0.806225 2:0.523164 
1 1:-0.991855 2:-0.962668 
1 1:-0.806225 2:0.523164 
1 1:-0.991855 2:-0.962668 
1 1:-0.887446 2:0.338864 
1 1:-0.864975 2:0.155225 
1 1:-0.887446 2:0.338864 
1 1:-0.864975 2:0.155225 
1 1:-0.887446 2:0.338864 
1 1:-0.864975 2:0.155225 
1 1:-0.887446 2:0.338864 
1 1:-0.864975 2:0.155225 
1 1:-0.887446 2:0.338864 
1 1:-0.864975 2:0.155225 
1 1:-0.887446 2:0.338864 
1 1:-0.864975 2:0.155225 
1 1:-0.887446 2:0.338864 
1 1:-0.864975 2:0.155225 
1 1:-0.887446 2:0.338864 
1 1:-0.864975 2:0.155225 
1 1:-0.887446 2:0.338864 
1 1:-0.864975 2:0.155225 
1 1:-0.887446 2:0.338864 
1 1:-0.864975 2:0.155225 
1 1:-0.887446 2:0.338864 
1 1:-0.864975 2:0.155225 
1 1:-0.887446 2:0.338864 
1 1:-0.864975 2:0.155225 
1 1:-0.887446 2:0.338864 
1 1:-0.864975 2:0.155225 
1 1:-0.887446 2:0.338864 
1 1:-0.864975 2:0.155225 
1 1:-0.887446 2:0.338864 
1 1:-0.864975 2:0.155225 
1 1:-0.887446 2:0.338864 
1 1:-0.864975 2:0.155225 
1 1:-0.887446 2:0.338864 
1 1:-0.864975 2:0.155225 
1 1:-0.887446 2:0.338864 
1 1:-0.864975 2:0.155225 
1 1:-0.887446 2:0.338864 
1 1:-0.864975 2:0.155225 
1 1:-0.887446 2:0.338864 
1 1:-0.864975 2:0.155225 
1 1:-0.887446 2:0.338864 
1 1:-0.864975 2:0.155225 
1 1:-0.887446 2:0.338864 
1 1:-0.864975 2:0.155225 
1 1:-0.887446 2:0.338864 
1 1:-0.864975 2:0.155225 
1 1:-0.887446 2:0.338864 
1 1:-0.864975 2:0.155225 
1 1:-0.887446 2:0.338864 
1 1:-0.864975 2:0.155225 
1 1:-0.887446 2:0.338864 
1 1:-0.864975 2:0.155225 
1 1:-0.887446 2:0.338864 
1 1:-0.864975 2:0.155225 
1 1:-0.887446 2:0.338864 
1 1:-0.864975 2:0.155225 
1 1:-0.887446 2:0.338864 
1 1:-0.864975 2:0.155225 
1 1:-0.887446 2:0.338864 
1 1:-0.864975 2:0.155225 
1 1:-0.991458 2:-0.973399 
1 1:-0.800978 2:0.315075 
1 1:-0.991458 2:-0.973399 
1 1:-0.800978 2:0.315075 
1 1:-0.991458 2:-0.973399 
1 1:-0.800978 2:0.315075 
1 1:-0.991458 2:-0.973399 
1 1:-0.800978 2:0.315075 
1 1:-0.991458 2:-0.973399 
1 1:-0.800978 2:0.315075 
1 1:-0.991458 2:-0.973399 
1 1:-0.800978 2:0.315075 
1 1:-0.991458 2:-0.973399 
1 1:-0.800978 2:0.315075 
1 1:-0.991458 2:-0.973399 
1 1:-0.800978 2:0.315075 
1 1:-0.991458 2:-0.973399 
1 1:-0.800978 2:0.315075 
1 1:-0.991458 2:-0.973399 
1 1:-0.800978 2:0.315075 
1 1:-0.991458 2:-0.973399 
1 1:-0.800978 2:0.315075 
1 1:-0.991458 2:-0.973399 
1 1:-0.800978 2:0.315075 
1 1:-0.991458 2:-0.973399 
1 1:-0.800978 2:0.315075 
1 1:-0.991458 2:-0.973399 
1 1:-0.800978 2:0.315075 
1 1:-0.991458 2:-0.973399 
1 1:-0.800978 2:0.315075 
1 1:-0.991458 2:-0.973399 
1 1:-0.800978 2:0.315075 
1 1:-0.991458 2:-0.973399 
1 1:-0.800978 2:0.315075 
1 1:-0.991458 2:-0.973399 
1 1:-0.800978 2:0.315075 
1 1:-0.991458 2:-0.973399 
1 1:-0.800978 2:0.315075 
1 1:-0.991458 2:-0.973399 
1 1:-0.800978 2:0.315075 
1 1:-0.991458 2:-0.973399 
1 1:-0.800978 2:0.315075 
1 1:-0.991458 2:-0.973399 
1 1:-0.800978 2:0.315075 
1 1:-0.991458 2:-0.973399 
1 1:-0.800978 2:0.315075 
1 1:-0.991458 2:-0.973399 
1 1:-0.800978 2:0.315075 
1 1:-0.991458 2:-0.973399 
1 1:-0.800978 2:0.315075 
1 1:-0.991458 2:-0.973399 
1 1:-0.800978 2:0.315075 
1 1:-0.991458 2:-0.973399 
1 1:-0.800978 2:0.315075 
1 1:-0.991458 2:-0.973399 
1 1:-0.800978 2:0.315075 
1 1:-0.991458 2:-0.973399 
1 1:-0.800978 2:0.315075 
1 1:-0.991458 2:-0.973399 
1 1:-0.800978 2:0.315075 
1 1:-0.991458 2:-0.973399 
1 1:-0.800978 2:0.315075 
1 1:-0.991458 2:-0.973399 
1 1:-0.800978 2:0.315075 
1 1:-0.991458 2:-0.973399 
1 1:-0.800978 2:0.315075 
1 1:-0.991458 2:-0.973399 
1 1:-0.800978 2:0.315075 
1 1:-0.991458 2:-0.973399 
1 1:-0.800978 2:0.315075 
1 1:-0.991458 2:-0.973399 
1 1:-0.800978 2:0.315075 
1 1:-0.991458 2:-0.973399 
1 1:-0.800978 2:0.315075 
1 1:-0.991458 2:-0.973399 
1 1:-0.800978 2:0.315075 
1 1:-0.991458 2:-0.973399 
1 1:-0.800978 2:0.315075 
1 1:-0.991458 2:-0.973399 
1 1:-0.800978 2:0.315075 
1 1:-0.991458 2:-0.973399 
1 1:-0.800978 2:0.315075 
1 1:-0.991458 2:-0.973399 
1 1:-0.800978 2:0.315075 
1 1:-0.991458 2:-0.973399 
1 1:-0.800978 2:0.315075 
1 1:-0.991458 2:-0.973399 
1 1:-0.800978 2:0.315075 
1 1:-0.991458 2:-0.973399 
1 1:-0.800978 2:0.315075 
1 1:-0.991458 2:-0.973399 
1 1:-0.800978 2:0.315075 
1 1:-0.991458 2:-0.973399 
1 1:-0.800978 2:0.315075 
1 1:-0.991458 2:-0.973399 
1 1:-0.800978 2:0.315075 
1 1:-0.991458 2:-0.973399 
1 1:-0.800978 2:0.315075 
1 1:-0.991458 2:-0.973399 
1 1:-0.800978 2:0.315075 
1 1:-0.991458 2:-0.973399 
1 1:-0.800978 2:0.315075 
1 1:-0.991458 2:-0.973399 
1 1:-0.800978 2:0.315075 
1 1:-0.991458 2:-0.973399 
1 1:-0.800978 2:0.315075 
1 1:-0.991458 2:-0.973399 
1 1:-0.800978 2:0.315075 
1 1:-0.991458 2:-0.973399 
1 1:-0.800978 2:0.315075 
1 1:-0.991458 2:-0.973399 
1 1:-0.800978 2:0.315075 
1 1:-0.991458 2:-0.973399 
1 1:-0.800978 2:0.315075 
1 1:-0.991458 2:-0.973399 
1 1:-0.800978 2:0.315075 
1 1:-0.991458 2:-0.973399 
1 1:-0.800978 2:0.315075 
1 1:-0.991458 2:-0.973399 
1 1:-0.800978 2:0.315075 
1 1:-0.991458 2:-0.973399 
1 1:-0.800978 2:0.315075 
1 1:-0.991458 2:-0.973399 
1 1:-0.800978 2:0.315075 
1 1:-0.991458 2:-0.973399 
1 1:-0.800978 2:0.315075 
1 1:-0.991458 2:-0.973399 
1 1:-0.800978 2:0.315075 
1 1:-0.991458 2:-0.973399 
1 1:-0.800978 2:0.315075 
1 1:-0.991458 2:-0.973399 
1 1:-0.800978 2:0.315075 
1 1:-0.991458 2:-0.973399 
1 1:-0.800978 2:0.315075 
1 1:-0.991458 2:-0.973399 
1 1:-0.800978 2:0.315075 
1 1:-0.991458 2:-0.973399 
1 1:-0.800978 2:0.315075 
1 1:-0.991458 2:-0.973399 
1 1:-0.800978 2:0.315075 
1 1:-0.991458 2:-0.973399 
1 1:-0.800978 2:0.315075 
1 1:-0.991458 2:-0.973399 
1 1:-0.800978 2:0.315075 
1 1:-0.991458 2:-0.973399 
1 1:-0.800978 2:0.315075 
1 1:-0.991458 2:-0.973399 
1 1:-0.800978 2:0.315075 
1 1:-0.991458 2:-0.973399 
1 1:-0.800978 2:0.315075 
1 1:-0.991458 2:-0.973399 
1 1:-0.800978 2:0.315075 
1 1:-0.697416 2:0.464317 
1 1:-0.989687 2:-0.955768 
1 1:-0.754612 2:0.406807 
1 1:-0.697416 2:0.464317 
1 1:-0.989687 2:-0.955768 
1 1:-0.754612 2:0.406807 
1 1:-0.697416 2:0.464317 
1 1:-0.989687 2:-0.955768 
1 1:-0.754612 2:0.406807 
1 1:-0.697416 2:0.464317 
1 1:-0.989687 2:-0.955768 
1 1:-0.754612 2:0.406807 
1 1:-0.697416 2:0.464317 
1 1:-0.989687 2:-0.955768 
1 1:-0.754612 2:0.406807 
1 1:-0.697416 2:0.464317 
1 1:-0.989687 2:-0.955768 
1 1:-0.754612 2:0.406807 
1 1:-0.697416 2:0.464317 
1 1:-0.989687 2:-0.955768 
1 1:-0.754612 2:0.406807 
1 1:-0.697416 2:0.464317 
1 1:-0.989687 2:-0.955768 
1 1:-0.754612 2:0.406807 
1 1:-0.697416 2:0.464317 
1 1:-0.989687 2:-0.955768 
1 1:-0.754612 2:0.406807 
1 1:-0.697416 2:0.464317 
1 1:-0.989687 2:-0.955768 
1 1:-0.754612 2:0.406807 
1 1:-0.697416 2:0.464317 
1 1:-0.989687 2:-0.955768 
1 1:-0.754612 2:0.406807 
1 1:-0.697416 2:0.464317 
1 1:-0.989687 2:-0.955768 
1 1:-0.754612 2:0.406807 
1 1:-0.697416 2:0.464317 
1 1:-0.989687 2:-0.955768 
1 1:-0.754612 2:0.406807 
1 1:-0.697416 2:0.464317 
1 1:-0.989687 2:-0.955768 
1 1:-0.754612 2:0.406807 
1 1:-0.697416 2:0.464317 
1 1:-0.989687 2:-0.955768 
1 1:-0.754612 2:0.406807 
1 1:-0.697416 2:0.464317 
1 1:-0.989687 2:-0.955768 
1 1:-0.754612 2:0.406807 
1 1:-0.697416 2:0.464317 
1 1:-0.989687 2:-0.955768 
1 1:-0.754612 2:0.406807 
1 1:-0.697416 2:0.464317 
1 1:-0.989687 2:-0.955768 
1 1:-0.754612 2:0.406807 
1 1:-0.697416 2:0.464317 
1 1:-0.989687 2:-0.955768 
1 1:-0.754612 2:0.406807 
1 1:-0.697416 2:0.464317 
1 1:-0.989687 2:-0.955768 
1 1:-0.754612 2:0.406807 
1 1:-0.697416 2:0.464317 
1 1:-0.989687 2:-0.955768 
1 1:-0.754612 2:0.406807 
1 1:-0.697416 2:0.464317 
1 1:-0.989687 2:-0.955768 
1 1:-0.754612 2:0.406807 
1 1:-0.697416 2:0.464317 
1 1:-0.989687 2:-0.955768 
1 1:-0.754612 2:0.406807 
1 1:-0.697416 2:0.464317 
1 1:-0.989687 2:-0.955768 
1 1:-0.754612 2:0.406807 
1 1:-0.697416 2:0.464317 
1 1:-0.989687 2:-0.955768 
1 1:-0.754612 2:0.406807 
1 1:-0.697416 2:0.464317 
1 1:-0.989687 2:-0.955768 
1 1:-0.754612 2:0.406807 
1 1:-0.697416 2:0.464317 
1 1:-0.989687 2:-0.955768 
1 1:-0.754612 2:0.406807 
1 1:-0.697416 2:0.464317 
1 1:-0.989687 2:-0.955768 
1 1:-0.754612 2:0.406807 
1 1:-0.697416 2:0.464317 
1 1:-0.989687 2:-0.955768 
1 1:-0.754612 2:0.406807 
1 1:-0.697416 2:0.464317 
1 1:-0.989687 2:-0.955768 
1 1:-0.754612 2:0.406807 
1 1:-0.697416 2:0.464317 
1 1:-0.989687 2:-0.955768 
1 1:-0.754612 2:0.406807 
1 1:-0.697416 2:0.464317 
1 1:-0.989687 2:-0.955768 
1 1:-0.754612 2:0.406807 
1 1:-0.697416 2:0.464317 
1 1:-0.989687 2:-0.955768 
1 1:-0.754612 2:0.406807 
1 1:-0.697416 2:0.464317 
1 1:-0.989687 2:-0.955768 
1 1:-0.754612 2:0.406807 
1 1:-0.697416 2:0.464317 
1 1:-0.989687 2:-0.955768 
1 1:-0.754612 2:0.406807 
1 1:-0.697416 2:0.464317 
1 1:-0.989687 2:-0.955768 
1 1:-0.754612 2:0.406807 
1 1:-0.697416 2:0.464317 
1 1:-0.989687 2:-0.955768 
1 1:-0.754612 2:0.406807 
1 1:-0.697416 2:0.464317 
1 1:-0.989687 2:-0.955768 
1 1:-0.754612 2:0.406807 
1 1:-0.697416 2:0.464317 
1 1:-0.989687 2:-0.955768 
1 1:-0.754612 2:0.406807 
1 1:-0.697416 2:0.464317 
1 1:-0.989687 2:-0.955768 
1 1:-0.754612 2:0.406807 
1 1:-0.697416 2:0.464317 
1 1:-0.989687 2:-0.955768 
1 1:-0.754612 2:0.406807 
1 1:-0.697416 2:0.464317 
1 1:-0.989687 2:-0.955768 
1 1:-0.754612 2:0.406807 
1 1:-0.697416 2:0.464317 
1 1:-0.989687 2:-0.955768 
1 1:-0.754612 2:0.406807 
1 1:-0.697416 2:0.464317 
1 1:-0.989687 2:-0.955768 
1 1:-0.754612 2:0.406807 
1 1:-0.697416 2:0.464317 
1 1:-0.989687 2:-0.955768 
1 1:-0.754612 2:0.406807 
1 1:-0.697416 2:0.464317 
1 1:-0.989687 2:-0.955768 
1 1:-0.754612 2:0.406807 
1 1:-0.697416 2:0.464317 
1 1:-0.989687 2:-0.955768 
1 1:-0.754612 2:0.406807 
1 1:-0.697416 2:0.464317 
1 1:-0.989687 2:-0.955768 
1 1:-0.754612 2:0.406807 
1 1:-0.697416 2:0.464317 
1 1:-0.989687 2:-0.955768 
1 1:-0.754612 2:0.406807 
1 1:-0.697416 2:0.464317 
1 1:-0.989687 2:-0.955768 
1 1:-0.754612 2:0.406807 
1 1:-0.697416 2:0.464317 
1 1:-0.989687 2:-0.955768 
1 1:-0.754612 2:0.406807 
1 1:-0.697416 2:0.464317 
1 1:-0.989687 2:-0.955768 
1 1:-0.754612 2:0.406807 
1 1:-0.697416 2:0.464317 
1 1:-0.989687 2:-0.955768 
1 1:-0.754612 2:0.406807 
1 1:-0.697416 2:0.464317 
1 1:-0.989687 2:-0.955768 
1 1:-0.754612 2:0.406807 
1 1:-0.697416 2:0.464317 
1 1:-0.989687 2:-0.955768 
1 1:-0.754612 2:0.406807 
1 1:-0.697416 2:0.464317 
1 1:-0.989687 2:-0.955768 
1 1:-0.754612 2:0.406807 
1 1:-0.697416 2:0.464317 
1 1:-0.989687 2:-0.955768 
1 1:-0.754612 2:0.406807 
1 1:-0.697416 2:0.464317 
1 1:-0.989687 2:-0.955768 
1 1:-0.754612 2:0.406807 
1 1:-0.697416 2:0.464317 
1 1:-0.989687 2:-0.955768 
1 1:-0.754612 2:0.406807 
1 1:-0.697416 2:0.464317 
1 1:-0.989687 2:-0.955768 
1 1:-0.754612 2:0.406807 
1 1:-0.697416 2:0.464317 
1 1:-0.989687 2:-0.955768 
1 1:-0.754612 2:0.406807 
1 1:-0.697416 2:0.464317 
1 1:-0.989687 2:-0.955768 
1 1:-0.754612 2:0.406807 
1 1:-0.697416 2:0.464317 
1 1:-0.989687 2:-0.955768 
1 1:-0.754612 2:0.406807 
1 1:-0.697416 2:0.464317 
1 1:-0.989687 2:-0.955768 
1 1:-0.754612 2:0.406807 
1 1:-0.697416 2:0.464317 
1 1:-0.989687 2:-0.955768 
1 1:-0.754612 2:0.406807 
1 1:-0.697416 2:0.464317 
1 1:-0.989687 2:-0.955768 
1 1:-0.754612 2:0.406807 
1 1:-0.697416 2:0.464317 
1 1:-0.989687 2:-0.955768 
1 1:-0.754612 2:0.406807 
1 1:-0.697416 2:0.464317 
1 1:-0.989687 2:-0.955768 
1 1:-0.754612 2:0.406807 
1 1:-0.697416 2:0.464317 
1 1:-0.989687 2:-0.955768 
1 1:-0.754612 2:0.406807 
1 1:-0.697416 2:0.464317 
1 1:-0.989687 2:-0.955768 
1 1:-0.754612 2:0.406807 
1 1:-0.697416 2:0.464317 
1 1:-0.989687 2:-0.955768 
1 1:-0.754612 2:0.406807 
1 1:-0.697416 2:0.464317 
1 1:-0.989687 2:-0.955768 
1 1:-0.754612 2:0.406807 
1 1:-0.697416 2:0.464317 
1 1:-0.989687 2:-0.955768 
1 1:-0.754612 2:0.406807 
1 1:-0.697416 2:0.464317 
1 1:-0.989687 2:-0.955768 
1 1:-0.754612 2:0.406807 
1 1:-0.697416 2:0.464317 
1 1:-0.989687 2:-0.955768 
1 1:-0.754612 2:0.406807 
1 1:-0.697416 2:0.464317 
1 1:-0.989687 2:-0.955768 
1 1:-0.754612 2:0.406807 
1 1:-0.697416 2:0.464317 
1 1:-0.989687 2:-0.955768 
1 1:-0.754612 2:0.406807 
1 1:-0.697416 2:0.464317 
1 1:-0.989687 2:-0.955768 
1 1:-0.754612 2:0.406807 
1 1:-0.697416 2:0.464317 
1 1:-0.989687 2:-0.955768 
1 1:-0.754612 2:0.406807 
1 1:-0.697416 2:0.464317 
1 1:-0.989687 2:-0.955768 
1 1:-0.754612 2:0.406807 
1 1:-0.697416 2:0.464317 
1 1:-0.989687 2:-0.955768 
1 1:-0.754612 2:0.406807 
1 1:-0.697416 2:0.464317 
1 1:-0.989687 2:-0.955768 
1 1:-0.754612 2:0.406807 
1 1:-0.697416 2:0.464317 
1 1:-0.989687 2:-0.955768 
1 1:-0.754612 2:0.406807 
1 1:-0.697416 2:0.464317 
1 1:-0.989687 2:-0.955768 
1 1:-0.754612 2:0.406807 
1 1:-0.697416 2:0.464317 
1 1:-0.989687 2:-0.955768 
1 1:-0.754612 2:0.406807 
1 1:-0.697416 2:0.464317 
1 1:-0.989687 2:-0.955768 
1 1:-0.754612 2:0.406807 
1 1:-0.697416 2:0.464317 
1 1:-0.989687 2:-0.955768 
1 1:-0.754612 2:0.406807 
1 1:-0.697416 2:0.464317 
1 1:-0.989687 2:-0.955768 
1 1:-0.754612 2:0.406807 
1 1:-0.697416 2:0.464317 
1 1:-0.989687 2:-0.955768 
1 1:-0.754612 2:0.406807 
1 1:-0.697416 2:0.464317 
1 1:-0.989687 2:-0.955768 
1 1:-0.754612 2:0.406807 
1 1:-0.697416 2:0.464317 
1 1:-0.989687 2:-0.955768 
1 1:-0.754612 2:0.406807 
1 1:-0.697416 2:0.464317 
1 1:-0.989687 2:-0.955768 
1 1:-0.754612 2:0.406807 
1 1:-0.697416 2:0.464317 
1 1:-0.989687 2:-0.955768 
1 1:-0.754612 2:0.406807 
1 1:-0.697416 2:0.464317 
1 1:-0.989687 2:-0.955768 
1 1:-0.754612 2:0.406807 
1 1:-0.697416 2:0.464317 
1 1:-0.989687 2:-0.955768 
1 1:-0.754612 2:0.406807 
1 1:-0.697416 2:0.464317 
1 1:-0.989687 2:-0.955768 
1 1:-0.754612 2:0.406807 
1 1:-0.697416 2:0.464317 
1 1:-0.989687 2:-0.955768 
1 1:-0.754612 2:0.406807 
1 1:-0.976635 2:-0.96517 
1 1:-0.976635 2:-0.96517 
1 1:-0.976635 2:-0.96517 
1 1:-0.976635 2:-0.96517 
1 1:-0.976635 2:-0.96517 
1 1:-0.976635 2:-0.96517 
1 1:-0.976635 2:-0.96517 
1 1:-0.976635 2:-0.96517 
1 1:-0.976635 2:-0.96517 
1 1:-0.976635 2:-0.96517 
1 1:-0.976635 2:-0.96517 
1 1:-0.976635 2:-0.96517 
1 1:-0.976635 2:-0.96517 
1 1:-0.976635 2:-0.96517 
1 1:-0.976635 2:-0.96517 
1 1:-0.976635 2:-0.96517 
1 1:-0.976635 2:-0.96517 
1 1:-0.976635 2:-0.96517 
1 1:-0.976635 2:-0.96517 
1 1:-0.976635 2:-0.96517 
1 1:-0.976635 2:-0.96517 
1 1:-0.976635 2:-0.96517 
1 1:-0.976635 2:-0.96517 
1 1:-0.976635 2:-0.96517 
1 1:-0.976635 2:-0.96517 
1 1:-0.976635 2:-0.96517 
1 1:-0.976635 2:-0.96517 
1 1:-0.976635 2:-0.96517 
1 1:-0.976635 2:-0.96517 
1 1:-0.976635 2:-0.96517 
1 1:-0.976635 2:-0.96517 
1 1:-0.976635 2:-0.96517 
1 1:-0.976635 2:-0.96517 
1 1:-0.976635 2:-0.96517 
1 1:-0.976635 2:-0.96517 
1 1:-0.976635 2:-0.96517 
1 1:-0.976635 2:-0.96517 
1 1:-0.976635 2:-0.96517 
1 1:-0.976635 2:-0.96517 
1 1:-0.976635 2:-0.96517 
1 1:-0.976635 2:-0.96517 
1 1:-0.976635 2:-0.96517 
1 1:-0.976635 2:-0.96517 
1 1:-0.976635 2:-0.96517 
1 1:-0.976635 2:-0.96517 
1 1:-0.976635 2:-0.96517 
1 1:-0.976635 2:-0.96517 
1 1:-0.976635 2:-0.96517 
1 1:-0.976635 2:-0.96517 
1 1:-0.976635 2:-0.96517 
1 1:-0.976635 2:-0.96517 
1 1:-0.976635 2:-0.96517 
1 1:-0.976635 2:-0.96517 
1 1:-0.976635 2:-0.96517 
1 1:-0.976635 2:-0.96517 
1 1:-0.976635 2:-0.96517 
1 1:-0.976635 2:-0.96517 
1 1:-0.976635 2:-0.96517 
1 1:-0.976635 2:-0.96517 
1 1:-0.976635 2:-0.96517 
1 1:-0.976635 2:-0.96517 
1 1:-0.976635 2:-0.96517 
1 1:-0.976635 2:-0.96517 
1 1:-0.976635 2:-0.96517 
1 1:-0.976635 2:-0.96517 
1 1:-0.976635 2:-0.96517 
1 1:-0.976635 2:-0.96517 
1 1:-0.976635 2:-0.96517 
1 1:-0.976635 2:-0.96517 
1 1:-0.976635 2:-0.96517 
1 1:-0.976635 2:-0.96517 
1 1:-0.976635 2:-0.96517 
1 1:-0.976635 2:-0.96517 
1 1:-0.976635 2:-0.96517 
1 1:-0.976635 2:-0.96517 
1 1:-0.976635 2:-0.96517 
1 1:-0.976635 2:-0.96517 
1 1:-0.976635 2:-0.96517 
1 1:-0.976635 2:-0.96517 
1 1:-0.976635 2:-0.96517 
1 1:-0.976635 2:-0.96517 
1 1:-0.976635 2:-0.96517 
1 1:-0.976635 2:-0.96517 
1 1:-0.976635 2:-0.96517 
1 1:-0.976635 2:-0.96517 
1 1:-0.976635 2:-0.96517 
1 1:-0.976635 2:-0.96517 
1 1:-0.976635 2:-0.96517 
1 1:-0.976635 2:-0.96517 
1 1:-0.976635 2:-0.96517 
1 1:-0.976635 2:-0.96517 
1 1:-0.976635 2:-0.96517 
1 1:-0.976635 2:-0.96517 
1 1:-0.976635 2:-0.96517 
1 1:-0.976635 2:-0.96517 
1 1:-0.976635 2:-0.96517 
1 1:-0.821311 2:0.21943 
1 1:-0.821311 2:0.21943 
1 1:-0.821311 2:0.21943 
1 1:-0.821311 2:0.21943 
1 1:-0.821311 2:0.21943 
1 1:-0.821311 2:0.21943 
1 1:-0.821311 2:0.21943 
1 1:-0.821311 2:0.21943 
1 1:-0.821311 2:0.21943 
1 1:-0.821311 2:0.21943 
1 1:-0.821311 2:0.21943 
1 1:-0.821311 2:0.21943 
1 1:-0.821311 2:0.21943 
1 1:-0.821311 2:0.21943 
1 1:-0.821311 2:0.21943 
1 1:-0.821311 2:0.21943 
1 1:-0.821311 2:0.21943 
1 1:-0.821311 2:0.21943 
1 1:-0.821311 2:0.21943 
1 1:-0.821311 2:0.21943 
1 1:-0.821311 2:0.21943 
1 1:-0.821311 2:0.21943 
1 1:-0.821311 2:0.21943 
1 1:-0.821311 2:0.21943 
1 1:-0.821311 2:0.21943 
1 1:-0.821311 2:0.21943 
1 1:-0.821311 2:0.21943 
1 1:-0.821311 2:0.21943 
1 1:-0.821311 2:0.21943 
1 1:-0.821311 2:0.21943 
1 1:-0.821311 2:0.21943 
1 1:-0.821311 2:0.21943 
1 1:-0.821311 2:0.21943 
1 1:-0.821311 2:0.21943 
1 1:-0.821311 2:0.21943 
1 1:-0.821311 2:0.21943 
1 1:-0.821311 2:0.21943 
1 1:-0.821311 2:0.21943 
1 1:-0.821311 2:0.21943 
1 1:-0.821311 2:0.21943 
1 1:-0.821311 2:0.21943 
1 1:-0.821311 2:0.21943 
1 1:-0.821311 2:0.21943 
1 1:-0.821311 2:0.21943 
1 1:-0.821311 2:0.21943 
1 1:-0.821311 2:0.21943 
1 1:-0.821311 2:0.21943 
1 1:-0.821311 2:0.21943 
1 1:-0.821311 2:0.21943 
1 1:-0.821311 2:0.21943 
1 1:-0.821311 2:0.21943 
1 1:-0.821311 2:0.21943 
1 1:-0.821311 2:0.21943 
1 1:-0.821311 2:0.21943 
1 1:-0.821311 2:0.21943 
1 1:-0.821311 2:0.21943 
1 1:-0.821311 2:0.21943 
1 1:-0.821311 2:0.21943 
1 1:-0.821311 2:0.21943 
1 1:-0.821311 2:0.21943 
1 1:-0.821311 2:0.21943 
1 1:-0.821311 2:0.21943 
1 1:-0.821311 2:0.21943 
1 1:-0.821311 2:0.21943 
1 1:-0.821311 2:0.21943 
1 1:-0.821311 2:0.21943 
1 1:-0.821311 2:0.21943 
1 1:-0.821311 2:0.21943 
1 1:-0.821311 2:0.21943 
1 1:-0.821311 2:0.21943 
1 1:-0.821311 2:0.21943 
1 1:-0.821311 2:0.21943 
1 1:-0.821311 2:0.21943 
1 1:-0.821311 2:0.21943 
1 1:-0.821311 2:0.21943 
1 1:-0.821311 2:0.21943 
1 1:-0.821311 2:0.21943 
1 1:-0.821311 2:0.21943 
1 1:-0.821311 2:0.21943 
1 1:-0.821311 2:0.21943 
1 1:-0.821311 2:0.21943 
1 1:-0.821311 2:0.21943 
1 1:-0.821311 2:0.21943 
1 1:-0.821311 2:0.21943 
1 1:-0.821311 2:0.21943 
1 1:-0.821311 2:0.21943 
1 1:-0.821311 2:0.21943 
1 1:-0.821311 2:0.21943 
1 1:-0.821311 2:0.21943 
1 1:-0.821311 2:0.21943 
1 1:-0.821311 2:0.21943 
1 1:-0.821311 2:0.21943 
1 1:-0.821311 2:0.21943 
1 1:-0.821311 2:0.21943 
1 1:-0.821311 2:0.21943 
1 1:-0.821311 2:0.21943 
1 1:-0.755718 2:0.209462 
1 1:-0.799968 2:0.805031 
1 1:-0.755718 2:0.209462 
1 1:-0.799968 2:0.805031 
1 1:-0.755718 2:0.209462 
1 1:-0.799968 2:0.805031 
1 1:-0.755718 2:0.209462 
1 1:-0.799968 2:0.805031 
1 1:-0.755718 2:0.209462 
1 1:-0.799968 2:0.805031 
1 1:-0.755718 2:0.209462 
1 1:-0.799968 2:0.805031 
1 1:-0.755718 2:0.209462 
1 1:-0.799968 2:0.805031 
1 1:-0.755718 2:0.209462 
1 1:-0.799968 2:0.805031 
1 1:-0.755718 2:0.209462 
1 1:-0.799968 2:0.805031 
1 1:-0.755718 2:0.209462 
1 1:-0.799968 2:0.805031 
1 1:-0.755718 2:0.209462 
1 1:-0.799968 2:0.805031 
1 1:-0.755718 2:0.209462 
1 1:-0.799968 2:0.805031 
1 1:-0.755718 2:0.209462 
1 1:-0.799968 2:0.805031 
1 1:-0.755718 2:0.209462 
1 1:-0.799968 2:0.805031 
1 1:-0.755718 2:0.209462 
1 1:-0.799968 2:0.805031 
1 1:-0.755718 2:0.209462 
1 1:-0.799968 2:0.805031 
1 1:-0.755718 2:0.209462 
1 1:-0.799968 2:0.805031 
1 1:-0.755718 2:0.209462 
1 1:-0.799968 2:0.805031 
1 1:-0.755718 2:0.209462 
1 1:-0.799968 2:0.805031 
1 1:-0.755718 2:0.209462 
1 1:-0.799968 2:0.805031 
1 1:-0.755718 2:0.209462 
1 1:-0.799968 2:0.805031 
1 1:-0.755718 2:0.209462 
1 1:-0.799968 2:0.805031 
1 1:-0.755718 2:0.209462 
1 1:-0.799968 2:0.805031 
1 1:-0.755718 2:0.209462 
1 1:-0.799968 2:0.805031 
1 1:-0.755718 2:0.209462 
1 1:-0.799968 2:0.805031 
1 1:-0.755718 2:0.209462 
1 1:-0.799968 2:0.805031 
1 1:-0.755718 2:0.209462 
1 1:-0.799968 2:0.805031 
1 1:-0.755718 2:0.209462 
1 1:-0.799968 2:0.805031 
1 1:-0.755718 2:0.209462 
1 1:-0.799968 2:0.805031 
1 1:-0.755718 2:0.209462 
1 1:-0.799968 2:0.805031 
1 1:-0.755718 2:0.209462 
1 1:-0.799968 2:0.805031 
1 1:-0.755718 2:0.209462 
1 1:-0.799968 2:0.805031 
1 1:-0.755718 2:0.209462 
1 1:-0.799968 2:0.805031 
1 1:-0.755718 2:0.209462 
1 1:-0.799968 2:0.805031 
1 1:-0.755718 2:0.209462 
1 1:-0.799968 2:0.805031 
1 1:-0.755718 2:0.209462 
1 1:-0.799968 2:0.805031 
1 1:-0.755718 2:0.209462 
1 1:-0.799968 2:0.805031 
1 1:-0.755718 2:0.209462 
1 1:-0.799968 2:0.805031 
1 1:-0.755718 2:0.209462 
1 1:-0.799968 2:0.805031 
1 1:-0.755718 2:0.209462 
1 1:-0.799968 2:0.805031 
1 1:-0.755718 2:0.209462 
1 1:-0.799968 2:0.805031 
1 1:-0.755718 2:0.209462 
1 1:-0.799968 2:0.805031 
1 1:-0.755718 2:0.209462 
1 1:-0.799968 2:0.805031 
1 1:-0.755718 2:0.209462 
1 1:-0.799968 2:0.805031 
1 1:-0.755718 2:0.209462 
1 1:-0.799968 2:0.805031 
1 1:-0.755718 2:0.209462 
1 1:-0.799968 2:0.805031 
1 1:-0.755718 2:0.209462 
1 1:-0.799968 2:0.805031 
1 1:-0.755718 2:0.209462 
1 1:-0.799968 2:0.805031 
1 1:-0.755718 2:0.209462 
1 1:-0.799968 2:0.805031 
1 1:-0.755718 2:0.209462 
1 1:-0.799968 2:0.805031 
1 1:-0.755718 2:0.209462 
1 1:-0.799968 2:0.805031 
1 1:-0.755718 2:0.209462 
1 1:-0.799968 2:0.805031 
1 1:-0.755718 2:0.209462 
1 1:-0.799968 2:0.805031 
1 1:-0.755718 2:0.209462 
1 1:-0.799968 2:0.805031 
1 1:-0.755718 2:0.209462 
1 1:-0.799968 2:0.805031 
1 1:-0.755718 2:0.209462 
1 1:-0.799968 2:0.805031 
1 1:-0.755718 2:0.209462 
1 1:-0.799968 2:0.805031 
1 1:-0.755718 2:0.209462 
1 1:-0.799968 2:0.805031 
1 1:-0.755718 2:0.209462 
1 1:-0.799968 2:0.805031 
1 1:-0.755718 2:0.209462 
1 1:-0.799968 2:0.805031 
1 1:-0.755718 2:0.209462 
1 1:-0.799968 2:0.805031 
1 1:-0.755718 2:0.209462 
1 1:-0.799968 2:0.805031 
1 1:-0.755718 2:0.209462 
1 1:-0.799968 2:0.805031 
1 1:-0.755718 2:0.209462 
1 1:-0.799968 2:0.805031 
1 1:-0.755718 2:0.209462 
1 1:-0.799968 2:0.805031 
1 1:-0.755718 2:0.209462 
1 1:-0.799968 2:0.805031 
1 1:-0.755718 2:0.209462 
1 1:-0.799968 2:0.805031 
1 1:-0.755718 2:0.209462 
1 1:-0.799968 2:0.805031 
1 1:-0.755718 2:0.209462 
1 1:-0.799968 2:0.805031 
1 1:-0.755718 2:0.209462 
1 1:-0.799968 2:0.805031 
1 1:-0.755718 2:0.209462 
1 1:-0.799968 2:0.805031 
1 1:-0.755718 2:0.209462 
1 1:-0.799968 2:0.805031 
1 1:-0.755718 2:0.209462 
1 1:-0.799968 2:0.805031 
1 1:-0.755718 2:0.209462 
1 1:-0.799968 2:0.805031 
1 1:-0.755718 2:0.209462 
1 1:-0.799968 2:0.805031 
1 1:-0.755718 2:0.209462 
1 1:-0.799968 2:0.805031 
1 1:-0.755718 2:0.209462 
1 1:-0.799968 2:0.805031 
1 1:-0.755718 2:0.209462 
1 1:-0.799968 2:0.805031 
1 1:-0.755718 2:0.209462 
1 1:-0.799968 2:0.805031 
1 1:-0.755718 2:0.209462 
1 1:-0.799968 2:0.805031 
1 1:-0.755718 2:0.209462 
1 1:-0.799968 2:0.805031 
1 1:-0.755718 2:0.209462 
1 1:-0.799968 2:0.805031 
1 1:-0.755718 2:0.209462 
1 1:-0.799968 2:0.805031 
1 1:-0.755718 2:0.209462 
1 1:-0.799968 2:0.805031 
1 1:-0.755718 2:0.209462 
1 1:-0.799968 2:0.805031 
1 1:-0.755718 2:0.209462 
1 1:-0.799968 2:0.805031 
1 1:-0.755718 2:0.209462 
1 1:-0.799968 2:0.805031 
1 1:-0.755718 2:0.209462 
1 1:-0.799968 2:0.805031 
1 1:-0.755718 2:0.209462 
1 1:-0.799968 2:0.805031 
1 1:-0.755718 2:0.209462 
1 1:-0.799968 2:0.805031 
1 1:-0.755718 2:0.209462 
1 1:-0.799968 2:0.805031 
1 1:-0.755718 2:0.209462 
1 1:-0.799968 2:0.805031 
1 1:-0.755718 2:0.209462 
1 1:-0.799968 2:0.805031 
1 1:-0.755718 2:0.209462 
1 1:-0.799968 2:0.805031 
1 1:-0.755718 2:0.209462 
1 1:-0.799968 2:0.805031 
1 1:-0.755718 2:0.209462 
1 1:-0.799968 2:0.805031 
1 1:-0.664771 2:0.305894 
1 1:-0.64615 2:0.297822 
1 1:-0.664771 2:0.305894 
1 1:-0.64615 2:0.297822 
1 1:-0.664771 2:0.305894 
1 1:-0.64615 2:0.297822 
1 1:-0.664771 2:0.305894 
1 1:-0.64615 2:0.297822 
1 1:-0.664771 2:0.305894 
1 1:-0.64615 2:0.297822 
1 1:-0.664771 2:0.305894 
1 1:-0.64615 2:0.297822 
1 1:-0.664771 2:0.305894 
1 1:-0.64615 2:0.297822 
1 1:-0.664771 2:0.305894 
1 1:-0.64615 2:0.297822 
1 1:-0.664771 2:0.305894 
1 1:-0.64615 2:0.297822 
1 1:-0.664771 2:0.305894 
1 1:-0.64615 2:0.297822 
1 1:-0.664771 2:0.305894 
1 1:-0.64615 2:0.297822 
1 1:-0.664771 2:0.305894 
1 1:-0.64615 2:0.297822 
1 1:-0.664771 2:0.305894 
1 1:-0.64615 2:0.297822 
1 1:-0.664771 2:0.305894 
1 1:-0.64615 2:0.297822 
1 1:-0.664771 2:0.305894 
1 1:-0.64615 2:0.297822 
1 1:-0.664771 2:0.305894 
1 1:-0.64615 2:0.297822 
1 1:-0.664771 2:0.305894 
1 1:-0.64615 2:0.297822 
1 1:-0.664771 2:0.305894 
1 1:-0.64615 2:0.297822 
1 1:-0.664771 2:0.305894 
1 1:-0.64615 2:0.297822 
1 1:-0.664771 2:0.305894 
1 1:-0.64615 2:0.297822 
1 1:-0.664771 2:0.305894 
1 1:-0.64615 2:0.297822 
1 1:-0.664771 2:0.305894 
1 1:-0.64615 2:0.297822 
1 1:-0.664771 2:0.305894 
1 1:-0.64615 2:0.297822 
1 1:-0.664771 2:0.305894 
1 1:-0.64615 2:0.297822 
1 1:-0.664771 2:0.305894 
1 1:-0.64615 2:0.297822 
1 1:-0.664771 2:0.305894 
1 1:-0.64615 2:0.297822 
1 1:-0.664771 2:0.305894 
1 1:-0.64615 2:0.297822 
1 1:-0.664771 2:0.305894 
1 1:-0.64615 2:0.297822 
1 1:-0.664771 2:0.305894 
1 1:-0.64615 2:0.297822 
1 1:-0.664771 2:0.305894 
1 1:-0.64615 2:0.297822 
1 1:-0.664771 2:0.305894 
1 1:-0.64615 2:0.297822 
1 1:-0.664771 2:0.305894 
1 1:-0.64615 2:0.297822 
1 1:-0.664771 2:0.305894 
1 1:-0.64615 2:0.297822 
1 1:-0.664771 2:0.305894 
1 1:-0.64615 2:0.297822 
1 1:-0.664771 2:0.305894 
1 1:-0.64615 2:0.297822 
1 1:-0.664771 2:0.305894 
1 1:-0.64615 2:0.297822 
1 1:-0.664771 2:0.305894 
1 1:-0.64615 2:0.297822 
1 1:-0.664771 2:0.305894 
1 1:-0.64615 2:0.297822 
1 1:-0.664771 2:0.305894 
1 1:-0.64615 2:0.297822 
1 1:-0.664771 2:0.305894 
1 1:-0.64615 2:0.297822 
1 1:-0.664771 2:0.305894 
1 1:-0.64615 2:0.297822 
1 1:-0.664771 2:0.305894 
1 1:-0.64615 2:0.297822 
1 1:-0.664771 2:0.305894 
1 1:-0.64615 2:0.297822 
1 1:-0.664771 2:0.305894 
1 1:-0.64615 2:0.297822 
1 1:-0.664771 2:0.305894 
1 1:-0.64615 2:0.297822 
1 1:-0.664771 2:0.305894 
1 1:-0.64615 2:0.297822 
1 1:-0.664771 2:0.305894 
1 1:-0.64615 2:0.297822 
1 1:-0.664771 2:0.305894 
1 1:-0.64615 2:0.297822 
1 1:-0.664771 2:0.305894 
1 1:-0.64615 2:0.297822 
1 1:-0.664771 2:0.305894 
1 1:-0.64615 2:0.297822 
1 1:-0.664771 2:0.305894 
1 1:-0.64615 2:0.297822 
1 1:-0.664771 2:0.305894 
1 1:-0.64615 2:0.297822 
1 1:-0.664771 2:0.305894 
1 1:-0.64615 2:0.297822 
1 1:-0.664771 2:0.305894 
1 1:-0.64615 2:0.297822 
1 1:-0.664771 2:0.305894 
1 1:-0.64615 2:0.297822 
1 1:-0.664771 2:0.305894 
1 1:-0.64615 2:0.297822 
1 1:-0.664771 2:0.305894 
1 1:-0.64615 2:0.297822 
1 1:-0.664771 2:0.305894 
1 1:-0.64615 2:0.297822 
1 1:-0.664771 2:0.305894 
1 1:-0.64615 2:0.297822 
1 1:-0.664771 2:0.305894 
1 1:-0.64615 2:0.297822 
1 1:-0.664771 2:0.305894 
1 1:-0.64615 2:0.297822 
1 1:-0.664771 2:0.305894 
1 1:-0.64615 2:0.297822 
1 1:-0.664771 2:0.305894 
1 1:-0.64615 2:0.297822 
1 1:-0.664771 2:0.305894 
1 1:-0.64615 2:0.297822 
1 1:-0.664771 2:0.305894 
1 1:-0.64615 2:0.297822 
1 1:-0.664771 2:0.305894 
1 1:-0.64615 2:0.297822 
1 1:-0.664771 2:0.305894 
1 1:-0.64615 2:0.297822 
1 1:-0.664771 2:0.305894 
1 1:-0.64615 2:0.297822 
1 1:-0.664771 2:0.305894 
1 1:-0.64615 2:0.297822 
1 1:-0.664771 2:0.305894 
1 1:-0.64615 2:0.297822 
1 1:-0.664771 2:0.305894 
1 1:-0.64615 2:0.297822 
1 1:-0.664771 2:0.305894 
1 1:-0.64615 2:0.297822 
1 1:-0.664771 2:0.305894 
1 1:-0.64615 2:0.297822 
1 1:-0.664771 2:0.305894 
1 1:-0.64615 2:0.297822 
1 1:-0.664771 2:0.305894 
1 1:-0.64615 2:0.297822 
1 1:-0.664771 2:0.305894 
1 1:-0.64615 2:0.297822 
1 1:-0.664771 2:0.305894 
1 1:-0.64615 2:0.297822 
1 1:-0.664771 2:0.305894 
1 1:-0.64615 2:0.297822 
1 1:-0.664771 2:0.305894 
1 1:-0.64615 2:0.297822 
1 1:-0.664771 2:0.305894 
1 1:-0.64615 2:0.297822 
1 1:-0.664771 2:0.305894 
1 1:-0.64615 2:0.297822 
1 1:-0.664771 2:0.305894 
1 1:-0.64615 2:0.297822 
1 1:-0.664771 2:0.305894 
1 1:-0.64615 2:0.297822 
1 1:-0.664771 2:0.305894 
1 1:-0.64615 2:0.297822 
1 1:-0.664771 2:0.305894 
1 1:-0.64615 2:0.297822 
1 1:-0.664771 2:0.305894 
1 1:-0.64615 2:0.297822 
1 1:-0.664771 2:0.305894 
1 1:-0.64615 2:0.297822 
1 1:-0.664771 2:0.305894 
1 1:-0.64615 2:0.297822 
1 1:-0.664771 2:0.305894 
1 1:-0.64615 2:0.297822 
1 1:-0.664771 2:0.305894 
1 1:-0.64615 2:0.297822 
1 1:-0.664771 2:0.305894 
1 1:-0.64615 2:0.297822 
1 1:-0.664771 2:0.305894 
1 1:-0.64615 2:0.297822 
1 1:-0.664771 2:0.305894 
1 1:-0.64615 2:0.297822 
1 1:-0.664771 2:0.305894 
1 1:-0.64615 2:0.297822 
1 1:-0.664771 2:0.305894 
1 1:-0.64615 2:0.297822 
1 1:-0.664771 2:0.305894 
1 1:-0.64615 2:0.297822 
1 1:-0.416345 2:0.361518 
1 1:-0.673968 2:0.218251 
1 1:-0.416345 2:0.361518 
1 1:-0.673968 2:0.218251 
1 1:-0.416345 2:0.361518 
1 1:-0.673968 2:0.218251 
1 1:-0.416345 2:0.361518 
1 1:-0.673968 2:0.218251 
1 1:-0.416345 2:0.361518 
1 1:-0.673968 2:0.218251 
1 1:-0.416345 2:0.361518 
1 1:-0.673968 2:0.218251 
1 1:-0.416345 2:0.361518 
1 1:-0.673968 2:0.218251 
1 1:-0.416345 2:0.361518 
1 1:-0.673968 2:0.218251 
1 1:-0.416345 2:0.361518 
1 1:-0.673968 2:0.218251 
1 1:-0.416345 2:0.361518 
1 1:-0.673968 2:0.218251 
1 1:-0.416345 2:0.361518 
1 1:-0.673968 2:0.218251 
1 1:-0.416345 2:0.361518 
1 1:-0.673968 2:0.218251 
1 1:-0.416345 2:0.361518 
1 1:-0.673968 2:0.218251 
1 1:-0.416345 2:0.361518 
1 1:-0.673968 2:0.218251 
1 1:-0.416345 2:0.361518 
1 1:-0.673968 2:0.218251 
1 1:-0.416345 2:0.361518 
1 1:-0.673968 2:0.218251 
1 1:-0.416345 2:0.361518 
1 1:-0.673968 2:0.218251 
1 1:-0.416345 2:0.361518 
1 1:-0.673968 2:0.218251 
1 1:-0.416345 2:0.361518 
1 1:-0.673968 2:0.218251 
1 1:-0.416345 2:0.361518 
1 1:-0.673968 2:0.218251 
1 1:-0.416345 2:0.361518 
1 1:-0.673968 2:0.218251 
1 1:-0.416345 2:0.361518 
1 1:-0.673968 2:0.218251 
1 1:-0.416345 2:0.361518 
1 1:-0.673968 2:0.218251 
1 1:-0.416345 2:0.361518 
1 1:-0.673968 2:0.218251 
1 1:-0.416345 2:0.361518 
1 1:-0.673968 2:0.218251 
1 1:-0.416345 2:0.361518 
1 1:-0.673968 2:0.218251 
1 1:-0.416345 2:0.361518 
1 1:-0.673968 2:0.218251 
1 1:-0.416345 2:0.361518 
1 1:-0.673968 2:0.218251 
1 1:-0.416345 2:0.361518 
1 1:-0.673968 2:0.218251 
1 1:-0.416345 2:0.361518 
1 1:-0.673968 2:0.218251 
1 1:-0.416345 2:0.361518 
1 1:-0.673968 2:0.218251 
1 1:-0.416345 2:0.361518 
1 1:-0.673968 2:0.218251 
1 1:-0.416345 2:0.361518 
1 1:-0.673968 2:0.218251 
1 1:-0.416345 2:0.361518 
1 1:-0.673968 2:0.218251 
1 1:-0.416345 2:0.361518 
1 1:-0.673968 2:0.218251 
1 1:-0.416345 2:0.361518 
1 1:-0.673968 2:0.218251 
1 1:-0.416345 2:0.361518 
1 1:-0.673968 2:0.218251 
1 1:-0.416345 2:0.361518 
1 1:-0.673968 2:0.218251 
1 1:-0.416345 2:0.361518 
1 1:-0.673968 2:0.218251 
1 1:-0.416345 2:0.361518 
1 1:-0.673968 2:0.218251 
1 1:-0.416345 2:0.361518 
1 1:-0.673968 2:0.218251 
1 1:-0.416345 2:0.361518 
1 1:-0.673968 2:0.218251 
1 1:-0.416345 2:0.361518 
1 1:-0.673968 2:0.218251 
1 1:-0.416345 2:0.361518 
1 1:-0.673968 2:0.218251 
1 1:-0.416345 2:0.361518 
1 1:-0.673968 2:0.218251 
1 1:-0.416345 2:0.361518 
1 1:-0.673968 2:0.218251 
1 1:-0.416345 2:0.361518 
1 1:-0.673968 2:0.218251 
1 1:-0.416345 2:0.361518 
1 1:-0.673968 2:0.218251 
1 1:-0.416345 2:0.361518 
1 1:-0.673968 2:0.218251 
1 1:-0.416345 2:0.361518 
1 1:-0.673968 2:0.218251 
1 1:-0.416345 2:0.361518 
1 1:-0.673968 2:0.218251 
1 1:-0.416345 2:0.361518 
1 1:-0.673968 2:0.218251 
1 1:-0.416345 2:0.361518 
1 1:-0.673968 2:0.218251 
1 1:-0.416345 2:0.361518 
1 1:-0.673968 2:0.218251 
1 1:-0.416345 2:0.361518 
1 1:-0.673968 2:0.218251 
1 1:-0.416345 2:0.361518 
1 1:-0.673968 2:0.218251 
1 1:-0.416345 2:0.361518 
1 1:-0.673968 2:0.218251 
1 1:-0.416345 2:0.361518 
1 1:-0.673968 2:0.218251 
1 1:-0.416345 2:0.361518 
1 1:-0.673968 2:0.218251 
1 1:-0.416345 2:0.361518 
1 1:-0.673968 2:0.218251 
1 1:-0.416345 2:0.361518 
1 1:-0.673968 2:0.218251 
1 1:-0.416345 2:0.361518 
1 1:-0.673968 2:0.218251 
1 1:-0.416345 2:0.361518 
1 1:-0.673968 2:0.218251 
1 1:-0.416345 2:0.361518 
1 1:-0.673968 2:0.218251 
1 1:-0.416345 2:0.361518 
1 1:-0.673968 2:0.218251 
1 1:-0.416345 2:0.361518 
1 1:-0.673968 2:0.218251 
1 1:-0.416345 2:0.361518 
1 1:-0.673968 2:0.218251 
1 1:-0.416345 2:0.361518 
1 1:-0.673968 2:0.218251 
1 1:-0.416345 2:0.361518 
1 1:-0.673968 2:0.218251 
1 1:-0.416345 2:0.361518 
1 1:-0.673968 2:0.218251 
1 1:-0.416345 2:0.361518 
1 1:-0.673968 2:0.218251 
1 1:-0.416345 2:0.361518 
1 1:-0.673968 2:0.218251 
1 1:-0.416345 2:0.361518 
1 1:-0.673968 2:0.218251 
1 1:-0.416345 2:0.361518 
1 1:-0.673968 2:0.218251 
1 1:-0.416345 2:0.361518 
1 1:-0.673968 2:0.218251 
1 1:-0.416345 2:0.361518 
1 1:-0.673968 2:0.218251 
1 1:-0.416345 2:0.361518 
1 1:-0.673968 2:0.218251 
1 1:-0.416345 2:0.361518 
1 1:-0.673968 2:0.218251 
1 1:-0.416345 2:0.361518 
1 1:-0.673968 2:0.218251 
1 1:-0.416345 2:0.361518 
1 1:-0.673968 2:0.218251 
1 1:-0.416345 2:0.361518 
1 1:-0.673968 2:0.218251 
1 1:-0.416345 2:0.361518 
1 1:-0.673968 2:0.218251 
1 1:-0.416345 2:0.361518 
1 1:-0.673968 2:0.218251 
1 1:-0.416345 2:0.361518 
1 1:-0.673968 2:0.218251 
1 1:-0.416345 2:0.361518 
1 1:-0.673968 2:0.218251 
1 1:-0.416345 2:0.361518 
1 1:-0.673968 2:0.218251 
1 1:-0.416345 2:0.361518 
1 1:-0.673968 2:0.218251 
1 1:-0.416345 2:0.361518 
1 1:-0.673968 2:0.218251 
1 1:-0.416345 2:0.361518 
1 1:-0.673968 2:0.218251 
1 1:-0.416345 2:0.361518 
1 1:-0.673968 2:0.218251 
1 1:-0.416345 2:0.361518 
1 1:-0.673968 2:0.218251 
1 1:-0.416345 2:0.361518 
1 1:-0.673968 2:0.218251 
1 1:-0.416345 2:0.361518 
1 1:-0.673968 2:0.218251 
1 1:-0.416345 2:0.361518 
1 1:-0.673968 2:0.218251 
1 1:-0.416345 2:0.361518 
1 1:-0.673968 2:0.218251 
1 1:-0.416345 2:0.361518 
1 1:-0.974785 2:-0.960354 
1 1:-0.974785 2:-0.960354 
1 1:-0.974785 2:-0.960354 
1 1:-0.974785 2:-0.960354 
1 1:-0.974785 2:-0.960354 
1 1:-0.974785 2:-0.960354 
1 1:-0.974785 2:-0.960354 
1 1:-0.974785 2:-0.960354 
1 1:-0.974785 2:-0.960354 
1 1:-0.974785 2:-0.960354 
1 1:-0.974785 2:-0.960354 
1 1:-0.974785 2:-0.960354 
1 1:-0.974785 2:-0.960354 
1 1:-0.974785 2:-0.960354 
1 1:-0.974785 2:-0.960354 
1 1:-0.974785 2:-0.960354 
1 1:-0.974785 2:-0.960354 
1 1:-0.974785 2:-0.960354 
1 1:-0.974785 2:-0.960354 
1 1:-0.974785 2:-0.960354 
1 1:-0.974785 2:-0.960354 
1 1:-0.974785 2:-0.960354 
1 1:-0.974785 2:-0.960354 
1 1:-0.974785 2:-0.960354 
1 1:-0.974785 2:-0.960354 
1 1:-0.974785 2:-0.960354 
1 1:-0.974785 2:-0.960354 
1 1:-0.974785 2:-0.960354 
1 1:-0.974785 2:-0.960354 
1 1:-0.974785 2:-0.960354 
1 1:-0.974785 2:-0.960354 
1 1:-0.974785 2:-0.960354 
1 1:-0.974785 2:-0.960354 
1 1:-0.974785 2:-0.960354 
1 1:-0.974785 2:-0.960354 
1 1:-0.974785 2:-0.960354 
1 1:-0.974785 2:-0.960354 
1 1:-0.974785 2:-0.960354 
1 1:-0.974785 2:-0.960354 
1 1:-0.974785 2:-0.960354 
1 1:-0.974785 2:-0.960354 
1 1:-0.974785 2:-0.960354 
1 1:-0.974785 2:-0.960354 
1 1:-0.974785 2:-0.960354 
1 1:-0.974785 2:-0.960354 
1 1:-0.974785 2:-0.960354 
1 1:-0.974785 2:-0.960354 
1 1:-0.974785 2:-0.960354 
1 1:-0.974785 2:-0.960354 
1 1:-0.974785 2:-0.960354 
1 1:-0.974785 2:-0.960354 
1 1:-0.974785 2:-0.960354 
1 1:-0.974785 2:-0.960354 
1 1:-0.974785 2:-0.960354 
1 1:-0.974785 2:-0.960354 
1 1:-0.974785 2:-0.960354 
1 1:-0.974785 2:-0.960354 
1 1:-0.974785 2:-0.960354 
1 1:-0.974785 2:-0.960354 
1 1:-0.974785 2:-0.960354 
1 1:-0.974785 2:-0.960354 
1 1:-0.974785 2:-0.960354 
1 1:-0.974785 2:-0.960354 
1 1:-0.974785 2:-0.960354 
1 1:-0.974785 2:-0.960354 
1 1:-0.974785 2:-0.960354 
1 1:-0.974785 2:-0.960354 
1 1:-0.974785 2:-0.960354 
1 1:-0.974785 2:-0.960354 
1 1:-0.974785 2:-0.960354 
1 1:-0.974785 2:-0.960354 
1 1:-0.974785 2:-0.960354 
1 1:-0.974785 2:-0.960354 
1 1:-0.974785 2:-0.960354 
1 1:-0.974785 2:-0.960354 
1 1:-0.974785 2:-0.960354 
1 1:-0.974785 2:-0.960354 
1 1:-0.974785 2:-0.960354 
1 1:-0.974785 2:-0.960354 
1 1:-0.974785 2:-0.960354 
1 1:-0.974785 2:-0.960354 
1 1:-0.974785 2:-0.960354 
1 1:-0.974785 2:-0.960354 
1 1:-0.974785 2:-0.960354 
1 1:-0.974785 2:-0.960354 
1 1:-0.974785 2:-0.960354 
1 1:-0.974785 2:-0.960354 
1 1:-0.974785 2:-0.960354 
1 1:-0.974785 2:-0.960354 
1 1:-0.974785 2:-0.960354 
1 1:-0.974785 2:-0.960354 
1 1:-0.974785 2:-0.960354 
1 1:-0.974785 2:-0.960354 
1 1:-0.974785 2:-0.960354 
1 1:-0.974785 2:-0.960354 
1 1:-0.974785 2:-0.960354 
1 1:-0.988944 2:-0.966329 
1 1:-0.988944 2:-0.966329 
1 1:-0.988944 2:-0.966329 
1 1:-0.988944 2:-0.966329 
1 1:-0.988944 2:-0.966329 
1 1:-0.988944 2:-0.966329 
1 1:-0.988944 2:-0.966329 
1 1:-0.988944 2:-0.966329 
1 1:-0.988944 2:-0.966329 
1 1:-0.988944 2:-0.966329 
1 1:-0.988944 2:-0.966329 
1 1:-0.988944 2:-0.966329 
1 1:-0.988944 2:-0.966329 
1 1:-0.988944 2:-0.966329 
1 1:-0.988944 2:-0.966329 
1 1:-0.988944 2:-0.966329 
1 1:-0.988944 2:-0.966329 
1 1:-0.988944 2:-0.966329 
1 1:-0.988944 2:-0.966329 
1 1:-0.988944 2:-0.966329 
1 1:-0.988944 2:-0.966329 
1 1:-0.988944 2:-0.966329 
1 1:-0.988944 2:-0.966329 
1 1:-0.988944 2:-0.966329 
1 1:-0.988944 2:-0.966329 
1 1:-0.988944 2:-0.966329 
1 1:-0.988944 2:-0.966329 
1 1:-0.988944 2:-0.966329 
1 1:-0.988944 2:-0.966329 
1 1:-0.988944 2:-0.966329 
1 1:-0.988944 2:-0.966329 
1 1:-0.988944 2:-0.966329 
1 1:-0.988944 2:-0.966329 
1 1:-0.988944 2:-0.966329 
1 1:-0.988944 2:-0.966329 
1 1:-0.988944 2:-0.966329 
1 1:-0.988944 2:-0.966329 
1 1:-0.988944 2:-0.966329 
1 1:-0.988944 2:-0.966329 
1 1:-0.988944 2:-0.966329 
1 1:-0.988944 2:-0.966329 
1 1:-0.988944 2:-0.966329 
1 1:-0.988944 2:-0.966329 
1 1:-0.988944 2:-0.966329 
1 1:-0.988944 2:-0.966329 
1 1:-0.988944 2:-0.966329 
1 1:-0.988944 2:-0.966329 
1 1:-0.988944 2:-0.966329 
1 1:-0.988944 2:-0.966329 
1 1:-0.988944 2:-0.966329 
1 1:-0.988944 2:-0.966329 
1 1:-0.988944 2:-0.966329 
1 1:-0.988944 2:-0.966329 
1 1:-0.988944 2:-0.966329 
1 1:-0.988944 2:-0.966329 
1 1:-0.988944 2:-0.966329 
1 1:-0.988944 2:-0.966329 
1 1:-0.988944 2:-0.966329 
1 1:-0.988944 2:-0.966329 
1 1:-0.988944 2:-0.966329 
1 1:-0.988944 2:-0.966329 
1 1:-0.988944 2:-0.966329 
1 1:-0.988944 2:-0.966329 
1 1:-0.988944 2:-0.966329 
1 1:-0.988944 2:-0.966329 
1 1:-0.988944 2:-0.966329 
1 1:-0.988944 2:-0.966329 
1 1:-0.988944 2:-0.966329 
1 1:-0.988944 2:-0.966329 
1 1:-0.988944 2:-0.966329 
1 1:-0.988944 2:-0.966329 
1 1:-0.988944 2:-0.966329 
1 1:-0.988944 2:-0.966329 
1 1:-0.988944 2:-0.966329 
1 1:-0.988944 2:-0.966329 
1 1:-0.988944 2:-0.966329 
1 1:-0.988944 2:-0.966329 
1 1:-0.988944 2:-0.966329 
1 1:-0.988944 2:-0.966329 
1 1:-0.988944 2:-0.966329 
1 1:-0.988944 2:-0.966329 
1 1:-0.988944 2:-0.966329 
1 1:-0.988944 2:-0.966329 
1 1:-0.988944 2:-0.966329 
1 1:-0.988944 2:-0.966329 
1 1:-0.988944 2:-0.966329 
1 1:-0.988944 2:-0.966329 
1 1:-0.988944 2:-0.966329 
1 1:-0.988944 2:-0.966329 
1 1:-0.988944 2:-0.966329 
1 1:-0.988944 2:-0.966329 
1 1:-0.988944 2:-0.966329 
1 1:-0.988944 2:-0.966329 
1 1:-0.988944 2:-0.966329 
1 1:-0.988944 2:-0.966329 
1 1:-0.988944 2:-0.966329 
1 1:-0.98908 2:-0.979639 
1 1:-0.98908 2:-0.979639 
1 1:-0.98908 2:-0.979639 
1 1:-0.98908 2:-0.979639 
1 1:-0.98908 2:-0.979639 
1 1:-0.98908 2:-0.979639 
1 1:-0.98908 2:-0.979639 
1 1:-0.98908 2:-0.979639 
1 1:-0.98908 2:-0.979639 
1 1:-0.98908 2:-0.979639 
1 1:-0.98908 2:-0.979639 
1 1:-0.98908 2:-0.979639 
1 1:-0.98908 2:-0.979639 
1 1:-0.98908 2:-0.979639 
1 1:-0.98908 2:-0.979639 
1 1:-0.98908 2:-0.979639 
1 1:-0.98908 2:-0.979639 
1 1:-0.98908 2:-0.979639 
1 1:-0.98908 2:-0.979639 
1 1:-0.98908 2:-0.979639 
1 1:-0.98908 2:-0.979639 
1 1:-0.98908 2:-0.979639 
1 1:-0.98908 2:-0.979639 
1 1:-0.98908 2:-0.979639 
1 1:-0.98908 2:-0.979639 
1 1:-0.98908 2:-0.979639 
1 1:-0.98908 2:-0.979639 
1 1:-0.98908 2:-0.979639 
1 1:-0.98908 2:-0.979639 
1 1:-0.98908 2:-0.979639 
1 1:-0.98908 2:-0.979639 
1 1:-0.98908 2:-0.979639 
1 1:-0.98908 2:-0.979639 
1 1:-0.98908 2:-0.979639 
1 1:-0.98908 2:-0.979639 
1 1:-0.98908 2:-0.979639 
1 1:-0.98908 2:-0.979639 
1 1:-0.98908 2:-0.979639 
1 1:-0.98908 2:-0.979639 
1 1:-0.98908 2:-0.979639 
1 1:-0.98908 2:-0.979639 
1 1:-0.98908 2:-0.979639 
1 1:-0.98908 2:-0.979639 
1 1:-0.98908 2:-0.979639 
1 1:-0.98908 2:-0.979639 
1 1:-0.98908 2:-0.979639 
1 1:-0.98908 2:-0.979639 
1 1:-0.98908 2:-0.979639 
1 1:-0.98908 2:-0.979639 
1 1:-0.98908 2:-0.979639 
1 1:-0.98908 2:-0.979639 
1 1:-0.98908 2:-0.979639 
1 1:-0.98908 2:-0.979639 
1 1:-0.98908 2:-0.979639 
1 1:-0.98908 2:-0.979639 
1 1:-0.98908 2:-0.979639 
1 1:-0.98908 2:-0.979639 
1 1:-0.98908 2:-0.979639 
1 1:-0.98908 2:-0.979639 
1 1:-0.98908 2:-0.979639 
1 1:-0.98908 2:-0.979639 
1 1:-0.98908 2:-0.979639 
1 1:-0.98908 2:-0.979639 
1 1:-0.98908 2:-0.979639 
1 1:-0.98908 2:-0.979639 
1 1:-0.98908 2:-0.979639 
1 1:-0.98908 2:-0.979639 
1 1:-0.98908 2:-0.979639 
1 1:-0.98908 2:-0.979639 
1 1:-0.98908 2:-0.979639 
1 1:-0.98908 2:-0.979639 
1 1:-0.98908 2:-0.979639 
1 1:-0.98908 2:-0.979639 
1 1:-0.98908 2:-0.979639 
1 1:-0.98908 2:-0.979639 
1 1:-0.98908 2:-0.979639 
1 1:-0.98908 2:-0.979639 
1 1:-0.98908 2:-0.979639 
1 1:-0.98908 2:-0.979639 
1 1:-0.98908 2:-0.979639 
1 1:-0.98908 2:-0.979639 
1 1:-0.98908 2:-0.979639 
1 1:-0.98908 2:-0.979639 
1 1:-0.98908 2:-0.979639 
1 1:-0.98908 2:-0.979639 
1 1:-0.98908 2:-0.979639 
1 1:-0.98908 2:-0.979639 
1 1:-0.98908 2:-0.979639 
1 1:-0.98908 2:-0.979639 
1 1:-0.98908 2:-0.979639 
1 1:-0.98908 2:-0.979639 
1 1:-0.98908 2:-0.979639 
1 1:-0.98908 2:-0.979639 
1 1:-0.98908 2:-0.979639 
1 1:-0.98908 2:-0.979639 
1 1:-0.992373 2:-0.978134 
1 1:-0.992373 2:-0.978134 
1 1:-0.992373 2:-0.978134 
1 1:-0.992373 2:-0.978134 
1 1:-0.992373 2:-0.978134 
1 1:-0.992373 2:-0.978134 
1 1:-0.992373 2:-0.978134 
1 1:-0.992373 2:-0.978134 
1 1:-0.992373 2:-0.978134 
1 1:-0.992373 2:-0.978134 
1 1:-0.992373 2:-0.978134 
1 1:-0.992373 2:-0.978134 
1 1:-0.992373 2:-0.978134 
1 1:-0.992373 2:-0.978134 
1 1:-0.992373 2:-0.978134 
1 1:-0.992373 2:-0.978134 
1 1:-0.992373 2:-0.978134 
1 1:-0.992373 2:-0.978134 
1 1:-0.992373 2:-0.978134 
1 1:-0.992373 2:-0.978134 
1 1:-0.992373 2:-0.978134 
1 1:-0.992373 2:-0.978134 
1 1:-0.992373 2:-0.978134 
1 1:-0.992373 2:-0.978134 
1 1:-0.992373 2:-0.978134 
1 1:-0.992373 2:-0.978134 
1 1:-0.992373 2:-0.978134 
1 1:-0.992373 2:-0.978134 
1 1:-0.992373 2:-0.978134 
1 1:-0.992373 2:-0.978134 
1 1:-0.992373 2:-0.978134 
1 1:-0.992373 2:-0.978134 
1 1:-0.992373 2:-0.978134 
1 1:-0.992373 2:-0.978134 
1 1:-0.992373 2:-0.978134 
1 1:-0.992373 2:-0.978134 
1 1:-0.992373 2:-0.978134 
1 1:-0.992373 2:-0.978134 
1 1:-0.992373 2:-0.978134 
1 1:-0.992373 2:-0.978134 
1 1:-0.992373 2:-0.978134 
1 1:-0.992373 2:-0.978134 
1 1:-0.992373 2:-0.978134 
1 1:-0.992373 2:-0.978134 
1 1:-0.992373 2:-0.978134 
1 1:-0.992373 2:-0.978134 
1 1:-0.992373 2:-0.978134 
1 1:-0.992373 2:-0.978134 
1 1:-0.992373 2:-0.978134 
1 1:-0.992373 2:-0.978134 
1 1:-0.992373 2:-0.978134 
1 1:-0.992373 2:-0.978134 
1 1:-0.992373 2:-0.978134 
1 1:-0.992373 2:-0.978134 
1 1:-0.992373 2:-0.978134 
1 1:-0.992373 2:-0.978134 
1 1:-0.992373 2:-0.978134 
1 1:-0.992373 2:-0.978134 
1 1:-0.992373 2:-0.978134 
1 1:-0.992373 2:-0.978134 
1 1:-0.992373 2:-0.978134 
1 1:-0.992373 2:-0.978134 
1 1:-0.992373 2:-0.978134 
1 1:-0.992373 2:-0.978134 
1 1:-0.992373 2:-0.978134 
1 1:-0.992373 2:-0.978134 
1 1:-0.992373 2:-0.978134 
1 1:-0.992373 2:-0.978134 
1 1:-0.992373 2:-0.978134 
1 1:-0.992373 2:-0.978134 
1 1:-0.992373 2:-0.978134 
1 1:-0.992373 2:-0.978134 
1 1:-0.992373 2:-0.978134 
1 1:-0.992373 2:-0.978134 
1 1:-0.992373 2:-0.978134 
1 1:-0.992373 2:-0.978134 
1 1:-0.992373 2:-0.978134 
1 1:-0.992373 2:-0.978134 
1 1:-0.992373 2:-0.978134 
1 1:-0.992373 2:-0.978134 
1 1:-0.992373 2:-0.978134 
1 1:-0.992373 2:-0.978134 
1 1:-0.992373 2:-0.978134 
1 1:-0.992373 2:-0.978134 
1 1:-0.992373 2:-0.978134 
1 1:-0.992373 2:-0.978134 
1 1:-0.992373 2:-0.978134 
1 1:-0.992373 2:-0.978134 
1 1:-0.992373 2:-0.978134 
1 1:-0.992373 2:-0.978134 
1 1:-0.992373 2:-0.978134 
1 1:-0.992373 2:-0.978134 
1 1:-0.992373 2:-0.978134 
1 1:-0.992373 2:-0.978134 
1 1:-0.992373 2:-0.978134 
1 1:-0.995502 2:-0.983974 
1 1:-0.995502 2:-0.983974 
1 1:-0.995502 2:-0.983974 
1 1:-0.995502 2:-0.983974 
1 1:-0.995502 2:-0.983974 
1 1:-0.995502 2:-0.983974 
1 1:-0.995502 2:-0.983974 
1 1:-0.995502 2:-0.983974 
1 1:-0.995502 2:-0.983974 
1 1:-0.995502 2:-0.983974 
1 1:-0.995502 2:-0.983974 
1 1:-0.995502 2:-0.983974 
1 1:-0.995502 2:-0.983974 
1 1:-0.995502 2:-0.983974 
1 1:-0.995502 2:-0.983974 
1 1:-0.995502 2:-0.983974 
1 1:-0.995502 2:-0.983974 
1 1:-0.995502 2:-0.983974 
1 1:-0.995502 2:-0.983974 
1 1:-0.995502 2:-0.983974 
1 1:-0.995502 2:-0.983974 
1 1:-0.995502 2:-0.983974 
1 1:-0.995502 2:-0.983974 
1 1:-0.995502 2:-0.983974 
1 1:-0.995502 2:-0.983974 
1 1:-0.995502 2:-0.983974 
1 1:-0.995502 2:-0.983974 
1 1:-0.995502 2:-0.983974 
1 1:-0.995502 2:-0.983974 
1 1:-0.995502 2:-0.983974 
1 1:-0.995502 2:-0.983974 
1 1:-0.995502 2:-0.983974 
1 1:-0.995502 2:-0.983974 
1 1:-0.995502 2:-0.983974 
1 1:-0.995502 2:-0.983974 
1 1:-0.995502 2:-0.983974 
1 1:-0.995502 2:-0.983974 
1 1:-0.995502 2:-0.983974 
1 1:-0.995502 2:-0.983974 
1 1:-0.995502 2:-0.983974 
1 1:-0.995502 2:-0.983974 
1 1:-0.995502 2:-0.983974 
1 1:-0.995502 2:-0.983974 
1 1:-0.995502 2:-0.983974 
1 1:-0.995502 2:-0.983974 
1 1:-0.995502 2:-0.983974 
1 1:-0.995502 2:-0.983974 
1 1:-0.995502 2:-0.983974 
1 1:-0.995502 2:-0.983974 
1 1:-0.995502 2:-0.983974 
1 1:-0.995502 2:-0.983974 
1 1:-0.995502 2:-0.983974 
1 1:-0.995502 2:-0.983974 
1 1:-0.995502 2:-0.983974 
1 1:-0.995502 2:-0.983974 
1 1:-0.995502 2:-0.983974 
1 1:-0.995502 2:-0.983974 
1 1:-0.995502 2:-0.983974 
1 1:-0.995502 2:-0.983974 
1 1:-0.995502 2:-0.983974 
1 1:-0.995502 2:-0.983974 
1 1:-0.995502 2:-0.983974 
1 1:-0.995502 2:-0.983974 
1 1:-0.995502 2:-0.983974 
1 1:-0.995502 2:-0.983974 
1 1:-0.995502 2:-0.983974 
1 1:-0.995502 2:-0.983974 
1 1:-0.995502 2:-0.983974 
1 1:-0.995502 2:-0.983974 
1 1:-0.995502 2:-0.983974 
1 1:-0.995502 2:-0.983974 
1 1:-0.995502 2:-0.983974 
1 1:-0.995502 2:-0.983974 
1 1:-0.995502 2:-0.983974 
1 1:-0.995502 2:-0.983974 
1 1:-0.995502 2:-0.983974 
1 1:-0.995502 2:-0.983974 
1 1:-0.995502 2:-0.983974 
1 1:-0.995502 2:-0.983974 
1 1:-0.995502 2:-0.983974 
1 1:-0.995502 2:-0.983974 
1 1:-0.995502 2:-0.983974 
1 1:-0.995502 2:-0.983974 
1 1:-0.995502 2:-0.983974 
1 1:-0.995502 2:-0.983974 
1 1:-0.995502 2:-0.983974 
1 1:-0.995502 2:-0.983974 
1 1:-0.995502 2:-0.983974 
1 1:-0.995502 2:-0.983974 
1 1:-0.995502 2:-0.983974 
1 1:-0.995502 2:-0.983974 
1 1:-0.995502 2:-0.983974 
1 1:-0.995502 2:-0.983974 
1 1:-0.995502 2:-0.983974 
1 1:-0.995502 2:-0.983974 
1 1:-0.995502 2:-0.983974 
1 1:-0.998562 2:-0.992799 
1 1:-0.998562 2:-0.992799 
1 1:-0.998562 2:-0.992799 
1 1:-0.998562 2:-0.992799 
1 1:-0.998562 2:-0.992799 
1 1:-0.998562 2:-0.992799 
1 1:-0.998562 2:-0.992799 
1 1:-0.998562 2:-0.992799 
1 1:-0.998562 2:-0.992799 
1 1:-0.998562 2:-0.992799 
1 1:-0.998562 2:-0.992799 
1 1:-0.998562 2:-0.992799 
1 1:-0.998562 2:-0.992799 
1 1:-0.998562 2:-0.992799 
1 1:-0.998562 2:-0.992799 
1 1:-0.998562 2:-0.992799 
1 1:-0.998562 2:-0.992799 
1 1:-0.998562 2:-0.992799 
1 1:-0.998562 2:-0.992799 
1 1:-0.998562 2:-0.992799 
1 1:-0.998562 2:-0.992799 
1 1:-0.998562 2:-0.992799 
1 1:-0.998562 2:-0.992799 
1 1:-0.998562 2:-0.992799 
1 1:-0.998562 2:-0.992799 
1 1:-0.998562 2:-0.992799 
1 1:-0.998562 2:-0.992799 
1 1:-0.998562 2:-0.992799 
1 1:-0.998562 2:-0.992799 
1 1:-0.998562 2:-0.992799 
1 1:-0.998562 2:-0.992799 
1 1:-0.998562 2:-0.992799 
1 1:-0.998562 2:-0.992799 
1 1:-0.998562 2:-0.992799 
1 1:-0.998562 2:-0.992799 
1 1:-0.998562 2:-0.992799 
