svm_type one_class
kernel_type rbf
gamma 0.5
nr_class 2
total_sv 15134
rho 10879.3
SV
1 1:-0.953563 2:-0.97504 
1 1:-0.953563 2:-0.97504 
1 1:-0.953563 2:-0.97504 
1 1:-0.953563 2:-0.97504 
1 1:-0.953563 2:-0.97504 
1 1:-0.953563 2:-0.97504 
1 1:-0.953563 2:-0.97504 
1 1:-0.953563 2:-0.97504 
1 1:-0.953563 2:-0.97504 
1 1:-0.953563 2:-0.97504 
1 1:-0.953563 2:-0.97504 
1 1:-0.953563 2:-0.97504 
1 1:-0.953563 2:-0.97504 
1 1:-0.953563 2:-0.97504 
1 1:-0.953563 2:-0.97504 
1 1:-0.953563 2:-0.97504 
1 1:-0.953563 2:-0.97504 
1 1:-0.953563 2:-0.97504 
1 1:-0.953563 2:-0.97504 
1 1:-0.953563 2:-0.97504 
1 1:-0.953563 2:-0.97504 
1 1:-0.953563 2:-0.97504 
1 1:-0.953563 2:-0.97504 
1 1:-0.953563 2:-0.97504 
1 1:-0.953563 2:-0.97504 
1 1:-0.953563 2:-0.97504 
1 1:-0.953563 2:-0.97504 
1 1:-0.953563 2:-0.97504 
1 1:-0.960109 2:-0.982404 
1 1:-0.960109 2:-0.982404 
1 1:-0.960109 2:-0.982404 
1 1:-0.960109 2:-0.982404 
1 1:-0.960109 2:-0.982404 
1 1:-0.960109 2:-0.982404 
1 1:-0.960109 2:-0.982404 
1 1:-0.960109 2:-0.982404 
1 1:-0.960109 2:-0.982404 
1 1:-0.960109 2:-0.982404 
1 1:-0.960109 2:-0.982404 
1 1:-0.960109 2:-0.982404 
1 1:-0.960109 2:-0.982404 
1 1:-0.960109 2:-0.982404 
1 1:-0.960109 2:-0.982404 
1 1:-0.960109 2:-0.982404 
1 1:-0.960109 2:-0.982404 
1 1:-0.960109 2:-0.982404 
1 1:-0.960109 2:-0.982404 
1 1:-0.960109 2:-0.982404 
1 1:-0.960109 2:-0.982404 
1 1:-0.960109 2:-0.982404 
1 1:-0.960109 2:-0.982404 
1 1:-0.960109 2:-0.982404 
1 1:-0.960109 2:-0.982404 
1 1:-0.960109 2:-0.982404 
1 1:-0.960109 2:-0.982404 
1 1:-0.960109 2:-0.982404 
1 1:-0.960109 2:-0.982404 
1 1:-0.960109 2:-0.982404 
1 1:-0.960109 2:-0.982404 
1 1:-0.960109 2:-0.982404 
1 1:-0.960109 2:-0.982404 
1 1:-0.960109 2:-0.982404 
1 1:-0.960109 2:-0.982404 
1 1:-0.960109 2:-0.982404 
1 1:-0.960109 2:-0.982404 
1 1:-0.960109 2:-0.982404 
1 1:-0.960109 2:-0.982404 
1 1:-0.960109 2:-0.982404 
1 1:-0.960109 2:-0.982404 
1 1:-0.960109 2:-0.982404 
1 1:-0.960109 2:-0.982404 
1 1:-0.960109 2:-0.982404 
1 1:-0.960109 2:-0.982404 
1 1:-0.960109 2:-0.982404 
1 1:-0.960109 2:-0.982404 
1 1:-0.960109 2:-0.982404 
1 1:-0.960109 2:-0.982404 
1 1:-0.960109 2:-0.982404 
1 1:-0.960109 2:-0.982404 
1 1:-0.960109 2:-0.982404 
1 1:-0.960109 2:-0.982404 
1 1:-0.960109 2:-0.982404 
1 1:-0.960109 2:-0.982404 
1 1:-0.960109 2:-0.982404 
1 1:-0.960109 2:-0.982404 
1 1:-0.960109 2:-0.982404 
1 1:-0.960109 2:-0.982404 
1 1:-0.960109 2:-0.982404 
1 1:-0.960109 2:-0.982404 
1 1:-0.960109 2:-0.982404 
1 1:-0.960109 2:-0.982404 
1 1:-0.960109 2:-0.982404 
1 1:-0.960109 2:-0.982404 
1 1:-0.960109 2:-0.982404 
1 1:-0.960109 2:-0.982404 
1 1:-0.960109 2:-0.982404 
1 1:-0.960109 2:-0.982404 
1 1:-0.960109 2:-0.982404 
1 1:-0.960109 2:-0.982404 
1 1:-0.960109 2:-0.982404 
1 1:-0.960109 2:-0.982404 
1 1:-0.960109 2:-0.982404 
1 1:-0.960109 2:-0.982404 
1 1:-0.960109 2:-0.982404 
1 1:-0.960109 2:-0.982404 
1 1:-0.960109 2:-0.982404 
1 1:-0.960109 2:-0.982404 
1 1:-0.960109 2:-0.982404 
1 1:-0.960109 2:-0.982404 
1 1:-0.960109 2:-0.982404 
1 1:-0.960109 2:-0.982404 
1 1:-0.960109 2:-0.982404 
1 1:-0.960109 2:-0.982404 
1 1:-0.960109 2:-0.982404 
1 1:-0.960109 2:-0.982404 
1 1:-0.960109 2:-0.982404 
1 1:-0.960109 2:-0.982404 
1 1:-0.960109 2:-0.982404 
1 1:-0.960109 2:-0.982404 
1 1:-0.960109 2:-0.982404 
1 1:-0.960109 2:-0.982404 
1 1:-0.960109 2:-0.982404 
1 1:-0.960109 2:-0.982404 
1 1:-0.960109 2:-0.982404 
1 1:-0.745498 2:0.387444 
1 1:-0.745498 2:0.387444 
1 1:-0.745498 2:0.387444 
1 1:-0.745498 2:0.387444 
1 1:-0.745498 2:0.387444 
1 1:-0.745498 2:0.387444 
1 1:-0.745498 2:0.387444 
1 1:-0.745498 2:0.387444 
1 1:-0.745498 2:0.387444 
1 1:-0.745498 2:0.387444 
1 1:-0.745498 2:0.387444 
1 1:-0.745498 2:0.387444 
1 1:-0.745498 2:0.387444 
1 1:-0.745498 2:0.387444 
1 1:-0.745498 2:0.387444 
1 1:-0.745498 2:0.387444 
1 1:-0.745498 2:0.387444 
1 1:-0.745498 2:0.387444 
1 1:-0.745498 2:0.387444 
1 1:-0.745498 2:0.387444 
1 1:-0.745498 2:0.387444 
1 1:-0.745498 2:0.387444 
1 1:-0.745498 2:0.387444 
1 1:-0.745498 2:0.387444 
1 1:-0.745498 2:0.387444 
1 1:-0.745498 2:0.387444 
1 1:-0.745498 2:0.387444 
1 1:-0.745498 2:0.387444 
1 1:-0.745498 2:0.387444 
1 1:-0.745498 2:0.387444 
1 1:-0.745498 2:0.387444 
1 1:-0.745498 2:0.387444 
1 1:-0.745498 2:0.387444 
1 1:-0.745498 2:0.387444 
1 1:-0.745498 2:0.387444 
1 1:-0.745498 2:0.387444 
1 1:-0.745498 2:0.387444 
1 1:-0.745498 2:0.387444 
1 1:-0.745498 2:0.387444 
1 1:-0.745498 2:0.387444 
1 1:-0.745498 2:0.387444 
1 1:-0.745498 2:0.387444 
1 1:-0.745498 2:0.387444 
1 1:-0.745498 2:0.387444 
1 1:-0.745498 2:0.387444 
1 1:-0.745498 2:0.387444 
1 1:-0.745498 2:0.387444 
1 1:-0.745498 2:0.387444 
1 1:-0.745498 2:0.387444 
1 1:-0.745498 2:0.387444 
1 1:-0.745498 2:0.387444 
1 1:-0.745498 2:0.387444 
1 1:-0.745498 2:0.387444 
1 1:-0.745498 2:0.387444 
1 1:-0.745498 2:0.387444 
1 1:-0.745498 2:0.387444 
1 1:-0.745498 2:0.387444 
1 1:-0.745498 2:0.387444 
1 1:-0.745498 2:0.387444 
1 1:-0.745498 2:0.387444 
1 1:-0.745498 2:0.387444 
1 1:-0.745498 2:0.387444 
1 1:-0.745498 2:0.387444 
1 1:-0.745498 2:0.387444 
1 1:-0.745498 2:0.387444 
1 1:-0.745498 2:0.387444 
1 1:-0.745498 2:0.387444 
1 1:-0.745498 2:0.387444 
1 1:-0.745498 2:0.387444 
1 1:-0.745498 2:0.387444 
1 1:-0.745498 2:0.387444 
1 1:-0.745498 2:0.387444 
1 1:-0.745498 2:0.387444 
1 1:-0.745498 2:0.387444 
1 1:-0.745498 2:0.387444 
1 1:-0.745498 2:0.387444 
1 1:-0.745498 2:0.387444 
1 1:-0.745498 2:0.387444 
1 1:-0.745498 2:0.387444 
1 1:-0.745498 2:0.387444 
1 1:-0.745498 2:0.387444 
1 1:-0.745498 2:0.387444 
1 1:-0.745498 2:0.387444 
1 1:-0.745498 2:0.387444 
1 1:-0.745498 2:0.387444 
1 1:-0.745498 2:0.387444 
1 1:-0.745498 2:0.387444 
1 1:-0.745498 2:0.387444 
1 1:-0.745498 2:0.387444 
1 1:-0.745498 2:0.387444 
1 1:-0.745498 2:0.387444 
1 1:-0.745498 2:0.387444 
1 1:-0.745498 2:0.387444 
1 1:-0.745498 2:0.387444 
1 1:-0.745498 2:0.387444 
1 1:-0.745498 2:0.387444 
1 1:-0.745498 2:0.387444 
1 1:0.0727966 2:-0.214715 
1 1:0.0727966 2:-0.214715 
1 1:0.0727966 2:-0.214715 
1 1:0.0727966 2:-0.214715 
1 1:0.0727966 2:-0.214715 
1 1:0.0727966 2:-0.214715 
1 1:0.0727966 2:-0.214715 
1 1:0.0727966 2:-0.214715 
1 1:0.0727966 2:-0.214715 
1 1:0.0727966 2:-0.214715 
1 1:0.0727966 2:-0.214715 
1 1:0.0727966 2:-0.214715 
1 1:0.0727966 2:-0.214715 
1 1:0.0727966 2:-0.214715 
1 1:0.0727966 2:-0.214715 
1 1:0.0727966 2:-0.214715 
1 1:0.0727966 2:-0.214715 
1 1:0.0727966 2:-0.214715 
1 1:0.0727966 2:-0.214715 
1 1:0.0727966 2:-0.214715 
1 1:0.0727966 2:-0.214715 
1 1:0.0727966 2:-0.214715 
1 1:0.0727966 2:-0.214715 
1 1:0.0727966 2:-0.214715 
1 1:0.0727966 2:-0.214715 
1 1:0.0727966 2:-0.214715 
1 1:0.0727966 2:-0.214715 
1 1:0.0727966 2:-0.214715 
1 1:0.0727966 2:-0.214715 
1 1:0.0727966 2:-0.214715 
1 1:0.0727966 2:-0.214715 
1 1:0.0727966 2:-0.214715 
1 1:0.0727966 2:-0.214715 
1 1:0.0727966 2:-0.214715 
1 1:0.0727966 2:-0.214715 
1 1:0.0727966 2:-0.214715 
1 1:0.0727966 2:-0.214715 
1 1:0.0727966 2:-0.214715 
1 1:0.0727966 2:-0.214715 
1 1:0.0727966 2:-0.214715 
1 1:0.0727966 2:-0.214715 
1 1:0.0727966 2:-0.214715 
1 1:0.0727966 2:-0.214715 
1 1:0.0727966 2:-0.214715 
1 1:0.0727966 2:-0.214715 
1 1:0.0727966 2:-0.214715 
1 1:0.0727966 2:-0.214715 
1 1:0.0727966 2:-0.214715 
1 1:0.0727966 2:-0.214715 
1 1:0.0727966 2:-0.214715 
1 1:0.0727966 2:-0.214715 
1 1:0.0727966 2:-0.214715 
1 1:0.0727966 2:-0.214715 
1 1:0.0727966 2:-0.214715 
1 1:0.0727966 2:-0.214715 
1 1:0.0727966 2:-0.214715 
1 1:0.0727966 2:-0.214715 
1 1:0.0727966 2:-0.214715 
1 1:0.0727966 2:-0.214715 
1 1:0.0727966 2:-0.214715 
1 1:0.0727966 2:-0.214715 
1 1:0.0727966 2:-0.214715 
1 1:0.0727966 2:-0.214715 
1 1:0.0727966 2:-0.214715 
1 1:0.0727966 2:-0.214715 
1 1:0.0727966 2:-0.214715 
1 1:0.0727966 2:-0.214715 
1 1:0.0727966 2:-0.214715 
1 1:0.0727966 2:-0.214715 
1 1:0.0727966 2:-0.214715 
1 1:0.0727966 2:-0.214715 
1 1:0.0727966 2:-0.214715 
1 1:0.0727966 2:-0.214715 
1 1:0.0727966 2:-0.214715 
1 1:0.0727966 2:-0.214715 
1 1:0.0727966 2:-0.214715 
1 1:0.0727966 2:-0.214715 
1 1:0.0727966 2:-0.214715 
1 1:0.0727966 2:-0.214715 
1 1:0.0727966 2:-0.214715 
1 1:0.0727966 2:-0.214715 
1 1:0.0727966 2:-0.214715 
1 1:0.0727966 2:-0.214715 
1 1:0.0727966 2:-0.214715 
1 1:0.0727966 2:-0.214715 
1 1:0.0727966 2:-0.214715 
1 1:0.0727966 2:-0.214715 
1 1:0.0727966 2:-0.214715 
1 1:0.0727966 2:-0.214715 
1 1:0.0727966 2:-0.214715 
1 1:0.0727966 2:-0.214715 
1 1:0.0727966 2:-0.214715 
1 1:0.0727966 2:-0.214715 
1 1:-0.978639 2:-0.971312 
1 1:-0.978639 2:-0.971312 
1 1:-0.978639 2:-0.971312 
1 1:-0.978639 2:-0.971312 
1 1:-0.978639 2:-0.971312 
1 1:-0.978639 2:-0.971312 
1 1:-0.978639 2:-0.971312 
1 1:-0.978639 2:-0.971312 
1 1:-0.978639 2:-0.971312 
1 1:-0.978639 2:-0.971312 
1 1:-0.978639 2:-0.971312 
1 1:-0.978639 2:-0.971312 
1 1:-0.978639 2:-0.971312 
1 1:-0.978639 2:-0.971312 
1 1:-0.978639 2:-0.971312 
1 1:-0.978639 2:-0.971312 
1 1:-0.978639 2:-0.971312 
1 1:-0.978639 2:-0.971312 
1 1:-0.978639 2:-0.971312 
1 1:-0.978639 2:-0.971312 
1 1:-0.978639 2:-0.971312 
1 1:-0.978639 2:-0.971312 
1 1:-0.978639 2:-0.971312 
1 1:-0.978639 2:-0.971312 
1 1:-0.978639 2:-0.971312 
1 1:-0.978639 2:-0.971312 
1 1:-0.978639 2:-0.971312 
1 1:-0.978639 2:-0.971312 
1 1:-0.978639 2:-0.971312 
1 1:-0.978639 2:-0.971312 
1 1:-0.978639 2:-0.971312 
1 1:-0.978639 2:-0.971312 
1 1:-0.978639 2:-0.971312 
1 1:-0.978639 2:-0.971312 
1 1:-0.978639 2:-0.971312 
1 1:-0.978639 2:-0.971312 
1 1:-0.978639 2:-0.971312 
1 1:-0.978639 2:-0.971312 
1 1:-0.978639 2:-0.971312 
1 1:-0.978639 2:-0.971312 
1 1:-0.978639 2:-0.971312 
1 1:-0.978639 2:-0.971312 
1 1:-0.978639 2:-0.971312 
1 1:-0.978639 2:-0.971312 
1 1:-0.978639 2:-0.971312 
1 1:-0.978639 2:-0.971312 
1 1:-0.978639 2:-0.971312 
1 1:-0.978639 2:-0.971312 
1 1:-0.978639 2:-0.971312 
1 1:-0.978639 2:-0.971312 
1 1:-0.978639 2:-0.971312 
1 1:-0.978639 2:-0.971312 
1 1:-0.978639 2:-0.971312 
1 1:-0.978639 2:-0.971312 
1 1:-0.978639 2:-0.971312 
1 1:-0.978639 2:-0.971312 
1 1:-0.978639 2:-0.971312 
1 1:-0.978639 2:-0.971312 
1 1:-0.978639 2:-0.971312 
1 1:-0.978639 2:-0.971312 
1 1:-0.978639 2:-0.971312 
1 1:-0.978639 2:-0.971312 
1 1:-0.978639 2:-0.971312 
1 1:-0.978639 2:-0.971312 
1 1:-0.978639 2:-0.971312 
1 1:-0.978639 2:-0.971312 
1 1:-0.978639 2:-0.971312 
1 1:-0.978639 2:-0.971312 
1 1:-0.978639 2:-0.971312 
1 1:-0.978639 2:-0.971312 
1 1:-0.978639 2:-0.971312 
1 1:-0.978639 2:-0.971312 
1 1:-0.978639 2:-0.971312 
1 1:-0.978639 2:-0.971312 
1 1:-0.978639 2:-0.971312 
1 1:-0.978639 2:-0.971312 
1 1:-0.978639 2:-0.971312 
1 1:-0.978639 2:-0.971312 
1 1:-0.978639 2:-0.971312 
1 1:-0.978639 2:-0.971312 
1 1:-0.978639 2:-0.971312 
1 1:-0.978639 2:-0.971312 
1 1:-0.978639 2:-0.971312 
1 1:-0.978639 2:-0.971312 
1 1:-0.978639 2:-0.971312 
1 1:-0.978639 2:-0.971312 
1 1:-0.978639 2:-0.971312 
1 1:-0.978639 2:-0.971312 
1 1:-0.985541 2:-0.991898 
1 1:-0.987907 2:-0.980181 
1 1:-0.985541 2:-0.991898 
1 1:-0.987907 2:-0.980181 
1 1:-0.985541 2:-0.991898 
1 1:-0.987907 2:-0.980181 
1 1:-0.985541 2:-0.991898 
1 1:-0.987907 2:-0.980181 
1 1:-0.985541 2:-0.991898 
1 1:-0.987907 2:-0.980181 
1 1:-0.985541 2:-0.991898 
1 1:-0.987907 2:-0.980181 
1 1:-0.985541 2:-0.991898 
1 1:-0.987907 2:-0.980181 
1 1:-0.985541 2:-0.991898 
1 1:-0.987907 2:-0.980181 
1 1:-0.985541 2:-0.991898 
1 1:-0.987907 2:-0.980181 
1 1:-0.985541 2:-0.991898 
1 1:-0.987907 2:-0.980181 
1 1:-0.985541 2:-0.991898 
1 1:-0.987907 2:-0.980181 
1 1:-0.985541 2:-0.991898 
1 1:-0.987907 2:-0.980181 
1 1:-0.985541 2:-0.991898 
1 1:-0.987907 2:-0.980181 
1 1:-0.985541 2:-0.991898 
1 1:-0.987907 2:-0.980181 
1 1:-0.985541 2:-0.991898 
1 1:-0.987907 2:-0.980181 
1 1:-0.985541 2:-0.991898 
1 1:-0.987907 2:-0.980181 
1 1:-0.985541 2:-0.991898 
1 1:-0.987907 2:-0.980181 
1 1:-0.985541 2:-0.991898 
1 1:-0.987907 2:-0.980181 
1 1:-0.985541 2:-0.991898 
1 1:-0.987907 2:-0.980181 
1 1:-0.985541 2:-0.991898 
1 1:-0.987907 2:-0.980181 
1 1:-0.985541 2:-0.991898 
1 1:-0.987907 2:-0.980181 
1 1:-0.985541 2:-0.991898 
1 1:-0.987907 2:-0.980181 
1 1:-0.985541 2:-0.991898 
1 1:-0.987907 2:-0.980181 
1 1:-0.985541 2:-0.991898 
1 1:-0.987907 2:-0.980181 
1 1:-0.985541 2:-0.991898 
1 1:-0.987907 2:-0.980181 
1 1:-0.985541 2:-0.991898 
1 1:-0.987907 2:-0.980181 
1 1:-0.985541 2:-0.991898 
1 1:-0.987907 2:-0.980181 
1 1:-0.985541 2:-0.991898 
1 1:-0.987907 2:-0.980181 
1 1:-0.985541 2:-0.991898 
1 1:-0.987907 2:-0.980181 
1 1:-0.985541 2:-0.991898 
1 1:-0.987907 2:-0.980181 
1 1:-0.985541 2:-0.991898 
1 1:-0.987907 2:-0.980181 
1 1:-0.985541 2:-0.991898 
1 1:-0.987907 2:-0.980181 
1 1:-0.985541 2:-0.991898 
1 1:-0.987907 2:-0.980181 
1 1:-0.985541 2:-0.991898 
1 1:-0.987907 2:-0.980181 
1 1:-0.985541 2:-0.991898 
1 1:-0.987907 2:-0.980181 
1 1:-0.985541 2:-0.991898 
1 1:-0.987907 2:-0.980181 
1 1:-0.985541 2:-0.991898 
1 1:-0.987907 2:-0.980181 
1 1:-0.985541 2:-0.991898 
1 1:-0.987907 2:-0.980181 
1 1:-0.985541 2:-0.991898 
1 1:-0.987907 2:-0.980181 
1 1:-0.985541 2:-0.991898 
1 1:-0.987907 2:-0.980181 
1 1:-0.985541 2:-0.991898 
1 1:-0.987907 2:-0.980181 
1 1:-0.985541 2:-0.991898 
1 1:-0.987907 2:-0.980181 
1 1:-0.985541 2:-0.991898 
1 1:-0.987907 2:-0.980181 
1 1:-0.985541 2:-0.991898 
1 1:-0.987907 2:-0.980181 
1 1:-0.985541 2:-0.991898 
1 1:-0.987907 2:-0.980181 
1 1:-0.985541 2:-0.991898 
1 1:-0.987907 2:-0.980181 
1 1:-0.985541 2:-0.991898 
1 1:-0.987907 2:-0.980181 
1 1:-0.985541 2:-0.991898 
1 1:-0.987907 2:-0.980181 
1 1:-0.985541 2:-0.991898 
1 1:-0.987907 2:-0.980181 
1 1:-0.985541 2:-0.991898 
1 1:-0.987907 2:-0.980181 
1 1:-0.985541 2:-0.991898 
1 1:-0.987907 2:-0.980181 
1 1:-0.985541 2:-0.991898 
1 1:-0.987907 2:-0.980181 
1 1:-0.985541 2:-0.991898 
1 1:-0.987907 2:-0.980181 
1 1:-0.989505 2:-0.972452 
1 1:-0.998395 2:-0.957381 
1 1:-0.989505 2:-0.972452 
1 1:-0.998395 2:-0.957381 
1 1:-0.989505 2:-0.972452 
1 1:-0.998395 2:-0.957381 
1 1:-0.989505 2:-0.972452 
1 1:-0.998395 2:-0.957381 
1 1:-0.989505 2:-0.972452 
1 1:-0.998395 2:-0.957381 
1 1:-0.989505 2:-0.972452 
1 1:-0.998395 2:-0.957381 
1 1:-0.989505 2:-0.972452 
1 1:-0.998395 2:-0.957381 
1 1:-0.989505 2:-0.972452 
1 1:-0.998395 2:-0.957381 
1 1:-0.989505 2:-0.972452 
1 1:-0.998395 2:-0.957381 
1 1:-0.989505 2:-0.972452 
1 1:-0.998395 2:-0.957381 
1 1:-0.989505 2:-0.972452 
1 1:-0.998395 2:-0.957381 
1 1:-0.989505 2:-0.972452 
1 1:-0.998395 2:-0.957381 
1 1:-0.989505 2:-0.972452 
1 1:-0.998395 2:-0.957381 
1 1:-0.989505 2:-0.972452 
1 1:-0.998395 2:-0.957381 
1 1:-0.989505 2:-0.972452 
1 1:-0.998395 2:-0.957381 
1 1:-0.989505 2:-0.972452 
1 1:-0.998395 2:-0.957381 
1 1:-0.989505 2:-0.972452 
1 1:-0.998395 2:-0.957381 
1 1:-0.989505 2:-0.972452 
1 1:-0.998395 2:-0.957381 
1 1:-0.989505 2:-0.972452 
1 1:-0.998395 2:-0.957381 
1 1:-0.989505 2:-0.972452 
1 1:-0.998395 2:-0.957381 
1 1:-0.989505 2:-0.972452 
1 1:-0.998395 2:-0.957381 
1 1:-0.989505 2:-0.972452 
1 1:-0.998395 2:-0.957381 
1 1:-0.989505 2:-0.972452 
1 1:-0.998395 2:-0.957381 
1 1:-0.989505 2:-0.972452 
1 1:-0.998395 2:-0.957381 
1 1:-0.989505 2:-0.972452 
1 1:-0.998395 2:-0.957381 
1 1:-0.989505 2:-0.972452 
1 1:-0.998395 2:-0.957381 
1 1:-0.989505 2:-0.972452 
1 1:-0.998395 2:-0.957381 
1 1:-0.989505 2:-0.972452 
1 1:-0.998395 2:-0.957381 
1 1:-0.989505 2:-0.972452 
1 1:-0.998395 2:-0.957381 
1 1:-0.989505 2:-0.972452 
1 1:-0.998395 2:-0.957381 
1 1:-0.989505 2:-0.972452 
1 1:-0.998395 2:-0.957381 
1 1:-0.989505 2:-0.972452 
1 1:-0.998395 2:-0.957381 
1 1:-0.989505 2:-0.972452 
1 1:-0.998395 2:-0.957381 
1 1:-0.989505 2:-0.972452 
1 1:-0.998395 2:-0.957381 
1 1:-0.989505 2:-0.972452 
1 1:-0.998395 2:-0.957381 
1 1:-0.989505 2:-0.972452 
1 1:-0.998395 2:-0.957381 
1 1:-0.989505 2:-0.972452 
1 1:-0.998395 2:-0.957381 
1 1:-0.989505 2:-0.972452 
1 1:-0.998395 2:-0.957381 
1 1:-0.989505 2:-0.972452 
1 1:-0.998395 2:-0.957381 
1 1:-0.989505 2:-0.972452 
1 1:-0.998395 2:-0.957381 
1 1:-0.989505 2:-0.972452 
1 1:-0.998395 2:-0.957381 
1 1:-0.989505 2:-0.972452 
1 1:-0.998395 2:-0.957381 
1 1:-0.989505 2:-0.972452 
1 1:-0.998395 2:-0.957381 
1 1:-0.923907 2:0.0167714 
1 1:-0.994052 2:-0.984946 
1 1:-0.923907 2:0.0167714 
1 1:-0.994052 2:-0.984946 
1 1:-0.923907 2:0.0167714 
1 1:-0.994052 2:-0.984946 
1 1:-0.923907 2:0.0167714 
1 1:-0.994052 2:-0.984946 
1 1:-0.923907 2:0.0167714 
1 1:-0.994052 2:-0.984946 
1 1:-0.923907 2:0.0167714 
1 1:-0.994052 2:-0.984946 
1 1:-0.923907 2:0.0167714 
1 1:-0.994052 2:-0.984946 
1 1:-0.923907 2:0.0167714 
1 1:-0.994052 2:-0.984946 
1 1:-0.923907 2:0.0167714 
1 1:-0.994052 2:-0.984946 
1 1:-0.923907 2:0.0167714 
1 1:-0.994052 2:-0.984946 
1 1:-0.923907 2:0.0167714 
1 1:-0.994052 2:-0.984946 
1 1:-0.923907 2:0.0167714 
1 1:-0.994052 2:-0.984946 
1 1:-0.923907 2:0.0167714 
1 1:-0.994052 2:-0.984946 
1 1:-0.923907 2:0.0167714 
1 1:-0.994052 2:-0.984946 
1 1:-0.923907 2:0.0167714 
1 1:-0.994052 2:-0.984946 
1 1:-0.923907 2:0.0167714 
1 1:-0.994052 2:-0.984946 
1 1:-0.923907 2:0.0167714 
1 1:-0.994052 2:-0.984946 
1 1:-0.923907 2:0.0167714 
1 1:-0.994052 2:-0.984946 
1 1:-0.923907 2:0.0167714 
1 1:-0.994052 2:-0.984946 
1 1:-0.923907 2:0.0167714 
1 1:-0.994052 2:-0.984946 
1 1:-0.923907 2:0.0167714 
1 1:-0.994052 2:-0.984946 
1 1:-0.923907 2:0.0167714 
1 1:-0.994052 2:-0.984946 
1 1:-0.923907 2:0.0167714 
1 1:-0.994052 2:-0.984946 
1 1:-0.923907 2:0.0167714 
1 1:-0.994052 2:-0.984946 
1 1:-0.923907 2:0.0167714 
1 1:-0.994052 2:-0.984946 
1 1:-0.923907 2:0.0167714 
1 1:-0.994052 2:-0.984946 
1 1:-0.923907 2:0.0167714 
1 1:-0.994052 2:-0.984946 
1 1:-0.923907 2:0.0167714 
1 1:-0.994052 2:-0.984946 
1 1:-0.923907 2:0.0167714 
1 1:-0.994052 2:-0.984946 
1 1:-0.923907 2:0.0167714 
1 1:-0.994052 2:-0.984946 
1 1:-0.923907 2:0.0167714 
1 1:-0.994052 2:-0.984946 
1 1:-0.923907 2:0.0167714 
1 1:-0.994052 2:-0.984946 
1 1:-0.923907 2:0.0167714 
1 1:-0.994052 2:-0.984946 
1 1:-0.923907 2:0.0167714 
1 1:-0.994052 2:-0.984946 
1 1:-0.923907 2:0.0167714 
1 1:-0.994052 2:-0.984946 
1 1:-0.923907 2:0.0167714 
1 1:-0.994052 2:-0.984946 
1 1:-0.923907 2:0.0167714 
1 1:-0.994052 2:-0.984946 
1 1:-0.923907 2:0.0167714 
1 1:-0.994052 2:-0.984946 
1 1:-0.923907 2:0.0167714 
1 1:-0.994052 2:-0.984946 
1 1:-0.923907 2:0.0167714 
1 1:-0.994052 2:-0.984946 
1 1:-0.923907 2:0.0167714 
1 1:-0.994052 2:-0.984946 
1 1:-0.923907 2:0.0167714 
1 1:-0.994052 2:-0.984946 
1 1:-0.923907 2:0.0167714 
1 1:-0.994052 2:-0.984946 
1 1:-0.923907 2:0.0167714 
1 1:-0.994052 2:-0.984946 
1 1:-0.923907 2:0.0167714 
1 1:-0.994052 2:-0.984946 
1 1:-0.923907 2:0.0167714 
1 1:-0.994052 2:-0.984946 
1 1:-0.923907 2:0.0167714 
1 1:-0.994052 2:-0.984946 
1 1:-0.923907 2:0.0167714 
1 1:-0.994052 2:-0.984946 
1 1:-0.923907 2:0.0167714 
1 1:-0.994052 2:-0.984946 
1 1:-0.923907 2:0.0167714 
1 1:-0.994052 2:-0.984946 
1 1:-0.923907 2:0.0167714 
1 1:-0.994052 2:-0.984946 
1 1:-0.923907 2:0.0167714 
1 1:-0.994052 2:-0.984946 
1 1:-0.923907 2:0.0167714 
1 1:-0.994052 2:-0.984946 
1 1:-0.923907 2:0.0167714 
1 1:-0.994052 2:-0.984946 
1 1:-0.923907 2:0.0167714 
1 1:-0.994052 2:-0.984946 
1 1:-0.923907 2:0.0167714 
1 1:-0.994052 2:-0.984946 
1 1:-0.923907 2:0.0167714 
1 1:-0.994052 2:-0.984946 
1 1:-0.923907 2:0.0167714 
1 1:-0.994052 2:-0.984946 
1 1:-0.923907 2:0.0167714 
1 1:-0.994052 2:-0.984946 
1 1:-0.923907 2:0.0167714 
1 1:-0.994052 2:-0.984946 
1 1:-0.923907 2:0.0167714 
1 1:-0.994052 2:-0.984946 
1 1:-0.923907 2:0.0167714 
1 1:-0.994052 2:-0.984946 
1 1:-0.923907 2:0.0167714 
1 1:-0.994052 2:-0.984946 
1 1:-0.923907 2:0.0167714 
1 1:-0.994052 2:-0.984946 
1 1:-0.923907 2:0.0167714 
1 1:-0.994052 2:-0.984946 
1 1:-0.923907 2:0.0167714 
1 1:-0.994052 2:-0.984946 
1 1:-0.923907 2:0.0167714 
1 1:-0.994052 2:-0.984946 
1 1:-0.923907 2:0.0167714 
1 1:-0.994052 2:-0.984946 
1 1:-0.923907 2:0.0167714 
1 1:-0.994052 2:-0.984946 
1 1:-0.923907 2:0.0167714 
1 1:-0.994052 2:-0.984946 
1 1:-0.923907 2:0.0167714 
1 1:-0.994052 2:-0.984946 
1 1:-0.923907 2:0.0167714 
1 1:-0.994052 2:-0.984946 
1 1:-0.923907 2:0.0167714 
1 1:-0.994052 2:-0.984946 
1 1:-0.923907 2:0.0167714 
1 1:-0.994052 2:-0.984946 
1 1:-0.923907 2:0.0167714 
1 1:-0.994052 2:-0.984946 
1 1:-0.923907 2:0.0167714 
1 1:-0.994052 2:-0.984946 
1 1:-0.923907 2:0.0167714 
1 1:-0.994052 2:-0.984946 
1 1:-0.923907 2:0.0167714 
1 1:-0.994052 2:-0.984946 
1 1:-0.923907 2:0.0167714 
1 1:-0.994052 2:-0.984946 
1 1:-0.923907 2:0.0167714 
1 1:-0.994052 2:-0.984946 
1 1:-0.923907 2:0.0167714 
1 1:-0.994052 2:-0.984946 
1 1:-0.923907 2:0.0167714 
1 1:-0.994052 2:-0.984946 
1 1:-0.923907 2:0.0167714 
1 1:-0.994052 2:-0.984946 
1 1:-0.923907 2:0.0167714 
1 1:-0.994052 2:-0.984946 
1 1:-0.923907 2:0.0167714 
1 1:-0.994052 2:-0.984946 
1 1:-0.923907 2:0.0167714 
1 1:-0.994052 2:-0.984946 
1 1:-0.923907 2:0.0167714 
1 1:-0.994052 2:-0.984946 
1 1:-0.923907 2:0.0167714 
1 1:-0.994052 2:-0.984946 
1 1:-0.923907 2:0.0167714 
1 1:-0.994052 2:-0.984946 
1 1:-0.923907 2:0.0167714 
1 1:-0.994052 2:-0.984946 
1 1:-0.923907 2:0.0167714 
1 1:-0.994052 2:-0.984946 
1 1:-0.923907 2:0.0167714 
1 1:-0.994052 2:-0.984946 
1 1:-0.923907 2:0.0167714 
1 1:-0.994052 2:-0.984946 
1 1:-0.923907 2:0.0167714 
1 1:-0.994052 2:-0.984946 
1 1:-0.99019 2:-0.982319 
1 1:-0.992633 2:-0.990433 
1 1:-0.99019 2:-0.982319 
1 1:-0.992633 2:-0.990433 
1 1:-0.99019 2:-0.982319 
1 1:-0.992633 2:-0.990433 
1 1:-0.99019 2:-0.982319 
1 1:-0.992633 2:-0.990433 
1 1:-0.99019 2:-0.982319 
1 1:-0.992633 2:-0.990433 
1 1:-0.99019 2:-0.982319 
1 1:-0.992633 2:-0.990433 
1 1:-0.99019 2:-0.982319 
1 1:-0.992633 2:-0.990433 
1 1:-0.99019 2:-0.982319 
1 1:-0.992633 2:-0.990433 
1 1:-0.99019 2:-0.982319 
1 1:-0.992633 2:-0.990433 
1 1:-0.99019 2:-0.982319 
1 1:-0.992633 2:-0.990433 
1 1:-0.99019 2:-0.982319 
1 1:-0.992633 2:-0.990433 
1 1:-0.99019 2:-0.982319 
1 1:-0.992633 2:-0.990433 
1 1:-0.99019 2:-0.982319 
1 1:-0.992633 2:-0.990433 
1 1:-0.99019 2:-0.982319 
1 1:-0.992633 2:-0.990433 
1 1:-0.99019 2:-0.982319 
1 1:-0.992633 2:-0.990433 
1 1:-0.99019 2:-0.982319 
1 1:-0.992633 2:-0.990433 
1 1:-0.99019 2:-0.982319 
1 1:-0.992633 2:-0.990433 
1 1:-0.99019 2:-0.982319 
1 1:-0.992633 2:-0.990433 
1 1:-0.99019 2:-0.982319 
1 1:-0.992633 2:-0.990433 
1 1:-0.99019 2:-0.982319 
1 1:-0.992633 2:-0.990433 
1 1:-0.99019 2:-0.982319 
1 1:-0.992633 2:-0.990433 
1 1:-0.99019 2:-0.982319 
1 1:-0.992633 2:-0.990433 
1 1:-0.99019 2:-0.982319 
1 1:-0.992633 2:-0.990433 
1 1:-0.99019 2:-0.982319 
1 1:-0.992633 2:-0.990433 
1 1:-0.99019 2:-0.982319 
1 1:-0.992633 2:-0.990433 
1 1:-0.99019 2:-0.982319 
1 1:-0.992633 2:-0.990433 
1 1:-0.99019 2:-0.982319 
1 1:-0.992633 2:-0.990433 
1 1:-0.99019 2:-0.982319 
1 1:-0.992633 2:-0.990433 
1 1:-0.99019 2:-0.982319 
1 1:-0.992633 2:-0.990433 
1 1:-0.99019 2:-0.982319 
1 1:-0.992633 2:-0.990433 
1 1:-0.99019 2:-0.982319 
1 1:-0.992633 2:-0.990433 
1 1:-0.99019 2:-0.982319 
1 1:-0.992633 2:-0.990433 
1 1:-0.99019 2:-0.982319 
1 1:-0.992633 2:-0.990433 
1 1:-0.99019 2:-0.982319 
1 1:-0.992633 2:-0.990433 
1 1:-0.99019 2:-0.982319 
1 1:-0.992633 2:-0.990433 
1 1:-0.99019 2:-0.982319 
1 1:-0.992633 2:-0.990433 
1 1:-0.99019 2:-0.982319 
1 1:-0.992633 2:-0.990433 
1 1:-0.99019 2:-0.982319 
1 1:-0.992633 2:-0.990433 
1 1:-0.99019 2:-0.982319 
1 1:-0.992633 2:-0.990433 
1 1:-0.99019 2:-0.982319 
1 1:-0.992633 2:-0.990433 
1 1:-0.99019 2:-0.982319 
1 1:-0.992633 2:-0.990433 
1 1:-0.99019 2:-0.982319 
1 1:-0.992633 2:-0.990433 
1 1:-0.99019 2:-0.982319 
1 1:-0.992633 2:-0.990433 
1 1:-0.99019 2:-0.982319 
1 1:-0.992633 2:-0.990433 
1 1:-0.99019 2:-0.982319 
1 1:-0.992633 2:-0.990433 
1 1:-0.99019 2:-0.982319 
1 1:-0.992633 2:-0.990433 
1 1:-0.99019 2:-0.982319 
1 1:-0.992633 2:-0.990433 
1 1:-0.99019 2:-0.982319 
1 1:-0.992633 2:-0.990433 
1 1:-0.99019 2:-0.982319 
1 1:-0.992633 2:-0.990433 
1 1:-0.99019 2:-0.982319 
1 1:-0.992633 2:-0.990433 
1 1:-0.99019 2:-0.982319 
1 1:-0.992633 2:-0.990433 
1 1:-0.99019 2:-0.982319 
1 1:-0.992633 2:-0.990433 
1 1:-0.99019 2:-0.982319 
1 1:-0.992633 2:-0.990433 
1 1:-0.99019 2:-0.982319 
1 1:-0.992633 2:-0.990433 
1 1:-0.99019 2:-0.982319 
1 1:-0.992633 2:-0.990433 
1 1:-0.99019 2:-0.982319 
1 1:-0.992633 2:-0.990433 
1 1:-0.99019 2:-0.982319 
1 1:-0.992633 2:-0.990433 
1 1:-0.99019 2:-0.982319 
1 1:-0.992633 2:-0.990433 
1 1:-0.99019 2:-0.982319 
1 1:-0.992633 2:-0.990433 
1 1:-0.99019 2:-0.982319 
1 1:-0.992633 2:-0.990433 
1 1:-0.99019 2:-0.982319 
1 1:-0.992633 2:-0.990433 
1 1:-0.99019 2:-0.982319 
1 1:-0.992633 2:-0.990433 
1 1:-0.99019 2:-0.982319 
1 1:-0.992633 2:-0.990433 
1 1:-0.99019 2:-0.982319 
1 1:-0.992633 2:-0.990433 
1 1:-0.99019 2:-0.982319 
1 1:-0.992633 2:-0.990433 
1 1:-0.99019 2:-0.982319 
1 1:-0.992633 2:-0.990433 
1 1:-0.99019 2:-0.982319 
1 1:-0.992633 2:-0.990433 
1 1:-0.99019 2:-0.982319 
1 1:-0.992633 2:-0.990433 
1 1:-0.99019 2:-0.982319 
1 1:-0.992633 2:-0.990433 
1 1:-0.99019 2:-0.982319 
1 1:-0.992633 2:-0.990433 
1 1:-0.99019 2:-0.982319 
1 1:-0.992633 2:-0.990433 
1 1:-0.99019 2:-0.982319 
1 1:-0.992633 2:-0.990433 
1 1:-0.99019 2:-0.982319 
1 1:-0.992633 2:-0.990433 
1 1:-0.99019 2:-0.982319 
1 1:-0.992633 2:-0.990433 
1 1:-0.99019 2:-0.982319 
1 1:-0.992633 2:-0.990433 
1 1:-0.99019 2:-0.982319 
1 1:-0.992633 2:-0.990433 
1 1:-0.99019 2:-0.982319 
1 1:-0.992633 2:-0.990433 
1 1:-0.99019 2:-0.982319 
1 1:-0.992633 2:-0.990433 
1 1:-0.99019 2:-0.982319 
1 1:-0.992633 2:-0.990433 
1 1:-0.99019 2:-0.982319 
1 1:-0.992633 2:-0.990433 
1 1:-0.99019 2:-0.982319 
1 1:-0.992633 2:-0.990433 
1 1:-0.99019 2:-0.982319 
1 1:-0.992633 2:-0.990433 
1 1:-0.99019 2:-0.982319 
1 1:-0.992633 2:-0.990433 
1 1:-0.99019 2:-0.982319 
1 1:-0.992633 2:-0.990433 
1 1:-0.99019 2:-0.982319 
1 1:-0.992633 2:-0.990433 
1 1:-0.99019 2:-0.982319 
1 1:-0.992633 2:-0.990433 
1 1:-0.99019 2:-0.982319 
1 1:-0.992633 2:-0.990433 
1 1:-0.99019 2:-0.982319 
1 1:-0.992633 2:-0.990433 
1 1:-0.99019 2:-0.982319 
1 1:-0.992633 2:-0.990433 
1 1:-0.99019 2:-0.982319 
1 1:-0.992633 2:-0.990433 
1 1:-0.99019 2:-0.982319 
1 1:-0.992633 2:-0.990433 
1 1:-0.99019 2:-0.982319 
1 1:-0.992633 2:-0.990433 
1 1:-0.99019 2:-0.982319 
1 1:-0.992633 2:-0.990433 
1 1:-0.99019 2:-0.982319 
1 1:-0.992633 2:-0.990433 
1 1:-0.99019 2:-0.982319 
1 1:-0.992633 2:-0.990433 
1 1:-0.99019 2:-0.982319 
1 1:-1 2:-0.971859 
1 1:-0.973527 2:-0.988524 
1 1:-1 2:-0.971859 
1 1:-0.973527 2:-0.988524 
1 1:-1 2:-0.971859 
1 1:-0.973527 2:-0.988524 
1 1:-1 2:-0.971859 
1 1:-0.973527 2:-0.988524 
1 1:-1 2:-0.971859 
1 1:-0.973527 2:-0.988524 
1 1:-1 2:-0.971859 
1 1:-0.973527 2:-0.988524 
1 1:-1 2:-0.971859 
1 1:-0.973527 2:-0.988524 
1 1:-1 2:-0.971859 
1 1:-0.973527 2:-0.988524 
1 1:-1 2:-0.971859 
1 1:-0.973527 2:-0.988524 
1 1:-1 2:-0.971859 
1 1:-0.973527 2:-0.988524 
1 1:-1 2:-0.971859 
1 1:-0.973527 2:-0.988524 
1 1:-1 2:-0.971859 
1 1:-0.973527 2:-0.988524 
1 1:-1 2:-0.971859 
1 1:-0.973527 2:-0.988524 
1 1:-1 2:-0.971859 
1 1:-0.973527 2:-0.988524 
1 1:-1 2:-0.971859 
1 1:-0.973527 2:-0.988524 
1 1:-1 2:-0.971859 
1 1:-0.973527 2:-0.988524 
1 1:-1 2:-0.971859 
1 1:-0.973527 2:-0.988524 
1 1:-1 2:-0.971859 
1 1:-0.973527 2:-0.988524 
1 1:-1 2:-0.971859 
1 1:-0.973527 2:-0.988524 
1 1:-1 2:-0.971859 
1 1:-0.973527 2:-0.988524 
1 1:-1 2:-0.971859 
1 1:-0.973527 2:-0.988524 
1 1:-1 2:-0.971859 
1 1:-0.973527 2:-0.988524 
1 1:-1 2:-0.971859 
1 1:-0.973527 2:-0.988524 
1 1:-1 2:-0.971859 
1 1:-0.973527 2:-0.988524 
1 1:-1 2:-0.971859 
1 1:-0.973527 2:-0.988524 
1 1:-1 2:-0.971859 
1 1:-0.973527 2:-0.988524 
1 1:-1 2:-0.971859 
1 1:-0.973527 2:-0.988524 
1 1:-1 2:-0.971859 
1 1:-0.973527 2:-0.988524 
1 1:-1 2:-0.971859 
1 1:-0.973527 2:-0.988524 
1 1:-1 2:-0.971859 
1 1:-0.973527 2:-0.988524 
1 1:-1 2:-0.971859 
1 1:-0.973527 2:-0.988524 
1 1:-1 2:-0.971859 
1 1:-0.973527 2:-0.988524 
1 1:-1 2:-0.971859 
1 1:-0.973527 2:-0.988524 
1 1:-1 2:-0.971859 
1 1:-0.973527 2:-0.988524 
1 1:-1 2:-0.971859 
1 1:-0.973527 2:-0.988524 
1 1:-1 2:-0.971859 
1 1:-0.973527 2:-0.988524 
1 1:-1 2:-0.971859 
1 1:-0.973527 2:-0.988524 
1 1:-1 2:-0.971859 
1 1:-0.973527 2:-0.988524 
1 1:-1 2:-0.971859 
1 1:-0.973527 2:-0.988524 
1 1:-1 2:-0.971859 
1 1:-0.973527 2:-0.988524 
1 1:-1 2:-0.971859 
1 1:-0.973527 2:-0.988524 
1 1:-1 2:-0.971859 
1 1:-0.973527 2:-0.988524 
1 1:-1 2:-0.971859 
1 1:-0.973527 2:-0.988524 
1 1:-1 2:-0.971859 
1 1:-0.973527 2:-0.988524 
1 1:-1 2:-0.971859 
1 1:-0.973527 2:-0.988524 
1 1:-1 2:-0.971859 
1 1:-0.973527 2:-0.988524 
1 1:-1 2:-0.971859 
1 1:-0.973527 2:-0.988524 
1 1:-1 2:-0.971859 
1 1:-0.973527 2:-0.988524 
1 1:-1 2:-0.971859 
1 1:-0.973527 2:-0.988524 
1 1:-1 2:-0.971859 
1 1:-0.973527 2:-0.988524 
1 1:-1 2:-0.971859 
1 1:-0.973527 2:-0.988524 
1 1:-1 2:-0.971859 
1 1:-0.973527 2:-0.988524 
1 1:-1 2:-0.971859 
1 1:-0.973527 2:-0.988524 
1 1:-1 2:-0.971859 
1 1:-0.973527 2:-0.988524 
1 1:-1 2:-0.971859 
1 1:-0.973527 2:-0.988524 
1 1:-1 2:-0.971859 
1 1:-0.973527 2:-0.988524 
1 1:-1 2:-0.971859 
1 1:-0.973527 2:-0.988524 
1 1:-1 2:-0.971859 
1 1:-0.973527 2:-0.988524 
1 1:-1 2:-0.971859 
1 1:-0.973527 2:-0.988524 
1 1:-1 2:-0.971859 
1 1:-0.973527 2:-0.988524 
1 1:-1 2:-0.971859 
1 1:-0.973527 2:-0.988524 
1 1:-1 2:-0.971859 
1 1:-0.973527 2:-0.988524 
1 1:-1 2:-0.971859 
1 1:-0.973527 2:-0.988524 
1 1:-1 2:-0.971859 
1 1:-0.973527 2:-0.988524 
1 1:-1 2:-0.971859 
1 1:-0.973527 2:-0.988524 
1 1:-1 2:-0.971859 
1 1:-0.973527 2:-0.988524 
1 1:-1 2:-0.971859 
1 1:-0.973527 2:-0.988524 
1 1:-1 2:-0.971859 
1 1:-0.973527 2:-0.988524 
1 1:-1 2:-0.971859 
1 1:-0.973527 2:-0.988524 
1 1:-1 2:-0.971859 
1 1:-0.973527 2:-0.988524 
1 1:-1 2:-0.971859 
1 1:-0.973527 2:-0.988524 
1 1:-1 2:-0.971859 
1 1:-0.973527 2:-0.988524 
1 1:-1 2:-0.971859 
1 1:-0.973527 2:-0.988524 
1 1:-1 2:-0.971859 
1 1:-0.973527 2:-0.988524 
1 1:-1 2:-0.971859 
1 1:-0.973527 2:-0.988524 
1 1:-1 2:-0.971859 
1 1:-0.973527 2:-0.988524 
1 1:-1 2:-0.971859 
1 1:-0.973527 2:-0.988524 
1 1:-1 2:-0.971859 
1 1:-0.973527 2:-0.988524 
1 1:-1 2:-0.971859 
1 1:-0.973527 2:-0.988524 
1 1:-1 2:-0.971859 
1 1:-0.973527 2:-0.988524 
1 1:-1 2:-0.971859 
1 1:-0.973527 2:-0.988524 
1 1:-1 2:-0.971859 
1 1:-0.973527 2:-0.988524 
1 1:-1 2:-0.971859 
1 1:-0.973527 2:-0.988524 
1 1:-1 2:-0.971859 
1 1:-0.973527 2:-0.988524 
1 1:-1 2:-0.971859 
1 1:-0.973527 2:-0.988524 
1 1:-1 2:-0.971859 
1 1:-0.973527 2:-0.988524 
1 1:-1 2:-0.971859 
1 1:-0.973527 2:-0.988524 
1 1:-1 2:-0.971859 
1 1:-0.973527 2:-0.988524 
1 1:-1 2:-0.971859 
1 1:-0.973527 2:-0.988524 
1 1:-1 2:-0.971859 
1 1:-0.973527 2:-0.988524 
1 1:-1 2:-0.971859 
1 1:-0.973527 2:-0.988524 
1 1:-1 2:-0.971859 
1 1:-0.973527 2:-0.988524 
1 1:-1 2:-0.971859 
1 1:-0.973527 2:-0.988524 
1 1:-1 2:-0.971859 
1 1:-0.973527 2:-0.988524 
1 1:-1 2:-0.971859 
1 1:-0.984962 2:-0.981371 
1 1:-0.992434 2:-0.978733 
1 1:-0.984962 2:-0.981371 
1 1:-0.992434 2:-0.978733 
1 1:-0.984962 2:-0.981371 
1 1:-0.992434 2:-0.978733 
1 1:-0.984962 2:-0.981371 
1 1:-0.992434 2:-0.978733 
1 1:-0.984962 2:-0.981371 
1 1:-0.992434 2:-0.978733 
1 1:-0.984962 2:-0.981371 
1 1:-0.992434 2:-0.978733 
1 1:-0.984962 2:-0.981371 
1 1:-0.992434 2:-0.978733 
1 1:-0.984962 2:-0.981371 
1 1:-0.992434 2:-0.978733 
1 1:-0.984962 2:-0.981371 
1 1:-0.992434 2:-0.978733 
1 1:-0.984962 2:-0.981371 
1 1:-0.992434 2:-0.978733 
1 1:-0.984962 2:-0.981371 
1 1:-0.992434 2:-0.978733 
1 1:-0.984962 2:-0.981371 
1 1:-0.992434 2:-0.978733 
1 1:-0.984962 2:-0.981371 
1 1:-0.992434 2:-0.978733 
1 1:-0.984962 2:-0.981371 
1 1:-0.992434 2:-0.978733 
1 1:-0.984962 2:-0.981371 
1 1:-0.992434 2:-0.978733 
1 1:-0.984962 2:-0.981371 
1 1:-0.992434 2:-0.978733 
1 1:-0.984962 2:-0.981371 
1 1:-0.992434 2:-0.978733 
1 1:-0.984962 2:-0.981371 
1 1:-0.992434 2:-0.978733 
1 1:-0.984962 2:-0.981371 
1 1:-0.992434 2:-0.978733 
1 1:-0.984962 2:-0.981371 
1 1:-0.992434 2:-0.978733 
1 1:-0.984962 2:-0.981371 
1 1:-0.992434 2:-0.978733 
1 1:-0.984962 2:-0.981371 
1 1:-0.992434 2:-0.978733 
1 1:-0.984962 2:-0.981371 
1 1:-0.992434 2:-0.978733 
1 1:-0.984962 2:-0.981371 
1 1:-0.992434 2:-0.978733 
1 1:-0.984962 2:-0.981371 
1 1:-0.992434 2:-0.978733 
1 1:-0.984962 2:-0.981371 
1 1:-0.992434 2:-0.978733 
1 1:-0.984962 2:-0.981371 
1 1:-0.992434 2:-0.978733 
1 1:-0.984962 2:-0.981371 
1 1:-0.992434 2:-0.978733 
1 1:-0.984962 2:-0.981371 
1 1:-0.992434 2:-0.978733 
1 1:-0.984962 2:-0.981371 
1 1:-0.992434 2:-0.978733 
1 1:-0.984962 2:-0.981371 
1 1:-0.992434 2:-0.978733 
1 1:-0.984962 2:-0.981371 
1 1:-0.992434 2:-0.978733 
1 1:-0.984962 2:-0.981371 
1 1:-0.992434 2:-0.978733 
1 1:-0.984962 2:-0.981371 
1 1:-0.992434 2:-0.978733 
1 1:-0.984962 2:-0.981371 
1 1:-0.992434 2:-0.978733 
1 1:-0.984962 2:-0.981371 
1 1:-0.992434 2:-0.978733 
1 1:-0.984962 2:-0.981371 
1 1:-0.992434 2:-0.978733 
1 1:-0.984962 2:-0.981371 
1 1:-0.992434 2:-0.978733 
1 1:-0.984962 2:-0.981371 
1 1:-0.992434 2:-0.978733 
1 1:-0.984962 2:-0.981371 
1 1:-0.992434 2:-0.978733 
1 1:-0.984962 2:-0.981371 
1 1:-0.992434 2:-0.978733 
1 1:-0.984962 2:-0.981371 
1 1:-0.992434 2:-0.978733 
1 1:-0.984962 2:-0.981371 
1 1:-0.992434 2:-0.978733 
1 1:-0.984962 2:-0.981371 
1 1:-0.992434 2:-0.978733 
1 1:-0.984962 2:-0.981371 
1 1:-0.992434 2:-0.978733 
1 1:-0.984962 2:-0.981371 
1 1:-0.992434 2:-0.978733 
1 1:-0.984962 2:-0.981371 
1 1:-0.992434 2:-0.978733 
1 1:-0.984962 2:-0.981371 
1 1:-0.992434 2:-0.978733 
1 1:-0.984962 2:-0.981371 
1 1:-0.992434 2:-0.978733 
1 1:-0.984962 2:-0.981371 
1 1:-0.992434 2:-0.978733 
1 1:-0.984962 2:-0.981371 
1 1:-0.992434 2:-0.978733 
1 1:-0.984962 2:-0.981371 
1 1:-0.992434 2:-0.978733 
1 1:-0.984962 2:-0.981371 
1 1:-0.992434 2:-0.978733 
1 1:-0.984962 2:-0.981371 
1 1:-0.992434 2:-0.978733 
1 1:-0.984962 2:-0.981371 
1 1:-0.992434 2:-0.978733 
1 1:-0.984962 2:-0.981371 
1 1:-0.992434 2:-0.978733 
1 1:-0.984962 2:-0.981371 
1 1:-0.992434 2:-0.978733 
1 1:-0.984962 2:-0.981371 
1 1:-0.992434 2:-0.978733 
1 1:-0.984962 2:-0.981371 
1 1:-0.992434 2:-0.978733 
1 1:-0.984962 2:-0.981371 
1 1:-0.992434 2:-0.978733 
1 1:-0.984962 2:-0.981371 
1 1:-0.992434 2:-0.978733 
1 1:-0.984962 2:-0.981371 
1 1:-0.992434 2:-0.978733 
1 1:-0.984962 2:-0.981371 
1 1:-0.992434 2:-0.978733 
1 1:-0.984962 2:-0.981371 
1 1:-0.992434 2:-0.978733 
1 1:-0.984962 2:-0.981371 
1 1:-0.992434 2:-0.978733 
1 1:-0.984962 2:-0.981371 
1 1:-0.992434 2:-0.978733 
1 1:-0.984962 2:-0.981371 
1 1:-0.992434 2:-0.978733 
1 1:-0.984962 2:-0.981371 
1 1:-0.992434 2:-0.978733 
1 1:-0.984962 2:-0.981371 
1 1:-0.992434 2:-0.978733 
1 1:-0.984962 2:-0.981371 
1 1:-0.992434 2:-0.978733 
1 1:-0.984962 2:-0.981371 
1 1:-0.992434 2:-0.978733 
1 1:-0.984962 2:-0.981371 
1 1:-0.992434 2:-0.978733 
1 1:-0.984962 2:-0.981371 
1 1:-0.992434 2:-0.978733 
1 1:-0.984962 2:-0.981371 
1 1:-0.992434 2:-0.978733 
1 1:-0.984962 2:-0.981371 
1 1:-0.992434 2:-0.978733 
1 1:-0.984962 2:-0.981371 
1 1:-0.992434 2:-0.978733 
1 1:-0.984962 2:-0.981371 
1 1:-0.992434 2:-0.978733 
1 1:-0.984962 2:-0.981371 
1 1:-0.992434 2:-0.978733 
1 1:-0.984962 2:-0.981371 
1 1:-0.992434 2:-0.978733 
1 1:-0.984962 2:-0.981371 
1 1:-0.992434 2:-0.978733 
1 1:-0.984962 2:-0.981371 
1 1:-0.992434 2:-0.978733 
1 1:-0.984962 2:-0.981371 
1 1:-0.992434 2:-0.978733 
1 1:-0.984962 2:-0.981371 
1 1:-0.992434 2:-0.978733 
1 1:-0.984962 2:-0.981371 
1 1:-0.992434 2:-0.978733 
1 1:-0.984962 2:-0.981371 
1 1:-0.992434 2:-0.978733 
1 1:-0.984962 2:-0.981371 
1 1:-0.992434 2:-0.978733 
1 1:-0.984962 2:-0.981371 
1 1:-0.992434 2:-0.978733 
1 1:-0.984962 2:-0.981371 
1 1:-0.992434 2:-0.978733 
1 1:-0.984962 2:-0.981371 
1 1:-0.992434 2:-0.978733 
1 1:-0.984962 2:-0.981371 
1 1:-0.992434 2:-0.978733 
1 1:-0.984962 2:-0.981371 
1 1:-0.992434 2:-0.978733 
1 1:-0.984962 2:-0.981371 
1 1:-0.992434 2:-0.978733 
1 1:-0.984962 2:-0.981371 
1 1:-0.992434 2:-0.978733 
1 1:-0.984962 2:-0.981371 
1 1:-0.992434 2:-0.978733 
1 1:-0.984962 2:-0.981371 
1 1:-0.992434 2:-0.978733 
1 1:-0.984962 2:-0.981371 
1 1:-0.771579 2:0.167177 
1 1:-0.985489 2:-0.956633 
1 1:-0.771579 2:0.167177 
1 1:-0.985489 2:-0.956633 
1 1:-0.771579 2:0.167177 
1 1:-0.985489 2:-0.956633 
1 1:-0.771579 2:0.167177 
1 1:-0.985489 2:-0.956633 
1 1:-0.771579 2:0.167177 
1 1:-0.985489 2:-0.956633 
1 1:-0.771579 2:0.167177 
1 1:-0.985489 2:-0.956633 
1 1:-0.771579 2:0.167177 
1 1:-0.985489 2:-0.956633 
1 1:-0.771579 2:0.167177 
1 1:-0.985489 2:-0.956633 
1 1:-0.771579 2:0.167177 
1 1:-0.985489 2:-0.956633 
1 1:-0.771579 2:0.167177 
1 1:-0.985489 2:-0.956633 
1 1:-0.771579 2:0.167177 
1 1:-0.985489 2:-0.956633 
1 1:-0.771579 2:0.167177 
1 1:-0.985489 2:-0.956633 
1 1:-0.771579 2:0.167177 
1 1:-0.985489 2:-0.956633 
1 1:-0.771579 2:0.167177 
1 1:-0.985489 2:-0.956633 
1 1:-0.771579 2:0.167177 
1 1:-0.985489 2:-0.956633 
1 1:-0.771579 2:0.167177 
1 1:-0.985489 2:-0.956633 
1 1:-0.771579 2:0.167177 
1 1:-0.985489 2:-0.956633 
1 1:-0.771579 2:0.167177 
1 1:-0.985489 2:-0.956633 
1 1:-0.771579 2:0.167177 
1 1:-0.985489 2:-0.956633 
1 1:-0.771579 2:0.167177 
1 1:-0.985489 2:-0.956633 
1 1:-0.771579 2:0.167177 
1 1:-0.985489 2:-0.956633 
1 1:-0.771579 2:0.167177 
1 1:-0.985489 2:-0.956633 
1 1:-0.771579 2:0.167177 
1 1:-0.985489 2:-0.956633 
1 1:-0.771579 2:0.167177 
1 1:-0.985489 2:-0.956633 
1 1:-0.771579 2:0.167177 
1 1:-0.985489 2:-0.956633 
1 1:-0.771579 2:0.167177 
1 1:-0.985489 2:-0.956633 
1 1:-0.771579 2:0.167177 
1 1:-0.985489 2:-0.956633 
1 1:-0.771579 2:0.167177 
1 1:-0.985489 2:-0.956633 
1 1:-0.771579 2:0.167177 
1 1:-0.985489 2:-0.956633 
1 1:-0.771579 2:0.167177 
1 1:-0.985489 2:-0.956633 
1 1:-0.771579 2:0.167177 
1 1:-0.985489 2:-0.956633 
1 1:-0.771579 2:0.167177 
1 1:-0.985489 2:-0.956633 
1 1:-0.771579 2:0.167177 
1 1:-0.985489 2:-0.956633 
1 1:-0.771579 2:0.167177 
1 1:-0.985489 2:-0.956633 
1 1:-0.771579 2:0.167177 
1 1:-0.985489 2:-0.956633 
1 1:-0.771579 2:0.167177 
1 1:-0.985489 2:-0.956633 
1 1:-0.771579 2:0.167177 
1 1:-0.985489 2:-0.956633 
1 1:-0.771579 2:0.167177 
1 1:-0.985489 2:-0.956633 
1 1:-0.771579 2:0.167177 
1 1:-0.985489 2:-0.956633 
1 1:-0.771579 2:0.167177 
1 1:-0.985489 2:-0.956633 
1 1:-0.771579 2:0.167177 
1 1:-0.985489 2:-0.956633 
1 1:-0.771579 2:0.167177 
1 1:-0.985489 2:-0.956633 
1 1:-0.771579 2:0.167177 
1 1:-0.985489 2:-0.956633 
1 1:-0.771579 2:0.167177 
1 1:-0.985489 2:-0.956633 
1 1:-0.771579 2:0.167177 
1 1:-0.985489 2:-0.956633 
1 1:-0.771579 2:0.167177 
1 1:-0.985489 2:-0.956633 
1 1:-0.771579 2:0.167177 
1 1:-0.985489 2:-0.956633 
1 1:-0.771579 2:0.167177 
1 1:-0.985489 2:-0.956633 
1 1:-0.771579 2:0.167177 
1 1:-0.985489 2:-0.956633 
1 1:-0.771579 2:0.167177 
1 1:-0.985489 2:-0.956633 
1 1:-0.771579 2:0.167177 
1 1:-0.985489 2:-0.956633 
1 1:-0.771579 2:0.167177 
1 1:-0.985489 2:-0.956633 
1 1:-0.771579 2:0.167177 
1 1:-0.985489 2:-0.956633 
1 1:-0.771579 2:0.167177 
1 1:-0.985489 2:-0.956633 
1 1:-0.771579 2:0.167177 
1 1:-0.985489 2:-0.956633 
1 1:-0.771579 2:0.167177 
1 1:-0.985489 2:-0.956633 
1 1:-0.771579 2:0.167177 
1 1:-0.985489 2:-0.956633 
1 1:-0.771579 2:0.167177 
1 1:-0.985489 2:-0.956633 
1 1:-0.771579 2:0.167177 
1 1:-0.985489 2:-0.956633 
1 1:-0.771579 2:0.167177 
1 1:-0.985489 2:-0.956633 
1 1:-0.771579 2:0.167177 
1 1:-0.985489 2:-0.956633 
1 1:-0.771579 2:0.167177 
1 1:-0.985489 2:-0.956633 
1 1:-0.771579 2:0.167177 
1 1:-0.985489 2:-0.956633 
1 1:-0.771579 2:0.167177 
1 1:-0.985489 2:-0.956633 
1 1:-0.771579 2:0.167177 
1 1:-0.985489 2:-0.956633 
1 1:-0.771579 2:0.167177 
1 1:-0.985489 2:-0.956633 
1 1:-0.771579 2:0.167177 
1 1:-0.985489 2:-0.956633 
1 1:-0.771579 2:0.167177 
1 1:-0.985489 2:-0.956633 
1 1:-0.771579 2:0.167177 
1 1:-0.985489 2:-0.956633 
1 1:-0.771579 2:0.167177 
1 1:-0.985489 2:-0.956633 
1 1:-0.771579 2:0.167177 
1 1:-0.985489 2:-0.956633 
1 1:-0.771579 2:0.167177 
1 1:-0.985489 2:-0.956633 
1 1:-0.771579 2:0.167177 
1 1:-0.985489 2:-0.956633 
1 1:-0.771579 2:0.167177 
1 1:-0.985489 2:-0.956633 
1 1:-0.771579 2:0.167177 
1 1:-0.985489 2:-0.956633 
1 1:-0.771579 2:0.167177 
1 1:-0.985489 2:-0.956633 
1 1:-0.771579 2:0.167177 
1 1:-0.985489 2:-0.956633 
1 1:-0.771579 2:0.167177 
1 1:-0.985489 2:-0.956633 
1 1:-0.771579 2:0.167177 
1 1:-0.985489 2:-0.956633 
1 1:-0.771579 2:0.167177 
1 1:-0.985489 2:-0.956633 
1 1:-0.771579 2:0.167177 
1 1:-0.985489 2:-0.956633 
1 1:-0.771579 2:0.167177 
1 1:-0.985489 2:-0.956633 
1 1:-0.771579 2:0.167177 
1 1:-0.985489 2:-0.956633 
1 1:-0.771579 2:0.167177 
1 1:-0.985489 2:-0.956633 
1 1:-0.771579 2:0.167177 
1 1:-0.985489 2:-0.956633 
1 1:-0.771579 2:0.167177 
1 1:-0.985489 2:-0.956633 
1 1:-0.771579 2:0.167177 
1 1:-0.985489 2:-0.956633 
1 1:-0.771579 2:0.167177 
1 1:-0.985489 2:-0.956633 
1 1:-0.771579 2:0.167177 
1 1:-0.985489 2:-0.956633 
1 1:-0.771579 2:0.167177 
1 1:-0.985489 2:-0.956633 
1 1:-0.771579 2:0.167177 
1 1:-0.985489 2:-0.956633 
1 1:-0.771579 2:0.167177 
1 1:-0.985489 2:-0.956633 
1 1:-0.771579 2:0.167177 
1 1:-0.985489 2:-0.956633 
1 1:-0.771579 2:0.167177 
1 1:-0.985489 2:-0.956633 
1 1:-0.771579 2:0.167177 
1 1:-0.985489 2:-0.956633 
1 1:-0.771579 2:0.167177 
1 1:-0.985489 2:-0.956633 
1 1:-0.992098 2:-0.982309 
1 1:-0.992098 2:-0.982309 
1 1:-0.992098 2:-0.982309 
1 1:-0.992098 2:-0.982309 
1 1:-0.992098 2:-0.982309 
1 1:-0.992098 2:-0.982309 
1 1:-0.992098 2:-0.982309 
1 1:-0.992098 2:-0.982309 
1 1:-0.992098 2:-0.982309 
1 1:-0.992098 2:-0.982309 
1 1:-0.992098 2:-0.982309 
1 1:-0.992098 2:-0.982309 
1 1:-0.992098 2:-0.982309 
1 1:-0.992098 2:-0.982309 
1 1:-0.992098 2:-0.982309 
1 1:-0.992098 2:-0.982309 
1 1:-0.992098 2:-0.982309 
1 1:-0.992098 2:-0.982309 
1 1:-0.992098 2:-0.982309 
1 1:-0.992098 2:-0.982309 
1 1:-0.992098 2:-0.982309 
1 1:-0.992098 2:-0.982309 
1 1:-0.992098 2:-0.982309 
1 1:-0.992098 2:-0.982309 
1 1:-0.992098 2:-0.982309 
1 1:-0.992098 2:-0.982309 
1 1:-0.992098 2:-0.982309 
1 1:-0.992098 2:-0.982309 
1 1:-0.992098 2:-0.982309 
1 1:-0.992098 2:-0.982309 
1 1:-0.992098 2:-0.982309 
1 1:-0.992098 2:-0.982309 
1 1:-0.992098 2:-0.982309 
1 1:-0.992098 2:-0.982309 
1 1:-0.992098 2:-0.982309 
1 1:-0.992098 2:-0.982309 
1 1:-0.992098 2:-0.982309 
1 1:-0.992098 2:-0.982309 
1 1:-0.992098 2:-0.982309 
1 1:-0.992098 2:-0.982309 
1 1:-0.992098 2:-0.982309 
1 1:-0.992098 2:-0.982309 
1 1:-0.992098 2:-0.982309 
1 1:-0.992098 2:-0.982309 
1 1:-0.992098 2:-0.982309 
1 1:-0.992098 2:-0.982309 
1 1:-0.992098 2:-0.982309 
1 1:-0.992098 2:-0.982309 
1 1:-0.992098 2:-0.982309 
1 1:-0.992098 2:-0.982309 
1 1:-0.992098 2:-0.982309 
1 1:-0.992098 2:-0.982309 
1 1:-0.992098 2:-0.982309 
1 1:-0.992098 2:-0.982309 
1 1:-0.992098 2:-0.982309 
1 1:-0.992098 2:-0.982309 
1 1:-0.992098 2:-0.982309 
1 1:-0.992098 2:-0.982309 
1 1:-0.992098 2:-0.982309 
1 1:-0.992098 2:-0.982309 
1 1:-0.992098 2:-0.982309 
1 1:-0.992098 2:-0.982309 
1 1:-0.992098 2:-0.982309 
1 1:-0.992098 2:-0.982309 
1 1:-0.992098 2:-0.982309 
1 1:-0.992098 2:-0.982309 
1 1:-0.992098 2:-0.982309 
1 1:-0.992098 2:-0.982309 
1 1:-0.992098 2:-0.982309 
1 1:-0.992098 2:-0.982309 
1 1:-0.992098 2:-0.982309 
1 1:-0.992098 2:-0.982309 
1 1:-0.992098 2:-0.982309 
1 1:-0.992098 2:-0.982309 
1 1:-0.992098 2:-0.982309 
1 1:-0.992098 2:-0.982309 
1 1:-0.992098 2:-0.982309 
1 1:-0.992098 2:-0.982309 
1 1:-0.992098 2:-0.982309 
1 1:-0.992098 2:-0.982309 
1 1:-0.992098 2:-0.982309 
1 1:-0.992098 2:-0.982309 
1 1:-0.992098 2:-0.982309 
1 1:-0.992098 2:-0.982309 
1 1:-0.992098 2:-0.982309 
1 1:-0.992098 2:-0.982309 
1 1:-0.992098 2:-0.982309 
1 1:-0.992098 2:-0.982309 
1 1:-0.992098 2:-0.982309 
1 1:-0.992098 2:-0.982309 
1 1:-0.992098 2:-0.982309 
1 1:-0.992098 2:-0.982309 
1 1:-0.992098 2:-0.982309 
1 1:-0.992098 2:-0.982309 
1 1:-0.956984 2:-0.979938 
1 1:-0.988328 2:-0.96467 
1 1:-0.956984 2:-0.979938 
1 1:-0.988328 2:-0.96467 
1 1:-0.956984 2:-0.979938 
1 1:-0.988328 2:-0.96467 
1 1:-0.956984 2:-0.979938 
1 1:-0.988328 2:-0.96467 
1 1:-0.956984 2:-0.979938 
1 1:-0.988328 2:-0.96467 
1 1:-0.956984 2:-0.979938 
1 1:-0.988328 2:-0.96467 
1 1:-0.956984 2:-0.979938 
1 1:-0.988328 2:-0.96467 
1 1:-0.956984 2:-0.979938 
1 1:-0.988328 2:-0.96467 
1 1:-0.956984 2:-0.979938 
1 1:-0.988328 2:-0.96467 
1 1:-0.956984 2:-0.979938 
1 1:-0.988328 2:-0.96467 
1 1:-0.956984 2:-0.979938 
1 1:-0.988328 2:-0.96467 
1 1:-0.956984 2:-0.979938 
1 1:-0.988328 2:-0.96467 
1 1:-0.956984 2:-0.979938 
1 1:-0.988328 2:-0.96467 
1 1:-0.956984 2:-0.979938 
1 1:-0.988328 2:-0.96467 
1 1:-0.956984 2:-0.979938 
1 1:-0.988328 2:-0.96467 
1 1:-0.956984 2:-0.979938 
1 1:-0.988328 2:-0.96467 
1 1:-0.956984 2:-0.979938 
1 1:-0.988328 2:-0.96467 
1 1:-0.956984 2:-0.979938 
1 1:-0.988328 2:-0.96467 
1 1:-0.956984 2:-0.979938 
1 1:-0.988328 2:-0.96467 
1 1:-0.956984 2:-0.979938 
1 1:-0.988328 2:-0.96467 
1 1:-0.956984 2:-0.979938 
1 1:-0.988328 2:-0.96467 
1 1:-0.956984 2:-0.979938 
1 1:-0.988328 2:-0.96467 
1 1:-0.956984 2:-0.979938 
1 1:-0.988328 2:-0.96467 
1 1:-0.956984 2:-0.979938 
1 1:-0.988328 2:-0.96467 
1 1:-0.956984 2:-0.979938 
1 1:-0.988328 2:-0.96467 
1 1:-0.956984 2:-0.979938 
1 1:-0.988328 2:-0.96467 
1 1:-0.956984 2:-0.979938 
1 1:-0.988328 2:-0.96467 
1 1:-0.956984 2:-0.979938 
1 1:-0.988328 2:-0.96467 
1 1:-0.956984 2:-0.979938 
1 1:-0.988328 2:-0.96467 
1 1:-0.956984 2:-0.979938 
1 1:-0.988328 2:-0.96467 
1 1:-0.956984 2:-0.979938 
1 1:-0.988328 2:-0.96467 
1 1:-0.956984 2:-0.979938 
1 1:-0.988328 2:-0.96467 
1 1:-0.956984 2:-0.979938 
1 1:-0.988328 2:-0.96467 
1 1:-0.956984 2:-0.979938 
1 1:-0.988328 2:-0.96467 
1 1:-0.956984 2:-0.979938 
1 1:-0.988328 2:-0.96467 
1 1:-0.956984 2:-0.979938 
1 1:-0.988328 2:-0.96467 
1 1:-0.956984 2:-0.979938 
1 1:-0.988328 2:-0.96467 
1 1:-0.956984 2:-0.979938 
1 1:-0.988328 2:-0.96467 
1 1:-0.956984 2:-0.979938 
1 1:-0.988328 2:-0.96467 
1 1:-0.956984 2:-0.979938 
1 1:-0.988328 2:-0.96467 
1 1:-0.956984 2:-0.979938 
1 1:-0.988328 2:-0.96467 
1 1:-0.956984 2:-0.979938 
1 1:-0.988328 2:-0.96467 
1 1:-0.956984 2:-0.979938 
1 1:-0.988328 2:-0.96467 
1 1:-0.956984 2:-0.979938 
1 1:-0.988328 2:-0.96467 
1 1:-0.956984 2:-0.979938 
1 1:-0.988328 2:-0.96467 
1 1:-0.956984 2:-0.979938 
1 1:-0.988328 2:-0.96467 
1 1:-0.956984 2:-0.979938 
1 1:-0.988328 2:-0.96467 
1 1:-0.956984 2:-0.979938 
1 1:-0.988328 2:-0.96467 
1 1:-0.956984 2:-0.979938 
1 1:-0.988328 2:-0.96467 
1 1:-0.956984 2:-0.979938 
1 1:-0.988328 2:-0.96467 
1 1:-0.956984 2:-0.979938 
1 1:-0.988328 2:-0.96467 
1 1:-0.956984 2:-0.979938 
1 1:-0.988328 2:-0.96467 
1 1:-0.956984 2:-0.979938 
1 1:-0.988328 2:-0.96467 
1 1:-0.956984 2:-0.979938 
1 1:-0.988328 2:-0.96467 
1 1:-0.956984 2:-0.979938 
1 1:-0.988328 2:-0.96467 
1 1:-0.956984 2:-0.979938 
1 1:-0.988328 2:-0.96467 
1 1:-0.956984 2:-0.979938 
1 1:-0.988328 2:-0.96467 
1 1:-0.956984 2:-0.979938 
1 1:-0.988328 2:-0.96467 
1 1:-0.956984 2:-0.979938 
1 1:-0.988328 2:-0.96467 
1 1:-0.956984 2:-0.979938 
1 1:-0.988328 2:-0.96467 
1 1:-0.956984 2:-0.979938 
1 1:-0.988328 2:-0.96467 
1 1:-0.956984 2:-0.979938 
1 1:-0.988328 2:-0.96467 
1 1:-0.956984 2:-0.979938 
1 1:-0.988328 2:-0.96467 
1 1:-0.956984 2:-0.979938 
1 1:-0.988328 2:-0.96467 
1 1:-0.956984 2:-0.979938 
1 1:-0.988328 2:-0.96467 
1 1:-0.956984 2:-0.979938 
1 1:-0.988328 2:-0.96467 
1 1:-0.956984 2:-0.979938 
1 1:-0.988328 2:-0.96467 
1 1:-0.956984 2:-0.979938 
1 1:-0.988328 2:-0.96467 
1 1:-0.956984 2:-0.979938 
1 1:-0.988328 2:-0.96467 
1 1:-0.956984 2:-0.979938 
1 1:-0.988328 2:-0.96467 
1 1:-0.956984 2:-0.979938 
1 1:-0.988328 2:-0.96467 
1 1:-0.956984 2:-0.979938 
1 1:-0.988328 2:-0.96467 
1 1:-0.956984 2:-0.979938 
1 1:-0.988328 2:-0.96467 
1 1:-0.956984 2:-0.979938 
1 1:-0.988328 2:-0.96467 
1 1:-0.956984 2:-0.979938 
1 1:-0.988328 2:-0.96467 
1 1:-0.956984 2:-0.979938 
1 1:-0.988328 2:-0.96467 
1 1:-0.956984 2:-0.979938 
1 1:-0.988328 2:-0.96467 
1 1:-0.956984 2:-0.979938 
1 1:-0.988328 2:-0.96467 
1 1:-0.956984 2:-0.979938 
1 1:-0.988328 2:-0.96467 
1 1:-0.956984 2:-0.979938 
1 1:-0.988328 2:-0.96467 
1 1:-0.956984 2:-0.979938 
1 1:-0.988328 2:-0.96467 
1 1:-0.956984 2:-0.979938 
1 1:-0.988328 2:-0.96467 
1 1:-0.956984 2:-0.979938 
1 1:-0.988328 2:-0.96467 
1 1:-0.956984 2:-0.979938 
1 1:-0.988328 2:-0.96467 
1 1:-0.956984 2:-0.979938 
1 1:-0.988328 2:-0.96467 
1 1:-0.956984 2:-0.979938 
1 1:-0.988328 2:-0.96467 
1 1:-0.956984 2:-0.979938 
1 1:-0.988328 2:-0.96467 
1 1:-0.956984 2:-0.979938 
1 1:-0.988328 2:-0.96467 
1 1:-0.956984 2:-0.979938 
1 1:-0.988328 2:-0.96467 
1 1:-0.956984 2:-0.979938 
1 1:-0.988328 2:-0.96467 
1 1:-0.956984 2:-0.979938 
1 1:-0.988328 2:-0.96467 
1 1:-0.956984 2:-0.979938 
1 1:-0.988328 2:-0.96467 
1 1:-0.956984 2:-0.979938 
1 1:-0.970915 2:-0.975205 
1 1:-0.970915 2:-0.975205 
1 1:-0.970915 2:-0.975205 
1 1:-0.970915 2:-0.975205 
1 1:-0.970915 2:-0.975205 
1 1:-0.970915 2:-0.975205 
1 1:-0.970915 2:-0.975205 
1 1:-0.970915 2:-0.975205 
1 1:-0.970915 2:-0.975205 
1 1:-0.970915 2:-0.975205 
1 1:-0.970915 2:-0.975205 
1 1:-0.970915 2:-0.975205 
1 1:-0.970915 2:-0.975205 
1 1:-0.970915 2:-0.975205 
1 1:-0.970915 2:-0.975205 
1 1:-0.970915 2:-0.975205 
1 1:-0.970915 2:-0.975205 
1 1:-0.970915 2:-0.975205 
1 1:-0.970915 2:-0.975205 
1 1:-0.970915 2:-0.975205 
1 1:-0.970915 2:-0.975205 
1 1:-0.970915 2:-0.975205 
1 1:-0.970915 2:-0.975205 
1 1:-0.970915 2:-0.975205 
1 1:-0.970915 2:-0.975205 
1 1:-0.970915 2:-0.975205 
1 1:-0.970915 2:-0.975205 
1 1:-0.970915 2:-0.975205 
1 1:-0.970915 2:-0.975205 
1 1:-0.970915 2:-0.975205 
1 1:-0.970915 2:-0.975205 
1 1:-0.970915 2:-0.975205 
1 1:-0.970915 2:-0.975205 
1 1:-0.970915 2:-0.975205 
1 1:-0.970915 2:-0.975205 
1 1:-0.970915 2:-0.975205 
1 1:-0.970915 2:-0.975205 
1 1:-0.970915 2:-0.975205 
1 1:-0.970915 2:-0.975205 
1 1:-0.970915 2:-0.975205 
1 1:-0.970915 2:-0.975205 
1 1:-0.970915 2:-0.975205 
1 1:-0.970915 2:-0.975205 
1 1:-0.970915 2:-0.975205 
1 1:-0.970915 2:-0.975205 
1 1:-0.970915 2:-0.975205 
1 1:-0.970915 2:-0.975205 
1 1:-0.970915 2:-0.975205 
1 1:-0.970915 2:-0.975205 
1 1:-0.970915 2:-0.975205 
1 1:-0.970915 2:-0.975205 
1 1:-0.970915 2:-0.975205 
1 1:-0.970915 2:-0.975205 
1 1:-0.970915 2:-0.975205 
1 1:-0.970915 2:-0.975205 
1 1:-0.970915 2:-0.975205 
1 1:-0.970915 2:-0.975205 
1 1:-0.970915 2:-0.975205 
1 1:-0.970915 2:-0.975205 
1 1:-0.970915 2:-0.975205 
1 1:-0.970915 2:-0.975205 
1 1:-0.970915 2:-0.975205 
1 1:-0.970915 2:-0.975205 
1 1:-0.970915 2:-0.975205 
1 1:-0.970915 2:-0.975205 
1 1:-0.970915 2:-0.975205 
1 1:-0.970915 2:-0.975205 
1 1:-0.970915 2:-0.975205 
1 1:-0.970915 2:-0.975205 
1 1:-0.970915 2:-0.975205 
1 1:-0.970915 2:-0.975205 
1 1:-0.970915 2:-0.975205 
1 1:-0.970915 2:-0.975205 
1 1:-0.970915 2:-0.975205 
1 1:-0.970915 2:-0.975205 
1 1:-0.970915 2:-0.975205 
1 1:-0.970915 2:-0.975205 
1 1:-0.970915 2:-0.975205 
1 1:-0.970915 2:-0.975205 
1 1:-0.970915 2:-0.975205 
1 1:-0.970915 2:-0.975205 
1 1:-0.970915 2:-0.975205 
1 1:-0.970915 2:-0.975205 
1 1:-0.970915 2:-0.975205 
1 1:-0.970915 2:-0.975205 
1 1:-0.970915 2:-0.975205 
1 1:-0.970915 2:-0.975205 
1 1:-0.970915 2:-0.975205 
1 1:-0.970915 2:-0.975205 
1 1:-0.970915 2:-0.975205 
1 1:-0.970915 2:-0.975205 
1 1:-0.970915 2:-0.975205 
1 1:-0.970915 2:-0.975205 
1 1:-0.970915 2:-0.975205 
1 1:-0.970915 2:-0.975205 
1 1:-0.970915 2:-0.975205 
1 1:-0.970915 2:-0.975205 
1 1:-0.636656 2:0.0938323 
1 1:-0.636656 2:0.0938323 
1 1:-0.636656 2:0.0938323 
1 1:-0.636656 2:0.0938323 
1 1:-0.636656 2:0.0938323 
1 1:-0.636656 2:0.0938323 
1 1:-0.636656 2:0.0938323 
1 1:-0.636656 2:0.0938323 
1 1:-0.636656 2:0.0938323 
1 1:-0.636656 2:0.0938323 
1 1:-0.636656 2:0.0938323 
1 1:-0.636656 2:0.0938323 
1 1:-0.636656 2:0.0938323 
1 1:-0.636656 2:0.0938323 
1 1:-0.636656 2:0.0938323 
1 1:-0.636656 2:0.0938323 
1 1:-0.636656 2:0.0938323 
1 1:-0.636656 2:0.0938323 
1 1:-0.636656 2:0.0938323 
1 1:-0.636656 2:0.0938323 
1 1:-0.636656 2:0.0938323 
1 1:-0.636656 2:0.0938323 
1 1:-0.636656 2:0.0938323 
1 1:-0.636656 2:0.0938323 
1 1:-0.636656 2:0.0938323 
1 1:-0.636656 2:0.0938323 
1 1:-0.636656 2:0.0938323 
1 1:-0.636656 2:0.0938323 
1 1:-0.636656 2:0.0938323 
1 1:-0.636656 2:0.0938323 
1 1:-0.636656 2:0.0938323 
1 1:-0.636656 2:0.0938323 
1 1:-0.636656 2:0.0938323 
1 1:-0.636656 2:0.0938323 
1 1:-0.636656 2:0.0938323 
1 1:-0.636656 2:0.0938323 
1 1:-0.636656 2:0.0938323 
1 1:-0.636656 2:0.0938323 
1 1:-0.636656 2:0.0938323 
1 1:-0.636656 2:0.0938323 
1 1:-0.636656 2:0.0938323 
1 1:-0.636656 2:0.0938323 
1 1:-0.636656 2:0.0938323 
1 1:-0.636656 2:0.0938323 
1 1:-0.636656 2:0.0938323 
1 1:-0.636656 2:0.0938323 
1 1:-0.636656 2:0.0938323 
1 1:-0.636656 2:0.0938323 
1 1:-0.636656 2:0.0938323 
1 1:-0.636656 2:0.0938323 
1 1:-0.636656 2:0.0938323 
1 1:-0.636656 2:0.0938323 
1 1:-0.636656 2:0.0938323 
1 1:-0.636656 2:0.0938323 
1 1:-0.636656 2:0.0938323 
1 1:-0.636656 2:0.0938323 
1 1:-0.636656 2:0.0938323 
1 1:-0.636656 2:0.0938323 
1 1:-0.636656 2:0.0938323 
1 1:-0.636656 2:0.0938323 
1 1:-0.636656 2:0.0938323 
1 1:-0.636656 2:0.0938323 
1 1:-0.636656 2:0.0938323 
1 1:-0.636656 2:0.0938323 
1 1:-0.636656 2:0.0938323 
1 1:-0.636656 2:0.0938323 
1 1:-0.636656 2:0.0938323 
1 1:-0.636656 2:0.0938323 
1 1:-0.636656 2:0.0938323 
1 1:-0.636656 2:0.0938323 
1 1:-0.636656 2:0.0938323 
1 1:-0.636656 2:0.0938323 
1 1:-0.636656 2:0.0938323 
1 1:-0.636656 2:0.0938323 
1 1:-0.636656 2:0.0938323 
1 1:-0.636656 2:0.0938323 
1 1:-0.636656 2:0.0938323 
1 1:-0.636656 2:0.0938323 
1 1:-0.636656 2:0.0938323 
1 1:-0.636656 2:0.0938323 
1 1:-0.636656 2:0.0938323 
1 1:-0.636656 2:0.0938323 
1 1:-0.636656 2:0.0938323 
1 1:-0.636656 2:0.0938323 
1 1:-0.636656 2:0.0938323 
1 1:-0.636656 2:0.0938323 
1 1:-0.636656 2:0.0938323 
1 1:-0.636656 2:0.0938323 
1 1:-0.636656 2:0.0938323 
1 1:-0.636656 2:0.0938323 
1 1:-0.636656 2:0.0938323 
1 1:-0.636656 2:0.0938323 
1 1:-0.636656 2:0.0938323 
1 1:-0.636656 2:0.0938323 
1 1:-0.636656 2:0.0938323 
1 1:-0.636656 2:0.0938323 
1 1:-0.975717 2:-0.981802 
1 1:-0.975717 2:-0.981802 
1 1:-0.975717 2:-0.981802 
1 1:-0.975717 2:-0.981802 
1 1:-0.975717 2:-0.981802 
1 1:-0.975717 2:-0.981802 
1 1:-0.975717 2:-0.981802 
1 1:-0.975717 2:-0.981802 
1 1:-0.975717 2:-0.981802 
1 1:-0.975717 2:-0.981802 
1 1:-0.975717 2:-0.981802 
1 1:-0.975717 2:-0.981802 
1 1:-0.975717 2:-0.981802 
1 1:-0.975717 2:-0.981802 
1 1:-0.975717 2:-0.981802 
1 1:-0.975717 2:-0.981802 
1 1:-0.975717 2:-0.981802 
1 1:-0.975717 2:-0.981802 
1 1:-0.975717 2:-0.981802 
1 1:-0.975717 2:-0.981802 
1 1:-0.975717 2:-0.981802 
1 1:-0.975717 2:-0.981802 
1 1:-0.975717 2:-0.981802 
1 1:-0.975717 2:-0.981802 
1 1:-0.975717 2:-0.981802 
1 1:-0.975717 2:-0.981802 
1 1:-0.975717 2:-0.981802 
1 1:-0.975717 2:-0.981802 
1 1:-0.975717 2:-0.981802 
1 1:-0.975717 2:-0.981802 
1 1:-0.975717 2:-0.981802 
1 1:-0.975717 2:-0.981802 
1 1:-0.975717 2:-0.981802 
1 1:-0.975717 2:-0.981802 
1 1:-0.975717 2:-0.981802 
1 1:-0.975717 2:-0.981802 
1 1:-0.975717 2:-0.981802 
1 1:-0.975717 2:-0.981802 
1 1:-0.975717 2:-0.981802 
1 1:-0.975717 2:-0.981802 
1 1:-0.975717 2:-0.981802 
1 1:-0.975717 2:-0.981802 
1 1:-0.975717 2:-0.981802 
1 1:-0.975717 2:-0.981802 
1 1:-0.975717 2:-0.981802 
1 1:-0.975717 2:-0.981802 
1 1:-0.975717 2:-0.981802 
1 1:-0.975717 2:-0.981802 
1 1:-0.975717 2:-0.981802 
1 1:-0.975717 2:-0.981802 
1 1:-0.975717 2:-0.981802 
1 1:-0.975717 2:-0.981802 
1 1:-0.975717 2:-0.981802 
1 1:-0.975717 2:-0.981802 
1 1:-0.975717 2:-0.981802 
1 1:-0.975717 2:-0.981802 
1 1:-0.975717 2:-0.981802 
1 1:-0.975717 2:-0.981802 
1 1:-0.975717 2:-0.981802 
1 1:-0.975717 2:-0.981802 
1 1:-0.975717 2:-0.981802 
1 1:-0.975717 2:-0.981802 
1 1:-0.975717 2:-0.981802 
1 1:-0.975717 2:-0.981802 
1 1:-0.975717 2:-0.981802 
1 1:-0.975717 2:-0.981802 
1 1:-0.975717 2:-0.981802 
1 1:-0.975717 2:-0.981802 
1 1:-0.975717 2:-0.981802 
1 1:-0.975717 2:-0.981802 
1 1:-0.975717 2:-0.981802 
1 1:-0.975717 2:-0.981802 
1 1:-0.975717 2:-0.981802 
1 1:-0.975717 2:-0.981802 
1 1:-0.975717 2:-0.981802 
1 1:-0.975717 2:-0.981802 
1 1:-0.975717 2:-0.981802 
1 1:-0.975717 2:-0.981802 
1 1:-0.975717 2:-0.981802 
1 1:-0.975717 2:-0.981802 
1 1:-0.975717 2:-0.981802 
1 1:-0.975717 2:-0.981802 
1 1:-0.975717 2:-0.981802 
1 1:-0.975717 2:-0.981802 
1 1:-0.975717 2:-0.981802 
1 1:-0.975717 2:-0.981802 
1 1:-0.975717 2:-0.981802 
1 1:-0.975717 2:-0.981802 
1 1:-0.975717 2:-0.981802 
1 1:-0.975717 2:-0.981802 
1 1:-0.975717 2:-0.981802 
1 1:-0.975717 2:-0.981802 
1 1:-0.975717 2:-0.981802 
1 1:-0.975717 2:-0.981802 
1 1:-0.975717 2:-0.981802 
1 1:-0.413884 2:0.279276 
1 1:-0.413884 2:0.279276 
1 1:-0.413884 2:0.279276 
1 1:-0.413884 2:0.279276 
1 1:-0.413884 2:0.279276 
1 1:-0.413884 2:0.279276 
1 1:-0.413884 2:0.279276 
1 1:-0.413884 2:0.279276 
1 1:-0.413884 2:0.279276 
1 1:-0.413884 2:0.279276 
1 1:-0.413884 2:0.279276 
1 1:-0.413884 2:0.279276 
1 1:-0.413884 2:0.279276 
1 1:-0.413884 2:0.279276 
1 1:-0.413884 2:0.279276 
1 1:-0.413884 2:0.279276 
1 1:-0.413884 2:0.279276 
1 1:-0.413884 2:0.279276 
1 1:-0.413884 2:0.279276 
1 1:-0.413884 2:0.279276 
1 1:-0.413884 2:0.279276 
1 1:-0.413884 2:0.279276 
1 1:-0.413884 2:0.279276 
1 1:-0.413884 2:0.279276 
1 1:-0.413884 2:0.279276 
1 1:-0.413884 2:0.279276 
1 1:-0.413884 2:0.279276 
1 1:-0.413884 2:0.279276 
1 1:-0.413884 2:0.279276 
1 1:-0.413884 2:0.279276 
1 1:-0.413884 2:0.279276 
1 1:-0.413884 2:0.279276 
1 1:-0.413884 2:0.279276 
1 1:-0.413884 2:0.279276 
1 1:-0.413884 2:0.279276 
1 1:-0.413884 2:0.279276 
1 1:-0.413884 2:0.279276 
1 1:-0.413884 2:0.279276 
1 1:-0.413884 2:0.279276 
1 1:-0.413884 2:0.279276 
1 1:-0.413884 2:0.279276 
1 1:-0.413884 2:0.279276 
1 1:-0.413884 2:0.279276 
1 1:-0.413884 2:0.279276 
1 1:-0.413884 2:0.279276 
1 1:-0.413884 2:0.279276 
1 1:-0.413884 2:0.279276 
1 1:-0.413884 2:0.279276 
1 1:-0.413884 2:0.279276 
1 1:-0.413884 2:0.279276 
1 1:-0.413884 2:0.279276 
1 1:-0.413884 2:0.279276 
1 1:-0.413884 2:0.279276 
1 1:-0.413884 2:0.279276 
1 1:-0.413884 2:0.279276 
1 1:-0.413884 2:0.279276 
1 1:-0.413884 2:0.279276 
1 1:-0.413884 2:0.279276 
1 1:-0.413884 2:0.279276 
1 1:-0.413884 2:0.279276 
1 1:-0.413884 2:0.279276 
1 1:-0.413884 2:0.279276 
1 1:-0.413884 2:0.279276 
1 1:-0.413884 2:0.279276 
1 1:-0.413884 2:0.279276 
1 1:-0.413884 2:0.279276 
1 1:-0.413884 2:0.279276 
1 1:-0.413884 2:0.279276 
1 1:-0.413884 2:0.279276 
1 1:-0.413884 2:0.279276 
1 1:-0.413884 2:0.279276 
1 1:-0.413884 2:0.279276 
1 1:-0.413884 2:0.279276 
1 1:-0.413884 2:0.279276 
1 1:-0.413884 2:0.279276 
1 1:-0.413884 2:0.279276 
1 1:-0.413884 2:0.279276 
1 1:-0.413884 2:0.279276 
1 1:-0.413884 2:0.279276 
1 1:-0.413884 2:0.279276 
1 1:-0.413884 2:0.279276 
1 1:-0.413884 2:0.279276 
1 1:-0.413884 2:0.279276 
1 1:-0.413884 2:0.279276 
1 1:-0.413884 2:0.279276 
1 1:-0.413884 2:0.279276 
1 1:-0.413884 2:0.279276 
1 1:-0.413884 2:0.279276 
1 1:-0.413884 2:0.279276 
1 1:-0.413884 2:0.279276 
1 1:-0.413884 2:0.279276 
1 1:-0.413884 2:0.279276 
1 1:-0.413884 2:0.279276 
1 1:-0.413884 2:0.279276 
1 1:-0.413884 2:0.279276 
1 1:-0.413884 2:0.279276 
1 1:-0.413884 2:0.279276 
1 1:-0.599395 2:0.234408 
1 1:-0.0647113 2:-0.269434 
1 1:-0.599395 2:0.234408 
1 1:-0.0647113 2:-0.269434 
1 1:-0.599395 2:0.234408 
1 1:-0.0647113 2:-0.269434 
1 1:-0.599395 2:0.234408 
1 1:-0.0647113 2:-0.269434 
1 1:-0.599395 2:0.234408 
1 1:-0.0647113 2:-0.269434 
1 1:-0.599395 2:0.234408 
1 1:-0.0647113 2:-0.269434 
1 1:-0.599395 2:0.234408 
1 1:-0.0647113 2:-0.269434 
1 1:-0.599395 2:0.234408 
1 1:-0.0647113 2:-0.269434 
1 1:-0.599395 2:0.234408 
1 1:-0.0647113 2:-0.269434 
1 1:-0.599395 2:0.234408 
1 1:-0.0647113 2:-0.269434 
1 1:-0.599395 2:0.234408 
1 1:-0.0647113 2:-0.269434 
1 1:-0.599395 2:0.234408 
1 1:-0.0647113 2:-0.269434 
1 1:-0.599395 2:0.234408 
1 1:-0.0647113 2:-0.269434 
1 1:-0.599395 2:0.234408 
1 1:-0.0647113 2:-0.269434 
1 1:-0.599395 2:0.234408 
1 1:-0.0647113 2:-0.269434 
1 1:-0.599395 2:0.234408 
1 1:-0.0647113 2:-0.269434 
1 1:-0.599395 2:0.234408 
1 1:-0.0647113 2:-0.269434 
1 1:-0.599395 2:0.234408 
1 1:-0.0647113 2:-0.269434 
1 1:-0.599395 2:0.234408 
1 1:-0.0647113 2:-0.269434 
1 1:-0.599395 2:0.234408 
1 1:-0.0647113 2:-0.269434 
1 1:-0.599395 2:0.234408 
1 1:-0.0647113 2:-0.269434 
1 1:-0.599395 2:0.234408 
1 1:-0.0647113 2:-0.269434 
1 1:-0.599395 2:0.234408 
1 1:-0.0647113 2:-0.269434 
1 1:-0.599395 2:0.234408 
1 1:-0.0647113 2:-0.269434 
1 1:-0.599395 2:0.234408 
1 1:-0.0647113 2:-0.269434 
1 1:-0.599395 2:0.234408 
1 1:-0.0647113 2:-0.269434 
1 1:-0.599395 2:0.234408 
1 1:-0.0647113 2:-0.269434 
1 1:-0.599395 2:0.234408 
1 1:-0.0647113 2:-0.269434 
1 1:-0.599395 2:0.234408 
1 1:-0.0647113 2:-0.269434 
1 1:-0.599395 2:0.234408 
1 1:-0.0647113 2:-0.269434 
1 1:-0.599395 2:0.234408 
1 1:-0.0647113 2:-0.269434 
1 1:-0.599395 2:0.234408 
1 1:-0.0647113 2:-0.269434 
1 1:-0.599395 2:0.234408 
1 1:-0.0647113 2:-0.269434 
1 1:-0.599395 2:0.234408 
1 1:-0.0647113 2:-0.269434 
1 1:-0.599395 2:0.234408 
1 1:-0.0647113 2:-0.269434 
1 1:-0.599395 2:0.234408 
1 1:-0.0647113 2:-0.269434 
1 1:-0.599395 2:0.234408 
1 1:-0.0647113 2:-0.269434 
1 1:-0.599395 2:0.234408 
1 1:-0.0647113 2:-0.269434 
1 1:-0.599395 2:0.234408 
1 1:-0.0647113 2:-0.269434 
1 1:-0.599395 2:0.234408 
1 1:-0.0647113 2:-0.269434 
1 1:-0.599395 2:0.234408 
1 1:-0.0647113 2:-0.269434 
1 1:-0.599395 2:0.234408 
1 1:-0.0647113 2:-0.269434 
1 1:-0.599395 2:0.234408 
1 1:-0.0647113 2:-0.269434 
1 1:-0.599395 2:0.234408 
1 1:-0.0647113 2:-0.269434 
1 1:-0.599395 2:0.234408 
1 1:-0.0647113 2:-0.269434 
1 1:-0.599395 2:0.234408 
1 1:-0.0647113 2:-0.269434 
1 1:-0.599395 2:0.234408 
1 1:-0.0647113 2:-0.269434 
1 1:-0.599395 2:0.234408 
1 1:-0.0647113 2:-0.269434 
1 1:-0.599395 2:0.234408 
1 1:-0.0647113 2:-0.269434 
1 1:-0.599395 2:0.234408 
1 1:-0.0647113 2:-0.269434 
1 1:-0.599395 2:0.234408 
1 1:-0.0647113 2:-0.269434 
1 1:-0.599395 2:0.234408 
1 1:-0.0647113 2:-0.269434 
1 1:-0.599395 2:0.234408 
1 1:-0.0647113 2:-0.269434 
1 1:-0.599395 2:0.234408 
1 1:-0.0647113 2:-0.269434 
1 1:-0.599395 2:0.234408 
1 1:-0.0647113 2:-0.269434 
1 1:-0.599395 2:0.234408 
1 1:-0.0647113 2:-0.269434 
1 1:-0.599395 2:0.234408 
1 1:-0.0647113 2:-0.269434 
1 1:-0.599395 2:0.234408 
1 1:-0.0647113 2:-0.269434 
1 1:-0.599395 2:0.234408 
1 1:-0.0647113 2:-0.269434 
1 1:-0.599395 2:0.234408 
1 1:-0.0647113 2:-0.269434 
1 1:-0.599395 2:0.234408 
1 1:-0.0647113 2:-0.269434 
1 1:-0.599395 2:0.234408 
1 1:-0.0647113 2:-0.269434 
1 1:-0.599395 2:0.234408 
1 1:-0.0647113 2:-0.269434 
1 1:-0.599395 2:0.234408 
1 1:-0.0647113 2:-0.269434 
1 1:-0.599395 2:0.234408 
1 1:-0.0647113 2:-0.269434 
1 1:-0.599395 2:0.234408 
1 1:-0.0647113 2:-0.269434 
1 1:-0.599395 2:0.234408 
1 1:-0.0647113 2:-0.269434 
1 1:-0.599395 2:0.234408 
1 1:-0.0647113 2:-0.269434 
1 1:-0.599395 2:0.234408 
1 1:-0.0647113 2:-0.269434 
1 1:-0.599395 2:0.234408 
1 1:-0.0647113 2:-0.269434 
1 1:-0.599395 2:0.234408 
1 1:-0.0647113 2:-0.269434 
1 1:-0.599395 2:0.234408 
1 1:-0.0647113 2:-0.269434 
1 1:-0.599395 2:0.234408 
1 1:-0.0647113 2:-0.269434 
1 1:-0.599395 2:0.234408 
1 1:-0.0647113 2:-0.269434 
1 1:-0.599395 2:0.234408 
1 1:-0.0647113 2:-0.269434 
1 1:-0.599395 2:0.234408 
1 1:-0.0647113 2:-0.269434 
1 1:-0.599395 2:0.234408 
1 1:-0.0647113 2:-0.269434 
1 1:-0.599395 2:0.234408 
1 1:-0.0647113 2:-0.269434 
1 1:-0.599395 2:0.234408 
1 1:-0.0647113 2:-0.269434 
1 1:-0.599395 2:0.234408 
1 1:-0.0647113 2:-0.269434 
1 1:-0.599395 2:0.234408 
1 1:-0.0647113 2:-0.269434 
1 1:-0.599395 2:0.234408 
1 1:-0.0647113 2:-0.269434 
1 1:-0.599395 2:0.234408 
1 1:-0.0647113 2:-0.269434 
1 1:-0.599395 2:0.234408 
1 1:-0.0647113 2:-0.269434 
1 1:-0.599395 2:0.234408 
1 1:-0.0647113 2:-0.269434 
1 1:-0.599395 2:0.234408 
1 1:-0.0647113 2:-0.269434 
1 1:-0.599395 2:0.234408 
1 1:-0.0647113 2:-0.269434 
1 1:-0.599395 2:0.234408 
1 1:-0.0647113 2:-0.269434 
1 1:-0.599395 2:0.234408 
1 1:-0.0647113 2:-0.269434 
1 1:-0.599395 2:0.234408 
1 1:-0.0647113 2:-0.269434 
1 1:-0.599395 2:0.234408 
1 1:-0.0647113 2:-0.269434 
1 1:-0.599395 2:0.234408 
1 1:-0.0647113 2:-0.269434 
1 1:-0.599395 2:0.234408 
1 1:-0.0647113 2:-0.269434 
1 1:-0.599395 2:0.234408 
1 1:-0.0647113 2:-0.269434 
1 1:-0.599395 2:0.234408 
1 1:-0.0647113 2:-0.269434 
1 1:-0.599395 2:0.234408 
1 1:-0.0647113 2:-0.269434 
1 1:-0.599395 2:0.234408 
1 1:-0.0647113 2:-0.269434 
1 1:-0.141759 2:-0.658417 
1 1:-0.978462 2:-0.960807 
1 1:-0.141759 2:-0.658417 
1 1:-0.978462 2:-0.960807 
1 1:-0.141759 2:-0.658417 
1 1:-0.978462 2:-0.960807 
1 1:-0.141759 2:-0.658417 
1 1:-0.978462 2:-0.960807 
1 1:-0.141759 2:-0.658417 
1 1:-0.978462 2:-0.960807 
1 1:-0.141759 2:-0.658417 
1 1:-0.978462 2:-0.960807 
1 1:-0.141759 2:-0.658417 
1 1:-0.978462 2:-0.960807 
1 1:-0.141759 2:-0.658417 
1 1:-0.978462 2:-0.960807 
1 1:-0.141759 2:-0.658417 
1 1:-0.978462 2:-0.960807 
1 1:-0.141759 2:-0.658417 
1 1:-0.978462 2:-0.960807 
1 1:-0.141759 2:-0.658417 
1 1:-0.978462 2:-0.960807 
1 1:-0.141759 2:-0.658417 
1 1:-0.978462 2:-0.960807 
1 1:-0.141759 2:-0.658417 
1 1:-0.978462 2:-0.960807 
1 1:-0.141759 2:-0.658417 
1 1:-0.978462 2:-0.960807 
1 1:-0.141759 2:-0.658417 
1 1:-0.978462 2:-0.960807 
1 1:-0.141759 2:-0.658417 
1 1:-0.978462 2:-0.960807 
1 1:-0.141759 2:-0.658417 
1 1:-0.978462 2:-0.960807 
1 1:-0.141759 2:-0.658417 
1 1:-0.978462 2:-0.960807 
1 1:-0.141759 2:-0.658417 
1 1:-0.978462 2:-0.960807 
1 1:-0.141759 2:-0.658417 
1 1:-0.978462 2:-0.960807 
1 1:-0.141759 2:-0.658417 
1 1:-0.978462 2:-0.960807 
1 1:-0.141759 2:-0.658417 
1 1:-0.978462 2:-0.960807 
1 1:-0.141759 2:-0.658417 
1 1:-0.978462 2:-0.960807 
1 1:-0.141759 2:-0.658417 
1 1:-0.978462 2:-0.960807 
1 1:-0.141759 2:-0.658417 
1 1:-0.978462 2:-0.960807 
1 1:-0.141759 2:-0.658417 
1 1:-0.978462 2:-0.960807 
1 1:-0.141759 2:-0.658417 
1 1:-0.978462 2:-0.960807 
1 1:-0.141759 2:-0.658417 
1 1:-0.978462 2:-0.960807 
1 1:-0.141759 2:-0.658417 
1 1:-0.978462 2:-0.960807 
1 1:-0.141759 2:-0.658417 
1 1:-0.978462 2:-0.960807 
1 1:-0.141759 2:-0.658417 
1 1:-0.978462 2:-0.960807 
1 1:-0.141759 2:-0.658417 
1 1:-0.978462 2:-0.960807 
1 1:-0.141759 2:-0.658417 
1 1:-0.978462 2:-0.960807 
1 1:-0.141759 2:-0.658417 
1 1:-0.978462 2:-0.960807 
1 1:-0.141759 2:-0.658417 
1 1:-0.978462 2:-0.960807 
1 1:-0.141759 2:-0.658417 
1 1:-0.978462 2:-0.960807 
1 1:-0.141759 2:-0.658417 
1 1:-0.978462 2:-0.960807 
1 1:-0.141759 2:-0.658417 
1 1:-0.978462 2:-0.960807 
1 1:-0.141759 2:-0.658417 
1 1:-0.978462 2:-0.960807 
1 1:-0.141759 2:-0.658417 
1 1:-0.978462 2:-0.960807 
1 1:-0.141759 2:-0.658417 
1 1:-0.978462 2:-0.960807 
1 1:-0.141759 2:-0.658417 
1 1:-0.978462 2:-0.960807 
1 1:-0.141759 2:-0.658417 
1 1:-0.978462 2:-0.960807 
1 1:-0.141759 2:-0.658417 
1 1:-0.978462 2:-0.960807 
1 1:-0.141759 2:-0.658417 
1 1:-0.978462 2:-0.960807 
1 1:-0.141759 2:-0.658417 
1 1:-0.978462 2:-0.960807 
1 1:-0.141759 2:-0.658417 
1 1:-0.978462 2:-0.960807 
1 1:-0.141759 2:-0.658417 
1 1:-0.978462 2:-0.960807 
1 1:-0.141759 2:-0.658417 
1 1:-0.978462 2:-0.960807 
1 1:-0.141759 2:-0.658417 
1 1:-0.978462 2:-0.960807 
1 1:-0.141759 2:-0.658417 
1 1:-0.978462 2:-0.960807 
1 1:-0.141759 2:-0.658417 
1 1:-0.978462 2:-0.960807 
1 1:-0.141759 2:-0.658417 
1 1:-0.978462 2:-0.960807 
1 1:-0.141759 2:-0.658417 
1 1:-0.978462 2:-0.960807 
1 1:-0.141759 2:-0.658417 
1 1:-0.978462 2:-0.960807 
1 1:-0.141759 2:-0.658417 
1 1:-0.978462 2:-0.960807 
1 1:-0.141759 2:-0.658417 
1 1:-0.978462 2:-0.960807 
1 1:-0.141759 2:-0.658417 
1 1:-0.978462 2:-0.960807 
1 1:-0.141759 2:-0.658417 
1 1:-0.978462 2:-0.960807 
1 1:-0.141759 2:-0.658417 
1 1:-0.978462 2:-0.960807 
1 1:-0.141759 2:-0.658417 
1 1:-0.978462 2:-0.960807 
1 1:-0.141759 2:-0.658417 
1 1:-0.978462 2:-0.960807 
1 1:-0.141759 2:-0.658417 
1 1:-0.978462 2:-0.960807 
1 1:-0.141759 2:-0.658417 
1 1:-0.978462 2:-0.960807 
1 1:-0.141759 2:-0.658417 
1 1:-0.978462 2:-0.960807 
1 1:-0.141759 2:-0.658417 
1 1:-0.978462 2:-0.960807 
1 1:-0.141759 2:-0.658417 
1 1:-0.978462 2:-0.960807 
1 1:-0.141759 2:-0.658417 
1 1:-0.978462 2:-0.960807 
1 1:-0.141759 2:-0.658417 
1 1:-0.978462 2:-0.960807 
1 1:-0.141759 2:-0.658417 
1 1:-0.978462 2:-0.960807 
1 1:-0.141759 2:-0.658417 
1 1:-0.978462 2:-0.960807 
1 1:-0.141759 2:-0.658417 
1 1:-0.978462 2:-0.960807 
1 1:-0.141759 2:-0.658417 
1 1:-0.978462 2:-0.960807 
1 1:-0.141759 2:-0.658417 
1 1:-0.978462 2:-0.960807 
1 1:-0.141759 2:-0.658417 
1 1:-0.978462 2:-0.960807 
1 1:-0.141759 2:-0.658417 
1 1:-0.978462 2:-0.960807 
1 1:-0.141759 2:-0.658417 
1 1:-0.978462 2:-0.960807 
1 1:-0.141759 2:-0.658417 
1 1:-0.978462 2:-0.960807 
1 1:-0.141759 2:-0.658417 
1 1:-0.978462 2:-0.960807 
1 1:-0.141759 2:-0.658417 
1 1:-0.978462 2:-0.960807 
1 1:-0.141759 2:-0.658417 
1 1:-0.978462 2:-0.960807 
1 1:-0.141759 2:-0.658417 
1 1:-0.978462 2:-0.960807 
1 1:-0.141759 2:-0.658417 
1 1:-0.978462 2:-0.960807 
1 1:-0.141759 2:-0.658417 
1 1:-0.978462 2:-0.960807 
1 1:-0.141759 2:-0.658417 
1 1:-0.978462 2:-0.960807 
1 1:-0.141759 2:-0.658417 
1 1:-0.978462 2:-0.960807 
1 1:-0.141759 2:-0.658417 
1 1:-0.978462 2:-0.960807 
1 1:-0.141759 2:-0.658417 
1 1:-0.978462 2:-0.960807 
1 1:-0.141759 2:-0.658417 
1 1:-0.978462 2:-0.960807 
1 1:-0.141759 2:-0.658417 
1 1:-0.978462 2:-0.960807 
1 1:-0.141759 2:-0.658417 
1 1:-0.978462 2:-0.960807 
1 1:-0.141759 2:-0.658417 
1 1:-0.978462 2:-0.960807 
1 1:-0.141759 2:-0.658417 
1 1:-0.978462 2:-0.960807 
1 1:-0.141759 2:-0.658417 
1 1:-0.978462 2:-0.960807 
1 1:-0.962511 2:-0.969646 
1 1:-0.962511 2:-0.969646 
1 1:-0.962511 2:-0.969646 
1 1:-0.962511 2:-0.969646 
1 1:-0.962511 2:-0.969646 
1 1:-0.962511 2:-0.969646 
1 1:-0.962511 2:-0.969646 
1 1:-0.962511 2:-0.969646 
1 1:-0.962511 2:-0.969646 
1 1:-0.962511 2:-0.969646 
1 1:-0.962511 2:-0.969646 
1 1:-0.962511 2:-0.969646 
1 1:-0.962511 2:-0.969646 
1 1:-0.962511 2:-0.969646 
1 1:-0.962511 2:-0.969646 
1 1:-0.962511 2:-0.969646 
1 1:-0.962511 2:-0.969646 
1 1:-0.962511 2:-0.969646 
1 1:-0.962511 2:-0.969646 
1 1:-0.962511 2:-0.969646 
1 1:-0.962511 2:-0.969646 
1 1:-0.962511 2:-0.969646 
1 1:-0.962511 2:-0.969646 
1 1:-0.962511 2:-0.969646 
1 1:-0.962511 2:-0.969646 
1 1:-0.962511 2:-0.969646 
1 1:-0.962511 2:-0.969646 
1 1:-0.962511 2:-0.969646 
1 1:-0.962511 2:-0.969646 
1 1:-0.962511 2:-0.969646 
1 1:-0.962511 2:-0.969646 
1 1:-0.962511 2:-0.969646 
1 1:-0.962511 2:-0.969646 
1 1:-0.962511 2:-0.969646 
1 1:-0.962511 2:-0.969646 
1 1:-0.962511 2:-0.969646 
1 1:-0.962511 2:-0.969646 
1 1:-0.962511 2:-0.969646 
1 1:-0.962511 2:-0.969646 
1 1:-0.962511 2:-0.969646 
1 1:-0.962511 2:-0.969646 
1 1:-0.962511 2:-0.969646 
1 1:-0.962511 2:-0.969646 
1 1:-0.962511 2:-0.969646 
1 1:-0.962511 2:-0.969646 
1 1:-0.962511 2:-0.969646 
1 1:-0.962511 2:-0.969646 
1 1:-0.962511 2:-0.969646 
1 1:-0.962511 2:-0.969646 
1 1:-0.962511 2:-0.969646 
1 1:-0.962511 2:-0.969646 
1 1:-0.962511 2:-0.969646 
1 1:-0.962511 2:-0.969646 
1 1:-0.962511 2:-0.969646 
1 1:-0.962511 2:-0.969646 
1 1:-0.962511 2:-0.969646 
1 1:-0.962511 2:-0.969646 
1 1:-0.962511 2:-0.969646 
1 1:-0.962511 2:-0.969646 
1 1:-0.962511 2:-0.969646 
1 1:-0.962511 2:-0.969646 
1 1:-0.962511 2:-0.969646 
1 1:-0.962511 2:-0.969646 
1 1:-0.962511 2:-0.969646 
1 1:-0.962511 2:-0.969646 
1 1:-0.962511 2:-0.969646 
1 1:-0.962511 2:-0.969646 
1 1:-0.962511 2:-0.969646 
1 1:-0.962511 2:-0.969646 
1 1:-0.962511 2:-0.969646 
1 1:-0.962511 2:-0.969646 
1 1:-0.962511 2:-0.969646 
1 1:-0.962511 2:-0.969646 
1 1:-0.962511 2:-0.969646 
1 1:-0.962511 2:-0.969646 
1 1:-0.962511 2:-0.969646 
1 1:-0.962511 2:-0.969646 
1 1:-0.962511 2:-0.969646 
1 1:-0.962511 2:-0.969646 
1 1:-0.962511 2:-0.969646 
1 1:-0.962511 2:-0.969646 
1 1:-0.962511 2:-0.969646 
1 1:-0.962511 2:-0.969646 
1 1:-0.962511 2:-0.969646 
1 1:-0.962511 2:-0.969646 
1 1:-0.962511 2:-0.969646 
1 1:-0.962511 2:-0.969646 
1 1:-0.962511 2:-0.969646 
1 1:-0.962511 2:-0.969646 
1 1:-0.962511 2:-0.969646 
1 1:-0.962511 2:-0.969646 
1 1:-0.962511 2:-0.969646 
1 1:-0.962511 2:-0.969646 
1 1:-0.962511 2:-0.969646 
1 1:-0.962511 2:-0.969646 
1 1:-0.962511 2:-0.969646 
1 1:-0.962511 2:-0.969646 
1 1:-0.983729 2:-0.95778 
1 1:-0.983729 2:-0.95778 
1 1:-0.983729 2:-0.95778 
1 1:-0.983729 2:-0.95778 
1 1:-0.983729 2:-0.95778 
1 1:-0.983729 2:-0.95778 
1 1:-0.983729 2:-0.95778 
1 1:-0.983729 2:-0.95778 
1 1:-0.983729 2:-0.95778 
1 1:-0.983729 2:-0.95778 
1 1:-0.983729 2:-0.95778 
1 1:-0.983729 2:-0.95778 
1 1:-0.983729 2:-0.95778 
1 1:-0.983729 2:-0.95778 
1 1:-0.983729 2:-0.95778 
1 1:-0.983729 2:-0.95778 
1 1:-0.983729 2:-0.95778 
1 1:-0.983729 2:-0.95778 
1 1:-0.983729 2:-0.95778 
1 1:-0.983729 2:-0.95778 
1 1:-0.983729 2:-0.95778 
1 1:-0.983729 2:-0.95778 
1 1:-0.983729 2:-0.95778 
1 1:-0.983729 2:-0.95778 
1 1:-0.983729 2:-0.95778 
1 1:-0.983729 2:-0.95778 
1 1:-0.983729 2:-0.95778 
1 1:-0.983729 2:-0.95778 
1 1:-0.983729 2:-0.95778 
1 1:-0.983729 2:-0.95778 
1 1:-0.983729 2:-0.95778 
1 1:-0.983729 2:-0.95778 
1 1:-0.983729 2:-0.95778 
1 1:-0.983729 2:-0.95778 
1 1:-0.983729 2:-0.95778 
1 1:-0.983729 2:-0.95778 
1 1:-0.983729 2:-0.95778 
1 1:-0.983729 2:-0.95778 
1 1:-0.983729 2:-0.95778 
1 1:-0.983729 2:-0.95778 
1 1:-0.983729 2:-0.95778 
1 1:-0.983729 2:-0.95778 
1 1:-0.983729 2:-0.95778 
1 1:-0.983729 2:-0.95778 
1 1:-0.983729 2:-0.95778 
1 1:-0.983729 2:-0.95778 
1 1:-0.983729 2:-0.95778 
1 1:-0.983729 2:-0.95778 
1 1:-0.983729 2:-0.95778 
1 1:-0.983729 2:-0.95778 
1 1:-0.983729 2:-0.95778 
1 1:-0.983729 2:-0.95778 
1 1:-0.983729 2:-0.95778 
1 1:-0.983729 2:-0.95778 
1 1:-0.983729 2:-0.95778 
1 1:-0.983729 2:-0.95778 
1 1:-0.983729 2:-0.95778 
1 1:-0.983729 2:-0.95778 
1 1:-0.983729 2:-0.95778 
1 1:-0.983729 2:-0.95778 
1 1:-0.983729 2:-0.95778 
1 1:-0.983729 2:-0.95778 
1 1:-0.983729 2:-0.95778 
1 1:-0.983729 2:-0.95778 
1 1:-0.983729 2:-0.95778 
1 1:-0.983729 2:-0.95778 
1 1:-0.983729 2:-0.95778 
1 1:-0.983729 2:-0.95778 
1 1:-0.983729 2:-0.95778 
1 1:-0.983729 2:-0.95778 
1 1:-0.983729 2:-0.95778 
1 1:-0.983729 2:-0.95778 
1 1:-0.983729 2:-0.95778 
1 1:-0.983729 2:-0.95778 
1 1:-0.983729 2:-0.95778 
1 1:-0.983729 2:-0.95778 
1 1:-0.983729 2:-0.95778 
1 1:-0.983729 2:-0.95778 
1 1:-0.983729 2:-0.95778 
1 1:-0.983729 2:-0.95778 
1 1:-0.983729 2:-0.95778 
1 1:-0.983729 2:-0.95778 
1 1:-0.983729 2:-0.95778 
1 1:-0.983729 2:-0.95778 
1 1:-0.983729 2:-0.95778 
1 1:-0.983729 2:-0.95778 
1 1:-0.983729 2:-0.95778 
1 1:-0.983729 2:-0.95778 
1 1:-0.983729 2:-0.95778 
1 1:-0.983729 2:-0.95778 
1 1:-0.192355 2:0.0550972 
1 1:-0.505629 2:0.267096 
1 1:-0.192355 2:0.0550972 
1 1:-0.505629 2:0.267096 
1 1:-0.192355 2:0.0550972 
1 1:-0.505629 2:0.267096 
1 1:-0.192355 2:0.0550972 
1 1:-0.505629 2:0.267096 
1 1:-0.192355 2:0.0550972 
1 1:-0.505629 2:0.267096 
1 1:-0.192355 2:0.0550972 
1 1:-0.505629 2:0.267096 
1 1:-0.192355 2:0.0550972 
1 1:-0.505629 2:0.267096 
1 1:-0.192355 2:0.0550972 
1 1:-0.505629 2:0.267096 
1 1:-0.192355 2:0.0550972 
1 1:-0.505629 2:0.267096 
1 1:-0.192355 2:0.0550972 
1 1:-0.505629 2:0.267096 
1 1:-0.192355 2:0.0550972 
1 1:-0.505629 2:0.267096 
1 1:-0.192355 2:0.0550972 
1 1:-0.505629 2:0.267096 
1 1:-0.192355 2:0.0550972 
1 1:-0.505629 2:0.267096 
1 1:-0.192355 2:0.0550972 
1 1:-0.505629 2:0.267096 
1 1:-0.192355 2:0.0550972 
1 1:-0.505629 2:0.267096 
1 1:-0.192355 2:0.0550972 
1 1:-0.505629 2:0.267096 
1 1:-0.192355 2:0.0550972 
1 1:-0.505629 2:0.267096 
1 1:-0.192355 2:0.0550972 
1 1:-0.505629 2:0.267096 
1 1:-0.192355 2:0.0550972 
1 1:-0.505629 2:0.267096 
1 1:-0.192355 2:0.0550972 
1 1:-0.505629 2:0.267096 
1 1:-0.192355 2:0.0550972 
1 1:-0.505629 2:0.267096 
1 1:-0.192355 2:0.0550972 
1 1:-0.505629 2:0.267096 
1 1:-0.192355 2:0.0550972 
1 1:-0.505629 2:0.267096 
1 1:-0.192355 2:0.0550972 
1 1:-0.505629 2:0.267096 
1 1:-0.192355 2:0.0550972 
1 1:-0.505629 2:0.267096 
1 1:-0.192355 2:0.0550972 
1 1:-0.505629 2:0.267096 
1 1:-0.192355 2:0.0550972 
1 1:-0.505629 2:0.267096 
1 1:-0.192355 2:0.0550972 
1 1:-0.505629 2:0.267096 
1 1:-0.192355 2:0.0550972 
1 1:-0.505629 2:0.267096 
1 1:-0.192355 2:0.0550972 
1 1:-0.505629 2:0.267096 
1 1:-0.192355 2:0.0550972 
1 1:-0.505629 2:0.267096 
1 1:-0.192355 2:0.0550972 
1 1:-0.505629 2:0.267096 
1 1:-0.192355 2:0.0550972 
1 1:-0.505629 2:0.267096 
1 1:-0.192355 2:0.0550972 
1 1:-0.505629 2:0.267096 
1 1:-0.192355 2:0.0550972 
1 1:-0.505629 2:0.267096 
1 1:-0.192355 2:0.0550972 
1 1:-0.505629 2:0.267096 
1 1:-0.192355 2:0.0550972 
1 1:-0.505629 2:0.267096 
1 1:-0.192355 2:0.0550972 
1 1:-0.505629 2:0.267096 
1 1:-0.192355 2:0.0550972 
1 1:-0.505629 2:0.267096 
1 1:-0.192355 2:0.0550972 
1 1:-0.505629 2:0.267096 
1 1:-0.192355 2:0.0550972 
1 1:-0.505629 2:0.267096 
1 1:-0.192355 2:0.0550972 
1 1:-0.505629 2:0.267096 
1 1:-0.192355 2:0.0550972 
1 1:-0.505629 2:0.267096 
1 1:-0.192355 2:0.0550972 
1 1:-0.505629 2:0.267096 
1 1:-0.192355 2:0.0550972 
1 1:-0.505629 2:0.267096 
1 1:-0.192355 2:0.0550972 
1 1:-0.505629 2:0.267096 
1 1:-0.192355 2:0.0550972 
1 1:-0.505629 2:0.267096 
1 1:-0.192355 2:0.0550972 
1 1:-0.505629 2:0.267096 
1 1:-0.192355 2:0.0550972 
1 1:-0.505629 2:0.267096 
1 1:-0.192355 2:0.0550972 
1 1:-0.505629 2:0.267096 
1 1:-0.192355 2:0.0550972 
1 1:-0.505629 2:0.267096 
1 1:-0.192355 2:0.0550972 
1 1:-0.505629 2:0.267096 
1 1:-0.192355 2:0.0550972 
1 1:-0.505629 2:0.267096 
1 1:-0.192355 2:0.0550972 
1 1:-0.505629 2:0.267096 
1 1:-0.192355 2:0.0550972 
1 1:-0.505629 2:0.267096 
1 1:-0.192355 2:0.0550972 
1 1:-0.505629 2:0.267096 
1 1:-0.192355 2:0.0550972 
1 1:-0.505629 2:0.267096 
1 1:-0.192355 2:0.0550972 
1 1:-0.505629 2:0.267096 
1 1:-0.192355 2:0.0550972 
1 1:-0.505629 2:0.267096 
1 1:-0.192355 2:0.0550972 
1 1:-0.505629 2:0.267096 
1 1:-0.192355 2:0.0550972 
1 1:-0.505629 2:0.267096 
1 1:-0.192355 2:0.0550972 
1 1:-0.505629 2:0.267096 
1 1:-0.192355 2:0.0550972 
1 1:-0.505629 2:0.267096 
1 1:-0.192355 2:0.0550972 
1 1:-0.505629 2:0.267096 
1 1:-0.192355 2:0.0550972 
1 1:-0.505629 2:0.267096 
1 1:-0.192355 2:0.0550972 
1 1:-0.505629 2:0.267096 
1 1:-0.192355 2:0.0550972 
1 1:-0.505629 2:0.267096 
1 1:-0.192355 2:0.0550972 
1 1:-0.505629 2:0.267096 
1 1:-0.192355 2:0.0550972 
1 1:-0.505629 2:0.267096 
1 1:-0.192355 2:0.0550972 
1 1:-0.505629 2:0.267096 
1 1:-0.192355 2:0.0550972 
1 1:-0.505629 2:0.267096 
1 1:-0.192355 2:0.0550972 
1 1:-0.505629 2:0.267096 
1 1:-0.192355 2:0.0550972 
1 1:-0.505629 2:0.267096 
1 1:-0.192355 2:0.0550972 
1 1:-0.505629 2:0.267096 
1 1:-0.192355 2:0.0550972 
1 1:-0.505629 2:0.267096 
1 1:-0.192355 2:0.0550972 
1 1:-0.505629 2:0.267096 
1 1:-0.192355 2:0.0550972 
1 1:-0.505629 2:0.267096 
1 1:-0.192355 2:0.0550972 
1 1:-0.505629 2:0.267096 
1 1:-0.192355 2:0.0550972 
1 1:-0.505629 2:0.267096 
1 1:-0.192355 2:0.0550972 
1 1:-0.505629 2:0.267096 
1 1:-0.192355 2:0.0550972 
1 1:-0.505629 2:0.267096 
1 1:-0.192355 2:0.0550972 
1 1:-0.505629 2:0.267096 
1 1:-0.192355 2:0.0550972 
1 1:-0.505629 2:0.267096 
1 1:-0.192355 2:0.0550972 
1 1:-0.505629 2:0.267096 
1 1:-0.192355 2:0.0550972 
1 1:-0.505629 2:0.267096 
1 1:-0.192355 2:0.0550972 
1 1:-0.505629 2:0.267096 
1 1:-0.192355 2:0.0550972 
1 1:-0.505629 2:0.267096 
1 1:-0.192355 2:0.0550972 
1 1:-0.505629 2:0.267096 
1 1:-0.192355 2:0.0550972 
1 1:-0.505629 2:0.267096 
1 1:-0.192355 2:0.0550972 
1 1:-0.505629 2:0.267096 
1 1:-0.192355 2:0.0550972 
1 1:-0.505629 2:0.267096 
1 1:-0.192355 2:0.0550972 
1 1:-0.505629 2:0.267096 
1 1:-0.192355 2:0.0550972 
1 1:-0.505629 2:0.267096 
1 1:-0.367023 2:0.221211 
1 1:-0.367023 2:0.221211 
1 1:-0.367023 2:0.221211 
1 1:-0.367023 2:0.221211 
1 1:-0.367023 2:0.221211 
1 1:-0.367023 2:0.221211 
1 1:-0.367023 2:0.221211 
1 1:-0.367023 2:0.221211 
1 1:-0.367023 2:0.221211 
1 1:-0.367023 2:0.221211 
1 1:-0.367023 2:0.221211 
1 1:-0.367023 2:0.221211 
1 1:-0.367023 2:0.221211 
1 1:-0.367023 2:0.221211 
1 1:-0.367023 2:0.221211 
1 1:-0.367023 2:0.221211 
1 1:-0.367023 2:0.221211 
1 1:-0.367023 2:0.221211 
1 1:-0.367023 2:0.221211 
1 1:-0.367023 2:0.221211 
1 1:-0.367023 2:0.221211 
1 1:-0.367023 2:0.221211 
1 1:-0.367023 2:0.221211 
1 1:-0.367023 2:0.221211 
1 1:-0.367023 2:0.221211 
1 1:-0.367023 2:0.221211 
1 1:-0.367023 2:0.221211 
1 1:-0.367023 2:0.221211 
1 1:-0.367023 2:0.221211 
1 1:-0.367023 2:0.221211 
1 1:-0.367023 2:0.221211 
1 1:-0.367023 2:0.221211 
1 1:-0.367023 2:0.221211 
1 1:-0.367023 2:0.221211 
1 1:-0.367023 2:0.221211 
1 1:-0.367023 2:0.221211 
1 1:-0.367023 2:0.221211 
1 1:-0.367023 2:0.221211 
1 1:-0.367023 2:0.221211 
1 1:-0.367023 2:0.221211 
1 1:-0.367023 2:0.221211 
1 1:-0.367023 2:0.221211 
1 1:-0.367023 2:0.221211 
1 1:-0.367023 2:0.221211 
1 1:-0.367023 2:0.221211 
1 1:-0.367023 2:0.221211 
1 1:-0.367023 2:0.221211 
1 1:-0.367023 2:0.221211 
1 1:-0.367023 2:0.221211 
1 1:-0.367023 2:0.221211 
1 1:-0.367023 2:0.221211 
1 1:-0.367023 2:0.221211 
1 1:-0.367023 2:0.221211 
1 1:-0.367023 2:0.221211 
1 1:-0.367023 2:0.221211 
1 1:-0.367023 2:0.221211 
1 1:-0.367023 2:0.221211 
1 1:-0.367023 2:0.221211 
1 1:-0.367023 2:0.221211 
1 1:-0.367023 2:0.221211 
1 1:-0.367023 2:0.221211 
1 1:-0.367023 2:0.221211 
1 1:-0.367023 2:0.221211 
1 1:-0.367023 2:0.221211 
1 1:-0.367023 2:0.221211 
1 1:-0.367023 2:0.221211 
1 1:-0.367023 2:0.221211 
1 1:-0.367023 2:0.221211 
1 1:-0.367023 2:0.221211 
1 1:-0.367023 2:0.221211 
1 1:-0.367023 2:0.221211 
1 1:-0.367023 2:0.221211 
1 1:-0.367023 2:0.221211 
1 1:-0.367023 2:0.221211 
1 1:-0.367023 2:0.221211 
1 1:-0.367023 2:0.221211 
1 1:-0.367023 2:0.221211 
1 1:-0.367023 2:0.221211 
1 1:-0.367023 2:0.221211 
1 1:-0.367023 2:0.221211 
1 1:-0.367023 2:0.221211 
1 1:-0.367023 2:0.221211 
1 1:-0.367023 2:0.221211 
1 1:-0.367023 2:0.221211 
1 1:-0.367023 2:0.221211 
1 1:-0.367023 2:0.221211 
1 1:-0.367023 2:0.221211 
1 1:-0.367023 2:0.221211 
1 1:-0.367023 2:0.221211 
1 1:-0.367023 2:0.221211 
1 1:-0.367023 2:0.221211 
1 1:-0.367023 2:0.221211 
1 1:-0.367023 2:0.221211 
1 1:-0.367023 2:0.221211 
1 1:-0.367023 2:0.221211 
1 1:-0.367023 2:0.221211 
1 1:-0.978948 2:-0.962721 
1 1:-0.978948 2:-0.962721 
1 1:-0.978948 2:-0.962721 
1 1:-0.978948 2:-0.962721 
1 1:-0.978948 2:-0.962721 
1 1:-0.978948 2:-0.962721 
1 1:-0.978948 2:-0.962721 
1 1:-0.978948 2:-0.962721 
1 1:-0.978948 2:-0.962721 
1 1:-0.978948 2:-0.962721 
1 1:-0.978948 2:-0.962721 
1 1:-0.978948 2:-0.962721 
1 1:-0.978948 2:-0.962721 
1 1:-0.978948 2:-0.962721 
1 1:-0.978948 2:-0.962721 
1 1:-0.978948 2:-0.962721 
1 1:-0.978948 2:-0.962721 
1 1:-0.978948 2:-0.962721 
1 1:-0.978948 2:-0.962721 
1 1:-0.978948 2:-0.962721 
1 1:-0.978948 2:-0.962721 
1 1:-0.978948 2:-0.962721 
1 1:-0.978948 2:-0.962721 
1 1:-0.978948 2:-0.962721 
1 1:-0.978948 2:-0.962721 
1 1:-0.978948 2:-0.962721 
1 1:-0.978948 2:-0.962721 
1 1:-0.978948 2:-0.962721 
1 1:-0.978948 2:-0.962721 
1 1:-0.978948 2:-0.962721 
1 1:-0.978948 2:-0.962721 
1 1:-0.978948 2:-0.962721 
1 1:-0.978948 2:-0.962721 
1 1:-0.978948 2:-0.962721 
1 1:-0.978948 2:-0.962721 
1 1:-0.978948 2:-0.962721 
1 1:-0.978948 2:-0.962721 
1 1:-0.978948 2:-0.962721 
1 1:-0.978948 2:-0.962721 
1 1:-0.978948 2:-0.962721 
1 1:-0.978948 2:-0.962721 
1 1:-0.978948 2:-0.962721 
1 1:-0.978948 2:-0.962721 
1 1:-0.978948 2:-0.962721 
1 1:-0.978948 2:-0.962721 
1 1:-0.978948 2:-0.962721 
1 1:-0.978948 2:-0.962721 
1 1:-0.978948 2:-0.962721 
1 1:-0.978948 2:-0.962721 
1 1:-0.978948 2:-0.962721 
1 1:-0.978948 2:-0.962721 
1 1:-0.978948 2:-0.962721 
1 1:-0.978948 2:-0.962721 
1 1:-0.978948 2:-0.962721 
1 1:-0.978948 2:-0.962721 
1 1:-0.978948 2:-0.962721 
1 1:-0.978948 2:-0.962721 
1 1:-0.978948 2:-0.962721 
1 1:-0.978948 2:-0.962721 
1 1:-0.978948 2:-0.962721 
1 1:-0.978948 2:-0.962721 
1 1:-0.978948 2:-0.962721 
1 1:-0.978948 2:-0.962721 
1 1:-0.978948 2:-0.962721 
1 1:-0.978948 2:-0.962721 
1 1:-0.978948 2:-0.962721 
1 1:-0.978948 2:-0.962721 
1 1:-0.978948 2:-0.962721 
1 1:-0.978948 2:-0.962721 
1 1:-0.978948 2:-0.962721 
1 1:-0.978948 2:-0.962721 
1 1:-0.978948 2:-0.962721 
1 1:-0.978948 2:-0.962721 
1 1:-0.978948 2:-0.962721 
1 1:-0.978948 2:-0.962721 
1 1:-0.978948 2:-0.962721 
1 1:-0.978948 2:-0.962721 
1 1:-0.978948 2:-0.962721 
1 1:-0.978948 2:-0.962721 
1 1:-0.978948 2:-0.962721 
1 1:-0.978948 2:-0.962721 
1 1:-0.978948 2:-0.962721 
1 1:-0.978948 2:-0.962721 
1 1:-0.978948 2:-0.962721 
1 1:-0.978948 2:-0.962721 
1 1:-0.978948 2:-0.962721 
1 1:-0.978948 2:-0.962721 
1 1:-0.978948 2:-0.962721 
1 1:-0.978948 2:-0.962721 
1 1:-0.978948 2:-0.962721 
1 1:-0.978948 2:-0.962721 
1 1:-0.978948 2:-0.962721 
1 1:-0.978948 2:-0.962721 
1 1:-0.978948 2:-0.962721 
1 1:-0.978948 2:-0.962721 
1 1:-0.978948 2:-0.962721 
1 1:-0.978948 2:-0.962721 
1 1:-0.978948 2:-0.962721 
1 1:-0.329436 2:0.0868597 
1 1:-0.329436 2:0.0868597 
1 1:-0.329436 2:0.0868597 
1 1:-0.329436 2:0.0868597 
1 1:-0.329436 2:0.0868597 
1 1:-0.329436 2:0.0868597 
1 1:-0.329436 2:0.0868597 
1 1:-0.329436 2:0.0868597 
1 1:-0.329436 2:0.0868597 
1 1:-0.329436 2:0.0868597 
1 1:-0.329436 2:0.0868597 
1 1:-0.329436 2:0.0868597 
1 1:-0.329436 2:0.0868597 
1 1:-0.329436 2:0.0868597 
1 1:-0.329436 2:0.0868597 
1 1:-0.329436 2:0.0868597 
1 1:-0.329436 2:0.0868597 
1 1:-0.329436 2:0.0868597 
1 1:-0.329436 2:0.0868597 
1 1:-0.329436 2:0.0868597 
1 1:-0.329436 2:0.0868597 
1 1:-0.329436 2:0.0868597 
1 1:-0.329436 2:0.0868597 
1 1:-0.329436 2:0.0868597 
1 1:-0.329436 2:0.0868597 
1 1:-0.329436 2:0.0868597 
1 1:-0.329436 2:0.0868597 
1 1:-0.329436 2:0.0868597 
1 1:-0.329436 2:0.0868597 
1 1:-0.329436 2:0.0868597 
1 1:-0.329436 2:0.0868597 
1 1:-0.329436 2:0.0868597 
1 1:-0.329436 2:0.0868597 
1 1:-0.329436 2:0.0868597 
1 1:-0.329436 2:0.0868597 
1 1:-0.329436 2:0.0868597 
1 1:-0.329436 2:0.0868597 
1 1:-0.329436 2:0.0868597 
1 1:-0.329436 2:0.0868597 
1 1:-0.329436 2:0.0868597 
1 1:-0.329436 2:0.0868597 
1 1:-0.329436 2:0.0868597 
1 1:-0.329436 2:0.0868597 
1 1:-0.329436 2:0.0868597 
1 1:-0.329436 2:0.0868597 
1 1:-0.329436 2:0.0868597 
1 1:-0.329436 2:0.0868597 
1 1:-0.329436 2:0.0868597 
1 1:-0.329436 2:0.0868597 
1 1:-0.329436 2:0.0868597 
1 1:-0.329436 2:0.0868597 
1 1:-0.329436 2:0.0868597 
1 1:-0.329436 2:0.0868597 
1 1:-0.329436 2:0.0868597 
1 1:-0.329436 2:0.0868597 
1 1:-0.329436 2:0.0868597 
1 1:-0.329436 2:0.0868597 
1 1:-0.329436 2:0.0868597 
1 1:-0.329436 2:0.0868597 
1 1:-0.329436 2:0.0868597 
1 1:-0.329436 2:0.0868597 
1 1:-0.329436 2:0.0868597 
1 1:-0.329436 2:0.0868597 
1 1:-0.329436 2:0.0868597 
1 1:-0.329436 2:0.0868597 
1 1:-0.329436 2:0.0868597 
1 1:-0.329436 2:0.0868597 
1 1:-0.329436 2:0.0868597 
1 1:-0.329436 2:0.0868597 
1 1:-0.329436 2:0.0868597 
1 1:-0.329436 2:0.0868597 
1 1:-0.329436 2:0.0868597 
1 1:-0.329436 2:0.0868597 
1 1:-0.329436 2:0.0868597 
1 1:-0.329436 2:0.0868597 
1 1:-0.329436 2:0.0868597 
1 1:-0.329436 2:0.0868597 
1 1:-0.329436 2:0.0868597 
1 1:-0.329436 2:0.0868597 
1 1:-0.329436 2:0.0868597 
1 1:-0.329436 2:0.0868597 
1 1:-0.329436 2:0.0868597 
1 1:-0.329436 2:0.0868597 
1 1:-0.329436 2:0.0868597 
1 1:-0.329436 2:0.0868597 
1 1:-0.329436 2:0.0868597 
1 1:-0.329436 2:0.0868597 
1 1:-0.329436 2:0.0868597 
1 1:-0.329436 2:0.0868597 
1 1:-0.329436 2:0.0868597 
1 1:-0.117768 2:-0.252049 
1 1:-0.117768 2:-0.252049 
1 1:-0.117768 2:-0.252049 
1 1:-0.117768 2:-0.252049 
1 1:-0.117768 2:-0.252049 
1 1:-0.117768 2:-0.252049 
1 1:-0.117768 2:-0.252049 
1 1:-0.117768 2:-0.252049 
1 1:-0.117768 2:-0.252049 
1 1:-0.117768 2:-0.252049 
1 1:-0.117768 2:-0.252049 
1 1:-0.117768 2:-0.252049 
1 1:-0.117768 2:-0.252049 
1 1:-0.117768 2:-0.252049 
1 1:-0.117768 2:-0.252049 
1 1:-0.117768 2:-0.252049 
1 1:-0.117768 2:-0.252049 
1 1:-0.117768 2:-0.252049 
1 1:-0.117768 2:-0.252049 
1 1:-0.117768 2:-0.252049 
1 1:-0.117768 2:-0.252049 
1 1:-0.117768 2:-0.252049 
1 1:-0.117768 2:-0.252049 
1 1:-0.117768 2:-0.252049 
1 1:-0.117768 2:-0.252049 
1 1:-0.117768 2:-0.252049 
1 1:-0.117768 2:-0.252049 
1 1:-0.117768 2:-0.252049 
1 1:-0.117768 2:-0.252049 
1 1:-0.117768 2:-0.252049 
1 1:-0.117768 2:-0.252049 
1 1:-0.117768 2:-0.252049 
1 1:-0.117768 2:-0.252049 
1 1:-0.117768 2:-0.252049 
1 1:-0.117768 2:-0.252049 
1 1:-0.117768 2:-0.252049 
1 1:-0.117768 2:-0.252049 
1 1:-0.117768 2:-0.252049 
1 1:-0.117768 2:-0.252049 
1 1:-0.117768 2:-0.252049 
1 1:-0.117768 2:-0.252049 
1 1:-0.117768 2:-0.252049 
1 1:-0.117768 2:-0.252049 
1 1:-0.117768 2:-0.252049 
1 1:-0.117768 2:-0.252049 
1 1:-0.117768 2:-0.252049 
1 1:-0.117768 2:-0.252049 
1 1:-0.117768 2:-0.252049 
1 1:-0.117768 2:-0.252049 
1 1:-0.117768 2:-0.252049 
1 1:-0.117768 2:-0.252049 
1 1:-0.117768 2:-0.252049 
1 1:-0.117768 2:-0.252049 
1 1:-0.117768 2:-0.252049 
1 1:-0.117768 2:-0.252049 
1 1:-0.117768 2:-0.252049 
1 1:-0.117768 2:-0.252049 
1 1:-0.117768 2:-0.252049 
1 1:-0.117768 2:-0.252049 
1 1:-0.117768 2:-0.252049 
1 1:-0.117768 2:-0.252049 
1 1:-0.117768 2:-0.252049 
1 1:-0.117768 2:-0.252049 
1 1:-0.117768 2:-0.252049 
1 1:-0.117768 2:-0.252049 
1 1:-0.117768 2:-0.252049 
1 1:-0.117768 2:-0.252049 
1 1:-0.117768 2:-0.252049 
1 1:-0.117768 2:-0.252049 
1 1:-0.117768 2:-0.252049 
1 1:-0.117768 2:-0.252049 
1 1:-0.117768 2:-0.252049 
1 1:-0.117768 2:-0.252049 
1 1:-0.117768 2:-0.252049 
1 1:-0.117768 2:-0.252049 
1 1:-0.117768 2:-0.252049 
1 1:-0.117768 2:-0.252049 
1 1:-0.117768 2:-0.252049 
1 1:-0.117768 2:-0.252049 
1 1:-0.117768 2:-0.252049 
1 1:-0.117768 2:-0.252049 
1 1:-0.117768 2:-0.252049 
1 1:-0.117768 2:-0.252049 
1 1:-0.117768 2:-0.252049 
1 1:-0.117768 2:-0.252049 
1 1:-0.117768 2:-0.252049 
1 1:-0.117768 2:-0.252049 
1 1:-0.117768 2:-0.252049 
1 1:-0.117768 2:-0.252049 
1 1:-0.117768 2:-0.252049 
1 1:-0.117768 2:-0.252049 
1 1:-0.117768 2:-0.252049 
1 1:-0.117768 2:-0.252049 
1 1:-0.117768 2:-0.252049 
1 1:-0.117768 2:-0.252049 
1 1:-0.988301 2:-0.956791 
1 1:-0.988301 2:-0.956791 
1 1:-0.988301 2:-0.956791 
1 1:-0.988301 2:-0.956791 
1 1:-0.988301 2:-0.956791 
1 1:-0.988301 2:-0.956791 
1 1:-0.988301 2:-0.956791 
1 1:-0.988301 2:-0.956791 
1 1:-0.988301 2:-0.956791 
1 1:-0.988301 2:-0.956791 
1 1:-0.988301 2:-0.956791 
1 1:-0.988301 2:-0.956791 
1 1:-0.988301 2:-0.956791 
1 1:-0.988301 2:-0.956791 
1 1:-0.988301 2:-0.956791 
1 1:-0.988301 2:-0.956791 
1 1:-0.988301 2:-0.956791 
1 1:-0.988301 2:-0.956791 
1 1:-0.988301 2:-0.956791 
1 1:-0.988301 2:-0.956791 
1 1:-0.988301 2:-0.956791 
1 1:-0.988301 2:-0.956791 
1 1:-0.988301 2:-0.956791 
1 1:-0.988301 2:-0.956791 
1 1:-0.988301 2:-0.956791 
1 1:-0.988301 2:-0.956791 
1 1:-0.988301 2:-0.956791 
1 1:-0.988301 2:-0.956791 
1 1:-0.988301 2:-0.956791 
1 1:-0.988301 2:-0.956791 
1 1:-0.988301 2:-0.956791 
1 1:-0.988301 2:-0.956791 
1 1:-0.988301 2:-0.956791 
1 1:-0.988301 2:-0.956791 
1 1:-0.988301 2:-0.956791 
1 1:-0.988301 2:-0.956791 
1 1:-0.988301 2:-0.956791 
1 1:-0.988301 2:-0.956791 
1 1:-0.988301 2:-0.956791 
1 1:-0.988301 2:-0.956791 
1 1:-0.988301 2:-0.956791 
1 1:-0.988301 2:-0.956791 
1 1:-0.988301 2:-0.956791 
1 1:-0.988301 2:-0.956791 
1 1:-0.988301 2:-0.956791 
1 1:-0.988301 2:-0.956791 
1 1:-0.988301 2:-0.956791 
1 1:-0.988301 2:-0.956791 
1 1:-0.988301 2:-0.956791 
1 1:-0.988301 2:-0.956791 
1 1:-0.988301 2:-0.956791 
1 1:-0.988301 2:-0.956791 
1 1:-0.988301 2:-0.956791 
1 1:-0.988301 2:-0.956791 
1 1:-0.988301 2:-0.956791 
1 1:-0.988301 2:-0.956791 
1 1:-0.988301 2:-0.956791 
1 1:-0.988301 2:-0.956791 
1 1:-0.988301 2:-0.956791 
1 1:-0.988301 2:-0.956791 
1 1:-0.988301 2:-0.956791 
1 1:-0.988301 2:-0.956791 
1 1:-0.988301 2:-0.956791 
1 1:-0.988301 2:-0.956791 
1 1:-0.988301 2:-0.956791 
1 1:-0.988301 2:-0.956791 
1 1:-0.988301 2:-0.956791 
1 1:-0.988301 2:-0.956791 
1 1:-0.988301 2:-0.956791 
1 1:-0.988301 2:-0.956791 
1 1:-0.988301 2:-0.956791 
1 1:-0.988301 2:-0.956791 
1 1:-0.988301 2:-0.956791 
1 1:-0.988301 2:-0.956791 
1 1:-0.988301 2:-0.956791 
1 1:-0.988301 2:-0.956791 
1 1:-0.988301 2:-0.956791 
1 1:-0.988301 2:-0.956791 
1 1:-0.988301 2:-0.956791 
1 1:-0.988301 2:-0.956791 
1 1:-0.988301 2:-0.956791 
1 1:-0.988301 2:-0.956791 
1 1:-0.988301 2:-0.956791 
1 1:-0.988301 2:-0.956791 
1 1:-0.988301 2:-0.956791 
1 1:-0.988301 2:-0.956791 
1 1:-0.988301 2:-0.956791 
1 1:-0.988301 2:-0.956791 
1 1:-0.988301 2:-0.956791 
1 1:-0.988301 2:-0.956791 
1 1:-0.988301 2:-0.956791 
1 1:-0.988301 2:-0.956791 
1 1:-0.988301 2:-0.956791 
1 1:-0.988301 2:-0.956791 
1 1:-0.988301 2:-0.956791 
1 1:-0.970562 2:-0.973851 
1 1:-0.970562 2:-0.973851 
1 1:-0.970562 2:-0.973851 
1 1:-0.970562 2:-0.973851 
1 1:-0.970562 2:-0.973851 
1 1:-0.970562 2:-0.973851 
1 1:-0.970562 2:-0.973851 
1 1:-0.970562 2:-0.973851 
1 1:-0.970562 2:-0.973851 
1 1:-0.970562 2:-0.973851 
1 1:-0.970562 2:-0.973851 
1 1:-0.970562 2:-0.973851 
1 1:-0.970562 2:-0.973851 
1 1:-0.970562 2:-0.973851 
1 1:-0.970562 2:-0.973851 
1 1:-0.970562 2:-0.973851 
1 1:-0.970562 2:-0.973851 
1 1:-0.970562 2:-0.973851 
1 1:-0.970562 2:-0.973851 
1 1:-0.970562 2:-0.973851 
1 1:-0.970562 2:-0.973851 
1 1:-0.970562 2:-0.973851 
1 1:-0.970562 2:-0.973851 
1 1:-0.970562 2:-0.973851 
1 1:-0.970562 2:-0.973851 
1 1:-0.970562 2:-0.973851 
1 1:-0.970562 2:-0.973851 
1 1:-0.970562 2:-0.973851 
1 1:-0.970562 2:-0.973851 
1 1:-0.970562 2:-0.973851 
1 1:-0.970562 2:-0.973851 
1 1:-0.970562 2:-0.973851 
1 1:-0.970562 2:-0.973851 
1 1:-0.970562 2:-0.973851 
1 1:-0.970562 2:-0.973851 
1 1:-0.970562 2:-0.973851 
1 1:-0.970562 2:-0.973851 
1 1:-0.970562 2:-0.973851 
1 1:-0.970562 2:-0.973851 
1 1:-0.970562 2:-0.973851 
1 1:-0.970562 2:-0.973851 
1 1:-0.970562 2:-0.973851 
1 1:-0.970562 2:-0.973851 
1 1:-0.970562 2:-0.973851 
1 1:-0.970562 2:-0.973851 
1 1:-0.970562 2:-0.973851 
1 1:-0.970562 2:-0.973851 
1 1:-0.970562 2:-0.973851 
1 1:-0.970562 2:-0.973851 
1 1:-0.970562 2:-0.973851 
1 1:-0.970562 2:-0.973851 
1 1:-0.970562 2:-0.973851 
1 1:-0.970562 2:-0.973851 
1 1:-0.970562 2:-0.973851 
1 1:-0.970562 2:-0.973851 
1 1:-0.970562 2:-0.973851 
1 1:-0.970562 2:-0.973851 
1 1:-0.970562 2:-0.973851 
1 1:-0.970562 2:-0.973851 
1 1:-0.970562 2:-0.973851 
1 1:-0.970562 2:-0.973851 
1 1:-0.970562 2:-0.973851 
1 1:-0.970562 2:-0.973851 
1 1:-0.970562 2:-0.973851 
1 1:-0.970562 2:-0.973851 
1 1:-0.970562 2:-0.973851 
1 1:-0.970562 2:-0.973851 
1 1:-0.970562 2:-0.973851 
1 1:-0.970562 2:-0.973851 
1 1:-0.970562 2:-0.973851 
1 1:-0.970562 2:-0.973851 
1 1:-0.970562 2:-0.973851 
1 1:-0.970562 2:-0.973851 
1 1:-0.970562 2:-0.973851 
1 1:-0.970562 2:-0.973851 
1 1:-0.970562 2:-0.973851 
1 1:-0.970562 2:-0.973851 
1 1:-0.970562 2:-0.973851 
1 1:-0.970562 2:-0.973851 
1 1:-0.970562 2:-0.973851 
1 1:-0.970562 2:-0.973851 
1 1:-0.970562 2:-0.973851 
1 1:-0.970562 2:-0.973851 
1 1:-0.970562 2:-0.973851 
1 1:-0.970562 2:-0.973851 
1 1:-0.970562 2:-0.973851 
1 1:-0.970562 2:-0.973851 
1 1:-0.970562 2:-0.973851 
1 1:-0.970562 2:-0.973851 
1 1:-0.970562 2:-0.973851 
1 1:-0.970562 2:-0.973851 
1 1:-0.970562 2:-0.973851 
1 1:-0.982806 2:-0.962391 
1 1:-0.982806 2:-0.962391 
1 1:-0.982806 2:-0.962391 
1 1:-0.982806 2:-0.962391 
1 1:-0.982806 2:-0.962391 
1 1:-0.982806 2:-0.962391 
1 1:-0.982806 2:-0.962391 
1 1:-0.982806 2:-0.962391 
1 1:-0.982806 2:-0.962391 
1 1:-0.982806 2:-0.962391 
1 1:-0.982806 2:-0.962391 
1 1:-0.982806 2:-0.962391 
1 1:-0.982806 2:-0.962391 
1 1:-0.982806 2:-0.962391 
1 1:-0.982806 2:-0.962391 
1 1:-0.982806 2:-0.962391 
1 1:-0.982806 2:-0.962391 
1 1:-0.982806 2:-0.962391 
1 1:-0.982806 2:-0.962391 
1 1:-0.982806 2:-0.962391 
1 1:-0.982806 2:-0.962391 
1 1:-0.982806 2:-0.962391 
1 1:-0.982806 2:-0.962391 
1 1:-0.982806 2:-0.962391 
1 1:-0.982806 2:-0.962391 
1 1:-0.982806 2:-0.962391 
1 1:-0.982806 2:-0.962391 
1 1:-0.982806 2:-0.962391 
1 1:-0.982806 2:-0.962391 
1 1:-0.982806 2:-0.962391 
1 1:-0.982806 2:-0.962391 
1 1:-0.982806 2:-0.962391 
1 1:-0.982806 2:-0.962391 
1 1:-0.982806 2:-0.962391 
1 1:-0.982806 2:-0.962391 
1 1:-0.982806 2:-0.962391 
1 1:-0.982806 2:-0.962391 
1 1:-0.982806 2:-0.962391 
1 1:-0.982806 2:-0.962391 
1 1:-0.982806 2:-0.962391 
1 1:-0.982806 2:-0.962391 
1 1:-0.982806 2:-0.962391 
1 1:-0.982806 2:-0.962391 
1 1:-0.982806 2:-0.962391 
1 1:-0.982806 2:-0.962391 
1 1:-0.982806 2:-0.962391 
1 1:-0.982806 2:-0.962391 
1 1:-0.982806 2:-0.962391 
1 1:-0.982806 2:-0.962391 
1 1:-0.982806 2:-0.962391 
1 1:-0.982806 2:-0.962391 
1 1:-0.982806 2:-0.962391 
1 1:-0.982806 2:-0.962391 
1 1:-0.982806 2:-0.962391 
1 1:-0.982806 2:-0.962391 
1 1:-0.982806 2:-0.962391 
1 1:-0.982806 2:-0.962391 
1 1:-0.982806 2:-0.962391 
1 1:-0.982806 2:-0.962391 
1 1:-0.982806 2:-0.962391 
1 1:-0.982806 2:-0.962391 
1 1:-0.982806 2:-0.962391 
1 1:-0.982806 2:-0.962391 
1 1:-0.982806 2:-0.962391 
1 1:-0.982806 2:-0.962391 
1 1:-0.982806 2:-0.962391 
1 1:-0.982806 2:-0.962391 
1 1:-0.982806 2:-0.962391 
1 1:-0.982806 2:-0.962391 
1 1:-0.982806 2:-0.962391 
1 1:-0.982806 2:-0.962391 
1 1:-0.982806 2:-0.962391 
1 1:-0.982806 2:-0.962391 
1 1:-0.982806 2:-0.962391 
1 1:-0.982806 2:-0.962391 
1 1:-0.982806 2:-0.962391 
1 1:-0.982806 2:-0.962391 
1 1:-0.982806 2:-0.962391 
1 1:-0.982806 2:-0.962391 
1 1:-0.982806 2:-0.962391 
1 1:-0.982806 2:-0.962391 
1 1:-0.982806 2:-0.962391 
1 1:-0.982806 2:-0.962391 
1 1:-0.982806 2:-0.962391 
1 1:-0.982806 2:-0.962391 
1 1:-0.982806 2:-0.962391 
1 1:-0.982806 2:-0.962391 
1 1:-0.982806 2:-0.962391 
1 1:-0.982806 2:-0.962391 
1 1:-0.982806 2:-0.962391 
1 1:-0.982806 2:-0.962391 
1 1:-0.235737 2:-0.0571645 
1 1:-0.176644 2:-0.625443 
1 1:-0.98264 2:-0.977968 
1 1:-0.235737 2:-0.0571645 
1 1:-0.176644 2:-0.625443 
1 1:-0.98264 2:-0.977968 
1 1:-0.235737 2:-0.0571645 
1 1:-0.176644 2:-0.625443 
1 1:-0.98264 2:-0.977968 
1 1:-0.235737 2:-0.0571645 
1 1:-0.176644 2:-0.625443 
1 1:-0.98264 2:-0.977968 
1 1:-0.235737 2:-0.0571645 
1 1:-0.176644 2:-0.625443 
1 1:-0.98264 2:-0.977968 
1 1:-0.235737 2:-0.0571645 
1 1:-0.176644 2:-0.625443 
1 1:-0.98264 2:-0.977968 
1 1:-0.235737 2:-0.0571645 
1 1:-0.176644 2:-0.625443 
1 1:-0.98264 2:-0.977968 
1 1:-0.235737 2:-0.0571645 
1 1:-0.176644 2:-0.625443 
1 1:-0.98264 2:-0.977968 
1 1:-0.235737 2:-0.0571645 
1 1:-0.176644 2:-0.625443 
1 1:-0.98264 2:-0.977968 
1 1:-0.235737 2:-0.0571645 
1 1:-0.176644 2:-0.625443 
1 1:-0.98264 2:-0.977968 
1 1:-0.235737 2:-0.0571645 
1 1:-0.176644 2:-0.625443 
1 1:-0.98264 2:-0.977968 
1 1:-0.235737 2:-0.0571645 
1 1:-0.176644 2:-0.625443 
1 1:-0.98264 2:-0.977968 
1 1:-0.235737 2:-0.0571645 
1 1:-0.176644 2:-0.625443 
1 1:-0.98264 2:-0.977968 
1 1:-0.235737 2:-0.0571645 
1 1:-0.176644 2:-0.625443 
1 1:-0.98264 2:-0.977968 
1 1:-0.235737 2:-0.0571645 
1 1:-0.176644 2:-0.625443 
1 1:-0.98264 2:-0.977968 
1 1:-0.235737 2:-0.0571645 
1 1:-0.176644 2:-0.625443 
1 1:-0.98264 2:-0.977968 
1 1:-0.235737 2:-0.0571645 
1 1:-0.176644 2:-0.625443 
1 1:-0.98264 2:-0.977968 
1 1:-0.235737 2:-0.0571645 
1 1:-0.176644 2:-0.625443 
1 1:-0.98264 2:-0.977968 
1 1:-0.235737 2:-0.0571645 
1 1:-0.176644 2:-0.625443 
1 1:-0.98264 2:-0.977968 
1 1:-0.235737 2:-0.0571645 
1 1:-0.176644 2:-0.625443 
1 1:-0.98264 2:-0.977968 
1 1:-0.235737 2:-0.0571645 
1 1:-0.176644 2:-0.625443 
1 1:-0.98264 2:-0.977968 
1 1:-0.235737 2:-0.0571645 
1 1:-0.176644 2:-0.625443 
1 1:-0.98264 2:-0.977968 
1 1:-0.235737 2:-0.0571645 
1 1:-0.176644 2:-0.625443 
1 1:-0.98264 2:-0.977968 
1 1:-0.235737 2:-0.0571645 
1 1:-0.176644 2:-0.625443 
1 1:-0.98264 2:-0.977968 
1 1:-0.235737 2:-0.0571645 
1 1:-0.176644 2:-0.625443 
1 1:-0.98264 2:-0.977968 
1 1:-0.235737 2:-0.0571645 
1 1:-0.176644 2:-0.625443 
1 1:-0.98264 2:-0.977968 
1 1:-0.235737 2:-0.0571645 
1 1:-0.176644 2:-0.625443 
1 1:-0.98264 2:-0.977968 
1 1:-0.235737 2:-0.0571645 
1 1:-0.176644 2:-0.625443 
1 1:-0.98264 2:-0.977968 
1 1:-0.235737 2:-0.0571645 
1 1:-0.176644 2:-0.625443 
1 1:-0.98264 2:-0.977968 
1 1:-0.235737 2:-0.0571645 
1 1:-0.176644 2:-0.625443 
1 1:-0.98264 2:-0.977968 
1 1:-0.235737 2:-0.0571645 
1 1:-0.176644 2:-0.625443 
1 1:-0.98264 2:-0.977968 
1 1:-0.235737 2:-0.0571645 
1 1:-0.176644 2:-0.625443 
1 1:-0.98264 2:-0.977968 
1 1:-0.235737 2:-0.0571645 
1 1:-0.176644 2:-0.625443 
1 1:-0.98264 2:-0.977968 
1 1:-0.235737 2:-0.0571645 
1 1:-0.176644 2:-0.625443 
1 1:-0.98264 2:-0.977968 
1 1:-0.235737 2:-0.0571645 
1 1:-0.176644 2:-0.625443 
1 1:-0.98264 2:-0.977968 
1 1:-0.235737 2:-0.0571645 
1 1:-0.176644 2:-0.625443 
1 1:-0.98264 2:-0.977968 
1 1:-0.235737 2:-0.0571645 
1 1:-0.176644 2:-0.625443 
1 1:-0.98264 2:-0.977968 
1 1:-0.235737 2:-0.0571645 
1 1:-0.176644 2:-0.625443 
1 1:-0.98264 2:-0.977968 
1 1:-0.235737 2:-0.0571645 
1 1:-0.176644 2:-0.625443 
1 1:-0.98264 2:-0.977968 
1 1:-0.235737 2:-0.0571645 
1 1:-0.176644 2:-0.625443 
1 1:-0.98264 2:-0.977968 
1 1:-0.235737 2:-0.0571645 
1 1:-0.176644 2:-0.625443 
1 1:-0.98264 2:-0.977968 
1 1:-0.235737 2:-0.0571645 
1 1:-0.176644 2:-0.625443 
1 1:-0.98264 2:-0.977968 
1 1:-0.235737 2:-0.0571645 
1 1:-0.176644 2:-0.625443 
1 1:-0.98264 2:-0.977968 
1 1:-0.235737 2:-0.0571645 
1 1:-0.176644 2:-0.625443 
1 1:-0.98264 2:-0.977968 
1 1:-0.235737 2:-0.0571645 
