svm_type one_class
kernel_type rbf
gamma 0.5
nr_class 2
total_sv 14028
rho 9710.57
SV
1 1:0.0644624 2:-0.537919 
1 1:0.090146 2:-0.297194 
1 1:0.0644624 2:-0.537919 
1 1:0.090146 2:-0.297194 
1 1:0.0644624 2:-0.537919 
1 1:0.090146 2:-0.297194 
1 1:0.0644624 2:-0.537919 
1 1:0.090146 2:-0.297194 
1 1:0.0644624 2:-0.537919 
1 1:0.090146 2:-0.297194 
1 1:0.0644624 2:-0.537919 
1 1:0.090146 2:-0.297194 
1 1:0.0644624 2:-0.537919 
1 1:0.090146 2:-0.297194 
1 1:0.0644624 2:-0.537919 
1 1:0.090146 2:-0.297194 
1 1:0.0644624 2:-0.537919 
1 1:0.090146 2:-0.297194 
1 1:0.0644624 2:-0.537919 
1 1:0.090146 2:-0.297194 
1 1:0.0644624 2:-0.537919 
1 1:0.090146 2:-0.297194 
1 1:0.0644624 2:-0.537919 
1 1:0.090146 2:-0.297194 
1 1:0.0644624 2:-0.537919 
1 1:0.090146 2:-0.297194 
1 1:0.0644624 2:-0.537919 
1 1:0.090146 2:-0.297194 
1 1:0.0644624 2:-0.537919 
1 1:0.090146 2:-0.297194 
1 1:0.0644624 2:-0.537919 
1 1:0.090146 2:-0.297194 
1 1:0.0644624 2:-0.537919 
1 1:0.090146 2:-0.297194 
1 1:0.0644624 2:-0.537919 
1 1:0.090146 2:-0.297194 
1 1:0.0644624 2:-0.537919 
1 1:0.090146 2:-0.297194 
1 1:0.0644624 2:-0.537919 
1 1:0.090146 2:-0.297194 
1 1:0.0644624 2:-0.537919 
1 1:0.090146 2:-0.297194 
1 1:0.0644624 2:-0.537919 
1 1:0.090146 2:-0.297194 
1 1:0.0644624 2:-0.537919 
1 1:0.090146 2:-0.297194 
1 1:0.0644624 2:-0.537919 
1 1:0.090146 2:-0.297194 
1 1:0.0644624 2:-0.537919 
1 1:0.090146 2:-0.297194 
1 1:0.0644624 2:-0.537919 
1 1:0.090146 2:-0.297194 
1 1:0.0644624 2:-0.537919 
1 1:0.090146 2:-0.297194 
1 1:0.0644624 2:-0.537919 
1 1:0.090146 2:-0.297194 
1 1:0.0644624 2:-0.537919 
1 1:0.090146 2:-0.297194 
1 1:0.0644624 2:-0.537919 
1 1:0.090146 2:-0.297194 
1 1:0.0644624 2:-0.537919 
1 1:0.090146 2:-0.297194 
1 1:0.0644624 2:-0.537919 
1 1:0.090146 2:-0.297194 
1 1:0.0644624 2:-0.537919 
1 1:0.090146 2:-0.297194 
1 1:0.0644624 2:-0.537919 
1 1:0.090146 2:-0.297194 
1 1:0.0644624 2:-0.537919 
1 1:0.090146 2:-0.297194 
1 1:0.0644624 2:-0.537919 
1 1:0.090146 2:-0.297194 
1 1:0.0644624 2:-0.537919 
1 1:0.090146 2:-0.297194 
1 1:0.0644624 2:-0.537919 
1 1:0.090146 2:-0.297194 
1 1:0.0644624 2:-0.537919 
1 1:0.090146 2:-0.297194 
1 1:0.0644624 2:-0.537919 
1 1:0.090146 2:-0.297194 
1 1:0.0644624 2:-0.537919 
1 1:0.090146 2:-0.297194 
1 1:0.0644624 2:-0.537919 
1 1:0.090146 2:-0.297194 
1 1:0.0644624 2:-0.537919 
1 1:0.090146 2:-0.297194 
1 1:0.0644624 2:-0.537919 
1 1:0.090146 2:-0.297194 
1 1:0.0644624 2:-0.537919 
1 1:0.090146 2:-0.297194 
1 1:0.0644624 2:-0.537919 
1 1:0.090146 2:-0.297194 
1 1:0.0644624 2:-0.537919 
1 1:0.090146 2:-0.297194 
1 1:0.0644624 2:-0.537919 
1 1:0.090146 2:-0.297194 
1 1:0.0644624 2:-0.537919 
1 1:0.090146 2:-0.297194 
1 1:0.0644624 2:-0.537919 
1 1:0.090146 2:-0.297194 
1 1:0.0644624 2:-0.537919 
1 1:0.090146 2:-0.297194 
1 1:0.0644624 2:-0.537919 
1 1:0.090146 2:-0.297194 
1 1:0.0644624 2:-0.537919 
1 1:0.090146 2:-0.297194 
1 1:0.0644624 2:-0.537919 
1 1:0.090146 2:-0.297194 
1 1:0.0644624 2:-0.537919 
1 1:0.090146 2:-0.297194 
1 1:0.0644624 2:-0.537919 
1 1:0.090146 2:-0.297194 
1 1:0.0644624 2:-0.537919 
1 1:0.090146 2:-0.297194 
1 1:0.0644624 2:-0.537919 
1 1:0.090146 2:-0.297194 
1 1:0.0644624 2:-0.537919 
1 1:0.090146 2:-0.297194 
1 1:0.0644624 2:-0.537919 
1 1:0.090146 2:-0.297194 
1 1:0.0644624 2:-0.537919 
1 1:0.090146 2:-0.297194 
1 1:0.0644624 2:-0.537919 
1 1:0.090146 2:-0.297194 
1 1:0.0644624 2:-0.537919 
1 1:0.090146 2:-0.297194 
1 1:0.0644624 2:-0.537919 
1 1:0.090146 2:-0.297194 
1 1:0.0644624 2:-0.537919 
1 1:0.090146 2:-0.297194 
1 1:0.0644624 2:-0.537919 
1 1:0.090146 2:-0.297194 
1 1:0.0644624 2:-0.537919 
1 1:0.090146 2:-0.297194 
1 1:0.0644624 2:-0.537919 
1 1:0.090146 2:-0.297194 
1 1:0.0644624 2:-0.537919 
1 1:0.090146 2:-0.297194 
1 1:0.0644624 2:-0.537919 
1 1:0.090146 2:-0.297194 
1 1:0.0644624 2:-0.537919 
1 1:0.090146 2:-0.297194 
1 1:0.0644624 2:-0.537919 
1 1:0.090146 2:-0.297194 
1 1:0.0644624 2:-0.537919 
1 1:0.090146 2:-0.297194 
1 1:0.0644624 2:-0.537919 
1 1:0.090146 2:-0.297194 
1 1:0.0644624 2:-0.537919 
1 1:0.090146 2:-0.297194 
1 1:0.0644624 2:-0.537919 
1 1:0.090146 2:-0.297194 
1 1:0.0644624 2:-0.537919 
1 1:0.090146 2:-0.297194 
1 1:0.0644624 2:-0.537919 
1 1:0.090146 2:-0.297194 
1 1:0.0644624 2:-0.537919 
1 1:0.090146 2:-0.297194 
1 1:0.574522 2:-0.0469684 
1 1:0.574522 2:-0.0469684 
1 1:0.574522 2:-0.0469684 
1 1:0.574522 2:-0.0469684 
1 1:0.574522 2:-0.0469684 
1 1:0.574522 2:-0.0469684 
1 1:0.574522 2:-0.0469684 
1 1:0.574522 2:-0.0469684 
1 1:0.574522 2:-0.0469684 
1 1:0.574522 2:-0.0469684 
1 1:0.574522 2:-0.0469684 
1 1:0.574522 2:-0.0469684 
1 1:0.574522 2:-0.0469684 
1 1:0.574522 2:-0.0469684 
1 1:0.574522 2:-0.0469684 
1 1:0.574522 2:-0.0469684 
1 1:0.574522 2:-0.0469684 
1 1:0.574522 2:-0.0469684 
1 1:0.574522 2:-0.0469684 
1 1:0.574522 2:-0.0469684 
1 1:0.574522 2:-0.0469684 
1 1:0.574522 2:-0.0469684 
1 1:0.574522 2:-0.0469684 
1 1:0.574522 2:-0.0469684 
1 1:0.574522 2:-0.0469684 
1 1:0.574522 2:-0.0469684 
1 1:0.574522 2:-0.0469684 
1 1:0.574522 2:-0.0469684 
1 1:0.574522 2:-0.0469684 
1 1:0.574522 2:-0.0469684 
1 1:0.574522 2:-0.0469684 
1 1:0.574522 2:-0.0469684 
1 1:0.574522 2:-0.0469684 
1 1:0.574522 2:-0.0469684 
1 1:0.574522 2:-0.0469684 
1 1:0.574522 2:-0.0469684 
1 1:0.574522 2:-0.0469684 
1 1:0.574522 2:-0.0469684 
1 1:0.574522 2:-0.0469684 
1 1:0.574522 2:-0.0469684 
1 1:0.574522 2:-0.0469684 
1 1:0.574522 2:-0.0469684 
1 1:0.574522 2:-0.0469684 
1 1:0.574522 2:-0.0469684 
1 1:0.574522 2:-0.0469684 
1 1:0.574522 2:-0.0469684 
1 1:0.574522 2:-0.0469684 
1 1:0.574522 2:-0.0469684 
1 1:0.574522 2:-0.0469684 
1 1:0.574522 2:-0.0469684 
1 1:0.574522 2:-0.0469684 
1 1:0.574522 2:-0.0469684 
1 1:0.574522 2:-0.0469684 
1 1:0.574522 2:-0.0469684 
1 1:0.574522 2:-0.0469684 
1 1:0.574522 2:-0.0469684 
1 1:0.574522 2:-0.0469684 
1 1:0.574522 2:-0.0469684 
1 1:0.574522 2:-0.0469684 
1 1:0.574522 2:-0.0469684 
1 1:0.574522 2:-0.0469684 
1 1:0.574522 2:-0.0469684 
1 1:0.574522 2:-0.0469684 
1 1:0.574522 2:-0.0469684 
1 1:0.574522 2:-0.0469684 
1 1:0.574522 2:-0.0469684 
1 1:0.574522 2:-0.0469684 
1 1:0.574522 2:-0.0469684 
1 1:0.574522 2:-0.0469684 
1 1:0.574522 2:-0.0469684 
1 1:0.574522 2:-0.0469684 
1 1:0.574522 2:-0.0469684 
1 1:0.574522 2:-0.0469684 
1 1:0.574522 2:-0.0469684 
1 1:0.574522 2:-0.0469684 
1 1:0.574522 2:-0.0469684 
1 1:0.574522 2:-0.0469684 
1 1:0.574522 2:-0.0469684 
1 1:0.574522 2:-0.0469684 
1 1:0.574522 2:-0.0469684 
1 1:0.574522 2:-0.0469684 
1 1:0.574522 2:-0.0469684 
1 1:0.574522 2:-0.0469684 
1 1:0.574522 2:-0.0469684 
1 1:0.574522 2:-0.0469684 
1 1:0.574522 2:-0.0469684 
1 1:0.574522 2:-0.0469684 
1 1:0.574522 2:-0.0469684 
1 1:0.574522 2:-0.0469684 
1 1:0.574522 2:-0.0469684 
1 1:0.574522 2:-0.0469684 
1 1:0.574522 2:-0.0469684 
1 1:0.574522 2:-0.0469684 
1 1:0.574522 2:-0.0469684 
1 1:-0.577028 2:0.847939 
1 1:0.0302471 2:1 
1 1:-0.629758 2:0.313523 
1 1:-0.577028 2:0.847939 
1 1:0.0302471 2:1 
1 1:-0.629758 2:0.313523 
1 1:-0.577028 2:0.847939 
1 1:0.0302471 2:1 
1 1:-0.629758 2:0.313523 
1 1:-0.577028 2:0.847939 
1 1:0.0302471 2:1 
1 1:-0.629758 2:0.313523 
1 1:-0.577028 2:0.847939 
1 1:0.0302471 2:1 
1 1:-0.629758 2:0.313523 
1 1:-0.577028 2:0.847939 
1 1:0.0302471 2:1 
1 1:-0.629758 2:0.313523 
1 1:-0.577028 2:0.847939 
1 1:0.0302471 2:1 
1 1:-0.629758 2:0.313523 
1 1:-0.577028 2:0.847939 
1 1:0.0302471 2:1 
1 1:-0.629758 2:0.313523 
1 1:-0.577028 2:0.847939 
1 1:0.0302471 2:1 
1 1:-0.629758 2:0.313523 
1 1:-0.577028 2:0.847939 
1 1:0.0302471 2:1 
1 1:-0.629758 2:0.313523 
1 1:-0.577028 2:0.847939 
1 1:0.0302471 2:1 
1 1:-0.629758 2:0.313523 
1 1:-0.577028 2:0.847939 
1 1:0.0302471 2:1 
1 1:-0.629758 2:0.313523 
1 1:-0.577028 2:0.847939 
1 1:0.0302471 2:1 
1 1:-0.629758 2:0.313523 
1 1:-0.577028 2:0.847939 
1 1:0.0302471 2:1 
1 1:-0.629758 2:0.313523 
1 1:-0.577028 2:0.847939 
1 1:0.0302471 2:1 
1 1:-0.629758 2:0.313523 
1 1:-0.577028 2:0.847939 
1 1:0.0302471 2:1 
1 1:-0.629758 2:0.313523 
1 1:-0.577028 2:0.847939 
1 1:0.0302471 2:1 
1 1:-0.629758 2:0.313523 
1 1:-0.577028 2:0.847939 
1 1:0.0302471 2:1 
1 1:-0.629758 2:0.313523 
1 1:-0.577028 2:0.847939 
1 1:0.0302471 2:1 
1 1:-0.629758 2:0.313523 
1 1:-0.577028 2:0.847939 
1 1:0.0302471 2:1 
1 1:-0.629758 2:0.313523 
1 1:-0.577028 2:0.847939 
1 1:0.0302471 2:1 
1 1:-0.629758 2:0.313523 
1 1:-0.577028 2:0.847939 
1 1:0.0302471 2:1 
1 1:-0.629758 2:0.313523 
1 1:-0.577028 2:0.847939 
1 1:0.0302471 2:1 
1 1:-0.629758 2:0.313523 
1 1:-0.577028 2:0.847939 
1 1:0.0302471 2:1 
1 1:-0.629758 2:0.313523 
1 1:-0.577028 2:0.847939 
1 1:0.0302471 2:1 
1 1:-0.629758 2:0.313523 
1 1:-0.577028 2:0.847939 
1 1:0.0302471 2:1 
1 1:-0.629758 2:0.313523 
1 1:-0.577028 2:0.847939 
1 1:0.0302471 2:1 
1 1:-0.629758 2:0.313523 
1 1:-0.577028 2:0.847939 
1 1:0.0302471 2:1 
1 1:-0.629758 2:0.313523 
1 1:-0.577028 2:0.847939 
1 1:0.0302471 2:1 
1 1:-0.629758 2:0.313523 
1 1:-0.577028 2:0.847939 
1 1:0.0302471 2:1 
1 1:-0.629758 2:0.313523 
1 1:-0.577028 2:0.847939 
1 1:0.0302471 2:1 
1 1:-0.629758 2:0.313523 
1 1:-0.577028 2:0.847939 
1 1:0.0302471 2:1 
1 1:-0.629758 2:0.313523 
1 1:-0.577028 2:0.847939 
1 1:0.0302471 2:1 
1 1:-0.629758 2:0.313523 
1 1:-0.577028 2:0.847939 
1 1:0.0302471 2:1 
1 1:-0.629758 2:0.313523 
1 1:-0.577028 2:0.847939 
1 1:0.0302471 2:1 
1 1:-0.629758 2:0.313523 
1 1:-0.577028 2:0.847939 
1 1:0.0302471 2:1 
1 1:-0.629758 2:0.313523 
1 1:-0.577028 2:0.847939 
1 1:0.0302471 2:1 
1 1:-0.629758 2:0.313523 
1 1:-0.577028 2:0.847939 
1 1:0.0302471 2:1 
1 1:-0.629758 2:0.313523 
1 1:-0.577028 2:0.847939 
1 1:0.0302471 2:1 
1 1:-0.629758 2:0.313523 
1 1:-0.577028 2:0.847939 
1 1:0.0302471 2:1 
1 1:-0.629758 2:0.313523 
1 1:-0.577028 2:0.847939 
1 1:0.0302471 2:1 
1 1:-0.629758 2:0.313523 
1 1:-0.577028 2:0.847939 
1 1:0.0302471 2:1 
1 1:-0.629758 2:0.313523 
1 1:-0.577028 2:0.847939 
1 1:0.0302471 2:1 
1 1:-0.629758 2:0.313523 
1 1:-0.577028 2:0.847939 
1 1:0.0302471 2:1 
1 1:-0.629758 2:0.313523 
1 1:-0.577028 2:0.847939 
1 1:0.0302471 2:1 
1 1:-0.629758 2:0.313523 
1 1:-0.577028 2:0.847939 
1 1:0.0302471 2:1 
1 1:-0.629758 2:0.313523 
1 1:-0.577028 2:0.847939 
1 1:0.0302471 2:1 
1 1:-0.629758 2:0.313523 
1 1:-0.577028 2:0.847939 
1 1:0.0302471 2:1 
1 1:-0.629758 2:0.313523 
1 1:-0.577028 2:0.847939 
1 1:0.0302471 2:1 
1 1:-0.629758 2:0.313523 
1 1:-0.577028 2:0.847939 
1 1:0.0302471 2:1 
1 1:-0.629758 2:0.313523 
1 1:-0.577028 2:0.847939 
1 1:0.0302471 2:1 
1 1:-0.629758 2:0.313523 
1 1:-0.577028 2:0.847939 
1 1:0.0302471 2:1 
1 1:-0.629758 2:0.313523 
1 1:-0.577028 2:0.847939 
1 1:0.0302471 2:1 
1 1:-0.629758 2:0.313523 
1 1:-0.577028 2:0.847939 
1 1:0.0302471 2:1 
1 1:-0.629758 2:0.313523 
1 1:-0.577028 2:0.847939 
1 1:0.0302471 2:1 
1 1:-0.629758 2:0.313523 
1 1:-0.577028 2:0.847939 
1 1:0.0302471 2:1 
1 1:-0.629758 2:0.313523 
1 1:-0.577028 2:0.847939 
1 1:0.0302471 2:1 
1 1:-0.629758 2:0.313523 
1 1:-0.577028 2:0.847939 
1 1:0.0302471 2:1 
1 1:-0.629758 2:0.313523 
1 1:-0.577028 2:0.847939 
1 1:0.0302471 2:1 
1 1:-0.629758 2:0.313523 
1 1:-0.577028 2:0.847939 
1 1:0.0302471 2:1 
1 1:-0.629758 2:0.313523 
1 1:-0.577028 2:0.847939 
1 1:0.0302471 2:1 
1 1:-0.629758 2:0.313523 
1 1:-0.577028 2:0.847939 
1 1:0.0302471 2:1 
1 1:-0.629758 2:0.313523 
1 1:-0.577028 2:0.847939 
1 1:0.0302471 2:1 
1 1:-0.629758 2:0.313523 
1 1:-0.577028 2:0.847939 
1 1:0.0302471 2:1 
1 1:-0.629758 2:0.313523 
1 1:-0.577028 2:0.847939 
1 1:0.0302471 2:1 
1 1:-0.629758 2:0.313523 
1 1:-0.577028 2:0.847939 
1 1:0.0302471 2:1 
1 1:-0.629758 2:0.313523 
1 1:-0.577028 2:0.847939 
1 1:0.0302471 2:1 
1 1:-0.629758 2:0.313523 
1 1:-0.577028 2:0.847939 
1 1:0.0302471 2:1 
1 1:-0.629758 2:0.313523 
1 1:-0.577028 2:0.847939 
1 1:0.0302471 2:1 
1 1:-0.629758 2:0.313523 
1 1:-0.577028 2:0.847939 
1 1:0.0302471 2:1 
1 1:-0.629758 2:0.313523 
1 1:-0.577028 2:0.847939 
1 1:0.0302471 2:1 
1 1:-0.629758 2:0.313523 
1 1:-0.577028 2:0.847939 
1 1:0.0302471 2:1 
1 1:-0.629758 2:0.313523 
1 1:-0.577028 2:0.847939 
1 1:0.0302471 2:1 
1 1:-0.629758 2:0.313523 
1 1:-0.577028 2:0.847939 
1 1:0.0302471 2:1 
1 1:-0.629758 2:0.313523 
1 1:-0.577028 2:0.847939 
1 1:0.0302471 2:1 
1 1:-0.629758 2:0.313523 
1 1:-0.577028 2:0.847939 
1 1:0.0302471 2:1 
1 1:-0.629758 2:0.313523 
1 1:-0.577028 2:0.847939 
1 1:0.0302471 2:1 
1 1:-0.629758 2:0.313523 
1 1:-0.577028 2:0.847939 
1 1:0.0302471 2:1 
1 1:-0.629758 2:0.313523 
1 1:-0.577028 2:0.847939 
1 1:0.0302471 2:1 
1 1:-0.629758 2:0.313523 
1 1:-0.577028 2:0.847939 
1 1:0.0302471 2:1 
1 1:-0.629758 2:0.313523 
1 1:-0.577028 2:0.847939 
1 1:0.0302471 2:1 
1 1:-0.629758 2:0.313523 
1 1:-0.577028 2:0.847939 
1 1:0.0302471 2:1 
1 1:-0.629758 2:0.313523 
1 1:-0.577028 2:0.847939 
1 1:0.0302471 2:1 
1 1:-0.629758 2:0.313523 
1 1:-0.577028 2:0.847939 
1 1:0.0302471 2:1 
1 1:-0.629758 2:0.313523 
1 1:-0.577028 2:0.847939 
1 1:0.0302471 2:1 
1 1:-0.629758 2:0.313523 
1 1:-0.577028 2:0.847939 
1 1:0.0302471 2:1 
1 1:-0.629758 2:0.313523 
1 1:-0.577028 2:0.847939 
1 1:0.0302471 2:1 
1 1:-0.629758 2:0.313523 
1 1:-0.577028 2:0.847939 
1 1:0.0302471 2:1 
1 1:-0.629758 2:0.313523 
1 1:-0.577028 2:0.847939 
1 1:0.0302471 2:1 
1 1:-0.629758 2:0.313523 
1 1:-0.577028 2:0.847939 
1 1:0.0302471 2:1 
1 1:-0.629758 2:0.313523 
1 1:-0.577028 2:0.847939 
1 1:0.0302471 2:1 
1 1:-0.629758 2:0.313523 
1 1:-0.577028 2:0.847939 
1 1:0.0302471 2:1 
1 1:-0.629758 2:0.313523 
1 1:-0.577028 2:0.847939 
1 1:0.0302471 2:1 
1 1:-0.629758 2:0.313523 
1 1:-0.577028 2:0.847939 
1 1:0.0302471 2:1 
1 1:-0.629758 2:0.313523 
1 1:-0.577028 2:0.847939 
1 1:0.0302471 2:1 
1 1:-0.629758 2:0.313523 
1 1:-0.577028 2:0.847939 
1 1:0.0302471 2:1 
1 1:-0.629758 2:0.313523 
1 1:-0.577028 2:0.847939 
1 1:0.0302471 2:1 
1 1:-0.629758 2:0.313523 
1 1:-0.577028 2:0.847939 
1 1:0.0302471 2:1 
1 1:0.552127 2:-0.0450002 
1 1:0.552127 2:-0.0450002 
1 1:0.552127 2:-0.0450002 
1 1:0.552127 2:-0.0450002 
1 1:0.552127 2:-0.0450002 
1 1:0.552127 2:-0.0450002 
1 1:0.552127 2:-0.0450002 
1 1:0.552127 2:-0.0450002 
1 1:0.552127 2:-0.0450002 
1 1:0.552127 2:-0.0450002 
1 1:0.552127 2:-0.0450002 
1 1:0.552127 2:-0.0450002 
1 1:0.552127 2:-0.0450002 
1 1:0.552127 2:-0.0450002 
1 1:0.552127 2:-0.0450002 
1 1:0.552127 2:-0.0450002 
1 1:0.552127 2:-0.0450002 
1 1:0.552127 2:-0.0450002 
1 1:0.552127 2:-0.0450002 
1 1:0.552127 2:-0.0450002 
1 1:0.552127 2:-0.0450002 
1 1:0.552127 2:-0.0450002 
1 1:0.552127 2:-0.0450002 
1 1:0.552127 2:-0.0450002 
1 1:0.552127 2:-0.0450002 
1 1:0.552127 2:-0.0450002 
1 1:0.552127 2:-0.0450002 
1 1:0.552127 2:-0.0450002 
1 1:0.552127 2:-0.0450002 
1 1:0.552127 2:-0.0450002 
1 1:0.552127 2:-0.0450002 
1 1:0.552127 2:-0.0450002 
1 1:0.552127 2:-0.0450002 
1 1:0.552127 2:-0.0450002 
1 1:0.552127 2:-0.0450002 
1 1:0.552127 2:-0.0450002 
1 1:0.552127 2:-0.0450002 
1 1:0.552127 2:-0.0450002 
1 1:0.552127 2:-0.0450002 
1 1:0.552127 2:-0.0450002 
1 1:0.552127 2:-0.0450002 
1 1:0.552127 2:-0.0450002 
1 1:0.552127 2:-0.0450002 
1 1:0.552127 2:-0.0450002 
1 1:0.552127 2:-0.0450002 
1 1:0.552127 2:-0.0450002 
1 1:0.552127 2:-0.0450002 
1 1:0.552127 2:-0.0450002 
1 1:0.552127 2:-0.0450002 
1 1:0.552127 2:-0.0450002 
1 1:0.552127 2:-0.0450002 
1 1:0.552127 2:-0.0450002 
1 1:0.552127 2:-0.0450002 
1 1:0.552127 2:-0.0450002 
1 1:0.552127 2:-0.0450002 
1 1:0.552127 2:-0.0450002 
1 1:0.552127 2:-0.0450002 
1 1:0.552127 2:-0.0450002 
1 1:0.552127 2:-0.0450002 
1 1:0.552127 2:-0.0450002 
1 1:0.552127 2:-0.0450002 
1 1:0.552127 2:-0.0450002 
1 1:0.552127 2:-0.0450002 
1 1:0.552127 2:-0.0450002 
1 1:0.552127 2:-0.0450002 
1 1:0.552127 2:-0.0450002 
1 1:0.552127 2:-0.0450002 
1 1:0.552127 2:-0.0450002 
1 1:0.552127 2:-0.0450002 
1 1:0.552127 2:-0.0450002 
1 1:0.552127 2:-0.0450002 
1 1:0.552127 2:-0.0450002 
1 1:0.552127 2:-0.0450002 
1 1:0.552127 2:-0.0450002 
1 1:0.552127 2:-0.0450002 
1 1:0.552127 2:-0.0450002 
1 1:0.552127 2:-0.0450002 
1 1:0.552127 2:-0.0450002 
1 1:0.552127 2:-0.0450002 
1 1:0.552127 2:-0.0450002 
1 1:0.552127 2:-0.0450002 
1 1:0.552127 2:-0.0450002 
1 1:0.552127 2:-0.0450002 
1 1:0.552127 2:-0.0450002 
1 1:0.552127 2:-0.0450002 
1 1:0.552127 2:-0.0450002 
1 1:0.552127 2:-0.0450002 
1 1:0.552127 2:-0.0450002 
1 1:0.552127 2:-0.0450002 
1 1:0.552127 2:-0.0450002 
1 1:0.552127 2:-0.0450002 
1 1:0.552127 2:-0.0450002 
1 1:0.552127 2:-0.0450002 
1 1:0.552127 2:-0.0450002 
1 1:0.552127 2:-0.0450002 
1 1:0.552127 2:-0.0450002 
1 1:-0.805557 2:0.642307 
1 1:-0.805557 2:0.642307 
1 1:-0.805557 2:0.642307 
1 1:-0.805557 2:0.642307 
1 1:-0.805557 2:0.642307 
1 1:-0.805557 2:0.642307 
1 1:-0.805557 2:0.642307 
1 1:-0.805557 2:0.642307 
1 1:-0.805557 2:0.642307 
1 1:-0.805557 2:0.642307 
1 1:-0.805557 2:0.642307 
1 1:-0.805557 2:0.642307 
1 1:-0.805557 2:0.642307 
1 1:-0.805557 2:0.642307 
1 1:-0.805557 2:0.642307 
1 1:-0.805557 2:0.642307 
1 1:-0.805557 2:0.642307 
1 1:-0.805557 2:0.642307 
1 1:-0.805557 2:0.642307 
1 1:-0.805557 2:0.642307 
1 1:-0.805557 2:0.642307 
1 1:-0.805557 2:0.642307 
1 1:-0.805557 2:0.642307 
1 1:-0.805557 2:0.642307 
1 1:-0.805557 2:0.642307 
1 1:-0.805557 2:0.642307 
1 1:-0.805557 2:0.642307 
1 1:-0.805557 2:0.642307 
1 1:-0.805557 2:0.642307 
1 1:-0.805557 2:0.642307 
1 1:-0.805557 2:0.642307 
1 1:-0.805557 2:0.642307 
1 1:-0.805557 2:0.642307 
1 1:-0.805557 2:0.642307 
1 1:-0.805557 2:0.642307 
1 1:-0.805557 2:0.642307 
1 1:-0.805557 2:0.642307 
1 1:-0.805557 2:0.642307 
1 1:-0.805557 2:0.642307 
1 1:-0.805557 2:0.642307 
1 1:-0.805557 2:0.642307 
1 1:-0.805557 2:0.642307 
1 1:-0.805557 2:0.642307 
1 1:-0.805557 2:0.642307 
1 1:-0.805557 2:0.642307 
1 1:-0.805557 2:0.642307 
1 1:-0.805557 2:0.642307 
1 1:-0.805557 2:0.642307 
1 1:-0.805557 2:0.642307 
1 1:-0.805557 2:0.642307 
1 1:-0.805557 2:0.642307 
1 1:-0.805557 2:0.642307 
1 1:-0.805557 2:0.642307 
1 1:-0.805557 2:0.642307 
1 1:-0.805557 2:0.642307 
1 1:-0.805557 2:0.642307 
1 1:-0.805557 2:0.642307 
1 1:-0.805557 2:0.642307 
1 1:-0.805557 2:0.642307 
1 1:-0.805557 2:0.642307 
1 1:-0.805557 2:0.642307 
1 1:-0.805557 2:0.642307 
1 1:-0.805557 2:0.642307 
1 1:-0.805557 2:0.642307 
1 1:-0.805557 2:0.642307 
1 1:-0.805557 2:0.642307 
1 1:-0.805557 2:0.642307 
1 1:-0.805557 2:0.642307 
1 1:-0.805557 2:0.642307 
1 1:-0.805557 2:0.642307 
1 1:-0.805557 2:0.642307 
1 1:-0.805557 2:0.642307 
1 1:-0.805557 2:0.642307 
1 1:-0.805557 2:0.642307 
1 1:-0.805557 2:0.642307 
1 1:-0.805557 2:0.642307 
1 1:-0.805557 2:0.642307 
1 1:-0.805557 2:0.642307 
1 1:-0.805557 2:0.642307 
1 1:-0.805557 2:0.642307 
1 1:-0.805557 2:0.642307 
1 1:-0.805557 2:0.642307 
1 1:-0.805557 2:0.642307 
1 1:-0.805557 2:0.642307 
1 1:-0.805557 2:0.642307 
1 1:-0.805557 2:0.642307 
1 1:-0.805557 2:0.642307 
1 1:-0.805557 2:0.642307 
1 1:-0.805557 2:0.642307 
1 1:-0.805557 2:0.642307 
1 1:-0.805557 2:0.642307 
1 1:-0.805557 2:0.642307 
1 1:-0.805557 2:0.642307 
1 1:-0.805557 2:0.642307 
1 1:-0.805557 2:0.642307 
1 1:-0.522376 2:0.200641 
1 1:-0.751528 2:0.372295 
1 1:-0.522376 2:0.200641 
1 1:-0.751528 2:0.372295 
1 1:-0.522376 2:0.200641 
1 1:-0.751528 2:0.372295 
1 1:-0.522376 2:0.200641 
1 1:-0.751528 2:0.372295 
1 1:-0.522376 2:0.200641 
1 1:-0.751528 2:0.372295 
1 1:-0.522376 2:0.200641 
1 1:-0.751528 2:0.372295 
1 1:-0.522376 2:0.200641 
1 1:-0.751528 2:0.372295 
1 1:-0.522376 2:0.200641 
1 1:-0.751528 2:0.372295 
1 1:-0.522376 2:0.200641 
1 1:-0.751528 2:0.372295 
1 1:-0.522376 2:0.200641 
1 1:-0.751528 2:0.372295 
1 1:-0.522376 2:0.200641 
1 1:-0.751528 2:0.372295 
1 1:-0.522376 2:0.200641 
1 1:-0.751528 2:0.372295 
1 1:-0.522376 2:0.200641 
1 1:-0.751528 2:0.372295 
1 1:-0.522376 2:0.200641 
1 1:-0.751528 2:0.372295 
1 1:-0.522376 2:0.200641 
1 1:-0.751528 2:0.372295 
1 1:-0.522376 2:0.200641 
1 1:-0.751528 2:0.372295 
1 1:-0.522376 2:0.200641 
1 1:-0.751528 2:0.372295 
1 1:-0.522376 2:0.200641 
1 1:-0.751528 2:0.372295 
1 1:-0.522376 2:0.200641 
1 1:-0.751528 2:0.372295 
1 1:-0.522376 2:0.200641 
1 1:-0.751528 2:0.372295 
1 1:-0.522376 2:0.200641 
1 1:-0.751528 2:0.372295 
1 1:-0.522376 2:0.200641 
1 1:-0.751528 2:0.372295 
1 1:-0.522376 2:0.200641 
1 1:-0.751528 2:0.372295 
1 1:-0.522376 2:0.200641 
1 1:-0.751528 2:0.372295 
1 1:-0.522376 2:0.200641 
1 1:-0.751528 2:0.372295 
1 1:-0.522376 2:0.200641 
1 1:-0.751528 2:0.372295 
1 1:-0.522376 2:0.200641 
1 1:-0.751528 2:0.372295 
1 1:-0.522376 2:0.200641 
1 1:-0.751528 2:0.372295 
1 1:-0.522376 2:0.200641 
1 1:-0.751528 2:0.372295 
1 1:-0.522376 2:0.200641 
1 1:-0.751528 2:0.372295 
1 1:-0.522376 2:0.200641 
1 1:-0.751528 2:0.372295 
1 1:-0.522376 2:0.200641 
1 1:-0.751528 2:0.372295 
1 1:-0.522376 2:0.200641 
1 1:-0.751528 2:0.372295 
1 1:-0.522376 2:0.200641 
1 1:-0.751528 2:0.372295 
1 1:-0.522376 2:0.200641 
1 1:-0.751528 2:0.372295 
1 1:-0.522376 2:0.200641 
1 1:-0.751528 2:0.372295 
1 1:-0.522376 2:0.200641 
1 1:-0.751528 2:0.372295 
1 1:-0.522376 2:0.200641 
1 1:-0.751528 2:0.372295 
1 1:-0.522376 2:0.200641 
1 1:-0.751528 2:0.372295 
1 1:-0.522376 2:0.200641 
1 1:-0.751528 2:0.372295 
1 1:-0.522376 2:0.200641 
1 1:-0.751528 2:0.372295 
1 1:-0.522376 2:0.200641 
1 1:-0.751528 2:0.372295 
1 1:-0.522376 2:0.200641 
1 1:-0.751528 2:0.372295 
1 1:-0.522376 2:0.200641 
1 1:-0.751528 2:0.372295 
1 1:-0.522376 2:0.200641 
1 1:-0.751528 2:0.372295 
1 1:-0.522376 2:0.200641 
1 1:-0.751528 2:0.372295 
1 1:-0.522376 2:0.200641 
1 1:-0.751528 2:0.372295 
1 1:-0.522376 2:0.200641 
1 1:-0.751528 2:0.372295 
1 1:-0.522376 2:0.200641 
1 1:-0.751528 2:0.372295 
1 1:-0.522376 2:0.200641 
1 1:-0.751528 2:0.372295 
1 1:-0.522376 2:0.200641 
1 1:-0.751528 2:0.372295 
1 1:-0.522376 2:0.200641 
1 1:-0.751528 2:0.372295 
1 1:-0.522376 2:0.200641 
1 1:-0.751528 2:0.372295 
1 1:-0.522376 2:0.200641 
1 1:-0.751528 2:0.372295 
1 1:-0.522376 2:0.200641 
1 1:-0.751528 2:0.372295 
1 1:-0.522376 2:0.200641 
1 1:-0.751528 2:0.372295 
1 1:-0.522376 2:0.200641 
1 1:-0.751528 2:0.372295 
1 1:-0.522376 2:0.200641 
1 1:-0.751528 2:0.372295 
1 1:-0.522376 2:0.200641 
1 1:-0.751528 2:0.372295 
1 1:-0.522376 2:0.200641 
1 1:-0.751528 2:0.372295 
1 1:-0.522376 2:0.200641 
1 1:-0.751528 2:0.372295 
1 1:-0.522376 2:0.200641 
1 1:-0.751528 2:0.372295 
1 1:-0.522376 2:0.200641 
1 1:-0.751528 2:0.372295 
1 1:-0.522376 2:0.200641 
1 1:-0.751528 2:0.372295 
1 1:-0.522376 2:0.200641 
1 1:-0.751528 2:0.372295 
1 1:-0.522376 2:0.200641 
1 1:-0.751528 2:0.372295 
1 1:-0.522376 2:0.200641 
1 1:-0.751528 2:0.372295 
1 1:-0.522376 2:0.200641 
1 1:-0.751528 2:0.372295 
1 1:-0.522376 2:0.200641 
1 1:-0.751528 2:0.372295 
1 1:-0.522376 2:0.200641 
1 1:-0.751528 2:0.372295 
1 1:-0.522376 2:0.200641 
1 1:-0.751528 2:0.372295 
1 1:-0.522376 2:0.200641 
1 1:-0.751528 2:0.372295 
1 1:-0.522376 2:0.200641 
1 1:-0.751528 2:0.372295 
1 1:-0.522376 2:0.200641 
1 1:-0.751528 2:0.372295 
1 1:-0.522376 2:0.200641 
1 1:-0.751528 2:0.372295 
1 1:-0.522376 2:0.200641 
1 1:-0.751528 2:0.372295 
1 1:-0.522376 2:0.200641 
1 1:-0.751528 2:0.372295 
1 1:-0.522376 2:0.200641 
1 1:-0.751528 2:0.372295 
1 1:-0.522376 2:0.200641 
1 1:-0.751528 2:0.372295 
1 1:-0.522376 2:0.200641 
1 1:-0.751528 2:0.372295 
1 1:-0.522376 2:0.200641 
1 1:-0.751528 2:0.372295 
1 1:-0.522376 2:0.200641 
1 1:-0.751528 2:0.372295 
1 1:-0.522376 2:0.200641 
1 1:-0.751528 2:0.372295 
1 1:-0.522376 2:0.200641 
1 1:-0.751528 2:0.372295 
1 1:-0.522376 2:0.200641 
1 1:-0.751528 2:0.372295 
1 1:-0.522376 2:0.200641 
1 1:-0.751528 2:0.372295 
1 1:-0.522376 2:0.200641 
1 1:-0.751528 2:0.372295 
1 1:-0.522376 2:0.200641 
1 1:-0.751528 2:0.372295 
1 1:-0.522376 2:0.200641 
1 1:-0.751528 2:0.372295 
1 1:-0.522376 2:0.200641 
1 1:-0.751528 2:0.372295 
1 1:-0.522376 2:0.200641 
1 1:-0.751528 2:0.372295 
1 1:-0.522376 2:0.200641 
1 1:-0.751528 2:0.372295 
1 1:-0.522376 2:0.200641 
1 1:-0.751528 2:0.372295 
1 1:-0.522376 2:0.200641 
1 1:-0.751528 2:0.372295 
1 1:-0.522376 2:0.200641 
1 1:-0.751528 2:0.372295 
1 1:-0.522376 2:0.200641 
1 1:-0.751528 2:0.372295 
1 1:-0.522376 2:0.200641 
1 1:-0.751528 2:0.372295 
1 1:0.0904645 2:-0.468727 
1 1:-0.617844 2:0.329283 
1 1:0.0904645 2:-0.468727 
1 1:-0.617844 2:0.329283 
1 1:0.0904645 2:-0.468727 
1 1:-0.617844 2:0.329283 
1 1:0.0904645 2:-0.468727 
1 1:-0.617844 2:0.329283 
1 1:0.0904645 2:-0.468727 
1 1:-0.617844 2:0.329283 
1 1:0.0904645 2:-0.468727 
1 1:-0.617844 2:0.329283 
1 1:0.0904645 2:-0.468727 
1 1:-0.617844 2:0.329283 
1 1:0.0904645 2:-0.468727 
1 1:-0.617844 2:0.329283 
1 1:0.0904645 2:-0.468727 
1 1:-0.617844 2:0.329283 
1 1:0.0904645 2:-0.468727 
1 1:-0.617844 2:0.329283 
1 1:0.0904645 2:-0.468727 
1 1:-0.617844 2:0.329283 
1 1:0.0904645 2:-0.468727 
1 1:-0.617844 2:0.329283 
1 1:0.0904645 2:-0.468727 
1 1:-0.617844 2:0.329283 
1 1:0.0904645 2:-0.468727 
1 1:-0.617844 2:0.329283 
1 1:0.0904645 2:-0.468727 
1 1:-0.617844 2:0.329283 
1 1:0.0904645 2:-0.468727 
1 1:-0.617844 2:0.329283 
1 1:0.0904645 2:-0.468727 
1 1:-0.617844 2:0.329283 
1 1:0.0904645 2:-0.468727 
1 1:-0.617844 2:0.329283 
1 1:0.0904645 2:-0.468727 
1 1:-0.617844 2:0.329283 
1 1:0.0904645 2:-0.468727 
1 1:-0.617844 2:0.329283 
1 1:0.0904645 2:-0.468727 
1 1:-0.617844 2:0.329283 
1 1:0.0904645 2:-0.468727 
1 1:-0.617844 2:0.329283 
1 1:0.0904645 2:-0.468727 
1 1:-0.617844 2:0.329283 
1 1:0.0904645 2:-0.468727 
1 1:-0.617844 2:0.329283 
1 1:0.0904645 2:-0.468727 
1 1:-0.617844 2:0.329283 
1 1:0.0904645 2:-0.468727 
1 1:-0.617844 2:0.329283 
1 1:0.0904645 2:-0.468727 
1 1:-0.617844 2:0.329283 
1 1:0.0904645 2:-0.468727 
1 1:-0.617844 2:0.329283 
1 1:0.0904645 2:-0.468727 
1 1:-0.617844 2:0.329283 
1 1:0.0904645 2:-0.468727 
1 1:-0.617844 2:0.329283 
1 1:0.0904645 2:-0.468727 
1 1:-0.617844 2:0.329283 
1 1:0.0904645 2:-0.468727 
1 1:-0.617844 2:0.329283 
1 1:0.0904645 2:-0.468727 
1 1:-0.617844 2:0.329283 
1 1:0.0904645 2:-0.468727 
1 1:-0.617844 2:0.329283 
1 1:0.0904645 2:-0.468727 
1 1:-0.617844 2:0.329283 
1 1:0.0904645 2:-0.468727 
1 1:-0.617844 2:0.329283 
1 1:0.0904645 2:-0.468727 
1 1:-0.617844 2:0.329283 
1 1:0.0904645 2:-0.468727 
1 1:-0.617844 2:0.329283 
1 1:0.0904645 2:-0.468727 
1 1:-0.617844 2:0.329283 
1 1:0.0904645 2:-0.468727 
1 1:-0.617844 2:0.329283 
1 1:0.0904645 2:-0.468727 
1 1:-0.617844 2:0.329283 
1 1:0.0904645 2:-0.468727 
1 1:-0.617844 2:0.329283 
1 1:0.0904645 2:-0.468727 
1 1:-0.617844 2:0.329283 
1 1:0.0904645 2:-0.468727 
1 1:-0.617844 2:0.329283 
1 1:0.0904645 2:-0.468727 
1 1:-0.617844 2:0.329283 
1 1:0.0904645 2:-0.468727 
1 1:-0.617844 2:0.329283 
1 1:0.0904645 2:-0.468727 
1 1:-0.617844 2:0.329283 
1 1:0.0904645 2:-0.468727 
1 1:-0.617844 2:0.329283 
1 1:0.0904645 2:-0.468727 
1 1:-0.617844 2:0.329283 
1 1:0.0904645 2:-0.468727 
1 1:-0.617844 2:0.329283 
1 1:0.0904645 2:-0.468727 
1 1:-0.617844 2:0.329283 
1 1:0.0904645 2:-0.468727 
1 1:-0.617844 2:0.329283 
1 1:0.0904645 2:-0.468727 
1 1:-0.617844 2:0.329283 
1 1:0.0904645 2:-0.468727 
1 1:-0.617844 2:0.329283 
1 1:0.0904645 2:-0.468727 
1 1:-0.617844 2:0.329283 
1 1:0.0904645 2:-0.468727 
1 1:-0.617844 2:0.329283 
1 1:0.0904645 2:-0.468727 
1 1:-0.617844 2:0.329283 
1 1:0.0904645 2:-0.468727 
1 1:-0.617844 2:0.329283 
1 1:0.0904645 2:-0.468727 
1 1:-0.617844 2:0.329283 
1 1:0.0904645 2:-0.468727 
1 1:-0.617844 2:0.329283 
1 1:0.0904645 2:-0.468727 
1 1:-0.617844 2:0.329283 
1 1:0.0904645 2:-0.468727 
1 1:-0.617844 2:0.329283 
1 1:0.0904645 2:-0.468727 
1 1:-0.617844 2:0.329283 
1 1:0.0904645 2:-0.468727 
1 1:-0.617844 2:0.329283 
1 1:0.0904645 2:-0.468727 
1 1:-0.617844 2:0.329283 
1 1:0.0904645 2:-0.468727 
1 1:-0.617844 2:0.329283 
1 1:0.0904645 2:-0.468727 
1 1:-0.617844 2:0.329283 
1 1:0.0904645 2:-0.468727 
1 1:-0.617844 2:0.329283 
1 1:0.0904645 2:-0.468727 
1 1:-0.617844 2:0.329283 
1 1:0.0904645 2:-0.468727 
1 1:-0.617844 2:0.329283 
1 1:0.0904645 2:-0.468727 
1 1:-0.617844 2:0.329283 
1 1:0.0904645 2:-0.468727 
1 1:-0.617844 2:0.329283 
1 1:0.0904645 2:-0.468727 
1 1:-0.617844 2:0.329283 
1 1:0.0904645 2:-0.468727 
1 1:-0.617844 2:0.329283 
1 1:0.0904645 2:-0.468727 
1 1:-0.617844 2:0.329283 
1 1:0.0904645 2:-0.468727 
1 1:-0.617844 2:0.329283 
1 1:0.0904645 2:-0.468727 
1 1:-0.617844 2:0.329283 
1 1:0.0904645 2:-0.468727 
1 1:-0.617844 2:0.329283 
1 1:0.0904645 2:-0.468727 
1 1:-0.617844 2:0.329283 
1 1:0.0904645 2:-0.468727 
1 1:-0.617844 2:0.329283 
1 1:0.0904645 2:-0.468727 
1 1:-0.617844 2:0.329283 
1 1:0.0904645 2:-0.468727 
1 1:-0.617844 2:0.329283 
1 1:0.0904645 2:-0.468727 
1 1:-0.617844 2:0.329283 
1 1:0.0904645 2:-0.468727 
1 1:-0.617844 2:0.329283 
1 1:0.0904645 2:-0.468727 
1 1:-0.617844 2:0.329283 
1 1:0.0904645 2:-0.468727 
1 1:-0.617844 2:0.329283 
1 1:0.0904645 2:-0.468727 
1 1:-0.617844 2:0.329283 
1 1:0.0904645 2:-0.468727 
1 1:-0.617844 2:0.329283 
1 1:0.0904645 2:-0.468727 
1 1:-0.617844 2:0.329283 
1 1:0.0904645 2:-0.468727 
1 1:-0.617844 2:0.329283 
1 1:0.0904645 2:-0.468727 
1 1:-0.617844 2:0.329283 
1 1:0.0904645 2:-0.468727 
1 1:-0.617844 2:0.329283 
1 1:0.0464852 2:0.534906 
1 1:-0.432244 2:0.76422 
1 1:0.0464852 2:0.534906 
1 1:-0.432244 2:0.76422 
1 1:0.0464852 2:0.534906 
1 1:-0.432244 2:0.76422 
1 1:0.0464852 2:0.534906 
1 1:-0.432244 2:0.76422 
1 1:0.0464852 2:0.534906 
1 1:-0.432244 2:0.76422 
1 1:0.0464852 2:0.534906 
1 1:-0.432244 2:0.76422 
1 1:0.0464852 2:0.534906 
1 1:-0.432244 2:0.76422 
1 1:0.0464852 2:0.534906 
1 1:-0.432244 2:0.76422 
1 1:0.0464852 2:0.534906 
1 1:-0.432244 2:0.76422 
1 1:0.0464852 2:0.534906 
1 1:-0.432244 2:0.76422 
1 1:0.0464852 2:0.534906 
1 1:-0.432244 2:0.76422 
1 1:0.0464852 2:0.534906 
1 1:-0.432244 2:0.76422 
1 1:0.0464852 2:0.534906 
1 1:-0.432244 2:0.76422 
1 1:0.0464852 2:0.534906 
1 1:-0.432244 2:0.76422 
1 1:0.0464852 2:0.534906 
1 1:-0.432244 2:0.76422 
1 1:0.0464852 2:0.534906 
1 1:-0.432244 2:0.76422 
1 1:0.0464852 2:0.534906 
1 1:-0.432244 2:0.76422 
1 1:0.0464852 2:0.534906 
1 1:-0.432244 2:0.76422 
1 1:0.0464852 2:0.534906 
1 1:-0.432244 2:0.76422 
1 1:0.0464852 2:0.534906 
1 1:-0.432244 2:0.76422 
1 1:0.0464852 2:0.534906 
1 1:-0.432244 2:0.76422 
1 1:0.0464852 2:0.534906 
1 1:-0.432244 2:0.76422 
1 1:0.0464852 2:0.534906 
1 1:-0.432244 2:0.76422 
1 1:0.0464852 2:0.534906 
1 1:-0.432244 2:0.76422 
1 1:0.0464852 2:0.534906 
1 1:-0.432244 2:0.76422 
1 1:0.0464852 2:0.534906 
1 1:-0.432244 2:0.76422 
1 1:0.0464852 2:0.534906 
1 1:-0.432244 2:0.76422 
1 1:0.0464852 2:0.534906 
1 1:-0.432244 2:0.76422 
1 1:0.0464852 2:0.534906 
1 1:-0.432244 2:0.76422 
1 1:0.0464852 2:0.534906 
1 1:-0.432244 2:0.76422 
1 1:0.0464852 2:0.534906 
1 1:-0.432244 2:0.76422 
1 1:0.0464852 2:0.534906 
1 1:-0.432244 2:0.76422 
1 1:0.0464852 2:0.534906 
1 1:-0.432244 2:0.76422 
1 1:0.0464852 2:0.534906 
1 1:-0.432244 2:0.76422 
1 1:0.0464852 2:0.534906 
1 1:-0.432244 2:0.76422 
1 1:0.0464852 2:0.534906 
1 1:-0.432244 2:0.76422 
1 1:0.0464852 2:0.534906 
1 1:-0.432244 2:0.76422 
1 1:0.0464852 2:0.534906 
1 1:-0.432244 2:0.76422 
1 1:0.0464852 2:0.534906 
1 1:-0.432244 2:0.76422 
1 1:0.0464852 2:0.534906 
1 1:-0.432244 2:0.76422 
1 1:0.0464852 2:0.534906 
1 1:-0.432244 2:0.76422 
1 1:0.0464852 2:0.534906 
1 1:-0.432244 2:0.76422 
1 1:0.0464852 2:0.534906 
1 1:-0.432244 2:0.76422 
1 1:0.0464852 2:0.534906 
1 1:-0.432244 2:0.76422 
1 1:0.0464852 2:0.534906 
1 1:-0.432244 2:0.76422 
1 1:0.0464852 2:0.534906 
1 1:-0.432244 2:0.76422 
1 1:0.0464852 2:0.534906 
1 1:-0.432244 2:0.76422 
1 1:0.0464852 2:0.534906 
1 1:-0.432244 2:0.76422 
1 1:0.0464852 2:0.534906 
1 1:-0.432244 2:0.76422 
1 1:0.0464852 2:0.534906 
1 1:-0.432244 2:0.76422 
1 1:0.0464852 2:0.534906 
1 1:-0.432244 2:0.76422 
1 1:0.0464852 2:0.534906 
1 1:-0.432244 2:0.76422 
1 1:0.0464852 2:0.534906 
1 1:-0.432244 2:0.76422 
1 1:0.0464852 2:0.534906 
1 1:-0.432244 2:0.76422 
1 1:0.0464852 2:0.534906 
1 1:-0.432244 2:0.76422 
1 1:0.0464852 2:0.534906 
1 1:-0.432244 2:0.76422 
1 1:0.0464852 2:0.534906 
1 1:-0.432244 2:0.76422 
1 1:0.0464852 2:0.534906 
1 1:-0.432244 2:0.76422 
1 1:0.0464852 2:0.534906 
1 1:-0.432244 2:0.76422 
1 1:0.0464852 2:0.534906 
1 1:-0.432244 2:0.76422 
1 1:0.0464852 2:0.534906 
1 1:-0.432244 2:0.76422 
1 1:0.0464852 2:0.534906 
1 1:-0.432244 2:0.76422 
1 1:0.0464852 2:0.534906 
1 1:-0.432244 2:0.76422 
1 1:0.0464852 2:0.534906 
1 1:-0.432244 2:0.76422 
1 1:0.0464852 2:0.534906 
1 1:-0.432244 2:0.76422 
1 1:0.0464852 2:0.534906 
1 1:-0.432244 2:0.76422 
1 1:0.0464852 2:0.534906 
1 1:-0.432244 2:0.76422 
1 1:0.0464852 2:0.534906 
1 1:-0.432244 2:0.76422 
1 1:0.0464852 2:0.534906 
1 1:-0.432244 2:0.76422 
1 1:0.0464852 2:0.534906 
1 1:-0.432244 2:0.76422 
1 1:0.0464852 2:0.534906 
1 1:-0.432244 2:0.76422 
1 1:0.0464852 2:0.534906 
1 1:-0.432244 2:0.76422 
1 1:0.0464852 2:0.534906 
1 1:-0.432244 2:0.76422 
1 1:0.0464852 2:0.534906 
1 1:-0.432244 2:0.76422 
1 1:0.0464852 2:0.534906 
1 1:-0.432244 2:0.76422 
1 1:0.0464852 2:0.534906 
1 1:-0.432244 2:0.76422 
1 1:0.0464852 2:0.534906 
1 1:-0.432244 2:0.76422 
1 1:0.0464852 2:0.534906 
1 1:-0.432244 2:0.76422 
1 1:0.0464852 2:0.534906 
1 1:-0.432244 2:0.76422 
1 1:0.0464852 2:0.534906 
1 1:-0.432244 2:0.76422 
1 1:0.0464852 2:0.534906 
1 1:-0.432244 2:0.76422 
1 1:0.0464852 2:0.534906 
1 1:-0.432244 2:0.76422 
1 1:0.0464852 2:0.534906 
1 1:-0.432244 2:0.76422 
1 1:0.0464852 2:0.534906 
1 1:-0.432244 2:0.76422 
1 1:0.0464852 2:0.534906 
1 1:-0.432244 2:0.76422 
1 1:0.0464852 2:0.534906 
1 1:-0.432244 2:0.76422 
1 1:0.0464852 2:0.534906 
1 1:-0.432244 2:0.76422 
1 1:0.0464852 2:0.534906 
1 1:-0.432244 2:0.76422 
1 1:0.0464852 2:0.534906 
1 1:-0.432244 2:0.76422 
1 1:0.0464852 2:0.534906 
1 1:-0.432244 2:0.76422 
1 1:0.0464852 2:0.534906 
1 1:-0.432244 2:0.76422 
1 1:0.0464852 2:0.534906 
1 1:-0.432244 2:0.76422 
1 1:0.0464852 2:0.534906 
1 1:-0.432244 2:0.76422 
1 1:0.0464852 2:0.534906 
1 1:-0.432244 2:0.76422 
1 1:0.0464852 2:0.534906 
1 1:-0.432244 2:0.76422 
1 1:-0.129656 2:0.289885 
1 1:-0.606255 2:0.971119 
1 1:-0.129656 2:0.289885 
1 1:-0.606255 2:0.971119 
1 1:-0.129656 2:0.289885 
1 1:-0.606255 2:0.971119 
1 1:-0.129656 2:0.289885 
1 1:-0.606255 2:0.971119 
1 1:-0.129656 2:0.289885 
1 1:-0.606255 2:0.971119 
1 1:-0.129656 2:0.289885 
1 1:-0.606255 2:0.971119 
1 1:-0.129656 2:0.289885 
1 1:-0.606255 2:0.971119 
1 1:-0.129656 2:0.289885 
1 1:-0.606255 2:0.971119 
1 1:-0.129656 2:0.289885 
1 1:-0.606255 2:0.971119 
1 1:-0.129656 2:0.289885 
1 1:-0.606255 2:0.971119 
1 1:-0.129656 2:0.289885 
1 1:-0.606255 2:0.971119 
1 1:-0.129656 2:0.289885 
1 1:-0.606255 2:0.971119 
1 1:-0.129656 2:0.289885 
1 1:-0.606255 2:0.971119 
1 1:-0.129656 2:0.289885 
1 1:-0.606255 2:0.971119 
1 1:-0.129656 2:0.289885 
1 1:-0.606255 2:0.971119 
1 1:-0.129656 2:0.289885 
1 1:-0.606255 2:0.971119 
1 1:-0.129656 2:0.289885 
1 1:-0.606255 2:0.971119 
1 1:-0.129656 2:0.289885 
1 1:-0.606255 2:0.971119 
1 1:-0.129656 2:0.289885 
1 1:-0.606255 2:0.971119 
1 1:-0.129656 2:0.289885 
1 1:-0.606255 2:0.971119 
1 1:-0.129656 2:0.289885 
1 1:-0.606255 2:0.971119 
1 1:-0.129656 2:0.289885 
1 1:-0.606255 2:0.971119 
1 1:-0.129656 2:0.289885 
1 1:-0.606255 2:0.971119 
1 1:-0.129656 2:0.289885 
1 1:-0.606255 2:0.971119 
1 1:-0.129656 2:0.289885 
1 1:-0.606255 2:0.971119 
1 1:-0.129656 2:0.289885 
1 1:-0.606255 2:0.971119 
1 1:-0.129656 2:0.289885 
1 1:-0.606255 2:0.971119 
1 1:-0.129656 2:0.289885 
1 1:-0.606255 2:0.971119 
1 1:-0.129656 2:0.289885 
1 1:-0.606255 2:0.971119 
1 1:-0.129656 2:0.289885 
1 1:-0.606255 2:0.971119 
1 1:-0.129656 2:0.289885 
1 1:-0.606255 2:0.971119 
1 1:-0.129656 2:0.289885 
1 1:-0.606255 2:0.971119 
1 1:-0.129656 2:0.289885 
1 1:-0.606255 2:0.971119 
1 1:-0.129656 2:0.289885 
1 1:-0.606255 2:0.971119 
1 1:-0.129656 2:0.289885 
1 1:-0.606255 2:0.971119 
1 1:-0.129656 2:0.289885 
1 1:-0.606255 2:0.971119 
1 1:-0.129656 2:0.289885 
1 1:-0.606255 2:0.971119 
1 1:-0.129656 2:0.289885 
1 1:-0.606255 2:0.971119 
1 1:-0.129656 2:0.289885 
1 1:-0.606255 2:0.971119 
1 1:-0.129656 2:0.289885 
1 1:-0.606255 2:0.971119 
1 1:-0.129656 2:0.289885 
1 1:-0.606255 2:0.971119 
1 1:-0.129656 2:0.289885 
1 1:-0.606255 2:0.971119 
1 1:-0.129656 2:0.289885 
1 1:-0.606255 2:0.971119 
1 1:-0.129656 2:0.289885 
1 1:-0.606255 2:0.971119 
1 1:-0.129656 2:0.289885 
1 1:-0.606255 2:0.971119 
1 1:-0.129656 2:0.289885 
1 1:-0.606255 2:0.971119 
1 1:-0.129656 2:0.289885 
1 1:-0.606255 2:0.971119 
1 1:-0.129656 2:0.289885 
1 1:-0.606255 2:0.971119 
1 1:-0.129656 2:0.289885 
1 1:-0.606255 2:0.971119 
1 1:-0.129656 2:0.289885 
1 1:-0.606255 2:0.971119 
1 1:-0.129656 2:0.289885 
1 1:-0.606255 2:0.971119 
1 1:-0.129656 2:0.289885 
1 1:-0.606255 2:0.971119 
1 1:-0.129656 2:0.289885 
1 1:-0.606255 2:0.971119 
1 1:-0.129656 2:0.289885 
1 1:-0.606255 2:0.971119 
1 1:-0.129656 2:0.289885 
1 1:-0.606255 2:0.971119 
1 1:-0.129656 2:0.289885 
1 1:-0.606255 2:0.971119 
1 1:-0.129656 2:0.289885 
1 1:-0.606255 2:0.971119 
1 1:-0.129656 2:0.289885 
1 1:-0.606255 2:0.971119 
1 1:-0.129656 2:0.289885 
1 1:-0.606255 2:0.971119 
1 1:-0.129656 2:0.289885 
1 1:-0.606255 2:0.971119 
1 1:-0.129656 2:0.289885 
1 1:-0.606255 2:0.971119 
1 1:-0.129656 2:0.289885 
1 1:-0.606255 2:0.971119 
1 1:-0.129656 2:0.289885 
1 1:-0.606255 2:0.971119 
1 1:-0.129656 2:0.289885 
1 1:-0.606255 2:0.971119 
1 1:-0.129656 2:0.289885 
1 1:-0.606255 2:0.971119 
1 1:-0.129656 2:0.289885 
1 1:-0.606255 2:0.971119 
1 1:-0.129656 2:0.289885 
1 1:-0.606255 2:0.971119 
1 1:-0.129656 2:0.289885 
1 1:-0.606255 2:0.971119 
1 1:-0.129656 2:0.289885 
1 1:-0.606255 2:0.971119 
1 1:-0.129656 2:0.289885 
1 1:-0.606255 2:0.971119 
1 1:-0.129656 2:0.289885 
1 1:-0.606255 2:0.971119 
1 1:-0.129656 2:0.289885 
1 1:-0.606255 2:0.971119 
1 1:-0.129656 2:0.289885 
1 1:-0.606255 2:0.971119 
1 1:-0.129656 2:0.289885 
1 1:-0.606255 2:0.971119 
1 1:-0.129656 2:0.289885 
1 1:-0.606255 2:0.971119 
1 1:-0.129656 2:0.289885 
1 1:-0.606255 2:0.971119 
1 1:-0.129656 2:0.289885 
1 1:-0.606255 2:0.971119 
1 1:-0.129656 2:0.289885 
1 1:-0.606255 2:0.971119 
1 1:-0.129656 2:0.289885 
1 1:-0.606255 2:0.971119 
1 1:-0.129656 2:0.289885 
1 1:-0.606255 2:0.971119 
1 1:-0.129656 2:0.289885 
1 1:-0.606255 2:0.971119 
1 1:-0.129656 2:0.289885 
1 1:-0.606255 2:0.971119 
1 1:-0.129656 2:0.289885 
1 1:-0.606255 2:0.971119 
1 1:-0.129656 2:0.289885 
1 1:-0.606255 2:0.971119 
1 1:-0.129656 2:0.289885 
1 1:-0.606255 2:0.971119 
1 1:-0.129656 2:0.289885 
1 1:-0.606255 2:0.971119 
1 1:-0.129656 2:0.289885 
1 1:-0.606255 2:0.971119 
1 1:-0.129656 2:0.289885 
1 1:-0.606255 2:0.971119 
1 1:-0.129656 2:0.289885 
1 1:-0.606255 2:0.971119 
1 1:-0.129656 2:0.289885 
1 1:-0.606255 2:0.971119 
1 1:-0.129656 2:0.289885 
1 1:-0.606255 2:0.971119 
1 1:-0.129656 2:0.289885 
1 1:-0.606255 2:0.971119 
1 1:-0.129656 2:0.289885 
1 1:-0.606255 2:0.971119 
1 1:-0.129656 2:0.289885 
1 1:-0.606255 2:0.971119 
1 1:-0.129656 2:0.289885 
1 1:-0.606255 2:0.971119 
1 1:-0.129656 2:0.289885 
1 1:-0.606255 2:0.971119 
1 1:1 2:0.727633 
1 1:0.64965 2:-0.224413 
1 1:1 2:0.727633 
1 1:0.64965 2:-0.224413 
1 1:1 2:0.727633 
1 1:0.64965 2:-0.224413 
1 1:1 2:0.727633 
1 1:0.64965 2:-0.224413 
1 1:1 2:0.727633 
1 1:0.64965 2:-0.224413 
1 1:1 2:0.727633 
1 1:0.64965 2:-0.224413 
1 1:1 2:0.727633 
1 1:0.64965 2:-0.224413 
1 1:1 2:0.727633 
1 1:0.64965 2:-0.224413 
1 1:1 2:0.727633 
1 1:0.64965 2:-0.224413 
1 1:1 2:0.727633 
1 1:0.64965 2:-0.224413 
1 1:1 2:0.727633 
1 1:0.64965 2:-0.224413 
1 1:1 2:0.727633 
1 1:0.64965 2:-0.224413 
1 1:1 2:0.727633 
1 1:0.64965 2:-0.224413 
1 1:1 2:0.727633 
1 1:0.64965 2:-0.224413 
1 1:1 2:0.727633 
1 1:0.64965 2:-0.224413 
1 1:1 2:0.727633 
1 1:0.64965 2:-0.224413 
1 1:1 2:0.727633 
1 1:0.64965 2:-0.224413 
1 1:1 2:0.727633 
1 1:0.64965 2:-0.224413 
1 1:1 2:0.727633 
1 1:0.64965 2:-0.224413 
1 1:1 2:0.727633 
1 1:0.64965 2:-0.224413 
1 1:1 2:0.727633 
1 1:0.64965 2:-0.224413 
1 1:1 2:0.727633 
1 1:0.64965 2:-0.224413 
1 1:1 2:0.727633 
1 1:0.64965 2:-0.224413 
1 1:1 2:0.727633 
1 1:0.64965 2:-0.224413 
1 1:1 2:0.727633 
1 1:0.64965 2:-0.224413 
1 1:1 2:0.727633 
1 1:0.64965 2:-0.224413 
1 1:1 2:0.727633 
1 1:0.64965 2:-0.224413 
1 1:1 2:0.727633 
1 1:0.64965 2:-0.224413 
1 1:1 2:0.727633 
1 1:0.64965 2:-0.224413 
1 1:1 2:0.727633 
1 1:0.64965 2:-0.224413 
1 1:1 2:0.727633 
1 1:0.64965 2:-0.224413 
1 1:1 2:0.727633 
1 1:0.64965 2:-0.224413 
1 1:1 2:0.727633 
1 1:0.64965 2:-0.224413 
1 1:1 2:0.727633 
1 1:0.64965 2:-0.224413 
1 1:1 2:0.727633 
1 1:0.64965 2:-0.224413 
1 1:1 2:0.727633 
1 1:0.64965 2:-0.224413 
1 1:1 2:0.727633 
1 1:0.64965 2:-0.224413 
1 1:1 2:0.727633 
1 1:0.64965 2:-0.224413 
1 1:1 2:0.727633 
1 1:0.64965 2:-0.224413 
1 1:1 2:0.727633 
1 1:0.64965 2:-0.224413 
1 1:1 2:0.727633 
1 1:0.64965 2:-0.224413 
1 1:1 2:0.727633 
1 1:0.64965 2:-0.224413 
1 1:1 2:0.727633 
1 1:0.64965 2:-0.224413 
1 1:1 2:0.727633 
1 1:0.64965 2:-0.224413 
1 1:1 2:0.727633 
1 1:0.64965 2:-0.224413 
1 1:1 2:0.727633 
1 1:0.64965 2:-0.224413 
1 1:1 2:0.727633 
1 1:0.64965 2:-0.224413 
1 1:1 2:0.727633 
1 1:0.64965 2:-0.224413 
1 1:1 2:0.727633 
1 1:0.64965 2:-0.224413 
1 1:1 2:0.727633 
1 1:0.64965 2:-0.224413 
1 1:1 2:0.727633 
1 1:0.64965 2:-0.224413 
1 1:1 2:0.727633 
1 1:0.64965 2:-0.224413 
1 1:1 2:0.727633 
1 1:0.64965 2:-0.224413 
1 1:1 2:0.727633 
1 1:0.64965 2:-0.224413 
1 1:1 2:0.727633 
1 1:0.64965 2:-0.224413 
1 1:1 2:0.727633 
1 1:0.64965 2:-0.224413 
1 1:1 2:0.727633 
1 1:0.64965 2:-0.224413 
1 1:1 2:0.727633 
1 1:0.64965 2:-0.224413 
1 1:1 2:0.727633 
1 1:0.64965 2:-0.224413 
1 1:1 2:0.727633 
1 1:0.64965 2:-0.224413 
1 1:1 2:0.727633 
1 1:0.64965 2:-0.224413 
1 1:1 2:0.727633 
1 1:0.64965 2:-0.224413 
1 1:1 2:0.727633 
1 1:0.64965 2:-0.224413 
1 1:1 2:0.727633 
1 1:0.64965 2:-0.224413 
1 1:1 2:0.727633 
1 1:0.64965 2:-0.224413 
1 1:1 2:0.727633 
1 1:0.64965 2:-0.224413 
1 1:1 2:0.727633 
1 1:0.64965 2:-0.224413 
1 1:1 2:0.727633 
1 1:0.64965 2:-0.224413 
1 1:1 2:0.727633 
1 1:0.64965 2:-0.224413 
1 1:1 2:0.727633 
1 1:0.64965 2:-0.224413 
1 1:1 2:0.727633 
1 1:0.64965 2:-0.224413 
1 1:1 2:0.727633 
1 1:0.64965 2:-0.224413 
1 1:1 2:0.727633 
1 1:0.64965 2:-0.224413 
1 1:1 2:0.727633 
1 1:0.64965 2:-0.224413 
1 1:1 2:0.727633 
1 1:0.64965 2:-0.224413 
1 1:1 2:0.727633 
1 1:0.64965 2:-0.224413 
1 1:1 2:0.727633 
1 1:0.64965 2:-0.224413 
1 1:1 2:0.727633 
1 1:0.64965 2:-0.224413 
1 1:1 2:0.727633 
1 1:0.64965 2:-0.224413 
1 1:1 2:0.727633 
1 1:0.64965 2:-0.224413 
1 1:1 2:0.727633 
1 1:0.64965 2:-0.224413 
1 1:1 2:0.727633 
1 1:0.64965 2:-0.224413 
1 1:1 2:0.727633 
1 1:0.64965 2:-0.224413 
1 1:1 2:0.727633 
1 1:0.64965 2:-0.224413 
1 1:1 2:0.727633 
1 1:0.64965 2:-0.224413 
1 1:1 2:0.727633 
1 1:0.64965 2:-0.224413 
1 1:1 2:0.727633 
1 1:0.64965 2:-0.224413 
1 1:1 2:0.727633 
1 1:0.64965 2:-0.224413 
1 1:1 2:0.727633 
1 1:0.64965 2:-0.224413 
1 1:1 2:0.727633 
1 1:0.64965 2:-0.224413 
1 1:1 2:0.727633 
1 1:0.64965 2:-0.224413 
1 1:1 2:0.727633 
1 1:0.64965 2:-0.224413 
1 1:1 2:0.727633 
1 1:0.64965 2:-0.224413 
1 1:0.393111 2:-0.537634 
1 1:0.393111 2:-0.537634 
1 1:0.393111 2:-0.537634 
1 1:0.393111 2:-0.537634 
1 1:0.393111 2:-0.537634 
1 1:0.393111 2:-0.537634 
1 1:0.393111 2:-0.537634 
1 1:0.393111 2:-0.537634 
1 1:0.393111 2:-0.537634 
1 1:0.393111 2:-0.537634 
1 1:0.393111 2:-0.537634 
1 1:0.393111 2:-0.537634 
1 1:0.393111 2:-0.537634 
1 1:0.393111 2:-0.537634 
1 1:0.393111 2:-0.537634 
1 1:0.393111 2:-0.537634 
1 1:0.393111 2:-0.537634 
1 1:0.393111 2:-0.537634 
1 1:0.393111 2:-0.537634 
1 1:0.393111 2:-0.537634 
1 1:0.393111 2:-0.537634 
1 1:0.393111 2:-0.537634 
1 1:0.393111 2:-0.537634 
1 1:0.393111 2:-0.537634 
1 1:0.393111 2:-0.537634 
1 1:0.393111 2:-0.537634 
1 1:0.393111 2:-0.537634 
1 1:0.393111 2:-0.537634 
1 1:0.393111 2:-0.537634 
1 1:0.393111 2:-0.537634 
1 1:0.393111 2:-0.537634 
1 1:0.393111 2:-0.537634 
1 1:0.393111 2:-0.537634 
1 1:0.393111 2:-0.537634 
1 1:0.393111 2:-0.537634 
1 1:0.393111 2:-0.537634 
1 1:0.393111 2:-0.537634 
1 1:0.393111 2:-0.537634 
1 1:0.393111 2:-0.537634 
1 1:0.393111 2:-0.537634 
1 1:0.393111 2:-0.537634 
1 1:0.393111 2:-0.537634 
1 1:0.393111 2:-0.537634 
1 1:0.393111 2:-0.537634 
1 1:0.393111 2:-0.537634 
1 1:0.393111 2:-0.537634 
1 1:0.393111 2:-0.537634 
1 1:0.393111 2:-0.537634 
1 1:0.393111 2:-0.537634 
1 1:0.393111 2:-0.537634 
1 1:0.393111 2:-0.537634 
1 1:0.393111 2:-0.537634 
1 1:0.393111 2:-0.537634 
1 1:0.393111 2:-0.537634 
1 1:0.393111 2:-0.537634 
1 1:0.393111 2:-0.537634 
1 1:0.393111 2:-0.537634 
1 1:0.393111 2:-0.537634 
1 1:0.393111 2:-0.537634 
1 1:0.393111 2:-0.537634 
1 1:0.393111 2:-0.537634 
1 1:0.393111 2:-0.537634 
1 1:0.393111 2:-0.537634 
1 1:0.393111 2:-0.537634 
1 1:0.393111 2:-0.537634 
1 1:0.393111 2:-0.537634 
1 1:0.393111 2:-0.537634 
1 1:0.393111 2:-0.537634 
1 1:0.393111 2:-0.537634 
1 1:0.393111 2:-0.537634 
1 1:0.393111 2:-0.537634 
1 1:0.393111 2:-0.537634 
1 1:0.393111 2:-0.537634 
1 1:0.393111 2:-0.537634 
1 1:0.393111 2:-0.537634 
1 1:0.393111 2:-0.537634 
1 1:0.393111 2:-0.537634 
1 1:0.393111 2:-0.537634 
1 1:0.393111 2:-0.537634 
1 1:0.393111 2:-0.537634 
1 1:0.393111 2:-0.537634 
1 1:0.393111 2:-0.537634 
1 1:0.393111 2:-0.537634 
1 1:0.393111 2:-0.537634 
1 1:0.393111 2:-0.537634 
1 1:0.393111 2:-0.537634 
1 1:0.393111 2:-0.537634 
1 1:0.393111 2:-0.537634 
1 1:0.393111 2:-0.537634 
1 1:0.393111 2:-0.537634 
1 1:0.393111 2:-0.537634 
1 1:0.393111 2:-0.537634 
1 1:-0.348179 2:0.346798 
1 1:-0.31901 2:0.335669 
1 1:-0.348179 2:0.346798 
1 1:-0.31901 2:0.335669 
1 1:-0.348179 2:0.346798 
1 1:-0.31901 2:0.335669 
1 1:-0.348179 2:0.346798 
1 1:-0.31901 2:0.335669 
1 1:-0.348179 2:0.346798 
1 1:-0.31901 2:0.335669 
1 1:-0.348179 2:0.346798 
1 1:-0.31901 2:0.335669 
1 1:-0.348179 2:0.346798 
1 1:-0.31901 2:0.335669 
1 1:-0.348179 2:0.346798 
1 1:-0.31901 2:0.335669 
1 1:-0.348179 2:0.346798 
1 1:-0.31901 2:0.335669 
1 1:-0.348179 2:0.346798 
1 1:-0.31901 2:0.335669 
1 1:-0.348179 2:0.346798 
1 1:-0.31901 2:0.335669 
1 1:-0.348179 2:0.346798 
1 1:-0.31901 2:0.335669 
1 1:-0.348179 2:0.346798 
1 1:-0.31901 2:0.335669 
1 1:-0.348179 2:0.346798 
1 1:-0.31901 2:0.335669 
1 1:-0.348179 2:0.346798 
1 1:-0.31901 2:0.335669 
1 1:-0.348179 2:0.346798 
1 1:-0.31901 2:0.335669 
1 1:-0.348179 2:0.346798 
1 1:-0.31901 2:0.335669 
1 1:-0.348179 2:0.346798 
1 1:-0.31901 2:0.335669 
1 1:-0.348179 2:0.346798 
1 1:-0.31901 2:0.335669 
1 1:-0.348179 2:0.346798 
1 1:-0.31901 2:0.335669 
1 1:-0.348179 2:0.346798 
1 1:-0.31901 2:0.335669 
1 1:-0.348179 2:0.346798 
1 1:-0.31901 2:0.335669 
1 1:-0.348179 2:0.346798 
1 1:-0.31901 2:0.335669 
1 1:-0.348179 2:0.346798 
1 1:-0.31901 2:0.335669 
1 1:-0.348179 2:0.346798 
1 1:-0.31901 2:0.335669 
1 1:-0.348179 2:0.346798 
1 1:-0.31901 2:0.335669 
1 1:-0.348179 2:0.346798 
1 1:-0.31901 2:0.335669 
1 1:-0.348179 2:0.346798 
1 1:-0.31901 2:0.335669 
1 1:-0.348179 2:0.346798 
1 1:-0.31901 2:0.335669 
1 1:-0.348179 2:0.346798 
1 1:-0.31901 2:0.335669 
1 1:-0.348179 2:0.346798 
1 1:-0.31901 2:0.335669 
1 1:-0.348179 2:0.346798 
1 1:-0.31901 2:0.335669 
1 1:-0.348179 2:0.346798 
1 1:-0.31901 2:0.335669 
1 1:-0.348179 2:0.346798 
1 1:-0.31901 2:0.335669 
1 1:-0.348179 2:0.346798 
1 1:-0.31901 2:0.335669 
1 1:-0.348179 2:0.346798 
1 1:-0.31901 2:0.335669 
1 1:-0.348179 2:0.346798 
1 1:-0.31901 2:0.335669 
1 1:-0.348179 2:0.346798 
1 1:-0.31901 2:0.335669 
1 1:-0.348179 2:0.346798 
1 1:-0.31901 2:0.335669 
1 1:-0.348179 2:0.346798 
1 1:-0.31901 2:0.335669 
1 1:-0.348179 2:0.346798 
1 1:-0.31901 2:0.335669 
1 1:-0.348179 2:0.346798 
1 1:-0.31901 2:0.335669 
1 1:-0.348179 2:0.346798 
1 1:-0.31901 2:0.335669 
1 1:-0.348179 2:0.346798 
1 1:-0.31901 2:0.335669 
1 1:-0.348179 2:0.346798 
1 1:-0.31901 2:0.335669 
1 1:-0.348179 2:0.346798 
1 1:-0.31901 2:0.335669 
1 1:-0.348179 2:0.346798 
1 1:-0.31901 2:0.335669 
1 1:-0.348179 2:0.346798 
1 1:-0.31901 2:0.335669 
1 1:-0.348179 2:0.346798 
1 1:-0.31901 2:0.335669 
1 1:-0.348179 2:0.346798 
1 1:-0.31901 2:0.335669 
1 1:-0.348179 2:0.346798 
1 1:-0.31901 2:0.335669 
1 1:-0.348179 2:0.346798 
1 1:-0.31901 2:0.335669 
1 1:-0.348179 2:0.346798 
1 1:-0.31901 2:0.335669 
1 1:-0.348179 2:0.346798 
1 1:-0.31901 2:0.335669 
1 1:-0.348179 2:0.346798 
1 1:-0.31901 2:0.335669 
1 1:-0.348179 2:0.346798 
1 1:-0.31901 2:0.335669 
1 1:-0.348179 2:0.346798 
1 1:-0.31901 2:0.335669 
1 1:-0.348179 2:0.346798 
1 1:-0.31901 2:0.335669 
1 1:-0.348179 2:0.346798 
1 1:-0.31901 2:0.335669 
1 1:-0.348179 2:0.346798 
1 1:-0.31901 2:0.335669 
1 1:-0.348179 2:0.346798 
1 1:-0.31901 2:0.335669 
1 1:-0.348179 2:0.346798 
1 1:-0.31901 2:0.335669 
1 1:-0.348179 2:0.346798 
1 1:-0.31901 2:0.335669 
1 1:-0.348179 2:0.346798 
1 1:-0.31901 2:0.335669 
1 1:-0.348179 2:0.346798 
1 1:-0.31901 2:0.335669 
1 1:-0.348179 2:0.346798 
1 1:-0.31901 2:0.335669 
1 1:-0.348179 2:0.346798 
1 1:-0.31901 2:0.335669 
1 1:-0.348179 2:0.346798 
1 1:-0.31901 2:0.335669 
1 1:-0.348179 2:0.346798 
1 1:-0.31901 2:0.335669 
1 1:-0.348179 2:0.346798 
1 1:-0.31901 2:0.335669 
1 1:-0.348179 2:0.346798 
1 1:-0.31901 2:0.335669 
1 1:-0.348179 2:0.346798 
1 1:-0.31901 2:0.335669 
1 1:-0.348179 2:0.346798 
1 1:-0.31901 2:0.335669 
1 1:-0.348179 2:0.346798 
1 1:-0.31901 2:0.335669 
1 1:-0.348179 2:0.346798 
1 1:-0.31901 2:0.335669 
1 1:-0.348179 2:0.346798 
1 1:-0.31901 2:0.335669 
1 1:-0.348179 2:0.346798 
1 1:-0.31901 2:0.335669 
1 1:-0.348179 2:0.346798 
1 1:-0.31901 2:0.335669 
1 1:-0.348179 2:0.346798 
1 1:-0.31901 2:0.335669 
1 1:-0.348179 2:0.346798 
1 1:-0.31901 2:0.335669 
1 1:-0.348179 2:0.346798 
1 1:-0.31901 2:0.335669 
1 1:-0.348179 2:0.346798 
1 1:-0.31901 2:0.335669 
1 1:-0.348179 2:0.346798 
1 1:-0.31901 2:0.335669 
1 1:-0.348179 2:0.346798 
1 1:-0.31901 2:0.335669 
1 1:-0.348179 2:0.346798 
1 1:-0.31901 2:0.335669 
1 1:-0.348179 2:0.346798 
1 1:-0.31901 2:0.335669 
1 1:-0.348179 2:0.346798 
1 1:-0.31901 2:0.335669 
1 1:-0.348179 2:0.346798 
1 1:-0.31901 2:0.335669 
1 1:-0.348179 2:0.346798 
1 1:-0.31901 2:0.335669 
1 1:-0.348179 2:0.346798 
1 1:-0.31901 2:0.335669 
1 1:-0.348179 2:0.346798 
1 1:-0.31901 2:0.335669 
1 1:-0.348179 2:0.346798 
1 1:-0.31901 2:0.335669 
1 1:-0.348179 2:0.346798 
1 1:-0.31901 2:0.335669 
1 1:-0.314434 2:0.153836 
1 1:-0.300489 2:0.750427 
1 1:-0.314434 2:0.153836 
1 1:-0.300489 2:0.750427 
1 1:-0.314434 2:0.153836 
1 1:-0.300489 2:0.750427 
1 1:-0.314434 2:0.153836 
1 1:-0.300489 2:0.750427 
1 1:-0.314434 2:0.153836 
1 1:-0.300489 2:0.750427 
1 1:-0.314434 2:0.153836 
1 1:-0.300489 2:0.750427 
1 1:-0.314434 2:0.153836 
1 1:-0.300489 2:0.750427 
1 1:-0.314434 2:0.153836 
1 1:-0.300489 2:0.750427 
1 1:-0.314434 2:0.153836 
1 1:-0.300489 2:0.750427 
1 1:-0.314434 2:0.153836 
1 1:-0.300489 2:0.750427 
1 1:-0.314434 2:0.153836 
1 1:-0.300489 2:0.750427 
1 1:-0.314434 2:0.153836 
1 1:-0.300489 2:0.750427 
1 1:-0.314434 2:0.153836 
1 1:-0.300489 2:0.750427 
1 1:-0.314434 2:0.153836 
1 1:-0.300489 2:0.750427 
1 1:-0.314434 2:0.153836 
1 1:-0.300489 2:0.750427 
1 1:-0.314434 2:0.153836 
1 1:-0.300489 2:0.750427 
1 1:-0.314434 2:0.153836 
1 1:-0.300489 2:0.750427 
1 1:-0.314434 2:0.153836 
1 1:-0.300489 2:0.750427 
1 1:-0.314434 2:0.153836 
1 1:-0.300489 2:0.750427 
1 1:-0.314434 2:0.153836 
1 1:-0.300489 2:0.750427 
1 1:-0.314434 2:0.153836 
1 1:-0.300489 2:0.750427 
1 1:-0.314434 2:0.153836 
1 1:-0.300489 2:0.750427 
1 1:-0.314434 2:0.153836 
1 1:-0.300489 2:0.750427 
1 1:-0.314434 2:0.153836 
1 1:-0.300489 2:0.750427 
1 1:-0.314434 2:0.153836 
1 1:-0.300489 2:0.750427 
1 1:-0.314434 2:0.153836 
1 1:-0.300489 2:0.750427 
1 1:-0.314434 2:0.153836 
1 1:-0.300489 2:0.750427 
1 1:-0.314434 2:0.153836 
1 1:-0.300489 2:0.750427 
1 1:-0.314434 2:0.153836 
1 1:-0.300489 2:0.750427 
1 1:-0.314434 2:0.153836 
1 1:-0.300489 2:0.750427 
1 1:-0.314434 2:0.153836 
1 1:-0.300489 2:0.750427 
1 1:-0.314434 2:0.153836 
1 1:-0.300489 2:0.750427 
1 1:-0.314434 2:0.153836 
1 1:-0.300489 2:0.750427 
1 1:-0.314434 2:0.153836 
1 1:-0.300489 2:0.750427 
1 1:-0.314434 2:0.153836 
1 1:-0.300489 2:0.750427 
1 1:-0.314434 2:0.153836 
1 1:-0.300489 2:0.750427 
1 1:-0.314434 2:0.153836 
1 1:-0.300489 2:0.750427 
1 1:-0.314434 2:0.153836 
1 1:-0.300489 2:0.750427 
1 1:-0.314434 2:0.153836 
1 1:-0.300489 2:0.750427 
1 1:-0.314434 2:0.153836 
1 1:-0.300489 2:0.750427 
1 1:-0.314434 2:0.153836 
1 1:-0.300489 2:0.750427 
1 1:-0.314434 2:0.153836 
1 1:-0.300489 2:0.750427 
1 1:-0.314434 2:0.153836 
1 1:-0.300489 2:0.750427 
1 1:-0.314434 2:0.153836 
1 1:-0.300489 2:0.750427 
1 1:-0.314434 2:0.153836 
1 1:-0.300489 2:0.750427 
1 1:-0.314434 2:0.153836 
1 1:-0.300489 2:0.750427 
1 1:-0.314434 2:0.153836 
1 1:-0.300489 2:0.750427 
1 1:-0.314434 2:0.153836 
1 1:-0.300489 2:0.750427 
1 1:-0.314434 2:0.153836 
1 1:-0.300489 2:0.750427 
1 1:-0.314434 2:0.153836 
1 1:-0.300489 2:0.750427 
1 1:-0.314434 2:0.153836 
1 1:-0.300489 2:0.750427 
1 1:-0.314434 2:0.153836 
1 1:-0.300489 2:0.750427 
1 1:-0.314434 2:0.153836 
1 1:-0.300489 2:0.750427 
1 1:-0.314434 2:0.153836 
1 1:-0.300489 2:0.750427 
1 1:-0.314434 2:0.153836 
1 1:-0.300489 2:0.750427 
1 1:-0.314434 2:0.153836 
1 1:-0.300489 2:0.750427 
1 1:-0.314434 2:0.153836 
1 1:-0.300489 2:0.750427 
1 1:-0.314434 2:0.153836 
1 1:-0.300489 2:0.750427 
1 1:-0.314434 2:0.153836 
1 1:-0.300489 2:0.750427 
1 1:-0.314434 2:0.153836 
1 1:-0.300489 2:0.750427 
1 1:-0.314434 2:0.153836 
1 1:-0.300489 2:0.750427 
1 1:-0.314434 2:0.153836 
1 1:-0.300489 2:0.750427 
1 1:-0.314434 2:0.153836 
1 1:-0.300489 2:0.750427 
1 1:-0.314434 2:0.153836 
1 1:-0.300489 2:0.750427 
1 1:-0.314434 2:0.153836 
1 1:-0.300489 2:0.750427 
1 1:-0.314434 2:0.153836 
1 1:-0.300489 2:0.750427 
1 1:-0.314434 2:0.153836 
1 1:-0.300489 2:0.750427 
1 1:-0.314434 2:0.153836 
1 1:-0.300489 2:0.750427 
1 1:-0.314434 2:0.153836 
1 1:-0.300489 2:0.750427 
1 1:-0.314434 2:0.153836 
1 1:-0.300489 2:0.750427 
1 1:-0.314434 2:0.153836 
1 1:-0.300489 2:0.750427 
1 1:-0.314434 2:0.153836 
1 1:-0.300489 2:0.750427 
1 1:-0.314434 2:0.153836 
1 1:-0.300489 2:0.750427 
1 1:-0.314434 2:0.153836 
1 1:-0.300489 2:0.750427 
1 1:-0.314434 2:0.153836 
1 1:-0.300489 2:0.750427 
1 1:-0.314434 2:0.153836 
1 1:-0.300489 2:0.750427 
1 1:-0.314434 2:0.153836 
1 1:-0.300489 2:0.750427 
1 1:-0.314434 2:0.153836 
1 1:-0.300489 2:0.750427 
1 1:-0.314434 2:0.153836 
1 1:-0.300489 2:0.750427 
1 1:-0.314434 2:0.153836 
1 1:-0.300489 2:0.750427 
1 1:-0.314434 2:0.153836 
1 1:-0.300489 2:0.750427 
1 1:-0.314434 2:0.153836 
1 1:-0.300489 2:0.750427 
1 1:-0.314434 2:0.153836 
1 1:-0.300489 2:0.750427 
1 1:-0.314434 2:0.153836 
1 1:-0.300489 2:0.750427 
1 1:-0.314434 2:0.153836 
1 1:-0.300489 2:0.750427 
1 1:-0.314434 2:0.153836 
1 1:-0.300489 2:0.750427 
1 1:-0.909436 2:-0.973115 
1 1:-0.909436 2:-0.973115 
1 1:-0.909436 2:-0.973115 
1 1:-0.909436 2:-0.973115 
1 1:-0.909436 2:-0.973115 
1 1:-0.909436 2:-0.973115 
1 1:-0.909436 2:-0.973115 
1 1:-0.909436 2:-0.973115 
1 1:-0.909436 2:-0.973115 
1 1:-0.909436 2:-0.973115 
1 1:-0.909436 2:-0.973115 
1 1:-0.909436 2:-0.973115 
1 1:-0.909436 2:-0.973115 
1 1:-0.909436 2:-0.973115 
1 1:-0.909436 2:-0.973115 
1 1:-0.909436 2:-0.973115 
1 1:-0.909436 2:-0.973115 
1 1:-0.909436 2:-0.973115 
1 1:-0.909436 2:-0.973115 
1 1:-0.909436 2:-0.973115 
1 1:-0.909436 2:-0.973115 
1 1:-0.909436 2:-0.973115 
1 1:-0.909436 2:-0.973115 
1 1:-0.909436 2:-0.973115 
1 1:-0.909436 2:-0.973115 
1 1:-0.909436 2:-0.973115 
1 1:-0.909436 2:-0.973115 
1 1:-0.909436 2:-0.973115 
1 1:-0.909436 2:-0.973115 
1 1:-0.909436 2:-0.973115 
1 1:-0.909436 2:-0.973115 
1 1:-0.909436 2:-0.973115 
1 1:-0.909436 2:-0.973115 
1 1:-0.909436 2:-0.973115 
1 1:-0.909436 2:-0.973115 
1 1:-0.909436 2:-0.973115 
1 1:-0.909436 2:-0.973115 
1 1:-0.909436 2:-0.973115 
1 1:-0.909436 2:-0.973115 
1 1:-0.909436 2:-0.973115 
1 1:-0.909436 2:-0.973115 
1 1:-0.909436 2:-0.973115 
1 1:-0.909436 2:-0.973115 
1 1:-0.909436 2:-0.973115 
1 1:-0.909436 2:-0.973115 
1 1:-0.909436 2:-0.973115 
1 1:-0.909436 2:-0.973115 
1 1:-0.909436 2:-0.973115 
1 1:-0.909436 2:-0.973115 
1 1:-0.909436 2:-0.973115 
1 1:-0.909436 2:-0.973115 
1 1:-0.909436 2:-0.973115 
1 1:-0.909436 2:-0.973115 
1 1:-0.909436 2:-0.973115 
1 1:-0.909436 2:-0.973115 
1 1:-0.909436 2:-0.973115 
1 1:-0.909436 2:-0.973115 
1 1:-0.909436 2:-0.973115 
1 1:-0.909436 2:-0.973115 
1 1:-0.909436 2:-0.973115 
1 1:-0.909436 2:-0.973115 
1 1:-0.909436 2:-0.973115 
1 1:-0.909436 2:-0.973115 
1 1:-0.909436 2:-0.973115 
1 1:-0.909436 2:-0.973115 
1 1:-0.909436 2:-0.973115 
1 1:-0.909436 2:-0.973115 
1 1:-0.909436 2:-0.973115 
1 1:-0.909436 2:-0.973115 
1 1:-0.909436 2:-0.973115 
1 1:-0.909436 2:-0.973115 
1 1:-0.909436 2:-0.973115 
1 1:-0.909436 2:-0.973115 
1 1:-0.909436 2:-0.973115 
1 1:-0.909436 2:-0.973115 
1 1:-0.909436 2:-0.973115 
1 1:-0.909436 2:-0.973115 
1 1:-0.909436 2:-0.973115 
1 1:-0.909436 2:-0.973115 
1 1:-0.909436 2:-0.973115 
1 1:-0.909436 2:-0.973115 
1 1:-0.909436 2:-0.973115 
1 1:-0.909436 2:-0.973115 
1 1:-0.909436 2:-0.973115 
1 1:-0.909436 2:-0.973115 
1 1:-0.909436 2:-0.973115 
1 1:-0.909436 2:-0.973115 
1 1:-0.909436 2:-0.973115 
1 1:-0.909436 2:-0.973115 
1 1:-0.909436 2:-0.973115 
1 1:-0.909436 2:-0.973115 
1 1:-0.909436 2:-0.973115 
1 1:-0.930875 2:-0.952243 
1 1:-0.930875 2:-0.952243 
1 1:-0.930875 2:-0.952243 
1 1:-0.930875 2:-0.952243 
1 1:-0.930875 2:-0.952243 
1 1:-0.930875 2:-0.952243 
1 1:-0.930875 2:-0.952243 
1 1:-0.930875 2:-0.952243 
1 1:-0.930875 2:-0.952243 
1 1:-0.930875 2:-0.952243 
1 1:-0.930875 2:-0.952243 
1 1:-0.930875 2:-0.952243 
1 1:-0.930875 2:-0.952243 
1 1:-0.930875 2:-0.952243 
1 1:-0.930875 2:-0.952243 
1 1:-0.930875 2:-0.952243 
1 1:-0.930875 2:-0.952243 
1 1:-0.930875 2:-0.952243 
1 1:-0.930875 2:-0.952243 
1 1:-0.930875 2:-0.952243 
1 1:-0.930875 2:-0.952243 
1 1:-0.930875 2:-0.952243 
1 1:-0.930875 2:-0.952243 
1 1:-0.930875 2:-0.952243 
1 1:-0.930875 2:-0.952243 
1 1:-0.930875 2:-0.952243 
1 1:-0.930875 2:-0.952243 
1 1:-0.930875 2:-0.952243 
1 1:-0.930875 2:-0.952243 
1 1:-0.930875 2:-0.952243 
1 1:-0.930875 2:-0.952243 
1 1:-0.930875 2:-0.952243 
1 1:-0.930875 2:-0.952243 
1 1:-0.930875 2:-0.952243 
1 1:-0.930875 2:-0.952243 
1 1:-0.930875 2:-0.952243 
1 1:-0.930875 2:-0.952243 
1 1:-0.930875 2:-0.952243 
1 1:-0.930875 2:-0.952243 
1 1:-0.930875 2:-0.952243 
1 1:-0.930875 2:-0.952243 
1 1:-0.930875 2:-0.952243 
1 1:-0.930875 2:-0.952243 
1 1:-0.930875 2:-0.952243 
1 1:-0.930875 2:-0.952243 
1 1:-0.930875 2:-0.952243 
1 1:-0.930875 2:-0.952243 
1 1:-0.930875 2:-0.952243 
1 1:-0.930875 2:-0.952243 
1 1:-0.930875 2:-0.952243 
1 1:-0.930875 2:-0.952243 
1 1:-0.930875 2:-0.952243 
1 1:-0.930875 2:-0.952243 
1 1:-0.930875 2:-0.952243 
1 1:-0.930875 2:-0.952243 
1 1:-0.930875 2:-0.952243 
1 1:-0.930875 2:-0.952243 
1 1:-0.930875 2:-0.952243 
1 1:-0.930875 2:-0.952243 
1 1:-0.930875 2:-0.952243 
1 1:-0.930875 2:-0.952243 
1 1:-0.930875 2:-0.952243 
1 1:-0.930875 2:-0.952243 
1 1:-0.930875 2:-0.952243 
1 1:-0.930875 2:-0.952243 
1 1:-0.930875 2:-0.952243 
1 1:-0.930875 2:-0.952243 
1 1:-0.930875 2:-0.952243 
1 1:-0.930875 2:-0.952243 
1 1:-0.930875 2:-0.952243 
1 1:-0.930875 2:-0.952243 
1 1:-0.930875 2:-0.952243 
1 1:-0.930875 2:-0.952243 
1 1:-0.930875 2:-0.952243 
1 1:-0.930875 2:-0.952243 
1 1:-0.930875 2:-0.952243 
1 1:-0.930875 2:-0.952243 
1 1:-0.930875 2:-0.952243 
1 1:-0.930875 2:-0.952243 
1 1:-0.930875 2:-0.952243 
1 1:-0.930875 2:-0.952243 
1 1:-0.930875 2:-0.952243 
1 1:-0.930875 2:-0.952243 
1 1:-0.930875 2:-0.952243 
1 1:-0.930875 2:-0.952243 
1 1:-0.930875 2:-0.952243 
1 1:-0.930875 2:-0.952243 
1 1:-0.930875 2:-0.952243 
1 1:-0.930875 2:-0.952243 
1 1:-0.930875 2:-0.952243 
1 1:-0.930875 2:-0.952243 
1 1:-0.930875 2:-0.952243 
1 1:-0.930875 2:-0.952243 
1 1:-0.930875 2:-0.952243 
1 1:-0.930875 2:-0.952243 
1 1:-0.930875 2:-0.952243 
1 1:-0.930875 2:-0.952243 
1 1:-0.953854 2:-0.922547 
1 1:-0.953854 2:-0.922547 
1 1:-0.953854 2:-0.922547 
1 1:-0.953854 2:-0.922547 
1 1:-0.953854 2:-0.922547 
1 1:-0.953854 2:-0.922547 
1 1:-0.953854 2:-0.922547 
1 1:-0.953854 2:-0.922547 
1 1:-0.953854 2:-0.922547 
1 1:-0.953854 2:-0.922547 
1 1:-0.953854 2:-0.922547 
1 1:-0.953854 2:-0.922547 
1 1:-0.953854 2:-0.922547 
1 1:-0.953854 2:-0.922547 
1 1:-0.953854 2:-0.922547 
1 1:-0.953854 2:-0.922547 
1 1:-0.953854 2:-0.922547 
1 1:-0.953854 2:-0.922547 
1 1:-0.953854 2:-0.922547 
1 1:-0.953854 2:-0.922547 
1 1:-0.953854 2:-0.922547 
1 1:-0.953854 2:-0.922547 
1 1:-0.953854 2:-0.922547 
1 1:-0.953854 2:-0.922547 
1 1:-0.953854 2:-0.922547 
1 1:-0.953854 2:-0.922547 
1 1:-0.953854 2:-0.922547 
1 1:-0.953854 2:-0.922547 
1 1:-0.953854 2:-0.922547 
1 1:-0.953854 2:-0.922547 
1 1:-0.953854 2:-0.922547 
1 1:-0.953854 2:-0.922547 
1 1:-0.953854 2:-0.922547 
1 1:-0.953854 2:-0.922547 
1 1:-0.953854 2:-0.922547 
1 1:-0.953854 2:-0.922547 
1 1:-0.953854 2:-0.922547 
1 1:-0.953854 2:-0.922547 
1 1:-0.953854 2:-0.922547 
1 1:-0.953854 2:-0.922547 
1 1:-0.953854 2:-0.922547 
1 1:-0.953854 2:-0.922547 
1 1:-0.953854 2:-0.922547 
1 1:-0.953854 2:-0.922547 
1 1:-0.953854 2:-0.922547 
1 1:-0.953854 2:-0.922547 
1 1:-0.953854 2:-0.922547 
1 1:-0.953854 2:-0.922547 
1 1:-0.953854 2:-0.922547 
1 1:-0.953854 2:-0.922547 
1 1:-0.953854 2:-0.922547 
1 1:-0.953854 2:-0.922547 
1 1:-0.953854 2:-0.922547 
1 1:-0.953854 2:-0.922547 
1 1:-0.953854 2:-0.922547 
1 1:-0.953854 2:-0.922547 
1 1:-0.953854 2:-0.922547 
1 1:-0.953854 2:-0.922547 
1 1:-0.953854 2:-0.922547 
1 1:-0.953854 2:-0.922547 
1 1:-0.953854 2:-0.922547 
1 1:-0.953854 2:-0.922547 
1 1:-0.953854 2:-0.922547 
1 1:-0.953854 2:-0.922547 
1 1:-0.953854 2:-0.922547 
1 1:-0.953854 2:-0.922547 
1 1:-0.953854 2:-0.922547 
1 1:-0.953854 2:-0.922547 
1 1:-0.953854 2:-0.922547 
1 1:-0.953854 2:-0.922547 
1 1:-0.953854 2:-0.922547 
1 1:-0.953854 2:-0.922547 
1 1:-0.953854 2:-0.922547 
1 1:-0.953854 2:-0.922547 
1 1:-0.953854 2:-0.922547 
1 1:-0.953854 2:-0.922547 
1 1:-0.953854 2:-0.922547 
1 1:-0.953854 2:-0.922547 
1 1:-0.953854 2:-0.922547 
1 1:-0.953854 2:-0.922547 
1 1:-0.953854 2:-0.922547 
1 1:-0.953854 2:-0.922547 
1 1:-0.953854 2:-0.922547 
1 1:-0.953854 2:-0.922547 
1 1:-0.953854 2:-0.922547 
1 1:-0.953854 2:-0.922547 
1 1:-0.953854 2:-0.922547 
1 1:-0.953854 2:-0.922547 
1 1:-0.953854 2:-0.922547 
1 1:-0.953854 2:-0.922547 
1 1:-0.953854 2:-0.922547 
1 1:-0.953854 2:-0.922547 
1 1:-0.950982 2:-0.978115 
1 1:-0.950982 2:-0.978115 
1 1:-0.950982 2:-0.978115 
1 1:-0.950982 2:-0.978115 
1 1:-0.950982 2:-0.978115 
1 1:-0.950982 2:-0.978115 
1 1:-0.950982 2:-0.978115 
1 1:-0.950982 2:-0.978115 
1 1:-0.950982 2:-0.978115 
1 1:-0.950982 2:-0.978115 
1 1:-0.950982 2:-0.978115 
1 1:-0.950982 2:-0.978115 
1 1:-0.950982 2:-0.978115 
1 1:-0.950982 2:-0.978115 
1 1:-0.950982 2:-0.978115 
1 1:-0.950982 2:-0.978115 
1 1:-0.950982 2:-0.978115 
1 1:-0.950982 2:-0.978115 
1 1:-0.950982 2:-0.978115 
1 1:-0.950982 2:-0.978115 
1 1:-0.950982 2:-0.978115 
1 1:-0.950982 2:-0.978115 
1 1:-0.950982 2:-0.978115 
1 1:-0.950982 2:-0.978115 
1 1:-0.950982 2:-0.978115 
1 1:-0.950982 2:-0.978115 
1 1:-0.950982 2:-0.978115 
1 1:-0.950982 2:-0.978115 
1 1:-0.950982 2:-0.978115 
1 1:-0.950982 2:-0.978115 
1 1:-0.950982 2:-0.978115 
1 1:-0.950982 2:-0.978115 
1 1:-0.950982 2:-0.978115 
1 1:-0.950982 2:-0.978115 
1 1:-0.950982 2:-0.978115 
1 1:-0.950982 2:-0.978115 
1 1:-0.950982 2:-0.978115 
1 1:-0.950982 2:-0.978115 
1 1:-0.950982 2:-0.978115 
1 1:-0.950982 2:-0.978115 
1 1:-0.950982 2:-0.978115 
1 1:-0.950982 2:-0.978115 
1 1:-0.950982 2:-0.978115 
1 1:-0.950982 2:-0.978115 
1 1:-0.950982 2:-0.978115 
1 1:-0.950982 2:-0.978115 
1 1:-0.950982 2:-0.978115 
1 1:-0.950982 2:-0.978115 
1 1:-0.950982 2:-0.978115 
1 1:-0.950982 2:-0.978115 
1 1:-0.950982 2:-0.978115 
1 1:-0.950982 2:-0.978115 
1 1:-0.950982 2:-0.978115 
1 1:-0.950982 2:-0.978115 
1 1:-0.950982 2:-0.978115 
1 1:-0.950982 2:-0.978115 
1 1:-0.950982 2:-0.978115 
1 1:-0.950982 2:-0.978115 
1 1:-0.950982 2:-0.978115 
1 1:-0.950982 2:-0.978115 
1 1:-0.950982 2:-0.978115 
1 1:-0.950982 2:-0.978115 
1 1:-0.950982 2:-0.978115 
1 1:-0.950982 2:-0.978115 
1 1:-0.950982 2:-0.978115 
1 1:-0.950982 2:-0.978115 
1 1:-0.950982 2:-0.978115 
1 1:-0.950982 2:-0.978115 
1 1:-0.950982 2:-0.978115 
1 1:-0.950982 2:-0.978115 
1 1:-0.950982 2:-0.978115 
1 1:-0.950982 2:-0.978115 
1 1:-0.950982 2:-0.978115 
1 1:-0.950982 2:-0.978115 
1 1:-0.950982 2:-0.978115 
1 1:-0.950982 2:-0.978115 
1 1:-0.950982 2:-0.978115 
1 1:-0.950982 2:-0.978115 
1 1:-0.950982 2:-0.978115 
1 1:-0.950982 2:-0.978115 
1 1:-0.950982 2:-0.978115 
1 1:-0.950982 2:-0.978115 
1 1:-0.950982 2:-0.978115 
1 1:-0.950982 2:-0.978115 
1 1:-0.950982 2:-0.978115 
1 1:-0.950982 2:-0.978115 
1 1:-0.950982 2:-0.978115 
1 1:-0.950982 2:-0.978115 
1 1:-0.950982 2:-0.978115 
1 1:-0.950982 2:-0.978115 
1 1:-0.950982 2:-0.978115 
1 1:-0.950982 2:-0.978115 
1 1:-0.950982 2:-0.978115 
1 1:-0.950982 2:-0.978115 
1 1:-0.997187 2:-0.945521 
1 1:-0.997187 2:-0.945521 
1 1:-0.997187 2:-0.945521 
1 1:-0.997187 2:-0.945521 
1 1:-0.997187 2:-0.945521 
1 1:-0.997187 2:-0.945521 
1 1:-0.997187 2:-0.945521 
1 1:-0.997187 2:-0.945521 
1 1:-0.997187 2:-0.945521 
1 1:-0.997187 2:-0.945521 
1 1:-0.997187 2:-0.945521 
1 1:-0.997187 2:-0.945521 
1 1:-0.997187 2:-0.945521 
1 1:-0.997187 2:-0.945521 
1 1:-0.997187 2:-0.945521 
1 1:-0.997187 2:-0.945521 
1 1:-0.997187 2:-0.945521 
1 1:-0.997187 2:-0.945521 
1 1:-0.997187 2:-0.945521 
1 1:-0.997187 2:-0.945521 
1 1:-0.997187 2:-0.945521 
1 1:-0.997187 2:-0.945521 
1 1:-0.997187 2:-0.945521 
1 1:-0.997187 2:-0.945521 
1 1:-0.997187 2:-0.945521 
1 1:-0.997187 2:-0.945521 
1 1:-0.997187 2:-0.945521 
1 1:-0.997187 2:-0.945521 
1 1:-0.997187 2:-0.945521 
1 1:-0.997187 2:-0.945521 
1 1:-0.997187 2:-0.945521 
1 1:-0.997187 2:-0.945521 
1 1:-0.997187 2:-0.945521 
1 1:-0.997187 2:-0.945521 
1 1:-0.997187 2:-0.945521 
1 1:-0.997187 2:-0.945521 
1 1:-0.997187 2:-0.945521 
1 1:-0.997187 2:-0.945521 
1 1:-0.997187 2:-0.945521 
1 1:-0.997187 2:-0.945521 
1 1:-0.997187 2:-0.945521 
1 1:-0.997187 2:-0.945521 
1 1:-0.997187 2:-0.945521 
1 1:-0.997187 2:-0.945521 
1 1:-0.997187 2:-0.945521 
1 1:-0.997187 2:-0.945521 
1 1:-0.997187 2:-0.945521 
1 1:-0.997187 2:-0.945521 
1 1:-0.997187 2:-0.945521 
1 1:-0.997187 2:-0.945521 
1 1:-0.997187 2:-0.945521 
1 1:-0.997187 2:-0.945521 
1 1:-0.997187 2:-0.945521 
1 1:-0.997187 2:-0.945521 
1 1:-0.997187 2:-0.945521 
1 1:-0.997187 2:-0.945521 
1 1:-0.997187 2:-0.945521 
1 1:-0.997187 2:-0.945521 
1 1:-0.997187 2:-0.945521 
1 1:-0.997187 2:-0.945521 
1 1:-0.997187 2:-0.945521 
1 1:-0.997187 2:-0.945521 
1 1:-0.997187 2:-0.945521 
1 1:-0.997187 2:-0.945521 
1 1:-0.997187 2:-0.945521 
1 1:-0.997187 2:-0.945521 
1 1:-0.997187 2:-0.945521 
1 1:-0.997187 2:-0.945521 
1 1:-0.997187 2:-0.945521 
1 1:-0.997187 2:-0.945521 
1 1:-0.997187 2:-0.945521 
1 1:-0.997187 2:-0.945521 
1 1:-0.997187 2:-0.945521 
1 1:-0.997187 2:-0.945521 
1 1:-0.997187 2:-0.945521 
1 1:-0.997187 2:-0.945521 
1 1:-0.997187 2:-0.945521 
1 1:-0.997187 2:-0.945521 
1 1:-0.997187 2:-0.945521 
1 1:-0.997187 2:-0.945521 
1 1:-0.997187 2:-0.945521 
1 1:-0.997187 2:-0.945521 
1 1:-0.997187 2:-0.945521 
1 1:-0.997187 2:-0.945521 
1 1:-0.997187 2:-0.945521 
1 1:-0.997187 2:-0.945521 
1 1:-0.997187 2:-0.945521 
1 1:-0.997187 2:-0.945521 
1 1:-0.997187 2:-0.945521 
1 1:-0.997187 2:-0.945521 
1 1:-0.997187 2:-0.945521 
1 1:-0.997187 2:-0.945521 
1 1:-0.997187 2:-0.945521 
1 1:-0.997187 2:-0.945521 
1 1:-0.997187 2:-0.945521 
1 1:-0.997187 2:-0.945521 
1 1:-0.964199 2:-0.870953 
1 1:-0.964199 2:-0.870953 
1 1:-0.964199 2:-0.870953 
1 1:-0.964199 2:-0.870953 
1 1:-0.964199 2:-0.870953 
1 1:-0.964199 2:-0.870953 
1 1:-0.964199 2:-0.870953 
1 1:-0.964199 2:-0.870953 
1 1:-0.964199 2:-0.870953 
1 1:-0.964199 2:-0.870953 
1 1:-0.964199 2:-0.870953 
1 1:-0.964199 2:-0.870953 
1 1:-0.964199 2:-0.870953 
1 1:-0.964199 2:-0.870953 
1 1:-0.964199 2:-0.870953 
1 1:-0.964199 2:-0.870953 
1 1:-0.964199 2:-0.870953 
1 1:-0.964199 2:-0.870953 
1 1:-0.964199 2:-0.870953 
1 1:-0.964199 2:-0.870953 
1 1:-0.964199 2:-0.870953 
1 1:-0.964199 2:-0.870953 
1 1:-0.964199 2:-0.870953 
1 1:-0.964199 2:-0.870953 
1 1:-0.964199 2:-0.870953 
1 1:-0.964199 2:-0.870953 
1 1:-0.964199 2:-0.870953 
1 1:-0.964199 2:-0.870953 
1 1:-0.964199 2:-0.870953 
1 1:-0.964199 2:-0.870953 
1 1:-0.964199 2:-0.870953 
1 1:-0.964199 2:-0.870953 
1 1:-0.964199 2:-0.870953 
1 1:-0.964199 2:-0.870953 
1 1:-0.964199 2:-0.870953 
1 1:-0.964199 2:-0.870953 
1 1:-0.964199 2:-0.870953 
1 1:-0.964199 2:-0.870953 
1 1:-0.964199 2:-0.870953 
1 1:-0.964199 2:-0.870953 
1 1:-0.964199 2:-0.870953 
1 1:-0.964199 2:-0.870953 
1 1:-0.964199 2:-0.870953 
1 1:-0.964199 2:-0.870953 
1 1:-0.964199 2:-0.870953 
1 1:-0.964199 2:-0.870953 
1 1:-0.964199 2:-0.870953 
1 1:-0.964199 2:-0.870953 
1 1:-0.964199 2:-0.870953 
1 1:-0.964199 2:-0.870953 
1 1:-0.964199 2:-0.870953 
1 1:-0.964199 2:-0.870953 
1 1:-0.964199 2:-0.870953 
1 1:-0.964199 2:-0.870953 
1 1:-0.964199 2:-0.870953 
1 1:-0.964199 2:-0.870953 
1 1:-0.964199 2:-0.870953 
1 1:-0.964199 2:-0.870953 
1 1:-0.964199 2:-0.870953 
1 1:-0.964199 2:-0.870953 
1 1:-0.964199 2:-0.870953 
1 1:-0.964199 2:-0.870953 
1 1:-0.964199 2:-0.870953 
1 1:-0.964199 2:-0.870953 
1 1:-0.964199 2:-0.870953 
1 1:-0.964199 2:-0.870953 
1 1:-0.964199 2:-0.870953 
1 1:-0.964199 2:-0.870953 
1 1:-0.964199 2:-0.870953 
1 1:-0.964199 2:-0.870953 
1 1:-0.964199 2:-0.870953 
1 1:-0.964199 2:-0.870953 
1 1:-0.964199 2:-0.870953 
1 1:-0.964199 2:-0.870953 
1 1:-0.964199 2:-0.870953 
1 1:-0.964199 2:-0.870953 
1 1:-0.964199 2:-0.870953 
1 1:-0.964199 2:-0.870953 
1 1:-0.964199 2:-0.870953 
1 1:-0.964199 2:-0.870953 
1 1:-0.964199 2:-0.870953 
1 1:-0.964199 2:-0.870953 
1 1:-0.964199 2:-0.870953 
1 1:-0.964199 2:-0.870953 
1 1:-0.964199 2:-0.870953 
1 1:-0.964199 2:-0.870953 
1 1:-0.964199 2:-0.870953 
1 1:-0.964199 2:-0.870953 
1 1:-0.964199 2:-0.870953 
1 1:-0.964199 2:-0.870953 
1 1:-0.964199 2:-0.870953 
1 1:-0.964199 2:-0.870953 
1 1:-0.964199 2:-0.870953 
1 1:-0.964199 2:-0.870953 
1 1:-0.964199 2:-0.870953 
1 1:-0.964199 2:-0.870953 
1 1:-0.951729 2:-0.969549 
1 1:-0.951729 2:-0.969549 
1 1:-0.951729 2:-0.969549 
1 1:-0.951729 2:-0.969549 
1 1:-0.951729 2:-0.969549 
1 1:-0.951729 2:-0.969549 
1 1:-0.951729 2:-0.969549 
1 1:-0.951729 2:-0.969549 
1 1:-0.951729 2:-0.969549 
1 1:-0.951729 2:-0.969549 
1 1:-0.951729 2:-0.969549 
1 1:-0.951729 2:-0.969549 
1 1:-0.951729 2:-0.969549 
1 1:-0.951729 2:-0.969549 
1 1:-0.951729 2:-0.969549 
1 1:-0.951729 2:-0.969549 
1 1:-0.951729 2:-0.969549 
1 1:-0.951729 2:-0.969549 
1 1:-0.951729 2:-0.969549 
1 1:-0.951729 2:-0.969549 
1 1:-0.951729 2:-0.969549 
1 1:-0.951729 2:-0.969549 
1 1:-0.951729 2:-0.969549 
1 1:-0.951729 2:-0.969549 
1 1:-0.951729 2:-0.969549 
1 1:-0.951729 2:-0.969549 
1 1:-0.951729 2:-0.969549 
1 1:-0.951729 2:-0.969549 
1 1:-0.951729 2:-0.969549 
1 1:-0.951729 2:-0.969549 
1 1:-0.951729 2:-0.969549 
1 1:-0.951729 2:-0.969549 
1 1:-0.951729 2:-0.969549 
1 1:-0.951729 2:-0.969549 
1 1:-0.951729 2:-0.969549 
1 1:-0.951729 2:-0.969549 
1 1:-0.951729 2:-0.969549 
1 1:-0.951729 2:-0.969549 
1 1:-0.951729 2:-0.969549 
1 1:-0.951729 2:-0.969549 
1 1:-0.951729 2:-0.969549 
1 1:-0.951729 2:-0.969549 
1 1:-0.951729 2:-0.969549 
1 1:-0.951729 2:-0.969549 
1 1:-0.951729 2:-0.969549 
1 1:-0.951729 2:-0.969549 
1 1:-0.951729 2:-0.969549 
1 1:-0.951729 2:-0.969549 
1 1:-0.951729 2:-0.969549 
1 1:-0.951729 2:-0.969549 
1 1:-0.951729 2:-0.969549 
1 1:-0.951729 2:-0.969549 
1 1:-0.951729 2:-0.969549 
1 1:-0.951729 2:-0.969549 
1 1:-0.951729 2:-0.969549 
1 1:-0.951729 2:-0.969549 
1 1:-0.951729 2:-0.969549 
1 1:-0.951729 2:-0.969549 
1 1:-0.951729 2:-0.969549 
1 1:-0.951729 2:-0.969549 
1 1:-0.951729 2:-0.969549 
1 1:-0.951729 2:-0.969549 
1 1:-0.951729 2:-0.969549 
1 1:-0.951729 2:-0.969549 
1 1:-0.951729 2:-0.969549 
1 1:-0.951729 2:-0.969549 
1 1:-0.951729 2:-0.969549 
1 1:-0.951729 2:-0.969549 
1 1:-0.951729 2:-0.969549 
1 1:-0.951729 2:-0.969549 
1 1:-0.951729 2:-0.969549 
1 1:-0.951729 2:-0.969549 
1 1:-0.951729 2:-0.969549 
1 1:-0.951729 2:-0.969549 
1 1:-0.951729 2:-0.969549 
1 1:-0.951729 2:-0.969549 
1 1:-0.951729 2:-0.969549 
1 1:-0.951729 2:-0.969549 
1 1:-0.951729 2:-0.969549 
1 1:-0.951729 2:-0.969549 
1 1:-0.951729 2:-0.969549 
1 1:-0.951729 2:-0.969549 
1 1:-0.951729 2:-0.969549 
1 1:-0.951729 2:-0.969549 
1 1:-0.951729 2:-0.969549 
1 1:-0.951729 2:-0.969549 
1 1:-0.951729 2:-0.969549 
1 1:-0.951729 2:-0.969549 
1 1:-0.951729 2:-0.969549 
1 1:-0.951729 2:-0.969549 
1 1:-0.951729 2:-0.969549 
1 1:-0.951729 2:-0.969549 
1 1:-0.949639 2:-0.960267 
1 1:-0.949639 2:-0.960267 
1 1:-0.949639 2:-0.960267 
1 1:-0.949639 2:-0.960267 
1 1:-0.949639 2:-0.960267 
1 1:-0.949639 2:-0.960267 
1 1:-0.949639 2:-0.960267 
1 1:-0.949639 2:-0.960267 
1 1:-0.949639 2:-0.960267 
1 1:-0.949639 2:-0.960267 
1 1:-0.949639 2:-0.960267 
1 1:-0.949639 2:-0.960267 
1 1:-0.949639 2:-0.960267 
1 1:-0.949639 2:-0.960267 
1 1:-0.949639 2:-0.960267 
1 1:-0.949639 2:-0.960267 
1 1:-0.949639 2:-0.960267 
1 1:-0.949639 2:-0.960267 
1 1:-0.949639 2:-0.960267 
1 1:-0.949639 2:-0.960267 
1 1:-0.949639 2:-0.960267 
1 1:-0.949639 2:-0.960267 
1 1:-0.949639 2:-0.960267 
1 1:-0.949639 2:-0.960267 
1 1:-0.949639 2:-0.960267 
1 1:-0.949639 2:-0.960267 
1 1:-0.949639 2:-0.960267 
1 1:-0.949639 2:-0.960267 
1 1:-0.949639 2:-0.960267 
1 1:-0.949639 2:-0.960267 
1 1:-0.949639 2:-0.960267 
1 1:-0.949639 2:-0.960267 
1 1:-0.949639 2:-0.960267 
1 1:-0.949639 2:-0.960267 
1 1:-0.949639 2:-0.960267 
1 1:-0.949639 2:-0.960267 
1 1:-0.949639 2:-0.960267 
1 1:-0.949639 2:-0.960267 
1 1:-0.949639 2:-0.960267 
1 1:-0.949639 2:-0.960267 
1 1:-0.949639 2:-0.960267 
1 1:-0.949639 2:-0.960267 
1 1:-0.949639 2:-0.960267 
1 1:-0.949639 2:-0.960267 
1 1:-0.949639 2:-0.960267 
1 1:-0.949639 2:-0.960267 
1 1:-0.949639 2:-0.960267 
1 1:-0.949639 2:-0.960267 
1 1:-0.949639 2:-0.960267 
1 1:-0.949639 2:-0.960267 
1 1:-0.949639 2:-0.960267 
1 1:-0.949639 2:-0.960267 
1 1:-0.949639 2:-0.960267 
1 1:-0.949639 2:-0.960267 
1 1:-0.949639 2:-0.960267 
1 1:-0.949639 2:-0.960267 
1 1:-0.949639 2:-0.960267 
1 1:-0.949639 2:-0.960267 
1 1:-0.949639 2:-0.960267 
1 1:-0.949639 2:-0.960267 
1 1:-0.949639 2:-0.960267 
1 1:-0.949639 2:-0.960267 
1 1:-0.949639 2:-0.960267 
1 1:-0.949639 2:-0.960267 
1 1:-0.949639 2:-0.960267 
1 1:-0.949639 2:-0.960267 
1 1:-0.949639 2:-0.960267 
1 1:-0.949639 2:-0.960267 
1 1:-0.949639 2:-0.960267 
1 1:-0.949639 2:-0.960267 
1 1:-0.949639 2:-0.960267 
1 1:-0.949639 2:-0.960267 
1 1:-0.949639 2:-0.960267 
1 1:-0.949639 2:-0.960267 
1 1:-0.949639 2:-0.960267 
1 1:-0.949639 2:-0.960267 
1 1:-0.949639 2:-0.960267 
1 1:-0.949639 2:-0.960267 
1 1:-0.949639 2:-0.960267 
1 1:-0.949639 2:-0.960267 
1 1:-0.949639 2:-0.960267 
1 1:-0.949639 2:-0.960267 
1 1:-0.949639 2:-0.960267 
1 1:-0.949639 2:-0.960267 
1 1:-0.949639 2:-0.960267 
1 1:-0.949639 2:-0.960267 
1 1:-0.949639 2:-0.960267 
1 1:-0.949639 2:-0.960267 
1 1:-0.949639 2:-0.960267 
1 1:-0.949639 2:-0.960267 
1 1:-0.949639 2:-0.960267 
1 1:-0.949639 2:-0.960267 
1 1:-0.949639 2:-0.960267 
1 1:-0.949639 2:-0.960267 
1 1:-0.949639 2:-0.960267 
1 1:-0.969505 2:-0.919554 
1 1:-0.969505 2:-0.919554 
1 1:-0.969505 2:-0.919554 
1 1:-0.969505 2:-0.919554 
1 1:-0.969505 2:-0.919554 
1 1:-0.969505 2:-0.919554 
1 1:-0.969505 2:-0.919554 
1 1:-0.969505 2:-0.919554 
1 1:-0.969505 2:-0.919554 
1 1:-0.969505 2:-0.919554 
1 1:-0.969505 2:-0.919554 
1 1:-0.969505 2:-0.919554 
1 1:-0.969505 2:-0.919554 
1 1:-0.969505 2:-0.919554 
1 1:-0.969505 2:-0.919554 
1 1:-0.969505 2:-0.919554 
1 1:-0.969505 2:-0.919554 
1 1:-0.969505 2:-0.919554 
1 1:-0.969505 2:-0.919554 
1 1:-0.969505 2:-0.919554 
1 1:-0.969505 2:-0.919554 
1 1:-0.969505 2:-0.919554 
1 1:-0.969505 2:-0.919554 
1 1:-0.969505 2:-0.919554 
1 1:-0.969505 2:-0.919554 
1 1:-0.969505 2:-0.919554 
1 1:-0.969505 2:-0.919554 
1 1:-0.969505 2:-0.919554 
1 1:-0.969505 2:-0.919554 
1 1:-0.969505 2:-0.919554 
1 1:-0.969505 2:-0.919554 
1 1:-0.969505 2:-0.919554 
1 1:-0.969505 2:-0.919554 
1 1:-0.969505 2:-0.919554 
1 1:-0.969505 2:-0.919554 
1 1:-0.969505 2:-0.919554 
1 1:-0.969505 2:-0.919554 
1 1:-0.969505 2:-0.919554 
1 1:-0.969505 2:-0.919554 
1 1:-0.969505 2:-0.919554 
1 1:-0.969505 2:-0.919554 
1 1:-0.969505 2:-0.919554 
1 1:-0.969505 2:-0.919554 
1 1:-0.969505 2:-0.919554 
1 1:-0.969505 2:-0.919554 
1 1:-0.969505 2:-0.919554 
1 1:-0.969505 2:-0.919554 
1 1:-0.969505 2:-0.919554 
1 1:-0.969505 2:-0.919554 
1 1:-0.969505 2:-0.919554 
1 1:-0.969505 2:-0.919554 
1 1:-0.969505 2:-0.919554 
1 1:-0.969505 2:-0.919554 
1 1:-0.969505 2:-0.919554 
1 1:-0.969505 2:-0.919554 
1 1:-0.969505 2:-0.919554 
1 1:-0.969505 2:-0.919554 
1 1:-0.969505 2:-0.919554 
1 1:-0.969505 2:-0.919554 
1 1:-0.969505 2:-0.919554 
1 1:-0.969505 2:-0.919554 
1 1:-0.969505 2:-0.919554 
1 1:-0.969505 2:-0.919554 
1 1:-0.969505 2:-0.919554 
1 1:-0.969505 2:-0.919554 
1 1:-0.969505 2:-0.919554 
1 1:-0.969505 2:-0.919554 
1 1:-0.969505 2:-0.919554 
1 1:-0.969505 2:-0.919554 
1 1:-0.969505 2:-0.919554 
1 1:-0.969505 2:-0.919554 
1 1:-0.969505 2:-0.919554 
1 1:-0.969505 2:-0.919554 
1 1:-0.969505 2:-0.919554 
1 1:-0.969505 2:-0.919554 
1 1:-0.969505 2:-0.919554 
1 1:-0.969505 2:-0.919554 
1 1:-0.969505 2:-0.919554 
1 1:-0.969505 2:-0.919554 
1 1:-0.969505 2:-0.919554 
1 1:-0.969505 2:-0.919554 
1 1:-0.969505 2:-0.919554 
1 1:-0.969505 2:-0.919554 
1 1:-0.969505 2:-0.919554 
1 1:-0.969505 2:-0.919554 
1 1:-0.969505 2:-0.919554 
1 1:-0.969505 2:-0.919554 
1 1:-0.969505 2:-0.919554 
1 1:-0.969505 2:-0.919554 
1 1:-0.969505 2:-0.919554 
1 1:-0.969505 2:-0.919554 
1 1:-0.969505 2:-0.919554 
1 1:-0.969505 2:-0.919554 
1 1:-0.969505 2:-0.919554 
1 1:-0.969505 2:-0.919554 
1 1:-0.930864 2:-0.967286 
1 1:-0.930864 2:-0.967286 
1 1:-0.930864 2:-0.967286 
1 1:-0.930864 2:-0.967286 
1 1:-0.930864 2:-0.967286 
1 1:-0.930864 2:-0.967286 
1 1:-0.930864 2:-0.967286 
1 1:-0.930864 2:-0.967286 
1 1:-0.930864 2:-0.967286 
1 1:-0.930864 2:-0.967286 
1 1:-0.930864 2:-0.967286 
1 1:-0.930864 2:-0.967286 
1 1:-0.930864 2:-0.967286 
1 1:-0.930864 2:-0.967286 
1 1:-0.930864 2:-0.967286 
1 1:-0.930864 2:-0.967286 
1 1:-0.930864 2:-0.967286 
1 1:-0.930864 2:-0.967286 
1 1:-0.930864 2:-0.967286 
1 1:-0.930864 2:-0.967286 
1 1:-0.930864 2:-0.967286 
1 1:-0.930864 2:-0.967286 
1 1:-0.930864 2:-0.967286 
1 1:-0.930864 2:-0.967286 
1 1:-0.930864 2:-0.967286 
1 1:-0.930864 2:-0.967286 
1 1:-0.930864 2:-0.967286 
1 1:-0.930864 2:-0.967286 
1 1:-0.930864 2:-0.967286 
1 1:-0.930864 2:-0.967286 
1 1:-0.930864 2:-0.967286 
1 1:-0.930864 2:-0.967286 
1 1:-0.930864 2:-0.967286 
1 1:-0.930864 2:-0.967286 
1 1:-0.930864 2:-0.967286 
1 1:-0.930864 2:-0.967286 
1 1:-0.930864 2:-0.967286 
1 1:-0.930864 2:-0.967286 
1 1:-0.930864 2:-0.967286 
1 1:-0.930864 2:-0.967286 
1 1:-0.930864 2:-0.967286 
1 1:-0.930864 2:-0.967286 
1 1:-0.930864 2:-0.967286 
1 1:-0.930864 2:-0.967286 
1 1:-0.930864 2:-0.967286 
1 1:-0.930864 2:-0.967286 
1 1:-0.930864 2:-0.967286 
1 1:-0.930864 2:-0.967286 
1 1:-0.930864 2:-0.967286 
1 1:-0.930864 2:-0.967286 
1 1:-0.930864 2:-0.967286 
1 1:-0.930864 2:-0.967286 
1 1:-0.930864 2:-0.967286 
1 1:-0.930864 2:-0.967286 
1 1:-0.930864 2:-0.967286 
1 1:-0.930864 2:-0.967286 
1 1:-0.930864 2:-0.967286 
1 1:-0.930864 2:-0.967286 
1 1:-0.930864 2:-0.967286 
1 1:-0.930864 2:-0.967286 
1 1:-0.930864 2:-0.967286 
1 1:-0.930864 2:-0.967286 
1 1:-0.930864 2:-0.967286 
1 1:-0.930864 2:-0.967286 
1 1:-0.930864 2:-0.967286 
1 1:-0.930864 2:-0.967286 
1 1:-0.930864 2:-0.967286 
1 1:-0.930864 2:-0.967286 
1 1:-0.930864 2:-0.967286 
1 1:-0.930864 2:-0.967286 
1 1:-0.930864 2:-0.967286 
1 1:-0.930864 2:-0.967286 
1 1:-0.930864 2:-0.967286 
1 1:-0.930864 2:-0.967286 
1 1:-0.930864 2:-0.967286 
1 1:-0.930864 2:-0.967286 
1 1:-0.930864 2:-0.967286 
1 1:-0.930864 2:-0.967286 
1 1:-0.930864 2:-0.967286 
1 1:-0.930864 2:-0.967286 
1 1:-0.930864 2:-0.967286 
1 1:-0.930864 2:-0.967286 
1 1:-0.930864 2:-0.967286 
1 1:-0.930864 2:-0.967286 
1 1:-0.930864 2:-0.967286 
1 1:-0.930864 2:-0.967286 
1 1:-0.930864 2:-0.967286 
1 1:-0.930864 2:-0.967286 
1 1:-0.930864 2:-0.967286 
1 1:-0.930864 2:-0.967286 
1 1:-0.930864 2:-0.967286 
1 1:-0.930864 2:-0.967286 
1 1:-0.930864 2:-0.967286 
1 1:-0.809946 2:-1 
1 1:-0.809946 2:-1 
1 1:-0.809946 2:-1 
1 1:-0.809946 2:-1 
1 1:-0.809946 2:-1 
1 1:-0.809946 2:-1 
1 1:-0.809946 2:-1 
1 1:-0.809946 2:-1 
1 1:-0.809946 2:-1 
1 1:-0.809946 2:-1 
1 1:-0.809946 2:-1 
1 1:-0.809946 2:-1 
1 1:-0.809946 2:-1 
1 1:-0.809946 2:-1 
1 1:-0.809946 2:-1 
1 1:-0.809946 2:-1 
1 1:-0.809946 2:-1 
1 1:-0.809946 2:-1 
1 1:-0.809946 2:-1 
1 1:-0.809946 2:-1 
1 1:-0.809946 2:-1 
1 1:-0.809946 2:-1 
1 1:-0.809946 2:-1 
1 1:-0.809946 2:-1 
1 1:-0.809946 2:-1 
1 1:-0.809946 2:-1 
1 1:-0.809946 2:-1 
1 1:-0.809946 2:-1 
1 1:-0.809946 2:-1 
1 1:-0.809946 2:-1 
1 1:-0.809946 2:-1 
1 1:-0.809946 2:-1 
1 1:-0.809946 2:-1 
1 1:-0.809946 2:-1 
1 1:-0.809946 2:-1 
1 1:-0.809946 2:-1 
1 1:-0.809946 2:-1 
1 1:-0.809946 2:-1 
1 1:-0.809946 2:-1 
1 1:-0.809946 2:-1 
1 1:-0.809946 2:-1 
1 1:-0.809946 2:-1 
1 1:-0.809946 2:-1 
1 1:-0.809946 2:-1 
1 1:-0.809946 2:-1 
1 1:-0.809946 2:-1 
1 1:-0.809946 2:-1 
1 1:-0.809946 2:-1 
1 1:-0.809946 2:-1 
1 1:-0.809946 2:-1 
1 1:-0.809946 2:-1 
1 1:-0.809946 2:-1 
1 1:-0.809946 2:-1 
1 1:-0.809946 2:-1 
1 1:-0.809946 2:-1 
1 1:-0.809946 2:-1 
1 1:-0.809946 2:-1 
1 1:-0.809946 2:-1 
1 1:-0.809946 2:-1 
1 1:-0.809946 2:-1 
1 1:-0.809946 2:-1 
1 1:-0.809946 2:-1 
1 1:-0.809946 2:-1 
1 1:-0.809946 2:-1 
1 1:-0.809946 2:-1 
1 1:-0.809946 2:-1 
1 1:-0.809946 2:-1 
1 1:-0.809946 2:-1 
1 1:-0.809946 2:-1 
1 1:-0.809946 2:-1 
1 1:-0.809946 2:-1 
1 1:-0.809946 2:-1 
1 1:-0.809946 2:-1 
1 1:-0.809946 2:-1 
1 1:-0.809946 2:-1 
1 1:-0.809946 2:-1 
1 1:-0.809946 2:-1 
1 1:-0.809946 2:-1 
1 1:-0.809946 2:-1 
1 1:-0.809946 2:-1 
1 1:-0.809946 2:-1 
1 1:-0.809946 2:-1 
1 1:-0.809946 2:-1 
1 1:-0.809946 2:-1 
1 1:-0.809946 2:-1 
1 1:-0.809946 2:-1 
1 1:-0.809946 2:-1 
1 1:-0.809946 2:-1 
1 1:-0.809946 2:-1 
1 1:-0.809946 2:-1 
1 1:-0.809946 2:-1 
1 1:-0.809946 2:-1 
1 1:-0.809946 2:-1 
1 1:-0.809946 2:-1 
1 1:-0.809946 2:-1 
1 1:-0.809946 2:-1 
1 1:-0.809946 2:-1 
1 1:-0.896072 2:-0.982105 
1 1:-0.896072 2:-0.982105 
1 1:-0.896072 2:-0.982105 
1 1:-0.896072 2:-0.982105 
1 1:-0.896072 2:-0.982105 
1 1:-0.896072 2:-0.982105 
1 1:-0.896072 2:-0.982105 
1 1:-0.896072 2:-0.982105 
1 1:-0.896072 2:-0.982105 
1 1:-0.896072 2:-0.982105 
1 1:-0.896072 2:-0.982105 
1 1:-0.896072 2:-0.982105 
1 1:-0.896072 2:-0.982105 
1 1:-0.896072 2:-0.982105 
1 1:-0.896072 2:-0.982105 
1 1:-0.896072 2:-0.982105 
1 1:-0.896072 2:-0.982105 
1 1:-0.896072 2:-0.982105 
1 1:-0.896072 2:-0.982105 
1 1:-0.896072 2:-0.982105 
1 1:-0.896072 2:-0.982105 
1 1:-0.896072 2:-0.982105 
1 1:-0.896072 2:-0.982105 
1 1:-0.896072 2:-0.982105 
1 1:-0.896072 2:-0.982105 
1 1:-0.896072 2:-0.982105 
1 1:-0.896072 2:-0.982105 
1 1:-0.896072 2:-0.982105 
1 1:-0.896072 2:-0.982105 
1 1:-0.896072 2:-0.982105 
1 1:-0.896072 2:-0.982105 
1 1:-0.896072 2:-0.982105 
1 1:-0.896072 2:-0.982105 
1 1:-0.896072 2:-0.982105 
1 1:-0.896072 2:-0.982105 
1 1:-0.896072 2:-0.982105 
1 1:-0.896072 2:-0.982105 
1 1:-0.896072 2:-0.982105 
1 1:-0.896072 2:-0.982105 
1 1:-0.896072 2:-0.982105 
1 1:-0.896072 2:-0.982105 
1 1:-0.896072 2:-0.982105 
1 1:-0.896072 2:-0.982105 
1 1:-0.896072 2:-0.982105 
1 1:-0.896072 2:-0.982105 
1 1:-0.896072 2:-0.982105 
1 1:-0.896072 2:-0.982105 
1 1:-0.896072 2:-0.982105 
1 1:-0.896072 2:-0.982105 
1 1:-0.896072 2:-0.982105 
1 1:-0.896072 2:-0.982105 
1 1:-0.896072 2:-0.982105 
1 1:-0.896072 2:-0.982105 
1 1:-0.896072 2:-0.982105 
1 1:-0.896072 2:-0.982105 
1 1:-0.896072 2:-0.982105 
1 1:-0.896072 2:-0.982105 
1 1:-0.896072 2:-0.982105 
1 1:-0.896072 2:-0.982105 
1 1:-0.896072 2:-0.982105 
1 1:-0.896072 2:-0.982105 
1 1:-0.896072 2:-0.982105 
1 1:-0.896072 2:-0.982105 
1 1:-0.896072 2:-0.982105 
1 1:-0.896072 2:-0.982105 
1 1:-0.896072 2:-0.982105 
1 1:-0.896072 2:-0.982105 
1 1:-0.896072 2:-0.982105 
1 1:-0.896072 2:-0.982105 
1 1:-0.896072 2:-0.982105 
1 1:-0.896072 2:-0.982105 
1 1:-0.896072 2:-0.982105 
1 1:-0.896072 2:-0.982105 
1 1:-0.896072 2:-0.982105 
1 1:-0.896072 2:-0.982105 
1 1:-0.896072 2:-0.982105 
1 1:-0.896072 2:-0.982105 
1 1:-0.896072 2:-0.982105 
1 1:-0.896072 2:-0.982105 
1 1:-0.896072 2:-0.982105 
1 1:-0.896072 2:-0.982105 
1 1:-0.896072 2:-0.982105 
1 1:-0.896072 2:-0.982105 
1 1:-0.896072 2:-0.982105 
1 1:-0.896072 2:-0.982105 
1 1:-0.896072 2:-0.982105 
1 1:-0.896072 2:-0.982105 
1 1:-0.896072 2:-0.982105 
1 1:-0.896072 2:-0.982105 
1 1:-0.896072 2:-0.982105 
1 1:-0.896072 2:-0.982105 
1 1:-0.896072 2:-0.982105 
1 1:-0.896072 2:-0.982105 
1 1:-0.896072 2:-0.982105 
1 1:-0.952551 2:-0.940707 
1 1:-0.952551 2:-0.940707 
1 1:-0.952551 2:-0.940707 
1 1:-0.952551 2:-0.940707 
1 1:-0.952551 2:-0.940707 
1 1:-0.952551 2:-0.940707 
1 1:-0.952551 2:-0.940707 
1 1:-0.952551 2:-0.940707 
1 1:-0.952551 2:-0.940707 
1 1:-0.952551 2:-0.940707 
1 1:-0.952551 2:-0.940707 
1 1:-0.952551 2:-0.940707 
1 1:-0.952551 2:-0.940707 
1 1:-0.952551 2:-0.940707 
1 1:-0.952551 2:-0.940707 
1 1:-0.952551 2:-0.940707 
1 1:-0.952551 2:-0.940707 
1 1:-0.952551 2:-0.940707 
1 1:-0.952551 2:-0.940707 
1 1:-0.952551 2:-0.940707 
1 1:-0.952551 2:-0.940707 
1 1:-0.952551 2:-0.940707 
1 1:-0.952551 2:-0.940707 
1 1:-0.952551 2:-0.940707 
1 1:-0.952551 2:-0.940707 
1 1:-0.952551 2:-0.940707 
1 1:-0.952551 2:-0.940707 
1 1:-0.952551 2:-0.940707 
1 1:-0.952551 2:-0.940707 
1 1:-0.952551 2:-0.940707 
1 1:-0.952551 2:-0.940707 
1 1:-0.952551 2:-0.940707 
1 1:-0.952551 2:-0.940707 
1 1:-0.952551 2:-0.940707 
1 1:-0.952551 2:-0.940707 
1 1:-0.952551 2:-0.940707 
1 1:-0.952551 2:-0.940707 
1 1:-0.952551 2:-0.940707 
1 1:-0.952551 2:-0.940707 
1 1:-0.952551 2:-0.940707 
1 1:-0.952551 2:-0.940707 
1 1:-0.952551 2:-0.940707 
1 1:-0.952551 2:-0.940707 
1 1:-0.952551 2:-0.940707 
1 1:-0.952551 2:-0.940707 
1 1:-0.952551 2:-0.940707 
1 1:-0.952551 2:-0.940707 
1 1:-0.952551 2:-0.940707 
1 1:-0.952551 2:-0.940707 
1 1:-0.952551 2:-0.940707 
1 1:-0.952551 2:-0.940707 
1 1:-0.952551 2:-0.940707 
1 1:-0.952551 2:-0.940707 
1 1:-0.952551 2:-0.940707 
1 1:-0.952551 2:-0.940707 
1 1:-0.952551 2:-0.940707 
1 1:-0.952551 2:-0.940707 
1 1:-0.952551 2:-0.940707 
1 1:-0.952551 2:-0.940707 
1 1:-0.952551 2:-0.940707 
1 1:-0.952551 2:-0.940707 
1 1:-0.952551 2:-0.940707 
1 1:-0.952551 2:-0.940707 
1 1:-0.952551 2:-0.940707 
1 1:-0.952551 2:-0.940707 
1 1:-0.952551 2:-0.940707 
1 1:-0.952551 2:-0.940707 
1 1:-0.952551 2:-0.940707 
1 1:-0.952551 2:-0.940707 
1 1:-0.952551 2:-0.940707 
1 1:-0.952551 2:-0.940707 
1 1:-0.952551 2:-0.940707 
1 1:-0.952551 2:-0.940707 
1 1:-0.952551 2:-0.940707 
1 1:-0.952551 2:-0.940707 
1 1:-0.952551 2:-0.940707 
1 1:-0.952551 2:-0.940707 
1 1:-0.952551 2:-0.940707 
1 1:-0.952551 2:-0.940707 
1 1:-0.952551 2:-0.940707 
1 1:-0.952551 2:-0.940707 
1 1:-0.952551 2:-0.940707 
1 1:-0.952551 2:-0.940707 
1 1:-0.952551 2:-0.940707 
1 1:-0.952551 2:-0.940707 
1 1:-0.952551 2:-0.940707 
1 1:-0.952551 2:-0.940707 
1 1:-0.952551 2:-0.940707 
1 1:-0.952551 2:-0.940707 
1 1:-0.952551 2:-0.940707 
1 1:-0.952551 2:-0.940707 
1 1:-0.952551 2:-0.940707 
1 1:-0.952551 2:-0.940707 
1 1:-0.952551 2:-0.940707 
1 1:-0.952551 2:-0.940707 
1 1:-0.952551 2:-0.940707 
1 1:-0.94882 2:-0.947653 
1 1:-0.94882 2:-0.947653 
1 1:-0.94882 2:-0.947653 
1 1:-0.94882 2:-0.947653 
1 1:-0.94882 2:-0.947653 
1 1:-0.94882 2:-0.947653 
1 1:-0.94882 2:-0.947653 
1 1:-0.94882 2:-0.947653 
1 1:-0.94882 2:-0.947653 
1 1:-0.94882 2:-0.947653 
1 1:-0.94882 2:-0.947653 
1 1:-0.94882 2:-0.947653 
1 1:-0.94882 2:-0.947653 
1 1:-0.94882 2:-0.947653 
1 1:-0.94882 2:-0.947653 
1 1:-0.94882 2:-0.947653 
1 1:-0.94882 2:-0.947653 
1 1:-0.94882 2:-0.947653 
1 1:-0.94882 2:-0.947653 
1 1:-0.94882 2:-0.947653 
1 1:-0.94882 2:-0.947653 
1 1:-0.94882 2:-0.947653 
1 1:-0.94882 2:-0.947653 
1 1:-0.94882 2:-0.947653 
1 1:-0.94882 2:-0.947653 
1 1:-0.94882 2:-0.947653 
1 1:-0.94882 2:-0.947653 
1 1:-0.94882 2:-0.947653 
1 1:-0.94882 2:-0.947653 
1 1:-0.94882 2:-0.947653 
1 1:-0.94882 2:-0.947653 
1 1:-0.94882 2:-0.947653 
1 1:-0.94882 2:-0.947653 
1 1:-0.94882 2:-0.947653 
1 1:-0.94882 2:-0.947653 
1 1:-0.94882 2:-0.947653 
1 1:-0.94882 2:-0.947653 
1 1:-0.94882 2:-0.947653 
1 1:-0.94882 2:-0.947653 
1 1:-0.94882 2:-0.947653 
1 1:-0.94882 2:-0.947653 
1 1:-0.94882 2:-0.947653 
1 1:-0.94882 2:-0.947653 
1 1:-0.94882 2:-0.947653 
1 1:-0.94882 2:-0.947653 
1 1:-0.94882 2:-0.947653 
1 1:-0.94882 2:-0.947653 
1 1:-0.94882 2:-0.947653 
1 1:-0.94882 2:-0.947653 
1 1:-0.94882 2:-0.947653 
1 1:-0.94882 2:-0.947653 
1 1:-0.94882 2:-0.947653 
1 1:-0.94882 2:-0.947653 
1 1:-0.94882 2:-0.947653 
1 1:-0.94882 2:-0.947653 
1 1:-0.94882 2:-0.947653 
1 1:-0.94882 2:-0.947653 
1 1:-0.94882 2:-0.947653 
1 1:-0.94882 2:-0.947653 
1 1:-0.94882 2:-0.947653 
1 1:-0.94882 2:-0.947653 
1 1:-0.94882 2:-0.947653 
1 1:-0.94882 2:-0.947653 
1 1:-0.94882 2:-0.947653 
1 1:-0.94882 2:-0.947653 
1 1:-0.94882 2:-0.947653 
1 1:-0.94882 2:-0.947653 
1 1:-0.94882 2:-0.947653 
1 1:-0.94882 2:-0.947653 
1 1:-0.94882 2:-0.947653 
1 1:-0.94882 2:-0.947653 
1 1:-0.94882 2:-0.947653 
1 1:-0.94882 2:-0.947653 
1 1:-0.94882 2:-0.947653 
1 1:-0.94882 2:-0.947653 
1 1:-0.94882 2:-0.947653 
1 1:-0.94882 2:-0.947653 
1 1:-0.94882 2:-0.947653 
1 1:-0.94882 2:-0.947653 
1 1:-0.94882 2:-0.947653 
1 1:-0.94882 2:-0.947653 
1 1:-0.94882 2:-0.947653 
1 1:-0.94882 2:-0.947653 
1 1:-0.94882 2:-0.947653 
1 1:-0.94882 2:-0.947653 
1 1:-0.94882 2:-0.947653 
1 1:-0.94882 2:-0.947653 
1 1:-0.94882 2:-0.947653 
1 1:-0.94882 2:-0.947653 
1 1:-0.94882 2:-0.947653 
1 1:-0.94882 2:-0.947653 
1 1:-0.94882 2:-0.947653 
1 1:-0.979244 2:-0.765712 
1 1:-0.979244 2:-0.765712 
1 1:-0.979244 2:-0.765712 
1 1:-0.979244 2:-0.765712 
1 1:-0.979244 2:-0.765712 
1 1:-0.979244 2:-0.765712 
1 1:-0.979244 2:-0.765712 
1 1:-0.979244 2:-0.765712 
1 1:-0.979244 2:-0.765712 
1 1:-0.979244 2:-0.765712 
1 1:-0.979244 2:-0.765712 
1 1:-0.979244 2:-0.765712 
1 1:-0.979244 2:-0.765712 
1 1:-0.979244 2:-0.765712 
1 1:-0.979244 2:-0.765712 
1 1:-0.979244 2:-0.765712 
1 1:-0.979244 2:-0.765712 
1 1:-0.979244 2:-0.765712 
1 1:-0.979244 2:-0.765712 
1 1:-0.979244 2:-0.765712 
1 1:-0.979244 2:-0.765712 
1 1:-0.979244 2:-0.765712 
1 1:-0.979244 2:-0.765712 
1 1:-0.979244 2:-0.765712 
1 1:-0.979244 2:-0.765712 
1 1:-0.979244 2:-0.765712 
1 1:-0.979244 2:-0.765712 
1 1:-0.979244 2:-0.765712 
1 1:-0.979244 2:-0.765712 
1 1:-0.979244 2:-0.765712 
1 1:-0.979244 2:-0.765712 
1 1:-0.979244 2:-0.765712 
1 1:-0.979244 2:-0.765712 
1 1:-0.979244 2:-0.765712 
1 1:-0.979244 2:-0.765712 
1 1:-0.979244 2:-0.765712 
1 1:-0.979244 2:-0.765712 
1 1:-0.979244 2:-0.765712 
1 1:-0.979244 2:-0.765712 
1 1:-0.979244 2:-0.765712 
1 1:-0.979244 2:-0.765712 
1 1:-0.979244 2:-0.765712 
1 1:-0.979244 2:-0.765712 
1 1:-0.979244 2:-0.765712 
1 1:-0.979244 2:-0.765712 
1 1:-0.979244 2:-0.765712 
1 1:-0.979244 2:-0.765712 
1 1:-0.979244 2:-0.765712 
1 1:-0.979244 2:-0.765712 
1 1:-0.979244 2:-0.765712 
1 1:-0.979244 2:-0.765712 
1 1:-0.979244 2:-0.765712 
1 1:-0.979244 2:-0.765712 
1 1:-0.979244 2:-0.765712 
1 1:-0.979244 2:-0.765712 
1 1:-0.979244 2:-0.765712 
1 1:-0.979244 2:-0.765712 
1 1:-0.979244 2:-0.765712 
1 1:-0.979244 2:-0.765712 
1 1:-0.979244 2:-0.765712 
1 1:-0.979244 2:-0.765712 
1 1:-0.979244 2:-0.765712 
1 1:-0.979244 2:-0.765712 
1 1:-0.979244 2:-0.765712 
1 1:-0.979244 2:-0.765712 
1 1:-0.979244 2:-0.765712 
1 1:-0.979244 2:-0.765712 
1 1:-0.979244 2:-0.765712 
1 1:-0.979244 2:-0.765712 
1 1:-0.979244 2:-0.765712 
1 1:-0.979244 2:-0.765712 
1 1:-0.979244 2:-0.765712 
1 1:-0.979244 2:-0.765712 
1 1:-0.979244 2:-0.765712 
1 1:-0.979244 2:-0.765712 
1 1:-0.979244 2:-0.765712 
1 1:-0.979244 2:-0.765712 
1 1:-0.979244 2:-0.765712 
1 1:-0.979244 2:-0.765712 
1 1:-0.979244 2:-0.765712 
1 1:-0.979244 2:-0.765712 
1 1:-0.979244 2:-0.765712 
1 1:-0.979244 2:-0.765712 
1 1:-0.979244 2:-0.765712 
1 1:-0.979244 2:-0.765712 
1 1:-0.979244 2:-0.765712 
1 1:-0.979244 2:-0.765712 
1 1:-0.979244 2:-0.765712 
1 1:-0.979244 2:-0.765712 
1 1:-0.979244 2:-0.765712 
1 1:-0.979244 2:-0.765712 
1 1:-0.979244 2:-0.765712 
1 1:-0.979244 2:-0.765712 
1 1:-0.979244 2:-0.765712 
1 1:-0.979244 2:-0.765712 
1 1:-0.879863 2:-0.777241 
1 1:-0.879863 2:-0.777241 
1 1:-0.879863 2:-0.777241 
1 1:-0.879863 2:-0.777241 
1 1:-0.879863 2:-0.777241 
1 1:-0.879863 2:-0.777241 
1 1:-0.879863 2:-0.777241 
1 1:-0.879863 2:-0.777241 
1 1:-0.879863 2:-0.777241 
1 1:-0.879863 2:-0.777241 
1 1:-0.879863 2:-0.777241 
1 1:-0.879863 2:-0.777241 
1 1:-0.879863 2:-0.777241 
1 1:-0.879863 2:-0.777241 
1 1:-0.879863 2:-0.777241 
1 1:-0.879863 2:-0.777241 
1 1:-0.879863 2:-0.777241 
1 1:-0.879863 2:-0.777241 
1 1:-0.879863 2:-0.777241 
1 1:-0.879863 2:-0.777241 
1 1:-0.879863 2:-0.777241 
1 1:-0.879863 2:-0.777241 
1 1:-0.879863 2:-0.777241 
1 1:-0.879863 2:-0.777241 
1 1:-0.879863 2:-0.777241 
1 1:-0.879863 2:-0.777241 
1 1:-0.879863 2:-0.777241 
1 1:-0.879863 2:-0.777241 
1 1:-0.879863 2:-0.777241 
1 1:-0.879863 2:-0.777241 
1 1:-0.879863 2:-0.777241 
1 1:-0.879863 2:-0.777241 
1 1:-0.879863 2:-0.777241 
1 1:-0.879863 2:-0.777241 
1 1:-0.879863 2:-0.777241 
1 1:-0.879863 2:-0.777241 
1 1:-0.879863 2:-0.777241 
1 1:-0.879863 2:-0.777241 
1 1:-0.879863 2:-0.777241 
1 1:-0.879863 2:-0.777241 
1 1:-0.879863 2:-0.777241 
1 1:-0.879863 2:-0.777241 
1 1:-0.879863 2:-0.777241 
1 1:-0.879863 2:-0.777241 
1 1:-0.879863 2:-0.777241 
1 1:-0.879863 2:-0.777241 
1 1:-0.879863 2:-0.777241 
1 1:-0.879863 2:-0.777241 
1 1:-0.879863 2:-0.777241 
1 1:-0.879863 2:-0.777241 
1 1:-0.879863 2:-0.777241 
1 1:-0.879863 2:-0.777241 
1 1:-0.879863 2:-0.777241 
1 1:-0.879863 2:-0.777241 
1 1:-0.879863 2:-0.777241 
1 1:-0.879863 2:-0.777241 
1 1:-0.879863 2:-0.777241 
1 1:-0.879863 2:-0.777241 
1 1:-0.879863 2:-0.777241 
1 1:-0.879863 2:-0.777241 
1 1:-0.879863 2:-0.777241 
1 1:-0.879863 2:-0.777241 
1 1:-0.879863 2:-0.777241 
1 1:-0.879863 2:-0.777241 
1 1:-0.879863 2:-0.777241 
1 1:-0.879863 2:-0.777241 
1 1:-0.879863 2:-0.777241 
1 1:-0.879863 2:-0.777241 
1 1:-0.879863 2:-0.777241 
1 1:-0.879863 2:-0.777241 
1 1:-0.879863 2:-0.777241 
1 1:-0.879863 2:-0.777241 
1 1:-0.879863 2:-0.777241 
1 1:-0.879863 2:-0.777241 
1 1:-0.879863 2:-0.777241 
1 1:-0.879863 2:-0.777241 
1 1:-0.879863 2:-0.777241 
1 1:-0.879863 2:-0.777241 
1 1:-0.879863 2:-0.777241 
1 1:-0.879863 2:-0.777241 
1 1:-0.879863 2:-0.777241 
1 1:-0.879863 2:-0.777241 
1 1:-0.879863 2:-0.777241 
1 1:-0.879863 2:-0.777241 
1 1:-0.879863 2:-0.777241 
1 1:-0.879863 2:-0.777241 
1 1:-0.879863 2:-0.777241 
1 1:-0.879863 2:-0.777241 
1 1:-0.879863 2:-0.777241 
1 1:-0.879863 2:-0.777241 
1 1:-0.879863 2:-0.777241 
1 1:-0.879863 2:-0.777241 
1 1:-0.879863 2:-0.777241 
1 1:-0.886573 2:-0.971694 
1 1:-0.886573 2:-0.971694 
1 1:-0.886573 2:-0.971694 
1 1:-0.886573 2:-0.971694 
1 1:-0.886573 2:-0.971694 
1 1:-0.886573 2:-0.971694 
1 1:-0.886573 2:-0.971694 
1 1:-0.886573 2:-0.971694 
1 1:-0.886573 2:-0.971694 
1 1:-0.886573 2:-0.971694 
1 1:-0.886573 2:-0.971694 
1 1:-0.886573 2:-0.971694 
1 1:-0.886573 2:-0.971694 
1 1:-0.886573 2:-0.971694 
1 1:-0.886573 2:-0.971694 
1 1:-0.886573 2:-0.971694 
1 1:-0.886573 2:-0.971694 
1 1:-0.886573 2:-0.971694 
1 1:-0.886573 2:-0.971694 
1 1:-0.886573 2:-0.971694 
1 1:-0.886573 2:-0.971694 
1 1:-0.886573 2:-0.971694 
1 1:-0.886573 2:-0.971694 
1 1:-0.886573 2:-0.971694 
1 1:-0.886573 2:-0.971694 
1 1:-0.886573 2:-0.971694 
1 1:-0.886573 2:-0.971694 
1 1:-0.886573 2:-0.971694 
1 1:-0.886573 2:-0.971694 
1 1:-0.886573 2:-0.971694 
1 1:-0.886573 2:-0.971694 
1 1:-0.886573 2:-0.971694 
1 1:-0.886573 2:-0.971694 
1 1:-0.886573 2:-0.971694 
1 1:-0.886573 2:-0.971694 
1 1:-0.886573 2:-0.971694 
1 1:-0.886573 2:-0.971694 
1 1:-0.886573 2:-0.971694 
1 1:-0.886573 2:-0.971694 
1 1:-0.886573 2:-0.971694 
1 1:-0.886573 2:-0.971694 
1 1:-0.886573 2:-0.971694 
1 1:-0.886573 2:-0.971694 
1 1:-0.886573 2:-0.971694 
1 1:-0.886573 2:-0.971694 
1 1:-0.886573 2:-0.971694 
1 1:-0.886573 2:-0.971694 
1 1:-0.886573 2:-0.971694 
1 1:-0.886573 2:-0.971694 
1 1:-0.886573 2:-0.971694 
1 1:-0.886573 2:-0.971694 
1 1:-0.886573 2:-0.971694 
1 1:-0.886573 2:-0.971694 
1 1:-0.886573 2:-0.971694 
1 1:-0.886573 2:-0.971694 
1 1:-0.886573 2:-0.971694 
1 1:-0.886573 2:-0.971694 
1 1:-0.886573 2:-0.971694 
1 1:-0.886573 2:-0.971694 
1 1:-0.886573 2:-0.971694 
1 1:-0.886573 2:-0.971694 
1 1:-0.886573 2:-0.971694 
1 1:-0.886573 2:-0.971694 
1 1:-0.886573 2:-0.971694 
1 1:-0.886573 2:-0.971694 
1 1:-0.886573 2:-0.971694 
1 1:-0.886573 2:-0.971694 
1 1:-0.886573 2:-0.971694 
1 1:-0.886573 2:-0.971694 
1 1:-0.886573 2:-0.971694 
1 1:-0.886573 2:-0.971694 
1 1:-0.886573 2:-0.971694 
1 1:-0.886573 2:-0.971694 
1 1:-0.886573 2:-0.971694 
1 1:-0.886573 2:-0.971694 
1 1:-0.886573 2:-0.971694 
1 1:-0.886573 2:-0.971694 
1 1:-0.886573 2:-0.971694 
1 1:-0.886573 2:-0.971694 
1 1:-0.886573 2:-0.971694 
1 1:-0.886573 2:-0.971694 
1 1:-0.886573 2:-0.971694 
1 1:-0.886573 2:-0.971694 
1 1:-0.886573 2:-0.971694 
1 1:-0.886573 2:-0.971694 
1 1:-0.886573 2:-0.971694 
1 1:-0.886573 2:-0.971694 
1 1:-0.886573 2:-0.971694 
1 1:-0.886573 2:-0.971694 
1 1:-0.886573 2:-0.971694 
1 1:-0.886573 2:-0.971694 
1 1:-0.886573 2:-0.971694 
1 1:-0.886573 2:-0.971694 
1 1:-0.886573 2:-0.971694 
1 1:-0.886573 2:-0.971694 
1 1:-0.886573 2:-0.971694 
1 1:-0.886573 2:-0.971694 
1 1:-0.931012 2:-0.9135 
1 1:-0.931012 2:-0.9135 
1 1:-0.931012 2:-0.9135 
1 1:-0.931012 2:-0.9135 
1 1:-0.931012 2:-0.9135 
1 1:-0.931012 2:-0.9135 
1 1:-0.931012 2:-0.9135 
1 1:-0.931012 2:-0.9135 
1 1:-0.931012 2:-0.9135 
1 1:-0.931012 2:-0.9135 
1 1:-0.931012 2:-0.9135 
1 1:-0.931012 2:-0.9135 
1 1:-0.931012 2:-0.9135 
1 1:-0.931012 2:-0.9135 
1 1:-0.931012 2:-0.9135 
1 1:-0.931012 2:-0.9135 
1 1:-0.931012 2:-0.9135 
1 1:-0.931012 2:-0.9135 
1 1:-0.931012 2:-0.9135 
1 1:-0.931012 2:-0.9135 
1 1:-0.931012 2:-0.9135 
1 1:-0.931012 2:-0.9135 
1 1:-0.931012 2:-0.9135 
1 1:-0.931012 2:-0.9135 
1 1:-0.931012 2:-0.9135 
1 1:-0.931012 2:-0.9135 
1 1:-0.931012 2:-0.9135 
1 1:-0.931012 2:-0.9135 
1 1:-0.931012 2:-0.9135 
1 1:-0.931012 2:-0.9135 
1 1:-0.931012 2:-0.9135 
1 1:-0.931012 2:-0.9135 
1 1:-0.931012 2:-0.9135 
1 1:-0.931012 2:-0.9135 
1 1:-0.931012 2:-0.9135 
1 1:-0.931012 2:-0.9135 
1 1:-0.931012 2:-0.9135 
1 1:-0.931012 2:-0.9135 
1 1:-0.931012 2:-0.9135 
1 1:-0.931012 2:-0.9135 
1 1:-0.931012 2:-0.9135 
1 1:-0.931012 2:-0.9135 
1 1:-0.931012 2:-0.9135 
1 1:-0.931012 2:-0.9135 
1 1:-0.931012 2:-0.9135 
1 1:-0.931012 2:-0.9135 
1 1:-0.931012 2:-0.9135 
1 1:-0.931012 2:-0.9135 
1 1:-0.931012 2:-0.9135 
1 1:-0.931012 2:-0.9135 
1 1:-0.931012 2:-0.9135 
1 1:-0.931012 2:-0.9135 
1 1:-0.931012 2:-0.9135 
1 1:-0.931012 2:-0.9135 
1 1:-0.931012 2:-0.9135 
1 1:-0.931012 2:-0.9135 
1 1:-0.931012 2:-0.9135 
1 1:-0.931012 2:-0.9135 
1 1:-0.931012 2:-0.9135 
1 1:-0.931012 2:-0.9135 
1 1:-0.931012 2:-0.9135 
1 1:-0.931012 2:-0.9135 
1 1:-0.931012 2:-0.9135 
1 1:-0.931012 2:-0.9135 
1 1:-0.931012 2:-0.9135 
1 1:-0.931012 2:-0.9135 
1 1:-0.931012 2:-0.9135 
1 1:-0.931012 2:-0.9135 
1 1:-0.931012 2:-0.9135 
1 1:-0.931012 2:-0.9135 
1 1:-0.931012 2:-0.9135 
1 1:-0.931012 2:-0.9135 
1 1:-0.931012 2:-0.9135 
1 1:-0.931012 2:-0.9135 
1 1:-0.931012 2:-0.9135 
1 1:-0.931012 2:-0.9135 
1 1:-0.931012 2:-0.9135 
1 1:-0.931012 2:-0.9135 
1 1:-0.931012 2:-0.9135 
1 1:-0.931012 2:-0.9135 
1 1:-0.931012 2:-0.9135 
1 1:-0.931012 2:-0.9135 
1 1:-0.931012 2:-0.9135 
1 1:-0.931012 2:-0.9135 
1 1:-0.931012 2:-0.9135 
1 1:-0.931012 2:-0.9135 
1 1:-0.931012 2:-0.9135 
1 1:-0.931012 2:-0.9135 
1 1:-0.931012 2:-0.9135 
1 1:-0.931012 2:-0.9135 
1 1:-0.931012 2:-0.9135 
1 1:-0.931012 2:-0.9135 
1 1:-0.938255 2:-0.906332 
1 1:-0.938255 2:-0.906332 
1 1:-0.938255 2:-0.906332 
1 1:-0.938255 2:-0.906332 
1 1:-0.938255 2:-0.906332 
1 1:-0.938255 2:-0.906332 
1 1:-0.938255 2:-0.906332 
1 1:-0.938255 2:-0.906332 
1 1:-0.938255 2:-0.906332 
1 1:-0.938255 2:-0.906332 
1 1:-0.938255 2:-0.906332 
1 1:-0.938255 2:-0.906332 
1 1:-0.938255 2:-0.906332 
1 1:-0.938255 2:-0.906332 
1 1:-0.938255 2:-0.906332 
1 1:-0.938255 2:-0.906332 
1 1:-0.938255 2:-0.906332 
1 1:-0.938255 2:-0.906332 
1 1:-0.938255 2:-0.906332 
1 1:-0.938255 2:-0.906332 
1 1:-0.938255 2:-0.906332 
1 1:-0.938255 2:-0.906332 
1 1:-0.938255 2:-0.906332 
1 1:-0.938255 2:-0.906332 
1 1:-0.938255 2:-0.906332 
1 1:-0.938255 2:-0.906332 
1 1:-0.938255 2:-0.906332 
1 1:-0.938255 2:-0.906332 
1 1:-0.938255 2:-0.906332 
1 1:-0.938255 2:-0.906332 
1 1:-0.938255 2:-0.906332 
1 1:-0.938255 2:-0.906332 
1 1:-0.938255 2:-0.906332 
1 1:-0.938255 2:-0.906332 
