svm_type one_class
kernel_type rbf
gamma 0.5
nr_class 2
total_sv 15292
rho 10909.5
SV
1 1:-0.960475 2:-0.978983 
1 1:-0.960475 2:-0.978983 
1 1:-0.960475 2:-0.978983 
1 1:-0.960475 2:-0.978983 
1 1:-0.960475 2:-0.978983 
1 1:-0.960475 2:-0.978983 
1 1:-0.960475 2:-0.978983 
1 1:-0.960475 2:-0.978983 
1 1:-0.960475 2:-0.978983 
1 1:-0.960475 2:-0.978983 
1 1:-0.960475 2:-0.978983 
1 1:-0.960475 2:-0.978983 
1 1:-0.960475 2:-0.978983 
1 1:-0.960475 2:-0.978983 
1 1:-0.960475 2:-0.978983 
1 1:-0.960475 2:-0.978983 
1 1:-0.960475 2:-0.978983 
1 1:-0.960475 2:-0.978983 
1 1:-0.960475 2:-0.978983 
1 1:-0.960475 2:-0.978983 
1 1:-0.960475 2:-0.978983 
1 1:-0.960475 2:-0.978983 
1 1:-0.960475 2:-0.978983 
1 1:-0.960475 2:-0.978983 
1 1:-0.960475 2:-0.978983 
1 1:-0.960475 2:-0.978983 
1 1:-0.960475 2:-0.978983 
1 1:-0.960475 2:-0.978983 
1 1:-0.960475 2:-0.978983 
1 1:-0.960475 2:-0.978983 
1 1:-0.960475 2:-0.978983 
1 1:-0.960475 2:-0.978983 
1 1:-0.960475 2:-0.978983 
1 1:-0.960475 2:-0.978983 
1 1:-0.960475 2:-0.978983 
1 1:-0.960475 2:-0.978983 
1 1:-0.960475 2:-0.978983 
1 1:-0.960475 2:-0.978983 
1 1:-0.960475 2:-0.978983 
1 1:-0.960475 2:-0.978983 
1 1:-0.960475 2:-0.978983 
1 1:-0.960475 2:-0.978983 
1 1:-0.960475 2:-0.978983 
1 1:-0.960475 2:-0.978983 
1 1:-0.960475 2:-0.978983 
1 1:-0.960475 2:-0.978983 
1 1:-0.960475 2:-0.978983 
1 1:-0.960475 2:-0.978983 
1 1:-0.960475 2:-0.978983 
1 1:-0.960475 2:-0.978983 
1 1:-0.960475 2:-0.978983 
1 1:-0.960475 2:-0.978983 
1 1:-0.960475 2:-0.978983 
1 1:-0.960475 2:-0.978983 
1 1:-0.960475 2:-0.978983 
1 1:-0.960475 2:-0.978983 
1 1:-0.960475 2:-0.978983 
1 1:-0.960475 2:-0.978983 
1 1:-0.960475 2:-0.978983 
1 1:-0.960475 2:-0.978983 
1 1:-0.960475 2:-0.978983 
1 1:-0.960475 2:-0.978983 
1 1:-0.960475 2:-0.978983 
1 1:-0.960475 2:-0.978983 
1 1:-0.960475 2:-0.978983 
1 1:-0.960475 2:-0.978983 
1 1:-0.960475 2:-0.978983 
1 1:-0.960475 2:-0.978983 
1 1:-0.960475 2:-0.978983 
1 1:-0.960475 2:-0.978983 
1 1:-0.960475 2:-0.978983 
1 1:-0.960475 2:-0.978983 
1 1:-0.960475 2:-0.978983 
1 1:-0.960475 2:-0.978983 
1 1:-0.960475 2:-0.978983 
1 1:-0.960475 2:-0.978983 
1 1:-0.960475 2:-0.978983 
1 1:-0.960475 2:-0.978983 
1 1:-0.960475 2:-0.978983 
1 1:-0.960475 2:-0.978983 
1 1:-0.960475 2:-0.978983 
1 1:-0.960475 2:-0.978983 
1 1:-0.960475 2:-0.978983 
1 1:-0.960475 2:-0.978983 
1 1:-0.960475 2:-0.978983 
1 1:-0.960475 2:-0.978983 
1 1:-0.960475 2:-0.978983 
1 1:-0.960475 2:-0.978983 
1 1:-0.960475 2:-0.978983 
1 1:-0.960475 2:-0.978983 
1 1:-0.960475 2:-0.978983 
1 1:-0.960475 2:-0.978983 
1 1:-0.960475 2:-0.978983 
1 1:-0.960475 2:-0.978983 
1 1:-0.960475 2:-0.978983 
1 1:-0.960475 2:-0.978983 
1 1:-0.745824 2:0.388501 
1 1:-0.745824 2:0.388501 
1 1:-0.745824 2:0.388501 
1 1:-0.745824 2:0.388501 
1 1:-0.745824 2:0.388501 
1 1:-0.745824 2:0.388501 
1 1:-0.745824 2:0.388501 
1 1:-0.745824 2:0.388501 
1 1:-0.745824 2:0.388501 
1 1:-0.745824 2:0.388501 
1 1:-0.745824 2:0.388501 
1 1:-0.745824 2:0.388501 
1 1:-0.745824 2:0.388501 
1 1:-0.745824 2:0.388501 
1 1:-0.745824 2:0.388501 
1 1:-0.745824 2:0.388501 
1 1:-0.745824 2:0.388501 
1 1:-0.745824 2:0.388501 
1 1:-0.745824 2:0.388501 
1 1:-0.745824 2:0.388501 
1 1:-0.745824 2:0.388501 
1 1:-0.745824 2:0.388501 
1 1:-0.745824 2:0.388501 
1 1:-0.745824 2:0.388501 
1 1:-0.745824 2:0.388501 
1 1:-0.745824 2:0.388501 
1 1:-0.745824 2:0.388501 
1 1:-0.745824 2:0.388501 
1 1:-0.745824 2:0.388501 
1 1:-0.745824 2:0.388501 
1 1:-0.745824 2:0.388501 
1 1:-0.745824 2:0.388501 
1 1:-0.745824 2:0.388501 
1 1:-0.745824 2:0.388501 
1 1:-0.745824 2:0.388501 
1 1:-0.745824 2:0.388501 
1 1:-0.745824 2:0.388501 
1 1:-0.745824 2:0.388501 
1 1:-0.745824 2:0.388501 
1 1:-0.745824 2:0.388501 
1 1:-0.745824 2:0.388501 
1 1:-0.745824 2:0.388501 
1 1:-0.745824 2:0.388501 
1 1:-0.745824 2:0.388501 
1 1:-0.745824 2:0.388501 
1 1:-0.745824 2:0.388501 
1 1:-0.745824 2:0.388501 
1 1:-0.745824 2:0.388501 
1 1:-0.745824 2:0.388501 
1 1:-0.745824 2:0.388501 
1 1:-0.745824 2:0.388501 
1 1:-0.745824 2:0.388501 
1 1:-0.745824 2:0.388501 
1 1:-0.745824 2:0.388501 
1 1:-0.745824 2:0.388501 
1 1:-0.745824 2:0.388501 
1 1:-0.745824 2:0.388501 
1 1:-0.745824 2:0.388501 
1 1:-0.745824 2:0.388501 
1 1:-0.745824 2:0.388501 
1 1:-0.745824 2:0.388501 
1 1:-0.745824 2:0.388501 
1 1:-0.745824 2:0.388501 
1 1:-0.745824 2:0.388501 
1 1:-0.745824 2:0.388501 
1 1:-0.745824 2:0.388501 
1 1:-0.745824 2:0.388501 
1 1:-0.745824 2:0.388501 
1 1:-0.745824 2:0.388501 
1 1:-0.745824 2:0.388501 
1 1:-0.745824 2:0.388501 
1 1:-0.745824 2:0.388501 
1 1:-0.745824 2:0.388501 
1 1:-0.745824 2:0.388501 
1 1:-0.745824 2:0.388501 
1 1:-0.745824 2:0.388501 
1 1:-0.745824 2:0.388501 
1 1:-0.745824 2:0.388501 
1 1:-0.745824 2:0.388501 
1 1:-0.745824 2:0.388501 
1 1:-0.745824 2:0.388501 
1 1:-0.745824 2:0.388501 
1 1:-0.745824 2:0.388501 
1 1:-0.745824 2:0.388501 
1 1:-0.745824 2:0.388501 
1 1:-0.745824 2:0.388501 
1 1:-0.745824 2:0.388501 
1 1:-0.745824 2:0.388501 
1 1:-0.745824 2:0.388501 
1 1:-0.745824 2:0.388501 
1 1:-0.745824 2:0.388501 
1 1:-0.745824 2:0.388501 
1 1:-0.745824 2:0.388501 
1 1:-0.745824 2:0.388501 
1 1:-0.745824 2:0.388501 
1 1:-0.745824 2:0.388501 
1 1:-0.745824 2:0.388501 
1 1:0.0726235 2:-0.212619 
1 1:0.0726235 2:-0.212619 
1 1:0.0726235 2:-0.212619 
1 1:0.0726235 2:-0.212619 
1 1:0.0726235 2:-0.212619 
1 1:0.0726235 2:-0.212619 
1 1:0.0726235 2:-0.212619 
1 1:0.0726235 2:-0.212619 
1 1:0.0726235 2:-0.212619 
1 1:0.0726235 2:-0.212619 
1 1:0.0726235 2:-0.212619 
1 1:0.0726235 2:-0.212619 
1 1:0.0726235 2:-0.212619 
1 1:0.0726235 2:-0.212619 
1 1:0.0726235 2:-0.212619 
1 1:0.0726235 2:-0.212619 
1 1:0.0726235 2:-0.212619 
1 1:0.0726235 2:-0.212619 
1 1:0.0726235 2:-0.212619 
1 1:0.0726235 2:-0.212619 
1 1:0.0726235 2:-0.212619 
1 1:0.0726235 2:-0.212619 
1 1:0.0726235 2:-0.212619 
1 1:0.0726235 2:-0.212619 
1 1:0.0726235 2:-0.212619 
1 1:0.0726235 2:-0.212619 
1 1:0.0726235 2:-0.212619 
1 1:0.0726235 2:-0.212619 
1 1:0.0726235 2:-0.212619 
1 1:0.0726235 2:-0.212619 
1 1:0.0726235 2:-0.212619 
1 1:0.0726235 2:-0.212619 
1 1:0.0726235 2:-0.212619 
1 1:0.0726235 2:-0.212619 
1 1:0.0726235 2:-0.212619 
1 1:0.0726235 2:-0.212619 
1 1:0.0726235 2:-0.212619 
1 1:0.0726235 2:-0.212619 
1 1:0.0726235 2:-0.212619 
1 1:0.0726235 2:-0.212619 
1 1:0.0726235 2:-0.212619 
1 1:0.0726235 2:-0.212619 
1 1:0.0726235 2:-0.212619 
1 1:0.0726235 2:-0.212619 
1 1:0.0726235 2:-0.212619 
1 1:0.0726235 2:-0.212619 
1 1:0.0726235 2:-0.212619 
1 1:0.0726235 2:-0.212619 
1 1:0.0726235 2:-0.212619 
1 1:0.0726235 2:-0.212619 
1 1:0.0726235 2:-0.212619 
1 1:0.0726235 2:-0.212619 
1 1:0.0726235 2:-0.212619 
1 1:0.0726235 2:-0.212619 
1 1:0.0726235 2:-0.212619 
1 1:0.0726235 2:-0.212619 
1 1:0.0726235 2:-0.212619 
1 1:0.0726235 2:-0.212619 
1 1:0.0726235 2:-0.212619 
1 1:0.0726235 2:-0.212619 
1 1:0.0726235 2:-0.212619 
1 1:0.0726235 2:-0.212619 
1 1:0.0726235 2:-0.212619 
1 1:0.0726235 2:-0.212619 
1 1:0.0726235 2:-0.212619 
1 1:0.0726235 2:-0.212619 
1 1:0.0726235 2:-0.212619 
1 1:0.0726235 2:-0.212619 
1 1:0.0726235 2:-0.212619 
1 1:0.0726235 2:-0.212619 
1 1:0.0726235 2:-0.212619 
1 1:0.0726235 2:-0.212619 
1 1:0.0726235 2:-0.212619 
1 1:0.0726235 2:-0.212619 
1 1:0.0726235 2:-0.212619 
1 1:0.0726235 2:-0.212619 
1 1:0.0726235 2:-0.212619 
1 1:0.0726235 2:-0.212619 
1 1:0.0726235 2:-0.212619 
1 1:0.0726235 2:-0.212619 
1 1:0.0726235 2:-0.212619 
1 1:0.0726235 2:-0.212619 
1 1:0.0726235 2:-0.212619 
1 1:0.0726235 2:-0.212619 
1 1:0.0726235 2:-0.212619 
1 1:0.0726235 2:-0.212619 
1 1:0.0726235 2:-0.212619 
1 1:0.0726235 2:-0.212619 
1 1:0.0726235 2:-0.212619 
1 1:0.0726235 2:-0.212619 
1 1:0.0726235 2:-0.212619 
1 1:0.0726235 2:-0.212619 
1 1:0.0726235 2:-0.212619 
1 1:-0.979008 2:-0.967911 
1 1:-0.979008 2:-0.967911 
1 1:-0.979008 2:-0.967911 
1 1:-0.979008 2:-0.967911 
1 1:-0.979008 2:-0.967911 
1 1:-0.979008 2:-0.967911 
1 1:-0.979008 2:-0.967911 
1 1:-0.979008 2:-0.967911 
1 1:-0.979008 2:-0.967911 
1 1:-0.979008 2:-0.967911 
1 1:-0.979008 2:-0.967911 
1 1:-0.979008 2:-0.967911 
1 1:-0.979008 2:-0.967911 
1 1:-0.979008 2:-0.967911 
1 1:-0.979008 2:-0.967911 
1 1:-0.979008 2:-0.967911 
1 1:-0.979008 2:-0.967911 
1 1:-0.979008 2:-0.967911 
1 1:-0.979008 2:-0.967911 
1 1:-0.979008 2:-0.967911 
1 1:-0.979008 2:-0.967911 
1 1:-0.979008 2:-0.967911 
1 1:-0.979008 2:-0.967911 
1 1:-0.979008 2:-0.967911 
1 1:-0.979008 2:-0.967911 
1 1:-0.979008 2:-0.967911 
1 1:-0.979008 2:-0.967911 
1 1:-0.979008 2:-0.967911 
1 1:-0.979008 2:-0.967911 
1 1:-0.979008 2:-0.967911 
1 1:-0.979008 2:-0.967911 
1 1:-0.979008 2:-0.967911 
1 1:-0.979008 2:-0.967911 
1 1:-0.979008 2:-0.967911 
1 1:-0.979008 2:-0.967911 
1 1:-0.979008 2:-0.967911 
1 1:-0.979008 2:-0.967911 
1 1:-0.979008 2:-0.967911 
1 1:-0.979008 2:-0.967911 
1 1:-0.979008 2:-0.967911 
1 1:-0.979008 2:-0.967911 
1 1:-0.979008 2:-0.967911 
1 1:-0.979008 2:-0.967911 
1 1:-0.979008 2:-0.967911 
1 1:-0.979008 2:-0.967911 
1 1:-0.979008 2:-0.967911 
1 1:-0.979008 2:-0.967911 
1 1:-0.979008 2:-0.967911 
1 1:-0.979008 2:-0.967911 
1 1:-0.979008 2:-0.967911 
1 1:-0.979008 2:-0.967911 
1 1:-0.979008 2:-0.967911 
1 1:-0.979008 2:-0.967911 
1 1:-0.979008 2:-0.967911 
1 1:-0.979008 2:-0.967911 
1 1:-0.979008 2:-0.967911 
1 1:-0.979008 2:-0.967911 
1 1:-0.979008 2:-0.967911 
1 1:-0.979008 2:-0.967911 
1 1:-0.979008 2:-0.967911 
1 1:-0.979008 2:-0.967911 
1 1:-0.979008 2:-0.967911 
1 1:-0.979008 2:-0.967911 
1 1:-0.979008 2:-0.967911 
1 1:-0.979008 2:-0.967911 
1 1:-0.979008 2:-0.967911 
1 1:-0.979008 2:-0.967911 
1 1:-0.979008 2:-0.967911 
1 1:-0.979008 2:-0.967911 
1 1:-0.979008 2:-0.967911 
1 1:-0.979008 2:-0.967911 
1 1:-0.979008 2:-0.967911 
1 1:-0.979008 2:-0.967911 
1 1:-0.979008 2:-0.967911 
1 1:-0.979008 2:-0.967911 
1 1:-0.979008 2:-0.967911 
1 1:-0.979008 2:-0.967911 
1 1:-0.979008 2:-0.967911 
1 1:-0.979008 2:-0.967911 
1 1:-0.979008 2:-0.967911 
1 1:-0.979008 2:-0.967911 
1 1:-0.979008 2:-0.967911 
1 1:-0.979008 2:-0.967911 
1 1:-0.979008 2:-0.967911 
1 1:-0.979008 2:-0.967911 
1 1:-0.979008 2:-0.967911 
1 1:-0.979008 2:-0.967911 
1 1:-0.979008 2:-0.967911 
1 1:-0.985912 2:-0.988461 
1 1:-0.988278 2:-0.976764 
1 1:-0.985912 2:-0.988461 
1 1:-0.988278 2:-0.976764 
1 1:-0.985912 2:-0.988461 
1 1:-0.988278 2:-0.976764 
1 1:-0.985912 2:-0.988461 
1 1:-0.988278 2:-0.976764 
1 1:-0.985912 2:-0.988461 
1 1:-0.988278 2:-0.976764 
1 1:-0.985912 2:-0.988461 
1 1:-0.988278 2:-0.976764 
1 1:-0.985912 2:-0.988461 
1 1:-0.988278 2:-0.976764 
1 1:-0.985912 2:-0.988461 
1 1:-0.988278 2:-0.976764 
1 1:-0.985912 2:-0.988461 
1 1:-0.988278 2:-0.976764 
1 1:-0.985912 2:-0.988461 
1 1:-0.988278 2:-0.976764 
1 1:-0.985912 2:-0.988461 
1 1:-0.988278 2:-0.976764 
1 1:-0.985912 2:-0.988461 
1 1:-0.988278 2:-0.976764 
1 1:-0.985912 2:-0.988461 
1 1:-0.988278 2:-0.976764 
1 1:-0.985912 2:-0.988461 
1 1:-0.988278 2:-0.976764 
1 1:-0.985912 2:-0.988461 
1 1:-0.988278 2:-0.976764 
1 1:-0.985912 2:-0.988461 
1 1:-0.988278 2:-0.976764 
1 1:-0.985912 2:-0.988461 
1 1:-0.988278 2:-0.976764 
1 1:-0.985912 2:-0.988461 
1 1:-0.988278 2:-0.976764 
1 1:-0.985912 2:-0.988461 
1 1:-0.988278 2:-0.976764 
1 1:-0.985912 2:-0.988461 
1 1:-0.988278 2:-0.976764 
1 1:-0.985912 2:-0.988461 
1 1:-0.988278 2:-0.976764 
1 1:-0.985912 2:-0.988461 
1 1:-0.988278 2:-0.976764 
1 1:-0.985912 2:-0.988461 
1 1:-0.988278 2:-0.976764 
1 1:-0.985912 2:-0.988461 
1 1:-0.988278 2:-0.976764 
1 1:-0.985912 2:-0.988461 
1 1:-0.988278 2:-0.976764 
1 1:-0.985912 2:-0.988461 
1 1:-0.988278 2:-0.976764 
1 1:-0.985912 2:-0.988461 
1 1:-0.988278 2:-0.976764 
1 1:-0.985912 2:-0.988461 
1 1:-0.988278 2:-0.976764 
1 1:-0.985912 2:-0.988461 
1 1:-0.988278 2:-0.976764 
1 1:-0.985912 2:-0.988461 
1 1:-0.988278 2:-0.976764 
1 1:-0.985912 2:-0.988461 
1 1:-0.988278 2:-0.976764 
1 1:-0.985912 2:-0.988461 
1 1:-0.988278 2:-0.976764 
1 1:-0.985912 2:-0.988461 
1 1:-0.988278 2:-0.976764 
1 1:-0.985912 2:-0.988461 
1 1:-0.988278 2:-0.976764 
1 1:-0.985912 2:-0.988461 
1 1:-0.988278 2:-0.976764 
1 1:-0.985912 2:-0.988461 
1 1:-0.988278 2:-0.976764 
1 1:-0.985912 2:-0.988461 
1 1:-0.988278 2:-0.976764 
1 1:-0.985912 2:-0.988461 
1 1:-0.988278 2:-0.976764 
1 1:-0.985912 2:-0.988461 
1 1:-0.988278 2:-0.976764 
1 1:-0.985912 2:-0.988461 
1 1:-0.988278 2:-0.976764 
1 1:-0.985912 2:-0.988461 
1 1:-0.988278 2:-0.976764 
1 1:-0.985912 2:-0.988461 
1 1:-0.988278 2:-0.976764 
1 1:-0.985912 2:-0.988461 
1 1:-0.988278 2:-0.976764 
1 1:-0.985912 2:-0.988461 
1 1:-0.988278 2:-0.976764 
1 1:-0.985912 2:-0.988461 
1 1:-0.988278 2:-0.976764 
1 1:-0.985912 2:-0.988461 
1 1:-0.988278 2:-0.976764 
1 1:-0.985912 2:-0.988461 
1 1:-0.988278 2:-0.976764 
1 1:-0.985912 2:-0.988461 
1 1:-0.988278 2:-0.976764 
1 1:-0.985912 2:-0.988461 
1 1:-0.988278 2:-0.976764 
1 1:-0.985912 2:-0.988461 
1 1:-0.988278 2:-0.976764 
1 1:-0.985912 2:-0.988461 
1 1:-0.988278 2:-0.976764 
1 1:-0.985912 2:-0.988461 
1 1:-0.988278 2:-0.976764 
1 1:-0.985912 2:-0.988461 
1 1:-0.988278 2:-0.976764 
1 1:-0.141972 2:-0.655556 
1 1:-0.978831 2:-0.957424 
1 1:-0.141972 2:-0.655556 
1 1:-0.978831 2:-0.957424 
1 1:-0.141972 2:-0.655556 
1 1:-0.978831 2:-0.957424 
1 1:-0.141972 2:-0.655556 
1 1:-0.978831 2:-0.957424 
1 1:-0.141972 2:-0.655556 
1 1:-0.978831 2:-0.957424 
1 1:-0.141972 2:-0.655556 
1 1:-0.978831 2:-0.957424 
1 1:-0.141972 2:-0.655556 
1 1:-0.978831 2:-0.957424 
1 1:-0.141972 2:-0.655556 
1 1:-0.978831 2:-0.957424 
1 1:-0.141972 2:-0.655556 
1 1:-0.978831 2:-0.957424 
1 1:-0.141972 2:-0.655556 
1 1:-0.978831 2:-0.957424 
1 1:-0.141972 2:-0.655556 
1 1:-0.978831 2:-0.957424 
1 1:-0.141972 2:-0.655556 
1 1:-0.978831 2:-0.957424 
1 1:-0.141972 2:-0.655556 
1 1:-0.978831 2:-0.957424 
1 1:-0.141972 2:-0.655556 
1 1:-0.978831 2:-0.957424 
1 1:-0.141972 2:-0.655556 
1 1:-0.978831 2:-0.957424 
1 1:-0.141972 2:-0.655556 
1 1:-0.978831 2:-0.957424 
1 1:-0.141972 2:-0.655556 
1 1:-0.978831 2:-0.957424 
1 1:-0.141972 2:-0.655556 
1 1:-0.978831 2:-0.957424 
1 1:-0.141972 2:-0.655556 
1 1:-0.978831 2:-0.957424 
1 1:-0.141972 2:-0.655556 
1 1:-0.978831 2:-0.957424 
1 1:-0.141972 2:-0.655556 
1 1:-0.978831 2:-0.957424 
1 1:-0.141972 2:-0.655556 
1 1:-0.978831 2:-0.957424 
1 1:-0.141972 2:-0.655556 
1 1:-0.978831 2:-0.957424 
1 1:-0.141972 2:-0.655556 
1 1:-0.978831 2:-0.957424 
1 1:-0.141972 2:-0.655556 
1 1:-0.978831 2:-0.957424 
1 1:-0.141972 2:-0.655556 
1 1:-0.978831 2:-0.957424 
1 1:-0.141972 2:-0.655556 
1 1:-0.978831 2:-0.957424 
1 1:-0.141972 2:-0.655556 
1 1:-0.978831 2:-0.957424 
1 1:-0.141972 2:-0.655556 
1 1:-0.978831 2:-0.957424 
1 1:-0.141972 2:-0.655556 
1 1:-0.978831 2:-0.957424 
1 1:-0.141972 2:-0.655556 
1 1:-0.978831 2:-0.957424 
1 1:-0.141972 2:-0.655556 
1 1:-0.978831 2:-0.957424 
1 1:-0.141972 2:-0.655556 
1 1:-0.978831 2:-0.957424 
1 1:-0.141972 2:-0.655556 
1 1:-0.978831 2:-0.957424 
1 1:-0.141972 2:-0.655556 
1 1:-0.978831 2:-0.957424 
1 1:-0.141972 2:-0.655556 
1 1:-0.978831 2:-0.957424 
1 1:-0.141972 2:-0.655556 
1 1:-0.978831 2:-0.957424 
1 1:-0.141972 2:-0.655556 
1 1:-0.978831 2:-0.957424 
1 1:-0.141972 2:-0.655556 
1 1:-0.978831 2:-0.957424 
1 1:-0.141972 2:-0.655556 
1 1:-0.978831 2:-0.957424 
1 1:-0.141972 2:-0.655556 
1 1:-0.978831 2:-0.957424 
1 1:-0.141972 2:-0.655556 
1 1:-0.978831 2:-0.957424 
1 1:-0.141972 2:-0.655556 
1 1:-0.978831 2:-0.957424 
1 1:-0.141972 2:-0.655556 
1 1:-0.978831 2:-0.957424 
1 1:-0.141972 2:-0.655556 
1 1:-0.978831 2:-0.957424 
1 1:-0.141972 2:-0.655556 
1 1:-0.978831 2:-0.957424 
1 1:-0.141972 2:-0.655556 
1 1:-0.978831 2:-0.957424 
1 1:-0.141972 2:-0.655556 
1 1:-0.978831 2:-0.957424 
1 1:-0.141972 2:-0.655556 
1 1:-0.978831 2:-0.957424 
1 1:-0.141972 2:-0.655556 
1 1:-0.978831 2:-0.957424 
1 1:-0.141972 2:-0.655556 
1 1:-0.978831 2:-0.957424 
1 1:-0.141972 2:-0.655556 
1 1:-0.978831 2:-0.957424 
1 1:-0.141972 2:-0.655556 
1 1:-0.978831 2:-0.957424 
1 1:-0.141972 2:-0.655556 
1 1:-0.978831 2:-0.957424 
1 1:-0.141972 2:-0.655556 
1 1:-0.978831 2:-0.957424 
1 1:-0.141972 2:-0.655556 
1 1:-0.978831 2:-0.957424 
1 1:-0.141972 2:-0.655556 
1 1:-0.978831 2:-0.957424 
1 1:-0.141972 2:-0.655556 
1 1:-0.978831 2:-0.957424 
1 1:-0.141972 2:-0.655556 
1 1:-0.978831 2:-0.957424 
1 1:-0.141972 2:-0.655556 
1 1:-0.978831 2:-0.957424 
1 1:-0.141972 2:-0.655556 
1 1:-0.978831 2:-0.957424 
1 1:-0.141972 2:-0.655556 
1 1:-0.978831 2:-0.957424 
1 1:-0.141972 2:-0.655556 
1 1:-0.978831 2:-0.957424 
1 1:-0.141972 2:-0.655556 
1 1:-0.978831 2:-0.957424 
1 1:-0.141972 2:-0.655556 
1 1:-0.978831 2:-0.957424 
1 1:-0.141972 2:-0.655556 
1 1:-0.978831 2:-0.957424 
1 1:-0.141972 2:-0.655556 
1 1:-0.978831 2:-0.957424 
1 1:-0.141972 2:-0.655556 
1 1:-0.978831 2:-0.957424 
1 1:-0.141972 2:-0.655556 
1 1:-0.978831 2:-0.957424 
1 1:-0.141972 2:-0.655556 
1 1:-0.978831 2:-0.957424 
1 1:-0.141972 2:-0.655556 
1 1:-0.978831 2:-0.957424 
1 1:-0.141972 2:-0.655556 
1 1:-0.978831 2:-0.957424 
1 1:-0.141972 2:-0.655556 
1 1:-0.978831 2:-0.957424 
1 1:-0.141972 2:-0.655556 
1 1:-0.978831 2:-0.957424 
1 1:-0.141972 2:-0.655556 
1 1:-0.978831 2:-0.957424 
1 1:-0.141972 2:-0.655556 
1 1:-0.978831 2:-0.957424 
1 1:-0.141972 2:-0.655556 
1 1:-0.978831 2:-0.957424 
1 1:-0.141972 2:-0.655556 
1 1:-0.978831 2:-0.957424 
1 1:-0.141972 2:-0.655556 
1 1:-0.978831 2:-0.957424 
1 1:-0.141972 2:-0.655556 
1 1:-0.978831 2:-0.957424 
1 1:-0.141972 2:-0.655556 
1 1:-0.978831 2:-0.957424 
1 1:-0.141972 2:-0.655556 
1 1:-0.978831 2:-0.957424 
1 1:-0.141972 2:-0.655556 
1 1:-0.978831 2:-0.957424 
1 1:-0.141972 2:-0.655556 
1 1:-0.978831 2:-0.957424 
1 1:-0.141972 2:-0.655556 
1 1:-0.978831 2:-0.957424 
1 1:-0.141972 2:-0.655556 
1 1:-0.978831 2:-0.957424 
1 1:-0.141972 2:-0.655556 
1 1:-0.978831 2:-0.957424 
1 1:-0.141972 2:-0.655556 
1 1:-0.978831 2:-0.957424 
1 1:-0.141972 2:-0.655556 
1 1:-0.978831 2:-0.957424 
1 1:-0.141972 2:-0.655556 
1 1:-0.978831 2:-0.957424 
1 1:-0.141972 2:-0.655556 
1 1:-0.978831 2:-0.957424 
1 1:-0.141972 2:-0.655556 
1 1:-0.978831 2:-0.957424 
1 1:-0.141972 2:-0.655556 
1 1:-0.978831 2:-0.957424 
1 1:-0.141972 2:-0.655556 
1 1:-0.978831 2:-0.957424 
1 1:-0.9841 2:-0.954402 
1 1:-0.9841 2:-0.954402 
1 1:-0.9841 2:-0.954402 
1 1:-0.9841 2:-0.954402 
1 1:-0.9841 2:-0.954402 
1 1:-0.9841 2:-0.954402 
1 1:-0.9841 2:-0.954402 
1 1:-0.9841 2:-0.954402 
1 1:-0.9841 2:-0.954402 
1 1:-0.9841 2:-0.954402 
1 1:-0.9841 2:-0.954402 
1 1:-0.9841 2:-0.954402 
1 1:-0.9841 2:-0.954402 
1 1:-0.9841 2:-0.954402 
1 1:-0.9841 2:-0.954402 
1 1:-0.9841 2:-0.954402 
1 1:-0.9841 2:-0.954402 
1 1:-0.9841 2:-0.954402 
1 1:-0.9841 2:-0.954402 
1 1:-0.9841 2:-0.954402 
1 1:-0.9841 2:-0.954402 
1 1:-0.9841 2:-0.954402 
1 1:-0.9841 2:-0.954402 
1 1:-0.9841 2:-0.954402 
1 1:-0.9841 2:-0.954402 
1 1:-0.9841 2:-0.954402 
1 1:-0.9841 2:-0.954402 
1 1:-0.9841 2:-0.954402 
1 1:-0.9841 2:-0.954402 
1 1:-0.9841 2:-0.954402 
1 1:-0.9841 2:-0.954402 
1 1:-0.9841 2:-0.954402 
1 1:-0.9841 2:-0.954402 
1 1:-0.9841 2:-0.954402 
1 1:-0.9841 2:-0.954402 
1 1:-0.9841 2:-0.954402 
1 1:-0.9841 2:-0.954402 
1 1:-0.9841 2:-0.954402 
1 1:-0.9841 2:-0.954402 
1 1:-0.9841 2:-0.954402 
1 1:-0.9841 2:-0.954402 
1 1:-0.9841 2:-0.954402 
1 1:-0.9841 2:-0.954402 
1 1:-0.9841 2:-0.954402 
1 1:-0.9841 2:-0.954402 
1 1:-0.9841 2:-0.954402 
1 1:-0.9841 2:-0.954402 
1 1:-0.9841 2:-0.954402 
1 1:-0.9841 2:-0.954402 
1 1:-0.9841 2:-0.954402 
1 1:-0.9841 2:-0.954402 
1 1:-0.9841 2:-0.954402 
1 1:-0.9841 2:-0.954402 
1 1:-0.9841 2:-0.954402 
1 1:-0.9841 2:-0.954402 
1 1:-0.9841 2:-0.954402 
1 1:-0.9841 2:-0.954402 
1 1:-0.9841 2:-0.954402 
1 1:-0.9841 2:-0.954402 
1 1:-0.9841 2:-0.954402 
1 1:-0.9841 2:-0.954402 
1 1:-0.9841 2:-0.954402 
1 1:-0.9841 2:-0.954402 
1 1:-0.9841 2:-0.954402 
1 1:-0.9841 2:-0.954402 
1 1:-0.9841 2:-0.954402 
1 1:-0.9841 2:-0.954402 
1 1:-0.9841 2:-0.954402 
1 1:-0.9841 2:-0.954402 
1 1:-0.9841 2:-0.954402 
1 1:-0.9841 2:-0.954402 
1 1:-0.9841 2:-0.954402 
1 1:-0.9841 2:-0.954402 
1 1:-0.9841 2:-0.954402 
1 1:-0.9841 2:-0.954402 
1 1:-0.9841 2:-0.954402 
1 1:-0.9841 2:-0.954402 
1 1:-0.9841 2:-0.954402 
1 1:-0.9841 2:-0.954402 
1 1:-0.9841 2:-0.954402 
1 1:-0.9841 2:-0.954402 
1 1:-0.9841 2:-0.954402 
1 1:-0.9841 2:-0.954402 
1 1:-0.9841 2:-0.954402 
1 1:-0.9841 2:-0.954402 
1 1:-0.9841 2:-0.954402 
1 1:-0.9841 2:-0.954402 
1 1:-0.9841 2:-0.954402 
1 1:-0.9841 2:-0.954402 
1 1:-0.9841 2:-0.954402 
1 1:-0.192578 2:0.0567275 
1 1:-0.50591 2:0.26836 
1 1:-0.192578 2:0.0567275 
1 1:-0.50591 2:0.26836 
1 1:-0.192578 2:0.0567275 
1 1:-0.50591 2:0.26836 
1 1:-0.192578 2:0.0567275 
1 1:-0.50591 2:0.26836 
1 1:-0.192578 2:0.0567275 
1 1:-0.50591 2:0.26836 
1 1:-0.192578 2:0.0567275 
1 1:-0.50591 2:0.26836 
1 1:-0.192578 2:0.0567275 
1 1:-0.50591 2:0.26836 
1 1:-0.192578 2:0.0567275 
1 1:-0.50591 2:0.26836 
1 1:-0.192578 2:0.0567275 
1 1:-0.50591 2:0.26836 
1 1:-0.192578 2:0.0567275 
1 1:-0.50591 2:0.26836 
1 1:-0.192578 2:0.0567275 
1 1:-0.50591 2:0.26836 
1 1:-0.192578 2:0.0567275 
1 1:-0.50591 2:0.26836 
1 1:-0.192578 2:0.0567275 
1 1:-0.50591 2:0.26836 
1 1:-0.192578 2:0.0567275 
1 1:-0.50591 2:0.26836 
1 1:-0.192578 2:0.0567275 
1 1:-0.50591 2:0.26836 
1 1:-0.192578 2:0.0567275 
1 1:-0.50591 2:0.26836 
1 1:-0.192578 2:0.0567275 
1 1:-0.50591 2:0.26836 
1 1:-0.192578 2:0.0567275 
1 1:-0.50591 2:0.26836 
1 1:-0.192578 2:0.0567275 
1 1:-0.50591 2:0.26836 
1 1:-0.192578 2:0.0567275 
1 1:-0.50591 2:0.26836 
1 1:-0.192578 2:0.0567275 
1 1:-0.50591 2:0.26836 
1 1:-0.192578 2:0.0567275 
1 1:-0.50591 2:0.26836 
1 1:-0.192578 2:0.0567275 
1 1:-0.50591 2:0.26836 
1 1:-0.192578 2:0.0567275 
1 1:-0.50591 2:0.26836 
1 1:-0.192578 2:0.0567275 
1 1:-0.50591 2:0.26836 
1 1:-0.192578 2:0.0567275 
1 1:-0.50591 2:0.26836 
1 1:-0.192578 2:0.0567275 
1 1:-0.50591 2:0.26836 
1 1:-0.192578 2:0.0567275 
1 1:-0.50591 2:0.26836 
1 1:-0.192578 2:0.0567275 
1 1:-0.50591 2:0.26836 
1 1:-0.192578 2:0.0567275 
1 1:-0.50591 2:0.26836 
1 1:-0.192578 2:0.0567275 
1 1:-0.50591 2:0.26836 
1 1:-0.192578 2:0.0567275 
1 1:-0.50591 2:0.26836 
1 1:-0.192578 2:0.0567275 
1 1:-0.50591 2:0.26836 
1 1:-0.192578 2:0.0567275 
1 1:-0.50591 2:0.26836 
1 1:-0.192578 2:0.0567275 
1 1:-0.50591 2:0.26836 
1 1:-0.192578 2:0.0567275 
1 1:-0.50591 2:0.26836 
1 1:-0.192578 2:0.0567275 
1 1:-0.50591 2:0.26836 
1 1:-0.192578 2:0.0567275 
1 1:-0.50591 2:0.26836 
1 1:-0.192578 2:0.0567275 
1 1:-0.50591 2:0.26836 
1 1:-0.192578 2:0.0567275 
1 1:-0.50591 2:0.26836 
1 1:-0.192578 2:0.0567275 
1 1:-0.50591 2:0.26836 
1 1:-0.192578 2:0.0567275 
1 1:-0.50591 2:0.26836 
1 1:-0.192578 2:0.0567275 
1 1:-0.50591 2:0.26836 
1 1:-0.192578 2:0.0567275 
1 1:-0.50591 2:0.26836 
1 1:-0.192578 2:0.0567275 
1 1:-0.50591 2:0.26836 
1 1:-0.192578 2:0.0567275 
1 1:-0.50591 2:0.26836 
1 1:-0.192578 2:0.0567275 
1 1:-0.50591 2:0.26836 
1 1:-0.192578 2:0.0567275 
1 1:-0.50591 2:0.26836 
1 1:-0.192578 2:0.0567275 
1 1:-0.50591 2:0.26836 
1 1:-0.192578 2:0.0567275 
1 1:-0.50591 2:0.26836 
1 1:-0.192578 2:0.0567275 
1 1:-0.50591 2:0.26836 
1 1:-0.192578 2:0.0567275 
1 1:-0.50591 2:0.26836 
1 1:-0.192578 2:0.0567275 
1 1:-0.50591 2:0.26836 
1 1:-0.192578 2:0.0567275 
1 1:-0.50591 2:0.26836 
1 1:-0.192578 2:0.0567275 
1 1:-0.50591 2:0.26836 
1 1:-0.192578 2:0.0567275 
1 1:-0.50591 2:0.26836 
1 1:-0.192578 2:0.0567275 
1 1:-0.50591 2:0.26836 
1 1:-0.192578 2:0.0567275 
1 1:-0.50591 2:0.26836 
1 1:-0.192578 2:0.0567275 
1 1:-0.50591 2:0.26836 
1 1:-0.192578 2:0.0567275 
1 1:-0.50591 2:0.26836 
1 1:-0.192578 2:0.0567275 
1 1:-0.50591 2:0.26836 
1 1:-0.192578 2:0.0567275 
1 1:-0.50591 2:0.26836 
1 1:-0.192578 2:0.0567275 
1 1:-0.50591 2:0.26836 
1 1:-0.192578 2:0.0567275 
1 1:-0.50591 2:0.26836 
1 1:-0.192578 2:0.0567275 
1 1:-0.50591 2:0.26836 
1 1:-0.192578 2:0.0567275 
1 1:-0.50591 2:0.26836 
1 1:-0.192578 2:0.0567275 
1 1:-0.50591 2:0.26836 
1 1:-0.192578 2:0.0567275 
1 1:-0.50591 2:0.26836 
1 1:-0.192578 2:0.0567275 
1 1:-0.50591 2:0.26836 
1 1:-0.192578 2:0.0567275 
1 1:-0.50591 2:0.26836 
1 1:-0.192578 2:0.0567275 
1 1:-0.50591 2:0.26836 
1 1:-0.192578 2:0.0567275 
1 1:-0.50591 2:0.26836 
1 1:-0.192578 2:0.0567275 
1 1:-0.50591 2:0.26836 
1 1:-0.192578 2:0.0567275 
1 1:-0.50591 2:0.26836 
1 1:-0.192578 2:0.0567275 
1 1:-0.50591 2:0.26836 
1 1:-0.192578 2:0.0567275 
1 1:-0.50591 2:0.26836 
1 1:-0.192578 2:0.0567275 
1 1:-0.50591 2:0.26836 
1 1:-0.192578 2:0.0567275 
1 1:-0.50591 2:0.26836 
1 1:-0.192578 2:0.0567275 
1 1:-0.50591 2:0.26836 
1 1:-0.192578 2:0.0567275 
1 1:-0.50591 2:0.26836 
1 1:-0.192578 2:0.0567275 
1 1:-0.50591 2:0.26836 
1 1:-0.192578 2:0.0567275 
1 1:-0.50591 2:0.26836 
1 1:-0.192578 2:0.0567275 
1 1:-0.50591 2:0.26836 
1 1:-0.192578 2:0.0567275 
1 1:-0.50591 2:0.26836 
1 1:-0.192578 2:0.0567275 
1 1:-0.50591 2:0.26836 
1 1:-0.192578 2:0.0567275 
1 1:-0.50591 2:0.26836 
1 1:-0.192578 2:0.0567275 
1 1:-0.50591 2:0.26836 
1 1:-0.192578 2:0.0567275 
1 1:-0.50591 2:0.26836 
1 1:-0.192578 2:0.0567275 
1 1:-0.50591 2:0.26836 
1 1:-0.192578 2:0.0567275 
1 1:-0.50591 2:0.26836 
1 1:-0.192578 2:0.0567275 
1 1:-0.50591 2:0.26836 
1 1:-0.192578 2:0.0567275 
1 1:-0.50591 2:0.26836 
1 1:-0.192578 2:0.0567275 
1 1:-0.50591 2:0.26836 
1 1:-0.367279 2:0.222554 
1 1:-0.367279 2:0.222554 
1 1:-0.367279 2:0.222554 
1 1:-0.367279 2:0.222554 
1 1:-0.367279 2:0.222554 
1 1:-0.367279 2:0.222554 
1 1:-0.367279 2:0.222554 
1 1:-0.367279 2:0.222554 
1 1:-0.367279 2:0.222554 
1 1:-0.367279 2:0.222554 
1 1:-0.367279 2:0.222554 
1 1:-0.367279 2:0.222554 
1 1:-0.367279 2:0.222554 
1 1:-0.367279 2:0.222554 
1 1:-0.367279 2:0.222554 
1 1:-0.367279 2:0.222554 
1 1:-0.367279 2:0.222554 
1 1:-0.367279 2:0.222554 
1 1:-0.367279 2:0.222554 
1 1:-0.367279 2:0.222554 
1 1:-0.367279 2:0.222554 
1 1:-0.367279 2:0.222554 
1 1:-0.367279 2:0.222554 
1 1:-0.367279 2:0.222554 
1 1:-0.367279 2:0.222554 
1 1:-0.367279 2:0.222554 
1 1:-0.367279 2:0.222554 
1 1:-0.367279 2:0.222554 
1 1:-0.367279 2:0.222554 
1 1:-0.367279 2:0.222554 
1 1:-0.367279 2:0.222554 
1 1:-0.367279 2:0.222554 
1 1:-0.367279 2:0.222554 
1 1:-0.367279 2:0.222554 
1 1:-0.367279 2:0.222554 
1 1:-0.367279 2:0.222554 
1 1:-0.367279 2:0.222554 
1 1:-0.367279 2:0.222554 
1 1:-0.367279 2:0.222554 
1 1:-0.367279 2:0.222554 
1 1:-0.367279 2:0.222554 
1 1:-0.367279 2:0.222554 
1 1:-0.367279 2:0.222554 
1 1:-0.367279 2:0.222554 
1 1:-0.367279 2:0.222554 
1 1:-0.367279 2:0.222554 
1 1:-0.367279 2:0.222554 
1 1:-0.367279 2:0.222554 
1 1:-0.367279 2:0.222554 
1 1:-0.367279 2:0.222554 
1 1:-0.367279 2:0.222554 
1 1:-0.367279 2:0.222554 
1 1:-0.367279 2:0.222554 
1 1:-0.367279 2:0.222554 
1 1:-0.367279 2:0.222554 
1 1:-0.367279 2:0.222554 
1 1:-0.367279 2:0.222554 
1 1:-0.367279 2:0.222554 
1 1:-0.367279 2:0.222554 
1 1:-0.367279 2:0.222554 
1 1:-0.367279 2:0.222554 
1 1:-0.367279 2:0.222554 
1 1:-0.367279 2:0.222554 
1 1:-0.367279 2:0.222554 
1 1:-0.367279 2:0.222554 
1 1:-0.367279 2:0.222554 
1 1:-0.367279 2:0.222554 
1 1:-0.367279 2:0.222554 
1 1:-0.367279 2:0.222554 
1 1:-0.367279 2:0.222554 
1 1:-0.367279 2:0.222554 
1 1:-0.367279 2:0.222554 
1 1:-0.367279 2:0.222554 
1 1:-0.367279 2:0.222554 
1 1:-0.367279 2:0.222554 
1 1:-0.367279 2:0.222554 
1 1:-0.367279 2:0.222554 
1 1:-0.367279 2:0.222554 
1 1:-0.367279 2:0.222554 
1 1:-0.367279 2:0.222554 
1 1:-0.367279 2:0.222554 
1 1:-0.367279 2:0.222554 
1 1:-0.367279 2:0.222554 
1 1:-0.367279 2:0.222554 
1 1:-0.367279 2:0.222554 
1 1:-0.367279 2:0.222554 
1 1:-0.367279 2:0.222554 
1 1:-0.367279 2:0.222554 
1 1:-0.367279 2:0.222554 
1 1:-0.367279 2:0.222554 
1 1:-0.367279 2:0.222554 
1 1:-0.367279 2:0.222554 
1 1:-0.367279 2:0.222554 
1 1:-0.367279 2:0.222554 
1 1:-0.367279 2:0.222554 
1 1:-0.367279 2:0.222554 
1 1:-0.979317 2:-0.959334 
1 1:-0.979317 2:-0.959334 
1 1:-0.979317 2:-0.959334 
1 1:-0.979317 2:-0.959334 
1 1:-0.979317 2:-0.959334 
1 1:-0.979317 2:-0.959334 
1 1:-0.979317 2:-0.959334 
1 1:-0.979317 2:-0.959334 
1 1:-0.979317 2:-0.959334 
1 1:-0.979317 2:-0.959334 
1 1:-0.979317 2:-0.959334 
1 1:-0.979317 2:-0.959334 
1 1:-0.979317 2:-0.959334 
1 1:-0.979317 2:-0.959334 
1 1:-0.979317 2:-0.959334 
1 1:-0.979317 2:-0.959334 
1 1:-0.979317 2:-0.959334 
1 1:-0.979317 2:-0.959334 
1 1:-0.979317 2:-0.959334 
1 1:-0.979317 2:-0.959334 
1 1:-0.979317 2:-0.959334 
1 1:-0.979317 2:-0.959334 
1 1:-0.979317 2:-0.959334 
1 1:-0.979317 2:-0.959334 
1 1:-0.979317 2:-0.959334 
1 1:-0.979317 2:-0.959334 
1 1:-0.979317 2:-0.959334 
1 1:-0.979317 2:-0.959334 
1 1:-0.979317 2:-0.959334 
1 1:-0.979317 2:-0.959334 
1 1:-0.979317 2:-0.959334 
1 1:-0.979317 2:-0.959334 
1 1:-0.979317 2:-0.959334 
1 1:-0.979317 2:-0.959334 
1 1:-0.979317 2:-0.959334 
1 1:-0.979317 2:-0.959334 
1 1:-0.979317 2:-0.959334 
1 1:-0.979317 2:-0.959334 
1 1:-0.979317 2:-0.959334 
1 1:-0.979317 2:-0.959334 
1 1:-0.979317 2:-0.959334 
1 1:-0.979317 2:-0.959334 
1 1:-0.979317 2:-0.959334 
1 1:-0.979317 2:-0.959334 
1 1:-0.979317 2:-0.959334 
1 1:-0.979317 2:-0.959334 
1 1:-0.979317 2:-0.959334 
1 1:-0.979317 2:-0.959334 
1 1:-0.979317 2:-0.959334 
1 1:-0.979317 2:-0.959334 
1 1:-0.979317 2:-0.959334 
1 1:-0.979317 2:-0.959334 
1 1:-0.979317 2:-0.959334 
1 1:-0.979317 2:-0.959334 
1 1:-0.979317 2:-0.959334 
1 1:-0.979317 2:-0.959334 
1 1:-0.979317 2:-0.959334 
1 1:-0.979317 2:-0.959334 
1 1:-0.979317 2:-0.959334 
1 1:-0.979317 2:-0.959334 
1 1:-0.979317 2:-0.959334 
1 1:-0.979317 2:-0.959334 
1 1:-0.979317 2:-0.959334 
1 1:-0.979317 2:-0.959334 
1 1:-0.979317 2:-0.959334 
1 1:-0.979317 2:-0.959334 
1 1:-0.979317 2:-0.959334 
1 1:-0.979317 2:-0.959334 
1 1:-0.979317 2:-0.959334 
1 1:-0.979317 2:-0.959334 
1 1:-0.979317 2:-0.959334 
1 1:-0.979317 2:-0.959334 
1 1:-0.979317 2:-0.959334 
1 1:-0.979317 2:-0.959334 
1 1:-0.979317 2:-0.959334 
1 1:-0.979317 2:-0.959334 
1 1:-0.979317 2:-0.959334 
1 1:-0.979317 2:-0.959334 
1 1:-0.979317 2:-0.959334 
1 1:-0.979317 2:-0.959334 
1 1:-0.979317 2:-0.959334 
1 1:-0.979317 2:-0.959334 
1 1:-0.979317 2:-0.959334 
1 1:-0.979317 2:-0.959334 
1 1:-0.979317 2:-0.959334 
1 1:-0.979317 2:-0.959334 
1 1:-0.979317 2:-0.959334 
1 1:-0.979317 2:-0.959334 
1 1:-0.979317 2:-0.959334 
1 1:-0.979317 2:-0.959334 
1 1:-0.979317 2:-0.959334 
1 1:-0.979317 2:-0.959334 
1 1:-0.979317 2:-0.959334 
1 1:-0.979317 2:-0.959334 
1 1:-0.979317 2:-0.959334 
1 1:-0.979317 2:-0.959334 
1 1:-0.979317 2:-0.959334 
1 1:-0.979317 2:-0.959334 
1 1:-0.329684 2:0.0884352 
1 1:-0.329684 2:0.0884352 
1 1:-0.329684 2:0.0884352 
1 1:-0.329684 2:0.0884352 
1 1:-0.329684 2:0.0884352 
1 1:-0.329684 2:0.0884352 
1 1:-0.329684 2:0.0884352 
1 1:-0.329684 2:0.0884352 
1 1:-0.329684 2:0.0884352 
1 1:-0.329684 2:0.0884352 
1 1:-0.329684 2:0.0884352 
1 1:-0.329684 2:0.0884352 
1 1:-0.329684 2:0.0884352 
1 1:-0.329684 2:0.0884352 
1 1:-0.329684 2:0.0884352 
1 1:-0.329684 2:0.0884352 
1 1:-0.329684 2:0.0884352 
1 1:-0.329684 2:0.0884352 
1 1:-0.329684 2:0.0884352 
1 1:-0.329684 2:0.0884352 
1 1:-0.329684 2:0.0884352 
1 1:-0.329684 2:0.0884352 
1 1:-0.329684 2:0.0884352 
1 1:-0.329684 2:0.0884352 
1 1:-0.329684 2:0.0884352 
1 1:-0.329684 2:0.0884352 
1 1:-0.329684 2:0.0884352 
1 1:-0.329684 2:0.0884352 
1 1:-0.329684 2:0.0884352 
1 1:-0.329684 2:0.0884352 
1 1:-0.329684 2:0.0884352 
1 1:-0.329684 2:0.0884352 
1 1:-0.329684 2:0.0884352 
1 1:-0.329684 2:0.0884352 
1 1:-0.329684 2:0.0884352 
1 1:-0.329684 2:0.0884352 
1 1:-0.329684 2:0.0884352 
1 1:-0.329684 2:0.0884352 
1 1:-0.329684 2:0.0884352 
1 1:-0.329684 2:0.0884352 
1 1:-0.329684 2:0.0884352 
1 1:-0.329684 2:0.0884352 
1 1:-0.329684 2:0.0884352 
1 1:-0.329684 2:0.0884352 
1 1:-0.329684 2:0.0884352 
1 1:-0.329684 2:0.0884352 
1 1:-0.329684 2:0.0884352 
1 1:-0.329684 2:0.0884352 
1 1:-0.329684 2:0.0884352 
1 1:-0.329684 2:0.0884352 
1 1:-0.329684 2:0.0884352 
1 1:-0.329684 2:0.0884352 
1 1:-0.329684 2:0.0884352 
1 1:-0.329684 2:0.0884352 
1 1:-0.329684 2:0.0884352 
1 1:-0.329684 2:0.0884352 
1 1:-0.329684 2:0.0884352 
1 1:-0.329684 2:0.0884352 
1 1:-0.329684 2:0.0884352 
1 1:-0.329684 2:0.0884352 
1 1:-0.329684 2:0.0884352 
1 1:-0.329684 2:0.0884352 
1 1:-0.329684 2:0.0884352 
1 1:-0.329684 2:0.0884352 
1 1:-0.329684 2:0.0884352 
1 1:-0.329684 2:0.0884352 
1 1:-0.329684 2:0.0884352 
1 1:-0.329684 2:0.0884352 
1 1:-0.329684 2:0.0884352 
1 1:-0.329684 2:0.0884352 
1 1:-0.329684 2:0.0884352 
1 1:-0.329684 2:0.0884352 
1 1:-0.329684 2:0.0884352 
1 1:-0.329684 2:0.0884352 
1 1:-0.329684 2:0.0884352 
1 1:-0.329684 2:0.0884352 
1 1:-0.329684 2:0.0884352 
1 1:-0.329684 2:0.0884352 
1 1:-0.329684 2:0.0884352 
1 1:-0.329684 2:0.0884352 
1 1:-0.329684 2:0.0884352 
1 1:-0.329684 2:0.0884352 
1 1:-0.329684 2:0.0884352 
1 1:-0.329684 2:0.0884352 
1 1:-0.329684 2:0.0884352 
1 1:-0.329684 2:0.0884352 
1 1:-0.329684 2:0.0884352 
1 1:-0.329684 2:0.0884352 
1 1:-0.329684 2:0.0884352 
1 1:-0.329684 2:0.0884352 
1 1:-0.117977 2:-0.249889 
1 1:-0.117977 2:-0.249889 
1 1:-0.117977 2:-0.249889 
1 1:-0.117977 2:-0.249889 
1 1:-0.117977 2:-0.249889 
1 1:-0.117977 2:-0.249889 
1 1:-0.117977 2:-0.249889 
1 1:-0.117977 2:-0.249889 
1 1:-0.117977 2:-0.249889 
1 1:-0.117977 2:-0.249889 
1 1:-0.117977 2:-0.249889 
1 1:-0.117977 2:-0.249889 
1 1:-0.117977 2:-0.249889 
1 1:-0.117977 2:-0.249889 
1 1:-0.117977 2:-0.249889 
1 1:-0.117977 2:-0.249889 
1 1:-0.117977 2:-0.249889 
1 1:-0.117977 2:-0.249889 
1 1:-0.117977 2:-0.249889 
1 1:-0.117977 2:-0.249889 
1 1:-0.117977 2:-0.249889 
1 1:-0.117977 2:-0.249889 
1 1:-0.117977 2:-0.249889 
1 1:-0.117977 2:-0.249889 
1 1:-0.117977 2:-0.249889 
1 1:-0.117977 2:-0.249889 
1 1:-0.117977 2:-0.249889 
1 1:-0.117977 2:-0.249889 
1 1:-0.117977 2:-0.249889 
1 1:-0.117977 2:-0.249889 
1 1:-0.117977 2:-0.249889 
1 1:-0.117977 2:-0.249889 
1 1:-0.117977 2:-0.249889 
1 1:-0.117977 2:-0.249889 
1 1:-0.117977 2:-0.249889 
1 1:-0.117977 2:-0.249889 
1 1:-0.117977 2:-0.249889 
1 1:-0.117977 2:-0.249889 
1 1:-0.117977 2:-0.249889 
1 1:-0.117977 2:-0.249889 
1 1:-0.117977 2:-0.249889 
1 1:-0.117977 2:-0.249889 
1 1:-0.117977 2:-0.249889 
1 1:-0.117977 2:-0.249889 
1 1:-0.117977 2:-0.249889 
1 1:-0.117977 2:-0.249889 
1 1:-0.117977 2:-0.249889 
1 1:-0.117977 2:-0.249889 
1 1:-0.117977 2:-0.249889 
1 1:-0.117977 2:-0.249889 
1 1:-0.117977 2:-0.249889 
1 1:-0.117977 2:-0.249889 
1 1:-0.117977 2:-0.249889 
1 1:-0.117977 2:-0.249889 
1 1:-0.117977 2:-0.249889 
1 1:-0.117977 2:-0.249889 
1 1:-0.117977 2:-0.249889 
1 1:-0.117977 2:-0.249889 
1 1:-0.117977 2:-0.249889 
1 1:-0.117977 2:-0.249889 
1 1:-0.117977 2:-0.249889 
1 1:-0.117977 2:-0.249889 
1 1:-0.117977 2:-0.249889 
1 1:-0.117977 2:-0.249889 
1 1:-0.117977 2:-0.249889 
1 1:-0.117977 2:-0.249889 
1 1:-0.117977 2:-0.249889 
1 1:-0.117977 2:-0.249889 
1 1:-0.117977 2:-0.249889 
1 1:-0.117977 2:-0.249889 
1 1:-0.117977 2:-0.249889 
1 1:-0.117977 2:-0.249889 
1 1:-0.117977 2:-0.249889 
1 1:-0.117977 2:-0.249889 
1 1:-0.117977 2:-0.249889 
1 1:-0.117977 2:-0.249889 
1 1:-0.117977 2:-0.249889 
1 1:-0.117977 2:-0.249889 
1 1:-0.117977 2:-0.249889 
1 1:-0.117977 2:-0.249889 
1 1:-0.117977 2:-0.249889 
1 1:-0.117977 2:-0.249889 
1 1:-0.117977 2:-0.249889 
1 1:-0.117977 2:-0.249889 
1 1:-0.117977 2:-0.249889 
1 1:-0.117977 2:-0.249889 
1 1:-0.117977 2:-0.249889 
1 1:-0.117977 2:-0.249889 
1 1:-0.117977 2:-0.249889 
1 1:-0.117977 2:-0.249889 
1 1:-0.117977 2:-0.249889 
1 1:-0.117977 2:-0.249889 
1 1:-0.117977 2:-0.249889 
1 1:-0.117977 2:-0.249889 
1 1:-0.117977 2:-0.249889 
1 1:-0.988672 2:-0.953415 
1 1:-0.988672 2:-0.953415 
1 1:-0.988672 2:-0.953415 
1 1:-0.988672 2:-0.953415 
1 1:-0.988672 2:-0.953415 
1 1:-0.988672 2:-0.953415 
1 1:-0.988672 2:-0.953415 
1 1:-0.988672 2:-0.953415 
1 1:-0.988672 2:-0.953415 
1 1:-0.988672 2:-0.953415 
1 1:-0.988672 2:-0.953415 
1 1:-0.988672 2:-0.953415 
1 1:-0.988672 2:-0.953415 
1 1:-0.988672 2:-0.953415 
1 1:-0.988672 2:-0.953415 
1 1:-0.988672 2:-0.953415 
1 1:-0.988672 2:-0.953415 
1 1:-0.988672 2:-0.953415 
1 1:-0.988672 2:-0.953415 
1 1:-0.988672 2:-0.953415 
1 1:-0.988672 2:-0.953415 
1 1:-0.988672 2:-0.953415 
1 1:-0.988672 2:-0.953415 
1 1:-0.988672 2:-0.953415 
1 1:-0.988672 2:-0.953415 
1 1:-0.988672 2:-0.953415 
1 1:-0.988672 2:-0.953415 
1 1:-0.988672 2:-0.953415 
1 1:-0.988672 2:-0.953415 
1 1:-0.988672 2:-0.953415 
1 1:-0.988672 2:-0.953415 
1 1:-0.988672 2:-0.953415 
1 1:-0.988672 2:-0.953415 
1 1:-0.988672 2:-0.953415 
1 1:-0.988672 2:-0.953415 
1 1:-0.988672 2:-0.953415 
1 1:-0.988672 2:-0.953415 
1 1:-0.988672 2:-0.953415 
1 1:-0.988672 2:-0.953415 
1 1:-0.988672 2:-0.953415 
1 1:-0.988672 2:-0.953415 
1 1:-0.988672 2:-0.953415 
1 1:-0.988672 2:-0.953415 
1 1:-0.988672 2:-0.953415 
1 1:-0.988672 2:-0.953415 
1 1:-0.988672 2:-0.953415 
1 1:-0.988672 2:-0.953415 
1 1:-0.988672 2:-0.953415 
1 1:-0.988672 2:-0.953415 
1 1:-0.988672 2:-0.953415 
1 1:-0.988672 2:-0.953415 
1 1:-0.988672 2:-0.953415 
1 1:-0.988672 2:-0.953415 
1 1:-0.988672 2:-0.953415 
1 1:-0.988672 2:-0.953415 
1 1:-0.988672 2:-0.953415 
1 1:-0.988672 2:-0.953415 
1 1:-0.988672 2:-0.953415 
1 1:-0.988672 2:-0.953415 
1 1:-0.988672 2:-0.953415 
1 1:-0.988672 2:-0.953415 
1 1:-0.988672 2:-0.953415 
1 1:-0.988672 2:-0.953415 
1 1:-0.988672 2:-0.953415 
1 1:-0.988672 2:-0.953415 
1 1:-0.988672 2:-0.953415 
1 1:-0.988672 2:-0.953415 
1 1:-0.988672 2:-0.953415 
1 1:-0.988672 2:-0.953415 
1 1:-0.988672 2:-0.953415 
1 1:-0.988672 2:-0.953415 
1 1:-0.988672 2:-0.953415 
1 1:-0.988672 2:-0.953415 
1 1:-0.988672 2:-0.953415 
1 1:-0.988672 2:-0.953415 
1 1:-0.988672 2:-0.953415 
1 1:-0.988672 2:-0.953415 
1 1:-0.988672 2:-0.953415 
1 1:-0.988672 2:-0.953415 
1 1:-0.988672 2:-0.953415 
1 1:-0.988672 2:-0.953415 
1 1:-0.988672 2:-0.953415 
1 1:-0.988672 2:-0.953415 
1 1:-0.988672 2:-0.953415 
1 1:-0.988672 2:-0.953415 
1 1:-0.988672 2:-0.953415 
1 1:-0.988672 2:-0.953415 
1 1:-0.988672 2:-0.953415 
1 1:-0.988672 2:-0.953415 
1 1:-0.988672 2:-0.953415 
1 1:-0.988672 2:-0.953415 
1 1:-0.988672 2:-0.953415 
1 1:-0.988672 2:-0.953415 
1 1:-0.988672 2:-0.953415 
1 1:-0.988672 2:-0.953415 
1 1:-0.97093 2:-0.970445 
1 1:-0.97093 2:-0.970445 
1 1:-0.97093 2:-0.970445 
1 1:-0.97093 2:-0.970445 
1 1:-0.97093 2:-0.970445 
1 1:-0.97093 2:-0.970445 
1 1:-0.97093 2:-0.970445 
1 1:-0.97093 2:-0.970445 
1 1:-0.97093 2:-0.970445 
1 1:-0.97093 2:-0.970445 
1 1:-0.97093 2:-0.970445 
1 1:-0.97093 2:-0.970445 
1 1:-0.97093 2:-0.970445 
1 1:-0.97093 2:-0.970445 
1 1:-0.97093 2:-0.970445 
1 1:-0.97093 2:-0.970445 
1 1:-0.97093 2:-0.970445 
1 1:-0.97093 2:-0.970445 
1 1:-0.97093 2:-0.970445 
1 1:-0.97093 2:-0.970445 
1 1:-0.97093 2:-0.970445 
1 1:-0.97093 2:-0.970445 
1 1:-0.97093 2:-0.970445 
1 1:-0.97093 2:-0.970445 
1 1:-0.97093 2:-0.970445 
1 1:-0.97093 2:-0.970445 
1 1:-0.97093 2:-0.970445 
1 1:-0.97093 2:-0.970445 
1 1:-0.97093 2:-0.970445 
1 1:-0.97093 2:-0.970445 
1 1:-0.97093 2:-0.970445 
1 1:-0.97093 2:-0.970445 
1 1:-0.97093 2:-0.970445 
1 1:-0.97093 2:-0.970445 
1 1:-0.97093 2:-0.970445 
1 1:-0.97093 2:-0.970445 
1 1:-0.97093 2:-0.970445 
1 1:-0.97093 2:-0.970445 
1 1:-0.97093 2:-0.970445 
1 1:-0.97093 2:-0.970445 
1 1:-0.97093 2:-0.970445 
1 1:-0.97093 2:-0.970445 
1 1:-0.97093 2:-0.970445 
1 1:-0.97093 2:-0.970445 
1 1:-0.97093 2:-0.970445 
1 1:-0.97093 2:-0.970445 
1 1:-0.97093 2:-0.970445 
1 1:-0.97093 2:-0.970445 
1 1:-0.97093 2:-0.970445 
1 1:-0.97093 2:-0.970445 
1 1:-0.97093 2:-0.970445 
1 1:-0.97093 2:-0.970445 
1 1:-0.97093 2:-0.970445 
1 1:-0.97093 2:-0.970445 
1 1:-0.97093 2:-0.970445 
1 1:-0.97093 2:-0.970445 
1 1:-0.97093 2:-0.970445 
1 1:-0.97093 2:-0.970445 
1 1:-0.97093 2:-0.970445 
1 1:-0.97093 2:-0.970445 
1 1:-0.97093 2:-0.970445 
1 1:-0.97093 2:-0.970445 
1 1:-0.97093 2:-0.970445 
1 1:-0.97093 2:-0.970445 
1 1:-0.97093 2:-0.970445 
1 1:-0.97093 2:-0.970445 
1 1:-0.97093 2:-0.970445 
1 1:-0.97093 2:-0.970445 
1 1:-0.97093 2:-0.970445 
1 1:-0.97093 2:-0.970445 
1 1:-0.97093 2:-0.970445 
1 1:-0.97093 2:-0.970445 
1 1:-0.97093 2:-0.970445 
1 1:-0.97093 2:-0.970445 
1 1:-0.97093 2:-0.970445 
1 1:-0.97093 2:-0.970445 
1 1:-0.97093 2:-0.970445 
1 1:-0.97093 2:-0.970445 
1 1:-0.97093 2:-0.970445 
1 1:-0.97093 2:-0.970445 
1 1:-0.97093 2:-0.970445 
1 1:-0.97093 2:-0.970445 
1 1:-0.97093 2:-0.970445 
1 1:-0.97093 2:-0.970445 
1 1:-0.97093 2:-0.970445 
1 1:-0.97093 2:-0.970445 
1 1:-0.97093 2:-0.970445 
1 1:-0.97093 2:-0.970445 
1 1:-0.97093 2:-0.970445 
1 1:-0.97093 2:-0.970445 
1 1:-0.97093 2:-0.970445 
1 1:-0.97093 2:-0.970445 
1 1:-0.983176 2:-0.959005 
1 1:-0.983176 2:-0.959005 
1 1:-0.983176 2:-0.959005 
1 1:-0.983176 2:-0.959005 
1 1:-0.983176 2:-0.959005 
1 1:-0.983176 2:-0.959005 
1 1:-0.983176 2:-0.959005 
1 1:-0.983176 2:-0.959005 
1 1:-0.983176 2:-0.959005 
1 1:-0.983176 2:-0.959005 
1 1:-0.983176 2:-0.959005 
1 1:-0.983176 2:-0.959005 
1 1:-0.983176 2:-0.959005 
1 1:-0.983176 2:-0.959005 
1 1:-0.983176 2:-0.959005 
1 1:-0.983176 2:-0.959005 
1 1:-0.983176 2:-0.959005 
1 1:-0.983176 2:-0.959005 
1 1:-0.983176 2:-0.959005 
1 1:-0.983176 2:-0.959005 
1 1:-0.983176 2:-0.959005 
1 1:-0.983176 2:-0.959005 
1 1:-0.983176 2:-0.959005 
1 1:-0.983176 2:-0.959005 
1 1:-0.983176 2:-0.959005 
1 1:-0.983176 2:-0.959005 
1 1:-0.983176 2:-0.959005 
1 1:-0.983176 2:-0.959005 
1 1:-0.983176 2:-0.959005 
1 1:-0.983176 2:-0.959005 
1 1:-0.983176 2:-0.959005 
1 1:-0.983176 2:-0.959005 
1 1:-0.983176 2:-0.959005 
1 1:-0.983176 2:-0.959005 
1 1:-0.983176 2:-0.959005 
1 1:-0.983176 2:-0.959005 
1 1:-0.983176 2:-0.959005 
1 1:-0.983176 2:-0.959005 
1 1:-0.983176 2:-0.959005 
1 1:-0.983176 2:-0.959005 
1 1:-0.983176 2:-0.959005 
1 1:-0.983176 2:-0.959005 
1 1:-0.983176 2:-0.959005 
1 1:-0.983176 2:-0.959005 
1 1:-0.983176 2:-0.959005 
1 1:-0.983176 2:-0.959005 
1 1:-0.983176 2:-0.959005 
1 1:-0.983176 2:-0.959005 
1 1:-0.983176 2:-0.959005 
1 1:-0.983176 2:-0.959005 
1 1:-0.983176 2:-0.959005 
1 1:-0.983176 2:-0.959005 
1 1:-0.983176 2:-0.959005 
1 1:-0.983176 2:-0.959005 
1 1:-0.983176 2:-0.959005 
1 1:-0.983176 2:-0.959005 
1 1:-0.983176 2:-0.959005 
1 1:-0.983176 2:-0.959005 
1 1:-0.983176 2:-0.959005 
1 1:-0.983176 2:-0.959005 
1 1:-0.983176 2:-0.959005 
1 1:-0.983176 2:-0.959005 
1 1:-0.983176 2:-0.959005 
1 1:-0.983176 2:-0.959005 
1 1:-0.983176 2:-0.959005 
1 1:-0.983176 2:-0.959005 
1 1:-0.983176 2:-0.959005 
1 1:-0.983176 2:-0.959005 
1 1:-0.983176 2:-0.959005 
1 1:-0.983176 2:-0.959005 
1 1:-0.983176 2:-0.959005 
1 1:-0.983176 2:-0.959005 
1 1:-0.983176 2:-0.959005 
1 1:-0.983176 2:-0.959005 
1 1:-0.983176 2:-0.959005 
1 1:-0.983176 2:-0.959005 
1 1:-0.983176 2:-0.959005 
1 1:-0.983176 2:-0.959005 
1 1:-0.983176 2:-0.959005 
1 1:-0.983176 2:-0.959005 
1 1:-0.983176 2:-0.959005 
1 1:-0.983176 2:-0.959005 
1 1:-0.983176 2:-0.959005 
1 1:-0.983176 2:-0.959005 
1 1:-0.983176 2:-0.959005 
1 1:-0.983176 2:-0.959005 
1 1:-0.983176 2:-0.959005 
1 1:-0.983176 2:-0.959005 
1 1:-0.983176 2:-0.959005 
1 1:-0.983176 2:-0.959005 
1 1:-0.983176 2:-0.959005 
1 1:-0.235967 2:-0.0553404 
1 1:-0.176864 2:-0.622638 
1 1:-0.98301 2:-0.974555 
1 1:-0.235967 2:-0.0553404 
1 1:-0.176864 2:-0.622638 
1 1:-0.98301 2:-0.974555 
1 1:-0.235967 2:-0.0553404 
1 1:-0.176864 2:-0.622638 
1 1:-0.98301 2:-0.974555 
1 1:-0.235967 2:-0.0553404 
1 1:-0.176864 2:-0.622638 
1 1:-0.98301 2:-0.974555 
1 1:-0.235967 2:-0.0553404 
1 1:-0.176864 2:-0.622638 
1 1:-0.98301 2:-0.974555 
1 1:-0.235967 2:-0.0553404 
1 1:-0.176864 2:-0.622638 
1 1:-0.98301 2:-0.974555 
1 1:-0.235967 2:-0.0553404 
1 1:-0.176864 2:-0.622638 
1 1:-0.98301 2:-0.974555 
1 1:-0.235967 2:-0.0553404 
1 1:-0.176864 2:-0.622638 
1 1:-0.98301 2:-0.974555 
1 1:-0.235967 2:-0.0553404 
1 1:-0.176864 2:-0.622638 
1 1:-0.98301 2:-0.974555 
1 1:-0.235967 2:-0.0553404 
1 1:-0.176864 2:-0.622638 
1 1:-0.98301 2:-0.974555 
1 1:-0.235967 2:-0.0553404 
1 1:-0.176864 2:-0.622638 
1 1:-0.98301 2:-0.974555 
1 1:-0.235967 2:-0.0553404 
1 1:-0.176864 2:-0.622638 
1 1:-0.98301 2:-0.974555 
1 1:-0.235967 2:-0.0553404 
1 1:-0.176864 2:-0.622638 
1 1:-0.98301 2:-0.974555 
1 1:-0.235967 2:-0.0553404 
1 1:-0.176864 2:-0.622638 
1 1:-0.98301 2:-0.974555 
1 1:-0.235967 2:-0.0553404 
1 1:-0.176864 2:-0.622638 
1 1:-0.98301 2:-0.974555 
1 1:-0.235967 2:-0.0553404 
1 1:-0.176864 2:-0.622638 
1 1:-0.98301 2:-0.974555 
1 1:-0.235967 2:-0.0553404 
1 1:-0.176864 2:-0.622638 
1 1:-0.98301 2:-0.974555 
1 1:-0.235967 2:-0.0553404 
1 1:-0.176864 2:-0.622638 
1 1:-0.98301 2:-0.974555 
1 1:-0.235967 2:-0.0553404 
1 1:-0.176864 2:-0.622638 
1 1:-0.98301 2:-0.974555 
1 1:-0.235967 2:-0.0553404 
1 1:-0.176864 2:-0.622638 
1 1:-0.98301 2:-0.974555 
1 1:-0.235967 2:-0.0553404 
1 1:-0.176864 2:-0.622638 
1 1:-0.98301 2:-0.974555 
1 1:-0.235967 2:-0.0553404 
1 1:-0.176864 2:-0.622638 
1 1:-0.98301 2:-0.974555 
1 1:-0.235967 2:-0.0553404 
1 1:-0.176864 2:-0.622638 
1 1:-0.98301 2:-0.974555 
1 1:-0.235967 2:-0.0553404 
1 1:-0.176864 2:-0.622638 
1 1:-0.98301 2:-0.974555 
1 1:-0.235967 2:-0.0553404 
1 1:-0.176864 2:-0.622638 
1 1:-0.98301 2:-0.974555 
1 1:-0.235967 2:-0.0553404 
1 1:-0.176864 2:-0.622638 
1 1:-0.98301 2:-0.974555 
1 1:-0.235967 2:-0.0553404 
1 1:-0.176864 2:-0.622638 
1 1:-0.98301 2:-0.974555 
1 1:-0.235967 2:-0.0553404 
1 1:-0.176864 2:-0.622638 
1 1:-0.98301 2:-0.974555 
1 1:-0.235967 2:-0.0553404 
1 1:-0.176864 2:-0.622638 
1 1:-0.98301 2:-0.974555 
1 1:-0.235967 2:-0.0553404 
1 1:-0.176864 2:-0.622638 
1 1:-0.98301 2:-0.974555 
1 1:-0.235967 2:-0.0553404 
1 1:-0.176864 2:-0.622638 
1 1:-0.98301 2:-0.974555 
1 1:-0.235967 2:-0.0553404 
1 1:-0.176864 2:-0.622638 
1 1:-0.98301 2:-0.974555 
1 1:-0.235967 2:-0.0553404 
1 1:-0.176864 2:-0.622638 
1 1:-0.98301 2:-0.974555 
1 1:-0.235967 2:-0.0553404 
1 1:-0.176864 2:-0.622638 
1 1:-0.98301 2:-0.974555 
1 1:-0.235967 2:-0.0553404 
1 1:-0.176864 2:-0.622638 
1 1:-0.98301 2:-0.974555 
1 1:-0.235967 2:-0.0553404 
1 1:-0.176864 2:-0.622638 
1 1:-0.98301 2:-0.974555 
1 1:-0.235967 2:-0.0553404 
1 1:-0.176864 2:-0.622638 
1 1:-0.98301 2:-0.974555 
1 1:-0.235967 2:-0.0553404 
1 1:-0.176864 2:-0.622638 
1 1:-0.98301 2:-0.974555 
1 1:-0.235967 2:-0.0553404 
1 1:-0.176864 2:-0.622638 
1 1:-0.98301 2:-0.974555 
1 1:-0.235967 2:-0.0553404 
1 1:-0.176864 2:-0.622638 
1 1:-0.98301 2:-0.974555 
1 1:-0.235967 2:-0.0553404 
1 1:-0.176864 2:-0.622638 
1 1:-0.98301 2:-0.974555 
1 1:-0.235967 2:-0.0553404 
1 1:-0.176864 2:-0.622638 
1 1:-0.98301 2:-0.974555 
1 1:-0.235967 2:-0.0553404 
1 1:-0.176864 2:-0.622638 
1 1:-0.98301 2:-0.974555 
1 1:-0.235967 2:-0.0553404 
1 1:-0.176864 2:-0.622638 
1 1:-0.98301 2:-0.974555 
1 1:-0.235967 2:-0.0553404 
1 1:-0.176864 2:-0.622638 
1 1:-0.98301 2:-0.974555 
1 1:-0.235967 2:-0.0553404 
1 1:-0.176864 2:-0.622638 
1 1:-0.98301 2:-0.974555 
1 1:-0.235967 2:-0.0553404 
1 1:-0.176864 2:-0.622638 
1 1:-0.98301 2:-0.974555 
1 1:-0.235967 2:-0.0553404 
1 1:-0.176864 2:-0.622638 
1 1:-0.98301 2:-0.974555 
1 1:-0.235967 2:-0.0553404 
1 1:-0.176864 2:-0.622638 
1 1:-0.98301 2:-0.974555 
1 1:-0.235967 2:-0.0553404 
1 1:-0.176864 2:-0.622638 
1 1:-0.98301 2:-0.974555 
1 1:-0.235967 2:-0.0553404 
1 1:-0.176864 2:-0.622638 
1 1:-0.98301 2:-0.974555 
1 1:-0.235967 2:-0.0553404 
1 1:-0.176864 2:-0.622638 
1 1:-0.98301 2:-0.974555 
1 1:-0.235967 2:-0.0553404 
1 1:-0.176864 2:-0.622638 
1 1:-0.98301 2:-0.974555 
1 1:-0.235967 2:-0.0553404 
1 1:-0.176864 2:-0.622638 
1 1:-0.98301 2:-0.974555 
1 1:-0.235967 2:-0.0553404 
1 1:-0.176864 2:-0.622638 
1 1:-0.98301 2:-0.974555 
1 1:-0.235967 2:-0.0553404 
1 1:-0.176864 2:-0.622638 
1 1:-0.98301 2:-0.974555 
1 1:-0.235967 2:-0.0553404 
1 1:-0.176864 2:-0.622638 
1 1:-0.98301 2:-0.974555 
1 1:-0.235967 2:-0.0553404 
1 1:-0.176864 2:-0.622638 
1 1:-0.98301 2:-0.974555 
1 1:-0.235967 2:-0.0553404 
1 1:-0.176864 2:-0.622638 
1 1:-0.98301 2:-0.974555 
1 1:-0.235967 2:-0.0553404 
1 1:-0.176864 2:-0.622638 
1 1:-0.98301 2:-0.974555 
1 1:-0.235967 2:-0.0553404 
1 1:-0.176864 2:-0.622638 
1 1:-0.98301 2:-0.974555 
1 1:-0.235967 2:-0.0553404 
1 1:-0.176864 2:-0.622638 
1 1:-0.98301 2:-0.974555 
1 1:-0.235967 2:-0.0553404 
1 1:-0.176864 2:-0.622638 
1 1:-0.98301 2:-0.974555 
1 1:-0.235967 2:-0.0553404 
1 1:-0.176864 2:-0.622638 
1 1:-0.98301 2:-0.974555 
1 1:-0.235967 2:-0.0553404 
1 1:-0.176864 2:-0.622638 
1 1:-0.98301 2:-0.974555 
1 1:-0.235967 2:-0.0553404 
1 1:-0.176864 2:-0.622638 
1 1:-0.98301 2:-0.974555 
1 1:-0.235967 2:-0.0553404 
1 1:-0.176864 2:-0.622638 
1 1:-0.98301 2:-0.974555 
1 1:-0.235967 2:-0.0553404 
1 1:-0.176864 2:-0.622638 
1 1:-0.98301 2:-0.974555 
1 1:-0.235967 2:-0.0553404 
1 1:-0.176864 2:-0.622638 
1 1:-0.98301 2:-0.974555 
1 1:-0.235967 2:-0.0553404 
1 1:-0.176864 2:-0.622638 
1 1:-0.98301 2:-0.974555 
1 1:-0.235967 2:-0.0553404 
1 1:-0.176864 2:-0.622638 
1 1:-0.98301 2:-0.974555 
1 1:-0.235967 2:-0.0553404 
1 1:-0.176864 2:-0.622638 
1 1:-0.98301 2:-0.974555 
1 1:-0.235967 2:-0.0553404 
1 1:-0.176864 2:-0.622638 
1 1:-0.98301 2:-0.974555 
1 1:-0.235967 2:-0.0553404 
1 1:-0.176864 2:-0.622638 
1 1:-0.98301 2:-0.974555 
1 1:-0.235967 2:-0.0553404 
1 1:-0.176864 2:-0.622638 
1 1:-0.98301 2:-0.974555 
1 1:-0.235967 2:-0.0553404 
1 1:-0.176864 2:-0.622638 
1 1:-0.98301 2:-0.974555 
1 1:-0.235967 2:-0.0553404 
1 1:-0.176864 2:-0.622638 
1 1:-0.98301 2:-0.974555 
1 1:-0.235967 2:-0.0553404 
1 1:-0.176864 2:-0.622638 
1 1:-0.98301 2:-0.974555 
1 1:-0.235967 2:-0.0553404 
1 1:-0.176864 2:-0.622638 
1 1:-0.98301 2:-0.974555 
1 1:-0.235967 2:-0.0553404 
1 1:-0.176864 2:-0.622638 
1 1:-0.98301 2:-0.974555 
1 1:-0.235967 2:-0.0553404 
1 1:-0.176864 2:-0.622638 
1 1:-0.98301 2:-0.974555 
1 1:-0.235967 2:-0.0553404 
1 1:-0.176864 2:-0.622638 
1 1:-0.98301 2:-0.974555 
1 1:-0.235967 2:-0.0553404 
1 1:-0.176864 2:-0.622638 
1 1:-0.98301 2:-0.974555 
1 1:-0.235967 2:-0.0553404 
1 1:-0.176864 2:-0.622638 
1 1:-0.98301 2:-0.974555 
1 1:-0.235967 2:-0.0553404 
1 1:-0.176864 2:-0.622638 
1 1:-0.98301 2:-0.974555 
1 1:-0.235967 2:-0.0553404 
1 1:-0.176864 2:-0.622638 
1 1:-0.98301 2:-0.974555 
1 1:-0.235967 2:-0.0553404 
1 1:-0.176864 2:-0.622638 
1 1:-0.98301 2:-0.974555 
1 1:-0.235967 2:-0.0553404 
1 1:-0.176864 2:-0.622638 
1 1:-0.98301 2:-0.974555 
1 1:-0.235967 2:-0.0553404 
1 1:-0.176864 2:-0.622638 
1 1:-0.98301 2:-0.974555 
1 1:-0.235967 2:-0.0553404 
1 1:-0.176864 2:-0.622638 
1 1:-0.98301 2:-0.974555 
1 1:-0.235967 2:-0.0553404 
1 1:-0.176864 2:-0.622638 
1 1:-0.98301 2:-0.974555 
1 1:-0.235967 2:-0.0553404 
1 1:-0.176864 2:-0.622638 
1 1:-0.98301 2:-0.974555 
1 1:-0.235967 2:-0.0553404 
1 1:-0.176864 2:-0.622638 
1 1:-0.98301 2:-0.974555 
1 1:-0.235967 2:-0.0553404 
1 1:-0.176864 2:-0.622638 
1 1:-0.98301 2:-0.974555 
1 1:-0.235967 2:-0.0553404 
1 1:-0.176864 2:-0.622638 
1 1:-0.98301 2:-0.974555 
1 1:-0.235967 2:-0.0553404 
1 1:-0.176864 2:-0.622638 
1 1:-0.98301 2:-0.974555 
1 1:-0.235967 2:-0.0553404 
1 1:-0.176864 2:-0.622638 
1 1:-0.98301 2:-0.974555 
1 1:-0.235967 2:-0.0553404 
1 1:-0.176864 2:-0.622638 
1 1:-0.98301 2:-0.974555 
1 1:-0.235967 2:-0.0553404 
1 1:-0.176864 2:-0.622638 
1 1:-0.98301 2:-0.974555 
1 1:-0.980451 2:-0.962357 
1 1:-0.980451 2:-0.962357 
1 1:-0.980451 2:-0.962357 
1 1:-0.980451 2:-0.962357 
1 1:-0.980451 2:-0.962357 
1 1:-0.980451 2:-0.962357 
1 1:-0.980451 2:-0.962357 
1 1:-0.980451 2:-0.962357 
1 1:-0.980451 2:-0.962357 
1 1:-0.980451 2:-0.962357 
1 1:-0.980451 2:-0.962357 
1 1:-0.980451 2:-0.962357 
1 1:-0.980451 2:-0.962357 
1 1:-0.980451 2:-0.962357 
1 1:-0.980451 2:-0.962357 
1 1:-0.980451 2:-0.962357 
1 1:-0.980451 2:-0.962357 
1 1:-0.980451 2:-0.962357 
1 1:-0.980451 2:-0.962357 
1 1:-0.980451 2:-0.962357 
1 1:-0.980451 2:-0.962357 
1 1:-0.980451 2:-0.962357 
1 1:-0.980451 2:-0.962357 
1 1:-0.980451 2:-0.962357 
1 1:-0.980451 2:-0.962357 
1 1:-0.980451 2:-0.962357 
1 1:-0.980451 2:-0.962357 
1 1:-0.980451 2:-0.962357 
1 1:-0.980451 2:-0.962357 
1 1:-0.980451 2:-0.962357 
1 1:-0.980451 2:-0.962357 
1 1:-0.980451 2:-0.962357 
1 1:-0.980451 2:-0.962357 
1 1:-0.980451 2:-0.962357 
1 1:-0.980451 2:-0.962357 
1 1:-0.980451 2:-0.962357 
1 1:-0.980451 2:-0.962357 
1 1:-0.980451 2:-0.962357 
1 1:-0.980451 2:-0.962357 
1 1:-0.980451 2:-0.962357 
1 1:-0.980451 2:-0.962357 
1 1:-0.980451 2:-0.962357 
1 1:-0.980451 2:-0.962357 
1 1:-0.980451 2:-0.962357 
1 1:-0.980451 2:-0.962357 
1 1:-0.980451 2:-0.962357 
1 1:-0.980451 2:-0.962357 
1 1:-0.980451 2:-0.962357 
1 1:-0.980451 2:-0.962357 
1 1:-0.980451 2:-0.962357 
1 1:-0.980451 2:-0.962357 
1 1:-0.980451 2:-0.962357 
1 1:-0.980451 2:-0.962357 
1 1:-0.980451 2:-0.962357 
1 1:-0.980451 2:-0.962357 
1 1:-0.980451 2:-0.962357 
1 1:-0.980451 2:-0.962357 
1 1:-0.980451 2:-0.962357 
1 1:-0.980451 2:-0.962357 
1 1:-0.980451 2:-0.962357 
1 1:-0.980451 2:-0.962357 
1 1:-0.980451 2:-0.962357 
1 1:-0.980451 2:-0.962357 
1 1:-0.980451 2:-0.962357 
1 1:-0.980451 2:-0.962357 
1 1:-0.980451 2:-0.962357 
1 1:-0.980451 2:-0.962357 
1 1:-0.980451 2:-0.962357 
1 1:-0.980451 2:-0.962357 
1 1:-0.980451 2:-0.962357 
1 1:-0.980451 2:-0.962357 
1 1:-0.980451 2:-0.962357 
1 1:-0.980451 2:-0.962357 
1 1:-0.980451 2:-0.962357 
1 1:-0.980451 2:-0.962357 
1 1:-0.980451 2:-0.962357 
1 1:-0.980451 2:-0.962357 
1 1:-0.980451 2:-0.962357 
1 1:-0.980451 2:-0.962357 
1 1:-0.980451 2:-0.962357 
1 1:-0.980451 2:-0.962357 
1 1:-0.980451 2:-0.962357 
1 1:-0.980451 2:-0.962357 
1 1:-0.980451 2:-0.962357 
1 1:-0.980451 2:-0.962357 
1 1:-0.980451 2:-0.962357 
1 1:-0.980451 2:-0.962357 
1 1:-0.980451 2:-0.962357 
1 1:-0.980451 2:-0.962357 
1 1:-0.980451 2:-0.962357 
1 1:-0.943969 2:-0.99071 
1 1:-0.943969 2:-0.99071 
1 1:-0.943969 2:-0.99071 
1 1:-0.943969 2:-0.99071 
1 1:-0.943969 2:-0.99071 
1 1:-0.943969 2:-0.99071 
1 1:-0.943969 2:-0.99071 
1 1:-0.943969 2:-0.99071 
1 1:-0.943969 2:-0.99071 
1 1:-0.943969 2:-0.99071 
1 1:-0.943969 2:-0.99071 
1 1:-0.943969 2:-0.99071 
1 1:-0.943969 2:-0.99071 
1 1:-0.943969 2:-0.99071 
1 1:-0.943969 2:-0.99071 
1 1:-0.943969 2:-0.99071 
1 1:-0.943969 2:-0.99071 
1 1:-0.943969 2:-0.99071 
1 1:-0.943969 2:-0.99071 
1 1:-0.943969 2:-0.99071 
1 1:-0.943969 2:-0.99071 
1 1:-0.943969 2:-0.99071 
1 1:-0.943969 2:-0.99071 
1 1:-0.943969 2:-0.99071 
1 1:-0.943969 2:-0.99071 
1 1:-0.943969 2:-0.99071 
1 1:-0.943969 2:-0.99071 
1 1:-0.943969 2:-0.99071 
1 1:-0.943969 2:-0.99071 
1 1:-0.943969 2:-0.99071 
1 1:-0.943969 2:-0.99071 
1 1:-0.943969 2:-0.99071 
1 1:-0.943969 2:-0.99071 
1 1:-0.943969 2:-0.99071 
1 1:-0.943969 2:-0.99071 
1 1:-0.943969 2:-0.99071 
1 1:-0.943969 2:-0.99071 
1 1:-0.943969 2:-0.99071 
1 1:-0.943969 2:-0.99071 
1 1:-0.943969 2:-0.99071 
1 1:-0.943969 2:-0.99071 
1 1:-0.943969 2:-0.99071 
1 1:-0.943969 2:-0.99071 
1 1:-0.943969 2:-0.99071 
1 1:-0.943969 2:-0.99071 
1 1:-0.943969 2:-0.99071 
1 1:-0.943969 2:-0.99071 
1 1:-0.943969 2:-0.99071 
1 1:-0.943969 2:-0.99071 
1 1:-0.943969 2:-0.99071 
1 1:-0.943969 2:-0.99071 
1 1:-0.943969 2:-0.99071 
1 1:-0.943969 2:-0.99071 
1 1:-0.943969 2:-0.99071 
1 1:-0.943969 2:-0.99071 
1 1:-0.943969 2:-0.99071 
1 1:-0.943969 2:-0.99071 
1 1:-0.943969 2:-0.99071 
1 1:-0.943969 2:-0.99071 
1 1:-0.943969 2:-0.99071 
1 1:-0.943969 2:-0.99071 
1 1:-0.943969 2:-0.99071 
1 1:-0.943969 2:-0.99071 
1 1:-0.943969 2:-0.99071 
1 1:-0.943969 2:-0.99071 
1 1:-0.943969 2:-0.99071 
1 1:-0.943969 2:-0.99071 
1 1:-0.943969 2:-0.99071 
1 1:-0.943969 2:-0.99071 
1 1:-0.943969 2:-0.99071 
1 1:-0.943969 2:-0.99071 
1 1:-0.943969 2:-0.99071 
1 1:-0.943969 2:-0.99071 
1 1:-0.943969 2:-0.99071 
1 1:-0.943969 2:-0.99071 
1 1:-0.943969 2:-0.99071 
1 1:-0.943969 2:-0.99071 
1 1:-0.943969 2:-0.99071 
1 1:-0.943969 2:-0.99071 
1 1:-0.943969 2:-0.99071 
1 1:-0.943969 2:-0.99071 
1 1:-0.943969 2:-0.99071 
1 1:-0.943969 2:-0.99071 
1 1:-0.943969 2:-0.99071 
1 1:-0.943969 2:-0.99071 
1 1:-0.943969 2:-0.99071 
1 1:-0.943969 2:-0.99071 
1 1:-0.943969 2:-0.99071 
1 1:-0.943969 2:-0.99071 
1 1:-0.943969 2:-0.99071 
1 1:-0.943969 2:-0.99071 
1 1:-0.943969 2:-0.99071 
1 1:-0.943969 2:-0.99071 
1 1:-0.943969 2:-0.99071 
1 1:-0.943969 2:-0.99071 
1 1:-0.943969 2:-0.99071 
1 1:-0.976054 2:-0.973282 
1 1:-0.976054 2:-0.973282 
1 1:-0.976054 2:-0.973282 
1 1:-0.976054 2:-0.973282 
1 1:-0.976054 2:-0.973282 
1 1:-0.976054 2:-0.973282 
1 1:-0.976054 2:-0.973282 
1 1:-0.976054 2:-0.973282 
1 1:-0.976054 2:-0.973282 
1 1:-0.976054 2:-0.973282 
1 1:-0.976054 2:-0.973282 
1 1:-0.976054 2:-0.973282 
1 1:-0.976054 2:-0.973282 
1 1:-0.976054 2:-0.973282 
1 1:-0.976054 2:-0.973282 
1 1:-0.976054 2:-0.973282 
1 1:-0.976054 2:-0.973282 
1 1:-0.976054 2:-0.973282 
1 1:-0.976054 2:-0.973282 
1 1:-0.976054 2:-0.973282 
1 1:-0.976054 2:-0.973282 
1 1:-0.976054 2:-0.973282 
1 1:-0.976054 2:-0.973282 
1 1:-0.976054 2:-0.973282 
1 1:-0.976054 2:-0.973282 
1 1:-0.976054 2:-0.973282 
1 1:-0.976054 2:-0.973282 
1 1:-0.976054 2:-0.973282 
1 1:-0.976054 2:-0.973282 
1 1:-0.976054 2:-0.973282 
1 1:-0.976054 2:-0.973282 
1 1:-0.976054 2:-0.973282 
1 1:-0.976054 2:-0.973282 
1 1:-0.976054 2:-0.973282 
1 1:-0.976054 2:-0.973282 
1 1:-0.976054 2:-0.973282 
1 1:-0.976054 2:-0.973282 
1 1:-0.976054 2:-0.973282 
1 1:-0.976054 2:-0.973282 
1 1:-0.976054 2:-0.973282 
1 1:-0.976054 2:-0.973282 
1 1:-0.976054 2:-0.973282 
1 1:-0.976054 2:-0.973282 
1 1:-0.976054 2:-0.973282 
1 1:-0.976054 2:-0.973282 
1 1:-0.976054 2:-0.973282 
1 1:-0.976054 2:-0.973282 
1 1:-0.976054 2:-0.973282 
1 1:-0.976054 2:-0.973282 
1 1:-0.976054 2:-0.973282 
1 1:-0.976054 2:-0.973282 
1 1:-0.976054 2:-0.973282 
1 1:-0.976054 2:-0.973282 
1 1:-0.976054 2:-0.973282 
1 1:-0.976054 2:-0.973282 
1 1:-0.976054 2:-0.973282 
1 1:-0.976054 2:-0.973282 
1 1:-0.976054 2:-0.973282 
1 1:-0.976054 2:-0.973282 
1 1:-0.976054 2:-0.973282 
1 1:-0.976054 2:-0.973282 
1 1:-0.976054 2:-0.973282 
1 1:-0.976054 2:-0.973282 
1 1:-0.976054 2:-0.973282 
1 1:-0.976054 2:-0.973282 
1 1:-0.976054 2:-0.973282 
1 1:-0.976054 2:-0.973282 
1 1:-0.976054 2:-0.973282 
1 1:-0.976054 2:-0.973282 
1 1:-0.976054 2:-0.973282 
1 1:-0.976054 2:-0.973282 
1 1:-0.976054 2:-0.973282 
1 1:-0.976054 2:-0.973282 
1 1:-0.976054 2:-0.973282 
1 1:-0.976054 2:-0.973282 
1 1:-0.976054 2:-0.973282 
1 1:-0.976054 2:-0.973282 
1 1:-0.976054 2:-0.973282 
1 1:-0.976054 2:-0.973282 
1 1:-0.976054 2:-0.973282 
1 1:-0.976054 2:-0.973282 
1 1:-0.976054 2:-0.973282 
1 1:-0.976054 2:-0.973282 
1 1:-0.976054 2:-0.973282 
1 1:-0.976054 2:-0.973282 
1 1:-0.976054 2:-0.973282 
1 1:-0.976054 2:-0.973282 
1 1:-0.976054 2:-0.973282 
1 1:-0.976054 2:-0.973282 
1 1:-0.976054 2:-0.973282 
1 1:-0.976054 2:-0.973282 
1 1:-0.965702 2:-0.972285 
1 1:-0.985497 2:-0.985327 
1 1:-0.965702 2:-0.972285 
1 1:-0.985497 2:-0.985327 
1 1:-0.965702 2:-0.972285 
1 1:-0.985497 2:-0.985327 
1 1:-0.965702 2:-0.972285 
1 1:-0.985497 2:-0.985327 
1 1:-0.965702 2:-0.972285 
1 1:-0.985497 2:-0.985327 
1 1:-0.965702 2:-0.972285 
1 1:-0.985497 2:-0.985327 
1 1:-0.965702 2:-0.972285 
1 1:-0.985497 2:-0.985327 
1 1:-0.965702 2:-0.972285 
1 1:-0.985497 2:-0.985327 
1 1:-0.965702 2:-0.972285 
1 1:-0.985497 2:-0.985327 
1 1:-0.965702 2:-0.972285 
1 1:-0.985497 2:-0.985327 
1 1:-0.965702 2:-0.972285 
1 1:-0.985497 2:-0.985327 
1 1:-0.965702 2:-0.972285 
1 1:-0.985497 2:-0.985327 
1 1:-0.965702 2:-0.972285 
1 1:-0.985497 2:-0.985327 
1 1:-0.965702 2:-0.972285 
1 1:-0.985497 2:-0.985327 
1 1:-0.965702 2:-0.972285 
1 1:-0.985497 2:-0.985327 
1 1:-0.965702 2:-0.972285 
1 1:-0.985497 2:-0.985327 
1 1:-0.965702 2:-0.972285 
1 1:-0.985497 2:-0.985327 
1 1:-0.965702 2:-0.972285 
1 1:-0.985497 2:-0.985327 
1 1:-0.965702 2:-0.972285 
1 1:-0.985497 2:-0.985327 
1 1:-0.965702 2:-0.972285 
1 1:-0.985497 2:-0.985327 
1 1:-0.965702 2:-0.972285 
1 1:-0.985497 2:-0.985327 
1 1:-0.965702 2:-0.972285 
1 1:-0.985497 2:-0.985327 
1 1:-0.965702 2:-0.972285 
1 1:-0.985497 2:-0.985327 
1 1:-0.965702 2:-0.972285 
1 1:-0.985497 2:-0.985327 
1 1:-0.965702 2:-0.972285 
1 1:-0.985497 2:-0.985327 
1 1:-0.965702 2:-0.972285 
1 1:-0.985497 2:-0.985327 
1 1:-0.965702 2:-0.972285 
1 1:-0.985497 2:-0.985327 
1 1:-0.965702 2:-0.972285 
1 1:-0.985497 2:-0.985327 
1 1:-0.965702 2:-0.972285 
1 1:-0.985497 2:-0.985327 
1 1:-0.965702 2:-0.972285 
1 1:-0.985497 2:-0.985327 
1 1:-0.965702 2:-0.972285 
1 1:-0.985497 2:-0.985327 
1 1:-0.965702 2:-0.972285 
1 1:-0.985497 2:-0.985327 
1 1:-0.965702 2:-0.972285 
1 1:-0.985497 2:-0.985327 
1 1:-0.965702 2:-0.972285 
1 1:-0.985497 2:-0.985327 
1 1:-0.965702 2:-0.972285 
1 1:-0.985497 2:-0.985327 
1 1:-0.965702 2:-0.972285 
1 1:-0.985497 2:-0.985327 
1 1:-0.965702 2:-0.972285 
1 1:-0.985497 2:-0.985327 
1 1:-0.965702 2:-0.972285 
1 1:-0.985497 2:-0.985327 
1 1:-0.965702 2:-0.972285 
1 1:-0.985497 2:-0.985327 
1 1:-0.965702 2:-0.972285 
1 1:-0.985497 2:-0.985327 
1 1:-0.965702 2:-0.972285 
1 1:-0.985497 2:-0.985327 
1 1:-0.965702 2:-0.972285 
1 1:-0.985497 2:-0.985327 
1 1:-0.965702 2:-0.972285 
1 1:-0.985497 2:-0.985327 
1 1:-0.965702 2:-0.972285 
1 1:-0.985497 2:-0.985327 
1 1:-0.965702 2:-0.972285 
1 1:-0.985497 2:-0.985327 
1 1:-0.965702 2:-0.972285 
1 1:-0.985497 2:-0.985327 
1 1:-0.965702 2:-0.972285 
1 1:-0.985497 2:-0.985327 
1 1:-0.965702 2:-0.972285 
1 1:-0.985497 2:-0.985327 
1 1:-0.965702 2:-0.972285 
1 1:-0.985497 2:-0.985327 
1 1:-0.965702 2:-0.972285 
1 1:-0.985497 2:-0.985327 
1 1:-0.965702 2:-0.972285 
1 1:-0.985497 2:-0.985327 
1 1:-0.965702 2:-0.972285 
1 1:-0.985497 2:-0.985327 
1 1:-0.965702 2:-0.972285 
1 1:-0.985497 2:-0.985327 
1 1:-0.965702 2:-0.972285 
1 1:-0.985497 2:-0.985327 
1 1:-0.965702 2:-0.972285 
1 1:-0.985497 2:-0.985327 
1 1:-0.965702 2:-0.972285 
1 1:-0.985497 2:-0.985327 
1 1:-0.965702 2:-0.972285 
1 1:-0.985497 2:-0.985327 
1 1:-0.965702 2:-0.972285 
1 1:-0.985497 2:-0.985327 
1 1:-0.965702 2:-0.972285 
1 1:-0.985497 2:-0.985327 
1 1:-0.965702 2:-0.972285 
1 1:-0.985497 2:-0.985327 
1 1:-0.965702 2:-0.972285 
1 1:-0.985497 2:-0.985327 
1 1:-0.965702 2:-0.972285 
1 1:-0.985497 2:-0.985327 
1 1:-0.965702 2:-0.972285 
1 1:-0.985497 2:-0.985327 
1 1:-0.965702 2:-0.972285 
1 1:-0.985497 2:-0.985327 
1 1:-0.965702 2:-0.972285 
1 1:-0.985497 2:-0.985327 
1 1:-0.965702 2:-0.972285 
1 1:-0.985497 2:-0.985327 
1 1:-0.965702 2:-0.972285 
1 1:-0.985497 2:-0.985327 
1 1:-0.965702 2:-0.972285 
1 1:-0.985497 2:-0.985327 
1 1:-0.965702 2:-0.972285 
1 1:-0.985497 2:-0.985327 
1 1:-0.965702 2:-0.972285 
1 1:-0.985497 2:-0.985327 
1 1:-0.965702 2:-0.972285 
1 1:-0.985497 2:-0.985327 
1 1:-0.965702 2:-0.972285 
1 1:-0.985497 2:-0.985327 
1 1:-0.965702 2:-0.972285 
1 1:-0.985497 2:-0.985327 
1 1:-0.965702 2:-0.972285 
1 1:-0.985497 2:-0.985327 
1 1:-0.965702 2:-0.972285 
1 1:-0.985497 2:-0.985327 
1 1:-0.965702 2:-0.972285 
1 1:-0.985497 2:-0.985327 
1 1:-0.965702 2:-0.972285 
1 1:-0.985497 2:-0.985327 
1 1:-0.965702 2:-0.972285 
1 1:-0.985497 2:-0.985327 
1 1:-0.965702 2:-0.972285 
1 1:-0.985497 2:-0.985327 
1 1:-0.965702 2:-0.972285 
1 1:-0.985497 2:-0.985327 
1 1:-0.965702 2:-0.972285 
1 1:-0.985497 2:-0.985327 
1 1:-0.965702 2:-0.972285 
1 1:-0.985497 2:-0.985327 
1 1:-0.965702 2:-0.972285 
1 1:-0.985497 2:-0.985327 
1 1:-0.965702 2:-0.972285 
1 1:-0.985497 2:-0.985327 
1 1:-0.965702 2:-0.972285 
1 1:-0.985497 2:-0.985327 
1 1:-0.965702 2:-0.972285 
1 1:-0.985497 2:-0.985327 
1 1:-0.965702 2:-0.972285 
1 1:-0.985497 2:-0.985327 
1 1:-0.965702 2:-0.972285 
1 1:-0.985497 2:-0.985327 
1 1:-0.965702 2:-0.972285 
1 1:-0.985497 2:-0.985327 
1 1:-0.965702 2:-0.972285 
1 1:-0.985497 2:-0.985327 
1 1:-0.965702 2:-0.972285 
1 1:-0.985497 2:-0.985327 
1 1:-0.965702 2:-0.972285 
1 1:-0.985497 2:-0.985327 
1 1:-0.965702 2:-0.972285 
1 1:-0.985497 2:-0.985327 
1 1:-0.965702 2:-0.972285 
1 1:-0.985497 2:-0.985327 
1 1:-0.965702 2:-0.972285 
1 1:-0.985497 2:-0.985327 
1 1:-0.965702 2:-0.972285 
1 1:-0.990168 2:-0.966806 
1 1:-0.990168 2:-0.966806 
1 1:-0.990168 2:-0.966806 
1 1:-0.990168 2:-0.966806 
1 1:-0.990168 2:-0.966806 
1 1:-0.990168 2:-0.966806 
1 1:-0.990168 2:-0.966806 
1 1:-0.990168 2:-0.966806 
1 1:-0.990168 2:-0.966806 
1 1:-0.990168 2:-0.966806 
1 1:-0.990168 2:-0.966806 
1 1:-0.990168 2:-0.966806 
1 1:-0.990168 2:-0.966806 
1 1:-0.990168 2:-0.966806 
1 1:-0.990168 2:-0.966806 
1 1:-0.990168 2:-0.966806 
1 1:-0.990168 2:-0.966806 
1 1:-0.990168 2:-0.966806 
1 1:-0.990168 2:-0.966806 
1 1:-0.990168 2:-0.966806 
1 1:-0.990168 2:-0.966806 
1 1:-0.990168 2:-0.966806 
1 1:-0.990168 2:-0.966806 
1 1:-0.990168 2:-0.966806 
1 1:-0.990168 2:-0.966806 
1 1:-0.990168 2:-0.966806 
1 1:-0.990168 2:-0.966806 
1 1:-0.990168 2:-0.966806 
1 1:-0.990168 2:-0.966806 
1 1:-0.990168 2:-0.966806 
1 1:-0.990168 2:-0.966806 
1 1:-0.990168 2:-0.966806 
1 1:-0.990168 2:-0.966806 
1 1:-0.990168 2:-0.966806 
1 1:-0.990168 2:-0.966806 
1 1:-0.990168 2:-0.966806 
1 1:-0.990168 2:-0.966806 
1 1:-0.990168 2:-0.966806 
1 1:-0.990168 2:-0.966806 
1 1:-0.990168 2:-0.966806 
1 1:-0.990168 2:-0.966806 
1 1:-0.990168 2:-0.966806 
1 1:-0.990168 2:-0.966806 
1 1:-0.990168 2:-0.966806 
1 1:-0.990168 2:-0.966806 
1 1:-0.990168 2:-0.966806 
1 1:-0.990168 2:-0.966806 
1 1:-0.990168 2:-0.966806 
1 1:-0.990168 2:-0.966806 
1 1:-0.990168 2:-0.966806 
1 1:-0.990168 2:-0.966806 
1 1:-0.990168 2:-0.966806 
1 1:-0.990168 2:-0.966806 
1 1:-0.990168 2:-0.966806 
1 1:-0.990168 2:-0.966806 
1 1:-0.990168 2:-0.966806 
1 1:-0.990168 2:-0.966806 
1 1:-0.990168 2:-0.966806 
1 1:-0.990168 2:-0.966806 
1 1:-0.990168 2:-0.966806 
1 1:-0.990168 2:-0.966806 
1 1:-0.990168 2:-0.966806 
1 1:-0.990168 2:-0.966806 
1 1:-0.990168 2:-0.966806 
1 1:-0.990168 2:-0.966806 
1 1:-0.990168 2:-0.966806 
1 1:-0.990168 2:-0.966806 
1 1:-0.990168 2:-0.966806 
1 1:-0.990168 2:-0.966806 
1 1:-0.990168 2:-0.966806 
1 1:-0.990168 2:-0.966806 
1 1:-0.990168 2:-0.966806 
1 1:-0.990168 2:-0.966806 
1 1:-0.990168 2:-0.966806 
1 1:-0.990168 2:-0.966806 
1 1:-0.990168 2:-0.966806 
1 1:-0.990168 2:-0.966806 
1 1:-0.990168 2:-0.966806 
1 1:-0.990168 2:-0.966806 
1 1:-0.990168 2:-0.966806 
1 1:-0.990168 2:-0.966806 
1 1:-0.990168 2:-0.966806 
1 1:-0.990168 2:-0.966806 
1 1:-0.990168 2:-0.966806 
1 1:-0.990168 2:-0.966806 
1 1:-0.990168 2:-0.966806 
1 1:-0.990168 2:-0.966806 
1 1:-0.990168 2:-0.966806 
1 1:-0.990168 2:-0.966806 
1 1:-0.990168 2:-0.966806 
1 1:-0.990168 2:-0.966806 
1 1:-0.990168 2:-0.966806 
1 1:-0.990168 2:-0.966806 
1 1:-0.990168 2:-0.966806 
1 1:-0.990168 2:-0.966806 
1 1:-0.990168 2:-0.966806 
1 1:-0.990168 2:-0.966806 
1 1:-0.990168 2:-0.966806 
1 1:-0.990168 2:-0.966806 
1 1:-0.986415 2:-0.97752 
1 1:-0.971363 2:-0.965849 
1 1:-0.986415 2:-0.97752 
1 1:-0.971363 2:-0.965849 
1 1:-0.986415 2:-0.97752 
1 1:-0.971363 2:-0.965849 
1 1:-0.986415 2:-0.97752 
1 1:-0.971363 2:-0.965849 
1 1:-0.986415 2:-0.97752 
1 1:-0.971363 2:-0.965849 
1 1:-0.986415 2:-0.97752 
1 1:-0.971363 2:-0.965849 
1 1:-0.986415 2:-0.97752 
1 1:-0.971363 2:-0.965849 
1 1:-0.986415 2:-0.97752 
1 1:-0.971363 2:-0.965849 
1 1:-0.986415 2:-0.97752 
1 1:-0.971363 2:-0.965849 
1 1:-0.986415 2:-0.97752 
1 1:-0.971363 2:-0.965849 
1 1:-0.986415 2:-0.97752 
1 1:-0.971363 2:-0.965849 
1 1:-0.986415 2:-0.97752 
1 1:-0.971363 2:-0.965849 
1 1:-0.986415 2:-0.97752 
1 1:-0.971363 2:-0.965849 
1 1:-0.986415 2:-0.97752 
1 1:-0.971363 2:-0.965849 
1 1:-0.986415 2:-0.97752 
1 1:-0.971363 2:-0.965849 
1 1:-0.986415 2:-0.97752 
1 1:-0.971363 2:-0.965849 
1 1:-0.986415 2:-0.97752 
1 1:-0.971363 2:-0.965849 
1 1:-0.986415 2:-0.97752 
1 1:-0.971363 2:-0.965849 
1 1:-0.986415 2:-0.97752 
1 1:-0.971363 2:-0.965849 
1 1:-0.986415 2:-0.97752 
1 1:-0.971363 2:-0.965849 
1 1:-0.986415 2:-0.97752 
1 1:-0.971363 2:-0.965849 
1 1:-0.986415 2:-0.97752 
1 1:-0.971363 2:-0.965849 
1 1:-0.986415 2:-0.97752 
1 1:-0.971363 2:-0.965849 
1 1:-0.986415 2:-0.97752 
1 1:-0.971363 2:-0.965849 
1 1:-0.986415 2:-0.97752 
1 1:-0.971363 2:-0.965849 
1 1:-0.986415 2:-0.97752 
1 1:-0.971363 2:-0.965849 
1 1:-0.986415 2:-0.97752 
1 1:-0.971363 2:-0.965849 
1 1:-0.986415 2:-0.97752 
1 1:-0.971363 2:-0.965849 
1 1:-0.986415 2:-0.97752 
1 1:-0.971363 2:-0.965849 
1 1:-0.986415 2:-0.97752 
1 1:-0.971363 2:-0.965849 
1 1:-0.986415 2:-0.97752 
1 1:-0.971363 2:-0.965849 
1 1:-0.986415 2:-0.97752 
1 1:-0.971363 2:-0.965849 
1 1:-0.986415 2:-0.97752 
1 1:-0.971363 2:-0.965849 
1 1:-0.986415 2:-0.97752 
1 1:-0.971363 2:-0.965849 
1 1:-0.986415 2:-0.97752 
1 1:-0.971363 2:-0.965849 
1 1:-0.986415 2:-0.97752 
1 1:-0.971363 2:-0.965849 
1 1:-0.986415 2:-0.97752 
1 1:-0.971363 2:-0.965849 
1 1:-0.986415 2:-0.97752 
1 1:-0.971363 2:-0.965849 
1 1:-0.986415 2:-0.97752 
1 1:-0.971363 2:-0.965849 
1 1:-0.986415 2:-0.97752 
1 1:-0.971363 2:-0.965849 
1 1:-0.986415 2:-0.97752 
1 1:-0.971363 2:-0.965849 
1 1:-0.986415 2:-0.97752 
1 1:-0.971363 2:-0.965849 
1 1:-0.986415 2:-0.97752 
1 1:-0.971363 2:-0.965849 
1 1:-0.986415 2:-0.97752 
1 1:-0.971363 2:-0.965849 
1 1:-0.986415 2:-0.97752 
1 1:-0.971363 2:-0.965849 
1 1:-0.986415 2:-0.97752 
1 1:-0.971363 2:-0.965849 
1 1:-0.986415 2:-0.97752 
1 1:-0.971363 2:-0.965849 
1 1:-0.986415 2:-0.97752 
1 1:-0.971363 2:-0.965849 
1 1:-0.986415 2:-0.97752 
1 1:-0.971363 2:-0.965849 
1 1:-0.986415 2:-0.97752 
1 1:-0.971363 2:-0.965849 
1 1:-0.986415 2:-0.97752 
1 1:-0.971363 2:-0.965849 
1 1:-0.986415 2:-0.97752 
1 1:-0.971363 2:-0.965849 
1 1:-0.986415 2:-0.97752 
1 1:-0.971363 2:-0.965849 
1 1:-0.986415 2:-0.97752 
1 1:-0.971363 2:-0.965849 
1 1:-0.986415 2:-0.97752 
1 1:-0.971363 2:-0.965849 
1 1:-0.986415 2:-0.97752 
1 1:-0.971363 2:-0.965849 
1 1:-0.986415 2:-0.97752 
1 1:-0.971363 2:-0.965849 
1 1:-0.986415 2:-0.97752 
1 1:-0.971363 2:-0.965849 
1 1:-0.986415 2:-0.97752 
1 1:-0.971363 2:-0.965849 
1 1:-0.986415 2:-0.97752 
1 1:-0.971363 2:-0.965849 
1 1:-0.986415 2:-0.97752 
1 1:-0.971363 2:-0.965849 
1 1:-0.986415 2:-0.97752 
1 1:-0.971363 2:-0.965849 
1 1:-0.986415 2:-0.97752 
1 1:-0.971363 2:-0.965849 
1 1:-0.986415 2:-0.97752 
1 1:-0.971363 2:-0.965849 
1 1:-0.986415 2:-0.97752 
1 1:-0.971363 2:-0.965849 
1 1:-0.986415 2:-0.97752 
1 1:-0.971363 2:-0.965849 
1 1:-0.986415 2:-0.97752 
1 1:-0.971363 2:-0.965849 
1 1:-0.986415 2:-0.97752 
1 1:-0.971363 2:-0.965849 
1 1:-0.986415 2:-0.97752 
1 1:-0.971363 2:-0.965849 
1 1:-0.986415 2:-0.97752 
1 1:-0.971363 2:-0.965849 
1 1:-0.986415 2:-0.97752 
1 1:-0.971363 2:-0.965849 
1 1:-0.986415 2:-0.97752 
1 1:-0.971363 2:-0.965849 
1 1:-0.986415 2:-0.97752 
1 1:-0.971363 2:-0.965849 
1 1:-0.986415 2:-0.97752 
1 1:-0.971363 2:-0.965849 
1 1:-0.986415 2:-0.97752 
1 1:-0.971363 2:-0.965849 
1 1:-0.986415 2:-0.97752 
1 1:-0.971363 2:-0.965849 
1 1:-0.986415 2:-0.97752 
1 1:-0.971363 2:-0.965849 
1 1:-0.986415 2:-0.97752 
1 1:-0.971363 2:-0.965849 
1 1:-0.986415 2:-0.97752 
1 1:-0.971363 2:-0.965849 
1 1:-0.986415 2:-0.97752 
1 1:-0.971363 2:-0.965849 
1 1:-0.986415 2:-0.97752 
1 1:-0.971363 2:-0.965849 
1 1:-0.986415 2:-0.97752 
1 1:-0.971363 2:-0.965849 
1 1:-0.986415 2:-0.97752 
1 1:-0.971363 2:-0.965849 
1 1:-0.986415 2:-0.97752 
1 1:-0.971363 2:-0.965849 
1 1:-0.986415 2:-0.97752 
1 1:-0.971363 2:-0.965849 
1 1:-0.986415 2:-0.97752 
1 1:-0.971363 2:-0.965849 
1 1:-0.986415 2:-0.97752 
1 1:-0.971363 2:-0.965849 
1 1:-0.986415 2:-0.97752 
1 1:-0.971363 2:-0.965849 
1 1:-0.986415 2:-0.97752 
1 1:-0.971363 2:-0.965849 
1 1:-0.986415 2:-0.97752 
1 1:-0.971363 2:-0.965849 
1 1:-0.986415 2:-0.97752 
1 1:-0.971363 2:-0.965849 
1 1:-0.988752 2:-0.96292 
1 1:-0.988752 2:-0.96292 
1 1:-0.988752 2:-0.96292 
1 1:-0.988752 2:-0.96292 
1 1:-0.988752 2:-0.96292 
1 1:-0.988752 2:-0.96292 
1 1:-0.988752 2:-0.96292 
1 1:-0.988752 2:-0.96292 
1 1:-0.988752 2:-0.96292 
1 1:-0.988752 2:-0.96292 
1 1:-0.988752 2:-0.96292 
1 1:-0.988752 2:-0.96292 
1 1:-0.988752 2:-0.96292 
1 1:-0.988752 2:-0.96292 
1 1:-0.988752 2:-0.96292 
1 1:-0.988752 2:-0.96292 
1 1:-0.988752 2:-0.96292 
1 1:-0.988752 2:-0.96292 
1 1:-0.988752 2:-0.96292 
1 1:-0.988752 2:-0.96292 
1 1:-0.988752 2:-0.96292 
1 1:-0.988752 2:-0.96292 
1 1:-0.988752 2:-0.96292 
1 1:-0.988752 2:-0.96292 
1 1:-0.988752 2:-0.96292 
1 1:-0.988752 2:-0.96292 
1 1:-0.988752 2:-0.96292 
1 1:-0.988752 2:-0.96292 
1 1:-0.988752 2:-0.96292 
1 1:-0.988752 2:-0.96292 
1 1:-0.988752 2:-0.96292 
1 1:-0.988752 2:-0.96292 
1 1:-0.988752 2:-0.96292 
1 1:-0.988752 2:-0.96292 
1 1:-0.988752 2:-0.96292 
1 1:-0.988752 2:-0.96292 
1 1:-0.988752 2:-0.96292 
1 1:-0.988752 2:-0.96292 
1 1:-0.988752 2:-0.96292 
1 1:-0.988752 2:-0.96292 
1 1:-0.988752 2:-0.96292 
1 1:-0.988752 2:-0.96292 
1 1:-0.988752 2:-0.96292 
1 1:-0.988752 2:-0.96292 
1 1:-0.988752 2:-0.96292 
1 1:-0.988752 2:-0.96292 
1 1:-0.988752 2:-0.96292 
1 1:-0.988752 2:-0.96292 
1 1:-0.988752 2:-0.96292 
1 1:-0.988752 2:-0.96292 
1 1:-0.988752 2:-0.96292 
1 1:-0.988752 2:-0.96292 
1 1:-0.988752 2:-0.96292 
1 1:-0.988752 2:-0.96292 
1 1:-0.988752 2:-0.96292 
1 1:-0.988752 2:-0.96292 
1 1:-0.988752 2:-0.96292 
1 1:-0.988752 2:-0.96292 
1 1:-0.988752 2:-0.96292 
1 1:-0.988752 2:-0.96292 
1 1:-0.988752 2:-0.96292 
1 1:-0.988752 2:-0.96292 
1 1:-0.988752 2:-0.96292 
1 1:-0.988752 2:-0.96292 
1 1:-0.988752 2:-0.96292 
1 1:-0.988752 2:-0.96292 
1 1:-0.988752 2:-0.96292 
1 1:-0.988752 2:-0.96292 
1 1:-0.988752 2:-0.96292 
1 1:-0.988752 2:-0.96292 
1 1:-0.988752 2:-0.96292 
1 1:-0.988752 2:-0.96292 
1 1:-0.988752 2:-0.96292 
1 1:-0.988752 2:-0.96292 
1 1:-0.988752 2:-0.96292 
1 1:-0.988752 2:-0.96292 
1 1:-0.988752 2:-0.96292 
1 1:-0.988752 2:-0.96292 
1 1:-0.988752 2:-0.96292 
1 1:-0.988752 2:-0.96292 
1 1:-0.988752 2:-0.96292 
1 1:-0.988752 2:-0.96292 
1 1:-0.988752 2:-0.96292 
1 1:-0.988752 2:-0.96292 
1 1:-0.988752 2:-0.96292 
1 1:-0.988752 2:-0.96292 
1 1:-0.988752 2:-0.96292 
1 1:-0.988752 2:-0.96292 
1 1:-0.988752 2:-0.96292 
1 1:-0.988752 2:-0.96292 
1 1:-0.988752 2:-0.96292 
1 1:-0.988752 2:-0.96292 
1 1:-0.988752 2:-0.96292 
1 1:-0.988752 2:-0.96292 
1 1:-0.988752 2:-0.96292 
1 1:-0.988752 2:-0.96292 
1 1:-0.988752 2:-0.96292 
1 1:-0.971122 2:-0.969218 
1 1:-0.971122 2:-0.969218 
1 1:-0.971122 2:-0.969218 
1 1:-0.971122 2:-0.969218 
1 1:-0.971122 2:-0.969218 
1 1:-0.971122 2:-0.969218 
1 1:-0.971122 2:-0.969218 
1 1:-0.971122 2:-0.969218 
1 1:-0.971122 2:-0.969218 
1 1:-0.971122 2:-0.969218 
1 1:-0.971122 2:-0.969218 
1 1:-0.971122 2:-0.969218 
1 1:-0.971122 2:-0.969218 
1 1:-0.971122 2:-0.969218 
1 1:-0.971122 2:-0.969218 
1 1:-0.971122 2:-0.969218 
1 1:-0.971122 2:-0.969218 
1 1:-0.971122 2:-0.969218 
1 1:-0.971122 2:-0.969218 
1 1:-0.971122 2:-0.969218 
1 1:-0.971122 2:-0.969218 
1 1:-0.971122 2:-0.969218 
1 1:-0.971122 2:-0.969218 
1 1:-0.971122 2:-0.969218 
1 1:-0.971122 2:-0.969218 
1 1:-0.971122 2:-0.969218 
1 1:-0.971122 2:-0.969218 
1 1:-0.971122 2:-0.969218 
1 1:-0.971122 2:-0.969218 
1 1:-0.971122 2:-0.969218 
1 1:-0.971122 2:-0.969218 
1 1:-0.971122 2:-0.969218 
1 1:-0.971122 2:-0.969218 
1 1:-0.971122 2:-0.969218 
1 1:-0.971122 2:-0.969218 
1 1:-0.971122 2:-0.969218 
1 1:-0.971122 2:-0.969218 
1 1:-0.971122 2:-0.969218 
1 1:-0.971122 2:-0.969218 
1 1:-0.971122 2:-0.969218 
1 1:-0.971122 2:-0.969218 
1 1:-0.971122 2:-0.969218 
1 1:-0.971122 2:-0.969218 
1 1:-0.971122 2:-0.969218 
1 1:-0.971122 2:-0.969218 
1 1:-0.971122 2:-0.969218 
1 1:-0.971122 2:-0.969218 
1 1:-0.971122 2:-0.969218 
1 1:-0.971122 2:-0.969218 
1 1:-0.971122 2:-0.969218 
1 1:-0.971122 2:-0.969218 
1 1:-0.971122 2:-0.969218 
1 1:-0.971122 2:-0.969218 
1 1:-0.971122 2:-0.969218 
1 1:-0.971122 2:-0.969218 
1 1:-0.971122 2:-0.969218 
1 1:-0.971122 2:-0.969218 
1 1:-0.971122 2:-0.969218 
1 1:-0.971122 2:-0.969218 
1 1:-0.971122 2:-0.969218 
1 1:-0.971122 2:-0.969218 
1 1:-0.971122 2:-0.969218 
1 1:-0.971122 2:-0.969218 
1 1:-0.971122 2:-0.969218 
1 1:-0.971122 2:-0.969218 
1 1:-0.971122 2:-0.969218 
1 1:-0.971122 2:-0.969218 
1 1:-0.971122 2:-0.969218 
1 1:-0.971122 2:-0.969218 
1 1:-0.971122 2:-0.969218 
1 1:-0.971122 2:-0.969218 
1 1:-0.971122 2:-0.969218 
1 1:-0.971122 2:-0.969218 
1 1:-0.971122 2:-0.969218 
1 1:-0.971122 2:-0.969218 
1 1:-0.971122 2:-0.969218 
1 1:-0.971122 2:-0.969218 
1 1:-0.971122 2:-0.969218 
1 1:-0.971122 2:-0.969218 
1 1:-0.971122 2:-0.969218 
1 1:-0.971122 2:-0.969218 
1 1:-0.971122 2:-0.969218 
1 1:-0.971122 2:-0.969218 
1 1:-0.971122 2:-0.969218 
1 1:-0.971122 2:-0.969218 
1 1:-0.971122 2:-0.969218 
1 1:-0.971122 2:-0.969218 
1 1:-0.971122 2:-0.969218 
1 1:-0.971122 2:-0.969218 
1 1:-0.971122 2:-0.969218 
1 1:-0.971122 2:-0.969218 
1 1:-0.971122 2:-0.969218 
1 1:-0.971122 2:-0.969218 
1 1:-0.971122 2:-0.969218 
1 1:-0.971122 2:-0.969218 
1 1:-0.962115 2:-0.979076 
1 1:-0.983722 2:-0.995417 
1 1:-0.962115 2:-0.979076 
1 1:-0.983722 2:-0.995417 
1 1:-0.962115 2:-0.979076 
1 1:-0.983722 2:-0.995417 
1 1:-0.962115 2:-0.979076 
1 1:-0.983722 2:-0.995417 
1 1:-0.962115 2:-0.979076 
1 1:-0.983722 2:-0.995417 
1 1:-0.962115 2:-0.979076 
1 1:-0.983722 2:-0.995417 
1 1:-0.962115 2:-0.979076 
1 1:-0.983722 2:-0.995417 
1 1:-0.962115 2:-0.979076 
1 1:-0.983722 2:-0.995417 
1 1:-0.962115 2:-0.979076 
1 1:-0.983722 2:-0.995417 
1 1:-0.962115 2:-0.979076 
1 1:-0.983722 2:-0.995417 
1 1:-0.962115 2:-0.979076 
1 1:-0.983722 2:-0.995417 
1 1:-0.962115 2:-0.979076 
1 1:-0.983722 2:-0.995417 
1 1:-0.962115 2:-0.979076 
1 1:-0.983722 2:-0.995417 
1 1:-0.962115 2:-0.979076 
1 1:-0.983722 2:-0.995417 
1 1:-0.962115 2:-0.979076 
1 1:-0.983722 2:-0.995417 
1 1:-0.962115 2:-0.979076 
1 1:-0.983722 2:-0.995417 
1 1:-0.962115 2:-0.979076 
1 1:-0.983722 2:-0.995417 
1 1:-0.962115 2:-0.979076 
1 1:-0.983722 2:-0.995417 
1 1:-0.962115 2:-0.979076 
1 1:-0.983722 2:-0.995417 
1 1:-0.962115 2:-0.979076 
1 1:-0.983722 2:-0.995417 
1 1:-0.962115 2:-0.979076 
1 1:-0.983722 2:-0.995417 
1 1:-0.962115 2:-0.979076 
1 1:-0.983722 2:-0.995417 
1 1:-0.962115 2:-0.979076 
1 1:-0.983722 2:-0.995417 
1 1:-0.962115 2:-0.979076 
1 1:-0.983722 2:-0.995417 
1 1:-0.962115 2:-0.979076 
1 1:-0.983722 2:-0.995417 
1 1:-0.962115 2:-0.979076 
1 1:-0.983722 2:-0.995417 
1 1:-0.962115 2:-0.979076 
1 1:-0.983722 2:-0.995417 
1 1:-0.962115 2:-0.979076 
1 1:-0.983722 2:-0.995417 
1 1:-0.962115 2:-0.979076 
1 1:-0.983722 2:-0.995417 
1 1:-0.962115 2:-0.979076 
1 1:-0.983722 2:-0.995417 
1 1:-0.962115 2:-0.979076 
1 1:-0.983722 2:-0.995417 
1 1:-0.962115 2:-0.979076 
1 1:-0.983722 2:-0.995417 
1 1:-0.962115 2:-0.979076 
1 1:-0.983722 2:-0.995417 
1 1:-0.962115 2:-0.979076 
1 1:-0.983722 2:-0.995417 
1 1:-0.962115 2:-0.979076 
1 1:-0.983722 2:-0.995417 
1 1:-0.962115 2:-0.979076 
1 1:-0.983722 2:-0.995417 
1 1:-0.962115 2:-0.979076 
1 1:-0.983722 2:-0.995417 
1 1:-0.962115 2:-0.979076 
1 1:-0.983722 2:-0.995417 
1 1:-0.962115 2:-0.979076 
1 1:-0.983722 2:-0.995417 
1 1:-0.962115 2:-0.979076 
1 1:-0.983722 2:-0.995417 
1 1:-0.962115 2:-0.979076 
1 1:-0.983722 2:-0.995417 
1 1:-0.962115 2:-0.979076 
1 1:-0.983722 2:-0.995417 
1 1:-0.962115 2:-0.979076 
1 1:-0.983722 2:-0.995417 
1 1:-0.962115 2:-0.979076 
1 1:-0.983722 2:-0.995417 
1 1:-0.962115 2:-0.979076 
1 1:-0.983722 2:-0.995417 
1 1:-0.962115 2:-0.979076 
1 1:-0.983722 2:-0.995417 
1 1:-0.962115 2:-0.979076 
1 1:-0.983722 2:-0.995417 
1 1:-0.962115 2:-0.979076 
1 1:-0.983722 2:-0.995417 
1 1:-0.962115 2:-0.979076 
1 1:-0.983722 2:-0.995417 
1 1:-0.962115 2:-0.979076 
1 1:-0.983722 2:-0.995417 
1 1:-0.962115 2:-0.979076 
1 1:-0.983722 2:-0.995417 
1 1:-0.962115 2:-0.979076 
1 1:-0.983722 2:-0.995417 
1 1:-0.962115 2:-0.979076 
1 1:-0.983722 2:-0.995417 
1 1:-0.962115 2:-0.979076 
1 1:-0.983722 2:-0.995417 
1 1:-0.962115 2:-0.979076 
1 1:-0.983722 2:-0.995417 
1 1:-0.962115 2:-0.979076 
1 1:-0.983722 2:-0.995417 
1 1:-0.962115 2:-0.979076 
1 1:-0.983722 2:-0.995417 
1 1:-0.962115 2:-0.979076 
1 1:-0.983722 2:-0.995417 
1 1:-0.962115 2:-0.979076 
1 1:-0.983722 2:-0.995417 
1 1:-0.962115 2:-0.979076 
1 1:-0.983722 2:-0.995417 
1 1:-0.962115 2:-0.979076 
1 1:-0.983722 2:-0.995417 
1 1:-0.962115 2:-0.979076 
1 1:-0.983722 2:-0.995417 
1 1:-0.962115 2:-0.979076 
1 1:-0.983722 2:-0.995417 
1 1:-0.962115 2:-0.979076 
1 1:-0.983722 2:-0.995417 
1 1:-0.962115 2:-0.979076 
1 1:-0.983722 2:-0.995417 
1 1:-0.962115 2:-0.979076 
1 1:-0.983722 2:-0.995417 
1 1:-0.962115 2:-0.979076 
1 1:-0.983722 2:-0.995417 
1 1:-0.962115 2:-0.979076 
1 1:-0.983722 2:-0.995417 
1 1:-0.962115 2:-0.979076 
1 1:-0.983722 2:-0.995417 
1 1:-0.962115 2:-0.979076 
1 1:-0.983722 2:-0.995417 
1 1:-0.962115 2:-0.979076 
1 1:-0.983722 2:-0.995417 
1 1:-0.962115 2:-0.979076 
1 1:-0.983722 2:-0.995417 
1 1:-0.962115 2:-0.979076 
1 1:-0.983722 2:-0.995417 
1 1:-0.962115 2:-0.979076 
1 1:-0.983722 2:-0.995417 
1 1:-0.962115 2:-0.979076 
1 1:-0.983722 2:-0.995417 
1 1:-0.962115 2:-0.979076 
1 1:-0.983722 2:-0.995417 
1 1:-0.962115 2:-0.979076 
1 1:-0.983722 2:-0.995417 
1 1:-0.962115 2:-0.979076 
1 1:-0.983722 2:-0.995417 
1 1:-0.962115 2:-0.979076 
1 1:-0.983722 2:-0.995417 
1 1:-0.962115 2:-0.979076 
1 1:-0.983722 2:-0.995417 
1 1:-0.962115 2:-0.979076 
1 1:-0.983722 2:-0.995417 
1 1:-0.962115 2:-0.979076 
1 1:-0.983722 2:-0.995417 
1 1:-0.962115 2:-0.979076 
1 1:-0.983722 2:-0.995417 
1 1:-0.962115 2:-0.979076 
1 1:-0.983722 2:-0.995417 
1 1:-0.962115 2:-0.979076 
1 1:-0.983722 2:-0.995417 
1 1:-0.962115 2:-0.979076 
1 1:-0.983722 2:-0.995417 
1 1:-0.962115 2:-0.979076 
1 1:-0.983722 2:-0.995417 
1 1:-0.962115 2:-0.979076 
1 1:-0.983722 2:-0.995417 
1 1:-0.962115 2:-0.979076 
1 1:-0.983722 2:-0.995417 
1 1:-0.962115 2:-0.979076 
1 1:-0.983722 2:-0.995417 
1 1:-0.962115 2:-0.979076 
1 1:-0.983722 2:-0.995417 
1 1:-0.962115 2:-0.979076 
1 1:-0.983722 2:-0.995417 
1 1:-0.962115 2:-0.979076 
1 1:-0.983722 2:-0.995417 
1 1:-0.962115 2:-0.979076 
1 1:-0.983722 2:-0.995417 
1 1:-0.982852 2:-0.996549 
1 1:-0.982852 2:-0.996549 
1 1:-0.982852 2:-0.996549 
1 1:-0.982852 2:-0.996549 
1 1:-0.982852 2:-0.996549 
1 1:-0.982852 2:-0.996549 
1 1:-0.982852 2:-0.996549 
1 1:-0.982852 2:-0.996549 
1 1:-0.982852 2:-0.996549 
1 1:-0.982852 2:-0.996549 
1 1:-0.982852 2:-0.996549 
1 1:-0.982852 2:-0.996549 
1 1:-0.982852 2:-0.996549 
1 1:-0.982852 2:-0.996549 
1 1:-0.982852 2:-0.996549 
1 1:-0.982852 2:-0.996549 
1 1:-0.982852 2:-0.996549 
1 1:-0.982852 2:-0.996549 
1 1:-0.982852 2:-0.996549 
1 1:-0.982852 2:-0.996549 
1 1:-0.982852 2:-0.996549 
1 1:-0.982852 2:-0.996549 
1 1:-0.982852 2:-0.996549 
1 1:-0.982852 2:-0.996549 
1 1:-0.982852 2:-0.996549 
1 1:-0.982852 2:-0.996549 
1 1:-0.982852 2:-0.996549 
1 1:-0.982852 2:-0.996549 
1 1:-0.982852 2:-0.996549 
1 1:-0.982852 2:-0.996549 
1 1:-0.982852 2:-0.996549 
1 1:-0.982852 2:-0.996549 
1 1:-0.982852 2:-0.996549 
1 1:-0.982852 2:-0.996549 
1 1:-0.982852 2:-0.996549 
1 1:-0.982852 2:-0.996549 
1 1:-0.982852 2:-0.996549 
1 1:-0.982852 2:-0.996549 
1 1:-0.982852 2:-0.996549 
1 1:-0.982852 2:-0.996549 
1 1:-0.982852 2:-0.996549 
1 1:-0.982852 2:-0.996549 
1 1:-0.982852 2:-0.996549 
1 1:-0.982852 2:-0.996549 
1 1:-0.982852 2:-0.996549 
1 1:-0.982852 2:-0.996549 
1 1:-0.982852 2:-0.996549 
1 1:-0.982852 2:-0.996549 
1 1:-0.982852 2:-0.996549 
1 1:-0.982852 2:-0.996549 
1 1:-0.982852 2:-0.996549 
1 1:-0.982852 2:-0.996549 
1 1:-0.982852 2:-0.996549 
1 1:-0.982852 2:-0.996549 
1 1:-0.982852 2:-0.996549 
1 1:-0.982852 2:-0.996549 
1 1:-0.982852 2:-0.996549 
1 1:-0.982852 2:-0.996549 
1 1:-0.982852 2:-0.996549 
1 1:-0.982852 2:-0.996549 
1 1:-0.982852 2:-0.996549 
1 1:-0.982852 2:-0.996549 
1 1:-0.982852 2:-0.996549 
1 1:-0.982852 2:-0.996549 
1 1:-0.982852 2:-0.996549 
1 1:-0.982852 2:-0.996549 
1 1:-0.982852 2:-0.996549 
1 1:-0.982852 2:-0.996549 
1 1:-0.982852 2:-0.996549 
1 1:-0.982852 2:-0.996549 
1 1:-0.982852 2:-0.996549 
1 1:-0.982852 2:-0.996549 
1 1:-0.982852 2:-0.996549 
1 1:-0.982852 2:-0.996549 
1 1:-0.982852 2:-0.996549 
1 1:-0.982852 2:-0.996549 
1 1:-0.982852 2:-0.996549 
1 1:-0.982852 2:-0.996549 
1 1:-0.982852 2:-0.996549 
1 1:-0.982852 2:-0.996549 
1 1:-0.982852 2:-0.996549 
1 1:-0.982852 2:-0.996549 
1 1:-0.982852 2:-0.996549 
1 1:-0.982852 2:-0.996549 
1 1:-0.982852 2:-0.996549 
1 1:-0.982852 2:-0.996549 
1 1:-0.982852 2:-0.996549 
1 1:-0.982852 2:-0.996549 
1 1:-0.982852 2:-0.996549 
1 1:-0.982852 2:-0.996549 
1 1:-0.982852 2:-0.996549 
1 1:-0.982852 2:-0.996549 
1 1:-0.982852 2:-0.996549 
1 1:-0.982852 2:-0.996549 
1 1:-0.972479 2:-0.977382 
1 1:-0.972479 2:-0.977382 
1 1:-0.972479 2:-0.977382 
1 1:-0.972479 2:-0.977382 
1 1:-0.972479 2:-0.977382 
1 1:-0.972479 2:-0.977382 
1 1:-0.972479 2:-0.977382 
1 1:-0.972479 2:-0.977382 
1 1:-0.972479 2:-0.977382 
1 1:-0.972479 2:-0.977382 
1 1:-0.972479 2:-0.977382 
1 1:-0.972479 2:-0.977382 
1 1:-0.972479 2:-0.977382 
1 1:-0.972479 2:-0.977382 
1 1:-0.972479 2:-0.977382 
1 1:-0.972479 2:-0.977382 
1 1:-0.972479 2:-0.977382 
1 1:-0.972479 2:-0.977382 
1 1:-0.972479 2:-0.977382 
1 1:-0.972479 2:-0.977382 
1 1:-0.972479 2:-0.977382 
1 1:-0.972479 2:-0.977382 
1 1:-0.972479 2:-0.977382 
1 1:-0.972479 2:-0.977382 
1 1:-0.972479 2:-0.977382 
1 1:-0.972479 2:-0.977382 
1 1:-0.972479 2:-0.977382 
1 1:-0.972479 2:-0.977382 
1 1:-0.972479 2:-0.977382 
1 1:-0.972479 2:-0.977382 
1 1:-0.972479 2:-0.977382 
1 1:-0.972479 2:-0.977382 
1 1:-0.972479 2:-0.977382 
1 1:-0.972479 2:-0.977382 
1 1:-0.967826 2:-0.977333 
1 1:-0.967826 2:-0.977333 
1 1:-0.982186 2:-0.980366 
1 1:-0.982186 2:-0.980366 
1 1:-0.982186 2:-0.980366 
1 1:-0.982186 2:-0.980366 
1 1:-0.982186 2:-0.980366 
1 1:-0.982186 2:-0.980366 
1 1:-0.982186 2:-0.980366 
1 1:-0.982186 2:-0.980366 
1 1:-0.982186 2:-0.980366 
1 1:-0.982186 2:-0.980366 
1 1:-0.982186 2:-0.980366 
1 1:-0.982186 2:-0.980366 
1 1:-0.982186 2:-0.980366 
1 1:-0.982186 2:-0.980366 
1 1:-0.982186 2:-0.980366 
1 1:-0.982186 2:-0.980366 
1 1:-0.982186 2:-0.980366 
1 1:-0.982186 2:-0.980366 
1 1:-0.982186 2:-0.980366 
1 1:-0.982186 2:-0.980366 
1 1:-0.982186 2:-0.980366 
1 1:-0.982186 2:-0.980366 
1 1:-0.982186 2:-0.980366 
1 1:-0.982186 2:-0.980366 
1 1:-0.982186 2:-0.980366 
1 1:-0.982186 2:-0.980366 
1 1:-0.982186 2:-0.980366 
1 1:-0.982186 2:-0.980366 
1 1:-0.982186 2:-0.980366 
1 1:-0.982186 2:-0.980366 
1 1:-0.982186 2:-0.980366 
1 1:-0.982186 2:-0.980366 
1 1:-0.982186 2:-0.980366 
1 1:-0.982186 2:-0.980366 
1 1:-0.982186 2:-0.980366 
1 1:-0.982186 2:-0.980366 
1 1:-0.982186 2:-0.980366 
1 1:-0.982186 2:-0.980366 
1 1:-0.982186 2:-0.980366 
1 1:-0.982186 2:-0.980366 
1 1:-0.982186 2:-0.980366 
1 1:-0.982186 2:-0.980366 
1 1:-0.982186 2:-0.980366 
1 1:-0.982186 2:-0.980366 
1 1:-0.982186 2:-0.980366 
1 1:-0.982186 2:-0.980366 
1 1:-0.982186 2:-0.980366 
1 1:-0.982186 2:-0.980366 
1 1:-0.982186 2:-0.980366 
1 1:-0.982186 2:-0.980366 
1 1:-0.982186 2:-0.980366 
1 1:-0.982186 2:-0.980366 
1 1:-0.982186 2:-0.980366 
1 1:-0.982186 2:-0.980366 
1 1:-0.982186 2:-0.980366 
1 1:-0.982186 2:-0.980366 
1 1:-0.982186 2:-0.980366 
1 1:-0.982186 2:-0.980366 
1 1:-0.982186 2:-0.980366 
1 1:-0.982186 2:-0.980366 
1 1:-0.982186 2:-0.980366 
1 1:-0.982186 2:-0.980366 
1 1:-0.982186 2:-0.980366 
1 1:-0.982186 2:-0.980366 
1 1:-0.982186 2:-0.980366 
1 1:-0.982186 2:-0.980366 
1 1:-0.982186 2:-0.980366 
1 1:-0.982186 2:-0.980366 
1 1:-0.982186 2:-0.980366 
1 1:-0.982186 2:-0.980366 
1 1:-0.982186 2:-0.980366 
1 1:-0.982186 2:-0.980366 
1 1:-0.982186 2:-0.980366 
1 1:-0.982186 2:-0.980366 
1 1:-0.982186 2:-0.980366 
1 1:-0.982186 2:-0.980366 
1 1:-0.982186 2:-0.980366 
1 1:-0.982186 2:-0.980366 
1 1:-0.982186 2:-0.980366 
1 1:-0.982186 2:-0.980366 
1 1:-0.982186 2:-0.980366 
1 1:-0.982186 2:-0.980366 
1 1:-0.982186 2:-0.980366 
1 1:-0.982186 2:-0.980366 
1 1:-0.982186 2:-0.980366 
1 1:-0.982186 2:-0.980366 
1 1:-0.982186 2:-0.980366 
1 1:-0.982186 2:-0.980366 
1 1:-0.982186 2:-0.980366 
1 1:-0.982186 2:-0.980366 
1 1:-0.982186 2:-0.980366 
1 1:-0.982186 2:-0.980366 
1 1:-0.982186 2:-0.980366 
1 1:-0.982186 2:-0.980366 
1 1:-0.964152 2:-0.968859 
1 1:-0.964152 2:-0.968859 
1 1:-0.964152 2:-0.968859 
1 1:-0.964152 2:-0.968859 
1 1:-0.964152 2:-0.968859 
1 1:-0.964152 2:-0.968859 
1 1:-0.964152 2:-0.968859 
1 1:-0.964152 2:-0.968859 
1 1:-0.964152 2:-0.968859 
1 1:-0.964152 2:-0.968859 
1 1:-0.964152 2:-0.968859 
1 1:-0.964152 2:-0.968859 
1 1:-0.964152 2:-0.968859 
1 1:-0.964152 2:-0.968859 
1 1:-0.964152 2:-0.968859 
1 1:-0.964152 2:-0.968859 
1 1:-0.964152 2:-0.968859 
1 1:-0.964152 2:-0.968859 
1 1:-0.964152 2:-0.968859 
1 1:-0.964152 2:-0.968859 
1 1:-0.964152 2:-0.968859 
1 1:-0.964152 2:-0.968859 
1 1:-0.964152 2:-0.968859 
1 1:-0.964152 2:-0.968859 
1 1:-0.964152 2:-0.968859 
1 1:-0.964152 2:-0.968859 
1 1:-0.964152 2:-0.968859 
1 1:-0.964152 2:-0.968859 
1 1:-0.964152 2:-0.968859 
1 1:-0.964152 2:-0.968859 
1 1:-0.964152 2:-0.968859 
1 1:-0.964152 2:-0.968859 
1 1:-0.964152 2:-0.968859 
1 1:-0.964152 2:-0.968859 
1 1:-0.964152 2:-0.968859 
1 1:-0.964152 2:-0.968859 
1 1:-0.964152 2:-0.968859 
1 1:-0.964152 2:-0.968859 
1 1:-0.964152 2:-0.968859 
1 1:-0.964152 2:-0.968859 
1 1:-0.964152 2:-0.968859 
1 1:-0.964152 2:-0.968859 
1 1:-0.964152 2:-0.968859 
1 1:-0.964152 2:-0.968859 
1 1:-0.964152 2:-0.968859 
1 1:-0.964152 2:-0.968859 
1 1:-0.964152 2:-0.968859 
1 1:-0.964152 2:-0.968859 
1 1:-0.964152 2:-0.968859 
1 1:-0.964152 2:-0.968859 
1 1:-0.964152 2:-0.968859 
1 1:-0.964152 2:-0.968859 
1 1:-0.964152 2:-0.968859 
1 1:-0.964152 2:-0.968859 
1 1:-0.964152 2:-0.968859 
1 1:-0.964152 2:-0.968859 
1 1:-0.964152 2:-0.968859 
1 1:-0.964152 2:-0.968859 
1 1:-0.964152 2:-0.968859 
1 1:-0.964152 2:-0.968859 
1 1:-0.964152 2:-0.968859 
1 1:-0.964152 2:-0.968859 
1 1:-0.964152 2:-0.968859 
1 1:-0.964152 2:-0.968859 
1 1:-0.964152 2:-0.968859 
1 1:-0.964152 2:-0.968859 
1 1:-0.964152 2:-0.968859 
1 1:-0.964152 2:-0.968859 
1 1:-0.964152 2:-0.968859 
1 1:-0.964152 2:-0.968859 
1 1:-0.964152 2:-0.968859 
1 1:-0.964152 2:-0.968859 
1 1:-0.964152 2:-0.968859 
1 1:-0.964152 2:-0.968859 
1 1:-0.964152 2:-0.968859 
1 1:-0.964152 2:-0.968859 
1 1:-0.964152 2:-0.968859 
1 1:-0.964152 2:-0.968859 
1 1:-0.964152 2:-0.968859 
1 1:-0.964152 2:-0.968859 
1 1:-0.964152 2:-0.968859 
1 1:-0.964152 2:-0.968859 
1 1:-0.964152 2:-0.968859 
1 1:-0.964152 2:-0.968859 
1 1:-0.964152 2:-0.968859 
1 1:-0.964152 2:-0.968859 
1 1:-0.964152 2:-0.968859 
1 1:-0.964152 2:-0.968859 
1 1:-0.964152 2:-0.968859 
1 1:-0.964152 2:-0.968859 
1 1:-0.964152 2:-0.968859 
1 1:-0.964152 2:-0.968859 
1 1:-0.964152 2:-0.968859 
1 1:-0.964152 2:-0.968859 
1 1:-0.964152 2:-0.968859 
1 1:-0.964152 2:-0.968859 
1 1:-0.964152 2:-0.968859 
1 1:-0.964152 2:-0.968859 
1 1:-0.964152 2:-0.968859 
1 1:-0.964152 2:-0.968859 
1 1:-0.972531 2:-0.971869 
1 1:-0.972531 2:-0.971869 
1 1:-0.972531 2:-0.971869 
1 1:-0.972531 2:-0.971869 
1 1:-0.972531 2:-0.971869 
1 1:-0.972531 2:-0.971869 
1 1:-0.972531 2:-0.971869 
1 1:-0.972531 2:-0.971869 
1 1:-0.972531 2:-0.971869 
1 1:-0.972531 2:-0.971869 
1 1:-0.972531 2:-0.971869 
1 1:-0.972531 2:-0.971869 
1 1:-0.972531 2:-0.971869 
1 1:-0.972531 2:-0.971869 
1 1:-0.972531 2:-0.971869 
1 1:-0.972531 2:-0.971869 
1 1:-0.972531 2:-0.971869 
1 1:-0.972531 2:-0.971869 
1 1:-0.972531 2:-0.971869 
1 1:-0.972531 2:-0.971869 
1 1:-0.972531 2:-0.971869 
1 1:-0.972531 2:-0.971869 
1 1:-0.972531 2:-0.971869 
1 1:-0.972531 2:-0.971869 
1 1:-0.972531 2:-0.971869 
1 1:-0.972531 2:-0.971869 
1 1:-0.972531 2:-0.971869 
1 1:-0.972531 2:-0.971869 
1 1:-0.972531 2:-0.971869 
1 1:-0.972531 2:-0.971869 
1 1:-0.972531 2:-0.971869 
1 1:-0.972531 2:-0.971869 
1 1:-0.972531 2:-0.971869 
1 1:-0.972531 2:-0.971869 
1 1:-0.972531 2:-0.971869 
1 1:-0.972531 2:-0.971869 
1 1:-0.972531 2:-0.971869 
1 1:-0.972531 2:-0.971869 
1 1:-0.972531 2:-0.971869 
1 1:-0.972531 2:-0.971869 
1 1:-0.972531 2:-0.971869 
1 1:-0.972531 2:-0.971869 
1 1:-0.972531 2:-0.971869 
1 1:-0.972531 2:-0.971869 
1 1:-0.972531 2:-0.971869 
1 1:-0.972531 2:-0.971869 
1 1:-0.972531 2:-0.971869 
1 1:-0.972531 2:-0.971869 
1 1:-0.972531 2:-0.971869 
1 1:-0.972531 2:-0.971869 
1 1:-0.972531 2:-0.971869 
1 1:-0.972531 2:-0.971869 
1 1:-0.972531 2:-0.971869 
1 1:-0.972531 2:-0.971869 
1 1:-0.972531 2:-0.971869 
1 1:-0.972531 2:-0.971869 
1 1:-0.972531 2:-0.971869 
1 1:-0.972531 2:-0.971869 
1 1:-0.972531 2:-0.971869 
1 1:-0.972531 2:-0.971869 
1 1:-0.972531 2:-0.971869 
1 1:-0.972531 2:-0.971869 
1 1:-0.972531 2:-0.971869 
1 1:-0.972531 2:-0.971869 
1 1:-0.972531 2:-0.971869 
1 1:-0.972531 2:-0.971869 
1 1:-0.972531 2:-0.971869 
1 1:-0.972531 2:-0.971869 
1 1:-0.972531 2:-0.971869 
1 1:-0.972531 2:-0.971869 
1 1:-0.972531 2:-0.971869 
1 1:-0.972531 2:-0.971869 
1 1:-0.972531 2:-0.971869 
1 1:-0.972531 2:-0.971869 
1 1:-0.972531 2:-0.971869 
1 1:-0.972531 2:-0.971869 
1 1:-0.972531 2:-0.971869 
1 1:-0.972531 2:-0.971869 
1 1:-0.972531 2:-0.971869 
1 1:-0.972531 2:-0.971869 
1 1:-0.972531 2:-0.971869 
1 1:-0.972531 2:-0.971869 
1 1:-0.972531 2:-0.971869 
1 1:-0.972531 2:-0.971869 
1 1:-0.972531 2:-0.971869 
1 1:-0.972531 2:-0.971869 
1 1:-0.972531 2:-0.971869 
1 1:-0.972531 2:-0.971869 
1 1:-0.972531 2:-0.971869 
1 1:-0.972531 2:-0.971869 
1 1:-0.972531 2:-0.971869 
1 1:-0.972531 2:-0.971869 
1 1:-0.972531 2:-0.971869 
1 1:-0.975245 2:-0.965093 
1 1:-0.399456 2:0.0265474 
1 1:-0.309072 2:0.596569 
1 1:-0.975245 2:-0.965093 
1 1:-0.399456 2:0.0265474 
1 1:-0.309072 2:0.596569 
1 1:-0.975245 2:-0.965093 
1 1:-0.399456 2:0.0265474 
1 1:-0.309072 2:0.596569 
1 1:-0.975245 2:-0.965093 
1 1:-0.399456 2:0.0265474 
1 1:-0.309072 2:0.596569 
1 1:-0.975245 2:-0.965093 
1 1:-0.399456 2:0.0265474 
1 1:-0.309072 2:0.596569 
1 1:-0.975245 2:-0.965093 
1 1:-0.399456 2:0.0265474 
1 1:-0.309072 2:0.596569 
1 1:-0.975245 2:-0.965093 
1 1:-0.399456 2:0.0265474 
1 1:-0.309072 2:0.596569 
1 1:-0.975245 2:-0.965093 
1 1:-0.399456 2:0.0265474 
1 1:-0.309072 2:0.596569 
1 1:-0.975245 2:-0.965093 
1 1:-0.399456 2:0.0265474 
1 1:-0.309072 2:0.596569 
1 1:-0.975245 2:-0.965093 
1 1:-0.399456 2:0.0265474 
1 1:-0.309072 2:0.596569 
1 1:-0.975245 2:-0.965093 
1 1:-0.399456 2:0.0265474 
1 1:-0.309072 2:0.596569 
1 1:-0.975245 2:-0.965093 
1 1:-0.399456 2:0.0265474 
1 1:-0.309072 2:0.596569 
1 1:-0.975245 2:-0.965093 
1 1:-0.399456 2:0.0265474 
1 1:-0.309072 2:0.596569 
1 1:-0.975245 2:-0.965093 
1 1:-0.399456 2:0.0265474 
1 1:-0.309072 2:0.596569 
1 1:-0.975245 2:-0.965093 
1 1:-0.399456 2:0.0265474 
1 1:-0.309072 2:0.596569 
1 1:-0.975245 2:-0.965093 
1 1:-0.399456 2:0.0265474 
1 1:-0.309072 2:0.596569 
1 1:-0.975245 2:-0.965093 
1 1:-0.399456 2:0.0265474 
1 1:-0.309072 2:0.596569 
1 1:-0.975245 2:-0.965093 
1 1:-0.399456 2:0.0265474 
1 1:-0.309072 2:0.596569 
1 1:-0.975245 2:-0.965093 
1 1:-0.399456 2:0.0265474 
1 1:-0.309072 2:0.596569 
1 1:-0.975245 2:-0.965093 
1 1:-0.399456 2:0.0265474 
1 1:-0.309072 2:0.596569 
1 1:-0.975245 2:-0.965093 
1 1:-0.399456 2:0.0265474 
1 1:-0.309072 2:0.596569 
1 1:-0.975245 2:-0.965093 
1 1:-0.399456 2:0.0265474 
1 1:-0.309072 2:0.596569 
1 1:-0.975245 2:-0.965093 
1 1:-0.399456 2:0.0265474 
1 1:-0.309072 2:0.596569 
1 1:-0.975245 2:-0.965093 
1 1:-0.399456 2:0.0265474 
1 1:-0.309072 2:0.596569 
1 1:-0.975245 2:-0.965093 
1 1:-0.399456 2:0.0265474 
1 1:-0.309072 2:0.596569 
1 1:-0.975245 2:-0.965093 
1 1:-0.399456 2:0.0265474 
1 1:-0.309072 2:0.596569 
1 1:-0.975245 2:-0.965093 
1 1:-0.399456 2:0.0265474 
1 1:-0.309072 2:0.596569 
1 1:-0.975245 2:-0.965093 
1 1:-0.399456 2:0.0265474 
1 1:-0.309072 2:0.596569 
1 1:-0.975245 2:-0.965093 
1 1:-0.399456 2:0.0265474 
1 1:-0.309072 2:0.596569 
1 1:-0.975245 2:-0.965093 
1 1:-0.399456 2:0.0265474 
1 1:-0.309072 2:0.596569 
1 1:-0.975245 2:-0.965093 
1 1:-0.399456 2:0.0265474 
1 1:-0.309072 2:0.596569 
1 1:-0.975245 2:-0.965093 
1 1:-0.399456 2:0.0265474 
1 1:-0.309072 2:0.596569 
1 1:-0.975245 2:-0.965093 
1 1:-0.399456 2:0.0265474 
1 1:-0.309072 2:0.596569 
1 1:-0.975245 2:-0.965093 
1 1:-0.399456 2:0.0265474 
1 1:-0.309072 2:0.596569 
1 1:-0.975245 2:-0.965093 
1 1:-0.399456 2:0.0265474 
1 1:-0.309072 2:0.596569 
1 1:-0.975245 2:-0.965093 
1 1:-0.399456 2:0.0265474 
1 1:-0.309072 2:0.596569 
1 1:-0.975245 2:-0.965093 
1 1:-0.399456 2:0.0265474 
1 1:-0.309072 2:0.596569 
1 1:-0.975245 2:-0.965093 
1 1:-0.399456 2:0.0265474 
1 1:-0.309072 2:0.596569 
1 1:-0.975245 2:-0.965093 
1 1:-0.399456 2:0.0265474 
1 1:-0.309072 2:0.596569 
1 1:-0.975245 2:-0.965093 
1 1:-0.399456 2:0.0265474 
1 1:-0.309072 2:0.596569 
1 1:-0.975245 2:-0.965093 
1 1:-0.399456 2:0.0265474 
1 1:-0.309072 2:0.596569 
1 1:-0.975245 2:-0.965093 
1 1:-0.399456 2:0.0265474 
1 1:-0.309072 2:0.596569 
1 1:-0.975245 2:-0.965093 
1 1:-0.399456 2:0.0265474 
1 1:-0.309072 2:0.596569 
1 1:-0.975245 2:-0.965093 
1 1:-0.399456 2:0.0265474 
1 1:-0.309072 2:0.596569 
1 1:-0.975245 2:-0.965093 
1 1:-0.399456 2:0.0265474 
1 1:-0.309072 2:0.596569 
1 1:-0.975245 2:-0.965093 
1 1:-0.399456 2:0.0265474 
1 1:-0.309072 2:0.596569 
1 1:-0.975245 2:-0.965093 
1 1:-0.399456 2:0.0265474 
1 1:-0.309072 2:0.596569 
1 1:-0.975245 2:-0.965093 
1 1:-0.399456 2:0.0265474 
1 1:-0.309072 2:0.596569 
1 1:-0.975245 2:-0.965093 
1 1:-0.399456 2:0.0265474 
1 1:-0.309072 2:0.596569 
1 1:-0.975245 2:-0.965093 
1 1:-0.399456 2:0.0265474 
1 1:-0.309072 2:0.596569 
1 1:-0.975245 2:-0.965093 
1 1:-0.399456 2:0.0265474 
1 1:-0.309072 2:0.596569 
1 1:-0.975245 2:-0.965093 
1 1:-0.399456 2:0.0265474 
1 1:-0.309072 2:0.596569 
1 1:-0.975245 2:-0.965093 
1 1:-0.399456 2:0.0265474 
1 1:-0.309072 2:0.596569 
1 1:-0.975245 2:-0.965093 
1 1:-0.399456 2:0.0265474 
1 1:-0.309072 2:0.596569 
1 1:-0.975245 2:-0.965093 
1 1:-0.399456 2:0.0265474 
1 1:-0.309072 2:0.596569 
1 1:-0.975245 2:-0.965093 
1 1:-0.399456 2:0.0265474 
1 1:-0.309072 2:0.596569 
1 1:-0.975245 2:-0.965093 
1 1:-0.399456 2:0.0265474 
1 1:-0.309072 2:0.596569 
1 1:-0.975245 2:-0.965093 
1 1:-0.399456 2:0.0265474 
1 1:-0.309072 2:0.596569 
1 1:-0.975245 2:-0.965093 
1 1:-0.399456 2:0.0265474 
1 1:-0.309072 2:0.596569 
1 1:-0.975245 2:-0.965093 
1 1:-0.399456 2:0.0265474 
1 1:-0.309072 2:0.596569 
1 1:-0.975245 2:-0.965093 
1 1:-0.399456 2:0.0265474 
1 1:-0.309072 2:0.596569 
1 1:-0.975245 2:-0.965093 
1 1:-0.399456 2:0.0265474 
1 1:-0.309072 2:0.596569 
1 1:-0.975245 2:-0.965093 
1 1:-0.399456 2:0.0265474 
1 1:-0.309072 2:0.596569 
1 1:-0.975245 2:-0.965093 
1 1:-0.399456 2:0.0265474 
1 1:-0.309072 2:0.596569 
1 1:-0.975245 2:-0.965093 
1 1:-0.399456 2:0.0265474 
1 1:-0.309072 2:0.596569 
1 1:-0.975245 2:-0.965093 
1 1:-0.399456 2:0.0265474 
1 1:-0.309072 2:0.596569 
1 1:-0.975245 2:-0.965093 
1 1:-0.399456 2:0.0265474 
1 1:-0.309072 2:0.596569 
1 1:-0.975245 2:-0.965093 
1 1:-0.399456 2:0.0265474 
1 1:-0.309072 2:0.596569 
1 1:-0.975245 2:-0.965093 
1 1:-0.399456 2:0.0265474 
1 1:-0.309072 2:0.596569 
1 1:-0.975245 2:-0.965093 
1 1:-0.399456 2:0.0265474 
1 1:-0.309072 2:0.596569 
1 1:-0.975245 2:-0.965093 
1 1:-0.399456 2:0.0265474 
1 1:-0.309072 2:0.596569 
1 1:-0.975245 2:-0.965093 
1 1:-0.399456 2:0.0265474 
1 1:-0.309072 2:0.596569 
1 1:-0.975245 2:-0.965093 
1 1:-0.399456 2:0.0265474 
1 1:-0.309072 2:0.596569 
1 1:-0.975245 2:-0.965093 
1 1:-0.399456 2:0.0265474 
1 1:-0.309072 2:0.596569 
1 1:-0.975245 2:-0.965093 
1 1:-0.399456 2:0.0265474 
1 1:-0.309072 2:0.596569 
1 1:-0.975245 2:-0.965093 
1 1:-0.399456 2:0.0265474 
1 1:-0.309072 2:0.596569 
1 1:-0.975245 2:-0.965093 
1 1:-0.399456 2:0.0265474 
1 1:-0.309072 2:0.596569 
1 1:-0.975245 2:-0.965093 
1 1:-0.399456 2:0.0265474 
1 1:-0.309072 2:0.596569 
1 1:-0.975245 2:-0.965093 
1 1:-0.399456 2:0.0265474 
1 1:-0.309072 2:0.596569 
1 1:-0.975245 2:-0.965093 
1 1:-0.399456 2:0.0265474 
1 1:-0.309072 2:0.596569 
1 1:-0.975245 2:-0.965093 
1 1:-0.399456 2:0.0265474 
1 1:-0.309072 2:0.596569 
1 1:-0.975245 2:-0.965093 
1 1:-0.399456 2:0.0265474 
1 1:-0.309072 2:0.596569 
1 1:-0.975245 2:-0.965093 
1 1:-0.399456 2:0.0265474 
1 1:-0.309072 2:0.596569 
1 1:-0.975245 2:-0.965093 
1 1:-0.399456 2:0.0265474 
1 1:-0.309072 2:0.596569 
1 1:-0.975245 2:-0.965093 
1 1:-0.399456 2:0.0265474 
1 1:-0.309072 2:0.596569 
1 1:-0.975245 2:-0.965093 
1 1:-0.399456 2:0.0265474 
1 1:-0.309072 2:0.596569 
1 1:-0.975245 2:-0.965093 
1 1:-0.399456 2:0.0265474 
1 1:-0.309072 2:0.596569 
1 1:-0.975245 2:-0.965093 
1 1:-0.399456 2:0.0265474 
1 1:-0.309072 2:0.596569 
1 1:-0.975245 2:-0.965093 
1 1:-0.399456 2:0.0265474 
1 1:-0.309072 2:0.596569 
1 1:-0.975245 2:-0.965093 
1 1:-0.399456 2:0.0265474 
1 1:-0.309072 2:0.596569 
1 1:-0.975245 2:-0.965093 
1 1:-0.399456 2:0.0265474 
1 1:-0.309072 2:0.596569 
1 1:-0.975245 2:-0.965093 
1 1:-0.399456 2:0.0265474 
1 1:-0.309072 2:0.596569 
1 1:-0.975245 2:-0.965093 
1 1:-0.399456 2:0.0265474 
1 1:-0.309072 2:0.596569 
1 1:-0.975245 2:-0.965093 
1 1:-0.399456 2:0.0265474 
1 1:-0.309072 2:0.596569 
1 1:-0.975245 2:-0.965093 
1 1:-0.399456 2:0.0265474 
1 1:-0.309072 2:0.596569 
1 1:-0.451408 2:0.189649 
1 1:-0.454452 2:0.319331 
1 1:-0.972593 2:-0.974893 
1 1:-0.451408 2:0.189649 
1 1:-0.454452 2:0.319331 
1 1:-0.972593 2:-0.974893 
1 1:-0.451408 2:0.189649 
1 1:-0.454452 2:0.319331 
1 1:-0.972593 2:-0.974893 
1 1:-0.451408 2:0.189649 
1 1:-0.454452 2:0.319331 
1 1:-0.972593 2:-0.974893 
1 1:-0.451408 2:0.189649 
