svm_type one_class
kernel_type rbf
gamma 0.5
nr_class 2
total_sv 13824
rho 10210
SV
1 1:-0.991734 2:-0.974907 
1 1:-0.991734 2:-0.974907 
1 1:-0.991734 2:-0.974907 
1 1:-0.991734 2:-0.974907 
1 1:-0.991734 2:-0.974907 
1 1:-0.991734 2:-0.974907 
1 1:-0.991734 2:-0.974907 
1 1:-0.991734 2:-0.974907 
1 1:-0.991734 2:-0.974907 
1 1:-0.991734 2:-0.974907 
1 1:-0.991734 2:-0.974907 
1 1:-0.991734 2:-0.974907 
1 1:-0.991734 2:-0.974907 
1 1:-0.991734 2:-0.974907 
1 1:-0.991734 2:-0.974907 
1 1:-0.991734 2:-0.974907 
1 1:-0.991734 2:-0.974907 
1 1:-0.991734 2:-0.974907 
1 1:-0.991734 2:-0.974907 
1 1:-0.991734 2:-0.974907 
1 1:-0.991734 2:-0.974907 
1 1:-0.991734 2:-0.974907 
1 1:-0.991734 2:-0.974907 
1 1:-0.991734 2:-0.974907 
1 1:-0.991734 2:-0.974907 
1 1:-0.991734 2:-0.974907 
1 1:-0.991734 2:-0.974907 
1 1:-0.991734 2:-0.974907 
1 1:-0.991734 2:-0.974907 
1 1:-0.991734 2:-0.974907 
1 1:-0.991734 2:-0.974907 
1 1:-0.991734 2:-0.974907 
1 1:-0.991734 2:-0.974907 
1 1:-0.991734 2:-0.974907 
1 1:-0.991734 2:-0.974907 
1 1:-0.991734 2:-0.974907 
1 1:-0.991734 2:-0.974907 
1 1:-0.991734 2:-0.974907 
1 1:-0.991734 2:-0.974907 
1 1:-0.991734 2:-0.974907 
1 1:-0.991734 2:-0.974907 
1 1:-0.991734 2:-0.974907 
1 1:-0.991734 2:-0.974907 
1 1:-0.991734 2:-0.974907 
1 1:-0.991734 2:-0.974907 
1 1:-0.991734 2:-0.974907 
1 1:-0.991734 2:-0.974907 
1 1:-0.991734 2:-0.974907 
1 1:-0.991734 2:-0.974907 
1 1:-0.991734 2:-0.974907 
1 1:-0.991734 2:-0.974907 
1 1:-0.991734 2:-0.974907 
1 1:-0.991734 2:-0.974907 
1 1:-0.991734 2:-0.974907 
1 1:-0.991734 2:-0.974907 
1 1:-0.991734 2:-0.974907 
1 1:-0.991734 2:-0.974907 
1 1:-0.991734 2:-0.974907 
1 1:-0.991734 2:-0.974907 
1 1:-0.991734 2:-0.974907 
1 1:-0.991734 2:-0.974907 
1 1:-0.991734 2:-0.974907 
1 1:-0.991734 2:-0.974907 
1 1:-0.991734 2:-0.974907 
1 1:-0.991734 2:-0.974907 
1 1:-0.991734 2:-0.974907 
1 1:-0.991734 2:-0.974907 
1 1:-0.991734 2:-0.974907 
1 1:-0.991734 2:-0.974907 
1 1:-0.991734 2:-0.974907 
1 1:-0.991734 2:-0.974907 
1 1:-0.991734 2:-0.974907 
1 1:-0.991734 2:-0.974907 
1 1:-0.991734 2:-0.974907 
1 1:-0.991734 2:-0.974907 
1 1:-0.991734 2:-0.974907 
1 1:-0.991734 2:-0.974907 
1 1:-0.991734 2:-0.974907 
1 1:-0.991734 2:-0.974907 
1 1:-0.991734 2:-0.974907 
1 1:-0.991734 2:-0.974907 
1 1:-0.991734 2:-0.974907 
1 1:-0.991734 2:-0.974907 
1 1:-0.991734 2:-0.974907 
1 1:-0.991734 2:-0.974907 
1 1:-0.991734 2:-0.974907 
1 1:-0.991734 2:-0.974907 
1 1:-0.991734 2:-0.974907 
1 1:-0.991734 2:-0.974907 
1 1:-0.991734 2:-0.974907 
1 1:-0.991734 2:-0.974907 
1 1:-0.991734 2:-0.974907 
1 1:-0.991734 2:-0.974907 
1 1:-0.991734 2:-0.974907 
1 1:-0.991734 2:-0.974907 
1 1:-0.991734 2:-0.974907 
1 1:-0.991428 2:-0.990716 
1 1:-0.991428 2:-0.990716 
1 1:-0.991428 2:-0.990716 
1 1:-0.991428 2:-0.990716 
1 1:-0.991428 2:-0.990716 
1 1:-0.991428 2:-0.990716 
1 1:-0.991428 2:-0.990716 
1 1:-0.991428 2:-0.990716 
1 1:-0.991428 2:-0.990716 
1 1:-0.991428 2:-0.990716 
1 1:-0.991428 2:-0.990716 
1 1:-0.991428 2:-0.990716 
1 1:-0.991428 2:-0.990716 
1 1:-0.991428 2:-0.990716 
1 1:-0.991428 2:-0.990716 
1 1:-0.991428 2:-0.990716 
1 1:-0.991428 2:-0.990716 
1 1:-0.991428 2:-0.990716 
1 1:-0.991428 2:-0.990716 
1 1:-0.991428 2:-0.990716 
1 1:-0.991428 2:-0.990716 
1 1:-0.991428 2:-0.990716 
1 1:-0.991428 2:-0.990716 
1 1:-0.991428 2:-0.990716 
1 1:-0.991428 2:-0.990716 
1 1:-0.991428 2:-0.990716 
1 1:-0.991428 2:-0.990716 
1 1:-0.991428 2:-0.990716 
1 1:-0.991428 2:-0.990716 
1 1:-0.991428 2:-0.990716 
1 1:-0.991428 2:-0.990716 
1 1:-0.991428 2:-0.990716 
1 1:-0.991428 2:-0.990716 
1 1:-0.991428 2:-0.990716 
1 1:-0.991428 2:-0.990716 
1 1:-0.991428 2:-0.990716 
1 1:-0.991428 2:-0.990716 
1 1:-0.991428 2:-0.990716 
1 1:-0.991428 2:-0.990716 
1 1:-0.991428 2:-0.990716 
1 1:-0.991428 2:-0.990716 
1 1:-0.991428 2:-0.990716 
1 1:-0.991428 2:-0.990716 
1 1:-0.991428 2:-0.990716 
1 1:-0.991428 2:-0.990716 
1 1:-0.991428 2:-0.990716 
1 1:-0.991428 2:-0.990716 
1 1:-0.991428 2:-0.990716 
1 1:-0.991428 2:-0.990716 
1 1:-0.991428 2:-0.990716 
1 1:-0.991428 2:-0.990716 
1 1:-0.991428 2:-0.990716 
1 1:-0.991428 2:-0.990716 
1 1:-0.991428 2:-0.990716 
1 1:-0.991428 2:-0.990716 
1 1:-0.991428 2:-0.990716 
1 1:-0.991428 2:-0.990716 
1 1:-0.991428 2:-0.990716 
1 1:-0.991428 2:-0.990716 
1 1:-0.991428 2:-0.990716 
1 1:-0.991428 2:-0.990716 
1 1:-0.991428 2:-0.990716 
1 1:-0.991428 2:-0.990716 
1 1:-0.991428 2:-0.990716 
1 1:-0.991428 2:-0.990716 
1 1:-0.991428 2:-0.990716 
1 1:-0.991428 2:-0.990716 
1 1:-0.991428 2:-0.990716 
1 1:-0.991428 2:-0.990716 
1 1:-0.991428 2:-0.990716 
1 1:-0.991428 2:-0.990716 
1 1:-0.991428 2:-0.990716 
1 1:-0.991428 2:-0.990716 
1 1:-0.991428 2:-0.990716 
1 1:-0.991428 2:-0.990716 
1 1:-0.991428 2:-0.990716 
1 1:-0.991428 2:-0.990716 
1 1:-0.991428 2:-0.990716 
1 1:-0.991428 2:-0.990716 
1 1:-0.991428 2:-0.990716 
1 1:-0.991428 2:-0.990716 
1 1:-0.991428 2:-0.990716 
1 1:-0.991428 2:-0.990716 
1 1:-0.991428 2:-0.990716 
1 1:-0.991428 2:-0.990716 
1 1:-0.991428 2:-0.990716 
1 1:-0.991428 2:-0.990716 
1 1:-0.991428 2:-0.990716 
1 1:-0.991428 2:-0.990716 
1 1:-0.991428 2:-0.990716 
1 1:-0.991428 2:-0.990716 
1 1:-0.991428 2:-0.990716 
1 1:-0.991428 2:-0.990716 
1 1:-0.991428 2:-0.990716 
1 1:-0.991428 2:-0.990716 
1 1:-0.991428 2:-0.990716 
1 1:-0.968152 2:-0.979642 
1 1:-0.968152 2:-0.979642 
1 1:-0.968152 2:-0.979642 
1 1:-0.968152 2:-0.979642 
1 1:-0.968152 2:-0.979642 
1 1:-0.968152 2:-0.979642 
1 1:-0.968152 2:-0.979642 
1 1:-0.968152 2:-0.979642 
1 1:-0.968152 2:-0.979642 
1 1:-0.968152 2:-0.979642 
1 1:-0.968152 2:-0.979642 
1 1:-0.968152 2:-0.979642 
1 1:-0.968152 2:-0.979642 
1 1:-0.968152 2:-0.979642 
1 1:-0.968152 2:-0.979642 
1 1:-0.968152 2:-0.979642 
1 1:-0.968152 2:-0.979642 
1 1:-0.968152 2:-0.979642 
1 1:-0.968152 2:-0.979642 
1 1:-0.968152 2:-0.979642 
1 1:-0.968152 2:-0.979642 
1 1:-0.968152 2:-0.979642 
1 1:-0.968152 2:-0.979642 
1 1:-0.968152 2:-0.979642 
1 1:-0.968152 2:-0.979642 
1 1:-0.968152 2:-0.979642 
1 1:-0.968152 2:-0.979642 
1 1:-0.968152 2:-0.979642 
1 1:-0.968152 2:-0.979642 
1 1:-0.968152 2:-0.979642 
1 1:-0.968152 2:-0.979642 
1 1:-0.968152 2:-0.979642 
1 1:-0.968152 2:-0.979642 
1 1:-0.968152 2:-0.979642 
1 1:-0.968152 2:-0.979642 
1 1:-0.968152 2:-0.979642 
1 1:-0.968152 2:-0.979642 
1 1:-0.968152 2:-0.979642 
1 1:-0.968152 2:-0.979642 
1 1:-0.968152 2:-0.979642 
1 1:-0.968152 2:-0.979642 
1 1:-0.968152 2:-0.979642 
1 1:-0.968152 2:-0.979642 
1 1:-0.968152 2:-0.979642 
1 1:-0.968152 2:-0.979642 
1 1:-0.968152 2:-0.979642 
1 1:-0.968152 2:-0.979642 
1 1:-0.968152 2:-0.979642 
1 1:-0.968152 2:-0.979642 
1 1:-0.968152 2:-0.979642 
1 1:-0.968152 2:-0.979642 
1 1:-0.968152 2:-0.979642 
1 1:-0.968152 2:-0.979642 
1 1:-0.968152 2:-0.979642 
1 1:-0.968152 2:-0.979642 
1 1:-0.968152 2:-0.979642 
1 1:-0.968152 2:-0.979642 
1 1:-0.968152 2:-0.979642 
1 1:-0.968152 2:-0.979642 
1 1:-0.968152 2:-0.979642 
1 1:-0.968152 2:-0.979642 
1 1:-0.968152 2:-0.979642 
1 1:-0.968152 2:-0.979642 
1 1:-0.968152 2:-0.979642 
1 1:-0.968152 2:-0.979642 
1 1:-0.968152 2:-0.979642 
1 1:-0.968152 2:-0.979642 
1 1:-0.968152 2:-0.979642 
1 1:-0.968152 2:-0.979642 
1 1:-0.968152 2:-0.979642 
1 1:-0.968152 2:-0.979642 
1 1:-0.968152 2:-0.979642 
1 1:-0.968152 2:-0.979642 
1 1:-0.968152 2:-0.979642 
1 1:-0.968152 2:-0.979642 
1 1:-0.968152 2:-0.979642 
1 1:-0.968152 2:-0.979642 
1 1:-0.968152 2:-0.979642 
1 1:-0.968152 2:-0.979642 
1 1:-0.968152 2:-0.979642 
1 1:-0.968152 2:-0.979642 
1 1:-0.968152 2:-0.979642 
1 1:-0.968152 2:-0.979642 
1 1:-0.968152 2:-0.979642 
1 1:-0.968152 2:-0.979642 
1 1:-0.968152 2:-0.979642 
1 1:-0.968152 2:-0.979642 
1 1:-0.968152 2:-0.979642 
1 1:-0.968152 2:-0.979642 
1 1:-0.968152 2:-0.979642 
1 1:-0.968152 2:-0.979642 
1 1:-0.968152 2:-0.979642 
1 1:-0.968152 2:-0.979642 
1 1:-0.968152 2:-0.979642 
1 1:-0.968152 2:-0.979642 
1 1:-0.968152 2:-0.979642 
1 1:-0.822977 2:0.291457 
1 1:-0.711736 2:0.721759 
1 1:-0.822977 2:0.291457 
1 1:-0.711736 2:0.721759 
1 1:-0.822977 2:0.291457 
1 1:-0.711736 2:0.721759 
1 1:-0.822977 2:0.291457 
1 1:-0.711736 2:0.721759 
1 1:-0.822977 2:0.291457 
1 1:-0.711736 2:0.721759 
1 1:-0.822977 2:0.291457 
1 1:-0.711736 2:0.721759 
1 1:-0.822977 2:0.291457 
1 1:-0.711736 2:0.721759 
1 1:-0.822977 2:0.291457 
1 1:-0.711736 2:0.721759 
1 1:-0.822977 2:0.291457 
1 1:-0.711736 2:0.721759 
1 1:-0.822977 2:0.291457 
1 1:-0.711736 2:0.721759 
1 1:-0.822977 2:0.291457 
1 1:-0.711736 2:0.721759 
1 1:-0.822977 2:0.291457 
1 1:-0.711736 2:0.721759 
1 1:-0.822977 2:0.291457 
1 1:-0.711736 2:0.721759 
1 1:-0.822977 2:0.291457 
1 1:-0.711736 2:0.721759 
1 1:-0.822977 2:0.291457 
1 1:-0.711736 2:0.721759 
1 1:-0.822977 2:0.291457 
1 1:-0.711736 2:0.721759 
1 1:-0.822977 2:0.291457 
1 1:-0.711736 2:0.721759 
1 1:-0.822977 2:0.291457 
1 1:-0.711736 2:0.721759 
1 1:-0.822977 2:0.291457 
1 1:-0.711736 2:0.721759 
1 1:-0.822977 2:0.291457 
1 1:-0.711736 2:0.721759 
1 1:-0.822977 2:0.291457 
1 1:-0.711736 2:0.721759 
1 1:-0.822977 2:0.291457 
1 1:-0.711736 2:0.721759 
1 1:-0.822977 2:0.291457 
1 1:-0.711736 2:0.721759 
1 1:-0.822977 2:0.291457 
1 1:-0.711736 2:0.721759 
1 1:-0.822977 2:0.291457 
1 1:-0.711736 2:0.721759 
1 1:-0.822977 2:0.291457 
1 1:-0.711736 2:0.721759 
1 1:-0.822977 2:0.291457 
1 1:-0.711736 2:0.721759 
1 1:-0.822977 2:0.291457 
1 1:-0.711736 2:0.721759 
1 1:-0.822977 2:0.291457 
1 1:-0.711736 2:0.721759 
1 1:-0.822977 2:0.291457 
1 1:-0.711736 2:0.721759 
1 1:-0.822977 2:0.291457 
1 1:-0.711736 2:0.721759 
1 1:-0.822977 2:0.291457 
1 1:-0.711736 2:0.721759 
1 1:-0.822977 2:0.291457 
1 1:-0.711736 2:0.721759 
1 1:-0.822977 2:0.291457 
1 1:-0.711736 2:0.721759 
1 1:-0.822977 2:0.291457 
1 1:-0.711736 2:0.721759 
1 1:-0.822977 2:0.291457 
1 1:-0.711736 2:0.721759 
1 1:-0.822977 2:0.291457 
1 1:-0.711736 2:0.721759 
1 1:-0.822977 2:0.291457 
1 1:-0.711736 2:0.721759 
1 1:-0.822977 2:0.291457 
1 1:-0.711736 2:0.721759 
1 1:-0.822977 2:0.291457 
1 1:-0.711736 2:0.721759 
1 1:-0.822977 2:0.291457 
1 1:-0.711736 2:0.721759 
1 1:-0.822977 2:0.291457 
1 1:-0.711736 2:0.721759 
1 1:-0.822977 2:0.291457 
1 1:-0.711736 2:0.721759 
1 1:-0.822977 2:0.291457 
1 1:-0.711736 2:0.721759 
1 1:-0.822977 2:0.291457 
1 1:-0.711736 2:0.721759 
1 1:-0.822977 2:0.291457 
1 1:-0.711736 2:0.721759 
1 1:-0.822977 2:0.291457 
1 1:-0.711736 2:0.721759 
1 1:-0.822977 2:0.291457 
1 1:-0.711736 2:0.721759 
1 1:-0.822977 2:0.291457 
1 1:-0.711736 2:0.721759 
1 1:-0.822977 2:0.291457 
1 1:-0.711736 2:0.721759 
1 1:-0.822977 2:0.291457 
1 1:-0.711736 2:0.721759 
1 1:-0.822977 2:0.291457 
1 1:-0.711736 2:0.721759 
1 1:-0.822977 2:0.291457 
1 1:-0.711736 2:0.721759 
1 1:-0.822977 2:0.291457 
1 1:-0.711736 2:0.721759 
1 1:-0.822977 2:0.291457 
1 1:-0.711736 2:0.721759 
1 1:-0.822977 2:0.291457 
1 1:-0.711736 2:0.721759 
1 1:-0.822977 2:0.291457 
1 1:-0.711736 2:0.721759 
1 1:-0.822977 2:0.291457 
1 1:-0.711736 2:0.721759 
1 1:-0.822977 2:0.291457 
1 1:-0.711736 2:0.721759 
1 1:-0.822977 2:0.291457 
1 1:-0.711736 2:0.721759 
1 1:-0.822977 2:0.291457 
1 1:-0.711736 2:0.721759 
1 1:-0.822977 2:0.291457 
1 1:-0.711736 2:0.721759 
1 1:-0.822977 2:0.291457 
1 1:-0.711736 2:0.721759 
1 1:-0.822977 2:0.291457 
1 1:-0.711736 2:0.721759 
1 1:-0.822977 2:0.291457 
1 1:-0.711736 2:0.721759 
1 1:-0.822977 2:0.291457 
1 1:-0.711736 2:0.721759 
1 1:-0.822977 2:0.291457 
1 1:-0.711736 2:0.721759 
1 1:-0.822977 2:0.291457 
1 1:-0.711736 2:0.721759 
1 1:-0.822977 2:0.291457 
1 1:-0.711736 2:0.721759 
1 1:-0.822977 2:0.291457 
1 1:-0.711736 2:0.721759 
1 1:-0.822977 2:0.291457 
1 1:-0.711736 2:0.721759 
1 1:-0.822977 2:0.291457 
1 1:-0.711736 2:0.721759 
1 1:-0.822977 2:0.291457 
1 1:-0.711736 2:0.721759 
1 1:-0.822977 2:0.291457 
1 1:-0.711736 2:0.721759 
1 1:-0.822977 2:0.291457 
1 1:-0.711736 2:0.721759 
1 1:-0.822977 2:0.291457 
1 1:-0.711736 2:0.721759 
1 1:-0.822977 2:0.291457 
1 1:-0.711736 2:0.721759 
1 1:-0.822977 2:0.291457 
1 1:-0.711736 2:0.721759 
1 1:-0.822977 2:0.291457 
1 1:-0.711736 2:0.721759 
1 1:-0.822977 2:0.291457 
1 1:-0.711736 2:0.721759 
1 1:-0.822977 2:0.291457 
1 1:-0.711736 2:0.721759 
1 1:-0.822977 2:0.291457 
1 1:-0.711736 2:0.721759 
1 1:-0.822977 2:0.291457 
1 1:-0.711736 2:0.721759 
1 1:-0.822977 2:0.291457 
1 1:-0.711736 2:0.721759 
1 1:-0.822977 2:0.291457 
1 1:-0.711736 2:0.721759 
1 1:-0.822977 2:0.291457 
1 1:-0.711736 2:0.721759 
1 1:-0.822977 2:0.291457 
1 1:-0.711736 2:0.721759 
1 1:-0.822977 2:0.291457 
1 1:-0.711736 2:0.721759 
1 1:-0.822977 2:0.291457 
1 1:-0.711736 2:0.721759 
1 1:-0.822977 2:0.291457 
1 1:-0.711736 2:0.721759 
1 1:-0.822977 2:0.291457 
1 1:-0.711736 2:0.721759 
1 1:-0.822977 2:0.291457 
1 1:-0.711736 2:0.721759 
1 1:-0.822977 2:0.291457 
1 1:-0.711736 2:0.721759 
1 1:-0.822977 2:0.291457 
1 1:-0.711736 2:0.721759 
1 1:-0.822977 2:0.291457 
1 1:-0.711736 2:0.721759 
1 1:-0.980507 2:-0.968352 
1 1:-0.980507 2:-0.968352 
1 1:-0.980507 2:-0.968352 
1 1:-0.980507 2:-0.968352 
1 1:-0.980507 2:-0.968352 
1 1:-0.980507 2:-0.968352 
1 1:-0.980507 2:-0.968352 
1 1:-0.980507 2:-0.968352 
1 1:-0.980507 2:-0.968352 
1 1:-0.980507 2:-0.968352 
1 1:-0.980507 2:-0.968352 
1 1:-0.980507 2:-0.968352 
1 1:-0.980507 2:-0.968352 
1 1:-0.980507 2:-0.968352 
1 1:-0.980507 2:-0.968352 
1 1:-0.980507 2:-0.968352 
1 1:-0.980507 2:-0.968352 
1 1:-0.980507 2:-0.968352 
1 1:-0.980507 2:-0.968352 
1 1:-0.980507 2:-0.968352 
1 1:-0.980507 2:-0.968352 
1 1:-0.980507 2:-0.968352 
1 1:-0.980507 2:-0.968352 
1 1:-0.980507 2:-0.968352 
1 1:-0.980507 2:-0.968352 
1 1:-0.980507 2:-0.968352 
1 1:-0.980507 2:-0.968352 
1 1:-0.980507 2:-0.968352 
1 1:-0.980507 2:-0.968352 
1 1:-0.980507 2:-0.968352 
1 1:-0.980507 2:-0.968352 
1 1:-0.980507 2:-0.968352 
1 1:-0.980507 2:-0.968352 
1 1:-0.980507 2:-0.968352 
1 1:-0.980507 2:-0.968352 
1 1:-0.980507 2:-0.968352 
1 1:-0.980507 2:-0.968352 
1 1:-0.980507 2:-0.968352 
1 1:-0.980507 2:-0.968352 
1 1:-0.980507 2:-0.968352 
1 1:-0.980507 2:-0.968352 
1 1:-0.980507 2:-0.968352 
1 1:-0.980507 2:-0.968352 
1 1:-0.980507 2:-0.968352 
1 1:-0.980507 2:-0.968352 
1 1:-0.980507 2:-0.968352 
1 1:-0.980507 2:-0.968352 
1 1:-0.980507 2:-0.968352 
1 1:-0.980507 2:-0.968352 
1 1:-0.980507 2:-0.968352 
1 1:-0.980507 2:-0.968352 
1 1:-0.980507 2:-0.968352 
1 1:-0.980507 2:-0.968352 
1 1:-0.980507 2:-0.968352 
1 1:-0.980507 2:-0.968352 
1 1:-0.980507 2:-0.968352 
1 1:-0.980507 2:-0.968352 
1 1:-0.980507 2:-0.968352 
1 1:-0.980507 2:-0.968352 
1 1:-0.980507 2:-0.968352 
1 1:-0.980507 2:-0.968352 
1 1:-0.980507 2:-0.968352 
1 1:-0.980507 2:-0.968352 
1 1:-0.980507 2:-0.968352 
1 1:-0.980507 2:-0.968352 
1 1:-0.980507 2:-0.968352 
1 1:-0.980507 2:-0.968352 
1 1:-0.980507 2:-0.968352 
1 1:-0.980507 2:-0.968352 
1 1:-0.980507 2:-0.968352 
1 1:-0.980507 2:-0.968352 
1 1:-0.980507 2:-0.968352 
1 1:-0.980507 2:-0.968352 
1 1:-0.980507 2:-0.968352 
1 1:-0.980507 2:-0.968352 
1 1:-0.980507 2:-0.968352 
1 1:-0.980507 2:-0.968352 
1 1:-0.980507 2:-0.968352 
1 1:-0.980507 2:-0.968352 
1 1:-0.980507 2:-0.968352 
1 1:-0.980507 2:-0.968352 
1 1:-0.980507 2:-0.968352 
1 1:-0.980507 2:-0.968352 
1 1:-0.980507 2:-0.968352 
1 1:-0.980507 2:-0.968352 
1 1:-0.980507 2:-0.968352 
1 1:-0.980507 2:-0.968352 
1 1:-0.980507 2:-0.968352 
1 1:-0.980507 2:-0.968352 
1 1:-0.980507 2:-0.968352 
1 1:-0.980507 2:-0.968352 
1 1:-0.980507 2:-0.968352 
1 1:-0.980507 2:-0.968352 
1 1:-0.980507 2:-0.968352 
1 1:-0.980507 2:-0.968352 
1 1:-0.970681 2:-0.973301 
1 1:-0.970681 2:-0.973301 
1 1:-0.970681 2:-0.973301 
1 1:-0.970681 2:-0.973301 
1 1:-0.970681 2:-0.973301 
1 1:-0.970681 2:-0.973301 
1 1:-0.970681 2:-0.973301 
1 1:-0.970681 2:-0.973301 
1 1:-0.970681 2:-0.973301 
1 1:-0.970681 2:-0.973301 
1 1:-0.970681 2:-0.973301 
1 1:-0.970681 2:-0.973301 
1 1:-0.970681 2:-0.973301 
1 1:-0.970681 2:-0.973301 
1 1:-0.970681 2:-0.973301 
1 1:-0.970681 2:-0.973301 
1 1:-0.970681 2:-0.973301 
1 1:-0.970681 2:-0.973301 
1 1:-0.970681 2:-0.973301 
1 1:-0.970681 2:-0.973301 
1 1:-0.970681 2:-0.973301 
1 1:-0.970681 2:-0.973301 
1 1:-0.970681 2:-0.973301 
1 1:-0.970681 2:-0.973301 
1 1:-0.970681 2:-0.973301 
1 1:-0.970681 2:-0.973301 
1 1:-0.970681 2:-0.973301 
1 1:-0.970681 2:-0.973301 
1 1:-0.970681 2:-0.973301 
1 1:-0.970681 2:-0.973301 
1 1:-0.970681 2:-0.973301 
1 1:-0.970681 2:-0.973301 
1 1:-0.970681 2:-0.973301 
1 1:-0.970681 2:-0.973301 
1 1:-0.970681 2:-0.973301 
1 1:-0.970681 2:-0.973301 
1 1:-0.970681 2:-0.973301 
1 1:-0.970681 2:-0.973301 
1 1:-0.970681 2:-0.973301 
1 1:-0.970681 2:-0.973301 
1 1:-0.970681 2:-0.973301 
1 1:-0.970681 2:-0.973301 
1 1:-0.970681 2:-0.973301 
1 1:-0.970681 2:-0.973301 
1 1:-0.970681 2:-0.973301 
1 1:-0.970681 2:-0.973301 
1 1:-0.970681 2:-0.973301 
1 1:-0.970681 2:-0.973301 
1 1:-0.970681 2:-0.973301 
1 1:-0.970681 2:-0.973301 
1 1:-0.970681 2:-0.973301 
1 1:-0.970681 2:-0.973301 
1 1:-0.970681 2:-0.973301 
1 1:-0.970681 2:-0.973301 
1 1:-0.970681 2:-0.973301 
1 1:-0.970681 2:-0.973301 
1 1:-0.970681 2:-0.973301 
1 1:-0.970681 2:-0.973301 
1 1:-0.970681 2:-0.973301 
1 1:-0.970681 2:-0.973301 
1 1:-0.970681 2:-0.973301 
1 1:-0.970681 2:-0.973301 
1 1:-0.970681 2:-0.973301 
1 1:-0.970681 2:-0.973301 
1 1:-0.970681 2:-0.973301 
1 1:-0.970681 2:-0.973301 
1 1:-0.970681 2:-0.973301 
1 1:-0.970681 2:-0.973301 
1 1:-0.970681 2:-0.973301 
1 1:-0.970681 2:-0.973301 
1 1:-0.970681 2:-0.973301 
1 1:-0.970681 2:-0.973301 
1 1:-0.970681 2:-0.973301 
1 1:-0.970681 2:-0.973301 
1 1:-0.970681 2:-0.973301 
1 1:-0.970681 2:-0.973301 
1 1:-0.970681 2:-0.973301 
1 1:-0.970681 2:-0.973301 
1 1:-0.970681 2:-0.973301 
1 1:-0.970681 2:-0.973301 
1 1:-0.970681 2:-0.973301 
1 1:-0.970681 2:-0.973301 
1 1:-0.970681 2:-0.973301 
1 1:-0.970681 2:-0.973301 
1 1:-0.970681 2:-0.973301 
1 1:-0.970681 2:-0.973301 
1 1:-0.970681 2:-0.973301 
1 1:-0.970681 2:-0.973301 
1 1:-0.970681 2:-0.973301 
1 1:-0.970681 2:-0.973301 
1 1:-0.970681 2:-0.973301 
1 1:-0.970681 2:-0.973301 
1 1:-0.970681 2:-0.973301 
1 1:-0.970681 2:-0.973301 
1 1:-0.970681 2:-0.973301 
1 1:-0.973251 2:-0.976812 
1 1:-0.973251 2:-0.976812 
1 1:-0.973251 2:-0.976812 
1 1:-0.973251 2:-0.976812 
1 1:-0.973251 2:-0.976812 
1 1:-0.973251 2:-0.976812 
1 1:-0.973251 2:-0.976812 
1 1:-0.973251 2:-0.976812 
1 1:-0.973251 2:-0.976812 
1 1:-0.973251 2:-0.976812 
1 1:-0.973251 2:-0.976812 
1 1:-0.973251 2:-0.976812 
1 1:-0.973251 2:-0.976812 
1 1:-0.973251 2:-0.976812 
1 1:-0.973251 2:-0.976812 
1 1:-0.973251 2:-0.976812 
1 1:-0.973251 2:-0.976812 
1 1:-0.973251 2:-0.976812 
1 1:-0.973251 2:-0.976812 
1 1:-0.973251 2:-0.976812 
1 1:-0.973251 2:-0.976812 
1 1:-0.973251 2:-0.976812 
1 1:-0.973251 2:-0.976812 
1 1:-0.973251 2:-0.976812 
1 1:-0.973251 2:-0.976812 
1 1:-0.973251 2:-0.976812 
1 1:-0.973251 2:-0.976812 
1 1:-0.973251 2:-0.976812 
1 1:-0.973251 2:-0.976812 
1 1:-0.973251 2:-0.976812 
1 1:-0.973251 2:-0.976812 
1 1:-0.973251 2:-0.976812 
1 1:-0.973251 2:-0.976812 
1 1:-0.973251 2:-0.976812 
1 1:-0.973251 2:-0.976812 
1 1:-0.973251 2:-0.976812 
1 1:-0.973251 2:-0.976812 
1 1:-0.973251 2:-0.976812 
1 1:-0.973251 2:-0.976812 
1 1:-0.973251 2:-0.976812 
1 1:-0.973251 2:-0.976812 
1 1:-0.973251 2:-0.976812 
1 1:-0.973251 2:-0.976812 
1 1:-0.973251 2:-0.976812 
1 1:-0.973251 2:-0.976812 
1 1:-0.973251 2:-0.976812 
1 1:-0.973251 2:-0.976812 
1 1:-0.973251 2:-0.976812 
1 1:-0.973251 2:-0.976812 
1 1:-0.973251 2:-0.976812 
1 1:-0.973251 2:-0.976812 
1 1:-0.973251 2:-0.976812 
1 1:-0.973251 2:-0.976812 
1 1:-0.973251 2:-0.976812 
1 1:-0.973251 2:-0.976812 
1 1:-0.973251 2:-0.976812 
1 1:-0.973251 2:-0.976812 
1 1:-0.973251 2:-0.976812 
1 1:-0.973251 2:-0.976812 
1 1:-0.973251 2:-0.976812 
1 1:-0.973251 2:-0.976812 
1 1:-0.973251 2:-0.976812 
1 1:-0.973251 2:-0.976812 
1 1:-0.973251 2:-0.976812 
1 1:-0.973251 2:-0.976812 
1 1:-0.973251 2:-0.976812 
1 1:-0.973251 2:-0.976812 
1 1:-0.973251 2:-0.976812 
1 1:-0.973251 2:-0.976812 
1 1:-0.973251 2:-0.976812 
1 1:-0.973251 2:-0.976812 
1 1:-0.973251 2:-0.976812 
1 1:-0.973251 2:-0.976812 
1 1:-0.973251 2:-0.976812 
1 1:-0.973251 2:-0.976812 
1 1:-0.973251 2:-0.976812 
1 1:-0.973251 2:-0.976812 
1 1:-0.973251 2:-0.976812 
1 1:-0.973251 2:-0.976812 
1 1:-0.973251 2:-0.976812 
1 1:-0.973251 2:-0.976812 
1 1:-0.973251 2:-0.976812 
1 1:-0.973251 2:-0.976812 
1 1:-0.973251 2:-0.976812 
1 1:-0.973251 2:-0.976812 
1 1:-0.973251 2:-0.976812 
1 1:-0.973251 2:-0.976812 
1 1:-0.973251 2:-0.976812 
1 1:-0.973251 2:-0.976812 
1 1:-0.973251 2:-0.976812 
1 1:-0.973251 2:-0.976812 
1 1:-0.973251 2:-0.976812 
1 1:-0.973251 2:-0.976812 
1 1:-0.974296 2:-0.982436 
1 1:-0.974296 2:-0.982436 
1 1:-0.974296 2:-0.982436 
1 1:-0.974296 2:-0.982436 
1 1:-0.974296 2:-0.982436 
1 1:-0.974296 2:-0.982436 
1 1:-0.974296 2:-0.982436 
1 1:-0.974296 2:-0.982436 
1 1:-0.974296 2:-0.982436 
1 1:-0.974296 2:-0.982436 
1 1:-0.974296 2:-0.982436 
1 1:-0.974296 2:-0.982436 
1 1:-0.974296 2:-0.982436 
1 1:-0.974296 2:-0.982436 
1 1:-0.974296 2:-0.982436 
1 1:-0.974296 2:-0.982436 
1 1:-0.974296 2:-0.982436 
1 1:-0.974296 2:-0.982436 
1 1:-0.974296 2:-0.982436 
1 1:-0.974296 2:-0.982436 
1 1:-0.974296 2:-0.982436 
1 1:-0.974296 2:-0.982436 
1 1:-0.974296 2:-0.982436 
1 1:-0.974296 2:-0.982436 
1 1:-0.974296 2:-0.982436 
1 1:-0.974296 2:-0.982436 
1 1:-0.974296 2:-0.982436 
1 1:-0.974296 2:-0.982436 
1 1:-0.974296 2:-0.982436 
1 1:-0.974296 2:-0.982436 
1 1:-0.974296 2:-0.982436 
1 1:-0.974296 2:-0.982436 
1 1:-0.974296 2:-0.982436 
1 1:-0.974296 2:-0.982436 
1 1:-0.974296 2:-0.982436 
1 1:-0.974296 2:-0.982436 
1 1:-0.974296 2:-0.982436 
1 1:-0.974296 2:-0.982436 
1 1:-0.974296 2:-0.982436 
1 1:-0.974296 2:-0.982436 
1 1:-0.974296 2:-0.982436 
1 1:-0.974296 2:-0.982436 
1 1:-0.974296 2:-0.982436 
1 1:-0.974296 2:-0.982436 
1 1:-0.974296 2:-0.982436 
1 1:-0.974296 2:-0.982436 
1 1:-0.974296 2:-0.982436 
1 1:-0.974296 2:-0.982436 
1 1:-0.974296 2:-0.982436 
1 1:-0.974296 2:-0.982436 
1 1:-0.974296 2:-0.982436 
1 1:-0.974296 2:-0.982436 
1 1:-0.974296 2:-0.982436 
1 1:-0.974296 2:-0.982436 
1 1:-0.974296 2:-0.982436 
1 1:-0.974296 2:-0.982436 
1 1:-0.974296 2:-0.982436 
1 1:-0.974296 2:-0.982436 
1 1:-0.974296 2:-0.982436 
1 1:-0.974296 2:-0.982436 
1 1:-0.974296 2:-0.982436 
1 1:-0.974296 2:-0.982436 
1 1:-0.974296 2:-0.982436 
1 1:-0.974296 2:-0.982436 
1 1:-0.974296 2:-0.982436 
1 1:-0.974296 2:-0.982436 
1 1:-0.974296 2:-0.982436 
1 1:-0.974296 2:-0.982436 
1 1:-0.974296 2:-0.982436 
1 1:-0.974296 2:-0.982436 
1 1:-0.974296 2:-0.982436 
1 1:-0.974296 2:-0.982436 
1 1:-0.974296 2:-0.982436 
1 1:-0.974296 2:-0.982436 
1 1:-0.974296 2:-0.982436 
1 1:-0.974296 2:-0.982436 
1 1:-0.974296 2:-0.982436 
1 1:-0.974296 2:-0.982436 
1 1:-0.974296 2:-0.982436 
1 1:-0.974296 2:-0.982436 
1 1:-0.974296 2:-0.982436 
1 1:-0.974296 2:-0.982436 
1 1:-0.974296 2:-0.982436 
1 1:-0.974296 2:-0.982436 
1 1:-0.974296 2:-0.982436 
1 1:-0.974296 2:-0.982436 
1 1:-0.974296 2:-0.982436 
1 1:-0.974296 2:-0.982436 
1 1:-0.974296 2:-0.982436 
1 1:-0.974296 2:-0.982436 
1 1:-0.974296 2:-0.982436 
1 1:-0.974296 2:-0.982436 
1 1:-0.974296 2:-0.982436 
1 1:-0.974296 2:-0.982436 
1 1:-0.974296 2:-0.982436 
1 1:-0.974296 2:-0.982436 
1 1:-0.325827 2:-0.452049 
1 1:-0.315926 2:-0.085089 
1 1:-0.325827 2:-0.452049 
1 1:-0.315926 2:-0.085089 
1 1:-0.325827 2:-0.452049 
1 1:-0.315926 2:-0.085089 
1 1:-0.325827 2:-0.452049 
1 1:-0.315926 2:-0.085089 
1 1:-0.325827 2:-0.452049 
1 1:-0.315926 2:-0.085089 
1 1:-0.325827 2:-0.452049 
1 1:-0.315926 2:-0.085089 
1 1:-0.325827 2:-0.452049 
1 1:-0.315926 2:-0.085089 
1 1:-0.325827 2:-0.452049 
1 1:-0.315926 2:-0.085089 
1 1:-0.325827 2:-0.452049 
1 1:-0.315926 2:-0.085089 
1 1:-0.325827 2:-0.452049 
1 1:-0.315926 2:-0.085089 
1 1:-0.325827 2:-0.452049 
1 1:-0.315926 2:-0.085089 
1 1:-0.325827 2:-0.452049 
1 1:-0.315926 2:-0.085089 
1 1:-0.325827 2:-0.452049 
1 1:-0.315926 2:-0.085089 
1 1:-0.325827 2:-0.452049 
1 1:-0.315926 2:-0.085089 
1 1:-0.325827 2:-0.452049 
1 1:-0.315926 2:-0.085089 
1 1:-0.325827 2:-0.452049 
1 1:-0.315926 2:-0.085089 
1 1:-0.325827 2:-0.452049 
1 1:-0.315926 2:-0.085089 
1 1:-0.325827 2:-0.452049 
1 1:-0.315926 2:-0.085089 
1 1:-0.325827 2:-0.452049 
1 1:-0.315926 2:-0.085089 
1 1:-0.325827 2:-0.452049 
1 1:-0.315926 2:-0.085089 
1 1:-0.325827 2:-0.452049 
1 1:-0.315926 2:-0.085089 
1 1:-0.325827 2:-0.452049 
1 1:-0.315926 2:-0.085089 
1 1:-0.325827 2:-0.452049 
1 1:-0.315926 2:-0.085089 
1 1:-0.325827 2:-0.452049 
1 1:-0.315926 2:-0.085089 
1 1:-0.325827 2:-0.452049 
1 1:-0.315926 2:-0.085089 
1 1:-0.325827 2:-0.452049 
1 1:-0.315926 2:-0.085089 
1 1:-0.325827 2:-0.452049 
1 1:-0.315926 2:-0.085089 
1 1:-0.325827 2:-0.452049 
1 1:-0.315926 2:-0.085089 
1 1:-0.325827 2:-0.452049 
1 1:-0.315926 2:-0.085089 
1 1:-0.325827 2:-0.452049 
1 1:-0.315926 2:-0.085089 
1 1:-0.325827 2:-0.452049 
1 1:-0.315926 2:-0.085089 
1 1:-0.325827 2:-0.452049 
1 1:-0.315926 2:-0.085089 
1 1:-0.325827 2:-0.452049 
1 1:-0.315926 2:-0.085089 
1 1:-0.325827 2:-0.452049 
1 1:-0.315926 2:-0.085089 
1 1:-0.325827 2:-0.452049 
1 1:-0.315926 2:-0.085089 
1 1:-0.325827 2:-0.452049 
1 1:-0.315926 2:-0.085089 
1 1:-0.325827 2:-0.452049 
1 1:-0.315926 2:-0.085089 
1 1:-0.325827 2:-0.452049 
1 1:-0.315926 2:-0.085089 
1 1:-0.325827 2:-0.452049 
1 1:-0.315926 2:-0.085089 
1 1:-0.325827 2:-0.452049 
1 1:-0.315926 2:-0.085089 
1 1:-0.325827 2:-0.452049 
1 1:-0.315926 2:-0.085089 
1 1:-0.325827 2:-0.452049 
1 1:-0.315926 2:-0.085089 
1 1:-0.325827 2:-0.452049 
1 1:-0.315926 2:-0.085089 
1 1:-0.325827 2:-0.452049 
1 1:-0.315926 2:-0.085089 
1 1:-0.325827 2:-0.452049 
1 1:-0.315926 2:-0.085089 
1 1:-0.325827 2:-0.452049 
1 1:-0.315926 2:-0.085089 
1 1:-0.325827 2:-0.452049 
1 1:-0.315926 2:-0.085089 
1 1:-0.325827 2:-0.452049 
1 1:-0.315926 2:-0.085089 
1 1:-0.325827 2:-0.452049 
1 1:-0.315926 2:-0.085089 
1 1:-0.325827 2:-0.452049 
1 1:-0.315926 2:-0.085089 
1 1:-0.325827 2:-0.452049 
1 1:-0.315926 2:-0.085089 
1 1:-0.325827 2:-0.452049 
1 1:-0.315926 2:-0.085089 
1 1:-0.325827 2:-0.452049 
1 1:-0.315926 2:-0.085089 
1 1:-0.325827 2:-0.452049 
1 1:-0.315926 2:-0.085089 
1 1:-0.325827 2:-0.452049 
1 1:-0.315926 2:-0.085089 
1 1:-0.325827 2:-0.452049 
1 1:-0.315926 2:-0.085089 
1 1:-0.325827 2:-0.452049 
1 1:-0.315926 2:-0.085089 
1 1:-0.325827 2:-0.452049 
1 1:-0.315926 2:-0.085089 
1 1:-0.325827 2:-0.452049 
1 1:-0.315926 2:-0.085089 
1 1:-0.325827 2:-0.452049 
1 1:-0.315926 2:-0.085089 
1 1:-0.325827 2:-0.452049 
1 1:-0.315926 2:-0.085089 
1 1:-0.325827 2:-0.452049 
1 1:-0.315926 2:-0.085089 
1 1:-0.325827 2:-0.452049 
1 1:-0.315926 2:-0.085089 
1 1:-0.325827 2:-0.452049 
1 1:-0.315926 2:-0.085089 
1 1:-0.325827 2:-0.452049 
1 1:-0.315926 2:-0.085089 
1 1:-0.325827 2:-0.452049 
1 1:-0.315926 2:-0.085089 
1 1:-0.325827 2:-0.452049 
1 1:-0.315926 2:-0.085089 
1 1:-0.325827 2:-0.452049 
1 1:-0.315926 2:-0.085089 
1 1:-0.325827 2:-0.452049 
1 1:-0.315926 2:-0.085089 
1 1:-0.325827 2:-0.452049 
1 1:-0.315926 2:-0.085089 
1 1:-0.325827 2:-0.452049 
1 1:-0.315926 2:-0.085089 
1 1:-0.325827 2:-0.452049 
1 1:-0.315926 2:-0.085089 
1 1:-0.325827 2:-0.452049 
1 1:-0.315926 2:-0.085089 
1 1:-0.325827 2:-0.452049 
1 1:-0.315926 2:-0.085089 
1 1:-0.325827 2:-0.452049 
1 1:-0.315926 2:-0.085089 
1 1:-0.325827 2:-0.452049 
1 1:-0.315926 2:-0.085089 
1 1:-0.325827 2:-0.452049 
1 1:-0.315926 2:-0.085089 
1 1:-0.325827 2:-0.452049 
1 1:-0.315926 2:-0.085089 
1 1:-0.325827 2:-0.452049 
1 1:-0.315926 2:-0.085089 
1 1:-0.325827 2:-0.452049 
1 1:-0.315926 2:-0.085089 
1 1:-0.325827 2:-0.452049 
1 1:-0.315926 2:-0.085089 
1 1:-0.325827 2:-0.452049 
1 1:-0.315926 2:-0.085089 
1 1:-0.325827 2:-0.452049 
1 1:-0.315926 2:-0.085089 
1 1:-0.325827 2:-0.452049 
1 1:-0.315926 2:-0.085089 
1 1:-0.325827 2:-0.452049 
1 1:-0.315926 2:-0.085089 
1 1:-0.325827 2:-0.452049 
1 1:-0.315926 2:-0.085089 
1 1:-0.325827 2:-0.452049 
1 1:-0.315926 2:-0.085089 
1 1:-0.325827 2:-0.452049 
1 1:-0.315926 2:-0.085089 
1 1:-0.325827 2:-0.452049 
1 1:-0.315926 2:-0.085089 
1 1:-0.325827 2:-0.452049 
1 1:-0.315926 2:-0.085089 
1 1:-0.325827 2:-0.452049 
1 1:-0.315926 2:-0.085089 
1 1:-0.325827 2:-0.452049 
1 1:-0.315926 2:-0.085089 
1 1:-0.325827 2:-0.452049 
1 1:-0.315926 2:-0.085089 
1 1:-0.325827 2:-0.452049 
1 1:-0.315926 2:-0.085089 
1 1:-0.325827 2:-0.452049 
1 1:-0.315926 2:-0.085089 
1 1:-0.972407 2:-0.969665 
1 1:-0.972407 2:-0.969665 
1 1:-0.972407 2:-0.969665 
1 1:-0.972407 2:-0.969665 
1 1:-0.972407 2:-0.969665 
1 1:-0.972407 2:-0.969665 
1 1:-0.972407 2:-0.969665 
1 1:-0.972407 2:-0.969665 
1 1:-0.972407 2:-0.969665 
1 1:-0.972407 2:-0.969665 
1 1:-0.972407 2:-0.969665 
1 1:-0.972407 2:-0.969665 
1 1:-0.972407 2:-0.969665 
1 1:-0.972407 2:-0.969665 
1 1:-0.972407 2:-0.969665 
1 1:-0.972407 2:-0.969665 
1 1:-0.972407 2:-0.969665 
1 1:-0.972407 2:-0.969665 
1 1:-0.972407 2:-0.969665 
1 1:-0.972407 2:-0.969665 
1 1:-0.972407 2:-0.969665 
1 1:-0.972407 2:-0.969665 
1 1:-0.972407 2:-0.969665 
1 1:-0.972407 2:-0.969665 
1 1:-0.972407 2:-0.969665 
1 1:-0.972407 2:-0.969665 
1 1:-0.972407 2:-0.969665 
1 1:-0.972407 2:-0.969665 
1 1:-0.972407 2:-0.969665 
1 1:-0.972407 2:-0.969665 
1 1:-0.972407 2:-0.969665 
1 1:-0.972407 2:-0.969665 
1 1:-0.972407 2:-0.969665 
1 1:-0.972407 2:-0.969665 
1 1:-0.972407 2:-0.969665 
1 1:-0.972407 2:-0.969665 
1 1:-0.972407 2:-0.969665 
1 1:-0.972407 2:-0.969665 
1 1:-0.972407 2:-0.969665 
1 1:-0.972407 2:-0.969665 
1 1:-0.972407 2:-0.969665 
1 1:-0.972407 2:-0.969665 
1 1:-0.972407 2:-0.969665 
1 1:-0.972407 2:-0.969665 
1 1:-0.972407 2:-0.969665 
1 1:-0.972407 2:-0.969665 
1 1:-0.972407 2:-0.969665 
1 1:-0.972407 2:-0.969665 
1 1:-0.972407 2:-0.969665 
1 1:-0.972407 2:-0.969665 
1 1:-0.972407 2:-0.969665 
1 1:-0.972407 2:-0.969665 
1 1:-0.972407 2:-0.969665 
1 1:-0.972407 2:-0.969665 
1 1:-0.972407 2:-0.969665 
1 1:-0.972407 2:-0.969665 
1 1:-0.972407 2:-0.969665 
1 1:-0.972407 2:-0.969665 
1 1:-0.972407 2:-0.969665 
1 1:-0.972407 2:-0.969665 
1 1:-0.972407 2:-0.969665 
1 1:-0.972407 2:-0.969665 
1 1:-0.972407 2:-0.969665 
1 1:-0.972407 2:-0.969665 
1 1:-0.972407 2:-0.969665 
1 1:-0.972407 2:-0.969665 
1 1:-0.972407 2:-0.969665 
1 1:-0.972407 2:-0.969665 
1 1:-0.972407 2:-0.969665 
1 1:-0.972407 2:-0.969665 
1 1:-0.972407 2:-0.969665 
1 1:-0.972407 2:-0.969665 
1 1:-0.972407 2:-0.969665 
1 1:-0.972407 2:-0.969665 
1 1:-0.972407 2:-0.969665 
1 1:-0.972407 2:-0.969665 
1 1:-0.972407 2:-0.969665 
1 1:-0.972407 2:-0.969665 
1 1:-0.972407 2:-0.969665 
1 1:-0.972407 2:-0.969665 
1 1:-0.972407 2:-0.969665 
1 1:-0.972407 2:-0.969665 
1 1:-0.972407 2:-0.969665 
1 1:-0.972407 2:-0.969665 
1 1:-0.972407 2:-0.969665 
1 1:-0.972407 2:-0.969665 
1 1:-0.972407 2:-0.969665 
1 1:-0.972407 2:-0.969665 
1 1:-0.972407 2:-0.969665 
1 1:-0.972407 2:-0.969665 
1 1:-0.972407 2:-0.969665 
1 1:-0.972407 2:-0.969665 
1 1:-0.972407 2:-0.969665 
1 1:-0.972407 2:-0.969665 
1 1:-0.972407 2:-0.969665 
1 1:-0.922033 2:0.236501 
1 1:-0.913353 2:0.490864 
1 1:-0.918367 2:0.211762 
1 1:-0.922033 2:0.236501 
1 1:-0.913353 2:0.490864 
1 1:-0.918367 2:0.211762 
1 1:-0.922033 2:0.236501 
1 1:-0.913353 2:0.490864 
1 1:-0.918367 2:0.211762 
1 1:-0.922033 2:0.236501 
1 1:-0.913353 2:0.490864 
1 1:-0.918367 2:0.211762 
1 1:-0.922033 2:0.236501 
1 1:-0.913353 2:0.490864 
1 1:-0.918367 2:0.211762 
1 1:-0.922033 2:0.236501 
1 1:-0.913353 2:0.490864 
1 1:-0.918367 2:0.211762 
1 1:-0.922033 2:0.236501 
1 1:-0.913353 2:0.490864 
1 1:-0.918367 2:0.211762 
1 1:-0.922033 2:0.236501 
1 1:-0.913353 2:0.490864 
1 1:-0.918367 2:0.211762 
1 1:-0.922033 2:0.236501 
1 1:-0.913353 2:0.490864 
1 1:-0.918367 2:0.211762 
1 1:-0.922033 2:0.236501 
1 1:-0.913353 2:0.490864 
1 1:-0.918367 2:0.211762 
1 1:-0.922033 2:0.236501 
1 1:-0.913353 2:0.490864 
1 1:-0.918367 2:0.211762 
1 1:-0.922033 2:0.236501 
1 1:-0.913353 2:0.490864 
1 1:-0.918367 2:0.211762 
1 1:-0.922033 2:0.236501 
1 1:-0.913353 2:0.490864 
1 1:-0.918367 2:0.211762 
1 1:-0.922033 2:0.236501 
1 1:-0.913353 2:0.490864 
1 1:-0.918367 2:0.211762 
1 1:-0.922033 2:0.236501 
1 1:-0.913353 2:0.490864 
1 1:-0.918367 2:0.211762 
1 1:-0.922033 2:0.236501 
1 1:-0.913353 2:0.490864 
1 1:-0.918367 2:0.211762 
1 1:-0.922033 2:0.236501 
1 1:-0.913353 2:0.490864 
1 1:-0.918367 2:0.211762 
1 1:-0.922033 2:0.236501 
1 1:-0.913353 2:0.490864 
1 1:-0.918367 2:0.211762 
1 1:-0.922033 2:0.236501 
1 1:-0.913353 2:0.490864 
1 1:-0.918367 2:0.211762 
1 1:-0.922033 2:0.236501 
1 1:-0.913353 2:0.490864 
1 1:-0.918367 2:0.211762 
1 1:-0.922033 2:0.236501 
1 1:-0.913353 2:0.490864 
1 1:-0.918367 2:0.211762 
1 1:-0.922033 2:0.236501 
1 1:-0.913353 2:0.490864 
1 1:-0.918367 2:0.211762 
1 1:-0.922033 2:0.236501 
1 1:-0.913353 2:0.490864 
1 1:-0.918367 2:0.211762 
1 1:-0.922033 2:0.236501 
1 1:-0.913353 2:0.490864 
1 1:-0.918367 2:0.211762 
1 1:-0.922033 2:0.236501 
1 1:-0.913353 2:0.490864 
1 1:-0.918367 2:0.211762 
1 1:-0.922033 2:0.236501 
1 1:-0.913353 2:0.490864 
1 1:-0.918367 2:0.211762 
1 1:-0.922033 2:0.236501 
1 1:-0.913353 2:0.490864 
1 1:-0.918367 2:0.211762 
1 1:-0.922033 2:0.236501 
1 1:-0.913353 2:0.490864 
1 1:-0.918367 2:0.211762 
1 1:-0.922033 2:0.236501 
1 1:-0.913353 2:0.490864 
1 1:-0.918367 2:0.211762 
1 1:-0.922033 2:0.236501 
1 1:-0.913353 2:0.490864 
1 1:-0.918367 2:0.211762 
1 1:-0.922033 2:0.236501 
1 1:-0.913353 2:0.490864 
1 1:-0.918367 2:0.211762 
1 1:-0.922033 2:0.236501 
1 1:-0.913353 2:0.490864 
1 1:-0.918367 2:0.211762 
1 1:-0.922033 2:0.236501 
1 1:-0.913353 2:0.490864 
1 1:-0.918367 2:0.211762 
1 1:-0.922033 2:0.236501 
1 1:-0.913353 2:0.490864 
1 1:-0.918367 2:0.211762 
1 1:-0.922033 2:0.236501 
1 1:-0.913353 2:0.490864 
1 1:-0.918367 2:0.211762 
1 1:-0.922033 2:0.236501 
1 1:-0.913353 2:0.490864 
1 1:-0.918367 2:0.211762 
1 1:-0.922033 2:0.236501 
1 1:-0.913353 2:0.490864 
1 1:-0.918367 2:0.211762 
1 1:-0.922033 2:0.236501 
1 1:-0.913353 2:0.490864 
1 1:-0.918367 2:0.211762 
1 1:-0.922033 2:0.236501 
1 1:-0.913353 2:0.490864 
1 1:-0.918367 2:0.211762 
1 1:-0.922033 2:0.236501 
1 1:-0.913353 2:0.490864 
1 1:-0.918367 2:0.211762 
1 1:-0.922033 2:0.236501 
1 1:-0.913353 2:0.490864 
1 1:-0.918367 2:0.211762 
1 1:-0.922033 2:0.236501 
1 1:-0.913353 2:0.490864 
1 1:-0.918367 2:0.211762 
1 1:-0.922033 2:0.236501 
1 1:-0.913353 2:0.490864 
1 1:-0.918367 2:0.211762 
1 1:-0.922033 2:0.236501 
1 1:-0.913353 2:0.490864 
1 1:-0.918367 2:0.211762 
1 1:-0.922033 2:0.236501 
1 1:-0.913353 2:0.490864 
1 1:-0.918367 2:0.211762 
1 1:-0.922033 2:0.236501 
1 1:-0.913353 2:0.490864 
1 1:-0.918367 2:0.211762 
1 1:-0.922033 2:0.236501 
1 1:-0.913353 2:0.490864 
1 1:-0.918367 2:0.211762 
1 1:-0.922033 2:0.236501 
1 1:-0.913353 2:0.490864 
1 1:-0.918367 2:0.211762 
1 1:-0.922033 2:0.236501 
1 1:-0.913353 2:0.490864 
1 1:-0.918367 2:0.211762 
1 1:-0.922033 2:0.236501 
1 1:-0.913353 2:0.490864 
1 1:-0.918367 2:0.211762 
1 1:-0.922033 2:0.236501 
1 1:-0.913353 2:0.490864 
1 1:-0.918367 2:0.211762 
1 1:-0.922033 2:0.236501 
1 1:-0.913353 2:0.490864 
1 1:-0.918367 2:0.211762 
1 1:-0.922033 2:0.236501 
1 1:-0.913353 2:0.490864 
1 1:-0.918367 2:0.211762 
1 1:-0.922033 2:0.236501 
1 1:-0.913353 2:0.490864 
1 1:-0.918367 2:0.211762 
1 1:-0.922033 2:0.236501 
1 1:-0.913353 2:0.490864 
1 1:-0.918367 2:0.211762 
1 1:-0.922033 2:0.236501 
1 1:-0.913353 2:0.490864 
1 1:-0.918367 2:0.211762 
1 1:-0.922033 2:0.236501 
1 1:-0.913353 2:0.490864 
1 1:-0.918367 2:0.211762 
1 1:-0.922033 2:0.236501 
1 1:-0.913353 2:0.490864 
1 1:-0.918367 2:0.211762 
1 1:-0.922033 2:0.236501 
1 1:-0.913353 2:0.490864 
1 1:-0.918367 2:0.211762 
1 1:-0.922033 2:0.236501 
1 1:-0.913353 2:0.490864 
1 1:-0.918367 2:0.211762 
1 1:-0.922033 2:0.236501 
1 1:-0.913353 2:0.490864 
1 1:-0.918367 2:0.211762 
1 1:-0.922033 2:0.236501 
1 1:-0.913353 2:0.490864 
1 1:-0.918367 2:0.211762 
1 1:-0.922033 2:0.236501 
1 1:-0.913353 2:0.490864 
1 1:-0.918367 2:0.211762 
1 1:-0.922033 2:0.236501 
1 1:-0.913353 2:0.490864 
1 1:-0.918367 2:0.211762 
1 1:-0.922033 2:0.236501 
1 1:-0.913353 2:0.490864 
1 1:-0.918367 2:0.211762 
1 1:-0.922033 2:0.236501 
1 1:-0.913353 2:0.490864 
1 1:-0.918367 2:0.211762 
1 1:-0.922033 2:0.236501 
1 1:-0.913353 2:0.490864 
1 1:-0.918367 2:0.211762 
1 1:-0.922033 2:0.236501 
1 1:-0.913353 2:0.490864 
1 1:-0.918367 2:0.211762 
1 1:-0.922033 2:0.236501 
1 1:-0.913353 2:0.490864 
1 1:-0.918367 2:0.211762 
1 1:-0.922033 2:0.236501 
1 1:-0.913353 2:0.490864 
1 1:-0.918367 2:0.211762 
1 1:-0.922033 2:0.236501 
1 1:-0.913353 2:0.490864 
1 1:-0.918367 2:0.211762 
1 1:-0.922033 2:0.236501 
1 1:-0.913353 2:0.490864 
1 1:-0.918367 2:0.211762 
1 1:-0.922033 2:0.236501 
1 1:-0.913353 2:0.490864 
1 1:-0.918367 2:0.211762 
1 1:-0.922033 2:0.236501 
1 1:-0.913353 2:0.490864 
1 1:-0.918367 2:0.211762 
1 1:-0.922033 2:0.236501 
1 1:-0.913353 2:0.490864 
1 1:-0.918367 2:0.211762 
1 1:-0.922033 2:0.236501 
1 1:-0.913353 2:0.490864 
1 1:-0.918367 2:0.211762 
1 1:-0.922033 2:0.236501 
1 1:-0.913353 2:0.490864 
1 1:-0.918367 2:0.211762 
1 1:-0.922033 2:0.236501 
1 1:-0.913353 2:0.490864 
1 1:-0.918367 2:0.211762 
1 1:-0.922033 2:0.236501 
1 1:-0.913353 2:0.490864 
1 1:-0.918367 2:0.211762 
1 1:-0.922033 2:0.236501 
1 1:-0.913353 2:0.490864 
1 1:-0.918367 2:0.211762 
1 1:-0.922033 2:0.236501 
1 1:-0.913353 2:0.490864 
1 1:-0.918367 2:0.211762 
1 1:-0.922033 2:0.236501 
1 1:-0.913353 2:0.490864 
1 1:-0.918367 2:0.211762 
1 1:-0.922033 2:0.236501 
1 1:-0.913353 2:0.490864 
1 1:-0.918367 2:0.211762 
1 1:-0.922033 2:0.236501 
1 1:-0.913353 2:0.490864 
1 1:-0.918367 2:0.211762 
1 1:-0.922033 2:0.236501 
1 1:-0.913353 2:0.490864 
1 1:-0.918367 2:0.211762 
1 1:-0.922033 2:0.236501 
1 1:-0.913353 2:0.490864 
1 1:-0.918367 2:0.211762 
1 1:-0.922033 2:0.236501 
1 1:-0.913353 2:0.490864 
1 1:-0.918367 2:0.211762 
1 1:-0.922033 2:0.236501 
1 1:-0.913353 2:0.490864 
1 1:-0.918367 2:0.211762 
1 1:-0.922033 2:0.236501 
1 1:-0.913353 2:0.490864 
1 1:-0.918367 2:0.211762 
1 1:-0.922033 2:0.236501 
1 1:-0.913353 2:0.490864 
1 1:-0.918367 2:0.211762 
1 1:-0.922033 2:0.236501 
1 1:-0.913353 2:0.490864 
1 1:-0.918367 2:0.211762 
1 1:-0.922033 2:0.236501 
1 1:-0.913353 2:0.490864 
1 1:-0.918367 2:0.211762 
1 1:-0.922033 2:0.236501 
1 1:-0.913353 2:0.490864 
1 1:-0.918367 2:0.211762 
1 1:-0.922033 2:0.236501 
1 1:-0.913353 2:0.490864 
1 1:-0.918367 2:0.211762 
1 1:-0.922033 2:0.236501 
1 1:-0.913353 2:0.490864 
1 1:-0.918367 2:0.211762 
1 1:-0.801951 2:0.235343 
1 1:-0.992256 2:-0.96082 
1 1:-0.949431 2:0.330711 
1 1:-0.919176 2:0.070608 
1 1:-0.801951 2:0.235343 
1 1:-0.992256 2:-0.96082 
1 1:-0.949431 2:0.330711 
1 1:-0.919176 2:0.070608 
1 1:-0.801951 2:0.235343 
1 1:-0.992256 2:-0.96082 
1 1:-0.949431 2:0.330711 
1 1:-0.919176 2:0.070608 
1 1:-0.801951 2:0.235343 
1 1:-0.992256 2:-0.96082 
1 1:-0.949431 2:0.330711 
1 1:-0.919176 2:0.070608 
1 1:-0.801951 2:0.235343 
1 1:-0.992256 2:-0.96082 
1 1:-0.949431 2:0.330711 
1 1:-0.919176 2:0.070608 
1 1:-0.801951 2:0.235343 
1 1:-0.992256 2:-0.96082 
1 1:-0.949431 2:0.330711 
1 1:-0.919176 2:0.070608 
1 1:-0.801951 2:0.235343 
1 1:-0.992256 2:-0.96082 
1 1:-0.949431 2:0.330711 
1 1:-0.919176 2:0.070608 
1 1:-0.801951 2:0.235343 
1 1:-0.992256 2:-0.96082 
1 1:-0.949431 2:0.330711 
1 1:-0.919176 2:0.070608 
1 1:-0.801951 2:0.235343 
1 1:-0.992256 2:-0.96082 
1 1:-0.949431 2:0.330711 
1 1:-0.919176 2:0.070608 
1 1:-0.801951 2:0.235343 
1 1:-0.992256 2:-0.96082 
1 1:-0.949431 2:0.330711 
1 1:-0.919176 2:0.070608 
1 1:-0.801951 2:0.235343 
1 1:-0.992256 2:-0.96082 
1 1:-0.949431 2:0.330711 
1 1:-0.919176 2:0.070608 
1 1:-0.801951 2:0.235343 
1 1:-0.992256 2:-0.96082 
1 1:-0.949431 2:0.330711 
1 1:-0.919176 2:0.070608 
1 1:-0.801951 2:0.235343 
1 1:-0.992256 2:-0.96082 
1 1:-0.949431 2:0.330711 
1 1:-0.919176 2:0.070608 
1 1:-0.801951 2:0.235343 
1 1:-0.992256 2:-0.96082 
1 1:-0.949431 2:0.330711 
1 1:-0.919176 2:0.070608 
1 1:-0.801951 2:0.235343 
1 1:-0.992256 2:-0.96082 
1 1:-0.949431 2:0.330711 
1 1:-0.919176 2:0.070608 
1 1:-0.801951 2:0.235343 
1 1:-0.992256 2:-0.96082 
1 1:-0.949431 2:0.330711 
1 1:-0.919176 2:0.070608 
1 1:-0.801951 2:0.235343 
1 1:-0.992256 2:-0.96082 
1 1:-0.949431 2:0.330711 
1 1:-0.919176 2:0.070608 
1 1:-0.801951 2:0.235343 
1 1:-0.992256 2:-0.96082 
1 1:-0.949431 2:0.330711 
1 1:-0.919176 2:0.070608 
1 1:-0.801951 2:0.235343 
1 1:-0.992256 2:-0.96082 
1 1:-0.949431 2:0.330711 
1 1:-0.919176 2:0.070608 
1 1:-0.801951 2:0.235343 
1 1:-0.992256 2:-0.96082 
1 1:-0.949431 2:0.330711 
1 1:-0.919176 2:0.070608 
1 1:-0.801951 2:0.235343 
1 1:-0.992256 2:-0.96082 
1 1:-0.949431 2:0.330711 
1 1:-0.919176 2:0.070608 
1 1:-0.801951 2:0.235343 
1 1:-0.992256 2:-0.96082 
1 1:-0.949431 2:0.330711 
1 1:-0.919176 2:0.070608 
1 1:-0.801951 2:0.235343 
1 1:-0.992256 2:-0.96082 
1 1:-0.949431 2:0.330711 
1 1:-0.919176 2:0.070608 
1 1:-0.801951 2:0.235343 
1 1:-0.992256 2:-0.96082 
1 1:-0.949431 2:0.330711 
1 1:-0.919176 2:0.070608 
1 1:-0.801951 2:0.235343 
1 1:-0.992256 2:-0.96082 
1 1:-0.949431 2:0.330711 
1 1:-0.919176 2:0.070608 
1 1:-0.801951 2:0.235343 
1 1:-0.992256 2:-0.96082 
1 1:-0.949431 2:0.330711 
1 1:-0.919176 2:0.070608 
1 1:-0.801951 2:0.235343 
1 1:-0.992256 2:-0.96082 
1 1:-0.949431 2:0.330711 
1 1:-0.919176 2:0.070608 
1 1:-0.801951 2:0.235343 
1 1:-0.992256 2:-0.96082 
1 1:-0.949431 2:0.330711 
1 1:-0.919176 2:0.070608 
1 1:-0.801951 2:0.235343 
1 1:-0.992256 2:-0.96082 
1 1:-0.949431 2:0.330711 
1 1:-0.919176 2:0.070608 
1 1:-0.801951 2:0.235343 
1 1:-0.992256 2:-0.96082 
1 1:-0.949431 2:0.330711 
1 1:-0.919176 2:0.070608 
1 1:-0.801951 2:0.235343 
1 1:-0.992256 2:-0.96082 
1 1:-0.949431 2:0.330711 
1 1:-0.919176 2:0.070608 
1 1:-0.801951 2:0.235343 
1 1:-0.992256 2:-0.96082 
1 1:-0.949431 2:0.330711 
1 1:-0.919176 2:0.070608 
1 1:-0.801951 2:0.235343 
1 1:-0.992256 2:-0.96082 
1 1:-0.949431 2:0.330711 
1 1:-0.919176 2:0.070608 
1 1:-0.801951 2:0.235343 
1 1:-0.992256 2:-0.96082 
1 1:-0.949431 2:0.330711 
1 1:-0.919176 2:0.070608 
1 1:-0.801951 2:0.235343 
1 1:-0.992256 2:-0.96082 
1 1:-0.949431 2:0.330711 
1 1:-0.919176 2:0.070608 
1 1:-0.801951 2:0.235343 
1 1:-0.992256 2:-0.96082 
1 1:-0.949431 2:0.330711 
1 1:-0.919176 2:0.070608 
1 1:-0.801951 2:0.235343 
1 1:-0.992256 2:-0.96082 
1 1:-0.949431 2:0.330711 
1 1:-0.919176 2:0.070608 
1 1:-0.801951 2:0.235343 
1 1:-0.992256 2:-0.96082 
1 1:-0.949431 2:0.330711 
1 1:-0.919176 2:0.070608 
1 1:-0.801951 2:0.235343 
1 1:-0.992256 2:-0.96082 
1 1:-0.949431 2:0.330711 
1 1:-0.919176 2:0.070608 
1 1:-0.801951 2:0.235343 
1 1:-0.992256 2:-0.96082 
1 1:-0.949431 2:0.330711 
1 1:-0.919176 2:0.070608 
1 1:-0.801951 2:0.235343 
1 1:-0.992256 2:-0.96082 
1 1:-0.949431 2:0.330711 
1 1:-0.919176 2:0.070608 
1 1:-0.801951 2:0.235343 
1 1:-0.992256 2:-0.96082 
1 1:-0.949431 2:0.330711 
1 1:-0.919176 2:0.070608 
1 1:-0.801951 2:0.235343 
1 1:-0.992256 2:-0.96082 
1 1:-0.949431 2:0.330711 
1 1:-0.919176 2:0.070608 
1 1:-0.801951 2:0.235343 
1 1:-0.992256 2:-0.96082 
1 1:-0.949431 2:0.330711 
1 1:-0.919176 2:0.070608 
1 1:-0.801951 2:0.235343 
1 1:-0.992256 2:-0.96082 
1 1:-0.949431 2:0.330711 
1 1:-0.919176 2:0.070608 
1 1:-0.801951 2:0.235343 
1 1:-0.992256 2:-0.96082 
1 1:-0.949431 2:0.330711 
1 1:-0.919176 2:0.070608 
1 1:-0.801951 2:0.235343 
1 1:-0.992256 2:-0.96082 
1 1:-0.949431 2:0.330711 
1 1:-0.919176 2:0.070608 
1 1:-0.801951 2:0.235343 
1 1:-0.992256 2:-0.96082 
1 1:-0.949431 2:0.330711 
1 1:-0.919176 2:0.070608 
1 1:-0.801951 2:0.235343 
1 1:-0.992256 2:-0.96082 
1 1:-0.949431 2:0.330711 
1 1:-0.919176 2:0.070608 
1 1:-0.801951 2:0.235343 
1 1:-0.992256 2:-0.96082 
1 1:-0.949431 2:0.330711 
1 1:-0.919176 2:0.070608 
1 1:-0.801951 2:0.235343 
1 1:-0.992256 2:-0.96082 
1 1:-0.949431 2:0.330711 
1 1:-0.919176 2:0.070608 
1 1:-0.801951 2:0.235343 
1 1:-0.992256 2:-0.96082 
1 1:-0.949431 2:0.330711 
1 1:-0.919176 2:0.070608 
1 1:-0.801951 2:0.235343 
1 1:-0.992256 2:-0.96082 
1 1:-0.949431 2:0.330711 
1 1:-0.919176 2:0.070608 
1 1:-0.801951 2:0.235343 
1 1:-0.992256 2:-0.96082 
1 1:-0.949431 2:0.330711 
1 1:-0.919176 2:0.070608 
1 1:-0.801951 2:0.235343 
1 1:-0.992256 2:-0.96082 
1 1:-0.949431 2:0.330711 
1 1:-0.919176 2:0.070608 
1 1:-0.801951 2:0.235343 
1 1:-0.992256 2:-0.96082 
1 1:-0.949431 2:0.330711 
1 1:-0.919176 2:0.070608 
1 1:-0.801951 2:0.235343 
1 1:-0.992256 2:-0.96082 
1 1:-0.949431 2:0.330711 
1 1:-0.919176 2:0.070608 
1 1:-0.801951 2:0.235343 
1 1:-0.992256 2:-0.96082 
1 1:-0.949431 2:0.330711 
1 1:-0.919176 2:0.070608 
1 1:-0.801951 2:0.235343 
1 1:-0.992256 2:-0.96082 
1 1:-0.949431 2:0.330711 
1 1:-0.919176 2:0.070608 
1 1:-0.801951 2:0.235343 
1 1:-0.992256 2:-0.96082 
1 1:-0.949431 2:0.330711 
1 1:-0.919176 2:0.070608 
1 1:-0.801951 2:0.235343 
1 1:-0.992256 2:-0.96082 
1 1:-0.949431 2:0.330711 
1 1:-0.919176 2:0.070608 
1 1:-0.801951 2:0.235343 
1 1:-0.992256 2:-0.96082 
1 1:-0.949431 2:0.330711 
1 1:-0.919176 2:0.070608 
1 1:-0.801951 2:0.235343 
1 1:-0.992256 2:-0.96082 
1 1:-0.949431 2:0.330711 
1 1:-0.919176 2:0.070608 
1 1:-0.801951 2:0.235343 
1 1:-0.992256 2:-0.96082 
1 1:-0.949431 2:0.330711 
1 1:-0.919176 2:0.070608 
1 1:-0.801951 2:0.235343 
1 1:-0.992256 2:-0.96082 
1 1:-0.949431 2:0.330711 
1 1:-0.919176 2:0.070608 
1 1:-0.801951 2:0.235343 
1 1:-0.992256 2:-0.96082 
1 1:-0.949431 2:0.330711 
1 1:-0.919176 2:0.070608 
1 1:-0.801951 2:0.235343 
1 1:-0.992256 2:-0.96082 
1 1:-0.949431 2:0.330711 
1 1:-0.919176 2:0.070608 
1 1:-0.801951 2:0.235343 
1 1:-0.992256 2:-0.96082 
1 1:-0.949431 2:0.330711 
1 1:-0.919176 2:0.070608 
1 1:-0.801951 2:0.235343 
1 1:-0.992256 2:-0.96082 
1 1:-0.949431 2:0.330711 
1 1:-0.919176 2:0.070608 
1 1:-0.801951 2:0.235343 
1 1:-0.992256 2:-0.96082 
1 1:-0.949431 2:0.330711 
1 1:-0.919176 2:0.070608 
1 1:-0.801951 2:0.235343 
1 1:-0.992256 2:-0.96082 
1 1:-0.949431 2:0.330711 
1 1:-0.919176 2:0.070608 
1 1:-0.801951 2:0.235343 
1 1:-0.992256 2:-0.96082 
1 1:-0.949431 2:0.330711 
1 1:-0.919176 2:0.070608 
1 1:-0.801951 2:0.235343 
1 1:-0.992256 2:-0.96082 
1 1:-0.949431 2:0.330711 
1 1:-0.919176 2:0.070608 
1 1:-0.801951 2:0.235343 
1 1:-0.992256 2:-0.96082 
1 1:-0.949431 2:0.330711 
1 1:-0.919176 2:0.070608 
1 1:-0.801951 2:0.235343 
1 1:-0.992256 2:-0.96082 
1 1:-0.949431 2:0.330711 
1 1:-0.919176 2:0.070608 
1 1:-0.801951 2:0.235343 
1 1:-0.992256 2:-0.96082 
1 1:-0.949431 2:0.330711 
1 1:-0.919176 2:0.070608 
1 1:-0.801951 2:0.235343 
1 1:-0.992256 2:-0.96082 
1 1:-0.949431 2:0.330711 
1 1:-0.919176 2:0.070608 
1 1:-0.801951 2:0.235343 
1 1:-0.992256 2:-0.96082 
1 1:-0.949431 2:0.330711 
1 1:-0.919176 2:0.070608 
1 1:-0.801951 2:0.235343 
1 1:-0.992256 2:-0.96082 
1 1:-0.949431 2:0.330711 
1 1:-0.919176 2:0.070608 
1 1:-0.801951 2:0.235343 
1 1:-0.992256 2:-0.96082 
1 1:-0.949431 2:0.330711 
1 1:-0.919176 2:0.070608 
1 1:-0.801951 2:0.235343 
1 1:-0.992256 2:-0.96082 
1 1:-0.949431 2:0.330711 
1 1:-0.919176 2:0.070608 
1 1:-0.801951 2:0.235343 
1 1:-0.992256 2:-0.96082 
1 1:-0.949431 2:0.330711 
1 1:-0.919176 2:0.070608 
1 1:-0.801951 2:0.235343 
1 1:-0.992256 2:-0.96082 
1 1:-0.949431 2:0.330711 
1 1:-0.919176 2:0.070608 
1 1:-0.801951 2:0.235343 
1 1:-0.992256 2:-0.96082 
1 1:-0.949431 2:0.330711 
1 1:-0.919176 2:0.070608 
1 1:-0.801951 2:0.235343 
1 1:-0.992256 2:-0.96082 
1 1:-0.949431 2:0.330711 
1 1:-0.919176 2:0.070608 
1 1:-0.801951 2:0.235343 
1 1:-0.992256 2:-0.96082 
1 1:-0.949431 2:0.330711 
1 1:-0.919176 2:0.070608 
1 1:-0.801951 2:0.235343 
1 1:-0.992256 2:-0.96082 
1 1:-0.949431 2:0.330711 
1 1:-0.919176 2:0.070608 
1 1:-0.801951 2:0.235343 
1 1:-0.992256 2:-0.96082 
1 1:-0.949431 2:0.330711 
1 1:-0.919176 2:0.070608 
1 1:-0.801951 2:0.235343 
1 1:-0.992256 2:-0.96082 
1 1:-0.949431 2:0.330711 
1 1:-0.919176 2:0.070608 
1 1:-0.801951 2:0.235343 
1 1:-0.992256 2:-0.96082 
1 1:-0.949431 2:0.330711 
1 1:-0.919176 2:0.070608 
1 1:-0.801951 2:0.235343 
1 1:-0.992256 2:-0.96082 
1 1:-0.949431 2:0.330711 
1 1:-0.919176 2:0.070608 
1 1:-0.801951 2:0.235343 
1 1:-0.992256 2:-0.96082 
1 1:-0.949431 2:0.330711 
1 1:-0.919176 2:0.070608 
1 1:-0.801951 2:0.235343 
1 1:-0.992256 2:-0.96082 
1 1:-0.949431 2:0.330711 
1 1:-0.919176 2:0.070608 
1 1:-0.801951 2:0.235343 
1 1:-0.992256 2:-0.96082 
1 1:-0.949431 2:0.330711 
1 1:-0.919176 2:0.070608 
1 1:-0.801951 2:0.235343 
1 1:-0.992256 2:-0.96082 
1 1:-0.949431 2:0.330711 
1 1:-0.919176 2:0.070608 
1 1:-0.806018 2:0.523164 
1 1:-0.991628 2:-0.962668 
1 1:-0.896167 2:0.100784 
1 1:-0.806018 2:0.523164 
1 1:-0.991628 2:-0.962668 
1 1:-0.896167 2:0.100784 
1 1:-0.806018 2:0.523164 
1 1:-0.991628 2:-0.962668 
1 1:-0.896167 2:0.100784 
1 1:-0.806018 2:0.523164 
1 1:-0.991628 2:-0.962668 
1 1:-0.896167 2:0.100784 
1 1:-0.806018 2:0.523164 
1 1:-0.991628 2:-0.962668 
1 1:-0.896167 2:0.100784 
1 1:-0.806018 2:0.523164 
1 1:-0.991628 2:-0.962668 
1 1:-0.896167 2:0.100784 
1 1:-0.806018 2:0.523164 
1 1:-0.991628 2:-0.962668 
1 1:-0.896167 2:0.100784 
1 1:-0.806018 2:0.523164 
1 1:-0.991628 2:-0.962668 
1 1:-0.896167 2:0.100784 
1 1:-0.806018 2:0.523164 
1 1:-0.991628 2:-0.962668 
1 1:-0.896167 2:0.100784 
1 1:-0.806018 2:0.523164 
1 1:-0.991628 2:-0.962668 
1 1:-0.896167 2:0.100784 
1 1:-0.806018 2:0.523164 
1 1:-0.991628 2:-0.962668 
1 1:-0.896167 2:0.100784 
1 1:-0.806018 2:0.523164 
1 1:-0.991628 2:-0.962668 
1 1:-0.896167 2:0.100784 
1 1:-0.806018 2:0.523164 
1 1:-0.991628 2:-0.962668 
1 1:-0.896167 2:0.100784 
1 1:-0.806018 2:0.523164 
1 1:-0.991628 2:-0.962668 
1 1:-0.896167 2:0.100784 
1 1:-0.806018 2:0.523164 
1 1:-0.991628 2:-0.962668 
1 1:-0.896167 2:0.100784 
1 1:-0.806018 2:0.523164 
1 1:-0.991628 2:-0.962668 
1 1:-0.896167 2:0.100784 
1 1:-0.806018 2:0.523164 
1 1:-0.991628 2:-0.962668 
1 1:-0.896167 2:0.100784 
1 1:-0.806018 2:0.523164 
1 1:-0.991628 2:-0.962668 
1 1:-0.896167 2:0.100784 
1 1:-0.806018 2:0.523164 
1 1:-0.991628 2:-0.962668 
1 1:-0.896167 2:0.100784 
1 1:-0.806018 2:0.523164 
1 1:-0.991628 2:-0.962668 
1 1:-0.896167 2:0.100784 
1 1:-0.806018 2:0.523164 
1 1:-0.991628 2:-0.962668 
1 1:-0.896167 2:0.100784 
1 1:-0.806018 2:0.523164 
1 1:-0.991628 2:-0.962668 
1 1:-0.896167 2:0.100784 
1 1:-0.806018 2:0.523164 
1 1:-0.991628 2:-0.962668 
1 1:-0.896167 2:0.100784 
1 1:-0.806018 2:0.523164 
1 1:-0.991628 2:-0.962668 
1 1:-0.896167 2:0.100784 
1 1:-0.806018 2:0.523164 
1 1:-0.991628 2:-0.962668 
1 1:-0.896167 2:0.100784 
1 1:-0.806018 2:0.523164 
1 1:-0.991628 2:-0.962668 
1 1:-0.896167 2:0.100784 
1 1:-0.806018 2:0.523164 
1 1:-0.991628 2:-0.962668 
1 1:-0.896167 2:0.100784 
1 1:-0.806018 2:0.523164 
1 1:-0.991628 2:-0.962668 
1 1:-0.896167 2:0.100784 
1 1:-0.806018 2:0.523164 
1 1:-0.991628 2:-0.962668 
1 1:-0.896167 2:0.100784 
1 1:-0.806018 2:0.523164 
1 1:-0.991628 2:-0.962668 
1 1:-0.896167 2:0.100784 
1 1:-0.806018 2:0.523164 
1 1:-0.991628 2:-0.962668 
1 1:-0.896167 2:0.100784 
1 1:-0.806018 2:0.523164 
1 1:-0.991628 2:-0.962668 
1 1:-0.896167 2:0.100784 
1 1:-0.806018 2:0.523164 
1 1:-0.991628 2:-0.962668 
1 1:-0.896167 2:0.100784 
1 1:-0.806018 2:0.523164 
1 1:-0.991628 2:-0.962668 
1 1:-0.896167 2:0.100784 
1 1:-0.806018 2:0.523164 
1 1:-0.991628 2:-0.962668 
1 1:-0.896167 2:0.100784 
1 1:-0.806018 2:0.523164 
1 1:-0.991628 2:-0.962668 
1 1:-0.896167 2:0.100784 
1 1:-0.806018 2:0.523164 
1 1:-0.991628 2:-0.962668 
1 1:-0.896167 2:0.100784 
1 1:-0.806018 2:0.523164 
1 1:-0.991628 2:-0.962668 
1 1:-0.896167 2:0.100784 
1 1:-0.806018 2:0.523164 
1 1:-0.991628 2:-0.962668 
1 1:-0.896167 2:0.100784 
1 1:-0.806018 2:0.523164 
1 1:-0.991628 2:-0.962668 
1 1:-0.896167 2:0.100784 
1 1:-0.806018 2:0.523164 
1 1:-0.991628 2:-0.962668 
1 1:-0.896167 2:0.100784 
1 1:-0.806018 2:0.523164 
1 1:-0.991628 2:-0.962668 
1 1:-0.896167 2:0.100784 
1 1:-0.806018 2:0.523164 
1 1:-0.991628 2:-0.962668 
1 1:-0.896167 2:0.100784 
1 1:-0.806018 2:0.523164 
1 1:-0.991628 2:-0.962668 
1 1:-0.896167 2:0.100784 
1 1:-0.806018 2:0.523164 
1 1:-0.991628 2:-0.962668 
1 1:-0.896167 2:0.100784 
1 1:-0.806018 2:0.523164 
1 1:-0.991628 2:-0.962668 
1 1:-0.896167 2:0.100784 
1 1:-0.806018 2:0.523164 
1 1:-0.991628 2:-0.962668 
1 1:-0.896167 2:0.100784 
1 1:-0.806018 2:0.523164 
1 1:-0.991628 2:-0.962668 
1 1:-0.896167 2:0.100784 
1 1:-0.806018 2:0.523164 
1 1:-0.991628 2:-0.962668 
1 1:-0.896167 2:0.100784 
1 1:-0.806018 2:0.523164 
1 1:-0.991628 2:-0.962668 
1 1:-0.896167 2:0.100784 
1 1:-0.806018 2:0.523164 
1 1:-0.991628 2:-0.962668 
1 1:-0.896167 2:0.100784 
1 1:-0.806018 2:0.523164 
1 1:-0.991628 2:-0.962668 
1 1:-0.896167 2:0.100784 
1 1:-0.806018 2:0.523164 
1 1:-0.991628 2:-0.962668 
1 1:-0.896167 2:0.100784 
1 1:-0.806018 2:0.523164 
1 1:-0.991628 2:-0.962668 
1 1:-0.896167 2:0.100784 
1 1:-0.806018 2:0.523164 
1 1:-0.991628 2:-0.962668 
1 1:-0.896167 2:0.100784 
1 1:-0.806018 2:0.523164 
1 1:-0.991628 2:-0.962668 
1 1:-0.896167 2:0.100784 
1 1:-0.806018 2:0.523164 
1 1:-0.991628 2:-0.962668 
1 1:-0.896167 2:0.100784 
1 1:-0.806018 2:0.523164 
1 1:-0.991628 2:-0.962668 
1 1:-0.896167 2:0.100784 
1 1:-0.806018 2:0.523164 
1 1:-0.991628 2:-0.962668 
1 1:-0.896167 2:0.100784 
1 1:-0.806018 2:0.523164 
1 1:-0.991628 2:-0.962668 
1 1:-0.896167 2:0.100784 
1 1:-0.806018 2:0.523164 
1 1:-0.991628 2:-0.962668 
1 1:-0.896167 2:0.100784 
1 1:-0.806018 2:0.523164 
1 1:-0.991628 2:-0.962668 
1 1:-0.896167 2:0.100784 
1 1:-0.806018 2:0.523164 
1 1:-0.991628 2:-0.962668 
1 1:-0.896167 2:0.100784 
1 1:-0.806018 2:0.523164 
1 1:-0.991628 2:-0.962668 
1 1:-0.896167 2:0.100784 
1 1:-0.806018 2:0.523164 
1 1:-0.991628 2:-0.962668 
1 1:-0.896167 2:0.100784 
1 1:-0.806018 2:0.523164 
1 1:-0.991628 2:-0.962668 
1 1:-0.896167 2:0.100784 
1 1:-0.806018 2:0.523164 
1 1:-0.991628 2:-0.962668 
1 1:-0.896167 2:0.100784 
1 1:-0.806018 2:0.523164 
1 1:-0.991628 2:-0.962668 
1 1:-0.896167 2:0.100784 
1 1:-0.806018 2:0.523164 
1 1:-0.991628 2:-0.962668 
1 1:-0.896167 2:0.100784 
1 1:-0.806018 2:0.523164 
1 1:-0.991628 2:-0.962668 
1 1:-0.896167 2:0.100784 
1 1:-0.806018 2:0.523164 
1 1:-0.991628 2:-0.962668 
1 1:-0.896167 2:0.100784 
1 1:-0.806018 2:0.523164 
1 1:-0.991628 2:-0.962668 
1 1:-0.896167 2:0.100784 
1 1:-0.806018 2:0.523164 
1 1:-0.991628 2:-0.962668 
1 1:-0.896167 2:0.100784 
1 1:-0.806018 2:0.523164 
1 1:-0.991628 2:-0.962668 
1 1:-0.896167 2:0.100784 
1 1:-0.806018 2:0.523164 
1 1:-0.991628 2:-0.962668 
1 1:-0.896167 2:0.100784 
1 1:-0.806018 2:0.523164 
1 1:-0.991628 2:-0.962668 
1 1:-0.896167 2:0.100784 
1 1:-0.806018 2:0.523164 
1 1:-0.991628 2:-0.962668 
1 1:-0.896167 2:0.100784 
1 1:-0.806018 2:0.523164 
1 1:-0.991628 2:-0.962668 
1 1:-0.896167 2:0.100784 
1 1:-0.806018 2:0.523164 
1 1:-0.991628 2:-0.962668 
1 1:-0.896167 2:0.100784 
1 1:-0.806018 2:0.523164 
1 1:-0.991628 2:-0.962668 
1 1:-0.896167 2:0.100784 
1 1:-0.806018 2:0.523164 
1 1:-0.991628 2:-0.962668 
1 1:-0.896167 2:0.100784 
1 1:-0.806018 2:0.523164 
1 1:-0.991628 2:-0.962668 
1 1:-0.896167 2:0.100784 
1 1:-0.806018 2:0.523164 
1 1:-0.991628 2:-0.962668 
1 1:-0.896167 2:0.100784 
1 1:-0.806018 2:0.523164 
1 1:-0.991628 2:-0.962668 
1 1:-0.896167 2:0.100784 
1 1:-0.806018 2:0.523164 
1 1:-0.991628 2:-0.962668 
1 1:-0.896167 2:0.100784 
1 1:-0.806018 2:0.523164 
1 1:-0.991628 2:-0.962668 
1 1:-0.896167 2:0.100784 
1 1:-0.806018 2:0.523164 
1 1:-0.991628 2:-0.962668 
1 1:-0.896167 2:0.100784 
1 1:-0.806018 2:0.523164 
1 1:-0.991628 2:-0.962668 
1 1:-0.896167 2:0.100784 
1 1:-0.806018 2:0.523164 
1 1:-0.991628 2:-0.962668 
1 1:-0.896167 2:0.100784 
1 1:-0.806018 2:0.523164 
1 1:-0.991628 2:-0.962668 
1 1:-0.896167 2:0.100784 
1 1:-0.806018 2:0.523164 
1 1:-0.991628 2:-0.962668 
1 1:-0.896167 2:0.100784 
1 1:-0.806018 2:0.523164 
1 1:-0.991628 2:-0.962668 
1 1:-0.896167 2:0.100784 
1 1:-0.806018 2:0.523164 
1 1:-0.991628 2:-0.962668 
1 1:-0.896167 2:0.100784 
1 1:-0.806018 2:0.523164 
1 1:-0.991628 2:-0.962668 
1 1:-0.896167 2:0.100784 
1 1:-0.806018 2:0.523164 
1 1:-0.991628 2:-0.962668 
1 1:-0.896167 2:0.100784 
1 1:-0.806018 2:0.523164 
1 1:-0.991628 2:-0.962668 
1 1:-0.896167 2:0.100784 
1 1:-0.887231 2:0.338864 
1 1:-0.864762 2:0.155225 
1 1:-0.887231 2:0.338864 
1 1:-0.864762 2:0.155225 
1 1:-0.887231 2:0.338864 
1 1:-0.864762 2:0.155225 
1 1:-0.887231 2:0.338864 
1 1:-0.864762 2:0.155225 
1 1:-0.887231 2:0.338864 
1 1:-0.864762 2:0.155225 
1 1:-0.887231 2:0.338864 
1 1:-0.864762 2:0.155225 
1 1:-0.887231 2:0.338864 
1 1:-0.864762 2:0.155225 
1 1:-0.887231 2:0.338864 
1 1:-0.864762 2:0.155225 
1 1:-0.887231 2:0.338864 
1 1:-0.864762 2:0.155225 
1 1:-0.887231 2:0.338864 
1 1:-0.864762 2:0.155225 
1 1:-0.887231 2:0.338864 
1 1:-0.864762 2:0.155225 
1 1:-0.887231 2:0.338864 
1 1:-0.864762 2:0.155225 
1 1:-0.887231 2:0.338864 
1 1:-0.864762 2:0.155225 
1 1:-0.887231 2:0.338864 
1 1:-0.864762 2:0.155225 
1 1:-0.887231 2:0.338864 
1 1:-0.864762 2:0.155225 
1 1:-0.887231 2:0.338864 
1 1:-0.864762 2:0.155225 
1 1:-0.887231 2:0.338864 
1 1:-0.864762 2:0.155225 
1 1:-0.887231 2:0.338864 
1 1:-0.864762 2:0.155225 
1 1:-0.887231 2:0.338864 
1 1:-0.864762 2:0.155225 
1 1:-0.887231 2:0.338864 
1 1:-0.864762 2:0.155225 
1 1:-0.887231 2:0.338864 
1 1:-0.864762 2:0.155225 
1 1:-0.887231 2:0.338864 
1 1:-0.864762 2:0.155225 
1 1:-0.887231 2:0.338864 
1 1:-0.864762 2:0.155225 
1 1:-0.887231 2:0.338864 
1 1:-0.864762 2:0.155225 
1 1:-0.887231 2:0.338864 
1 1:-0.864762 2:0.155225 
1 1:-0.887231 2:0.338864 
1 1:-0.864762 2:0.155225 
1 1:-0.887231 2:0.338864 
1 1:-0.864762 2:0.155225 
1 1:-0.887231 2:0.338864 
1 1:-0.864762 2:0.155225 
1 1:-0.887231 2:0.338864 
1 1:-0.864762 2:0.155225 
1 1:-0.887231 2:0.338864 
1 1:-0.864762 2:0.155225 
1 1:-0.991231 2:-0.973399 
1 1:-0.800773 2:0.315075 
1 1:-0.991231 2:-0.973399 
1 1:-0.800773 2:0.315075 
1 1:-0.991231 2:-0.973399 
1 1:-0.800773 2:0.315075 
1 1:-0.991231 2:-0.973399 
1 1:-0.800773 2:0.315075 
1 1:-0.991231 2:-0.973399 
1 1:-0.800773 2:0.315075 
1 1:-0.991231 2:-0.973399 
1 1:-0.800773 2:0.315075 
1 1:-0.991231 2:-0.973399 
1 1:-0.800773 2:0.315075 
1 1:-0.991231 2:-0.973399 
1 1:-0.800773 2:0.315075 
1 1:-0.991231 2:-0.973399 
1 1:-0.800773 2:0.315075 
1 1:-0.991231 2:-0.973399 
1 1:-0.800773 2:0.315075 
1 1:-0.991231 2:-0.973399 
1 1:-0.800773 2:0.315075 
1 1:-0.991231 2:-0.973399 
1 1:-0.800773 2:0.315075 
1 1:-0.991231 2:-0.973399 
1 1:-0.800773 2:0.315075 
1 1:-0.991231 2:-0.973399 
1 1:-0.800773 2:0.315075 
1 1:-0.991231 2:-0.973399 
1 1:-0.800773 2:0.315075 
1 1:-0.991231 2:-0.973399 
1 1:-0.800773 2:0.315075 
1 1:-0.991231 2:-0.973399 
1 1:-0.800773 2:0.315075 
1 1:-0.991231 2:-0.973399 
1 1:-0.800773 2:0.315075 
1 1:-0.991231 2:-0.973399 
1 1:-0.800773 2:0.315075 
1 1:-0.991231 2:-0.973399 
1 1:-0.800773 2:0.315075 
1 1:-0.991231 2:-0.973399 
1 1:-0.800773 2:0.315075 
1 1:-0.991231 2:-0.973399 
1 1:-0.800773 2:0.315075 
1 1:-0.991231 2:-0.973399 
1 1:-0.800773 2:0.315075 
1 1:-0.991231 2:-0.973399 
1 1:-0.800773 2:0.315075 
1 1:-0.991231 2:-0.973399 
1 1:-0.800773 2:0.315075 
1 1:-0.991231 2:-0.973399 
1 1:-0.800773 2:0.315075 
1 1:-0.991231 2:-0.973399 
1 1:-0.800773 2:0.315075 
1 1:-0.991231 2:-0.973399 
1 1:-0.800773 2:0.315075 
1 1:-0.991231 2:-0.973399 
1 1:-0.800773 2:0.315075 
1 1:-0.991231 2:-0.973399 
1 1:-0.800773 2:0.315075 
1 1:-0.991231 2:-0.973399 
1 1:-0.800773 2:0.315075 
1 1:-0.991231 2:-0.973399 
1 1:-0.800773 2:0.315075 
1 1:-0.991231 2:-0.973399 
1 1:-0.800773 2:0.315075 
1 1:-0.991231 2:-0.973399 
1 1:-0.800773 2:0.315075 
1 1:-0.991231 2:-0.973399 
1 1:-0.800773 2:0.315075 
1 1:-0.991231 2:-0.973399 
1 1:-0.800773 2:0.315075 
1 1:-0.991231 2:-0.973399 
1 1:-0.800773 2:0.315075 
1 1:-0.991231 2:-0.973399 
1 1:-0.800773 2:0.315075 
1 1:-0.991231 2:-0.973399 
1 1:-0.800773 2:0.315075 
1 1:-0.991231 2:-0.973399 
1 1:-0.800773 2:0.315075 
1 1:-0.991231 2:-0.973399 
1 1:-0.800773 2:0.315075 
1 1:-0.991231 2:-0.973399 
1 1:-0.800773 2:0.315075 
1 1:-0.991231 2:-0.973399 
1 1:-0.800773 2:0.315075 
1 1:-0.991231 2:-0.973399 
1 1:-0.800773 2:0.315075 
1 1:-0.991231 2:-0.973399 
1 1:-0.800773 2:0.315075 
1 1:-0.991231 2:-0.973399 
1 1:-0.800773 2:0.315075 
1 1:-0.991231 2:-0.973399 
1 1:-0.800773 2:0.315075 
1 1:-0.991231 2:-0.973399 
1 1:-0.800773 2:0.315075 
1 1:-0.991231 2:-0.973399 
1 1:-0.800773 2:0.315075 
1 1:-0.991231 2:-0.973399 
1 1:-0.800773 2:0.315075 
1 1:-0.991231 2:-0.973399 
1 1:-0.800773 2:0.315075 
1 1:-0.991231 2:-0.973399 
1 1:-0.800773 2:0.315075 
1 1:-0.991231 2:-0.973399 
1 1:-0.800773 2:0.315075 
1 1:-0.991231 2:-0.973399 
1 1:-0.800773 2:0.315075 
1 1:-0.991231 2:-0.973399 
1 1:-0.800773 2:0.315075 
1 1:-0.991231 2:-0.973399 
1 1:-0.800773 2:0.315075 
1 1:-0.991231 2:-0.973399 
1 1:-0.800773 2:0.315075 
1 1:-0.991231 2:-0.973399 
1 1:-0.800773 2:0.315075 
1 1:-0.991231 2:-0.973399 
1 1:-0.800773 2:0.315075 
1 1:-0.991231 2:-0.973399 
1 1:-0.800773 2:0.315075 
1 1:-0.991231 2:-0.973399 
1 1:-0.800773 2:0.315075 
1 1:-0.991231 2:-0.973399 
1 1:-0.800773 2:0.315075 
1 1:-0.991231 2:-0.973399 
1 1:-0.800773 2:0.315075 
1 1:-0.991231 2:-0.973399 
1 1:-0.800773 2:0.315075 
1 1:-0.991231 2:-0.973399 
1 1:-0.800773 2:0.315075 
1 1:-0.991231 2:-0.973399 
1 1:-0.800773 2:0.315075 
1 1:-0.991231 2:-0.973399 
1 1:-0.800773 2:0.315075 
1 1:-0.991231 2:-0.973399 
1 1:-0.800773 2:0.315075 
1 1:-0.991231 2:-0.973399 
1 1:-0.800773 2:0.315075 
1 1:-0.991231 2:-0.973399 
1 1:-0.800773 2:0.315075 
1 1:-0.991231 2:-0.973399 
1 1:-0.800773 2:0.315075 
1 1:-0.991231 2:-0.973399 
1 1:-0.800773 2:0.315075 
1 1:-0.991231 2:-0.973399 
1 1:-0.800773 2:0.315075 
1 1:-0.991231 2:-0.973399 
1 1:-0.800773 2:0.315075 
1 1:-0.991231 2:-0.973399 
1 1:-0.800773 2:0.315075 
1 1:-0.991231 2:-0.973399 
1 1:-0.800773 2:0.315075 
1 1:-0.697223 2:0.464317 
1 1:-0.754412 2:0.406807 
1 1:-0.697223 2:0.464317 
1 1:-0.754412 2:0.406807 
1 1:-0.697223 2:0.464317 
1 1:-0.754412 2:0.406807 
1 1:-0.697223 2:0.464317 
1 1:-0.754412 2:0.406807 
1 1:-0.697223 2:0.464317 
1 1:-0.754412 2:0.406807 
1 1:-0.697223 2:0.464317 
1 1:-0.754412 2:0.406807 
1 1:-0.697223 2:0.464317 
1 1:-0.754412 2:0.406807 
1 1:-0.697223 2:0.464317 
1 1:-0.754412 2:0.406807 
1 1:-0.697223 2:0.464317 
1 1:-0.754412 2:0.406807 
1 1:-0.697223 2:0.464317 
1 1:-0.754412 2:0.406807 
1 1:-0.697223 2:0.464317 
1 1:-0.754412 2:0.406807 
1 1:-0.697223 2:0.464317 
1 1:-0.754412 2:0.406807 
1 1:-0.697223 2:0.464317 
1 1:-0.754412 2:0.406807 
1 1:-0.697223 2:0.464317 
1 1:-0.754412 2:0.406807 
1 1:-0.697223 2:0.464317 
1 1:-0.754412 2:0.406807 
1 1:-0.697223 2:0.464317 
1 1:-0.754412 2:0.406807 
1 1:-0.697223 2:0.464317 
1 1:-0.754412 2:0.406807 
1 1:-0.697223 2:0.464317 
1 1:-0.754412 2:0.406807 
1 1:-0.697223 2:0.464317 
1 1:-0.754412 2:0.406807 
1 1:-0.697223 2:0.464317 
1 1:-0.754412 2:0.406807 
1 1:-0.697223 2:0.464317 
1 1:-0.754412 2:0.406807 
1 1:-0.697223 2:0.464317 
1 1:-0.754412 2:0.406807 
1 1:-0.697223 2:0.464317 
1 1:-0.754412 2:0.406807 
1 1:-0.697223 2:0.464317 
1 1:-0.754412 2:0.406807 
1 1:-0.697223 2:0.464317 
1 1:-0.754412 2:0.406807 
1 1:-0.697223 2:0.464317 
1 1:-0.754412 2:0.406807 
1 1:-0.697223 2:0.464317 
1 1:-0.754412 2:0.406807 
1 1:-0.697223 2:0.464317 
1 1:-0.754412 2:0.406807 
1 1:-0.697223 2:0.464317 
1 1:-0.754412 2:0.406807 
1 1:-0.697223 2:0.464317 
1 1:-0.754412 2:0.406807 
1 1:-0.697223 2:0.464317 
1 1:-0.754412 2:0.406807 
1 1:-0.697223 2:0.464317 
1 1:-0.754412 2:0.406807 
1 1:-0.697223 2:0.464317 
1 1:-0.754412 2:0.406807 
1 1:-0.697223 2:0.464317 
1 1:-0.754412 2:0.406807 
1 1:-0.697223 2:0.464317 
1 1:-0.754412 2:0.406807 
1 1:-0.697223 2:0.464317 
1 1:-0.754412 2:0.406807 
1 1:-0.697223 2:0.464317 
1 1:-0.754412 2:0.406807 
1 1:-0.697223 2:0.464317 
1 1:-0.754412 2:0.406807 
1 1:-0.697223 2:0.464317 
1 1:-0.754412 2:0.406807 
1 1:-0.697223 2:0.464317 
1 1:-0.754412 2:0.406807 
1 1:-0.697223 2:0.464317 
1 1:-0.754412 2:0.406807 
1 1:-0.697223 2:0.464317 
1 1:-0.754412 2:0.406807 
1 1:-0.697223 2:0.464317 
1 1:-0.754412 2:0.406807 
1 1:-0.697223 2:0.464317 
1 1:-0.754412 2:0.406807 
1 1:-0.697223 2:0.464317 
1 1:-0.754412 2:0.406807 
1 1:-0.697223 2:0.464317 
1 1:-0.754412 2:0.406807 
1 1:-0.697223 2:0.464317 
1 1:-0.754412 2:0.406807 
1 1:-0.697223 2:0.464317 
1 1:-0.754412 2:0.406807 
1 1:-0.697223 2:0.464317 
1 1:-0.754412 2:0.406807 
1 1:-0.697223 2:0.464317 
1 1:-0.754412 2:0.406807 
1 1:-0.697223 2:0.464317 
1 1:-0.754412 2:0.406807 
1 1:-0.697223 2:0.464317 
1 1:-0.754412 2:0.406807 
1 1:-0.697223 2:0.464317 
1 1:-0.754412 2:0.406807 
1 1:-0.697223 2:0.464317 
1 1:-0.754412 2:0.406807 
1 1:-0.697223 2:0.464317 
1 1:-0.754412 2:0.406807 
1 1:-0.697223 2:0.464317 
1 1:-0.754412 2:0.406807 
1 1:-0.697223 2:0.464317 
1 1:-0.754412 2:0.406807 
1 1:-0.697223 2:0.464317 
1 1:-0.754412 2:0.406807 
1 1:-0.697223 2:0.464317 
1 1:-0.754412 2:0.406807 
1 1:-0.697223 2:0.464317 
1 1:-0.754412 2:0.406807 
1 1:-0.697223 2:0.464317 
1 1:-0.754412 2:0.406807 
1 1:-0.697223 2:0.464317 
1 1:-0.754412 2:0.406807 
1 1:-0.697223 2:0.464317 
1 1:-0.754412 2:0.406807 
1 1:-0.697223 2:0.464317 
1 1:-0.754412 2:0.406807 
1 1:-0.697223 2:0.464317 
1 1:-0.754412 2:0.406807 
1 1:-0.697223 2:0.464317 
1 1:-0.754412 2:0.406807 
1 1:-0.697223 2:0.464317 
1 1:-0.754412 2:0.406807 
1 1:-0.697223 2:0.464317 
1 1:-0.754412 2:0.406807 
1 1:-0.697223 2:0.464317 
1 1:-0.754412 2:0.406807 
1 1:-0.697223 2:0.464317 
1 1:-0.754412 2:0.406807 
1 1:-0.697223 2:0.464317 
1 1:-0.754412 2:0.406807 
1 1:-0.697223 2:0.464317 
1 1:-0.754412 2:0.406807 
1 1:-0.697223 2:0.464317 
1 1:-0.754412 2:0.406807 
1 1:-0.697223 2:0.464317 
1 1:-0.754412 2:0.406807 
1 1:-0.697223 2:0.464317 
1 1:-0.754412 2:0.406807 
1 1:-0.697223 2:0.464317 
1 1:-0.754412 2:0.406807 
1 1:-0.697223 2:0.464317 
1 1:-0.754412 2:0.406807 
1 1:-0.697223 2:0.464317 
1 1:-0.754412 2:0.406807 
1 1:-0.697223 2:0.464317 
1 1:-0.754412 2:0.406807 
1 1:-0.697223 2:0.464317 
1 1:-0.754412 2:0.406807 
1 1:-0.697223 2:0.464317 
1 1:-0.754412 2:0.406807 
1 1:-0.697223 2:0.464317 
1 1:-0.754412 2:0.406807 
1 1:-0.697223 2:0.464317 
1 1:-0.754412 2:0.406807 
1 1:-0.697223 2:0.464317 
1 1:-0.754412 2:0.406807 
1 1:-0.697223 2:0.464317 
1 1:-0.754412 2:0.406807 
1 1:-0.697223 2:0.464317 
1 1:-0.754412 2:0.406807 
1 1:-0.697223 2:0.464317 
1 1:-0.754412 2:0.406807 
1 1:-0.697223 2:0.464317 
1 1:-0.754412 2:0.406807 
1 1:-0.697223 2:0.464317 
1 1:-0.754412 2:0.406807 
1 1:-0.697223 2:0.464317 
1 1:-0.754412 2:0.406807 
1 1:-0.697223 2:0.464317 
1 1:-0.754412 2:0.406807 
1 1:-0.697223 2:0.464317 
1 1:-0.754412 2:0.406807 
1 1:-0.697223 2:0.464317 
1 1:-0.754412 2:0.406807 
1 1:-0.697223 2:0.464317 
1 1:-0.754412 2:0.406807 
1 1:-0.697223 2:0.464317 
1 1:-0.754412 2:0.406807 
1 1:-0.697223 2:0.464317 
1 1:-0.754412 2:0.406807 
1 1:-0.697223 2:0.464317 
1 1:-0.754412 2:0.406807 
1 1:-0.587061 2:0.0661168 
1 1:-0.976409 2:-0.96517 
1 1:-0.587061 2:0.0661168 
1 1:-0.976409 2:-0.96517 
1 1:-0.587061 2:0.0661168 
1 1:-0.976409 2:-0.96517 
1 1:-0.587061 2:0.0661168 
1 1:-0.976409 2:-0.96517 
1 1:-0.587061 2:0.0661168 
1 1:-0.976409 2:-0.96517 
1 1:-0.587061 2:0.0661168 
1 1:-0.976409 2:-0.96517 
1 1:-0.587061 2:0.0661168 
1 1:-0.976409 2:-0.96517 
1 1:-0.587061 2:0.0661168 
1 1:-0.976409 2:-0.96517 
1 1:-0.587061 2:0.0661168 
1 1:-0.976409 2:-0.96517 
1 1:-0.587061 2:0.0661168 
1 1:-0.976409 2:-0.96517 
1 1:-0.587061 2:0.0661168 
1 1:-0.976409 2:-0.96517 
1 1:-0.587061 2:0.0661168 
1 1:-0.976409 2:-0.96517 
1 1:-0.587061 2:0.0661168 
1 1:-0.976409 2:-0.96517 
1 1:-0.587061 2:0.0661168 
1 1:-0.976409 2:-0.96517 
1 1:-0.587061 2:0.0661168 
1 1:-0.976409 2:-0.96517 
1 1:-0.587061 2:0.0661168 
1 1:-0.976409 2:-0.96517 
1 1:-0.587061 2:0.0661168 
1 1:-0.976409 2:-0.96517 
1 1:-0.587061 2:0.0661168 
1 1:-0.976409 2:-0.96517 
1 1:-0.587061 2:0.0661168 
1 1:-0.976409 2:-0.96517 
1 1:-0.587061 2:0.0661168 
1 1:-0.976409 2:-0.96517 
1 1:-0.587061 2:0.0661168 
1 1:-0.976409 2:-0.96517 
1 1:-0.587061 2:0.0661168 
1 1:-0.976409 2:-0.96517 
1 1:-0.587061 2:0.0661168 
1 1:-0.976409 2:-0.96517 
1 1:-0.587061 2:0.0661168 
1 1:-0.976409 2:-0.96517 
1 1:-0.587061 2:0.0661168 
1 1:-0.976409 2:-0.96517 
1 1:-0.587061 2:0.0661168 
1 1:-0.976409 2:-0.96517 
1 1:-0.587061 2:0.0661168 
1 1:-0.976409 2:-0.96517 
1 1:-0.587061 2:0.0661168 
1 1:-0.976409 2:-0.96517 
1 1:-0.587061 2:0.0661168 
1 1:-0.976409 2:-0.96517 
1 1:-0.587061 2:0.0661168 
1 1:-0.976409 2:-0.96517 
1 1:-0.587061 2:0.0661168 
1 1:-0.976409 2:-0.96517 
1 1:-0.587061 2:0.0661168 
1 1:-0.976409 2:-0.96517 
1 1:-0.587061 2:0.0661168 
1 1:-0.976409 2:-0.96517 
1 1:-0.587061 2:0.0661168 
1 1:-0.976409 2:-0.96517 
1 1:-0.587061 2:0.0661168 
1 1:-0.976409 2:-0.96517 
1 1:-0.587061 2:0.0661168 
1 1:-0.976409 2:-0.96517 
1 1:-0.587061 2:0.0661168 
1 1:-0.976409 2:-0.96517 
1 1:-0.587061 2:0.0661168 
1 1:-0.976409 2:-0.96517 
1 1:-0.587061 2:0.0661168 
1 1:-0.976409 2:-0.96517 
1 1:-0.587061 2:0.0661168 
1 1:-0.976409 2:-0.96517 
1 1:-0.587061 2:0.0661168 
1 1:-0.976409 2:-0.96517 
1 1:-0.587061 2:0.0661168 
1 1:-0.976409 2:-0.96517 
1 1:-0.587061 2:0.0661168 
1 1:-0.976409 2:-0.96517 
1 1:-0.587061 2:0.0661168 
1 1:-0.976409 2:-0.96517 
1 1:-0.587061 2:0.0661168 
1 1:-0.976409 2:-0.96517 
1 1:-0.587061 2:0.0661168 
1 1:-0.976409 2:-0.96517 
1 1:-0.587061 2:0.0661168 
1 1:-0.976409 2:-0.96517 
1 1:-0.587061 2:0.0661168 
1 1:-0.976409 2:-0.96517 
1 1:-0.587061 2:0.0661168 
1 1:-0.976409 2:-0.96517 
1 1:-0.587061 2:0.0661168 
1 1:-0.976409 2:-0.96517 
1 1:-0.587061 2:0.0661168 
1 1:-0.976409 2:-0.96517 
1 1:-0.587061 2:0.0661168 
1 1:-0.976409 2:-0.96517 
1 1:-0.587061 2:0.0661168 
1 1:-0.976409 2:-0.96517 
1 1:-0.587061 2:0.0661168 
1 1:-0.976409 2:-0.96517 
1 1:-0.587061 2:0.0661168 
1 1:-0.976409 2:-0.96517 
1 1:-0.587061 2:0.0661168 
1 1:-0.976409 2:-0.96517 
1 1:-0.587061 2:0.0661168 
1 1:-0.976409 2:-0.96517 
1 1:-0.587061 2:0.0661168 
1 1:-0.976409 2:-0.96517 
1 1:-0.587061 2:0.0661168 
1 1:-0.976409 2:-0.96517 
1 1:-0.587061 2:0.0661168 
1 1:-0.976409 2:-0.96517 
1 1:-0.587061 2:0.0661168 
1 1:-0.976409 2:-0.96517 
1 1:-0.587061 2:0.0661168 
1 1:-0.976409 2:-0.96517 
1 1:-0.587061 2:0.0661168 
1 1:-0.976409 2:-0.96517 
1 1:-0.587061 2:0.0661168 
1 1:-0.976409 2:-0.96517 
1 1:-0.587061 2:0.0661168 
1 1:-0.976409 2:-0.96517 
1 1:-0.587061 2:0.0661168 
1 1:-0.976409 2:-0.96517 
1 1:-0.587061 2:0.0661168 
1 1:-0.976409 2:-0.96517 
1 1:-0.587061 2:0.0661168 
1 1:-0.976409 2:-0.96517 
1 1:-0.587061 2:0.0661168 
1 1:-0.976409 2:-0.96517 
1 1:-0.587061 2:0.0661168 
1 1:-0.976409 2:-0.96517 
1 1:-0.587061 2:0.0661168 
1 1:-0.976409 2:-0.96517 
1 1:-0.587061 2:0.0661168 
1 1:-0.976409 2:-0.96517 
1 1:-0.587061 2:0.0661168 
1 1:-0.976409 2:-0.96517 
1 1:-0.587061 2:0.0661168 
1 1:-0.976409 2:-0.96517 
1 1:-0.587061 2:0.0661168 
1 1:-0.976409 2:-0.96517 
1 1:-0.587061 2:0.0661168 
1 1:-0.976409 2:-0.96517 
1 1:-0.587061 2:0.0661168 
1 1:-0.976409 2:-0.96517 
1 1:-0.587061 2:0.0661168 
1 1:-0.976409 2:-0.96517 
1 1:-0.587061 2:0.0661168 
1 1:-0.976409 2:-0.96517 
1 1:-0.587061 2:0.0661168 
1 1:-0.976409 2:-0.96517 
1 1:-0.587061 2:0.0661168 
1 1:-0.976409 2:-0.96517 
1 1:-0.587061 2:0.0661168 
1 1:-0.976409 2:-0.96517 
1 1:-0.587061 2:0.0661168 
1 1:-0.976409 2:-0.96517 
1 1:-0.587061 2:0.0661168 
1 1:-0.976409 2:-0.96517 
1 1:-0.587061 2:0.0661168 
1 1:-0.976409 2:-0.96517 
1 1:-0.587061 2:0.0661168 
1 1:-0.976409 2:-0.96517 
1 1:-0.587061 2:0.0661168 
1 1:-0.976409 2:-0.96517 
1 1:-0.587061 2:0.0661168 
1 1:-0.976409 2:-0.96517 
1 1:-0.587061 2:0.0661168 
1 1:-0.976409 2:-0.96517 
1 1:-0.587061 2:0.0661168 
1 1:-0.976409 2:-0.96517 
1 1:-0.587061 2:0.0661168 
1 1:-0.976409 2:-0.96517 
1 1:-0.587061 2:0.0661168 
1 1:-0.976409 2:-0.96517 
1 1:-0.587061 2:0.0661168 
1 1:-0.976409 2:-0.96517 
1 1:-0.587061 2:0.0661168 
1 1:-0.976409 2:-0.96517 
1 1:-0.587061 2:0.0661168 
1 1:-0.976409 2:-0.96517 
1 1:-0.587061 2:0.0661168 
1 1:-0.976409 2:-0.96517 
1 1:-0.821103 2:0.21943 
1 1:-0.821103 2:0.21943 
1 1:-0.821103 2:0.21943 
1 1:-0.821103 2:0.21943 
1 1:-0.821103 2:0.21943 
1 1:-0.821103 2:0.21943 
1 1:-0.821103 2:0.21943 
1 1:-0.821103 2:0.21943 
1 1:-0.821103 2:0.21943 
1 1:-0.821103 2:0.21943 
1 1:-0.821103 2:0.21943 
1 1:-0.821103 2:0.21943 
1 1:-0.821103 2:0.21943 
1 1:-0.821103 2:0.21943 
1 1:-0.821103 2:0.21943 
1 1:-0.821103 2:0.21943 
1 1:-0.821103 2:0.21943 
1 1:-0.821103 2:0.21943 
1 1:-0.821103 2:0.21943 
1 1:-0.821103 2:0.21943 
1 1:-0.821103 2:0.21943 
1 1:-0.821103 2:0.21943 
1 1:-0.821103 2:0.21943 
1 1:-0.821103 2:0.21943 
1 1:-0.821103 2:0.21943 
1 1:-0.821103 2:0.21943 
1 1:-0.821103 2:0.21943 
1 1:-0.821103 2:0.21943 
1 1:-0.821103 2:0.21943 
1 1:-0.821103 2:0.21943 
1 1:-0.821103 2:0.21943 
1 1:-0.821103 2:0.21943 
1 1:-0.821103 2:0.21943 
1 1:-0.821103 2:0.21943 
1 1:-0.821103 2:0.21943 
1 1:-0.821103 2:0.21943 
1 1:-0.821103 2:0.21943 
1 1:-0.821103 2:0.21943 
1 1:-0.821103 2:0.21943 
1 1:-0.821103 2:0.21943 
1 1:-0.821103 2:0.21943 
1 1:-0.821103 2:0.21943 
1 1:-0.821103 2:0.21943 
1 1:-0.821103 2:0.21943 
1 1:-0.821103 2:0.21943 
1 1:-0.821103 2:0.21943 
1 1:-0.821103 2:0.21943 
1 1:-0.821103 2:0.21943 
1 1:-0.821103 2:0.21943 
1 1:-0.821103 2:0.21943 
1 1:-0.821103 2:0.21943 
1 1:-0.821103 2:0.21943 
1 1:-0.821103 2:0.21943 
1 1:-0.821103 2:0.21943 
1 1:-0.821103 2:0.21943 
1 1:-0.821103 2:0.21943 
1 1:-0.821103 2:0.21943 
1 1:-0.821103 2:0.21943 
1 1:-0.821103 2:0.21943 
1 1:-0.821103 2:0.21943 
1 1:-0.821103 2:0.21943 
1 1:-0.821103 2:0.21943 
1 1:-0.821103 2:0.21943 
1 1:-0.821103 2:0.21943 
1 1:-0.821103 2:0.21943 
1 1:-0.821103 2:0.21943 
1 1:-0.821103 2:0.21943 
1 1:-0.821103 2:0.21943 
1 1:-0.821103 2:0.21943 
1 1:-0.821103 2:0.21943 
1 1:-0.821103 2:0.21943 
1 1:-0.821103 2:0.21943 
1 1:-0.821103 2:0.21943 
1 1:-0.821103 2:0.21943 
1 1:-0.821103 2:0.21943 
1 1:-0.821103 2:0.21943 
1 1:-0.821103 2:0.21943 
1 1:-0.821103 2:0.21943 
1 1:-0.821103 2:0.21943 
1 1:-0.821103 2:0.21943 
1 1:-0.821103 2:0.21943 
1 1:-0.821103 2:0.21943 
1 1:-0.821103 2:0.21943 
1 1:-0.821103 2:0.21943 
1 1:-0.821103 2:0.21943 
1 1:-0.821103 2:0.21943 
1 1:-0.821103 2:0.21943 
1 1:-0.821103 2:0.21943 
1 1:-0.821103 2:0.21943 
1 1:-0.821103 2:0.21943 
1 1:-0.821103 2:0.21943 
1 1:-0.821103 2:0.21943 
1 1:-0.821103 2:0.21943 
1 1:-0.821103 2:0.21943 
1 1:-0.821103 2:0.21943 
1 1:-0.821103 2:0.21943 
1 1:-0.755518 2:0.209462 
1 1:-0.799763 2:0.805031 
1 1:-0.755518 2:0.209462 
1 1:-0.799763 2:0.805031 
1 1:-0.755518 2:0.209462 
1 1:-0.799763 2:0.805031 
1 1:-0.755518 2:0.209462 
1 1:-0.799763 2:0.805031 
1 1:-0.755518 2:0.209462 
1 1:-0.799763 2:0.805031 
1 1:-0.755518 2:0.209462 
1 1:-0.799763 2:0.805031 
1 1:-0.755518 2:0.209462 
1 1:-0.799763 2:0.805031 
1 1:-0.755518 2:0.209462 
1 1:-0.799763 2:0.805031 
1 1:-0.755518 2:0.209462 
1 1:-0.799763 2:0.805031 
1 1:-0.755518 2:0.209462 
1 1:-0.799763 2:0.805031 
1 1:-0.755518 2:0.209462 
1 1:-0.799763 2:0.805031 
1 1:-0.755518 2:0.209462 
1 1:-0.799763 2:0.805031 
1 1:-0.755518 2:0.209462 
1 1:-0.799763 2:0.805031 
1 1:-0.755518 2:0.209462 
1 1:-0.799763 2:0.805031 
1 1:-0.755518 2:0.209462 
1 1:-0.799763 2:0.805031 
1 1:-0.755518 2:0.209462 
1 1:-0.799763 2:0.805031 
1 1:-0.755518 2:0.209462 
1 1:-0.799763 2:0.805031 
1 1:-0.755518 2:0.209462 
1 1:-0.799763 2:0.805031 
1 1:-0.755518 2:0.209462 
1 1:-0.799763 2:0.805031 
1 1:-0.755518 2:0.209462 
1 1:-0.799763 2:0.805031 
1 1:-0.755518 2:0.209462 
1 1:-0.799763 2:0.805031 
1 1:-0.755518 2:0.209462 
1 1:-0.799763 2:0.805031 
1 1:-0.755518 2:0.209462 
1 1:-0.799763 2:0.805031 
1 1:-0.755518 2:0.209462 
1 1:-0.799763 2:0.805031 
1 1:-0.755518 2:0.209462 
1 1:-0.799763 2:0.805031 
1 1:-0.755518 2:0.209462 
1 1:-0.799763 2:0.805031 
1 1:-0.755518 2:0.209462 
1 1:-0.799763 2:0.805031 
1 1:-0.755518 2:0.209462 
1 1:-0.799763 2:0.805031 
1 1:-0.755518 2:0.209462 
1 1:-0.799763 2:0.805031 
1 1:-0.755518 2:0.209462 
1 1:-0.799763 2:0.805031 
1 1:-0.755518 2:0.209462 
1 1:-0.799763 2:0.805031 
1 1:-0.755518 2:0.209462 
1 1:-0.799763 2:0.805031 
1 1:-0.755518 2:0.209462 
1 1:-0.799763 2:0.805031 
1 1:-0.755518 2:0.209462 
1 1:-0.799763 2:0.805031 
1 1:-0.755518 2:0.209462 
1 1:-0.799763 2:0.805031 
1 1:-0.755518 2:0.209462 
1 1:-0.799763 2:0.805031 
1 1:-0.755518 2:0.209462 
1 1:-0.799763 2:0.805031 
1 1:-0.755518 2:0.209462 
1 1:-0.799763 2:0.805031 
1 1:-0.755518 2:0.209462 
1 1:-0.799763 2:0.805031 
1 1:-0.755518 2:0.209462 
1 1:-0.799763 2:0.805031 
1 1:-0.755518 2:0.209462 
1 1:-0.799763 2:0.805031 
1 1:-0.755518 2:0.209462 
1 1:-0.799763 2:0.805031 
1 1:-0.755518 2:0.209462 
1 1:-0.799763 2:0.805031 
1 1:-0.755518 2:0.209462 
1 1:-0.799763 2:0.805031 
1 1:-0.755518 2:0.209462 
1 1:-0.799763 2:0.805031 
1 1:-0.755518 2:0.209462 
1 1:-0.799763 2:0.805031 
1 1:-0.755518 2:0.209462 
1 1:-0.799763 2:0.805031 
1 1:-0.755518 2:0.209462 
1 1:-0.799763 2:0.805031 
1 1:-0.755518 2:0.209462 
1 1:-0.799763 2:0.805031 
1 1:-0.755518 2:0.209462 
1 1:-0.799763 2:0.805031 
1 1:-0.755518 2:0.209462 
1 1:-0.799763 2:0.805031 
1 1:-0.755518 2:0.209462 
1 1:-0.799763 2:0.805031 
1 1:-0.755518 2:0.209462 
1 1:-0.799763 2:0.805031 
1 1:-0.755518 2:0.209462 
1 1:-0.799763 2:0.805031 
1 1:-0.755518 2:0.209462 
1 1:-0.799763 2:0.805031 
1 1:-0.755518 2:0.209462 
1 1:-0.799763 2:0.805031 
1 1:-0.755518 2:0.209462 
1 1:-0.799763 2:0.805031 
1 1:-0.755518 2:0.209462 
1 1:-0.799763 2:0.805031 
1 1:-0.755518 2:0.209462 
1 1:-0.799763 2:0.805031 
1 1:-0.755518 2:0.209462 
1 1:-0.799763 2:0.805031 
1 1:-0.755518 2:0.209462 
1 1:-0.799763 2:0.805031 
1 1:-0.755518 2:0.209462 
1 1:-0.799763 2:0.805031 
1 1:-0.755518 2:0.209462 
1 1:-0.799763 2:0.805031 
1 1:-0.755518 2:0.209462 
1 1:-0.799763 2:0.805031 
1 1:-0.755518 2:0.209462 
1 1:-0.799763 2:0.805031 
1 1:-0.755518 2:0.209462 
1 1:-0.799763 2:0.805031 
1 1:-0.755518 2:0.209462 
1 1:-0.799763 2:0.805031 
1 1:-0.755518 2:0.209462 
1 1:-0.799763 2:0.805031 
1 1:-0.755518 2:0.209462 
1 1:-0.799763 2:0.805031 
1 1:-0.755518 2:0.209462 
1 1:-0.799763 2:0.805031 
1 1:-0.755518 2:0.209462 
1 1:-0.799763 2:0.805031 
1 1:-0.755518 2:0.209462 
1 1:-0.799763 2:0.805031 
1 1:-0.755518 2:0.209462 
1 1:-0.799763 2:0.805031 
1 1:-0.755518 2:0.209462 
1 1:-0.799763 2:0.805031 
1 1:-0.755518 2:0.209462 
1 1:-0.799763 2:0.805031 
1 1:-0.755518 2:0.209462 
1 1:-0.799763 2:0.805031 
1 1:-0.755518 2:0.209462 
1 1:-0.799763 2:0.805031 
1 1:-0.755518 2:0.209462 
1 1:-0.799763 2:0.805031 
1 1:-0.755518 2:0.209462 
1 1:-0.799763 2:0.805031 
1 1:-0.755518 2:0.209462 
1 1:-0.799763 2:0.805031 
1 1:-0.755518 2:0.209462 
1 1:-0.799763 2:0.805031 
1 1:-0.755518 2:0.209462 
1 1:-0.799763 2:0.805031 
1 1:-0.755518 2:0.209462 
1 1:-0.799763 2:0.805031 
1 1:-0.755518 2:0.209462 
1 1:-0.799763 2:0.805031 
1 1:-0.755518 2:0.209462 
1 1:-0.799763 2:0.805031 
1 1:-0.755518 2:0.209462 
1 1:-0.799763 2:0.805031 
1 1:-0.755518 2:0.209462 
1 1:-0.799763 2:0.805031 
1 1:-0.755518 2:0.209462 
1 1:-0.799763 2:0.805031 
1 1:-0.755518 2:0.209462 
1 1:-0.799763 2:0.805031 
1 1:-0.755518 2:0.209462 
1 1:-0.799763 2:0.805031 
1 1:-0.755518 2:0.209462 
1 1:-0.799763 2:0.805031 
1 1:-0.755518 2:0.209462 
1 1:-0.799763 2:0.805031 
1 1:-0.755518 2:0.209462 
1 1:-0.799763 2:0.805031 
1 1:-0.755518 2:0.209462 
1 1:-0.799763 2:0.805031 
1 1:-0.755518 2:0.209462 
1 1:-0.799763 2:0.805031 
1 1:-0.755518 2:0.209462 
1 1:-0.799763 2:0.805031 
1 1:-0.664581 2:0.305894 
1 1:-0.645962 2:0.297822 
1 1:-0.664581 2:0.305894 
1 1:-0.645962 2:0.297822 
1 1:-0.664581 2:0.305894 
1 1:-0.645962 2:0.297822 
1 1:-0.664581 2:0.305894 
1 1:-0.645962 2:0.297822 
1 1:-0.664581 2:0.305894 
1 1:-0.645962 2:0.297822 
1 1:-0.664581 2:0.305894 
1 1:-0.645962 2:0.297822 
1 1:-0.664581 2:0.305894 
1 1:-0.645962 2:0.297822 
1 1:-0.664581 2:0.305894 
1 1:-0.645962 2:0.297822 
1 1:-0.664581 2:0.305894 
1 1:-0.645962 2:0.297822 
1 1:-0.664581 2:0.305894 
1 1:-0.645962 2:0.297822 
1 1:-0.664581 2:0.305894 
1 1:-0.645962 2:0.297822 
1 1:-0.664581 2:0.305894 
1 1:-0.645962 2:0.297822 
1 1:-0.664581 2:0.305894 
1 1:-0.645962 2:0.297822 
1 1:-0.664581 2:0.305894 
1 1:-0.645962 2:0.297822 
1 1:-0.664581 2:0.305894 
1 1:-0.645962 2:0.297822 
1 1:-0.664581 2:0.305894 
1 1:-0.645962 2:0.297822 
1 1:-0.664581 2:0.305894 
1 1:-0.645962 2:0.297822 
1 1:-0.664581 2:0.305894 
1 1:-0.645962 2:0.297822 
1 1:-0.664581 2:0.305894 
1 1:-0.645962 2:0.297822 
1 1:-0.664581 2:0.305894 
1 1:-0.645962 2:0.297822 
1 1:-0.664581 2:0.305894 
1 1:-0.645962 2:0.297822 
1 1:-0.664581 2:0.305894 
1 1:-0.645962 2:0.297822 
1 1:-0.664581 2:0.305894 
1 1:-0.645962 2:0.297822 
1 1:-0.664581 2:0.305894 
1 1:-0.645962 2:0.297822 
1 1:-0.664581 2:0.305894 
1 1:-0.645962 2:0.297822 
1 1:-0.664581 2:0.305894 
1 1:-0.645962 2:0.297822 
1 1:-0.664581 2:0.305894 
1 1:-0.645962 2:0.297822 
1 1:-0.664581 2:0.305894 
1 1:-0.645962 2:0.297822 
1 1:-0.664581 2:0.305894 
1 1:-0.645962 2:0.297822 
1 1:-0.664581 2:0.305894 
1 1:-0.645962 2:0.297822 
1 1:-0.664581 2:0.305894 
1 1:-0.645962 2:0.297822 
1 1:-0.664581 2:0.305894 
1 1:-0.645962 2:0.297822 
1 1:-0.664581 2:0.305894 
1 1:-0.645962 2:0.297822 
1 1:-0.664581 2:0.305894 
1 1:-0.645962 2:0.297822 
1 1:-0.664581 2:0.305894 
1 1:-0.645962 2:0.297822 
1 1:-0.664581 2:0.305894 
1 1:-0.645962 2:0.297822 
1 1:-0.664581 2:0.305894 
1 1:-0.645962 2:0.297822 
1 1:-0.664581 2:0.305894 
1 1:-0.645962 2:0.297822 
1 1:-0.664581 2:0.305894 
1 1:-0.645962 2:0.297822 
1 1:-0.664581 2:0.305894 
1 1:-0.645962 2:0.297822 
1 1:-0.664581 2:0.305894 
1 1:-0.645962 2:0.297822 
1 1:-0.664581 2:0.305894 
1 1:-0.645962 2:0.297822 
1 1:-0.664581 2:0.305894 
1 1:-0.645962 2:0.297822 
1 1:-0.664581 2:0.305894 
1 1:-0.645962 2:0.297822 
1 1:-0.664581 2:0.305894 
1 1:-0.645962 2:0.297822 
1 1:-0.664581 2:0.305894 
1 1:-0.645962 2:0.297822 
1 1:-0.664581 2:0.305894 
1 1:-0.645962 2:0.297822 
1 1:-0.664581 2:0.305894 
1 1:-0.645962 2:0.297822 
1 1:-0.664581 2:0.305894 
1 1:-0.645962 2:0.297822 
1 1:-0.664581 2:0.305894 
1 1:-0.645962 2:0.297822 
1 1:-0.664581 2:0.305894 
1 1:-0.645962 2:0.297822 
1 1:-0.664581 2:0.305894 
1 1:-0.645962 2:0.297822 
1 1:-0.664581 2:0.305894 
1 1:-0.645962 2:0.297822 
1 1:-0.664581 2:0.305894 
1 1:-0.645962 2:0.297822 
1 1:-0.664581 2:0.305894 
1 1:-0.645962 2:0.297822 
1 1:-0.664581 2:0.305894 
1 1:-0.645962 2:0.297822 
1 1:-0.664581 2:0.305894 
1 1:-0.645962 2:0.297822 
1 1:-0.664581 2:0.305894 
1 1:-0.645962 2:0.297822 
1 1:-0.664581 2:0.305894 
1 1:-0.645962 2:0.297822 
1 1:-0.664581 2:0.305894 
1 1:-0.645962 2:0.297822 
1 1:-0.664581 2:0.305894 
1 1:-0.645962 2:0.297822 
1 1:-0.664581 2:0.305894 
1 1:-0.645962 2:0.297822 
1 1:-0.664581 2:0.305894 
1 1:-0.645962 2:0.297822 
1 1:-0.664581 2:0.305894 
1 1:-0.645962 2:0.297822 
1 1:-0.664581 2:0.305894 
1 1:-0.645962 2:0.297822 
1 1:-0.664581 2:0.305894 
1 1:-0.645962 2:0.297822 
1 1:-0.664581 2:0.305894 
1 1:-0.645962 2:0.297822 
1 1:-0.664581 2:0.305894 
1 1:-0.645962 2:0.297822 
1 1:-0.664581 2:0.305894 
1 1:-0.645962 2:0.297822 
1 1:-0.664581 2:0.305894 
1 1:-0.645962 2:0.297822 
1 1:-0.664581 2:0.305894 
1 1:-0.645962 2:0.297822 
1 1:-0.664581 2:0.305894 
1 1:-0.645962 2:0.297822 
1 1:-0.664581 2:0.305894 
1 1:-0.645962 2:0.297822 
1 1:-0.664581 2:0.305894 
1 1:-0.645962 2:0.297822 
1 1:-0.664581 2:0.305894 
1 1:-0.645962 2:0.297822 
1 1:-0.664581 2:0.305894 
1 1:-0.645962 2:0.297822 
1 1:-0.664581 2:0.305894 
1 1:-0.645962 2:0.297822 
1 1:-0.664581 2:0.305894 
1 1:-0.645962 2:0.297822 
1 1:-0.664581 2:0.305894 
1 1:-0.645962 2:0.297822 
1 1:-0.664581 2:0.305894 
1 1:-0.645962 2:0.297822 
1 1:-0.664581 2:0.305894 
1 1:-0.645962 2:0.297822 
1 1:-0.664581 2:0.305894 
1 1:-0.645962 2:0.297822 
1 1:-0.664581 2:0.305894 
1 1:-0.645962 2:0.297822 
1 1:-0.664581 2:0.305894 
1 1:-0.645962 2:0.297822 
1 1:-0.664581 2:0.305894 
1 1:-0.645962 2:0.297822 
1 1:-0.664581 2:0.305894 
1 1:-0.645962 2:0.297822 
1 1:-0.664581 2:0.305894 
1 1:-0.645962 2:0.297822 
1 1:-0.664581 2:0.305894 
1 1:-0.645962 2:0.297822 
1 1:-0.664581 2:0.305894 
1 1:-0.645962 2:0.297822 
1 1:-0.664581 2:0.305894 
1 1:-0.645962 2:0.297822 
1 1:-0.664581 2:0.305894 
1 1:-0.645962 2:0.297822 
1 1:-0.664581 2:0.305894 
1 1:-0.645962 2:0.297822 
1 1:-0.664581 2:0.305894 
1 1:-0.645962 2:0.297822 
1 1:-0.664581 2:0.305894 
1 1:-0.645962 2:0.297822 
1 1:-0.664581 2:0.305894 
1 1:-0.645962 2:0.297822 
1 1:-0.664581 2:0.305894 
1 1:-0.645962 2:0.297822 
1 1:-0.416183 2:0.361518 
1 1:-0.673777 2:0.218251 
1 1:-0.416183 2:0.361518 
1 1:-0.673777 2:0.218251 
1 1:-0.416183 2:0.361518 
1 1:-0.673777 2:0.218251 
1 1:-0.416183 2:0.361518 
1 1:-0.673777 2:0.218251 
1 1:-0.416183 2:0.361518 
1 1:-0.673777 2:0.218251 
1 1:-0.416183 2:0.361518 
1 1:-0.673777 2:0.218251 
1 1:-0.416183 2:0.361518 
1 1:-0.673777 2:0.218251 
1 1:-0.416183 2:0.361518 
1 1:-0.673777 2:0.218251 
1 1:-0.416183 2:0.361518 
1 1:-0.673777 2:0.218251 
1 1:-0.416183 2:0.361518 
1 1:-0.673777 2:0.218251 
1 1:-0.416183 2:0.361518 
1 1:-0.673777 2:0.218251 
1 1:-0.416183 2:0.361518 
1 1:-0.673777 2:0.218251 
1 1:-0.416183 2:0.361518 
1 1:-0.673777 2:0.218251 
1 1:-0.416183 2:0.361518 
1 1:-0.673777 2:0.218251 
1 1:-0.416183 2:0.361518 
1 1:-0.673777 2:0.218251 
1 1:-0.416183 2:0.361518 
1 1:-0.673777 2:0.218251 
1 1:-0.416183 2:0.361518 
1 1:-0.673777 2:0.218251 
1 1:-0.416183 2:0.361518 
1 1:-0.673777 2:0.218251 
1 1:-0.416183 2:0.361518 
1 1:-0.673777 2:0.218251 
1 1:-0.416183 2:0.361518 
1 1:-0.673777 2:0.218251 
1 1:-0.416183 2:0.361518 
1 1:-0.673777 2:0.218251 
1 1:-0.416183 2:0.361518 
1 1:-0.673777 2:0.218251 
1 1:-0.416183 2:0.361518 
1 1:-0.673777 2:0.218251 
1 1:-0.416183 2:0.361518 
1 1:-0.673777 2:0.218251 
1 1:-0.416183 2:0.361518 
1 1:-0.673777 2:0.218251 
1 1:-0.416183 2:0.361518 
1 1:-0.673777 2:0.218251 
1 1:-0.416183 2:0.361518 
1 1:-0.673777 2:0.218251 
1 1:-0.416183 2:0.361518 
1 1:-0.673777 2:0.218251 
1 1:-0.416183 2:0.361518 
1 1:-0.673777 2:0.218251 
1 1:-0.416183 2:0.361518 
1 1:-0.673777 2:0.218251 
1 1:-0.416183 2:0.361518 
1 1:-0.673777 2:0.218251 
1 1:-0.416183 2:0.361518 
1 1:-0.673777 2:0.218251 
1 1:-0.416183 2:0.361518 
1 1:-0.673777 2:0.218251 
1 1:-0.416183 2:0.361518 
1 1:-0.673777 2:0.218251 
1 1:-0.416183 2:0.361518 
1 1:-0.673777 2:0.218251 
1 1:-0.416183 2:0.361518 
1 1:-0.673777 2:0.218251 
1 1:-0.416183 2:0.361518 
1 1:-0.673777 2:0.218251 
1 1:-0.416183 2:0.361518 
1 1:-0.673777 2:0.218251 
1 1:-0.416183 2:0.361518 
1 1:-0.673777 2:0.218251 
1 1:-0.416183 2:0.361518 
1 1:-0.673777 2:0.218251 
1 1:-0.416183 2:0.361518 
1 1:-0.673777 2:0.218251 
1 1:-0.416183 2:0.361518 
1 1:-0.673777 2:0.218251 
1 1:-0.416183 2:0.361518 
1 1:-0.673777 2:0.218251 
1 1:-0.416183 2:0.361518 
1 1:-0.673777 2:0.218251 
1 1:-0.416183 2:0.361518 
1 1:-0.673777 2:0.218251 
1 1:-0.416183 2:0.361518 
1 1:-0.673777 2:0.218251 
1 1:-0.416183 2:0.361518 
1 1:-0.673777 2:0.218251 
1 1:-0.416183 2:0.361518 
1 1:-0.673777 2:0.218251 
1 1:-0.416183 2:0.361518 
1 1:-0.673777 2:0.218251 
1 1:-0.416183 2:0.361518 
1 1:-0.673777 2:0.218251 
1 1:-0.416183 2:0.361518 
1 1:-0.673777 2:0.218251 
1 1:-0.416183 2:0.361518 
1 1:-0.673777 2:0.218251 
1 1:-0.416183 2:0.361518 
1 1:-0.673777 2:0.218251 
1 1:-0.416183 2:0.361518 
1 1:-0.673777 2:0.218251 
1 1:-0.416183 2:0.361518 
1 1:-0.673777 2:0.218251 
1 1:-0.416183 2:0.361518 
1 1:-0.673777 2:0.218251 
1 1:-0.416183 2:0.361518 
1 1:-0.673777 2:0.218251 
1 1:-0.416183 2:0.361518 
1 1:-0.673777 2:0.218251 
1 1:-0.416183 2:0.361518 
1 1:-0.673777 2:0.218251 
1 1:-0.416183 2:0.361518 
1 1:-0.673777 2:0.218251 
1 1:-0.416183 2:0.361518 
1 1:-0.673777 2:0.218251 
1 1:-0.416183 2:0.361518 
1 1:-0.673777 2:0.218251 
1 1:-0.416183 2:0.361518 
1 1:-0.673777 2:0.218251 
1 1:-0.416183 2:0.361518 
1 1:-0.673777 2:0.218251 
1 1:-0.416183 2:0.361518 
1 1:-0.673777 2:0.218251 
1 1:-0.416183 2:0.361518 
1 1:-0.673777 2:0.218251 
1 1:-0.416183 2:0.361518 
1 1:-0.673777 2:0.218251 
1 1:-0.416183 2:0.361518 
1 1:-0.673777 2:0.218251 
1 1:-0.416183 2:0.361518 
1 1:-0.673777 2:0.218251 
1 1:-0.416183 2:0.361518 
1 1:-0.673777 2:0.218251 
1 1:-0.416183 2:0.361518 
1 1:-0.673777 2:0.218251 
1 1:-0.416183 2:0.361518 
1 1:-0.673777 2:0.218251 
1 1:-0.416183 2:0.361518 
1 1:-0.673777 2:0.218251 
1 1:-0.416183 2:0.361518 
1 1:-0.673777 2:0.218251 
1 1:-0.416183 2:0.361518 
1 1:-0.673777 2:0.218251 
1 1:-0.416183 2:0.361518 
1 1:-0.673777 2:0.218251 
1 1:-0.416183 2:0.361518 
1 1:-0.673777 2:0.218251 
1 1:-0.416183 2:0.361518 
1 1:-0.673777 2:0.218251 
1 1:-0.416183 2:0.361518 
1 1:-0.673777 2:0.218251 
1 1:-0.416183 2:0.361518 
1 1:-0.673777 2:0.218251 
1 1:-0.416183 2:0.361518 
1 1:-0.673777 2:0.218251 
1 1:-0.416183 2:0.361518 
1 1:-0.673777 2:0.218251 
1 1:-0.416183 2:0.361518 
1 1:-0.673777 2:0.218251 
1 1:-0.416183 2:0.361518 
1 1:-0.673777 2:0.218251 
1 1:-0.416183 2:0.361518 
1 1:-0.673777 2:0.218251 
1 1:-0.416183 2:0.361518 
1 1:-0.673777 2:0.218251 
1 1:-0.416183 2:0.361518 
1 1:-0.673777 2:0.218251 
1 1:-0.416183 2:0.361518 
1 1:-0.673777 2:0.218251 
1 1:-0.416183 2:0.361518 
1 1:-0.673777 2:0.218251 
1 1:-0.416183 2:0.361518 
1 1:-0.673777 2:0.218251 
1 1:-0.416183 2:0.361518 
1 1:-0.673777 2:0.218251 
1 1:-0.416183 2:0.361518 
1 1:-0.673777 2:0.218251 
1 1:-0.416183 2:0.361518 
1 1:-0.673777 2:0.218251 
1 1:-0.416183 2:0.361518 
1 1:-0.673777 2:0.218251 
1 1:-0.416183 2:0.361518 
1 1:-0.673777 2:0.218251 
1 1:-0.416183 2:0.361518 
1 1:-0.724713 2:0.126733 
1 1:-0.724713 2:0.126733 
1 1:-0.724713 2:0.126733 
1 1:-0.724713 2:0.126733 
1 1:-0.724713 2:0.126733 
1 1:-0.724713 2:0.126733 
1 1:-0.724713 2:0.126733 
1 1:-0.724713 2:0.126733 
1 1:-0.724713 2:0.126733 
1 1:-0.724713 2:0.126733 
1 1:-0.724713 2:0.126733 
1 1:-0.724713 2:0.126733 
1 1:-0.724713 2:0.126733 
1 1:-0.724713 2:0.126733 
1 1:-0.724713 2:0.126733 
1 1:-0.724713 2:0.126733 
1 1:-0.724713 2:0.126733 
1 1:-0.724713 2:0.126733 
1 1:-0.724713 2:0.126733 
1 1:-0.724713 2:0.126733 
1 1:-0.724713 2:0.126733 
1 1:-0.724713 2:0.126733 
1 1:-0.724713 2:0.126733 
1 1:-0.724713 2:0.126733 
1 1:-0.724713 2:0.126733 
1 1:-0.724713 2:0.126733 
1 1:-0.724713 2:0.126733 
1 1:-0.724713 2:0.126733 
1 1:-0.724713 2:0.126733 
1 1:-0.724713 2:0.126733 
1 1:-0.724713 2:0.126733 
1 1:-0.724713 2:0.126733 
1 1:-0.724713 2:0.126733 
1 1:-0.724713 2:0.126733 
1 1:-0.724713 2:0.126733 
1 1:-0.724713 2:0.126733 
1 1:-0.724713 2:0.126733 
1 1:-0.724713 2:0.126733 
1 1:-0.724713 2:0.126733 
1 1:-0.724713 2:0.126733 
1 1:-0.724713 2:0.126733 
1 1:-0.724713 2:0.126733 
1 1:-0.724713 2:0.126733 
1 1:-0.724713 2:0.126733 
1 1:-0.724713 2:0.126733 
1 1:-0.724713 2:0.126733 
1 1:-0.724713 2:0.126733 
1 1:-0.724713 2:0.126733 
1 1:-0.724713 2:0.126733 
1 1:-0.724713 2:0.126733 
1 1:-0.724713 2:0.126733 
1 1:-0.724713 2:0.126733 
1 1:-0.724713 2:0.126733 
1 1:-0.724713 2:0.126733 
1 1:-0.724713 2:0.126733 
1 1:-0.724713 2:0.126733 
1 1:-0.724713 2:0.126733 
1 1:-0.724713 2:0.126733 
1 1:-0.724713 2:0.126733 
1 1:-0.724713 2:0.126733 
1 1:-0.724713 2:0.126733 
1 1:-0.724713 2:0.126733 
1 1:-0.724713 2:0.126733 
1 1:-0.724713 2:0.126733 
1 1:-0.724713 2:0.126733 
1 1:-0.724713 2:0.126733 
1 1:-0.724713 2:0.126733 
1 1:-0.724713 2:0.126733 
1 1:-0.724713 2:0.126733 
1 1:-0.724713 2:0.126733 
1 1:-0.724713 2:0.126733 
1 1:-0.724713 2:0.126733 
1 1:-0.724713 2:0.126733 
1 1:-0.724713 2:0.126733 
1 1:-0.724713 2:0.126733 
1 1:-0.724713 2:0.126733 
1 1:-0.724713 2:0.126733 
1 1:-0.724713 2:0.126733 
1 1:-0.724713 2:0.126733 
1 1:-0.724713 2:0.126733 
1 1:-0.724713 2:0.126733 
1 1:-0.724713 2:0.126733 
1 1:-0.724713 2:0.126733 
1 1:-0.724713 2:0.126733 
1 1:-0.724713 2:0.126733 
1 1:-0.724713 2:0.126733 
1 1:-0.724713 2:0.126733 
1 1:-0.724713 2:0.126733 
1 1:-0.724713 2:0.126733 
1 1:-0.724713 2:0.126733 
1 1:-0.724713 2:0.126733 
1 1:-0.724713 2:0.126733 
1 1:-0.724713 2:0.126733 
1 1:-0.988717 2:-0.966329 
1 1:-0.988717 2:-0.966329 
1 1:-0.988717 2:-0.966329 
1 1:-0.988717 2:-0.966329 
1 1:-0.988717 2:-0.966329 
1 1:-0.988717 2:-0.966329 
1 1:-0.988717 2:-0.966329 
1 1:-0.988717 2:-0.966329 
1 1:-0.988717 2:-0.966329 
1 1:-0.988717 2:-0.966329 
1 1:-0.988717 2:-0.966329 
1 1:-0.988717 2:-0.966329 
1 1:-0.988717 2:-0.966329 
1 1:-0.988717 2:-0.966329 
1 1:-0.988717 2:-0.966329 
1 1:-0.988717 2:-0.966329 
1 1:-0.988717 2:-0.966329 
1 1:-0.988717 2:-0.966329 
1 1:-0.988717 2:-0.966329 
1 1:-0.988717 2:-0.966329 
1 1:-0.988717 2:-0.966329 
1 1:-0.988717 2:-0.966329 
1 1:-0.988717 2:-0.966329 
1 1:-0.988717 2:-0.966329 
1 1:-0.988717 2:-0.966329 
1 1:-0.988717 2:-0.966329 
1 1:-0.988717 2:-0.966329 
1 1:-0.988717 2:-0.966329 
1 1:-0.988717 2:-0.966329 
1 1:-0.988717 2:-0.966329 
1 1:-0.988717 2:-0.966329 
1 1:-0.988717 2:-0.966329 
1 1:-0.988717 2:-0.966329 
1 1:-0.988717 2:-0.966329 
1 1:-0.988717 2:-0.966329 
1 1:-0.988717 2:-0.966329 
1 1:-0.988717 2:-0.966329 
1 1:-0.988717 2:-0.966329 
1 1:-0.988717 2:-0.966329 
1 1:-0.988717 2:-0.966329 
1 1:-0.988717 2:-0.966329 
1 1:-0.988717 2:-0.966329 
1 1:-0.988717 2:-0.966329 
1 1:-0.988717 2:-0.966329 
1 1:-0.988717 2:-0.966329 
1 1:-0.988717 2:-0.966329 
1 1:-0.988717 2:-0.966329 
1 1:-0.988717 2:-0.966329 
1 1:-0.988717 2:-0.966329 
1 1:-0.988717 2:-0.966329 
1 1:-0.988717 2:-0.966329 
1 1:-0.988717 2:-0.966329 
1 1:-0.988717 2:-0.966329 
1 1:-0.988717 2:-0.966329 
1 1:-0.988717 2:-0.966329 
1 1:-0.988717 2:-0.966329 
1 1:-0.988717 2:-0.966329 
1 1:-0.988717 2:-0.966329 
1 1:-0.988717 2:-0.966329 
1 1:-0.988717 2:-0.966329 
1 1:-0.988717 2:-0.966329 
1 1:-0.988717 2:-0.966329 
1 1:-0.988717 2:-0.966329 
1 1:-0.988717 2:-0.966329 
1 1:-0.988717 2:-0.966329 
1 1:-0.988717 2:-0.966329 
1 1:-0.988717 2:-0.966329 
1 1:-0.988717 2:-0.966329 
1 1:-0.988717 2:-0.966329 
1 1:-0.988717 2:-0.966329 
1 1:-0.988717 2:-0.966329 
1 1:-0.988717 2:-0.966329 
1 1:-0.988717 2:-0.966329 
1 1:-0.988717 2:-0.966329 
1 1:-0.988717 2:-0.966329 
1 1:-0.988717 2:-0.966329 
1 1:-0.988717 2:-0.966329 
1 1:-0.988717 2:-0.966329 
1 1:-0.988717 2:-0.966329 
1 1:-0.988717 2:-0.966329 
1 1:-0.988717 2:-0.966329 
1 1:-0.988717 2:-0.966329 
1 1:-0.988717 2:-0.966329 
1 1:-0.988717 2:-0.966329 
1 1:-0.988717 2:-0.966329 
1 1:-0.988717 2:-0.966329 
1 1:-0.988717 2:-0.966329 
1 1:-0.988717 2:-0.966329 
1 1:-0.988717 2:-0.966329 
1 1:-0.988717 2:-0.966329 
1 1:-0.988717 2:-0.966329 
1 1:-0.988717 2:-0.966329 
1 1:-0.988717 2:-0.966329 
1 1:-0.988717 2:-0.966329 
1 1:-0.988717 2:-0.966329 
1 1:-0.988717 2:-0.966329 
1 1:-0.988853 2:-0.979639 
1 1:-0.988853 2:-0.979639 
1 1:-0.988853 2:-0.979639 
1 1:-0.988853 2:-0.979639 
1 1:-0.988853 2:-0.979639 
1 1:-0.988853 2:-0.979639 
1 1:-0.988853 2:-0.979639 
1 1:-0.988853 2:-0.979639 
1 1:-0.988853 2:-0.979639 
1 1:-0.988853 2:-0.979639 
1 1:-0.988853 2:-0.979639 
1 1:-0.988853 2:-0.979639 
1 1:-0.988853 2:-0.979639 
1 1:-0.988853 2:-0.979639 
1 1:-0.988853 2:-0.979639 
1 1:-0.988853 2:-0.979639 
1 1:-0.988853 2:-0.979639 
1 1:-0.988853 2:-0.979639 
1 1:-0.988853 2:-0.979639 
1 1:-0.988853 2:-0.979639 
1 1:-0.988853 2:-0.979639 
1 1:-0.988853 2:-0.979639 
1 1:-0.988853 2:-0.979639 
1 1:-0.988853 2:-0.979639 
1 1:-0.988853 2:-0.979639 
1 1:-0.988853 2:-0.979639 
1 1:-0.988853 2:-0.979639 
1 1:-0.988853 2:-0.979639 
1 1:-0.988853 2:-0.979639 
1 1:-0.988853 2:-0.979639 
1 1:-0.988853 2:-0.979639 
1 1:-0.988853 2:-0.979639 
1 1:-0.988853 2:-0.979639 
1 1:-0.988853 2:-0.979639 
1 1:-0.988853 2:-0.979639 
1 1:-0.988853 2:-0.979639 
1 1:-0.988853 2:-0.979639 
1 1:-0.988853 2:-0.979639 
1 1:-0.988853 2:-0.979639 
1 1:-0.988853 2:-0.979639 
1 1:-0.988853 2:-0.979639 
1 1:-0.988853 2:-0.979639 
1 1:-0.988853 2:-0.979639 
1 1:-0.988853 2:-0.979639 
1 1:-0.988853 2:-0.979639 
1 1:-0.988853 2:-0.979639 
1 1:-0.988853 2:-0.979639 
1 1:-0.988853 2:-0.979639 
1 1:-0.988853 2:-0.979639 
1 1:-0.988853 2:-0.979639 
1 1:-0.988853 2:-0.979639 
1 1:-0.988853 2:-0.979639 
1 1:-0.988853 2:-0.979639 
1 1:-0.988853 2:-0.979639 
1 1:-0.988853 2:-0.979639 
1 1:-0.988853 2:-0.979639 
1 1:-0.988853 2:-0.979639 
1 1:-0.988853 2:-0.979639 
1 1:-0.988853 2:-0.979639 
1 1:-0.988853 2:-0.979639 
1 1:-0.988853 2:-0.979639 
1 1:-0.988853 2:-0.979639 
1 1:-0.988853 2:-0.979639 
1 1:-0.988853 2:-0.979639 
1 1:-0.988853 2:-0.979639 
1 1:-0.988853 2:-0.979639 
1 1:-0.988853 2:-0.979639 
1 1:-0.988853 2:-0.979639 
1 1:-0.988853 2:-0.979639 
1 1:-0.988853 2:-0.979639 
1 1:-0.988853 2:-0.979639 
1 1:-0.988853 2:-0.979639 
1 1:-0.988853 2:-0.979639 
1 1:-0.988853 2:-0.979639 
1 1:-0.988853 2:-0.979639 
1 1:-0.988853 2:-0.979639 
1 1:-0.988853 2:-0.979639 
1 1:-0.988853 2:-0.979639 
1 1:-0.988853 2:-0.979639 
1 1:-0.988853 2:-0.979639 
1 1:-0.988853 2:-0.979639 
1 1:-0.988853 2:-0.979639 
1 1:-0.988853 2:-0.979639 
1 1:-0.988853 2:-0.979639 
1 1:-0.988853 2:-0.979639 
1 1:-0.988853 2:-0.979639 
1 1:-0.988853 2:-0.979639 
1 1:-0.988853 2:-0.979639 
1 1:-0.988853 2:-0.979639 
1 1:-0.988853 2:-0.979639 
1 1:-0.988853 2:-0.979639 
1 1:-0.988853 2:-0.979639 
1 1:-0.988853 2:-0.979639 
1 1:-0.988853 2:-0.979639 
1 1:-0.988853 2:-0.979639 
1 1:-0.992145 2:-0.978134 
1 1:-0.992145 2:-0.978134 
1 1:-0.992145 2:-0.978134 
1 1:-0.992145 2:-0.978134 
1 1:-0.992145 2:-0.978134 
1 1:-0.992145 2:-0.978134 
1 1:-0.992145 2:-0.978134 
1 1:-0.992145 2:-0.978134 
1 1:-0.992145 2:-0.978134 
1 1:-0.992145 2:-0.978134 
1 1:-0.992145 2:-0.978134 
1 1:-0.992145 2:-0.978134 
1 1:-0.992145 2:-0.978134 
1 1:-0.992145 2:-0.978134 
1 1:-0.992145 2:-0.978134 
1 1:-0.992145 2:-0.978134 
1 1:-0.992145 2:-0.978134 
1 1:-0.992145 2:-0.978134 
1 1:-0.992145 2:-0.978134 
1 1:-0.992145 2:-0.978134 
1 1:-0.992145 2:-0.978134 
1 1:-0.992145 2:-0.978134 
1 1:-0.992145 2:-0.978134 
1 1:-0.992145 2:-0.978134 
1 1:-0.992145 2:-0.978134 
1 1:-0.992145 2:-0.978134 
1 1:-0.992145 2:-0.978134 
1 1:-0.992145 2:-0.978134 
1 1:-0.992145 2:-0.978134 
1 1:-0.992145 2:-0.978134 
1 1:-0.992145 2:-0.978134 
1 1:-0.992145 2:-0.978134 
1 1:-0.992145 2:-0.978134 
1 1:-0.992145 2:-0.978134 
1 1:-0.992145 2:-0.978134 
1 1:-0.992145 2:-0.978134 
1 1:-0.992145 2:-0.978134 
1 1:-0.992145 2:-0.978134 
1 1:-0.992145 2:-0.978134 
1 1:-0.992145 2:-0.978134 
1 1:-0.992145 2:-0.978134 
1 1:-0.992145 2:-0.978134 
1 1:-0.992145 2:-0.978134 
1 1:-0.992145 2:-0.978134 
1 1:-0.992145 2:-0.978134 
1 1:-0.992145 2:-0.978134 
1 1:-0.992145 2:-0.978134 
1 1:-0.992145 2:-0.978134 
1 1:-0.992145 2:-0.978134 
1 1:-0.992145 2:-0.978134 
1 1:-0.992145 2:-0.978134 
1 1:-0.992145 2:-0.978134 
1 1:-0.992145 2:-0.978134 
1 1:-0.992145 2:-0.978134 
1 1:-0.992145 2:-0.978134 
1 1:-0.992145 2:-0.978134 
1 1:-0.992145 2:-0.978134 
1 1:-0.992145 2:-0.978134 
1 1:-0.992145 2:-0.978134 
1 1:-0.992145 2:-0.978134 
1 1:-0.992145 2:-0.978134 
1 1:-0.992145 2:-0.978134 
1 1:-0.992145 2:-0.978134 
1 1:-0.992145 2:-0.978134 
1 1:-0.992145 2:-0.978134 
1 1:-0.992145 2:-0.978134 
1 1:-0.992145 2:-0.978134 
1 1:-0.992145 2:-0.978134 
1 1:-0.992145 2:-0.978134 
1 1:-0.992145 2:-0.978134 
1 1:-0.992145 2:-0.978134 
1 1:-0.992145 2:-0.978134 
1 1:-0.992145 2:-0.978134 
1 1:-0.992145 2:-0.978134 
1 1:-0.992145 2:-0.978134 
1 1:-0.992145 2:-0.978134 
1 1:-0.992145 2:-0.978134 
1 1:-0.992145 2:-0.978134 
1 1:-0.992145 2:-0.978134 
1 1:-0.992145 2:-0.978134 
1 1:-0.992145 2:-0.978134 
1 1:-0.992145 2:-0.978134 
1 1:-0.992145 2:-0.978134 
1 1:-0.992145 2:-0.978134 
1 1:-0.992145 2:-0.978134 
1 1:-0.992145 2:-0.978134 
1 1:-0.992145 2:-0.978134 
1 1:-0.992145 2:-0.978134 
1 1:-0.992145 2:-0.978134 
1 1:-0.992145 2:-0.978134 
1 1:-0.992145 2:-0.978134 
1 1:-0.992145 2:-0.978134 
1 1:-0.992145 2:-0.978134 
1 1:-0.992145 2:-0.978134 
1 1:-0.992145 2:-0.978134 
1 1:-0.995275 2:-0.983974 
1 1:-0.995275 2:-0.983974 
1 1:-0.995275 2:-0.983974 
1 1:-0.995275 2:-0.983974 
1 1:-0.995275 2:-0.983974 
1 1:-0.995275 2:-0.983974 
1 1:-0.995275 2:-0.983974 
1 1:-0.995275 2:-0.983974 
1 1:-0.995275 2:-0.983974 
1 1:-0.995275 2:-0.983974 
1 1:-0.995275 2:-0.983974 
1 1:-0.995275 2:-0.983974 
1 1:-0.995275 2:-0.983974 
1 1:-0.995275 2:-0.983974 
1 1:-0.995275 2:-0.983974 
1 1:-0.995275 2:-0.983974 
1 1:-0.995275 2:-0.983974 
1 1:-0.995275 2:-0.983974 
1 1:-0.995275 2:-0.983974 
1 1:-0.995275 2:-0.983974 
1 1:-0.995275 2:-0.983974 
1 1:-0.995275 2:-0.983974 
1 1:-0.995275 2:-0.983974 
1 1:-0.995275 2:-0.983974 
1 1:-0.995275 2:-0.983974 
1 1:-0.995275 2:-0.983974 
1 1:-0.995275 2:-0.983974 
1 1:-0.995275 2:-0.983974 
1 1:-0.995275 2:-0.983974 
1 1:-0.995275 2:-0.983974 
1 1:-0.995275 2:-0.983974 
1 1:-0.995275 2:-0.983974 
1 1:-0.995275 2:-0.983974 
1 1:-0.995275 2:-0.983974 
1 1:-0.995275 2:-0.983974 
1 1:-0.995275 2:-0.983974 
1 1:-0.995275 2:-0.983974 
1 1:-0.995275 2:-0.983974 
1 1:-0.995275 2:-0.983974 
1 1:-0.995275 2:-0.983974 
1 1:-0.995275 2:-0.983974 
1 1:-0.995275 2:-0.983974 
1 1:-0.995275 2:-0.983974 
1 1:-0.995275 2:-0.983974 
