svm_type one_class
kernel_type rbf
gamma 0.5
nr_class 2
total_sv 14157
rho 9610.32
SV
1 1:-0.952744 2:-0.898651 
1 1:-0.952744 2:-0.898651 
1 1:-0.952744 2:-0.898651 
1 1:-0.952744 2:-0.898651 
1 1:-0.952744 2:-0.898651 
1 1:-0.952744 2:-0.898651 
1 1:-0.952744 2:-0.898651 
1 1:-0.952744 2:-0.898651 
1 1:-0.952744 2:-0.898651 
1 1:-0.952744 2:-0.898651 
1 1:-0.952744 2:-0.898651 
1 1:-0.952744 2:-0.898651 
1 1:-0.952744 2:-0.898651 
1 1:-0.952744 2:-0.898651 
1 1:-0.952744 2:-0.898651 
1 1:-0.952744 2:-0.898651 
1 1:-0.952744 2:-0.898651 
1 1:-0.952744 2:-0.898651 
1 1:-0.952744 2:-0.898651 
1 1:-0.952744 2:-0.898651 
1 1:-0.952744 2:-0.898651 
1 1:-0.952744 2:-0.898651 
1 1:-0.952744 2:-0.898651 
1 1:-0.952744 2:-0.898651 
1 1:-0.952744 2:-0.898651 
1 1:-0.952744 2:-0.898651 
1 1:-0.952744 2:-0.898651 
1 1:-0.952744 2:-0.898651 
1 1:-0.952744 2:-0.898651 
1 1:-0.952744 2:-0.898651 
1 1:-0.952744 2:-0.898651 
1 1:-0.952744 2:-0.898651 
1 1:-0.952744 2:-0.898651 
1 1:-0.952744 2:-0.898651 
1 1:-0.952744 2:-0.898651 
1 1:-0.952744 2:-0.898651 
1 1:-0.952744 2:-0.898651 
1 1:-0.952744 2:-0.898651 
1 1:-0.933181 2:-0.929521 
1 1:-0.930163 2:-0.801374 
1 1:-0.933181 2:-0.929521 
1 1:-0.930163 2:-0.801374 
1 1:-0.933181 2:-0.929521 
1 1:-0.930163 2:-0.801374 
1 1:-0.933181 2:-0.929521 
1 1:-0.930163 2:-0.801374 
1 1:-0.933181 2:-0.929521 
1 1:-0.930163 2:-0.801374 
1 1:-0.933181 2:-0.929521 
1 1:-0.930163 2:-0.801374 
1 1:-0.933181 2:-0.929521 
1 1:-0.930163 2:-0.801374 
1 1:-0.933181 2:-0.929521 
1 1:-0.930163 2:-0.801374 
1 1:-0.933181 2:-0.929521 
1 1:-0.930163 2:-0.801374 
1 1:-0.933181 2:-0.929521 
1 1:-0.930163 2:-0.801374 
1 1:-0.933181 2:-0.929521 
1 1:-0.930163 2:-0.801374 
1 1:-0.933181 2:-0.929521 
1 1:-0.930163 2:-0.801374 
1 1:-0.933181 2:-0.929521 
1 1:-0.930163 2:-0.801374 
1 1:-0.933181 2:-0.929521 
1 1:-0.930163 2:-0.801374 
1 1:-0.933181 2:-0.929521 
1 1:-0.930163 2:-0.801374 
1 1:-0.933181 2:-0.929521 
1 1:-0.930163 2:-0.801374 
1 1:-0.933181 2:-0.929521 
1 1:-0.930163 2:-0.801374 
1 1:-0.933181 2:-0.929521 
1 1:-0.930163 2:-0.801374 
1 1:-0.933181 2:-0.929521 
1 1:-0.930163 2:-0.801374 
1 1:-0.933181 2:-0.929521 
1 1:-0.930163 2:-0.801374 
1 1:-0.933181 2:-0.929521 
1 1:-0.930163 2:-0.801374 
1 1:-0.933181 2:-0.929521 
1 1:-0.930163 2:-0.801374 
1 1:-0.933181 2:-0.929521 
1 1:-0.930163 2:-0.801374 
1 1:-0.933181 2:-0.929521 
1 1:-0.930163 2:-0.801374 
1 1:-0.933181 2:-0.929521 
1 1:-0.930163 2:-0.801374 
1 1:-0.933181 2:-0.929521 
1 1:-0.930163 2:-0.801374 
1 1:-0.933181 2:-0.929521 
1 1:-0.930163 2:-0.801374 
1 1:-0.933181 2:-0.929521 
1 1:-0.930163 2:-0.801374 
1 1:-0.933181 2:-0.929521 
1 1:-0.930163 2:-0.801374 
1 1:-0.933181 2:-0.929521 
1 1:-0.930163 2:-0.801374 
1 1:-0.933181 2:-0.929521 
1 1:-0.930163 2:-0.801374 
1 1:-0.933181 2:-0.929521 
1 1:-0.930163 2:-0.801374 
1 1:-0.933181 2:-0.929521 
1 1:-0.930163 2:-0.801374 
1 1:-0.933181 2:-0.929521 
1 1:-0.930163 2:-0.801374 
1 1:-0.933181 2:-0.929521 
1 1:-0.930163 2:-0.801374 
1 1:-0.933181 2:-0.929521 
1 1:-0.930163 2:-0.801374 
1 1:-0.933181 2:-0.929521 
1 1:-0.930163 2:-0.801374 
1 1:-0.933181 2:-0.929521 
1 1:-0.930163 2:-0.801374 
1 1:-0.933181 2:-0.929521 
1 1:-0.930163 2:-0.801374 
1 1:-0.933181 2:-0.929521 
1 1:-0.930163 2:-0.801374 
1 1:-0.933181 2:-0.929521 
1 1:-0.930163 2:-0.801374 
1 1:-0.933181 2:-0.929521 
1 1:-0.930163 2:-0.801374 
1 1:-0.933181 2:-0.929521 
1 1:-0.930163 2:-0.801374 
1 1:-0.933181 2:-0.929521 
1 1:-0.930163 2:-0.801374 
1 1:-0.933181 2:-0.929521 
1 1:-0.930163 2:-0.801374 
1 1:-0.933181 2:-0.929521 
1 1:-0.930163 2:-0.801374 
1 1:-0.933181 2:-0.929521 
1 1:-0.930163 2:-0.801374 
1 1:-0.933181 2:-0.929521 
1 1:-0.930163 2:-0.801374 
1 1:-0.933181 2:-0.929521 
1 1:-0.930163 2:-0.801374 
1 1:-0.933181 2:-0.929521 
1 1:-0.930163 2:-0.801374 
1 1:-0.933181 2:-0.929521 
1 1:-0.930163 2:-0.801374 
1 1:-0.933181 2:-0.929521 
1 1:-0.930163 2:-0.801374 
1 1:-0.933181 2:-0.929521 
1 1:-0.930163 2:-0.801374 
1 1:-0.933181 2:-0.929521 
1 1:-0.930163 2:-0.801374 
1 1:-0.933181 2:-0.929521 
1 1:-0.930163 2:-0.801374 
1 1:-0.933181 2:-0.929521 
1 1:-0.930163 2:-0.801374 
1 1:-0.933181 2:-0.929521 
1 1:-0.930163 2:-0.801374 
1 1:-0.933181 2:-0.929521 
1 1:-0.930163 2:-0.801374 
1 1:-0.933181 2:-0.929521 
1 1:-0.930163 2:-0.801374 
1 1:-0.933181 2:-0.929521 
1 1:-0.930163 2:-0.801374 
1 1:-0.933181 2:-0.929521 
1 1:-0.930163 2:-0.801374 
1 1:-0.933181 2:-0.929521 
1 1:-0.930163 2:-0.801374 
1 1:-0.933181 2:-0.929521 
1 1:-0.930163 2:-0.801374 
1 1:-0.933181 2:-0.929521 
1 1:-0.930163 2:-0.801374 
1 1:-0.933181 2:-0.929521 
1 1:-0.930163 2:-0.801374 
1 1:-0.933181 2:-0.929521 
1 1:-0.930163 2:-0.801374 
1 1:-0.933181 2:-0.929521 
1 1:-0.930163 2:-0.801374 
1 1:-0.933181 2:-0.929521 
1 1:-0.930163 2:-0.801374 
1 1:-0.933181 2:-0.929521 
1 1:-0.930163 2:-0.801374 
1 1:-0.933181 2:-0.929521 
1 1:-0.930163 2:-0.801374 
1 1:-0.933181 2:-0.929521 
1 1:-0.930163 2:-0.801374 
1 1:-0.933181 2:-0.929521 
1 1:-0.930163 2:-0.801374 
1 1:-0.933181 2:-0.929521 
1 1:-0.930163 2:-0.801374 
1 1:-0.933181 2:-0.929521 
1 1:-0.930163 2:-0.801374 
1 1:-0.933181 2:-0.929521 
1 1:-0.930163 2:-0.801374 
1 1:-0.933181 2:-0.929521 
1 1:-0.930163 2:-0.801374 
1 1:-0.933181 2:-0.929521 
1 1:-0.930163 2:-0.801374 
1 1:-0.933181 2:-0.929521 
1 1:-0.930163 2:-0.801374 
1 1:-0.933181 2:-0.929521 
1 1:-0.930163 2:-0.801374 
1 1:-0.933181 2:-0.929521 
1 1:-0.930163 2:-0.801374 
1 1:-0.933181 2:-0.929521 
1 1:-0.930163 2:-0.801374 
1 1:-0.933181 2:-0.929521 
1 1:-0.930163 2:-0.801374 
1 1:-0.933181 2:-0.929521 
1 1:-0.930163 2:-0.801374 
1 1:-0.933181 2:-0.929521 
1 1:-0.930163 2:-0.801374 
1 1:-0.933181 2:-0.929521 
1 1:-0.930163 2:-0.801374 
1 1:-0.933181 2:-0.929521 
1 1:-0.930163 2:-0.801374 
1 1:-0.933181 2:-0.929521 
1 1:-0.930163 2:-0.801374 
1 1:-0.933181 2:-0.929521 
1 1:-0.930163 2:-0.801374 
1 1:-0.933181 2:-0.929521 
1 1:-0.930163 2:-0.801374 
1 1:-0.933181 2:-0.929521 
1 1:-0.930163 2:-0.801374 
1 1:-0.933181 2:-0.929521 
1 1:-0.930163 2:-0.801374 
1 1:-0.933181 2:-0.929521 
1 1:-0.930163 2:-0.801374 
1 1:-0.933181 2:-0.929521 
1 1:-0.930163 2:-0.801374 
1 1:-0.933181 2:-0.929521 
1 1:-0.930163 2:-0.801374 
1 1:-0.933181 2:-0.929521 
1 1:-0.930163 2:-0.801374 
1 1:-0.933181 2:-0.929521 
1 1:-0.930163 2:-0.801374 
1 1:-0.940275 2:-0.985963 
1 1:-0.940275 2:-0.985963 
1 1:-0.940275 2:-0.985963 
1 1:-0.940275 2:-0.985963 
1 1:-0.940275 2:-0.985963 
1 1:-0.940275 2:-0.985963 
1 1:-0.940275 2:-0.985963 
1 1:-0.940275 2:-0.985963 
1 1:-0.940275 2:-0.985963 
1 1:-0.940275 2:-0.985963 
1 1:-0.940275 2:-0.985963 
1 1:-0.940275 2:-0.985963 
1 1:-0.940275 2:-0.985963 
1 1:-0.940275 2:-0.985963 
1 1:-0.940275 2:-0.985963 
1 1:-0.940275 2:-0.985963 
1 1:-0.940275 2:-0.985963 
1 1:-0.940275 2:-0.985963 
1 1:-0.940275 2:-0.985963 
1 1:-0.940275 2:-0.985963 
1 1:-0.940275 2:-0.985963 
1 1:-0.940275 2:-0.985963 
1 1:-0.940275 2:-0.985963 
1 1:-0.940275 2:-0.985963 
1 1:-0.940275 2:-0.985963 
1 1:-0.940275 2:-0.985963 
1 1:-0.940275 2:-0.985963 
1 1:-0.940275 2:-0.985963 
1 1:-0.940275 2:-0.985963 
1 1:-0.940275 2:-0.985963 
1 1:-0.940275 2:-0.985963 
1 1:-0.940275 2:-0.985963 
1 1:-0.940275 2:-0.985963 
1 1:-0.940275 2:-0.985963 
1 1:-0.940275 2:-0.985963 
1 1:-0.940275 2:-0.985963 
1 1:-0.940275 2:-0.985963 
1 1:-0.940275 2:-0.985963 
1 1:-0.940275 2:-0.985963 
1 1:-0.940275 2:-0.985963 
1 1:-0.940275 2:-0.985963 
1 1:-0.940275 2:-0.985963 
1 1:-0.940275 2:-0.985963 
1 1:-0.940275 2:-0.985963 
1 1:-0.940275 2:-0.985963 
1 1:-0.940275 2:-0.985963 
1 1:-0.940275 2:-0.985963 
1 1:-0.940275 2:-0.985963 
1 1:-0.940275 2:-0.985963 
1 1:-0.940275 2:-0.985963 
1 1:-0.940275 2:-0.985963 
1 1:-0.940275 2:-0.985963 
1 1:-0.940275 2:-0.985963 
1 1:-0.940275 2:-0.985963 
1 1:-0.940275 2:-0.985963 
1 1:-0.940275 2:-0.985963 
1 1:-0.940275 2:-0.985963 
1 1:-0.940275 2:-0.985963 
1 1:-0.940275 2:-0.985963 
1 1:-0.940275 2:-0.985963 
1 1:-0.940275 2:-0.985963 
1 1:-0.940275 2:-0.985963 
1 1:-0.940275 2:-0.985963 
1 1:-0.940275 2:-0.985963 
1 1:-0.940275 2:-0.985963 
1 1:-0.940275 2:-0.985963 
1 1:-0.940275 2:-0.985963 
1 1:-0.940275 2:-0.985963 
1 1:-0.940275 2:-0.985963 
1 1:-0.940275 2:-0.985963 
1 1:-0.940275 2:-0.985963 
1 1:-0.940275 2:-0.985963 
1 1:-0.940275 2:-0.985963 
1 1:-0.940275 2:-0.985963 
1 1:-0.940275 2:-0.985963 
1 1:-0.940275 2:-0.985963 
1 1:-0.940275 2:-0.985963 
1 1:-0.940275 2:-0.985963 
1 1:-0.940275 2:-0.985963 
1 1:-0.940275 2:-0.985963 
1 1:-0.940275 2:-0.985963 
1 1:-0.940275 2:-0.985963 
1 1:-0.940275 2:-0.985963 
1 1:-0.940275 2:-0.985963 
1 1:-0.940275 2:-0.985963 
1 1:-0.940275 2:-0.985963 
1 1:-0.940275 2:-0.985963 
1 1:-0.940275 2:-0.985963 
1 1:-0.940275 2:-0.985963 
1 1:-0.940275 2:-0.985963 
1 1:-0.940275 2:-0.985963 
1 1:-0.940275 2:-0.985963 
1 1:-0.940275 2:-0.985963 
1 1:-0.940275 2:-0.985963 
1 1:-0.979126 2:-0.99185 
1 1:-0.979126 2:-0.99185 
1 1:-0.979126 2:-0.99185 
1 1:-0.979126 2:-0.99185 
1 1:-0.979126 2:-0.99185 
1 1:-0.979126 2:-0.99185 
1 1:-0.979126 2:-0.99185 
1 1:-0.979126 2:-0.99185 
1 1:-0.979126 2:-0.99185 
1 1:-0.979126 2:-0.99185 
1 1:-0.979126 2:-0.99185 
1 1:-0.979126 2:-0.99185 
1 1:-0.979126 2:-0.99185 
1 1:-0.979126 2:-0.99185 
1 1:-0.979126 2:-0.99185 
1 1:-0.979126 2:-0.99185 
1 1:-0.979126 2:-0.99185 
1 1:-0.979126 2:-0.99185 
1 1:-0.979126 2:-0.99185 
1 1:-0.979126 2:-0.99185 
1 1:-0.979126 2:-0.99185 
1 1:-0.979126 2:-0.99185 
1 1:-0.979126 2:-0.99185 
1 1:-0.979126 2:-0.99185 
1 1:-0.979126 2:-0.99185 
1 1:-0.979126 2:-0.99185 
1 1:-0.979126 2:-0.99185 
1 1:-0.979126 2:-0.99185 
1 1:-0.979126 2:-0.99185 
1 1:-0.979126 2:-0.99185 
1 1:-0.979126 2:-0.99185 
1 1:-0.979126 2:-0.99185 
1 1:-0.979126 2:-0.99185 
1 1:-0.979126 2:-0.99185 
1 1:-0.979126 2:-0.99185 
1 1:-0.979126 2:-0.99185 
1 1:-0.979126 2:-0.99185 
1 1:-0.979126 2:-0.99185 
1 1:-0.979126 2:-0.99185 
1 1:-0.979126 2:-0.99185 
1 1:-0.979126 2:-0.99185 
1 1:-0.979126 2:-0.99185 
1 1:-0.979126 2:-0.99185 
1 1:-0.979126 2:-0.99185 
1 1:-0.979126 2:-0.99185 
1 1:-0.979126 2:-0.99185 
1 1:-0.979126 2:-0.99185 
1 1:-0.979126 2:-0.99185 
1 1:-0.979126 2:-0.99185 
1 1:-0.979126 2:-0.99185 
1 1:-0.979126 2:-0.99185 
1 1:-0.979126 2:-0.99185 
1 1:-0.979126 2:-0.99185 
1 1:-0.979126 2:-0.99185 
1 1:-0.979126 2:-0.99185 
1 1:-0.979126 2:-0.99185 
1 1:-0.979126 2:-0.99185 
1 1:-0.979126 2:-0.99185 
1 1:-0.979126 2:-0.99185 
1 1:-0.979126 2:-0.99185 
1 1:-0.979126 2:-0.99185 
1 1:-0.979126 2:-0.99185 
1 1:-0.979126 2:-0.99185 
1 1:-0.979126 2:-0.99185 
1 1:-0.979126 2:-0.99185 
1 1:-0.979126 2:-0.99185 
1 1:-0.979126 2:-0.99185 
1 1:-0.979126 2:-0.99185 
1 1:-0.979126 2:-0.99185 
1 1:-0.979126 2:-0.99185 
1 1:-0.979126 2:-0.99185 
1 1:-0.979126 2:-0.99185 
1 1:-0.979126 2:-0.99185 
1 1:-0.979126 2:-0.99185 
1 1:-0.979126 2:-0.99185 
1 1:-0.979126 2:-0.99185 
1 1:-0.979126 2:-0.99185 
1 1:-0.979126 2:-0.99185 
1 1:-0.979126 2:-0.99185 
1 1:-0.979126 2:-0.99185 
1 1:-0.979126 2:-0.99185 
1 1:-0.979126 2:-0.99185 
1 1:-0.979126 2:-0.99185 
1 1:-0.979126 2:-0.99185 
1 1:-0.979126 2:-0.99185 
1 1:-0.979126 2:-0.99185 
1 1:-0.979126 2:-0.99185 
1 1:-0.979126 2:-0.99185 
1 1:-0.979126 2:-0.99185 
1 1:-0.979126 2:-0.99185 
1 1:-0.979126 2:-0.99185 
1 1:-0.979126 2:-0.99185 
1 1:-0.979126 2:-0.99185 
1 1:-0.979126 2:-0.99185 
1 1:-0.963446 2:-0.957196 
1 1:-0.963446 2:-0.957196 
1 1:-0.963446 2:-0.957196 
1 1:-0.963446 2:-0.957196 
1 1:-0.963446 2:-0.957196 
1 1:-0.963446 2:-0.957196 
1 1:-0.963446 2:-0.957196 
1 1:-0.963446 2:-0.957196 
1 1:-0.963446 2:-0.957196 
1 1:-0.963446 2:-0.957196 
1 1:-0.963446 2:-0.957196 
1 1:-0.963446 2:-0.957196 
1 1:-0.963446 2:-0.957196 
1 1:-0.963446 2:-0.957196 
1 1:-0.963446 2:-0.957196 
1 1:-0.963446 2:-0.957196 
1 1:-0.963446 2:-0.957196 
1 1:-0.963446 2:-0.957196 
1 1:-0.963446 2:-0.957196 
1 1:-0.963446 2:-0.957196 
1 1:-0.963446 2:-0.957196 
1 1:-0.963446 2:-0.957196 
1 1:-0.963446 2:-0.957196 
1 1:-0.963446 2:-0.957196 
1 1:-0.963446 2:-0.957196 
1 1:-0.963446 2:-0.957196 
1 1:-0.963446 2:-0.957196 
1 1:-0.963446 2:-0.957196 
1 1:-0.963446 2:-0.957196 
1 1:-0.963446 2:-0.957196 
1 1:-0.963446 2:-0.957196 
1 1:-0.963446 2:-0.957196 
1 1:-0.963446 2:-0.957196 
1 1:-0.963446 2:-0.957196 
1 1:-0.963446 2:-0.957196 
1 1:-0.963446 2:-0.957196 
1 1:-0.963446 2:-0.957196 
1 1:-0.963446 2:-0.957196 
1 1:-0.963446 2:-0.957196 
1 1:-0.963446 2:-0.957196 
1 1:-0.963446 2:-0.957196 
1 1:-0.963446 2:-0.957196 
1 1:-0.963446 2:-0.957196 
1 1:-0.963446 2:-0.957196 
1 1:-0.963446 2:-0.957196 
1 1:-0.963446 2:-0.957196 
1 1:-0.963446 2:-0.957196 
1 1:-0.963446 2:-0.957196 
1 1:-0.963446 2:-0.957196 
1 1:-0.963446 2:-0.957196 
1 1:-0.963446 2:-0.957196 
1 1:-0.963446 2:-0.957196 
1 1:-0.963446 2:-0.957196 
1 1:-0.963446 2:-0.957196 
1 1:-0.963446 2:-0.957196 
1 1:-0.963446 2:-0.957196 
1 1:-0.963446 2:-0.957196 
1 1:-0.963446 2:-0.957196 
1 1:-0.963446 2:-0.957196 
1 1:-0.963446 2:-0.957196 
1 1:-0.963446 2:-0.957196 
1 1:-0.963446 2:-0.957196 
1 1:-0.963446 2:-0.957196 
1 1:-0.963446 2:-0.957196 
1 1:-0.963446 2:-0.957196 
1 1:-0.963446 2:-0.957196 
1 1:-0.963446 2:-0.957196 
1 1:-0.963446 2:-0.957196 
1 1:-0.963446 2:-0.957196 
1 1:-0.963446 2:-0.957196 
1 1:-0.963446 2:-0.957196 
1 1:-0.963446 2:-0.957196 
1 1:-0.963446 2:-0.957196 
1 1:-0.963446 2:-0.957196 
1 1:-0.963446 2:-0.957196 
1 1:-0.963446 2:-0.957196 
1 1:-0.963446 2:-0.957196 
1 1:-0.963446 2:-0.957196 
1 1:-0.963446 2:-0.957196 
1 1:-0.963446 2:-0.957196 
1 1:-0.963446 2:-0.957196 
1 1:-0.963446 2:-0.957196 
1 1:-0.963446 2:-0.957196 
1 1:-0.963446 2:-0.957196 
1 1:-0.963446 2:-0.957196 
1 1:-0.963446 2:-0.957196 
1 1:-0.963446 2:-0.957196 
1 1:-0.963446 2:-0.957196 
1 1:-0.963446 2:-0.957196 
1 1:-0.963446 2:-0.957196 
1 1:-0.963446 2:-0.957196 
1 1:-0.963446 2:-0.957196 
1 1:-0.963446 2:-0.957196 
1 1:-0.963446 2:-0.957196 
1 1:-0.996341 2:-0.974112 
1 1:-0.996341 2:-0.974112 
1 1:-0.996341 2:-0.974112 
1 1:-0.996341 2:-0.974112 
1 1:-0.996341 2:-0.974112 
1 1:-0.996341 2:-0.974112 
1 1:-0.996341 2:-0.974112 
1 1:-0.996341 2:-0.974112 
1 1:-0.996341 2:-0.974112 
1 1:-0.996341 2:-0.974112 
1 1:-0.996341 2:-0.974112 
1 1:-0.996341 2:-0.974112 
1 1:-0.996341 2:-0.974112 
1 1:-0.996341 2:-0.974112 
1 1:-0.996341 2:-0.974112 
1 1:-0.996341 2:-0.974112 
1 1:-0.996341 2:-0.974112 
1 1:-0.996341 2:-0.974112 
1 1:-0.996341 2:-0.974112 
1 1:-0.996341 2:-0.974112 
1 1:-0.996341 2:-0.974112 
1 1:-0.996341 2:-0.974112 
1 1:-0.996341 2:-0.974112 
1 1:-0.996341 2:-0.974112 
1 1:-0.996341 2:-0.974112 
1 1:-0.996341 2:-0.974112 
1 1:-0.996341 2:-0.974112 
1 1:-0.996341 2:-0.974112 
1 1:-0.996341 2:-0.974112 
1 1:-0.996341 2:-0.974112 
1 1:-0.996341 2:-0.974112 
1 1:-0.996341 2:-0.974112 
1 1:-0.996341 2:-0.974112 
1 1:-0.996341 2:-0.974112 
1 1:-0.996341 2:-0.974112 
1 1:-0.996341 2:-0.974112 
1 1:-0.996341 2:-0.974112 
1 1:-0.996341 2:-0.974112 
1 1:-0.996341 2:-0.974112 
1 1:-0.996341 2:-0.974112 
1 1:-0.996341 2:-0.974112 
1 1:-0.996341 2:-0.974112 
1 1:-0.996341 2:-0.974112 
1 1:-0.996341 2:-0.974112 
1 1:-0.996341 2:-0.974112 
1 1:-0.996341 2:-0.974112 
1 1:-0.996341 2:-0.974112 
1 1:-0.996341 2:-0.974112 
1 1:-0.996341 2:-0.974112 
1 1:-0.996341 2:-0.974112 
1 1:-0.996341 2:-0.974112 
1 1:-0.996341 2:-0.974112 
1 1:-0.996341 2:-0.974112 
1 1:-0.996341 2:-0.974112 
1 1:-0.996341 2:-0.974112 
1 1:-0.996341 2:-0.974112 
1 1:-0.996341 2:-0.974112 
1 1:-0.996341 2:-0.974112 
1 1:-0.996341 2:-0.974112 
1 1:-0.996341 2:-0.974112 
1 1:-0.996341 2:-0.974112 
1 1:-0.996341 2:-0.974112 
1 1:-0.996341 2:-0.974112 
1 1:-0.996341 2:-0.974112 
1 1:-0.996341 2:-0.974112 
1 1:-0.996341 2:-0.974112 
1 1:-0.996341 2:-0.974112 
1 1:-0.996341 2:-0.974112 
1 1:-0.996341 2:-0.974112 
1 1:-0.996341 2:-0.974112 
1 1:-0.996341 2:-0.974112 
1 1:-0.996341 2:-0.974112 
1 1:-0.996341 2:-0.974112 
1 1:-0.996341 2:-0.974112 
1 1:-0.996341 2:-0.974112 
1 1:-0.996341 2:-0.974112 
1 1:-0.996341 2:-0.974112 
1 1:-0.996341 2:-0.974112 
1 1:-0.996341 2:-0.974112 
1 1:-0.996341 2:-0.974112 
1 1:-0.996341 2:-0.974112 
1 1:-0.996341 2:-0.974112 
1 1:-0.996341 2:-0.974112 
1 1:-0.996341 2:-0.974112 
1 1:-0.996341 2:-0.974112 
1 1:-0.996341 2:-0.974112 
1 1:-0.996341 2:-0.974112 
1 1:-0.996341 2:-0.974112 
1 1:-0.996341 2:-0.974112 
1 1:-0.996341 2:-0.974112 
1 1:-0.996341 2:-0.974112 
1 1:-0.996341 2:-0.974112 
1 1:-0.996341 2:-0.974112 
1 1:-0.996341 2:-0.974112 
1 1:-0.996341 2:-0.974112 
1 1:-0.996341 2:-0.974112 
1 1:-0.959802 2:-0.962488 
1 1:-0.959802 2:-0.962488 
1 1:-0.959802 2:-0.962488 
1 1:-0.959802 2:-0.962488 
1 1:-0.959802 2:-0.962488 
1 1:-0.959802 2:-0.962488 
1 1:-0.959802 2:-0.962488 
1 1:-0.959802 2:-0.962488 
1 1:-0.959802 2:-0.962488 
1 1:-0.959802 2:-0.962488 
1 1:-0.959802 2:-0.962488 
1 1:-0.959802 2:-0.962488 
1 1:-0.959802 2:-0.962488 
1 1:-0.959802 2:-0.962488 
1 1:-0.959802 2:-0.962488 
1 1:-0.959802 2:-0.962488 
1 1:-0.959802 2:-0.962488 
1 1:-0.959802 2:-0.962488 
1 1:-0.959802 2:-0.962488 
1 1:-0.959802 2:-0.962488 
1 1:-0.959802 2:-0.962488 
1 1:-0.959802 2:-0.962488 
1 1:-0.959802 2:-0.962488 
1 1:-0.959802 2:-0.962488 
1 1:-0.959802 2:-0.962488 
1 1:-0.959802 2:-0.962488 
1 1:-0.959802 2:-0.962488 
1 1:-0.959802 2:-0.962488 
1 1:-0.959802 2:-0.962488 
1 1:-0.959802 2:-0.962488 
1 1:-0.959802 2:-0.962488 
1 1:-0.959802 2:-0.962488 
1 1:-0.959802 2:-0.962488 
1 1:-0.959802 2:-0.962488 
1 1:-0.959802 2:-0.962488 
1 1:-0.959802 2:-0.962488 
1 1:-0.959802 2:-0.962488 
1 1:-0.959802 2:-0.962488 
1 1:-0.959802 2:-0.962488 
1 1:-0.959802 2:-0.962488 
1 1:-0.959802 2:-0.962488 
1 1:-0.959802 2:-0.962488 
1 1:-0.959802 2:-0.962488 
1 1:-0.959802 2:-0.962488 
1 1:-0.959802 2:-0.962488 
1 1:-0.959802 2:-0.962488 
1 1:-0.959802 2:-0.962488 
1 1:-0.959802 2:-0.962488 
1 1:-0.959802 2:-0.962488 
1 1:-0.959802 2:-0.962488 
1 1:-0.959802 2:-0.962488 
1 1:-0.959802 2:-0.962488 
1 1:-0.959802 2:-0.962488 
1 1:-0.959802 2:-0.962488 
1 1:-0.959802 2:-0.962488 
1 1:-0.959802 2:-0.962488 
1 1:-0.959802 2:-0.962488 
1 1:-0.959802 2:-0.962488 
1 1:-0.959802 2:-0.962488 
1 1:-0.959802 2:-0.962488 
1 1:-0.959802 2:-0.962488 
1 1:-0.959802 2:-0.962488 
1 1:-0.959802 2:-0.962488 
1 1:-0.959802 2:-0.962488 
1 1:-0.959802 2:-0.962488 
1 1:-0.959802 2:-0.962488 
1 1:-0.959802 2:-0.962488 
1 1:-0.959802 2:-0.962488 
1 1:-0.959802 2:-0.962488 
1 1:-0.959802 2:-0.962488 
1 1:-0.959802 2:-0.962488 
1 1:-0.959802 2:-0.962488 
1 1:-0.959802 2:-0.962488 
1 1:-0.959802 2:-0.962488 
1 1:-0.959802 2:-0.962488 
1 1:-0.959802 2:-0.962488 
1 1:-0.959802 2:-0.962488 
1 1:-0.959802 2:-0.962488 
1 1:-0.959802 2:-0.962488 
1 1:-0.959802 2:-0.962488 
1 1:-0.959802 2:-0.962488 
1 1:-0.959802 2:-0.962488 
1 1:-0.959802 2:-0.962488 
1 1:-0.959802 2:-0.962488 
1 1:-0.959802 2:-0.962488 
1 1:-0.959802 2:-0.962488 
1 1:-0.959802 2:-0.962488 
1 1:-0.959802 2:-0.962488 
1 1:-0.959802 2:-0.962488 
1 1:-0.959802 2:-0.962488 
1 1:-0.959802 2:-0.962488 
1 1:-0.959802 2:-0.962488 
1 1:-0.959802 2:-0.962488 
1 1:-0.959802 2:-0.962488 
1 1:-0.965057 2:-0.939501 
1 1:-0.965057 2:-0.939501 
1 1:-0.965057 2:-0.939501 
1 1:-0.965057 2:-0.939501 
1 1:-0.965057 2:-0.939501 
1 1:-0.965057 2:-0.939501 
1 1:-0.965057 2:-0.939501 
1 1:-0.965057 2:-0.939501 
1 1:-0.965057 2:-0.939501 
1 1:-0.965057 2:-0.939501 
1 1:-0.965057 2:-0.939501 
1 1:-0.965057 2:-0.939501 
1 1:-0.965057 2:-0.939501 
1 1:-0.965057 2:-0.939501 
1 1:-0.965057 2:-0.939501 
1 1:-0.965057 2:-0.939501 
1 1:-0.965057 2:-0.939501 
1 1:-0.965057 2:-0.939501 
1 1:-0.965057 2:-0.939501 
1 1:-0.965057 2:-0.939501 
1 1:-0.965057 2:-0.939501 
1 1:-0.965057 2:-0.939501 
1 1:-0.965057 2:-0.939501 
1 1:-0.965057 2:-0.939501 
1 1:-0.965057 2:-0.939501 
1 1:-0.965057 2:-0.939501 
1 1:-0.965057 2:-0.939501 
1 1:-0.965057 2:-0.939501 
1 1:-0.965057 2:-0.939501 
1 1:-0.965057 2:-0.939501 
1 1:-0.965057 2:-0.939501 
1 1:-0.965057 2:-0.939501 
1 1:-0.965057 2:-0.939501 
1 1:-0.965057 2:-0.939501 
1 1:-0.965057 2:-0.939501 
1 1:-0.965057 2:-0.939501 
1 1:-0.965057 2:-0.939501 
1 1:-0.965057 2:-0.939501 
1 1:-0.965057 2:-0.939501 
1 1:-0.965057 2:-0.939501 
1 1:-0.965057 2:-0.939501 
1 1:-0.965057 2:-0.939501 
1 1:-0.965057 2:-0.939501 
1 1:-0.965057 2:-0.939501 
1 1:-0.965057 2:-0.939501 
1 1:-0.965057 2:-0.939501 
1 1:-0.965057 2:-0.939501 
1 1:-0.965057 2:-0.939501 
1 1:-0.965057 2:-0.939501 
1 1:-0.965057 2:-0.939501 
1 1:-0.965057 2:-0.939501 
1 1:-0.965057 2:-0.939501 
1 1:-0.965057 2:-0.939501 
1 1:-0.965057 2:-0.939501 
1 1:-0.965057 2:-0.939501 
1 1:-0.965057 2:-0.939501 
1 1:-0.965057 2:-0.939501 
1 1:-0.965057 2:-0.939501 
1 1:-0.965057 2:-0.939501 
1 1:-0.965057 2:-0.939501 
1 1:-0.965057 2:-0.939501 
1 1:-0.965057 2:-0.939501 
1 1:-0.965057 2:-0.939501 
1 1:-0.965057 2:-0.939501 
1 1:-0.965057 2:-0.939501 
1 1:-0.965057 2:-0.939501 
1 1:-0.965057 2:-0.939501 
1 1:-0.965057 2:-0.939501 
1 1:-0.965057 2:-0.939501 
1 1:-0.965057 2:-0.939501 
1 1:-0.965057 2:-0.939501 
1 1:-0.965057 2:-0.939501 
1 1:-0.965057 2:-0.939501 
1 1:-0.965057 2:-0.939501 
1 1:-0.965057 2:-0.939501 
1 1:-0.965057 2:-0.939501 
1 1:-0.965057 2:-0.939501 
1 1:-0.965057 2:-0.939501 
1 1:-0.965057 2:-0.939501 
1 1:-0.965057 2:-0.939501 
1 1:-0.965057 2:-0.939501 
1 1:-0.965057 2:-0.939501 
1 1:-0.965057 2:-0.939501 
1 1:-0.965057 2:-0.939501 
1 1:-0.965057 2:-0.939501 
1 1:-0.965057 2:-0.939501 
1 1:-0.965057 2:-0.939501 
1 1:-0.965057 2:-0.939501 
1 1:-0.965057 2:-0.939501 
1 1:-0.965057 2:-0.939501 
1 1:-0.965057 2:-0.939501 
1 1:-0.965057 2:-0.939501 
1 1:-0.965057 2:-0.939501 
1 1:-0.965057 2:-0.939501 
1 1:-0.965057 2:-0.939501 
1 1:-0.965057 2:-0.939501 
1 1:-0.992834 2:-0.930001 
1 1:-0.992834 2:-0.930001 
1 1:-0.992834 2:-0.930001 
1 1:-0.992834 2:-0.930001 
1 1:-0.992834 2:-0.930001 
1 1:-0.992834 2:-0.930001 
1 1:-0.992834 2:-0.930001 
1 1:-0.992834 2:-0.930001 
1 1:-0.992834 2:-0.930001 
1 1:-0.992834 2:-0.930001 
1 1:-0.992834 2:-0.930001 
1 1:-0.992834 2:-0.930001 
1 1:-0.992834 2:-0.930001 
1 1:-0.992834 2:-0.930001 
1 1:-0.992834 2:-0.930001 
1 1:-0.992834 2:-0.930001 
1 1:-0.992834 2:-0.930001 
1 1:-0.992834 2:-0.930001 
1 1:-0.992834 2:-0.930001 
1 1:-0.992834 2:-0.930001 
1 1:-0.992834 2:-0.930001 
1 1:-0.992834 2:-0.930001 
1 1:-0.992834 2:-0.930001 
1 1:-0.992834 2:-0.930001 
1 1:-0.992834 2:-0.930001 
1 1:-0.992834 2:-0.930001 
1 1:-0.992834 2:-0.930001 
1 1:-0.992834 2:-0.930001 
1 1:-0.992834 2:-0.930001 
1 1:-0.992834 2:-0.930001 
1 1:-0.992834 2:-0.930001 
1 1:-0.992834 2:-0.930001 
1 1:-0.992834 2:-0.930001 
1 1:-0.992834 2:-0.930001 
1 1:-0.992834 2:-0.930001 
1 1:-0.992834 2:-0.930001 
1 1:-0.992834 2:-0.930001 
1 1:-0.992834 2:-0.930001 
1 1:-0.992834 2:-0.930001 
1 1:-0.992834 2:-0.930001 
1 1:-0.992834 2:-0.930001 
1 1:-0.992834 2:-0.930001 
1 1:-0.992834 2:-0.930001 
1 1:-0.992834 2:-0.930001 
1 1:-0.992834 2:-0.930001 
1 1:-0.992834 2:-0.930001 
1 1:-0.992834 2:-0.930001 
1 1:-0.992834 2:-0.930001 
1 1:-0.992834 2:-0.930001 
1 1:-0.992834 2:-0.930001 
1 1:-0.992834 2:-0.930001 
1 1:-0.992834 2:-0.930001 
1 1:-0.992834 2:-0.930001 
1 1:-0.992834 2:-0.930001 
1 1:-0.992834 2:-0.930001 
1 1:-0.992834 2:-0.930001 
1 1:-0.992834 2:-0.930001 
1 1:-0.992834 2:-0.930001 
1 1:-0.992834 2:-0.930001 
1 1:-0.992834 2:-0.930001 
1 1:-0.992834 2:-0.930001 
1 1:-0.992834 2:-0.930001 
1 1:-0.992834 2:-0.930001 
1 1:-0.992834 2:-0.930001 
1 1:-0.992834 2:-0.930001 
1 1:-0.992834 2:-0.930001 
1 1:-0.992834 2:-0.930001 
1 1:-0.992834 2:-0.930001 
1 1:-0.992834 2:-0.930001 
1 1:-0.992834 2:-0.930001 
1 1:-0.992834 2:-0.930001 
1 1:-0.992834 2:-0.930001 
1 1:-0.992834 2:-0.930001 
1 1:-0.992834 2:-0.930001 
1 1:-0.992834 2:-0.930001 
1 1:-0.992834 2:-0.930001 
1 1:-0.992834 2:-0.930001 
1 1:-0.992834 2:-0.930001 
1 1:-0.992834 2:-0.930001 
1 1:-0.992834 2:-0.930001 
1 1:-0.992834 2:-0.930001 
1 1:-0.992834 2:-0.930001 
1 1:-0.992834 2:-0.930001 
1 1:-0.992834 2:-0.930001 
1 1:-0.992834 2:-0.930001 
1 1:-0.992834 2:-0.930001 
1 1:-0.992834 2:-0.930001 
1 1:-0.992834 2:-0.930001 
1 1:-0.992834 2:-0.930001 
1 1:-0.992834 2:-0.930001 
1 1:-0.992834 2:-0.930001 
1 1:-0.992834 2:-0.930001 
1 1:-0.992834 2:-0.930001 
1 1:-0.992834 2:-0.930001 
1 1:-0.971531 2:-0.871179 
1 1:-0.971531 2:-0.871179 
1 1:-0.971531 2:-0.871179 
1 1:-0.971531 2:-0.871179 
1 1:-0.971531 2:-0.871179 
1 1:-0.971531 2:-0.871179 
1 1:-0.971531 2:-0.871179 
1 1:-0.971531 2:-0.871179 
1 1:-0.971531 2:-0.871179 
1 1:-0.971531 2:-0.871179 
1 1:-0.971531 2:-0.871179 
1 1:-0.971531 2:-0.871179 
1 1:-0.971531 2:-0.871179 
1 1:-0.971531 2:-0.871179 
1 1:-0.971531 2:-0.871179 
1 1:-0.971531 2:-0.871179 
1 1:-0.971531 2:-0.871179 
1 1:-0.971531 2:-0.871179 
1 1:-0.971531 2:-0.871179 
1 1:-0.971531 2:-0.871179 
1 1:-0.971531 2:-0.871179 
1 1:-0.971531 2:-0.871179 
1 1:-0.971531 2:-0.871179 
1 1:-0.971531 2:-0.871179 
1 1:-0.971531 2:-0.871179 
1 1:-0.971531 2:-0.871179 
1 1:-0.971531 2:-0.871179 
1 1:-0.971531 2:-0.871179 
1 1:-0.971531 2:-0.871179 
1 1:-0.971531 2:-0.871179 
1 1:-0.971531 2:-0.871179 
1 1:-0.971531 2:-0.871179 
1 1:-0.971531 2:-0.871179 
1 1:-0.971531 2:-0.871179 
1 1:-0.971531 2:-0.871179 
1 1:-0.971531 2:-0.871179 
1 1:-0.971531 2:-0.871179 
1 1:-0.971531 2:-0.871179 
1 1:-0.971531 2:-0.871179 
1 1:-0.971531 2:-0.871179 
1 1:-0.971531 2:-0.871179 
1 1:-0.971531 2:-0.871179 
1 1:-0.971531 2:-0.871179 
1 1:-0.971531 2:-0.871179 
1 1:-0.971531 2:-0.871179 
1 1:-0.971531 2:-0.871179 
1 1:-0.971531 2:-0.871179 
1 1:-0.971531 2:-0.871179 
1 1:-0.971531 2:-0.871179 
1 1:-0.971531 2:-0.871179 
1 1:-0.971531 2:-0.871179 
1 1:-0.971531 2:-0.871179 
1 1:-0.971531 2:-0.871179 
1 1:-0.971531 2:-0.871179 
1 1:-0.971531 2:-0.871179 
1 1:-0.971531 2:-0.871179 
1 1:-0.971531 2:-0.871179 
1 1:-0.971531 2:-0.871179 
1 1:-0.971531 2:-0.871179 
1 1:-0.971531 2:-0.871179 
1 1:-0.971531 2:-0.871179 
1 1:-0.971531 2:-0.871179 
1 1:-0.971531 2:-0.871179 
1 1:-0.971531 2:-0.871179 
1 1:-0.971531 2:-0.871179 
1 1:-0.971531 2:-0.871179 
1 1:-0.971531 2:-0.871179 
1 1:-0.971531 2:-0.871179 
1 1:-0.971531 2:-0.871179 
1 1:-0.971531 2:-0.871179 
1 1:-0.971531 2:-0.871179 
1 1:-0.971531 2:-0.871179 
1 1:-0.971531 2:-0.871179 
1 1:-0.971531 2:-0.871179 
1 1:-0.971531 2:-0.871179 
1 1:-0.971531 2:-0.871179 
1 1:-0.971531 2:-0.871179 
1 1:-0.971531 2:-0.871179 
1 1:-0.971531 2:-0.871179 
1 1:-0.971531 2:-0.871179 
1 1:-0.971531 2:-0.871179 
1 1:-0.971531 2:-0.871179 
1 1:-0.971531 2:-0.871179 
1 1:-0.971531 2:-0.871179 
1 1:-0.971531 2:-0.871179 
1 1:-0.971531 2:-0.871179 
1 1:-0.971531 2:-0.871179 
1 1:-0.971531 2:-0.871179 
1 1:-0.971531 2:-0.871179 
1 1:-0.971531 2:-0.871179 
1 1:-0.971531 2:-0.871179 
1 1:-0.971531 2:-0.871179 
1 1:-0.971531 2:-0.871179 
1 1:-0.971531 2:-0.871179 
1 1:-0.971531 2:-0.871179 
1 1:-0.753716 2:-0.904905 
1 1:-0.753716 2:-0.904905 
1 1:-0.753716 2:-0.904905 
1 1:-0.753716 2:-0.904905 
1 1:-0.753716 2:-0.904905 
1 1:-0.753716 2:-0.904905 
1 1:-0.753716 2:-0.904905 
1 1:-0.753716 2:-0.904905 
1 1:-0.753716 2:-0.904905 
1 1:-0.753716 2:-0.904905 
1 1:-0.753716 2:-0.904905 
1 1:-0.753716 2:-0.904905 
1 1:-0.753716 2:-0.904905 
1 1:-0.753716 2:-0.904905 
1 1:-0.753716 2:-0.904905 
1 1:-0.753716 2:-0.904905 
1 1:-0.753716 2:-0.904905 
1 1:-0.753716 2:-0.904905 
1 1:-0.753716 2:-0.904905 
1 1:-0.753716 2:-0.904905 
1 1:-0.753716 2:-0.904905 
1 1:-0.753716 2:-0.904905 
1 1:-0.753716 2:-0.904905 
1 1:-0.753716 2:-0.904905 
1 1:-0.753716 2:-0.904905 
1 1:-0.753716 2:-0.904905 
1 1:-0.753716 2:-0.904905 
1 1:-0.753716 2:-0.904905 
1 1:-0.753716 2:-0.904905 
1 1:-0.753716 2:-0.904905 
1 1:-0.753716 2:-0.904905 
1 1:-0.753716 2:-0.904905 
1 1:-0.753716 2:-0.904905 
1 1:-0.753716 2:-0.904905 
1 1:-0.753716 2:-0.904905 
1 1:-0.753716 2:-0.904905 
1 1:-0.753716 2:-0.904905 
1 1:-0.753716 2:-0.904905 
1 1:-0.753716 2:-0.904905 
1 1:-0.753716 2:-0.904905 
1 1:-0.753716 2:-0.904905 
1 1:-0.753716 2:-0.904905 
1 1:-0.753716 2:-0.904905 
1 1:-0.753716 2:-0.904905 
1 1:-0.753716 2:-0.904905 
1 1:-0.753716 2:-0.904905 
1 1:-0.753716 2:-0.904905 
1 1:-0.753716 2:-0.904905 
1 1:-0.753716 2:-0.904905 
1 1:-0.753716 2:-0.904905 
1 1:-0.753716 2:-0.904905 
1 1:-0.753716 2:-0.904905 
1 1:-0.753716 2:-0.904905 
1 1:-0.753716 2:-0.904905 
1 1:-0.753716 2:-0.904905 
1 1:-0.753716 2:-0.904905 
1 1:-0.753716 2:-0.904905 
1 1:-0.753716 2:-0.904905 
1 1:-0.753716 2:-0.904905 
1 1:-0.753716 2:-0.904905 
1 1:-0.753716 2:-0.904905 
1 1:-0.753716 2:-0.904905 
1 1:-0.753716 2:-0.904905 
1 1:-0.753716 2:-0.904905 
1 1:-0.753716 2:-0.904905 
1 1:-0.753716 2:-0.904905 
1 1:-0.753716 2:-0.904905 
1 1:-0.753716 2:-0.904905 
1 1:-0.753716 2:-0.904905 
1 1:-0.753716 2:-0.904905 
1 1:-0.753716 2:-0.904905 
1 1:-0.753716 2:-0.904905 
1 1:-0.753716 2:-0.904905 
1 1:-0.753716 2:-0.904905 
1 1:-0.753716 2:-0.904905 
1 1:-0.753716 2:-0.904905 
1 1:-0.753716 2:-0.904905 
1 1:-0.753716 2:-0.904905 
1 1:-0.753716 2:-0.904905 
1 1:-0.753716 2:-0.904905 
1 1:-0.753716 2:-0.904905 
1 1:-0.753716 2:-0.904905 
1 1:-0.753716 2:-0.904905 
1 1:-0.753716 2:-0.904905 
1 1:-0.753716 2:-0.904905 
1 1:-0.753716 2:-0.904905 
1 1:-0.753716 2:-0.904905 
1 1:-0.753716 2:-0.904905 
1 1:-0.753716 2:-0.904905 
1 1:-0.753716 2:-0.904905 
1 1:-0.753716 2:-0.904905 
1 1:-0.753716 2:-0.904905 
1 1:-0.753716 2:-0.904905 
1 1:-0.753716 2:-0.904905 
1 1:-0.753716 2:-0.904905 
1 1:-0.0673224 2:-0.78857 
1 1:-0.777623 2:-0.953129 
1 1:-0.0673224 2:-0.78857 
1 1:-0.777623 2:-0.953129 
1 1:-0.0673224 2:-0.78857 
1 1:-0.777623 2:-0.953129 
1 1:-0.0673224 2:-0.78857 
1 1:-0.777623 2:-0.953129 
1 1:-0.0673224 2:-0.78857 
1 1:-0.777623 2:-0.953129 
1 1:-0.0673224 2:-0.78857 
1 1:-0.777623 2:-0.953129 
1 1:-0.0673224 2:-0.78857 
1 1:-0.777623 2:-0.953129 
1 1:-0.0673224 2:-0.78857 
1 1:-0.777623 2:-0.953129 
1 1:-0.0673224 2:-0.78857 
1 1:-0.777623 2:-0.953129 
1 1:-0.0673224 2:-0.78857 
1 1:-0.777623 2:-0.953129 
1 1:-0.0673224 2:-0.78857 
1 1:-0.777623 2:-0.953129 
1 1:-0.0673224 2:-0.78857 
1 1:-0.777623 2:-0.953129 
1 1:-0.0673224 2:-0.78857 
1 1:-0.777623 2:-0.953129 
1 1:-0.0673224 2:-0.78857 
1 1:-0.777623 2:-0.953129 
1 1:-0.0673224 2:-0.78857 
1 1:-0.777623 2:-0.953129 
1 1:-0.0673224 2:-0.78857 
1 1:-0.777623 2:-0.953129 
1 1:-0.0673224 2:-0.78857 
1 1:-0.777623 2:-0.953129 
1 1:-0.0673224 2:-0.78857 
1 1:-0.777623 2:-0.953129 
1 1:-0.0673224 2:-0.78857 
1 1:-0.777623 2:-0.953129 
1 1:-0.0673224 2:-0.78857 
1 1:-0.777623 2:-0.953129 
1 1:-0.0673224 2:-0.78857 
1 1:-0.777623 2:-0.953129 
1 1:-0.0673224 2:-0.78857 
1 1:-0.777623 2:-0.953129 
1 1:-0.0673224 2:-0.78857 
1 1:-0.777623 2:-0.953129 
1 1:-0.0673224 2:-0.78857 
1 1:-0.777623 2:-0.953129 
1 1:-0.0673224 2:-0.78857 
1 1:-0.777623 2:-0.953129 
1 1:-0.0673224 2:-0.78857 
1 1:-0.777623 2:-0.953129 
1 1:-0.0673224 2:-0.78857 
1 1:-0.777623 2:-0.953129 
1 1:-0.0673224 2:-0.78857 
1 1:-0.777623 2:-0.953129 
1 1:-0.0673224 2:-0.78857 
1 1:-0.777623 2:-0.953129 
1 1:-0.0673224 2:-0.78857 
1 1:-0.777623 2:-0.953129 
1 1:-0.0673224 2:-0.78857 
1 1:-0.777623 2:-0.953129 
1 1:-0.0673224 2:-0.78857 
1 1:-0.777623 2:-0.953129 
1 1:-0.0673224 2:-0.78857 
1 1:-0.777623 2:-0.953129 
1 1:-0.0673224 2:-0.78857 
1 1:-0.777623 2:-0.953129 
1 1:-0.0673224 2:-0.78857 
1 1:-0.777623 2:-0.953129 
1 1:-0.0673224 2:-0.78857 
1 1:-0.777623 2:-0.953129 
1 1:-0.0673224 2:-0.78857 
1 1:-0.777623 2:-0.953129 
1 1:-0.0673224 2:-0.78857 
1 1:-0.777623 2:-0.953129 
1 1:-0.0673224 2:-0.78857 
1 1:-0.777623 2:-0.953129 
1 1:-0.0673224 2:-0.78857 
1 1:-0.777623 2:-0.953129 
1 1:-0.0673224 2:-0.78857 
1 1:-0.777623 2:-0.953129 
1 1:-0.0673224 2:-0.78857 
1 1:-0.777623 2:-0.953129 
1 1:-0.0673224 2:-0.78857 
1 1:-0.777623 2:-0.953129 
1 1:-0.0673224 2:-0.78857 
1 1:-0.777623 2:-0.953129 
1 1:-0.0673224 2:-0.78857 
1 1:-0.777623 2:-0.953129 
1 1:-0.0673224 2:-0.78857 
1 1:-0.777623 2:-0.953129 
1 1:-0.0673224 2:-0.78857 
1 1:-0.777623 2:-0.953129 
1 1:-0.0673224 2:-0.78857 
1 1:-0.777623 2:-0.953129 
1 1:-0.0673224 2:-0.78857 
1 1:-0.777623 2:-0.953129 
1 1:-0.0673224 2:-0.78857 
1 1:-0.777623 2:-0.953129 
1 1:-0.0673224 2:-0.78857 
1 1:-0.777623 2:-0.953129 
1 1:-0.0673224 2:-0.78857 
1 1:-0.777623 2:-0.953129 
1 1:-0.0673224 2:-0.78857 
1 1:-0.777623 2:-0.953129 
1 1:-0.0673224 2:-0.78857 
1 1:-0.777623 2:-0.953129 
1 1:-0.0673224 2:-0.78857 
1 1:-0.777623 2:-0.953129 
1 1:-0.0673224 2:-0.78857 
1 1:-0.777623 2:-0.953129 
1 1:-0.0673224 2:-0.78857 
1 1:-0.777623 2:-0.953129 
1 1:-0.0673224 2:-0.78857 
1 1:-0.777623 2:-0.953129 
1 1:-0.0673224 2:-0.78857 
1 1:-0.777623 2:-0.953129 
1 1:-0.0673224 2:-0.78857 
1 1:-0.777623 2:-0.953129 
1 1:-0.0673224 2:-0.78857 
1 1:-0.777623 2:-0.953129 
1 1:-0.0673224 2:-0.78857 
1 1:-0.777623 2:-0.953129 
1 1:-0.0673224 2:-0.78857 
1 1:-0.777623 2:-0.953129 
1 1:-0.0673224 2:-0.78857 
1 1:-0.777623 2:-0.953129 
1 1:-0.0673224 2:-0.78857 
1 1:-0.777623 2:-0.953129 
1 1:-0.0673224 2:-0.78857 
1 1:-0.777623 2:-0.953129 
1 1:-0.0673224 2:-0.78857 
1 1:-0.777623 2:-0.953129 
1 1:-0.0673224 2:-0.78857 
1 1:-0.777623 2:-0.953129 
1 1:-0.0673224 2:-0.78857 
1 1:-0.777623 2:-0.953129 
1 1:-0.0673224 2:-0.78857 
1 1:-0.777623 2:-0.953129 
1 1:-0.0673224 2:-0.78857 
1 1:-0.777623 2:-0.953129 
1 1:-0.0673224 2:-0.78857 
1 1:-0.777623 2:-0.953129 
1 1:-0.0673224 2:-0.78857 
1 1:-0.777623 2:-0.953129 
1 1:-0.0673224 2:-0.78857 
1 1:-0.777623 2:-0.953129 
1 1:-0.0673224 2:-0.78857 
1 1:-0.777623 2:-0.953129 
1 1:-0.0673224 2:-0.78857 
1 1:-0.777623 2:-0.953129 
1 1:-0.0673224 2:-0.78857 
1 1:-0.777623 2:-0.953129 
1 1:-0.0673224 2:-0.78857 
1 1:-0.777623 2:-0.953129 
1 1:-0.0673224 2:-0.78857 
1 1:-0.777623 2:-0.953129 
1 1:-0.0673224 2:-0.78857 
1 1:-0.777623 2:-0.953129 
1 1:-0.0673224 2:-0.78857 
1 1:-0.777623 2:-0.953129 
1 1:-0.0673224 2:-0.78857 
1 1:-0.777623 2:-0.953129 
1 1:-0.0673224 2:-0.78857 
1 1:-0.777623 2:-0.953129 
1 1:-0.0673224 2:-0.78857 
1 1:-0.777623 2:-0.953129 
1 1:-0.0673224 2:-0.78857 
1 1:-0.777623 2:-0.953129 
1 1:-0.0673224 2:-0.78857 
1 1:-0.777623 2:-0.953129 
1 1:-0.0673224 2:-0.78857 
1 1:-0.777623 2:-0.953129 
1 1:-0.0673224 2:-0.78857 
1 1:-0.777623 2:-0.953129 
1 1:-0.0673224 2:-0.78857 
1 1:-0.777623 2:-0.953129 
1 1:-0.0673224 2:-0.78857 
1 1:-0.777623 2:-0.953129 
1 1:-0.0673224 2:-0.78857 
1 1:-0.777623 2:-0.953129 
1 1:-0.0673224 2:-0.78857 
1 1:-0.777623 2:-0.953129 
1 1:-0.0673224 2:-0.78857 
1 1:-0.777623 2:-0.953129 
1 1:-0.0673224 2:-0.78857 
1 1:-0.777623 2:-0.953129 
1 1:-0.0673224 2:-0.78857 
1 1:-0.777623 2:-0.953129 
1 1:-0.957648 2:-0.920997 
1 1:-0.957648 2:-0.920997 
1 1:-0.957648 2:-0.920997 
1 1:-0.957648 2:-0.920997 
1 1:-0.957648 2:-0.920997 
1 1:-0.957648 2:-0.920997 
1 1:-0.957648 2:-0.920997 
1 1:-0.957648 2:-0.920997 
1 1:-0.957648 2:-0.920997 
1 1:-0.957648 2:-0.920997 
1 1:-0.957648 2:-0.920997 
1 1:-0.957648 2:-0.920997 
1 1:-0.957648 2:-0.920997 
1 1:-0.957648 2:-0.920997 
1 1:-0.957648 2:-0.920997 
1 1:-0.957648 2:-0.920997 
1 1:-0.957648 2:-0.920997 
1 1:-0.957648 2:-0.920997 
1 1:-0.957648 2:-0.920997 
1 1:-0.957648 2:-0.920997 
1 1:-0.957648 2:-0.920997 
1 1:-0.957648 2:-0.920997 
1 1:-0.957648 2:-0.920997 
1 1:-0.957648 2:-0.920997 
1 1:-0.957648 2:-0.920997 
1 1:-0.957648 2:-0.920997 
1 1:-0.957648 2:-0.920997 
1 1:-0.957648 2:-0.920997 
1 1:-0.957648 2:-0.920997 
1 1:-0.957648 2:-0.920997 
1 1:-0.957648 2:-0.920997 
1 1:-0.957648 2:-0.920997 
1 1:-0.957648 2:-0.920997 
1 1:-0.957648 2:-0.920997 
1 1:-0.957648 2:-0.920997 
1 1:-0.957648 2:-0.920997 
1 1:-0.957648 2:-0.920997 
1 1:-0.957648 2:-0.920997 
1 1:-0.957648 2:-0.920997 
1 1:-0.957648 2:-0.920997 
1 1:-0.957648 2:-0.920997 
1 1:-0.957648 2:-0.920997 
1 1:-0.957648 2:-0.920997 
1 1:-0.957648 2:-0.920997 
1 1:-0.957648 2:-0.920997 
1 1:-0.957648 2:-0.920997 
1 1:-0.957648 2:-0.920997 
1 1:-0.957648 2:-0.920997 
1 1:-0.957648 2:-0.920997 
1 1:-0.957648 2:-0.920997 
1 1:-0.957648 2:-0.920997 
1 1:-0.957648 2:-0.920997 
1 1:-0.957648 2:-0.920997 
1 1:-0.957648 2:-0.920997 
1 1:-0.957648 2:-0.920997 
1 1:-0.957648 2:-0.920997 
1 1:-0.957648 2:-0.920997 
1 1:-0.957648 2:-0.920997 
1 1:-0.957648 2:-0.920997 
1 1:-0.957648 2:-0.920997 
1 1:-0.957648 2:-0.920997 
1 1:-0.957648 2:-0.920997 
1 1:-0.957648 2:-0.920997 
1 1:-0.957648 2:-0.920997 
1 1:-0.957648 2:-0.920997 
1 1:-0.957648 2:-0.920997 
1 1:-0.957648 2:-0.920997 
1 1:-0.957648 2:-0.920997 
1 1:-0.957648 2:-0.920997 
1 1:-0.957648 2:-0.920997 
1 1:-0.957648 2:-0.920997 
1 1:-0.957648 2:-0.920997 
1 1:-0.957648 2:-0.920997 
1 1:-0.957648 2:-0.920997 
1 1:-0.957648 2:-0.920997 
1 1:-0.957648 2:-0.920997 
1 1:-0.957648 2:-0.920997 
1 1:-0.957648 2:-0.920997 
1 1:-0.957648 2:-0.920997 
1 1:-0.957648 2:-0.920997 
1 1:-0.957648 2:-0.920997 
1 1:-0.957648 2:-0.920997 
1 1:-0.957648 2:-0.920997 
1 1:-0.957648 2:-0.920997 
1 1:-0.957648 2:-0.920997 
1 1:-0.957648 2:-0.920997 
1 1:-0.957648 2:-0.920997 
1 1:-0.957648 2:-0.920997 
1 1:-0.957648 2:-0.920997 
1 1:-0.957648 2:-0.920997 
1 1:-0.957648 2:-0.920997 
1 1:-0.957648 2:-0.920997 
1 1:-0.957648 2:-0.920997 
1 1:-0.957648 2:-0.920997 
1 1:0.19635 2:-0.637579 
1 1:-0.90972 2:-0.931227 
1 1:0.19635 2:-0.637579 
1 1:-0.90972 2:-0.931227 
1 1:0.19635 2:-0.637579 
1 1:-0.90972 2:-0.931227 
1 1:0.19635 2:-0.637579 
1 1:-0.90972 2:-0.931227 
1 1:0.19635 2:-0.637579 
1 1:-0.90972 2:-0.931227 
1 1:0.19635 2:-0.637579 
1 1:-0.90972 2:-0.931227 
1 1:0.19635 2:-0.637579 
1 1:-0.90972 2:-0.931227 
1 1:0.19635 2:-0.637579 
1 1:-0.90972 2:-0.931227 
1 1:0.19635 2:-0.637579 
1 1:-0.90972 2:-0.931227 
1 1:0.19635 2:-0.637579 
1 1:-0.90972 2:-0.931227 
1 1:0.19635 2:-0.637579 
1 1:-0.90972 2:-0.931227 
1 1:0.19635 2:-0.637579 
1 1:-0.90972 2:-0.931227 
1 1:0.19635 2:-0.637579 
1 1:-0.90972 2:-0.931227 
1 1:0.19635 2:-0.637579 
1 1:-0.90972 2:-0.931227 
1 1:0.19635 2:-0.637579 
1 1:-0.90972 2:-0.931227 
1 1:0.19635 2:-0.637579 
1 1:-0.90972 2:-0.931227 
1 1:0.19635 2:-0.637579 
1 1:-0.90972 2:-0.931227 
1 1:0.19635 2:-0.637579 
1 1:-0.90972 2:-0.931227 
1 1:0.19635 2:-0.637579 
1 1:-0.90972 2:-0.931227 
1 1:0.19635 2:-0.637579 
1 1:-0.90972 2:-0.931227 
1 1:0.19635 2:-0.637579 
1 1:-0.90972 2:-0.931227 
1 1:0.19635 2:-0.637579 
1 1:-0.90972 2:-0.931227 
1 1:0.19635 2:-0.637579 
1 1:-0.90972 2:-0.931227 
1 1:0.19635 2:-0.637579 
1 1:-0.90972 2:-0.931227 
1 1:0.19635 2:-0.637579 
1 1:-0.90972 2:-0.931227 
1 1:0.19635 2:-0.637579 
1 1:-0.90972 2:-0.931227 
1 1:0.19635 2:-0.637579 
1 1:-0.90972 2:-0.931227 
1 1:0.19635 2:-0.637579 
1 1:-0.90972 2:-0.931227 
1 1:0.19635 2:-0.637579 
1 1:-0.90972 2:-0.931227 
1 1:0.19635 2:-0.637579 
1 1:-0.90972 2:-0.931227 
1 1:0.19635 2:-0.637579 
1 1:-0.90972 2:-0.931227 
1 1:0.19635 2:-0.637579 
1 1:-0.90972 2:-0.931227 
1 1:0.19635 2:-0.637579 
1 1:-0.90972 2:-0.931227 
1 1:0.19635 2:-0.637579 
1 1:-0.90972 2:-0.931227 
1 1:0.19635 2:-0.637579 
1 1:-0.90972 2:-0.931227 
1 1:0.19635 2:-0.637579 
1 1:-0.90972 2:-0.931227 
1 1:0.19635 2:-0.637579 
1 1:-0.90972 2:-0.931227 
1 1:0.19635 2:-0.637579 
1 1:-0.90972 2:-0.931227 
1 1:0.19635 2:-0.637579 
1 1:-0.90972 2:-0.931227 
1 1:0.19635 2:-0.637579 
1 1:-0.90972 2:-0.931227 
1 1:0.19635 2:-0.637579 
1 1:-0.90972 2:-0.931227 
1 1:0.19635 2:-0.637579 
1 1:-0.90972 2:-0.931227 
1 1:0.19635 2:-0.637579 
1 1:-0.90972 2:-0.931227 
1 1:0.19635 2:-0.637579 
1 1:-0.90972 2:-0.931227 
1 1:0.19635 2:-0.637579 
1 1:-0.90972 2:-0.931227 
1 1:0.19635 2:-0.637579 
1 1:-0.90972 2:-0.931227 
1 1:0.19635 2:-0.637579 
1 1:-0.90972 2:-0.931227 
1 1:0.19635 2:-0.637579 
1 1:-0.90972 2:-0.931227 
1 1:0.19635 2:-0.637579 
1 1:-0.90972 2:-0.931227 
1 1:0.19635 2:-0.637579 
1 1:-0.90972 2:-0.931227 
1 1:0.19635 2:-0.637579 
1 1:-0.90972 2:-0.931227 
1 1:0.19635 2:-0.637579 
1 1:-0.90972 2:-0.931227 
1 1:0.19635 2:-0.637579 
1 1:-0.90972 2:-0.931227 
1 1:0.19635 2:-0.637579 
1 1:-0.90972 2:-0.931227 
1 1:0.19635 2:-0.637579 
1 1:-0.90972 2:-0.931227 
1 1:0.19635 2:-0.637579 
1 1:-0.90972 2:-0.931227 
1 1:0.19635 2:-0.637579 
1 1:-0.90972 2:-0.931227 
1 1:0.19635 2:-0.637579 
1 1:-0.90972 2:-0.931227 
1 1:0.19635 2:-0.637579 
1 1:-0.90972 2:-0.931227 
1 1:0.19635 2:-0.637579 
1 1:-0.90972 2:-0.931227 
1 1:0.19635 2:-0.637579 
1 1:-0.90972 2:-0.931227 
1 1:0.19635 2:-0.637579 
1 1:-0.90972 2:-0.931227 
1 1:0.19635 2:-0.637579 
1 1:-0.90972 2:-0.931227 
1 1:0.19635 2:-0.637579 
1 1:-0.90972 2:-0.931227 
1 1:0.19635 2:-0.637579 
1 1:-0.90972 2:-0.931227 
1 1:0.19635 2:-0.637579 
1 1:-0.90972 2:-0.931227 
1 1:0.19635 2:-0.637579 
1 1:-0.90972 2:-0.931227 
1 1:0.19635 2:-0.637579 
1 1:-0.90972 2:-0.931227 
1 1:0.19635 2:-0.637579 
1 1:-0.90972 2:-0.931227 
1 1:0.19635 2:-0.637579 
1 1:-0.90972 2:-0.931227 
1 1:0.19635 2:-0.637579 
1 1:-0.90972 2:-0.931227 
1 1:0.19635 2:-0.637579 
1 1:-0.90972 2:-0.931227 
1 1:0.19635 2:-0.637579 
1 1:-0.90972 2:-0.931227 
1 1:0.19635 2:-0.637579 
1 1:-0.90972 2:-0.931227 
1 1:0.19635 2:-0.637579 
1 1:-0.90972 2:-0.931227 
1 1:0.19635 2:-0.637579 
1 1:-0.90972 2:-0.931227 
1 1:0.19635 2:-0.637579 
1 1:-0.90972 2:-0.931227 
1 1:0.19635 2:-0.637579 
1 1:-0.90972 2:-0.931227 
1 1:0.19635 2:-0.637579 
1 1:-0.90972 2:-0.931227 
1 1:0.19635 2:-0.637579 
1 1:-0.90972 2:-0.931227 
1 1:0.19635 2:-0.637579 
1 1:-0.90972 2:-0.931227 
1 1:0.19635 2:-0.637579 
1 1:-0.90972 2:-0.931227 
1 1:0.19635 2:-0.637579 
1 1:-0.90972 2:-0.931227 
1 1:0.19635 2:-0.637579 
1 1:-0.90972 2:-0.931227 
1 1:0.19635 2:-0.637579 
1 1:-0.90972 2:-0.931227 
1 1:0.19635 2:-0.637579 
1 1:-0.90972 2:-0.931227 
1 1:0.19635 2:-0.637579 
1 1:-0.90972 2:-0.931227 
1 1:0.19635 2:-0.637579 
1 1:-0.90972 2:-0.931227 
1 1:0.19635 2:-0.637579 
1 1:-0.90972 2:-0.931227 
1 1:0.19635 2:-0.637579 
1 1:-0.90972 2:-0.931227 
1 1:0.19635 2:-0.637579 
1 1:-0.90972 2:-0.931227 
1 1:0.19635 2:-0.637579 
1 1:-0.90972 2:-0.931227 
1 1:0.19635 2:-0.637579 
1 1:-0.90972 2:-0.931227 
1 1:0.19635 2:-0.637579 
1 1:-0.90972 2:-0.931227 
1 1:0.19635 2:-0.637579 
1 1:-0.90972 2:-0.931227 
1 1:0.19635 2:-0.637579 
1 1:-0.90972 2:-0.931227 
1 1:-0.853418 2:-1 
1 1:-0.853418 2:-1 
1 1:-0.853418 2:-1 
1 1:-0.853418 2:-1 
1 1:-0.853418 2:-1 
1 1:-0.853418 2:-1 
1 1:-0.853418 2:-1 
1 1:-0.853418 2:-1 
1 1:-0.853418 2:-1 
1 1:-0.853418 2:-1 
1 1:-0.853418 2:-1 
1 1:-0.853418 2:-1 
1 1:-0.853418 2:-1 
1 1:-0.853418 2:-1 
1 1:-0.853418 2:-1 
1 1:-0.853418 2:-1 
1 1:-0.853418 2:-1 
1 1:-0.853418 2:-1 
1 1:-0.853418 2:-1 
1 1:-0.853418 2:-1 
1 1:-0.853418 2:-1 
1 1:-0.853418 2:-1 
1 1:-0.853418 2:-1 
1 1:-0.853418 2:-1 
1 1:-0.853418 2:-1 
1 1:-0.853418 2:-1 
1 1:-0.853418 2:-1 
1 1:-0.853418 2:-1 
1 1:-0.853418 2:-1 
1 1:-0.853418 2:-1 
1 1:-0.853418 2:-1 
1 1:-0.853418 2:-1 
1 1:-0.853418 2:-1 
1 1:-0.853418 2:-1 
1 1:-0.853418 2:-1 
1 1:-0.853418 2:-1 
1 1:-0.853418 2:-1 
1 1:-0.853418 2:-1 
1 1:-0.853418 2:-1 
1 1:-0.853418 2:-1 
1 1:-0.853418 2:-1 
1 1:-0.853418 2:-1 
1 1:-0.853418 2:-1 
1 1:-0.853418 2:-1 
1 1:-0.853418 2:-1 
1 1:-0.853418 2:-1 
1 1:-0.853418 2:-1 
1 1:-0.853418 2:-1 
1 1:-0.853418 2:-1 
1 1:-0.853418 2:-1 
1 1:-0.853418 2:-1 
1 1:-0.853418 2:-1 
1 1:-0.853418 2:-1 
1 1:-0.853418 2:-1 
1 1:-0.853418 2:-1 
1 1:-0.853418 2:-1 
1 1:-0.853418 2:-1 
1 1:-0.853418 2:-1 
1 1:-0.853418 2:-1 
1 1:-0.853418 2:-1 
1 1:-0.853418 2:-1 
1 1:-0.853418 2:-1 
1 1:-0.853418 2:-1 
1 1:-0.853418 2:-1 
1 1:-0.853418 2:-1 
1 1:-0.853418 2:-1 
1 1:-0.853418 2:-1 
1 1:-0.853418 2:-1 
1 1:-0.853418 2:-1 
1 1:-0.853418 2:-1 
1 1:-0.853418 2:-1 
1 1:-0.853418 2:-1 
1 1:-0.853418 2:-1 
1 1:-0.853418 2:-1 
1 1:-0.853418 2:-1 
1 1:-0.853418 2:-1 
1 1:-0.853418 2:-1 
1 1:-0.853418 2:-1 
1 1:-0.853418 2:-1 
1 1:-0.853418 2:-1 
1 1:-0.853418 2:-1 
1 1:-0.853418 2:-1 
1 1:-0.853418 2:-1 
1 1:-0.853418 2:-1 
1 1:-0.853418 2:-1 
1 1:-0.853418 2:-1 
1 1:-0.853418 2:-1 
1 1:-0.853418 2:-1 
1 1:-0.853418 2:-1 
1 1:-0.853418 2:-1 
1 1:-0.853418 2:-1 
1 1:-0.853418 2:-1 
1 1:-0.853418 2:-1 
1 1:-0.930658 2:-0.998121 
1 1:-0.930658 2:-0.998121 
1 1:-0.930658 2:-0.998121 
1 1:-0.930658 2:-0.998121 
1 1:-0.930658 2:-0.998121 
1 1:-0.930658 2:-0.998121 
1 1:-0.930658 2:-0.998121 
1 1:-0.930658 2:-0.998121 
1 1:-0.930658 2:-0.998121 
1 1:-0.930658 2:-0.998121 
1 1:-0.930658 2:-0.998121 
1 1:-0.930658 2:-0.998121 
1 1:-0.930658 2:-0.998121 
1 1:-0.930658 2:-0.998121 
1 1:-0.930658 2:-0.998121 
1 1:-0.930658 2:-0.998121 
1 1:-0.930658 2:-0.998121 
1 1:-0.930658 2:-0.998121 
1 1:-0.930658 2:-0.998121 
1 1:-0.930658 2:-0.998121 
1 1:-0.930658 2:-0.998121 
1 1:-0.930658 2:-0.998121 
1 1:-0.930658 2:-0.998121 
1 1:-0.930658 2:-0.998121 
1 1:-0.930658 2:-0.998121 
1 1:-0.930658 2:-0.998121 
1 1:-0.930658 2:-0.998121 
1 1:-0.930658 2:-0.998121 
1 1:-0.930658 2:-0.998121 
1 1:-0.930658 2:-0.998121 
1 1:-0.930658 2:-0.998121 
1 1:-0.930658 2:-0.998121 
1 1:-0.930658 2:-0.998121 
1 1:-0.930658 2:-0.998121 
1 1:-0.930658 2:-0.998121 
1 1:-0.930658 2:-0.998121 
1 1:-0.930658 2:-0.998121 
1 1:-0.930658 2:-0.998121 
1 1:-0.930658 2:-0.998121 
1 1:-0.930658 2:-0.998121 
1 1:-0.930658 2:-0.998121 
1 1:-0.930658 2:-0.998121 
1 1:-0.930658 2:-0.998121 
1 1:-0.930658 2:-0.998121 
1 1:-0.930658 2:-0.998121 
1 1:-0.930658 2:-0.998121 
1 1:-0.930658 2:-0.998121 
1 1:-0.930658 2:-0.998121 
1 1:-0.930658 2:-0.998121 
1 1:-0.930658 2:-0.998121 
1 1:-0.930658 2:-0.998121 
1 1:-0.930658 2:-0.998121 
1 1:-0.930658 2:-0.998121 
1 1:-0.930658 2:-0.998121 
1 1:-0.930658 2:-0.998121 
1 1:-0.930658 2:-0.998121 
1 1:-0.930658 2:-0.998121 
1 1:-0.930658 2:-0.998121 
1 1:-0.930658 2:-0.998121 
1 1:-0.930658 2:-0.998121 
1 1:-0.930658 2:-0.998121 
1 1:-0.930658 2:-0.998121 
1 1:-0.930658 2:-0.998121 
1 1:-0.930658 2:-0.998121 
1 1:-0.930658 2:-0.998121 
1 1:-0.930658 2:-0.998121 
1 1:-0.930658 2:-0.998121 
1 1:-0.930658 2:-0.998121 
1 1:-0.930658 2:-0.998121 
1 1:-0.930658 2:-0.998121 
1 1:-0.930658 2:-0.998121 
1 1:-0.930658 2:-0.998121 
1 1:-0.930658 2:-0.998121 
1 1:-0.930658 2:-0.998121 
1 1:-0.930658 2:-0.998121 
1 1:-0.930658 2:-0.998121 
1 1:-0.930658 2:-0.998121 
1 1:-0.930658 2:-0.998121 
1 1:-0.930658 2:-0.998121 
1 1:-0.930658 2:-0.998121 
1 1:-0.930658 2:-0.998121 
1 1:-0.930658 2:-0.998121 
1 1:-0.930658 2:-0.998121 
1 1:-0.930658 2:-0.998121 
1 1:-0.930658 2:-0.998121 
1 1:-0.930658 2:-0.998121 
1 1:-0.930658 2:-0.998121 
1 1:-0.930658 2:-0.998121 
1 1:-0.930658 2:-0.998121 
1 1:-0.930658 2:-0.998121 
1 1:-0.930658 2:-0.998121 
1 1:-0.930658 2:-0.998121 
1 1:-0.930658 2:-0.998121 
1 1:-0.930658 2:-0.998121 
1 1:-0.930658 2:-0.998121 
1 1:-0.917358 2:-0.934758 
1 1:-0.917358 2:-0.934758 
1 1:-0.917358 2:-0.934758 
1 1:-0.917358 2:-0.934758 
1 1:-0.917358 2:-0.934758 
1 1:-0.917358 2:-0.934758 
1 1:-0.917358 2:-0.934758 
1 1:-0.917358 2:-0.934758 
1 1:-0.917358 2:-0.934758 
1 1:-0.917358 2:-0.934758 
1 1:-0.917358 2:-0.934758 
1 1:-0.917358 2:-0.934758 
1 1:-0.917358 2:-0.934758 
1 1:-0.917358 2:-0.934758 
1 1:-0.917358 2:-0.934758 
1 1:-0.917358 2:-0.934758 
1 1:-0.917358 2:-0.934758 
1 1:-0.917358 2:-0.934758 
1 1:-0.917358 2:-0.934758 
1 1:-0.917358 2:-0.934758 
1 1:-0.917358 2:-0.934758 
1 1:-0.917358 2:-0.934758 
1 1:-0.917358 2:-0.934758 
1 1:-0.917358 2:-0.934758 
1 1:-0.917358 2:-0.934758 
1 1:-0.917358 2:-0.934758 
1 1:-0.917358 2:-0.934758 
1 1:-0.917358 2:-0.934758 
1 1:-0.917358 2:-0.934758 
1 1:-0.917358 2:-0.934758 
1 1:-0.917358 2:-0.934758 
1 1:-0.917358 2:-0.934758 
1 1:-0.917358 2:-0.934758 
1 1:-0.917358 2:-0.934758 
1 1:-0.917358 2:-0.934758 
1 1:-0.917358 2:-0.934758 
1 1:-0.917358 2:-0.934758 
1 1:-0.917358 2:-0.934758 
1 1:-0.917358 2:-0.934758 
1 1:-0.917358 2:-0.934758 
1 1:-0.917358 2:-0.934758 
1 1:-0.917358 2:-0.934758 
1 1:-0.917358 2:-0.934758 
1 1:-0.917358 2:-0.934758 
1 1:-0.917358 2:-0.934758 
1 1:-0.917358 2:-0.934758 
1 1:-0.917358 2:-0.934758 
1 1:-0.917358 2:-0.934758 
1 1:-0.917358 2:-0.934758 
1 1:-0.917358 2:-0.934758 
1 1:-0.917358 2:-0.934758 
1 1:-0.917358 2:-0.934758 
1 1:-0.917358 2:-0.934758 
1 1:-0.917358 2:-0.934758 
1 1:-0.917358 2:-0.934758 
1 1:-0.917358 2:-0.934758 
1 1:-0.917358 2:-0.934758 
1 1:-0.917358 2:-0.934758 
1 1:-0.917358 2:-0.934758 
1 1:-0.917358 2:-0.934758 
1 1:-0.917358 2:-0.934758 
1 1:-0.917358 2:-0.934758 
1 1:-0.917358 2:-0.934758 
1 1:-0.917358 2:-0.934758 
1 1:-0.917358 2:-0.934758 
1 1:-0.917358 2:-0.934758 
1 1:-0.917358 2:-0.934758 
1 1:-0.917358 2:-0.934758 
1 1:-0.917358 2:-0.934758 
1 1:-0.917358 2:-0.934758 
1 1:-0.917358 2:-0.934758 
1 1:-0.917358 2:-0.934758 
1 1:-0.917358 2:-0.934758 
1 1:-0.917358 2:-0.934758 
1 1:-0.917358 2:-0.934758 
1 1:-0.917358 2:-0.934758 
1 1:-0.917358 2:-0.934758 
1 1:-0.917358 2:-0.934758 
1 1:-0.917358 2:-0.934758 
1 1:-0.917358 2:-0.934758 
1 1:-0.917358 2:-0.934758 
1 1:-0.917358 2:-0.934758 
1 1:-0.917358 2:-0.934758 
1 1:-0.917358 2:-0.934758 
1 1:-0.917358 2:-0.934758 
1 1:-0.917358 2:-0.934758 
1 1:-0.917358 2:-0.934758 
1 1:-0.917358 2:-0.934758 
1 1:-0.917358 2:-0.934758 
1 1:-0.917358 2:-0.934758 
1 1:-0.917358 2:-0.934758 
1 1:-0.917358 2:-0.934758 
1 1:-0.917358 2:-0.934758 
1 1:-0.917358 2:-0.934758 
1 1:-0.917358 2:-0.934758 
1 1:-0.884862 2:-0.915096 
1 1:-0.884862 2:-0.915096 
1 1:-0.884862 2:-0.915096 
1 1:-0.884862 2:-0.915096 
1 1:-0.884862 2:-0.915096 
1 1:-0.884862 2:-0.915096 
1 1:-0.884862 2:-0.915096 
1 1:-0.884862 2:-0.915096 
1 1:-0.884862 2:-0.915096 
1 1:-0.884862 2:-0.915096 
1 1:-0.884862 2:-0.915096 
1 1:-0.884862 2:-0.915096 
1 1:-0.884862 2:-0.915096 
1 1:-0.884862 2:-0.915096 
1 1:-0.884862 2:-0.915096 
1 1:-0.884862 2:-0.915096 
1 1:-0.884862 2:-0.915096 
1 1:-0.884862 2:-0.915096 
1 1:-0.884862 2:-0.915096 
1 1:-0.884862 2:-0.915096 
1 1:-0.884862 2:-0.915096 
1 1:-0.884862 2:-0.915096 
1 1:-0.884862 2:-0.915096 
1 1:-0.884862 2:-0.915096 
1 1:-0.884862 2:-0.915096 
1 1:-0.884862 2:-0.915096 
1 1:-0.884862 2:-0.915096 
1 1:-0.884862 2:-0.915096 
1 1:-0.884862 2:-0.915096 
1 1:-0.884862 2:-0.915096 
1 1:-0.884862 2:-0.915096 
1 1:-0.884862 2:-0.915096 
1 1:-0.884862 2:-0.915096 
1 1:-0.884862 2:-0.915096 
1 1:-0.884862 2:-0.915096 
1 1:-0.884862 2:-0.915096 
1 1:-0.884862 2:-0.915096 
1 1:-0.884862 2:-0.915096 
1 1:-0.884862 2:-0.915096 
1 1:-0.884862 2:-0.915096 
1 1:-0.884862 2:-0.915096 
1 1:-0.884862 2:-0.915096 
1 1:-0.884862 2:-0.915096 
1 1:-0.884862 2:-0.915096 
1 1:-0.884862 2:-0.915096 
1 1:-0.884862 2:-0.915096 
1 1:-0.884862 2:-0.915096 
1 1:-0.884862 2:-0.915096 
1 1:-0.884862 2:-0.915096 
1 1:-0.884862 2:-0.915096 
1 1:-0.884862 2:-0.915096 
1 1:-0.884862 2:-0.915096 
1 1:-0.884862 2:-0.915096 
1 1:-0.884862 2:-0.915096 
1 1:-0.884862 2:-0.915096 
1 1:-0.884862 2:-0.915096 
1 1:-0.884862 2:-0.915096 
1 1:-0.884862 2:-0.915096 
1 1:-0.884862 2:-0.915096 
1 1:-0.884862 2:-0.915096 
1 1:-0.884862 2:-0.915096 
1 1:-0.884862 2:-0.915096 
1 1:-0.884862 2:-0.915096 
1 1:-0.884862 2:-0.915096 
1 1:-0.884862 2:-0.915096 
1 1:-0.884862 2:-0.915096 
1 1:-0.884862 2:-0.915096 
1 1:-0.884862 2:-0.915096 
1 1:-0.884862 2:-0.915096 
1 1:-0.884862 2:-0.915096 
1 1:-0.884862 2:-0.915096 
1 1:-0.884862 2:-0.915096 
1 1:-0.884862 2:-0.915096 
1 1:-0.884862 2:-0.915096 
1 1:-0.884862 2:-0.915096 
1 1:-0.884862 2:-0.915096 
1 1:-0.884862 2:-0.915096 
1 1:-0.884862 2:-0.915096 
1 1:-0.884862 2:-0.915096 
1 1:-0.884862 2:-0.915096 
1 1:-0.884862 2:-0.915096 
1 1:-0.884862 2:-0.915096 
1 1:-0.884862 2:-0.915096 
1 1:-0.884862 2:-0.915096 
1 1:-0.884862 2:-0.915096 
1 1:-0.884862 2:-0.915096 
1 1:-0.884862 2:-0.915096 
1 1:-0.884862 2:-0.915096 
1 1:-0.884862 2:-0.915096 
1 1:-0.884862 2:-0.915096 
1 1:-0.884862 2:-0.915096 
1 1:-0.884862 2:-0.915096 
1 1:-0.884862 2:-0.915096 
1 1:-0.884862 2:-0.915096 
1 1:-0.884862 2:-0.915096 
1 1:-0.884862 2:-0.915096 
1 1:-0.884862 2:-0.915096 
1 1:-0.909236 2:-0.934351 
1 1:-0.909236 2:-0.934351 
1 1:-0.909236 2:-0.934351 
1 1:-0.909236 2:-0.934351 
1 1:-0.909236 2:-0.934351 
1 1:-0.909236 2:-0.934351 
1 1:-0.909236 2:-0.934351 
1 1:-0.909236 2:-0.934351 
1 1:-0.909236 2:-0.934351 
1 1:-0.909236 2:-0.934351 
1 1:-0.909236 2:-0.934351 
1 1:-0.909236 2:-0.934351 
1 1:-0.909236 2:-0.934351 
1 1:-0.909236 2:-0.934351 
1 1:-0.909236 2:-0.934351 
1 1:-0.909236 2:-0.934351 
1 1:-0.909236 2:-0.934351 
1 1:-0.909236 2:-0.934351 
1 1:-0.909236 2:-0.934351 
1 1:-0.909236 2:-0.934351 
1 1:-0.909236 2:-0.934351 
1 1:-0.909236 2:-0.934351 
1 1:-0.909236 2:-0.934351 
1 1:-0.909236 2:-0.934351 
1 1:-0.909236 2:-0.934351 
1 1:-0.909236 2:-0.934351 
1 1:-0.909236 2:-0.934351 
1 1:-0.909236 2:-0.934351 
1 1:-0.909236 2:-0.934351 
1 1:-0.909236 2:-0.934351 
1 1:-0.909236 2:-0.934351 
1 1:-0.909236 2:-0.934351 
1 1:-0.909236 2:-0.934351 
1 1:-0.909236 2:-0.934351 
1 1:-0.909236 2:-0.934351 
1 1:-0.909236 2:-0.934351 
1 1:-0.909236 2:-0.934351 
1 1:-0.909236 2:-0.934351 
1 1:-0.909236 2:-0.934351 
1 1:-0.909236 2:-0.934351 
1 1:-0.909236 2:-0.934351 
1 1:-0.909236 2:-0.934351 
1 1:-0.909236 2:-0.934351 
1 1:-0.909236 2:-0.934351 
1 1:-0.909236 2:-0.934351 
1 1:-0.909236 2:-0.934351 
1 1:-0.909236 2:-0.934351 
1 1:-0.909236 2:-0.934351 
1 1:-0.909236 2:-0.934351 
1 1:-0.909236 2:-0.934351 
1 1:-0.909236 2:-0.934351 
1 1:-0.909236 2:-0.934351 
1 1:-0.909236 2:-0.934351 
1 1:-0.909236 2:-0.934351 
1 1:-0.909236 2:-0.934351 
1 1:-0.909236 2:-0.934351 
1 1:-0.909236 2:-0.934351 
1 1:-0.909236 2:-0.934351 
1 1:-0.909236 2:-0.934351 
1 1:-0.909236 2:-0.934351 
1 1:-0.909236 2:-0.934351 
1 1:-0.909236 2:-0.934351 
1 1:-0.909236 2:-0.934351 
1 1:-0.909236 2:-0.934351 
1 1:-0.909236 2:-0.934351 
1 1:-0.909236 2:-0.934351 
1 1:-0.909236 2:-0.934351 
1 1:-0.909236 2:-0.934351 
1 1:-0.909236 2:-0.934351 
1 1:-0.909236 2:-0.934351 
1 1:-0.909236 2:-0.934351 
1 1:-0.909236 2:-0.934351 
1 1:-0.909236 2:-0.934351 
1 1:-0.909236 2:-0.934351 
1 1:-0.909236 2:-0.934351 
1 1:-0.909236 2:-0.934351 
1 1:-0.909236 2:-0.934351 
1 1:-0.909236 2:-0.934351 
1 1:-0.909236 2:-0.934351 
1 1:-0.909236 2:-0.934351 
1 1:-0.909236 2:-0.934351 
1 1:-0.909236 2:-0.934351 
1 1:-0.909236 2:-0.934351 
1 1:-0.909236 2:-0.934351 
1 1:-0.909236 2:-0.934351 
1 1:-0.909236 2:-0.934351 
1 1:-0.909236 2:-0.934351 
1 1:-0.909236 2:-0.934351 
1 1:-0.909236 2:-0.934351 
1 1:-0.909236 2:-0.934351 
1 1:-0.909236 2:-0.934351 
1 1:-0.961145 2:-0.930308 
1 1:-0.961145 2:-0.930308 
1 1:-0.961145 2:-0.930308 
1 1:-0.961145 2:-0.930308 
1 1:-0.961145 2:-0.930308 
1 1:-0.961145 2:-0.930308 
1 1:-0.961145 2:-0.930308 
1 1:-0.961145 2:-0.930308 
1 1:-0.961145 2:-0.930308 
1 1:-0.961145 2:-0.930308 
1 1:-0.961145 2:-0.930308 
1 1:-0.961145 2:-0.930308 
1 1:-0.961145 2:-0.930308 
1 1:-0.961145 2:-0.930308 
1 1:-0.961145 2:-0.930308 
1 1:-0.961145 2:-0.930308 
1 1:-0.961145 2:-0.930308 
1 1:-0.961145 2:-0.930308 
1 1:-0.961145 2:-0.930308 
1 1:-0.961145 2:-0.930308 
1 1:-0.961145 2:-0.930308 
1 1:-0.961145 2:-0.930308 
1 1:-0.961145 2:-0.930308 
1 1:-0.961145 2:-0.930308 
1 1:-0.961145 2:-0.930308 
1 1:-0.961145 2:-0.930308 
1 1:-0.961145 2:-0.930308 
1 1:-0.961145 2:-0.930308 
1 1:-0.961145 2:-0.930308 
1 1:-0.961145 2:-0.930308 
1 1:-0.961145 2:-0.930308 
1 1:-0.961145 2:-0.930308 
1 1:-0.961145 2:-0.930308 
1 1:-0.961145 2:-0.930308 
1 1:-0.961145 2:-0.930308 
1 1:-0.961145 2:-0.930308 
1 1:-0.961145 2:-0.930308 
1 1:-0.961145 2:-0.930308 
1 1:-0.961145 2:-0.930308 
1 1:-0.961145 2:-0.930308 
1 1:-0.961145 2:-0.930308 
1 1:-0.961145 2:-0.930308 
1 1:-0.961145 2:-0.930308 
1 1:-0.961145 2:-0.930308 
1 1:-0.961145 2:-0.930308 
1 1:-0.961145 2:-0.930308 
1 1:-0.961145 2:-0.930308 
1 1:-0.961145 2:-0.930308 
1 1:-0.961145 2:-0.930308 
1 1:-0.961145 2:-0.930308 
1 1:-0.961145 2:-0.930308 
1 1:-0.961145 2:-0.930308 
1 1:-0.961145 2:-0.930308 
1 1:-0.961145 2:-0.930308 
1 1:-0.961145 2:-0.930308 
1 1:-0.961145 2:-0.930308 
1 1:-0.961145 2:-0.930308 
1 1:-0.961145 2:-0.930308 
1 1:-0.961145 2:-0.930308 
1 1:-0.961145 2:-0.930308 
1 1:-0.961145 2:-0.930308 
1 1:-0.961145 2:-0.930308 
1 1:-0.961145 2:-0.930308 
1 1:-0.961145 2:-0.930308 
1 1:-0.961145 2:-0.930308 
1 1:-0.961145 2:-0.930308 
1 1:-0.961145 2:-0.930308 
1 1:-0.961145 2:-0.930308 
1 1:-0.896869 2:-0.960699 
1 1:-0.896869 2:-0.960699 
1 1:-0.896869 2:-0.960699 
1 1:-0.896869 2:-0.960699 
1 1:-0.896869 2:-0.960699 
1 1:-0.896869 2:-0.960699 
1 1:-0.896869 2:-0.960699 
1 1:-0.896869 2:-0.960699 
1 1:-0.896869 2:-0.960699 
1 1:-0.896869 2:-0.960699 
1 1:-0.896869 2:-0.960699 
1 1:-0.896869 2:-0.960699 
1 1:-0.896869 2:-0.960699 
1 1:-0.896869 2:-0.960699 
1 1:-0.896869 2:-0.960699 
1 1:-0.896869 2:-0.960699 
1 1:-0.896869 2:-0.960699 
1 1:-0.896869 2:-0.960699 
1 1:-0.896869 2:-0.960699 
1 1:-0.896869 2:-0.960699 
1 1:-0.896869 2:-0.960699 
1 1:-0.896869 2:-0.960699 
1 1:-0.896869 2:-0.960699 
1 1:-0.896869 2:-0.960699 
1 1:-0.896869 2:-0.960699 
1 1:-0.896869 2:-0.960699 
1 1:-0.896869 2:-0.960699 
1 1:-0.896869 2:-0.960699 
1 1:-0.896869 2:-0.960699 
1 1:-0.896869 2:-0.960699 
1 1:-0.896869 2:-0.960699 
1 1:-0.896869 2:-0.960699 
1 1:-0.896869 2:-0.960699 
1 1:-0.896869 2:-0.960699 
1 1:-0.896869 2:-0.960699 
1 1:-0.896869 2:-0.960699 
1 1:-0.896869 2:-0.960699 
1 1:-0.896869 2:-0.960699 
1 1:-0.896869 2:-0.960699 
1 1:-0.896869 2:-0.960699 
1 1:-0.896869 2:-0.960699 
1 1:-0.896869 2:-0.960699 
1 1:-0.896869 2:-0.960699 
1 1:-0.896869 2:-0.960699 
1 1:-0.896869 2:-0.960699 
1 1:-0.896869 2:-0.960699 
1 1:-0.896869 2:-0.960699 
1 1:-0.896869 2:-0.960699 
1 1:-0.896869 2:-0.960699 
1 1:-0.896869 2:-0.960699 
1 1:-0.896869 2:-0.960699 
1 1:-0.896869 2:-0.960699 
1 1:-0.896869 2:-0.960699 
1 1:-0.896869 2:-0.960699 
1 1:-0.896869 2:-0.960699 
1 1:-0.896869 2:-0.960699 
1 1:-0.896869 2:-0.960699 
1 1:-0.896869 2:-0.960699 
1 1:-0.896869 2:-0.960699 
1 1:-0.896869 2:-0.960699 
1 1:-0.896869 2:-0.960699 
1 1:-0.896869 2:-0.960699 
1 1:-0.896869 2:-0.960699 
1 1:-0.896869 2:-0.960699 
1 1:-0.896869 2:-0.960699 
1 1:-0.896869 2:-0.960699 
1 1:-0.896869 2:-0.960699 
1 1:-0.896869 2:-0.960699 
1 1:-0.896869 2:-0.960699 
1 1:-0.896869 2:-0.960699 
1 1:-0.896869 2:-0.960699 
1 1:-0.896869 2:-0.960699 
1 1:-0.896869 2:-0.960699 
1 1:-0.896869 2:-0.960699 
1 1:-0.896869 2:-0.960699 
1 1:-0.896869 2:-0.960699 
1 1:-0.896869 2:-0.960699 
1 1:-0.896869 2:-0.960699 
1 1:-0.896869 2:-0.960699 
1 1:-0.896869 2:-0.960699 
1 1:-0.896869 2:-0.960699 
1 1:-0.896869 2:-0.960699 
1 1:-0.896869 2:-0.960699 
1 1:-0.896869 2:-0.960699 
1 1:-0.896869 2:-0.960699 
1 1:-0.896869 2:-0.960699 
1 1:-0.896869 2:-0.960699 
1 1:-0.896869 2:-0.960699 
1 1:-0.896869 2:-0.960699 
1 1:-0.896869 2:-0.960699 
1 1:-0.896869 2:-0.960699 
1 1:-0.896869 2:-0.960699 
1 1:-0.921283 2:-0.93818 
1 1:-0.921283 2:-0.93818 
1 1:-0.921283 2:-0.93818 
1 1:-0.921283 2:-0.93818 
1 1:-0.921283 2:-0.93818 
1 1:-0.921283 2:-0.93818 
1 1:-0.921283 2:-0.93818 
1 1:-0.921283 2:-0.93818 
1 1:-0.921283 2:-0.93818 
1 1:-0.921283 2:-0.93818 
1 1:-0.921283 2:-0.93818 
1 1:-0.921283 2:-0.93818 
1 1:-0.921283 2:-0.93818 
1 1:-0.921283 2:-0.93818 
1 1:-0.921283 2:-0.93818 
1 1:-0.921283 2:-0.93818 
1 1:-0.921283 2:-0.93818 
1 1:-0.921283 2:-0.93818 
1 1:-0.921283 2:-0.93818 
1 1:-0.921283 2:-0.93818 
1 1:-0.921283 2:-0.93818 
1 1:-0.921283 2:-0.93818 
1 1:-0.921283 2:-0.93818 
1 1:-0.921283 2:-0.93818 
1 1:-0.921283 2:-0.93818 
1 1:-0.921283 2:-0.93818 
1 1:-0.921283 2:-0.93818 
1 1:-0.921283 2:-0.93818 
1 1:-0.921283 2:-0.93818 
1 1:-0.921283 2:-0.93818 
1 1:-0.921283 2:-0.93818 
1 1:-0.921283 2:-0.93818 
1 1:-0.921283 2:-0.93818 
1 1:-0.921283 2:-0.93818 
1 1:-0.921283 2:-0.93818 
1 1:-0.921283 2:-0.93818 
1 1:-0.921283 2:-0.93818 
1 1:-0.921283 2:-0.93818 
1 1:-0.921283 2:-0.93818 
1 1:-0.921283 2:-0.93818 
1 1:-0.921283 2:-0.93818 
1 1:-0.921283 2:-0.93818 
1 1:-0.921283 2:-0.93818 
1 1:-0.921283 2:-0.93818 
1 1:-0.921283 2:-0.93818 
1 1:-0.921283 2:-0.93818 
1 1:-0.921283 2:-0.93818 
1 1:-0.921283 2:-0.93818 
1 1:-0.921283 2:-0.93818 
1 1:-0.921283 2:-0.93818 
1 1:-0.921283 2:-0.93818 
1 1:-0.921283 2:-0.93818 
1 1:-0.921283 2:-0.93818 
1 1:-0.921283 2:-0.93818 
1 1:-0.921283 2:-0.93818 
1 1:-0.921283 2:-0.93818 
1 1:-0.921283 2:-0.93818 
1 1:-0.921283 2:-0.93818 
1 1:-0.921283 2:-0.93818 
1 1:-0.921283 2:-0.93818 
1 1:-0.921283 2:-0.93818 
1 1:-0.921283 2:-0.93818 
1 1:-0.921283 2:-0.93818 
1 1:-0.921283 2:-0.93818 
1 1:-0.921283 2:-0.93818 
1 1:-0.921283 2:-0.93818 
1 1:-0.921283 2:-0.93818 
1 1:-0.921283 2:-0.93818 
1 1:-0.921283 2:-0.93818 
1 1:-0.921283 2:-0.93818 
1 1:-0.921283 2:-0.93818 
1 1:-0.921283 2:-0.93818 
1 1:-0.921283 2:-0.93818 
1 1:-0.921283 2:-0.93818 
1 1:-0.921283 2:-0.93818 
1 1:-0.921283 2:-0.93818 
1 1:-0.921283 2:-0.93818 
1 1:-0.921283 2:-0.93818 
1 1:-0.921283 2:-0.93818 
1 1:-0.921283 2:-0.93818 
1 1:-0.921283 2:-0.93818 
1 1:-0.921283 2:-0.93818 
1 1:-0.921283 2:-0.93818 
1 1:-0.921283 2:-0.93818 
1 1:-0.921283 2:-0.93818 
1 1:-0.921283 2:-0.93818 
1 1:-0.921283 2:-0.93818 
1 1:-0.921283 2:-0.93818 
1 1:-0.921283 2:-0.93818 
1 1:-0.921283 2:-0.93818 
1 1:-0.921283 2:-0.93818 
1 1:-0.921283 2:-0.93818 
1 1:-0.921283 2:-0.93818 
1 1:-0.921283 2:-0.93818 
1 1:-0.921283 2:-0.93818 
1 1:-0.921283 2:-0.93818 
1 1:-0.921283 2:-0.93818 
1 1:-0.94745 2:-0.906141 
1 1:-0.94745 2:-0.906141 
1 1:-0.94745 2:-0.906141 
1 1:-0.94745 2:-0.906141 
1 1:-0.94745 2:-0.906141 
1 1:-0.94745 2:-0.906141 
1 1:-0.94745 2:-0.906141 
1 1:-0.94745 2:-0.906141 
1 1:-0.94745 2:-0.906141 
1 1:-0.94745 2:-0.906141 
1 1:-0.94745 2:-0.906141 
1 1:-0.94745 2:-0.906141 
1 1:-0.94745 2:-0.906141 
1 1:-0.94745 2:-0.906141 
1 1:-0.94745 2:-0.906141 
1 1:-0.94745 2:-0.906141 
1 1:-0.94745 2:-0.906141 
1 1:-0.94745 2:-0.906141 
1 1:-0.94745 2:-0.906141 
1 1:-0.94745 2:-0.906141 
1 1:-0.94745 2:-0.906141 
1 1:-0.94745 2:-0.906141 
1 1:-0.94745 2:-0.906141 
1 1:-0.94745 2:-0.906141 
1 1:-0.94745 2:-0.906141 
1 1:-0.94745 2:-0.906141 
1 1:-0.94745 2:-0.906141 
1 1:-0.94745 2:-0.906141 
1 1:-0.94745 2:-0.906141 
1 1:-0.94745 2:-0.906141 
1 1:-0.94745 2:-0.906141 
1 1:-0.94745 2:-0.906141 
1 1:-0.94745 2:-0.906141 
1 1:-0.94745 2:-0.906141 
1 1:-0.94745 2:-0.906141 
1 1:-0.94745 2:-0.906141 
1 1:-0.94745 2:-0.906141 
1 1:-0.94745 2:-0.906141 
1 1:-0.94745 2:-0.906141 
1 1:-0.94745 2:-0.906141 
1 1:-0.94745 2:-0.906141 
1 1:-0.94745 2:-0.906141 
1 1:-0.94745 2:-0.906141 
1 1:-0.94745 2:-0.906141 
1 1:-0.94745 2:-0.906141 
1 1:-0.94745 2:-0.906141 
1 1:-0.94745 2:-0.906141 
1 1:-0.94745 2:-0.906141 
1 1:-0.94745 2:-0.906141 
1 1:-0.94745 2:-0.906141 
1 1:-0.94745 2:-0.906141 
1 1:-0.94745 2:-0.906141 
1 1:-0.94745 2:-0.906141 
1 1:-0.94745 2:-0.906141 
1 1:-0.94745 2:-0.906141 
1 1:-0.94745 2:-0.906141 
1 1:-0.94745 2:-0.906141 
1 1:-0.94745 2:-0.906141 
1 1:-0.94745 2:-0.906141 
1 1:-0.94745 2:-0.906141 
1 1:-0.94745 2:-0.906141 
1 1:-0.94745 2:-0.906141 
1 1:-0.94745 2:-0.906141 
1 1:-0.94745 2:-0.906141 
1 1:-0.94745 2:-0.906141 
1 1:-0.94745 2:-0.906141 
1 1:-0.94745 2:-0.906141 
1 1:-0.94745 2:-0.906141 
1 1:-0.94745 2:-0.906141 
1 1:-0.94745 2:-0.906141 
1 1:-0.94745 2:-0.906141 
1 1:-0.94745 2:-0.906141 
1 1:-0.94745 2:-0.906141 
1 1:-0.94745 2:-0.906141 
1 1:-0.94745 2:-0.906141 
1 1:-0.94745 2:-0.906141 
1 1:-0.94745 2:-0.906141 
1 1:-0.94745 2:-0.906141 
1 1:-0.94745 2:-0.906141 
1 1:-0.94745 2:-0.906141 
1 1:-0.94745 2:-0.906141 
1 1:-0.94745 2:-0.906141 
1 1:-0.94745 2:-0.906141 
1 1:-0.94745 2:-0.906141 
1 1:-0.94745 2:-0.906141 
1 1:-0.94745 2:-0.906141 
1 1:-0.94745 2:-0.906141 
1 1:-0.94745 2:-0.906141 
1 1:-0.94745 2:-0.906141 
1 1:-0.94745 2:-0.906141 
1 1:-0.94745 2:-0.906141 
1 1:-0.94745 2:-0.906141 
1 1:-0.94418 2:-0.966093 
1 1:-0.94418 2:-0.966093 
1 1:-0.94418 2:-0.966093 
1 1:-0.94418 2:-0.966093 
1 1:-0.94418 2:-0.966093 
1 1:-0.94418 2:-0.966093 
1 1:-0.94418 2:-0.966093 
1 1:-0.94418 2:-0.966093 
1 1:-0.94418 2:-0.966093 
1 1:-0.94418 2:-0.966093 
1 1:-0.94418 2:-0.966093 
1 1:-0.94418 2:-0.966093 
1 1:-0.94418 2:-0.966093 
1 1:-0.94418 2:-0.966093 
1 1:-0.94418 2:-0.966093 
1 1:-0.94418 2:-0.966093 
1 1:-0.94418 2:-0.966093 
1 1:-0.94418 2:-0.966093 
1 1:-0.94418 2:-0.966093 
1 1:-0.94418 2:-0.966093 
1 1:-0.94418 2:-0.966093 
1 1:-0.94418 2:-0.966093 
1 1:-0.94418 2:-0.966093 
1 1:-0.94418 2:-0.966093 
1 1:-0.94418 2:-0.966093 
1 1:-0.94418 2:-0.966093 
1 1:-0.94418 2:-0.966093 
1 1:-0.94418 2:-0.966093 
1 1:-0.94418 2:-0.966093 
1 1:-0.94418 2:-0.966093 
1 1:-0.94418 2:-0.966093 
1 1:-0.94418 2:-0.966093 
1 1:-0.94418 2:-0.966093 
1 1:-0.94418 2:-0.966093 
1 1:-0.94418 2:-0.966093 
1 1:-0.94418 2:-0.966093 
1 1:-0.94418 2:-0.966093 
1 1:-0.94418 2:-0.966093 
1 1:-0.94418 2:-0.966093 
1 1:-0.94418 2:-0.966093 
1 1:-0.94418 2:-0.966093 
1 1:-0.94418 2:-0.966093 
1 1:-0.94418 2:-0.966093 
1 1:-0.94418 2:-0.966093 
1 1:-0.94418 2:-0.966093 
1 1:-0.94418 2:-0.966093 
1 1:-0.94418 2:-0.966093 
1 1:-0.94418 2:-0.966093 
1 1:-0.94418 2:-0.966093 
1 1:-0.94418 2:-0.966093 
1 1:-0.94418 2:-0.966093 
1 1:-0.94418 2:-0.966093 
1 1:-0.94418 2:-0.966093 
1 1:-0.94418 2:-0.966093 
1 1:-0.94418 2:-0.966093 
1 1:-0.94418 2:-0.966093 
1 1:-0.94418 2:-0.966093 
1 1:-0.94418 2:-0.966093 
1 1:-0.94418 2:-0.966093 
1 1:-0.94418 2:-0.966093 
1 1:-0.94418 2:-0.966093 
1 1:-0.94418 2:-0.966093 
1 1:-0.94418 2:-0.966093 
1 1:-0.94418 2:-0.966093 
1 1:-0.94418 2:-0.966093 
1 1:-0.94418 2:-0.966093 
1 1:-0.94418 2:-0.966093 
1 1:-0.94418 2:-0.966093 
1 1:-0.94418 2:-0.966093 
1 1:-0.94418 2:-0.966093 
1 1:-0.94418 2:-0.966093 
1 1:-0.94418 2:-0.966093 
1 1:-0.94418 2:-0.966093 
1 1:-0.94418 2:-0.966093 
1 1:-0.94418 2:-0.966093 
1 1:-0.94418 2:-0.966093 
1 1:-0.94418 2:-0.966093 
1 1:-0.94418 2:-0.966093 
1 1:-0.94418 2:-0.966093 
1 1:-0.94418 2:-0.966093 
1 1:-0.94418 2:-0.966093 
1 1:-0.94418 2:-0.966093 
1 1:-0.94418 2:-0.966093 
1 1:-0.94418 2:-0.966093 
1 1:-0.94418 2:-0.966093 
1 1:-0.94418 2:-0.966093 
1 1:-0.94418 2:-0.966093 
1 1:-0.94418 2:-0.966093 
1 1:-0.94418 2:-0.966093 
1 1:-0.94418 2:-0.966093 
1 1:-0.94418 2:-0.966093 
1 1:-0.94418 2:-0.966093 
1 1:-0.94418 2:-0.966093 
1 1:-0.94418 2:-0.966093 
1 1:-0.996796 2:-0.930928 
1 1:-0.996796 2:-0.930928 
1 1:-0.996796 2:-0.930928 
1 1:-0.996796 2:-0.930928 
1 1:-0.996796 2:-0.930928 
1 1:-0.996796 2:-0.930928 
1 1:-0.996796 2:-0.930928 
1 1:-0.996796 2:-0.930928 
1 1:-0.996796 2:-0.930928 
1 1:-0.996796 2:-0.930928 
1 1:-0.996796 2:-0.930928 
1 1:-0.996796 2:-0.930928 
1 1:-0.996796 2:-0.930928 
1 1:-0.996796 2:-0.930928 
1 1:-0.996796 2:-0.930928 
1 1:-0.996796 2:-0.930928 
1 1:-0.996796 2:-0.930928 
1 1:-0.996796 2:-0.930928 
1 1:-0.996796 2:-0.930928 
1 1:-0.996796 2:-0.930928 
1 1:-0.996796 2:-0.930928 
1 1:-0.996796 2:-0.930928 
1 1:-0.996796 2:-0.930928 
1 1:-0.996796 2:-0.930928 
1 1:-0.996796 2:-0.930928 
1 1:-0.996796 2:-0.930928 
1 1:-0.996796 2:-0.930928 
1 1:-0.996796 2:-0.930928 
1 1:-0.996796 2:-0.930928 
1 1:-0.996796 2:-0.930928 
1 1:-0.996796 2:-0.930928 
1 1:-0.996796 2:-0.930928 
1 1:-0.996796 2:-0.930928 
1 1:-0.996796 2:-0.930928 
1 1:-0.996796 2:-0.930928 
1 1:-0.996796 2:-0.930928 
1 1:-0.996796 2:-0.930928 
1 1:-0.996796 2:-0.930928 
1 1:-0.996796 2:-0.930928 
1 1:-0.996796 2:-0.930928 
1 1:-0.996796 2:-0.930928 
1 1:-0.996796 2:-0.930928 
1 1:-0.996796 2:-0.930928 
1 1:-0.996796 2:-0.930928 
1 1:-0.996796 2:-0.930928 
1 1:-0.996796 2:-0.930928 
1 1:-0.996796 2:-0.930928 
1 1:-0.996796 2:-0.930928 
1 1:-0.996796 2:-0.930928 
1 1:-0.996796 2:-0.930928 
1 1:-0.996796 2:-0.930928 
1 1:-0.996796 2:-0.930928 
1 1:-0.996796 2:-0.930928 
1 1:-0.996796 2:-0.930928 
1 1:-0.996796 2:-0.930928 
1 1:-0.996796 2:-0.930928 
1 1:-0.996796 2:-0.930928 
1 1:-0.996796 2:-0.930928 
1 1:-0.996796 2:-0.930928 
1 1:-0.996796 2:-0.930928 
1 1:-0.996796 2:-0.930928 
1 1:-0.996796 2:-0.930928 
1 1:-0.996796 2:-0.930928 
1 1:-0.996796 2:-0.930928 
1 1:-0.996796 2:-0.930928 
1 1:-0.996796 2:-0.930928 
1 1:-0.996796 2:-0.930928 
1 1:-0.996796 2:-0.930928 
1 1:-0.996796 2:-0.930928 
1 1:-0.996796 2:-0.930928 
1 1:-0.996796 2:-0.930928 
1 1:-0.996796 2:-0.930928 
1 1:-0.996796 2:-0.930928 
1 1:-0.996796 2:-0.930928 
1 1:-0.996796 2:-0.930928 
1 1:-0.996796 2:-0.930928 
1 1:-0.996796 2:-0.930928 
1 1:-0.996796 2:-0.930928 
1 1:-0.996796 2:-0.930928 
1 1:-0.996796 2:-0.930928 
1 1:-0.996796 2:-0.930928 
1 1:-0.996796 2:-0.930928 
1 1:-0.996796 2:-0.930928 
1 1:-0.996796 2:-0.930928 
1 1:-0.996796 2:-0.930928 
1 1:-0.996796 2:-0.930928 
1 1:-0.996796 2:-0.930928 
1 1:-0.996796 2:-0.930928 
1 1:-0.996796 2:-0.930928 
1 1:-0.996796 2:-0.930928 
1 1:-0.996796 2:-0.930928 
1 1:-0.996796 2:-0.930928 
1 1:-0.996796 2:-0.930928 
1 1:-0.996796 2:-0.930928 
1 1:-0.996796 2:-0.930928 
1 1:-0.996796 2:-0.930928 
1 1:-0.959231 2:-0.850477 
1 1:-0.959231 2:-0.850477 
1 1:-0.959231 2:-0.850477 
1 1:-0.959231 2:-0.850477 
1 1:-0.959231 2:-0.850477 
1 1:-0.959231 2:-0.850477 
1 1:-0.959231 2:-0.850477 
1 1:-0.959231 2:-0.850477 
1 1:-0.959231 2:-0.850477 
1 1:-0.959231 2:-0.850477 
1 1:-0.959231 2:-0.850477 
1 1:-0.959231 2:-0.850477 
1 1:-0.959231 2:-0.850477 
1 1:-0.959231 2:-0.850477 
1 1:-0.959231 2:-0.850477 
1 1:-0.959231 2:-0.850477 
1 1:-0.959231 2:-0.850477 
1 1:-0.959231 2:-0.850477 
1 1:-0.959231 2:-0.850477 
1 1:-0.959231 2:-0.850477 
1 1:-0.959231 2:-0.850477 
1 1:-0.959231 2:-0.850477 
1 1:-0.959231 2:-0.850477 
1 1:-0.959231 2:-0.850477 
1 1:-0.959231 2:-0.850477 
1 1:-0.959231 2:-0.850477 
1 1:-0.959231 2:-0.850477 
1 1:-0.959231 2:-0.850477 
1 1:-0.959231 2:-0.850477 
1 1:-0.959231 2:-0.850477 
1 1:-0.959231 2:-0.850477 
1 1:-0.959231 2:-0.850477 
1 1:-0.959231 2:-0.850477 
1 1:-0.959231 2:-0.850477 
1 1:-0.959231 2:-0.850477 
1 1:-0.959231 2:-0.850477 
1 1:-0.959231 2:-0.850477 
1 1:-0.959231 2:-0.850477 
1 1:-0.959231 2:-0.850477 
1 1:-0.959231 2:-0.850477 
1 1:-0.959231 2:-0.850477 
1 1:-0.959231 2:-0.850477 
1 1:-0.959231 2:-0.850477 
1 1:-0.959231 2:-0.850477 
1 1:-0.959231 2:-0.850477 
1 1:-0.959231 2:-0.850477 
1 1:-0.959231 2:-0.850477 
1 1:-0.959231 2:-0.850477 
1 1:-0.959231 2:-0.850477 
1 1:-0.959231 2:-0.850477 
1 1:-0.959231 2:-0.850477 
1 1:-0.959231 2:-0.850477 
1 1:-0.959231 2:-0.850477 
1 1:-0.959231 2:-0.850477 
1 1:-0.959231 2:-0.850477 
1 1:-0.959231 2:-0.850477 
1 1:-0.959231 2:-0.850477 
1 1:-0.959231 2:-0.850477 
1 1:-0.959231 2:-0.850477 
1 1:-0.959231 2:-0.850477 
1 1:-0.959231 2:-0.850477 
1 1:-0.959231 2:-0.850477 
1 1:-0.959231 2:-0.850477 
1 1:-0.959231 2:-0.850477 
1 1:-0.959231 2:-0.850477 
1 1:-0.959231 2:-0.850477 
1 1:-0.959231 2:-0.850477 
1 1:-0.959231 2:-0.850477 
1 1:-0.959231 2:-0.850477 
1 1:-0.959231 2:-0.850477 
1 1:-0.959231 2:-0.850477 
1 1:-0.959231 2:-0.850477 
1 1:-0.959231 2:-0.850477 
1 1:-0.959231 2:-0.850477 
1 1:-0.959231 2:-0.850477 
1 1:-0.959231 2:-0.850477 
1 1:-0.959231 2:-0.850477 
1 1:-0.959231 2:-0.850477 
1 1:-0.959231 2:-0.850477 
1 1:-0.959231 2:-0.850477 
1 1:-0.959231 2:-0.850477 
1 1:-0.959231 2:-0.850477 
1 1:-0.959231 2:-0.850477 
1 1:-0.959231 2:-0.850477 
1 1:-0.959231 2:-0.850477 
1 1:-0.959231 2:-0.850477 
1 1:-0.959231 2:-0.850477 
1 1:-0.959231 2:-0.850477 
1 1:-0.959231 2:-0.850477 
1 1:-0.959231 2:-0.850477 
1 1:-0.959231 2:-0.850477 
1 1:-0.959231 2:-0.850477 
1 1:-0.959231 2:-0.850477 
1 1:-0.959231 2:-0.850477 
1 1:-0.959231 2:-0.850477 
1 1:-0.959231 2:-0.850477 
1 1:-0.94503 2:-0.956851 
1 1:-0.94503 2:-0.956851 
1 1:-0.94503 2:-0.956851 
1 1:-0.94503 2:-0.956851 
1 1:-0.94503 2:-0.956851 
1 1:-0.94503 2:-0.956851 
1 1:-0.94503 2:-0.956851 
1 1:-0.94503 2:-0.956851 
1 1:-0.94503 2:-0.956851 
1 1:-0.94503 2:-0.956851 
1 1:-0.94503 2:-0.956851 
1 1:-0.94503 2:-0.956851 
1 1:-0.94503 2:-0.956851 
1 1:-0.94503 2:-0.956851 
1 1:-0.94503 2:-0.956851 
1 1:-0.94503 2:-0.956851 
1 1:-0.94503 2:-0.956851 
1 1:-0.94503 2:-0.956851 
1 1:-0.94503 2:-0.956851 
1 1:-0.94503 2:-0.956851 
1 1:-0.94503 2:-0.956851 
1 1:-0.94503 2:-0.956851 
1 1:-0.94503 2:-0.956851 
1 1:-0.94503 2:-0.956851 
1 1:-0.94503 2:-0.956851 
1 1:-0.94503 2:-0.956851 
1 1:-0.94503 2:-0.956851 
1 1:-0.94503 2:-0.956851 
1 1:-0.94503 2:-0.956851 
1 1:-0.94503 2:-0.956851 
1 1:-0.94503 2:-0.956851 
1 1:-0.94503 2:-0.956851 
1 1:-0.94503 2:-0.956851 
1 1:-0.94503 2:-0.956851 
1 1:-0.94503 2:-0.956851 
1 1:-0.94503 2:-0.956851 
1 1:-0.94503 2:-0.956851 
1 1:-0.94503 2:-0.956851 
1 1:-0.94503 2:-0.956851 
1 1:-0.94503 2:-0.956851 
1 1:-0.94503 2:-0.956851 
1 1:-0.94503 2:-0.956851 
1 1:-0.94503 2:-0.956851 
1 1:-0.94503 2:-0.956851 
1 1:-0.94503 2:-0.956851 
1 1:-0.94503 2:-0.956851 
1 1:-0.94503 2:-0.956851 
1 1:-0.94503 2:-0.956851 
1 1:-0.94503 2:-0.956851 
1 1:-0.94503 2:-0.956851 
1 1:-0.94503 2:-0.956851 
1 1:-0.94503 2:-0.956851 
1 1:-0.94503 2:-0.956851 
1 1:-0.94503 2:-0.956851 
1 1:-0.94503 2:-0.956851 
1 1:-0.94503 2:-0.956851 
1 1:-0.94503 2:-0.956851 
1 1:-0.94503 2:-0.956851 
1 1:-0.94503 2:-0.956851 
1 1:-0.94503 2:-0.956851 
1 1:-0.94503 2:-0.956851 
1 1:-0.94503 2:-0.956851 
1 1:-0.94503 2:-0.956851 
1 1:-0.94503 2:-0.956851 
1 1:-0.94503 2:-0.956851 
1 1:-0.94503 2:-0.956851 
1 1:-0.94503 2:-0.956851 
1 1:-0.94503 2:-0.956851 
1 1:-0.94503 2:-0.956851 
1 1:-0.94503 2:-0.956851 
1 1:-0.94503 2:-0.956851 
1 1:-0.94503 2:-0.956851 
1 1:-0.94503 2:-0.956851 
1 1:-0.94503 2:-0.956851 
1 1:-0.94503 2:-0.956851 
1 1:-0.94503 2:-0.956851 
1 1:-0.94503 2:-0.956851 
1 1:-0.94503 2:-0.956851 
1 1:-0.94503 2:-0.956851 
1 1:-0.94503 2:-0.956851 
1 1:-0.94503 2:-0.956851 
1 1:-0.94503 2:-0.956851 
1 1:-0.94503 2:-0.956851 
1 1:-0.94503 2:-0.956851 
1 1:-0.94503 2:-0.956851 
1 1:-0.94503 2:-0.956851 
1 1:-0.94503 2:-0.956851 
1 1:-0.94503 2:-0.956851 
1 1:-0.94503 2:-0.956851 
1 1:-0.94503 2:-0.956851 
1 1:-0.94503 2:-0.956851 
1 1:-0.94503 2:-0.956851 
1 1:-0.94265 2:-0.946837 
1 1:-0.94265 2:-0.946837 
1 1:-0.94265 2:-0.946837 
1 1:-0.94265 2:-0.946837 
1 1:-0.94265 2:-0.946837 
1 1:-0.94265 2:-0.946837 
1 1:-0.94265 2:-0.946837 
1 1:-0.94265 2:-0.946837 
1 1:-0.94265 2:-0.946837 
1 1:-0.94265 2:-0.946837 
1 1:-0.94265 2:-0.946837 
1 1:-0.94265 2:-0.946837 
1 1:-0.94265 2:-0.946837 
1 1:-0.94265 2:-0.946837 
1 1:-0.94265 2:-0.946837 
1 1:-0.94265 2:-0.946837 
1 1:-0.94265 2:-0.946837 
1 1:-0.94265 2:-0.946837 
1 1:-0.94265 2:-0.946837 
1 1:-0.94265 2:-0.946837 
1 1:-0.94265 2:-0.946837 
1 1:-0.94265 2:-0.946837 
1 1:-0.94265 2:-0.946837 
1 1:-0.94265 2:-0.946837 
1 1:-0.94265 2:-0.946837 
1 1:-0.94265 2:-0.946837 
1 1:-0.94265 2:-0.946837 
1 1:-0.94265 2:-0.946837 
1 1:-0.94265 2:-0.946837 
1 1:-0.94265 2:-0.946837 
1 1:-0.94265 2:-0.946837 
1 1:-0.94265 2:-0.946837 
1 1:-0.94265 2:-0.946837 
1 1:-0.94265 2:-0.946837 
1 1:-0.94265 2:-0.946837 
1 1:-0.94265 2:-0.946837 
1 1:-0.94265 2:-0.946837 
1 1:-0.94265 2:-0.946837 
1 1:-0.94265 2:-0.946837 
1 1:-0.94265 2:-0.946837 
1 1:-0.94265 2:-0.946837 
1 1:-0.94265 2:-0.946837 
1 1:-0.94265 2:-0.946837 
1 1:-0.94265 2:-0.946837 
1 1:-0.94265 2:-0.946837 
1 1:-0.94265 2:-0.946837 
1 1:-0.94265 2:-0.946837 
1 1:-0.94265 2:-0.946837 
1 1:-0.94265 2:-0.946837 
1 1:-0.94265 2:-0.946837 
1 1:-0.94265 2:-0.946837 
1 1:-0.94265 2:-0.946837 
1 1:-0.94265 2:-0.946837 
1 1:-0.94265 2:-0.946837 
1 1:-0.94265 2:-0.946837 
1 1:-0.94265 2:-0.946837 
1 1:-0.94265 2:-0.946837 
1 1:-0.94265 2:-0.946837 
1 1:-0.94265 2:-0.946837 
1 1:-0.94265 2:-0.946837 
1 1:-0.94265 2:-0.946837 
1 1:-0.94265 2:-0.946837 
1 1:-0.94265 2:-0.946837 
1 1:-0.94265 2:-0.946837 
1 1:-0.94265 2:-0.946837 
1 1:-0.94265 2:-0.946837 
1 1:-0.94265 2:-0.946837 
1 1:-0.94265 2:-0.946837 
1 1:-0.94265 2:-0.946837 
1 1:-0.94265 2:-0.946837 
1 1:-0.94265 2:-0.946837 
1 1:-0.94265 2:-0.946837 
1 1:-0.94265 2:-0.946837 
1 1:-0.94265 2:-0.946837 
1 1:-0.94265 2:-0.946837 
1 1:-0.94265 2:-0.946837 
1 1:-0.94265 2:-0.946837 
1 1:-0.94265 2:-0.946837 
1 1:-0.94265 2:-0.946837 
1 1:-0.94265 2:-0.946837 
1 1:-0.94265 2:-0.946837 
1 1:-0.94265 2:-0.946837 
1 1:-0.94265 2:-0.946837 
1 1:-0.94265 2:-0.946837 
1 1:-0.94265 2:-0.946837 
1 1:-0.94265 2:-0.946837 
1 1:-0.94265 2:-0.946837 
1 1:-0.94265 2:-0.946837 
1 1:-0.94265 2:-0.946837 
1 1:-0.94265 2:-0.946837 
1 1:-0.94265 2:-0.946837 
1 1:-0.94265 2:-0.946837 
1 1:-0.94265 2:-0.946837 
1 1:-0.94265 2:-0.946837 
1 1:-0.94265 2:-0.946837 
1 1:-0.965273 2:-0.902912 
1 1:-0.965273 2:-0.902912 
1 1:-0.965273 2:-0.902912 
1 1:-0.965273 2:-0.902912 
1 1:-0.965273 2:-0.902912 
1 1:-0.965273 2:-0.902912 
1 1:-0.965273 2:-0.902912 
1 1:-0.965273 2:-0.902912 
1 1:-0.965273 2:-0.902912 
1 1:-0.965273 2:-0.902912 
1 1:-0.965273 2:-0.902912 
1 1:-0.965273 2:-0.902912 
1 1:-0.965273 2:-0.902912 
1 1:-0.965273 2:-0.902912 
1 1:-0.965273 2:-0.902912 
1 1:-0.965273 2:-0.902912 
1 1:-0.965273 2:-0.902912 
1 1:-0.965273 2:-0.902912 
1 1:-0.965273 2:-0.902912 
1 1:-0.965273 2:-0.902912 
1 1:-0.965273 2:-0.902912 
1 1:-0.965273 2:-0.902912 
1 1:-0.965273 2:-0.902912 
1 1:-0.965273 2:-0.902912 
1 1:-0.965273 2:-0.902912 
1 1:-0.965273 2:-0.902912 
1 1:-0.965273 2:-0.902912 
1 1:-0.965273 2:-0.902912 
1 1:-0.965273 2:-0.902912 
1 1:-0.965273 2:-0.902912 
1 1:-0.965273 2:-0.902912 
1 1:-0.965273 2:-0.902912 
1 1:-0.965273 2:-0.902912 
1 1:-0.965273 2:-0.902912 
1 1:-0.965273 2:-0.902912 
1 1:-0.965273 2:-0.902912 
1 1:-0.965273 2:-0.902912 
1 1:-0.965273 2:-0.902912 
1 1:-0.965273 2:-0.902912 
1 1:-0.965273 2:-0.902912 
1 1:-0.965273 2:-0.902912 
1 1:-0.965273 2:-0.902912 
1 1:-0.965273 2:-0.902912 
1 1:-0.965273 2:-0.902912 
1 1:-0.965273 2:-0.902912 
1 1:-0.965273 2:-0.902912 
1 1:-0.965273 2:-0.902912 
1 1:-0.965273 2:-0.902912 
1 1:-0.965273 2:-0.902912 
1 1:-0.965273 2:-0.902912 
1 1:-0.965273 2:-0.902912 
1 1:-0.965273 2:-0.902912 
1 1:-0.965273 2:-0.902912 
1 1:-0.965273 2:-0.902912 
1 1:-0.965273 2:-0.902912 
1 1:-0.965273 2:-0.902912 
1 1:-0.965273 2:-0.902912 
1 1:-0.965273 2:-0.902912 
1 1:-0.965273 2:-0.902912 
1 1:-0.965273 2:-0.902912 
1 1:-0.965273 2:-0.902912 
1 1:-0.965273 2:-0.902912 
1 1:-0.965273 2:-0.902912 
1 1:-0.965273 2:-0.902912 
1 1:-0.965273 2:-0.902912 
1 1:-0.965273 2:-0.902912 
1 1:-0.965273 2:-0.902912 
1 1:-0.965273 2:-0.902912 
1 1:-0.965273 2:-0.902912 
1 1:-0.965273 2:-0.902912 
1 1:-0.965273 2:-0.902912 
1 1:-0.965273 2:-0.902912 
1 1:-0.965273 2:-0.902912 
1 1:-0.965273 2:-0.902912 
1 1:-0.965273 2:-0.902912 
1 1:-0.965273 2:-0.902912 
1 1:-0.965273 2:-0.902912 
1 1:-0.965273 2:-0.902912 
1 1:-0.965273 2:-0.902912 
1 1:-0.965273 2:-0.902912 
1 1:-0.965273 2:-0.902912 
1 1:-0.965273 2:-0.902912 
1 1:-0.965273 2:-0.902912 
1 1:-0.965273 2:-0.902912 
1 1:-0.965273 2:-0.902912 
1 1:-0.965273 2:-0.902912 
1 1:-0.965273 2:-0.902912 
1 1:-0.965273 2:-0.902912 
1 1:-0.965273 2:-0.902912 
1 1:-0.965273 2:-0.902912 
1 1:-0.965273 2:-0.902912 
1 1:-0.965273 2:-0.902912 
1 1:-0.965273 2:-0.902912 
1 1:-0.965273 2:-0.902912 
1 1:-0.965273 2:-0.902912 
1 1:-0.92127 2:-0.95441 
1 1:-0.92127 2:-0.95441 
1 1:-0.92127 2:-0.95441 
1 1:-0.92127 2:-0.95441 
1 1:-0.92127 2:-0.95441 
1 1:-0.92127 2:-0.95441 
1 1:-0.92127 2:-0.95441 
1 1:-0.92127 2:-0.95441 
1 1:-0.92127 2:-0.95441 
1 1:-0.92127 2:-0.95441 
1 1:-0.92127 2:-0.95441 
1 1:-0.92127 2:-0.95441 
1 1:-0.92127 2:-0.95441 
1 1:-0.92127 2:-0.95441 
1 1:-0.92127 2:-0.95441 
1 1:-0.92127 2:-0.95441 
1 1:-0.92127 2:-0.95441 
1 1:-0.92127 2:-0.95441 
1 1:-0.92127 2:-0.95441 
1 1:-0.92127 2:-0.95441 
1 1:-0.92127 2:-0.95441 
1 1:-0.92127 2:-0.95441 
1 1:-0.92127 2:-0.95441 
1 1:-0.92127 2:-0.95441 
1 1:-0.92127 2:-0.95441 
1 1:-0.92127 2:-0.95441 
1 1:-0.92127 2:-0.95441 
1 1:-0.92127 2:-0.95441 
1 1:-0.92127 2:-0.95441 
1 1:-0.92127 2:-0.95441 
1 1:-0.92127 2:-0.95441 
1 1:-0.92127 2:-0.95441 
1 1:-0.92127 2:-0.95441 
1 1:-0.92127 2:-0.95441 
1 1:-0.92127 2:-0.95441 
1 1:-0.92127 2:-0.95441 
1 1:-0.92127 2:-0.95441 
1 1:-0.92127 2:-0.95441 
1 1:-0.92127 2:-0.95441 
1 1:-0.92127 2:-0.95441 
1 1:-0.92127 2:-0.95441 
1 1:-0.92127 2:-0.95441 
1 1:-0.92127 2:-0.95441 
1 1:-0.92127 2:-0.95441 
1 1:-0.92127 2:-0.95441 
1 1:-0.92127 2:-0.95441 
1 1:-0.92127 2:-0.95441 
1 1:-0.92127 2:-0.95441 
1 1:-0.92127 2:-0.95441 
1 1:-0.92127 2:-0.95441 
1 1:-0.92127 2:-0.95441 
1 1:-0.92127 2:-0.95441 
1 1:-0.92127 2:-0.95441 
1 1:-0.92127 2:-0.95441 
1 1:-0.92127 2:-0.95441 
1 1:-0.92127 2:-0.95441 
1 1:-0.92127 2:-0.95441 
1 1:-0.92127 2:-0.95441 
1 1:-0.92127 2:-0.95441 
1 1:-0.92127 2:-0.95441 
1 1:-0.92127 2:-0.95441 
1 1:-0.92127 2:-0.95441 
1 1:-0.92127 2:-0.95441 
1 1:-0.92127 2:-0.95441 
1 1:-0.92127 2:-0.95441 
1 1:-0.92127 2:-0.95441 
1 1:-0.92127 2:-0.95441 
1 1:-0.92127 2:-0.95441 
1 1:-0.92127 2:-0.95441 
1 1:-0.92127 2:-0.95441 
1 1:-0.92127 2:-0.95441 
1 1:-0.92127 2:-0.95441 
1 1:-0.92127 2:-0.95441 
1 1:-0.92127 2:-0.95441 
1 1:-0.92127 2:-0.95441 
1 1:-0.92127 2:-0.95441 
1 1:-0.92127 2:-0.95441 
1 1:-0.92127 2:-0.95441 
1 1:-0.92127 2:-0.95441 
1 1:-0.92127 2:-0.95441 
1 1:-0.92127 2:-0.95441 
1 1:-0.92127 2:-0.95441 
1 1:-0.92127 2:-0.95441 
1 1:-0.92127 2:-0.95441 
1 1:-0.92127 2:-0.95441 
1 1:-0.92127 2:-0.95441 
1 1:-0.92127 2:-0.95441 
1 1:-0.92127 2:-0.95441 
1 1:-0.92127 2:-0.95441 
1 1:-0.92127 2:-0.95441 
1 1:-0.92127 2:-0.95441 
1 1:-0.92127 2:-0.95441 
1 1:-0.92127 2:-0.95441 
1 1:-0.783572 2:-0.989705 
1 1:-0.783572 2:-0.989705 
1 1:-0.783572 2:-0.989705 
1 1:-0.783572 2:-0.989705 
1 1:-0.783572 2:-0.989705 
1 1:-0.783572 2:-0.989705 
1 1:-0.783572 2:-0.989705 
1 1:-0.783572 2:-0.989705 
1 1:-0.783572 2:-0.989705 
1 1:-0.783572 2:-0.989705 
1 1:-0.783572 2:-0.989705 
1 1:-0.783572 2:-0.989705 
1 1:-0.783572 2:-0.989705 
1 1:-0.783572 2:-0.989705 
1 1:-0.783572 2:-0.989705 
1 1:-0.783572 2:-0.989705 
1 1:-0.783572 2:-0.989705 
1 1:-0.783572 2:-0.989705 
1 1:-0.783572 2:-0.989705 
1 1:-0.783572 2:-0.989705 
1 1:-0.783572 2:-0.989705 
1 1:-0.783572 2:-0.989705 
1 1:-0.783572 2:-0.989705 
1 1:-0.783572 2:-0.989705 
1 1:-0.783572 2:-0.989705 
1 1:-0.783572 2:-0.989705 
1 1:-0.783572 2:-0.989705 
1 1:-0.783572 2:-0.989705 
1 1:-0.783572 2:-0.989705 
1 1:-0.783572 2:-0.989705 
1 1:-0.783572 2:-0.989705 
1 1:-0.783572 2:-0.989705 
1 1:-0.783572 2:-0.989705 
1 1:-0.783572 2:-0.989705 
1 1:-0.783572 2:-0.989705 
1 1:-0.783572 2:-0.989705 
1 1:-0.783572 2:-0.989705 
1 1:-0.783572 2:-0.989705 
1 1:-0.783572 2:-0.989705 
1 1:-0.783572 2:-0.989705 
1 1:-0.783572 2:-0.989705 
1 1:-0.783572 2:-0.989705 
1 1:-0.783572 2:-0.989705 
1 1:-0.783572 2:-0.989705 
1 1:-0.783572 2:-0.989705 
1 1:-0.783572 2:-0.989705 
1 1:-0.783572 2:-0.989705 
1 1:-0.783572 2:-0.989705 
1 1:-0.783572 2:-0.989705 
1 1:-0.783572 2:-0.989705 
1 1:-0.783572 2:-0.989705 
1 1:-0.783572 2:-0.989705 
1 1:-0.783572 2:-0.989705 
1 1:-0.783572 2:-0.989705 
1 1:-0.783572 2:-0.989705 
1 1:-0.783572 2:-0.989705 
1 1:-0.783572 2:-0.989705 
1 1:-0.783572 2:-0.989705 
1 1:-0.783572 2:-0.989705 
1 1:-0.783572 2:-0.989705 
1 1:-0.783572 2:-0.989705 
1 1:-0.783572 2:-0.989705 
1 1:-0.783572 2:-0.989705 
1 1:-0.783572 2:-0.989705 
1 1:-0.783572 2:-0.989705 
1 1:-0.783572 2:-0.989705 
1 1:-0.783572 2:-0.989705 
1 1:-0.783572 2:-0.989705 
1 1:-0.783572 2:-0.989705 
1 1:-0.783572 2:-0.989705 
1 1:-0.783572 2:-0.989705 
1 1:-0.783572 2:-0.989705 
1 1:-0.783572 2:-0.989705 
1 1:-0.783572 2:-0.989705 
1 1:-0.783572 2:-0.989705 
1 1:-0.783572 2:-0.989705 
1 1:-0.783572 2:-0.989705 
1 1:-0.783572 2:-0.989705 
1 1:-0.783572 2:-0.989705 
1 1:-0.783572 2:-0.989705 
1 1:-0.783572 2:-0.989705 
1 1:-0.783572 2:-0.989705 
1 1:-0.783572 2:-0.989705 
1 1:-0.783572 2:-0.989705 
1 1:-0.783572 2:-0.989705 
1 1:-0.783572 2:-0.989705 
1 1:-0.783572 2:-0.989705 
1 1:-0.783572 2:-0.989705 
1 1:-0.783572 2:-0.989705 
1 1:-0.783572 2:-0.989705 
1 1:-0.783572 2:-0.989705 
1 1:-0.783572 2:-0.989705 
1 1:-0.783572 2:-0.989705 
1 1:-0.783572 2:-0.989705 
1 1:-0.783572 2:-0.989705 
1 1:-0.783572 2:-0.989705 
1 1:-0.783572 2:-0.989705 
1 1:-0.881649 2:-0.970398 
1 1:-0.881649 2:-0.970398 
1 1:-0.881649 2:-0.970398 
1 1:-0.881649 2:-0.970398 
1 1:-0.881649 2:-0.970398 
1 1:-0.881649 2:-0.970398 
1 1:-0.881649 2:-0.970398 
1 1:-0.881649 2:-0.970398 
1 1:-0.881649 2:-0.970398 
1 1:-0.881649 2:-0.970398 
1 1:-0.881649 2:-0.970398 
1 1:-0.881649 2:-0.970398 
1 1:-0.881649 2:-0.970398 
1 1:-0.881649 2:-0.970398 
1 1:-0.881649 2:-0.970398 
1 1:-0.881649 2:-0.970398 
1 1:-0.881649 2:-0.970398 
1 1:-0.881649 2:-0.970398 
1 1:-0.881649 2:-0.970398 
1 1:-0.881649 2:-0.970398 
1 1:-0.881649 2:-0.970398 
1 1:-0.881649 2:-0.970398 
1 1:-0.881649 2:-0.970398 
1 1:-0.881649 2:-0.970398 
1 1:-0.881649 2:-0.970398 
1 1:-0.881649 2:-0.970398 
1 1:-0.881649 2:-0.970398 
1 1:-0.881649 2:-0.970398 
1 1:-0.881649 2:-0.970398 
1 1:-0.881649 2:-0.970398 
1 1:-0.881649 2:-0.970398 
1 1:-0.881649 2:-0.970398 
1 1:-0.881649 2:-0.970398 
1 1:-0.881649 2:-0.970398 
1 1:-0.881649 2:-0.970398 
1 1:-0.881649 2:-0.970398 
1 1:-0.881649 2:-0.970398 
1 1:-0.881649 2:-0.970398 
1 1:-0.881649 2:-0.970398 
1 1:-0.881649 2:-0.970398 
1 1:-0.881649 2:-0.970398 
1 1:-0.881649 2:-0.970398 
1 1:-0.881649 2:-0.970398 
1 1:-0.881649 2:-0.970398 
1 1:-0.881649 2:-0.970398 
1 1:-0.881649 2:-0.970398 
1 1:-0.881649 2:-0.970398 
1 1:-0.881649 2:-0.970398 
1 1:-0.881649 2:-0.970398 
1 1:-0.881649 2:-0.970398 
1 1:-0.881649 2:-0.970398 
1 1:-0.881649 2:-0.970398 
1 1:-0.881649 2:-0.970398 
1 1:-0.881649 2:-0.970398 
1 1:-0.881649 2:-0.970398 
1 1:-0.881649 2:-0.970398 
1 1:-0.881649 2:-0.970398 
1 1:-0.881649 2:-0.970398 
1 1:-0.881649 2:-0.970398 
1 1:-0.881649 2:-0.970398 
1 1:-0.881649 2:-0.970398 
1 1:-0.881649 2:-0.970398 
1 1:-0.881649 2:-0.970398 
1 1:-0.881649 2:-0.970398 
1 1:-0.881649 2:-0.970398 
1 1:-0.881649 2:-0.970398 
1 1:-0.881649 2:-0.970398 
1 1:-0.881649 2:-0.970398 
1 1:-0.881649 2:-0.970398 
1 1:-0.881649 2:-0.970398 
1 1:-0.881649 2:-0.970398 
1 1:-0.881649 2:-0.970398 
1 1:-0.881649 2:-0.970398 
1 1:-0.881649 2:-0.970398 
1 1:-0.881649 2:-0.970398 
1 1:-0.881649 2:-0.970398 
1 1:-0.881649 2:-0.970398 
1 1:-0.881649 2:-0.970398 
1 1:-0.881649 2:-0.970398 
1 1:-0.881649 2:-0.970398 
1 1:-0.881649 2:-0.970398 
1 1:-0.881649 2:-0.970398 
1 1:-0.881649 2:-0.970398 
1 1:-0.881649 2:-0.970398 
1 1:-0.881649 2:-0.970398 
1 1:-0.881649 2:-0.970398 
1 1:-0.881649 2:-0.970398 
1 1:-0.881649 2:-0.970398 
1 1:-0.881649 2:-0.970398 
1 1:-0.881649 2:-0.970398 
1 1:-0.881649 2:-0.970398 
1 1:-0.881649 2:-0.970398 
1 1:-0.881649 2:-0.970398 
1 1:-0.881649 2:-0.970398 
1 1:-0.945966 2:-0.925734 
1 1:-0.945966 2:-0.925734 
1 1:-0.945966 2:-0.925734 
1 1:-0.945966 2:-0.925734 
1 1:-0.945966 2:-0.925734 
1 1:-0.945966 2:-0.925734 
1 1:-0.945966 2:-0.925734 
1 1:-0.945966 2:-0.925734 
1 1:-0.945966 2:-0.925734 
1 1:-0.945966 2:-0.925734 
1 1:-0.945966 2:-0.925734 
1 1:-0.945966 2:-0.925734 
1 1:-0.945966 2:-0.925734 
1 1:-0.945966 2:-0.925734 
1 1:-0.945966 2:-0.925734 
1 1:-0.945966 2:-0.925734 
1 1:-0.945966 2:-0.925734 
1 1:-0.945966 2:-0.925734 
1 1:-0.945966 2:-0.925734 
1 1:-0.945966 2:-0.925734 
1 1:-0.945966 2:-0.925734 
1 1:-0.945966 2:-0.925734 
1 1:-0.945966 2:-0.925734 
1 1:-0.945966 2:-0.925734 
1 1:-0.945966 2:-0.925734 
1 1:-0.945966 2:-0.925734 
1 1:-0.945966 2:-0.925734 
1 1:-0.945966 2:-0.925734 
1 1:-0.945966 2:-0.925734 
1 1:-0.945966 2:-0.925734 
1 1:-0.945966 2:-0.925734 
1 1:-0.945966 2:-0.925734 
1 1:-0.945966 2:-0.925734 
1 1:-0.945966 2:-0.925734 
1 1:-0.945966 2:-0.925734 
1 1:-0.945966 2:-0.925734 
1 1:-0.945966 2:-0.925734 
1 1:-0.945966 2:-0.925734 
1 1:-0.945966 2:-0.925734 
1 1:-0.945966 2:-0.925734 
1 1:-0.945966 2:-0.925734 
1 1:-0.945966 2:-0.925734 
1 1:-0.945966 2:-0.925734 
1 1:-0.945966 2:-0.925734 
1 1:-0.945966 2:-0.925734 
1 1:-0.945966 2:-0.925734 
1 1:-0.945966 2:-0.925734 
1 1:-0.945966 2:-0.925734 
1 1:-0.945966 2:-0.925734 
1 1:-0.945966 2:-0.925734 
1 1:-0.945966 2:-0.925734 
1 1:-0.945966 2:-0.925734 
1 1:-0.945966 2:-0.925734 
1 1:-0.945966 2:-0.925734 
1 1:-0.945966 2:-0.925734 
1 1:-0.945966 2:-0.925734 
1 1:-0.945966 2:-0.925734 
1 1:-0.945966 2:-0.925734 
1 1:-0.945966 2:-0.925734 
1 1:-0.945966 2:-0.925734 
1 1:-0.945966 2:-0.925734 
1 1:-0.945966 2:-0.925734 
1 1:-0.945966 2:-0.925734 
1 1:-0.945966 2:-0.925734 
1 1:-0.945966 2:-0.925734 
1 1:-0.945966 2:-0.925734 
1 1:-0.945966 2:-0.925734 
1 1:-0.945966 2:-0.925734 
1 1:-0.945966 2:-0.925734 
1 1:-0.945966 2:-0.925734 
1 1:-0.945966 2:-0.925734 
1 1:-0.945966 2:-0.925734 
1 1:-0.945966 2:-0.925734 
1 1:-0.945966 2:-0.925734 
1 1:-0.945966 2:-0.925734 
1 1:-0.945966 2:-0.925734 
1 1:-0.945966 2:-0.925734 
1 1:-0.945966 2:-0.925734 
1 1:-0.945966 2:-0.925734 
1 1:-0.945966 2:-0.925734 
1 1:-0.945966 2:-0.925734 
1 1:-0.945966 2:-0.925734 
1 1:-0.945966 2:-0.925734 
1 1:-0.945966 2:-0.925734 
1 1:-0.945966 2:-0.925734 
1 1:-0.945966 2:-0.925734 
1 1:-0.945966 2:-0.925734 
1 1:-0.945966 2:-0.925734 
1 1:-0.945966 2:-0.925734 
1 1:-0.945966 2:-0.925734 
1 1:-0.945966 2:-0.925734 
1 1:-0.945966 2:-0.925734 
1 1:-0.945966 2:-0.925734 
1 1:-0.945966 2:-0.925734 
1 1:-0.945966 2:-0.925734 
1 1:-0.945966 2:-0.925734 
1 1:-0.941717 2:-0.933228 
1 1:-0.941717 2:-0.933228 
1 1:-0.941717 2:-0.933228 
1 1:-0.941717 2:-0.933228 
1 1:-0.941717 2:-0.933228 
1 1:-0.941717 2:-0.933228 
1 1:-0.941717 2:-0.933228 
1 1:-0.941717 2:-0.933228 
1 1:-0.941717 2:-0.933228 
1 1:-0.941717 2:-0.933228 
1 1:-0.941717 2:-0.933228 
1 1:-0.941717 2:-0.933228 
1 1:-0.941717 2:-0.933228 
1 1:-0.941717 2:-0.933228 
1 1:-0.941717 2:-0.933228 
1 1:-0.941717 2:-0.933228 
1 1:-0.941717 2:-0.933228 
1 1:-0.941717 2:-0.933228 
1 1:-0.941717 2:-0.933228 
1 1:-0.941717 2:-0.933228 
1 1:-0.941717 2:-0.933228 
1 1:-0.941717 2:-0.933228 
1 1:-0.941717 2:-0.933228 
1 1:-0.941717 2:-0.933228 
1 1:-0.941717 2:-0.933228 
1 1:-0.941717 2:-0.933228 
1 1:-0.941717 2:-0.933228 
1 1:-0.941717 2:-0.933228 
1 1:-0.941717 2:-0.933228 
1 1:-0.941717 2:-0.933228 
1 1:-0.941717 2:-0.933228 
1 1:-0.941717 2:-0.933228 
1 1:-0.941717 2:-0.933228 
1 1:-0.941717 2:-0.933228 
1 1:-0.941717 2:-0.933228 
1 1:-0.941717 2:-0.933228 
1 1:-0.941717 2:-0.933228 
1 1:-0.941717 2:-0.933228 
1 1:-0.941717 2:-0.933228 
1 1:-0.941717 2:-0.933228 
1 1:-0.941717 2:-0.933228 
1 1:-0.941717 2:-0.933228 
1 1:-0.941717 2:-0.933228 
1 1:-0.941717 2:-0.933228 
1 1:-0.941717 2:-0.933228 
1 1:-0.941717 2:-0.933228 
1 1:-0.941717 2:-0.933228 
1 1:-0.941717 2:-0.933228 
1 1:-0.941717 2:-0.933228 
1 1:-0.941717 2:-0.933228 
1 1:-0.941717 2:-0.933228 
1 1:-0.941717 2:-0.933228 
1 1:-0.941717 2:-0.933228 
1 1:-0.941717 2:-0.933228 
1 1:-0.941717 2:-0.933228 
1 1:-0.941717 2:-0.933228 
1 1:-0.941717 2:-0.933228 
1 1:-0.941717 2:-0.933228 
1 1:-0.941717 2:-0.933228 
1 1:-0.941717 2:-0.933228 
1 1:-0.941717 2:-0.933228 
1 1:-0.941717 2:-0.933228 
1 1:-0.941717 2:-0.933228 
1 1:-0.941717 2:-0.933228 
1 1:-0.941717 2:-0.933228 
1 1:-0.941717 2:-0.933228 
1 1:-0.941717 2:-0.933228 
1 1:-0.941717 2:-0.933228 
1 1:-0.941717 2:-0.933228 
1 1:-0.941717 2:-0.933228 
1 1:-0.941717 2:-0.933228 
1 1:-0.941717 2:-0.933228 
1 1:-0.941717 2:-0.933228 
1 1:-0.941717 2:-0.933228 
1 1:-0.941717 2:-0.933228 
1 1:-0.941717 2:-0.933228 
1 1:-0.941717 2:-0.933228 
1 1:-0.941717 2:-0.933228 
1 1:-0.941717 2:-0.933228 
1 1:-0.941717 2:-0.933228 
1 1:-0.941717 2:-0.933228 
1 1:-0.941717 2:-0.933228 
1 1:-0.941717 2:-0.933228 
1 1:-0.941717 2:-0.933228 
1 1:-0.941717 2:-0.933228 
1 1:-0.941717 2:-0.933228 
1 1:-0.941717 2:-0.933228 
1 1:-0.941717 2:-0.933228 
1 1:-0.941717 2:-0.933228 
1 1:-0.941717 2:-0.933228 
1 1:-0.941717 2:-0.933228 
1 1:-0.941717 2:-0.933228 
1 1:-0.976363 2:-0.736932 
1 1:-0.551935 2:0.108541 
1 1:-0.976363 2:-0.736932 
1 1:-0.551935 2:0.108541 
1 1:-0.976363 2:-0.736932 
1 1:-0.551935 2:0.108541 
1 1:-0.976363 2:-0.736932 
1 1:-0.551935 2:0.108541 
1 1:-0.976363 2:-0.736932 
1 1:-0.551935 2:0.108541 
1 1:-0.976363 2:-0.736932 
1 1:-0.551935 2:0.108541 
1 1:-0.976363 2:-0.736932 
1 1:-0.551935 2:0.108541 
1 1:-0.976363 2:-0.736932 
1 1:-0.551935 2:0.108541 
1 1:-0.976363 2:-0.736932 
1 1:-0.551935 2:0.108541 
1 1:-0.976363 2:-0.736932 
1 1:-0.551935 2:0.108541 
1 1:-0.976363 2:-0.736932 
1 1:-0.551935 2:0.108541 
1 1:-0.976363 2:-0.736932 
1 1:-0.551935 2:0.108541 
1 1:-0.976363 2:-0.736932 
1 1:-0.551935 2:0.108541 
1 1:-0.976363 2:-0.736932 
1 1:-0.551935 2:0.108541 
1 1:-0.976363 2:-0.736932 
1 1:-0.551935 2:0.108541 
1 1:-0.976363 2:-0.736932 
1 1:-0.551935 2:0.108541 
1 1:-0.976363 2:-0.736932 
1 1:-0.551935 2:0.108541 
1 1:-0.976363 2:-0.736932 
1 1:-0.551935 2:0.108541 
1 1:-0.976363 2:-0.736932 
1 1:-0.551935 2:0.108541 
1 1:-0.976363 2:-0.736932 
1 1:-0.551935 2:0.108541 
1 1:-0.976363 2:-0.736932 
1 1:-0.551935 2:0.108541 
1 1:-0.976363 2:-0.736932 
1 1:-0.551935 2:0.108541 
1 1:-0.976363 2:-0.736932 
1 1:-0.551935 2:0.108541 
1 1:-0.976363 2:-0.736932 
1 1:-0.551935 2:0.108541 
1 1:-0.976363 2:-0.736932 
1 1:-0.551935 2:0.108541 
1 1:-0.976363 2:-0.736932 
1 1:-0.551935 2:0.108541 
1 1:-0.976363 2:-0.736932 
1 1:-0.551935 2:0.108541 
1 1:-0.976363 2:-0.736932 
1 1:-0.551935 2:0.108541 
1 1:-0.976363 2:-0.736932 
1 1:-0.551935 2:0.108541 
1 1:-0.976363 2:-0.736932 
1 1:-0.551935 2:0.108541 
1 1:-0.976363 2:-0.736932 
1 1:-0.551935 2:0.108541 
1 1:-0.976363 2:-0.736932 
1 1:-0.551935 2:0.108541 
1 1:-0.976363 2:-0.736932 
1 1:-0.551935 2:0.108541 
1 1:-0.976363 2:-0.736932 
1 1:-0.551935 2:0.108541 
1 1:-0.976363 2:-0.736932 
1 1:-0.551935 2:0.108541 
1 1:-0.976363 2:-0.736932 
1 1:-0.551935 2:0.108541 
1 1:-0.976363 2:-0.736932 
1 1:-0.551935 2:0.108541 
1 1:-0.976363 2:-0.736932 
1 1:-0.551935 2:0.108541 
1 1:-0.976363 2:-0.736932 
1 1:-0.551935 2:0.108541 
1 1:-0.976363 2:-0.736932 
1 1:-0.551935 2:0.108541 
1 1:-0.976363 2:-0.736932 
1 1:-0.551935 2:0.108541 
1 1:-0.976363 2:-0.736932 
1 1:-0.551935 2:0.108541 
1 1:-0.976363 2:-0.736932 
1 1:-0.551935 2:0.108541 
1 1:-0.976363 2:-0.736932 
1 1:-0.551935 2:0.108541 
1 1:-0.976363 2:-0.736932 
1 1:-0.551935 2:0.108541 
1 1:-0.976363 2:-0.736932 
1 1:-0.551935 2:0.108541 
1 1:-0.976363 2:-0.736932 
1 1:-0.551935 2:0.108541 
1 1:-0.976363 2:-0.736932 
1 1:-0.551935 2:0.108541 
1 1:-0.976363 2:-0.736932 
1 1:-0.551935 2:0.108541 
1 1:-0.976363 2:-0.736932 
1 1:-0.551935 2:0.108541 
1 1:-0.976363 2:-0.736932 
1 1:-0.551935 2:0.108541 
1 1:-0.976363 2:-0.736932 
1 1:-0.551935 2:0.108541 
1 1:-0.976363 2:-0.736932 
1 1:-0.551935 2:0.108541 
1 1:-0.976363 2:-0.736932 
1 1:-0.551935 2:0.108541 
1 1:-0.976363 2:-0.736932 
1 1:-0.551935 2:0.108541 
1 1:-0.976363 2:-0.736932 
1 1:-0.551935 2:0.108541 
1 1:-0.976363 2:-0.736932 
1 1:-0.551935 2:0.108541 
1 1:-0.976363 2:-0.736932 
1 1:-0.551935 2:0.108541 
1 1:-0.976363 2:-0.736932 
1 1:-0.551935 2:0.108541 
1 1:-0.976363 2:-0.736932 
1 1:-0.551935 2:0.108541 
1 1:-0.976363 2:-0.736932 
1 1:-0.551935 2:0.108541 
1 1:-0.976363 2:-0.736932 
1 1:-0.551935 2:0.108541 
1 1:-0.976363 2:-0.736932 
1 1:-0.551935 2:0.108541 
1 1:-0.976363 2:-0.736932 
1 1:-0.551935 2:0.108541 
1 1:-0.976363 2:-0.736932 
1 1:-0.551935 2:0.108541 
1 1:-0.976363 2:-0.736932 
1 1:-0.551935 2:0.108541 
1 1:-0.976363 2:-0.736932 
1 1:-0.551935 2:0.108541 
1 1:-0.976363 2:-0.736932 
1 1:-0.551935 2:0.108541 
1 1:-0.976363 2:-0.736932 
1 1:-0.551935 2:0.108541 
1 1:-0.976363 2:-0.736932 
1 1:-0.551935 2:0.108541 
1 1:-0.976363 2:-0.736932 
1 1:-0.551935 2:0.108541 
1 1:-0.976363 2:-0.736932 
1 1:-0.551935 2:0.108541 
1 1:-0.976363 2:-0.736932 
1 1:-0.551935 2:0.108541 
1 1:-0.976363 2:-0.736932 
1 1:-0.551935 2:0.108541 
1 1:-0.976363 2:-0.736932 
1 1:-0.551935 2:0.108541 
1 1:-0.976363 2:-0.736932 
1 1:-0.551935 2:0.108541 
1 1:-0.976363 2:-0.736932 
1 1:-0.551935 2:0.108541 
1 1:-0.976363 2:-0.736932 
1 1:-0.551935 2:0.108541 
1 1:-0.976363 2:-0.736932 
1 1:-0.551935 2:0.108541 
1 1:-0.976363 2:-0.736932 
1 1:-0.551935 2:0.108541 
1 1:-0.976363 2:-0.736932 
1 1:-0.551935 2:0.108541 
1 1:-0.976363 2:-0.736932 
1 1:-0.551935 2:0.108541 
1 1:-0.976363 2:-0.736932 
1 1:-0.551935 2:0.108541 
1 1:-0.976363 2:-0.736932 
1 1:-0.551935 2:0.108541 
1 1:-0.976363 2:-0.736932 
1 1:-0.551935 2:0.108541 
1 1:-0.976363 2:-0.736932 
1 1:-0.551935 2:0.108541 
1 1:-0.976363 2:-0.736932 
1 1:-0.551935 2:0.108541 
1 1:-0.976363 2:-0.736932 
1 1:-0.551935 2:0.108541 
1 1:-0.976363 2:-0.736932 
1 1:-0.551935 2:0.108541 
1 1:-0.976363 2:-0.736932 
1 1:-0.551935 2:0.108541 
1 1:-0.976363 2:-0.736932 
1 1:-0.551935 2:0.108541 
1 1:-0.976363 2:-0.736932 
1 1:-0.551935 2:0.108541 
1 1:-0.976363 2:-0.736932 
1 1:-0.551935 2:0.108541 
1 1:-0.976363 2:-0.736932 
1 1:-0.551935 2:0.108541 
1 1:-0.976363 2:-0.736932 
1 1:-0.551935 2:0.108541 
1 1:-0.870832 2:-0.959166 
1 1:-0.870832 2:-0.959166 
1 1:-0.870832 2:-0.959166 
1 1:-0.870832 2:-0.959166 
1 1:-0.870832 2:-0.959166 
1 1:-0.870832 2:-0.959166 
1 1:-0.870832 2:-0.959166 
1 1:-0.870832 2:-0.959166 
1 1:-0.870832 2:-0.959166 
1 1:-0.870832 2:-0.959166 
1 1:-0.870832 2:-0.959166 
1 1:-0.870832 2:-0.959166 
1 1:-0.870832 2:-0.959166 
1 1:-0.870832 2:-0.959166 
1 1:-0.870832 2:-0.959166 
1 1:-0.870832 2:-0.959166 
1 1:-0.870832 2:-0.959166 
1 1:-0.870832 2:-0.959166 
1 1:-0.870832 2:-0.959166 
1 1:-0.870832 2:-0.959166 
1 1:-0.870832 2:-0.959166 
1 1:-0.870832 2:-0.959166 
1 1:-0.870832 2:-0.959166 
1 1:-0.870832 2:-0.959166 
1 1:-0.870832 2:-0.959166 
1 1:-0.870832 2:-0.959166 
1 1:-0.870832 2:-0.959166 
1 1:-0.870832 2:-0.959166 
1 1:-0.870832 2:-0.959166 
1 1:-0.870832 2:-0.959166 
1 1:-0.870832 2:-0.959166 
1 1:-0.870832 2:-0.959166 
1 1:-0.870832 2:-0.959166 
1 1:-0.870832 2:-0.959166 
1 1:-0.870832 2:-0.959166 
1 1:-0.870832 2:-0.959166 
1 1:-0.870832 2:-0.959166 
1 1:-0.870832 2:-0.959166 
1 1:-0.870832 2:-0.959166 
1 1:-0.870832 2:-0.959166 
1 1:-0.870832 2:-0.959166 
1 1:-0.870832 2:-0.959166 
1 1:-0.870832 2:-0.959166 
1 1:-0.870832 2:-0.959166 
1 1:-0.870832 2:-0.959166 
1 1:-0.870832 2:-0.959166 
1 1:-0.870832 2:-0.959166 
1 1:-0.870832 2:-0.959166 
1 1:-0.870832 2:-0.959166 
1 1:-0.870832 2:-0.959166 
1 1:-0.870832 2:-0.959166 
1 1:-0.870832 2:-0.959166 
1 1:-0.870832 2:-0.959166 
1 1:-0.870832 2:-0.959166 
1 1:-0.870832 2:-0.959166 
1 1:-0.870832 2:-0.959166 
1 1:-0.870832 2:-0.959166 
1 1:-0.870832 2:-0.959166 
1 1:-0.870832 2:-0.959166 
1 1:-0.870832 2:-0.959166 
1 1:-0.870832 2:-0.959166 
1 1:-0.870832 2:-0.959166 
1 1:-0.870832 2:-0.959166 
1 1:-0.870832 2:-0.959166 
1 1:-0.870832 2:-0.959166 
1 1:-0.870832 2:-0.959166 
1 1:-0.870832 2:-0.959166 
1 1:-0.870832 2:-0.959166 
1 1:-0.870832 2:-0.959166 
1 1:-0.870832 2:-0.959166 
1 1:-0.870832 2:-0.959166 
1 1:-0.870832 2:-0.959166 
1 1:-0.870832 2:-0.959166 
1 1:-0.870832 2:-0.959166 
1 1:-0.870832 2:-0.959166 
1 1:-0.870832 2:-0.959166 
1 1:-0.870832 2:-0.959166 
1 1:-0.870832 2:-0.959166 
1 1:-0.870832 2:-0.959166 
1 1:-0.870832 2:-0.959166 
1 1:-0.870832 2:-0.959166 
1 1:-0.870832 2:-0.959166 
1 1:-0.870832 2:-0.959166 
1 1:-0.870832 2:-0.959166 
1 1:-0.870832 2:-0.959166 
1 1:-0.870832 2:-0.959166 
1 1:-0.870832 2:-0.959166 
1 1:-0.870832 2:-0.959166 
1 1:-0.870832 2:-0.959166 
1 1:-0.870832 2:-0.959166 
1 1:-0.870832 2:-0.959166 
1 1:-0.870832 2:-0.959166 
1 1:-0.870832 2:-0.959166 
1 1:-0.870832 2:-0.959166 
1 1:-0.870832 2:-0.959166 
1 1:-0.870832 2:-0.959166 
1 1:-0.870832 2:-0.959166 
1 1:-0.921438 2:-0.896381 
1 1:-0.921438 2:-0.896381 
1 1:-0.921438 2:-0.896381 
1 1:-0.921438 2:-0.896381 
1 1:-0.921438 2:-0.896381 
1 1:-0.921438 2:-0.896381 
1 1:-0.921438 2:-0.896381 
1 1:-0.921438 2:-0.896381 
1 1:-0.921438 2:-0.896381 
1 1:-0.921438 2:-0.896381 
1 1:-0.921438 2:-0.896381 
1 1:-0.921438 2:-0.896381 
1 1:-0.921438 2:-0.896381 
1 1:-0.921438 2:-0.896381 
1 1:-0.921438 2:-0.896381 
1 1:-0.921438 2:-0.896381 
1 1:-0.921438 2:-0.896381 
1 1:-0.921438 2:-0.896381 
1 1:-0.921438 2:-0.896381 
1 1:-0.921438 2:-0.896381 
1 1:-0.921438 2:-0.896381 
1 1:-0.921438 2:-0.896381 
1 1:-0.921438 2:-0.896381 
1 1:-0.921438 2:-0.896381 
1 1:-0.921438 2:-0.896381 
1 1:-0.921438 2:-0.896381 
1 1:-0.921438 2:-0.896381 
1 1:-0.921438 2:-0.896381 
1 1:-0.921438 2:-0.896381 
1 1:-0.921438 2:-0.896381 
1 1:-0.921438 2:-0.896381 
1 1:-0.921438 2:-0.896381 
1 1:-0.921438 2:-0.896381 
1 1:-0.921438 2:-0.896381 
1 1:-0.921438 2:-0.896381 
1 1:-0.921438 2:-0.896381 
1 1:-0.921438 2:-0.896381 
1 1:-0.921438 2:-0.896381 
1 1:-0.921438 2:-0.896381 
1 1:-0.921438 2:-0.896381 
1 1:-0.921438 2:-0.896381 
1 1:-0.921438 2:-0.896381 
1 1:-0.921438 2:-0.896381 
1 1:-0.921438 2:-0.896381 
1 1:-0.921438 2:-0.896381 
1 1:-0.921438 2:-0.896381 
1 1:-0.921438 2:-0.896381 
1 1:-0.921438 2:-0.896381 
1 1:-0.921438 2:-0.896381 
1 1:-0.921438 2:-0.896381 
1 1:-0.921438 2:-0.896381 
1 1:-0.921438 2:-0.896381 
1 1:-0.921438 2:-0.896381 
1 1:-0.921438 2:-0.896381 
1 1:-0.921438 2:-0.896381 
1 1:-0.921438 2:-0.896381 
1 1:-0.921438 2:-0.896381 
1 1:-0.921438 2:-0.896381 
1 1:-0.921438 2:-0.896381 
1 1:-0.921438 2:-0.896381 
1 1:-0.921438 2:-0.896381 
