svm_type one_class
kernel_type rbf
gamma 0.5
nr_class 2
total_sv 13505
rho 9711.77
SV
1 1:-0.991734 2:-0.974907 
1 1:-0.991734 2:-0.974907 
1 1:-0.991734 2:-0.974907 
1 1:-0.991734 2:-0.974907 
1 1:-0.991734 2:-0.974907 
1 1:-0.991734 2:-0.974907 
1 1:-0.991734 2:-0.974907 
1 1:-0.991734 2:-0.974907 
1 1:-0.991734 2:-0.974907 
1 1:-0.991734 2:-0.974907 
1 1:-0.991734 2:-0.974907 
1 1:-0.991734 2:-0.974907 
1 1:-0.991734 2:-0.974907 
1 1:-0.991734 2:-0.974907 
1 1:-0.991734 2:-0.974907 
1 1:-0.991734 2:-0.974907 
1 1:-0.991734 2:-0.974907 
1 1:-0.991734 2:-0.974907 
1 1:-0.991734 2:-0.974907 
1 1:-0.991734 2:-0.974907 
1 1:-0.991734 2:-0.974907 
1 1:-0.991734 2:-0.974907 
1 1:-0.991734 2:-0.974907 
1 1:-0.991734 2:-0.974907 
1 1:-0.991734 2:-0.974907 
1 1:-0.991734 2:-0.974907 
1 1:-0.991734 2:-0.974907 
1 1:-0.991734 2:-0.974907 
1 1:-0.991734 2:-0.974907 
1 1:-0.991734 2:-0.974907 
1 1:-0.991734 2:-0.974907 
1 1:-0.991734 2:-0.974907 
1 1:-0.991734 2:-0.974907 
1 1:-0.991734 2:-0.974907 
1 1:-0.991734 2:-0.974907 
1 1:-0.991734 2:-0.974907 
1 1:-0.991734 2:-0.974907 
1 1:-0.991734 2:-0.974907 
1 1:-0.991734 2:-0.974907 
1 1:-0.991734 2:-0.974907 
1 1:-0.991734 2:-0.974907 
1 1:-0.991734 2:-0.974907 
1 1:-0.991734 2:-0.974907 
1 1:-0.991734 2:-0.974907 
1 1:-0.991734 2:-0.974907 
1 1:-0.991734 2:-0.974907 
1 1:-0.991734 2:-0.974907 
1 1:-0.991734 2:-0.974907 
1 1:-0.991734 2:-0.974907 
1 1:-0.991734 2:-0.974907 
1 1:-0.991734 2:-0.974907 
1 1:-0.991734 2:-0.974907 
1 1:-0.991734 2:-0.974907 
1 1:-0.991734 2:-0.974907 
1 1:-0.991734 2:-0.974907 
1 1:-0.991734 2:-0.974907 
1 1:-0.991734 2:-0.974907 
1 1:-0.991734 2:-0.974907 
1 1:-0.991734 2:-0.974907 
1 1:-0.991734 2:-0.974907 
1 1:-0.991734 2:-0.974907 
1 1:-0.991734 2:-0.974907 
1 1:-0.991734 2:-0.974907 
1 1:-0.991734 2:-0.974907 
1 1:-0.991734 2:-0.974907 
1 1:-0.991734 2:-0.974907 
1 1:-0.991734 2:-0.974907 
1 1:-0.991734 2:-0.974907 
1 1:-0.991734 2:-0.974907 
1 1:-0.991734 2:-0.974907 
1 1:-0.991734 2:-0.974907 
1 1:-0.991734 2:-0.974907 
1 1:-0.991734 2:-0.974907 
1 1:-0.991734 2:-0.974907 
1 1:-0.991734 2:-0.974907 
1 1:-0.991734 2:-0.974907 
1 1:-0.991734 2:-0.974907 
1 1:-0.991734 2:-0.974907 
1 1:-0.991734 2:-0.974907 
1 1:-0.991734 2:-0.974907 
1 1:-0.991734 2:-0.974907 
1 1:-0.991734 2:-0.974907 
1 1:-0.991734 2:-0.974907 
1 1:-0.991734 2:-0.974907 
1 1:-0.991734 2:-0.974907 
1 1:-0.991734 2:-0.974907 
1 1:-0.991734 2:-0.974907 
1 1:-0.991734 2:-0.974907 
1 1:-0.991734 2:-0.974907 
1 1:-0.991734 2:-0.974907 
1 1:-0.991734 2:-0.974907 
1 1:-0.991734 2:-0.974907 
1 1:-0.991734 2:-0.974907 
1 1:-0.991734 2:-0.974907 
1 1:-0.991734 2:-0.974907 
1 1:-0.991734 2:-0.974907 
1 1:-0.991428 2:-0.990716 
1 1:-0.991428 2:-0.990716 
1 1:-0.991428 2:-0.990716 
1 1:-0.991428 2:-0.990716 
1 1:-0.991428 2:-0.990716 
1 1:-0.991428 2:-0.990716 
1 1:-0.991428 2:-0.990716 
1 1:-0.991428 2:-0.990716 
1 1:-0.991428 2:-0.990716 
1 1:-0.991428 2:-0.990716 
1 1:-0.991428 2:-0.990716 
1 1:-0.991428 2:-0.990716 
1 1:-0.991428 2:-0.990716 
1 1:-0.991428 2:-0.990716 
1 1:-0.991428 2:-0.990716 
1 1:-0.991428 2:-0.990716 
1 1:-0.991428 2:-0.990716 
1 1:-0.991428 2:-0.990716 
1 1:-0.991428 2:-0.990716 
1 1:-0.991428 2:-0.990716 
1 1:-0.991428 2:-0.990716 
1 1:-0.991428 2:-0.990716 
1 1:-0.991428 2:-0.990716 
1 1:-0.991428 2:-0.990716 
1 1:-0.991428 2:-0.990716 
1 1:-0.991428 2:-0.990716 
1 1:-0.991428 2:-0.990716 
1 1:-0.991428 2:-0.990716 
1 1:-0.991428 2:-0.990716 
1 1:-0.991428 2:-0.990716 
1 1:-0.991428 2:-0.990716 
1 1:-0.991428 2:-0.990716 
1 1:-0.991428 2:-0.990716 
1 1:-0.991428 2:-0.990716 
1 1:-0.991428 2:-0.990716 
1 1:-0.991428 2:-0.990716 
1 1:-0.991428 2:-0.990716 
1 1:-0.991428 2:-0.990716 
1 1:-0.991428 2:-0.990716 
1 1:-0.991428 2:-0.990716 
1 1:-0.991428 2:-0.990716 
1 1:-0.991428 2:-0.990716 
1 1:-0.991428 2:-0.990716 
1 1:-0.991428 2:-0.990716 
1 1:-0.991428 2:-0.990716 
1 1:-0.991428 2:-0.990716 
1 1:-0.991428 2:-0.990716 
1 1:-0.991428 2:-0.990716 
1 1:-0.991428 2:-0.990716 
1 1:-0.991428 2:-0.990716 
1 1:-0.991428 2:-0.990716 
1 1:-0.991428 2:-0.990716 
1 1:-0.991428 2:-0.990716 
1 1:-0.991428 2:-0.990716 
1 1:-0.991428 2:-0.990716 
1 1:-0.991428 2:-0.990716 
1 1:-0.991428 2:-0.990716 
1 1:-0.991428 2:-0.990716 
1 1:-0.991428 2:-0.990716 
1 1:-0.991428 2:-0.990716 
1 1:-0.991428 2:-0.990716 
1 1:-0.991428 2:-0.990716 
1 1:-0.991428 2:-0.990716 
1 1:-0.991428 2:-0.990716 
1 1:-0.991428 2:-0.990716 
1 1:-0.991428 2:-0.990716 
1 1:-0.991428 2:-0.990716 
1 1:-0.991428 2:-0.990716 
1 1:-0.991428 2:-0.990716 
1 1:-0.991428 2:-0.990716 
1 1:-0.991428 2:-0.990716 
1 1:-0.991428 2:-0.990716 
1 1:-0.991428 2:-0.990716 
1 1:-0.991428 2:-0.990716 
1 1:-0.991428 2:-0.990716 
1 1:-0.991428 2:-0.990716 
1 1:-0.991428 2:-0.990716 
1 1:-0.991428 2:-0.990716 
1 1:-0.991428 2:-0.990716 
1 1:-0.991428 2:-0.990716 
1 1:-0.991428 2:-0.990716 
1 1:-0.991428 2:-0.990716 
1 1:-0.991428 2:-0.990716 
1 1:-0.991428 2:-0.990716 
1 1:-0.991428 2:-0.990716 
1 1:-0.991428 2:-0.990716 
1 1:-0.991428 2:-0.990716 
1 1:-0.991428 2:-0.990716 
1 1:-0.991428 2:-0.990716 
1 1:-0.991428 2:-0.990716 
1 1:-0.991428 2:-0.990716 
1 1:-0.991428 2:-0.990716 
1 1:-0.991428 2:-0.990716 
1 1:-0.991428 2:-0.990716 
1 1:-0.991428 2:-0.990716 
1 1:-0.991428 2:-0.990716 
1 1:-0.968152 2:-0.979642 
1 1:-0.968152 2:-0.979642 
1 1:-0.968152 2:-0.979642 
1 1:-0.968152 2:-0.979642 
1 1:-0.968152 2:-0.979642 
1 1:-0.968152 2:-0.979642 
1 1:-0.968152 2:-0.979642 
1 1:-0.968152 2:-0.979642 
1 1:-0.968152 2:-0.979642 
1 1:-0.968152 2:-0.979642 
1 1:-0.968152 2:-0.979642 
1 1:-0.968152 2:-0.979642 
1 1:-0.968152 2:-0.979642 
1 1:-0.968152 2:-0.979642 
1 1:-0.968152 2:-0.979642 
1 1:-0.968152 2:-0.979642 
1 1:-0.968152 2:-0.979642 
1 1:-0.968152 2:-0.979642 
1 1:-0.968152 2:-0.979642 
1 1:-0.968152 2:-0.979642 
1 1:-0.968152 2:-0.979642 
1 1:-0.968152 2:-0.979642 
1 1:-0.968152 2:-0.979642 
1 1:-0.968152 2:-0.979642 
1 1:-0.968152 2:-0.979642 
1 1:-0.968152 2:-0.979642 
1 1:-0.968152 2:-0.979642 
1 1:-0.968152 2:-0.979642 
1 1:-0.968152 2:-0.979642 
1 1:-0.968152 2:-0.979642 
1 1:-0.968152 2:-0.979642 
1 1:-0.968152 2:-0.979642 
1 1:-0.968152 2:-0.979642 
1 1:-0.968152 2:-0.979642 
1 1:-0.968152 2:-0.979642 
1 1:-0.968152 2:-0.979642 
1 1:-0.968152 2:-0.979642 
1 1:-0.968152 2:-0.979642 
1 1:-0.968152 2:-0.979642 
1 1:-0.968152 2:-0.979642 
1 1:-0.968152 2:-0.979642 
1 1:-0.968152 2:-0.979642 
1 1:-0.968152 2:-0.979642 
1 1:-0.968152 2:-0.979642 
1 1:-0.968152 2:-0.979642 
1 1:-0.968152 2:-0.979642 
1 1:-0.968152 2:-0.979642 
1 1:-0.968152 2:-0.979642 
1 1:-0.968152 2:-0.979642 
1 1:-0.968152 2:-0.979642 
1 1:-0.968152 2:-0.979642 
1 1:-0.968152 2:-0.979642 
1 1:-0.968152 2:-0.979642 
1 1:-0.968152 2:-0.979642 
1 1:-0.968152 2:-0.979642 
1 1:-0.968152 2:-0.979642 
1 1:-0.968152 2:-0.979642 
1 1:-0.968152 2:-0.979642 
1 1:-0.968152 2:-0.979642 
1 1:-0.968152 2:-0.979642 
1 1:-0.968152 2:-0.979642 
1 1:-0.968152 2:-0.979642 
1 1:-0.968152 2:-0.979642 
1 1:-0.968152 2:-0.979642 
1 1:-0.968152 2:-0.979642 
1 1:-0.968152 2:-0.979642 
1 1:-0.968152 2:-0.979642 
1 1:-0.968152 2:-0.979642 
1 1:-0.968152 2:-0.979642 
1 1:-0.968152 2:-0.979642 
1 1:-0.968152 2:-0.979642 
1 1:-0.968152 2:-0.979642 
1 1:-0.968152 2:-0.979642 
1 1:-0.968152 2:-0.979642 
1 1:-0.968152 2:-0.979642 
1 1:-0.968152 2:-0.979642 
1 1:-0.968152 2:-0.979642 
1 1:-0.968152 2:-0.979642 
1 1:-0.968152 2:-0.979642 
1 1:-0.968152 2:-0.979642 
1 1:-0.968152 2:-0.979642 
1 1:-0.968152 2:-0.979642 
1 1:-0.968152 2:-0.979642 
1 1:-0.968152 2:-0.979642 
1 1:-0.968152 2:-0.979642 
1 1:-0.968152 2:-0.979642 
1 1:-0.968152 2:-0.979642 
1 1:-0.968152 2:-0.979642 
1 1:-0.968152 2:-0.979642 
1 1:-0.968152 2:-0.979642 
1 1:-0.968152 2:-0.979642 
1 1:-0.968152 2:-0.979642 
1 1:-0.968152 2:-0.979642 
1 1:-0.968152 2:-0.979642 
1 1:-0.968152 2:-0.979642 
1 1:-0.968152 2:-0.979642 
1 1:-0.822977 2:0.291457 
1 1:-0.711736 2:0.721759 
1 1:-0.822977 2:0.291457 
1 1:-0.711736 2:0.721759 
1 1:-0.822977 2:0.291457 
1 1:-0.711736 2:0.721759 
1 1:-0.822977 2:0.291457 
1 1:-0.711736 2:0.721759 
1 1:-0.822977 2:0.291457 
1 1:-0.711736 2:0.721759 
1 1:-0.822977 2:0.291457 
1 1:-0.711736 2:0.721759 
1 1:-0.822977 2:0.291457 
1 1:-0.711736 2:0.721759 
1 1:-0.822977 2:0.291457 
1 1:-0.711736 2:0.721759 
1 1:-0.822977 2:0.291457 
1 1:-0.711736 2:0.721759 
1 1:-0.822977 2:0.291457 
1 1:-0.711736 2:0.721759 
1 1:-0.822977 2:0.291457 
1 1:-0.711736 2:0.721759 
1 1:-0.822977 2:0.291457 
1 1:-0.711736 2:0.721759 
1 1:-0.822977 2:0.291457 
1 1:-0.711736 2:0.721759 
1 1:-0.822977 2:0.291457 
1 1:-0.711736 2:0.721759 
1 1:-0.822977 2:0.291457 
1 1:-0.711736 2:0.721759 
1 1:-0.822977 2:0.291457 
1 1:-0.711736 2:0.721759 
1 1:-0.822977 2:0.291457 
1 1:-0.711736 2:0.721759 
1 1:-0.822977 2:0.291457 
1 1:-0.711736 2:0.721759 
1 1:-0.822977 2:0.291457 
1 1:-0.711736 2:0.721759 
1 1:-0.822977 2:0.291457 
1 1:-0.711736 2:0.721759 
1 1:-0.822977 2:0.291457 
1 1:-0.711736 2:0.721759 
1 1:-0.822977 2:0.291457 
1 1:-0.711736 2:0.721759 
1 1:-0.822977 2:0.291457 
1 1:-0.711736 2:0.721759 
1 1:-0.822977 2:0.291457 
1 1:-0.711736 2:0.721759 
1 1:-0.822977 2:0.291457 
1 1:-0.711736 2:0.721759 
1 1:-0.822977 2:0.291457 
1 1:-0.711736 2:0.721759 
1 1:-0.822977 2:0.291457 
1 1:-0.711736 2:0.721759 
1 1:-0.822977 2:0.291457 
1 1:-0.711736 2:0.721759 
1 1:-0.822977 2:0.291457 
1 1:-0.711736 2:0.721759 
1 1:-0.822977 2:0.291457 
1 1:-0.711736 2:0.721759 
1 1:-0.822977 2:0.291457 
1 1:-0.711736 2:0.721759 
1 1:-0.822977 2:0.291457 
1 1:-0.711736 2:0.721759 
1 1:-0.822977 2:0.291457 
1 1:-0.711736 2:0.721759 
1 1:-0.822977 2:0.291457 
1 1:-0.711736 2:0.721759 
1 1:-0.822977 2:0.291457 
1 1:-0.711736 2:0.721759 
1 1:-0.822977 2:0.291457 
1 1:-0.711736 2:0.721759 
1 1:-0.822977 2:0.291457 
1 1:-0.711736 2:0.721759 
1 1:-0.822977 2:0.291457 
1 1:-0.711736 2:0.721759 
1 1:-0.822977 2:0.291457 
1 1:-0.711736 2:0.721759 
1 1:-0.822977 2:0.291457 
1 1:-0.711736 2:0.721759 
1 1:-0.822977 2:0.291457 
1 1:-0.711736 2:0.721759 
1 1:-0.822977 2:0.291457 
1 1:-0.711736 2:0.721759 
1 1:-0.822977 2:0.291457 
1 1:-0.711736 2:0.721759 
1 1:-0.822977 2:0.291457 
1 1:-0.711736 2:0.721759 
1 1:-0.822977 2:0.291457 
1 1:-0.711736 2:0.721759 
1 1:-0.822977 2:0.291457 
1 1:-0.711736 2:0.721759 
1 1:-0.822977 2:0.291457 
1 1:-0.711736 2:0.721759 
1 1:-0.822977 2:0.291457 
1 1:-0.711736 2:0.721759 
1 1:-0.822977 2:0.291457 
1 1:-0.711736 2:0.721759 
1 1:-0.822977 2:0.291457 
1 1:-0.711736 2:0.721759 
1 1:-0.822977 2:0.291457 
1 1:-0.711736 2:0.721759 
1 1:-0.822977 2:0.291457 
1 1:-0.711736 2:0.721759 
1 1:-0.822977 2:0.291457 
1 1:-0.711736 2:0.721759 
1 1:-0.822977 2:0.291457 
1 1:-0.711736 2:0.721759 
1 1:-0.822977 2:0.291457 
1 1:-0.711736 2:0.721759 
1 1:-0.822977 2:0.291457 
1 1:-0.711736 2:0.721759 
1 1:-0.822977 2:0.291457 
1 1:-0.711736 2:0.721759 
1 1:-0.822977 2:0.291457 
1 1:-0.711736 2:0.721759 
1 1:-0.822977 2:0.291457 
1 1:-0.711736 2:0.721759 
1 1:-0.822977 2:0.291457 
1 1:-0.711736 2:0.721759 
1 1:-0.822977 2:0.291457 
1 1:-0.711736 2:0.721759 
1 1:-0.822977 2:0.291457 
1 1:-0.711736 2:0.721759 
1 1:-0.822977 2:0.291457 
1 1:-0.711736 2:0.721759 
1 1:-0.822977 2:0.291457 
1 1:-0.711736 2:0.721759 
1 1:-0.822977 2:0.291457 
1 1:-0.711736 2:0.721759 
1 1:-0.822977 2:0.291457 
1 1:-0.711736 2:0.721759 
1 1:-0.822977 2:0.291457 
1 1:-0.711736 2:0.721759 
1 1:-0.822977 2:0.291457 
1 1:-0.711736 2:0.721759 
1 1:-0.822977 2:0.291457 
1 1:-0.711736 2:0.721759 
1 1:-0.822977 2:0.291457 
1 1:-0.711736 2:0.721759 
1 1:-0.822977 2:0.291457 
1 1:-0.711736 2:0.721759 
1 1:-0.822977 2:0.291457 
1 1:-0.711736 2:0.721759 
1 1:-0.822977 2:0.291457 
1 1:-0.711736 2:0.721759 
1 1:-0.822977 2:0.291457 
1 1:-0.711736 2:0.721759 
1 1:-0.822977 2:0.291457 
1 1:-0.711736 2:0.721759 
1 1:-0.822977 2:0.291457 
1 1:-0.711736 2:0.721759 
1 1:-0.822977 2:0.291457 
1 1:-0.711736 2:0.721759 
1 1:-0.822977 2:0.291457 
1 1:-0.711736 2:0.721759 
1 1:-0.822977 2:0.291457 
1 1:-0.711736 2:0.721759 
1 1:-0.822977 2:0.291457 
1 1:-0.711736 2:0.721759 
1 1:-0.822977 2:0.291457 
1 1:-0.711736 2:0.721759 
1 1:-0.822977 2:0.291457 
1 1:-0.711736 2:0.721759 
1 1:-0.822977 2:0.291457 
1 1:-0.711736 2:0.721759 
1 1:-0.822977 2:0.291457 
1 1:-0.711736 2:0.721759 
1 1:-0.822977 2:0.291457 
1 1:-0.711736 2:0.721759 
1 1:-0.822977 2:0.291457 
1 1:-0.711736 2:0.721759 
1 1:-0.822977 2:0.291457 
1 1:-0.711736 2:0.721759 
1 1:-0.822977 2:0.291457 
1 1:-0.711736 2:0.721759 
1 1:-0.822977 2:0.291457 
1 1:-0.711736 2:0.721759 
1 1:-0.822977 2:0.291457 
1 1:-0.711736 2:0.721759 
1 1:-0.822977 2:0.291457 
1 1:-0.711736 2:0.721759 
1 1:-0.822977 2:0.291457 
1 1:-0.711736 2:0.721759 
1 1:-0.822977 2:0.291457 
1 1:-0.711736 2:0.721759 
1 1:-0.822977 2:0.291457 
1 1:-0.711736 2:0.721759 
1 1:-0.822977 2:0.291457 
1 1:-0.711736 2:0.721759 
1 1:-0.980507 2:-0.968352 
1 1:-0.980507 2:-0.968352 
1 1:-0.980507 2:-0.968352 
1 1:-0.980507 2:-0.968352 
1 1:-0.980507 2:-0.968352 
1 1:-0.980507 2:-0.968352 
1 1:-0.980507 2:-0.968352 
1 1:-0.980507 2:-0.968352 
1 1:-0.980507 2:-0.968352 
1 1:-0.980507 2:-0.968352 
1 1:-0.980507 2:-0.968352 
1 1:-0.980507 2:-0.968352 
1 1:-0.980507 2:-0.968352 
1 1:-0.980507 2:-0.968352 
1 1:-0.980507 2:-0.968352 
1 1:-0.980507 2:-0.968352 
1 1:-0.980507 2:-0.968352 
1 1:-0.980507 2:-0.968352 
1 1:-0.980507 2:-0.968352 
1 1:-0.980507 2:-0.968352 
1 1:-0.980507 2:-0.968352 
1 1:-0.980507 2:-0.968352 
1 1:-0.980507 2:-0.968352 
1 1:-0.980507 2:-0.968352 
1 1:-0.980507 2:-0.968352 
1 1:-0.980507 2:-0.968352 
1 1:-0.980507 2:-0.968352 
1 1:-0.980507 2:-0.968352 
1 1:-0.980507 2:-0.968352 
1 1:-0.980507 2:-0.968352 
1 1:-0.980507 2:-0.968352 
1 1:-0.980507 2:-0.968352 
1 1:-0.980507 2:-0.968352 
1 1:-0.980507 2:-0.968352 
1 1:-0.980507 2:-0.968352 
1 1:-0.980507 2:-0.968352 
1 1:-0.980507 2:-0.968352 
1 1:-0.980507 2:-0.968352 
1 1:-0.980507 2:-0.968352 
1 1:-0.980507 2:-0.968352 
1 1:-0.980507 2:-0.968352 
1 1:-0.980507 2:-0.968352 
1 1:-0.980507 2:-0.968352 
1 1:-0.980507 2:-0.968352 
1 1:-0.980507 2:-0.968352 
1 1:-0.980507 2:-0.968352 
1 1:-0.980507 2:-0.968352 
1 1:-0.980507 2:-0.968352 
1 1:-0.980507 2:-0.968352 
1 1:-0.980507 2:-0.968352 
1 1:-0.980507 2:-0.968352 
1 1:-0.980507 2:-0.968352 
1 1:-0.980507 2:-0.968352 
1 1:-0.980507 2:-0.968352 
1 1:-0.980507 2:-0.968352 
1 1:-0.980507 2:-0.968352 
1 1:-0.980507 2:-0.968352 
1 1:-0.980507 2:-0.968352 
1 1:-0.980507 2:-0.968352 
1 1:-0.980507 2:-0.968352 
1 1:-0.980507 2:-0.968352 
1 1:-0.980507 2:-0.968352 
1 1:-0.980507 2:-0.968352 
1 1:-0.980507 2:-0.968352 
1 1:-0.980507 2:-0.968352 
1 1:-0.980507 2:-0.968352 
1 1:-0.980507 2:-0.968352 
1 1:-0.980507 2:-0.968352 
1 1:-0.980507 2:-0.968352 
1 1:-0.980507 2:-0.968352 
1 1:-0.980507 2:-0.968352 
1 1:-0.980507 2:-0.968352 
1 1:-0.980507 2:-0.968352 
1 1:-0.980507 2:-0.968352 
1 1:-0.980507 2:-0.968352 
1 1:-0.980507 2:-0.968352 
1 1:-0.980507 2:-0.968352 
1 1:-0.980507 2:-0.968352 
1 1:-0.980507 2:-0.968352 
1 1:-0.980507 2:-0.968352 
1 1:-0.980507 2:-0.968352 
1 1:-0.980507 2:-0.968352 
1 1:-0.980507 2:-0.968352 
1 1:-0.980507 2:-0.968352 
1 1:-0.980507 2:-0.968352 
1 1:-0.980507 2:-0.968352 
1 1:-0.980507 2:-0.968352 
1 1:-0.980507 2:-0.968352 
1 1:-0.980507 2:-0.968352 
1 1:-0.980507 2:-0.968352 
1 1:-0.980507 2:-0.968352 
1 1:-0.980507 2:-0.968352 
1 1:-0.980507 2:-0.968352 
1 1:-0.980507 2:-0.968352 
1 1:-0.980507 2:-0.968352 
1 1:-0.970681 2:-0.973301 
1 1:-0.970681 2:-0.973301 
1 1:-0.970681 2:-0.973301 
1 1:-0.970681 2:-0.973301 
1 1:-0.970681 2:-0.973301 
1 1:-0.970681 2:-0.973301 
1 1:-0.970681 2:-0.973301 
1 1:-0.970681 2:-0.973301 
1 1:-0.970681 2:-0.973301 
1 1:-0.970681 2:-0.973301 
1 1:-0.970681 2:-0.973301 
1 1:-0.970681 2:-0.973301 
1 1:-0.970681 2:-0.973301 
1 1:-0.970681 2:-0.973301 
1 1:-0.970681 2:-0.973301 
1 1:-0.970681 2:-0.973301 
1 1:-0.970681 2:-0.973301 
1 1:-0.970681 2:-0.973301 
1 1:-0.970681 2:-0.973301 
1 1:-0.970681 2:-0.973301 
1 1:-0.970681 2:-0.973301 
1 1:-0.970681 2:-0.973301 
1 1:-0.970681 2:-0.973301 
1 1:-0.970681 2:-0.973301 
1 1:-0.970681 2:-0.973301 
1 1:-0.970681 2:-0.973301 
1 1:-0.970681 2:-0.973301 
1 1:-0.970681 2:-0.973301 
1 1:-0.970681 2:-0.973301 
1 1:-0.970681 2:-0.973301 
1 1:-0.970681 2:-0.973301 
1 1:-0.970681 2:-0.973301 
1 1:-0.970681 2:-0.973301 
1 1:-0.970681 2:-0.973301 
1 1:-0.970681 2:-0.973301 
1 1:-0.970681 2:-0.973301 
1 1:-0.970681 2:-0.973301 
1 1:-0.970681 2:-0.973301 
1 1:-0.970681 2:-0.973301 
1 1:-0.970681 2:-0.973301 
1 1:-0.970681 2:-0.973301 
1 1:-0.970681 2:-0.973301 
1 1:-0.970681 2:-0.973301 
1 1:-0.970681 2:-0.973301 
1 1:-0.970681 2:-0.973301 
1 1:-0.970681 2:-0.973301 
1 1:-0.970681 2:-0.973301 
1 1:-0.970681 2:-0.973301 
1 1:-0.970681 2:-0.973301 
1 1:-0.970681 2:-0.973301 
1 1:-0.970681 2:-0.973301 
1 1:-0.970681 2:-0.973301 
1 1:-0.970681 2:-0.973301 
1 1:-0.970681 2:-0.973301 
1 1:-0.970681 2:-0.973301 
1 1:-0.970681 2:-0.973301 
1 1:-0.970681 2:-0.973301 
1 1:-0.970681 2:-0.973301 
1 1:-0.970681 2:-0.973301 
1 1:-0.970681 2:-0.973301 
1 1:-0.970681 2:-0.973301 
1 1:-0.970681 2:-0.973301 
1 1:-0.970681 2:-0.973301 
1 1:-0.970681 2:-0.973301 
1 1:-0.970681 2:-0.973301 
1 1:-0.970681 2:-0.973301 
1 1:-0.970681 2:-0.973301 
1 1:-0.970681 2:-0.973301 
1 1:-0.970681 2:-0.973301 
1 1:-0.970681 2:-0.973301 
1 1:-0.970681 2:-0.973301 
1 1:-0.970681 2:-0.973301 
1 1:-0.970681 2:-0.973301 
1 1:-0.970681 2:-0.973301 
1 1:-0.970681 2:-0.973301 
1 1:-0.970681 2:-0.973301 
1 1:-0.970681 2:-0.973301 
1 1:-0.970681 2:-0.973301 
1 1:-0.970681 2:-0.973301 
1 1:-0.970681 2:-0.973301 
1 1:-0.970681 2:-0.973301 
1 1:-0.970681 2:-0.973301 
1 1:-0.970681 2:-0.973301 
1 1:-0.970681 2:-0.973301 
1 1:-0.970681 2:-0.973301 
1 1:-0.970681 2:-0.973301 
1 1:-0.970681 2:-0.973301 
1 1:-0.970681 2:-0.973301 
1 1:-0.970681 2:-0.973301 
1 1:-0.970681 2:-0.973301 
1 1:-0.970681 2:-0.973301 
1 1:-0.970681 2:-0.973301 
1 1:-0.970681 2:-0.973301 
1 1:-0.970681 2:-0.973301 
1 1:-0.970681 2:-0.973301 
1 1:-0.973251 2:-0.976812 
1 1:-0.973251 2:-0.976812 
1 1:-0.973251 2:-0.976812 
1 1:-0.973251 2:-0.976812 
1 1:-0.973251 2:-0.976812 
1 1:-0.973251 2:-0.976812 
1 1:-0.973251 2:-0.976812 
1 1:-0.973251 2:-0.976812 
1 1:-0.973251 2:-0.976812 
1 1:-0.973251 2:-0.976812 
1 1:-0.973251 2:-0.976812 
1 1:-0.973251 2:-0.976812 
1 1:-0.973251 2:-0.976812 
1 1:-0.973251 2:-0.976812 
1 1:-0.973251 2:-0.976812 
1 1:-0.973251 2:-0.976812 
1 1:-0.973251 2:-0.976812 
1 1:-0.973251 2:-0.976812 
1 1:-0.973251 2:-0.976812 
1 1:-0.973251 2:-0.976812 
1 1:-0.973251 2:-0.976812 
1 1:-0.973251 2:-0.976812 
1 1:-0.973251 2:-0.976812 
1 1:-0.973251 2:-0.976812 
1 1:-0.973251 2:-0.976812 
1 1:-0.973251 2:-0.976812 
1 1:-0.973251 2:-0.976812 
1 1:-0.973251 2:-0.976812 
1 1:-0.973251 2:-0.976812 
1 1:-0.973251 2:-0.976812 
1 1:-0.973251 2:-0.976812 
1 1:-0.973251 2:-0.976812 
1 1:-0.973251 2:-0.976812 
1 1:-0.973251 2:-0.976812 
1 1:-0.973251 2:-0.976812 
1 1:-0.973251 2:-0.976812 
1 1:-0.973251 2:-0.976812 
1 1:-0.973251 2:-0.976812 
1 1:-0.973251 2:-0.976812 
1 1:-0.973251 2:-0.976812 
1 1:-0.973251 2:-0.976812 
1 1:-0.973251 2:-0.976812 
1 1:-0.973251 2:-0.976812 
1 1:-0.973251 2:-0.976812 
1 1:-0.973251 2:-0.976812 
1 1:-0.973251 2:-0.976812 
1 1:-0.973251 2:-0.976812 
1 1:-0.973251 2:-0.976812 
1 1:-0.973251 2:-0.976812 
1 1:-0.973251 2:-0.976812 
1 1:-0.973251 2:-0.976812 
1 1:-0.973251 2:-0.976812 
1 1:-0.973251 2:-0.976812 
1 1:-0.973251 2:-0.976812 
1 1:-0.973251 2:-0.976812 
1 1:-0.973251 2:-0.976812 
1 1:-0.973251 2:-0.976812 
1 1:-0.973251 2:-0.976812 
1 1:-0.973251 2:-0.976812 
1 1:-0.973251 2:-0.976812 
1 1:-0.973251 2:-0.976812 
1 1:-0.973251 2:-0.976812 
1 1:-0.973251 2:-0.976812 
1 1:-0.973251 2:-0.976812 
1 1:-0.973251 2:-0.976812 
1 1:-0.973251 2:-0.976812 
1 1:-0.973251 2:-0.976812 
1 1:-0.973251 2:-0.976812 
1 1:-0.973251 2:-0.976812 
1 1:-0.973251 2:-0.976812 
1 1:-0.973251 2:-0.976812 
1 1:-0.973251 2:-0.976812 
1 1:-0.973251 2:-0.976812 
1 1:-0.973251 2:-0.976812 
1 1:-0.973251 2:-0.976812 
1 1:-0.973251 2:-0.976812 
1 1:-0.973251 2:-0.976812 
1 1:-0.973251 2:-0.976812 
1 1:-0.973251 2:-0.976812 
1 1:-0.973251 2:-0.976812 
1 1:-0.973251 2:-0.976812 
1 1:-0.973251 2:-0.976812 
1 1:-0.973251 2:-0.976812 
1 1:-0.973251 2:-0.976812 
1 1:-0.973251 2:-0.976812 
1 1:-0.973251 2:-0.976812 
1 1:-0.973251 2:-0.976812 
1 1:-0.973251 2:-0.976812 
1 1:-0.973251 2:-0.976812 
1 1:-0.973251 2:-0.976812 
1 1:-0.973251 2:-0.976812 
1 1:-0.973251 2:-0.976812 
1 1:-0.973251 2:-0.976812 
1 1:-0.974296 2:-0.982436 
1 1:-0.974296 2:-0.982436 
1 1:-0.974296 2:-0.982436 
1 1:-0.974296 2:-0.982436 
1 1:-0.974296 2:-0.982436 
1 1:-0.974296 2:-0.982436 
1 1:-0.974296 2:-0.982436 
1 1:-0.974296 2:-0.982436 
1 1:-0.974296 2:-0.982436 
1 1:-0.974296 2:-0.982436 
1 1:-0.974296 2:-0.982436 
1 1:-0.974296 2:-0.982436 
1 1:-0.974296 2:-0.982436 
1 1:-0.974296 2:-0.982436 
1 1:-0.974296 2:-0.982436 
1 1:-0.974296 2:-0.982436 
1 1:-0.974296 2:-0.982436 
1 1:-0.974296 2:-0.982436 
1 1:-0.974296 2:-0.982436 
1 1:-0.974296 2:-0.982436 
1 1:-0.974296 2:-0.982436 
1 1:-0.974296 2:-0.982436 
1 1:-0.974296 2:-0.982436 
1 1:-0.974296 2:-0.982436 
1 1:-0.974296 2:-0.982436 
1 1:-0.974296 2:-0.982436 
1 1:-0.974296 2:-0.982436 
1 1:-0.974296 2:-0.982436 
1 1:-0.974296 2:-0.982436 
1 1:-0.974296 2:-0.982436 
1 1:-0.974296 2:-0.982436 
1 1:-0.974296 2:-0.982436 
1 1:-0.974296 2:-0.982436 
1 1:-0.974296 2:-0.982436 
1 1:-0.974296 2:-0.982436 
1 1:-0.974296 2:-0.982436 
1 1:-0.974296 2:-0.982436 
1 1:-0.974296 2:-0.982436 
1 1:-0.974296 2:-0.982436 
1 1:-0.974296 2:-0.982436 
1 1:-0.974296 2:-0.982436 
1 1:-0.974296 2:-0.982436 
1 1:-0.974296 2:-0.982436 
1 1:-0.974296 2:-0.982436 
1 1:-0.974296 2:-0.982436 
1 1:-0.974296 2:-0.982436 
1 1:-0.974296 2:-0.982436 
1 1:-0.974296 2:-0.982436 
1 1:-0.974296 2:-0.982436 
1 1:-0.974296 2:-0.982436 
1 1:-0.974296 2:-0.982436 
1 1:-0.974296 2:-0.982436 
1 1:-0.974296 2:-0.982436 
1 1:-0.974296 2:-0.982436 
1 1:-0.974296 2:-0.982436 
1 1:-0.974296 2:-0.982436 
1 1:-0.974296 2:-0.982436 
1 1:-0.974296 2:-0.982436 
1 1:-0.974296 2:-0.982436 
1 1:-0.974296 2:-0.982436 
1 1:-0.974296 2:-0.982436 
1 1:-0.974296 2:-0.982436 
1 1:-0.974296 2:-0.982436 
1 1:-0.974296 2:-0.982436 
1 1:-0.974296 2:-0.982436 
1 1:-0.974296 2:-0.982436 
1 1:-0.974296 2:-0.982436 
1 1:-0.974296 2:-0.982436 
1 1:-0.974296 2:-0.982436 
1 1:-0.974296 2:-0.982436 
1 1:-0.974296 2:-0.982436 
1 1:-0.974296 2:-0.982436 
1 1:-0.974296 2:-0.982436 
1 1:-0.974296 2:-0.982436 
1 1:-0.974296 2:-0.982436 
1 1:-0.974296 2:-0.982436 
1 1:-0.974296 2:-0.982436 
1 1:-0.974296 2:-0.982436 
1 1:-0.974296 2:-0.982436 
1 1:-0.974296 2:-0.982436 
1 1:-0.974296 2:-0.982436 
1 1:-0.974296 2:-0.982436 
1 1:-0.974296 2:-0.982436 
1 1:-0.974296 2:-0.982436 
1 1:-0.974296 2:-0.982436 
1 1:-0.974296 2:-0.982436 
1 1:-0.974296 2:-0.982436 
1 1:-0.974296 2:-0.982436 
1 1:-0.974296 2:-0.982436 
1 1:-0.974296 2:-0.982436 
1 1:-0.974296 2:-0.982436 
1 1:-0.974296 2:-0.982436 
1 1:-0.974296 2:-0.982436 
1 1:-0.974296 2:-0.982436 
1 1:-0.974296 2:-0.982436 
1 1:-0.974296 2:-0.982436 
1 1:-0.325827 2:-0.452049 
1 1:-0.315926 2:-0.085089 
1 1:-0.325827 2:-0.452049 
1 1:-0.315926 2:-0.085089 
1 1:-0.325827 2:-0.452049 
1 1:-0.315926 2:-0.085089 
1 1:-0.325827 2:-0.452049 
1 1:-0.315926 2:-0.085089 
1 1:-0.325827 2:-0.452049 
1 1:-0.315926 2:-0.085089 
1 1:-0.325827 2:-0.452049 
1 1:-0.315926 2:-0.085089 
1 1:-0.325827 2:-0.452049 
1 1:-0.315926 2:-0.085089 
1 1:-0.325827 2:-0.452049 
1 1:-0.315926 2:-0.085089 
1 1:-0.325827 2:-0.452049 
1 1:-0.315926 2:-0.085089 
1 1:-0.325827 2:-0.452049 
1 1:-0.315926 2:-0.085089 
1 1:-0.325827 2:-0.452049 
1 1:-0.315926 2:-0.085089 
1 1:-0.325827 2:-0.452049 
1 1:-0.315926 2:-0.085089 
1 1:-0.325827 2:-0.452049 
1 1:-0.315926 2:-0.085089 
1 1:-0.325827 2:-0.452049 
1 1:-0.315926 2:-0.085089 
1 1:-0.325827 2:-0.452049 
1 1:-0.315926 2:-0.085089 
1 1:-0.325827 2:-0.452049 
1 1:-0.315926 2:-0.085089 
1 1:-0.325827 2:-0.452049 
1 1:-0.315926 2:-0.085089 
1 1:-0.325827 2:-0.452049 
1 1:-0.315926 2:-0.085089 
1 1:-0.325827 2:-0.452049 
1 1:-0.315926 2:-0.085089 
1 1:-0.325827 2:-0.452049 
1 1:-0.315926 2:-0.085089 
1 1:-0.325827 2:-0.452049 
1 1:-0.315926 2:-0.085089 
1 1:-0.325827 2:-0.452049 
1 1:-0.315926 2:-0.085089 
1 1:-0.325827 2:-0.452049 
1 1:-0.315926 2:-0.085089 
1 1:-0.325827 2:-0.452049 
1 1:-0.315926 2:-0.085089 
1 1:-0.325827 2:-0.452049 
1 1:-0.315926 2:-0.085089 
1 1:-0.325827 2:-0.452049 
1 1:-0.315926 2:-0.085089 
1 1:-0.325827 2:-0.452049 
1 1:-0.315926 2:-0.085089 
1 1:-0.325827 2:-0.452049 
1 1:-0.315926 2:-0.085089 
1 1:-0.325827 2:-0.452049 
1 1:-0.315926 2:-0.085089 
1 1:-0.325827 2:-0.452049 
1 1:-0.315926 2:-0.085089 
1 1:-0.325827 2:-0.452049 
1 1:-0.315926 2:-0.085089 
1 1:-0.325827 2:-0.452049 
1 1:-0.315926 2:-0.085089 
1 1:-0.325827 2:-0.452049 
1 1:-0.315926 2:-0.085089 
1 1:-0.325827 2:-0.452049 
1 1:-0.315926 2:-0.085089 
1 1:-0.325827 2:-0.452049 
1 1:-0.315926 2:-0.085089 
1 1:-0.325827 2:-0.452049 
1 1:-0.315926 2:-0.085089 
1 1:-0.325827 2:-0.452049 
1 1:-0.315926 2:-0.085089 
1 1:-0.325827 2:-0.452049 
1 1:-0.315926 2:-0.085089 
1 1:-0.325827 2:-0.452049 
1 1:-0.315926 2:-0.085089 
1 1:-0.325827 2:-0.452049 
1 1:-0.315926 2:-0.085089 
1 1:-0.325827 2:-0.452049 
1 1:-0.315926 2:-0.085089 
1 1:-0.325827 2:-0.452049 
1 1:-0.315926 2:-0.085089 
1 1:-0.325827 2:-0.452049 
1 1:-0.315926 2:-0.085089 
1 1:-0.325827 2:-0.452049 
1 1:-0.315926 2:-0.085089 
1 1:-0.325827 2:-0.452049 
1 1:-0.315926 2:-0.085089 
1 1:-0.325827 2:-0.452049 
1 1:-0.315926 2:-0.085089 
1 1:-0.325827 2:-0.452049 
1 1:-0.315926 2:-0.085089 
1 1:-0.325827 2:-0.452049 
1 1:-0.315926 2:-0.085089 
1 1:-0.325827 2:-0.452049 
1 1:-0.315926 2:-0.085089 
1 1:-0.325827 2:-0.452049 
1 1:-0.315926 2:-0.085089 
1 1:-0.325827 2:-0.452049 
1 1:-0.315926 2:-0.085089 
1 1:-0.325827 2:-0.452049 
1 1:-0.315926 2:-0.085089 
1 1:-0.325827 2:-0.452049 
1 1:-0.315926 2:-0.085089 
1 1:-0.325827 2:-0.452049 
1 1:-0.315926 2:-0.085089 
1 1:-0.325827 2:-0.452049 
1 1:-0.315926 2:-0.085089 
1 1:-0.325827 2:-0.452049 
1 1:-0.315926 2:-0.085089 
1 1:-0.325827 2:-0.452049 
1 1:-0.315926 2:-0.085089 
1 1:-0.325827 2:-0.452049 
1 1:-0.315926 2:-0.085089 
1 1:-0.325827 2:-0.452049 
1 1:-0.315926 2:-0.085089 
1 1:-0.325827 2:-0.452049 
1 1:-0.315926 2:-0.085089 
1 1:-0.325827 2:-0.452049 
1 1:-0.315926 2:-0.085089 
1 1:-0.325827 2:-0.452049 
1 1:-0.315926 2:-0.085089 
1 1:-0.325827 2:-0.452049 
1 1:-0.315926 2:-0.085089 
1 1:-0.325827 2:-0.452049 
1 1:-0.315926 2:-0.085089 
1 1:-0.325827 2:-0.452049 
1 1:-0.315926 2:-0.085089 
1 1:-0.325827 2:-0.452049 
1 1:-0.315926 2:-0.085089 
1 1:-0.325827 2:-0.452049 
1 1:-0.315926 2:-0.085089 
1 1:-0.325827 2:-0.452049 
1 1:-0.315926 2:-0.085089 
1 1:-0.325827 2:-0.452049 
1 1:-0.315926 2:-0.085089 
1 1:-0.325827 2:-0.452049 
1 1:-0.315926 2:-0.085089 
1 1:-0.325827 2:-0.452049 
1 1:-0.315926 2:-0.085089 
1 1:-0.325827 2:-0.452049 
1 1:-0.315926 2:-0.085089 
1 1:-0.325827 2:-0.452049 
1 1:-0.315926 2:-0.085089 
1 1:-0.325827 2:-0.452049 
1 1:-0.315926 2:-0.085089 
1 1:-0.325827 2:-0.452049 
1 1:-0.315926 2:-0.085089 
1 1:-0.325827 2:-0.452049 
1 1:-0.315926 2:-0.085089 
1 1:-0.325827 2:-0.452049 
1 1:-0.315926 2:-0.085089 
1 1:-0.325827 2:-0.452049 
1 1:-0.315926 2:-0.085089 
1 1:-0.325827 2:-0.452049 
1 1:-0.315926 2:-0.085089 
1 1:-0.325827 2:-0.452049 
1 1:-0.315926 2:-0.085089 
1 1:-0.325827 2:-0.452049 
1 1:-0.315926 2:-0.085089 
1 1:-0.325827 2:-0.452049 
1 1:-0.315926 2:-0.085089 
1 1:-0.325827 2:-0.452049 
1 1:-0.315926 2:-0.085089 
1 1:-0.325827 2:-0.452049 
1 1:-0.315926 2:-0.085089 
1 1:-0.325827 2:-0.452049 
1 1:-0.315926 2:-0.085089 
1 1:-0.325827 2:-0.452049 
1 1:-0.315926 2:-0.085089 
1 1:-0.325827 2:-0.452049 
1 1:-0.315926 2:-0.085089 
1 1:-0.325827 2:-0.452049 
1 1:-0.315926 2:-0.085089 
1 1:-0.325827 2:-0.452049 
1 1:-0.315926 2:-0.085089 
1 1:-0.325827 2:-0.452049 
1 1:-0.315926 2:-0.085089 
1 1:-0.325827 2:-0.452049 
1 1:-0.315926 2:-0.085089 
1 1:-0.325827 2:-0.452049 
1 1:-0.315926 2:-0.085089 
1 1:-0.325827 2:-0.452049 
1 1:-0.315926 2:-0.085089 
1 1:-0.325827 2:-0.452049 
1 1:-0.315926 2:-0.085089 
1 1:-0.325827 2:-0.452049 
1 1:-0.315926 2:-0.085089 
1 1:-0.972407 2:-0.969665 
1 1:-0.972407 2:-0.969665 
1 1:-0.972407 2:-0.969665 
1 1:-0.972407 2:-0.969665 
1 1:-0.972407 2:-0.969665 
1 1:-0.972407 2:-0.969665 
1 1:-0.972407 2:-0.969665 
1 1:-0.972407 2:-0.969665 
1 1:-0.972407 2:-0.969665 
1 1:-0.972407 2:-0.969665 
1 1:-0.972407 2:-0.969665 
1 1:-0.972407 2:-0.969665 
1 1:-0.972407 2:-0.969665 
1 1:-0.972407 2:-0.969665 
1 1:-0.972407 2:-0.969665 
1 1:-0.972407 2:-0.969665 
1 1:-0.972407 2:-0.969665 
1 1:-0.972407 2:-0.969665 
1 1:-0.972407 2:-0.969665 
1 1:-0.972407 2:-0.969665 
1 1:-0.972407 2:-0.969665 
1 1:-0.972407 2:-0.969665 
1 1:-0.972407 2:-0.969665 
1 1:-0.972407 2:-0.969665 
1 1:-0.972407 2:-0.969665 
1 1:-0.972407 2:-0.969665 
1 1:-0.972407 2:-0.969665 
1 1:-0.972407 2:-0.969665 
1 1:-0.972407 2:-0.969665 
1 1:-0.972407 2:-0.969665 
1 1:-0.972407 2:-0.969665 
1 1:-0.972407 2:-0.969665 
1 1:-0.972407 2:-0.969665 
1 1:-0.972407 2:-0.969665 
1 1:-0.972407 2:-0.969665 
1 1:-0.972407 2:-0.969665 
1 1:-0.972407 2:-0.969665 
1 1:-0.972407 2:-0.969665 
1 1:-0.972407 2:-0.969665 
1 1:-0.972407 2:-0.969665 
1 1:-0.972407 2:-0.969665 
1 1:-0.972407 2:-0.969665 
1 1:-0.972407 2:-0.969665 
1 1:-0.972407 2:-0.969665 
1 1:-0.972407 2:-0.969665 
1 1:-0.972407 2:-0.969665 
1 1:-0.972407 2:-0.969665 
1 1:-0.972407 2:-0.969665 
1 1:-0.972407 2:-0.969665 
1 1:-0.972407 2:-0.969665 
1 1:-0.972407 2:-0.969665 
1 1:-0.972407 2:-0.969665 
1 1:-0.972407 2:-0.969665 
1 1:-0.972407 2:-0.969665 
1 1:-0.972407 2:-0.969665 
1 1:-0.972407 2:-0.969665 
1 1:-0.972407 2:-0.969665 
1 1:-0.972407 2:-0.969665 
1 1:-0.972407 2:-0.969665 
1 1:-0.972407 2:-0.969665 
1 1:-0.972407 2:-0.969665 
1 1:-0.972407 2:-0.969665 
1 1:-0.972407 2:-0.969665 
1 1:-0.972407 2:-0.969665 
1 1:-0.972407 2:-0.969665 
1 1:-0.972407 2:-0.969665 
1 1:-0.972407 2:-0.969665 
1 1:-0.972407 2:-0.969665 
1 1:-0.972407 2:-0.969665 
1 1:-0.972407 2:-0.969665 
1 1:-0.972407 2:-0.969665 
1 1:-0.972407 2:-0.969665 
1 1:-0.972407 2:-0.969665 
1 1:-0.972407 2:-0.969665 
1 1:-0.972407 2:-0.969665 
1 1:-0.972407 2:-0.969665 
1 1:-0.972407 2:-0.969665 
1 1:-0.972407 2:-0.969665 
1 1:-0.972407 2:-0.969665 
1 1:-0.972407 2:-0.969665 
1 1:-0.972407 2:-0.969665 
1 1:-0.972407 2:-0.969665 
1 1:-0.972407 2:-0.969665 
1 1:-0.972407 2:-0.969665 
1 1:-0.972407 2:-0.969665 
1 1:-0.972407 2:-0.969665 
1 1:-0.972407 2:-0.969665 
1 1:-0.972407 2:-0.969665 
1 1:-0.972407 2:-0.969665 
1 1:-0.972407 2:-0.969665 
1 1:-0.972407 2:-0.969665 
1 1:-0.972407 2:-0.969665 
1 1:-0.972407 2:-0.969665 
1 1:-0.972407 2:-0.969665 
1 1:-0.972407 2:-0.969665 
1 1:-0.922033 2:0.236501 
1 1:-0.913353 2:0.490864 
1 1:-0.918367 2:0.211762 
1 1:-0.922033 2:0.236501 
1 1:-0.913353 2:0.490864 
1 1:-0.918367 2:0.211762 
1 1:-0.922033 2:0.236501 
1 1:-0.913353 2:0.490864 
1 1:-0.918367 2:0.211762 
1 1:-0.922033 2:0.236501 
1 1:-0.913353 2:0.490864 
1 1:-0.918367 2:0.211762 
1 1:-0.922033 2:0.236501 
1 1:-0.913353 2:0.490864 
1 1:-0.918367 2:0.211762 
1 1:-0.922033 2:0.236501 
1 1:-0.913353 2:0.490864 
1 1:-0.918367 2:0.211762 
1 1:-0.922033 2:0.236501 
1 1:-0.913353 2:0.490864 
1 1:-0.918367 2:0.211762 
1 1:-0.922033 2:0.236501 
1 1:-0.913353 2:0.490864 
1 1:-0.918367 2:0.211762 
1 1:-0.922033 2:0.236501 
1 1:-0.913353 2:0.490864 
1 1:-0.918367 2:0.211762 
1 1:-0.922033 2:0.236501 
1 1:-0.913353 2:0.490864 
1 1:-0.918367 2:0.211762 
1 1:-0.922033 2:0.236501 
1 1:-0.913353 2:0.490864 
1 1:-0.918367 2:0.211762 
1 1:-0.922033 2:0.236501 
1 1:-0.913353 2:0.490864 
1 1:-0.918367 2:0.211762 
1 1:-0.922033 2:0.236501 
1 1:-0.913353 2:0.490864 
1 1:-0.918367 2:0.211762 
1 1:-0.922033 2:0.236501 
1 1:-0.913353 2:0.490864 
1 1:-0.918367 2:0.211762 
1 1:-0.922033 2:0.236501 
1 1:-0.913353 2:0.490864 
1 1:-0.918367 2:0.211762 
1 1:-0.922033 2:0.236501 
1 1:-0.913353 2:0.490864 
1 1:-0.918367 2:0.211762 
1 1:-0.922033 2:0.236501 
1 1:-0.913353 2:0.490864 
1 1:-0.918367 2:0.211762 
1 1:-0.922033 2:0.236501 
1 1:-0.913353 2:0.490864 
1 1:-0.918367 2:0.211762 
1 1:-0.922033 2:0.236501 
1 1:-0.913353 2:0.490864 
1 1:-0.918367 2:0.211762 
1 1:-0.922033 2:0.236501 
1 1:-0.913353 2:0.490864 
1 1:-0.918367 2:0.211762 
1 1:-0.922033 2:0.236501 
1 1:-0.913353 2:0.490864 
1 1:-0.918367 2:0.211762 
1 1:-0.922033 2:0.236501 
1 1:-0.913353 2:0.490864 
1 1:-0.918367 2:0.211762 
1 1:-0.922033 2:0.236501 
1 1:-0.913353 2:0.490864 
1 1:-0.918367 2:0.211762 
1 1:-0.922033 2:0.236501 
1 1:-0.913353 2:0.490864 
1 1:-0.918367 2:0.211762 
1 1:-0.922033 2:0.236501 
1 1:-0.913353 2:0.490864 
1 1:-0.918367 2:0.211762 
1 1:-0.922033 2:0.236501 
1 1:-0.913353 2:0.490864 
1 1:-0.918367 2:0.211762 
1 1:-0.922033 2:0.236501 
1 1:-0.913353 2:0.490864 
1 1:-0.918367 2:0.211762 
1 1:-0.922033 2:0.236501 
1 1:-0.913353 2:0.490864 
1 1:-0.918367 2:0.211762 
1 1:-0.922033 2:0.236501 
1 1:-0.913353 2:0.490864 
1 1:-0.918367 2:0.211762 
1 1:-0.922033 2:0.236501 
1 1:-0.913353 2:0.490864 
1 1:-0.918367 2:0.211762 
1 1:-0.922033 2:0.236501 
1 1:-0.913353 2:0.490864 
1 1:-0.918367 2:0.211762 
1 1:-0.922033 2:0.236501 
1 1:-0.913353 2:0.490864 
1 1:-0.918367 2:0.211762 
1 1:-0.922033 2:0.236501 
1 1:-0.913353 2:0.490864 
1 1:-0.918367 2:0.211762 
1 1:-0.922033 2:0.236501 
1 1:-0.913353 2:0.490864 
1 1:-0.918367 2:0.211762 
1 1:-0.922033 2:0.236501 
1 1:-0.913353 2:0.490864 
1 1:-0.918367 2:0.211762 
1 1:-0.922033 2:0.236501 
1 1:-0.913353 2:0.490864 
1 1:-0.918367 2:0.211762 
1 1:-0.922033 2:0.236501 
1 1:-0.913353 2:0.490864 
1 1:-0.918367 2:0.211762 
1 1:-0.922033 2:0.236501 
1 1:-0.913353 2:0.490864 
1 1:-0.918367 2:0.211762 
1 1:-0.922033 2:0.236501 
1 1:-0.913353 2:0.490864 
1 1:-0.918367 2:0.211762 
1 1:-0.922033 2:0.236501 
1 1:-0.913353 2:0.490864 
1 1:-0.918367 2:0.211762 
1 1:-0.922033 2:0.236501 
1 1:-0.913353 2:0.490864 
1 1:-0.918367 2:0.211762 
1 1:-0.922033 2:0.236501 
1 1:-0.913353 2:0.490864 
1 1:-0.918367 2:0.211762 
1 1:-0.922033 2:0.236501 
1 1:-0.913353 2:0.490864 
1 1:-0.918367 2:0.211762 
1 1:-0.922033 2:0.236501 
1 1:-0.913353 2:0.490864 
1 1:-0.918367 2:0.211762 
1 1:-0.922033 2:0.236501 
1 1:-0.913353 2:0.490864 
1 1:-0.918367 2:0.211762 
1 1:-0.922033 2:0.236501 
1 1:-0.913353 2:0.490864 
1 1:-0.918367 2:0.211762 
1 1:-0.922033 2:0.236501 
1 1:-0.913353 2:0.490864 
1 1:-0.918367 2:0.211762 
1 1:-0.922033 2:0.236501 
1 1:-0.913353 2:0.490864 
1 1:-0.918367 2:0.211762 
1 1:-0.922033 2:0.236501 
1 1:-0.913353 2:0.490864 
1 1:-0.918367 2:0.211762 
1 1:-0.922033 2:0.236501 
1 1:-0.913353 2:0.490864 
1 1:-0.918367 2:0.211762 
1 1:-0.922033 2:0.236501 
1 1:-0.913353 2:0.490864 
1 1:-0.918367 2:0.211762 
1 1:-0.922033 2:0.236501 
1 1:-0.913353 2:0.490864 
1 1:-0.918367 2:0.211762 
1 1:-0.922033 2:0.236501 
1 1:-0.913353 2:0.490864 
1 1:-0.918367 2:0.211762 
1 1:-0.922033 2:0.236501 
1 1:-0.913353 2:0.490864 
1 1:-0.918367 2:0.211762 
1 1:-0.922033 2:0.236501 
1 1:-0.913353 2:0.490864 
1 1:-0.918367 2:0.211762 
1 1:-0.922033 2:0.236501 
1 1:-0.913353 2:0.490864 
1 1:-0.918367 2:0.211762 
1 1:-0.922033 2:0.236501 
1 1:-0.913353 2:0.490864 
1 1:-0.918367 2:0.211762 
1 1:-0.922033 2:0.236501 
1 1:-0.913353 2:0.490864 
1 1:-0.918367 2:0.211762 
1 1:-0.922033 2:0.236501 
1 1:-0.913353 2:0.490864 
1 1:-0.918367 2:0.211762 
1 1:-0.922033 2:0.236501 
1 1:-0.913353 2:0.490864 
1 1:-0.918367 2:0.211762 
1 1:-0.922033 2:0.236501 
1 1:-0.913353 2:0.490864 
1 1:-0.918367 2:0.211762 
1 1:-0.922033 2:0.236501 
1 1:-0.913353 2:0.490864 
1 1:-0.918367 2:0.211762 
1 1:-0.922033 2:0.236501 
1 1:-0.913353 2:0.490864 
1 1:-0.918367 2:0.211762 
1 1:-0.922033 2:0.236501 
1 1:-0.913353 2:0.490864 
1 1:-0.918367 2:0.211762 
1 1:-0.922033 2:0.236501 
1 1:-0.913353 2:0.490864 
1 1:-0.918367 2:0.211762 
1 1:-0.922033 2:0.236501 
1 1:-0.913353 2:0.490864 
1 1:-0.918367 2:0.211762 
1 1:-0.922033 2:0.236501 
1 1:-0.913353 2:0.490864 
1 1:-0.918367 2:0.211762 
1 1:-0.922033 2:0.236501 
1 1:-0.913353 2:0.490864 
1 1:-0.918367 2:0.211762 
1 1:-0.922033 2:0.236501 
1 1:-0.913353 2:0.490864 
1 1:-0.918367 2:0.211762 
1 1:-0.922033 2:0.236501 
1 1:-0.913353 2:0.490864 
1 1:-0.918367 2:0.211762 
1 1:-0.922033 2:0.236501 
1 1:-0.913353 2:0.490864 
1 1:-0.918367 2:0.211762 
1 1:-0.922033 2:0.236501 
1 1:-0.913353 2:0.490864 
1 1:-0.918367 2:0.211762 
1 1:-0.922033 2:0.236501 
1 1:-0.913353 2:0.490864 
1 1:-0.918367 2:0.211762 
1 1:-0.922033 2:0.236501 
1 1:-0.913353 2:0.490864 
1 1:-0.918367 2:0.211762 
1 1:-0.922033 2:0.236501 
1 1:-0.913353 2:0.490864 
1 1:-0.918367 2:0.211762 
1 1:-0.922033 2:0.236501 
1 1:-0.913353 2:0.490864 
1 1:-0.918367 2:0.211762 
1 1:-0.922033 2:0.236501 
1 1:-0.913353 2:0.490864 
1 1:-0.918367 2:0.211762 
1 1:-0.922033 2:0.236501 
1 1:-0.913353 2:0.490864 
1 1:-0.918367 2:0.211762 
1 1:-0.922033 2:0.236501 
1 1:-0.913353 2:0.490864 
1 1:-0.918367 2:0.211762 
1 1:-0.922033 2:0.236501 
1 1:-0.913353 2:0.490864 
1 1:-0.918367 2:0.211762 
1 1:-0.922033 2:0.236501 
1 1:-0.913353 2:0.490864 
1 1:-0.918367 2:0.211762 
1 1:-0.922033 2:0.236501 
1 1:-0.913353 2:0.490864 
1 1:-0.918367 2:0.211762 
1 1:-0.922033 2:0.236501 
1 1:-0.913353 2:0.490864 
1 1:-0.918367 2:0.211762 
1 1:-0.922033 2:0.236501 
1 1:-0.913353 2:0.490864 
1 1:-0.918367 2:0.211762 
1 1:-0.922033 2:0.236501 
1 1:-0.913353 2:0.490864 
1 1:-0.918367 2:0.211762 
1 1:-0.922033 2:0.236501 
1 1:-0.913353 2:0.490864 
1 1:-0.918367 2:0.211762 
1 1:-0.922033 2:0.236501 
1 1:-0.913353 2:0.490864 
1 1:-0.918367 2:0.211762 
1 1:-0.922033 2:0.236501 
1 1:-0.913353 2:0.490864 
1 1:-0.918367 2:0.211762 
1 1:-0.922033 2:0.236501 
1 1:-0.913353 2:0.490864 
1 1:-0.918367 2:0.211762 
1 1:-0.922033 2:0.236501 
1 1:-0.913353 2:0.490864 
1 1:-0.918367 2:0.211762 
1 1:-0.922033 2:0.236501 
1 1:-0.913353 2:0.490864 
1 1:-0.918367 2:0.211762 
1 1:-0.922033 2:0.236501 
1 1:-0.913353 2:0.490864 
1 1:-0.918367 2:0.211762 
1 1:-0.922033 2:0.236501 
1 1:-0.913353 2:0.490864 
1 1:-0.918367 2:0.211762 
1 1:-0.922033 2:0.236501 
1 1:-0.913353 2:0.490864 
1 1:-0.918367 2:0.211762 
1 1:-0.922033 2:0.236501 
1 1:-0.913353 2:0.490864 
1 1:-0.918367 2:0.211762 
1 1:-0.801951 2:0.235343 
1 1:-0.992256 2:-0.96082 
1 1:-0.949431 2:0.330711 
1 1:-0.801951 2:0.235343 
1 1:-0.992256 2:-0.96082 
1 1:-0.949431 2:0.330711 
1 1:-0.801951 2:0.235343 
1 1:-0.992256 2:-0.96082 
1 1:-0.949431 2:0.330711 
1 1:-0.801951 2:0.235343 
1 1:-0.992256 2:-0.96082 
1 1:-0.949431 2:0.330711 
1 1:-0.801951 2:0.235343 
1 1:-0.992256 2:-0.96082 
1 1:-0.949431 2:0.330711 
1 1:-0.801951 2:0.235343 
1 1:-0.992256 2:-0.96082 
1 1:-0.949431 2:0.330711 
1 1:-0.801951 2:0.235343 
1 1:-0.992256 2:-0.96082 
1 1:-0.949431 2:0.330711 
1 1:-0.801951 2:0.235343 
1 1:-0.992256 2:-0.96082 
1 1:-0.949431 2:0.330711 
1 1:-0.801951 2:0.235343 
1 1:-0.992256 2:-0.96082 
1 1:-0.949431 2:0.330711 
1 1:-0.801951 2:0.235343 
1 1:-0.992256 2:-0.96082 
1 1:-0.949431 2:0.330711 
1 1:-0.801951 2:0.235343 
1 1:-0.992256 2:-0.96082 
1 1:-0.949431 2:0.330711 
1 1:-0.801951 2:0.235343 
1 1:-0.992256 2:-0.96082 
1 1:-0.949431 2:0.330711 
1 1:-0.801951 2:0.235343 
1 1:-0.992256 2:-0.96082 
1 1:-0.949431 2:0.330711 
1 1:-0.801951 2:0.235343 
1 1:-0.992256 2:-0.96082 
1 1:-0.949431 2:0.330711 
1 1:-0.801951 2:0.235343 
1 1:-0.992256 2:-0.96082 
1 1:-0.949431 2:0.330711 
1 1:-0.801951 2:0.235343 
1 1:-0.992256 2:-0.96082 
1 1:-0.949431 2:0.330711 
1 1:-0.801951 2:0.235343 
1 1:-0.992256 2:-0.96082 
1 1:-0.949431 2:0.330711 
1 1:-0.801951 2:0.235343 
1 1:-0.992256 2:-0.96082 
1 1:-0.949431 2:0.330711 
1 1:-0.801951 2:0.235343 
1 1:-0.992256 2:-0.96082 
1 1:-0.949431 2:0.330711 
1 1:-0.801951 2:0.235343 
1 1:-0.992256 2:-0.96082 
1 1:-0.949431 2:0.330711 
1 1:-0.801951 2:0.235343 
1 1:-0.992256 2:-0.96082 
1 1:-0.949431 2:0.330711 
1 1:-0.801951 2:0.235343 
1 1:-0.992256 2:-0.96082 
1 1:-0.949431 2:0.330711 
1 1:-0.801951 2:0.235343 
1 1:-0.992256 2:-0.96082 
1 1:-0.949431 2:0.330711 
1 1:-0.801951 2:0.235343 
1 1:-0.992256 2:-0.96082 
1 1:-0.949431 2:0.330711 
1 1:-0.801951 2:0.235343 
1 1:-0.992256 2:-0.96082 
1 1:-0.949431 2:0.330711 
1 1:-0.801951 2:0.235343 
1 1:-0.992256 2:-0.96082 
1 1:-0.949431 2:0.330711 
1 1:-0.801951 2:0.235343 
1 1:-0.992256 2:-0.96082 
1 1:-0.949431 2:0.330711 
1 1:-0.801951 2:0.235343 
1 1:-0.992256 2:-0.96082 
1 1:-0.949431 2:0.330711 
1 1:-0.801951 2:0.235343 
1 1:-0.992256 2:-0.96082 
1 1:-0.949431 2:0.330711 
1 1:-0.801951 2:0.235343 
1 1:-0.992256 2:-0.96082 
1 1:-0.949431 2:0.330711 
1 1:-0.801951 2:0.235343 
1 1:-0.992256 2:-0.96082 
1 1:-0.949431 2:0.330711 
1 1:-0.801951 2:0.235343 
1 1:-0.992256 2:-0.96082 
1 1:-0.949431 2:0.330711 
1 1:-0.801951 2:0.235343 
1 1:-0.992256 2:-0.96082 
1 1:-0.949431 2:0.330711 
1 1:-0.801951 2:0.235343 
1 1:-0.992256 2:-0.96082 
1 1:-0.949431 2:0.330711 
1 1:-0.801951 2:0.235343 
1 1:-0.992256 2:-0.96082 
1 1:-0.949431 2:0.330711 
1 1:-0.801951 2:0.235343 
1 1:-0.992256 2:-0.96082 
1 1:-0.949431 2:0.330711 
1 1:-0.801951 2:0.235343 
1 1:-0.992256 2:-0.96082 
1 1:-0.949431 2:0.330711 
1 1:-0.801951 2:0.235343 
1 1:-0.992256 2:-0.96082 
1 1:-0.949431 2:0.330711 
1 1:-0.801951 2:0.235343 
1 1:-0.992256 2:-0.96082 
1 1:-0.949431 2:0.330711 
1 1:-0.801951 2:0.235343 
1 1:-0.992256 2:-0.96082 
1 1:-0.949431 2:0.330711 
1 1:-0.801951 2:0.235343 
1 1:-0.992256 2:-0.96082 
1 1:-0.949431 2:0.330711 
1 1:-0.801951 2:0.235343 
1 1:-0.992256 2:-0.96082 
1 1:-0.949431 2:0.330711 
1 1:-0.801951 2:0.235343 
1 1:-0.992256 2:-0.96082 
1 1:-0.949431 2:0.330711 
1 1:-0.801951 2:0.235343 
1 1:-0.992256 2:-0.96082 
1 1:-0.949431 2:0.330711 
1 1:-0.801951 2:0.235343 
1 1:-0.992256 2:-0.96082 
1 1:-0.949431 2:0.330711 
1 1:-0.801951 2:0.235343 
1 1:-0.992256 2:-0.96082 
1 1:-0.949431 2:0.330711 
1 1:-0.801951 2:0.235343 
1 1:-0.992256 2:-0.96082 
1 1:-0.949431 2:0.330711 
1 1:-0.801951 2:0.235343 
1 1:-0.992256 2:-0.96082 
1 1:-0.949431 2:0.330711 
1 1:-0.801951 2:0.235343 
1 1:-0.992256 2:-0.96082 
1 1:-0.949431 2:0.330711 
1 1:-0.801951 2:0.235343 
1 1:-0.992256 2:-0.96082 
1 1:-0.949431 2:0.330711 
1 1:-0.801951 2:0.235343 
1 1:-0.992256 2:-0.96082 
1 1:-0.949431 2:0.330711 
1 1:-0.801951 2:0.235343 
1 1:-0.992256 2:-0.96082 
1 1:-0.949431 2:0.330711 
1 1:-0.801951 2:0.235343 
1 1:-0.992256 2:-0.96082 
1 1:-0.949431 2:0.330711 
1 1:-0.801951 2:0.235343 
1 1:-0.992256 2:-0.96082 
1 1:-0.949431 2:0.330711 
1 1:-0.801951 2:0.235343 
1 1:-0.992256 2:-0.96082 
1 1:-0.949431 2:0.330711 
1 1:-0.801951 2:0.235343 
1 1:-0.992256 2:-0.96082 
1 1:-0.949431 2:0.330711 
1 1:-0.801951 2:0.235343 
1 1:-0.992256 2:-0.96082 
1 1:-0.949431 2:0.330711 
1 1:-0.801951 2:0.235343 
1 1:-0.992256 2:-0.96082 
1 1:-0.949431 2:0.330711 
1 1:-0.801951 2:0.235343 
1 1:-0.992256 2:-0.96082 
1 1:-0.949431 2:0.330711 
1 1:-0.801951 2:0.235343 
1 1:-0.992256 2:-0.96082 
1 1:-0.949431 2:0.330711 
1 1:-0.801951 2:0.235343 
1 1:-0.992256 2:-0.96082 
1 1:-0.949431 2:0.330711 
1 1:-0.801951 2:0.235343 
1 1:-0.992256 2:-0.96082 
1 1:-0.949431 2:0.330711 
1 1:-0.801951 2:0.235343 
1 1:-0.992256 2:-0.96082 
1 1:-0.949431 2:0.330711 
1 1:-0.801951 2:0.235343 
1 1:-0.992256 2:-0.96082 
1 1:-0.949431 2:0.330711 
1 1:-0.801951 2:0.235343 
1 1:-0.992256 2:-0.96082 
1 1:-0.949431 2:0.330711 
1 1:-0.801951 2:0.235343 
1 1:-0.992256 2:-0.96082 
1 1:-0.949431 2:0.330711 
1 1:-0.801951 2:0.235343 
1 1:-0.992256 2:-0.96082 
1 1:-0.949431 2:0.330711 
1 1:-0.801951 2:0.235343 
1 1:-0.992256 2:-0.96082 
1 1:-0.949431 2:0.330711 
1 1:-0.801951 2:0.235343 
1 1:-0.992256 2:-0.96082 
1 1:-0.949431 2:0.330711 
1 1:-0.801951 2:0.235343 
1 1:-0.992256 2:-0.96082 
1 1:-0.949431 2:0.330711 
1 1:-0.801951 2:0.235343 
1 1:-0.992256 2:-0.96082 
1 1:-0.949431 2:0.330711 
1 1:-0.801951 2:0.235343 
1 1:-0.992256 2:-0.96082 
1 1:-0.949431 2:0.330711 
1 1:-0.801951 2:0.235343 
1 1:-0.992256 2:-0.96082 
1 1:-0.949431 2:0.330711 
1 1:-0.801951 2:0.235343 
1 1:-0.992256 2:-0.96082 
1 1:-0.949431 2:0.330711 
1 1:-0.801951 2:0.235343 
1 1:-0.992256 2:-0.96082 
1 1:-0.949431 2:0.330711 
1 1:-0.801951 2:0.235343 
1 1:-0.992256 2:-0.96082 
1 1:-0.949431 2:0.330711 
1 1:-0.801951 2:0.235343 
1 1:-0.992256 2:-0.96082 
1 1:-0.949431 2:0.330711 
1 1:-0.801951 2:0.235343 
1 1:-0.992256 2:-0.96082 
1 1:-0.949431 2:0.330711 
1 1:-0.801951 2:0.235343 
1 1:-0.992256 2:-0.96082 
1 1:-0.949431 2:0.330711 
1 1:-0.801951 2:0.235343 
1 1:-0.992256 2:-0.96082 
1 1:-0.949431 2:0.330711 
1 1:-0.801951 2:0.235343 
1 1:-0.992256 2:-0.96082 
1 1:-0.949431 2:0.330711 
1 1:-0.801951 2:0.235343 
1 1:-0.992256 2:-0.96082 
1 1:-0.949431 2:0.330711 
1 1:-0.801951 2:0.235343 
1 1:-0.992256 2:-0.96082 
1 1:-0.949431 2:0.330711 
1 1:-0.801951 2:0.235343 
1 1:-0.992256 2:-0.96082 
1 1:-0.949431 2:0.330711 
1 1:-0.801951 2:0.235343 
1 1:-0.992256 2:-0.96082 
1 1:-0.949431 2:0.330711 
1 1:-0.801951 2:0.235343 
1 1:-0.992256 2:-0.96082 
1 1:-0.949431 2:0.330711 
1 1:-0.801951 2:0.235343 
1 1:-0.992256 2:-0.96082 
1 1:-0.949431 2:0.330711 
1 1:-0.801951 2:0.235343 
1 1:-0.992256 2:-0.96082 
1 1:-0.949431 2:0.330711 
1 1:-0.801951 2:0.235343 
1 1:-0.992256 2:-0.96082 
1 1:-0.949431 2:0.330711 
1 1:-0.801951 2:0.235343 
1 1:-0.992256 2:-0.96082 
1 1:-0.949431 2:0.330711 
1 1:-0.801951 2:0.235343 
1 1:-0.992256 2:-0.96082 
1 1:-0.949431 2:0.330711 
1 1:-0.801951 2:0.235343 
1 1:-0.992256 2:-0.96082 
1 1:-0.949431 2:0.330711 
1 1:-0.801951 2:0.235343 
1 1:-0.992256 2:-0.96082 
1 1:-0.949431 2:0.330711 
1 1:-0.801951 2:0.235343 
1 1:-0.992256 2:-0.96082 
1 1:-0.949431 2:0.330711 
1 1:-0.801951 2:0.235343 
1 1:-0.992256 2:-0.96082 
1 1:-0.949431 2:0.330711 
1 1:-0.806018 2:0.523164 
1 1:-0.991628 2:-0.962668 
1 1:-0.806018 2:0.523164 
1 1:-0.991628 2:-0.962668 
1 1:-0.806018 2:0.523164 
1 1:-0.991628 2:-0.962668 
1 1:-0.806018 2:0.523164 
1 1:-0.991628 2:-0.962668 
1 1:-0.806018 2:0.523164 
1 1:-0.991628 2:-0.962668 
1 1:-0.806018 2:0.523164 
1 1:-0.991628 2:-0.962668 
1 1:-0.806018 2:0.523164 
1 1:-0.991628 2:-0.962668 
1 1:-0.806018 2:0.523164 
1 1:-0.991628 2:-0.962668 
1 1:-0.806018 2:0.523164 
1 1:-0.991628 2:-0.962668 
1 1:-0.806018 2:0.523164 
1 1:-0.991628 2:-0.962668 
1 1:-0.806018 2:0.523164 
1 1:-0.991628 2:-0.962668 
1 1:-0.806018 2:0.523164 
1 1:-0.991628 2:-0.962668 
1 1:-0.806018 2:0.523164 
1 1:-0.991628 2:-0.962668 
1 1:-0.806018 2:0.523164 
1 1:-0.991628 2:-0.962668 
1 1:-0.806018 2:0.523164 
1 1:-0.991628 2:-0.962668 
1 1:-0.806018 2:0.523164 
1 1:-0.991628 2:-0.962668 
1 1:-0.806018 2:0.523164 
1 1:-0.991628 2:-0.962668 
1 1:-0.806018 2:0.523164 
1 1:-0.991628 2:-0.962668 
1 1:-0.806018 2:0.523164 
1 1:-0.991628 2:-0.962668 
1 1:-0.806018 2:0.523164 
1 1:-0.991628 2:-0.962668 
1 1:-0.806018 2:0.523164 
1 1:-0.991628 2:-0.962668 
1 1:-0.806018 2:0.523164 
1 1:-0.991628 2:-0.962668 
1 1:-0.806018 2:0.523164 
1 1:-0.991628 2:-0.962668 
1 1:-0.806018 2:0.523164 
1 1:-0.991628 2:-0.962668 
1 1:-0.806018 2:0.523164 
1 1:-0.991628 2:-0.962668 
1 1:-0.806018 2:0.523164 
1 1:-0.991628 2:-0.962668 
1 1:-0.806018 2:0.523164 
1 1:-0.991628 2:-0.962668 
1 1:-0.806018 2:0.523164 
1 1:-0.991628 2:-0.962668 
1 1:-0.806018 2:0.523164 
1 1:-0.991628 2:-0.962668 
1 1:-0.806018 2:0.523164 
1 1:-0.991628 2:-0.962668 
1 1:-0.806018 2:0.523164 
1 1:-0.991628 2:-0.962668 
1 1:-0.806018 2:0.523164 
1 1:-0.991628 2:-0.962668 
1 1:-0.806018 2:0.523164 
1 1:-0.991628 2:-0.962668 
1 1:-0.806018 2:0.523164 
1 1:-0.991628 2:-0.962668 
1 1:-0.806018 2:0.523164 
1 1:-0.991628 2:-0.962668 
1 1:-0.806018 2:0.523164 
1 1:-0.991628 2:-0.962668 
1 1:-0.806018 2:0.523164 
1 1:-0.991628 2:-0.962668 
1 1:-0.806018 2:0.523164 
1 1:-0.991628 2:-0.962668 
1 1:-0.806018 2:0.523164 
1 1:-0.991628 2:-0.962668 
1 1:-0.806018 2:0.523164 
1 1:-0.991628 2:-0.962668 
1 1:-0.806018 2:0.523164 
1 1:-0.991628 2:-0.962668 
1 1:-0.806018 2:0.523164 
1 1:-0.991628 2:-0.962668 
1 1:-0.806018 2:0.523164 
1 1:-0.991628 2:-0.962668 
1 1:-0.806018 2:0.523164 
1 1:-0.991628 2:-0.962668 
1 1:-0.806018 2:0.523164 
1 1:-0.991628 2:-0.962668 
1 1:-0.806018 2:0.523164 
1 1:-0.991628 2:-0.962668 
1 1:-0.806018 2:0.523164 
1 1:-0.991628 2:-0.962668 
1 1:-0.806018 2:0.523164 
1 1:-0.991628 2:-0.962668 
1 1:-0.806018 2:0.523164 
1 1:-0.991628 2:-0.962668 
1 1:-0.806018 2:0.523164 
1 1:-0.991628 2:-0.962668 
1 1:-0.806018 2:0.523164 
1 1:-0.991628 2:-0.962668 
1 1:-0.806018 2:0.523164 
1 1:-0.991628 2:-0.962668 
1 1:-0.806018 2:0.523164 
1 1:-0.991628 2:-0.962668 
1 1:-0.806018 2:0.523164 
1 1:-0.991628 2:-0.962668 
1 1:-0.806018 2:0.523164 
1 1:-0.991628 2:-0.962668 
1 1:-0.806018 2:0.523164 
1 1:-0.991628 2:-0.962668 
1 1:-0.806018 2:0.523164 
1 1:-0.991628 2:-0.962668 
1 1:-0.806018 2:0.523164 
1 1:-0.991628 2:-0.962668 
1 1:-0.806018 2:0.523164 
1 1:-0.991628 2:-0.962668 
1 1:-0.806018 2:0.523164 
1 1:-0.991628 2:-0.962668 
1 1:-0.806018 2:0.523164 
1 1:-0.991628 2:-0.962668 
1 1:-0.806018 2:0.523164 
1 1:-0.991628 2:-0.962668 
1 1:-0.806018 2:0.523164 
1 1:-0.991628 2:-0.962668 
1 1:-0.806018 2:0.523164 
1 1:-0.991628 2:-0.962668 
1 1:-0.806018 2:0.523164 
1 1:-0.991628 2:-0.962668 
1 1:-0.806018 2:0.523164 
1 1:-0.991628 2:-0.962668 
1 1:-0.806018 2:0.523164 
1 1:-0.991628 2:-0.962668 
1 1:-0.806018 2:0.523164 
1 1:-0.991628 2:-0.962668 
1 1:-0.806018 2:0.523164 
1 1:-0.991628 2:-0.962668 
1 1:-0.806018 2:0.523164 
1 1:-0.991628 2:-0.962668 
1 1:-0.806018 2:0.523164 
1 1:-0.991628 2:-0.962668 
1 1:-0.806018 2:0.523164 
1 1:-0.991628 2:-0.962668 
1 1:-0.806018 2:0.523164 
1 1:-0.991628 2:-0.962668 
1 1:-0.806018 2:0.523164 
1 1:-0.991628 2:-0.962668 
1 1:-0.806018 2:0.523164 
1 1:-0.991628 2:-0.962668 
1 1:-0.806018 2:0.523164 
1 1:-0.991628 2:-0.962668 
1 1:-0.806018 2:0.523164 
1 1:-0.991628 2:-0.962668 
1 1:-0.806018 2:0.523164 
1 1:-0.991628 2:-0.962668 
1 1:-0.806018 2:0.523164 
1 1:-0.991628 2:-0.962668 
1 1:-0.806018 2:0.523164 
1 1:-0.991628 2:-0.962668 
1 1:-0.806018 2:0.523164 
1 1:-0.991628 2:-0.962668 
1 1:-0.806018 2:0.523164 
1 1:-0.991628 2:-0.962668 
1 1:-0.806018 2:0.523164 
1 1:-0.991628 2:-0.962668 
1 1:-0.806018 2:0.523164 
1 1:-0.991628 2:-0.962668 
1 1:-0.806018 2:0.523164 
1 1:-0.991628 2:-0.962668 
1 1:-0.806018 2:0.523164 
1 1:-0.991628 2:-0.962668 
1 1:-0.806018 2:0.523164 
1 1:-0.991628 2:-0.962668 
1 1:-0.806018 2:0.523164 
1 1:-0.991628 2:-0.962668 
1 1:-0.806018 2:0.523164 
1 1:-0.991628 2:-0.962668 
1 1:-0.806018 2:0.523164 
1 1:-0.991628 2:-0.962668 
1 1:-0.806018 2:0.523164 
1 1:-0.991628 2:-0.962668 
1 1:-0.806018 2:0.523164 
1 1:-0.991628 2:-0.962668 
1 1:-0.806018 2:0.523164 
1 1:-0.991628 2:-0.962668 
1 1:-0.806018 2:0.523164 
1 1:-0.991628 2:-0.962668 
1 1:-0.806018 2:0.523164 
1 1:-0.991628 2:-0.962668 
1 1:-0.806018 2:0.523164 
1 1:-0.991628 2:-0.962668 
1 1:-0.887231 2:0.338864 
1 1:-0.864762 2:0.155225 
1 1:-0.887231 2:0.338864 
1 1:-0.864762 2:0.155225 
1 1:-0.887231 2:0.338864 
1 1:-0.864762 2:0.155225 
1 1:-0.887231 2:0.338864 
1 1:-0.864762 2:0.155225 
1 1:-0.887231 2:0.338864 
1 1:-0.864762 2:0.155225 
1 1:-0.887231 2:0.338864 
1 1:-0.864762 2:0.155225 
1 1:-0.887231 2:0.338864 
1 1:-0.864762 2:0.155225 
1 1:-0.887231 2:0.338864 
1 1:-0.864762 2:0.155225 
1 1:-0.887231 2:0.338864 
1 1:-0.864762 2:0.155225 
1 1:-0.887231 2:0.338864 
1 1:-0.864762 2:0.155225 
1 1:-0.887231 2:0.338864 
1 1:-0.864762 2:0.155225 
1 1:-0.887231 2:0.338864 
1 1:-0.864762 2:0.155225 
1 1:-0.887231 2:0.338864 
1 1:-0.864762 2:0.155225 
1 1:-0.887231 2:0.338864 
1 1:-0.864762 2:0.155225 
1 1:-0.887231 2:0.338864 
1 1:-0.864762 2:0.155225 
1 1:-0.887231 2:0.338864 
1 1:-0.864762 2:0.155225 
1 1:-0.887231 2:0.338864 
1 1:-0.864762 2:0.155225 
1 1:-0.887231 2:0.338864 
1 1:-0.864762 2:0.155225 
1 1:-0.887231 2:0.338864 
1 1:-0.864762 2:0.155225 
1 1:-0.887231 2:0.338864 
1 1:-0.864762 2:0.155225 
1 1:-0.887231 2:0.338864 
1 1:-0.864762 2:0.155225 
1 1:-0.887231 2:0.338864 
1 1:-0.864762 2:0.155225 
1 1:-0.887231 2:0.338864 
1 1:-0.864762 2:0.155225 
1 1:-0.887231 2:0.338864 
1 1:-0.864762 2:0.155225 
1 1:-0.887231 2:0.338864 
1 1:-0.864762 2:0.155225 
1 1:-0.887231 2:0.338864 
1 1:-0.864762 2:0.155225 
1 1:-0.887231 2:0.338864 
1 1:-0.864762 2:0.155225 
1 1:-0.887231 2:0.338864 
1 1:-0.864762 2:0.155225 
1 1:-0.887231 2:0.338864 
1 1:-0.864762 2:0.155225 
1 1:-0.887231 2:0.338864 
1 1:-0.864762 2:0.155225 
1 1:-0.983179 2:-0.970533 
1 1:-0.466947 2:0.124588 
1 1:-0.983179 2:-0.970533 
1 1:-0.466947 2:0.124588 
1 1:-0.983179 2:-0.970533 
1 1:-0.466947 2:0.124588 
1 1:-0.983179 2:-0.970533 
1 1:-0.466947 2:0.124588 
1 1:-0.983179 2:-0.970533 
1 1:-0.466947 2:0.124588 
1 1:-0.983179 2:-0.970533 
1 1:-0.466947 2:0.124588 
1 1:-0.981774 2:-0.990504 
1 1:-0.369 2:0.13805 
1 1:-0.981774 2:-0.990504 
1 1:-0.369 2:0.13805 
1 1:-0.981774 2:-0.990504 
1 1:-0.369 2:0.13805 
1 1:-0.981774 2:-0.990504 
1 1:-0.369 2:0.13805 
1 1:-0.981774 2:-0.990504 
1 1:-0.369 2:0.13805 
1 1:-0.981774 2:-0.990504 
1 1:-0.369 2:0.13805 
1 1:-0.981774 2:-0.990504 
1 1:-0.369 2:0.13805 
1 1:-0.981774 2:-0.990504 
1 1:-0.369 2:0.13805 
1 1:-0.981774 2:-0.990504 
1 1:-0.369 2:0.13805 
1 1:-0.981774 2:-0.990504 
1 1:-0.369 2:0.13805 
1 1:-0.981774 2:-0.990504 
1 1:-0.369 2:0.13805 
1 1:-0.981774 2:-0.990504 
1 1:-0.369 2:0.13805 
1 1:-0.981774 2:-0.990504 
1 1:-0.369 2:0.13805 
1 1:-0.981774 2:-0.990504 
1 1:-0.369 2:0.13805 
1 1:-0.981774 2:-0.990504 
1 1:-0.369 2:0.13805 
1 1:-0.981774 2:-0.990504 
1 1:-0.369 2:0.13805 
1 1:-0.981774 2:-0.990504 
1 1:-0.369 2:0.13805 
1 1:-0.981774 2:-0.990504 
1 1:-0.369 2:0.13805 
1 1:-0.981774 2:-0.990504 
1 1:-0.369 2:0.13805 
1 1:-0.981774 2:-0.990504 
1 1:-0.369 2:0.13805 
1 1:-0.981774 2:-0.990504 
1 1:-0.369 2:0.13805 
1 1:-0.981774 2:-0.990504 
1 1:-0.369 2:0.13805 
1 1:-0.981774 2:-0.990504 
1 1:-0.369 2:0.13805 
1 1:-0.981774 2:-0.990504 
1 1:-0.369 2:0.13805 
1 1:-0.981774 2:-0.990504 
1 1:-0.369 2:0.13805 
1 1:-0.981774 2:-0.990504 
1 1:-0.369 2:0.13805 
1 1:-0.981774 2:-0.990504 
1 1:-0.369 2:0.13805 
1 1:-0.981774 2:-0.990504 
1 1:-0.369 2:0.13805 
1 1:-0.981774 2:-0.990504 
1 1:-0.369 2:0.13805 
1 1:-0.981774 2:-0.990504 
1 1:-0.369 2:0.13805 
1 1:-0.981774 2:-0.990504 
1 1:-0.369 2:0.13805 
1 1:-0.981774 2:-0.990504 
1 1:-0.369 2:0.13805 
1 1:-0.981774 2:-0.990504 
1 1:-0.369 2:0.13805 
1 1:-0.981774 2:-0.990504 
1 1:-0.369 2:0.13805 
1 1:-0.981774 2:-0.990504 
1 1:-0.369 2:0.13805 
1 1:-0.981774 2:-0.990504 
1 1:-0.369 2:0.13805 
1 1:-0.981774 2:-0.990504 
1 1:-0.369 2:0.13805 
1 1:-0.981774 2:-0.990504 
1 1:-0.369 2:0.13805 
1 1:-0.981774 2:-0.990504 
1 1:-0.369 2:0.13805 
1 1:-0.981774 2:-0.990504 
1 1:-0.369 2:0.13805 
1 1:-0.981774 2:-0.990504 
1 1:-0.369 2:0.13805 
1 1:-0.981774 2:-0.990504 
1 1:-0.369 2:0.13805 
1 1:-0.981774 2:-0.990504 
1 1:-0.369 2:0.13805 
1 1:-0.981774 2:-0.990504 
1 1:-0.369 2:0.13805 
1 1:-0.981774 2:-0.990504 
1 1:-0.369 2:0.13805 
1 1:-0.981774 2:-0.990504 
1 1:-0.369 2:0.13805 
1 1:-0.981774 2:-0.990504 
1 1:-0.369 2:0.13805 
1 1:-0.981774 2:-0.990504 
1 1:-0.369 2:0.13805 
1 1:-0.981774 2:-0.990504 
1 1:-0.369 2:0.13805 
1 1:-0.981774 2:-0.990504 
1 1:-0.369 2:0.13805 
1 1:-0.981774 2:-0.990504 
1 1:-0.369 2:0.13805 
1 1:-0.981774 2:-0.990504 
1 1:-0.369 2:0.13805 
1 1:-0.981774 2:-0.990504 
1 1:-0.369 2:0.13805 
1 1:-0.981774 2:-0.990504 
1 1:-0.369 2:0.13805 
1 1:-0.981774 2:-0.990504 
1 1:-0.369 2:0.13805 
1 1:-0.981774 2:-0.990504 
1 1:-0.369 2:0.13805 
1 1:-0.981774 2:-0.990504 
1 1:-0.369 2:0.13805 
1 1:-0.981774 2:-0.990504 
1 1:-0.369 2:0.13805 
1 1:-0.981774 2:-0.990504 
1 1:-0.369 2:0.13805 
1 1:-0.981774 2:-0.990504 
1 1:-0.369 2:0.13805 
1 1:-0.981774 2:-0.990504 
1 1:-0.369 2:0.13805 
1 1:-0.981774 2:-0.990504 
1 1:-0.369 2:0.13805 
1 1:-0.981774 2:-0.990504 
1 1:-0.369 2:0.13805 
1 1:-0.981774 2:-0.990504 
1 1:-0.369 2:0.13805 
1 1:-0.981774 2:-0.990504 
1 1:-0.369 2:0.13805 
1 1:-0.981774 2:-0.990504 
1 1:-0.369 2:0.13805 
1 1:-0.981774 2:-0.990504 
1 1:-0.369 2:0.13805 
1 1:-0.981774 2:-0.990504 
1 1:-0.369 2:0.13805 
1 1:-0.981774 2:-0.990504 
1 1:-0.369 2:0.13805 
1 1:-0.981774 2:-0.990504 
1 1:-0.369 2:0.13805 
1 1:-0.981774 2:-0.990504 
1 1:-0.369 2:0.13805 
1 1:-0.981774 2:-0.990504 
1 1:-0.369 2:0.13805 
1 1:-0.981774 2:-0.990504 
1 1:-0.369 2:0.13805 
1 1:-0.981774 2:-0.990504 
1 1:-0.369 2:0.13805 
1 1:-0.981774 2:-0.990504 
1 1:-0.369 2:0.13805 
1 1:-0.981774 2:-0.990504 
1 1:-0.369 2:0.13805 
1 1:-0.981774 2:-0.990504 
1 1:-0.369 2:0.13805 
1 1:-0.981774 2:-0.990504 
1 1:-0.369 2:0.13805 
1 1:-0.981774 2:-0.990504 
1 1:-0.369 2:0.13805 
1 1:-0.981774 2:-0.990504 
1 1:-0.369 2:0.13805 
1 1:-0.981774 2:-0.990504 
1 1:-0.369 2:0.13805 
1 1:-0.981774 2:-0.990504 
1 1:-0.369 2:0.13805 
1 1:-0.981774 2:-0.990504 
1 1:-0.369 2:0.13805 
1 1:-0.981774 2:-0.990504 
1 1:-0.369 2:0.13805 
1 1:-0.981774 2:-0.990504 
1 1:-0.369 2:0.13805 
1 1:-0.981774 2:-0.990504 
1 1:-0.369 2:0.13805 
1 1:-0.981774 2:-0.990504 
1 1:-0.369 2:0.13805 
1 1:-0.981774 2:-0.990504 
1 1:-0.369 2:0.13805 
1 1:-0.981774 2:-0.990504 
1 1:-0.369 2:0.13805 
1 1:-0.981774 2:-0.990504 
1 1:-0.369 2:0.13805 
1 1:-0.981774 2:-0.990504 
1 1:-0.369 2:0.13805 
1 1:-0.981774 2:-0.990504 
1 1:-0.369 2:0.13805 
1 1:-0.981774 2:-0.990504 
1 1:-0.369 2:0.13805 
1 1:-0.981774 2:-0.990504 
1 1:-0.369 2:0.13805 
1 1:-0.996613 2:-0.99011 
1 1:-0.996613 2:-0.99011 
1 1:-0.996613 2:-0.99011 
1 1:-0.996613 2:-0.99011 
1 1:-0.996613 2:-0.99011 
1 1:-0.996613 2:-0.99011 
1 1:-0.996613 2:-0.99011 
1 1:-0.996613 2:-0.99011 
1 1:-0.996613 2:-0.99011 
1 1:-0.996613 2:-0.99011 
1 1:-0.996613 2:-0.99011 
1 1:-0.996613 2:-0.99011 
1 1:-0.996613 2:-0.99011 
1 1:-0.996613 2:-0.99011 
1 1:-0.996613 2:-0.99011 
1 1:-0.996613 2:-0.99011 
1 1:-0.996613 2:-0.99011 
1 1:-0.996613 2:-0.99011 
1 1:-0.996613 2:-0.99011 
1 1:-0.996613 2:-0.99011 
1 1:-0.996613 2:-0.99011 
1 1:-0.996613 2:-0.99011 
1 1:-0.996613 2:-0.99011 
1 1:-0.996613 2:-0.99011 
1 1:-0.996613 2:-0.99011 
1 1:-0.996613 2:-0.99011 
1 1:-0.996613 2:-0.99011 
1 1:-0.996613 2:-0.99011 
1 1:-0.996613 2:-0.99011 
1 1:-0.996613 2:-0.99011 
1 1:-0.996613 2:-0.99011 
1 1:-0.996613 2:-0.99011 
1 1:-0.996613 2:-0.99011 
1 1:-0.996613 2:-0.99011 
1 1:-0.996613 2:-0.99011 
1 1:-0.996613 2:-0.99011 
1 1:-0.996613 2:-0.99011 
1 1:-0.996613 2:-0.99011 
1 1:-0.996613 2:-0.99011 
1 1:-0.996613 2:-0.99011 
1 1:-0.996613 2:-0.99011 
1 1:-0.996613 2:-0.99011 
1 1:-0.996613 2:-0.99011 
1 1:-0.996613 2:-0.99011 
1 1:-0.996613 2:-0.99011 
1 1:-0.996613 2:-0.99011 
1 1:-0.996613 2:-0.99011 
1 1:-0.996613 2:-0.99011 
1 1:-0.996613 2:-0.99011 
1 1:-0.996613 2:-0.99011 
1 1:-0.996613 2:-0.99011 
1 1:-0.996613 2:-0.99011 
1 1:-0.996613 2:-0.99011 
1 1:-0.996613 2:-0.99011 
1 1:-0.996613 2:-0.99011 
1 1:-0.996613 2:-0.99011 
1 1:-0.996613 2:-0.99011 
1 1:-0.996613 2:-0.99011 
1 1:-0.996613 2:-0.99011 
1 1:-0.996613 2:-0.99011 
1 1:-0.996613 2:-0.99011 
1 1:-0.996613 2:-0.99011 
1 1:-0.996613 2:-0.99011 
1 1:-0.996613 2:-0.99011 
1 1:-0.996613 2:-0.99011 
1 1:-0.996613 2:-0.99011 
1 1:-0.996613 2:-0.99011 
1 1:-0.996613 2:-0.99011 
1 1:-0.996613 2:-0.99011 
1 1:-0.996613 2:-0.99011 
1 1:-0.996613 2:-0.99011 
1 1:-0.996613 2:-0.99011 
1 1:-0.996613 2:-0.99011 
1 1:-0.996613 2:-0.99011 
1 1:-0.996613 2:-0.99011 
1 1:-0.996613 2:-0.99011 
1 1:-0.996613 2:-0.99011 
1 1:-0.996613 2:-0.99011 
1 1:-0.996613 2:-0.99011 
1 1:-0.996613 2:-0.99011 
1 1:-0.996613 2:-0.99011 
1 1:-0.996613 2:-0.99011 
1 1:-0.996613 2:-0.99011 
1 1:-0.996613 2:-0.99011 
1 1:-0.996613 2:-0.99011 
1 1:-0.996613 2:-0.99011 
1 1:-0.996613 2:-0.99011 
1 1:-0.996613 2:-0.99011 
1 1:-0.996613 2:-0.99011 
1 1:-0.996613 2:-0.99011 
1 1:-0.996613 2:-0.99011 
1 1:-0.996613 2:-0.99011 
1 1:-0.996613 2:-0.99011 
1 1:-0.988838 2:-0.97266 
1 1:-0.988838 2:-0.97266 
1 1:-0.988838 2:-0.97266 
1 1:-0.988838 2:-0.97266 
1 1:-0.988838 2:-0.97266 
1 1:-0.988838 2:-0.97266 
1 1:-0.988838 2:-0.97266 
1 1:-0.988838 2:-0.97266 
1 1:-0.988838 2:-0.97266 
1 1:-0.988838 2:-0.97266 
1 1:-0.988838 2:-0.97266 
1 1:-0.988838 2:-0.97266 
1 1:-0.988838 2:-0.97266 
1 1:-0.988838 2:-0.97266 
1 1:-0.988838 2:-0.97266 
1 1:-0.988838 2:-0.97266 
1 1:-0.988838 2:-0.97266 
1 1:-0.988838 2:-0.97266 
1 1:-0.988838 2:-0.97266 
1 1:-0.988838 2:-0.97266 
1 1:-0.988838 2:-0.97266 
1 1:-0.988838 2:-0.97266 
1 1:-0.988838 2:-0.97266 
1 1:-0.988838 2:-0.97266 
1 1:-0.988838 2:-0.97266 
1 1:-0.988838 2:-0.97266 
1 1:-0.988838 2:-0.97266 
1 1:-0.988838 2:-0.97266 
1 1:-0.988838 2:-0.97266 
1 1:-0.988838 2:-0.97266 
1 1:-0.988838 2:-0.97266 
1 1:-0.988838 2:-0.97266 
1 1:-0.988838 2:-0.97266 
1 1:-0.988838 2:-0.97266 
1 1:-0.988838 2:-0.97266 
1 1:-0.988838 2:-0.97266 
1 1:-0.988838 2:-0.97266 
1 1:-0.988838 2:-0.97266 
1 1:-0.988838 2:-0.97266 
1 1:-0.988838 2:-0.97266 
1 1:-0.988838 2:-0.97266 
1 1:-0.988838 2:-0.97266 
1 1:-0.988838 2:-0.97266 
1 1:-0.988838 2:-0.97266 
1 1:-0.988838 2:-0.97266 
1 1:-0.988838 2:-0.97266 
1 1:-0.988838 2:-0.97266 
1 1:-0.988838 2:-0.97266 
1 1:-0.988838 2:-0.97266 
1 1:-0.988838 2:-0.97266 
1 1:-0.988838 2:-0.97266 
1 1:-0.988838 2:-0.97266 
1 1:-0.988838 2:-0.97266 
1 1:-0.988838 2:-0.97266 
1 1:-0.988838 2:-0.97266 
1 1:-0.988838 2:-0.97266 
1 1:-0.988838 2:-0.97266 
1 1:-0.988838 2:-0.97266 
1 1:-0.988838 2:-0.97266 
1 1:-0.988838 2:-0.97266 
1 1:-0.988838 2:-0.97266 
1 1:-0.988838 2:-0.97266 
1 1:-0.988838 2:-0.97266 
1 1:-0.988838 2:-0.97266 
1 1:-0.988838 2:-0.97266 
1 1:-0.988838 2:-0.97266 
1 1:-0.988838 2:-0.97266 
1 1:-0.988838 2:-0.97266 
1 1:-0.988838 2:-0.97266 
1 1:-0.988838 2:-0.97266 
1 1:-0.988838 2:-0.97266 
1 1:-0.988838 2:-0.97266 
1 1:-0.988838 2:-0.97266 
1 1:-0.988838 2:-0.97266 
1 1:-0.988838 2:-0.97266 
1 1:-0.988838 2:-0.97266 
1 1:-0.988838 2:-0.97266 
1 1:-0.988838 2:-0.97266 
1 1:-0.988838 2:-0.97266 
1 1:-0.988838 2:-0.97266 
1 1:-0.988838 2:-0.97266 
1 1:-0.988838 2:-0.97266 
1 1:-0.988838 2:-0.97266 
1 1:-0.988838 2:-0.97266 
1 1:-0.988838 2:-0.97266 
1 1:-0.988838 2:-0.97266 
1 1:-0.988838 2:-0.97266 
1 1:-0.988838 2:-0.97266 
1 1:-0.988838 2:-0.97266 
1 1:-0.988838 2:-0.97266 
1 1:-0.988838 2:-0.97266 
1 1:-0.988838 2:-0.97266 
1 1:-0.988838 2:-0.97266 
1 1:-0.988838 2:-0.97266 
1 1:-0.993151 2:-0.988469 
1 1:-0.993151 2:-0.988469 
1 1:-0.993151 2:-0.988469 
1 1:-0.993151 2:-0.988469 
1 1:-0.993151 2:-0.988469 
1 1:-0.993151 2:-0.988469 
1 1:-0.993151 2:-0.988469 
1 1:-0.993151 2:-0.988469 
1 1:-0.993151 2:-0.988469 
1 1:-0.993151 2:-0.988469 
1 1:-0.993151 2:-0.988469 
1 1:-0.993151 2:-0.988469 
1 1:-0.993151 2:-0.988469 
1 1:-0.993151 2:-0.988469 
1 1:-0.993151 2:-0.988469 
1 1:-0.993151 2:-0.988469 
1 1:-0.993151 2:-0.988469 
1 1:-0.993151 2:-0.988469 
1 1:-0.993151 2:-0.988469 
1 1:-0.993151 2:-0.988469 
1 1:-0.993151 2:-0.988469 
1 1:-0.993151 2:-0.988469 
1 1:-0.993151 2:-0.988469 
1 1:-0.993151 2:-0.988469 
1 1:-0.993151 2:-0.988469 
1 1:-0.993151 2:-0.988469 
1 1:-0.993151 2:-0.988469 
1 1:-0.993151 2:-0.988469 
1 1:-0.993151 2:-0.988469 
1 1:-0.993151 2:-0.988469 
1 1:-0.993151 2:-0.988469 
1 1:-0.993151 2:-0.988469 
1 1:-0.993151 2:-0.988469 
1 1:-0.993151 2:-0.988469 
1 1:-0.993151 2:-0.988469 
1 1:-0.993151 2:-0.988469 
1 1:-0.993151 2:-0.988469 
1 1:-0.993151 2:-0.988469 
1 1:-0.993151 2:-0.988469 
1 1:-0.993151 2:-0.988469 
1 1:-0.993151 2:-0.988469 
1 1:-0.993151 2:-0.988469 
1 1:-0.993151 2:-0.988469 
1 1:-0.993151 2:-0.988469 
1 1:-0.993151 2:-0.988469 
1 1:-0.993151 2:-0.988469 
1 1:-0.993151 2:-0.988469 
1 1:-0.993151 2:-0.988469 
1 1:-0.993151 2:-0.988469 
1 1:-0.993151 2:-0.988469 
1 1:-0.993151 2:-0.988469 
1 1:-0.993151 2:-0.988469 
1 1:-0.993151 2:-0.988469 
1 1:-0.993151 2:-0.988469 
1 1:-0.993151 2:-0.988469 
1 1:-0.993151 2:-0.988469 
1 1:-0.993151 2:-0.988469 
1 1:-0.993151 2:-0.988469 
1 1:-0.993151 2:-0.988469 
1 1:-0.993151 2:-0.988469 
1 1:-0.993151 2:-0.988469 
1 1:-0.993151 2:-0.988469 
1 1:-0.993151 2:-0.988469 
1 1:-0.993151 2:-0.988469 
1 1:-0.993151 2:-0.988469 
1 1:-0.993151 2:-0.988469 
1 1:-0.993151 2:-0.988469 
1 1:-0.993151 2:-0.988469 
1 1:-0.993151 2:-0.988469 
1 1:-0.993151 2:-0.988469 
1 1:-0.993151 2:-0.988469 
1 1:-0.993151 2:-0.988469 
1 1:-0.993151 2:-0.988469 
1 1:-0.993151 2:-0.988469 
1 1:-0.993151 2:-0.988469 
1 1:-0.993151 2:-0.988469 
1 1:-0.993151 2:-0.988469 
1 1:-0.993151 2:-0.988469 
1 1:-0.993151 2:-0.988469 
1 1:-0.993151 2:-0.988469 
1 1:-0.993151 2:-0.988469 
1 1:-0.993151 2:-0.988469 
1 1:-0.993151 2:-0.988469 
1 1:-0.993151 2:-0.988469 
1 1:-0.993151 2:-0.988469 
1 1:-0.993151 2:-0.988469 
1 1:-0.993151 2:-0.988469 
1 1:-0.993151 2:-0.988469 
1 1:-0.993151 2:-0.988469 
1 1:-0.993151 2:-0.988469 
1 1:-0.837617 2:0.158064 
1 1:-0.994973 2:-0.985758 
1 1:-0.837617 2:0.158064 
1 1:-0.994973 2:-0.985758 
1 1:-0.837617 2:0.158064 
1 1:-0.994973 2:-0.985758 
1 1:-0.837617 2:0.158064 
1 1:-0.994973 2:-0.985758 
1 1:-0.837617 2:0.158064 
1 1:-0.994973 2:-0.985758 
1 1:-0.837617 2:0.158064 
1 1:-0.994973 2:-0.985758 
1 1:-0.837617 2:0.158064 
1 1:-0.994973 2:-0.985758 
1 1:-0.837617 2:0.158064 
1 1:-0.994973 2:-0.985758 
1 1:-0.837617 2:0.158064 
1 1:-0.994973 2:-0.985758 
1 1:-0.837617 2:0.158064 
1 1:-0.994973 2:-0.985758 
1 1:-0.837617 2:0.158064 
1 1:-0.994973 2:-0.985758 
1 1:-0.837617 2:0.158064 
1 1:-0.994973 2:-0.985758 
1 1:-0.837617 2:0.158064 
1 1:-0.994973 2:-0.985758 
1 1:-0.837617 2:0.158064 
1 1:-0.994973 2:-0.985758 
1 1:-0.837617 2:0.158064 
1 1:-0.994973 2:-0.985758 
1 1:-0.837617 2:0.158064 
1 1:-0.994973 2:-0.985758 
1 1:-0.837617 2:0.158064 
1 1:-0.994973 2:-0.985758 
1 1:-0.837617 2:0.158064 
1 1:-0.994973 2:-0.985758 
1 1:-0.837617 2:0.158064 
1 1:-0.994973 2:-0.985758 
1 1:-0.837617 2:0.158064 
1 1:-0.994973 2:-0.985758 
1 1:-0.837617 2:0.158064 
1 1:-0.994973 2:-0.985758 
1 1:-0.837617 2:0.158064 
1 1:-0.994973 2:-0.985758 
1 1:-0.837617 2:0.158064 
1 1:-0.994973 2:-0.985758 
1 1:-0.837617 2:0.158064 
1 1:-0.994973 2:-0.985758 
1 1:-0.837617 2:0.158064 
1 1:-0.994973 2:-0.985758 
1 1:-0.837617 2:0.158064 
1 1:-0.994973 2:-0.985758 
1 1:-0.837617 2:0.158064 
1 1:-0.994973 2:-0.985758 
1 1:-0.837617 2:0.158064 
1 1:-0.994973 2:-0.985758 
1 1:-0.837617 2:0.158064 
1 1:-0.994973 2:-0.985758 
1 1:-0.837617 2:0.158064 
1 1:-0.994973 2:-0.985758 
1 1:-0.837617 2:0.158064 
1 1:-0.994973 2:-0.985758 
1 1:-0.837617 2:0.158064 
1 1:-0.994973 2:-0.985758 
1 1:-0.837617 2:0.158064 
1 1:-0.994973 2:-0.985758 
1 1:-0.837617 2:0.158064 
1 1:-0.994973 2:-0.985758 
1 1:-0.837617 2:0.158064 
1 1:-0.994973 2:-0.985758 
1 1:-0.837617 2:0.158064 
1 1:-0.994973 2:-0.985758 
1 1:-0.837617 2:0.158064 
1 1:-0.994973 2:-0.985758 
1 1:-0.837617 2:0.158064 
1 1:-0.994973 2:-0.985758 
1 1:-0.837617 2:0.158064 
1 1:-0.994973 2:-0.985758 
1 1:-0.837617 2:0.158064 
1 1:-0.994973 2:-0.985758 
1 1:-0.837617 2:0.158064 
1 1:-0.994973 2:-0.985758 
1 1:-0.837617 2:0.158064 
1 1:-0.994973 2:-0.985758 
1 1:-0.837617 2:0.158064 
1 1:-0.994973 2:-0.985758 
1 1:-0.837617 2:0.158064 
1 1:-0.994973 2:-0.985758 
1 1:-0.837617 2:0.158064 
1 1:-0.994973 2:-0.985758 
1 1:-0.837617 2:0.158064 
1 1:-0.994973 2:-0.985758 
1 1:-0.837617 2:0.158064 
1 1:-0.994973 2:-0.985758 
1 1:-0.837617 2:0.158064 
1 1:-0.994973 2:-0.985758 
1 1:-0.837617 2:0.158064 
1 1:-0.994973 2:-0.985758 
1 1:-0.837617 2:0.158064 
1 1:-0.994973 2:-0.985758 
1 1:-0.837617 2:0.158064 
1 1:-0.994973 2:-0.985758 
1 1:-0.837617 2:0.158064 
1 1:-0.994973 2:-0.985758 
1 1:-0.837617 2:0.158064 
1 1:-0.994973 2:-0.985758 
1 1:-0.837617 2:0.158064 
1 1:-0.994973 2:-0.985758 
1 1:-0.837617 2:0.158064 
1 1:-0.994973 2:-0.985758 
1 1:-0.837617 2:0.158064 
1 1:-0.994973 2:-0.985758 
1 1:-0.837617 2:0.158064 
1 1:-0.994973 2:-0.985758 
1 1:-0.837617 2:0.158064 
1 1:-0.994973 2:-0.985758 
1 1:-0.837617 2:0.158064 
1 1:-0.994973 2:-0.985758 
1 1:-0.837617 2:0.158064 
1 1:-0.994973 2:-0.985758 
1 1:-0.837617 2:0.158064 
1 1:-0.994973 2:-0.985758 
1 1:-0.837617 2:0.158064 
1 1:-0.994973 2:-0.985758 
1 1:-0.837617 2:0.158064 
1 1:-0.994973 2:-0.985758 
1 1:-0.837617 2:0.158064 
1 1:-0.994973 2:-0.985758 
1 1:-0.837617 2:0.158064 
1 1:-0.994973 2:-0.985758 
1 1:-0.837617 2:0.158064 
1 1:-0.994973 2:-0.985758 
1 1:-0.837617 2:0.158064 
1 1:-0.994973 2:-0.985758 
1 1:-0.837617 2:0.158064 
1 1:-0.994973 2:-0.985758 
1 1:-0.837617 2:0.158064 
1 1:-0.994973 2:-0.985758 
1 1:-0.837617 2:0.158064 
1 1:-0.994973 2:-0.985758 
1 1:-0.837617 2:0.158064 
1 1:-0.994973 2:-0.985758 
1 1:-0.837617 2:0.158064 
1 1:-0.994973 2:-0.985758 
1 1:-0.837617 2:0.158064 
1 1:-0.994973 2:-0.985758 
1 1:-0.837617 2:0.158064 
1 1:-0.994973 2:-0.985758 
1 1:-0.837617 2:0.158064 
1 1:-0.994973 2:-0.985758 
1 1:-0.837617 2:0.158064 
1 1:-0.994973 2:-0.985758 
1 1:-0.837617 2:0.158064 
1 1:-0.994973 2:-0.985758 
1 1:-0.837617 2:0.158064 
1 1:-0.994973 2:-0.985758 
1 1:-0.837617 2:0.158064 
1 1:-0.994973 2:-0.985758 
1 1:-0.837617 2:0.158064 
1 1:-0.994973 2:-0.985758 
1 1:-0.837617 2:0.158064 
1 1:-0.994973 2:-0.985758 
1 1:-0.837617 2:0.158064 
1 1:-0.994973 2:-0.985758 
1 1:-0.837617 2:0.158064 
1 1:-0.994973 2:-0.985758 
1 1:-0.837617 2:0.158064 
1 1:-0.994973 2:-0.985758 
1 1:-0.837617 2:0.158064 
1 1:-0.994973 2:-0.985758 
1 1:-0.837617 2:0.158064 
1 1:-0.994973 2:-0.985758 
1 1:-0.837617 2:0.158064 
1 1:-0.994973 2:-0.985758 
1 1:-0.837617 2:0.158064 
1 1:-0.994973 2:-0.985758 
1 1:-0.993588 2:-0.982965 
1 1:-0.993588 2:-0.982965 
1 1:-0.993588 2:-0.982965 
1 1:-0.993588 2:-0.982965 
1 1:-0.993588 2:-0.982965 
1 1:-0.993588 2:-0.982965 
1 1:-0.993588 2:-0.982965 
1 1:-0.993588 2:-0.982965 
1 1:-0.993588 2:-0.982965 
1 1:-0.993588 2:-0.982965 
1 1:-0.993588 2:-0.982965 
1 1:-0.993588 2:-0.982965 
1 1:-0.993588 2:-0.982965 
1 1:-0.993588 2:-0.982965 
1 1:-0.993588 2:-0.982965 
1 1:-0.993588 2:-0.982965 
1 1:-0.993588 2:-0.982965 
1 1:-0.993588 2:-0.982965 
1 1:-0.993588 2:-0.982965 
1 1:-0.993588 2:-0.982965 
1 1:-0.993588 2:-0.982965 
1 1:-0.993588 2:-0.982965 
1 1:-0.993588 2:-0.982965 
1 1:-0.993588 2:-0.982965 
1 1:-0.993588 2:-0.982965 
1 1:-0.993588 2:-0.982965 
1 1:-0.993588 2:-0.982965 
1 1:-0.993588 2:-0.982965 
1 1:-0.993588 2:-0.982965 
1 1:-0.993588 2:-0.982965 
1 1:-0.993588 2:-0.982965 
1 1:-0.993588 2:-0.982965 
1 1:-0.993588 2:-0.982965 
1 1:-0.993588 2:-0.982965 
1 1:-0.993588 2:-0.982965 
1 1:-0.993588 2:-0.982965 
1 1:-0.993588 2:-0.982965 
1 1:-0.993588 2:-0.982965 
1 1:-0.993588 2:-0.982965 
1 1:-0.993588 2:-0.982965 
1 1:-0.993588 2:-0.982965 
1 1:-0.993588 2:-0.982965 
1 1:-0.993588 2:-0.982965 
1 1:-0.993588 2:-0.982965 
1 1:-0.993588 2:-0.982965 
1 1:-0.993588 2:-0.982965 
1 1:-0.993588 2:-0.982965 
1 1:-0.993588 2:-0.982965 
1 1:-0.993588 2:-0.982965 
1 1:-0.993588 2:-0.982965 
1 1:-0.993588 2:-0.982965 
1 1:-0.993588 2:-0.982965 
1 1:-0.993588 2:-0.982965 
1 1:-0.993588 2:-0.982965 
1 1:-0.993588 2:-0.982965 
1 1:-0.993588 2:-0.982965 
1 1:-0.993588 2:-0.982965 
1 1:-0.993588 2:-0.982965 
1 1:-0.993588 2:-0.982965 
1 1:-0.993588 2:-0.982965 
1 1:-0.993588 2:-0.982965 
1 1:-0.993588 2:-0.982965 
1 1:-0.993588 2:-0.982965 
1 1:-0.993588 2:-0.982965 
1 1:-0.993588 2:-0.982965 
1 1:-0.993588 2:-0.982965 
1 1:-0.993588 2:-0.982965 
1 1:-0.993588 2:-0.982965 
1 1:-0.993588 2:-0.982965 
1 1:-0.993588 2:-0.982965 
1 1:-0.993588 2:-0.982965 
1 1:-0.993588 2:-0.982965 
1 1:-0.993588 2:-0.982965 
1 1:-0.993588 2:-0.982965 
1 1:-0.993588 2:-0.982965 
1 1:-0.993588 2:-0.982965 
1 1:-0.993588 2:-0.982965 
1 1:-0.993588 2:-0.982965 
1 1:-0.993588 2:-0.982965 
1 1:-0.993588 2:-0.982965 
1 1:-0.993588 2:-0.982965 
1 1:-0.993588 2:-0.982965 
1 1:-0.993588 2:-0.982965 
1 1:-0.993588 2:-0.982965 
1 1:-0.993588 2:-0.982965 
1 1:-0.993588 2:-0.982965 
1 1:-0.993588 2:-0.982965 
1 1:-0.993588 2:-0.982965 
1 1:-0.993588 2:-0.982965 
1 1:-0.993588 2:-0.982965 
1 1:-0.993588 2:-0.982965 
1 1:-0.993588 2:-0.982965 
1 1:-0.993588 2:-0.982965 
1 1:-0.993588 2:-0.982965 
1 1:-0.993588 2:-0.982965 
1 1:-0.993588 2:-0.982965 
1 1:-0.993667 2:-0.979922 
1 1:-0.747807 2:0.204639 
1 1:-0.993667 2:-0.979922 
1 1:-0.747807 2:0.204639 
1 1:-0.993667 2:-0.979922 
1 1:-0.747807 2:0.204639 
1 1:-0.993667 2:-0.979922 
1 1:-0.747807 2:0.204639 
1 1:-0.993667 2:-0.979922 
1 1:-0.747807 2:0.204639 
1 1:-0.993667 2:-0.979922 
1 1:-0.747807 2:0.204639 
1 1:-0.993667 2:-0.979922 
1 1:-0.747807 2:0.204639 
1 1:-0.993667 2:-0.979922 
1 1:-0.747807 2:0.204639 
1 1:-0.993667 2:-0.979922 
1 1:-0.747807 2:0.204639 
1 1:-0.993667 2:-0.979922 
1 1:-0.747807 2:0.204639 
1 1:-0.993667 2:-0.979922 
1 1:-0.747807 2:0.204639 
1 1:-0.993667 2:-0.979922 
1 1:-0.747807 2:0.204639 
1 1:-0.993667 2:-0.979922 
1 1:-0.747807 2:0.204639 
1 1:-0.993667 2:-0.979922 
1 1:-0.747807 2:0.204639 
1 1:-0.993667 2:-0.979922 
1 1:-0.747807 2:0.204639 
1 1:-0.993667 2:-0.979922 
1 1:-0.747807 2:0.204639 
1 1:-0.993667 2:-0.979922 
1 1:-0.747807 2:0.204639 
1 1:-0.993667 2:-0.979922 
1 1:-0.747807 2:0.204639 
1 1:-0.993667 2:-0.979922 
1 1:-0.747807 2:0.204639 
1 1:-0.993667 2:-0.979922 
1 1:-0.747807 2:0.204639 
1 1:-0.993667 2:-0.979922 
1 1:-0.747807 2:0.204639 
1 1:-0.993667 2:-0.979922 
1 1:-0.747807 2:0.204639 
1 1:-0.993667 2:-0.979922 
1 1:-0.747807 2:0.204639 
1 1:-0.993667 2:-0.979922 
1 1:-0.747807 2:0.204639 
1 1:-0.993667 2:-0.979922 
1 1:-0.747807 2:0.204639 
1 1:-0.993667 2:-0.979922 
1 1:-0.747807 2:0.204639 
1 1:-0.993667 2:-0.979922 
1 1:-0.747807 2:0.204639 
1 1:-0.993667 2:-0.979922 
1 1:-0.747807 2:0.204639 
1 1:-0.993667 2:-0.979922 
1 1:-0.747807 2:0.204639 
1 1:-0.993667 2:-0.979922 
1 1:-0.747807 2:0.204639 
1 1:-0.993667 2:-0.979922 
1 1:-0.747807 2:0.204639 
1 1:-0.993667 2:-0.979922 
1 1:-0.747807 2:0.204639 
1 1:-0.993667 2:-0.979922 
1 1:-0.747807 2:0.204639 
1 1:-0.993667 2:-0.979922 
1 1:-0.747807 2:0.204639 
1 1:-0.993667 2:-0.979922 
1 1:-0.747807 2:0.204639 
1 1:-0.993667 2:-0.979922 
1 1:-0.747807 2:0.204639 
1 1:-0.993667 2:-0.979922 
1 1:-0.747807 2:0.204639 
1 1:-0.993667 2:-0.979922 
1 1:-0.747807 2:0.204639 
1 1:-0.993667 2:-0.979922 
1 1:-0.747807 2:0.204639 
1 1:-0.993667 2:-0.979922 
1 1:-0.747807 2:0.204639 
1 1:-0.993667 2:-0.979922 
1 1:-0.747807 2:0.204639 
1 1:-0.993667 2:-0.979922 
1 1:-0.747807 2:0.204639 
1 1:-0.993667 2:-0.979922 
1 1:-0.747807 2:0.204639 
1 1:-0.993667 2:-0.979922 
1 1:-0.747807 2:0.204639 
1 1:-0.993667 2:-0.979922 
1 1:-0.747807 2:0.204639 
1 1:-0.993667 2:-0.979922 
1 1:-0.747807 2:0.204639 
1 1:-0.993667 2:-0.979922 
1 1:-0.747807 2:0.204639 
1 1:-0.993667 2:-0.979922 
1 1:-0.747807 2:0.204639 
1 1:-0.993667 2:-0.979922 
1 1:-0.747807 2:0.204639 
1 1:-0.993667 2:-0.979922 
1 1:-0.747807 2:0.204639 
1 1:-0.993667 2:-0.979922 
1 1:-0.747807 2:0.204639 
1 1:-0.993667 2:-0.979922 
1 1:-0.747807 2:0.204639 
1 1:-0.993667 2:-0.979922 
1 1:-0.747807 2:0.204639 
1 1:-0.993667 2:-0.979922 
1 1:-0.747807 2:0.204639 
1 1:-0.993667 2:-0.979922 
1 1:-0.747807 2:0.204639 
1 1:-0.993667 2:-0.979922 
1 1:-0.747807 2:0.204639 
1 1:-0.993667 2:-0.979922 
1 1:-0.747807 2:0.204639 
1 1:-0.993667 2:-0.979922 
1 1:-0.747807 2:0.204639 
1 1:-0.993667 2:-0.979922 
1 1:-0.747807 2:0.204639 
1 1:-0.993667 2:-0.979922 
1 1:-0.747807 2:0.204639 
1 1:-0.993667 2:-0.979922 
1 1:-0.747807 2:0.204639 
1 1:-0.993667 2:-0.979922 
1 1:-0.747807 2:0.204639 
1 1:-0.993667 2:-0.979922 
1 1:-0.747807 2:0.204639 
1 1:-0.993667 2:-0.979922 
1 1:-0.747807 2:0.204639 
1 1:-0.993667 2:-0.979922 
1 1:-0.747807 2:0.204639 
1 1:-0.993667 2:-0.979922 
1 1:-0.747807 2:0.204639 
1 1:-0.993667 2:-0.979922 
1 1:-0.747807 2:0.204639 
1 1:-0.993667 2:-0.979922 
1 1:-0.747807 2:0.204639 
1 1:-0.993667 2:-0.979922 
1 1:-0.747807 2:0.204639 
1 1:-0.993667 2:-0.979922 
1 1:-0.747807 2:0.204639 
1 1:-0.993667 2:-0.979922 
1 1:-0.747807 2:0.204639 
1 1:-0.993667 2:-0.979922 
1 1:-0.747807 2:0.204639 
1 1:-0.993667 2:-0.979922 
1 1:-0.747807 2:0.204639 
1 1:-0.993667 2:-0.979922 
1 1:-0.747807 2:0.204639 
1 1:-0.993667 2:-0.979922 
1 1:-0.747807 2:0.204639 
1 1:-0.993667 2:-0.979922 
1 1:-0.747807 2:0.204639 
1 1:-0.993667 2:-0.979922 
1 1:-0.747807 2:0.204639 
1 1:-0.993667 2:-0.979922 
1 1:-0.747807 2:0.204639 
1 1:-0.993667 2:-0.979922 
1 1:-0.747807 2:0.204639 
1 1:-0.993667 2:-0.979922 
1 1:-0.747807 2:0.204639 
1 1:-0.993667 2:-0.979922 
1 1:-0.747807 2:0.204639 
1 1:-0.993667 2:-0.979922 
1 1:-0.747807 2:0.204639 
1 1:-0.993667 2:-0.979922 
1 1:-0.747807 2:0.204639 
1 1:-0.993667 2:-0.979922 
1 1:-0.747807 2:0.204639 
1 1:-0.993667 2:-0.979922 
1 1:-0.747807 2:0.204639 
1 1:-0.993667 2:-0.979922 
1 1:-0.747807 2:0.204639 
1 1:-0.993667 2:-0.979922 
1 1:-0.747807 2:0.204639 
1 1:-0.993667 2:-0.979922 
1 1:-0.747807 2:0.204639 
1 1:-0.993667 2:-0.979922 
1 1:-0.747807 2:0.204639 
1 1:-0.993667 2:-0.979922 
1 1:-0.747807 2:0.204639 
1 1:-0.993667 2:-0.979922 
1 1:-0.747807 2:0.204639 
1 1:-0.996119 2:-0.972907 
1 1:-0.996119 2:-0.972907 
1 1:-0.996119 2:-0.972907 
1 1:-0.996119 2:-0.972907 
1 1:-0.996119 2:-0.972907 
1 1:-0.996119 2:-0.972907 
1 1:-0.996119 2:-0.972907 
1 1:-0.996119 2:-0.972907 
1 1:-0.996119 2:-0.972907 
1 1:-0.996119 2:-0.972907 
1 1:-0.996119 2:-0.972907 
1 1:-0.996119 2:-0.972907 
1 1:-0.996119 2:-0.972907 
1 1:-0.996119 2:-0.972907 
1 1:-0.996119 2:-0.972907 
1 1:-0.996119 2:-0.972907 
1 1:-0.996119 2:-0.972907 
1 1:-0.996119 2:-0.972907 
1 1:-0.996119 2:-0.972907 
1 1:-0.996119 2:-0.972907 
1 1:-0.996119 2:-0.972907 
1 1:-0.996119 2:-0.972907 
1 1:-0.996119 2:-0.972907 
1 1:-0.996119 2:-0.972907 
1 1:-0.996119 2:-0.972907 
1 1:-0.996119 2:-0.972907 
1 1:-0.996119 2:-0.972907 
1 1:-0.996119 2:-0.972907 
1 1:-0.996119 2:-0.972907 
1 1:-0.996119 2:-0.972907 
1 1:-0.996119 2:-0.972907 
1 1:-0.996119 2:-0.972907 
1 1:-0.996119 2:-0.972907 
1 1:-0.996119 2:-0.972907 
1 1:-0.996119 2:-0.972907 
1 1:-0.996119 2:-0.972907 
1 1:-0.996119 2:-0.972907 
1 1:-0.996119 2:-0.972907 
1 1:-0.996119 2:-0.972907 
1 1:-0.996119 2:-0.972907 
1 1:-0.996119 2:-0.972907 
1 1:-0.996119 2:-0.972907 
1 1:-0.996119 2:-0.972907 
1 1:-0.996119 2:-0.972907 
1 1:-0.996119 2:-0.972907 
1 1:-0.996119 2:-0.972907 
1 1:-0.996119 2:-0.972907 
1 1:-0.996119 2:-0.972907 
1 1:-0.996119 2:-0.972907 
1 1:-0.996119 2:-0.972907 
1 1:-0.996119 2:-0.972907 
1 1:-0.996119 2:-0.972907 
1 1:-0.996119 2:-0.972907 
1 1:-0.996119 2:-0.972907 
1 1:-0.996119 2:-0.972907 
1 1:-0.996119 2:-0.972907 
1 1:-0.996119 2:-0.972907 
1 1:-0.996119 2:-0.972907 
1 1:-0.996119 2:-0.972907 
1 1:-0.996119 2:-0.972907 
1 1:-0.996119 2:-0.972907 
1 1:-0.996119 2:-0.972907 
1 1:-0.996119 2:-0.972907 
1 1:-0.996119 2:-0.972907 
1 1:-0.996119 2:-0.972907 
1 1:-0.996119 2:-0.972907 
1 1:-0.996119 2:-0.972907 
1 1:-0.996119 2:-0.972907 
1 1:-0.996119 2:-0.972907 
1 1:-0.996119 2:-0.972907 
1 1:-0.996119 2:-0.972907 
1 1:-0.996119 2:-0.972907 
1 1:-0.996119 2:-0.972907 
1 1:-0.996119 2:-0.972907 
1 1:-0.996119 2:-0.972907 
1 1:-0.996119 2:-0.972907 
1 1:-0.996119 2:-0.972907 
1 1:-0.996119 2:-0.972907 
1 1:-0.996119 2:-0.972907 
1 1:-0.996119 2:-0.972907 
1 1:-0.996119 2:-0.972907 
1 1:-0.996119 2:-0.972907 
1 1:-0.996119 2:-0.972907 
1 1:-0.996119 2:-0.972907 
1 1:-0.996119 2:-0.972907 
1 1:-0.996119 2:-0.972907 
1 1:-0.996119 2:-0.972907 
1 1:-0.996119 2:-0.972907 
1 1:-0.996119 2:-0.972907 
1 1:-0.996119 2:-0.972907 
1 1:-0.996119 2:-0.972907 
1 1:-0.996119 2:-0.972907 
1 1:-0.996119 2:-0.972907 
1 1:-0.996119 2:-0.972907 
1 1:-0.996119 2:-0.972907 
1 1:-0.996119 2:-0.972907 
1 1:-0.996119 2:-0.972907 
1 1:-0.997991 2:-0.984374 
1 1:-0.997991 2:-0.984374 
1 1:-0.997991 2:-0.984374 
1 1:-0.997991 2:-0.984374 
1 1:-0.997991 2:-0.984374 
1 1:-0.997991 2:-0.984374 
1 1:-0.997991 2:-0.984374 
1 1:-0.997991 2:-0.984374 
1 1:-0.997991 2:-0.984374 
1 1:-0.997991 2:-0.984374 
1 1:-0.997991 2:-0.984374 
1 1:-0.997991 2:-0.984374 
1 1:-0.997991 2:-0.984374 
1 1:-0.997991 2:-0.984374 
1 1:-0.997991 2:-0.984374 
1 1:-0.997991 2:-0.984374 
1 1:-0.997991 2:-0.984374 
1 1:-0.997991 2:-0.984374 
1 1:-0.997991 2:-0.984374 
1 1:-0.997991 2:-0.984374 
1 1:-0.997991 2:-0.984374 
1 1:-0.997991 2:-0.984374 
1 1:-0.997991 2:-0.984374 
1 1:-0.997991 2:-0.984374 
1 1:-0.997991 2:-0.984374 
1 1:-0.997991 2:-0.984374 
1 1:-0.997991 2:-0.984374 
1 1:-0.997991 2:-0.984374 
1 1:-0.997991 2:-0.984374 
1 1:-0.997991 2:-0.984374 
1 1:-0.997991 2:-0.984374 
1 1:-0.997991 2:-0.984374 
1 1:-0.997991 2:-0.984374 
1 1:-0.997991 2:-0.984374 
1 1:-0.997991 2:-0.984374 
1 1:-0.997991 2:-0.984374 
1 1:-0.997991 2:-0.984374 
1 1:-0.997991 2:-0.984374 
1 1:-0.997991 2:-0.984374 
1 1:-0.997991 2:-0.984374 
1 1:-0.997991 2:-0.984374 
1 1:-0.997991 2:-0.984374 
1 1:-0.997991 2:-0.984374 
1 1:-0.997991 2:-0.984374 
1 1:-0.997991 2:-0.984374 
1 1:-0.997991 2:-0.984374 
1 1:-0.997991 2:-0.984374 
1 1:-0.997991 2:-0.984374 
1 1:-0.997991 2:-0.984374 
1 1:-0.997991 2:-0.984374 
1 1:-0.997991 2:-0.984374 
1 1:-0.997991 2:-0.984374 
1 1:-0.997991 2:-0.984374 
1 1:-0.997991 2:-0.984374 
1 1:-0.997991 2:-0.984374 
1 1:-0.997991 2:-0.984374 
1 1:-0.997991 2:-0.984374 
1 1:-0.997991 2:-0.984374 
1 1:-0.997991 2:-0.984374 
1 1:-0.997991 2:-0.984374 
1 1:-0.997991 2:-0.984374 
1 1:-0.997991 2:-0.984374 
1 1:-0.997991 2:-0.984374 
1 1:-0.997991 2:-0.984374 
1 1:-0.997991 2:-0.984374 
1 1:-0.997991 2:-0.984374 
1 1:-0.997991 2:-0.984374 
1 1:-0.997991 2:-0.984374 
1 1:-0.997991 2:-0.984374 
1 1:-0.997991 2:-0.984374 
1 1:-0.997991 2:-0.984374 
1 1:-0.997991 2:-0.984374 
1 1:-0.997991 2:-0.984374 
1 1:-0.997991 2:-0.984374 
1 1:-0.997991 2:-0.984374 
1 1:-0.997991 2:-0.984374 
1 1:-0.997991 2:-0.984374 
1 1:-0.997991 2:-0.984374 
1 1:-0.997991 2:-0.984374 
1 1:-0.997991 2:-0.984374 
1 1:-0.997991 2:-0.984374 
1 1:-0.997991 2:-0.984374 
1 1:-0.997991 2:-0.984374 
1 1:-0.997991 2:-0.984374 
1 1:-0.997991 2:-0.984374 
1 1:-0.997991 2:-0.984374 
1 1:-0.997991 2:-0.984374 
1 1:-0.997991 2:-0.984374 
1 1:-0.996929 2:-0.978322 
1 1:-0.996929 2:-0.978322 
1 1:-0.996929 2:-0.978322 
1 1:-0.996929 2:-0.978322 
1 1:-0.996929 2:-0.978322 
1 1:-0.996929 2:-0.978322 
1 1:-0.996929 2:-0.978322 
1 1:-0.996929 2:-0.978322 
1 1:-0.996929 2:-0.978322 
1 1:-0.996929 2:-0.978322 
1 1:-0.996929 2:-0.978322 
1 1:-0.996929 2:-0.978322 
1 1:-0.996929 2:-0.978322 
1 1:-0.996929 2:-0.978322 
1 1:-0.996929 2:-0.978322 
1 1:-0.996929 2:-0.978322 
1 1:-0.996929 2:-0.978322 
1 1:-0.996929 2:-0.978322 
1 1:-0.996929 2:-0.978322 
1 1:-0.996929 2:-0.978322 
1 1:-0.996929 2:-0.978322 
1 1:-0.996929 2:-0.978322 
1 1:-0.996929 2:-0.978322 
1 1:-0.996929 2:-0.978322 
1 1:-0.996929 2:-0.978322 
1 1:-0.996929 2:-0.978322 
1 1:-0.996929 2:-0.978322 
1 1:-0.996929 2:-0.978322 
1 1:-0.996929 2:-0.978322 
1 1:-0.996929 2:-0.978322 
1 1:-0.996929 2:-0.978322 
1 1:-0.996929 2:-0.978322 
1 1:-0.996929 2:-0.978322 
1 1:-0.996929 2:-0.978322 
1 1:-0.996929 2:-0.978322 
1 1:-0.996929 2:-0.978322 
1 1:-0.996929 2:-0.978322 
1 1:-0.996929 2:-0.978322 
1 1:-0.996929 2:-0.978322 
1 1:-0.996929 2:-0.978322 
1 1:-0.996929 2:-0.978322 
1 1:-0.996929 2:-0.978322 
1 1:-0.996929 2:-0.978322 
1 1:-0.996929 2:-0.978322 
1 1:-0.996929 2:-0.978322 
1 1:-0.996929 2:-0.978322 
1 1:-0.996929 2:-0.978322 
1 1:-0.996929 2:-0.978322 
1 1:-0.996929 2:-0.978322 
1 1:-0.996929 2:-0.978322 
1 1:-0.996929 2:-0.978322 
1 1:-0.996929 2:-0.978322 
1 1:-0.996929 2:-0.978322 
1 1:-0.996929 2:-0.978322 
1 1:-0.996929 2:-0.978322 
1 1:-0.996929 2:-0.978322 
1 1:-0.996929 2:-0.978322 
1 1:-0.996929 2:-0.978322 
1 1:-0.996929 2:-0.978322 
1 1:-0.996929 2:-0.978322 
1 1:-0.996929 2:-0.978322 
1 1:-0.996929 2:-0.978322 
1 1:-0.996929 2:-0.978322 
1 1:-0.996929 2:-0.978322 
1 1:-0.996929 2:-0.978322 
1 1:-0.996929 2:-0.978322 
1 1:-0.996929 2:-0.978322 
1 1:-0.996929 2:-0.978322 
1 1:-0.996929 2:-0.978322 
1 1:-0.996929 2:-0.978322 
1 1:-0.996929 2:-0.978322 
1 1:-0.996929 2:-0.978322 
1 1:-0.996929 2:-0.978322 
1 1:-0.996929 2:-0.978322 
1 1:-0.996929 2:-0.978322 
1 1:-0.996929 2:-0.978322 
1 1:-0.996929 2:-0.978322 
1 1:-0.996929 2:-0.978322 
1 1:-0.996929 2:-0.978322 
1 1:-0.996929 2:-0.978322 
1 1:-0.996929 2:-0.978322 
1 1:-0.996929 2:-0.978322 
1 1:-0.996929 2:-0.978322 
1 1:-0.996929 2:-0.978322 
1 1:-0.996929 2:-0.978322 
1 1:-0.996929 2:-0.978322 
1 1:-0.996929 2:-0.978322 
1 1:-0.996929 2:-0.978322 
1 1:-0.996929 2:-0.978322 
1 1:-0.996929 2:-0.978322 
1 1:-0.996929 2:-0.978322 
1 1:-0.996929 2:-0.978322 
1 1:-0.996929 2:-0.978322 
1 1:-0.996929 2:-0.978322 
1 1:-0.99641 2:-0.991792 
1 1:-0.99641 2:-0.991792 
1 1:-0.99641 2:-0.991792 
1 1:-0.99641 2:-0.991792 
1 1:-0.99641 2:-0.991792 
1 1:-0.99641 2:-0.991792 
1 1:-0.99641 2:-0.991792 
1 1:-0.99641 2:-0.991792 
1 1:-0.99641 2:-0.991792 
1 1:-0.99641 2:-0.991792 
1 1:-0.99641 2:-0.991792 
1 1:-0.99641 2:-0.991792 
1 1:-0.99641 2:-0.991792 
1 1:-0.99641 2:-0.991792 
1 1:-0.99641 2:-0.991792 
1 1:-0.99641 2:-0.991792 
1 1:-0.99641 2:-0.991792 
1 1:-0.99641 2:-0.991792 
1 1:-0.99641 2:-0.991792 
1 1:-0.99641 2:-0.991792 
1 1:-0.99641 2:-0.991792 
1 1:-0.99641 2:-0.991792 
1 1:-0.99641 2:-0.991792 
1 1:-0.99641 2:-0.991792 
1 1:-0.99641 2:-0.991792 
1 1:-0.99641 2:-0.991792 
1 1:-0.99641 2:-0.991792 
1 1:-0.99641 2:-0.991792 
1 1:-0.99641 2:-0.991792 
1 1:-0.99641 2:-0.991792 
1 1:-0.99641 2:-0.991792 
1 1:-0.99641 2:-0.991792 
1 1:-0.99641 2:-0.991792 
1 1:-0.99641 2:-0.991792 
1 1:-0.99641 2:-0.991792 
1 1:-0.99641 2:-0.991792 
1 1:-0.99641 2:-0.991792 
1 1:-0.99641 2:-0.991792 
1 1:-0.99641 2:-0.991792 
1 1:-0.99641 2:-0.991792 
1 1:-0.99641 2:-0.991792 
1 1:-0.99641 2:-0.991792 
1 1:-0.99641 2:-0.991792 
1 1:-0.99641 2:-0.991792 
1 1:-0.99641 2:-0.991792 
1 1:-0.99641 2:-0.991792 
1 1:-0.99641 2:-0.991792 
1 1:-0.99641 2:-0.991792 
1 1:-0.99641 2:-0.991792 
1 1:-0.99641 2:-0.991792 
1 1:-0.99641 2:-0.991792 
1 1:-0.99641 2:-0.991792 
1 1:-0.99641 2:-0.991792 
1 1:-0.99641 2:-0.991792 
1 1:-0.99641 2:-0.991792 
1 1:-0.99641 2:-0.991792 
1 1:-0.99641 2:-0.991792 
1 1:-0.99641 2:-0.991792 
1 1:-0.99641 2:-0.991792 
1 1:-0.99641 2:-0.991792 
1 1:-0.99641 2:-0.991792 
1 1:-0.99641 2:-0.991792 
1 1:-0.99641 2:-0.991792 
1 1:-0.99641 2:-0.991792 
1 1:-0.99641 2:-0.991792 
1 1:-0.99641 2:-0.991792 
1 1:-0.99641 2:-0.991792 
1 1:-0.99641 2:-0.991792 
1 1:-0.99641 2:-0.991792 
1 1:-0.99641 2:-0.991792 
1 1:-0.99641 2:-0.991792 
1 1:-0.99641 2:-0.991792 
1 1:-0.99641 2:-0.991792 
1 1:-0.99641 2:-0.991792 
1 1:-0.99641 2:-0.991792 
1 1:-0.99641 2:-0.991792 
1 1:-0.99641 2:-0.991792 
1 1:-0.99641 2:-0.991792 
1 1:-0.99641 2:-0.991792 
1 1:-0.99641 2:-0.991792 
1 1:-0.99641 2:-0.991792 
1 1:-0.99641 2:-0.991792 
1 1:-0.99641 2:-0.991792 
1 1:-0.99641 2:-0.991792 
1 1:-0.99641 2:-0.991792 
1 1:-0.99641 2:-0.991792 
1 1:-0.99641 2:-0.991792 
1 1:-0.99641 2:-0.991792 
1 1:-0.99641 2:-0.991792 
1 1:-1 2:-0.979266 
1 1:-1 2:-0.979266 
1 1:-1 2:-0.979266 
1 1:-1 2:-0.979266 
1 1:-1 2:-0.979266 
1 1:-1 2:-0.979266 
1 1:-1 2:-0.979266 
1 1:-1 2:-0.979266 
1 1:-1 2:-0.979266 
1 1:-1 2:-0.979266 
1 1:-1 2:-0.979266 
1 1:-1 2:-0.979266 
1 1:-1 2:-0.979266 
1 1:-1 2:-0.979266 
1 1:-1 2:-0.979266 
1 1:-1 2:-0.979266 
1 1:-1 2:-0.979266 
1 1:-1 2:-0.979266 
1 1:-1 2:-0.979266 
1 1:-1 2:-0.979266 
1 1:-1 2:-0.979266 
1 1:-1 2:-0.979266 
1 1:-1 2:-0.979266 
1 1:-1 2:-0.979266 
1 1:-1 2:-0.979266 
1 1:-1 2:-0.979266 
1 1:-1 2:-0.979266 
1 1:-1 2:-0.979266 
1 1:-1 2:-0.979266 
1 1:-1 2:-0.979266 
1 1:-1 2:-0.979266 
1 1:-1 2:-0.979266 
1 1:-1 2:-0.979266 
1 1:-1 2:-0.979266 
1 1:-1 2:-0.979266 
1 1:-1 2:-0.979266 
1 1:-1 2:-0.979266 
1 1:-1 2:-0.979266 
1 1:-1 2:-0.979266 
1 1:-1 2:-0.979266 
1 1:-1 2:-0.979266 
1 1:-1 2:-0.979266 
1 1:-1 2:-0.979266 
1 1:-1 2:-0.979266 
1 1:-1 2:-0.979266 
1 1:-1 2:-0.979266 
1 1:-1 2:-0.979266 
1 1:-1 2:-0.979266 
1 1:-1 2:-0.979266 
1 1:-1 2:-0.979266 
1 1:-1 2:-0.979266 
1 1:-1 2:-0.979266 
1 1:-1 2:-0.979266 
1 1:-1 2:-0.979266 
1 1:-1 2:-0.979266 
1 1:-1 2:-0.979266 
1 1:-1 2:-0.979266 
1 1:-1 2:-0.979266 
1 1:-1 2:-0.979266 
1 1:-1 2:-0.979266 
1 1:-1 2:-0.979266 
1 1:-1 2:-0.979266 
1 1:-1 2:-0.979266 
1 1:-1 2:-0.979266 
1 1:-1 2:-0.979266 
1 1:-1 2:-0.979266 
1 1:-1 2:-0.979266 
1 1:-1 2:-0.979266 
1 1:-1 2:-0.979266 
1 1:-1 2:-0.979266 
1 1:-1 2:-0.979266 
1 1:-1 2:-0.979266 
1 1:-1 2:-0.979266 
1 1:-1 2:-0.979266 
1 1:-1 2:-0.979266 
1 1:-1 2:-0.979266 
1 1:-1 2:-0.979266 
1 1:-1 2:-0.979266 
1 1:-1 2:-0.979266 
1 1:-1 2:-0.979266 
1 1:-1 2:-0.979266 
1 1:-1 2:-0.979266 
1 1:-1 2:-0.979266 
1 1:-1 2:-0.979266 
1 1:-1 2:-0.979266 
1 1:-1 2:-0.979266 
1 1:-1 2:-0.979266 
1 1:-1 2:-0.979266 
1 1:-1 2:-0.979266 
1 1:-1 2:-0.979266 
1 1:-1 2:-0.979266 
1 1:-1 2:-0.979266 
1 1:-1 2:-0.979266 
1 1:-1 2:-0.979266 
1 1:-0.998103 2:-0.981455 
1 1:-0.998103 2:-0.981455 
1 1:-0.998103 2:-0.981455 
1 1:-0.998103 2:-0.981455 
1 1:-0.998103 2:-0.981455 
1 1:-0.998103 2:-0.981455 
1 1:-0.998103 2:-0.981455 
1 1:-0.998103 2:-0.981455 
1 1:-0.998103 2:-0.981455 
1 1:-0.998103 2:-0.981455 
1 1:-0.998103 2:-0.981455 
1 1:-0.998103 2:-0.981455 
1 1:-0.998103 2:-0.981455 
1 1:-0.998103 2:-0.981455 
1 1:-0.998103 2:-0.981455 
1 1:-0.998103 2:-0.981455 
1 1:-0.998103 2:-0.981455 
1 1:-0.998103 2:-0.981455 
1 1:-0.998103 2:-0.981455 
1 1:-0.998103 2:-0.981455 
1 1:-0.998103 2:-0.981455 
1 1:-0.998103 2:-0.981455 
1 1:-0.998103 2:-0.981455 
1 1:-0.998103 2:-0.981455 
1 1:-0.998103 2:-0.981455 
1 1:-0.998103 2:-0.981455 
1 1:-0.998103 2:-0.981455 
1 1:-0.998103 2:-0.981455 
1 1:-0.998103 2:-0.981455 
1 1:-0.998103 2:-0.981455 
1 1:-0.998103 2:-0.981455 
1 1:-0.998103 2:-0.981455 
1 1:-0.998103 2:-0.981455 
1 1:-0.998103 2:-0.981455 
1 1:-0.998103 2:-0.981455 
1 1:-0.998103 2:-0.981455 
1 1:-0.998103 2:-0.981455 
1 1:-0.998103 2:-0.981455 
1 1:-0.998103 2:-0.981455 
1 1:-0.998103 2:-0.981455 
1 1:-0.998103 2:-0.981455 
1 1:-0.998103 2:-0.981455 
1 1:-0.998103 2:-0.981455 
1 1:-0.998103 2:-0.981455 
1 1:-0.998103 2:-0.981455 
1 1:-0.998103 2:-0.981455 
1 1:-0.998103 2:-0.981455 
1 1:-0.998103 2:-0.981455 
1 1:-0.998103 2:-0.981455 
1 1:-0.998103 2:-0.981455 
1 1:-0.998103 2:-0.981455 
1 1:-0.998103 2:-0.981455 
1 1:-0.998103 2:-0.981455 
1 1:-0.998103 2:-0.981455 
1 1:-0.998103 2:-0.981455 
1 1:-0.998103 2:-0.981455 
1 1:-0.998103 2:-0.981455 
1 1:-0.998103 2:-0.981455 
1 1:-0.998103 2:-0.981455 
1 1:-0.998103 2:-0.981455 
1 1:-0.998103 2:-0.981455 
1 1:-0.998103 2:-0.981455 
1 1:-0.998103 2:-0.981455 
1 1:-0.998103 2:-0.981455 
1 1:-0.998103 2:-0.981455 
1 1:-0.998103 2:-0.981455 
1 1:-0.998103 2:-0.981455 
1 1:-0.998103 2:-0.981455 
1 1:-0.998103 2:-0.981455 
1 1:-0.998103 2:-0.981455 
1 1:-0.998103 2:-0.981455 
1 1:-0.998103 2:-0.981455 
1 1:-0.998103 2:-0.981455 
1 1:-0.998103 2:-0.981455 
1 1:-0.998103 2:-0.981455 
1 1:-0.998103 2:-0.981455 
1 1:-0.998103 2:-0.981455 
1 1:-0.998103 2:-0.981455 
1 1:-0.998103 2:-0.981455 
1 1:-0.998103 2:-0.981455 
1 1:-0.998103 2:-0.981455 
1 1:-0.998103 2:-0.981455 
1 1:-0.998103 2:-0.981455 
1 1:-0.998103 2:-0.981455 
1 1:-0.998103 2:-0.981455 
1 1:-0.998103 2:-0.981455 
1 1:-0.998103 2:-0.981455 
1 1:-0.998103 2:-0.981455 
1 1:-0.998103 2:-0.981455 
1 1:-0.998103 2:-0.981455 
1 1:-0.998103 2:-0.981455 
1 1:-0.998103 2:-0.981455 
1 1:-0.998103 2:-0.981455 
1 1:-0.998103 2:-0.981455 
1 1:-0.994085 2:-0.968352 
1 1:-0.994085 2:-0.968352 
1 1:-0.994085 2:-0.968352 
1 1:-0.994085 2:-0.968352 
1 1:-0.994085 2:-0.968352 
1 1:-0.994085 2:-0.968352 
1 1:-0.994085 2:-0.968352 
1 1:-0.994085 2:-0.968352 
1 1:-0.994085 2:-0.968352 
1 1:-0.994085 2:-0.968352 
1 1:-0.994085 2:-0.968352 
1 1:-0.994085 2:-0.968352 
1 1:-0.994085 2:-0.968352 
1 1:-0.994085 2:-0.968352 
1 1:-0.994085 2:-0.968352 
1 1:-0.994085 2:-0.968352 
1 1:-0.994085 2:-0.968352 
1 1:-0.994085 2:-0.968352 
1 1:-0.994085 2:-0.968352 
1 1:-0.994085 2:-0.968352 
1 1:-0.994085 2:-0.968352 
1 1:-0.994085 2:-0.968352 
1 1:-0.994085 2:-0.968352 
1 1:-0.994085 2:-0.968352 
1 1:-0.994085 2:-0.968352 
1 1:-0.994085 2:-0.968352 
1 1:-0.994085 2:-0.968352 
1 1:-0.994085 2:-0.968352 
1 1:-0.994085 2:-0.968352 
1 1:-0.994085 2:-0.968352 
1 1:-0.994085 2:-0.968352 
1 1:-0.994085 2:-0.968352 
1 1:-0.994085 2:-0.968352 
1 1:-0.994085 2:-0.968352 
1 1:-0.994085 2:-0.968352 
1 1:-0.994085 2:-0.968352 
1 1:-0.994085 2:-0.968352 
1 1:-0.994085 2:-0.968352 
1 1:-0.994085 2:-0.968352 
1 1:-0.994085 2:-0.968352 
1 1:-0.994085 2:-0.968352 
1 1:-0.994085 2:-0.968352 
1 1:-0.994085 2:-0.968352 
1 1:-0.994085 2:-0.968352 
1 1:-0.994085 2:-0.968352 
1 1:-0.994085 2:-0.968352 
1 1:-0.994085 2:-0.968352 
1 1:-0.994085 2:-0.968352 
1 1:-0.994085 2:-0.968352 
1 1:-0.994085 2:-0.968352 
1 1:-0.994085 2:-0.968352 
1 1:-0.994085 2:-0.968352 
1 1:-0.994085 2:-0.968352 
1 1:-0.994085 2:-0.968352 
1 1:-0.994085 2:-0.968352 
1 1:-0.994085 2:-0.968352 
1 1:-0.994085 2:-0.968352 
1 1:-0.994085 2:-0.968352 
1 1:-0.994085 2:-0.968352 
1 1:-0.994085 2:-0.968352 
1 1:-0.994085 2:-0.968352 
1 1:-0.994085 2:-0.968352 
1 1:-0.994085 2:-0.968352 
1 1:-0.994085 2:-0.968352 
1 1:-0.994085 2:-0.968352 
1 1:-0.994085 2:-0.968352 
1 1:-0.994085 2:-0.968352 
1 1:-0.994085 2:-0.968352 
1 1:-0.994085 2:-0.968352 
1 1:-0.994085 2:-0.968352 
1 1:-0.994085 2:-0.968352 
1 1:-0.994085 2:-0.968352 
1 1:-0.994085 2:-0.968352 
1 1:-0.994085 2:-0.968352 
1 1:-0.994085 2:-0.968352 
1 1:-0.994085 2:-0.968352 
1 1:-0.994085 2:-0.968352 
1 1:-0.994085 2:-0.968352 
1 1:-0.994085 2:-0.968352 
1 1:-0.994085 2:-0.968352 
1 1:-0.994085 2:-0.968352 
1 1:-0.994085 2:-0.968352 
1 1:-0.994085 2:-0.968352 
1 1:-0.994085 2:-0.968352 
1 1:-0.994085 2:-0.968352 
1 1:-0.994085 2:-0.968352 
1 1:-0.994085 2:-0.968352 
1 1:-0.994085 2:-0.968352 
1 1:-0.994085 2:-0.968352 
1 1:-0.994085 2:-0.968352 
1 1:-0.994085 2:-0.968352 
1 1:-0.994085 2:-0.968352 
1 1:-0.994085 2:-0.968352 
1 1:-0.994085 2:-0.968352 
1 1:-0.994085 2:-0.968352 
1 1:-0.993339 2:-0.968671 
1 1:-0.993339 2:-0.968671 
1 1:-0.993339 2:-0.968671 
1 1:-0.993339 2:-0.968671 
1 1:-0.993339 2:-0.968671 
1 1:-0.993339 2:-0.968671 
1 1:-0.993339 2:-0.968671 
1 1:-0.993339 2:-0.968671 
1 1:-0.993339 2:-0.968671 
1 1:-0.993339 2:-0.968671 
1 1:-0.993339 2:-0.968671 
1 1:-0.993339 2:-0.968671 
1 1:-0.993339 2:-0.968671 
1 1:-0.993339 2:-0.968671 
1 1:-0.993339 2:-0.968671 
1 1:-0.993339 2:-0.968671 
1 1:-0.993339 2:-0.968671 
1 1:-0.993339 2:-0.968671 
1 1:-0.993339 2:-0.968671 
1 1:-0.993339 2:-0.968671 
1 1:-0.993339 2:-0.968671 
1 1:-0.993339 2:-0.968671 
1 1:-0.993339 2:-0.968671 
1 1:-0.993339 2:-0.968671 
1 1:-0.993339 2:-0.968671 
1 1:-0.993339 2:-0.968671 
1 1:-0.993339 2:-0.968671 
1 1:-0.993339 2:-0.968671 
1 1:-0.993339 2:-0.968671 
1 1:-0.993339 2:-0.968671 
1 1:-0.993339 2:-0.968671 
1 1:-0.993339 2:-0.968671 
1 1:-0.993339 2:-0.968671 
1 1:-0.993339 2:-0.968671 
1 1:-0.993339 2:-0.968671 
1 1:-0.993339 2:-0.968671 
1 1:-0.993339 2:-0.968671 
1 1:-0.993339 2:-0.968671 
1 1:-0.993339 2:-0.968671 
1 1:-0.993339 2:-0.968671 
1 1:-0.993339 2:-0.968671 
1 1:-0.993339 2:-0.968671 
1 1:-0.993339 2:-0.968671 
1 1:-0.993339 2:-0.968671 
1 1:-0.993339 2:-0.968671 
1 1:-0.993339 2:-0.968671 
1 1:-0.993339 2:-0.968671 
1 1:-0.993339 2:-0.968671 
1 1:-0.993339 2:-0.968671 
1 1:-0.993339 2:-0.968671 
1 1:-0.993339 2:-0.968671 
1 1:-0.993339 2:-0.968671 
1 1:-0.993339 2:-0.968671 
1 1:-0.993339 2:-0.968671 
1 1:-0.993339 2:-0.968671 
1 1:-0.993339 2:-0.968671 
1 1:-0.993339 2:-0.968671 
1 1:-0.993339 2:-0.968671 
1 1:-0.993339 2:-0.968671 
1 1:-0.993339 2:-0.968671 
1 1:-0.993339 2:-0.968671 
1 1:-0.993339 2:-0.968671 
1 1:-0.993339 2:-0.968671 
1 1:-0.993339 2:-0.968671 
1 1:-0.993339 2:-0.968671 
1 1:-0.993339 2:-0.968671 
1 1:-0.993339 2:-0.968671 
1 1:-0.993339 2:-0.968671 
1 1:-0.993339 2:-0.968671 
1 1:-0.993339 2:-0.968671 
1 1:-0.993339 2:-0.968671 
1 1:-0.993339 2:-0.968671 
1 1:-0.993339 2:-0.968671 
1 1:-0.993339 2:-0.968671 
1 1:-0.993339 2:-0.968671 
1 1:-0.993339 2:-0.968671 
1 1:-0.993339 2:-0.968671 
1 1:-0.993339 2:-0.968671 
1 1:-0.993339 2:-0.968671 
1 1:-0.993339 2:-0.968671 
1 1:-0.993339 2:-0.968671 
1 1:-0.993339 2:-0.968671 
1 1:-0.993339 2:-0.968671 
1 1:-0.993339 2:-0.968671 
1 1:-0.993339 2:-0.968671 
1 1:-0.993339 2:-0.968671 
1 1:-0.993339 2:-0.968671 
1 1:-0.993339 2:-0.968671 
1 1:-0.993339 2:-0.968671 
1 1:-0.993339 2:-0.968671 
1 1:-0.993339 2:-0.968671 
1 1:-0.993339 2:-0.968671 
1 1:-0.993339 2:-0.968671 
1 1:-0.992071 2:-0.9679 
1 1:-0.992071 2:-0.9679 
1 1:-0.992071 2:-0.9679 
1 1:-0.992071 2:-0.9679 
1 1:-0.992071 2:-0.9679 
1 1:-0.992071 2:-0.9679 
1 1:-0.992071 2:-0.9679 
1 1:-0.992071 2:-0.9679 
1 1:-0.992071 2:-0.9679 
1 1:-0.992071 2:-0.9679 
1 1:-0.992071 2:-0.9679 
1 1:-0.992071 2:-0.9679 
1 1:-0.992071 2:-0.9679 
1 1:-0.992071 2:-0.9679 
1 1:-0.992071 2:-0.9679 
1 1:-0.992071 2:-0.9679 
1 1:-0.992071 2:-0.9679 
1 1:-0.992071 2:-0.9679 
1 1:-0.992071 2:-0.9679 
1 1:-0.992071 2:-0.9679 
1 1:-0.992071 2:-0.9679 
1 1:-0.992071 2:-0.9679 
1 1:-0.992071 2:-0.9679 
1 1:-0.992071 2:-0.9679 
1 1:-0.992071 2:-0.9679 
1 1:-0.992071 2:-0.9679 
1 1:-0.992071 2:-0.9679 
1 1:-0.992071 2:-0.9679 
1 1:-0.992071 2:-0.9679 
1 1:-0.992071 2:-0.9679 
1 1:-0.992071 2:-0.9679 
1 1:-0.992071 2:-0.9679 
1 1:-0.992071 2:-0.9679 
1 1:-0.992071 2:-0.9679 
1 1:-0.992071 2:-0.9679 
1 1:-0.992071 2:-0.9679 
1 1:-0.992071 2:-0.9679 
1 1:-0.992071 2:-0.9679 
1 1:-0.992071 2:-0.9679 
1 1:-0.992071 2:-0.9679 
1 1:-0.992071 2:-0.9679 
1 1:-0.992071 2:-0.9679 
1 1:-0.992071 2:-0.9679 
1 1:-0.992071 2:-0.9679 
1 1:-0.992071 2:-0.9679 
1 1:-0.992071 2:-0.9679 
1 1:-0.992071 2:-0.9679 
1 1:-0.992071 2:-0.9679 
1 1:-0.992071 2:-0.9679 
1 1:-0.992071 2:-0.9679 
1 1:-0.992071 2:-0.9679 
1 1:-0.992071 2:-0.9679 
1 1:-0.992071 2:-0.9679 
1 1:-0.992071 2:-0.9679 
1 1:-0.992071 2:-0.9679 
1 1:-0.992071 2:-0.9679 
1 1:-0.992071 2:-0.9679 
1 1:-0.992071 2:-0.9679 
1 1:-0.992071 2:-0.9679 
1 1:-0.992071 2:-0.9679 
1 1:-0.992071 2:-0.9679 
1 1:-0.992071 2:-0.9679 
1 1:-0.992071 2:-0.9679 
1 1:-0.992071 2:-0.9679 
1 1:-0.992071 2:-0.9679 
1 1:-0.992071 2:-0.9679 
1 1:-0.992071 2:-0.9679 
1 1:-0.992071 2:-0.9679 
1 1:-0.992071 2:-0.9679 
1 1:-0.992071 2:-0.9679 
1 1:-0.992071 2:-0.9679 
1 1:-0.992071 2:-0.9679 
1 1:-0.992071 2:-0.9679 
1 1:-0.992071 2:-0.9679 
1 1:-0.992071 2:-0.9679 
1 1:-0.992071 2:-0.9679 
1 1:-0.992071 2:-0.9679 
1 1:-0.992071 2:-0.9679 
1 1:-0.992071 2:-0.9679 
1 1:-0.992071 2:-0.9679 
1 1:-0.992071 2:-0.9679 
1 1:-0.992071 2:-0.9679 
1 1:-0.992071 2:-0.9679 
1 1:-0.992071 2:-0.9679 
1 1:-0.992071 2:-0.9679 
1 1:-0.992071 2:-0.9679 
1 1:-0.992071 2:-0.9679 
1 1:-0.992071 2:-0.9679 
1 1:-0.992071 2:-0.9679 
1 1:-0.992071 2:-0.9679 
1 1:-0.992071 2:-0.9679 
1 1:-0.992071 2:-0.9679 
1 1:-0.988805 2:-0.97609 
1 1:-0.988805 2:-0.97609 
1 1:-0.988805 2:-0.97609 
1 1:-0.988805 2:-0.97609 
1 1:-0.988805 2:-0.97609 
1 1:-0.988805 2:-0.97609 
1 1:-0.988805 2:-0.97609 
1 1:-0.988805 2:-0.97609 
1 1:-0.988805 2:-0.97609 
1 1:-0.988805 2:-0.97609 
1 1:-0.988805 2:-0.97609 
1 1:-0.988805 2:-0.97609 
1 1:-0.988805 2:-0.97609 
1 1:-0.988805 2:-0.97609 
1 1:-0.988805 2:-0.97609 
1 1:-0.988805 2:-0.97609 
1 1:-0.988805 2:-0.97609 
1 1:-0.988805 2:-0.97609 
1 1:-0.988805 2:-0.97609 
1 1:-0.988805 2:-0.97609 
1 1:-0.988805 2:-0.97609 
1 1:-0.988805 2:-0.97609 
1 1:-0.988805 2:-0.97609 
1 1:-0.988805 2:-0.97609 
1 1:-0.988805 2:-0.97609 
1 1:-0.988805 2:-0.97609 
1 1:-0.988805 2:-0.97609 
1 1:-0.988805 2:-0.97609 
1 1:-0.988805 2:-0.97609 
1 1:-0.988805 2:-0.97609 
1 1:-0.988805 2:-0.97609 
1 1:-0.988805 2:-0.97609 
1 1:-0.988805 2:-0.97609 
1 1:-0.988805 2:-0.97609 
1 1:-0.988805 2:-0.97609 
1 1:-0.988805 2:-0.97609 
1 1:-0.988805 2:-0.97609 
1 1:-0.988805 2:-0.97609 
1 1:-0.988805 2:-0.97609 
1 1:-0.988805 2:-0.97609 
1 1:-0.988805 2:-0.97609 
1 1:-0.988805 2:-0.97609 
1 1:-0.988805 2:-0.97609 
1 1:-0.988805 2:-0.97609 
1 1:-0.988805 2:-0.97609 
1 1:-0.988805 2:-0.97609 
1 1:-0.988805 2:-0.97609 
1 1:-0.988805 2:-0.97609 
1 1:-0.988805 2:-0.97609 
1 1:-0.988805 2:-0.97609 
1 1:-0.988805 2:-0.97609 
1 1:-0.988805 2:-0.97609 
1 1:-0.988805 2:-0.97609 
1 1:-0.988805 2:-0.97609 
1 1:-0.988805 2:-0.97609 
1 1:-0.988805 2:-0.97609 
1 1:-0.988805 2:-0.97609 
1 1:-0.988805 2:-0.97609 
1 1:-0.988805 2:-0.97609 
1 1:-0.988805 2:-0.97609 
1 1:-0.988805 2:-0.97609 
1 1:-0.988805 2:-0.97609 
1 1:-0.988805 2:-0.97609 
1 1:-0.988805 2:-0.97609 
1 1:-0.988805 2:-0.97609 
1 1:-0.988805 2:-0.97609 
1 1:-0.988805 2:-0.97609 
1 1:-0.988805 2:-0.97609 
1 1:-0.988805 2:-0.97609 
1 1:-0.988805 2:-0.97609 
1 1:-0.988805 2:-0.97609 
