svm_type one_class
kernel_type rbf
gamma 0.5
nr_class 2
total_sv 15089
rho 9838.76
SV
1 1:-0.944654 2:-0.973673 
1 1:-0.944654 2:-0.973673 
1 1:-0.944654 2:-0.973673 
1 1:-0.944654 2:-0.973673 
1 1:-0.944654 2:-0.973673 
1 1:-0.944654 2:-0.973673 
1 1:-0.944654 2:-0.973673 
1 1:-0.944654 2:-0.973673 
1 1:-0.944654 2:-0.973673 
1 1:-0.944654 2:-0.973673 
1 1:-0.944654 2:-0.973673 
1 1:-0.944654 2:-0.973673 
1 1:-0.944654 2:-0.973673 
1 1:-0.944654 2:-0.973673 
1 1:-0.944654 2:-0.973673 
1 1:-0.944654 2:-0.973673 
1 1:-0.944654 2:-0.973673 
1 1:-0.944654 2:-0.973673 
1 1:-0.944654 2:-0.973673 
1 1:-0.944654 2:-0.973673 
1 1:-0.944654 2:-0.973673 
1 1:-0.944654 2:-0.973673 
1 1:-0.944654 2:-0.973673 
1 1:-0.944654 2:-0.973673 
1 1:-0.944654 2:-0.973673 
1 1:-0.944654 2:-0.973673 
1 1:-0.944654 2:-0.973673 
1 1:-0.944654 2:-0.973673 
1 1:-0.944654 2:-0.973673 
1 1:-0.944654 2:-0.973673 
1 1:-0.944654 2:-0.973673 
1 1:-0.944654 2:-0.973673 
1 1:-0.944654 2:-0.973673 
1 1:-0.944654 2:-0.973673 
1 1:-0.944654 2:-0.973673 
1 1:-0.944654 2:-0.973673 
1 1:-0.944654 2:-0.973673 
1 1:-0.944654 2:-0.973673 
1 1:-0.944654 2:-0.973673 
1 1:-0.944654 2:-0.973673 
1 1:-0.944654 2:-0.973673 
1 1:-0.944654 2:-0.973673 
1 1:-0.944654 2:-0.973673 
1 1:-0.944654 2:-0.973673 
1 1:-0.944654 2:-0.973673 
1 1:-0.944654 2:-0.973673 
1 1:-0.944654 2:-0.973673 
1 1:-0.944654 2:-0.973673 
1 1:-0.944654 2:-0.973673 
1 1:-0.944654 2:-0.973673 
1 1:-0.944654 2:-0.973673 
1 1:-0.944654 2:-0.973673 
1 1:-0.944654 2:-0.973673 
1 1:-0.944654 2:-0.973673 
1 1:-0.944654 2:-0.973673 
1 1:-0.944654 2:-0.973673 
1 1:-0.944654 2:-0.973673 
1 1:-0.944654 2:-0.973673 
1 1:-0.944654 2:-0.973673 
1 1:-0.944654 2:-0.973673 
1 1:-0.944654 2:-0.973673 
1 1:-0.944654 2:-0.973673 
1 1:-0.944654 2:-0.973673 
1 1:-0.944654 2:-0.973673 
1 1:-0.944654 2:-0.973673 
1 1:-0.944654 2:-0.973673 
1 1:-0.944654 2:-0.973673 
1 1:-0.944654 2:-0.973673 
1 1:-0.944654 2:-0.973673 
1 1:-0.944654 2:-0.973673 
1 1:-0.944654 2:-0.973673 
1 1:-0.944654 2:-0.973673 
1 1:-0.944654 2:-0.973673 
1 1:-0.944654 2:-0.973673 
1 1:-0.944654 2:-0.973673 
1 1:-0.944654 2:-0.973673 
1 1:-0.944654 2:-0.973673 
1 1:-0.944654 2:-0.973673 
1 1:-0.944654 2:-0.973673 
1 1:-0.944654 2:-0.973673 
1 1:-0.944654 2:-0.973673 
1 1:-0.944654 2:-0.973673 
1 1:-0.944654 2:-0.973673 
1 1:-0.944654 2:-0.973673 
1 1:-0.944654 2:-0.973673 
1 1:-0.944654 2:-0.973673 
1 1:-0.944654 2:-0.973673 
1 1:-0.944654 2:-0.973673 
1 1:-0.944654 2:-0.973673 
1 1:-0.944654 2:-0.973673 
1 1:-0.944654 2:-0.973673 
1 1:-0.944654 2:-0.973673 
1 1:-0.944654 2:-0.973673 
1 1:-0.944654 2:-0.973673 
1 1:-0.944654 2:-0.973673 
1 1:-0.944654 2:-0.973673 
1 1:-0.0827657 2:-0.0873604 
1 1:-0.0827657 2:-0.0873604 
1 1:-0.0827657 2:-0.0873604 
1 1:-0.0827657 2:-0.0873604 
1 1:-0.0827657 2:-0.0873604 
1 1:-0.0827657 2:-0.0873604 
1 1:-0.0827657 2:-0.0873604 
1 1:-0.0827657 2:-0.0873604 
1 1:-0.0827657 2:-0.0873604 
1 1:-0.0827657 2:-0.0873604 
1 1:-0.0827657 2:-0.0873604 
1 1:-0.0827657 2:-0.0873604 
1 1:-0.0827657 2:-0.0873604 
1 1:-0.0827657 2:-0.0873604 
1 1:-0.0827657 2:-0.0873604 
1 1:-0.0827657 2:-0.0873604 
1 1:-0.0827657 2:-0.0873604 
1 1:-0.0827657 2:-0.0873604 
1 1:-0.0827657 2:-0.0873604 
1 1:-0.0827657 2:-0.0873604 
1 1:-0.0827657 2:-0.0873604 
1 1:-0.0827657 2:-0.0873604 
1 1:-0.0827657 2:-0.0873604 
1 1:-0.0827657 2:-0.0873604 
1 1:-0.0827657 2:-0.0873604 
1 1:-0.0827657 2:-0.0873604 
1 1:-0.0827657 2:-0.0873604 
1 1:-0.0827657 2:-0.0873604 
1 1:-0.0827657 2:-0.0873604 
1 1:-0.0827657 2:-0.0873604 
1 1:-0.0827657 2:-0.0873604 
1 1:-0.0827657 2:-0.0873604 
1 1:-0.0827657 2:-0.0873604 
1 1:-0.0827657 2:-0.0873604 
1 1:-0.0827657 2:-0.0873604 
1 1:-0.0827657 2:-0.0873604 
1 1:-0.0827657 2:-0.0873604 
1 1:-0.0827657 2:-0.0873604 
1 1:-0.0827657 2:-0.0873604 
1 1:-0.0827657 2:-0.0873604 
1 1:-0.0827657 2:-0.0873604 
1 1:-0.0827657 2:-0.0873604 
1 1:-0.0827657 2:-0.0873604 
1 1:-0.0827657 2:-0.0873604 
1 1:-0.0827657 2:-0.0873604 
0.04970718230517997 1:-0.0827657 2:-0.0873604 
1 1:-0.677129 2:0.244431 
1 1:-0.677129 2:0.244431 
1 1:-0.677129 2:0.244431 
1 1:-0.677129 2:0.244431 
1 1:-0.677129 2:0.244431 
1 1:-0.677129 2:0.244431 
1 1:-0.677129 2:0.244431 
1 1:-0.677129 2:0.244431 
1 1:-0.677129 2:0.244431 
1 1:-0.677129 2:0.244431 
1 1:-0.677129 2:0.244431 
1 1:-0.677129 2:0.244431 
1 1:-0.677129 2:0.244431 
1 1:-0.677129 2:0.244431 
1 1:-0.677129 2:0.244431 
1 1:-0.677129 2:0.244431 
1 1:-0.677129 2:0.244431 
1 1:-0.677129 2:0.244431 
1 1:-0.677129 2:0.244431 
1 1:-0.677129 2:0.244431 
1 1:-0.677129 2:0.244431 
1 1:-0.677129 2:0.244431 
1 1:-0.677129 2:0.244431 
1 1:-0.677129 2:0.244431 
1 1:-0.677129 2:0.244431 
1 1:-0.677129 2:0.244431 
1 1:-0.677129 2:0.244431 
1 1:-0.677129 2:0.244431 
1 1:-0.677129 2:0.244431 
1 1:-0.677129 2:0.244431 
1 1:-0.677129 2:0.244431 
1 1:-0.677129 2:0.244431 
1 1:-0.677129 2:0.244431 
1 1:-0.677129 2:0.244431 
1 1:-0.677129 2:0.244431 
1 1:-0.677129 2:0.244431 
1 1:-0.677129 2:0.244431 
1 1:-0.677129 2:0.244431 
1 1:-0.677129 2:0.244431 
1 1:-0.677129 2:0.244431 
1 1:-0.677129 2:0.244431 
1 1:-0.677129 2:0.244431 
1 1:-0.677129 2:0.244431 
1 1:-0.677129 2:0.244431 
1 1:-0.677129 2:0.244431 
1 1:-0.677129 2:0.244431 
1 1:-0.677129 2:0.244431 
1 1:-0.677129 2:0.244431 
1 1:-0.677129 2:0.244431 
1 1:-0.677129 2:0.244431 
1 1:-0.677129 2:0.244431 
1 1:-0.677129 2:0.244431 
1 1:-0.677129 2:0.244431 
1 1:-0.677129 2:0.244431 
1 1:-0.677129 2:0.244431 
1 1:-0.677129 2:0.244431 
1 1:-0.677129 2:0.244431 
1 1:-0.677129 2:0.244431 
1 1:-0.677129 2:0.244431 
1 1:-0.677129 2:0.244431 
1 1:-0.677129 2:0.244431 
1 1:-0.677129 2:0.244431 
1 1:-0.677129 2:0.244431 
1 1:-0.677129 2:0.244431 
1 1:-0.677129 2:0.244431 
1 1:-0.677129 2:0.244431 
1 1:-0.677129 2:0.244431 
1 1:-0.677129 2:0.244431 
1 1:-0.677129 2:0.244431 
1 1:-0.677129 2:0.244431 
1 1:-0.677129 2:0.244431 
1 1:-0.677129 2:0.244431 
1 1:-0.677129 2:0.244431 
1 1:-0.677129 2:0.244431 
1 1:-0.677129 2:0.244431 
1 1:-0.677129 2:0.244431 
1 1:-0.677129 2:0.244431 
1 1:-0.677129 2:0.244431 
1 1:-0.677129 2:0.244431 
1 1:-0.677129 2:0.244431 
1 1:-0.677129 2:0.244431 
1 1:-0.677129 2:0.244431 
1 1:-0.677129 2:0.244431 
1 1:-0.677129 2:0.244431 
1 1:-0.677129 2:0.244431 
1 1:-0.677129 2:0.244431 
1 1:-0.677129 2:0.244431 
1 1:-0.677129 2:0.244431 
1 1:-0.677129 2:0.244431 
1 1:-0.677129 2:0.244431 
1 1:-0.677129 2:0.244431 
1 1:-0.677129 2:0.244431 
1 1:-0.677129 2:0.244431 
1 1:-0.677129 2:0.244431 
1 1:-0.677129 2:0.244431 
1 1:-0.677129 2:0.244431 
1 1:-0.64689 2:0.739355 
1 1:-0.64689 2:0.739355 
1 1:-0.64689 2:0.739355 
1 1:-0.64689 2:0.739355 
1 1:-0.64689 2:0.739355 
1 1:-0.64689 2:0.739355 
1 1:-0.64689 2:0.739355 
1 1:-0.64689 2:0.739355 
1 1:-0.64689 2:0.739355 
1 1:-0.64689 2:0.739355 
1 1:-0.64689 2:0.739355 
1 1:-0.64689 2:0.739355 
1 1:-0.64689 2:0.739355 
1 1:-0.64689 2:0.739355 
1 1:-0.64689 2:0.739355 
1 1:-0.64689 2:0.739355 
1 1:-0.64689 2:0.739355 
1 1:-0.64689 2:0.739355 
1 1:-0.64689 2:0.739355 
1 1:-0.64689 2:0.739355 
1 1:-0.64689 2:0.739355 
1 1:-0.64689 2:0.739355 
1 1:-0.64689 2:0.739355 
1 1:-0.64689 2:0.739355 
1 1:-0.64689 2:0.739355 
1 1:-0.64689 2:0.739355 
1 1:-0.64689 2:0.739355 
1 1:-0.64689 2:0.739355 
1 1:-0.64689 2:0.739355 
1 1:-0.64689 2:0.739355 
1 1:-0.64689 2:0.739355 
1 1:-0.64689 2:0.739355 
1 1:-0.64689 2:0.739355 
1 1:-0.64689 2:0.739355 
1 1:-0.64689 2:0.739355 
1 1:-0.64689 2:0.739355 
1 1:-0.64689 2:0.739355 
1 1:-0.64689 2:0.739355 
1 1:-0.64689 2:0.739355 
1 1:-0.64689 2:0.739355 
1 1:-0.64689 2:0.739355 
1 1:-0.64689 2:0.739355 
1 1:-0.64689 2:0.739355 
1 1:-0.64689 2:0.739355 
1 1:-0.64689 2:0.739355 
1 1:-0.64689 2:0.739355 
1 1:-0.64689 2:0.739355 
1 1:-0.64689 2:0.739355 
1 1:-0.64689 2:0.739355 
1 1:-0.64689 2:0.739355 
1 1:-0.64689 2:0.739355 
1 1:-0.64689 2:0.739355 
1 1:-0.64689 2:0.739355 
1 1:-0.64689 2:0.739355 
1 1:-0.64689 2:0.739355 
1 1:-0.64689 2:0.739355 
1 1:-0.64689 2:0.739355 
1 1:-0.64689 2:0.739355 
1 1:-0.64689 2:0.739355 
1 1:-0.64689 2:0.739355 
1 1:-0.64689 2:0.739355 
1 1:-0.64689 2:0.739355 
1 1:-0.64689 2:0.739355 
1 1:-0.64689 2:0.739355 
1 1:-0.64689 2:0.739355 
1 1:-0.64689 2:0.739355 
1 1:-0.64689 2:0.739355 
1 1:-0.64689 2:0.739355 
1 1:-0.64689 2:0.739355 
1 1:-0.64689 2:0.739355 
1 1:-0.64689 2:0.739355 
1 1:-0.64689 2:0.739355 
1 1:-0.64689 2:0.739355 
1 1:-0.64689 2:0.739355 
1 1:-0.64689 2:0.739355 
1 1:-0.64689 2:0.739355 
1 1:-0.64689 2:0.739355 
1 1:-0.64689 2:0.739355 
1 1:-0.64689 2:0.739355 
1 1:-0.64689 2:0.739355 
1 1:-0.64689 2:0.739355 
1 1:-0.64689 2:0.739355 
1 1:-0.64689 2:0.739355 
1 1:-0.64689 2:0.739355 
1 1:-0.64689 2:0.739355 
1 1:-0.64689 2:0.739355 
1 1:-0.64689 2:0.739355 
1 1:-0.64689 2:0.739355 
1 1:-0.64689 2:0.739355 
1 1:-0.64689 2:0.739355 
1 1:-0.64689 2:0.739355 
1 1:-0.64689 2:0.739355 
1 1:-0.64689 2:0.739355 
1 1:-0.64689 2:0.739355 
1 1:-0.64689 2:0.739355 
1 1:-0.64689 2:0.739355 
1 1:-0.64689 2:0.739355 
1 1:0.488455 2:-0.013659 
1 1:0.488455 2:-0.013659 
1 1:0.488455 2:-0.013659 
1 1:0.488455 2:-0.013659 
1 1:0.488455 2:-0.013659 
1 1:0.488455 2:-0.013659 
1 1:0.488455 2:-0.013659 
1 1:0.488455 2:-0.013659 
1 1:0.488455 2:-0.013659 
1 1:0.488455 2:-0.013659 
1 1:0.488455 2:-0.013659 
1 1:0.488455 2:-0.013659 
1 1:0.488455 2:-0.013659 
1 1:0.488455 2:-0.013659 
1 1:0.488455 2:-0.013659 
1 1:0.488455 2:-0.013659 
1 1:0.488455 2:-0.013659 
1 1:0.488455 2:-0.013659 
1 1:0.488455 2:-0.013659 
1 1:0.488455 2:-0.013659 
1 1:0.488455 2:-0.013659 
1 1:0.488455 2:-0.013659 
1 1:0.488455 2:-0.013659 
1 1:0.488455 2:-0.013659 
1 1:0.488455 2:-0.013659 
1 1:0.488455 2:-0.013659 
1 1:0.488455 2:-0.013659 
1 1:0.488455 2:-0.013659 
1 1:0.488455 2:-0.013659 
1 1:0.488455 2:-0.013659 
1 1:0.488455 2:-0.013659 
1 1:0.488455 2:-0.013659 
1 1:0.488455 2:-0.013659 
1 1:0.488455 2:-0.013659 
1 1:0.488455 2:-0.013659 
1 1:0.488455 2:-0.013659 
1 1:0.488455 2:-0.013659 
1 1:0.488455 2:-0.013659 
1 1:0.488455 2:-0.013659 
1 1:0.488455 2:-0.013659 
1 1:0.488455 2:-0.013659 
1 1:0.488455 2:-0.013659 
1 1:0.488455 2:-0.013659 
1 1:0.488455 2:-0.013659 
1 1:0.488455 2:-0.013659 
1 1:0.488455 2:-0.013659 
1 1:0.488455 2:-0.013659 
1 1:0.488455 2:-0.013659 
1 1:0.488455 2:-0.013659 
1 1:0.488455 2:-0.013659 
1 1:0.488455 2:-0.013659 
1 1:0.488455 2:-0.013659 
1 1:0.488455 2:-0.013659 
1 1:0.488455 2:-0.013659 
1 1:0.488455 2:-0.013659 
1 1:0.488455 2:-0.013659 
1 1:0.488455 2:-0.013659 
1 1:0.488455 2:-0.013659 
1 1:0.488455 2:-0.013659 
1 1:0.488455 2:-0.013659 
1 1:0.488455 2:-0.013659 
1 1:0.488455 2:-0.013659 
1 1:0.488455 2:-0.013659 
1 1:0.488455 2:-0.013659 
1 1:0.488455 2:-0.013659 
1 1:0.488455 2:-0.013659 
1 1:0.488455 2:-0.013659 
1 1:0.488455 2:-0.013659 
1 1:0.488455 2:-0.013659 
1 1:0.488455 2:-0.013659 
1 1:0.488455 2:-0.013659 
1 1:0.488455 2:-0.013659 
1 1:0.488455 2:-0.013659 
1 1:0.488455 2:-0.013659 
1 1:0.488455 2:-0.013659 
1 1:0.488455 2:-0.013659 
1 1:0.488455 2:-0.013659 
1 1:0.488455 2:-0.013659 
1 1:0.488455 2:-0.013659 
1 1:0.488455 2:-0.013659 
1 1:0.488455 2:-0.013659 
1 1:0.488455 2:-0.013659 
1 1:0.488455 2:-0.013659 
1 1:0.488455 2:-0.013659 
1 1:0.488455 2:-0.013659 
1 1:0.488455 2:-0.013659 
1 1:0.488455 2:-0.013659 
1 1:0.488455 2:-0.013659 
1 1:0.488455 2:-0.013659 
1 1:0.488455 2:-0.013659 
1 1:0.488455 2:-0.013659 
1 1:0.488455 2:-0.013659 
1 1:0.488455 2:-0.013659 
1 1:-0.230097 2:0.119936 
1 1:-0.230097 2:0.119936 
1 1:-0.230097 2:0.119936 
1 1:-0.230097 2:0.119936 
1 1:-0.230097 2:0.119936 
1 1:-0.230097 2:0.119936 
1 1:-0.230097 2:0.119936 
1 1:-0.230097 2:0.119936 
1 1:-0.230097 2:0.119936 
1 1:-0.230097 2:0.119936 
1 1:-0.230097 2:0.119936 
1 1:-0.230097 2:0.119936 
1 1:-0.230097 2:0.119936 
1 1:-0.230097 2:0.119936 
1 1:-0.230097 2:0.119936 
1 1:-0.230097 2:0.119936 
1 1:-0.230097 2:0.119936 
1 1:-0.230097 2:0.119936 
1 1:-0.230097 2:0.119936 
1 1:-0.230097 2:0.119936 
1 1:-0.230097 2:0.119936 
1 1:-0.230097 2:0.119936 
1 1:-0.230097 2:0.119936 
1 1:-0.230097 2:0.119936 
1 1:-0.230097 2:0.119936 
1 1:-0.230097 2:0.119936 
1 1:-0.230097 2:0.119936 
1 1:-0.230097 2:0.119936 
1 1:-0.230097 2:0.119936 
1 1:-0.230097 2:0.119936 
1 1:-0.230097 2:0.119936 
1 1:-0.230097 2:0.119936 
1 1:-0.230097 2:0.119936 
1 1:-0.230097 2:0.119936 
1 1:-0.230097 2:0.119936 
1 1:-0.230097 2:0.119936 
1 1:-0.230097 2:0.119936 
1 1:-0.230097 2:0.119936 
1 1:-0.230097 2:0.119936 
1 1:-0.230097 2:0.119936 
1 1:-0.230097 2:0.119936 
1 1:-0.230097 2:0.119936 
1 1:-0.230097 2:0.119936 
1 1:-0.230097 2:0.119936 
1 1:-0.230097 2:0.119936 
1 1:-0.230097 2:0.119936 
1 1:-0.230097 2:0.119936 
1 1:-0.230097 2:0.119936 
1 1:-0.230097 2:0.119936 
1 1:-0.230097 2:0.119936 
1 1:-0.230097 2:0.119936 
1 1:-0.230097 2:0.119936 
1 1:-0.230097 2:0.119936 
1 1:-0.230097 2:0.119936 
1 1:-0.230097 2:0.119936 
1 1:-0.230097 2:0.119936 
1 1:-0.230097 2:0.119936 
1 1:-0.230097 2:0.119936 
1 1:-0.230097 2:0.119936 
1 1:-0.230097 2:0.119936 
1 1:-0.230097 2:0.119936 
1 1:-0.230097 2:0.119936 
1 1:-0.230097 2:0.119936 
1 1:-0.230097 2:0.119936 
1 1:-0.230097 2:0.119936 
1 1:-0.230097 2:0.119936 
1 1:-0.230097 2:0.119936 
1 1:-0.230097 2:0.119936 
1 1:-0.230097 2:0.119936 
1 1:-0.230097 2:0.119936 
1 1:-0.230097 2:0.119936 
1 1:-0.230097 2:0.119936 
1 1:-0.230097 2:0.119936 
1 1:-0.230097 2:0.119936 
1 1:-0.230097 2:0.119936 
1 1:-0.230097 2:0.119936 
1 1:-0.230097 2:0.119936 
1 1:-0.230097 2:0.119936 
1 1:-0.230097 2:0.119936 
1 1:-0.230097 2:0.119936 
1 1:-0.230097 2:0.119936 
1 1:-0.230097 2:0.119936 
1 1:-0.230097 2:0.119936 
1 1:-0.230097 2:0.119936 
1 1:-0.230097 2:0.119936 
1 1:-0.230097 2:0.119936 
1 1:-0.230097 2:0.119936 
1 1:-0.230097 2:0.119936 
1 1:-0.230097 2:0.119936 
1 1:-0.230097 2:0.119936 
1 1:-0.230097 2:0.119936 
1 1:-0.230097 2:0.119936 
1 1:-0.230097 2:0.119936 
1 1:-0.230097 2:0.119936 
1 1:-0.970362 2:-0.959802 
1 1:-0.970362 2:-0.959802 
1 1:-0.970362 2:-0.959802 
1 1:-0.970362 2:-0.959802 
1 1:-0.970362 2:-0.959802 
1 1:-0.970362 2:-0.959802 
1 1:-0.970362 2:-0.959802 
1 1:-0.970362 2:-0.959802 
1 1:-0.970362 2:-0.959802 
1 1:-0.970362 2:-0.959802 
1 1:-0.970362 2:-0.959802 
1 1:-0.970362 2:-0.959802 
1 1:-0.970362 2:-0.959802 
1 1:-0.970362 2:-0.959802 
1 1:-0.970362 2:-0.959802 
1 1:-0.970362 2:-0.959802 
1 1:-0.970362 2:-0.959802 
1 1:-0.970362 2:-0.959802 
1 1:-0.970362 2:-0.959802 
1 1:-0.970362 2:-0.959802 
1 1:-0.970362 2:-0.959802 
1 1:-0.970362 2:-0.959802 
1 1:-0.970362 2:-0.959802 
1 1:-0.970362 2:-0.959802 
1 1:-0.970362 2:-0.959802 
1 1:-0.970362 2:-0.959802 
1 1:-0.970362 2:-0.959802 
1 1:-0.970362 2:-0.959802 
1 1:-0.970362 2:-0.959802 
1 1:-0.970362 2:-0.959802 
1 1:-0.970362 2:-0.959802 
1 1:-0.970362 2:-0.959802 
1 1:-0.970362 2:-0.959802 
1 1:-0.970362 2:-0.959802 
1 1:-0.970362 2:-0.959802 
1 1:-0.970362 2:-0.959802 
1 1:-0.970362 2:-0.959802 
1 1:-0.970362 2:-0.959802 
1 1:-0.970362 2:-0.959802 
1 1:-0.970362 2:-0.959802 
1 1:-0.970362 2:-0.959802 
1 1:-0.970362 2:-0.959802 
1 1:-0.970362 2:-0.959802 
1 1:-0.970362 2:-0.959802 
1 1:-0.970362 2:-0.959802 
1 1:-0.970362 2:-0.959802 
1 1:-0.970362 2:-0.959802 
1 1:-0.970362 2:-0.959802 
1 1:-0.970362 2:-0.959802 
1 1:-0.970362 2:-0.959802 
1 1:-0.970362 2:-0.959802 
1 1:-0.970362 2:-0.959802 
1 1:-0.970362 2:-0.959802 
1 1:-0.970362 2:-0.959802 
1 1:-0.970362 2:-0.959802 
1 1:-0.970362 2:-0.959802 
1 1:-0.970362 2:-0.959802 
1 1:-0.970362 2:-0.959802 
1 1:-0.970362 2:-0.959802 
1 1:-0.970362 2:-0.959802 
1 1:-0.970362 2:-0.959802 
1 1:-0.970362 2:-0.959802 
1 1:-0.970362 2:-0.959802 
1 1:-0.970362 2:-0.959802 
1 1:-0.970362 2:-0.959802 
1 1:-0.970362 2:-0.959802 
1 1:-0.970362 2:-0.959802 
1 1:-0.970362 2:-0.959802 
1 1:-0.970362 2:-0.959802 
1 1:-0.970362 2:-0.959802 
1 1:-0.970362 2:-0.959802 
1 1:-0.970362 2:-0.959802 
1 1:-0.970362 2:-0.959802 
1 1:-0.970362 2:-0.959802 
1 1:-0.970362 2:-0.959802 
1 1:-0.970362 2:-0.959802 
1 1:-0.970362 2:-0.959802 
1 1:-0.970362 2:-0.959802 
1 1:-0.970362 2:-0.959802 
1 1:-0.970362 2:-0.959802 
1 1:-0.970362 2:-0.959802 
1 1:-0.970362 2:-0.959802 
1 1:-0.970362 2:-0.959802 
1 1:-0.970362 2:-0.959802 
1 1:-0.970362 2:-0.959802 
1 1:-0.970362 2:-0.959802 
1 1:-0.970362 2:-0.959802 
1 1:-0.970362 2:-0.959802 
1 1:-0.979939 2:-0.985545 
1 1:-0.983221 2:-0.970892 
1 1:-0.979939 2:-0.985545 
1 1:-0.983221 2:-0.970892 
1 1:-0.979939 2:-0.985545 
1 1:-0.983221 2:-0.970892 
1 1:-0.979939 2:-0.985545 
1 1:-0.983221 2:-0.970892 
1 1:-0.979939 2:-0.985545 
1 1:-0.983221 2:-0.970892 
1 1:-0.979939 2:-0.985545 
1 1:-0.983221 2:-0.970892 
1 1:-0.979939 2:-0.985545 
1 1:-0.983221 2:-0.970892 
1 1:-0.979939 2:-0.985545 
1 1:-0.983221 2:-0.970892 
1 1:-0.979939 2:-0.985545 
1 1:-0.983221 2:-0.970892 
1 1:-0.979939 2:-0.985545 
1 1:-0.983221 2:-0.970892 
1 1:-0.979939 2:-0.985545 
1 1:-0.983221 2:-0.970892 
1 1:-0.979939 2:-0.985545 
1 1:-0.983221 2:-0.970892 
1 1:-0.979939 2:-0.985545 
1 1:-0.983221 2:-0.970892 
1 1:-0.979939 2:-0.985545 
1 1:-0.983221 2:-0.970892 
1 1:-0.979939 2:-0.985545 
1 1:-0.983221 2:-0.970892 
1 1:-0.979939 2:-0.985545 
1 1:-0.983221 2:-0.970892 
1 1:-0.979939 2:-0.985545 
1 1:-0.983221 2:-0.970892 
1 1:-0.979939 2:-0.985545 
1 1:-0.983221 2:-0.970892 
1 1:-0.979939 2:-0.985545 
1 1:-0.983221 2:-0.970892 
1 1:-0.979939 2:-0.985545 
1 1:-0.983221 2:-0.970892 
1 1:-0.979939 2:-0.985545 
1 1:-0.983221 2:-0.970892 
1 1:-0.979939 2:-0.985545 
1 1:-0.983221 2:-0.970892 
1 1:-0.979939 2:-0.985545 
1 1:-0.983221 2:-0.970892 
1 1:-0.979939 2:-0.985545 
1 1:-0.983221 2:-0.970892 
1 1:-0.979939 2:-0.985545 
1 1:-0.983221 2:-0.970892 
1 1:-0.979939 2:-0.985545 
1 1:-0.983221 2:-0.970892 
1 1:-0.979939 2:-0.985545 
1 1:-0.983221 2:-0.970892 
1 1:-0.979939 2:-0.985545 
1 1:-0.983221 2:-0.970892 
1 1:-0.979939 2:-0.985545 
1 1:-0.983221 2:-0.970892 
1 1:-0.979939 2:-0.985545 
1 1:-0.983221 2:-0.970892 
1 1:-0.979939 2:-0.985545 
1 1:-0.983221 2:-0.970892 
1 1:-0.979939 2:-0.985545 
1 1:-0.983221 2:-0.970892 
1 1:-0.979939 2:-0.985545 
1 1:-0.983221 2:-0.970892 
1 1:-0.979939 2:-0.985545 
1 1:-0.983221 2:-0.970892 
1 1:-0.979939 2:-0.985545 
1 1:-0.983221 2:-0.970892 
1 1:-0.979939 2:-0.985545 
1 1:-0.983221 2:-0.970892 
1 1:-0.979939 2:-0.985545 
1 1:-0.983221 2:-0.970892 
1 1:-0.979939 2:-0.985545 
1 1:-0.983221 2:-0.970892 
1 1:-0.979939 2:-0.985545 
1 1:-0.983221 2:-0.970892 
1 1:-0.979939 2:-0.985545 
1 1:-0.983221 2:-0.970892 
1 1:-0.979939 2:-0.985545 
1 1:-0.983221 2:-0.970892 
1 1:-0.979939 2:-0.985545 
1 1:-0.983221 2:-0.970892 
1 1:-0.979939 2:-0.985545 
1 1:-0.983221 2:-0.970892 
1 1:-0.979939 2:-0.985545 
1 1:-0.983221 2:-0.970892 
1 1:-0.979939 2:-0.985545 
1 1:-0.983221 2:-0.970892 
1 1:-0.979939 2:-0.985545 
1 1:-0.983221 2:-0.970892 
1 1:-0.979939 2:-0.985545 
1 1:-0.983221 2:-0.970892 
1 1:-0.979939 2:-0.985545 
1 1:-0.983221 2:-0.970892 
1 1:-0.979939 2:-0.985545 
1 1:-0.983221 2:-0.970892 
1 1:-0.979939 2:-0.985545 
1 1:-0.983221 2:-0.970892 
1 1:-0.979939 2:-0.985545 
1 1:-0.983221 2:-0.970892 
1 1:-0.979939 2:-0.985545 
1 1:-0.983221 2:-0.970892 
1 1:-0.979939 2:-0.985545 
1 1:-0.983221 2:-0.970892 
1 1:-0.985439 2:-0.961228 
1 1:-0.824348 2:0.174335 
1 1:-0.997773 2:-0.942381 
1 1:-0.985439 2:-0.961228 
1 1:-0.824348 2:0.174335 
1 1:-0.997773 2:-0.942381 
1 1:-0.985439 2:-0.961228 
1 1:-0.824348 2:0.174335 
1 1:-0.997773 2:-0.942381 
1 1:-0.985439 2:-0.961228 
1 1:-0.824348 2:0.174335 
1 1:-0.997773 2:-0.942381 
1 1:-0.985439 2:-0.961228 
1 1:-0.824348 2:0.174335 
1 1:-0.997773 2:-0.942381 
1 1:-0.985439 2:-0.961228 
1 1:-0.824348 2:0.174335 
1 1:-0.997773 2:-0.942381 
1 1:-0.985439 2:-0.961228 
1 1:-0.824348 2:0.174335 
1 1:-0.997773 2:-0.942381 
1 1:-0.985439 2:-0.961228 
1 1:-0.824348 2:0.174335 
1 1:-0.997773 2:-0.942381 
1 1:-0.985439 2:-0.961228 
1 1:-0.824348 2:0.174335 
1 1:-0.997773 2:-0.942381 
1 1:-0.985439 2:-0.961228 
1 1:-0.824348 2:0.174335 
1 1:-0.997773 2:-0.942381 
1 1:-0.985439 2:-0.961228 
1 1:-0.824348 2:0.174335 
1 1:-0.997773 2:-0.942381 
1 1:-0.985439 2:-0.961228 
1 1:-0.824348 2:0.174335 
1 1:-0.997773 2:-0.942381 
1 1:-0.985439 2:-0.961228 
1 1:-0.824348 2:0.174335 
1 1:-0.997773 2:-0.942381 
1 1:-0.985439 2:-0.961228 
1 1:-0.824348 2:0.174335 
1 1:-0.997773 2:-0.942381 
1 1:-0.985439 2:-0.961228 
1 1:-0.824348 2:0.174335 
1 1:-0.997773 2:-0.942381 
1 1:-0.985439 2:-0.961228 
1 1:-0.824348 2:0.174335 
1 1:-0.997773 2:-0.942381 
1 1:-0.985439 2:-0.961228 
1 1:-0.824348 2:0.174335 
1 1:-0.997773 2:-0.942381 
1 1:-0.985439 2:-0.961228 
1 1:-0.824348 2:0.174335 
1 1:-0.997773 2:-0.942381 
1 1:-0.985439 2:-0.961228 
1 1:-0.824348 2:0.174335 
1 1:-0.997773 2:-0.942381 
1 1:-0.985439 2:-0.961228 
1 1:-0.824348 2:0.174335 
1 1:-0.997773 2:-0.942381 
1 1:-0.985439 2:-0.961228 
1 1:-0.824348 2:0.174335 
1 1:-0.997773 2:-0.942381 
1 1:-0.985439 2:-0.961228 
1 1:-0.824348 2:0.174335 
1 1:-0.997773 2:-0.942381 
1 1:-0.985439 2:-0.961228 
1 1:-0.824348 2:0.174335 
1 1:-0.997773 2:-0.942381 
1 1:-0.985439 2:-0.961228 
1 1:-0.824348 2:0.174335 
1 1:-0.997773 2:-0.942381 
1 1:-0.985439 2:-0.961228 
1 1:-0.824348 2:0.174335 
1 1:-0.997773 2:-0.942381 
1 1:-0.985439 2:-0.961228 
1 1:-0.824348 2:0.174335 
1 1:-0.997773 2:-0.942381 
1 1:-0.985439 2:-0.961228 
1 1:-0.824348 2:0.174335 
1 1:-0.997773 2:-0.942381 
1 1:-0.985439 2:-0.961228 
1 1:-0.824348 2:0.174335 
1 1:-0.997773 2:-0.942381 
1 1:-0.985439 2:-0.961228 
1 1:-0.824348 2:0.174335 
1 1:-0.997773 2:-0.942381 
1 1:-0.985439 2:-0.961228 
1 1:-0.824348 2:0.174335 
1 1:-0.997773 2:-0.942381 
1 1:-0.985439 2:-0.961228 
1 1:-0.824348 2:0.174335 
1 1:-0.997773 2:-0.942381 
1 1:-0.985439 2:-0.961228 
1 1:-0.824348 2:0.174335 
1 1:-0.997773 2:-0.942381 
1 1:-0.985439 2:-0.961228 
1 1:-0.824348 2:0.174335 
1 1:-0.997773 2:-0.942381 
1 1:-0.985439 2:-0.961228 
1 1:-0.824348 2:0.174335 
1 1:-0.997773 2:-0.942381 
1 1:-0.985439 2:-0.961228 
1 1:-0.824348 2:0.174335 
1 1:-0.997773 2:-0.942381 
1 1:-0.985439 2:-0.961228 
1 1:-0.824348 2:0.174335 
1 1:-0.997773 2:-0.942381 
1 1:-0.985439 2:-0.961228 
1 1:-0.824348 2:0.174335 
1 1:-0.997773 2:-0.942381 
1 1:-0.985439 2:-0.961228 
1 1:-0.824348 2:0.174335 
1 1:-0.997773 2:-0.942381 
1 1:-0.985439 2:-0.961228 
1 1:-0.824348 2:0.174335 
1 1:-0.997773 2:-0.942381 
1 1:-0.985439 2:-0.961228 
1 1:-0.824348 2:0.174335 
1 1:-0.997773 2:-0.942381 
1 1:-0.985439 2:-0.961228 
1 1:-0.824348 2:0.174335 
1 1:-0.997773 2:-0.942381 
1 1:-0.985439 2:-0.961228 
1 1:-0.824348 2:0.174335 
1 1:-0.997773 2:-0.942381 
1 1:-0.985439 2:-0.961228 
1 1:-0.824348 2:0.174335 
1 1:-0.997773 2:-0.942381 
1 1:-0.894425 2:0.27582 
1 1:-0.960143 2:0.048386 
1 1:-0.991747 2:-0.976852 
1 1:-0.894425 2:0.27582 
1 1:-0.960143 2:0.048386 
1 1:-0.991747 2:-0.976852 
1 1:-0.894425 2:0.27582 
1 1:-0.960143 2:0.048386 
1 1:-0.991747 2:-0.976852 
1 1:-0.894425 2:0.27582 
1 1:-0.960143 2:0.048386 
1 1:-0.991747 2:-0.976852 
1 1:-0.894425 2:0.27582 
1 1:-0.960143 2:0.048386 
1 1:-0.991747 2:-0.976852 
1 1:-0.894425 2:0.27582 
1 1:-0.960143 2:0.048386 
1 1:-0.991747 2:-0.976852 
1 1:-0.894425 2:0.27582 
1 1:-0.960143 2:0.048386 
1 1:-0.991747 2:-0.976852 
1 1:-0.894425 2:0.27582 
1 1:-0.960143 2:0.048386 
1 1:-0.991747 2:-0.976852 
1 1:-0.894425 2:0.27582 
1 1:-0.960143 2:0.048386 
1 1:-0.991747 2:-0.976852 
1 1:-0.894425 2:0.27582 
1 1:-0.960143 2:0.048386 
1 1:-0.991747 2:-0.976852 
1 1:-0.894425 2:0.27582 
1 1:-0.960143 2:0.048386 
1 1:-0.991747 2:-0.976852 
1 1:-0.894425 2:0.27582 
1 1:-0.960143 2:0.048386 
1 1:-0.991747 2:-0.976852 
1 1:-0.894425 2:0.27582 
1 1:-0.960143 2:0.048386 
1 1:-0.991747 2:-0.976852 
1 1:-0.894425 2:0.27582 
1 1:-0.960143 2:0.048386 
1 1:-0.991747 2:-0.976852 
1 1:-0.894425 2:0.27582 
1 1:-0.960143 2:0.048386 
1 1:-0.991747 2:-0.976852 
1 1:-0.894425 2:0.27582 
1 1:-0.960143 2:0.048386 
1 1:-0.991747 2:-0.976852 
1 1:-0.894425 2:0.27582 
1 1:-0.960143 2:0.048386 
1 1:-0.991747 2:-0.976852 
1 1:-0.894425 2:0.27582 
1 1:-0.960143 2:0.048386 
1 1:-0.991747 2:-0.976852 
1 1:-0.894425 2:0.27582 
1 1:-0.960143 2:0.048386 
1 1:-0.991747 2:-0.976852 
1 1:-0.894425 2:0.27582 
1 1:-0.960143 2:0.048386 
1 1:-0.991747 2:-0.976852 
1 1:-0.894425 2:0.27582 
1 1:-0.960143 2:0.048386 
1 1:-0.991747 2:-0.976852 
1 1:-0.894425 2:0.27582 
1 1:-0.960143 2:0.048386 
1 1:-0.991747 2:-0.976852 
1 1:-0.894425 2:0.27582 
1 1:-0.960143 2:0.048386 
1 1:-0.991747 2:-0.976852 
1 1:-0.894425 2:0.27582 
1 1:-0.960143 2:0.048386 
1 1:-0.991747 2:-0.976852 
1 1:-0.894425 2:0.27582 
1 1:-0.960143 2:0.048386 
1 1:-0.991747 2:-0.976852 
1 1:-0.894425 2:0.27582 
1 1:-0.960143 2:0.048386 
1 1:-0.991747 2:-0.976852 
1 1:-0.894425 2:0.27582 
1 1:-0.960143 2:0.048386 
1 1:-0.991747 2:-0.976852 
1 1:-0.894425 2:0.27582 
1 1:-0.960143 2:0.048386 
1 1:-0.991747 2:-0.976852 
1 1:-0.894425 2:0.27582 
1 1:-0.960143 2:0.048386 
1 1:-0.991747 2:-0.976852 
1 1:-0.894425 2:0.27582 
1 1:-0.960143 2:0.048386 
1 1:-0.991747 2:-0.976852 
1 1:-0.894425 2:0.27582 
1 1:-0.960143 2:0.048386 
1 1:-0.991747 2:-0.976852 
1 1:-0.894425 2:0.27582 
1 1:-0.960143 2:0.048386 
1 1:-0.991747 2:-0.976852 
1 1:-0.894425 2:0.27582 
1 1:-0.960143 2:0.048386 
1 1:-0.991747 2:-0.976852 
1 1:-0.894425 2:0.27582 
1 1:-0.960143 2:0.048386 
1 1:-0.991747 2:-0.976852 
1 1:-0.894425 2:0.27582 
1 1:-0.960143 2:0.048386 
1 1:-0.991747 2:-0.976852 
1 1:-0.894425 2:0.27582 
1 1:-0.960143 2:0.048386 
1 1:-0.991747 2:-0.976852 
1 1:-0.894425 2:0.27582 
1 1:-0.960143 2:0.048386 
1 1:-0.991747 2:-0.976852 
1 1:-0.894425 2:0.27582 
1 1:-0.960143 2:0.048386 
1 1:-0.991747 2:-0.976852 
1 1:-0.894425 2:0.27582 
1 1:-0.960143 2:0.048386 
1 1:-0.991747 2:-0.976852 
1 1:-0.894425 2:0.27582 
1 1:-0.960143 2:0.048386 
1 1:-0.991747 2:-0.976852 
1 1:-0.894425 2:0.27582 
1 1:-0.960143 2:0.048386 
1 1:-0.991747 2:-0.976852 
1 1:-0.894425 2:0.27582 
1 1:-0.960143 2:0.048386 
1 1:-0.991747 2:-0.976852 
1 1:-0.894425 2:0.27582 
1 1:-0.960143 2:0.048386 
1 1:-0.991747 2:-0.976852 
1 1:-0.894425 2:0.27582 
1 1:-0.960143 2:0.048386 
1 1:-0.991747 2:-0.976852 
1 1:-0.894425 2:0.27582 
1 1:-0.960143 2:0.048386 
1 1:-0.991747 2:-0.976852 
1 1:-0.894425 2:0.27582 
1 1:-0.960143 2:0.048386 
1 1:-0.991747 2:-0.976852 
1 1:-0.894425 2:0.27582 
1 1:-0.960143 2:0.048386 
1 1:-0.991747 2:-0.976852 
1 1:-0.894425 2:0.27582 
1 1:-0.960143 2:0.048386 
1 1:-0.991747 2:-0.976852 
1 1:-0.894425 2:0.27582 
1 1:-0.960143 2:0.048386 
1 1:-0.991747 2:-0.976852 
1 1:-0.894425 2:0.27582 
1 1:-0.960143 2:0.048386 
1 1:-0.991747 2:-0.976852 
1 1:-0.894425 2:0.27582 
1 1:-0.960143 2:0.048386 
1 1:-0.991747 2:-0.976852 
1 1:-0.894425 2:0.27582 
1 1:-0.960143 2:0.048386 
1 1:-0.991747 2:-0.976852 
1 1:-0.894425 2:0.27582 
1 1:-0.960143 2:0.048386 
1 1:-0.991747 2:-0.976852 
1 1:-0.894425 2:0.27582 
1 1:-0.960143 2:0.048386 
1 1:-0.991747 2:-0.976852 
1 1:-0.894425 2:0.27582 
1 1:-0.960143 2:0.048386 
1 1:-0.991747 2:-0.976852 
1 1:-0.894425 2:0.27582 
1 1:-0.960143 2:0.048386 
1 1:-0.991747 2:-0.976852 
1 1:-0.894425 2:0.27582 
1 1:-0.960143 2:0.048386 
1 1:-0.991747 2:-0.976852 
1 1:-0.894425 2:0.27582 
1 1:-0.960143 2:0.048386 
1 1:-0.991747 2:-0.976852 
1 1:-0.894425 2:0.27582 
1 1:-0.960143 2:0.048386 
1 1:-0.991747 2:-0.976852 
1 1:-0.894425 2:0.27582 
1 1:-0.960143 2:0.048386 
1 1:-0.991747 2:-0.976852 
1 1:-0.894425 2:0.27582 
1 1:-0.960143 2:0.048386 
1 1:-0.991747 2:-0.976852 
1 1:-0.894425 2:0.27582 
1 1:-0.960143 2:0.048386 
1 1:-0.991747 2:-0.976852 
1 1:-0.894425 2:0.27582 
1 1:-0.960143 2:0.048386 
1 1:-0.991747 2:-0.976852 
1 1:-0.894425 2:0.27582 
1 1:-0.960143 2:0.048386 
1 1:-0.991747 2:-0.976852 
1 1:-0.894425 2:0.27582 
1 1:-0.960143 2:0.048386 
1 1:-0.991747 2:-0.976852 
1 1:-0.894425 2:0.27582 
1 1:-0.960143 2:0.048386 
1 1:-0.991747 2:-0.976852 
1 1:-0.894425 2:0.27582 
1 1:-0.960143 2:0.048386 
1 1:-0.991747 2:-0.976852 
1 1:-0.894425 2:0.27582 
1 1:-0.960143 2:0.048386 
1 1:-0.991747 2:-0.976852 
1 1:-0.894425 2:0.27582 
1 1:-0.960143 2:0.048386 
1 1:-0.991747 2:-0.976852 
1 1:-0.894425 2:0.27582 
1 1:-0.960143 2:0.048386 
1 1:-0.991747 2:-0.976852 
1 1:-0.894425 2:0.27582 
1 1:-0.960143 2:0.048386 
1 1:-0.991747 2:-0.976852 
1 1:-0.894425 2:0.27582 
1 1:-0.960143 2:0.048386 
1 1:-0.991747 2:-0.976852 
1 1:-0.894425 2:0.27582 
1 1:-0.960143 2:0.048386 
1 1:-0.991747 2:-0.976852 
1 1:-0.894425 2:0.27582 
1 1:-0.960143 2:0.048386 
1 1:-0.991747 2:-0.976852 
1 1:-0.894425 2:0.27582 
1 1:-0.960143 2:0.048386 
1 1:-0.991747 2:-0.976852 
1 1:-0.894425 2:0.27582 
1 1:-0.960143 2:0.048386 
1 1:-0.991747 2:-0.976852 
1 1:-0.894425 2:0.27582 
1 1:-0.960143 2:0.048386 
1 1:-0.991747 2:-0.976852 
1 1:-0.894425 2:0.27582 
1 1:-0.960143 2:0.048386 
1 1:-0.991747 2:-0.976852 
1 1:-0.894425 2:0.27582 
1 1:-0.960143 2:0.048386 
1 1:-0.991747 2:-0.976852 
1 1:-0.894425 2:0.27582 
1 1:-0.960143 2:0.048386 
1 1:-0.991747 2:-0.976852 
1 1:-0.894425 2:0.27582 
1 1:-0.960143 2:0.048386 
1 1:-0.991747 2:-0.976852 
1 1:-0.894425 2:0.27582 
1 1:-0.960143 2:0.048386 
1 1:-0.991747 2:-0.976852 
1 1:-0.894425 2:0.27582 
1 1:-0.960143 2:0.048386 
1 1:-0.991747 2:-0.976852 
1 1:-0.894425 2:0.27582 
1 1:-0.960143 2:0.048386 
1 1:-0.991747 2:-0.976852 
1 1:-0.894425 2:0.27582 
1 1:-0.960143 2:0.048386 
1 1:-0.991747 2:-0.976852 
1 1:-0.894425 2:0.27582 
1 1:-0.960143 2:0.048386 
1 1:-0.991747 2:-0.976852 
1 1:-0.894425 2:0.27582 
1 1:-0.960143 2:0.048386 
1 1:-0.991747 2:-0.976852 
1 1:-0.894425 2:0.27582 
1 1:-0.960143 2:0.048386 
1 1:-0.991747 2:-0.976852 
1 1:-0.894425 2:0.27582 
1 1:-0.960143 2:0.048386 
1 1:-0.991747 2:-0.976852 
1 1:-0.894425 2:0.27582 
1 1:-0.960143 2:0.048386 
1 1:-0.991747 2:-0.976852 
1 1:-0.894425 2:0.27582 
1 1:-0.960143 2:0.048386 
1 1:-0.991747 2:-0.976852 
1 1:-0.894425 2:0.27582 
1 1:-0.960143 2:0.048386 
1 1:-0.991747 2:-0.976852 
1 1:-0.894425 2:0.27582 
1 1:-0.960143 2:0.048386 
1 1:-0.991747 2:-0.976852 
1 1:-0.894425 2:0.27582 
1 1:-0.960143 2:0.048386 
1 1:-0.991747 2:-0.976852 
1 1:-0.986389 2:-0.973567 
1 1:-0.989779 2:-0.983713 
1 1:-0.986389 2:-0.973567 
1 1:-0.989779 2:-0.983713 
1 1:-0.986389 2:-0.973567 
1 1:-0.989779 2:-0.983713 
1 1:-0.986389 2:-0.973567 
1 1:-0.989779 2:-0.983713 
1 1:-0.986389 2:-0.973567 
1 1:-0.989779 2:-0.983713 
1 1:-0.986389 2:-0.973567 
1 1:-0.989779 2:-0.983713 
1 1:-0.986389 2:-0.973567 
1 1:-0.989779 2:-0.983713 
1 1:-0.986389 2:-0.973567 
1 1:-0.989779 2:-0.983713 
1 1:-0.986389 2:-0.973567 
1 1:-0.989779 2:-0.983713 
1 1:-0.986389 2:-0.973567 
1 1:-0.989779 2:-0.983713 
1 1:-0.986389 2:-0.973567 
1 1:-0.989779 2:-0.983713 
1 1:-0.986389 2:-0.973567 
1 1:-0.989779 2:-0.983713 
1 1:-0.986389 2:-0.973567 
1 1:-0.989779 2:-0.983713 
1 1:-0.986389 2:-0.973567 
1 1:-0.989779 2:-0.983713 
1 1:-0.986389 2:-0.973567 
1 1:-0.989779 2:-0.983713 
1 1:-0.986389 2:-0.973567 
1 1:-0.989779 2:-0.983713 
1 1:-0.986389 2:-0.973567 
1 1:-0.989779 2:-0.983713 
1 1:-0.986389 2:-0.973567 
1 1:-0.989779 2:-0.983713 
1 1:-0.986389 2:-0.973567 
1 1:-0.989779 2:-0.983713 
1 1:-0.986389 2:-0.973567 
1 1:-0.989779 2:-0.983713 
1 1:-0.986389 2:-0.973567 
1 1:-0.989779 2:-0.983713 
1 1:-0.986389 2:-0.973567 
1 1:-0.989779 2:-0.983713 
1 1:-0.986389 2:-0.973567 
1 1:-0.989779 2:-0.983713 
1 1:-0.986389 2:-0.973567 
1 1:-0.989779 2:-0.983713 
1 1:-0.986389 2:-0.973567 
1 1:-0.989779 2:-0.983713 
1 1:-0.986389 2:-0.973567 
1 1:-0.989779 2:-0.983713 
1 1:-0.986389 2:-0.973567 
1 1:-0.989779 2:-0.983713 
1 1:-0.986389 2:-0.973567 
1 1:-0.989779 2:-0.983713 
1 1:-0.986389 2:-0.973567 
1 1:-0.989779 2:-0.983713 
1 1:-0.986389 2:-0.973567 
1 1:-0.989779 2:-0.983713 
1 1:-0.986389 2:-0.973567 
1 1:-0.989779 2:-0.983713 
1 1:-0.986389 2:-0.973567 
1 1:-0.989779 2:-0.983713 
1 1:-0.986389 2:-0.973567 
1 1:-0.989779 2:-0.983713 
1 1:-0.986389 2:-0.973567 
1 1:-0.989779 2:-0.983713 
1 1:-0.986389 2:-0.973567 
1 1:-0.989779 2:-0.983713 
1 1:-0.986389 2:-0.973567 
1 1:-0.989779 2:-0.983713 
1 1:-0.986389 2:-0.973567 
1 1:-0.989779 2:-0.983713 
1 1:-0.986389 2:-0.973567 
1 1:-0.989779 2:-0.983713 
1 1:-0.986389 2:-0.973567 
1 1:-0.989779 2:-0.983713 
1 1:-0.986389 2:-0.973567 
1 1:-0.989779 2:-0.983713 
1 1:-0.986389 2:-0.973567 
1 1:-0.989779 2:-0.983713 
1 1:-0.986389 2:-0.973567 
1 1:-0.989779 2:-0.983713 
1 1:-0.986389 2:-0.973567 
1 1:-0.989779 2:-0.983713 
1 1:-0.986389 2:-0.973567 
1 1:-0.989779 2:-0.983713 
1 1:-0.986389 2:-0.973567 
1 1:-0.989779 2:-0.983713 
1 1:-0.986389 2:-0.973567 
1 1:-0.989779 2:-0.983713 
1 1:-0.986389 2:-0.973567 
1 1:-0.989779 2:-0.983713 
1 1:-0.986389 2:-0.973567 
1 1:-0.989779 2:-0.983713 
1 1:-0.986389 2:-0.973567 
1 1:-0.989779 2:-0.983713 
1 1:-0.986389 2:-0.973567 
1 1:-0.989779 2:-0.983713 
1 1:-0.986389 2:-0.973567 
1 1:-0.989779 2:-0.983713 
1 1:-0.986389 2:-0.973567 
1 1:-0.989779 2:-0.983713 
1 1:-0.986389 2:-0.973567 
1 1:-0.989779 2:-0.983713 
1 1:-0.986389 2:-0.973567 
1 1:-0.989779 2:-0.983713 
1 1:-0.986389 2:-0.973567 
1 1:-0.989779 2:-0.983713 
1 1:-0.986389 2:-0.973567 
1 1:-0.989779 2:-0.983713 
1 1:-0.986389 2:-0.973567 
1 1:-0.989779 2:-0.983713 
1 1:-0.986389 2:-0.973567 
1 1:-0.989779 2:-0.983713 
1 1:-0.986389 2:-0.973567 
1 1:-0.989779 2:-0.983713 
1 1:-0.986389 2:-0.973567 
1 1:-0.989779 2:-0.983713 
1 1:-0.986389 2:-0.973567 
1 1:-0.989779 2:-0.983713 
1 1:-0.986389 2:-0.973567 
1 1:-0.989779 2:-0.983713 
1 1:-0.986389 2:-0.973567 
1 1:-0.989779 2:-0.983713 
1 1:-0.986389 2:-0.973567 
1 1:-0.989779 2:-0.983713 
1 1:-0.986389 2:-0.973567 
1 1:-0.989779 2:-0.983713 
1 1:-0.986389 2:-0.973567 
1 1:-0.989779 2:-0.983713 
1 1:-0.986389 2:-0.973567 
1 1:-0.989779 2:-0.983713 
1 1:-0.986389 2:-0.973567 
1 1:-0.989779 2:-0.983713 
1 1:-0.986389 2:-0.973567 
1 1:-0.989779 2:-0.983713 
1 1:-0.986389 2:-0.973567 
1 1:-0.989779 2:-0.983713 
1 1:-0.986389 2:-0.973567 
1 1:-0.989779 2:-0.983713 
1 1:-0.986389 2:-0.973567 
1 1:-0.989779 2:-0.983713 
1 1:-0.986389 2:-0.973567 
1 1:-0.989779 2:-0.983713 
1 1:-0.986389 2:-0.973567 
1 1:-0.989779 2:-0.983713 
1 1:-0.986389 2:-0.973567 
1 1:-0.989779 2:-0.983713 
1 1:-0.986389 2:-0.973567 
1 1:-0.989779 2:-0.983713 
1 1:-0.986389 2:-0.973567 
1 1:-0.989779 2:-0.983713 
1 1:-0.986389 2:-0.973567 
1 1:-0.989779 2:-0.983713 
1 1:-0.986389 2:-0.973567 
1 1:-0.989779 2:-0.983713 
1 1:-0.986389 2:-0.973567 
1 1:-0.989779 2:-0.983713 
1 1:-0.986389 2:-0.973567 
1 1:-0.989779 2:-0.983713 
1 1:-0.986389 2:-0.973567 
1 1:-0.989779 2:-0.983713 
1 1:-0.986389 2:-0.973567 
1 1:-0.989779 2:-0.983713 
1 1:-0.986389 2:-0.973567 
1 1:-0.989779 2:-0.983713 
1 1:-0.986389 2:-0.973567 
1 1:-0.989779 2:-0.983713 
1 1:-0.986389 2:-0.973567 
1 1:-0.989779 2:-0.983713 
1 1:-0.986389 2:-0.973567 
1 1:-0.989779 2:-0.983713 
1 1:-0.986389 2:-0.973567 
1 1:-0.989779 2:-0.983713 
1 1:-0.986389 2:-0.973567 
1 1:-0.989779 2:-0.983713 
1 1:-0.986389 2:-0.973567 
1 1:-0.989779 2:-0.983713 
1 1:-0.986389 2:-0.973567 
1 1:-0.989779 2:-0.983713 
1 1:-0.986389 2:-0.973567 
1 1:-0.989779 2:-0.983713 
1 1:-0.986389 2:-0.973567 
1 1:-0.989779 2:-0.983713 
1 1:-0.986389 2:-0.973567 
1 1:-0.989779 2:-0.983713 
1 1:-0.986389 2:-0.973567 
1 1:-0.989779 2:-0.983713 
1 1:-0.986389 2:-0.973567 
1 1:-1 2:-0.960487 
1 1:-0.96327 2:-0.981326 
1 1:-1 2:-0.960487 
1 1:-0.96327 2:-0.981326 
1 1:-1 2:-0.960487 
1 1:-0.96327 2:-0.981326 
1 1:-1 2:-0.960487 
1 1:-0.96327 2:-0.981326 
1 1:-1 2:-0.960487 
1 1:-0.96327 2:-0.981326 
1 1:-1 2:-0.960487 
1 1:-0.96327 2:-0.981326 
1 1:-1 2:-0.960487 
1 1:-0.96327 2:-0.981326 
1 1:-1 2:-0.960487 
1 1:-0.96327 2:-0.981326 
1 1:-1 2:-0.960487 
1 1:-0.96327 2:-0.981326 
1 1:-1 2:-0.960487 
1 1:-0.96327 2:-0.981326 
1 1:-1 2:-0.960487 
1 1:-0.96327 2:-0.981326 
1 1:-1 2:-0.960487 
1 1:-0.96327 2:-0.981326 
1 1:-1 2:-0.960487 
1 1:-0.96327 2:-0.981326 
1 1:-1 2:-0.960487 
1 1:-0.96327 2:-0.981326 
1 1:-1 2:-0.960487 
1 1:-0.96327 2:-0.981326 
1 1:-1 2:-0.960487 
1 1:-0.96327 2:-0.981326 
1 1:-1 2:-0.960487 
1 1:-0.96327 2:-0.981326 
1 1:-1 2:-0.960487 
1 1:-0.96327 2:-0.981326 
1 1:-1 2:-0.960487 
1 1:-0.96327 2:-0.981326 
1 1:-1 2:-0.960487 
1 1:-0.96327 2:-0.981326 
1 1:-1 2:-0.960487 
1 1:-0.96327 2:-0.981326 
1 1:-1 2:-0.960487 
1 1:-0.96327 2:-0.981326 
1 1:-1 2:-0.960487 
1 1:-0.96327 2:-0.981326 
1 1:-1 2:-0.960487 
1 1:-0.96327 2:-0.981326 
1 1:-1 2:-0.960487 
1 1:-0.96327 2:-0.981326 
1 1:-1 2:-0.960487 
1 1:-0.96327 2:-0.981326 
1 1:-1 2:-0.960487 
1 1:-0.96327 2:-0.981326 
1 1:-1 2:-0.960487 
1 1:-0.96327 2:-0.981326 
1 1:-1 2:-0.960487 
1 1:-0.96327 2:-0.981326 
1 1:-1 2:-0.960487 
1 1:-0.96327 2:-0.981326 
1 1:-1 2:-0.960487 
1 1:-0.96327 2:-0.981326 
1 1:-1 2:-0.960487 
1 1:-0.96327 2:-0.981326 
1 1:-1 2:-0.960487 
1 1:-0.96327 2:-0.981326 
1 1:-1 2:-0.960487 
1 1:-0.96327 2:-0.981326 
1 1:-1 2:-0.960487 
1 1:-0.96327 2:-0.981326 
1 1:-1 2:-0.960487 
1 1:-0.96327 2:-0.981326 
1 1:-1 2:-0.960487 
1 1:-0.96327 2:-0.981326 
1 1:-1 2:-0.960487 
1 1:-0.96327 2:-0.981326 
1 1:-1 2:-0.960487 
1 1:-0.96327 2:-0.981326 
1 1:-1 2:-0.960487 
1 1:-0.96327 2:-0.981326 
1 1:-1 2:-0.960487 
1 1:-0.96327 2:-0.981326 
1 1:-1 2:-0.960487 
1 1:-0.96327 2:-0.981326 
1 1:-1 2:-0.960487 
1 1:-0.96327 2:-0.981326 
1 1:-1 2:-0.960487 
1 1:-0.96327 2:-0.981326 
1 1:-1 2:-0.960487 
1 1:-0.96327 2:-0.981326 
1 1:-1 2:-0.960487 
1 1:-0.96327 2:-0.981326 
1 1:-1 2:-0.960487 
1 1:-0.96327 2:-0.981326 
1 1:-1 2:-0.960487 
1 1:-0.96327 2:-0.981326 
1 1:-1 2:-0.960487 
1 1:-0.96327 2:-0.981326 
1 1:-1 2:-0.960487 
1 1:-0.96327 2:-0.981326 
1 1:-1 2:-0.960487 
1 1:-0.96327 2:-0.981326 
1 1:-1 2:-0.960487 
1 1:-0.96327 2:-0.981326 
1 1:-1 2:-0.960487 
1 1:-0.96327 2:-0.981326 
1 1:-1 2:-0.960487 
1 1:-0.96327 2:-0.981326 
1 1:-1 2:-0.960487 
1 1:-0.96327 2:-0.981326 
1 1:-1 2:-0.960487 
1 1:-0.96327 2:-0.981326 
1 1:-1 2:-0.960487 
1 1:-0.96327 2:-0.981326 
1 1:-1 2:-0.960487 
1 1:-0.96327 2:-0.981326 
1 1:-1 2:-0.960487 
1 1:-0.96327 2:-0.981326 
1 1:-1 2:-0.960487 
1 1:-0.96327 2:-0.981326 
1 1:-1 2:-0.960487 
1 1:-0.96327 2:-0.981326 
1 1:-1 2:-0.960487 
1 1:-0.96327 2:-0.981326 
1 1:-1 2:-0.960487 
1 1:-0.96327 2:-0.981326 
1 1:-1 2:-0.960487 
1 1:-0.96327 2:-0.981326 
1 1:-1 2:-0.960487 
1 1:-0.96327 2:-0.981326 
1 1:-1 2:-0.960487 
1 1:-0.96327 2:-0.981326 
1 1:-1 2:-0.960487 
1 1:-0.96327 2:-0.981326 
1 1:-1 2:-0.960487 
1 1:-0.96327 2:-0.981326 
1 1:-1 2:-0.960487 
1 1:-0.96327 2:-0.981326 
1 1:-1 2:-0.960487 
1 1:-0.96327 2:-0.981326 
1 1:-1 2:-0.960487 
1 1:-0.96327 2:-0.981326 
1 1:-1 2:-0.960487 
1 1:-0.96327 2:-0.981326 
1 1:-1 2:-0.960487 
1 1:-0.96327 2:-0.981326 
1 1:-1 2:-0.960487 
1 1:-0.96327 2:-0.981326 
1 1:-1 2:-0.960487 
1 1:-0.96327 2:-0.981326 
1 1:-1 2:-0.960487 
1 1:-0.96327 2:-0.981326 
1 1:-1 2:-0.960487 
1 1:-0.96327 2:-0.981326 
1 1:-1 2:-0.960487 
1 1:-0.96327 2:-0.981326 
1 1:-1 2:-0.960487 
1 1:-0.96327 2:-0.981326 
1 1:-1 2:-0.960487 
1 1:-0.96327 2:-0.981326 
1 1:-1 2:-0.960487 
1 1:-0.96327 2:-0.981326 
1 1:-1 2:-0.960487 
1 1:-0.96327 2:-0.981326 
1 1:-1 2:-0.960487 
1 1:-0.96327 2:-0.981326 
1 1:-1 2:-0.960487 
1 1:-0.96327 2:-0.981326 
1 1:-1 2:-0.960487 
1 1:-0.96327 2:-0.981326 
1 1:-1 2:-0.960487 
1 1:-0.96327 2:-0.981326 
1 1:-1 2:-0.960487 
1 1:-0.96327 2:-0.981326 
1 1:-1 2:-0.960487 
1 1:-0.96327 2:-0.981326 
1 1:-1 2:-0.960487 
1 1:-0.96327 2:-0.981326 
1 1:-1 2:-0.960487 
1 1:-0.96327 2:-0.981326 
1 1:-1 2:-0.960487 
1 1:-0.96327 2:-0.981326 
1 1:-1 2:-0.960487 
1 1:-0.96327 2:-0.981326 
1 1:-1 2:-0.960487 
1 1:-0.96327 2:-0.981326 
1 1:-1 2:-0.960487 
1 1:-0.96327 2:-0.981326 
1 1:-1 2:-0.960487 
1 1:-0.979136 2:-0.972382 
1 1:-0.989503 2:-0.969082 
1 1:-0.979136 2:-0.972382 
1 1:-0.989503 2:-0.969082 
1 1:-0.979136 2:-0.972382 
1 1:-0.989503 2:-0.969082 
1 1:-0.979136 2:-0.972382 
1 1:-0.989503 2:-0.969082 
1 1:-0.979136 2:-0.972382 
1 1:-0.989503 2:-0.969082 
1 1:-0.979136 2:-0.972382 
1 1:-0.989503 2:-0.969082 
1 1:-0.979136 2:-0.972382 
1 1:-0.989503 2:-0.969082 
1 1:-0.979136 2:-0.972382 
1 1:-0.989503 2:-0.969082 
1 1:-0.979136 2:-0.972382 
1 1:-0.989503 2:-0.969082 
1 1:-0.979136 2:-0.972382 
1 1:-0.989503 2:-0.969082 
1 1:-0.979136 2:-0.972382 
1 1:-0.989503 2:-0.969082 
1 1:-0.979136 2:-0.972382 
1 1:-0.989503 2:-0.969082 
1 1:-0.979136 2:-0.972382 
1 1:-0.989503 2:-0.969082 
1 1:-0.979136 2:-0.972382 
1 1:-0.989503 2:-0.969082 
1 1:-0.979136 2:-0.972382 
1 1:-0.989503 2:-0.969082 
1 1:-0.979136 2:-0.972382 
1 1:-0.989503 2:-0.969082 
1 1:-0.979136 2:-0.972382 
1 1:-0.989503 2:-0.969082 
1 1:-0.979136 2:-0.972382 
1 1:-0.989503 2:-0.969082 
1 1:-0.979136 2:-0.972382 
1 1:-0.989503 2:-0.969082 
1 1:-0.979136 2:-0.972382 
1 1:-0.989503 2:-0.969082 
1 1:-0.979136 2:-0.972382 
1 1:-0.989503 2:-0.969082 
1 1:-0.979136 2:-0.972382 
1 1:-0.989503 2:-0.969082 
1 1:-0.979136 2:-0.972382 
1 1:-0.989503 2:-0.969082 
1 1:-0.979136 2:-0.972382 
1 1:-0.989503 2:-0.969082 
1 1:-0.979136 2:-0.972382 
1 1:-0.989503 2:-0.969082 
1 1:-0.979136 2:-0.972382 
1 1:-0.989503 2:-0.969082 
1 1:-0.979136 2:-0.972382 
1 1:-0.989503 2:-0.969082 
1 1:-0.979136 2:-0.972382 
1 1:-0.989503 2:-0.969082 
1 1:-0.979136 2:-0.972382 
1 1:-0.989503 2:-0.969082 
1 1:-0.979136 2:-0.972382 
1 1:-0.989503 2:-0.969082 
1 1:-0.979136 2:-0.972382 
1 1:-0.989503 2:-0.969082 
1 1:-0.979136 2:-0.972382 
1 1:-0.989503 2:-0.969082 
1 1:-0.979136 2:-0.972382 
1 1:-0.989503 2:-0.969082 
1 1:-0.979136 2:-0.972382 
1 1:-0.989503 2:-0.969082 
1 1:-0.979136 2:-0.972382 
1 1:-0.989503 2:-0.969082 
1 1:-0.979136 2:-0.972382 
1 1:-0.989503 2:-0.969082 
1 1:-0.979136 2:-0.972382 
1 1:-0.989503 2:-0.969082 
1 1:-0.979136 2:-0.972382 
1 1:-0.989503 2:-0.969082 
1 1:-0.979136 2:-0.972382 
1 1:-0.989503 2:-0.969082 
1 1:-0.979136 2:-0.972382 
1 1:-0.989503 2:-0.969082 
1 1:-0.979136 2:-0.972382 
1 1:-0.989503 2:-0.969082 
1 1:-0.979136 2:-0.972382 
1 1:-0.989503 2:-0.969082 
1 1:-0.979136 2:-0.972382 
1 1:-0.989503 2:-0.969082 
1 1:-0.979136 2:-0.972382 
1 1:-0.989503 2:-0.969082 
1 1:-0.979136 2:-0.972382 
1 1:-0.989503 2:-0.969082 
1 1:-0.979136 2:-0.972382 
1 1:-0.989503 2:-0.969082 
1 1:-0.979136 2:-0.972382 
1 1:-0.989503 2:-0.969082 
1 1:-0.979136 2:-0.972382 
1 1:-0.989503 2:-0.969082 
1 1:-0.979136 2:-0.972382 
1 1:-0.989503 2:-0.969082 
1 1:-0.979136 2:-0.972382 
1 1:-0.989503 2:-0.969082 
1 1:-0.979136 2:-0.972382 
1 1:-0.989503 2:-0.969082 
1 1:-0.979136 2:-0.972382 
1 1:-0.989503 2:-0.969082 
1 1:-0.979136 2:-0.972382 
1 1:-0.989503 2:-0.969082 
1 1:-0.979136 2:-0.972382 
1 1:-0.989503 2:-0.969082 
1 1:-0.979136 2:-0.972382 
1 1:-0.989503 2:-0.969082 
1 1:-0.979136 2:-0.972382 
1 1:-0.989503 2:-0.969082 
1 1:-0.979136 2:-0.972382 
1 1:-0.989503 2:-0.969082 
1 1:-0.979136 2:-0.972382 
1 1:-0.989503 2:-0.969082 
1 1:-0.979136 2:-0.972382 
1 1:-0.989503 2:-0.969082 
1 1:-0.979136 2:-0.972382 
1 1:-0.989503 2:-0.969082 
1 1:-0.979136 2:-0.972382 
1 1:-0.989503 2:-0.969082 
1 1:-0.979136 2:-0.972382 
1 1:-0.989503 2:-0.969082 
1 1:-0.979136 2:-0.972382 
1 1:-0.989503 2:-0.969082 
1 1:-0.979136 2:-0.972382 
1 1:-0.989503 2:-0.969082 
1 1:-0.979136 2:-0.972382 
1 1:-0.989503 2:-0.969082 
1 1:-0.979136 2:-0.972382 
1 1:-0.989503 2:-0.969082 
1 1:-0.979136 2:-0.972382 
1 1:-0.989503 2:-0.969082 
1 1:-0.979136 2:-0.972382 
1 1:-0.989503 2:-0.969082 
1 1:-0.979136 2:-0.972382 
1 1:-0.989503 2:-0.969082 
1 1:-0.979136 2:-0.972382 
1 1:-0.989503 2:-0.969082 
1 1:-0.979136 2:-0.972382 
1 1:-0.989503 2:-0.969082 
1 1:-0.979136 2:-0.972382 
1 1:-0.989503 2:-0.969082 
1 1:-0.979136 2:-0.972382 
1 1:-0.989503 2:-0.969082 
1 1:-0.979136 2:-0.972382 
1 1:-0.989503 2:-0.969082 
1 1:-0.979136 2:-0.972382 
1 1:-0.989503 2:-0.969082 
1 1:-0.979136 2:-0.972382 
1 1:-0.989503 2:-0.969082 
1 1:-0.979136 2:-0.972382 
1 1:-0.989503 2:-0.969082 
1 1:-0.979136 2:-0.972382 
1 1:-0.989503 2:-0.969082 
1 1:-0.979136 2:-0.972382 
1 1:-0.989503 2:-0.969082 
1 1:-0.979136 2:-0.972382 
1 1:-0.989503 2:-0.969082 
1 1:-0.979136 2:-0.972382 
1 1:-0.989503 2:-0.969082 
1 1:-0.979136 2:-0.972382 
1 1:-0.989503 2:-0.969082 
1 1:-0.979136 2:-0.972382 
1 1:-0.989503 2:-0.969082 
1 1:-0.979136 2:-0.972382 
1 1:-0.989503 2:-0.969082 
1 1:-0.979136 2:-0.972382 
1 1:-0.989503 2:-0.969082 
1 1:-0.979136 2:-0.972382 
1 1:-0.989503 2:-0.969082 
1 1:-0.979136 2:-0.972382 
1 1:-0.989503 2:-0.969082 
1 1:-0.979136 2:-0.972382 
1 1:-0.989503 2:-0.969082 
1 1:-0.979136 2:-0.972382 
1 1:-0.989503 2:-0.969082 
1 1:-0.979136 2:-0.972382 
1 1:-0.989503 2:-0.969082 
1 1:-0.979136 2:-0.972382 
1 1:-0.989503 2:-0.969082 
1 1:-0.979136 2:-0.972382 
1 1:-0.989503 2:-0.969082 
1 1:-0.979136 2:-0.972382 
1 1:-0.989503 2:-0.969082 
1 1:-0.979136 2:-0.972382 
1 1:-0.989503 2:-0.969082 
1 1:-0.979136 2:-0.972382 
1 1:-0.989503 2:-0.969082 
1 1:-0.979136 2:-0.972382 
1 1:-0.683076 2:0.463907 
1 1:-0.683076 2:0.463907 
1 1:-0.683076 2:0.463907 
1 1:-0.683076 2:0.463907 
1 1:-0.683076 2:0.463907 
1 1:-0.683076 2:0.463907 
1 1:-0.683076 2:0.463907 
1 1:-0.683076 2:0.463907 
1 1:-0.683076 2:0.463907 
1 1:-0.683076 2:0.463907 
1 1:-0.683076 2:0.463907 
1 1:-0.683076 2:0.463907 
1 1:-0.683076 2:0.463907 
1 1:-0.683076 2:0.463907 
1 1:-0.683076 2:0.463907 
1 1:-0.683076 2:0.463907 
1 1:-0.683076 2:0.463907 
1 1:-0.683076 2:0.463907 
1 1:-0.683076 2:0.463907 
1 1:-0.683076 2:0.463907 
1 1:-0.683076 2:0.463907 
1 1:-0.683076 2:0.463907 
1 1:-0.683076 2:0.463907 
1 1:-0.683076 2:0.463907 
1 1:-0.683076 2:0.463907 
1 1:-0.683076 2:0.463907 
1 1:-0.683076 2:0.463907 
1 1:-0.683076 2:0.463907 
1 1:-0.683076 2:0.463907 
1 1:-0.683076 2:0.463907 
1 1:-0.683076 2:0.463907 
1 1:-0.683076 2:0.463907 
1 1:-0.683076 2:0.463907 
1 1:-0.683076 2:0.463907 
1 1:-0.683076 2:0.463907 
1 1:-0.683076 2:0.463907 
1 1:-0.683076 2:0.463907 
1 1:-0.683076 2:0.463907 
1 1:-0.683076 2:0.463907 
1 1:-0.683076 2:0.463907 
1 1:-0.683076 2:0.463907 
1 1:-0.683076 2:0.463907 
1 1:-0.683076 2:0.463907 
1 1:-0.683076 2:0.463907 
1 1:-0.683076 2:0.463907 
1 1:-0.683076 2:0.463907 
1 1:-0.683076 2:0.463907 
1 1:-0.683076 2:0.463907 
1 1:-0.683076 2:0.463907 
1 1:-0.683076 2:0.463907 
1 1:-0.683076 2:0.463907 
1 1:-0.683076 2:0.463907 
1 1:-0.683076 2:0.463907 
1 1:-0.683076 2:0.463907 
1 1:-0.683076 2:0.463907 
1 1:-0.683076 2:0.463907 
1 1:-0.683076 2:0.463907 
1 1:-0.683076 2:0.463907 
1 1:-0.683076 2:0.463907 
1 1:-0.683076 2:0.463907 
1 1:-0.683076 2:0.463907 
1 1:-0.683076 2:0.463907 
1 1:-0.683076 2:0.463907 
1 1:-0.683076 2:0.463907 
1 1:-0.683076 2:0.463907 
1 1:-0.683076 2:0.463907 
1 1:-0.683076 2:0.463907 
1 1:-0.683076 2:0.463907 
1 1:-0.683076 2:0.463907 
1 1:-0.683076 2:0.463907 
1 1:-0.683076 2:0.463907 
1 1:-0.683076 2:0.463907 
1 1:-0.683076 2:0.463907 
1 1:-0.683076 2:0.463907 
1 1:-0.683076 2:0.463907 
1 1:-0.683076 2:0.463907 
1 1:-0.683076 2:0.463907 
1 1:-0.683076 2:0.463907 
1 1:-0.683076 2:0.463907 
1 1:-0.683076 2:0.463907 
1 1:-0.683076 2:0.463907 
1 1:-0.683076 2:0.463907 
1 1:-0.683076 2:0.463907 
1 1:-0.683076 2:0.463907 
1 1:-0.683076 2:0.463907 
1 1:-0.683076 2:0.463907 
1 1:-0.683076 2:0.463907 
1 1:-0.683076 2:0.463907 
1 1:-0.683076 2:0.463907 
1 1:-0.683076 2:0.463907 
1 1:-0.683076 2:0.463907 
1 1:-0.683076 2:0.463907 
1 1:-0.683076 2:0.463907 
1 1:-0.683076 2:0.463907 
1 1:-0.683076 2:0.463907 
1 1:-0.683076 2:0.463907 
1 1:-0.989037 2:-0.973555 
1 1:-0.989037 2:-0.973555 
1 1:-0.989037 2:-0.973555 
1 1:-0.989037 2:-0.973555 
1 1:-0.989037 2:-0.973555 
1 1:-0.989037 2:-0.973555 
1 1:-0.989037 2:-0.973555 
1 1:-0.989037 2:-0.973555 
1 1:-0.989037 2:-0.973555 
1 1:-0.989037 2:-0.973555 
1 1:-0.989037 2:-0.973555 
1 1:-0.989037 2:-0.973555 
1 1:-0.989037 2:-0.973555 
1 1:-0.989037 2:-0.973555 
1 1:-0.989037 2:-0.973555 
1 1:-0.989037 2:-0.973555 
1 1:-0.989037 2:-0.973555 
1 1:-0.989037 2:-0.973555 
1 1:-0.989037 2:-0.973555 
1 1:-0.989037 2:-0.973555 
1 1:-0.989037 2:-0.973555 
1 1:-0.989037 2:-0.973555 
1 1:-0.989037 2:-0.973555 
1 1:-0.989037 2:-0.973555 
1 1:-0.989037 2:-0.973555 
1 1:-0.989037 2:-0.973555 
1 1:-0.989037 2:-0.973555 
1 1:-0.989037 2:-0.973555 
1 1:-0.989037 2:-0.973555 
1 1:-0.989037 2:-0.973555 
1 1:-0.989037 2:-0.973555 
1 1:-0.989037 2:-0.973555 
1 1:-0.989037 2:-0.973555 
1 1:-0.989037 2:-0.973555 
1 1:-0.989037 2:-0.973555 
1 1:-0.989037 2:-0.973555 
1 1:-0.989037 2:-0.973555 
1 1:-0.989037 2:-0.973555 
1 1:-0.989037 2:-0.973555 
1 1:-0.989037 2:-0.973555 
1 1:-0.989037 2:-0.973555 
1 1:-0.989037 2:-0.973555 
1 1:-0.989037 2:-0.973555 
1 1:-0.989037 2:-0.973555 
1 1:-0.989037 2:-0.973555 
1 1:-0.989037 2:-0.973555 
1 1:-0.989037 2:-0.973555 
1 1:-0.989037 2:-0.973555 
1 1:-0.989037 2:-0.973555 
1 1:-0.989037 2:-0.973555 
1 1:-0.989037 2:-0.973555 
1 1:-0.989037 2:-0.973555 
1 1:-0.989037 2:-0.973555 
1 1:-0.989037 2:-0.973555 
1 1:-0.989037 2:-0.973555 
1 1:-0.989037 2:-0.973555 
1 1:-0.989037 2:-0.973555 
1 1:-0.989037 2:-0.973555 
1 1:-0.989037 2:-0.973555 
1 1:-0.989037 2:-0.973555 
1 1:-0.989037 2:-0.973555 
1 1:-0.989037 2:-0.973555 
1 1:-0.989037 2:-0.973555 
1 1:-0.989037 2:-0.973555 
1 1:-0.989037 2:-0.973555 
1 1:-0.989037 2:-0.973555 
1 1:-0.989037 2:-0.973555 
1 1:-0.989037 2:-0.973555 
1 1:-0.989037 2:-0.973555 
1 1:-0.989037 2:-0.973555 
1 1:-0.989037 2:-0.973555 
1 1:-0.989037 2:-0.973555 
1 1:-0.989037 2:-0.973555 
1 1:-0.989037 2:-0.973555 
1 1:-0.989037 2:-0.973555 
1 1:-0.989037 2:-0.973555 
1 1:-0.989037 2:-0.973555 
1 1:-0.989037 2:-0.973555 
1 1:-0.989037 2:-0.973555 
1 1:-0.989037 2:-0.973555 
1 1:-0.989037 2:-0.973555 
1 1:-0.989037 2:-0.973555 
1 1:-0.989037 2:-0.973555 
1 1:-0.989037 2:-0.973555 
1 1:-0.989037 2:-0.973555 
1 1:-0.989037 2:-0.973555 
1 1:-0.989037 2:-0.973555 
1 1:-0.989037 2:-0.973555 
1 1:-0.989037 2:-0.973555 
1 1:-0.989037 2:-0.973555 
1 1:-0.989037 2:-0.973555 
1 1:-0.989037 2:-0.973555 
1 1:-0.989037 2:-0.973555 
1 1:-0.989037 2:-0.973555 
1 1:-0.983806 2:-0.951496 
1 1:-0.983806 2:-0.951496 
1 1:-0.983806 2:-0.951496 
1 1:-0.983806 2:-0.951496 
1 1:-0.983806 2:-0.951496 
1 1:-0.983806 2:-0.951496 
1 1:-0.983806 2:-0.951496 
1 1:-0.983806 2:-0.951496 
1 1:-0.983806 2:-0.951496 
1 1:-0.983806 2:-0.951496 
1 1:-0.983806 2:-0.951496 
1 1:-0.983806 2:-0.951496 
1 1:-0.983806 2:-0.951496 
1 1:-0.983806 2:-0.951496 
1 1:-0.983806 2:-0.951496 
1 1:-0.983806 2:-0.951496 
1 1:-0.983806 2:-0.951496 
1 1:-0.983806 2:-0.951496 
1 1:-0.983806 2:-0.951496 
1 1:-0.983806 2:-0.951496 
1 1:-0.983806 2:-0.951496 
1 1:-0.983806 2:-0.951496 
1 1:-0.983806 2:-0.951496 
1 1:-0.983806 2:-0.951496 
1 1:-0.983806 2:-0.951496 
1 1:-0.983806 2:-0.951496 
1 1:-0.983806 2:-0.951496 
1 1:-0.983806 2:-0.951496 
1 1:-0.983806 2:-0.951496 
1 1:-0.983806 2:-0.951496 
1 1:-0.983806 2:-0.951496 
1 1:-0.983806 2:-0.951496 
1 1:-0.983806 2:-0.951496 
1 1:-0.983806 2:-0.951496 
1 1:-0.983806 2:-0.951496 
1 1:-0.983806 2:-0.951496 
1 1:-0.983806 2:-0.951496 
1 1:-0.983806 2:-0.951496 
1 1:-0.983806 2:-0.951496 
1 1:-0.983806 2:-0.951496 
1 1:-0.983806 2:-0.951496 
1 1:-0.983806 2:-0.951496 
1 1:-0.983806 2:-0.951496 
1 1:-0.983806 2:-0.951496 
1 1:-0.983806 2:-0.951496 
1 1:-0.983806 2:-0.951496 
1 1:-0.983806 2:-0.951496 
1 1:-0.983806 2:-0.951496 
1 1:-0.983806 2:-0.951496 
1 1:-0.983806 2:-0.951496 
1 1:-0.983806 2:-0.951496 
1 1:-0.983806 2:-0.951496 
1 1:-0.983806 2:-0.951496 
1 1:-0.983806 2:-0.951496 
1 1:-0.983806 2:-0.951496 
1 1:-0.983806 2:-0.951496 
1 1:-0.983806 2:-0.951496 
1 1:-0.983806 2:-0.951496 
1 1:-0.983806 2:-0.951496 
1 1:-0.983806 2:-0.951496 
1 1:-0.983806 2:-0.951496 
1 1:-0.983806 2:-0.951496 
1 1:-0.983806 2:-0.951496 
1 1:-0.983806 2:-0.951496 
1 1:-0.983806 2:-0.951496 
1 1:-0.983806 2:-0.951496 
1 1:-0.983806 2:-0.951496 
1 1:-0.983806 2:-0.951496 
1 1:-0.983806 2:-0.951496 
1 1:-0.983806 2:-0.951496 
1 1:-0.983806 2:-0.951496 
1 1:-0.983806 2:-0.951496 
1 1:-0.983806 2:-0.951496 
1 1:-0.983806 2:-0.951496 
1 1:-0.983806 2:-0.951496 
1 1:-0.983806 2:-0.951496 
1 1:-0.983806 2:-0.951496 
1 1:-0.983806 2:-0.951496 
1 1:-0.983806 2:-0.951496 
1 1:-0.983806 2:-0.951496 
1 1:-0.983806 2:-0.951496 
1 1:-0.983806 2:-0.951496 
1 1:-0.983806 2:-0.951496 
1 1:-0.983806 2:-0.951496 
1 1:-0.983806 2:-0.951496 
1 1:-0.983806 2:-0.951496 
1 1:-0.983806 2:-0.951496 
1 1:-0.983806 2:-0.951496 
1 1:-0.983806 2:-0.951496 
1 1:-0.983806 2:-0.951496 
1 1:-0.983806 2:-0.951496 
1 1:-0.983806 2:-0.951496 
1 1:-0.959646 2:-0.96467 
1 1:-0.959646 2:-0.96467 
1 1:-0.959646 2:-0.96467 
1 1:-0.959646 2:-0.96467 
1 1:-0.959646 2:-0.96467 
1 1:-0.959646 2:-0.96467 
1 1:-0.959646 2:-0.96467 
1 1:-0.959646 2:-0.96467 
1 1:-0.959646 2:-0.96467 
1 1:-0.959646 2:-0.96467 
1 1:-0.959646 2:-0.96467 
1 1:-0.959646 2:-0.96467 
1 1:-0.959646 2:-0.96467 
1 1:-0.959646 2:-0.96467 
1 1:-0.959646 2:-0.96467 
1 1:-0.959646 2:-0.96467 
1 1:-0.959646 2:-0.96467 
1 1:-0.959646 2:-0.96467 
1 1:-0.959646 2:-0.96467 
1 1:-0.959646 2:-0.96467 
1 1:-0.959646 2:-0.96467 
1 1:-0.959646 2:-0.96467 
1 1:-0.959646 2:-0.96467 
1 1:-0.959646 2:-0.96467 
1 1:-0.959646 2:-0.96467 
1 1:-0.959646 2:-0.96467 
1 1:-0.959646 2:-0.96467 
1 1:-0.959646 2:-0.96467 
1 1:-0.959646 2:-0.96467 
1 1:-0.959646 2:-0.96467 
1 1:-0.959646 2:-0.96467 
1 1:-0.959646 2:-0.96467 
1 1:-0.959646 2:-0.96467 
1 1:-0.959646 2:-0.96467 
1 1:-0.959646 2:-0.96467 
1 1:-0.959646 2:-0.96467 
1 1:-0.959646 2:-0.96467 
1 1:-0.959646 2:-0.96467 
1 1:-0.959646 2:-0.96467 
1 1:-0.959646 2:-0.96467 
1 1:-0.959646 2:-0.96467 
1 1:-0.959646 2:-0.96467 
1 1:-0.959646 2:-0.96467 
1 1:-0.959646 2:-0.96467 
1 1:-0.959646 2:-0.96467 
1 1:-0.959646 2:-0.96467 
1 1:-0.959646 2:-0.96467 
1 1:-0.959646 2:-0.96467 
1 1:-0.959646 2:-0.96467 
1 1:-0.959646 2:-0.96467 
1 1:-0.959646 2:-0.96467 
1 1:-0.959646 2:-0.96467 
1 1:-0.959646 2:-0.96467 
1 1:-0.959646 2:-0.96467 
1 1:-0.959646 2:-0.96467 
1 1:-0.959646 2:-0.96467 
1 1:-0.959646 2:-0.96467 
1 1:-0.959646 2:-0.96467 
1 1:-0.959646 2:-0.96467 
1 1:-0.959646 2:-0.96467 
1 1:-0.959646 2:-0.96467 
1 1:-0.959646 2:-0.96467 
1 1:-0.959646 2:-0.96467 
1 1:-0.959646 2:-0.96467 
1 1:-0.959646 2:-0.96467 
1 1:-0.959646 2:-0.96467 
1 1:-0.959646 2:-0.96467 
1 1:-0.959646 2:-0.96467 
1 1:-0.959646 2:-0.96467 
1 1:-0.959646 2:-0.96467 
1 1:-0.959646 2:-0.96467 
1 1:-0.959646 2:-0.96467 
1 1:-0.959646 2:-0.96467 
1 1:-0.959646 2:-0.96467 
1 1:-0.959646 2:-0.96467 
1 1:-0.959646 2:-0.96467 
1 1:-0.959646 2:-0.96467 
1 1:-0.959646 2:-0.96467 
1 1:-0.959646 2:-0.96467 
1 1:-0.959646 2:-0.96467 
1 1:-0.959646 2:-0.96467 
1 1:-0.959646 2:-0.96467 
1 1:-0.959646 2:-0.96467 
1 1:-0.959646 2:-0.96467 
1 1:-0.959646 2:-0.96467 
1 1:-0.959646 2:-0.96467 
1 1:-0.959646 2:-0.96467 
1 1:-0.959646 2:-0.96467 
1 1:-0.959646 2:-0.96467 
1 1:-0.959646 2:-0.96467 
1 1:-0.959646 2:-0.96467 
1 1:-0.959646 2:-0.96467 
1 1:-0.959646 2:-0.96467 
1 1:-0.959646 2:-0.96467 
1 1:-0.959646 2:-0.96467 
1 1:-0.959646 2:-0.96467 
1 1:-0.959646 2:-0.96467 
1 1:-0.495877 2:0.372187 
1 1:-0.495877 2:0.372187 
1 1:-0.495877 2:0.372187 
1 1:-0.495877 2:0.372187 
1 1:-0.495877 2:0.372187 
1 1:-0.495877 2:0.372187 
1 1:-0.495877 2:0.372187 
1 1:-0.495877 2:0.372187 
1 1:-0.495877 2:0.372187 
1 1:-0.495877 2:0.372187 
1 1:-0.495877 2:0.372187 
1 1:-0.495877 2:0.372187 
1 1:-0.495877 2:0.372187 
1 1:-0.495877 2:0.372187 
1 1:-0.495877 2:0.372187 
1 1:-0.495877 2:0.372187 
1 1:-0.495877 2:0.372187 
1 1:-0.495877 2:0.372187 
1 1:-0.495877 2:0.372187 
1 1:-0.495877 2:0.372187 
1 1:-0.495877 2:0.372187 
1 1:-0.495877 2:0.372187 
1 1:-0.495877 2:0.372187 
1 1:-0.495877 2:0.372187 
1 1:-0.495877 2:0.372187 
1 1:-0.495877 2:0.372187 
1 1:-0.495877 2:0.372187 
1 1:-0.495877 2:0.372187 
1 1:-0.495877 2:0.372187 
1 1:-0.495877 2:0.372187 
1 1:-0.495877 2:0.372187 
1 1:-0.495877 2:0.372187 
1 1:-0.495877 2:0.372187 
1 1:-0.495877 2:0.372187 
1 1:-0.495877 2:0.372187 
1 1:-0.495877 2:0.372187 
1 1:-0.495877 2:0.372187 
1 1:-0.495877 2:0.372187 
1 1:-0.495877 2:0.372187 
1 1:-0.495877 2:0.372187 
1 1:-0.495877 2:0.372187 
1 1:-0.495877 2:0.372187 
1 1:-0.495877 2:0.372187 
1 1:-0.495877 2:0.372187 
1 1:-0.495877 2:0.372187 
1 1:-0.495877 2:0.372187 
1 1:-0.495877 2:0.372187 
1 1:-0.495877 2:0.372187 
1 1:-0.495877 2:0.372187 
1 1:-0.495877 2:0.372187 
1 1:-0.495877 2:0.372187 
1 1:-0.495877 2:0.372187 
1 1:-0.495877 2:0.372187 
1 1:-0.495877 2:0.372187 
1 1:-0.495877 2:0.372187 
1 1:-0.495877 2:0.372187 
1 1:-0.495877 2:0.372187 
1 1:-0.495877 2:0.372187 
1 1:-0.495877 2:0.372187 
1 1:-0.495877 2:0.372187 
1 1:-0.495877 2:0.372187 
1 1:-0.495877 2:0.372187 
1 1:-0.495877 2:0.372187 
1 1:-0.495877 2:0.372187 
1 1:-0.495877 2:0.372187 
1 1:-0.495877 2:0.372187 
1 1:-0.495877 2:0.372187 
1 1:-0.495877 2:0.372187 
1 1:-0.495877 2:0.372187 
1 1:-0.495877 2:0.372187 
1 1:-0.495877 2:0.372187 
1 1:-0.495877 2:0.372187 
1 1:-0.495877 2:0.372187 
1 1:-0.495877 2:0.372187 
1 1:-0.495877 2:0.372187 
1 1:-0.495877 2:0.372187 
1 1:-0.495877 2:0.372187 
1 1:-0.495877 2:0.372187 
1 1:-0.495877 2:0.372187 
1 1:-0.495877 2:0.372187 
1 1:-0.495877 2:0.372187 
1 1:-0.495877 2:0.372187 
1 1:-0.495877 2:0.372187 
1 1:-0.495877 2:0.372187 
1 1:-0.495877 2:0.372187 
1 1:-0.495877 2:0.372187 
1 1:-0.495877 2:0.372187 
1 1:-0.495877 2:0.372187 
1 1:-0.495877 2:0.372187 
1 1:-0.495877 2:0.372187 
1 1:-0.495877 2:0.372187 
1 1:-0.495877 2:0.372187 
1 1:-0.495877 2:0.372187 
1 1:-0.495877 2:0.372187 
1 1:-0.495877 2:0.372187 
1 1:-0.495877 2:0.372187 
1 1:-0.697076 2:0.175578 
1 1:-0.697076 2:0.175578 
1 1:-0.697076 2:0.175578 
1 1:-0.697076 2:0.175578 
1 1:-0.697076 2:0.175578 
1 1:-0.697076 2:0.175578 
1 1:-0.697076 2:0.175578 
1 1:-0.697076 2:0.175578 
1 1:-0.697076 2:0.175578 
1 1:-0.697076 2:0.175578 
1 1:-0.697076 2:0.175578 
1 1:-0.697076 2:0.175578 
1 1:-0.697076 2:0.175578 
1 1:-0.697076 2:0.175578 
1 1:-0.697076 2:0.175578 
1 1:-0.697076 2:0.175578 
1 1:-0.697076 2:0.175578 
1 1:-0.697076 2:0.175578 
1 1:-0.697076 2:0.175578 
1 1:-0.697076 2:0.175578 
1 1:-0.697076 2:0.175578 
1 1:-0.697076 2:0.175578 
1 1:-0.697076 2:0.175578 
1 1:-0.697076 2:0.175578 
1 1:-0.697076 2:0.175578 
1 1:-0.697076 2:0.175578 
1 1:-0.697076 2:0.175578 
1 1:-0.697076 2:0.175578 
1 1:-0.697076 2:0.175578 
1 1:-0.697076 2:0.175578 
1 1:-0.697076 2:0.175578 
1 1:-0.697076 2:0.175578 
1 1:-0.697076 2:0.175578 
1 1:-0.697076 2:0.175578 
1 1:-0.697076 2:0.175578 
1 1:-0.697076 2:0.175578 
1 1:-0.697076 2:0.175578 
1 1:-0.697076 2:0.175578 
1 1:-0.697076 2:0.175578 
1 1:-0.697076 2:0.175578 
1 1:-0.697076 2:0.175578 
1 1:-0.697076 2:0.175578 
1 1:-0.697076 2:0.175578 
1 1:-0.697076 2:0.175578 
1 1:-0.697076 2:0.175578 
1 1:-0.697076 2:0.175578 
1 1:-0.697076 2:0.175578 
1 1:-0.697076 2:0.175578 
1 1:-0.697076 2:0.175578 
1 1:-0.697076 2:0.175578 
1 1:-0.697076 2:0.175578 
1 1:-0.697076 2:0.175578 
1 1:-0.697076 2:0.175578 
1 1:-0.697076 2:0.175578 
1 1:-0.697076 2:0.175578 
1 1:-0.697076 2:0.175578 
1 1:-0.697076 2:0.175578 
1 1:-0.697076 2:0.175578 
1 1:-0.697076 2:0.175578 
1 1:-0.697076 2:0.175578 
1 1:-0.697076 2:0.175578 
1 1:-0.697076 2:0.175578 
1 1:-0.697076 2:0.175578 
1 1:-0.697076 2:0.175578 
1 1:-0.697076 2:0.175578 
1 1:-0.697076 2:0.175578 
1 1:-0.697076 2:0.175578 
1 1:-0.697076 2:0.175578 
1 1:-0.697076 2:0.175578 
1 1:-0.697076 2:0.175578 
1 1:-0.697076 2:0.175578 
1 1:-0.697076 2:0.175578 
1 1:-0.697076 2:0.175578 
1 1:-0.697076 2:0.175578 
1 1:-0.697076 2:0.175578 
1 1:-0.697076 2:0.175578 
1 1:-0.697076 2:0.175578 
1 1:-0.697076 2:0.175578 
1 1:-0.697076 2:0.175578 
1 1:-0.697076 2:0.175578 
1 1:-0.697076 2:0.175578 
1 1:-0.697076 2:0.175578 
1 1:-0.697076 2:0.175578 
1 1:-0.697076 2:0.175578 
1 1:-0.697076 2:0.175578 
1 1:-0.697076 2:0.175578 
1 1:-0.697076 2:0.175578 
1 1:-0.697076 2:0.175578 
1 1:-0.697076 2:0.175578 
1 1:-0.697076 2:0.175578 
1 1:-0.697076 2:0.175578 
1 1:-0.697076 2:0.175578 
1 1:-0.966308 2:-0.97292 
1 1:-0.966308 2:-0.97292 
1 1:-0.966308 2:-0.97292 
1 1:-0.966308 2:-0.97292 
1 1:-0.966308 2:-0.97292 
1 1:-0.966308 2:-0.97292 
1 1:-0.966308 2:-0.97292 
1 1:-0.966308 2:-0.97292 
1 1:-0.966308 2:-0.97292 
1 1:-0.966308 2:-0.97292 
1 1:-0.966308 2:-0.97292 
1 1:-0.966308 2:-0.97292 
1 1:-0.966308 2:-0.97292 
1 1:-0.966308 2:-0.97292 
1 1:-0.966308 2:-0.97292 
1 1:-0.966308 2:-0.97292 
1 1:-0.966308 2:-0.97292 
1 1:-0.966308 2:-0.97292 
1 1:-0.966308 2:-0.97292 
1 1:-0.966308 2:-0.97292 
1 1:-0.966308 2:-0.97292 
1 1:-0.966308 2:-0.97292 
1 1:-0.966308 2:-0.97292 
1 1:-0.966308 2:-0.97292 
1 1:-0.966308 2:-0.97292 
1 1:-0.966308 2:-0.97292 
1 1:-0.966308 2:-0.97292 
1 1:-0.966308 2:-0.97292 
1 1:-0.966308 2:-0.97292 
1 1:-0.966308 2:-0.97292 
1 1:-0.966308 2:-0.97292 
1 1:-0.966308 2:-0.97292 
1 1:-0.966308 2:-0.97292 
1 1:-0.966308 2:-0.97292 
1 1:-0.966308 2:-0.97292 
1 1:-0.966308 2:-0.97292 
1 1:-0.966308 2:-0.97292 
1 1:-0.966308 2:-0.97292 
1 1:-0.966308 2:-0.97292 
1 1:-0.966308 2:-0.97292 
1 1:-0.966308 2:-0.97292 
1 1:-0.966308 2:-0.97292 
1 1:-0.966308 2:-0.97292 
1 1:-0.966308 2:-0.97292 
1 1:-0.966308 2:-0.97292 
1 1:-0.966308 2:-0.97292 
1 1:-0.966308 2:-0.97292 
1 1:-0.966308 2:-0.97292 
1 1:-0.966308 2:-0.97292 
1 1:-0.966308 2:-0.97292 
1 1:-0.966308 2:-0.97292 
1 1:-0.966308 2:-0.97292 
1 1:-0.966308 2:-0.97292 
1 1:-0.966308 2:-0.97292 
1 1:-0.966308 2:-0.97292 
1 1:-0.966308 2:-0.97292 
1 1:-0.966308 2:-0.97292 
1 1:-0.966308 2:-0.97292 
1 1:-0.966308 2:-0.97292 
1 1:-0.966308 2:-0.97292 
1 1:-0.966308 2:-0.97292 
1 1:-0.966308 2:-0.97292 
1 1:-0.966308 2:-0.97292 
1 1:-0.966308 2:-0.97292 
1 1:-0.966308 2:-0.97292 
1 1:-0.966308 2:-0.97292 
1 1:-0.966308 2:-0.97292 
1 1:-0.966308 2:-0.97292 
1 1:-0.966308 2:-0.97292 
1 1:-0.966308 2:-0.97292 
1 1:-0.966308 2:-0.97292 
1 1:-0.966308 2:-0.97292 
1 1:-0.966308 2:-0.97292 
1 1:-0.966308 2:-0.97292 
1 1:-0.966308 2:-0.97292 
1 1:-0.966308 2:-0.97292 
1 1:-0.966308 2:-0.97292 
1 1:-0.966308 2:-0.97292 
1 1:-0.966308 2:-0.97292 
1 1:-0.966308 2:-0.97292 
1 1:-0.966308 2:-0.97292 
1 1:-0.966308 2:-0.97292 
1 1:-0.966308 2:-0.97292 
1 1:-0.966308 2:-0.97292 
1 1:-0.966308 2:-0.97292 
1 1:-0.966308 2:-0.97292 
1 1:-0.966308 2:-0.97292 
1 1:-0.966308 2:-0.97292 
1 1:-0.966308 2:-0.97292 
1 1:-0.966308 2:-0.97292 
1 1:-0.966308 2:-0.97292 
1 1:-0.966308 2:-0.97292 
1 1:-0.966308 2:-0.97292 
1 1:-0.966308 2:-0.97292 
1 1:-0.966308 2:-0.97292 
1 1:-0.135039 2:0.0334302 
1 1:-0.135039 2:0.0334302 
1 1:-0.135039 2:0.0334302 
1 1:-0.135039 2:0.0334302 
1 1:-0.135039 2:0.0334302 
1 1:-0.135039 2:0.0334302 
1 1:-0.135039 2:0.0334302 
1 1:-0.135039 2:0.0334302 
1 1:-0.135039 2:0.0334302 
1 1:-0.135039 2:0.0334302 
1 1:-0.135039 2:0.0334302 
1 1:-0.135039 2:0.0334302 
1 1:-0.135039 2:0.0334302 
1 1:-0.135039 2:0.0334302 
1 1:-0.135039 2:0.0334302 
1 1:-0.135039 2:0.0334302 
1 1:-0.135039 2:0.0334302 
1 1:-0.135039 2:0.0334302 
1 1:-0.135039 2:0.0334302 
1 1:-0.135039 2:0.0334302 
1 1:-0.135039 2:0.0334302 
1 1:-0.135039 2:0.0334302 
1 1:-0.135039 2:0.0334302 
1 1:-0.135039 2:0.0334302 
1 1:-0.135039 2:0.0334302 
1 1:-0.135039 2:0.0334302 
1 1:-0.135039 2:0.0334302 
1 1:-0.135039 2:0.0334302 
1 1:-0.135039 2:0.0334302 
1 1:-0.135039 2:0.0334302 
1 1:-0.135039 2:0.0334302 
1 1:-0.135039 2:0.0334302 
1 1:-0.135039 2:0.0334302 
1 1:-0.135039 2:0.0334302 
1 1:-0.135039 2:0.0334302 
1 1:-0.135039 2:0.0334302 
1 1:-0.135039 2:0.0334302 
1 1:-0.135039 2:0.0334302 
1 1:-0.135039 2:0.0334302 
1 1:-0.135039 2:0.0334302 
1 1:-0.135039 2:0.0334302 
1 1:-0.135039 2:0.0334302 
1 1:-0.135039 2:0.0334302 
1 1:-0.135039 2:0.0334302 
1 1:-0.135039 2:0.0334302 
1 1:-0.135039 2:0.0334302 
1 1:-0.135039 2:0.0334302 
1 1:-0.135039 2:0.0334302 
1 1:-0.135039 2:0.0334302 
1 1:-0.135039 2:0.0334302 
1 1:-0.135039 2:0.0334302 
1 1:-0.135039 2:0.0334302 
1 1:-0.135039 2:0.0334302 
1 1:-0.135039 2:0.0334302 
1 1:-0.135039 2:0.0334302 
1 1:-0.135039 2:0.0334302 
1 1:-0.135039 2:0.0334302 
1 1:-0.135039 2:0.0334302 
1 1:-0.135039 2:0.0334302 
1 1:-0.135039 2:0.0334302 
1 1:-0.135039 2:0.0334302 
1 1:-0.135039 2:0.0334302 
1 1:-0.135039 2:0.0334302 
1 1:-0.135039 2:0.0334302 
1 1:-0.135039 2:0.0334302 
1 1:-0.135039 2:0.0334302 
1 1:-0.135039 2:0.0334302 
1 1:-0.135039 2:0.0334302 
1 1:-0.135039 2:0.0334302 
1 1:-0.135039 2:0.0334302 
1 1:-0.135039 2:0.0334302 
1 1:-0.135039 2:0.0334302 
1 1:-0.135039 2:0.0334302 
1 1:-0.135039 2:0.0334302 
1 1:-0.135039 2:0.0334302 
1 1:-0.135039 2:0.0334302 
1 1:-0.135039 2:0.0334302 
1 1:-0.135039 2:0.0334302 
1 1:-0.135039 2:0.0334302 
1 1:-0.135039 2:0.0334302 
1 1:-0.135039 2:0.0334302 
1 1:-0.135039 2:0.0334302 
1 1:-0.135039 2:0.0334302 
1 1:-0.135039 2:0.0334302 
1 1:-0.135039 2:0.0334302 
1 1:-0.135039 2:0.0334302 
1 1:-0.135039 2:0.0334302 
1 1:-0.135039 2:0.0334302 
1 1:-0.135039 2:0.0334302 
1 1:-0.135039 2:0.0334302 
1 1:-0.135039 2:0.0334302 
1 1:-0.135039 2:0.0334302 
1 1:-0.135039 2:0.0334302 
1 1:-0.178161 2:0.204624 
1 1:-0.186791 2:0.604088 
1 1:-0.178161 2:0.204624 
1 1:-0.186791 2:0.604088 
1 1:-0.178161 2:0.204624 
1 1:-0.186791 2:0.604088 
1 1:-0.178161 2:0.204624 
1 1:-0.186791 2:0.604088 
1 1:-0.178161 2:0.204624 
1 1:-0.186791 2:0.604088 
1 1:-0.178161 2:0.204624 
1 1:-0.186791 2:0.604088 
1 1:-0.178161 2:0.204624 
1 1:-0.186791 2:0.604088 
1 1:-0.178161 2:0.204624 
1 1:-0.186791 2:0.604088 
1 1:-0.178161 2:0.204624 
1 1:-0.186791 2:0.604088 
1 1:-0.178161 2:0.204624 
1 1:-0.186791 2:0.604088 
1 1:-0.178161 2:0.204624 
1 1:-0.186791 2:0.604088 
1 1:-0.178161 2:0.204624 
1 1:-0.186791 2:0.604088 
1 1:-0.178161 2:0.204624 
1 1:-0.186791 2:0.604088 
1 1:-0.178161 2:0.204624 
1 1:-0.186791 2:0.604088 
1 1:-0.178161 2:0.204624 
1 1:-0.186791 2:0.604088 
1 1:-0.178161 2:0.204624 
1 1:-0.186791 2:0.604088 
1 1:-0.178161 2:0.204624 
1 1:-0.186791 2:0.604088 
1 1:-0.178161 2:0.204624 
1 1:-0.186791 2:0.604088 
1 1:-0.178161 2:0.204624 
1 1:-0.186791 2:0.604088 
1 1:-0.178161 2:0.204624 
1 1:-0.186791 2:0.604088 
1 1:-0.178161 2:0.204624 
1 1:-0.186791 2:0.604088 
1 1:-0.178161 2:0.204624 
1 1:-0.186791 2:0.604088 
1 1:-0.178161 2:0.204624 
1 1:-0.186791 2:0.604088 
1 1:-0.178161 2:0.204624 
1 1:-0.186791 2:0.604088 
1 1:-0.178161 2:0.204624 
1 1:-0.186791 2:0.604088 
1 1:-0.178161 2:0.204624 
1 1:-0.186791 2:0.604088 
1 1:-0.178161 2:0.204624 
1 1:-0.186791 2:0.604088 
1 1:-0.178161 2:0.204624 
1 1:-0.186791 2:0.604088 
1 1:-0.178161 2:0.204624 
1 1:-0.186791 2:0.604088 
1 1:-0.178161 2:0.204624 
1 1:-0.186791 2:0.604088 
1 1:-0.178161 2:0.204624 
1 1:-0.186791 2:0.604088 
1 1:-0.178161 2:0.204624 
1 1:-0.186791 2:0.604088 
1 1:-0.178161 2:0.204624 
1 1:-0.186791 2:0.604088 
1 1:-0.178161 2:0.204624 
1 1:-0.186791 2:0.604088 
1 1:-0.178161 2:0.204624 
1 1:-0.186791 2:0.604088 
1 1:-0.178161 2:0.204624 
1 1:-0.186791 2:0.604088 
1 1:-0.178161 2:0.204624 
1 1:-0.186791 2:0.604088 
1 1:-0.178161 2:0.204624 
1 1:-0.186791 2:0.604088 
1 1:-0.178161 2:0.204624 
1 1:-0.186791 2:0.604088 
1 1:-0.178161 2:0.204624 
1 1:-0.186791 2:0.604088 
1 1:-0.178161 2:0.204624 
1 1:-0.186791 2:0.604088 
1 1:-0.178161 2:0.204624 
1 1:-0.186791 2:0.604088 
1 1:-0.178161 2:0.204624 
1 1:-0.186791 2:0.604088 
1 1:-0.178161 2:0.204624 
1 1:-0.186791 2:0.604088 
1 1:-0.178161 2:0.204624 
1 1:-0.186791 2:0.604088 
1 1:-0.178161 2:0.204624 
1 1:-0.186791 2:0.604088 
1 1:-0.178161 2:0.204624 
1 1:-0.186791 2:0.604088 
1 1:-0.178161 2:0.204624 
1 1:-0.186791 2:0.604088 
1 1:-0.178161 2:0.204624 
1 1:-0.186791 2:0.604088 
1 1:-0.178161 2:0.204624 
1 1:-0.186791 2:0.604088 
1 1:-0.178161 2:0.204624 
1 1:-0.186791 2:0.604088 
1 1:-0.178161 2:0.204624 
1 1:-0.186791 2:0.604088 
1 1:-0.178161 2:0.204624 
1 1:-0.186791 2:0.604088 
1 1:-0.178161 2:0.204624 
1 1:-0.186791 2:0.604088 
1 1:-0.178161 2:0.204624 
1 1:-0.186791 2:0.604088 
1 1:-0.178161 2:0.204624 
1 1:-0.186791 2:0.604088 
1 1:-0.178161 2:0.204624 
1 1:-0.186791 2:0.604088 
1 1:-0.178161 2:0.204624 
1 1:-0.186791 2:0.604088 
1 1:-0.178161 2:0.204624 
1 1:-0.186791 2:0.604088 
1 1:-0.178161 2:0.204624 
1 1:-0.186791 2:0.604088 
1 1:-0.178161 2:0.204624 
1 1:-0.186791 2:0.604088 
1 1:-0.178161 2:0.204624 
1 1:-0.186791 2:0.604088 
1 1:-0.178161 2:0.204624 
1 1:-0.186791 2:0.604088 
1 1:-0.178161 2:0.204624 
1 1:-0.186791 2:0.604088 
1 1:-0.178161 2:0.204624 
1 1:-0.186791 2:0.604088 
1 1:-0.178161 2:0.204624 
1 1:-0.186791 2:0.604088 
1 1:-0.178161 2:0.204624 
1 1:-0.186791 2:0.604088 
1 1:-0.178161 2:0.204624 
1 1:-0.186791 2:0.604088 
1 1:-0.178161 2:0.204624 
1 1:-0.186791 2:0.604088 
1 1:-0.178161 2:0.204624 
1 1:-0.186791 2:0.604088 
1 1:-0.178161 2:0.204624 
1 1:-0.186791 2:0.604088 
1 1:-0.178161 2:0.204624 
1 1:-0.186791 2:0.604088 
1 1:-0.178161 2:0.204624 
1 1:-0.186791 2:0.604088 
1 1:-0.178161 2:0.204624 
1 1:-0.186791 2:0.604088 
1 1:-0.178161 2:0.204624 
1 1:-0.186791 2:0.604088 
1 1:-0.178161 2:0.204624 
1 1:-0.186791 2:0.604088 
1 1:-0.178161 2:0.204624 
1 1:-0.186791 2:0.604088 
1 1:-0.178161 2:0.204624 
1 1:-0.186791 2:0.604088 
1 1:-0.178161 2:0.204624 
1 1:-0.186791 2:0.604088 
1 1:-0.178161 2:0.204624 
1 1:-0.186791 2:0.604088 
1 1:-0.178161 2:0.204624 
1 1:-0.186791 2:0.604088 
1 1:-0.178161 2:0.204624 
1 1:-0.186791 2:0.604088 
1 1:-0.178161 2:0.204624 
1 1:-0.186791 2:0.604088 
1 1:-0.178161 2:0.204624 
1 1:-0.186791 2:0.604088 
1 1:-0.178161 2:0.204624 
1 1:-0.186791 2:0.604088 
1 1:-0.178161 2:0.204624 
1 1:-0.186791 2:0.604088 
1 1:-0.178161 2:0.204624 
1 1:-0.186791 2:0.604088 
1 1:-0.178161 2:0.204624 
1 1:-0.186791 2:0.604088 
1 1:-0.178161 2:0.204624 
1 1:-0.186791 2:0.604088 
1 1:-0.178161 2:0.204624 
1 1:-0.186791 2:0.604088 
1 1:-0.178161 2:0.204624 
1 1:-0.186791 2:0.604088 
1 1:-0.178161 2:0.204624 
1 1:-0.186791 2:0.604088 
1 1:-0.178161 2:0.204624 
1 1:-0.186791 2:0.604088 
1 1:-0.178161 2:0.204624 
1 1:-0.186791 2:0.604088 
1 1:-0.178161 2:0.204624 
1 1:-0.186791 2:0.604088 
1 1:-0.178161 2:0.204624 
1 1:-0.186791 2:0.604088 
1 1:-0.178161 2:0.204624 
1 1:-0.186791 2:0.604088 
1 1:-0.444179 2:0.547981 
1 1:0.297669 2:-0.0820865 
1 1:-0.444179 2:0.547981 
1 1:0.297669 2:-0.0820865 
1 1:-0.444179 2:0.547981 
1 1:0.297669 2:-0.0820865 
1 1:-0.444179 2:0.547981 
1 1:0.297669 2:-0.0820865 
1 1:-0.444179 2:0.547981 
1 1:0.297669 2:-0.0820865 
1 1:-0.444179 2:0.547981 
1 1:0.297669 2:-0.0820865 
1 1:-0.444179 2:0.547981 
1 1:0.297669 2:-0.0820865 
1 1:-0.444179 2:0.547981 
1 1:0.297669 2:-0.0820865 
1 1:-0.444179 2:0.547981 
1 1:0.297669 2:-0.0820865 
1 1:-0.444179 2:0.547981 
1 1:0.297669 2:-0.0820865 
1 1:-0.444179 2:0.547981 
1 1:0.297669 2:-0.0820865 
1 1:-0.444179 2:0.547981 
1 1:0.297669 2:-0.0820865 
1 1:-0.444179 2:0.547981 
1 1:0.297669 2:-0.0820865 
1 1:-0.444179 2:0.547981 
1 1:0.297669 2:-0.0820865 
1 1:-0.444179 2:0.547981 
1 1:0.297669 2:-0.0820865 
1 1:-0.444179 2:0.547981 
1 1:0.297669 2:-0.0820865 
1 1:-0.444179 2:0.547981 
1 1:0.297669 2:-0.0820865 
1 1:-0.444179 2:0.547981 
1 1:0.297669 2:-0.0820865 
1 1:-0.444179 2:0.547981 
1 1:0.297669 2:-0.0820865 
1 1:-0.444179 2:0.547981 
1 1:0.297669 2:-0.0820865 
1 1:-0.444179 2:0.547981 
1 1:0.297669 2:-0.0820865 
1 1:-0.444179 2:0.547981 
1 1:0.297669 2:-0.0820865 
1 1:-0.444179 2:0.547981 
1 1:0.297669 2:-0.0820865 
1 1:-0.444179 2:0.547981 
1 1:0.297669 2:-0.0820865 
1 1:-0.444179 2:0.547981 
1 1:0.297669 2:-0.0820865 
1 1:-0.444179 2:0.547981 
1 1:0.297669 2:-0.0820865 
1 1:-0.444179 2:0.547981 
1 1:0.297669 2:-0.0820865 
1 1:-0.444179 2:0.547981 
1 1:0.297669 2:-0.0820865 
1 1:-0.444179 2:0.547981 
1 1:0.297669 2:-0.0820865 
1 1:-0.444179 2:0.547981 
1 1:0.297669 2:-0.0820865 
1 1:-0.444179 2:0.547981 
1 1:0.297669 2:-0.0820865 
1 1:-0.444179 2:0.547981 
1 1:0.297669 2:-0.0820865 
1 1:-0.444179 2:0.547981 
1 1:0.297669 2:-0.0820865 
1 1:-0.444179 2:0.547981 
1 1:0.297669 2:-0.0820865 
1 1:-0.444179 2:0.547981 
1 1:0.297669 2:-0.0820865 
1 1:-0.444179 2:0.547981 
1 1:0.297669 2:-0.0820865 
1 1:-0.444179 2:0.547981 
1 1:0.297669 2:-0.0820865 
1 1:-0.444179 2:0.547981 
1 1:0.297669 2:-0.0820865 
1 1:-0.444179 2:0.547981 
1 1:0.297669 2:-0.0820865 
1 1:-0.444179 2:0.547981 
1 1:0.297669 2:-0.0820865 
1 1:-0.444179 2:0.547981 
1 1:0.297669 2:-0.0820865 
1 1:-0.444179 2:0.547981 
1 1:0.297669 2:-0.0820865 
1 1:-0.444179 2:0.547981 
1 1:0.297669 2:-0.0820865 
1 1:-0.444179 2:0.547981 
1 1:0.297669 2:-0.0820865 
1 1:-0.444179 2:0.547981 
1 1:0.297669 2:-0.0820865 
1 1:-0.444179 2:0.547981 
1 1:0.297669 2:-0.0820865 
1 1:-0.444179 2:0.547981 
1 1:0.297669 2:-0.0820865 
1 1:-0.444179 2:0.547981 
1 1:0.297669 2:-0.0820865 
1 1:-0.444179 2:0.547981 
1 1:0.297669 2:-0.0820865 
1 1:-0.444179 2:0.547981 
1 1:0.297669 2:-0.0820865 
1 1:-0.444179 2:0.547981 
1 1:0.297669 2:-0.0820865 
1 1:-0.444179 2:0.547981 
1 1:0.297669 2:-0.0820865 
1 1:-0.444179 2:0.547981 
1 1:0.297669 2:-0.0820865 
1 1:-0.444179 2:0.547981 
1 1:0.297669 2:-0.0820865 
1 1:-0.444179 2:0.547981 
1 1:0.297669 2:-0.0820865 
1 1:-0.444179 2:0.547981 
1 1:0.297669 2:-0.0820865 
1 1:-0.444179 2:0.547981 
1 1:0.297669 2:-0.0820865 
1 1:-0.444179 2:0.547981 
1 1:0.297669 2:-0.0820865 
1 1:-0.444179 2:0.547981 
1 1:0.297669 2:-0.0820865 
1 1:-0.444179 2:0.547981 
1 1:0.297669 2:-0.0820865 
1 1:-0.444179 2:0.547981 
1 1:0.297669 2:-0.0820865 
1 1:-0.444179 2:0.547981 
1 1:0.297669 2:-0.0820865 
1 1:-0.444179 2:0.547981 
1 1:0.297669 2:-0.0820865 
1 1:-0.444179 2:0.547981 
1 1:0.297669 2:-0.0820865 
1 1:-0.444179 2:0.547981 
1 1:0.297669 2:-0.0820865 
1 1:-0.444179 2:0.547981 
1 1:0.297669 2:-0.0820865 
1 1:-0.444179 2:0.547981 
1 1:0.297669 2:-0.0820865 
1 1:-0.444179 2:0.547981 
1 1:0.297669 2:-0.0820865 
1 1:-0.444179 2:0.547981 
1 1:0.297669 2:-0.0820865 
1 1:-0.444179 2:0.547981 
1 1:0.297669 2:-0.0820865 
1 1:-0.444179 2:0.547981 
1 1:0.297669 2:-0.0820865 
1 1:-0.444179 2:0.547981 
1 1:0.297669 2:-0.0820865 
1 1:-0.444179 2:0.547981 
1 1:0.297669 2:-0.0820865 
1 1:-0.444179 2:0.547981 
1 1:0.297669 2:-0.0820865 
1 1:-0.444179 2:0.547981 
1 1:0.297669 2:-0.0820865 
1 1:-0.444179 2:0.547981 
1 1:0.297669 2:-0.0820865 
1 1:-0.444179 2:0.547981 
1 1:0.297669 2:-0.0820865 
1 1:-0.444179 2:0.547981 
1 1:0.297669 2:-0.0820865 
1 1:-0.444179 2:0.547981 
1 1:0.297669 2:-0.0820865 
1 1:-0.444179 2:0.547981 
1 1:0.297669 2:-0.0820865 
1 1:-0.444179 2:0.547981 
1 1:0.297669 2:-0.0820865 
1 1:-0.444179 2:0.547981 
1 1:0.297669 2:-0.0820865 
1 1:-0.444179 2:0.547981 
1 1:0.297669 2:-0.0820865 
1 1:-0.444179 2:0.547981 
1 1:0.297669 2:-0.0820865 
1 1:-0.444179 2:0.547981 
1 1:0.297669 2:-0.0820865 
1 1:-0.444179 2:0.547981 
1 1:0.297669 2:-0.0820865 
1 1:-0.444179 2:0.547981 
1 1:0.297669 2:-0.0820865 
1 1:-0.444179 2:0.547981 
1 1:0.297669 2:-0.0820865 
1 1:-0.444179 2:0.547981 
1 1:0.297669 2:-0.0820865 
1 1:-0.444179 2:0.547981 
1 1:0.297669 2:-0.0820865 
1 1:-0.444179 2:0.547981 
1 1:0.297669 2:-0.0820865 
1 1:-0.444179 2:0.547981 
1 1:0.297669 2:-0.0820865 
1 1:-0.444179 2:0.547981 
1 1:0.297669 2:-0.0820865 
1 1:-0.444179 2:0.547981 
1 1:0.297669 2:-0.0820865 
1 1:-0.444179 2:0.547981 
1 1:0.297669 2:-0.0820865 
1 1:-0.444179 2:0.547981 
1 1:0.297669 2:-0.0820865 
1 1:-0.444179 2:0.547981 
1 1:0.297669 2:-0.0820865 
1 1:0.0183089 2:-0.26426 
1 1:0.0183089 2:-0.26426 
1 1:0.0183089 2:-0.26426 
1 1:0.0183089 2:-0.26426 
1 1:0.0183089 2:-0.26426 
1 1:0.0183089 2:-0.26426 
1 1:0.0183089 2:-0.26426 
1 1:0.0183089 2:-0.26426 
1 1:0.0183089 2:-0.26426 
1 1:0.0183089 2:-0.26426 
1 1:0.0183089 2:-0.26426 
1 1:0.0183089 2:-0.26426 
1 1:0.0183089 2:-0.26426 
1 1:0.0183089 2:-0.26426 
1 1:0.0183089 2:-0.26426 
1 1:0.0183089 2:-0.26426 
1 1:0.0183089 2:-0.26426 
1 1:0.0183089 2:-0.26426 
1 1:0.0183089 2:-0.26426 
1 1:0.0183089 2:-0.26426 
1 1:0.0183089 2:-0.26426 
1 1:0.0183089 2:-0.26426 
1 1:0.0183089 2:-0.26426 
1 1:0.0183089 2:-0.26426 
1 1:0.0183089 2:-0.26426 
1 1:0.0183089 2:-0.26426 
1 1:0.0183089 2:-0.26426 
1 1:0.0183089 2:-0.26426 
1 1:0.0183089 2:-0.26426 
1 1:0.0183089 2:-0.26426 
1 1:0.0183089 2:-0.26426 
1 1:0.0183089 2:-0.26426 
1 1:0.0183089 2:-0.26426 
1 1:0.0183089 2:-0.26426 
1 1:0.0183089 2:-0.26426 
1 1:0.0183089 2:-0.26426 
1 1:0.0183089 2:-0.26426 
1 1:0.0183089 2:-0.26426 
1 1:0.0183089 2:-0.26426 
1 1:0.0183089 2:-0.26426 
1 1:0.0183089 2:-0.26426 
1 1:0.0183089 2:-0.26426 
1 1:0.0183089 2:-0.26426 
1 1:0.0183089 2:-0.26426 
1 1:0.0183089 2:-0.26426 
1 1:0.0183089 2:-0.26426 
1 1:0.0183089 2:-0.26426 
1 1:0.0183089 2:-0.26426 
1 1:0.0183089 2:-0.26426 
1 1:0.0183089 2:-0.26426 
1 1:0.0183089 2:-0.26426 
1 1:0.0183089 2:-0.26426 
1 1:0.0183089 2:-0.26426 
1 1:0.190769 2:-0.568519 
1 1:0.190769 2:-0.568519 
1 1:0.190769 2:-0.568519 
1 1:0.190769 2:-0.568519 
1 1:0.190769 2:-0.568519 
1 1:0.190769 2:-0.568519 
1 1:0.190769 2:-0.568519 
1 1:0.190769 2:-0.568519 
1 1:0.190769 2:-0.568519 
1 1:0.190769 2:-0.568519 
1 1:0.190769 2:-0.568519 
1 1:0.190769 2:-0.568519 
1 1:0.190769 2:-0.568519 
1 1:0.190769 2:-0.568519 
1 1:0.190769 2:-0.568519 
1 1:0.190769 2:-0.568519 
1 1:0.190769 2:-0.568519 
1 1:0.190769 2:-0.568519 
1 1:0.190769 2:-0.568519 
1 1:0.190769 2:-0.568519 
1 1:0.190769 2:-0.568519 
1 1:0.190769 2:-0.568519 
1 1:0.190769 2:-0.568519 
1 1:0.190769 2:-0.568519 
1 1:0.190769 2:-0.568519 
1 1:0.190769 2:-0.568519 
1 1:0.190769 2:-0.568519 
1 1:0.190769 2:-0.568519 
1 1:0.190769 2:-0.568519 
1 1:0.190769 2:-0.568519 
1 1:0.190769 2:-0.568519 
1 1:0.190769 2:-0.568519 
1 1:0.190769 2:-0.568519 
1 1:0.190769 2:-0.568519 
1 1:0.190769 2:-0.568519 
1 1:0.190769 2:-0.568519 
1 1:0.190769 2:-0.568519 
1 1:0.190769 2:-0.568519 
1 1:0.190769 2:-0.568519 
1 1:0.190769 2:-0.568519 
1 1:0.190769 2:-0.568519 
1 1:0.190769 2:-0.568519 
1 1:0.190769 2:-0.568519 
1 1:0.190769 2:-0.568519 
1 1:0.190769 2:-0.568519 
1 1:0.190769 2:-0.568519 
1 1:0.190769 2:-0.568519 
1 1:0.190769 2:-0.568519 
1 1:0.190769 2:-0.568519 
1 1:0.190769 2:-0.568519 
1 1:0.190769 2:-0.568519 
1 1:0.190769 2:-0.568519 
1 1:0.190769 2:-0.568519 
1 1:0.190769 2:-0.568519 
1 1:0.190769 2:-0.568519 
1 1:0.190769 2:-0.568519 
1 1:0.190769 2:-0.568519 
1 1:0.190769 2:-0.568519 
1 1:0.190769 2:-0.568519 
1 1:0.190769 2:-0.568519 
1 1:0.190769 2:-0.568519 
1 1:0.190769 2:-0.568519 
1 1:0.190769 2:-0.568519 
1 1:0.190769 2:-0.568519 
1 1:0.190769 2:-0.568519 
1 1:0.190769 2:-0.568519 
1 1:0.190769 2:-0.568519 
1 1:0.190769 2:-0.568519 
1 1:0.190769 2:-0.568519 
1 1:0.190769 2:-0.568519 
1 1:0.190769 2:-0.568519 
1 1:0.190769 2:-0.568519 
1 1:0.190769 2:-0.568519 
1 1:0.190769 2:-0.568519 
1 1:0.190769 2:-0.568519 
1 1:0.190769 2:-0.568519 
1 1:0.190769 2:-0.568519 
1 1:0.190769 2:-0.568519 
1 1:0.190769 2:-0.568519 
1 1:0.190769 2:-0.568519 
1 1:0.190769 2:-0.568519 
1 1:0.190769 2:-0.568519 
1 1:0.190769 2:-0.568519 
1 1:0.190769 2:-0.568519 
1 1:0.190769 2:-0.568519 
1 1:0.190769 2:-0.568519 
1 1:0.190769 2:-0.568519 
1 1:0.190769 2:-0.568519 
1 1:0.190769 2:-0.568519 
1 1:0.190769 2:-0.568519 
1 1:0.190769 2:-0.568519 
1 1:0.190769 2:-0.568519 
1 1:0.190769 2:-0.568519 
1 1:0.190769 2:-0.568519 
1 1:-0.0549749 2:-0.157814 
1 1:-0.0549749 2:-0.157814 
1 1:-0.0549749 2:-0.157814 
1 1:-0.0549749 2:-0.157814 
1 1:-0.0549749 2:-0.157814 
1 1:-0.0549749 2:-0.157814 
1 1:-0.0549749 2:-0.157814 
1 1:-0.0549749 2:-0.157814 
1 1:-0.0549749 2:-0.157814 
1 1:-0.0549749 2:-0.157814 
1 1:-0.0549749 2:-0.157814 
1 1:-0.0549749 2:-0.157814 
1 1:-0.0549749 2:-0.157814 
1 1:-0.0549749 2:-0.157814 
1 1:-0.0549749 2:-0.157814 
1 1:-0.0549749 2:-0.157814 
1 1:-0.0549749 2:-0.157814 
1 1:-0.0549749 2:-0.157814 
1 1:-0.0549749 2:-0.157814 
1 1:-0.0549749 2:-0.157814 
1 1:-0.0549749 2:-0.157814 
1 1:-0.0549749 2:-0.157814 
1 1:-0.0549749 2:-0.157814 
1 1:-0.0549749 2:-0.157814 
1 1:-0.0549749 2:-0.157814 
1 1:-0.0549749 2:-0.157814 
1 1:-0.0549749 2:-0.157814 
1 1:-0.0549749 2:-0.157814 
1 1:-0.0549749 2:-0.157814 
1 1:-0.0549749 2:-0.157814 
1 1:-0.0549749 2:-0.157814 
1 1:-0.0549749 2:-0.157814 
1 1:-0.0549749 2:-0.157814 
1 1:-0.0549749 2:-0.157814 
1 1:-0.0549749 2:-0.157814 
1 1:-0.0549749 2:-0.157814 
1 1:-0.0549749 2:-0.157814 
1 1:-0.0549749 2:-0.157814 
1 1:-0.0549749 2:-0.157814 
1 1:-0.0549749 2:-0.157814 
1 1:-0.0549749 2:-0.157814 
1 1:-0.0549749 2:-0.157814 
1 1:-0.0549749 2:-0.157814 
1 1:-0.0549749 2:-0.157814 
1 1:-0.0549749 2:-0.157814 
1 1:-0.0549749 2:-0.157814 
1 1:-0.0549749 2:-0.157814 
1 1:-0.0549749 2:-0.157814 
1 1:-0.0549749 2:-0.157814 
1 1:-0.0549749 2:-0.157814 
1 1:-0.0549749 2:-0.157814 
1 1:-0.0549749 2:-0.157814 
1 1:-0.0549749 2:-0.157814 
1 1:-0.0549749 2:-0.157814 
1 1:-0.0549749 2:-0.157814 
1 1:-0.0549749 2:-0.157814 
1 1:-0.0549749 2:-0.157814 
1 1:-0.0549749 2:-0.157814 
1 1:-0.0549749 2:-0.157814 
1 1:-0.0549749 2:-0.157814 
1 1:-0.0549749 2:-0.157814 
1 1:-0.0549749 2:-0.157814 
1 1:-0.0549749 2:-0.157814 
1 1:-0.0549749 2:-0.157814 
1 1:-0.0549749 2:-0.157814 
1 1:-0.0549749 2:-0.157814 
1 1:-0.0549749 2:-0.157814 
1 1:-0.0549749 2:-0.157814 
1 1:-0.0549749 2:-0.157814 
1 1:-0.0549749 2:-0.157814 
1 1:-0.0549749 2:-0.157814 
1 1:-0.0549749 2:-0.157814 
1 1:-0.0549749 2:-0.157814 
1 1:-0.0549749 2:-0.157814 
1 1:-0.0549749 2:-0.157814 
1 1:-0.0549749 2:-0.157814 
1 1:-0.0549749 2:-0.157814 
1 1:-0.0549749 2:-0.157814 
1 1:-0.0549749 2:-0.157814 
1 1:-0.0549749 2:-0.157814 
1 1:-0.0549749 2:-0.157814 
1 1:-0.0549749 2:-0.157814 
1 1:-0.0549749 2:-0.157814 
1 1:-0.0549749 2:-0.157814 
1 1:-0.0549749 2:-0.157814 
1 1:-0.0549749 2:-0.157814 
1 1:-0.0549749 2:-0.157814 
1 1:-0.0549749 2:-0.157814 
1 1:-0.0549749 2:-0.157814 
1 1:-0.0549749 2:-0.157814 
1 1:0.120569 2:0.323748 
1 1:-0.314084 2:0.588857 
1 1:0.120569 2:0.323748 
1 1:-0.314084 2:0.588857 
1 1:0.120569 2:0.323748 
1 1:-0.314084 2:0.588857 
1 1:0.120569 2:0.323748 
1 1:-0.314084 2:0.588857 
1 1:0.120569 2:0.323748 
1 1:-0.314084 2:0.588857 
1 1:0.120569 2:0.323748 
1 1:-0.314084 2:0.588857 
1 1:0.120569 2:0.323748 
1 1:-0.314084 2:0.588857 
1 1:0.120569 2:0.323748 
1 1:-0.314084 2:0.588857 
1 1:0.120569 2:0.323748 
1 1:-0.314084 2:0.588857 
1 1:0.120569 2:0.323748 
1 1:-0.314084 2:0.588857 
1 1:0.120569 2:0.323748 
1 1:-0.314084 2:0.588857 
1 1:0.120569 2:0.323748 
1 1:-0.314084 2:0.588857 
1 1:0.120569 2:0.323748 
1 1:-0.314084 2:0.588857 
1 1:0.120569 2:0.323748 
1 1:-0.314084 2:0.588857 
1 1:0.120569 2:0.323748 
1 1:-0.314084 2:0.588857 
1 1:0.120569 2:0.323748 
1 1:-0.314084 2:0.588857 
1 1:0.120569 2:0.323748 
1 1:-0.314084 2:0.588857 
1 1:0.120569 2:0.323748 
1 1:-0.314084 2:0.588857 
1 1:0.120569 2:0.323748 
1 1:-0.314084 2:0.588857 
1 1:0.120569 2:0.323748 
1 1:-0.314084 2:0.588857 
1 1:0.120569 2:0.323748 
1 1:-0.314084 2:0.588857 
1 1:0.120569 2:0.323748 
1 1:-0.314084 2:0.588857 
1 1:0.120569 2:0.323748 
1 1:-0.314084 2:0.588857 
1 1:0.120569 2:0.323748 
1 1:-0.314084 2:0.588857 
1 1:0.120569 2:0.323748 
1 1:-0.314084 2:0.588857 
1 1:0.120569 2:0.323748 
1 1:-0.314084 2:0.588857 
1 1:0.120569 2:0.323748 
1 1:-0.314084 2:0.588857 
1 1:0.120569 2:0.323748 
1 1:-0.314084 2:0.588857 
1 1:0.120569 2:0.323748 
1 1:-0.314084 2:0.588857 
1 1:0.120569 2:0.323748 
1 1:-0.314084 2:0.588857 
1 1:0.120569 2:0.323748 
1 1:-0.314084 2:0.588857 
1 1:0.120569 2:0.323748 
1 1:-0.314084 2:0.588857 
1 1:0.120569 2:0.323748 
1 1:-0.314084 2:0.588857 
1 1:0.120569 2:0.323748 
1 1:-0.314084 2:0.588857 
1 1:0.120569 2:0.323748 
1 1:-0.314084 2:0.588857 
1 1:0.120569 2:0.323748 
1 1:-0.314084 2:0.588857 
1 1:0.120569 2:0.323748 
1 1:-0.314084 2:0.588857 
1 1:0.120569 2:0.323748 
1 1:-0.314084 2:0.588857 
1 1:0.120569 2:0.323748 
1 1:-0.314084 2:0.588857 
1 1:0.120569 2:0.323748 
1 1:-0.314084 2:0.588857 
1 1:0.120569 2:0.323748 
1 1:-0.314084 2:0.588857 
1 1:0.120569 2:0.323748 
1 1:-0.314084 2:0.588857 
1 1:0.120569 2:0.323748 
1 1:-0.314084 2:0.588857 
1 1:0.120569 2:0.323748 
1 1:-0.314084 2:0.588857 
1 1:0.120569 2:0.323748 
1 1:-0.314084 2:0.588857 
1 1:0.120569 2:0.323748 
1 1:-0.314084 2:0.588857 
1 1:0.120569 2:0.323748 
1 1:-0.314084 2:0.588857 
1 1:0.120569 2:0.323748 
1 1:-0.314084 2:0.588857 
1 1:0.120569 2:0.323748 
1 1:-0.314084 2:0.588857 
1 1:0.120569 2:0.323748 
1 1:-0.314084 2:0.588857 
1 1:0.120569 2:0.323748 
1 1:-0.314084 2:0.588857 
1 1:0.120569 2:0.323748 
1 1:-0.314084 2:0.588857 
1 1:0.120569 2:0.323748 
1 1:-0.314084 2:0.588857 
1 1:0.120569 2:0.323748 
1 1:-0.314084 2:0.588857 
1 1:0.120569 2:0.323748 
1 1:-0.314084 2:0.588857 
1 1:0.120569 2:0.323748 
1 1:-0.314084 2:0.588857 
1 1:0.120569 2:0.323748 
1 1:-0.314084 2:0.588857 
1 1:0.120569 2:0.323748 
1 1:-0.314084 2:0.588857 
1 1:0.120569 2:0.323748 
1 1:-0.314084 2:0.588857 
1 1:0.120569 2:0.323748 
1 1:-0.314084 2:0.588857 
1 1:0.120569 2:0.323748 
1 1:-0.314084 2:0.588857 
1 1:0.120569 2:0.323748 
1 1:-0.314084 2:0.588857 
1 1:0.120569 2:0.323748 
1 1:-0.314084 2:0.588857 
1 1:0.120569 2:0.323748 
1 1:-0.314084 2:0.588857 
1 1:0.120569 2:0.323748 
1 1:-0.314084 2:0.588857 
1 1:0.120569 2:0.323748 
1 1:-0.314084 2:0.588857 
1 1:0.120569 2:0.323748 
1 1:-0.314084 2:0.588857 
1 1:0.120569 2:0.323748 
1 1:-0.314084 2:0.588857 
1 1:0.120569 2:0.323748 
1 1:-0.314084 2:0.588857 
1 1:0.120569 2:0.323748 
1 1:-0.314084 2:0.588857 
1 1:0.120569 2:0.323748 
1 1:-0.314084 2:0.588857 
1 1:0.120569 2:0.323748 
1 1:-0.314084 2:0.588857 
1 1:0.120569 2:0.323748 
1 1:-0.314084 2:0.588857 
1 1:0.120569 2:0.323748 
1 1:-0.314084 2:0.588857 
1 1:0.120569 2:0.323748 
1 1:-0.314084 2:0.588857 
1 1:0.120569 2:0.323748 
1 1:-0.314084 2:0.588857 
1 1:0.120569 2:0.323748 
1 1:-0.314084 2:0.588857 
1 1:0.120569 2:0.323748 
1 1:-0.314084 2:0.588857 
1 1:0.120569 2:0.323748 
1 1:-0.314084 2:0.588857 
1 1:0.120569 2:0.323748 
1 1:-0.314084 2:0.588857 
1 1:0.120569 2:0.323748 
1 1:-0.314084 2:0.588857 
1 1:0.120569 2:0.323748 
1 1:-0.314084 2:0.588857 
1 1:0.120569 2:0.323748 
1 1:-0.314084 2:0.588857 
1 1:0.120569 2:0.323748 
1 1:-0.314084 2:0.588857 
1 1:0.120569 2:0.323748 
1 1:-0.314084 2:0.588857 
1 1:0.120569 2:0.323748 
1 1:-0.314084 2:0.588857 
1 1:0.120569 2:0.323748 
1 1:-0.314084 2:0.588857 
1 1:0.120569 2:0.323748 
1 1:-0.314084 2:0.588857 
1 1:0.120569 2:0.323748 
1 1:-0.314084 2:0.588857 
1 1:0.120569 2:0.323748 
1 1:-0.314084 2:0.588857 
1 1:0.120569 2:0.323748 
1 1:-0.314084 2:0.588857 
1 1:0.120569 2:0.323748 
1 1:-0.314084 2:0.588857 
1 1:0.120569 2:0.323748 
1 1:-0.314084 2:0.588857 
1 1:-0.121775 2:0.531476 
1 1:-0.121775 2:0.531476 
1 1:-0.121775 2:0.531476 
1 1:-0.121775 2:0.531476 
1 1:-0.121775 2:0.531476 
1 1:-0.121775 2:0.531476 
1 1:-0.121775 2:0.531476 
1 1:-0.121775 2:0.531476 
1 1:-0.121775 2:0.531476 
1 1:-0.121775 2:0.531476 
1 1:-0.121775 2:0.531476 
1 1:-0.121775 2:0.531476 
1 1:-0.121775 2:0.531476 
1 1:-0.121775 2:0.531476 
1 1:-0.121775 2:0.531476 
1 1:-0.121775 2:0.531476 
1 1:-0.121775 2:0.531476 
1 1:-0.121775 2:0.531476 
1 1:-0.121775 2:0.531476 
1 1:-0.121775 2:0.531476 
1 1:-0.121775 2:0.531476 
1 1:-0.121775 2:0.531476 
1 1:-0.121775 2:0.531476 
1 1:-0.121775 2:0.531476 
1 1:-0.121775 2:0.531476 
1 1:-0.121775 2:0.531476 
1 1:-0.121775 2:0.531476 
1 1:-0.121775 2:0.531476 
1 1:-0.121775 2:0.531476 
1 1:-0.121775 2:0.531476 
1 1:-0.121775 2:0.531476 
1 1:-0.121775 2:0.531476 
1 1:-0.121775 2:0.531476 
1 1:-0.121775 2:0.531476 
1 1:-0.121775 2:0.531476 
1 1:-0.121775 2:0.531476 
1 1:-0.121775 2:0.531476 
1 1:-0.121775 2:0.531476 
1 1:-0.121775 2:0.531476 
1 1:-0.121775 2:0.531476 
1 1:-0.121775 2:0.531476 
1 1:-0.121775 2:0.531476 
1 1:-0.121775 2:0.531476 
1 1:-0.121775 2:0.531476 
1 1:-0.121775 2:0.531476 
1 1:-0.121775 2:0.531476 
1 1:-0.121775 2:0.531476 
1 1:-0.121775 2:0.531476 
1 1:-0.121775 2:0.531476 
1 1:-0.121775 2:0.531476 
1 1:-0.121775 2:0.531476 
1 1:-0.121775 2:0.531476 
1 1:-0.121775 2:0.531476 
1 1:-0.121775 2:0.531476 
1 1:-0.121775 2:0.531476 
1 1:-0.121775 2:0.531476 
1 1:-0.121775 2:0.531476 
1 1:-0.121775 2:0.531476 
1 1:-0.121775 2:0.531476 
1 1:-0.121775 2:0.531476 
1 1:-0.121775 2:0.531476 
1 1:-0.121775 2:0.531476 
1 1:-0.121775 2:0.531476 
1 1:-0.121775 2:0.531476 
1 1:-0.121775 2:0.531476 
1 1:-0.121775 2:0.531476 
1 1:-0.121775 2:0.531476 
1 1:-0.121775 2:0.531476 
1 1:-0.121775 2:0.531476 
1 1:-0.121775 2:0.531476 
1 1:-0.121775 2:0.531476 
1 1:-0.121775 2:0.531476 
1 1:-0.121775 2:0.531476 
1 1:-0.121775 2:0.531476 
1 1:-0.121775 2:0.531476 
1 1:-0.121775 2:0.531476 
1 1:-0.121775 2:0.531476 
1 1:-0.121775 2:0.531476 
1 1:-0.121775 2:0.531476 
1 1:-0.121775 2:0.531476 
1 1:-0.121775 2:0.531476 
1 1:-0.121775 2:0.531476 
1 1:-0.121775 2:0.531476 
1 1:-0.121775 2:0.531476 
1 1:-0.121775 2:0.531476 
1 1:-0.121775 2:0.531476 
1 1:-0.121775 2:0.531476 
1 1:-0.121775 2:0.531476 
1 1:-0.121775 2:0.531476 
1 1:-0.121775 2:0.531476 
1 1:-0.121775 2:0.531476 
1 1:-0.121775 2:0.531476 
1 1:-0.121775 2:0.531476 
1 1:-0.121775 2:0.531476 
1 1:-0.121775 2:0.531476 
1 1:-0.121775 2:0.531476 
1 1:-0.539442 2:0.254675 
1 1:-0.539442 2:0.254675 
1 1:-0.539442 2:0.254675 
1 1:-0.539442 2:0.254675 
1 1:-0.539442 2:0.254675 
1 1:-0.539442 2:0.254675 
1 1:-0.539442 2:0.254675 
1 1:-0.539442 2:0.254675 
1 1:-0.539442 2:0.254675 
1 1:-0.539442 2:0.254675 
1 1:-0.539442 2:0.254675 
1 1:-0.539442 2:0.254675 
1 1:-0.539442 2:0.254675 
1 1:-0.539442 2:0.254675 
1 1:-0.539442 2:0.254675 
1 1:-0.539442 2:0.254675 
1 1:-0.539442 2:0.254675 
1 1:-0.539442 2:0.254675 
1 1:-0.539442 2:0.254675 
1 1:-0.539442 2:0.254675 
1 1:-0.539442 2:0.254675 
1 1:-0.539442 2:0.254675 
1 1:-0.539442 2:0.254675 
1 1:-0.539442 2:0.254675 
1 1:-0.539442 2:0.254675 
1 1:-0.539442 2:0.254675 
1 1:-0.539442 2:0.254675 
1 1:-0.539442 2:0.254675 
1 1:-0.539442 2:0.254675 
1 1:-0.539442 2:0.254675 
1 1:-0.539442 2:0.254675 
1 1:-0.539442 2:0.254675 
1 1:-0.539442 2:0.254675 
1 1:-0.539442 2:0.254675 
1 1:-0.539442 2:0.254675 
1 1:-0.539442 2:0.254675 
1 1:-0.539442 2:0.254675 
1 1:-0.539442 2:0.254675 
1 1:-0.539442 2:0.254675 
1 1:-0.539442 2:0.254675 
1 1:-0.539442 2:0.254675 
1 1:-0.539442 2:0.254675 
1 1:-0.539442 2:0.254675 
1 1:-0.539442 2:0.254675 
1 1:-0.539442 2:0.254675 
1 1:-0.539442 2:0.254675 
1 1:-0.539442 2:0.254675 
1 1:-0.539442 2:0.254675 
1 1:-0.539442 2:0.254675 
1 1:-0.539442 2:0.254675 
1 1:-0.539442 2:0.254675 
1 1:-0.539442 2:0.254675 
1 1:-0.539442 2:0.254675 
1 1:-0.539442 2:0.254675 
1 1:-0.539442 2:0.254675 
1 1:-0.539442 2:0.254675 
1 1:-0.539442 2:0.254675 
1 1:-0.539442 2:0.254675 
1 1:-0.539442 2:0.254675 
1 1:-0.539442 2:0.254675 
1 1:-0.539442 2:0.254675 
1 1:-0.539442 2:0.254675 
1 1:-0.539442 2:0.254675 
1 1:-0.539442 2:0.254675 
1 1:-0.539442 2:0.254675 
1 1:-0.539442 2:0.254675 
1 1:-0.539442 2:0.254675 
1 1:-0.539442 2:0.254675 
1 1:-0.539442 2:0.254675 
1 1:-0.539442 2:0.254675 
1 1:-0.539442 2:0.254675 
1 1:-0.539442 2:0.254675 
1 1:-0.539442 2:0.254675 
1 1:-0.539442 2:0.254675 
1 1:-0.539442 2:0.254675 
1 1:-0.539442 2:0.254675 
1 1:-0.539442 2:0.254675 
1 1:-0.539442 2:0.254675 
1 1:-0.539442 2:0.254675 
1 1:-0.539442 2:0.254675 
1 1:-0.539442 2:0.254675 
1 1:-0.539442 2:0.254675 
1 1:-0.539442 2:0.254675 
1 1:-0.539442 2:0.254675 
1 1:-0.539442 2:0.254675 
1 1:-0.539442 2:0.254675 
1 1:-0.539442 2:0.254675 
1 1:-0.539442 2:0.254675 
1 1:-0.539442 2:0.254675 
1 1:-0.539442 2:0.254675 
1 1:-0.539442 2:0.254675 
1 1:-0.539442 2:0.254675 
1 1:-0.539442 2:0.254675 
1 1:-0.539442 2:0.254675 
1 1:-0.539442 2:0.254675 
1 1:-0.539442 2:0.254675 
1 1:-0.539442 2:0.254675 
1 1:-0.539442 2:0.254675 
1 1:-0.0696239 2:0.363467 
1 1:-0.0696239 2:0.363467 
1 1:-0.0696239 2:0.363467 
1 1:-0.0696239 2:0.363467 
1 1:-0.0696239 2:0.363467 
1 1:-0.0696239 2:0.363467 
1 1:-0.0696239 2:0.363467 
1 1:-0.0696239 2:0.363467 
1 1:-0.0696239 2:0.363467 
1 1:-0.0696239 2:0.363467 
1 1:-0.0696239 2:0.363467 
1 1:-0.0696239 2:0.363467 
1 1:-0.0696239 2:0.363467 
1 1:-0.0696239 2:0.363467 
1 1:-0.0696239 2:0.363467 
1 1:-0.0696239 2:0.363467 
1 1:-0.0696239 2:0.363467 
1 1:-0.0696239 2:0.363467 
1 1:-0.0696239 2:0.363467 
1 1:-0.0696239 2:0.363467 
1 1:-0.0696239 2:0.363467 
1 1:-0.0696239 2:0.363467 
1 1:-0.0696239 2:0.363467 
1 1:-0.0696239 2:0.363467 
1 1:-0.0696239 2:0.363467 
1 1:-0.0696239 2:0.363467 
1 1:-0.0696239 2:0.363467 
1 1:-0.0696239 2:0.363467 
1 1:-0.0696239 2:0.363467 
1 1:-0.0696239 2:0.363467 
1 1:-0.0696239 2:0.363467 
1 1:-0.0696239 2:0.363467 
1 1:-0.0696239 2:0.363467 
1 1:-0.0696239 2:0.363467 
1 1:-0.0696239 2:0.363467 
1 1:-0.0696239 2:0.363467 
1 1:-0.0696239 2:0.363467 
1 1:-0.0696239 2:0.363467 
1 1:-0.0696239 2:0.363467 
1 1:-0.0696239 2:0.363467 
1 1:-0.0696239 2:0.363467 
1 1:-0.0696239 2:0.363467 
1 1:-0.0696239 2:0.363467 
1 1:-0.0696239 2:0.363467 
1 1:-0.0696239 2:0.363467 
1 1:-0.0696239 2:0.363467 
1 1:-0.0696239 2:0.363467 
1 1:-0.0696239 2:0.363467 
1 1:-0.0696239 2:0.363467 
1 1:-0.0696239 2:0.363467 
1 1:-0.0696239 2:0.363467 
1 1:-0.0696239 2:0.363467 
1 1:-0.0696239 2:0.363467 
1 1:-0.0696239 2:0.363467 
1 1:-0.0696239 2:0.363467 
1 1:-0.0696239 2:0.363467 
1 1:-0.0696239 2:0.363467 
1 1:-0.0696239 2:0.363467 
1 1:-0.0696239 2:0.363467 
1 1:-0.0696239 2:0.363467 
1 1:-0.0696239 2:0.363467 
1 1:-0.0696239 2:0.363467 
1 1:-0.0696239 2:0.363467 
1 1:-0.0696239 2:0.363467 
1 1:-0.0696239 2:0.363467 
1 1:-0.0696239 2:0.363467 
1 1:-0.0696239 2:0.363467 
1 1:-0.0696239 2:0.363467 
1 1:-0.0696239 2:0.363467 
1 1:-0.0696239 2:0.363467 
1 1:-0.0696239 2:0.363467 
1 1:-0.0696239 2:0.363467 
1 1:-0.0696239 2:0.363467 
1 1:-0.0696239 2:0.363467 
1 1:-0.0696239 2:0.363467 
1 1:-0.0696239 2:0.363467 
1 1:-0.0696239 2:0.363467 
1 1:-0.0696239 2:0.363467 
1 1:-0.0696239 2:0.363467 
1 1:-0.0696239 2:0.363467 
1 1:-0.0696239 2:0.363467 
1 1:-0.0696239 2:0.363467 
1 1:-0.0696239 2:0.363467 
1 1:-0.0696239 2:0.363467 
1 1:-0.0696239 2:0.363467 
1 1:-0.0696239 2:0.363467 
1 1:-0.0696239 2:0.363467 
1 1:-0.0696239 2:0.363467 
1 1:-0.0696239 2:0.363467 
1 1:-0.0696239 2:0.363467 
1 1:0.224055 2:-0.0603466 
1 1:0.224055 2:-0.0603466 
1 1:0.224055 2:-0.0603466 
1 1:0.224055 2:-0.0603466 
1 1:0.224055 2:-0.0603466 
1 1:0.224055 2:-0.0603466 
1 1:0.224055 2:-0.0603466 
1 1:0.224055 2:-0.0603466 
1 1:0.224055 2:-0.0603466 
1 1:0.224055 2:-0.0603466 
1 1:0.224055 2:-0.0603466 
1 1:0.224055 2:-0.0603466 
1 1:0.224055 2:-0.0603466 
1 1:0.224055 2:-0.0603466 
1 1:0.224055 2:-0.0603466 
1 1:0.224055 2:-0.0603466 
1 1:0.224055 2:-0.0603466 
1 1:0.224055 2:-0.0603466 
1 1:0.224055 2:-0.0603466 
1 1:0.224055 2:-0.0603466 
1 1:0.224055 2:-0.0603466 
1 1:0.224055 2:-0.0603466 
1 1:0.224055 2:-0.0603466 
1 1:0.224055 2:-0.0603466 
1 1:0.224055 2:-0.0603466 
1 1:0.224055 2:-0.0603466 
1 1:0.224055 2:-0.0603466 
1 1:0.224055 2:-0.0603466 
1 1:0.224055 2:-0.0603466 
1 1:0.224055 2:-0.0603466 
1 1:0.224055 2:-0.0603466 
1 1:0.224055 2:-0.0603466 
1 1:0.224055 2:-0.0603466 
1 1:0.224055 2:-0.0603466 
1 1:0.224055 2:-0.0603466 
1 1:0.224055 2:-0.0603466 
1 1:0.224055 2:-0.0603466 
1 1:0.224055 2:-0.0603466 
1 1:0.224055 2:-0.0603466 
1 1:0.224055 2:-0.0603466 
1 1:0.224055 2:-0.0603466 
1 1:0.224055 2:-0.0603466 
1 1:0.224055 2:-0.0603466 
1 1:0.224055 2:-0.0603466 
1 1:0.224055 2:-0.0603466 
1 1:0.224055 2:-0.0603466 
1 1:0.224055 2:-0.0603466 
1 1:0.224055 2:-0.0603466 
1 1:0.224055 2:-0.0603466 
1 1:0.224055 2:-0.0603466 
1 1:0.224055 2:-0.0603466 
1 1:0.224055 2:-0.0603466 
1 1:0.224055 2:-0.0603466 
1 1:0.224055 2:-0.0603466 
1 1:0.224055 2:-0.0603466 
1 1:0.224055 2:-0.0603466 
1 1:0.224055 2:-0.0603466 
1 1:0.224055 2:-0.0603466 
1 1:0.224055 2:-0.0603466 
1 1:0.224055 2:-0.0603466 
1 1:0.224055 2:-0.0603466 
1 1:0.224055 2:-0.0603466 
1 1:0.224055 2:-0.0603466 
1 1:0.224055 2:-0.0603466 
1 1:0.224055 2:-0.0603466 
1 1:0.224055 2:-0.0603466 
1 1:0.224055 2:-0.0603466 
1 1:0.224055 2:-0.0603466 
1 1:0.224055 2:-0.0603466 
1 1:0.224055 2:-0.0603466 
1 1:0.224055 2:-0.0603466 
1 1:0.224055 2:-0.0603466 
1 1:0.224055 2:-0.0603466 
1 1:0.224055 2:-0.0603466 
1 1:0.224055 2:-0.0603466 
1 1:0.224055 2:-0.0603466 
1 1:0.224055 2:-0.0603466 
1 1:0.224055 2:-0.0603466 
1 1:0.224055 2:-0.0603466 
1 1:0.224055 2:-0.0603466 
1 1:0.224055 2:-0.0603466 
1 1:0.224055 2:-0.0603466 
1 1:0.224055 2:-0.0603466 
1 1:0.224055 2:-0.0603466 
1 1:0.224055 2:-0.0603466 
1 1:0.224055 2:-0.0603466 
1 1:0.224055 2:-0.0603466 
1 1:0.224055 2:-0.0603466 
1 1:0.224055 2:-0.0603466 
1 1:0.224055 2:-0.0603466 
1 1:0.224055 2:-0.0603466 
1 1:0.224055 2:-0.0603466 
1 1:0.224055 2:-0.0603466 
1 1:0.224055 2:-0.0603466 
1 1:0.224055 2:-0.0603466 
1 1:-0.983768 2:-0.941644 
1 1:-0.983768 2:-0.941644 
1 1:-0.983768 2:-0.941644 
1 1:-0.983768 2:-0.941644 
1 1:-0.983768 2:-0.941644 
1 1:-0.983768 2:-0.941644 
1 1:-0.983768 2:-0.941644 
1 1:-0.983768 2:-0.941644 
1 1:-0.983768 2:-0.941644 
1 1:-0.983768 2:-0.941644 
1 1:-0.983768 2:-0.941644 
1 1:-0.983768 2:-0.941644 
1 1:-0.983768 2:-0.941644 
1 1:-0.983768 2:-0.941644 
1 1:-0.983768 2:-0.941644 
1 1:-0.983768 2:-0.941644 
1 1:-0.983768 2:-0.941644 
1 1:-0.983768 2:-0.941644 
1 1:-0.983768 2:-0.941644 
1 1:-0.983768 2:-0.941644 
1 1:-0.983768 2:-0.941644 
1 1:-0.983768 2:-0.941644 
1 1:-0.983768 2:-0.941644 
1 1:-0.983768 2:-0.941644 
1 1:-0.983768 2:-0.941644 
1 1:-0.983768 2:-0.941644 
1 1:-0.983768 2:-0.941644 
1 1:-0.983768 2:-0.941644 
1 1:-0.983768 2:-0.941644 
1 1:-0.983768 2:-0.941644 
1 1:-0.983768 2:-0.941644 
1 1:-0.983768 2:-0.941644 
1 1:-0.983768 2:-0.941644 
1 1:-0.983768 2:-0.941644 
1 1:-0.983768 2:-0.941644 
1 1:-0.983768 2:-0.941644 
1 1:-0.983768 2:-0.941644 
1 1:-0.983768 2:-0.941644 
1 1:-0.983768 2:-0.941644 
1 1:-0.983768 2:-0.941644 
1 1:-0.983768 2:-0.941644 
1 1:-0.983768 2:-0.941644 
1 1:-0.983768 2:-0.941644 
1 1:-0.983768 2:-0.941644 
1 1:-0.983768 2:-0.941644 
1 1:-0.983768 2:-0.941644 
1 1:-0.983768 2:-0.941644 
1 1:-0.983768 2:-0.941644 
1 1:-0.983768 2:-0.941644 
1 1:-0.983768 2:-0.941644 
1 1:-0.983768 2:-0.941644 
1 1:-0.983768 2:-0.941644 
1 1:-0.983768 2:-0.941644 
1 1:-0.983768 2:-0.941644 
1 1:-0.983768 2:-0.941644 
1 1:-0.983768 2:-0.941644 
1 1:-0.983768 2:-0.941644 
1 1:-0.983768 2:-0.941644 
1 1:-0.983768 2:-0.941644 
1 1:-0.983768 2:-0.941644 
1 1:-0.983768 2:-0.941644 
1 1:-0.983768 2:-0.941644 
1 1:-0.983768 2:-0.941644 
1 1:-0.983768 2:-0.941644 
1 1:-0.983768 2:-0.941644 
1 1:-0.983768 2:-0.941644 
1 1:-0.983768 2:-0.941644 
1 1:-0.983768 2:-0.941644 
1 1:-0.983768 2:-0.941644 
1 1:-0.983768 2:-0.941644 
1 1:-0.983768 2:-0.941644 
1 1:-0.983768 2:-0.941644 
1 1:-0.983768 2:-0.941644 
1 1:-0.983768 2:-0.941644 
1 1:-0.983768 2:-0.941644 
1 1:-0.983768 2:-0.941644 
1 1:-0.983768 2:-0.941644 
1 1:-0.983768 2:-0.941644 
1 1:-0.983768 2:-0.941644 
1 1:-0.983768 2:-0.941644 
1 1:-0.983768 2:-0.941644 
1 1:-0.983768 2:-0.941644 
1 1:-0.983768 2:-0.941644 
1 1:-0.983768 2:-0.941644 
1 1:-0.983768 2:-0.941644 
1 1:-0.983768 2:-0.941644 
1 1:-0.983768 2:-0.941644 
1 1:-0.983768 2:-0.941644 
1 1:-0.983768 2:-0.941644 
1 1:-0.983768 2:-0.941644 
1 1:-0.983768 2:-0.941644 
1 1:-0.983768 2:-0.941644 
1 1:-0.983768 2:-0.941644 
1 1:-0.983768 2:-0.941644 
1 1:-0.983768 2:-0.941644 
1 1:-0.959156 2:-0.962977 
1 1:-0.959156 2:-0.962977 
1 1:-0.959156 2:-0.962977 
1 1:-0.959156 2:-0.962977 
1 1:-0.959156 2:-0.962977 
1 1:-0.959156 2:-0.962977 
1 1:-0.959156 2:-0.962977 
1 1:-0.959156 2:-0.962977 
1 1:-0.959156 2:-0.962977 
1 1:-0.959156 2:-0.962977 
1 1:-0.959156 2:-0.962977 
1 1:-0.959156 2:-0.962977 
1 1:-0.959156 2:-0.962977 
1 1:-0.959156 2:-0.962977 
1 1:-0.959156 2:-0.962977 
1 1:-0.959156 2:-0.962977 
1 1:-0.959156 2:-0.962977 
1 1:-0.959156 2:-0.962977 
1 1:-0.959156 2:-0.962977 
1 1:-0.959156 2:-0.962977 
1 1:-0.959156 2:-0.962977 
1 1:-0.959156 2:-0.962977 
1 1:-0.959156 2:-0.962977 
1 1:-0.959156 2:-0.962977 
1 1:-0.959156 2:-0.962977 
1 1:-0.959156 2:-0.962977 
1 1:-0.959156 2:-0.962977 
1 1:-0.959156 2:-0.962977 
1 1:-0.959156 2:-0.962977 
1 1:-0.959156 2:-0.962977 
1 1:-0.959156 2:-0.962977 
1 1:-0.959156 2:-0.962977 
1 1:-0.959156 2:-0.962977 
1 1:-0.959156 2:-0.962977 
1 1:-0.959156 2:-0.962977 
1 1:-0.959156 2:-0.962977 
1 1:-0.959156 2:-0.962977 
1 1:-0.959156 2:-0.962977 
1 1:-0.959156 2:-0.962977 
1 1:-0.959156 2:-0.962977 
1 1:-0.959156 2:-0.962977 
1 1:-0.959156 2:-0.962977 
1 1:-0.959156 2:-0.962977 
1 1:-0.959156 2:-0.962977 
1 1:-0.959156 2:-0.962977 
1 1:-0.959156 2:-0.962977 
1 1:-0.959156 2:-0.962977 
1 1:-0.959156 2:-0.962977 
1 1:-0.959156 2:-0.962977 
1 1:-0.959156 2:-0.962977 
1 1:-0.959156 2:-0.962977 
1 1:-0.959156 2:-0.962977 
1 1:-0.959156 2:-0.962977 
1 1:-0.959156 2:-0.962977 
1 1:-0.959156 2:-0.962977 
1 1:-0.959156 2:-0.962977 
1 1:-0.959156 2:-0.962977 
1 1:-0.959156 2:-0.962977 
1 1:-0.959156 2:-0.962977 
1 1:-0.959156 2:-0.962977 
1 1:-0.959156 2:-0.962977 
1 1:-0.959156 2:-0.962977 
1 1:-0.959156 2:-0.962977 
1 1:-0.959156 2:-0.962977 
