svm_type one_class
kernel_type rbf
gamma 0.5
nr_class 2
total_sv 14153
rho 9822.55
SV
1 1:0.0631446 2:-0.530616 
1 1:0.0888644 2:-0.291034 
1 1:0.0631446 2:-0.530616 
1 1:0.0888644 2:-0.291034 
1 1:0.0631446 2:-0.530616 
1 1:0.0888644 2:-0.291034 
1 1:0.0631446 2:-0.530616 
1 1:0.0888644 2:-0.291034 
1 1:0.0631446 2:-0.530616 
1 1:0.0888644 2:-0.291034 
1 1:0.0631446 2:-0.530616 
1 1:0.0888644 2:-0.291034 
1 1:0.0631446 2:-0.530616 
1 1:0.0888644 2:-0.291034 
1 1:0.0631446 2:-0.530616 
1 1:0.0888644 2:-0.291034 
1 1:0.0631446 2:-0.530616 
1 1:0.0888644 2:-0.291034 
1 1:0.0631446 2:-0.530616 
1 1:0.0888644 2:-0.291034 
1 1:0.0631446 2:-0.530616 
1 1:0.0888644 2:-0.291034 
1 1:0.0631446 2:-0.530616 
1 1:0.0888644 2:-0.291034 
1 1:0.0631446 2:-0.530616 
1 1:0.0888644 2:-0.291034 
1 1:0.0631446 2:-0.530616 
1 1:0.0888644 2:-0.291034 
1 1:0.0631446 2:-0.530616 
1 1:0.0888644 2:-0.291034 
1 1:0.0631446 2:-0.530616 
1 1:0.0888644 2:-0.291034 
1 1:0.0631446 2:-0.530616 
1 1:0.0888644 2:-0.291034 
1 1:0.0631446 2:-0.530616 
1 1:0.0888644 2:-0.291034 
1 1:0.0631446 2:-0.530616 
1 1:0.0888644 2:-0.291034 
1 1:0.0631446 2:-0.530616 
1 1:0.0888644 2:-0.291034 
1 1:0.0631446 2:-0.530616 
1 1:0.0888644 2:-0.291034 
1 1:0.0631446 2:-0.530616 
1 1:0.0888644 2:-0.291034 
1 1:0.0631446 2:-0.530616 
1 1:0.0888644 2:-0.291034 
1 1:0.0631446 2:-0.530616 
1 1:0.0888644 2:-0.291034 
1 1:0.0631446 2:-0.530616 
1 1:0.0888644 2:-0.291034 
1 1:0.0631446 2:-0.530616 
1 1:0.0888644 2:-0.291034 
1 1:0.0631446 2:-0.530616 
1 1:0.0888644 2:-0.291034 
1 1:0.0631446 2:-0.530616 
1 1:0.0888644 2:-0.291034 
1 1:0.0631446 2:-0.530616 
1 1:0.0888644 2:-0.291034 
1 1:0.0631446 2:-0.530616 
1 1:0.0888644 2:-0.291034 
1 1:0.0631446 2:-0.530616 
1 1:0.0888644 2:-0.291034 
1 1:0.0631446 2:-0.530616 
1 1:0.0888644 2:-0.291034 
1 1:0.0631446 2:-0.530616 
1 1:0.0888644 2:-0.291034 
1 1:0.0631446 2:-0.530616 
1 1:0.0888644 2:-0.291034 
1 1:0.0631446 2:-0.530616 
1 1:0.0888644 2:-0.291034 
1 1:0.0631446 2:-0.530616 
1 1:0.0888644 2:-0.291034 
1 1:0.0631446 2:-0.530616 
1 1:0.0888644 2:-0.291034 
1 1:0.0631446 2:-0.530616 
1 1:0.0888644 2:-0.291034 
1 1:0.0631446 2:-0.530616 
1 1:0.0888644 2:-0.291034 
1 1:0.0631446 2:-0.530616 
1 1:0.0888644 2:-0.291034 
1 1:0.0631446 2:-0.530616 
1 1:0.0888644 2:-0.291034 
1 1:0.0631446 2:-0.530616 
1 1:0.0888644 2:-0.291034 
1 1:0.0631446 2:-0.530616 
1 1:0.0888644 2:-0.291034 
1 1:0.0631446 2:-0.530616 
1 1:0.0888644 2:-0.291034 
1 1:0.0631446 2:-0.530616 
1 1:0.0888644 2:-0.291034 
1 1:0.0631446 2:-0.530616 
1 1:0.0888644 2:-0.291034 
1 1:0.0631446 2:-0.530616 
1 1:0.0888644 2:-0.291034 
1 1:0.0631446 2:-0.530616 
1 1:0.0888644 2:-0.291034 
1 1:0.0631446 2:-0.530616 
1 1:0.0888644 2:-0.291034 
1 1:0.0631446 2:-0.530616 
1 1:0.0888644 2:-0.291034 
1 1:0.0631446 2:-0.530616 
1 1:0.0888644 2:-0.291034 
1 1:0.0631446 2:-0.530616 
1 1:0.0888644 2:-0.291034 
1 1:0.0631446 2:-0.530616 
1 1:0.0888644 2:-0.291034 
1 1:0.0631446 2:-0.530616 
1 1:0.0888644 2:-0.291034 
1 1:0.0631446 2:-0.530616 
1 1:0.0888644 2:-0.291034 
1 1:0.0631446 2:-0.530616 
1 1:0.0888644 2:-0.291034 
1 1:0.0631446 2:-0.530616 
1 1:0.0888644 2:-0.291034 
1 1:0.0631446 2:-0.530616 
1 1:0.0888644 2:-0.291034 
1 1:0.0631446 2:-0.530616 
1 1:0.0888644 2:-0.291034 
1 1:0.0631446 2:-0.530616 
1 1:0.0888644 2:-0.291034 
1 1:0.0631446 2:-0.530616 
1 1:0.0888644 2:-0.291034 
1 1:0.0631446 2:-0.530616 
1 1:0.0888644 2:-0.291034 
1 1:0.0631446 2:-0.530616 
1 1:0.0888644 2:-0.291034 
1 1:0.0631446 2:-0.530616 
1 1:0.0888644 2:-0.291034 
1 1:0.0631446 2:-0.530616 
1 1:0.0888644 2:-0.291034 
1 1:0.0631446 2:-0.530616 
1 1:0.0888644 2:-0.291034 
1 1:0.0631446 2:-0.530616 
1 1:0.0888644 2:-0.291034 
1 1:0.0631446 2:-0.530616 
1 1:0.0888644 2:-0.291034 
1 1:0.0631446 2:-0.530616 
1 1:0.0888644 2:-0.291034 
1 1:0.0631446 2:-0.530616 
1 1:0.0888644 2:-0.291034 
1 1:0.0631446 2:-0.530616 
1 1:0.0888644 2:-0.291034 
1 1:0.0631446 2:-0.530616 
1 1:0.0888644 2:-0.291034 
1 1:0.0631446 2:-0.530616 
1 1:0.0888644 2:-0.291034 
1 1:0.0631446 2:-0.530616 
1 1:0.0888644 2:-0.291034 
1 1:0.0631446 2:-0.530616 
1 1:0.0888644 2:-0.291034 
1 1:0.0631446 2:-0.530616 
1 1:0.0888644 2:-0.291034 
1 1:0.0631446 2:-0.530616 
1 1:0.0888644 2:-0.291034 
1 1:0.0631446 2:-0.530616 
1 1:0.0888644 2:-0.291034 
1 1:0.0631446 2:-0.530616 
1 1:0.0888644 2:-0.291034 
1 1:0.573923 2:-0.0419969 
1 1:0.573923 2:-0.0419969 
1 1:0.573923 2:-0.0419969 
1 1:0.573923 2:-0.0419969 
1 1:0.573923 2:-0.0419969 
1 1:0.573923 2:-0.0419969 
1 1:0.573923 2:-0.0419969 
1 1:0.573923 2:-0.0419969 
1 1:0.573923 2:-0.0419969 
1 1:0.573923 2:-0.0419969 
1 1:0.573923 2:-0.0419969 
1 1:0.573923 2:-0.0419969 
1 1:0.573923 2:-0.0419969 
1 1:0.573923 2:-0.0419969 
1 1:0.573923 2:-0.0419969 
1 1:0.573923 2:-0.0419969 
1 1:0.573923 2:-0.0419969 
1 1:0.573923 2:-0.0419969 
1 1:0.573923 2:-0.0419969 
1 1:0.573923 2:-0.0419969 
1 1:0.573923 2:-0.0419969 
1 1:0.573923 2:-0.0419969 
1 1:0.573923 2:-0.0419969 
1 1:0.573923 2:-0.0419969 
1 1:0.573923 2:-0.0419969 
1 1:0.573923 2:-0.0419969 
1 1:0.573923 2:-0.0419969 
1 1:0.573923 2:-0.0419969 
1 1:0.573923 2:-0.0419969 
1 1:0.573923 2:-0.0419969 
1 1:0.573923 2:-0.0419969 
1 1:0.573923 2:-0.0419969 
1 1:0.573923 2:-0.0419969 
1 1:0.573923 2:-0.0419969 
1 1:0.573923 2:-0.0419969 
1 1:0.573923 2:-0.0419969 
1 1:0.573923 2:-0.0419969 
1 1:0.573923 2:-0.0419969 
1 1:0.573923 2:-0.0419969 
1 1:0.573923 2:-0.0419969 
1 1:0.573923 2:-0.0419969 
1 1:0.573923 2:-0.0419969 
1 1:0.573923 2:-0.0419969 
1 1:0.573923 2:-0.0419969 
1 1:0.573923 2:-0.0419969 
1 1:0.573923 2:-0.0419969 
1 1:0.573923 2:-0.0419969 
1 1:0.573923 2:-0.0419969 
1 1:0.573923 2:-0.0419969 
1 1:0.573923 2:-0.0419969 
1 1:0.573923 2:-0.0419969 
1 1:0.573923 2:-0.0419969 
1 1:0.573923 2:-0.0419969 
1 1:0.573923 2:-0.0419969 
1 1:0.573923 2:-0.0419969 
1 1:0.573923 2:-0.0419969 
1 1:0.573923 2:-0.0419969 
1 1:0.573923 2:-0.0419969 
1 1:0.573923 2:-0.0419969 
1 1:0.573923 2:-0.0419969 
1 1:0.573923 2:-0.0419969 
1 1:0.573923 2:-0.0419969 
1 1:0.573923 2:-0.0419969 
1 1:0.573923 2:-0.0419969 
1 1:0.573923 2:-0.0419969 
1 1:0.573923 2:-0.0419969 
1 1:0.573923 2:-0.0419969 
1 1:0.573923 2:-0.0419969 
1 1:0.573923 2:-0.0419969 
1 1:0.573923 2:-0.0419969 
1 1:0.573923 2:-0.0419969 
1 1:0.573923 2:-0.0419969 
1 1:0.573923 2:-0.0419969 
1 1:0.573923 2:-0.0419969 
1 1:0.573923 2:-0.0419969 
1 1:0.573923 2:-0.0419969 
1 1:0.573923 2:-0.0419969 
1 1:0.573923 2:-0.0419969 
1 1:0.573923 2:-0.0419969 
1 1:0.573923 2:-0.0419969 
1 1:0.573923 2:-0.0419969 
1 1:0.573923 2:-0.0419969 
1 1:0.573923 2:-0.0419969 
1 1:0.573923 2:-0.0419969 
1 1:0.573923 2:-0.0419969 
1 1:0.573923 2:-0.0419969 
1 1:0.573923 2:-0.0419969 
1 1:0.573923 2:-0.0419969 
1 1:0.573923 2:-0.0419969 
1 1:0.573923 2:-0.0419969 
1 1:0.573923 2:-0.0419969 
1 1:0.573923 2:-0.0419969 
1 1:0.573923 2:-0.0419969 
1 1:0.573923 2:-0.0419969 
1 1:-0.579249 2:0.848661 
1 1:0.0288812 2:1 
1 1:-0.632054 2:0.316782 
1 1:-0.579249 2:0.848661 
1 1:0.0288812 2:1 
1 1:-0.632054 2:0.316782 
1 1:-0.579249 2:0.848661 
1 1:0.0288812 2:1 
1 1:-0.632054 2:0.316782 
1 1:-0.579249 2:0.848661 
1 1:0.0288812 2:1 
1 1:-0.632054 2:0.316782 
1 1:-0.579249 2:0.848661 
1 1:0.0288812 2:1 
1 1:-0.632054 2:0.316782 
1 1:-0.579249 2:0.848661 
1 1:0.0288812 2:1 
1 1:-0.632054 2:0.316782 
1 1:-0.579249 2:0.848661 
1 1:0.0288812 2:1 
1 1:-0.632054 2:0.316782 
1 1:-0.579249 2:0.848661 
1 1:0.0288812 2:1 
1 1:-0.632054 2:0.316782 
1 1:-0.579249 2:0.848661 
1 1:0.0288812 2:1 
1 1:-0.632054 2:0.316782 
1 1:-0.579249 2:0.848661 
1 1:0.0288812 2:1 
1 1:-0.632054 2:0.316782 
1 1:-0.579249 2:0.848661 
1 1:0.0288812 2:1 
1 1:-0.632054 2:0.316782 
1 1:-0.579249 2:0.848661 
1 1:0.0288812 2:1 
1 1:-0.632054 2:0.316782 
1 1:-0.579249 2:0.848661 
1 1:0.0288812 2:1 
1 1:-0.632054 2:0.316782 
1 1:-0.579249 2:0.848661 
1 1:0.0288812 2:1 
1 1:-0.632054 2:0.316782 
1 1:-0.579249 2:0.848661 
1 1:0.0288812 2:1 
1 1:-0.632054 2:0.316782 
1 1:-0.579249 2:0.848661 
1 1:0.0288812 2:1 
1 1:-0.632054 2:0.316782 
1 1:-0.579249 2:0.848661 
1 1:0.0288812 2:1 
1 1:-0.632054 2:0.316782 
1 1:-0.579249 2:0.848661 
1 1:0.0288812 2:1 
1 1:-0.632054 2:0.316782 
1 1:-0.579249 2:0.848661 
1 1:0.0288812 2:1 
1 1:-0.632054 2:0.316782 
1 1:-0.579249 2:0.848661 
1 1:0.0288812 2:1 
1 1:-0.632054 2:0.316782 
1 1:-0.579249 2:0.848661 
1 1:0.0288812 2:1 
1 1:-0.632054 2:0.316782 
1 1:-0.579249 2:0.848661 
1 1:0.0288812 2:1 
1 1:-0.632054 2:0.316782 
1 1:-0.579249 2:0.848661 
1 1:0.0288812 2:1 
1 1:-0.632054 2:0.316782 
1 1:-0.579249 2:0.848661 
1 1:0.0288812 2:1 
1 1:-0.632054 2:0.316782 
1 1:-0.579249 2:0.848661 
1 1:0.0288812 2:1 
1 1:-0.632054 2:0.316782 
1 1:-0.579249 2:0.848661 
1 1:0.0288812 2:1 
1 1:-0.632054 2:0.316782 
1 1:-0.579249 2:0.848661 
1 1:0.0288812 2:1 
1 1:-0.632054 2:0.316782 
1 1:-0.579249 2:0.848661 
1 1:0.0288812 2:1 
1 1:-0.632054 2:0.316782 
1 1:-0.579249 2:0.848661 
1 1:0.0288812 2:1 
1 1:-0.632054 2:0.316782 
1 1:-0.579249 2:0.848661 
1 1:0.0288812 2:1 
1 1:-0.632054 2:0.316782 
1 1:-0.579249 2:0.848661 
1 1:0.0288812 2:1 
1 1:-0.632054 2:0.316782 
1 1:-0.579249 2:0.848661 
1 1:0.0288812 2:1 
1 1:-0.632054 2:0.316782 
1 1:-0.579249 2:0.848661 
1 1:0.0288812 2:1 
1 1:-0.632054 2:0.316782 
1 1:-0.579249 2:0.848661 
1 1:0.0288812 2:1 
1 1:-0.632054 2:0.316782 
1 1:-0.579249 2:0.848661 
1 1:0.0288812 2:1 
1 1:-0.632054 2:0.316782 
1 1:-0.579249 2:0.848661 
1 1:0.0288812 2:1 
1 1:-0.632054 2:0.316782 
1 1:-0.579249 2:0.848661 
1 1:0.0288812 2:1 
1 1:-0.632054 2:0.316782 
1 1:-0.579249 2:0.848661 
1 1:0.0288812 2:1 
1 1:-0.632054 2:0.316782 
1 1:-0.579249 2:0.848661 
1 1:0.0288812 2:1 
1 1:-0.632054 2:0.316782 
1 1:-0.579249 2:0.848661 
1 1:0.0288812 2:1 
1 1:-0.632054 2:0.316782 
1 1:-0.579249 2:0.848661 
1 1:0.0288812 2:1 
1 1:-0.632054 2:0.316782 
1 1:-0.579249 2:0.848661 
1 1:0.0288812 2:1 
1 1:-0.632054 2:0.316782 
1 1:-0.579249 2:0.848661 
1 1:0.0288812 2:1 
1 1:-0.632054 2:0.316782 
1 1:-0.579249 2:0.848661 
1 1:0.0288812 2:1 
1 1:-0.632054 2:0.316782 
1 1:-0.579249 2:0.848661 
1 1:0.0288812 2:1 
1 1:-0.632054 2:0.316782 
1 1:-0.579249 2:0.848661 
1 1:0.0288812 2:1 
1 1:-0.632054 2:0.316782 
1 1:-0.579249 2:0.848661 
1 1:0.0288812 2:1 
1 1:-0.632054 2:0.316782 
1 1:-0.579249 2:0.848661 
1 1:0.0288812 2:1 
1 1:-0.632054 2:0.316782 
1 1:-0.579249 2:0.848661 
1 1:0.0288812 2:1 
1 1:-0.632054 2:0.316782 
1 1:-0.579249 2:0.848661 
1 1:0.0288812 2:1 
1 1:-0.632054 2:0.316782 
1 1:-0.579249 2:0.848661 
1 1:0.0288812 2:1 
1 1:-0.632054 2:0.316782 
1 1:-0.579249 2:0.848661 
1 1:0.0288812 2:1 
1 1:-0.632054 2:0.316782 
1 1:-0.579249 2:0.848661 
1 1:0.0288812 2:1 
1 1:-0.632054 2:0.316782 
1 1:-0.579249 2:0.848661 
1 1:0.0288812 2:1 
1 1:-0.632054 2:0.316782 
1 1:-0.579249 2:0.848661 
1 1:0.0288812 2:1 
1 1:-0.632054 2:0.316782 
1 1:-0.579249 2:0.848661 
1 1:0.0288812 2:1 
1 1:-0.632054 2:0.316782 
1 1:-0.579249 2:0.848661 
1 1:0.0288812 2:1 
1 1:-0.632054 2:0.316782 
1 1:-0.579249 2:0.848661 
1 1:0.0288812 2:1 
1 1:-0.632054 2:0.316782 
1 1:-0.579249 2:0.848661 
1 1:0.0288812 2:1 
1 1:-0.632054 2:0.316782 
1 1:-0.579249 2:0.848661 
1 1:0.0288812 2:1 
1 1:-0.632054 2:0.316782 
1 1:-0.579249 2:0.848661 
1 1:0.0288812 2:1 
1 1:-0.632054 2:0.316782 
1 1:-0.579249 2:0.848661 
1 1:0.0288812 2:1 
1 1:-0.632054 2:0.316782 
1 1:-0.579249 2:0.848661 
1 1:0.0288812 2:1 
1 1:-0.632054 2:0.316782 
1 1:-0.579249 2:0.848661 
1 1:0.0288812 2:1 
1 1:-0.632054 2:0.316782 
1 1:-0.579249 2:0.848661 
1 1:0.0288812 2:1 
1 1:-0.632054 2:0.316782 
1 1:-0.579249 2:0.848661 
1 1:0.0288812 2:1 
1 1:-0.632054 2:0.316782 
1 1:-0.579249 2:0.848661 
1 1:0.0288812 2:1 
1 1:-0.632054 2:0.316782 
1 1:-0.579249 2:0.848661 
1 1:0.0288812 2:1 
1 1:-0.632054 2:0.316782 
1 1:-0.579249 2:0.848661 
1 1:0.0288812 2:1 
1 1:-0.632054 2:0.316782 
1 1:-0.579249 2:0.848661 
1 1:0.0288812 2:1 
1 1:-0.632054 2:0.316782 
1 1:-0.579249 2:0.848661 
1 1:0.0288812 2:1 
1 1:-0.632054 2:0.316782 
1 1:-0.579249 2:0.848661 
1 1:0.0288812 2:1 
1 1:-0.632054 2:0.316782 
1 1:-0.579249 2:0.848661 
1 1:0.0288812 2:1 
1 1:-0.632054 2:0.316782 
1 1:-0.579249 2:0.848661 
1 1:0.0288812 2:1 
1 1:-0.632054 2:0.316782 
1 1:-0.579249 2:0.848661 
1 1:0.0288812 2:1 
1 1:-0.632054 2:0.316782 
1 1:-0.579249 2:0.848661 
1 1:0.0288812 2:1 
1 1:-0.632054 2:0.316782 
1 1:-0.579249 2:0.848661 
1 1:0.0288812 2:1 
1 1:-0.632054 2:0.316782 
1 1:-0.579249 2:0.848661 
1 1:0.0288812 2:1 
1 1:-0.632054 2:0.316782 
1 1:-0.579249 2:0.848661 
1 1:0.0288812 2:1 
1 1:-0.632054 2:0.316782 
1 1:-0.579249 2:0.848661 
1 1:0.0288812 2:1 
1 1:-0.632054 2:0.316782 
1 1:-0.579249 2:0.848661 
1 1:0.0288812 2:1 
1 1:-0.632054 2:0.316782 
1 1:-0.579249 2:0.848661 
1 1:0.0288812 2:1 
1 1:-0.632054 2:0.316782 
1 1:-0.579249 2:0.848661 
1 1:0.0288812 2:1 
1 1:-0.632054 2:0.316782 
1 1:-0.579249 2:0.848661 
1 1:0.0288812 2:1 
1 1:-0.632054 2:0.316782 
1 1:-0.579249 2:0.848661 
1 1:0.0288812 2:1 
1 1:-0.632054 2:0.316782 
1 1:-0.579249 2:0.848661 
1 1:0.0288812 2:1 
1 1:-0.632054 2:0.316782 
1 1:-0.579249 2:0.848661 
1 1:0.0288812 2:1 
1 1:-0.632054 2:0.316782 
1 1:-0.579249 2:0.848661 
1 1:0.0288812 2:1 
1 1:-0.632054 2:0.316782 
1 1:-0.579249 2:0.848661 
1 1:0.0288812 2:1 
1 1:-0.632054 2:0.316782 
1 1:-0.579249 2:0.848661 
1 1:0.0288812 2:1 
1 1:-0.632054 2:0.316782 
1 1:-0.579249 2:0.848661 
1 1:0.0288812 2:1 
1 1:-0.632054 2:0.316782 
1 1:-0.579249 2:0.848661 
1 1:0.0288812 2:1 
1 1:-0.632054 2:0.316782 
1 1:-0.579249 2:0.848661 
1 1:0.0288812 2:1 
1 1:-0.632054 2:0.316782 
1 1:-0.579249 2:0.848661 
1 1:0.0288812 2:1 
1 1:-0.632054 2:0.316782 
1 1:-0.579249 2:0.848661 
1 1:0.0288812 2:1 
1 1:-0.632054 2:0.316782 
1 1:-0.579249 2:0.848661 
1 1:0.0288812 2:1 
1 1:-0.632054 2:0.316782 
1 1:-0.579249 2:0.848661 
1 1:0.0288812 2:1 
1 1:-0.632054 2:0.316782 
1 1:-0.579249 2:0.848661 
1 1:0.0288812 2:1 
1 1:0.551496 2:-0.0400381 
1 1:0.551496 2:-0.0400381 
1 1:0.551496 2:-0.0400381 
1 1:0.551496 2:-0.0400381 
1 1:0.551496 2:-0.0400381 
1 1:0.551496 2:-0.0400381 
1 1:0.551496 2:-0.0400381 
1 1:0.551496 2:-0.0400381 
1 1:0.551496 2:-0.0400381 
1 1:0.551496 2:-0.0400381 
1 1:0.551496 2:-0.0400381 
1 1:0.551496 2:-0.0400381 
1 1:0.551496 2:-0.0400381 
1 1:0.551496 2:-0.0400381 
1 1:0.551496 2:-0.0400381 
1 1:0.551496 2:-0.0400381 
1 1:0.551496 2:-0.0400381 
1 1:0.551496 2:-0.0400381 
1 1:0.551496 2:-0.0400381 
1 1:0.551496 2:-0.0400381 
1 1:0.551496 2:-0.0400381 
1 1:0.551496 2:-0.0400381 
1 1:0.551496 2:-0.0400381 
1 1:0.551496 2:-0.0400381 
1 1:0.551496 2:-0.0400381 
1 1:0.551496 2:-0.0400381 
1 1:0.551496 2:-0.0400381 
1 1:0.551496 2:-0.0400381 
1 1:0.551496 2:-0.0400381 
1 1:0.551496 2:-0.0400381 
1 1:0.551496 2:-0.0400381 
1 1:0.551496 2:-0.0400381 
1 1:0.551496 2:-0.0400381 
1 1:0.551496 2:-0.0400381 
1 1:0.551496 2:-0.0400381 
1 1:0.551496 2:-0.0400381 
1 1:0.551496 2:-0.0400381 
1 1:0.551496 2:-0.0400381 
1 1:0.551496 2:-0.0400381 
1 1:0.551496 2:-0.0400381 
1 1:0.551496 2:-0.0400381 
1 1:0.551496 2:-0.0400381 
1 1:0.551496 2:-0.0400381 
1 1:0.551496 2:-0.0400381 
1 1:0.551496 2:-0.0400381 
1 1:0.551496 2:-0.0400381 
1 1:0.551496 2:-0.0400381 
1 1:0.551496 2:-0.0400381 
1 1:0.551496 2:-0.0400381 
1 1:0.551496 2:-0.0400381 
1 1:0.551496 2:-0.0400381 
1 1:0.551496 2:-0.0400381 
1 1:0.551496 2:-0.0400381 
1 1:0.551496 2:-0.0400381 
1 1:0.551496 2:-0.0400381 
1 1:0.551496 2:-0.0400381 
1 1:0.551496 2:-0.0400381 
1 1:0.551496 2:-0.0400381 
1 1:0.551496 2:-0.0400381 
1 1:0.551496 2:-0.0400381 
1 1:0.551496 2:-0.0400381 
1 1:0.551496 2:-0.0400381 
1 1:0.551496 2:-0.0400381 
1 1:0.551496 2:-0.0400381 
1 1:0.551496 2:-0.0400381 
1 1:0.551496 2:-0.0400381 
1 1:0.551496 2:-0.0400381 
1 1:0.551496 2:-0.0400381 
1 1:0.551496 2:-0.0400381 
1 1:0.551496 2:-0.0400381 
1 1:0.551496 2:-0.0400381 
1 1:0.551496 2:-0.0400381 
1 1:0.551496 2:-0.0400381 
1 1:0.551496 2:-0.0400381 
1 1:0.551496 2:-0.0400381 
1 1:0.551496 2:-0.0400381 
1 1:0.551496 2:-0.0400381 
1 1:0.551496 2:-0.0400381 
1 1:0.551496 2:-0.0400381 
1 1:0.551496 2:-0.0400381 
1 1:0.551496 2:-0.0400381 
1 1:0.551496 2:-0.0400381 
1 1:0.551496 2:-0.0400381 
1 1:0.551496 2:-0.0400381 
1 1:0.551496 2:-0.0400381 
1 1:0.551496 2:-0.0400381 
1 1:0.551496 2:-0.0400381 
1 1:0.551496 2:-0.0400381 
1 1:0.551496 2:-0.0400381 
1 1:0.551496 2:-0.0400381 
1 1:0.551496 2:-0.0400381 
1 1:0.551496 2:-0.0400381 
1 1:0.551496 2:-0.0400381 
1 1:0.551496 2:-0.0400381 
1 1:0.551496 2:-0.0400381 
1 1:0.551496 2:-0.0400381 
1 1:-0.736818 2:-0.00332611 
1 1:-0.8081 2:0.644005 
1 1:-0.736818 2:-0.00332611 
1 1:-0.8081 2:0.644005 
1 1:-0.736818 2:-0.00332611 
1 1:-0.8081 2:0.644005 
1 1:-0.736818 2:-0.00332611 
1 1:-0.8081 2:0.644005 
1 1:-0.736818 2:-0.00332611 
1 1:-0.8081 2:0.644005 
1 1:-0.736818 2:-0.00332611 
1 1:-0.8081 2:0.644005 
1 1:-0.736818 2:-0.00332611 
1 1:-0.8081 2:0.644005 
1 1:-0.736818 2:-0.00332611 
1 1:-0.8081 2:0.644005 
1 1:-0.736818 2:-0.00332611 
1 1:-0.8081 2:0.644005 
1 1:-0.736818 2:-0.00332611 
1 1:-0.8081 2:0.644005 
1 1:-0.736818 2:-0.00332611 
1 1:-0.8081 2:0.644005 
1 1:-0.736818 2:-0.00332611 
1 1:-0.8081 2:0.644005 
1 1:-0.736818 2:-0.00332611 
1 1:-0.8081 2:0.644005 
1 1:-0.736818 2:-0.00332611 
1 1:-0.8081 2:0.644005 
1 1:-0.736818 2:-0.00332611 
1 1:-0.8081 2:0.644005 
1 1:-0.736818 2:-0.00332611 
1 1:-0.8081 2:0.644005 
1 1:-0.736818 2:-0.00332611 
1 1:-0.8081 2:0.644005 
1 1:-0.736818 2:-0.00332611 
1 1:-0.8081 2:0.644005 
1 1:-0.736818 2:-0.00332611 
1 1:-0.8081 2:0.644005 
1 1:-0.736818 2:-0.00332611 
1 1:-0.8081 2:0.644005 
1 1:-0.736818 2:-0.00332611 
1 1:-0.8081 2:0.644005 
1 1:-0.736818 2:-0.00332611 
1 1:-0.8081 2:0.644005 
1 1:-0.736818 2:-0.00332611 
1 1:-0.8081 2:0.644005 
1 1:-0.736818 2:-0.00332611 
1 1:-0.8081 2:0.644005 
1 1:-0.736818 2:-0.00332611 
1 1:-0.8081 2:0.644005 
1 1:-0.736818 2:-0.00332611 
1 1:-0.8081 2:0.644005 
1 1:-0.736818 2:-0.00332611 
1 1:-0.8081 2:0.644005 
1 1:-0.736818 2:-0.00332611 
1 1:-0.8081 2:0.644005 
1 1:-0.736818 2:-0.00332611 
1 1:-0.8081 2:0.644005 
1 1:-0.736818 2:-0.00332611 
1 1:-0.8081 2:0.644005 
1 1:-0.736818 2:-0.00332611 
1 1:-0.8081 2:0.644005 
1 1:-0.736818 2:-0.00332611 
1 1:-0.8081 2:0.644005 
1 1:-0.736818 2:-0.00332611 
1 1:-0.8081 2:0.644005 
1 1:-0.736818 2:-0.00332611 
1 1:-0.8081 2:0.644005 
1 1:-0.736818 2:-0.00332611 
1 1:-0.8081 2:0.644005 
1 1:-0.736818 2:-0.00332611 
1 1:-0.8081 2:0.644005 
1 1:-0.736818 2:-0.00332611 
1 1:-0.8081 2:0.644005 
1 1:-0.736818 2:-0.00332611 
1 1:-0.8081 2:0.644005 
1 1:-0.736818 2:-0.00332611 
1 1:-0.8081 2:0.644005 
1 1:-0.736818 2:-0.00332611 
1 1:-0.8081 2:0.644005 
1 1:-0.736818 2:-0.00332611 
1 1:-0.8081 2:0.644005 
1 1:-0.736818 2:-0.00332611 
1 1:-0.8081 2:0.644005 
1 1:-0.736818 2:-0.00332611 
1 1:-0.8081 2:0.644005 
1 1:-0.736818 2:-0.00332611 
1 1:-0.8081 2:0.644005 
1 1:-0.736818 2:-0.00332611 
1 1:-0.8081 2:0.644005 
1 1:-0.736818 2:-0.00332611 
1 1:-0.8081 2:0.644005 
1 1:-0.736818 2:-0.00332611 
1 1:-0.8081 2:0.644005 
1 1:-0.736818 2:-0.00332611 
1 1:-0.8081 2:0.644005 
1 1:-0.736818 2:-0.00332611 
1 1:-0.8081 2:0.644005 
1 1:-0.736818 2:-0.00332611 
1 1:-0.8081 2:0.644005 
1 1:-0.736818 2:-0.00332611 
1 1:-0.8081 2:0.644005 
1 1:-0.736818 2:-0.00332611 
1 1:-0.8081 2:0.644005 
1 1:-0.736818 2:-0.00332611 
1 1:-0.8081 2:0.644005 
1 1:-0.736818 2:-0.00332611 
1 1:-0.8081 2:0.644005 
1 1:-0.736818 2:-0.00332611 
1 1:-0.8081 2:0.644005 
1 1:-0.736818 2:-0.00332611 
1 1:-0.8081 2:0.644005 
1 1:-0.736818 2:-0.00332611 
1 1:-0.8081 2:0.644005 
1 1:-0.736818 2:-0.00332611 
1 1:-0.8081 2:0.644005 
1 1:-0.736818 2:-0.00332611 
1 1:-0.8081 2:0.644005 
1 1:-0.736818 2:-0.00332611 
1 1:-0.8081 2:0.644005 
1 1:-0.736818 2:-0.00332611 
1 1:-0.8081 2:0.644005 
1 1:-0.736818 2:-0.00332611 
1 1:-0.8081 2:0.644005 
1 1:-0.736818 2:-0.00332611 
1 1:-0.8081 2:0.644005 
1 1:-0.736818 2:-0.00332611 
1 1:-0.8081 2:0.644005 
1 1:-0.736818 2:-0.00332611 
1 1:-0.8081 2:0.644005 
1 1:-0.736818 2:-0.00332611 
1 1:-0.8081 2:0.644005 
1 1:-0.736818 2:-0.00332611 
1 1:-0.8081 2:0.644005 
1 1:-0.736818 2:-0.00332611 
1 1:-0.8081 2:0.644005 
1 1:-0.736818 2:-0.00332611 
1 1:-0.8081 2:0.644005 
1 1:-0.736818 2:-0.00332611 
1 1:-0.8081 2:0.644005 
1 1:-0.736818 2:-0.00332611 
1 1:-0.8081 2:0.644005 
1 1:-0.736818 2:-0.00332611 
1 1:-0.8081 2:0.644005 
1 1:-0.736818 2:-0.00332611 
1 1:-0.8081 2:0.644005 
1 1:-0.736818 2:-0.00332611 
1 1:-0.8081 2:0.644005 
1 1:-0.736818 2:-0.00332611 
1 1:-0.8081 2:0.644005 
1 1:-0.736818 2:-0.00332611 
1 1:-0.8081 2:0.644005 
1 1:-0.736818 2:-0.00332611 
1 1:-0.8081 2:0.644005 
1 1:-0.736818 2:-0.00332611 
1 1:-0.8081 2:0.644005 
1 1:-0.736818 2:-0.00332611 
1 1:-0.8081 2:0.644005 
1 1:-0.736818 2:-0.00332611 
1 1:-0.8081 2:0.644005 
1 1:-0.736818 2:-0.00332611 
1 1:-0.8081 2:0.644005 
1 1:-0.736818 2:-0.00332611 
1 1:-0.8081 2:0.644005 
1 1:-0.736818 2:-0.00332611 
1 1:-0.8081 2:0.644005 
1 1:-0.736818 2:-0.00332611 
1 1:-0.8081 2:0.644005 
1 1:-0.736818 2:-0.00332611 
1 1:-0.8081 2:0.644005 
1 1:-0.736818 2:-0.00332611 
1 1:-0.8081 2:0.644005 
1 1:-0.736818 2:-0.00332611 
1 1:-0.8081 2:0.644005 
1 1:-0.736818 2:-0.00332611 
1 1:-0.8081 2:0.644005 
1 1:-0.736818 2:-0.00332611 
1 1:-0.8081 2:0.644005 
1 1:-0.736818 2:-0.00332611 
1 1:-0.8081 2:0.644005 
1 1:-0.736818 2:-0.00332611 
1 1:-0.8081 2:0.644005 
1 1:-0.736818 2:-0.00332611 
1 1:-0.8081 2:0.644005 
1 1:-0.736818 2:-0.00332611 
1 1:-0.8081 2:0.644005 
1 1:-0.736818 2:-0.00332611 
1 1:-0.8081 2:0.644005 
1 1:-0.736818 2:-0.00332611 
1 1:-0.8081 2:0.644005 
1 1:-0.736818 2:-0.00332611 
1 1:-0.524521 2:0.204437 
1 1:-0.753995 2:0.375276 
1 1:-0.524521 2:0.204437 
1 1:-0.753995 2:0.375276 
1 1:-0.524521 2:0.204437 
1 1:-0.753995 2:0.375276 
1 1:-0.524521 2:0.204437 
1 1:-0.753995 2:0.375276 
1 1:-0.524521 2:0.204437 
1 1:-0.753995 2:0.375276 
1 1:-0.524521 2:0.204437 
1 1:-0.753995 2:0.375276 
1 1:-0.524521 2:0.204437 
1 1:-0.753995 2:0.375276 
1 1:-0.524521 2:0.204437 
1 1:-0.753995 2:0.375276 
1 1:-0.524521 2:0.204437 
1 1:-0.753995 2:0.375276 
1 1:-0.524521 2:0.204437 
1 1:-0.753995 2:0.375276 
1 1:-0.524521 2:0.204437 
1 1:-0.753995 2:0.375276 
1 1:-0.524521 2:0.204437 
1 1:-0.753995 2:0.375276 
1 1:-0.524521 2:0.204437 
1 1:-0.753995 2:0.375276 
1 1:-0.524521 2:0.204437 
1 1:-0.753995 2:0.375276 
1 1:-0.524521 2:0.204437 
1 1:-0.753995 2:0.375276 
1 1:-0.524521 2:0.204437 
1 1:-0.753995 2:0.375276 
1 1:-0.524521 2:0.204437 
1 1:-0.753995 2:0.375276 
1 1:-0.524521 2:0.204437 
1 1:-0.753995 2:0.375276 
1 1:-0.524521 2:0.204437 
1 1:-0.753995 2:0.375276 
1 1:-0.524521 2:0.204437 
1 1:-0.753995 2:0.375276 
1 1:-0.524521 2:0.204437 
1 1:-0.753995 2:0.375276 
1 1:-0.524521 2:0.204437 
1 1:-0.753995 2:0.375276 
1 1:-0.524521 2:0.204437 
1 1:-0.753995 2:0.375276 
1 1:-0.524521 2:0.204437 
1 1:-0.753995 2:0.375276 
1 1:-0.524521 2:0.204437 
1 1:-0.753995 2:0.375276 
1 1:-0.524521 2:0.204437 
1 1:-0.753995 2:0.375276 
1 1:-0.524521 2:0.204437 
1 1:-0.753995 2:0.375276 
1 1:-0.524521 2:0.204437 
1 1:-0.753995 2:0.375276 
1 1:-0.524521 2:0.204437 
1 1:-0.753995 2:0.375276 
1 1:-0.524521 2:0.204437 
1 1:-0.753995 2:0.375276 
1 1:-0.524521 2:0.204437 
1 1:-0.753995 2:0.375276 
1 1:-0.524521 2:0.204437 
1 1:-0.753995 2:0.375276 
1 1:-0.524521 2:0.204437 
1 1:-0.753995 2:0.375276 
1 1:-0.524521 2:0.204437 
1 1:-0.753995 2:0.375276 
1 1:-0.524521 2:0.204437 
1 1:-0.753995 2:0.375276 
1 1:-0.524521 2:0.204437 
1 1:-0.753995 2:0.375276 
1 1:-0.524521 2:0.204437 
1 1:-0.753995 2:0.375276 
1 1:-0.524521 2:0.204437 
1 1:-0.753995 2:0.375276 
1 1:-0.524521 2:0.204437 
1 1:-0.753995 2:0.375276 
1 1:-0.524521 2:0.204437 
1 1:-0.753995 2:0.375276 
1 1:-0.524521 2:0.204437 
1 1:-0.753995 2:0.375276 
1 1:-0.524521 2:0.204437 
1 1:-0.753995 2:0.375276 
1 1:-0.524521 2:0.204437 
1 1:-0.753995 2:0.375276 
1 1:-0.524521 2:0.204437 
1 1:-0.753995 2:0.375276 
1 1:-0.524521 2:0.204437 
1 1:-0.753995 2:0.375276 
1 1:-0.524521 2:0.204437 
1 1:-0.753995 2:0.375276 
1 1:-0.524521 2:0.204437 
1 1:-0.753995 2:0.375276 
1 1:-0.524521 2:0.204437 
1 1:-0.753995 2:0.375276 
1 1:-0.524521 2:0.204437 
1 1:-0.753995 2:0.375276 
1 1:-0.524521 2:0.204437 
1 1:-0.753995 2:0.375276 
1 1:-0.524521 2:0.204437 
1 1:-0.753995 2:0.375276 
1 1:-0.524521 2:0.204437 
1 1:-0.753995 2:0.375276 
1 1:-0.524521 2:0.204437 
1 1:-0.753995 2:0.375276 
1 1:-0.524521 2:0.204437 
1 1:-0.753995 2:0.375276 
1 1:-0.524521 2:0.204437 
1 1:-0.753995 2:0.375276 
1 1:-0.524521 2:0.204437 
1 1:-0.753995 2:0.375276 
1 1:-0.524521 2:0.204437 
1 1:-0.753995 2:0.375276 
1 1:-0.524521 2:0.204437 
1 1:-0.753995 2:0.375276 
1 1:-0.524521 2:0.204437 
1 1:-0.753995 2:0.375276 
1 1:-0.524521 2:0.204437 
1 1:-0.753995 2:0.375276 
1 1:-0.524521 2:0.204437 
1 1:-0.753995 2:0.375276 
1 1:-0.524521 2:0.204437 
1 1:-0.753995 2:0.375276 
1 1:-0.524521 2:0.204437 
1 1:-0.753995 2:0.375276 
1 1:-0.524521 2:0.204437 
1 1:-0.753995 2:0.375276 
1 1:-0.524521 2:0.204437 
1 1:-0.753995 2:0.375276 
1 1:-0.524521 2:0.204437 
1 1:-0.753995 2:0.375276 
1 1:-0.524521 2:0.204437 
1 1:-0.753995 2:0.375276 
1 1:-0.524521 2:0.204437 
1 1:-0.753995 2:0.375276 
1 1:-0.524521 2:0.204437 
1 1:-0.753995 2:0.375276 
1 1:-0.524521 2:0.204437 
1 1:-0.753995 2:0.375276 
1 1:-0.524521 2:0.204437 
1 1:-0.753995 2:0.375276 
1 1:-0.524521 2:0.204437 
1 1:-0.753995 2:0.375276 
1 1:-0.524521 2:0.204437 
1 1:-0.753995 2:0.375276 
1 1:-0.524521 2:0.204437 
1 1:-0.753995 2:0.375276 
1 1:-0.524521 2:0.204437 
1 1:-0.753995 2:0.375276 
1 1:-0.524521 2:0.204437 
1 1:-0.753995 2:0.375276 
1 1:-0.524521 2:0.204437 
1 1:-0.753995 2:0.375276 
1 1:-0.524521 2:0.204437 
1 1:-0.753995 2:0.375276 
1 1:-0.524521 2:0.204437 
1 1:-0.753995 2:0.375276 
1 1:-0.524521 2:0.204437 
1 1:-0.753995 2:0.375276 
1 1:-0.524521 2:0.204437 
1 1:-0.753995 2:0.375276 
1 1:-0.524521 2:0.204437 
1 1:-0.753995 2:0.375276 
1 1:-0.524521 2:0.204437 
1 1:-0.753995 2:0.375276 
1 1:-0.524521 2:0.204437 
1 1:-0.753995 2:0.375276 
1 1:-0.524521 2:0.204437 
1 1:-0.753995 2:0.375276 
1 1:-0.524521 2:0.204437 
1 1:-0.753995 2:0.375276 
1 1:-0.524521 2:0.204437 
1 1:-0.753995 2:0.375276 
1 1:-0.524521 2:0.204437 
1 1:-0.753995 2:0.375276 
1 1:-0.524521 2:0.204437 
1 1:-0.753995 2:0.375276 
1 1:-0.524521 2:0.204437 
1 1:-0.753995 2:0.375276 
1 1:-0.524521 2:0.204437 
1 1:-0.753995 2:0.375276 
1 1:-0.524521 2:0.204437 
1 1:-0.753995 2:0.375276 
1 1:-0.524521 2:0.204437 
1 1:-0.753995 2:0.375276 
1 1:-0.524521 2:0.204437 
1 1:-0.753995 2:0.375276 
1 1:-0.524521 2:0.204437 
1 1:-0.753995 2:0.375276 
1 1:-0.524521 2:0.204437 
1 1:-0.753995 2:0.375276 
1 1:-0.524521 2:0.204437 
1 1:-0.753995 2:0.375276 
1 1:0.0891833 2:-0.461753 
1 1:-0.620123 2:0.332468 
1 1:0.0891833 2:-0.461753 
1 1:-0.620123 2:0.332468 
1 1:0.0891833 2:-0.461753 
1 1:-0.620123 2:0.332468 
1 1:0.0891833 2:-0.461753 
1 1:-0.620123 2:0.332468 
1 1:0.0891833 2:-0.461753 
1 1:-0.620123 2:0.332468 
1 1:0.0891833 2:-0.461753 
1 1:-0.620123 2:0.332468 
1 1:0.0891833 2:-0.461753 
1 1:-0.620123 2:0.332468 
1 1:0.0891833 2:-0.461753 
1 1:-0.620123 2:0.332468 
1 1:0.0891833 2:-0.461753 
1 1:-0.620123 2:0.332468 
1 1:0.0891833 2:-0.461753 
1 1:-0.620123 2:0.332468 
1 1:0.0891833 2:-0.461753 
1 1:-0.620123 2:0.332468 
1 1:0.0891833 2:-0.461753 
1 1:-0.620123 2:0.332468 
1 1:0.0891833 2:-0.461753 
1 1:-0.620123 2:0.332468 
1 1:0.0891833 2:-0.461753 
1 1:-0.620123 2:0.332468 
1 1:0.0891833 2:-0.461753 
1 1:-0.620123 2:0.332468 
1 1:0.0891833 2:-0.461753 
1 1:-0.620123 2:0.332468 
1 1:0.0891833 2:-0.461753 
1 1:-0.620123 2:0.332468 
1 1:0.0891833 2:-0.461753 
1 1:-0.620123 2:0.332468 
1 1:0.0891833 2:-0.461753 
1 1:-0.620123 2:0.332468 
1 1:0.0891833 2:-0.461753 
1 1:-0.620123 2:0.332468 
1 1:0.0891833 2:-0.461753 
1 1:-0.620123 2:0.332468 
1 1:0.0891833 2:-0.461753 
1 1:-0.620123 2:0.332468 
1 1:0.0891833 2:-0.461753 
1 1:-0.620123 2:0.332468 
1 1:0.0891833 2:-0.461753 
1 1:-0.620123 2:0.332468 
1 1:0.0891833 2:-0.461753 
1 1:-0.620123 2:0.332468 
1 1:0.0891833 2:-0.461753 
1 1:-0.620123 2:0.332468 
1 1:0.0891833 2:-0.461753 
1 1:-0.620123 2:0.332468 
1 1:0.0891833 2:-0.461753 
1 1:-0.620123 2:0.332468 
1 1:0.0891833 2:-0.461753 
1 1:-0.620123 2:0.332468 
1 1:0.0891833 2:-0.461753 
1 1:-0.620123 2:0.332468 
1 1:0.0891833 2:-0.461753 
1 1:-0.620123 2:0.332468 
1 1:0.0891833 2:-0.461753 
1 1:-0.620123 2:0.332468 
1 1:0.0891833 2:-0.461753 
1 1:-0.620123 2:0.332468 
1 1:0.0891833 2:-0.461753 
1 1:-0.620123 2:0.332468 
1 1:0.0891833 2:-0.461753 
1 1:-0.620123 2:0.332468 
1 1:0.0891833 2:-0.461753 
1 1:-0.620123 2:0.332468 
1 1:0.0891833 2:-0.461753 
1 1:-0.620123 2:0.332468 
1 1:0.0891833 2:-0.461753 
1 1:-0.620123 2:0.332468 
1 1:0.0891833 2:-0.461753 
1 1:-0.620123 2:0.332468 
1 1:0.0891833 2:-0.461753 
1 1:-0.620123 2:0.332468 
1 1:0.0891833 2:-0.461753 
1 1:-0.620123 2:0.332468 
1 1:0.0891833 2:-0.461753 
1 1:-0.620123 2:0.332468 
1 1:0.0891833 2:-0.461753 
1 1:-0.620123 2:0.332468 
1 1:0.0891833 2:-0.461753 
1 1:-0.620123 2:0.332468 
1 1:0.0891833 2:-0.461753 
1 1:-0.620123 2:0.332468 
1 1:0.0891833 2:-0.461753 
1 1:-0.620123 2:0.332468 
1 1:0.0891833 2:-0.461753 
1 1:-0.620123 2:0.332468 
1 1:0.0891833 2:-0.461753 
1 1:-0.620123 2:0.332468 
1 1:0.0891833 2:-0.461753 
1 1:-0.620123 2:0.332468 
1 1:0.0891833 2:-0.461753 
1 1:-0.620123 2:0.332468 
1 1:0.0891833 2:-0.461753 
1 1:-0.620123 2:0.332468 
1 1:0.0891833 2:-0.461753 
1 1:-0.620123 2:0.332468 
1 1:0.0891833 2:-0.461753 
1 1:-0.620123 2:0.332468 
1 1:0.0891833 2:-0.461753 
1 1:-0.620123 2:0.332468 
1 1:0.0891833 2:-0.461753 
1 1:-0.620123 2:0.332468 
1 1:0.0891833 2:-0.461753 
1 1:-0.620123 2:0.332468 
1 1:0.0891833 2:-0.461753 
1 1:-0.620123 2:0.332468 
1 1:0.0891833 2:-0.461753 
1 1:-0.620123 2:0.332468 
1 1:0.0891833 2:-0.461753 
1 1:-0.620123 2:0.332468 
1 1:0.0891833 2:-0.461753 
1 1:-0.620123 2:0.332468 
1 1:0.0891833 2:-0.461753 
1 1:-0.620123 2:0.332468 
1 1:0.0891833 2:-0.461753 
1 1:-0.620123 2:0.332468 
1 1:0.0891833 2:-0.461753 
1 1:-0.620123 2:0.332468 
1 1:0.0891833 2:-0.461753 
1 1:-0.620123 2:0.332468 
1 1:0.0891833 2:-0.461753 
1 1:-0.620123 2:0.332468 
1 1:0.0891833 2:-0.461753 
1 1:-0.620123 2:0.332468 
1 1:0.0891833 2:-0.461753 
1 1:-0.620123 2:0.332468 
1 1:0.0891833 2:-0.461753 
1 1:-0.620123 2:0.332468 
1 1:0.0891833 2:-0.461753 
1 1:-0.620123 2:0.332468 
1 1:0.0891833 2:-0.461753 
1 1:-0.620123 2:0.332468 
1 1:0.0891833 2:-0.461753 
1 1:-0.620123 2:0.332468 
1 1:0.0891833 2:-0.461753 
1 1:-0.620123 2:0.332468 
1 1:0.0891833 2:-0.461753 
1 1:-0.620123 2:0.332468 
1 1:0.0891833 2:-0.461753 
1 1:-0.620123 2:0.332468 
1 1:0.0891833 2:-0.461753 
1 1:-0.620123 2:0.332468 
1 1:0.0891833 2:-0.461753 
1 1:-0.620123 2:0.332468 
1 1:0.0891833 2:-0.461753 
1 1:-0.620123 2:0.332468 
1 1:0.0891833 2:-0.461753 
1 1:-0.620123 2:0.332468 
1 1:0.0891833 2:-0.461753 
1 1:-0.620123 2:0.332468 
1 1:0.0891833 2:-0.461753 
1 1:-0.620123 2:0.332468 
1 1:0.0891833 2:-0.461753 
1 1:-0.620123 2:0.332468 
1 1:0.0891833 2:-0.461753 
1 1:-0.620123 2:0.332468 
1 1:0.0891833 2:-0.461753 
1 1:-0.620123 2:0.332468 
1 1:0.0891833 2:-0.461753 
1 1:-0.620123 2:0.332468 
1 1:0.0891833 2:-0.461753 
1 1:-0.620123 2:0.332468 
1 1:0.0891833 2:-0.461753 
1 1:-0.620123 2:0.332468 
1 1:0.0891833 2:-0.461753 
1 1:-0.620123 2:0.332468 
1 1:0.0891833 2:-0.461753 
1 1:-0.620123 2:0.332468 
1 1:0.0891833 2:-0.461753 
1 1:-0.620123 2:0.332468 
1 1:0.0891833 2:-0.461753 
1 1:-0.620123 2:0.332468 
1 1:0.0891833 2:-0.461753 
1 1:-0.620123 2:0.332468 
1 1:0.0891833 2:-0.461753 
1 1:-0.620123 2:0.332468 
1 1:0.045142 2:0.537114 
1 1:-0.434261 2:0.76534 
1 1:0.045142 2:0.537114 
1 1:-0.434261 2:0.76534 
1 1:0.045142 2:0.537114 
1 1:-0.434261 2:0.76534 
1 1:0.045142 2:0.537114 
1 1:-0.434261 2:0.76534 
1 1:0.045142 2:0.537114 
1 1:-0.434261 2:0.76534 
1 1:0.045142 2:0.537114 
1 1:-0.434261 2:0.76534 
1 1:0.045142 2:0.537114 
1 1:-0.434261 2:0.76534 
1 1:0.045142 2:0.537114 
1 1:-0.434261 2:0.76534 
1 1:0.045142 2:0.537114 
1 1:-0.434261 2:0.76534 
1 1:0.045142 2:0.537114 
1 1:-0.434261 2:0.76534 
1 1:0.045142 2:0.537114 
1 1:-0.434261 2:0.76534 
1 1:0.045142 2:0.537114 
1 1:-0.434261 2:0.76534 
1 1:0.045142 2:0.537114 
1 1:-0.434261 2:0.76534 
1 1:0.045142 2:0.537114 
1 1:-0.434261 2:0.76534 
1 1:0.045142 2:0.537114 
1 1:-0.434261 2:0.76534 
1 1:0.045142 2:0.537114 
1 1:-0.434261 2:0.76534 
1 1:0.045142 2:0.537114 
1 1:-0.434261 2:0.76534 
1 1:0.045142 2:0.537114 
1 1:-0.434261 2:0.76534 
1 1:0.045142 2:0.537114 
1 1:-0.434261 2:0.76534 
1 1:0.045142 2:0.537114 
1 1:-0.434261 2:0.76534 
1 1:0.045142 2:0.537114 
1 1:-0.434261 2:0.76534 
1 1:0.045142 2:0.537114 
1 1:-0.434261 2:0.76534 
1 1:0.045142 2:0.537114 
1 1:-0.434261 2:0.76534 
1 1:0.045142 2:0.537114 
1 1:-0.434261 2:0.76534 
1 1:0.045142 2:0.537114 
1 1:-0.434261 2:0.76534 
1 1:0.045142 2:0.537114 
1 1:-0.434261 2:0.76534 
1 1:0.045142 2:0.537114 
1 1:-0.434261 2:0.76534 
1 1:0.045142 2:0.537114 
1 1:-0.434261 2:0.76534 
1 1:0.045142 2:0.537114 
1 1:-0.434261 2:0.76534 
1 1:0.045142 2:0.537114 
1 1:-0.434261 2:0.76534 
1 1:0.045142 2:0.537114 
1 1:-0.434261 2:0.76534 
1 1:0.045142 2:0.537114 
1 1:-0.434261 2:0.76534 
1 1:0.045142 2:0.537114 
1 1:-0.434261 2:0.76534 
1 1:0.045142 2:0.537114 
1 1:-0.434261 2:0.76534 
1 1:0.045142 2:0.537114 
1 1:-0.434261 2:0.76534 
1 1:0.045142 2:0.537114 
1 1:-0.434261 2:0.76534 
1 1:0.045142 2:0.537114 
1 1:-0.434261 2:0.76534 
1 1:0.045142 2:0.537114 
1 1:-0.434261 2:0.76534 
1 1:0.045142 2:0.537114 
1 1:-0.434261 2:0.76534 
1 1:0.045142 2:0.537114 
1 1:-0.434261 2:0.76534 
1 1:0.045142 2:0.537114 
1 1:-0.434261 2:0.76534 
1 1:0.045142 2:0.537114 
1 1:-0.434261 2:0.76534 
1 1:0.045142 2:0.537114 
1 1:-0.434261 2:0.76534 
1 1:0.045142 2:0.537114 
1 1:-0.434261 2:0.76534 
1 1:0.045142 2:0.537114 
1 1:-0.434261 2:0.76534 
1 1:0.045142 2:0.537114 
1 1:-0.434261 2:0.76534 
1 1:0.045142 2:0.537114 
1 1:-0.434261 2:0.76534 
1 1:0.045142 2:0.537114 
1 1:-0.434261 2:0.76534 
1 1:0.045142 2:0.537114 
1 1:-0.434261 2:0.76534 
1 1:0.045142 2:0.537114 
1 1:-0.434261 2:0.76534 
1 1:0.045142 2:0.537114 
1 1:-0.434261 2:0.76534 
1 1:0.045142 2:0.537114 
1 1:-0.434261 2:0.76534 
1 1:0.045142 2:0.537114 
1 1:-0.434261 2:0.76534 
1 1:0.045142 2:0.537114 
1 1:-0.434261 2:0.76534 
1 1:0.045142 2:0.537114 
1 1:-0.434261 2:0.76534 
1 1:0.045142 2:0.537114 
1 1:-0.434261 2:0.76534 
1 1:0.045142 2:0.537114 
1 1:-0.434261 2:0.76534 
1 1:0.045142 2:0.537114 
1 1:-0.434261 2:0.76534 
1 1:0.045142 2:0.537114 
1 1:-0.434261 2:0.76534 
1 1:0.045142 2:0.537114 
1 1:-0.434261 2:0.76534 
1 1:0.045142 2:0.537114 
1 1:-0.434261 2:0.76534 
1 1:0.045142 2:0.537114 
1 1:-0.434261 2:0.76534 
1 1:0.045142 2:0.537114 
1 1:-0.434261 2:0.76534 
1 1:0.045142 2:0.537114 
1 1:-0.434261 2:0.76534 
1 1:0.045142 2:0.537114 
1 1:-0.434261 2:0.76534 
1 1:0.045142 2:0.537114 
1 1:-0.434261 2:0.76534 
1 1:0.045142 2:0.537114 
1 1:-0.434261 2:0.76534 
1 1:0.045142 2:0.537114 
1 1:-0.434261 2:0.76534 
1 1:0.045142 2:0.537114 
1 1:-0.434261 2:0.76534 
1 1:0.045142 2:0.537114 
1 1:-0.434261 2:0.76534 
1 1:0.045142 2:0.537114 
1 1:-0.434261 2:0.76534 
1 1:0.045142 2:0.537114 
1 1:-0.434261 2:0.76534 
1 1:0.045142 2:0.537114 
1 1:-0.434261 2:0.76534 
1 1:0.045142 2:0.537114 
1 1:-0.434261 2:0.76534 
1 1:0.045142 2:0.537114 
1 1:-0.434261 2:0.76534 
1 1:0.045142 2:0.537114 
1 1:-0.434261 2:0.76534 
1 1:0.045142 2:0.537114 
1 1:-0.434261 2:0.76534 
1 1:0.045142 2:0.537114 
1 1:-0.434261 2:0.76534 
1 1:0.045142 2:0.537114 
1 1:-0.434261 2:0.76534 
1 1:0.045142 2:0.537114 
1 1:-0.434261 2:0.76534 
1 1:0.045142 2:0.537114 
1 1:-0.434261 2:0.76534 
1 1:0.045142 2:0.537114 
1 1:-0.434261 2:0.76534 
1 1:0.045142 2:0.537114 
1 1:-0.434261 2:0.76534 
1 1:0.045142 2:0.537114 
1 1:-0.434261 2:0.76534 
1 1:0.045142 2:0.537114 
1 1:-0.434261 2:0.76534 
1 1:0.045142 2:0.537114 
1 1:-0.434261 2:0.76534 
1 1:0.045142 2:0.537114 
1 1:-0.434261 2:0.76534 
1 1:0.045142 2:0.537114 
1 1:-0.434261 2:0.76534 
1 1:0.045142 2:0.537114 
1 1:-0.434261 2:0.76534 
1 1:0.045142 2:0.537114 
1 1:-0.434261 2:0.76534 
1 1:0.045142 2:0.537114 
1 1:-0.434261 2:0.76534 
1 1:0.045142 2:0.537114 
1 1:-0.434261 2:0.76534 
1 1:0.045142 2:0.537114 
1 1:-0.434261 2:0.76534 
1 1:0.045142 2:0.537114 
1 1:-0.434261 2:0.76534 
1 1:0.045142 2:0.537114 
1 1:-0.434261 2:0.76534 
1 1:-0.131247 2:0.293257 
1 1:-0.608518 2:0.971256 
1 1:-0.131247 2:0.293257 
1 1:-0.608518 2:0.971256 
1 1:-0.131247 2:0.293257 
1 1:-0.608518 2:0.971256 
1 1:-0.131247 2:0.293257 
1 1:-0.608518 2:0.971256 
1 1:-0.131247 2:0.293257 
1 1:-0.608518 2:0.971256 
1 1:-0.131247 2:0.293257 
1 1:-0.608518 2:0.971256 
1 1:-0.131247 2:0.293257 
1 1:-0.608518 2:0.971256 
1 1:-0.131247 2:0.293257 
1 1:-0.608518 2:0.971256 
1 1:-0.131247 2:0.293257 
1 1:-0.608518 2:0.971256 
1 1:-0.131247 2:0.293257 
1 1:-0.608518 2:0.971256 
1 1:-0.131247 2:0.293257 
1 1:-0.608518 2:0.971256 
1 1:-0.131247 2:0.293257 
1 1:-0.608518 2:0.971256 
1 1:-0.131247 2:0.293257 
1 1:-0.608518 2:0.971256 
1 1:-0.131247 2:0.293257 
1 1:-0.608518 2:0.971256 
1 1:-0.131247 2:0.293257 
1 1:-0.608518 2:0.971256 
1 1:-0.131247 2:0.293257 
1 1:-0.608518 2:0.971256 
1 1:-0.131247 2:0.293257 
1 1:-0.608518 2:0.971256 
1 1:-0.131247 2:0.293257 
1 1:-0.608518 2:0.971256 
1 1:-0.131247 2:0.293257 
1 1:-0.608518 2:0.971256 
1 1:-0.131247 2:0.293257 
1 1:-0.608518 2:0.971256 
1 1:-0.131247 2:0.293257 
1 1:-0.608518 2:0.971256 
1 1:-0.131247 2:0.293257 
1 1:-0.608518 2:0.971256 
1 1:-0.131247 2:0.293257 
1 1:-0.608518 2:0.971256 
1 1:-0.131247 2:0.293257 
1 1:-0.608518 2:0.971256 
1 1:-0.131247 2:0.293257 
1 1:-0.608518 2:0.971256 
1 1:-0.131247 2:0.293257 
1 1:-0.608518 2:0.971256 
1 1:-0.131247 2:0.293257 
1 1:-0.608518 2:0.971256 
1 1:-0.131247 2:0.293257 
1 1:-0.608518 2:0.971256 
1 1:-0.131247 2:0.293257 
1 1:-0.608518 2:0.971256 
1 1:-0.131247 2:0.293257 
1 1:-0.608518 2:0.971256 
1 1:-0.131247 2:0.293257 
1 1:-0.608518 2:0.971256 
1 1:-0.131247 2:0.293257 
1 1:-0.608518 2:0.971256 
1 1:-0.131247 2:0.293257 
1 1:-0.608518 2:0.971256 
1 1:-0.131247 2:0.293257 
1 1:-0.608518 2:0.971256 
1 1:-0.131247 2:0.293257 
1 1:-0.608518 2:0.971256 
1 1:-0.131247 2:0.293257 
1 1:-0.608518 2:0.971256 
1 1:-0.131247 2:0.293257 
1 1:-0.608518 2:0.971256 
1 1:-0.131247 2:0.293257 
1 1:-0.608518 2:0.971256 
1 1:-0.131247 2:0.293257 
1 1:-0.608518 2:0.971256 
1 1:-0.131247 2:0.293257 
1 1:-0.608518 2:0.971256 
1 1:-0.131247 2:0.293257 
1 1:-0.608518 2:0.971256 
1 1:-0.131247 2:0.293257 
1 1:-0.608518 2:0.971256 
1 1:-0.131247 2:0.293257 
1 1:-0.608518 2:0.971256 
1 1:-0.131247 2:0.293257 
1 1:-0.608518 2:0.971256 
1 1:-0.131247 2:0.293257 
1 1:-0.608518 2:0.971256 
1 1:-0.131247 2:0.293257 
1 1:-0.608518 2:0.971256 
1 1:-0.131247 2:0.293257 
1 1:-0.608518 2:0.971256 
1 1:-0.131247 2:0.293257 
1 1:-0.608518 2:0.971256 
1 1:-0.131247 2:0.293257 
1 1:-0.608518 2:0.971256 
1 1:-0.131247 2:0.293257 
1 1:-0.608518 2:0.971256 
1 1:-0.131247 2:0.293257 
1 1:-0.608518 2:0.971256 
1 1:-0.131247 2:0.293257 
1 1:-0.608518 2:0.971256 
1 1:-0.131247 2:0.293257 
1 1:-0.608518 2:0.971256 
1 1:-0.131247 2:0.293257 
1 1:-0.608518 2:0.971256 
1 1:-0.131247 2:0.293257 
1 1:-0.608518 2:0.971256 
1 1:-0.131247 2:0.293257 
1 1:-0.608518 2:0.971256 
1 1:-0.131247 2:0.293257 
1 1:-0.608518 2:0.971256 
1 1:-0.131247 2:0.293257 
1 1:-0.608518 2:0.971256 
1 1:-0.131247 2:0.293257 
1 1:-0.608518 2:0.971256 
1 1:-0.131247 2:0.293257 
1 1:-0.608518 2:0.971256 
1 1:-0.131247 2:0.293257 
1 1:-0.608518 2:0.971256 
1 1:-0.131247 2:0.293257 
1 1:-0.608518 2:0.971256 
1 1:-0.131247 2:0.293257 
1 1:-0.608518 2:0.971256 
1 1:-0.131247 2:0.293257 
1 1:-0.608518 2:0.971256 
1 1:-0.131247 2:0.293257 
1 1:-0.608518 2:0.971256 
1 1:-0.131247 2:0.293257 
1 1:-0.608518 2:0.971256 
1 1:-0.131247 2:0.293257 
1 1:-0.608518 2:0.971256 
1 1:-0.131247 2:0.293257 
1 1:-0.608518 2:0.971256 
1 1:-0.131247 2:0.293257 
1 1:-0.608518 2:0.971256 
1 1:-0.131247 2:0.293257 
1 1:-0.608518 2:0.971256 
1 1:-0.131247 2:0.293257 
1 1:-0.608518 2:0.971256 
1 1:-0.131247 2:0.293257 
1 1:-0.608518 2:0.971256 
1 1:-0.131247 2:0.293257 
1 1:-0.608518 2:0.971256 
1 1:-0.131247 2:0.293257 
1 1:-0.608518 2:0.971256 
1 1:-0.131247 2:0.293257 
1 1:-0.608518 2:0.971256 
1 1:-0.131247 2:0.293257 
1 1:-0.608518 2:0.971256 
1 1:-0.131247 2:0.293257 
1 1:-0.608518 2:0.971256 
1 1:-0.131247 2:0.293257 
1 1:-0.608518 2:0.971256 
1 1:-0.131247 2:0.293257 
1 1:-0.608518 2:0.971256 
1 1:-0.131247 2:0.293257 
1 1:-0.608518 2:0.971256 
1 1:-0.131247 2:0.293257 
1 1:-0.608518 2:0.971256 
1 1:-0.131247 2:0.293257 
1 1:-0.608518 2:0.971256 
1 1:-0.131247 2:0.293257 
1 1:-0.608518 2:0.971256 
1 1:-0.131247 2:0.293257 
1 1:-0.608518 2:0.971256 
1 1:-0.131247 2:0.293257 
1 1:-0.608518 2:0.971256 
1 1:-0.131247 2:0.293257 
1 1:-0.608518 2:0.971256 
1 1:-0.131247 2:0.293257 
1 1:-0.608518 2:0.971256 
1 1:-0.131247 2:0.293257 
1 1:-0.608518 2:0.971256 
1 1:-0.131247 2:0.293257 
1 1:-0.608518 2:0.971256 
1 1:-0.131247 2:0.293257 
1 1:-0.608518 2:0.971256 
1 1:-0.131247 2:0.293257 
1 1:-0.608518 2:0.971256 
1 1:-0.131247 2:0.293257 
1 1:-0.608518 2:0.971256 
1 1:-0.131247 2:0.293257 
1 1:-0.608518 2:0.971256 
1 1:-0.131247 2:0.293257 
1 1:-0.608518 2:0.971256 
1 1:-0.131247 2:0.293257 
1 1:-0.608518 2:0.971256 
1 1:-0.131247 2:0.293257 
1 1:-0.608518 2:0.971256 
1 1:1 2:0.728926 
1 1:0.649156 2:-0.218599 
1 1:1 2:0.728926 
1 1:0.649156 2:-0.218599 
1 1:1 2:0.728926 
1 1:0.649156 2:-0.218599 
1 1:1 2:0.728926 
1 1:0.649156 2:-0.218599 
1 1:1 2:0.728926 
1 1:0.649156 2:-0.218599 
1 1:1 2:0.728926 
1 1:0.649156 2:-0.218599 
1 1:1 2:0.728926 
1 1:0.649156 2:-0.218599 
1 1:1 2:0.728926 
1 1:0.649156 2:-0.218599 
1 1:1 2:0.728926 
1 1:0.649156 2:-0.218599 
1 1:1 2:0.728926 
1 1:0.649156 2:-0.218599 
1 1:1 2:0.728926 
1 1:0.649156 2:-0.218599 
1 1:1 2:0.728926 
1 1:0.649156 2:-0.218599 
1 1:1 2:0.728926 
1 1:0.649156 2:-0.218599 
1 1:1 2:0.728926 
1 1:0.649156 2:-0.218599 
1 1:1 2:0.728926 
1 1:0.649156 2:-0.218599 
1 1:1 2:0.728926 
1 1:0.649156 2:-0.218599 
1 1:1 2:0.728926 
1 1:0.649156 2:-0.218599 
1 1:1 2:0.728926 
1 1:0.649156 2:-0.218599 
1 1:1 2:0.728926 
1 1:0.649156 2:-0.218599 
1 1:1 2:0.728926 
1 1:0.649156 2:-0.218599 
1 1:1 2:0.728926 
1 1:0.649156 2:-0.218599 
1 1:1 2:0.728926 
1 1:0.649156 2:-0.218599 
1 1:1 2:0.728926 
1 1:0.649156 2:-0.218599 
1 1:1 2:0.728926 
1 1:0.649156 2:-0.218599 
1 1:1 2:0.728926 
1 1:0.649156 2:-0.218599 
1 1:1 2:0.728926 
1 1:0.649156 2:-0.218599 
1 1:1 2:0.728926 
1 1:0.649156 2:-0.218599 
1 1:1 2:0.728926 
1 1:0.649156 2:-0.218599 
1 1:1 2:0.728926 
1 1:0.649156 2:-0.218599 
1 1:1 2:0.728926 
1 1:0.649156 2:-0.218599 
1 1:1 2:0.728926 
1 1:0.649156 2:-0.218599 
1 1:1 2:0.728926 
1 1:0.649156 2:-0.218599 
1 1:1 2:0.728926 
1 1:0.649156 2:-0.218599 
1 1:1 2:0.728926 
1 1:0.649156 2:-0.218599 
1 1:1 2:0.728926 
1 1:0.649156 2:-0.218599 
1 1:1 2:0.728926 
1 1:0.649156 2:-0.218599 
1 1:1 2:0.728926 
1 1:0.649156 2:-0.218599 
1 1:1 2:0.728926 
1 1:0.649156 2:-0.218599 
1 1:1 2:0.728926 
1 1:0.649156 2:-0.218599 
1 1:1 2:0.728926 
1 1:0.649156 2:-0.218599 
1 1:1 2:0.728926 
1 1:0.649156 2:-0.218599 
1 1:1 2:0.728926 
1 1:0.649156 2:-0.218599 
1 1:1 2:0.728926 
1 1:0.649156 2:-0.218599 
1 1:1 2:0.728926 
1 1:0.649156 2:-0.218599 
1 1:1 2:0.728926 
1 1:0.649156 2:-0.218599 
1 1:1 2:0.728926 
1 1:0.649156 2:-0.218599 
1 1:1 2:0.728926 
1 1:0.649156 2:-0.218599 
1 1:1 2:0.728926 
1 1:0.649156 2:-0.218599 
1 1:1 2:0.728926 
1 1:0.649156 2:-0.218599 
1 1:1 2:0.728926 
1 1:0.649156 2:-0.218599 
1 1:1 2:0.728926 
1 1:0.649156 2:-0.218599 
1 1:1 2:0.728926 
1 1:0.649156 2:-0.218599 
1 1:1 2:0.728926 
1 1:0.649156 2:-0.218599 
1 1:1 2:0.728926 
1 1:0.649156 2:-0.218599 
1 1:1 2:0.728926 
1 1:0.649156 2:-0.218599 
1 1:1 2:0.728926 
1 1:0.649156 2:-0.218599 
1 1:1 2:0.728926 
1 1:0.649156 2:-0.218599 
1 1:1 2:0.728926 
1 1:0.649156 2:-0.218599 
1 1:1 2:0.728926 
1 1:0.649156 2:-0.218599 
1 1:1 2:0.728926 
1 1:0.649156 2:-0.218599 
1 1:1 2:0.728926 
1 1:0.649156 2:-0.218599 
1 1:1 2:0.728926 
1 1:0.649156 2:-0.218599 
1 1:1 2:0.728926 
1 1:0.649156 2:-0.218599 
1 1:1 2:0.728926 
1 1:0.649156 2:-0.218599 
1 1:1 2:0.728926 
1 1:0.649156 2:-0.218599 
1 1:1 2:0.728926 
1 1:0.649156 2:-0.218599 
1 1:1 2:0.728926 
1 1:0.649156 2:-0.218599 
1 1:1 2:0.728926 
1 1:0.649156 2:-0.218599 
1 1:1 2:0.728926 
1 1:0.649156 2:-0.218599 
1 1:1 2:0.728926 
1 1:0.649156 2:-0.218599 
1 1:1 2:0.728926 
1 1:0.649156 2:-0.218599 
1 1:1 2:0.728926 
1 1:0.649156 2:-0.218599 
1 1:1 2:0.728926 
1 1:0.649156 2:-0.218599 
1 1:1 2:0.728926 
1 1:0.649156 2:-0.218599 
1 1:1 2:0.728926 
1 1:0.649156 2:-0.218599 
1 1:1 2:0.728926 
1 1:0.649156 2:-0.218599 
1 1:1 2:0.728926 
1 1:0.649156 2:-0.218599 
1 1:1 2:0.728926 
1 1:0.649156 2:-0.218599 
1 1:1 2:0.728926 
1 1:0.649156 2:-0.218599 
1 1:1 2:0.728926 
1 1:0.649156 2:-0.218599 
1 1:1 2:0.728926 
1 1:0.649156 2:-0.218599 
1 1:1 2:0.728926 
1 1:0.649156 2:-0.218599 
1 1:1 2:0.728926 
1 1:0.649156 2:-0.218599 
1 1:1 2:0.728926 
1 1:0.649156 2:-0.218599 
1 1:1 2:0.728926 
1 1:0.649156 2:-0.218599 
1 1:1 2:0.728926 
1 1:0.649156 2:-0.218599 
1 1:1 2:0.728926 
1 1:0.649156 2:-0.218599 
1 1:1 2:0.728926 
1 1:0.649156 2:-0.218599 
1 1:1 2:0.728926 
1 1:0.649156 2:-0.218599 
1 1:1 2:0.728926 
1 1:0.649156 2:-0.218599 
1 1:1 2:0.728926 
1 1:0.649156 2:-0.218599 
1 1:1 2:0.728926 
1 1:0.649156 2:-0.218599 
1 1:1 2:0.728926 
1 1:0.649156 2:-0.218599 
1 1:0.0112819 2:-0.354326 
1 1:0.392256 2:-0.530333 
1 1:0.0112819 2:-0.354326 
1 1:0.392256 2:-0.530333 
1 1:0.0112819 2:-0.354326 
1 1:0.392256 2:-0.530333 
1 1:0.0112819 2:-0.354326 
1 1:0.392256 2:-0.530333 
1 1:0.0112819 2:-0.354326 
1 1:0.392256 2:-0.530333 
1 1:0.0112819 2:-0.354326 
1 1:0.392256 2:-0.530333 
1 1:0.0112819 2:-0.354326 
1 1:0.392256 2:-0.530333 
1 1:0.0112819 2:-0.354326 
1 1:0.392256 2:-0.530333 
1 1:0.0112819 2:-0.354326 
1 1:0.392256 2:-0.530333 
1 1:0.0112819 2:-0.354326 
1 1:0.392256 2:-0.530333 
1 1:0.0112819 2:-0.354326 
1 1:0.392256 2:-0.530333 
1 1:0.0112819 2:-0.354326 
1 1:0.392256 2:-0.530333 
1 1:0.0112819 2:-0.354326 
1 1:0.392256 2:-0.530333 
1 1:0.0112819 2:-0.354326 
1 1:0.392256 2:-0.530333 
1 1:0.0112819 2:-0.354326 
1 1:0.392256 2:-0.530333 
1 1:0.0112819 2:-0.354326 
1 1:0.392256 2:-0.530333 
1 1:0.0112819 2:-0.354326 
1 1:0.392256 2:-0.530333 
1 1:0.0112819 2:-0.354326 
1 1:0.392256 2:-0.530333 
1 1:0.0112819 2:-0.354326 
1 1:0.392256 2:-0.530333 
1 1:0.0112819 2:-0.354326 
1 1:0.392256 2:-0.530333 
1 1:0.0112819 2:-0.354326 
1 1:0.392256 2:-0.530333 
1 1:0.0112819 2:-0.354326 
1 1:0.392256 2:-0.530333 
1 1:0.0112819 2:-0.354326 
1 1:0.392256 2:-0.530333 
1 1:0.0112819 2:-0.354326 
1 1:0.392256 2:-0.530333 
1 1:0.0112819 2:-0.354326 
1 1:0.392256 2:-0.530333 
1 1:0.0112819 2:-0.354326 
1 1:0.392256 2:-0.530333 
1 1:0.0112819 2:-0.354326 
1 1:0.392256 2:-0.530333 
1 1:0.0112819 2:-0.354326 
1 1:0.392256 2:-0.530333 
1 1:0.0112819 2:-0.354326 
1 1:0.392256 2:-0.530333 
1 1:0.0112819 2:-0.354326 
1 1:0.392256 2:-0.530333 
1 1:0.0112819 2:-0.354326 
1 1:0.392256 2:-0.530333 
1 1:0.0112819 2:-0.354326 
1 1:0.392256 2:-0.530333 
1 1:0.0112819 2:-0.354326 
1 1:0.392256 2:-0.530333 
1 1:0.0112819 2:-0.354326 
1 1:0.392256 2:-0.530333 
1 1:0.0112819 2:-0.354326 
1 1:0.392256 2:-0.530333 
1 1:0.0112819 2:-0.354326 
1 1:0.392256 2:-0.530333 
1 1:0.0112819 2:-0.354326 
1 1:0.392256 2:-0.530333 
1 1:0.0112819 2:-0.354326 
1 1:0.392256 2:-0.530333 
1 1:0.0112819 2:-0.354326 
1 1:0.392256 2:-0.530333 
1 1:0.0112819 2:-0.354326 
1 1:0.392256 2:-0.530333 
1 1:0.0112819 2:-0.354326 
1 1:0.392256 2:-0.530333 
1 1:0.0112819 2:-0.354326 
1 1:0.392256 2:-0.530333 
1 1:0.0112819 2:-0.354326 
1 1:0.392256 2:-0.530333 
1 1:0.0112819 2:-0.354326 
1 1:0.392256 2:-0.530333 
1 1:0.0112819 2:-0.354326 
1 1:0.392256 2:-0.530333 
1 1:0.0112819 2:-0.354326 
1 1:0.392256 2:-0.530333 
1 1:0.0112819 2:-0.354326 
1 1:0.392256 2:-0.530333 
1 1:0.0112819 2:-0.354326 
1 1:0.392256 2:-0.530333 
1 1:0.0112819 2:-0.354326 
1 1:0.392256 2:-0.530333 
1 1:0.0112819 2:-0.354326 
1 1:0.392256 2:-0.530333 
1 1:0.0112819 2:-0.354326 
1 1:0.392256 2:-0.530333 
1 1:0.0112819 2:-0.354326 
1 1:0.392256 2:-0.530333 
1 1:0.0112819 2:-0.354326 
1 1:0.392256 2:-0.530333 
1 1:0.0112819 2:-0.354326 
1 1:0.392256 2:-0.530333 
1 1:0.0112819 2:-0.354326 
1 1:0.392256 2:-0.530333 
1 1:0.0112819 2:-0.354326 
1 1:0.392256 2:-0.530333 
1 1:0.0112819 2:-0.354326 
1 1:0.392256 2:-0.530333 
1 1:0.0112819 2:-0.354326 
1 1:0.392256 2:-0.530333 
1 1:0.0112819 2:-0.354326 
1 1:0.392256 2:-0.530333 
1 1:0.0112819 2:-0.354326 
1 1:0.392256 2:-0.530333 
1 1:0.0112819 2:-0.354326 
1 1:0.392256 2:-0.530333 
1 1:0.0112819 2:-0.354326 
1 1:0.392256 2:-0.530333 
1 1:0.0112819 2:-0.354326 
1 1:0.392256 2:-0.530333 
1 1:0.0112819 2:-0.354326 
1 1:0.392256 2:-0.530333 
1 1:0.0112819 2:-0.354326 
1 1:0.392256 2:-0.530333 
1 1:0.0112819 2:-0.354326 
1 1:0.392256 2:-0.530333 
1 1:0.0112819 2:-0.354326 
1 1:0.392256 2:-0.530333 
1 1:0.0112819 2:-0.354326 
1 1:0.392256 2:-0.530333 
1 1:0.0112819 2:-0.354326 
1 1:0.392256 2:-0.530333 
1 1:0.0112819 2:-0.354326 
1 1:0.392256 2:-0.530333 
1 1:0.0112819 2:-0.354326 
1 1:0.392256 2:-0.530333 
1 1:0.0112819 2:-0.354326 
1 1:0.392256 2:-0.530333 
1 1:0.0112819 2:-0.354326 
1 1:0.392256 2:-0.530333 
1 1:0.0112819 2:-0.354326 
1 1:0.392256 2:-0.530333 
1 1:0.0112819 2:-0.354326 
1 1:0.392256 2:-0.530333 
1 1:0.0112819 2:-0.354326 
1 1:0.392256 2:-0.530333 
1 1:0.0112819 2:-0.354326 
1 1:0.392256 2:-0.530333 
1 1:0.0112819 2:-0.354326 
1 1:0.392256 2:-0.530333 
1 1:0.0112819 2:-0.354326 
1 1:0.392256 2:-0.530333 
1 1:0.0112819 2:-0.354326 
1 1:0.392256 2:-0.530333 
1 1:0.0112819 2:-0.354326 
1 1:0.392256 2:-0.530333 
1 1:0.0112819 2:-0.354326 
1 1:0.392256 2:-0.530333 
1 1:0.0112819 2:-0.354326 
1 1:0.392256 2:-0.530333 
1 1:0.0112819 2:-0.354326 
1 1:0.392256 2:-0.530333 
1 1:0.0112819 2:-0.354326 
1 1:0.392256 2:-0.530333 
1 1:0.0112819 2:-0.354326 
1 1:0.392256 2:-0.530333 
1 1:0.0112819 2:-0.354326 
1 1:0.392256 2:-0.530333 
1 1:0.0112819 2:-0.354326 
1 1:0.392256 2:-0.530333 
1 1:0.0112819 2:-0.354326 
1 1:0.392256 2:-0.530333 
1 1:0.0112819 2:-0.354326 
1 1:0.392256 2:-0.530333 
1 1:0.0112819 2:-0.354326 
1 1:0.392256 2:-0.530333 
1 1:0.0112819 2:-0.354326 
1 1:0.392256 2:-0.530333 
1 1:-0.350078 2:0.3499 
1 1:-0.320868 2:0.338823 
1 1:-0.350078 2:0.3499 
1 1:-0.320868 2:0.338823 
1 1:-0.350078 2:0.3499 
1 1:-0.320868 2:0.338823 
1 1:-0.350078 2:0.3499 
1 1:-0.320868 2:0.338823 
1 1:-0.350078 2:0.3499 
1 1:-0.320868 2:0.338823 
1 1:-0.350078 2:0.3499 
1 1:-0.320868 2:0.338823 
1 1:-0.350078 2:0.3499 
1 1:-0.320868 2:0.338823 
1 1:-0.350078 2:0.3499 
1 1:-0.320868 2:0.338823 
1 1:-0.350078 2:0.3499 
1 1:-0.320868 2:0.338823 
1 1:-0.350078 2:0.3499 
1 1:-0.320868 2:0.338823 
1 1:-0.350078 2:0.3499 
1 1:-0.320868 2:0.338823 
1 1:-0.350078 2:0.3499 
1 1:-0.320868 2:0.338823 
1 1:-0.350078 2:0.3499 
1 1:-0.320868 2:0.338823 
1 1:-0.350078 2:0.3499 
1 1:-0.320868 2:0.338823 
1 1:-0.350078 2:0.3499 
1 1:-0.320868 2:0.338823 
1 1:-0.350078 2:0.3499 
1 1:-0.320868 2:0.338823 
1 1:-0.350078 2:0.3499 
1 1:-0.320868 2:0.338823 
1 1:-0.350078 2:0.3499 
1 1:-0.320868 2:0.338823 
1 1:-0.350078 2:0.3499 
1 1:-0.320868 2:0.338823 
1 1:-0.350078 2:0.3499 
1 1:-0.320868 2:0.338823 
1 1:-0.350078 2:0.3499 
1 1:-0.320868 2:0.338823 
1 1:-0.350078 2:0.3499 
1 1:-0.320868 2:0.338823 
1 1:-0.350078 2:0.3499 
1 1:-0.320868 2:0.338823 
1 1:-0.350078 2:0.3499 
1 1:-0.320868 2:0.338823 
1 1:-0.350078 2:0.3499 
1 1:-0.320868 2:0.338823 
1 1:-0.350078 2:0.3499 
1 1:-0.320868 2:0.338823 
1 1:-0.350078 2:0.3499 
1 1:-0.320868 2:0.338823 
1 1:-0.350078 2:0.3499 
1 1:-0.320868 2:0.338823 
1 1:-0.350078 2:0.3499 
1 1:-0.320868 2:0.338823 
1 1:-0.350078 2:0.3499 
1 1:-0.320868 2:0.338823 
1 1:-0.350078 2:0.3499 
1 1:-0.320868 2:0.338823 
1 1:-0.350078 2:0.3499 
1 1:-0.320868 2:0.338823 
1 1:-0.350078 2:0.3499 
1 1:-0.320868 2:0.338823 
1 1:-0.350078 2:0.3499 
1 1:-0.320868 2:0.338823 
1 1:-0.350078 2:0.3499 
1 1:-0.320868 2:0.338823 
1 1:-0.350078 2:0.3499 
1 1:-0.320868 2:0.338823 
1 1:-0.350078 2:0.3499 
1 1:-0.320868 2:0.338823 
1 1:-0.350078 2:0.3499 
1 1:-0.320868 2:0.338823 
1 1:-0.350078 2:0.3499 
1 1:-0.320868 2:0.338823 
1 1:-0.350078 2:0.3499 
1 1:-0.320868 2:0.338823 
1 1:-0.350078 2:0.3499 
1 1:-0.320868 2:0.338823 
1 1:-0.350078 2:0.3499 
1 1:-0.320868 2:0.338823 
1 1:-0.350078 2:0.3499 
1 1:-0.320868 2:0.338823 
1 1:-0.350078 2:0.3499 
1 1:-0.320868 2:0.338823 
1 1:-0.350078 2:0.3499 
1 1:-0.320868 2:0.338823 
1 1:-0.350078 2:0.3499 
1 1:-0.320868 2:0.338823 
1 1:-0.350078 2:0.3499 
1 1:-0.320868 2:0.338823 
1 1:-0.350078 2:0.3499 
1 1:-0.320868 2:0.338823 
1 1:-0.350078 2:0.3499 
1 1:-0.320868 2:0.338823 
1 1:-0.350078 2:0.3499 
1 1:-0.320868 2:0.338823 
1 1:-0.350078 2:0.3499 
1 1:-0.320868 2:0.338823 
1 1:-0.350078 2:0.3499 
1 1:-0.320868 2:0.338823 
1 1:-0.350078 2:0.3499 
1 1:-0.320868 2:0.338823 
1 1:-0.350078 2:0.3499 
1 1:-0.320868 2:0.338823 
1 1:-0.350078 2:0.3499 
1 1:-0.320868 2:0.338823 
1 1:-0.350078 2:0.3499 
1 1:-0.320868 2:0.338823 
1 1:-0.350078 2:0.3499 
1 1:-0.320868 2:0.338823 
1 1:-0.350078 2:0.3499 
1 1:-0.320868 2:0.338823 
1 1:-0.350078 2:0.3499 
1 1:-0.320868 2:0.338823 
1 1:-0.350078 2:0.3499 
1 1:-0.320868 2:0.338823 
1 1:-0.350078 2:0.3499 
1 1:-0.320868 2:0.338823 
1 1:-0.350078 2:0.3499 
1 1:-0.320868 2:0.338823 
1 1:-0.350078 2:0.3499 
1 1:-0.320868 2:0.338823 
1 1:-0.350078 2:0.3499 
1 1:-0.320868 2:0.338823 
1 1:-0.350078 2:0.3499 
1 1:-0.320868 2:0.338823 
1 1:-0.350078 2:0.3499 
1 1:-0.320868 2:0.338823 
1 1:-0.350078 2:0.3499 
1 1:-0.320868 2:0.338823 
1 1:-0.350078 2:0.3499 
1 1:-0.320868 2:0.338823 
1 1:-0.350078 2:0.3499 
1 1:-0.320868 2:0.338823 
1 1:-0.350078 2:0.3499 
1 1:-0.320868 2:0.338823 
1 1:-0.350078 2:0.3499 
1 1:-0.320868 2:0.338823 
1 1:-0.350078 2:0.3499 
1 1:-0.320868 2:0.338823 
1 1:-0.350078 2:0.3499 
1 1:-0.320868 2:0.338823 
1 1:-0.350078 2:0.3499 
1 1:-0.320868 2:0.338823 
1 1:-0.350078 2:0.3499 
1 1:-0.320868 2:0.338823 
1 1:-0.350078 2:0.3499 
1 1:-0.320868 2:0.338823 
1 1:-0.350078 2:0.3499 
1 1:-0.320868 2:0.338823 
1 1:-0.350078 2:0.3499 
1 1:-0.320868 2:0.338823 
1 1:-0.350078 2:0.3499 
1 1:-0.320868 2:0.338823 
1 1:-0.350078 2:0.3499 
1 1:-0.320868 2:0.338823 
1 1:-0.350078 2:0.3499 
1 1:-0.320868 2:0.338823 
1 1:-0.350078 2:0.3499 
1 1:-0.320868 2:0.338823 
1 1:-0.350078 2:0.3499 
1 1:-0.320868 2:0.338823 
1 1:-0.350078 2:0.3499 
1 1:-0.320868 2:0.338823 
1 1:-0.350078 2:0.3499 
1 1:-0.320868 2:0.338823 
1 1:-0.350078 2:0.3499 
1 1:-0.320868 2:0.338823 
1 1:-0.350078 2:0.3499 
1 1:-0.320868 2:0.338823 
1 1:-0.350078 2:0.3499 
1 1:-0.320868 2:0.338823 
1 1:-0.350078 2:0.3499 
1 1:-0.320868 2:0.338823 
1 1:-0.350078 2:0.3499 
1 1:-0.320868 2:0.338823 
1 1:-0.350078 2:0.3499 
1 1:-0.320868 2:0.338823 
1 1:-0.350078 2:0.3499 
1 1:-0.320868 2:0.338823 
1 1:-0.350078 2:0.3499 
1 1:-0.320868 2:0.338823 
1 1:-0.316285 2:0.157853 
1 1:-0.30232 2:0.751613 
1 1:-0.316285 2:0.157853 
1 1:-0.30232 2:0.751613 
1 1:-0.316285 2:0.157853 
1 1:-0.30232 2:0.751613 
1 1:-0.316285 2:0.157853 
1 1:-0.30232 2:0.751613 
1 1:-0.316285 2:0.157853 
1 1:-0.30232 2:0.751613 
1 1:-0.316285 2:0.157853 
1 1:-0.30232 2:0.751613 
1 1:-0.316285 2:0.157853 
1 1:-0.30232 2:0.751613 
1 1:-0.316285 2:0.157853 
1 1:-0.30232 2:0.751613 
1 1:-0.316285 2:0.157853 
1 1:-0.30232 2:0.751613 
1 1:-0.316285 2:0.157853 
1 1:-0.30232 2:0.751613 
1 1:-0.316285 2:0.157853 
1 1:-0.30232 2:0.751613 
1 1:-0.316285 2:0.157853 
1 1:-0.30232 2:0.751613 
1 1:-0.316285 2:0.157853 
1 1:-0.30232 2:0.751613 
1 1:-0.316285 2:0.157853 
1 1:-0.30232 2:0.751613 
1 1:-0.316285 2:0.157853 
1 1:-0.30232 2:0.751613 
1 1:-0.316285 2:0.157853 
1 1:-0.30232 2:0.751613 
1 1:-0.316285 2:0.157853 
1 1:-0.30232 2:0.751613 
1 1:-0.316285 2:0.157853 
1 1:-0.30232 2:0.751613 
1 1:-0.316285 2:0.157853 
1 1:-0.30232 2:0.751613 
1 1:-0.316285 2:0.157853 
1 1:-0.30232 2:0.751613 
1 1:-0.316285 2:0.157853 
1 1:-0.30232 2:0.751613 
1 1:-0.316285 2:0.157853 
1 1:-0.30232 2:0.751613 
1 1:-0.316285 2:0.157853 
1 1:-0.30232 2:0.751613 
1 1:-0.316285 2:0.157853 
1 1:-0.30232 2:0.751613 
1 1:-0.316285 2:0.157853 
1 1:-0.30232 2:0.751613 
1 1:-0.316285 2:0.157853 
1 1:-0.30232 2:0.751613 
1 1:-0.316285 2:0.157853 
1 1:-0.30232 2:0.751613 
1 1:-0.316285 2:0.157853 
1 1:-0.30232 2:0.751613 
1 1:-0.316285 2:0.157853 
1 1:-0.30232 2:0.751613 
1 1:-0.316285 2:0.157853 
1 1:-0.30232 2:0.751613 
1 1:-0.316285 2:0.157853 
1 1:-0.30232 2:0.751613 
1 1:-0.316285 2:0.157853 
1 1:-0.30232 2:0.751613 
1 1:-0.316285 2:0.157853 
1 1:-0.30232 2:0.751613 
1 1:-0.316285 2:0.157853 
1 1:-0.30232 2:0.751613 
1 1:-0.316285 2:0.157853 
1 1:-0.30232 2:0.751613 
1 1:-0.316285 2:0.157853 
1 1:-0.30232 2:0.751613 
1 1:-0.316285 2:0.157853 
1 1:-0.30232 2:0.751613 
1 1:-0.316285 2:0.157853 
1 1:-0.30232 2:0.751613 
1 1:-0.316285 2:0.157853 
1 1:-0.30232 2:0.751613 
1 1:-0.316285 2:0.157853 
1 1:-0.30232 2:0.751613 
1 1:-0.316285 2:0.157853 
1 1:-0.30232 2:0.751613 
1 1:-0.316285 2:0.157853 
1 1:-0.30232 2:0.751613 
1 1:-0.316285 2:0.157853 
1 1:-0.30232 2:0.751613 
1 1:-0.316285 2:0.157853 
1 1:-0.30232 2:0.751613 
1 1:-0.316285 2:0.157853 
1 1:-0.30232 2:0.751613 
1 1:-0.316285 2:0.157853 
1 1:-0.30232 2:0.751613 
1 1:-0.316285 2:0.157853 
1 1:-0.30232 2:0.751613 
1 1:-0.316285 2:0.157853 
1 1:-0.30232 2:0.751613 
1 1:-0.316285 2:0.157853 
1 1:-0.30232 2:0.751613 
1 1:-0.316285 2:0.157853 
1 1:-0.30232 2:0.751613 
1 1:-0.316285 2:0.157853 
1 1:-0.30232 2:0.751613 
1 1:-0.316285 2:0.157853 
1 1:-0.30232 2:0.751613 
1 1:-0.316285 2:0.157853 
1 1:-0.30232 2:0.751613 
1 1:-0.316285 2:0.157853 
1 1:-0.30232 2:0.751613 
1 1:-0.316285 2:0.157853 
1 1:-0.30232 2:0.751613 
1 1:-0.316285 2:0.157853 
1 1:-0.30232 2:0.751613 
1 1:-0.316285 2:0.157853 
1 1:-0.30232 2:0.751613 
1 1:-0.316285 2:0.157853 
1 1:-0.30232 2:0.751613 
1 1:-0.316285 2:0.157853 
1 1:-0.30232 2:0.751613 
1 1:-0.316285 2:0.157853 
1 1:-0.30232 2:0.751613 
1 1:-0.316285 2:0.157853 
1 1:-0.30232 2:0.751613 
1 1:-0.316285 2:0.157853 
1 1:-0.30232 2:0.751613 
1 1:-0.316285 2:0.157853 
1 1:-0.30232 2:0.751613 
1 1:-0.316285 2:0.157853 
1 1:-0.30232 2:0.751613 
1 1:-0.316285 2:0.157853 
1 1:-0.30232 2:0.751613 
1 1:-0.316285 2:0.157853 
1 1:-0.30232 2:0.751613 
1 1:-0.316285 2:0.157853 
1 1:-0.30232 2:0.751613 
1 1:-0.316285 2:0.157853 
1 1:-0.30232 2:0.751613 
1 1:-0.316285 2:0.157853 
1 1:-0.30232 2:0.751613 
1 1:-0.316285 2:0.157853 
1 1:-0.30232 2:0.751613 
1 1:-0.316285 2:0.157853 
1 1:-0.30232 2:0.751613 
1 1:-0.316285 2:0.157853 
1 1:-0.30232 2:0.751613 
1 1:-0.316285 2:0.157853 
1 1:-0.30232 2:0.751613 
1 1:-0.316285 2:0.157853 
1 1:-0.30232 2:0.751613 
1 1:-0.316285 2:0.157853 
1 1:-0.30232 2:0.751613 
1 1:-0.316285 2:0.157853 
1 1:-0.30232 2:0.751613 
1 1:-0.316285 2:0.157853 
1 1:-0.30232 2:0.751613 
1 1:-0.316285 2:0.157853 
1 1:-0.30232 2:0.751613 
1 1:-0.316285 2:0.157853 
1 1:-0.30232 2:0.751613 
1 1:-0.316285 2:0.157853 
1 1:-0.30232 2:0.751613 
1 1:-0.316285 2:0.157853 
1 1:-0.30232 2:0.751613 
1 1:-0.316285 2:0.157853 
1 1:-0.30232 2:0.751613 
1 1:-0.316285 2:0.157853 
1 1:-0.30232 2:0.751613 
1 1:-0.316285 2:0.157853 
1 1:-0.30232 2:0.751613 
1 1:-0.316285 2:0.157853 
1 1:-0.30232 2:0.751613 
1 1:-0.316285 2:0.157853 
1 1:-0.30232 2:0.751613 
1 1:-0.961261 2:-0.906509 
1 1:-0.961261 2:-0.906509 
1 1:-0.961261 2:-0.906509 
1 1:-0.961261 2:-0.906509 
1 1:-0.961261 2:-0.906509 
1 1:-0.961261 2:-0.906509 
1 1:-0.961261 2:-0.906509 
1 1:-0.961261 2:-0.906509 
1 1:-0.961261 2:-0.906509 
1 1:-0.961261 2:-0.906509 
1 1:-0.961261 2:-0.906509 
1 1:-0.961261 2:-0.906509 
1 1:-0.961261 2:-0.906509 
1 1:-0.961261 2:-0.906509 
1 1:-0.961261 2:-0.906509 
1 1:-0.961261 2:-0.906509 
1 1:-0.961261 2:-0.906509 
1 1:-0.961261 2:-0.906509 
1 1:-0.961261 2:-0.906509 
1 1:-0.961261 2:-0.906509 
1 1:-0.961261 2:-0.906509 
1 1:-0.961261 2:-0.906509 
1 1:-0.961261 2:-0.906509 
1 1:-0.961261 2:-0.906509 
1 1:-0.961261 2:-0.906509 
1 1:-0.961261 2:-0.906509 
1 1:-0.961261 2:-0.906509 
1 1:-0.961261 2:-0.906509 
1 1:-0.961261 2:-0.906509 
1 1:-0.961261 2:-0.906509 
1 1:-0.961261 2:-0.906509 
1 1:-0.961261 2:-0.906509 
1 1:-0.961261 2:-0.906509 
1 1:-0.961261 2:-0.906509 
1 1:-0.961261 2:-0.906509 
1 1:-0.961261 2:-0.906509 
1 1:-0.961261 2:-0.906509 
1 1:-0.961261 2:-0.906509 
1 1:-0.944058 2:-0.934985 
1 1:-0.941404 2:-0.816773 
1 1:-0.944058 2:-0.934985 
1 1:-0.941404 2:-0.816773 
1 1:-0.944058 2:-0.934985 
1 1:-0.941404 2:-0.816773 
1 1:-0.944058 2:-0.934985 
1 1:-0.941404 2:-0.816773 
1 1:-0.944058 2:-0.934985 
1 1:-0.941404 2:-0.816773 
1 1:-0.944058 2:-0.934985 
1 1:-0.941404 2:-0.816773 
1 1:-0.944058 2:-0.934985 
1 1:-0.941404 2:-0.816773 
1 1:-0.944058 2:-0.934985 
1 1:-0.941404 2:-0.816773 
1 1:-0.944058 2:-0.934985 
1 1:-0.941404 2:-0.816773 
1 1:-0.944058 2:-0.934985 
1 1:-0.941404 2:-0.816773 
1 1:-0.944058 2:-0.934985 
1 1:-0.941404 2:-0.816773 
1 1:-0.944058 2:-0.934985 
1 1:-0.941404 2:-0.816773 
1 1:-0.944058 2:-0.934985 
1 1:-0.941404 2:-0.816773 
1 1:-0.944058 2:-0.934985 
1 1:-0.941404 2:-0.816773 
1 1:-0.944058 2:-0.934985 
1 1:-0.941404 2:-0.816773 
1 1:-0.944058 2:-0.934985 
1 1:-0.941404 2:-0.816773 
1 1:-0.944058 2:-0.934985 
1 1:-0.941404 2:-0.816773 
1 1:-0.944058 2:-0.934985 
1 1:-0.941404 2:-0.816773 
1 1:-0.944058 2:-0.934985 
1 1:-0.941404 2:-0.816773 
1 1:-0.944058 2:-0.934985 
1 1:-0.941404 2:-0.816773 
1 1:-0.944058 2:-0.934985 
1 1:-0.941404 2:-0.816773 
1 1:-0.944058 2:-0.934985 
1 1:-0.941404 2:-0.816773 
1 1:-0.944058 2:-0.934985 
1 1:-0.941404 2:-0.816773 
1 1:-0.944058 2:-0.934985 
1 1:-0.941404 2:-0.816773 
1 1:-0.944058 2:-0.934985 
1 1:-0.941404 2:-0.816773 
1 1:-0.944058 2:-0.934985 
1 1:-0.941404 2:-0.816773 
1 1:-0.944058 2:-0.934985 
1 1:-0.941404 2:-0.816773 
1 1:-0.944058 2:-0.934985 
1 1:-0.941404 2:-0.816773 
1 1:-0.944058 2:-0.934985 
1 1:-0.941404 2:-0.816773 
1 1:-0.944058 2:-0.934985 
1 1:-0.941404 2:-0.816773 
1 1:-0.944058 2:-0.934985 
1 1:-0.941404 2:-0.816773 
1 1:-0.944058 2:-0.934985 
1 1:-0.941404 2:-0.816773 
1 1:-0.944058 2:-0.934985 
1 1:-0.941404 2:-0.816773 
1 1:-0.944058 2:-0.934985 
1 1:-0.941404 2:-0.816773 
1 1:-0.944058 2:-0.934985 
1 1:-0.941404 2:-0.816773 
1 1:-0.944058 2:-0.934985 
1 1:-0.941404 2:-0.816773 
1 1:-0.944058 2:-0.934985 
1 1:-0.941404 2:-0.816773 
1 1:-0.944058 2:-0.934985 
1 1:-0.941404 2:-0.816773 
1 1:-0.944058 2:-0.934985 
1 1:-0.941404 2:-0.816773 
1 1:-0.944058 2:-0.934985 
1 1:-0.941404 2:-0.816773 
1 1:-0.944058 2:-0.934985 
1 1:-0.941404 2:-0.816773 
1 1:-0.944058 2:-0.934985 
1 1:-0.941404 2:-0.816773 
1 1:-0.944058 2:-0.934985 
1 1:-0.941404 2:-0.816773 
1 1:-0.944058 2:-0.934985 
1 1:-0.941404 2:-0.816773 
1 1:-0.944058 2:-0.934985 
1 1:-0.941404 2:-0.816773 
1 1:-0.944058 2:-0.934985 
1 1:-0.941404 2:-0.816773 
1 1:-0.944058 2:-0.934985 
1 1:-0.941404 2:-0.816773 
1 1:-0.944058 2:-0.934985 
1 1:-0.941404 2:-0.816773 
1 1:-0.944058 2:-0.934985 
1 1:-0.941404 2:-0.816773 
1 1:-0.944058 2:-0.934985 
1 1:-0.941404 2:-0.816773 
1 1:-0.944058 2:-0.934985 
1 1:-0.941404 2:-0.816773 
1 1:-0.944058 2:-0.934985 
1 1:-0.941404 2:-0.816773 
1 1:-0.944058 2:-0.934985 
1 1:-0.941404 2:-0.816773 
1 1:-0.944058 2:-0.934985 
1 1:-0.941404 2:-0.816773 
1 1:-0.944058 2:-0.934985 
1 1:-0.941404 2:-0.816773 
1 1:-0.944058 2:-0.934985 
1 1:-0.941404 2:-0.816773 
1 1:-0.944058 2:-0.934985 
1 1:-0.941404 2:-0.816773 
1 1:-0.944058 2:-0.934985 
1 1:-0.941404 2:-0.816773 
1 1:-0.944058 2:-0.934985 
1 1:-0.941404 2:-0.816773 
1 1:-0.944058 2:-0.934985 
1 1:-0.941404 2:-0.816773 
1 1:-0.944058 2:-0.934985 
1 1:-0.941404 2:-0.816773 
1 1:-0.944058 2:-0.934985 
1 1:-0.941404 2:-0.816773 
1 1:-0.944058 2:-0.934985 
1 1:-0.941404 2:-0.816773 
1 1:-0.944058 2:-0.934985 
1 1:-0.941404 2:-0.816773 
1 1:-0.944058 2:-0.934985 
1 1:-0.941404 2:-0.816773 
1 1:-0.944058 2:-0.934985 
1 1:-0.941404 2:-0.816773 
1 1:-0.944058 2:-0.934985 
1 1:-0.941404 2:-0.816773 
1 1:-0.944058 2:-0.934985 
1 1:-0.941404 2:-0.816773 
1 1:-0.944058 2:-0.934985 
1 1:-0.941404 2:-0.816773 
1 1:-0.944058 2:-0.934985 
1 1:-0.941404 2:-0.816773 
1 1:-0.944058 2:-0.934985 
1 1:-0.941404 2:-0.816773 
1 1:-0.944058 2:-0.934985 
1 1:-0.941404 2:-0.816773 
1 1:-0.944058 2:-0.934985 
1 1:-0.941404 2:-0.816773 
1 1:-0.944058 2:-0.934985 
1 1:-0.941404 2:-0.816773 
1 1:-0.944058 2:-0.934985 
1 1:-0.941404 2:-0.816773 
1 1:-0.944058 2:-0.934985 
1 1:-0.941404 2:-0.816773 
1 1:-0.944058 2:-0.934985 
1 1:-0.941404 2:-0.816773 
1 1:-0.944058 2:-0.934985 
1 1:-0.941404 2:-0.816773 
1 1:-0.944058 2:-0.934985 
1 1:-0.941404 2:-0.816773 
1 1:-0.944058 2:-0.934985 
1 1:-0.941404 2:-0.816773 
1 1:-0.944058 2:-0.934985 
1 1:-0.941404 2:-0.816773 
1 1:-0.944058 2:-0.934985 
1 1:-0.941404 2:-0.816773 
1 1:-0.944058 2:-0.934985 
1 1:-0.941404 2:-0.816773 
1 1:-0.944058 2:-0.934985 
1 1:-0.941404 2:-0.816773 
1 1:-0.944058 2:-0.934985 
1 1:-0.941404 2:-0.816773 
1 1:-0.944058 2:-0.934985 
1 1:-0.941404 2:-0.816773 
1 1:-0.944058 2:-0.934985 
1 1:-0.941404 2:-0.816773 
1 1:-0.944058 2:-0.934985 
1 1:-0.941404 2:-0.816773 
1 1:-0.944058 2:-0.934985 
1 1:-0.941404 2:-0.816773 
1 1:-0.944058 2:-0.934985 
1 1:-0.941404 2:-0.816773 
1 1:-0.944058 2:-0.934985 
1 1:-0.941404 2:-0.816773 
1 1:-0.944058 2:-0.934985 
1 1:-0.941404 2:-0.816773 
1 1:-0.944058 2:-0.934985 
1 1:-0.941404 2:-0.816773 
1 1:-0.944058 2:-0.934985 
1 1:-0.941404 2:-0.816773 
1 1:-0.944058 2:-0.934985 
1 1:-0.941404 2:-0.816773 
1 1:-0.944058 2:-0.934985 
1 1:-0.941404 2:-0.816773 
1 1:-0.950296 2:-0.987051 
1 1:-0.950296 2:-0.987051 
1 1:-0.950296 2:-0.987051 
1 1:-0.950296 2:-0.987051 
1 1:-0.950296 2:-0.987051 
1 1:-0.950296 2:-0.987051 
1 1:-0.950296 2:-0.987051 
1 1:-0.950296 2:-0.987051 
1 1:-0.950296 2:-0.987051 
1 1:-0.950296 2:-0.987051 
1 1:-0.950296 2:-0.987051 
1 1:-0.950296 2:-0.987051 
1 1:-0.950296 2:-0.987051 
1 1:-0.950296 2:-0.987051 
1 1:-0.950296 2:-0.987051 
1 1:-0.950296 2:-0.987051 
1 1:-0.950296 2:-0.987051 
1 1:-0.950296 2:-0.987051 
1 1:-0.950296 2:-0.987051 
1 1:-0.950296 2:-0.987051 
1 1:-0.950296 2:-0.987051 
1 1:-0.950296 2:-0.987051 
1 1:-0.950296 2:-0.987051 
1 1:-0.950296 2:-0.987051 
1 1:-0.950296 2:-0.987051 
1 1:-0.950296 2:-0.987051 
1 1:-0.950296 2:-0.987051 
1 1:-0.950296 2:-0.987051 
1 1:-0.950296 2:-0.987051 
1 1:-0.950296 2:-0.987051 
1 1:-0.950296 2:-0.987051 
1 1:-0.950296 2:-0.987051 
1 1:-0.950296 2:-0.987051 
1 1:-0.950296 2:-0.987051 
1 1:-0.950296 2:-0.987051 
1 1:-0.950296 2:-0.987051 
1 1:-0.950296 2:-0.987051 
1 1:-0.950296 2:-0.987051 
1 1:-0.950296 2:-0.987051 
1 1:-0.950296 2:-0.987051 
1 1:-0.950296 2:-0.987051 
1 1:-0.950296 2:-0.987051 
1 1:-0.950296 2:-0.987051 
1 1:-0.950296 2:-0.987051 
1 1:-0.950296 2:-0.987051 
1 1:-0.950296 2:-0.987051 
1 1:-0.950296 2:-0.987051 
1 1:-0.950296 2:-0.987051 
1 1:-0.950296 2:-0.987051 
1 1:-0.950296 2:-0.987051 
1 1:-0.950296 2:-0.987051 
1 1:-0.950296 2:-0.987051 
1 1:-0.950296 2:-0.987051 
1 1:-0.950296 2:-0.987051 
1 1:-0.950296 2:-0.987051 
1 1:-0.950296 2:-0.987051 
1 1:-0.950296 2:-0.987051 
1 1:-0.950296 2:-0.987051 
1 1:-0.950296 2:-0.987051 
1 1:-0.950296 2:-0.987051 
1 1:-0.950296 2:-0.987051 
1 1:-0.950296 2:-0.987051 
1 1:-0.950296 2:-0.987051 
1 1:-0.950296 2:-0.987051 
1 1:-0.950296 2:-0.987051 
1 1:-0.950296 2:-0.987051 
1 1:-0.950296 2:-0.987051 
1 1:-0.950296 2:-0.987051 
1 1:-0.950296 2:-0.987051 
1 1:-0.950296 2:-0.987051 
1 1:-0.950296 2:-0.987051 
1 1:-0.950296 2:-0.987051 
1 1:-0.950296 2:-0.987051 
1 1:-0.950296 2:-0.987051 
1 1:-0.950296 2:-0.987051 
1 1:-0.950296 2:-0.987051 
1 1:-0.950296 2:-0.987051 
1 1:-0.950296 2:-0.987051 
1 1:-0.950296 2:-0.987051 
1 1:-0.950296 2:-0.987051 
1 1:-0.950296 2:-0.987051 
1 1:-0.950296 2:-0.987051 
1 1:-0.950296 2:-0.987051 
1 1:-0.950296 2:-0.987051 
1 1:-0.950296 2:-0.987051 
1 1:-0.950296 2:-0.987051 
1 1:-0.950296 2:-0.987051 
1 1:-0.950296 2:-0.987051 
1 1:-0.950296 2:-0.987051 
1 1:-0.950296 2:-0.987051 
1 1:-0.950296 2:-0.987051 
1 1:-0.950296 2:-0.987051 
1 1:-0.950296 2:-0.987051 
1 1:-0.950296 2:-0.987051 
1 1:-0.984461 2:-0.992482 
1 1:-0.984461 2:-0.992482 
1 1:-0.984461 2:-0.992482 
1 1:-0.984461 2:-0.992482 
1 1:-0.984461 2:-0.992482 
1 1:-0.984461 2:-0.992482 
1 1:-0.984461 2:-0.992482 
1 1:-0.984461 2:-0.992482 
1 1:-0.984461 2:-0.992482 
1 1:-0.984461 2:-0.992482 
1 1:-0.984461 2:-0.992482 
1 1:-0.984461 2:-0.992482 
1 1:-0.984461 2:-0.992482 
1 1:-0.984461 2:-0.992482 
1 1:-0.984461 2:-0.992482 
1 1:-0.984461 2:-0.992482 
1 1:-0.984461 2:-0.992482 
1 1:-0.984461 2:-0.992482 
1 1:-0.984461 2:-0.992482 
1 1:-0.984461 2:-0.992482 
1 1:-0.984461 2:-0.992482 
1 1:-0.984461 2:-0.992482 
1 1:-0.984461 2:-0.992482 
1 1:-0.984461 2:-0.992482 
1 1:-0.984461 2:-0.992482 
1 1:-0.984461 2:-0.992482 
1 1:-0.984461 2:-0.992482 
1 1:-0.984461 2:-0.992482 
1 1:-0.984461 2:-0.992482 
1 1:-0.984461 2:-0.992482 
1 1:-0.984461 2:-0.992482 
1 1:-0.984461 2:-0.992482 
1 1:-0.984461 2:-0.992482 
1 1:-0.984461 2:-0.992482 
1 1:-0.984461 2:-0.992482 
1 1:-0.984461 2:-0.992482 
1 1:-0.984461 2:-0.992482 
1 1:-0.984461 2:-0.992482 
1 1:-0.984461 2:-0.992482 
1 1:-0.984461 2:-0.992482 
1 1:-0.984461 2:-0.992482 
1 1:-0.984461 2:-0.992482 
1 1:-0.984461 2:-0.992482 
1 1:-0.984461 2:-0.992482 
1 1:-0.984461 2:-0.992482 
1 1:-0.984461 2:-0.992482 
1 1:-0.984461 2:-0.992482 
1 1:-0.984461 2:-0.992482 
1 1:-0.984461 2:-0.992482 
1 1:-0.984461 2:-0.992482 
1 1:-0.984461 2:-0.992482 
1 1:-0.984461 2:-0.992482 
1 1:-0.984461 2:-0.992482 
1 1:-0.984461 2:-0.992482 
1 1:-0.984461 2:-0.992482 
1 1:-0.984461 2:-0.992482 
1 1:-0.984461 2:-0.992482 
1 1:-0.984461 2:-0.992482 
1 1:-0.984461 2:-0.992482 
1 1:-0.984461 2:-0.992482 
1 1:-0.984461 2:-0.992482 
1 1:-0.984461 2:-0.992482 
1 1:-0.984461 2:-0.992482 
1 1:-0.984461 2:-0.992482 
1 1:-0.984461 2:-0.992482 
1 1:-0.984461 2:-0.992482 
1 1:-0.984461 2:-0.992482 
1 1:-0.984461 2:-0.992482 
1 1:-0.984461 2:-0.992482 
1 1:-0.984461 2:-0.992482 
1 1:-0.984461 2:-0.992482 
1 1:-0.984461 2:-0.992482 
1 1:-0.984461 2:-0.992482 
1 1:-0.984461 2:-0.992482 
1 1:-0.984461 2:-0.992482 
1 1:-0.984461 2:-0.992482 
1 1:-0.984461 2:-0.992482 
1 1:-0.984461 2:-0.992482 
1 1:-0.984461 2:-0.992482 
1 1:-0.984461 2:-0.992482 
1 1:-0.984461 2:-0.992482 
1 1:-0.984461 2:-0.992482 
1 1:-0.984461 2:-0.992482 
1 1:-0.984461 2:-0.992482 
1 1:-0.984461 2:-0.992482 
1 1:-0.984461 2:-0.992482 
1 1:-0.984461 2:-0.992482 
1 1:-0.984461 2:-0.992482 
1 1:-0.984461 2:-0.992482 
1 1:-0.984461 2:-0.992482 
1 1:-0.984461 2:-0.992482 
1 1:-0.984461 2:-0.992482 
1 1:-0.984461 2:-0.992482 
1 1:-0.984461 2:-0.992482 
1 1:-0.970672 2:-0.960514 
1 1:-0.931436 2:-0.767298 
1 1:-0.970672 2:-0.960514 
1 1:-0.931436 2:-0.767298 
1 1:-0.970672 2:-0.960514 
1 1:-0.931436 2:-0.767298 
1 1:-0.970672 2:-0.960514 
1 1:-0.931436 2:-0.767298 
1 1:-0.970672 2:-0.960514 
1 1:-0.931436 2:-0.767298 
1 1:-0.970672 2:-0.960514 
1 1:-0.931436 2:-0.767298 
1 1:-0.970672 2:-0.960514 
1 1:-0.931436 2:-0.767298 
1 1:-0.970672 2:-0.960514 
1 1:-0.931436 2:-0.767298 
1 1:-0.970672 2:-0.960514 
1 1:-0.931436 2:-0.767298 
1 1:-0.970672 2:-0.960514 
1 1:-0.931436 2:-0.767298 
1 1:-0.970672 2:-0.960514 
1 1:-0.931436 2:-0.767298 
1 1:-0.970672 2:-0.960514 
1 1:-0.931436 2:-0.767298 
1 1:-0.970672 2:-0.960514 
1 1:-0.931436 2:-0.767298 
1 1:-0.970672 2:-0.960514 
1 1:-0.931436 2:-0.767298 
1 1:-0.970672 2:-0.960514 
1 1:-0.931436 2:-0.767298 
1 1:-0.970672 2:-0.960514 
1 1:-0.931436 2:-0.767298 
1 1:-0.970672 2:-0.960514 
1 1:-0.931436 2:-0.767298 
1 1:-0.970672 2:-0.960514 
1 1:-0.931436 2:-0.767298 
1 1:-0.970672 2:-0.960514 
1 1:-0.931436 2:-0.767298 
1 1:-0.970672 2:-0.960514 
1 1:-0.931436 2:-0.767298 
1 1:-0.970672 2:-0.960514 
1 1:-0.931436 2:-0.767298 
1 1:-0.970672 2:-0.960514 
1 1:-0.931436 2:-0.767298 
1 1:-0.970672 2:-0.960514 
1 1:-0.931436 2:-0.767298 
1 1:-0.970672 2:-0.960514 
1 1:-0.931436 2:-0.767298 
1 1:-0.970672 2:-0.960514 
1 1:-0.931436 2:-0.767298 
1 1:-0.970672 2:-0.960514 
1 1:-0.931436 2:-0.767298 
1 1:-0.970672 2:-0.960514 
1 1:-0.931436 2:-0.767298 
1 1:-0.970672 2:-0.960514 
1 1:-0.931436 2:-0.767298 
1 1:-0.970672 2:-0.960514 
1 1:-0.931436 2:-0.767298 
1 1:-0.970672 2:-0.960514 
1 1:-0.931436 2:-0.767298 
1 1:-0.970672 2:-0.960514 
1 1:-0.931436 2:-0.767298 
1 1:-0.970672 2:-0.960514 
1 1:-0.931436 2:-0.767298 
1 1:-0.970672 2:-0.960514 
1 1:-0.931436 2:-0.767298 
1 1:-0.970672 2:-0.960514 
1 1:-0.931436 2:-0.767298 
1 1:-0.970672 2:-0.960514 
1 1:-0.931436 2:-0.767298 
1 1:-0.970672 2:-0.960514 
1 1:-0.931436 2:-0.767298 
1 1:-0.970672 2:-0.960514 
1 1:-0.931436 2:-0.767298 
1 1:-0.970672 2:-0.960514 
1 1:-0.931436 2:-0.767298 
1 1:-0.970672 2:-0.960514 
1 1:-0.931436 2:-0.767298 
1 1:-0.970672 2:-0.960514 
1 1:-0.931436 2:-0.767298 
1 1:-0.970672 2:-0.960514 
1 1:-0.931436 2:-0.767298 
1 1:-0.970672 2:-0.960514 
1 1:-0.931436 2:-0.767298 
1 1:-0.970672 2:-0.960514 
1 1:-0.931436 2:-0.767298 
1 1:-0.970672 2:-0.960514 
1 1:-0.931436 2:-0.767298 
1 1:-0.970672 2:-0.960514 
1 1:-0.931436 2:-0.767298 
1 1:-0.970672 2:-0.960514 
1 1:-0.931436 2:-0.767298 
1 1:-0.970672 2:-0.960514 
1 1:-0.931436 2:-0.767298 
1 1:-0.970672 2:-0.960514 
1 1:-0.931436 2:-0.767298 
1 1:-0.970672 2:-0.960514 
1 1:-0.931436 2:-0.767298 
1 1:-0.970672 2:-0.960514 
1 1:-0.931436 2:-0.767298 
1 1:-0.970672 2:-0.960514 
1 1:-0.931436 2:-0.767298 
1 1:-0.970672 2:-0.960514 
1 1:-0.931436 2:-0.767298 
1 1:-0.970672 2:-0.960514 
1 1:-0.931436 2:-0.767298 
1 1:-0.970672 2:-0.960514 
1 1:-0.931436 2:-0.767298 
1 1:-0.970672 2:-0.960514 
1 1:-0.931436 2:-0.767298 
1 1:-0.970672 2:-0.960514 
1 1:-0.931436 2:-0.767298 
1 1:-0.970672 2:-0.960514 
1 1:-0.931436 2:-0.767298 
1 1:-0.970672 2:-0.960514 
1 1:-0.931436 2:-0.767298 
1 1:-0.970672 2:-0.960514 
1 1:-0.931436 2:-0.767298 
1 1:-0.970672 2:-0.960514 
1 1:-0.931436 2:-0.767298 
1 1:-0.970672 2:-0.960514 
1 1:-0.931436 2:-0.767298 
1 1:-0.970672 2:-0.960514 
1 1:-0.931436 2:-0.767298 
1 1:-0.970672 2:-0.960514 
1 1:-0.931436 2:-0.767298 
1 1:-0.970672 2:-0.960514 
1 1:-0.931436 2:-0.767298 
1 1:-0.970672 2:-0.960514 
1 1:-0.931436 2:-0.767298 
1 1:-0.970672 2:-0.960514 
1 1:-0.931436 2:-0.767298 
1 1:-0.970672 2:-0.960514 
1 1:-0.931436 2:-0.767298 
1 1:-0.970672 2:-0.960514 
1 1:-0.931436 2:-0.767298 
1 1:-0.970672 2:-0.960514 
1 1:-0.931436 2:-0.767298 
1 1:-0.970672 2:-0.960514 
1 1:-0.931436 2:-0.767298 
1 1:-0.970672 2:-0.960514 
1 1:-0.931436 2:-0.767298 
1 1:-0.970672 2:-0.960514 
1 1:-0.931436 2:-0.767298 
1 1:-0.970672 2:-0.960514 
1 1:-0.931436 2:-0.767298 
1 1:-0.970672 2:-0.960514 
1 1:-0.931436 2:-0.767298 
1 1:-0.970672 2:-0.960514 
1 1:-0.931436 2:-0.767298 
1 1:-0.970672 2:-0.960514 
1 1:-0.931436 2:-0.767298 
1 1:-0.970672 2:-0.960514 
1 1:-0.931436 2:-0.767298 
1 1:-0.970672 2:-0.960514 
1 1:-0.931436 2:-0.767298 
1 1:-0.970672 2:-0.960514 
1 1:-0.931436 2:-0.767298 
1 1:-0.970672 2:-0.960514 
1 1:-0.931436 2:-0.767298 
1 1:-0.970672 2:-0.960514 
1 1:-0.931436 2:-0.767298 
1 1:-0.970672 2:-0.960514 
1 1:-0.931436 2:-0.767298 
1 1:-0.970672 2:-0.960514 
1 1:-0.931436 2:-0.767298 
1 1:-0.970672 2:-0.960514 
1 1:-0.931436 2:-0.767298 
1 1:-0.970672 2:-0.960514 
1 1:-0.931436 2:-0.767298 
1 1:-0.970672 2:-0.960514 
1 1:-0.931436 2:-0.767298 
1 1:-0.970672 2:-0.960514 
1 1:-0.931436 2:-0.767298 
1 1:-0.970672 2:-0.960514 
1 1:-0.931436 2:-0.767298 
1 1:-0.970672 2:-0.960514 
1 1:-0.931436 2:-0.767298 
1 1:-0.970672 2:-0.960514 
1 1:-0.931436 2:-0.767298 
1 1:-0.970672 2:-0.960514 
1 1:-0.931436 2:-0.767298 
1 1:-0.970672 2:-0.960514 
1 1:-0.931436 2:-0.767298 
1 1:-0.970672 2:-0.960514 
1 1:-0.931436 2:-0.767298 
1 1:-0.970672 2:-0.960514 
1 1:-0.931436 2:-0.767298 
1 1:-0.999599 2:-0.976119 
1 1:-0.999599 2:-0.976119 
1 1:-0.999599 2:-0.976119 
1 1:-0.999599 2:-0.976119 
1 1:-0.999599 2:-0.976119 
1 1:-0.999599 2:-0.976119 
1 1:-0.999599 2:-0.976119 
1 1:-0.999599 2:-0.976119 
1 1:-0.999599 2:-0.976119 
1 1:-0.999599 2:-0.976119 
1 1:-0.999599 2:-0.976119 
1 1:-0.999599 2:-0.976119 
1 1:-0.999599 2:-0.976119 
1 1:-0.999599 2:-0.976119 
1 1:-0.999599 2:-0.976119 
1 1:-0.999599 2:-0.976119 
1 1:-0.999599 2:-0.976119 
1 1:-0.999599 2:-0.976119 
1 1:-0.999599 2:-0.976119 
1 1:-0.999599 2:-0.976119 
1 1:-0.999599 2:-0.976119 
1 1:-0.999599 2:-0.976119 
1 1:-0.999599 2:-0.976119 
1 1:-0.999599 2:-0.976119 
1 1:-0.999599 2:-0.976119 
1 1:-0.999599 2:-0.976119 
1 1:-0.999599 2:-0.976119 
1 1:-0.999599 2:-0.976119 
1 1:-0.999599 2:-0.976119 
1 1:-0.999599 2:-0.976119 
1 1:-0.999599 2:-0.976119 
1 1:-0.999599 2:-0.976119 
1 1:-0.999599 2:-0.976119 
1 1:-0.999599 2:-0.976119 
1 1:-0.999599 2:-0.976119 
1 1:-0.999599 2:-0.976119 
1 1:-0.999599 2:-0.976119 
1 1:-0.999599 2:-0.976119 
1 1:-0.999599 2:-0.976119 
1 1:-0.999599 2:-0.976119 
1 1:-0.999599 2:-0.976119 
1 1:-0.999599 2:-0.976119 
1 1:-0.999599 2:-0.976119 
1 1:-0.999599 2:-0.976119 
1 1:-0.999599 2:-0.976119 
1 1:-0.999599 2:-0.976119 
1 1:-0.999599 2:-0.976119 
1 1:-0.999599 2:-0.976119 
1 1:-0.999599 2:-0.976119 
1 1:-0.999599 2:-0.976119 
1 1:-0.999599 2:-0.976119 
1 1:-0.999599 2:-0.976119 
1 1:-0.999599 2:-0.976119 
1 1:-0.999599 2:-0.976119 
1 1:-0.999599 2:-0.976119 
1 1:-0.999599 2:-0.976119 
1 1:-0.999599 2:-0.976119 
1 1:-0.999599 2:-0.976119 
1 1:-0.999599 2:-0.976119 
1 1:-0.999599 2:-0.976119 
1 1:-0.999599 2:-0.976119 
1 1:-0.999599 2:-0.976119 
1 1:-0.999599 2:-0.976119 
1 1:-0.999599 2:-0.976119 
1 1:-0.999599 2:-0.976119 
1 1:-0.999599 2:-0.976119 
1 1:-0.999599 2:-0.976119 
1 1:-0.999599 2:-0.976119 
1 1:-0.999599 2:-0.976119 
1 1:-0.999599 2:-0.976119 
1 1:-0.999599 2:-0.976119 
1 1:-0.999599 2:-0.976119 
1 1:-0.999599 2:-0.976119 
1 1:-0.999599 2:-0.976119 
1 1:-0.999599 2:-0.976119 
1 1:-0.999599 2:-0.976119 
1 1:-0.999599 2:-0.976119 
1 1:-0.999599 2:-0.976119 
1 1:-0.999599 2:-0.976119 
1 1:-0.999599 2:-0.976119 
1 1:-0.999599 2:-0.976119 
1 1:-0.999599 2:-0.976119 
1 1:-0.999599 2:-0.976119 
1 1:-0.999599 2:-0.976119 
1 1:-0.999599 2:-0.976119 
1 1:-0.999599 2:-0.976119 
1 1:-0.999599 2:-0.976119 
1 1:-0.999599 2:-0.976119 
1 1:-0.999599 2:-0.976119 
1 1:-0.999599 2:-0.976119 
1 1:-0.999599 2:-0.976119 
1 1:-0.999599 2:-0.976119 
1 1:-0.999599 2:-0.976119 
1 1:-0.999599 2:-0.976119 
1 1:-0.999599 2:-0.976119 
1 1:-0.999599 2:-0.976119 
1 1:-0.967468 2:-0.965396 
1 1:-0.967468 2:-0.965396 
1 1:-0.967468 2:-0.965396 
1 1:-0.967468 2:-0.965396 
1 1:-0.967468 2:-0.965396 
1 1:-0.967468 2:-0.965396 
1 1:-0.967468 2:-0.965396 
1 1:-0.967468 2:-0.965396 
1 1:-0.967468 2:-0.965396 
1 1:-0.967468 2:-0.965396 
1 1:-0.967468 2:-0.965396 
1 1:-0.967468 2:-0.965396 
1 1:-0.967468 2:-0.965396 
1 1:-0.967468 2:-0.965396 
1 1:-0.967468 2:-0.965396 
1 1:-0.967468 2:-0.965396 
1 1:-0.967468 2:-0.965396 
1 1:-0.967468 2:-0.965396 
1 1:-0.967468 2:-0.965396 
1 1:-0.967468 2:-0.965396 
1 1:-0.967468 2:-0.965396 
1 1:-0.967468 2:-0.965396 
1 1:-0.967468 2:-0.965396 
1 1:-0.967468 2:-0.965396 
1 1:-0.967468 2:-0.965396 
1 1:-0.967468 2:-0.965396 
1 1:-0.967468 2:-0.965396 
1 1:-0.967468 2:-0.965396 
1 1:-0.967468 2:-0.965396 
1 1:-0.967468 2:-0.965396 
1 1:-0.967468 2:-0.965396 
1 1:-0.967468 2:-0.965396 
1 1:-0.967468 2:-0.965396 
1 1:-0.967468 2:-0.965396 
1 1:-0.967468 2:-0.965396 
1 1:-0.967468 2:-0.965396 
1 1:-0.967468 2:-0.965396 
1 1:-0.967468 2:-0.965396 
1 1:-0.967468 2:-0.965396 
1 1:-0.967468 2:-0.965396 
1 1:-0.967468 2:-0.965396 
1 1:-0.967468 2:-0.965396 
1 1:-0.967468 2:-0.965396 
1 1:-0.967468 2:-0.965396 
1 1:-0.967468 2:-0.965396 
1 1:-0.967468 2:-0.965396 
1 1:-0.967468 2:-0.965396 
1 1:-0.967468 2:-0.965396 
1 1:-0.967468 2:-0.965396 
1 1:-0.967468 2:-0.965396 
1 1:-0.967468 2:-0.965396 
1 1:-0.967468 2:-0.965396 
1 1:-0.967468 2:-0.965396 
1 1:-0.967468 2:-0.965396 
1 1:-0.967468 2:-0.965396 
1 1:-0.967468 2:-0.965396 
1 1:-0.967468 2:-0.965396 
1 1:-0.967468 2:-0.965396 
1 1:-0.967468 2:-0.965396 
1 1:-0.967468 2:-0.965396 
1 1:-0.967468 2:-0.965396 
1 1:-0.967468 2:-0.965396 
1 1:-0.967468 2:-0.965396 
1 1:-0.967468 2:-0.965396 
1 1:-0.967468 2:-0.965396 
1 1:-0.967468 2:-0.965396 
1 1:-0.967468 2:-0.965396 
1 1:-0.967468 2:-0.965396 
1 1:-0.967468 2:-0.965396 
1 1:-0.967468 2:-0.965396 
1 1:-0.967468 2:-0.965396 
1 1:-0.967468 2:-0.965396 
1 1:-0.967468 2:-0.965396 
1 1:-0.967468 2:-0.965396 
1 1:-0.967468 2:-0.965396 
1 1:-0.967468 2:-0.965396 
1 1:-0.967468 2:-0.965396 
1 1:-0.967468 2:-0.965396 
1 1:-0.967468 2:-0.965396 
1 1:-0.967468 2:-0.965396 
1 1:-0.967468 2:-0.965396 
1 1:-0.967468 2:-0.965396 
1 1:-0.967468 2:-0.965396 
1 1:-0.967468 2:-0.965396 
1 1:-0.967468 2:-0.965396 
1 1:-0.967468 2:-0.965396 
1 1:-0.967468 2:-0.965396 
1 1:-0.967468 2:-0.965396 
1 1:-0.967468 2:-0.965396 
1 1:-0.967468 2:-0.965396 
1 1:-0.967468 2:-0.965396 
1 1:-0.967468 2:-0.965396 
1 1:-0.967468 2:-0.965396 
1 1:-0.967468 2:-0.965396 
1 1:-0.972089 2:-0.944191 
1 1:-0.972089 2:-0.944191 
1 1:-0.972089 2:-0.944191 
1 1:-0.972089 2:-0.944191 
1 1:-0.972089 2:-0.944191 
1 1:-0.972089 2:-0.944191 
1 1:-0.972089 2:-0.944191 
1 1:-0.972089 2:-0.944191 
1 1:-0.972089 2:-0.944191 
1 1:-0.972089 2:-0.944191 
1 1:-0.972089 2:-0.944191 
1 1:-0.972089 2:-0.944191 
1 1:-0.972089 2:-0.944191 
1 1:-0.972089 2:-0.944191 
1 1:-0.972089 2:-0.944191 
1 1:-0.972089 2:-0.944191 
1 1:-0.972089 2:-0.944191 
1 1:-0.972089 2:-0.944191 
1 1:-0.972089 2:-0.944191 
1 1:-0.972089 2:-0.944191 
1 1:-0.972089 2:-0.944191 
1 1:-0.972089 2:-0.944191 
1 1:-0.972089 2:-0.944191 
1 1:-0.972089 2:-0.944191 
1 1:-0.972089 2:-0.944191 
1 1:-0.972089 2:-0.944191 
1 1:-0.972089 2:-0.944191 
1 1:-0.972089 2:-0.944191 
1 1:-0.972089 2:-0.944191 
1 1:-0.972089 2:-0.944191 
1 1:-0.972089 2:-0.944191 
1 1:-0.972089 2:-0.944191 
1 1:-0.972089 2:-0.944191 
1 1:-0.972089 2:-0.944191 
1 1:-0.972089 2:-0.944191 
1 1:-0.972089 2:-0.944191 
1 1:-0.972089 2:-0.944191 
1 1:-0.972089 2:-0.944191 
1 1:-0.972089 2:-0.944191 
1 1:-0.972089 2:-0.944191 
1 1:-0.972089 2:-0.944191 
1 1:-0.972089 2:-0.944191 
1 1:-0.972089 2:-0.944191 
1 1:-0.972089 2:-0.944191 
1 1:-0.972089 2:-0.944191 
1 1:-0.972089 2:-0.944191 
1 1:-0.972089 2:-0.944191 
1 1:-0.972089 2:-0.944191 
1 1:-0.972089 2:-0.944191 
1 1:-0.972089 2:-0.944191 
1 1:-0.972089 2:-0.944191 
1 1:-0.972089 2:-0.944191 
1 1:-0.972089 2:-0.944191 
1 1:-0.972089 2:-0.944191 
1 1:-0.972089 2:-0.944191 
1 1:-0.972089 2:-0.944191 
1 1:-0.972089 2:-0.944191 
1 1:-0.972089 2:-0.944191 
1 1:-0.972089 2:-0.944191 
1 1:-0.972089 2:-0.944191 
1 1:-0.972089 2:-0.944191 
1 1:-0.972089 2:-0.944191 
1 1:-0.972089 2:-0.944191 
1 1:-0.972089 2:-0.944191 
1 1:-0.972089 2:-0.944191 
1 1:-0.972089 2:-0.944191 
1 1:-0.972089 2:-0.944191 
1 1:-0.972089 2:-0.944191 
1 1:-0.972089 2:-0.944191 
1 1:-0.972089 2:-0.944191 
1 1:-0.972089 2:-0.944191 
1 1:-0.972089 2:-0.944191 
1 1:-0.972089 2:-0.944191 
1 1:-0.972089 2:-0.944191 
1 1:-0.972089 2:-0.944191 
1 1:-0.972089 2:-0.944191 
1 1:-0.972089 2:-0.944191 
1 1:-0.972089 2:-0.944191 
1 1:-0.972089 2:-0.944191 
1 1:-0.972089 2:-0.944191 
1 1:-0.972089 2:-0.944191 
1 1:-0.972089 2:-0.944191 
1 1:-0.972089 2:-0.944191 
1 1:-0.972089 2:-0.944191 
1 1:-0.972089 2:-0.944191 
1 1:-0.972089 2:-0.944191 
1 1:-0.972089 2:-0.944191 
1 1:-0.972089 2:-0.944191 
1 1:-0.972089 2:-0.944191 
1 1:-0.972089 2:-0.944191 
1 1:-0.972089 2:-0.944191 
1 1:-0.972089 2:-0.944191 
1 1:-0.972089 2:-0.944191 
1 1:-0.972089 2:-0.944191 
1 1:-0.972089 2:-0.944191 
1 1:-0.972089 2:-0.944191 
1 1:-0.996516 2:-0.935428 
1 1:-0.996516 2:-0.935428 
1 1:-0.996516 2:-0.935428 
1 1:-0.996516 2:-0.935428 
1 1:-0.996516 2:-0.935428 
1 1:-0.996516 2:-0.935428 
1 1:-0.996516 2:-0.935428 
1 1:-0.996516 2:-0.935428 
1 1:-0.996516 2:-0.935428 
1 1:-0.996516 2:-0.935428 
1 1:-0.996516 2:-0.935428 
1 1:-0.996516 2:-0.935428 
1 1:-0.996516 2:-0.935428 
1 1:-0.996516 2:-0.935428 
1 1:-0.996516 2:-0.935428 
1 1:-0.996516 2:-0.935428 
1 1:-0.996516 2:-0.935428 
1 1:-0.996516 2:-0.935428 
1 1:-0.996516 2:-0.935428 
1 1:-0.996516 2:-0.935428 
1 1:-0.996516 2:-0.935428 
1 1:-0.996516 2:-0.935428 
1 1:-0.996516 2:-0.935428 
1 1:-0.996516 2:-0.935428 
1 1:-0.996516 2:-0.935428 
1 1:-0.996516 2:-0.935428 
1 1:-0.996516 2:-0.935428 
1 1:-0.996516 2:-0.935428 
1 1:-0.996516 2:-0.935428 
1 1:-0.996516 2:-0.935428 
1 1:-0.996516 2:-0.935428 
1 1:-0.996516 2:-0.935428 
1 1:-0.996516 2:-0.935428 
1 1:-0.996516 2:-0.935428 
1 1:-0.996516 2:-0.935428 
1 1:-0.996516 2:-0.935428 
1 1:-0.996516 2:-0.935428 
1 1:-0.996516 2:-0.935428 
1 1:-0.996516 2:-0.935428 
1 1:-0.996516 2:-0.935428 
1 1:-0.996516 2:-0.935428 
1 1:-0.996516 2:-0.935428 
1 1:-0.996516 2:-0.935428 
1 1:-0.996516 2:-0.935428 
1 1:-0.996516 2:-0.935428 
1 1:-0.996516 2:-0.935428 
1 1:-0.996516 2:-0.935428 
1 1:-0.996516 2:-0.935428 
1 1:-0.996516 2:-0.935428 
1 1:-0.996516 2:-0.935428 
1 1:-0.996516 2:-0.935428 
1 1:-0.996516 2:-0.935428 
1 1:-0.996516 2:-0.935428 
1 1:-0.996516 2:-0.935428 
1 1:-0.996516 2:-0.935428 
1 1:-0.996516 2:-0.935428 
1 1:-0.996516 2:-0.935428 
1 1:-0.996516 2:-0.935428 
1 1:-0.996516 2:-0.935428 
1 1:-0.996516 2:-0.935428 
1 1:-0.996516 2:-0.935428 
1 1:-0.996516 2:-0.935428 
1 1:-0.996516 2:-0.935428 
1 1:-0.996516 2:-0.935428 
1 1:-0.996516 2:-0.935428 
1 1:-0.996516 2:-0.935428 
1 1:-0.996516 2:-0.935428 
1 1:-0.996516 2:-0.935428 
1 1:-0.996516 2:-0.935428 
1 1:-0.996516 2:-0.935428 
1 1:-0.996516 2:-0.935428 
1 1:-0.996516 2:-0.935428 
1 1:-0.996516 2:-0.935428 
1 1:-0.996516 2:-0.935428 
1 1:-0.996516 2:-0.935428 
1 1:-0.996516 2:-0.935428 
1 1:-0.996516 2:-0.935428 
1 1:-0.996516 2:-0.935428 
1 1:-0.996516 2:-0.935428 
1 1:-0.996516 2:-0.935428 
1 1:-0.996516 2:-0.935428 
1 1:-0.996516 2:-0.935428 
1 1:-0.996516 2:-0.935428 
1 1:-0.996516 2:-0.935428 
1 1:-0.996516 2:-0.935428 
1 1:-0.996516 2:-0.935428 
1 1:-0.996516 2:-0.935428 
1 1:-0.996516 2:-0.935428 
1 1:-0.996516 2:-0.935428 
1 1:-0.996516 2:-0.935428 
1 1:-0.996516 2:-0.935428 
1 1:-0.996516 2:-0.935428 
1 1:-0.996516 2:-0.935428 
1 1:-0.996516 2:-0.935428 
1 1:-0.977782 2:-0.881167 
1 1:-0.977782 2:-0.881167 
1 1:-0.977782 2:-0.881167 
1 1:-0.977782 2:-0.881167 
1 1:-0.977782 2:-0.881167 
1 1:-0.977782 2:-0.881167 
1 1:-0.977782 2:-0.881167 
1 1:-0.977782 2:-0.881167 
1 1:-0.977782 2:-0.881167 
1 1:-0.977782 2:-0.881167 
1 1:-0.977782 2:-0.881167 
1 1:-0.977782 2:-0.881167 
1 1:-0.977782 2:-0.881167 
1 1:-0.977782 2:-0.881167 
1 1:-0.977782 2:-0.881167 
1 1:-0.977782 2:-0.881167 
1 1:-0.977782 2:-0.881167 
1 1:-0.977782 2:-0.881167 
1 1:-0.977782 2:-0.881167 
1 1:-0.977782 2:-0.881167 
1 1:-0.977782 2:-0.881167 
1 1:-0.977782 2:-0.881167 
1 1:-0.977782 2:-0.881167 
1 1:-0.977782 2:-0.881167 
1 1:-0.977782 2:-0.881167 
1 1:-0.977782 2:-0.881167 
1 1:-0.977782 2:-0.881167 
1 1:-0.977782 2:-0.881167 
1 1:-0.977782 2:-0.881167 
1 1:-0.977782 2:-0.881167 
1 1:-0.977782 2:-0.881167 
1 1:-0.977782 2:-0.881167 
1 1:-0.977782 2:-0.881167 
1 1:-0.977782 2:-0.881167 
1 1:-0.977782 2:-0.881167 
1 1:-0.977782 2:-0.881167 
1 1:-0.977782 2:-0.881167 
1 1:-0.977782 2:-0.881167 
1 1:-0.977782 2:-0.881167 
1 1:-0.977782 2:-0.881167 
1 1:-0.977782 2:-0.881167 
1 1:-0.977782 2:-0.881167 
1 1:-0.977782 2:-0.881167 
1 1:-0.977782 2:-0.881167 
1 1:-0.977782 2:-0.881167 
1 1:-0.977782 2:-0.881167 
1 1:-0.977782 2:-0.881167 
1 1:-0.977782 2:-0.881167 
1 1:-0.977782 2:-0.881167 
1 1:-0.977782 2:-0.881167 
1 1:-0.977782 2:-0.881167 
1 1:-0.977782 2:-0.881167 
1 1:-0.977782 2:-0.881167 
1 1:-0.977782 2:-0.881167 
1 1:-0.977782 2:-0.881167 
1 1:-0.977782 2:-0.881167 
1 1:-0.977782 2:-0.881167 
1 1:-0.977782 2:-0.881167 
1 1:-0.977782 2:-0.881167 
1 1:-0.977782 2:-0.881167 
1 1:-0.977782 2:-0.881167 
1 1:-0.977782 2:-0.881167 
1 1:-0.977782 2:-0.881167 
1 1:-0.977782 2:-0.881167 
1 1:-0.977782 2:-0.881167 
1 1:-0.977782 2:-0.881167 
1 1:-0.977782 2:-0.881167 
1 1:-0.977782 2:-0.881167 
1 1:-0.977782 2:-0.881167 
1 1:-0.977782 2:-0.881167 
1 1:-0.977782 2:-0.881167 
1 1:-0.977782 2:-0.881167 
1 1:-0.977782 2:-0.881167 
1 1:-0.977782 2:-0.881167 
1 1:-0.977782 2:-0.881167 
1 1:-0.977782 2:-0.881167 
1 1:-0.977782 2:-0.881167 
1 1:-0.977782 2:-0.881167 
1 1:-0.977782 2:-0.881167 
1 1:-0.977782 2:-0.881167 
1 1:-0.977782 2:-0.881167 
1 1:-0.977782 2:-0.881167 
1 1:-0.977782 2:-0.881167 
1 1:-0.977782 2:-0.881167 
1 1:-0.977782 2:-0.881167 
1 1:-0.977782 2:-0.881167 
1 1:-0.977782 2:-0.881167 
1 1:-0.977782 2:-0.881167 
1 1:-0.977782 2:-0.881167 
1 1:-0.977782 2:-0.881167 
1 1:-0.977782 2:-0.881167 
1 1:-0.977782 2:-0.881167 
1 1:-0.977782 2:-0.881167 
1 1:-0.977782 2:-0.881167 
1 1:-0.977782 2:-0.881167 
1 1:-0.786241 2:-0.912278 
1 1:-0.786241 2:-0.912278 
1 1:-0.786241 2:-0.912278 
1 1:-0.786241 2:-0.912278 
1 1:-0.786241 2:-0.912278 
1 1:-0.786241 2:-0.912278 
1 1:-0.786241 2:-0.912278 
1 1:-0.786241 2:-0.912278 
1 1:-0.786241 2:-0.912278 
1 1:-0.786241 2:-0.912278 
1 1:-0.786241 2:-0.912278 
1 1:-0.786241 2:-0.912278 
1 1:-0.786241 2:-0.912278 
1 1:-0.786241 2:-0.912278 
1 1:-0.786241 2:-0.912278 
1 1:-0.786241 2:-0.912278 
1 1:-0.786241 2:-0.912278 
1 1:-0.786241 2:-0.912278 
1 1:-0.786241 2:-0.912278 
1 1:-0.786241 2:-0.912278 
1 1:-0.786241 2:-0.912278 
1 1:-0.786241 2:-0.912278 
1 1:-0.786241 2:-0.912278 
1 1:-0.786241 2:-0.912278 
1 1:-0.786241 2:-0.912278 
1 1:-0.786241 2:-0.912278 
1 1:-0.786241 2:-0.912278 
1 1:-0.786241 2:-0.912278 
1 1:-0.786241 2:-0.912278 
1 1:-0.786241 2:-0.912278 
1 1:-0.786241 2:-0.912278 
1 1:-0.786241 2:-0.912278 
1 1:-0.786241 2:-0.912278 
1 1:-0.786241 2:-0.912278 
1 1:-0.786241 2:-0.912278 
1 1:-0.786241 2:-0.912278 
1 1:-0.786241 2:-0.912278 
1 1:-0.786241 2:-0.912278 
1 1:-0.786241 2:-0.912278 
1 1:-0.786241 2:-0.912278 
1 1:-0.786241 2:-0.912278 
1 1:-0.786241 2:-0.912278 
1 1:-0.786241 2:-0.912278 
1 1:-0.786241 2:-0.912278 
1 1:-0.786241 2:-0.912278 
1 1:-0.786241 2:-0.912278 
1 1:-0.786241 2:-0.912278 
1 1:-0.786241 2:-0.912278 
1 1:-0.786241 2:-0.912278 
1 1:-0.786241 2:-0.912278 
1 1:-0.786241 2:-0.912278 
1 1:-0.786241 2:-0.912278 
1 1:-0.786241 2:-0.912278 
1 1:-0.786241 2:-0.912278 
1 1:-0.786241 2:-0.912278 
1 1:-0.786241 2:-0.912278 
1 1:-0.786241 2:-0.912278 
1 1:-0.786241 2:-0.912278 
1 1:-0.786241 2:-0.912278 
1 1:-0.786241 2:-0.912278 
1 1:-0.786241 2:-0.912278 
1 1:-0.786241 2:-0.912278 
1 1:-0.786241 2:-0.912278 
1 1:-0.786241 2:-0.912278 
1 1:-0.786241 2:-0.912278 
1 1:-0.786241 2:-0.912278 
1 1:-0.786241 2:-0.912278 
1 1:-0.786241 2:-0.912278 
1 1:-0.786241 2:-0.912278 
1 1:-0.786241 2:-0.912278 
1 1:-0.786241 2:-0.912278 
1 1:-0.786241 2:-0.912278 
1 1:-0.786241 2:-0.912278 
1 1:-0.786241 2:-0.912278 
1 1:-0.786241 2:-0.912278 
1 1:-0.786241 2:-0.912278 
1 1:-0.786241 2:-0.912278 
1 1:-0.786241 2:-0.912278 
1 1:-0.786241 2:-0.912278 
1 1:-0.786241 2:-0.912278 
1 1:-0.786241 2:-0.912278 
1 1:-0.786241 2:-0.912278 
1 1:-0.786241 2:-0.912278 
1 1:-0.786241 2:-0.912278 
1 1:-0.786241 2:-0.912278 
1 1:-0.786241 2:-0.912278 
1 1:-0.786241 2:-0.912278 
1 1:-0.786241 2:-0.912278 
1 1:-0.786241 2:-0.912278 
1 1:-0.786241 2:-0.912278 
1 1:-0.786241 2:-0.912278 
1 1:-0.786241 2:-0.912278 
1 1:-0.786241 2:-0.912278 
1 1:-0.786241 2:-0.912278 
1 1:-0.786241 2:-0.912278 
1 1:-0.182644 2:-0.804963 
1 1:-0.807264 2:-0.956763 
1 1:-0.182644 2:-0.804963 
1 1:-0.807264 2:-0.956763 
1 1:-0.182644 2:-0.804963 
1 1:-0.807264 2:-0.956763 
1 1:-0.182644 2:-0.804963 
1 1:-0.807264 2:-0.956763 
1 1:-0.182644 2:-0.804963 
1 1:-0.807264 2:-0.956763 
1 1:-0.182644 2:-0.804963 
1 1:-0.807264 2:-0.956763 
1 1:-0.182644 2:-0.804963 
1 1:-0.807264 2:-0.956763 
1 1:-0.182644 2:-0.804963 
1 1:-0.807264 2:-0.956763 
1 1:-0.182644 2:-0.804963 
1 1:-0.807264 2:-0.956763 
1 1:-0.182644 2:-0.804963 
1 1:-0.807264 2:-0.956763 
1 1:-0.182644 2:-0.804963 
1 1:-0.807264 2:-0.956763 
1 1:-0.182644 2:-0.804963 
1 1:-0.807264 2:-0.956763 
1 1:-0.182644 2:-0.804963 
1 1:-0.807264 2:-0.956763 
1 1:-0.182644 2:-0.804963 
1 1:-0.807264 2:-0.956763 
1 1:-0.182644 2:-0.804963 
1 1:-0.807264 2:-0.956763 
1 1:-0.182644 2:-0.804963 
1 1:-0.807264 2:-0.956763 
1 1:-0.182644 2:-0.804963 
1 1:-0.807264 2:-0.956763 
1 1:-0.182644 2:-0.804963 
1 1:-0.807264 2:-0.956763 
1 1:-0.182644 2:-0.804963 
1 1:-0.807264 2:-0.956763 
1 1:-0.182644 2:-0.804963 
1 1:-0.807264 2:-0.956763 
1 1:-0.182644 2:-0.804963 
1 1:-0.807264 2:-0.956763 
1 1:-0.182644 2:-0.804963 
1 1:-0.807264 2:-0.956763 
1 1:-0.182644 2:-0.804963 
1 1:-0.807264 2:-0.956763 
1 1:-0.182644 2:-0.804963 
1 1:-0.807264 2:-0.956763 
1 1:-0.182644 2:-0.804963 
1 1:-0.807264 2:-0.956763 
1 1:-0.182644 2:-0.804963 
1 1:-0.807264 2:-0.956763 
1 1:-0.182644 2:-0.804963 
1 1:-0.807264 2:-0.956763 
1 1:-0.182644 2:-0.804963 
1 1:-0.807264 2:-0.956763 
1 1:-0.182644 2:-0.804963 
1 1:-0.807264 2:-0.956763 
1 1:-0.182644 2:-0.804963 
1 1:-0.807264 2:-0.956763 
1 1:-0.182644 2:-0.804963 
1 1:-0.807264 2:-0.956763 
1 1:-0.182644 2:-0.804963 
1 1:-0.807264 2:-0.956763 
1 1:-0.182644 2:-0.804963 
1 1:-0.807264 2:-0.956763 
1 1:-0.182644 2:-0.804963 
1 1:-0.807264 2:-0.956763 
1 1:-0.182644 2:-0.804963 
1 1:-0.807264 2:-0.956763 
1 1:-0.182644 2:-0.804963 
1 1:-0.807264 2:-0.956763 
1 1:-0.182644 2:-0.804963 
1 1:-0.807264 2:-0.956763 
1 1:-0.182644 2:-0.804963 
1 1:-0.807264 2:-0.956763 
1 1:-0.182644 2:-0.804963 
1 1:-0.807264 2:-0.956763 
1 1:-0.182644 2:-0.804963 
1 1:-0.807264 2:-0.956763 
1 1:-0.182644 2:-0.804963 
1 1:-0.807264 2:-0.956763 
1 1:-0.182644 2:-0.804963 
1 1:-0.807264 2:-0.956763 
1 1:-0.182644 2:-0.804963 
1 1:-0.807264 2:-0.956763 
1 1:-0.182644 2:-0.804963 
1 1:-0.807264 2:-0.956763 
1 1:-0.182644 2:-0.804963 
1 1:-0.807264 2:-0.956763 
1 1:-0.182644 2:-0.804963 
1 1:-0.807264 2:-0.956763 
1 1:-0.182644 2:-0.804963 
1 1:-0.807264 2:-0.956763 
1 1:-0.182644 2:-0.804963 
1 1:-0.807264 2:-0.956763 
1 1:-0.182644 2:-0.804963 
1 1:-0.807264 2:-0.956763 
1 1:-0.182644 2:-0.804963 
1 1:-0.807264 2:-0.956763 
1 1:-0.182644 2:-0.804963 
1 1:-0.807264 2:-0.956763 
1 1:-0.182644 2:-0.804963 
1 1:-0.807264 2:-0.956763 
1 1:-0.182644 2:-0.804963 
1 1:-0.807264 2:-0.956763 
1 1:-0.182644 2:-0.804963 
1 1:-0.807264 2:-0.956763 
1 1:-0.182644 2:-0.804963 
1 1:-0.807264 2:-0.956763 
1 1:-0.182644 2:-0.804963 
1 1:-0.807264 2:-0.956763 
1 1:-0.182644 2:-0.804963 
1 1:-0.807264 2:-0.956763 
1 1:-0.182644 2:-0.804963 
1 1:-0.807264 2:-0.956763 
1 1:-0.182644 2:-0.804963 
1 1:-0.807264 2:-0.956763 
1 1:-0.182644 2:-0.804963 
1 1:-0.807264 2:-0.956763 
1 1:-0.182644 2:-0.804963 
1 1:-0.807264 2:-0.956763 
1 1:-0.182644 2:-0.804963 
1 1:-0.807264 2:-0.956763 
1 1:-0.182644 2:-0.804963 
1 1:-0.807264 2:-0.956763 
1 1:-0.182644 2:-0.804963 
1 1:-0.807264 2:-0.956763 
1 1:-0.182644 2:-0.804963 
1 1:-0.807264 2:-0.956763 
1 1:-0.182644 2:-0.804963 
1 1:-0.807264 2:-0.956763 
1 1:-0.182644 2:-0.804963 
1 1:-0.807264 2:-0.956763 
1 1:-0.182644 2:-0.804963 
1 1:-0.807264 2:-0.956763 
1 1:-0.182644 2:-0.804963 
1 1:-0.807264 2:-0.956763 
1 1:-0.182644 2:-0.804963 
1 1:-0.807264 2:-0.956763 
1 1:-0.182644 2:-0.804963 
1 1:-0.807264 2:-0.956763 
1 1:-0.182644 2:-0.804963 
1 1:-0.807264 2:-0.956763 
1 1:-0.182644 2:-0.804963 
1 1:-0.807264 2:-0.956763 
1 1:-0.182644 2:-0.804963 
1 1:-0.807264 2:-0.956763 
1 1:-0.182644 2:-0.804963 
1 1:-0.807264 2:-0.956763 
1 1:-0.182644 2:-0.804963 
1 1:-0.807264 2:-0.956763 
1 1:-0.182644 2:-0.804963 
1 1:-0.807264 2:-0.956763 
1 1:-0.182644 2:-0.804963 
1 1:-0.807264 2:-0.956763 
1 1:-0.182644 2:-0.804963 
1 1:-0.807264 2:-0.956763 
1 1:-0.182644 2:-0.804963 
1 1:-0.807264 2:-0.956763 
1 1:-0.182644 2:-0.804963 
1 1:-0.807264 2:-0.956763 
1 1:-0.182644 2:-0.804963 
1 1:-0.807264 2:-0.956763 
1 1:-0.182644 2:-0.804963 
1 1:-0.807264 2:-0.956763 
1 1:-0.182644 2:-0.804963 
1 1:-0.807264 2:-0.956763 
1 1:-0.182644 2:-0.804963 
1 1:-0.807264 2:-0.956763 
1 1:-0.182644 2:-0.804963 
1 1:-0.807264 2:-0.956763 
1 1:-0.182644 2:-0.804963 
1 1:-0.807264 2:-0.956763 
1 1:-0.182644 2:-0.804963 
1 1:-0.807264 2:-0.956763 
1 1:-0.182644 2:-0.804963 
1 1:-0.807264 2:-0.956763 
1 1:-0.182644 2:-0.804963 
1 1:-0.807264 2:-0.956763 
1 1:-0.182644 2:-0.804963 
1 1:-0.807264 2:-0.956763 
1 1:-0.182644 2:-0.804963 
1 1:-0.807264 2:-0.956763 
1 1:-0.182644 2:-0.804963 
1 1:-0.807264 2:-0.956763 
1 1:-0.182644 2:-0.804963 
1 1:-0.807264 2:-0.956763 
1 1:-0.182644 2:-0.804963 
1 1:-0.807264 2:-0.956763 
1 1:-0.965574 2:-0.927122 
1 1:-0.965574 2:-0.927122 
1 1:-0.965574 2:-0.927122 
1 1:-0.965574 2:-0.927122 
1 1:-0.965574 2:-0.927122 
1 1:-0.965574 2:-0.927122 
1 1:-0.965574 2:-0.927122 
1 1:-0.965574 2:-0.927122 
1 1:-0.965574 2:-0.927122 
1 1:-0.965574 2:-0.927122 
1 1:-0.965574 2:-0.927122 
1 1:-0.965574 2:-0.927122 
1 1:-0.965574 2:-0.927122 
1 1:-0.965574 2:-0.927122 
1 1:-0.965574 2:-0.927122 
1 1:-0.965574 2:-0.927122 
1 1:-0.965574 2:-0.927122 
1 1:-0.965574 2:-0.927122 
1 1:-0.965574 2:-0.927122 
1 1:-0.965574 2:-0.927122 
1 1:-0.965574 2:-0.927122 
1 1:-0.965574 2:-0.927122 
1 1:-0.965574 2:-0.927122 
1 1:-0.965574 2:-0.927122 
1 1:-0.965574 2:-0.927122 
1 1:-0.965574 2:-0.927122 
1 1:-0.965574 2:-0.927122 
1 1:-0.965574 2:-0.927122 
1 1:-0.965574 2:-0.927122 
1 1:-0.965574 2:-0.927122 
1 1:-0.965574 2:-0.927122 
1 1:-0.965574 2:-0.927122 
1 1:-0.965574 2:-0.927122 
1 1:-0.965574 2:-0.927122 
1 1:-0.965574 2:-0.927122 
1 1:-0.965574 2:-0.927122 
1 1:-0.965574 2:-0.927122 
1 1:-0.965574 2:-0.927122 
1 1:-0.965574 2:-0.927122 
1 1:-0.965574 2:-0.927122 
1 1:-0.965574 2:-0.927122 
1 1:-0.965574 2:-0.927122 
1 1:-0.965574 2:-0.927122 
1 1:-0.965574 2:-0.927122 
1 1:-0.965574 2:-0.927122 
1 1:-0.965574 2:-0.927122 
1 1:-0.965574 2:-0.927122 
1 1:-0.965574 2:-0.927122 
1 1:-0.965574 2:-0.927122 
1 1:-0.965574 2:-0.927122 
1 1:-0.965574 2:-0.927122 
1 1:-0.965574 2:-0.927122 
1 1:-0.965574 2:-0.927122 
1 1:-0.965574 2:-0.927122 
1 1:-0.965574 2:-0.927122 
1 1:-0.965574 2:-0.927122 
1 1:-0.965574 2:-0.927122 
1 1:-0.965574 2:-0.927122 
1 1:-0.965574 2:-0.927122 
1 1:-0.965574 2:-0.927122 
1 1:-0.965574 2:-0.927122 
1 1:-0.965574 2:-0.927122 
1 1:-0.965574 2:-0.927122 
1 1:-0.965574 2:-0.927122 
1 1:-0.965574 2:-0.927122 
1 1:-0.965574 2:-0.927122 
1 1:-0.965574 2:-0.927122 
1 1:-0.965574 2:-0.927122 
1 1:-0.965574 2:-0.927122 
1 1:-0.965574 2:-0.927122 
1 1:-0.965574 2:-0.927122 
1 1:-0.965574 2:-0.927122 
1 1:-0.965574 2:-0.927122 
1 1:-0.965574 2:-0.927122 
1 1:-0.965574 2:-0.927122 
1 1:-0.965574 2:-0.927122 
1 1:-0.965574 2:-0.927122 
1 1:-0.965574 2:-0.927122 
1 1:-0.965574 2:-0.927122 
1 1:-0.965574 2:-0.927122 
1 1:-0.965574 2:-0.927122 
1 1:-0.965574 2:-0.927122 
1 1:-0.965574 2:-0.927122 
1 1:-0.965574 2:-0.927122 
1 1:-0.965574 2:-0.927122 
1 1:-0.965574 2:-0.927122 
1 1:-0.965574 2:-0.927122 
1 1:-0.965574 2:-0.927122 
1 1:-0.965574 2:-0.927122 
1 1:-0.965574 2:-0.927122 
1 1:-0.965574 2:-0.927122 
1 1:-0.965574 2:-0.927122 
1 1:-0.965574 2:-0.927122 
1 1:-0.965574 2:-0.927122 
1 1:0.0492234 2:-0.665678 
1 1:-0.923427 2:-0.936559 
1 1:0.0492234 2:-0.665678 
1 1:-0.923427 2:-0.936559 
1 1:0.0492234 2:-0.665678 
1 1:-0.923427 2:-0.936559 
1 1:0.0492234 2:-0.665678 
1 1:-0.923427 2:-0.936559 
1 1:0.0492234 2:-0.665678 
1 1:-0.923427 2:-0.936559 
1 1:0.0492234 2:-0.665678 
1 1:-0.923427 2:-0.936559 
1 1:0.0492234 2:-0.665678 
1 1:-0.923427 2:-0.936559 
1 1:0.0492234 2:-0.665678 
1 1:-0.923427 2:-0.936559 
1 1:0.0492234 2:-0.665678 
1 1:-0.923427 2:-0.936559 
1 1:0.0492234 2:-0.665678 
1 1:-0.923427 2:-0.936559 
1 1:0.0492234 2:-0.665678 
1 1:-0.923427 2:-0.936559 
1 1:0.0492234 2:-0.665678 
1 1:-0.923427 2:-0.936559 
1 1:0.0492234 2:-0.665678 
1 1:-0.923427 2:-0.936559 
1 1:0.0492234 2:-0.665678 
1 1:-0.923427 2:-0.936559 
1 1:0.0492234 2:-0.665678 
1 1:-0.923427 2:-0.936559 
1 1:0.0492234 2:-0.665678 
1 1:-0.923427 2:-0.936559 
1 1:0.0492234 2:-0.665678 
1 1:-0.923427 2:-0.936559 
1 1:0.0492234 2:-0.665678 
1 1:-0.923427 2:-0.936559 
1 1:0.0492234 2:-0.665678 
1 1:-0.923427 2:-0.936559 
1 1:0.0492234 2:-0.665678 
1 1:-0.923427 2:-0.936559 
1 1:0.0492234 2:-0.665678 
1 1:-0.923427 2:-0.936559 
1 1:0.0492234 2:-0.665678 
1 1:-0.923427 2:-0.936559 
1 1:0.0492234 2:-0.665678 
1 1:-0.923427 2:-0.936559 
1 1:0.0492234 2:-0.665678 
1 1:-0.923427 2:-0.936559 
1 1:0.0492234 2:-0.665678 
1 1:-0.923427 2:-0.936559 
1 1:0.0492234 2:-0.665678 
1 1:-0.923427 2:-0.936559 
1 1:0.0492234 2:-0.665678 
