svm_type one_class
kernel_type rbf
gamma 0.5
nr_class 2
total_sv 15099
rho 10948.3
SV
1 1:-0.960109 2:-0.978983 
1 1:-0.960109 2:-0.978983 
1 1:-0.960109 2:-0.978983 
1 1:-0.960109 2:-0.978983 
1 1:-0.960109 2:-0.978983 
1 1:-0.960109 2:-0.978983 
1 1:-0.960109 2:-0.978983 
1 1:-0.960109 2:-0.978983 
1 1:-0.960109 2:-0.978983 
1 1:-0.960109 2:-0.978983 
1 1:-0.960109 2:-0.978983 
1 1:-0.960109 2:-0.978983 
1 1:-0.960109 2:-0.978983 
1 1:-0.960109 2:-0.978983 
1 1:-0.960109 2:-0.978983 
1 1:-0.960109 2:-0.978983 
1 1:-0.960109 2:-0.978983 
1 1:-0.960109 2:-0.978983 
1 1:-0.960109 2:-0.978983 
1 1:-0.960109 2:-0.978983 
1 1:-0.960109 2:-0.978983 
1 1:-0.960109 2:-0.978983 
1 1:-0.960109 2:-0.978983 
1 1:-0.960109 2:-0.978983 
1 1:-0.960109 2:-0.978983 
1 1:-0.960109 2:-0.978983 
1 1:-0.960109 2:-0.978983 
1 1:-0.960109 2:-0.978983 
1 1:-0.960109 2:-0.978983 
1 1:-0.960109 2:-0.978983 
1 1:-0.960109 2:-0.978983 
1 1:-0.960109 2:-0.978983 
1 1:-0.960109 2:-0.978983 
1 1:-0.960109 2:-0.978983 
1 1:-0.960109 2:-0.978983 
1 1:-0.960109 2:-0.978983 
1 1:-0.960109 2:-0.978983 
1 1:-0.960109 2:-0.978983 
1 1:-0.960109 2:-0.978983 
1 1:-0.960109 2:-0.978983 
1 1:-0.960109 2:-0.978983 
1 1:-0.960109 2:-0.978983 
1 1:-0.960109 2:-0.978983 
1 1:-0.960109 2:-0.978983 
1 1:-0.960109 2:-0.978983 
1 1:-0.960109 2:-0.978983 
1 1:-0.960109 2:-0.978983 
1 1:-0.960109 2:-0.978983 
1 1:-0.960109 2:-0.978983 
1 1:-0.960109 2:-0.978983 
1 1:-0.960109 2:-0.978983 
1 1:-0.960109 2:-0.978983 
1 1:-0.960109 2:-0.978983 
1 1:-0.960109 2:-0.978983 
1 1:-0.960109 2:-0.978983 
1 1:-0.960109 2:-0.978983 
1 1:-0.960109 2:-0.978983 
1 1:-0.960109 2:-0.978983 
1 1:-0.960109 2:-0.978983 
1 1:-0.960109 2:-0.978983 
1 1:-0.960109 2:-0.978983 
1 1:-0.960109 2:-0.978983 
1 1:-0.960109 2:-0.978983 
1 1:-0.960109 2:-0.978983 
1 1:-0.960109 2:-0.978983 
1 1:-0.960109 2:-0.978983 
1 1:-0.960109 2:-0.978983 
1 1:-0.960109 2:-0.978983 
1 1:-0.960109 2:-0.978983 
1 1:-0.960109 2:-0.978983 
1 1:-0.960109 2:-0.978983 
1 1:-0.960109 2:-0.978983 
1 1:-0.960109 2:-0.978983 
1 1:-0.960109 2:-0.978983 
1 1:-0.960109 2:-0.978983 
1 1:-0.960109 2:-0.978983 
1 1:-0.960109 2:-0.978983 
1 1:-0.960109 2:-0.978983 
1 1:-0.960109 2:-0.978983 
1 1:-0.960109 2:-0.978983 
1 1:-0.960109 2:-0.978983 
1 1:-0.960109 2:-0.978983 
1 1:-0.960109 2:-0.978983 
1 1:-0.960109 2:-0.978983 
1 1:-0.960109 2:-0.978983 
1 1:-0.960109 2:-0.978983 
1 1:-0.960109 2:-0.978983 
1 1:-0.960109 2:-0.978983 
1 1:-0.960109 2:-0.978983 
1 1:-0.960109 2:-0.978983 
1 1:-0.960109 2:-0.978983 
1 1:-0.960109 2:-0.978983 
1 1:-0.960109 2:-0.978983 
1 1:-0.960109 2:-0.978983 
1 1:-0.960109 2:-0.978983 
1 1:-0.960109 2:-0.978983 
1 1:-0.767293 2:-0.00658988 
1 1:-0.767293 2:-0.00658988 
1 1:-0.767293 2:-0.00658988 
1 1:-0.767293 2:-0.00658988 
1 1:-0.767293 2:-0.00658988 
1 1:-0.767293 2:-0.00658988 
1 1:-0.767293 2:-0.00658988 
1 1:-0.767293 2:-0.00658988 
1 1:-0.767293 2:-0.00658988 
1 1:-0.767293 2:-0.00658988 
1 1:-0.767293 2:-0.00658988 
1 1:-0.767293 2:-0.00658988 
1 1:-0.767293 2:-0.00658988 
1 1:-0.767293 2:-0.00658988 
1 1:-0.767293 2:-0.00658988 
1 1:-0.767293 2:-0.00658988 
1 1:-0.767293 2:-0.00658988 
1 1:-0.767293 2:-0.00658988 
1 1:-0.767293 2:-0.00658988 
1 1:-0.767293 2:-0.00658988 
1 1:-0.767293 2:-0.00658988 
1 1:-0.767293 2:-0.00658988 
1 1:-0.767293 2:-0.00658988 
1 1:-0.767293 2:-0.00658988 
1 1:-0.767293 2:-0.00658988 
1 1:-0.767293 2:-0.00658988 
1 1:-0.767293 2:-0.00658988 
1 1:-0.767293 2:-0.00658988 
1 1:-0.767293 2:-0.00658988 
1 1:-0.767293 2:-0.00658988 
1 1:-0.767293 2:-0.00658988 
1 1:-0.767293 2:-0.00658988 
1 1:-0.767293 2:-0.00658988 
1 1:-0.767293 2:-0.00658988 
1 1:-0.767293 2:-0.00658988 
1 1:-0.767293 2:-0.00658988 
1 1:-0.767293 2:-0.00658988 
1 1:-0.767293 2:-0.00658988 
1 1:-0.767293 2:-0.00658988 
1 1:-0.767293 2:-0.00658988 
1 1:-0.767293 2:-0.00658988 
1 1:-0.767293 2:-0.00658988 
1 1:-0.767293 2:-0.00658988 
1 1:-0.767293 2:-0.00658988 
1 1:-0.767293 2:-0.00658988 
1 1:-0.767293 2:-0.00658988 
1 1:-0.767293 2:-0.00658988 
1 1:-0.767293 2:-0.00658988 
1 1:-0.767293 2:-0.00658988 
1 1:-0.767293 2:-0.00658988 
1 1:-0.767293 2:-0.00658988 
1 1:-0.767293 2:-0.00658988 
1 1:-0.767293 2:-0.00658988 
1 1:-0.767293 2:-0.00658988 
1 1:-0.767293 2:-0.00658988 
1 1:-0.767293 2:-0.00658988 
1 1:-0.767293 2:-0.00658988 
1 1:-0.767293 2:-0.00658988 
1 1:-0.767293 2:-0.00658988 
1 1:-0.767293 2:-0.00658988 
1 1:-0.767293 2:-0.00658988 
1 1:-0.767293 2:-0.00658988 
1 1:-0.767293 2:-0.00658988 
1 1:-0.767293 2:-0.00658988 
1 1:-0.767293 2:-0.00658988 
1 1:-0.767293 2:-0.00658988 
1 1:-0.767293 2:-0.00658988 
1 1:-0.767293 2:-0.00658988 
1 1:-0.767293 2:-0.00658988 
1 1:-0.767293 2:-0.00658988 
1 1:-0.767293 2:-0.00658988 
1 1:-0.767293 2:-0.00658988 
1 1:-0.767293 2:-0.00658988 
1 1:-0.767293 2:-0.00658988 
1 1:-0.767293 2:-0.00658988 
1 1:-0.767293 2:-0.00658988 
0.2799666350313874 1:-0.767293 2:-0.00658988 
1 1:-0.745498 2:0.388501 
1 1:-0.745498 2:0.388501 
1 1:-0.745498 2:0.388501 
1 1:-0.745498 2:0.388501 
1 1:-0.745498 2:0.388501 
1 1:-0.745498 2:0.388501 
1 1:-0.745498 2:0.388501 
1 1:-0.745498 2:0.388501 
1 1:-0.745498 2:0.388501 
1 1:-0.745498 2:0.388501 
1 1:-0.745498 2:0.388501 
1 1:-0.745498 2:0.388501 
1 1:-0.745498 2:0.388501 
1 1:-0.745498 2:0.388501 
1 1:-0.745498 2:0.388501 
1 1:-0.745498 2:0.388501 
1 1:-0.745498 2:0.388501 
1 1:-0.745498 2:0.388501 
1 1:-0.745498 2:0.388501 
1 1:-0.745498 2:0.388501 
1 1:-0.745498 2:0.388501 
1 1:-0.745498 2:0.388501 
1 1:-0.745498 2:0.388501 
1 1:-0.745498 2:0.388501 
1 1:-0.745498 2:0.388501 
1 1:-0.745498 2:0.388501 
1 1:-0.745498 2:0.388501 
1 1:-0.745498 2:0.388501 
1 1:-0.745498 2:0.388501 
1 1:-0.745498 2:0.388501 
1 1:-0.745498 2:0.388501 
1 1:-0.745498 2:0.388501 
1 1:-0.745498 2:0.388501 
1 1:-0.745498 2:0.388501 
1 1:-0.745498 2:0.388501 
1 1:-0.745498 2:0.388501 
1 1:-0.745498 2:0.388501 
1 1:-0.745498 2:0.388501 
1 1:-0.745498 2:0.388501 
1 1:-0.745498 2:0.388501 
1 1:-0.745498 2:0.388501 
1 1:-0.745498 2:0.388501 
1 1:-0.745498 2:0.388501 
1 1:-0.745498 2:0.388501 
1 1:-0.745498 2:0.388501 
1 1:-0.745498 2:0.388501 
1 1:-0.745498 2:0.388501 
1 1:-0.745498 2:0.388501 
1 1:-0.745498 2:0.388501 
1 1:-0.745498 2:0.388501 
1 1:-0.745498 2:0.388501 
1 1:-0.745498 2:0.388501 
1 1:-0.745498 2:0.388501 
1 1:-0.745498 2:0.388501 
1 1:-0.745498 2:0.388501 
1 1:-0.745498 2:0.388501 
1 1:-0.745498 2:0.388501 
1 1:-0.745498 2:0.388501 
1 1:-0.745498 2:0.388501 
1 1:-0.745498 2:0.388501 
1 1:-0.745498 2:0.388501 
1 1:-0.745498 2:0.388501 
1 1:-0.745498 2:0.388501 
1 1:-0.745498 2:0.388501 
1 1:-0.745498 2:0.388501 
1 1:-0.745498 2:0.388501 
1 1:-0.745498 2:0.388501 
1 1:-0.745498 2:0.388501 
1 1:-0.745498 2:0.388501 
1 1:-0.745498 2:0.388501 
1 1:-0.745498 2:0.388501 
1 1:-0.745498 2:0.388501 
1 1:-0.745498 2:0.388501 
1 1:-0.745498 2:0.388501 
1 1:-0.745498 2:0.388501 
1 1:-0.745498 2:0.388501 
1 1:-0.745498 2:0.388501 
1 1:-0.745498 2:0.388501 
1 1:-0.745498 2:0.388501 
1 1:-0.745498 2:0.388501 
1 1:-0.745498 2:0.388501 
1 1:-0.745498 2:0.388501 
1 1:-0.745498 2:0.388501 
1 1:-0.745498 2:0.388501 
1 1:-0.745498 2:0.388501 
1 1:-0.745498 2:0.388501 
1 1:-0.745498 2:0.388501 
1 1:-0.745498 2:0.388501 
1 1:-0.745498 2:0.388501 
1 1:-0.745498 2:0.388501 
1 1:-0.745498 2:0.388501 
1 1:-0.745498 2:0.388501 
1 1:-0.745498 2:0.388501 
1 1:-0.745498 2:0.388501 
1 1:-0.745498 2:0.388501 
1 1:-0.745498 2:0.388501 
1 1:-0.745498 2:0.388501 
1 1:0.0727966 2:-0.212619 
1 1:0.0727966 2:-0.212619 
1 1:0.0727966 2:-0.212619 
1 1:0.0727966 2:-0.212619 
1 1:0.0727966 2:-0.212619 
1 1:0.0727966 2:-0.212619 
1 1:0.0727966 2:-0.212619 
1 1:0.0727966 2:-0.212619 
1 1:0.0727966 2:-0.212619 
1 1:0.0727966 2:-0.212619 
1 1:0.0727966 2:-0.212619 
1 1:0.0727966 2:-0.212619 
1 1:0.0727966 2:-0.212619 
1 1:0.0727966 2:-0.212619 
1 1:0.0727966 2:-0.212619 
1 1:0.0727966 2:-0.212619 
1 1:0.0727966 2:-0.212619 
1 1:0.0727966 2:-0.212619 
1 1:0.0727966 2:-0.212619 
1 1:0.0727966 2:-0.212619 
1 1:0.0727966 2:-0.212619 
1 1:0.0727966 2:-0.212619 
1 1:0.0727966 2:-0.212619 
1 1:0.0727966 2:-0.212619 
1 1:0.0727966 2:-0.212619 
1 1:0.0727966 2:-0.212619 
1 1:0.0727966 2:-0.212619 
1 1:0.0727966 2:-0.212619 
1 1:0.0727966 2:-0.212619 
1 1:0.0727966 2:-0.212619 
1 1:0.0727966 2:-0.212619 
1 1:0.0727966 2:-0.212619 
1 1:0.0727966 2:-0.212619 
1 1:0.0727966 2:-0.212619 
1 1:0.0727966 2:-0.212619 
1 1:0.0727966 2:-0.212619 
1 1:0.0727966 2:-0.212619 
1 1:0.0727966 2:-0.212619 
1 1:0.0727966 2:-0.212619 
1 1:0.0727966 2:-0.212619 
1 1:0.0727966 2:-0.212619 
1 1:0.0727966 2:-0.212619 
1 1:0.0727966 2:-0.212619 
1 1:0.0727966 2:-0.212619 
1 1:0.0727966 2:-0.212619 
1 1:0.0727966 2:-0.212619 
1 1:0.0727966 2:-0.212619 
1 1:0.0727966 2:-0.212619 
1 1:0.0727966 2:-0.212619 
1 1:0.0727966 2:-0.212619 
1 1:0.0727966 2:-0.212619 
1 1:0.0727966 2:-0.212619 
1 1:0.0727966 2:-0.212619 
1 1:0.0727966 2:-0.212619 
1 1:0.0727966 2:-0.212619 
1 1:0.0727966 2:-0.212619 
1 1:0.0727966 2:-0.212619 
1 1:0.0727966 2:-0.212619 
1 1:0.0727966 2:-0.212619 
1 1:0.0727966 2:-0.212619 
1 1:0.0727966 2:-0.212619 
1 1:0.0727966 2:-0.212619 
1 1:0.0727966 2:-0.212619 
1 1:0.0727966 2:-0.212619 
1 1:0.0727966 2:-0.212619 
1 1:0.0727966 2:-0.212619 
1 1:0.0727966 2:-0.212619 
1 1:0.0727966 2:-0.212619 
1 1:0.0727966 2:-0.212619 
1 1:0.0727966 2:-0.212619 
1 1:0.0727966 2:-0.212619 
1 1:0.0727966 2:-0.212619 
1 1:0.0727966 2:-0.212619 
1 1:0.0727966 2:-0.212619 
1 1:0.0727966 2:-0.212619 
1 1:0.0727966 2:-0.212619 
1 1:0.0727966 2:-0.212619 
1 1:0.0727966 2:-0.212619 
1 1:0.0727966 2:-0.212619 
1 1:0.0727966 2:-0.212619 
1 1:0.0727966 2:-0.212619 
1 1:0.0727966 2:-0.212619 
1 1:0.0727966 2:-0.212619 
1 1:0.0727966 2:-0.212619 
1 1:0.0727966 2:-0.212619 
1 1:0.0727966 2:-0.212619 
1 1:0.0727966 2:-0.212619 
1 1:0.0727966 2:-0.212619 
1 1:0.0727966 2:-0.212619 
1 1:0.0727966 2:-0.212619 
1 1:0.0727966 2:-0.212619 
1 1:0.0727966 2:-0.212619 
1 1:0.0727966 2:-0.212619 
1 1:-0.978639 2:-0.967911 
1 1:-0.978639 2:-0.967911 
1 1:-0.978639 2:-0.967911 
1 1:-0.978639 2:-0.967911 
1 1:-0.978639 2:-0.967911 
1 1:-0.978639 2:-0.967911 
1 1:-0.978639 2:-0.967911 
1 1:-0.978639 2:-0.967911 
1 1:-0.978639 2:-0.967911 
1 1:-0.978639 2:-0.967911 
1 1:-0.978639 2:-0.967911 
1 1:-0.978639 2:-0.967911 
1 1:-0.978639 2:-0.967911 
1 1:-0.978639 2:-0.967911 
1 1:-0.978639 2:-0.967911 
1 1:-0.978639 2:-0.967911 
1 1:-0.978639 2:-0.967911 
1 1:-0.978639 2:-0.967911 
1 1:-0.978639 2:-0.967911 
1 1:-0.978639 2:-0.967911 
1 1:-0.978639 2:-0.967911 
1 1:-0.978639 2:-0.967911 
1 1:-0.978639 2:-0.967911 
1 1:-0.978639 2:-0.967911 
1 1:-0.978639 2:-0.967911 
1 1:-0.978639 2:-0.967911 
1 1:-0.978639 2:-0.967911 
1 1:-0.978639 2:-0.967911 
1 1:-0.978639 2:-0.967911 
1 1:-0.978639 2:-0.967911 
1 1:-0.978639 2:-0.967911 
1 1:-0.978639 2:-0.967911 
1 1:-0.978639 2:-0.967911 
1 1:-0.978639 2:-0.967911 
1 1:-0.978639 2:-0.967911 
1 1:-0.978639 2:-0.967911 
1 1:-0.978639 2:-0.967911 
1 1:-0.978639 2:-0.967911 
1 1:-0.978639 2:-0.967911 
1 1:-0.978639 2:-0.967911 
1 1:-0.978639 2:-0.967911 
1 1:-0.978639 2:-0.967911 
1 1:-0.978639 2:-0.967911 
1 1:-0.978639 2:-0.967911 
1 1:-0.978639 2:-0.967911 
1 1:-0.978639 2:-0.967911 
1 1:-0.978639 2:-0.967911 
1 1:-0.978639 2:-0.967911 
1 1:-0.978639 2:-0.967911 
1 1:-0.978639 2:-0.967911 
1 1:-0.978639 2:-0.967911 
1 1:-0.978639 2:-0.967911 
1 1:-0.978639 2:-0.967911 
1 1:-0.978639 2:-0.967911 
1 1:-0.978639 2:-0.967911 
1 1:-0.978639 2:-0.967911 
1 1:-0.978639 2:-0.967911 
1 1:-0.978639 2:-0.967911 
1 1:-0.978639 2:-0.967911 
1 1:-0.978639 2:-0.967911 
1 1:-0.978639 2:-0.967911 
1 1:-0.978639 2:-0.967911 
1 1:-0.978639 2:-0.967911 
1 1:-0.978639 2:-0.967911 
1 1:-0.978639 2:-0.967911 
1 1:-0.978639 2:-0.967911 
1 1:-0.978639 2:-0.967911 
1 1:-0.978639 2:-0.967911 
1 1:-0.978639 2:-0.967911 
1 1:-0.978639 2:-0.967911 
1 1:-0.978639 2:-0.967911 
1 1:-0.978639 2:-0.967911 
1 1:-0.978639 2:-0.967911 
1 1:-0.978639 2:-0.967911 
1 1:-0.978639 2:-0.967911 
1 1:-0.978639 2:-0.967911 
1 1:-0.978639 2:-0.967911 
1 1:-0.978639 2:-0.967911 
1 1:-0.978639 2:-0.967911 
1 1:-0.978639 2:-0.967911 
1 1:-0.978639 2:-0.967911 
1 1:-0.978639 2:-0.967911 
1 1:-0.978639 2:-0.967911 
1 1:-0.978639 2:-0.967911 
1 1:-0.978639 2:-0.967911 
1 1:-0.978639 2:-0.967911 
1 1:-0.978639 2:-0.967911 
1 1:-0.978639 2:-0.967911 
1 1:-0.985541 2:-0.988461 
1 1:-0.987907 2:-0.976764 
1 1:-0.985541 2:-0.988461 
1 1:-0.987907 2:-0.976764 
1 1:-0.985541 2:-0.988461 
1 1:-0.987907 2:-0.976764 
1 1:-0.985541 2:-0.988461 
1 1:-0.987907 2:-0.976764 
1 1:-0.985541 2:-0.988461 
1 1:-0.987907 2:-0.976764 
1 1:-0.985541 2:-0.988461 
1 1:-0.987907 2:-0.976764 
1 1:-0.985541 2:-0.988461 
1 1:-0.987907 2:-0.976764 
1 1:-0.985541 2:-0.988461 
1 1:-0.987907 2:-0.976764 
1 1:-0.985541 2:-0.988461 
1 1:-0.987907 2:-0.976764 
1 1:-0.985541 2:-0.988461 
1 1:-0.987907 2:-0.976764 
1 1:-0.985541 2:-0.988461 
1 1:-0.987907 2:-0.976764 
1 1:-0.985541 2:-0.988461 
1 1:-0.987907 2:-0.976764 
1 1:-0.985541 2:-0.988461 
1 1:-0.987907 2:-0.976764 
1 1:-0.985541 2:-0.988461 
1 1:-0.987907 2:-0.976764 
1 1:-0.985541 2:-0.988461 
1 1:-0.987907 2:-0.976764 
1 1:-0.985541 2:-0.988461 
1 1:-0.987907 2:-0.976764 
1 1:-0.985541 2:-0.988461 
1 1:-0.987907 2:-0.976764 
1 1:-0.985541 2:-0.988461 
1 1:-0.987907 2:-0.976764 
1 1:-0.985541 2:-0.988461 
1 1:-0.987907 2:-0.976764 
1 1:-0.985541 2:-0.988461 
1 1:-0.987907 2:-0.976764 
1 1:-0.985541 2:-0.988461 
1 1:-0.987907 2:-0.976764 
1 1:-0.985541 2:-0.988461 
1 1:-0.987907 2:-0.976764 
1 1:-0.985541 2:-0.988461 
1 1:-0.987907 2:-0.976764 
1 1:-0.985541 2:-0.988461 
1 1:-0.987907 2:-0.976764 
1 1:-0.985541 2:-0.988461 
1 1:-0.987907 2:-0.976764 
1 1:-0.985541 2:-0.988461 
1 1:-0.987907 2:-0.976764 
1 1:-0.985541 2:-0.988461 
1 1:-0.987907 2:-0.976764 
1 1:-0.985541 2:-0.988461 
1 1:-0.987907 2:-0.976764 
1 1:-0.985541 2:-0.988461 
1 1:-0.987907 2:-0.976764 
1 1:-0.985541 2:-0.988461 
1 1:-0.987907 2:-0.976764 
1 1:-0.985541 2:-0.988461 
1 1:-0.987907 2:-0.976764 
1 1:-0.985541 2:-0.988461 
1 1:-0.987907 2:-0.976764 
1 1:-0.985541 2:-0.988461 
1 1:-0.987907 2:-0.976764 
1 1:-0.985541 2:-0.988461 
1 1:-0.987907 2:-0.976764 
1 1:-0.985541 2:-0.988461 
1 1:-0.987907 2:-0.976764 
1 1:-0.985541 2:-0.988461 
1 1:-0.987907 2:-0.976764 
1 1:-0.985541 2:-0.988461 
1 1:-0.987907 2:-0.976764 
1 1:-0.985541 2:-0.988461 
1 1:-0.987907 2:-0.976764 
1 1:-0.985541 2:-0.988461 
1 1:-0.987907 2:-0.976764 
1 1:-0.985541 2:-0.988461 
1 1:-0.987907 2:-0.976764 
1 1:-0.985541 2:-0.988461 
1 1:-0.987907 2:-0.976764 
1 1:-0.985541 2:-0.988461 
1 1:-0.987907 2:-0.976764 
1 1:-0.985541 2:-0.988461 
1 1:-0.987907 2:-0.976764 
1 1:-0.985541 2:-0.988461 
1 1:-0.987907 2:-0.976764 
1 1:-0.985541 2:-0.988461 
1 1:-0.987907 2:-0.976764 
1 1:-0.985541 2:-0.988461 
1 1:-0.987907 2:-0.976764 
1 1:-0.985541 2:-0.988461 
1 1:-0.987907 2:-0.976764 
1 1:-0.985541 2:-0.988461 
1 1:-0.987907 2:-0.976764 
1 1:-0.985541 2:-0.988461 
1 1:-0.987907 2:-0.976764 
1 1:-0.985541 2:-0.988461 
1 1:-0.987907 2:-0.976764 
1 1:-0.985541 2:-0.988461 
1 1:-0.987907 2:-0.976764 
1 1:-0.985541 2:-0.988461 
1 1:-0.987907 2:-0.976764 
1 1:-0.985541 2:-0.988461 
1 1:-0.987907 2:-0.976764 
1 1:-0.989505 2:-0.969049 
1 1:-0.998395 2:-0.954004 
1 1:-0.989505 2:-0.969049 
1 1:-0.998395 2:-0.954004 
1 1:-0.989505 2:-0.969049 
1 1:-0.998395 2:-0.954004 
1 1:-0.989505 2:-0.969049 
1 1:-0.998395 2:-0.954004 
1 1:-0.989505 2:-0.969049 
1 1:-0.998395 2:-0.954004 
1 1:-0.989505 2:-0.969049 
1 1:-0.998395 2:-0.954004 
1 1:-0.989505 2:-0.969049 
1 1:-0.998395 2:-0.954004 
1 1:-0.989505 2:-0.969049 
1 1:-0.998395 2:-0.954004 
1 1:-0.989505 2:-0.969049 
1 1:-0.998395 2:-0.954004 
1 1:-0.989505 2:-0.969049 
1 1:-0.998395 2:-0.954004 
1 1:-0.989505 2:-0.969049 
1 1:-0.998395 2:-0.954004 
1 1:-0.989505 2:-0.969049 
1 1:-0.998395 2:-0.954004 
1 1:-0.989505 2:-0.969049 
1 1:-0.998395 2:-0.954004 
1 1:-0.989505 2:-0.969049 
1 1:-0.998395 2:-0.954004 
1 1:-0.989505 2:-0.969049 
1 1:-0.998395 2:-0.954004 
1 1:-0.989505 2:-0.969049 
1 1:-0.998395 2:-0.954004 
1 1:-0.989505 2:-0.969049 
1 1:-0.998395 2:-0.954004 
1 1:-0.989505 2:-0.969049 
1 1:-0.998395 2:-0.954004 
1 1:-0.989505 2:-0.969049 
1 1:-0.998395 2:-0.954004 
1 1:-0.989505 2:-0.969049 
1 1:-0.998395 2:-0.954004 
1 1:-0.989505 2:-0.969049 
1 1:-0.998395 2:-0.954004 
1 1:-0.989505 2:-0.969049 
1 1:-0.998395 2:-0.954004 
1 1:-0.989505 2:-0.969049 
1 1:-0.998395 2:-0.954004 
1 1:-0.989505 2:-0.969049 
1 1:-0.998395 2:-0.954004 
1 1:-0.989505 2:-0.969049 
1 1:-0.998395 2:-0.954004 
1 1:-0.989505 2:-0.969049 
1 1:-0.998395 2:-0.954004 
1 1:-0.989505 2:-0.969049 
1 1:-0.998395 2:-0.954004 
1 1:-0.989505 2:-0.969049 
1 1:-0.998395 2:-0.954004 
1 1:-0.989505 2:-0.969049 
1 1:-0.998395 2:-0.954004 
1 1:-0.989505 2:-0.969049 
1 1:-0.998395 2:-0.954004 
1 1:-0.989505 2:-0.969049 
1 1:-0.998395 2:-0.954004 
1 1:-0.989505 2:-0.969049 
1 1:-0.998395 2:-0.954004 
1 1:-0.989505 2:-0.969049 
1 1:-0.998395 2:-0.954004 
1 1:-0.989505 2:-0.969049 
1 1:-0.998395 2:-0.954004 
1 1:-0.989505 2:-0.969049 
1 1:-0.998395 2:-0.954004 
1 1:-0.989505 2:-0.969049 
1 1:-0.998395 2:-0.954004 
1 1:-0.989505 2:-0.969049 
1 1:-0.998395 2:-0.954004 
1 1:-0.989505 2:-0.969049 
1 1:-0.998395 2:-0.954004 
1 1:-0.989505 2:-0.969049 
1 1:-0.998395 2:-0.954004 
1 1:-0.989505 2:-0.969049 
1 1:-0.998395 2:-0.954004 
1 1:-0.989505 2:-0.969049 
1 1:-0.998395 2:-0.954004 
1 1:-0.989505 2:-0.969049 
1 1:-0.998395 2:-0.954004 
1 1:-0.989505 2:-0.969049 
1 1:-0.998395 2:-0.954004 
1 1:-0.923907 2:0.0184679 
1 1:-0.994052 2:-0.981521 
1 1:-0.923907 2:0.0184679 
1 1:-0.994052 2:-0.981521 
1 1:-0.923907 2:0.0184679 
1 1:-0.994052 2:-0.981521 
1 1:-0.923907 2:0.0184679 
1 1:-0.994052 2:-0.981521 
1 1:-0.923907 2:0.0184679 
1 1:-0.994052 2:-0.981521 
1 1:-0.923907 2:0.0184679 
1 1:-0.994052 2:-0.981521 
1 1:-0.923907 2:0.0184679 
1 1:-0.994052 2:-0.981521 
1 1:-0.923907 2:0.0184679 
1 1:-0.994052 2:-0.981521 
1 1:-0.923907 2:0.0184679 
1 1:-0.994052 2:-0.981521 
1 1:-0.923907 2:0.0184679 
1 1:-0.994052 2:-0.981521 
1 1:-0.923907 2:0.0184679 
1 1:-0.994052 2:-0.981521 
1 1:-0.923907 2:0.0184679 
1 1:-0.994052 2:-0.981521 
1 1:-0.923907 2:0.0184679 
1 1:-0.994052 2:-0.981521 
1 1:-0.923907 2:0.0184679 
1 1:-0.994052 2:-0.981521 
1 1:-0.923907 2:0.0184679 
1 1:-0.994052 2:-0.981521 
1 1:-0.923907 2:0.0184679 
1 1:-0.994052 2:-0.981521 
1 1:-0.923907 2:0.0184679 
1 1:-0.994052 2:-0.981521 
1 1:-0.923907 2:0.0184679 
1 1:-0.994052 2:-0.981521 
1 1:-0.923907 2:0.0184679 
1 1:-0.994052 2:-0.981521 
1 1:-0.923907 2:0.0184679 
1 1:-0.994052 2:-0.981521 
1 1:-0.923907 2:0.0184679 
1 1:-0.994052 2:-0.981521 
1 1:-0.923907 2:0.0184679 
1 1:-0.994052 2:-0.981521 
1 1:-0.923907 2:0.0184679 
1 1:-0.994052 2:-0.981521 
1 1:-0.923907 2:0.0184679 
1 1:-0.994052 2:-0.981521 
1 1:-0.923907 2:0.0184679 
1 1:-0.994052 2:-0.981521 
1 1:-0.923907 2:0.0184679 
1 1:-0.994052 2:-0.981521 
1 1:-0.923907 2:0.0184679 
1 1:-0.994052 2:-0.981521 
1 1:-0.923907 2:0.0184679 
1 1:-0.994052 2:-0.981521 
1 1:-0.923907 2:0.0184679 
1 1:-0.994052 2:-0.981521 
1 1:-0.923907 2:0.0184679 
1 1:-0.994052 2:-0.981521 
1 1:-0.923907 2:0.0184679 
1 1:-0.994052 2:-0.981521 
1 1:-0.923907 2:0.0184679 
1 1:-0.994052 2:-0.981521 
1 1:-0.923907 2:0.0184679 
1 1:-0.994052 2:-0.981521 
1 1:-0.923907 2:0.0184679 
1 1:-0.994052 2:-0.981521 
1 1:-0.923907 2:0.0184679 
1 1:-0.994052 2:-0.981521 
1 1:-0.923907 2:0.0184679 
1 1:-0.994052 2:-0.981521 
1 1:-0.923907 2:0.0184679 
1 1:-0.994052 2:-0.981521 
1 1:-0.923907 2:0.0184679 
1 1:-0.994052 2:-0.981521 
1 1:-0.923907 2:0.0184679 
1 1:-0.994052 2:-0.981521 
1 1:-0.923907 2:0.0184679 
1 1:-0.994052 2:-0.981521 
1 1:-0.923907 2:0.0184679 
1 1:-0.994052 2:-0.981521 
1 1:-0.923907 2:0.0184679 
1 1:-0.994052 2:-0.981521 
1 1:-0.923907 2:0.0184679 
1 1:-0.994052 2:-0.981521 
1 1:-0.923907 2:0.0184679 
1 1:-0.994052 2:-0.981521 
1 1:-0.923907 2:0.0184679 
1 1:-0.994052 2:-0.981521 
1 1:-0.923907 2:0.0184679 
1 1:-0.994052 2:-0.981521 
1 1:-0.923907 2:0.0184679 
1 1:-0.994052 2:-0.981521 
1 1:-0.923907 2:0.0184679 
1 1:-0.994052 2:-0.981521 
1 1:-0.923907 2:0.0184679 
1 1:-0.994052 2:-0.981521 
1 1:-0.923907 2:0.0184679 
1 1:-0.994052 2:-0.981521 
1 1:-0.923907 2:0.0184679 
1 1:-0.994052 2:-0.981521 
1 1:-0.923907 2:0.0184679 
1 1:-0.994052 2:-0.981521 
1 1:-0.923907 2:0.0184679 
1 1:-0.994052 2:-0.981521 
1 1:-0.923907 2:0.0184679 
1 1:-0.994052 2:-0.981521 
1 1:-0.923907 2:0.0184679 
1 1:-0.994052 2:-0.981521 
1 1:-0.923907 2:0.0184679 
1 1:-0.994052 2:-0.981521 
1 1:-0.923907 2:0.0184679 
1 1:-0.994052 2:-0.981521 
1 1:-0.923907 2:0.0184679 
1 1:-0.994052 2:-0.981521 
1 1:-0.923907 2:0.0184679 
1 1:-0.994052 2:-0.981521 
1 1:-0.923907 2:0.0184679 
1 1:-0.994052 2:-0.981521 
1 1:-0.923907 2:0.0184679 
1 1:-0.994052 2:-0.981521 
1 1:-0.923907 2:0.0184679 
1 1:-0.994052 2:-0.981521 
1 1:-0.923907 2:0.0184679 
1 1:-0.994052 2:-0.981521 
1 1:-0.923907 2:0.0184679 
1 1:-0.994052 2:-0.981521 
1 1:-0.923907 2:0.0184679 
1 1:-0.994052 2:-0.981521 
1 1:-0.923907 2:0.0184679 
1 1:-0.994052 2:-0.981521 
1 1:-0.923907 2:0.0184679 
1 1:-0.994052 2:-0.981521 
1 1:-0.923907 2:0.0184679 
1 1:-0.994052 2:-0.981521 
1 1:-0.923907 2:0.0184679 
1 1:-0.994052 2:-0.981521 
1 1:-0.923907 2:0.0184679 
1 1:-0.994052 2:-0.981521 
1 1:-0.923907 2:0.0184679 
1 1:-0.994052 2:-0.981521 
1 1:-0.923907 2:0.0184679 
1 1:-0.994052 2:-0.981521 
1 1:-0.923907 2:0.0184679 
1 1:-0.994052 2:-0.981521 
1 1:-0.923907 2:0.0184679 
1 1:-0.994052 2:-0.981521 
1 1:-0.923907 2:0.0184679 
1 1:-0.994052 2:-0.981521 
1 1:-0.923907 2:0.0184679 
1 1:-0.994052 2:-0.981521 
1 1:-0.923907 2:0.0184679 
1 1:-0.994052 2:-0.981521 
1 1:-0.923907 2:0.0184679 
1 1:-0.994052 2:-0.981521 
1 1:-0.923907 2:0.0184679 
1 1:-0.994052 2:-0.981521 
1 1:-0.923907 2:0.0184679 
1 1:-0.994052 2:-0.981521 
1 1:-0.923907 2:0.0184679 
1 1:-0.994052 2:-0.981521 
1 1:-0.923907 2:0.0184679 
1 1:-0.994052 2:-0.981521 
1 1:-0.923907 2:0.0184679 
1 1:-0.994052 2:-0.981521 
1 1:-0.923907 2:0.0184679 
1 1:-0.994052 2:-0.981521 
1 1:-0.923907 2:0.0184679 
1 1:-0.994052 2:-0.981521 
1 1:-0.923907 2:0.0184679 
1 1:-0.994052 2:-0.981521 
1 1:-0.923907 2:0.0184679 
1 1:-0.994052 2:-0.981521 
1 1:-0.923907 2:0.0184679 
1 1:-0.994052 2:-0.981521 
1 1:-0.923907 2:0.0184679 
1 1:-0.994052 2:-0.981521 
1 1:-0.923907 2:0.0184679 
1 1:-0.994052 2:-0.981521 
1 1:-0.923907 2:0.0184679 
1 1:-0.994052 2:-0.981521 
1 1:-0.923907 2:0.0184679 
1 1:-0.994052 2:-0.981521 
1 1:-0.923907 2:0.0184679 
1 1:-0.994052 2:-0.981521 
1 1:-0.923907 2:0.0184679 
1 1:-0.994052 2:-0.981521 
1 1:-0.99019 2:-0.978899 
1 1:-0.992633 2:-0.986998 
1 1:-0.99019 2:-0.978899 
1 1:-0.992633 2:-0.986998 
1 1:-0.99019 2:-0.978899 
1 1:-0.992633 2:-0.986998 
1 1:-0.99019 2:-0.978899 
1 1:-0.992633 2:-0.986998 
1 1:-0.99019 2:-0.978899 
1 1:-0.992633 2:-0.986998 
1 1:-0.99019 2:-0.978899 
1 1:-0.992633 2:-0.986998 
1 1:-0.99019 2:-0.978899 
1 1:-0.992633 2:-0.986998 
1 1:-0.99019 2:-0.978899 
1 1:-0.992633 2:-0.986998 
1 1:-0.99019 2:-0.978899 
1 1:-0.992633 2:-0.986998 
1 1:-0.99019 2:-0.978899 
1 1:-0.992633 2:-0.986998 
1 1:-0.99019 2:-0.978899 
1 1:-0.992633 2:-0.986998 
1 1:-0.99019 2:-0.978899 
1 1:-0.992633 2:-0.986998 
1 1:-0.99019 2:-0.978899 
1 1:-0.992633 2:-0.986998 
1 1:-0.99019 2:-0.978899 
1 1:-0.992633 2:-0.986998 
1 1:-0.99019 2:-0.978899 
1 1:-0.992633 2:-0.986998 
1 1:-0.99019 2:-0.978899 
1 1:-0.992633 2:-0.986998 
1 1:-0.99019 2:-0.978899 
1 1:-0.992633 2:-0.986998 
1 1:-0.99019 2:-0.978899 
1 1:-0.992633 2:-0.986998 
1 1:-0.99019 2:-0.978899 
1 1:-0.992633 2:-0.986998 
1 1:-0.99019 2:-0.978899 
1 1:-0.992633 2:-0.986998 
1 1:-0.99019 2:-0.978899 
1 1:-0.992633 2:-0.986998 
1 1:-0.99019 2:-0.978899 
1 1:-0.992633 2:-0.986998 
1 1:-0.99019 2:-0.978899 
1 1:-0.992633 2:-0.986998 
1 1:-0.99019 2:-0.978899 
1 1:-0.992633 2:-0.986998 
1 1:-0.99019 2:-0.978899 
1 1:-0.992633 2:-0.986998 
1 1:-0.99019 2:-0.978899 
1 1:-0.992633 2:-0.986998 
1 1:-0.99019 2:-0.978899 
1 1:-0.992633 2:-0.986998 
1 1:-0.99019 2:-0.978899 
1 1:-0.992633 2:-0.986998 
1 1:-0.99019 2:-0.978899 
1 1:-0.992633 2:-0.986998 
1 1:-0.99019 2:-0.978899 
1 1:-0.992633 2:-0.986998 
1 1:-0.99019 2:-0.978899 
1 1:-0.992633 2:-0.986998 
1 1:-0.99019 2:-0.978899 
1 1:-0.992633 2:-0.986998 
1 1:-0.99019 2:-0.978899 
1 1:-0.992633 2:-0.986998 
1 1:-0.99019 2:-0.978899 
1 1:-0.992633 2:-0.986998 
1 1:-0.99019 2:-0.978899 
1 1:-0.992633 2:-0.986998 
1 1:-0.99019 2:-0.978899 
1 1:-0.992633 2:-0.986998 
1 1:-0.99019 2:-0.978899 
1 1:-0.992633 2:-0.986998 
1 1:-0.99019 2:-0.978899 
1 1:-0.992633 2:-0.986998 
1 1:-0.99019 2:-0.978899 
1 1:-0.992633 2:-0.986998 
1 1:-0.99019 2:-0.978899 
1 1:-0.992633 2:-0.986998 
1 1:-0.99019 2:-0.978899 
1 1:-0.992633 2:-0.986998 
1 1:-0.99019 2:-0.978899 
1 1:-0.992633 2:-0.986998 
1 1:-0.99019 2:-0.978899 
1 1:-0.992633 2:-0.986998 
1 1:-0.99019 2:-0.978899 
1 1:-0.992633 2:-0.986998 
1 1:-0.99019 2:-0.978899 
1 1:-0.992633 2:-0.986998 
1 1:-0.99019 2:-0.978899 
1 1:-0.992633 2:-0.986998 
1 1:-0.99019 2:-0.978899 
1 1:-0.992633 2:-0.986998 
1 1:-0.99019 2:-0.978899 
1 1:-0.992633 2:-0.986998 
1 1:-0.99019 2:-0.978899 
1 1:-0.992633 2:-0.986998 
1 1:-0.99019 2:-0.978899 
1 1:-0.992633 2:-0.986998 
1 1:-0.99019 2:-0.978899 
1 1:-0.992633 2:-0.986998 
1 1:-0.99019 2:-0.978899 
1 1:-0.992633 2:-0.986998 
1 1:-0.99019 2:-0.978899 
1 1:-0.992633 2:-0.986998 
1 1:-0.99019 2:-0.978899 
1 1:-0.992633 2:-0.986998 
1 1:-0.99019 2:-0.978899 
1 1:-0.992633 2:-0.986998 
1 1:-0.99019 2:-0.978899 
1 1:-0.992633 2:-0.986998 
1 1:-0.99019 2:-0.978899 
1 1:-0.992633 2:-0.986998 
1 1:-0.99019 2:-0.978899 
1 1:-0.992633 2:-0.986998 
1 1:-0.99019 2:-0.978899 
1 1:-0.992633 2:-0.986998 
1 1:-0.99019 2:-0.978899 
1 1:-0.992633 2:-0.986998 
1 1:-0.99019 2:-0.978899 
1 1:-0.992633 2:-0.986998 
1 1:-0.99019 2:-0.978899 
1 1:-0.992633 2:-0.986998 
1 1:-0.99019 2:-0.978899 
1 1:-0.992633 2:-0.986998 
1 1:-0.99019 2:-0.978899 
1 1:-0.992633 2:-0.986998 
1 1:-0.99019 2:-0.978899 
1 1:-0.992633 2:-0.986998 
1 1:-0.99019 2:-0.978899 
1 1:-0.992633 2:-0.986998 
1 1:-0.99019 2:-0.978899 
1 1:-0.992633 2:-0.986998 
1 1:-0.99019 2:-0.978899 
1 1:-0.992633 2:-0.986998 
1 1:-0.99019 2:-0.978899 
1 1:-0.992633 2:-0.986998 
1 1:-0.99019 2:-0.978899 
1 1:-0.992633 2:-0.986998 
1 1:-0.99019 2:-0.978899 
1 1:-0.992633 2:-0.986998 
1 1:-0.99019 2:-0.978899 
1 1:-0.992633 2:-0.986998 
1 1:-0.99019 2:-0.978899 
1 1:-0.992633 2:-0.986998 
1 1:-0.99019 2:-0.978899 
1 1:-0.992633 2:-0.986998 
1 1:-0.99019 2:-0.978899 
1 1:-0.992633 2:-0.986998 
1 1:-0.99019 2:-0.978899 
1 1:-0.992633 2:-0.986998 
1 1:-0.99019 2:-0.978899 
1 1:-0.992633 2:-0.986998 
1 1:-0.99019 2:-0.978899 
1 1:-0.992633 2:-0.986998 
1 1:-0.99019 2:-0.978899 
1 1:-0.992633 2:-0.986998 
1 1:-0.99019 2:-0.978899 
1 1:-0.992633 2:-0.986998 
1 1:-0.99019 2:-0.978899 
1 1:-0.992633 2:-0.986998 
1 1:-0.99019 2:-0.978899 
1 1:-0.992633 2:-0.986998 
1 1:-0.99019 2:-0.978899 
1 1:-0.992633 2:-0.986998 
1 1:-0.99019 2:-0.978899 
1 1:-0.992633 2:-0.986998 
1 1:-0.99019 2:-0.978899 
1 1:-0.992633 2:-0.986998 
1 1:-0.99019 2:-0.978899 
1 1:-0.992633 2:-0.986998 
1 1:-0.99019 2:-0.978899 
1 1:-0.992633 2:-0.986998 
1 1:-0.99019 2:-0.978899 
1 1:-0.992633 2:-0.986998 
1 1:-0.99019 2:-0.978899 
1 1:-0.992633 2:-0.986998 
1 1:-0.99019 2:-0.978899 
1 1:-0.992633 2:-0.986998 
1 1:-0.99019 2:-0.978899 
1 1:-0.992633 2:-0.986998 
1 1:-0.99019 2:-0.978899 
1 1:-0.992633 2:-0.986998 
1 1:-0.99019 2:-0.978899 
1 1:-0.992633 2:-0.986998 
1 1:-0.99019 2:-0.978899 
1 1:-0.992633 2:-0.986998 
1 1:-0.99019 2:-0.978899 
1 1:-0.992633 2:-0.986998 
1 1:-0.99019 2:-0.978899 
1 1:-1 2:-0.968457 
1 1:-0.973527 2:-0.985093 
1 1:-1 2:-0.968457 
1 1:-0.973527 2:-0.985093 
1 1:-1 2:-0.968457 
1 1:-0.973527 2:-0.985093 
1 1:-1 2:-0.968457 
1 1:-0.973527 2:-0.985093 
1 1:-1 2:-0.968457 
1 1:-0.973527 2:-0.985093 
1 1:-1 2:-0.968457 
1 1:-0.973527 2:-0.985093 
1 1:-1 2:-0.968457 
1 1:-0.973527 2:-0.985093 
1 1:-1 2:-0.968457 
1 1:-0.973527 2:-0.985093 
1 1:-1 2:-0.968457 
1 1:-0.973527 2:-0.985093 
1 1:-1 2:-0.968457 
1 1:-0.973527 2:-0.985093 
1 1:-1 2:-0.968457 
1 1:-0.973527 2:-0.985093 
1 1:-1 2:-0.968457 
1 1:-0.973527 2:-0.985093 
1 1:-1 2:-0.968457 
1 1:-0.973527 2:-0.985093 
1 1:-1 2:-0.968457 
1 1:-0.973527 2:-0.985093 
1 1:-1 2:-0.968457 
1 1:-0.973527 2:-0.985093 
1 1:-1 2:-0.968457 
1 1:-0.973527 2:-0.985093 
1 1:-1 2:-0.968457 
1 1:-0.973527 2:-0.985093 
1 1:-1 2:-0.968457 
1 1:-0.973527 2:-0.985093 
1 1:-1 2:-0.968457 
1 1:-0.973527 2:-0.985093 
1 1:-1 2:-0.968457 
1 1:-0.973527 2:-0.985093 
1 1:-1 2:-0.968457 
1 1:-0.973527 2:-0.985093 
1 1:-1 2:-0.968457 
1 1:-0.973527 2:-0.985093 
1 1:-1 2:-0.968457 
1 1:-0.973527 2:-0.985093 
1 1:-1 2:-0.968457 
1 1:-0.973527 2:-0.985093 
1 1:-1 2:-0.968457 
1 1:-0.973527 2:-0.985093 
1 1:-1 2:-0.968457 
1 1:-0.973527 2:-0.985093 
1 1:-1 2:-0.968457 
1 1:-0.973527 2:-0.985093 
1 1:-1 2:-0.968457 
1 1:-0.973527 2:-0.985093 
1 1:-1 2:-0.968457 
1 1:-0.973527 2:-0.985093 
1 1:-1 2:-0.968457 
1 1:-0.973527 2:-0.985093 
1 1:-1 2:-0.968457 
1 1:-0.973527 2:-0.985093 
1 1:-1 2:-0.968457 
1 1:-0.973527 2:-0.985093 
1 1:-1 2:-0.968457 
1 1:-0.973527 2:-0.985093 
1 1:-1 2:-0.968457 
1 1:-0.973527 2:-0.985093 
1 1:-1 2:-0.968457 
1 1:-0.973527 2:-0.985093 
1 1:-1 2:-0.968457 
1 1:-0.973527 2:-0.985093 
1 1:-1 2:-0.968457 
1 1:-0.973527 2:-0.985093 
1 1:-1 2:-0.968457 
1 1:-0.973527 2:-0.985093 
1 1:-1 2:-0.968457 
1 1:-0.973527 2:-0.985093 
1 1:-1 2:-0.968457 
1 1:-0.973527 2:-0.985093 
1 1:-1 2:-0.968457 
1 1:-0.973527 2:-0.985093 
1 1:-1 2:-0.968457 
1 1:-0.973527 2:-0.985093 
1 1:-1 2:-0.968457 
1 1:-0.973527 2:-0.985093 
1 1:-1 2:-0.968457 
1 1:-0.973527 2:-0.985093 
1 1:-1 2:-0.968457 
1 1:-0.973527 2:-0.985093 
1 1:-1 2:-0.968457 
1 1:-0.973527 2:-0.985093 
1 1:-1 2:-0.968457 
1 1:-0.973527 2:-0.985093 
1 1:-1 2:-0.968457 
1 1:-0.973527 2:-0.985093 
1 1:-1 2:-0.968457 
1 1:-0.973527 2:-0.985093 
1 1:-1 2:-0.968457 
1 1:-0.973527 2:-0.985093 
1 1:-1 2:-0.968457 
1 1:-0.973527 2:-0.985093 
1 1:-1 2:-0.968457 
1 1:-0.973527 2:-0.985093 
1 1:-1 2:-0.968457 
1 1:-0.973527 2:-0.985093 
1 1:-1 2:-0.968457 
1 1:-0.973527 2:-0.985093 
1 1:-1 2:-0.968457 
1 1:-0.973527 2:-0.985093 
1 1:-1 2:-0.968457 
1 1:-0.973527 2:-0.985093 
1 1:-1 2:-0.968457 
1 1:-0.973527 2:-0.985093 
1 1:-1 2:-0.968457 
1 1:-0.973527 2:-0.985093 
1 1:-1 2:-0.968457 
1 1:-0.973527 2:-0.985093 
1 1:-1 2:-0.968457 
1 1:-0.973527 2:-0.985093 
1 1:-1 2:-0.968457 
1 1:-0.973527 2:-0.985093 
1 1:-1 2:-0.968457 
1 1:-0.973527 2:-0.985093 
1 1:-1 2:-0.968457 
1 1:-0.973527 2:-0.985093 
1 1:-1 2:-0.968457 
1 1:-0.973527 2:-0.985093 
1 1:-1 2:-0.968457 
1 1:-0.973527 2:-0.985093 
1 1:-1 2:-0.968457 
1 1:-0.973527 2:-0.985093 
1 1:-1 2:-0.968457 
1 1:-0.973527 2:-0.985093 
1 1:-1 2:-0.968457 
1 1:-0.973527 2:-0.985093 
1 1:-1 2:-0.968457 
1 1:-0.973527 2:-0.985093 
1 1:-1 2:-0.968457 
1 1:-0.973527 2:-0.985093 
1 1:-1 2:-0.968457 
1 1:-0.973527 2:-0.985093 
1 1:-1 2:-0.968457 
1 1:-0.973527 2:-0.985093 
1 1:-1 2:-0.968457 
1 1:-0.973527 2:-0.985093 
1 1:-1 2:-0.968457 
1 1:-0.973527 2:-0.985093 
1 1:-1 2:-0.968457 
1 1:-0.973527 2:-0.985093 
1 1:-1 2:-0.968457 
1 1:-0.973527 2:-0.985093 
1 1:-1 2:-0.968457 
1 1:-0.973527 2:-0.985093 
1 1:-1 2:-0.968457 
1 1:-0.973527 2:-0.985093 
1 1:-1 2:-0.968457 
1 1:-0.973527 2:-0.985093 
1 1:-1 2:-0.968457 
1 1:-0.973527 2:-0.985093 
1 1:-1 2:-0.968457 
1 1:-0.973527 2:-0.985093 
1 1:-1 2:-0.968457 
1 1:-0.973527 2:-0.985093 
1 1:-1 2:-0.968457 
1 1:-0.973527 2:-0.985093 
1 1:-1 2:-0.968457 
1 1:-0.973527 2:-0.985093 
1 1:-1 2:-0.968457 
1 1:-0.973527 2:-0.985093 
1 1:-1 2:-0.968457 
1 1:-0.973527 2:-0.985093 
1 1:-1 2:-0.968457 
1 1:-0.973527 2:-0.985093 
1 1:-1 2:-0.968457 
1 1:-0.973527 2:-0.985093 
1 1:-1 2:-0.968457 
1 1:-0.973527 2:-0.985093 
1 1:-1 2:-0.968457 
1 1:-0.973527 2:-0.985093 
1 1:-1 2:-0.968457 
1 1:-0.973527 2:-0.985093 
1 1:-1 2:-0.968457 
1 1:-0.973527 2:-0.985093 
1 1:-1 2:-0.968457 
1 1:-0.973527 2:-0.985093 
1 1:-1 2:-0.968457 
1 1:-0.973527 2:-0.985093 
1 1:-1 2:-0.968457 
1 1:-0.984962 2:-0.977953 
1 1:-0.992434 2:-0.975318 
1 1:-0.984962 2:-0.977953 
1 1:-0.992434 2:-0.975318 
1 1:-0.984962 2:-0.977953 
1 1:-0.992434 2:-0.975318 
1 1:-0.984962 2:-0.977953 
1 1:-0.992434 2:-0.975318 
1 1:-0.984962 2:-0.977953 
1 1:-0.992434 2:-0.975318 
1 1:-0.984962 2:-0.977953 
1 1:-0.992434 2:-0.975318 
1 1:-0.984962 2:-0.977953 
1 1:-0.992434 2:-0.975318 
1 1:-0.984962 2:-0.977953 
1 1:-0.992434 2:-0.975318 
1 1:-0.984962 2:-0.977953 
1 1:-0.992434 2:-0.975318 
1 1:-0.984962 2:-0.977953 
1 1:-0.992434 2:-0.975318 
1 1:-0.984962 2:-0.977953 
1 1:-0.992434 2:-0.975318 
1 1:-0.984962 2:-0.977953 
1 1:-0.992434 2:-0.975318 
1 1:-0.984962 2:-0.977953 
1 1:-0.992434 2:-0.975318 
1 1:-0.984962 2:-0.977953 
1 1:-0.992434 2:-0.975318 
1 1:-0.984962 2:-0.977953 
1 1:-0.992434 2:-0.975318 
1 1:-0.984962 2:-0.977953 
1 1:-0.992434 2:-0.975318 
1 1:-0.984962 2:-0.977953 
1 1:-0.992434 2:-0.975318 
1 1:-0.984962 2:-0.977953 
1 1:-0.992434 2:-0.975318 
1 1:-0.984962 2:-0.977953 
1 1:-0.992434 2:-0.975318 
1 1:-0.984962 2:-0.977953 
1 1:-0.992434 2:-0.975318 
1 1:-0.984962 2:-0.977953 
1 1:-0.992434 2:-0.975318 
1 1:-0.984962 2:-0.977953 
1 1:-0.992434 2:-0.975318 
1 1:-0.984962 2:-0.977953 
1 1:-0.992434 2:-0.975318 
1 1:-0.984962 2:-0.977953 
1 1:-0.992434 2:-0.975318 
1 1:-0.984962 2:-0.977953 
1 1:-0.992434 2:-0.975318 
1 1:-0.984962 2:-0.977953 
1 1:-0.992434 2:-0.975318 
1 1:-0.984962 2:-0.977953 
1 1:-0.992434 2:-0.975318 
1 1:-0.984962 2:-0.977953 
1 1:-0.992434 2:-0.975318 
1 1:-0.984962 2:-0.977953 
1 1:-0.992434 2:-0.975318 
1 1:-0.984962 2:-0.977953 
1 1:-0.992434 2:-0.975318 
1 1:-0.984962 2:-0.977953 
1 1:-0.992434 2:-0.975318 
1 1:-0.984962 2:-0.977953 
1 1:-0.992434 2:-0.975318 
1 1:-0.984962 2:-0.977953 
1 1:-0.992434 2:-0.975318 
1 1:-0.984962 2:-0.977953 
1 1:-0.992434 2:-0.975318 
1 1:-0.984962 2:-0.977953 
1 1:-0.992434 2:-0.975318 
1 1:-0.984962 2:-0.977953 
1 1:-0.992434 2:-0.975318 
1 1:-0.984962 2:-0.977953 
1 1:-0.992434 2:-0.975318 
1 1:-0.984962 2:-0.977953 
1 1:-0.992434 2:-0.975318 
1 1:-0.984962 2:-0.977953 
1 1:-0.992434 2:-0.975318 
1 1:-0.984962 2:-0.977953 
1 1:-0.992434 2:-0.975318 
1 1:-0.984962 2:-0.977953 
1 1:-0.992434 2:-0.975318 
1 1:-0.984962 2:-0.977953 
1 1:-0.992434 2:-0.975318 
1 1:-0.984962 2:-0.977953 
1 1:-0.992434 2:-0.975318 
1 1:-0.984962 2:-0.977953 
1 1:-0.992434 2:-0.975318 
1 1:-0.984962 2:-0.977953 
1 1:-0.992434 2:-0.975318 
1 1:-0.984962 2:-0.977953 
1 1:-0.992434 2:-0.975318 
1 1:-0.984962 2:-0.977953 
1 1:-0.992434 2:-0.975318 
1 1:-0.984962 2:-0.977953 
1 1:-0.992434 2:-0.975318 
1 1:-0.984962 2:-0.977953 
1 1:-0.992434 2:-0.975318 
1 1:-0.984962 2:-0.977953 
1 1:-0.992434 2:-0.975318 
1 1:-0.984962 2:-0.977953 
1 1:-0.992434 2:-0.975318 
1 1:-0.984962 2:-0.977953 
1 1:-0.992434 2:-0.975318 
1 1:-0.984962 2:-0.977953 
1 1:-0.992434 2:-0.975318 
1 1:-0.984962 2:-0.977953 
1 1:-0.992434 2:-0.975318 
1 1:-0.984962 2:-0.977953 
1 1:-0.992434 2:-0.975318 
1 1:-0.984962 2:-0.977953 
1 1:-0.992434 2:-0.975318 
1 1:-0.984962 2:-0.977953 
1 1:-0.992434 2:-0.975318 
1 1:-0.984962 2:-0.977953 
1 1:-0.992434 2:-0.975318 
1 1:-0.984962 2:-0.977953 
1 1:-0.992434 2:-0.975318 
1 1:-0.984962 2:-0.977953 
1 1:-0.992434 2:-0.975318 
1 1:-0.984962 2:-0.977953 
1 1:-0.992434 2:-0.975318 
1 1:-0.984962 2:-0.977953 
1 1:-0.992434 2:-0.975318 
1 1:-0.984962 2:-0.977953 
1 1:-0.992434 2:-0.975318 
1 1:-0.984962 2:-0.977953 
1 1:-0.992434 2:-0.975318 
1 1:-0.984962 2:-0.977953 
1 1:-0.992434 2:-0.975318 
1 1:-0.984962 2:-0.977953 
1 1:-0.992434 2:-0.975318 
1 1:-0.984962 2:-0.977953 
1 1:-0.992434 2:-0.975318 
1 1:-0.984962 2:-0.977953 
1 1:-0.992434 2:-0.975318 
1 1:-0.984962 2:-0.977953 
1 1:-0.992434 2:-0.975318 
1 1:-0.984962 2:-0.977953 
1 1:-0.992434 2:-0.975318 
1 1:-0.984962 2:-0.977953 
1 1:-0.992434 2:-0.975318 
1 1:-0.984962 2:-0.977953 
1 1:-0.992434 2:-0.975318 
1 1:-0.984962 2:-0.977953 
1 1:-0.992434 2:-0.975318 
1 1:-0.984962 2:-0.977953 
1 1:-0.992434 2:-0.975318 
1 1:-0.984962 2:-0.977953 
1 1:-0.992434 2:-0.975318 
1 1:-0.984962 2:-0.977953 
1 1:-0.992434 2:-0.975318 
1 1:-0.984962 2:-0.977953 
1 1:-0.992434 2:-0.975318 
1 1:-0.984962 2:-0.977953 
1 1:-0.992434 2:-0.975318 
1 1:-0.984962 2:-0.977953 
1 1:-0.992434 2:-0.975318 
1 1:-0.984962 2:-0.977953 
1 1:-0.992434 2:-0.975318 
1 1:-0.984962 2:-0.977953 
1 1:-0.992434 2:-0.975318 
1 1:-0.984962 2:-0.977953 
1 1:-0.992434 2:-0.975318 
1 1:-0.984962 2:-0.977953 
1 1:-0.992434 2:-0.975318 
1 1:-0.984962 2:-0.977953 
1 1:-0.992434 2:-0.975318 
1 1:-0.984962 2:-0.977953 
1 1:-0.992434 2:-0.975318 
1 1:-0.984962 2:-0.977953 
1 1:-0.992434 2:-0.975318 
1 1:-0.984962 2:-0.977953 
1 1:-0.992434 2:-0.975318 
1 1:-0.984962 2:-0.977953 
1 1:-0.992434 2:-0.975318 
1 1:-0.984962 2:-0.977953 
1 1:-0.992434 2:-0.975318 
1 1:-0.984962 2:-0.977953 
1 1:-0.992434 2:-0.975318 
1 1:-0.984962 2:-0.977953 
1 1:-0.992434 2:-0.975318 
1 1:-0.984962 2:-0.977953 
1 1:-0.992434 2:-0.975318 
1 1:-0.984962 2:-0.977953 
1 1:-0.992434 2:-0.975318 
1 1:-0.984962 2:-0.977953 
1 1:-0.992434 2:-0.975318 
1 1:-0.984962 2:-0.977953 
1 1:-0.992434 2:-0.975318 
1 1:-0.984962 2:-0.977953 
1 1:-0.771579 2:0.168614 
1 1:-0.771579 2:0.168614 
1 1:-0.771579 2:0.168614 
1 1:-0.771579 2:0.168614 
1 1:-0.771579 2:0.168614 
1 1:-0.771579 2:0.168614 
1 1:-0.771579 2:0.168614 
1 1:-0.771579 2:0.168614 
1 1:-0.771579 2:0.168614 
1 1:-0.771579 2:0.168614 
1 1:-0.771579 2:0.168614 
1 1:-0.771579 2:0.168614 
1 1:-0.771579 2:0.168614 
1 1:-0.771579 2:0.168614 
1 1:-0.771579 2:0.168614 
1 1:-0.771579 2:0.168614 
1 1:-0.771579 2:0.168614 
1 1:-0.771579 2:0.168614 
1 1:-0.771579 2:0.168614 
1 1:-0.771579 2:0.168614 
1 1:-0.771579 2:0.168614 
1 1:-0.771579 2:0.168614 
1 1:-0.771579 2:0.168614 
1 1:-0.771579 2:0.168614 
1 1:-0.771579 2:0.168614 
1 1:-0.771579 2:0.168614 
1 1:-0.771579 2:0.168614 
1 1:-0.771579 2:0.168614 
1 1:-0.771579 2:0.168614 
1 1:-0.771579 2:0.168614 
1 1:-0.771579 2:0.168614 
1 1:-0.771579 2:0.168614 
1 1:-0.771579 2:0.168614 
1 1:-0.771579 2:0.168614 
1 1:-0.771579 2:0.168614 
1 1:-0.771579 2:0.168614 
1 1:-0.771579 2:0.168614 
1 1:-0.771579 2:0.168614 
1 1:-0.771579 2:0.168614 
1 1:-0.771579 2:0.168614 
1 1:-0.771579 2:0.168614 
1 1:-0.771579 2:0.168614 
1 1:-0.771579 2:0.168614 
1 1:-0.771579 2:0.168614 
1 1:-0.771579 2:0.168614 
1 1:-0.771579 2:0.168614 
1 1:-0.771579 2:0.168614 
1 1:-0.771579 2:0.168614 
1 1:-0.771579 2:0.168614 
1 1:-0.771579 2:0.168614 
1 1:-0.771579 2:0.168614 
1 1:-0.771579 2:0.168614 
1 1:-0.771579 2:0.168614 
1 1:-0.771579 2:0.168614 
1 1:-0.771579 2:0.168614 
1 1:-0.771579 2:0.168614 
1 1:-0.771579 2:0.168614 
1 1:-0.771579 2:0.168614 
1 1:-0.771579 2:0.168614 
1 1:-0.771579 2:0.168614 
1 1:-0.771579 2:0.168614 
1 1:-0.771579 2:0.168614 
1 1:-0.771579 2:0.168614 
1 1:-0.771579 2:0.168614 
1 1:-0.771579 2:0.168614 
1 1:-0.771579 2:0.168614 
1 1:-0.771579 2:0.168614 
1 1:-0.771579 2:0.168614 
1 1:-0.771579 2:0.168614 
1 1:-0.771579 2:0.168614 
1 1:-0.771579 2:0.168614 
1 1:-0.771579 2:0.168614 
1 1:-0.771579 2:0.168614 
1 1:-0.771579 2:0.168614 
1 1:-0.771579 2:0.168614 
1 1:-0.771579 2:0.168614 
1 1:-0.771579 2:0.168614 
1 1:-0.771579 2:0.168614 
1 1:-0.771579 2:0.168614 
1 1:-0.771579 2:0.168614 
1 1:-0.771579 2:0.168614 
1 1:-0.771579 2:0.168614 
1 1:-0.771579 2:0.168614 
1 1:-0.771579 2:0.168614 
1 1:-0.771579 2:0.168614 
1 1:-0.771579 2:0.168614 
1 1:-0.771579 2:0.168614 
1 1:-0.771579 2:0.168614 
1 1:-0.771579 2:0.168614 
1 1:-0.771579 2:0.168614 
1 1:-0.771579 2:0.168614 
1 1:-0.771579 2:0.168614 
1 1:-0.771579 2:0.168614 
1 1:-0.771579 2:0.168614 
1 1:-0.771579 2:0.168614 
1 1:-0.771579 2:0.168614 
1 1:-0.992098 2:-0.978889 
1 1:-0.992098 2:-0.978889 
1 1:-0.992098 2:-0.978889 
1 1:-0.992098 2:-0.978889 
1 1:-0.992098 2:-0.978889 
1 1:-0.992098 2:-0.978889 
1 1:-0.992098 2:-0.978889 
1 1:-0.992098 2:-0.978889 
1 1:-0.992098 2:-0.978889 
1 1:-0.992098 2:-0.978889 
1 1:-0.992098 2:-0.978889 
1 1:-0.992098 2:-0.978889 
1 1:-0.992098 2:-0.978889 
1 1:-0.992098 2:-0.978889 
1 1:-0.992098 2:-0.978889 
1 1:-0.992098 2:-0.978889 
1 1:-0.992098 2:-0.978889 
1 1:-0.992098 2:-0.978889 
1 1:-0.992098 2:-0.978889 
1 1:-0.992098 2:-0.978889 
1 1:-0.992098 2:-0.978889 
1 1:-0.992098 2:-0.978889 
1 1:-0.992098 2:-0.978889 
1 1:-0.992098 2:-0.978889 
1 1:-0.992098 2:-0.978889 
1 1:-0.992098 2:-0.978889 
1 1:-0.992098 2:-0.978889 
1 1:-0.992098 2:-0.978889 
1 1:-0.992098 2:-0.978889 
1 1:-0.992098 2:-0.978889 
1 1:-0.992098 2:-0.978889 
1 1:-0.992098 2:-0.978889 
1 1:-0.992098 2:-0.978889 
1 1:-0.992098 2:-0.978889 
1 1:-0.992098 2:-0.978889 
1 1:-0.992098 2:-0.978889 
1 1:-0.992098 2:-0.978889 
1 1:-0.992098 2:-0.978889 
1 1:-0.992098 2:-0.978889 
1 1:-0.992098 2:-0.978889 
1 1:-0.992098 2:-0.978889 
1 1:-0.992098 2:-0.978889 
1 1:-0.992098 2:-0.978889 
1 1:-0.992098 2:-0.978889 
1 1:-0.992098 2:-0.978889 
1 1:-0.992098 2:-0.978889 
1 1:-0.992098 2:-0.978889 
1 1:-0.992098 2:-0.978889 
1 1:-0.992098 2:-0.978889 
1 1:-0.992098 2:-0.978889 
1 1:-0.992098 2:-0.978889 
1 1:-0.992098 2:-0.978889 
1 1:-0.992098 2:-0.978889 
1 1:-0.992098 2:-0.978889 
1 1:-0.992098 2:-0.978889 
1 1:-0.992098 2:-0.978889 
1 1:-0.992098 2:-0.978889 
1 1:-0.992098 2:-0.978889 
1 1:-0.992098 2:-0.978889 
1 1:-0.992098 2:-0.978889 
1 1:-0.992098 2:-0.978889 
1 1:-0.992098 2:-0.978889 
1 1:-0.992098 2:-0.978889 
1 1:-0.992098 2:-0.978889 
1 1:-0.992098 2:-0.978889 
1 1:-0.992098 2:-0.978889 
1 1:-0.992098 2:-0.978889 
1 1:-0.992098 2:-0.978889 
1 1:-0.992098 2:-0.978889 
1 1:-0.992098 2:-0.978889 
1 1:-0.992098 2:-0.978889 
1 1:-0.992098 2:-0.978889 
1 1:-0.992098 2:-0.978889 
1 1:-0.992098 2:-0.978889 
1 1:-0.992098 2:-0.978889 
1 1:-0.992098 2:-0.978889 
1 1:-0.992098 2:-0.978889 
1 1:-0.992098 2:-0.978889 
1 1:-0.992098 2:-0.978889 
1 1:-0.992098 2:-0.978889 
1 1:-0.992098 2:-0.978889 
1 1:-0.992098 2:-0.978889 
1 1:-0.992098 2:-0.978889 
1 1:-0.992098 2:-0.978889 
1 1:-0.992098 2:-0.978889 
1 1:-0.992098 2:-0.978889 
1 1:-0.992098 2:-0.978889 
1 1:-0.992098 2:-0.978889 
1 1:-0.992098 2:-0.978889 
1 1:-0.992098 2:-0.978889 
1 1:-0.992098 2:-0.978889 
1 1:-0.992098 2:-0.978889 
1 1:-0.992098 2:-0.978889 
1 1:-0.992098 2:-0.978889 
1 1:-0.956984 2:-0.976522 
1 1:-0.988328 2:-0.96128 
1 1:-0.956984 2:-0.976522 
1 1:-0.988328 2:-0.96128 
1 1:-0.956984 2:-0.976522 
1 1:-0.988328 2:-0.96128 
1 1:-0.956984 2:-0.976522 
1 1:-0.988328 2:-0.96128 
1 1:-0.956984 2:-0.976522 
1 1:-0.988328 2:-0.96128 
1 1:-0.956984 2:-0.976522 
1 1:-0.988328 2:-0.96128 
1 1:-0.956984 2:-0.976522 
1 1:-0.988328 2:-0.96128 
1 1:-0.956984 2:-0.976522 
1 1:-0.988328 2:-0.96128 
1 1:-0.956984 2:-0.976522 
1 1:-0.988328 2:-0.96128 
1 1:-0.956984 2:-0.976522 
1 1:-0.988328 2:-0.96128 
1 1:-0.956984 2:-0.976522 
1 1:-0.988328 2:-0.96128 
1 1:-0.956984 2:-0.976522 
1 1:-0.988328 2:-0.96128 
1 1:-0.956984 2:-0.976522 
1 1:-0.988328 2:-0.96128 
1 1:-0.956984 2:-0.976522 
1 1:-0.988328 2:-0.96128 
1 1:-0.956984 2:-0.976522 
1 1:-0.988328 2:-0.96128 
1 1:-0.956984 2:-0.976522 
1 1:-0.988328 2:-0.96128 
1 1:-0.956984 2:-0.976522 
1 1:-0.988328 2:-0.96128 
1 1:-0.956984 2:-0.976522 
1 1:-0.988328 2:-0.96128 
1 1:-0.956984 2:-0.976522 
1 1:-0.988328 2:-0.96128 
1 1:-0.956984 2:-0.976522 
1 1:-0.988328 2:-0.96128 
1 1:-0.956984 2:-0.976522 
1 1:-0.988328 2:-0.96128 
1 1:-0.956984 2:-0.976522 
1 1:-0.988328 2:-0.96128 
1 1:-0.956984 2:-0.976522 
1 1:-0.988328 2:-0.96128 
1 1:-0.956984 2:-0.976522 
1 1:-0.988328 2:-0.96128 
1 1:-0.956984 2:-0.976522 
1 1:-0.988328 2:-0.96128 
1 1:-0.956984 2:-0.976522 
1 1:-0.988328 2:-0.96128 
1 1:-0.956984 2:-0.976522 
1 1:-0.988328 2:-0.96128 
1 1:-0.956984 2:-0.976522 
1 1:-0.988328 2:-0.96128 
1 1:-0.956984 2:-0.976522 
1 1:-0.988328 2:-0.96128 
1 1:-0.956984 2:-0.976522 
1 1:-0.988328 2:-0.96128 
1 1:-0.956984 2:-0.976522 
1 1:-0.988328 2:-0.96128 
1 1:-0.956984 2:-0.976522 
1 1:-0.988328 2:-0.96128 
1 1:-0.956984 2:-0.976522 
1 1:-0.988328 2:-0.96128 
1 1:-0.956984 2:-0.976522 
1 1:-0.988328 2:-0.96128 
1 1:-0.956984 2:-0.976522 
1 1:-0.988328 2:-0.96128 
1 1:-0.956984 2:-0.976522 
1 1:-0.988328 2:-0.96128 
1 1:-0.956984 2:-0.976522 
1 1:-0.988328 2:-0.96128 
1 1:-0.956984 2:-0.976522 
1 1:-0.988328 2:-0.96128 
1 1:-0.956984 2:-0.976522 
1 1:-0.988328 2:-0.96128 
1 1:-0.956984 2:-0.976522 
1 1:-0.988328 2:-0.96128 
1 1:-0.956984 2:-0.976522 
1 1:-0.988328 2:-0.96128 
1 1:-0.956984 2:-0.976522 
1 1:-0.988328 2:-0.96128 
1 1:-0.956984 2:-0.976522 
1 1:-0.988328 2:-0.96128 
1 1:-0.956984 2:-0.976522 
1 1:-0.988328 2:-0.96128 
1 1:-0.956984 2:-0.976522 
1 1:-0.988328 2:-0.96128 
1 1:-0.956984 2:-0.976522 
1 1:-0.988328 2:-0.96128 
1 1:-0.956984 2:-0.976522 
1 1:-0.988328 2:-0.96128 
1 1:-0.956984 2:-0.976522 
1 1:-0.988328 2:-0.96128 
1 1:-0.956984 2:-0.976522 
1 1:-0.988328 2:-0.96128 
1 1:-0.956984 2:-0.976522 
1 1:-0.988328 2:-0.96128 
1 1:-0.956984 2:-0.976522 
1 1:-0.988328 2:-0.96128 
1 1:-0.956984 2:-0.976522 
1 1:-0.988328 2:-0.96128 
1 1:-0.956984 2:-0.976522 
1 1:-0.988328 2:-0.96128 
1 1:-0.956984 2:-0.976522 
1 1:-0.988328 2:-0.96128 
1 1:-0.956984 2:-0.976522 
1 1:-0.988328 2:-0.96128 
1 1:-0.956984 2:-0.976522 
1 1:-0.988328 2:-0.96128 
1 1:-0.956984 2:-0.976522 
1 1:-0.988328 2:-0.96128 
1 1:-0.956984 2:-0.976522 
1 1:-0.988328 2:-0.96128 
1 1:-0.956984 2:-0.976522 
1 1:-0.988328 2:-0.96128 
1 1:-0.956984 2:-0.976522 
1 1:-0.988328 2:-0.96128 
1 1:-0.956984 2:-0.976522 
1 1:-0.988328 2:-0.96128 
1 1:-0.956984 2:-0.976522 
1 1:-0.988328 2:-0.96128 
1 1:-0.956984 2:-0.976522 
1 1:-0.988328 2:-0.96128 
1 1:-0.956984 2:-0.976522 
1 1:-0.988328 2:-0.96128 
1 1:-0.956984 2:-0.976522 
1 1:-0.988328 2:-0.96128 
1 1:-0.956984 2:-0.976522 
1 1:-0.988328 2:-0.96128 
1 1:-0.956984 2:-0.976522 
1 1:-0.988328 2:-0.96128 
1 1:-0.956984 2:-0.976522 
1 1:-0.988328 2:-0.96128 
1 1:-0.956984 2:-0.976522 
1 1:-0.988328 2:-0.96128 
1 1:-0.956984 2:-0.976522 
1 1:-0.988328 2:-0.96128 
1 1:-0.956984 2:-0.976522 
1 1:-0.988328 2:-0.96128 
1 1:-0.956984 2:-0.976522 
1 1:-0.988328 2:-0.96128 
1 1:-0.956984 2:-0.976522 
1 1:-0.988328 2:-0.96128 
1 1:-0.956984 2:-0.976522 
1 1:-0.988328 2:-0.96128 
1 1:-0.956984 2:-0.976522 
1 1:-0.988328 2:-0.96128 
1 1:-0.956984 2:-0.976522 
1 1:-0.988328 2:-0.96128 
1 1:-0.956984 2:-0.976522 
1 1:-0.988328 2:-0.96128 
1 1:-0.956984 2:-0.976522 
1 1:-0.988328 2:-0.96128 
1 1:-0.956984 2:-0.976522 
1 1:-0.988328 2:-0.96128 
1 1:-0.956984 2:-0.976522 
1 1:-0.988328 2:-0.96128 
1 1:-0.956984 2:-0.976522 
1 1:-0.988328 2:-0.96128 
1 1:-0.956984 2:-0.976522 
1 1:-0.988328 2:-0.96128 
1 1:-0.956984 2:-0.976522 
1 1:-0.988328 2:-0.96128 
1 1:-0.956984 2:-0.976522 
1 1:-0.988328 2:-0.96128 
1 1:-0.956984 2:-0.976522 
1 1:-0.988328 2:-0.96128 
1 1:-0.956984 2:-0.976522 
1 1:-0.988328 2:-0.96128 
1 1:-0.956984 2:-0.976522 
1 1:-0.988328 2:-0.96128 
1 1:-0.956984 2:-0.976522 
1 1:-0.988328 2:-0.96128 
1 1:-0.956984 2:-0.976522 
1 1:-0.988328 2:-0.96128 
1 1:-0.956984 2:-0.976522 
1 1:-0.988328 2:-0.96128 
1 1:-0.956984 2:-0.976522 
1 1:-0.988328 2:-0.96128 
1 1:-0.956984 2:-0.976522 
1 1:-0.988328 2:-0.96128 
1 1:-0.956984 2:-0.976522 
1 1:-0.970915 2:-0.971797 
1 1:-0.970915 2:-0.971797 
1 1:-0.970915 2:-0.971797 
1 1:-0.970915 2:-0.971797 
1 1:-0.970915 2:-0.971797 
1 1:-0.970915 2:-0.971797 
1 1:-0.970915 2:-0.971797 
1 1:-0.970915 2:-0.971797 
1 1:-0.970915 2:-0.971797 
1 1:-0.970915 2:-0.971797 
1 1:-0.970915 2:-0.971797 
1 1:-0.970915 2:-0.971797 
1 1:-0.970915 2:-0.971797 
1 1:-0.970915 2:-0.971797 
1 1:-0.970915 2:-0.971797 
1 1:-0.970915 2:-0.971797 
1 1:-0.970915 2:-0.971797 
1 1:-0.970915 2:-0.971797 
1 1:-0.970915 2:-0.971797 
1 1:-0.970915 2:-0.971797 
1 1:-0.970915 2:-0.971797 
1 1:-0.970915 2:-0.971797 
1 1:-0.970915 2:-0.971797 
1 1:-0.970915 2:-0.971797 
1 1:-0.970915 2:-0.971797 
1 1:-0.970915 2:-0.971797 
1 1:-0.970915 2:-0.971797 
1 1:-0.970915 2:-0.971797 
1 1:-0.970915 2:-0.971797 
1 1:-0.970915 2:-0.971797 
1 1:-0.970915 2:-0.971797 
1 1:-0.970915 2:-0.971797 
1 1:-0.970915 2:-0.971797 
1 1:-0.970915 2:-0.971797 
1 1:-0.970915 2:-0.971797 
1 1:-0.970915 2:-0.971797 
1 1:-0.970915 2:-0.971797 
1 1:-0.970915 2:-0.971797 
1 1:-0.970915 2:-0.971797 
1 1:-0.970915 2:-0.971797 
1 1:-0.970915 2:-0.971797 
1 1:-0.970915 2:-0.971797 
1 1:-0.970915 2:-0.971797 
1 1:-0.970915 2:-0.971797 
1 1:-0.970915 2:-0.971797 
1 1:-0.970915 2:-0.971797 
1 1:-0.970915 2:-0.971797 
1 1:-0.970915 2:-0.971797 
1 1:-0.970915 2:-0.971797 
1 1:-0.970915 2:-0.971797 
1 1:-0.970915 2:-0.971797 
1 1:-0.970915 2:-0.971797 
1 1:-0.970915 2:-0.971797 
1 1:-0.970915 2:-0.971797 
1 1:-0.970915 2:-0.971797 
1 1:-0.970915 2:-0.971797 
1 1:-0.970915 2:-0.971797 
1 1:-0.970915 2:-0.971797 
1 1:-0.970915 2:-0.971797 
1 1:-0.970915 2:-0.971797 
1 1:-0.970915 2:-0.971797 
1 1:-0.970915 2:-0.971797 
1 1:-0.970915 2:-0.971797 
1 1:-0.970915 2:-0.971797 
1 1:-0.970915 2:-0.971797 
1 1:-0.970915 2:-0.971797 
1 1:-0.970915 2:-0.971797 
1 1:-0.970915 2:-0.971797 
1 1:-0.970915 2:-0.971797 
1 1:-0.970915 2:-0.971797 
1 1:-0.970915 2:-0.971797 
1 1:-0.970915 2:-0.971797 
1 1:-0.970915 2:-0.971797 
1 1:-0.970915 2:-0.971797 
1 1:-0.970915 2:-0.971797 
1 1:-0.970915 2:-0.971797 
1 1:-0.970915 2:-0.971797 
1 1:-0.970915 2:-0.971797 
1 1:-0.970915 2:-0.971797 
1 1:-0.970915 2:-0.971797 
1 1:-0.970915 2:-0.971797 
1 1:-0.970915 2:-0.971797 
1 1:-0.970915 2:-0.971797 
1 1:-0.970915 2:-0.971797 
1 1:-0.970915 2:-0.971797 
1 1:-0.970915 2:-0.971797 
1 1:-0.970915 2:-0.971797 
1 1:-0.970915 2:-0.971797 
1 1:-0.970915 2:-0.971797 
1 1:-0.970915 2:-0.971797 
1 1:-0.970915 2:-0.971797 
1 1:-0.970915 2:-0.971797 
1 1:-0.970915 2:-0.971797 
1 1:-0.970915 2:-0.971797 
1 1:-0.970915 2:-0.971797 
1 1:-0.970915 2:-0.971797 
1 1:-0.970915 2:-0.971797 
1 1:-0.636656 2:0.0953958 
1 1:-0.636656 2:0.0953958 
1 1:-0.636656 2:0.0953958 
1 1:-0.636656 2:0.0953958 
1 1:-0.636656 2:0.0953958 
1 1:-0.636656 2:0.0953958 
1 1:-0.636656 2:0.0953958 
1 1:-0.636656 2:0.0953958 
1 1:-0.636656 2:0.0953958 
1 1:-0.636656 2:0.0953958 
1 1:-0.636656 2:0.0953958 
1 1:-0.636656 2:0.0953958 
1 1:-0.636656 2:0.0953958 
1 1:-0.636656 2:0.0953958 
1 1:-0.636656 2:0.0953958 
1 1:-0.636656 2:0.0953958 
1 1:-0.636656 2:0.0953958 
1 1:-0.636656 2:0.0953958 
1 1:-0.636656 2:0.0953958 
1 1:-0.636656 2:0.0953958 
1 1:-0.636656 2:0.0953958 
1 1:-0.636656 2:0.0953958 
1 1:-0.636656 2:0.0953958 
1 1:-0.636656 2:0.0953958 
1 1:-0.636656 2:0.0953958 
1 1:-0.636656 2:0.0953958 
1 1:-0.636656 2:0.0953958 
1 1:-0.636656 2:0.0953958 
1 1:-0.636656 2:0.0953958 
1 1:-0.636656 2:0.0953958 
1 1:-0.636656 2:0.0953958 
1 1:-0.636656 2:0.0953958 
1 1:-0.636656 2:0.0953958 
1 1:-0.636656 2:0.0953958 
1 1:-0.636656 2:0.0953958 
1 1:-0.636656 2:0.0953958 
1 1:-0.636656 2:0.0953958 
1 1:-0.636656 2:0.0953958 
1 1:-0.636656 2:0.0953958 
1 1:-0.636656 2:0.0953958 
1 1:-0.636656 2:0.0953958 
1 1:-0.636656 2:0.0953958 
1 1:-0.636656 2:0.0953958 
1 1:-0.636656 2:0.0953958 
1 1:-0.636656 2:0.0953958 
1 1:-0.636656 2:0.0953958 
1 1:-0.636656 2:0.0953958 
1 1:-0.636656 2:0.0953958 
1 1:-0.636656 2:0.0953958 
1 1:-0.636656 2:0.0953958 
1 1:-0.636656 2:0.0953958 
1 1:-0.636656 2:0.0953958 
1 1:-0.636656 2:0.0953958 
1 1:-0.636656 2:0.0953958 
1 1:-0.636656 2:0.0953958 
1 1:-0.636656 2:0.0953958 
1 1:-0.636656 2:0.0953958 
1 1:-0.636656 2:0.0953958 
1 1:-0.636656 2:0.0953958 
1 1:-0.636656 2:0.0953958 
1 1:-0.636656 2:0.0953958 
1 1:-0.636656 2:0.0953958 
1 1:-0.636656 2:0.0953958 
1 1:-0.636656 2:0.0953958 
1 1:-0.636656 2:0.0953958 
1 1:-0.636656 2:0.0953958 
1 1:-0.636656 2:0.0953958 
1 1:-0.636656 2:0.0953958 
1 1:-0.636656 2:0.0953958 
1 1:-0.636656 2:0.0953958 
1 1:-0.636656 2:0.0953958 
1 1:-0.636656 2:0.0953958 
1 1:-0.636656 2:0.0953958 
1 1:-0.636656 2:0.0953958 
1 1:-0.636656 2:0.0953958 
1 1:-0.636656 2:0.0953958 
1 1:-0.636656 2:0.0953958 
1 1:-0.636656 2:0.0953958 
1 1:-0.636656 2:0.0953958 
1 1:-0.636656 2:0.0953958 
1 1:-0.636656 2:0.0953958 
1 1:-0.636656 2:0.0953958 
1 1:-0.636656 2:0.0953958 
1 1:-0.636656 2:0.0953958 
1 1:-0.636656 2:0.0953958 
1 1:-0.636656 2:0.0953958 
1 1:-0.636656 2:0.0953958 
1 1:-0.636656 2:0.0953958 
1 1:-0.636656 2:0.0953958 
1 1:-0.636656 2:0.0953958 
1 1:-0.636656 2:0.0953958 
1 1:-0.636656 2:0.0953958 
1 1:-0.636656 2:0.0953958 
1 1:-0.636656 2:0.0953958 
1 1:-0.636656 2:0.0953958 
1 1:-0.636656 2:0.0953958 
1 1:-0.975717 2:-0.978383 
1 1:-0.975717 2:-0.978383 
1 1:-0.975717 2:-0.978383 
1 1:-0.975717 2:-0.978383 
1 1:-0.975717 2:-0.978383 
1 1:-0.975717 2:-0.978383 
1 1:-0.975717 2:-0.978383 
1 1:-0.975717 2:-0.978383 
1 1:-0.975717 2:-0.978383 
1 1:-0.975717 2:-0.978383 
1 1:-0.975717 2:-0.978383 
1 1:-0.975717 2:-0.978383 
1 1:-0.975717 2:-0.978383 
1 1:-0.975717 2:-0.978383 
1 1:-0.975717 2:-0.978383 
1 1:-0.975717 2:-0.978383 
1 1:-0.975717 2:-0.978383 
1 1:-0.975717 2:-0.978383 
1 1:-0.975717 2:-0.978383 
1 1:-0.975717 2:-0.978383 
1 1:-0.975717 2:-0.978383 
1 1:-0.975717 2:-0.978383 
1 1:-0.975717 2:-0.978383 
1 1:-0.975717 2:-0.978383 
1 1:-0.975717 2:-0.978383 
1 1:-0.975717 2:-0.978383 
1 1:-0.975717 2:-0.978383 
1 1:-0.975717 2:-0.978383 
1 1:-0.975717 2:-0.978383 
1 1:-0.975717 2:-0.978383 
1 1:-0.975717 2:-0.978383 
1 1:-0.975717 2:-0.978383 
1 1:-0.975717 2:-0.978383 
1 1:-0.975717 2:-0.978383 
1 1:-0.975717 2:-0.978383 
1 1:-0.975717 2:-0.978383 
1 1:-0.975717 2:-0.978383 
1 1:-0.975717 2:-0.978383 
1 1:-0.975717 2:-0.978383 
1 1:-0.975717 2:-0.978383 
1 1:-0.975717 2:-0.978383 
1 1:-0.975717 2:-0.978383 
1 1:-0.975717 2:-0.978383 
1 1:-0.975717 2:-0.978383 
1 1:-0.975717 2:-0.978383 
1 1:-0.975717 2:-0.978383 
1 1:-0.975717 2:-0.978383 
1 1:-0.975717 2:-0.978383 
1 1:-0.975717 2:-0.978383 
1 1:-0.975717 2:-0.978383 
1 1:-0.975717 2:-0.978383 
1 1:-0.975717 2:-0.978383 
1 1:-0.975717 2:-0.978383 
1 1:-0.975717 2:-0.978383 
1 1:-0.975717 2:-0.978383 
1 1:-0.975717 2:-0.978383 
1 1:-0.975717 2:-0.978383 
1 1:-0.975717 2:-0.978383 
1 1:-0.975717 2:-0.978383 
1 1:-0.975717 2:-0.978383 
1 1:-0.975717 2:-0.978383 
1 1:-0.975717 2:-0.978383 
1 1:-0.975717 2:-0.978383 
1 1:-0.975717 2:-0.978383 
1 1:-0.975717 2:-0.978383 
1 1:-0.975717 2:-0.978383 
1 1:-0.975717 2:-0.978383 
1 1:-0.975717 2:-0.978383 
1 1:-0.975717 2:-0.978383 
1 1:-0.975717 2:-0.978383 
1 1:-0.975717 2:-0.978383 
1 1:-0.975717 2:-0.978383 
1 1:-0.975717 2:-0.978383 
1 1:-0.975717 2:-0.978383 
1 1:-0.975717 2:-0.978383 
1 1:-0.975717 2:-0.978383 
1 1:-0.975717 2:-0.978383 
1 1:-0.975717 2:-0.978383 
1 1:-0.975717 2:-0.978383 
1 1:-0.975717 2:-0.978383 
1 1:-0.975717 2:-0.978383 
1 1:-0.975717 2:-0.978383 
1 1:-0.975717 2:-0.978383 
1 1:-0.975717 2:-0.978383 
1 1:-0.975717 2:-0.978383 
1 1:-0.975717 2:-0.978383 
1 1:-0.975717 2:-0.978383 
1 1:-0.975717 2:-0.978383 
1 1:-0.975717 2:-0.978383 
1 1:-0.975717 2:-0.978383 
1 1:-0.975717 2:-0.978383 
1 1:-0.975717 2:-0.978383 
1 1:-0.975717 2:-0.978383 
1 1:-0.975717 2:-0.978383 
1 1:-0.975717 2:-0.978383 
1 1:-0.407664 2:-0.0383667 
1 1:-0.413884 2:0.280519 
1 1:-0.407664 2:-0.0383667 
1 1:-0.413884 2:0.280519 
1 1:-0.407664 2:-0.0383667 
1 1:-0.413884 2:0.280519 
1 1:-0.407664 2:-0.0383667 
1 1:-0.413884 2:0.280519 
1 1:-0.407664 2:-0.0383667 
1 1:-0.413884 2:0.280519 
1 1:-0.407664 2:-0.0383667 
1 1:-0.413884 2:0.280519 
1 1:-0.407664 2:-0.0383667 
1 1:-0.413884 2:0.280519 
1 1:-0.407664 2:-0.0383667 
1 1:-0.413884 2:0.280519 
1 1:-0.407664 2:-0.0383667 
1 1:-0.413884 2:0.280519 
1 1:-0.407664 2:-0.0383667 
1 1:-0.413884 2:0.280519 
1 1:-0.407664 2:-0.0383667 
1 1:-0.413884 2:0.280519 
1 1:-0.407664 2:-0.0383667 
1 1:-0.413884 2:0.280519 
1 1:-0.407664 2:-0.0383667 
1 1:-0.413884 2:0.280519 
1 1:-0.407664 2:-0.0383667 
1 1:-0.413884 2:0.280519 
1 1:-0.407664 2:-0.0383667 
1 1:-0.413884 2:0.280519 
1 1:-0.407664 2:-0.0383667 
1 1:-0.413884 2:0.280519 
1 1:-0.407664 2:-0.0383667 
1 1:-0.413884 2:0.280519 
1 1:-0.407664 2:-0.0383667 
1 1:-0.413884 2:0.280519 
1 1:-0.407664 2:-0.0383667 
1 1:-0.413884 2:0.280519 
1 1:-0.407664 2:-0.0383667 
1 1:-0.413884 2:0.280519 
1 1:-0.407664 2:-0.0383667 
1 1:-0.413884 2:0.280519 
1 1:-0.407664 2:-0.0383667 
1 1:-0.413884 2:0.280519 
1 1:-0.407664 2:-0.0383667 
1 1:-0.413884 2:0.280519 
1 1:-0.407664 2:-0.0383667 
1 1:-0.413884 2:0.280519 
1 1:-0.407664 2:-0.0383667 
1 1:-0.413884 2:0.280519 
1 1:-0.407664 2:-0.0383667 
1 1:-0.413884 2:0.280519 
1 1:-0.407664 2:-0.0383667 
1 1:-0.413884 2:0.280519 
1 1:-0.407664 2:-0.0383667 
1 1:-0.413884 2:0.280519 
1 1:-0.407664 2:-0.0383667 
1 1:-0.413884 2:0.280519 
1 1:-0.407664 2:-0.0383667 
1 1:-0.413884 2:0.280519 
1 1:-0.407664 2:-0.0383667 
1 1:-0.413884 2:0.280519 
1 1:-0.407664 2:-0.0383667 
1 1:-0.413884 2:0.280519 
1 1:-0.407664 2:-0.0383667 
1 1:-0.413884 2:0.280519 
1 1:-0.407664 2:-0.0383667 
1 1:-0.413884 2:0.280519 
1 1:-0.407664 2:-0.0383667 
1 1:-0.413884 2:0.280519 
1 1:-0.407664 2:-0.0383667 
1 1:-0.413884 2:0.280519 
1 1:-0.407664 2:-0.0383667 
1 1:-0.413884 2:0.280519 
1 1:-0.407664 2:-0.0383667 
1 1:-0.413884 2:0.280519 
1 1:-0.407664 2:-0.0383667 
1 1:-0.413884 2:0.280519 
1 1:-0.407664 2:-0.0383667 
1 1:-0.413884 2:0.280519 
1 1:-0.407664 2:-0.0383667 
1 1:-0.413884 2:0.280519 
1 1:-0.407664 2:-0.0383667 
1 1:-0.413884 2:0.280519 
1 1:-0.407664 2:-0.0383667 
1 1:-0.413884 2:0.280519 
1 1:-0.407664 2:-0.0383667 
1 1:-0.413884 2:0.280519 
1 1:-0.407664 2:-0.0383667 
1 1:-0.413884 2:0.280519 
1 1:-0.407664 2:-0.0383667 
1 1:-0.413884 2:0.280519 
1 1:-0.407664 2:-0.0383667 
1 1:-0.413884 2:0.280519 
1 1:-0.407664 2:-0.0383667 
1 1:-0.413884 2:0.280519 
1 1:-0.407664 2:-0.0383667 
1 1:-0.413884 2:0.280519 
1 1:-0.407664 2:-0.0383667 
1 1:-0.413884 2:0.280519 
1 1:-0.407664 2:-0.0383667 
1 1:-0.413884 2:0.280519 
1 1:-0.407664 2:-0.0383667 
1 1:-0.413884 2:0.280519 
1 1:-0.407664 2:-0.0383667 
1 1:-0.413884 2:0.280519 
1 1:-0.407664 2:-0.0383667 
1 1:-0.413884 2:0.280519 
1 1:-0.407664 2:-0.0383667 
1 1:-0.413884 2:0.280519 
1 1:-0.407664 2:-0.0383667 
1 1:-0.413884 2:0.280519 
1 1:-0.407664 2:-0.0383667 
1 1:-0.413884 2:0.280519 
1 1:-0.407664 2:-0.0383667 
1 1:-0.413884 2:0.280519 
1 1:-0.407664 2:-0.0383667 
1 1:-0.413884 2:0.280519 
1 1:-0.407664 2:-0.0383667 
1 1:-0.413884 2:0.280519 
1 1:-0.407664 2:-0.0383667 
1 1:-0.413884 2:0.280519 
1 1:-0.407664 2:-0.0383667 
1 1:-0.413884 2:0.280519 
1 1:-0.407664 2:-0.0383667 
1 1:-0.413884 2:0.280519 
1 1:-0.407664 2:-0.0383667 
1 1:-0.413884 2:0.280519 
1 1:-0.407664 2:-0.0383667 
1 1:-0.413884 2:0.280519 
1 1:-0.407664 2:-0.0383667 
1 1:-0.413884 2:0.280519 
1 1:-0.407664 2:-0.0383667 
1 1:-0.413884 2:0.280519 
1 1:-0.407664 2:-0.0383667 
1 1:-0.413884 2:0.280519 
1 1:-0.407664 2:-0.0383667 
1 1:-0.413884 2:0.280519 
1 1:-0.407664 2:-0.0383667 
1 1:-0.413884 2:0.280519 
1 1:-0.407664 2:-0.0383667 
1 1:-0.413884 2:0.280519 
1 1:-0.407664 2:-0.0383667 
1 1:-0.413884 2:0.280519 
1 1:-0.407664 2:-0.0383667 
1 1:-0.413884 2:0.280519 
1 1:-0.407664 2:-0.0383667 
1 1:-0.413884 2:0.280519 
1 1:-0.407664 2:-0.0383667 
1 1:-0.413884 2:0.280519 
1 1:-0.407664 2:-0.0383667 
1 1:-0.413884 2:0.280519 
1 1:-0.407664 2:-0.0383667 
1 1:-0.413884 2:0.280519 
1 1:-0.407664 2:-0.0383667 
1 1:-0.413884 2:0.280519 
1 1:-0.407664 2:-0.0383667 
1 1:-0.413884 2:0.280519 
1 1:-0.407664 2:-0.0383667 
1 1:-0.413884 2:0.280519 
1 1:-0.407664 2:-0.0383667 
1 1:-0.413884 2:0.280519 
1 1:-0.407664 2:-0.0383667 
1 1:-0.413884 2:0.280519 
1 1:-0.407664 2:-0.0383667 
1 1:-0.413884 2:0.280519 
1 1:-0.407664 2:-0.0383667 
1 1:-0.413884 2:0.280519 
1 1:-0.407664 2:-0.0383667 
1 1:-0.413884 2:0.280519 
1 1:-0.407664 2:-0.0383667 
1 1:-0.413884 2:0.280519 
1 1:-0.407664 2:-0.0383667 
1 1:-0.413884 2:0.280519 
1 1:-0.407664 2:-0.0383667 
1 1:-0.413884 2:0.280519 
1 1:-0.407664 2:-0.0383667 
1 1:-0.413884 2:0.280519 
1 1:-0.407664 2:-0.0383667 
1 1:-0.413884 2:0.280519 
1 1:-0.407664 2:-0.0383667 
1 1:-0.413884 2:0.280519 
1 1:-0.407664 2:-0.0383667 
1 1:-0.413884 2:0.280519 
1 1:-0.407664 2:-0.0383667 
1 1:-0.413884 2:0.280519 
1 1:-0.407664 2:-0.0383667 
1 1:-0.413884 2:0.280519 
1 1:-0.407664 2:-0.0383667 
1 1:-0.413884 2:0.280519 
1 1:-0.407664 2:-0.0383667 
1 1:-0.413884 2:0.280519 
1 1:-0.407664 2:-0.0383667 
1 1:-0.413884 2:0.280519 
1 1:-0.599395 2:0.235729 
1 1:-0.0647113 2:-0.267244 
1 1:-0.599395 2:0.235729 
1 1:-0.0647113 2:-0.267244 
1 1:-0.599395 2:0.235729 
1 1:-0.0647113 2:-0.267244 
1 1:-0.599395 2:0.235729 
1 1:-0.0647113 2:-0.267244 
1 1:-0.599395 2:0.235729 
1 1:-0.0647113 2:-0.267244 
1 1:-0.599395 2:0.235729 
1 1:-0.0647113 2:-0.267244 
1 1:-0.599395 2:0.235729 
1 1:-0.0647113 2:-0.267244 
1 1:-0.599395 2:0.235729 
1 1:-0.0647113 2:-0.267244 
1 1:-0.599395 2:0.235729 
1 1:-0.0647113 2:-0.267244 
1 1:-0.599395 2:0.235729 
1 1:-0.0647113 2:-0.267244 
1 1:-0.599395 2:0.235729 
1 1:-0.0647113 2:-0.267244 
1 1:-0.599395 2:0.235729 
1 1:-0.0647113 2:-0.267244 
1 1:-0.599395 2:0.235729 
1 1:-0.0647113 2:-0.267244 
1 1:-0.599395 2:0.235729 
1 1:-0.0647113 2:-0.267244 
1 1:-0.599395 2:0.235729 
1 1:-0.0647113 2:-0.267244 
1 1:-0.599395 2:0.235729 
1 1:-0.0647113 2:-0.267244 
1 1:-0.599395 2:0.235729 
1 1:-0.0647113 2:-0.267244 
1 1:-0.599395 2:0.235729 
1 1:-0.0647113 2:-0.267244 
1 1:-0.599395 2:0.235729 
1 1:-0.0647113 2:-0.267244 
1 1:-0.599395 2:0.235729 
1 1:-0.0647113 2:-0.267244 
1 1:-0.599395 2:0.235729 
1 1:-0.0647113 2:-0.267244 
1 1:-0.599395 2:0.235729 
1 1:-0.0647113 2:-0.267244 
1 1:-0.599395 2:0.235729 
1 1:-0.0647113 2:-0.267244 
1 1:-0.599395 2:0.235729 
1 1:-0.0647113 2:-0.267244 
1 1:-0.599395 2:0.235729 
1 1:-0.0647113 2:-0.267244 
1 1:-0.599395 2:0.235729 
1 1:-0.0647113 2:-0.267244 
1 1:-0.599395 2:0.235729 
1 1:-0.0647113 2:-0.267244 
1 1:-0.599395 2:0.235729 
1 1:-0.0647113 2:-0.267244 
1 1:-0.599395 2:0.235729 
1 1:-0.0647113 2:-0.267244 
1 1:-0.599395 2:0.235729 
1 1:-0.0647113 2:-0.267244 
1 1:-0.599395 2:0.235729 
1 1:-0.0647113 2:-0.267244 
1 1:-0.599395 2:0.235729 
1 1:-0.0647113 2:-0.267244 
1 1:-0.599395 2:0.235729 
1 1:-0.0647113 2:-0.267244 
1 1:-0.599395 2:0.235729 
1 1:-0.0647113 2:-0.267244 
1 1:-0.599395 2:0.235729 
1 1:-0.0647113 2:-0.267244 
1 1:-0.599395 2:0.235729 
1 1:-0.0647113 2:-0.267244 
1 1:-0.599395 2:0.235729 
1 1:-0.0647113 2:-0.267244 
1 1:-0.599395 2:0.235729 
1 1:-0.0647113 2:-0.267244 
1 1:-0.599395 2:0.235729 
1 1:-0.0647113 2:-0.267244 
1 1:-0.599395 2:0.235729 
1 1:-0.0647113 2:-0.267244 
1 1:-0.599395 2:0.235729 
1 1:-0.0647113 2:-0.267244 
1 1:-0.599395 2:0.235729 
1 1:-0.0647113 2:-0.267244 
1 1:-0.599395 2:0.235729 
1 1:-0.0647113 2:-0.267244 
1 1:-0.599395 2:0.235729 
1 1:-0.0647113 2:-0.267244 
1 1:-0.599395 2:0.235729 
1 1:-0.0647113 2:-0.267244 
1 1:-0.599395 2:0.235729 
1 1:-0.0647113 2:-0.267244 
1 1:-0.599395 2:0.235729 
1 1:-0.0647113 2:-0.267244 
1 1:-0.599395 2:0.235729 
1 1:-0.0647113 2:-0.267244 
1 1:-0.599395 2:0.235729 
1 1:-0.0647113 2:-0.267244 
1 1:-0.599395 2:0.235729 
1 1:-0.0647113 2:-0.267244 
1 1:-0.599395 2:0.235729 
1 1:-0.0647113 2:-0.267244 
1 1:-0.599395 2:0.235729 
1 1:-0.0647113 2:-0.267244 
1 1:-0.599395 2:0.235729 
1 1:-0.0647113 2:-0.267244 
1 1:-0.599395 2:0.235729 
1 1:-0.0647113 2:-0.267244 
1 1:-0.599395 2:0.235729 
1 1:-0.0647113 2:-0.267244 
1 1:-0.599395 2:0.235729 
1 1:-0.0647113 2:-0.267244 
1 1:-0.599395 2:0.235729 
1 1:-0.0647113 2:-0.267244 
1 1:-0.599395 2:0.235729 
1 1:-0.0647113 2:-0.267244 
1 1:-0.599395 2:0.235729 
1 1:-0.0647113 2:-0.267244 
1 1:-0.599395 2:0.235729 
1 1:-0.0647113 2:-0.267244 
1 1:-0.599395 2:0.235729 
1 1:-0.0647113 2:-0.267244 
1 1:-0.599395 2:0.235729 
1 1:-0.0647113 2:-0.267244 
1 1:-0.599395 2:0.235729 
1 1:-0.0647113 2:-0.267244 
1 1:-0.599395 2:0.235729 
1 1:-0.0647113 2:-0.267244 
1 1:-0.599395 2:0.235729 
1 1:-0.0647113 2:-0.267244 
1 1:-0.599395 2:0.235729 
1 1:-0.0647113 2:-0.267244 
1 1:-0.599395 2:0.235729 
1 1:-0.0647113 2:-0.267244 
1 1:-0.599395 2:0.235729 
1 1:-0.0647113 2:-0.267244 
1 1:-0.599395 2:0.235729 
1 1:-0.0647113 2:-0.267244 
1 1:-0.599395 2:0.235729 
1 1:-0.0647113 2:-0.267244 
1 1:-0.599395 2:0.235729 
1 1:-0.0647113 2:-0.267244 
1 1:-0.599395 2:0.235729 
1 1:-0.0647113 2:-0.267244 
1 1:-0.599395 2:0.235729 
1 1:-0.0647113 2:-0.267244 
1 1:-0.599395 2:0.235729 
1 1:-0.0647113 2:-0.267244 
1 1:-0.599395 2:0.235729 
1 1:-0.0647113 2:-0.267244 
1 1:-0.599395 2:0.235729 
1 1:-0.0647113 2:-0.267244 
1 1:-0.599395 2:0.235729 
1 1:-0.0647113 2:-0.267244 
1 1:-0.599395 2:0.235729 
1 1:-0.0647113 2:-0.267244 
1 1:-0.599395 2:0.235729 
1 1:-0.0647113 2:-0.267244 
1 1:-0.599395 2:0.235729 
1 1:-0.0647113 2:-0.267244 
1 1:-0.599395 2:0.235729 
1 1:-0.0647113 2:-0.267244 
1 1:-0.599395 2:0.235729 
1 1:-0.0647113 2:-0.267244 
1 1:-0.599395 2:0.235729 
1 1:-0.0647113 2:-0.267244 
1 1:-0.599395 2:0.235729 
1 1:-0.0647113 2:-0.267244 
1 1:-0.599395 2:0.235729 
1 1:-0.0647113 2:-0.267244 
1 1:-0.599395 2:0.235729 
1 1:-0.0647113 2:-0.267244 
1 1:-0.599395 2:0.235729 
1 1:-0.0647113 2:-0.267244 
1 1:-0.599395 2:0.235729 
1 1:-0.0647113 2:-0.267244 
1 1:-0.599395 2:0.235729 
1 1:-0.0647113 2:-0.267244 
1 1:-0.599395 2:0.235729 
1 1:-0.0647113 2:-0.267244 
1 1:-0.599395 2:0.235729 
1 1:-0.0647113 2:-0.267244 
1 1:-0.599395 2:0.235729 
1 1:-0.0647113 2:-0.267244 
1 1:-0.599395 2:0.235729 
1 1:-0.0647113 2:-0.267244 
1 1:-0.599395 2:0.235729 
1 1:-0.0647113 2:-0.267244 
1 1:-0.599395 2:0.235729 
1 1:-0.0647113 2:-0.267244 
1 1:-0.599395 2:0.235729 
1 1:-0.0647113 2:-0.267244 
1 1:-0.599395 2:0.235729 
1 1:-0.0647113 2:-0.267244 
1 1:-0.141759 2:-0.655556 
1 1:-0.141759 2:-0.655556 
1 1:-0.141759 2:-0.655556 
1 1:-0.141759 2:-0.655556 
1 1:-0.141759 2:-0.655556 
1 1:-0.141759 2:-0.655556 
1 1:-0.141759 2:-0.655556 
1 1:-0.141759 2:-0.655556 
1 1:-0.141759 2:-0.655556 
1 1:-0.141759 2:-0.655556 
1 1:-0.141759 2:-0.655556 
1 1:-0.141759 2:-0.655556 
1 1:-0.141759 2:-0.655556 
1 1:-0.141759 2:-0.655556 
1 1:-0.141759 2:-0.655556 
1 1:-0.141759 2:-0.655556 
1 1:-0.141759 2:-0.655556 
1 1:-0.141759 2:-0.655556 
1 1:-0.141759 2:-0.655556 
1 1:-0.141759 2:-0.655556 
1 1:-0.141759 2:-0.655556 
1 1:-0.141759 2:-0.655556 
1 1:-0.141759 2:-0.655556 
1 1:-0.141759 2:-0.655556 
1 1:-0.141759 2:-0.655556 
1 1:-0.141759 2:-0.655556 
1 1:-0.141759 2:-0.655556 
1 1:-0.141759 2:-0.655556 
1 1:-0.141759 2:-0.655556 
1 1:-0.141759 2:-0.655556 
1 1:-0.141759 2:-0.655556 
1 1:-0.141759 2:-0.655556 
1 1:-0.141759 2:-0.655556 
1 1:-0.141759 2:-0.655556 
1 1:-0.141759 2:-0.655556 
1 1:-0.141759 2:-0.655556 
1 1:-0.141759 2:-0.655556 
1 1:-0.141759 2:-0.655556 
1 1:-0.141759 2:-0.655556 
1 1:-0.141759 2:-0.655556 
1 1:-0.141759 2:-0.655556 
1 1:-0.141759 2:-0.655556 
1 1:-0.141759 2:-0.655556 
1 1:-0.141759 2:-0.655556 
1 1:-0.141759 2:-0.655556 
1 1:-0.141759 2:-0.655556 
1 1:-0.141759 2:-0.655556 
1 1:-0.141759 2:-0.655556 
1 1:-0.141759 2:-0.655556 
1 1:-0.141759 2:-0.655556 
1 1:-0.141759 2:-0.655556 
1 1:-0.141759 2:-0.655556 
1 1:-0.141759 2:-0.655556 
1 1:-0.141759 2:-0.655556 
1 1:-0.141759 2:-0.655556 
1 1:-0.141759 2:-0.655556 
1 1:-0.141759 2:-0.655556 
1 1:-0.141759 2:-0.655556 
1 1:-0.141759 2:-0.655556 
1 1:-0.141759 2:-0.655556 
1 1:-0.141759 2:-0.655556 
1 1:-0.141759 2:-0.655556 
1 1:-0.141759 2:-0.655556 
1 1:-0.141759 2:-0.655556 
1 1:-0.141759 2:-0.655556 
1 1:-0.141759 2:-0.655556 
1 1:-0.141759 2:-0.655556 
1 1:-0.141759 2:-0.655556 
1 1:-0.141759 2:-0.655556 
1 1:-0.141759 2:-0.655556 
1 1:-0.141759 2:-0.655556 
1 1:-0.141759 2:-0.655556 
1 1:-0.141759 2:-0.655556 
1 1:-0.141759 2:-0.655556 
1 1:-0.141759 2:-0.655556 
1 1:-0.141759 2:-0.655556 
1 1:-0.141759 2:-0.655556 
1 1:-0.141759 2:-0.655556 
1 1:-0.141759 2:-0.655556 
1 1:-0.141759 2:-0.655556 
1 1:-0.141759 2:-0.655556 
1 1:-0.141759 2:-0.655556 
1 1:-0.141759 2:-0.655556 
1 1:-0.141759 2:-0.655556 
1 1:-0.141759 2:-0.655556 
1 1:-0.141759 2:-0.655556 
1 1:-0.141759 2:-0.655556 
1 1:-0.141759 2:-0.655556 
1 1:-0.141759 2:-0.655556 
1 1:-0.141759 2:-0.655556 
1 1:-0.141759 2:-0.655556 
1 1:-0.141759 2:-0.655556 
1 1:-0.141759 2:-0.655556 
1 1:-0.141759 2:-0.655556 
1 1:-0.192355 2:0.0567275 
1 1:-0.505629 2:0.26836 
1 1:-0.192355 2:0.0567275 
1 1:-0.505629 2:0.26836 
1 1:-0.192355 2:0.0567275 
1 1:-0.505629 2:0.26836 
1 1:-0.192355 2:0.0567275 
1 1:-0.505629 2:0.26836 
1 1:-0.192355 2:0.0567275 
1 1:-0.505629 2:0.26836 
1 1:-0.192355 2:0.0567275 
1 1:-0.505629 2:0.26836 
1 1:-0.192355 2:0.0567275 
1 1:-0.505629 2:0.26836 
1 1:-0.192355 2:0.0567275 
1 1:-0.505629 2:0.26836 
1 1:-0.192355 2:0.0567275 
1 1:-0.505629 2:0.26836 
1 1:-0.192355 2:0.0567275 
1 1:-0.505629 2:0.26836 
1 1:-0.192355 2:0.0567275 
1 1:-0.505629 2:0.26836 
1 1:-0.192355 2:0.0567275 
1 1:-0.505629 2:0.26836 
1 1:-0.192355 2:0.0567275 
1 1:-0.505629 2:0.26836 
1 1:-0.192355 2:0.0567275 
1 1:-0.505629 2:0.26836 
1 1:-0.192355 2:0.0567275 
1 1:-0.505629 2:0.26836 
1 1:-0.192355 2:0.0567275 
1 1:-0.505629 2:0.26836 
1 1:-0.192355 2:0.0567275 
1 1:-0.505629 2:0.26836 
1 1:-0.192355 2:0.0567275 
1 1:-0.505629 2:0.26836 
1 1:-0.192355 2:0.0567275 
1 1:-0.505629 2:0.26836 
1 1:-0.192355 2:0.0567275 
1 1:-0.505629 2:0.26836 
1 1:-0.192355 2:0.0567275 
1 1:-0.505629 2:0.26836 
1 1:-0.192355 2:0.0567275 
1 1:-0.505629 2:0.26836 
1 1:-0.192355 2:0.0567275 
1 1:-0.505629 2:0.26836 
1 1:-0.192355 2:0.0567275 
1 1:-0.505629 2:0.26836 
1 1:-0.192355 2:0.0567275 
1 1:-0.505629 2:0.26836 
1 1:-0.192355 2:0.0567275 
1 1:-0.505629 2:0.26836 
1 1:-0.192355 2:0.0567275 
1 1:-0.505629 2:0.26836 
1 1:-0.192355 2:0.0567275 
1 1:-0.505629 2:0.26836 
1 1:-0.192355 2:0.0567275 
1 1:-0.505629 2:0.26836 
1 1:-0.192355 2:0.0567275 
1 1:-0.505629 2:0.26836 
1 1:-0.192355 2:0.0567275 
1 1:-0.505629 2:0.26836 
1 1:-0.192355 2:0.0567275 
1 1:-0.505629 2:0.26836 
1 1:-0.192355 2:0.0567275 
1 1:-0.505629 2:0.26836 
1 1:-0.192355 2:0.0567275 
1 1:-0.505629 2:0.26836 
1 1:-0.192355 2:0.0567275 
1 1:-0.505629 2:0.26836 
1 1:-0.192355 2:0.0567275 
1 1:-0.505629 2:0.26836 
1 1:-0.192355 2:0.0567275 
1 1:-0.505629 2:0.26836 
1 1:-0.192355 2:0.0567275 
1 1:-0.505629 2:0.26836 
1 1:-0.192355 2:0.0567275 
1 1:-0.505629 2:0.26836 
1 1:-0.192355 2:0.0567275 
1 1:-0.505629 2:0.26836 
1 1:-0.192355 2:0.0567275 
1 1:-0.505629 2:0.26836 
1 1:-0.192355 2:0.0567275 
1 1:-0.505629 2:0.26836 
1 1:-0.192355 2:0.0567275 
1 1:-0.505629 2:0.26836 
1 1:-0.192355 2:0.0567275 
1 1:-0.505629 2:0.26836 
1 1:-0.192355 2:0.0567275 
1 1:-0.505629 2:0.26836 
1 1:-0.192355 2:0.0567275 
1 1:-0.505629 2:0.26836 
1 1:-0.192355 2:0.0567275 
1 1:-0.505629 2:0.26836 
1 1:-0.192355 2:0.0567275 
1 1:-0.505629 2:0.26836 
1 1:-0.192355 2:0.0567275 
1 1:-0.505629 2:0.26836 
1 1:-0.192355 2:0.0567275 
1 1:-0.505629 2:0.26836 
1 1:-0.192355 2:0.0567275 
1 1:-0.505629 2:0.26836 
1 1:-0.192355 2:0.0567275 
1 1:-0.505629 2:0.26836 
1 1:-0.192355 2:0.0567275 
1 1:-0.505629 2:0.26836 
1 1:-0.192355 2:0.0567275 
1 1:-0.505629 2:0.26836 
1 1:-0.192355 2:0.0567275 
1 1:-0.505629 2:0.26836 
1 1:-0.192355 2:0.0567275 
1 1:-0.505629 2:0.26836 
1 1:-0.192355 2:0.0567275 
1 1:-0.505629 2:0.26836 
1 1:-0.192355 2:0.0567275 
1 1:-0.505629 2:0.26836 
1 1:-0.192355 2:0.0567275 
1 1:-0.505629 2:0.26836 
1 1:-0.192355 2:0.0567275 
1 1:-0.505629 2:0.26836 
1 1:-0.192355 2:0.0567275 
1 1:-0.505629 2:0.26836 
1 1:-0.192355 2:0.0567275 
1 1:-0.505629 2:0.26836 
1 1:-0.192355 2:0.0567275 
1 1:-0.505629 2:0.26836 
1 1:-0.192355 2:0.0567275 
1 1:-0.505629 2:0.26836 
1 1:-0.192355 2:0.0567275 
1 1:-0.505629 2:0.26836 
1 1:-0.192355 2:0.0567275 
1 1:-0.505629 2:0.26836 
1 1:-0.192355 2:0.0567275 
1 1:-0.505629 2:0.26836 
1 1:-0.192355 2:0.0567275 
1 1:-0.505629 2:0.26836 
1 1:-0.192355 2:0.0567275 
1 1:-0.505629 2:0.26836 
1 1:-0.192355 2:0.0567275 
1 1:-0.505629 2:0.26836 
1 1:-0.192355 2:0.0567275 
1 1:-0.505629 2:0.26836 
1 1:-0.192355 2:0.0567275 
1 1:-0.505629 2:0.26836 
1 1:-0.192355 2:0.0567275 
1 1:-0.505629 2:0.26836 
1 1:-0.192355 2:0.0567275 
1 1:-0.505629 2:0.26836 
1 1:-0.192355 2:0.0567275 
1 1:-0.505629 2:0.26836 
1 1:-0.192355 2:0.0567275 
1 1:-0.505629 2:0.26836 
1 1:-0.192355 2:0.0567275 
1 1:-0.505629 2:0.26836 
1 1:-0.192355 2:0.0567275 
1 1:-0.505629 2:0.26836 
1 1:-0.192355 2:0.0567275 
1 1:-0.505629 2:0.26836 
1 1:-0.192355 2:0.0567275 
1 1:-0.505629 2:0.26836 
1 1:-0.192355 2:0.0567275 
1 1:-0.505629 2:0.26836 
1 1:-0.192355 2:0.0567275 
1 1:-0.505629 2:0.26836 
1 1:-0.192355 2:0.0567275 
1 1:-0.505629 2:0.26836 
1 1:-0.192355 2:0.0567275 
1 1:-0.505629 2:0.26836 
1 1:-0.192355 2:0.0567275 
1 1:-0.505629 2:0.26836 
1 1:-0.192355 2:0.0567275 
1 1:-0.505629 2:0.26836 
1 1:-0.192355 2:0.0567275 
1 1:-0.505629 2:0.26836 
1 1:-0.192355 2:0.0567275 
1 1:-0.505629 2:0.26836 
1 1:-0.192355 2:0.0567275 
1 1:-0.505629 2:0.26836 
1 1:-0.192355 2:0.0567275 
1 1:-0.505629 2:0.26836 
1 1:-0.192355 2:0.0567275 
1 1:-0.505629 2:0.26836 
1 1:-0.192355 2:0.0567275 
1 1:-0.505629 2:0.26836 
1 1:-0.192355 2:0.0567275 
1 1:-0.505629 2:0.26836 
1 1:-0.367023 2:0.222554 
1 1:-0.367023 2:0.222554 
1 1:-0.367023 2:0.222554 
1 1:-0.367023 2:0.222554 
1 1:-0.367023 2:0.222554 
1 1:-0.367023 2:0.222554 
1 1:-0.367023 2:0.222554 
1 1:-0.367023 2:0.222554 
1 1:-0.367023 2:0.222554 
1 1:-0.367023 2:0.222554 
1 1:-0.367023 2:0.222554 
1 1:-0.367023 2:0.222554 
1 1:-0.367023 2:0.222554 
1 1:-0.367023 2:0.222554 
1 1:-0.367023 2:0.222554 
1 1:-0.367023 2:0.222554 
1 1:-0.367023 2:0.222554 
1 1:-0.367023 2:0.222554 
1 1:-0.367023 2:0.222554 
1 1:-0.367023 2:0.222554 
1 1:-0.367023 2:0.222554 
1 1:-0.367023 2:0.222554 
1 1:-0.367023 2:0.222554 
1 1:-0.367023 2:0.222554 
1 1:-0.367023 2:0.222554 
1 1:-0.367023 2:0.222554 
1 1:-0.367023 2:0.222554 
1 1:-0.367023 2:0.222554 
1 1:-0.367023 2:0.222554 
1 1:-0.367023 2:0.222554 
1 1:-0.367023 2:0.222554 
1 1:-0.367023 2:0.222554 
1 1:-0.367023 2:0.222554 
1 1:-0.367023 2:0.222554 
1 1:-0.367023 2:0.222554 
1 1:-0.367023 2:0.222554 
1 1:-0.367023 2:0.222554 
1 1:-0.367023 2:0.222554 
1 1:-0.367023 2:0.222554 
1 1:-0.367023 2:0.222554 
1 1:-0.367023 2:0.222554 
1 1:-0.367023 2:0.222554 
1 1:-0.367023 2:0.222554 
1 1:-0.367023 2:0.222554 
1 1:-0.367023 2:0.222554 
1 1:-0.367023 2:0.222554 
1 1:-0.367023 2:0.222554 
1 1:-0.367023 2:0.222554 
1 1:-0.367023 2:0.222554 
1 1:-0.367023 2:0.222554 
1 1:-0.367023 2:0.222554 
1 1:-0.367023 2:0.222554 
1 1:-0.367023 2:0.222554 
1 1:-0.367023 2:0.222554 
1 1:-0.367023 2:0.222554 
1 1:-0.367023 2:0.222554 
1 1:-0.367023 2:0.222554 
1 1:-0.367023 2:0.222554 
1 1:-0.367023 2:0.222554 
1 1:-0.367023 2:0.222554 
1 1:-0.367023 2:0.222554 
1 1:-0.367023 2:0.222554 
1 1:-0.367023 2:0.222554 
1 1:-0.367023 2:0.222554 
1 1:-0.367023 2:0.222554 
1 1:-0.367023 2:0.222554 
1 1:-0.367023 2:0.222554 
1 1:-0.367023 2:0.222554 
1 1:-0.367023 2:0.222554 
1 1:-0.367023 2:0.222554 
1 1:-0.367023 2:0.222554 
1 1:-0.367023 2:0.222554 
1 1:-0.367023 2:0.222554 
1 1:-0.367023 2:0.222554 
1 1:-0.367023 2:0.222554 
1 1:-0.367023 2:0.222554 
1 1:-0.367023 2:0.222554 
1 1:-0.367023 2:0.222554 
1 1:-0.367023 2:0.222554 
1 1:-0.367023 2:0.222554 
1 1:-0.367023 2:0.222554 
1 1:-0.367023 2:0.222554 
1 1:-0.367023 2:0.222554 
1 1:-0.367023 2:0.222554 
1 1:-0.367023 2:0.222554 
1 1:-0.367023 2:0.222554 
1 1:-0.367023 2:0.222554 
1 1:-0.367023 2:0.222554 
1 1:-0.367023 2:0.222554 
1 1:-0.367023 2:0.222554 
1 1:-0.367023 2:0.222554 
1 1:-0.367023 2:0.222554 
1 1:-0.367023 2:0.222554 
1 1:-0.367023 2:0.222554 
1 1:-0.367023 2:0.222554 
1 1:-0.367023 2:0.222554 
1 1:-0.329436 2:0.0884352 
1 1:-0.329436 2:0.0884352 
1 1:-0.329436 2:0.0884352 
1 1:-0.329436 2:0.0884352 
1 1:-0.329436 2:0.0884352 
1 1:-0.329436 2:0.0884352 
1 1:-0.329436 2:0.0884352 
1 1:-0.329436 2:0.0884352 
1 1:-0.329436 2:0.0884352 
1 1:-0.329436 2:0.0884352 
1 1:-0.329436 2:0.0884352 
1 1:-0.329436 2:0.0884352 
1 1:-0.329436 2:0.0884352 
1 1:-0.329436 2:0.0884352 
1 1:-0.329436 2:0.0884352 
1 1:-0.329436 2:0.0884352 
1 1:-0.329436 2:0.0884352 
1 1:-0.329436 2:0.0884352 
1 1:-0.329436 2:0.0884352 
1 1:-0.329436 2:0.0884352 
1 1:-0.329436 2:0.0884352 
1 1:-0.329436 2:0.0884352 
1 1:-0.329436 2:0.0884352 
1 1:-0.329436 2:0.0884352 
1 1:-0.329436 2:0.0884352 
1 1:-0.329436 2:0.0884352 
1 1:-0.329436 2:0.0884352 
1 1:-0.329436 2:0.0884352 
1 1:-0.329436 2:0.0884352 
1 1:-0.329436 2:0.0884352 
1 1:-0.329436 2:0.0884352 
1 1:-0.329436 2:0.0884352 
1 1:-0.329436 2:0.0884352 
1 1:-0.329436 2:0.0884352 
1 1:-0.329436 2:0.0884352 
1 1:-0.329436 2:0.0884352 
1 1:-0.329436 2:0.0884352 
1 1:-0.329436 2:0.0884352 
1 1:-0.329436 2:0.0884352 
1 1:-0.329436 2:0.0884352 
1 1:-0.329436 2:0.0884352 
1 1:-0.329436 2:0.0884352 
1 1:-0.329436 2:0.0884352 
1 1:-0.329436 2:0.0884352 
1 1:-0.329436 2:0.0884352 
1 1:-0.329436 2:0.0884352 
1 1:-0.329436 2:0.0884352 
1 1:-0.329436 2:0.0884352 
1 1:-0.329436 2:0.0884352 
1 1:-0.329436 2:0.0884352 
1 1:-0.329436 2:0.0884352 
1 1:-0.329436 2:0.0884352 
1 1:-0.329436 2:0.0884352 
1 1:-0.329436 2:0.0884352 
1 1:-0.329436 2:0.0884352 
1 1:-0.329436 2:0.0884352 
1 1:-0.329436 2:0.0884352 
1 1:-0.329436 2:0.0884352 
1 1:-0.329436 2:0.0884352 
1 1:-0.329436 2:0.0884352 
1 1:-0.329436 2:0.0884352 
1 1:-0.329436 2:0.0884352 
1 1:-0.329436 2:0.0884352 
1 1:-0.329436 2:0.0884352 
1 1:-0.329436 2:0.0884352 
1 1:-0.329436 2:0.0884352 
1 1:-0.329436 2:0.0884352 
1 1:-0.329436 2:0.0884352 
1 1:-0.329436 2:0.0884352 
1 1:-0.329436 2:0.0884352 
1 1:-0.329436 2:0.0884352 
1 1:-0.329436 2:0.0884352 
1 1:-0.329436 2:0.0884352 
1 1:-0.329436 2:0.0884352 
1 1:-0.329436 2:0.0884352 
1 1:-0.329436 2:0.0884352 
1 1:-0.329436 2:0.0884352 
1 1:-0.329436 2:0.0884352 
1 1:-0.329436 2:0.0884352 
1 1:-0.329436 2:0.0884352 
1 1:-0.329436 2:0.0884352 
1 1:-0.329436 2:0.0884352 
1 1:-0.329436 2:0.0884352 
1 1:-0.329436 2:0.0884352 
1 1:-0.329436 2:0.0884352 
1 1:-0.329436 2:0.0884352 
1 1:-0.329436 2:0.0884352 
1 1:-0.329436 2:0.0884352 
1 1:-0.329436 2:0.0884352 
1 1:-0.329436 2:0.0884352 
1 1:-0.117768 2:-0.249889 
1 1:-0.117768 2:-0.249889 
1 1:-0.117768 2:-0.249889 
1 1:-0.117768 2:-0.249889 
1 1:-0.117768 2:-0.249889 
1 1:-0.117768 2:-0.249889 
1 1:-0.117768 2:-0.249889 
1 1:-0.117768 2:-0.249889 
1 1:-0.117768 2:-0.249889 
1 1:-0.117768 2:-0.249889 
1 1:-0.117768 2:-0.249889 
1 1:-0.117768 2:-0.249889 
1 1:-0.117768 2:-0.249889 
1 1:-0.117768 2:-0.249889 
1 1:-0.117768 2:-0.249889 
1 1:-0.117768 2:-0.249889 
1 1:-0.117768 2:-0.249889 
1 1:-0.117768 2:-0.249889 
1 1:-0.117768 2:-0.249889 
1 1:-0.117768 2:-0.249889 
1 1:-0.117768 2:-0.249889 
1 1:-0.117768 2:-0.249889 
1 1:-0.117768 2:-0.249889 
1 1:-0.117768 2:-0.249889 
1 1:-0.117768 2:-0.249889 
1 1:-0.117768 2:-0.249889 
1 1:-0.117768 2:-0.249889 
1 1:-0.117768 2:-0.249889 
1 1:-0.117768 2:-0.249889 
1 1:-0.117768 2:-0.249889 
1 1:-0.117768 2:-0.249889 
1 1:-0.117768 2:-0.249889 
1 1:-0.117768 2:-0.249889 
1 1:-0.117768 2:-0.249889 
1 1:-0.117768 2:-0.249889 
1 1:-0.117768 2:-0.249889 
1 1:-0.117768 2:-0.249889 
1 1:-0.117768 2:-0.249889 
1 1:-0.117768 2:-0.249889 
1 1:-0.117768 2:-0.249889 
1 1:-0.117768 2:-0.249889 
1 1:-0.117768 2:-0.249889 
1 1:-0.117768 2:-0.249889 
1 1:-0.117768 2:-0.249889 
1 1:-0.117768 2:-0.249889 
1 1:-0.117768 2:-0.249889 
1 1:-0.117768 2:-0.249889 
1 1:-0.117768 2:-0.249889 
1 1:-0.117768 2:-0.249889 
1 1:-0.117768 2:-0.249889 
1 1:-0.117768 2:-0.249889 
1 1:-0.117768 2:-0.249889 
1 1:-0.117768 2:-0.249889 
1 1:-0.117768 2:-0.249889 
1 1:-0.117768 2:-0.249889 
1 1:-0.117768 2:-0.249889 
1 1:-0.117768 2:-0.249889 
1 1:-0.117768 2:-0.249889 
1 1:-0.117768 2:-0.249889 
1 1:-0.117768 2:-0.249889 
1 1:-0.117768 2:-0.249889 
1 1:-0.117768 2:-0.249889 
1 1:-0.117768 2:-0.249889 
1 1:-0.117768 2:-0.249889 
1 1:-0.117768 2:-0.249889 
1 1:-0.117768 2:-0.249889 
1 1:-0.117768 2:-0.249889 
1 1:-0.117768 2:-0.249889 
1 1:-0.117768 2:-0.249889 
1 1:-0.117768 2:-0.249889 
1 1:-0.117768 2:-0.249889 
1 1:-0.117768 2:-0.249889 
1 1:-0.117768 2:-0.249889 
1 1:-0.117768 2:-0.249889 
1 1:-0.117768 2:-0.249889 
1 1:-0.117768 2:-0.249889 
1 1:-0.117768 2:-0.249889 
1 1:-0.117768 2:-0.249889 
1 1:-0.117768 2:-0.249889 
1 1:-0.117768 2:-0.249889 
1 1:-0.117768 2:-0.249889 
1 1:-0.117768 2:-0.249889 
1 1:-0.117768 2:-0.249889 
1 1:-0.117768 2:-0.249889 
1 1:-0.117768 2:-0.249889 
1 1:-0.117768 2:-0.249889 
1 1:-0.117768 2:-0.249889 
1 1:-0.117768 2:-0.249889 
1 1:-0.117768 2:-0.249889 
1 1:-0.117768 2:-0.249889 
1 1:-0.117768 2:-0.249889 
1 1:-0.117768 2:-0.249889 
1 1:-0.117768 2:-0.249889 
1 1:-0.117768 2:-0.249889 
1 1:-0.117768 2:-0.249889 
1 1:-0.970562 2:-0.970445 
1 1:-0.970562 2:-0.970445 
1 1:-0.970562 2:-0.970445 
1 1:-0.970562 2:-0.970445 
1 1:-0.970562 2:-0.970445 
1 1:-0.970562 2:-0.970445 
1 1:-0.970562 2:-0.970445 
1 1:-0.970562 2:-0.970445 
1 1:-0.970562 2:-0.970445 
1 1:-0.970562 2:-0.970445 
1 1:-0.970562 2:-0.970445 
1 1:-0.970562 2:-0.970445 
1 1:-0.970562 2:-0.970445 
1 1:-0.970562 2:-0.970445 
1 1:-0.970562 2:-0.970445 
1 1:-0.970562 2:-0.970445 
1 1:-0.970562 2:-0.970445 
1 1:-0.970562 2:-0.970445 
1 1:-0.970562 2:-0.970445 
1 1:-0.970562 2:-0.970445 
1 1:-0.970562 2:-0.970445 
1 1:-0.970562 2:-0.970445 
1 1:-0.970562 2:-0.970445 
1 1:-0.970562 2:-0.970445 
1 1:-0.970562 2:-0.970445 
1 1:-0.970562 2:-0.970445 
1 1:-0.970562 2:-0.970445 
1 1:-0.970562 2:-0.970445 
1 1:-0.970562 2:-0.970445 
1 1:-0.970562 2:-0.970445 
1 1:-0.970562 2:-0.970445 
1 1:-0.970562 2:-0.970445 
1 1:-0.970562 2:-0.970445 
1 1:-0.970562 2:-0.970445 
1 1:-0.970562 2:-0.970445 
1 1:-0.970562 2:-0.970445 
1 1:-0.970562 2:-0.970445 
1 1:-0.970562 2:-0.970445 
1 1:-0.970562 2:-0.970445 
1 1:-0.970562 2:-0.970445 
1 1:-0.970562 2:-0.970445 
1 1:-0.970562 2:-0.970445 
1 1:-0.970562 2:-0.970445 
1 1:-0.970562 2:-0.970445 
1 1:-0.970562 2:-0.970445 
1 1:-0.970562 2:-0.970445 
1 1:-0.970562 2:-0.970445 
1 1:-0.970562 2:-0.970445 
1 1:-0.970562 2:-0.970445 
1 1:-0.970562 2:-0.970445 
1 1:-0.970562 2:-0.970445 
1 1:-0.970562 2:-0.970445 
1 1:-0.970562 2:-0.970445 
1 1:-0.970562 2:-0.970445 
1 1:-0.970562 2:-0.970445 
1 1:-0.970562 2:-0.970445 
1 1:-0.970562 2:-0.970445 
1 1:-0.970562 2:-0.970445 
1 1:-0.970562 2:-0.970445 
1 1:-0.970562 2:-0.970445 
1 1:-0.970562 2:-0.970445 
1 1:-0.970562 2:-0.970445 
1 1:-0.970562 2:-0.970445 
1 1:-0.970562 2:-0.970445 
1 1:-0.970562 2:-0.970445 
1 1:-0.970562 2:-0.970445 
1 1:-0.970562 2:-0.970445 
1 1:-0.970562 2:-0.970445 
1 1:-0.970562 2:-0.970445 
1 1:-0.970562 2:-0.970445 
1 1:-0.970562 2:-0.970445 
1 1:-0.970562 2:-0.970445 
1 1:-0.970562 2:-0.970445 
1 1:-0.970562 2:-0.970445 
1 1:-0.970562 2:-0.970445 
1 1:-0.970562 2:-0.970445 
1 1:-0.970562 2:-0.970445 
1 1:-0.970562 2:-0.970445 
1 1:-0.970562 2:-0.970445 
1 1:-0.970562 2:-0.970445 
1 1:-0.970562 2:-0.970445 
1 1:-0.970562 2:-0.970445 
1 1:-0.970562 2:-0.970445 
1 1:-0.970562 2:-0.970445 
1 1:-0.970562 2:-0.970445 
1 1:-0.970562 2:-0.970445 
1 1:-0.970562 2:-0.970445 
1 1:-0.970562 2:-0.970445 
1 1:-0.970562 2:-0.970445 
1 1:-0.970562 2:-0.970445 
1 1:-0.970562 2:-0.970445 
1 1:-0.970562 2:-0.970445 
1 1:-0.235737 2:-0.0553404 
1 1:-0.176644 2:-0.622638 
1 1:-0.98264 2:-0.974555 
1 1:-0.235737 2:-0.0553404 
1 1:-0.176644 2:-0.622638 
1 1:-0.98264 2:-0.974555 
1 1:-0.235737 2:-0.0553404 
1 1:-0.176644 2:-0.622638 
1 1:-0.98264 2:-0.974555 
1 1:-0.235737 2:-0.0553404 
1 1:-0.176644 2:-0.622638 
1 1:-0.98264 2:-0.974555 
1 1:-0.235737 2:-0.0553404 
1 1:-0.176644 2:-0.622638 
1 1:-0.98264 2:-0.974555 
1 1:-0.235737 2:-0.0553404 
1 1:-0.176644 2:-0.622638 
1 1:-0.98264 2:-0.974555 
1 1:-0.235737 2:-0.0553404 
1 1:-0.176644 2:-0.622638 
1 1:-0.98264 2:-0.974555 
1 1:-0.235737 2:-0.0553404 
1 1:-0.176644 2:-0.622638 
1 1:-0.98264 2:-0.974555 
1 1:-0.235737 2:-0.0553404 
1 1:-0.176644 2:-0.622638 
1 1:-0.98264 2:-0.974555 
1 1:-0.235737 2:-0.0553404 
1 1:-0.176644 2:-0.622638 
1 1:-0.98264 2:-0.974555 
1 1:-0.235737 2:-0.0553404 
1 1:-0.176644 2:-0.622638 
1 1:-0.98264 2:-0.974555 
1 1:-0.235737 2:-0.0553404 
1 1:-0.176644 2:-0.622638 
1 1:-0.98264 2:-0.974555 
1 1:-0.235737 2:-0.0553404 
1 1:-0.176644 2:-0.622638 
1 1:-0.98264 2:-0.974555 
1 1:-0.235737 2:-0.0553404 
1 1:-0.176644 2:-0.622638 
1 1:-0.98264 2:-0.974555 
1 1:-0.235737 2:-0.0553404 
1 1:-0.176644 2:-0.622638 
1 1:-0.98264 2:-0.974555 
1 1:-0.235737 2:-0.0553404 
1 1:-0.176644 2:-0.622638 
1 1:-0.98264 2:-0.974555 
1 1:-0.235737 2:-0.0553404 
1 1:-0.176644 2:-0.622638 
1 1:-0.98264 2:-0.974555 
1 1:-0.235737 2:-0.0553404 
1 1:-0.176644 2:-0.622638 
1 1:-0.98264 2:-0.974555 
1 1:-0.235737 2:-0.0553404 
1 1:-0.176644 2:-0.622638 
1 1:-0.98264 2:-0.974555 
1 1:-0.235737 2:-0.0553404 
1 1:-0.176644 2:-0.622638 
1 1:-0.98264 2:-0.974555 
1 1:-0.235737 2:-0.0553404 
1 1:-0.176644 2:-0.622638 
1 1:-0.98264 2:-0.974555 
1 1:-0.235737 2:-0.0553404 
1 1:-0.176644 2:-0.622638 
1 1:-0.98264 2:-0.974555 
1 1:-0.235737 2:-0.0553404 
1 1:-0.176644 2:-0.622638 
1 1:-0.98264 2:-0.974555 
1 1:-0.235737 2:-0.0553404 
1 1:-0.176644 2:-0.622638 
1 1:-0.98264 2:-0.974555 
1 1:-0.235737 2:-0.0553404 
1 1:-0.176644 2:-0.622638 
1 1:-0.98264 2:-0.974555 
1 1:-0.235737 2:-0.0553404 
1 1:-0.176644 2:-0.622638 
1 1:-0.98264 2:-0.974555 
1 1:-0.235737 2:-0.0553404 
1 1:-0.176644 2:-0.622638 
1 1:-0.98264 2:-0.974555 
1 1:-0.235737 2:-0.0553404 
1 1:-0.176644 2:-0.622638 
1 1:-0.98264 2:-0.974555 
1 1:-0.235737 2:-0.0553404 
1 1:-0.176644 2:-0.622638 
1 1:-0.98264 2:-0.974555 
1 1:-0.235737 2:-0.0553404 
1 1:-0.176644 2:-0.622638 
1 1:-0.98264 2:-0.974555 
1 1:-0.235737 2:-0.0553404 
1 1:-0.176644 2:-0.622638 
1 1:-0.98264 2:-0.974555 
1 1:-0.235737 2:-0.0553404 
1 1:-0.176644 2:-0.622638 
1 1:-0.98264 2:-0.974555 
1 1:-0.235737 2:-0.0553404 
1 1:-0.176644 2:-0.622638 
1 1:-0.98264 2:-0.974555 
1 1:-0.235737 2:-0.0553404 
1 1:-0.176644 2:-0.622638 
1 1:-0.98264 2:-0.974555 
1 1:-0.235737 2:-0.0553404 
1 1:-0.176644 2:-0.622638 
1 1:-0.98264 2:-0.974555 
1 1:-0.235737 2:-0.0553404 
1 1:-0.176644 2:-0.622638 
1 1:-0.98264 2:-0.974555 
1 1:-0.235737 2:-0.0553404 
1 1:-0.176644 2:-0.622638 
1 1:-0.98264 2:-0.974555 
1 1:-0.235737 2:-0.0553404 
1 1:-0.176644 2:-0.622638 
1 1:-0.98264 2:-0.974555 
1 1:-0.235737 2:-0.0553404 
1 1:-0.176644 2:-0.622638 
1 1:-0.98264 2:-0.974555 
1 1:-0.235737 2:-0.0553404 
1 1:-0.176644 2:-0.622638 
1 1:-0.98264 2:-0.974555 
1 1:-0.235737 2:-0.0553404 
1 1:-0.176644 2:-0.622638 
1 1:-0.98264 2:-0.974555 
1 1:-0.235737 2:-0.0553404 
1 1:-0.176644 2:-0.622638 
1 1:-0.98264 2:-0.974555 
1 1:-0.235737 2:-0.0553404 
1 1:-0.176644 2:-0.622638 
1 1:-0.98264 2:-0.974555 
1 1:-0.235737 2:-0.0553404 
1 1:-0.176644 2:-0.622638 
1 1:-0.98264 2:-0.974555 
1 1:-0.235737 2:-0.0553404 
1 1:-0.176644 2:-0.622638 
1 1:-0.98264 2:-0.974555 
1 1:-0.235737 2:-0.0553404 
1 1:-0.176644 2:-0.622638 
1 1:-0.98264 2:-0.974555 
1 1:-0.235737 2:-0.0553404 
1 1:-0.176644 2:-0.622638 
1 1:-0.98264 2:-0.974555 
1 1:-0.235737 2:-0.0553404 
1 1:-0.176644 2:-0.622638 
1 1:-0.98264 2:-0.974555 
1 1:-0.235737 2:-0.0553404 
1 1:-0.176644 2:-0.622638 
1 1:-0.98264 2:-0.974555 
1 1:-0.235737 2:-0.0553404 
1 1:-0.176644 2:-0.622638 
1 1:-0.98264 2:-0.974555 
1 1:-0.235737 2:-0.0553404 
1 1:-0.176644 2:-0.622638 
1 1:-0.98264 2:-0.974555 
1 1:-0.235737 2:-0.0553404 
1 1:-0.176644 2:-0.622638 
1 1:-0.98264 2:-0.974555 
1 1:-0.235737 2:-0.0553404 
1 1:-0.176644 2:-0.622638 
1 1:-0.98264 2:-0.974555 
1 1:-0.235737 2:-0.0553404 
1 1:-0.176644 2:-0.622638 
1 1:-0.98264 2:-0.974555 
1 1:-0.235737 2:-0.0553404 
1 1:-0.176644 2:-0.622638 
1 1:-0.98264 2:-0.974555 
1 1:-0.235737 2:-0.0553404 
1 1:-0.176644 2:-0.622638 
1 1:-0.98264 2:-0.974555 
1 1:-0.235737 2:-0.0553404 
1 1:-0.176644 2:-0.622638 
1 1:-0.98264 2:-0.974555 
1 1:-0.235737 2:-0.0553404 
1 1:-0.176644 2:-0.622638 
1 1:-0.98264 2:-0.974555 
1 1:-0.235737 2:-0.0553404 
1 1:-0.176644 2:-0.622638 
1 1:-0.98264 2:-0.974555 
1 1:-0.235737 2:-0.0553404 
1 1:-0.176644 2:-0.622638 
1 1:-0.98264 2:-0.974555 
1 1:-0.235737 2:-0.0553404 
1 1:-0.176644 2:-0.622638 
1 1:-0.98264 2:-0.974555 
1 1:-0.235737 2:-0.0553404 
1 1:-0.176644 2:-0.622638 
1 1:-0.98264 2:-0.974555 
1 1:-0.235737 2:-0.0553404 
1 1:-0.176644 2:-0.622638 
1 1:-0.98264 2:-0.974555 
1 1:-0.235737 2:-0.0553404 
1 1:-0.176644 2:-0.622638 
1 1:-0.98264 2:-0.974555 
1 1:-0.235737 2:-0.0553404 
1 1:-0.176644 2:-0.622638 
1 1:-0.98264 2:-0.974555 
1 1:-0.235737 2:-0.0553404 
1 1:-0.176644 2:-0.622638 
1 1:-0.98264 2:-0.974555 
1 1:-0.235737 2:-0.0553404 
1 1:-0.176644 2:-0.622638 
1 1:-0.98264 2:-0.974555 
1 1:-0.235737 2:-0.0553404 
1 1:-0.176644 2:-0.622638 
1 1:-0.98264 2:-0.974555 
1 1:-0.235737 2:-0.0553404 
1 1:-0.176644 2:-0.622638 
1 1:-0.98264 2:-0.974555 
1 1:-0.235737 2:-0.0553404 
1 1:-0.176644 2:-0.622638 
1 1:-0.98264 2:-0.974555 
1 1:-0.235737 2:-0.0553404 
1 1:-0.176644 2:-0.622638 
1 1:-0.98264 2:-0.974555 
1 1:-0.235737 2:-0.0553404 
1 1:-0.176644 2:-0.622638 
1 1:-0.98264 2:-0.974555 
1 1:-0.235737 2:-0.0553404 
1 1:-0.176644 2:-0.622638 
1 1:-0.98264 2:-0.974555 
1 1:-0.235737 2:-0.0553404 
1 1:-0.176644 2:-0.622638 
1 1:-0.98264 2:-0.974555 
1 1:-0.235737 2:-0.0553404 
1 1:-0.176644 2:-0.622638 
1 1:-0.98264 2:-0.974555 
1 1:-0.235737 2:-0.0553404 
1 1:-0.176644 2:-0.622638 
1 1:-0.98264 2:-0.974555 
1 1:-0.235737 2:-0.0553404 
1 1:-0.176644 2:-0.622638 
1 1:-0.98264 2:-0.974555 
1 1:-0.235737 2:-0.0553404 
1 1:-0.176644 2:-0.622638 
1 1:-0.98264 2:-0.974555 
1 1:-0.235737 2:-0.0553404 
1 1:-0.176644 2:-0.622638 
1 1:-0.98264 2:-0.974555 
1 1:-0.235737 2:-0.0553404 
1 1:-0.176644 2:-0.622638 
1 1:-0.98264 2:-0.974555 
1 1:-0.235737 2:-0.0553404 
1 1:-0.176644 2:-0.622638 
1 1:-0.98264 2:-0.974555 
1 1:-0.235737 2:-0.0553404 
1 1:-0.176644 2:-0.622638 
1 1:-0.98264 2:-0.974555 
1 1:-0.235737 2:-0.0553404 
1 1:-0.176644 2:-0.622638 
1 1:-0.98264 2:-0.974555 
1 1:-0.235737 2:-0.0553404 
1 1:-0.176644 2:-0.622638 
1 1:-0.98264 2:-0.974555 
1 1:-0.235737 2:-0.0553404 
1 1:-0.176644 2:-0.622638 
1 1:-0.98264 2:-0.974555 
1 1:-0.235737 2:-0.0553404 
1 1:-0.176644 2:-0.622638 
1 1:-0.98264 2:-0.974555 
1 1:-0.235737 2:-0.0553404 
1 1:-0.176644 2:-0.622638 
1 1:-0.98264 2:-0.974555 
1 1:-0.235737 2:-0.0553404 
1 1:-0.176644 2:-0.622638 
1 1:-0.98264 2:-0.974555 
1 1:-0.235737 2:-0.0553404 
1 1:-0.176644 2:-0.622638 
1 1:-0.98264 2:-0.974555 
1 1:-0.235737 2:-0.0553404 
1 1:-0.176644 2:-0.622638 
1 1:-0.98264 2:-0.974555 
1 1:-0.235737 2:-0.0553404 
1 1:-0.176644 2:-0.622638 
1 1:-0.98264 2:-0.974555 
1 1:-0.235737 2:-0.0553404 
1 1:-0.176644 2:-0.622638 
1 1:-0.98264 2:-0.974555 
1 1:-0.235737 2:-0.0553404 
1 1:-0.176644 2:-0.622638 
1 1:-0.98264 2:-0.974555 
1 1:-0.235737 2:-0.0553404 
1 1:-0.176644 2:-0.622638 
1 1:-0.98264 2:-0.974555 
1 1:-0.235737 2:-0.0553404 
1 1:-0.176644 2:-0.622638 
1 1:-0.98264 2:-0.974555 
1 1:-0.235737 2:-0.0553404 
1 1:-0.176644 2:-0.622638 
1 1:-0.98264 2:-0.974555 
1 1:-0.235737 2:-0.0553404 
1 1:-0.176644 2:-0.622638 
1 1:-0.98264 2:-0.974555 
1 1:-0.235737 2:-0.0553404 
1 1:-0.176644 2:-0.622638 
1 1:-0.98264 2:-0.974555 
1 1:-0.235737 2:-0.0553404 
1 1:-0.176644 2:-0.622638 
1 1:-0.98264 2:-0.974555 
1 1:-0.980081 2:-0.962357 
1 1:-0.980081 2:-0.962357 
1 1:-0.980081 2:-0.962357 
1 1:-0.980081 2:-0.962357 
1 1:-0.980081 2:-0.962357 
1 1:-0.980081 2:-0.962357 
1 1:-0.980081 2:-0.962357 
1 1:-0.980081 2:-0.962357 
1 1:-0.980081 2:-0.962357 
1 1:-0.980081 2:-0.962357 
1 1:-0.980081 2:-0.962357 
1 1:-0.980081 2:-0.962357 
1 1:-0.980081 2:-0.962357 
1 1:-0.980081 2:-0.962357 
1 1:-0.980081 2:-0.962357 
1 1:-0.980081 2:-0.962357 
1 1:-0.980081 2:-0.962357 
1 1:-0.980081 2:-0.962357 
1 1:-0.980081 2:-0.962357 
1 1:-0.980081 2:-0.962357 
1 1:-0.980081 2:-0.962357 
1 1:-0.980081 2:-0.962357 
1 1:-0.980081 2:-0.962357 
1 1:-0.980081 2:-0.962357 
1 1:-0.980081 2:-0.962357 
1 1:-0.980081 2:-0.962357 
1 1:-0.980081 2:-0.962357 
1 1:-0.980081 2:-0.962357 
1 1:-0.980081 2:-0.962357 
1 1:-0.980081 2:-0.962357 
1 1:-0.980081 2:-0.962357 
1 1:-0.980081 2:-0.962357 
1 1:-0.980081 2:-0.962357 
1 1:-0.980081 2:-0.962357 
1 1:-0.980081 2:-0.962357 
1 1:-0.980081 2:-0.962357 
1 1:-0.980081 2:-0.962357 
1 1:-0.980081 2:-0.962357 
1 1:-0.980081 2:-0.962357 
1 1:-0.980081 2:-0.962357 
1 1:-0.980081 2:-0.962357 
1 1:-0.980081 2:-0.962357 
1 1:-0.980081 2:-0.962357 
1 1:-0.980081 2:-0.962357 
1 1:-0.980081 2:-0.962357 
1 1:-0.980081 2:-0.962357 
1 1:-0.980081 2:-0.962357 
1 1:-0.980081 2:-0.962357 
1 1:-0.980081 2:-0.962357 
1 1:-0.980081 2:-0.962357 
1 1:-0.980081 2:-0.962357 
1 1:-0.980081 2:-0.962357 
1 1:-0.980081 2:-0.962357 
1 1:-0.980081 2:-0.962357 
1 1:-0.980081 2:-0.962357 
1 1:-0.980081 2:-0.962357 
1 1:-0.980081 2:-0.962357 
1 1:-0.980081 2:-0.962357 
1 1:-0.980081 2:-0.962357 
1 1:-0.980081 2:-0.962357 
1 1:-0.980081 2:-0.962357 
1 1:-0.980081 2:-0.962357 
1 1:-0.980081 2:-0.962357 
1 1:-0.980081 2:-0.962357 
1 1:-0.980081 2:-0.962357 
1 1:-0.980081 2:-0.962357 
1 1:-0.980081 2:-0.962357 
1 1:-0.980081 2:-0.962357 
1 1:-0.980081 2:-0.962357 
1 1:-0.980081 2:-0.962357 
1 1:-0.980081 2:-0.962357 
1 1:-0.980081 2:-0.962357 
1 1:-0.980081 2:-0.962357 
1 1:-0.980081 2:-0.962357 
1 1:-0.980081 2:-0.962357 
1 1:-0.980081 2:-0.962357 
1 1:-0.980081 2:-0.962357 
1 1:-0.980081 2:-0.962357 
1 1:-0.980081 2:-0.962357 
1 1:-0.980081 2:-0.962357 
1 1:-0.980081 2:-0.962357 
1 1:-0.980081 2:-0.962357 
1 1:-0.980081 2:-0.962357 
1 1:-0.980081 2:-0.962357 
1 1:-0.980081 2:-0.962357 
1 1:-0.980081 2:-0.962357 
1 1:-0.980081 2:-0.962357 
1 1:-0.980081 2:-0.962357 
1 1:-0.980081 2:-0.962357 
1 1:-0.980081 2:-0.962357 
1 1:-0.943606 2:-0.99071 
1 1:-0.943606 2:-0.99071 
1 1:-0.943606 2:-0.99071 
1 1:-0.943606 2:-0.99071 
1 1:-0.943606 2:-0.99071 
1 1:-0.943606 2:-0.99071 
1 1:-0.943606 2:-0.99071 
1 1:-0.943606 2:-0.99071 
1 1:-0.943606 2:-0.99071 
1 1:-0.943606 2:-0.99071 
1 1:-0.943606 2:-0.99071 
1 1:-0.943606 2:-0.99071 
1 1:-0.943606 2:-0.99071 
1 1:-0.943606 2:-0.99071 
1 1:-0.943606 2:-0.99071 
1 1:-0.943606 2:-0.99071 
1 1:-0.943606 2:-0.99071 
1 1:-0.943606 2:-0.99071 
1 1:-0.943606 2:-0.99071 
1 1:-0.943606 2:-0.99071 
1 1:-0.943606 2:-0.99071 
1 1:-0.943606 2:-0.99071 
1 1:-0.943606 2:-0.99071 
1 1:-0.943606 2:-0.99071 
1 1:-0.943606 2:-0.99071 
1 1:-0.943606 2:-0.99071 
1 1:-0.943606 2:-0.99071 
1 1:-0.943606 2:-0.99071 
1 1:-0.943606 2:-0.99071 
1 1:-0.943606 2:-0.99071 
1 1:-0.943606 2:-0.99071 
1 1:-0.943606 2:-0.99071 
1 1:-0.943606 2:-0.99071 
1 1:-0.943606 2:-0.99071 
1 1:-0.943606 2:-0.99071 
1 1:-0.943606 2:-0.99071 
1 1:-0.943606 2:-0.99071 
1 1:-0.943606 2:-0.99071 
1 1:-0.943606 2:-0.99071 
1 1:-0.943606 2:-0.99071 
1 1:-0.943606 2:-0.99071 
1 1:-0.943606 2:-0.99071 
1 1:-0.943606 2:-0.99071 
1 1:-0.943606 2:-0.99071 
1 1:-0.943606 2:-0.99071 
1 1:-0.943606 2:-0.99071 
1 1:-0.943606 2:-0.99071 
1 1:-0.943606 2:-0.99071 
1 1:-0.943606 2:-0.99071 
1 1:-0.943606 2:-0.99071 
1 1:-0.943606 2:-0.99071 
1 1:-0.943606 2:-0.99071 
1 1:-0.943606 2:-0.99071 
1 1:-0.943606 2:-0.99071 
1 1:-0.943606 2:-0.99071 
1 1:-0.943606 2:-0.99071 
1 1:-0.943606 2:-0.99071 
1 1:-0.943606 2:-0.99071 
1 1:-0.943606 2:-0.99071 
1 1:-0.943606 2:-0.99071 
1 1:-0.943606 2:-0.99071 
1 1:-0.943606 2:-0.99071 
1 1:-0.943606 2:-0.99071 
1 1:-0.943606 2:-0.99071 
1 1:-0.943606 2:-0.99071 
1 1:-0.943606 2:-0.99071 
1 1:-0.943606 2:-0.99071 
1 1:-0.943606 2:-0.99071 
1 1:-0.943606 2:-0.99071 
1 1:-0.943606 2:-0.99071 
1 1:-0.943606 2:-0.99071 
1 1:-0.943606 2:-0.99071 
1 1:-0.943606 2:-0.99071 
1 1:-0.943606 2:-0.99071 
1 1:-0.943606 2:-0.99071 
1 1:-0.943606 2:-0.99071 
1 1:-0.943606 2:-0.99071 
1 1:-0.943606 2:-0.99071 
1 1:-0.943606 2:-0.99071 
1 1:-0.943606 2:-0.99071 
1 1:-0.943606 2:-0.99071 
1 1:-0.943606 2:-0.99071 
1 1:-0.943606 2:-0.99071 
1 1:-0.943606 2:-0.99071 
1 1:-0.943606 2:-0.99071 
1 1:-0.943606 2:-0.99071 
1 1:-0.943606 2:-0.99071 
1 1:-0.943606 2:-0.99071 
1 1:-0.943606 2:-0.99071 
1 1:-0.943606 2:-0.99071 
1 1:-0.943606 2:-0.99071 
1 1:-0.943606 2:-0.99071 
1 1:-0.943606 2:-0.99071 
1 1:-0.943606 2:-0.99071 
1 1:-0.943606 2:-0.99071 
1 1:-0.943606 2:-0.99071 
1 1:-0.975685 2:-0.973282 
1 1:-0.975685 2:-0.973282 
1 1:-0.975685 2:-0.973282 
1 1:-0.975685 2:-0.973282 
1 1:-0.975685 2:-0.973282 
1 1:-0.975685 2:-0.973282 
1 1:-0.975685 2:-0.973282 
1 1:-0.975685 2:-0.973282 
1 1:-0.975685 2:-0.973282 
1 1:-0.975685 2:-0.973282 
1 1:-0.975685 2:-0.973282 
1 1:-0.975685 2:-0.973282 
1 1:-0.975685 2:-0.973282 
1 1:-0.975685 2:-0.973282 
1 1:-0.975685 2:-0.973282 
1 1:-0.975685 2:-0.973282 
1 1:-0.975685 2:-0.973282 
1 1:-0.975685 2:-0.973282 
1 1:-0.975685 2:-0.973282 
1 1:-0.975685 2:-0.973282 
1 1:-0.975685 2:-0.973282 
1 1:-0.975685 2:-0.973282 
1 1:-0.975685 2:-0.973282 
1 1:-0.975685 2:-0.973282 
1 1:-0.975685 2:-0.973282 
1 1:-0.975685 2:-0.973282 
1 1:-0.975685 2:-0.973282 
1 1:-0.975685 2:-0.973282 
1 1:-0.975685 2:-0.973282 
1 1:-0.975685 2:-0.973282 
1 1:-0.975685 2:-0.973282 
1 1:-0.975685 2:-0.973282 
1 1:-0.975685 2:-0.973282 
1 1:-0.975685 2:-0.973282 
1 1:-0.975685 2:-0.973282 
1 1:-0.975685 2:-0.973282 
1 1:-0.975685 2:-0.973282 
1 1:-0.975685 2:-0.973282 
1 1:-0.975685 2:-0.973282 
1 1:-0.975685 2:-0.973282 
1 1:-0.975685 2:-0.973282 
1 1:-0.975685 2:-0.973282 
1 1:-0.975685 2:-0.973282 
1 1:-0.975685 2:-0.973282 
1 1:-0.975685 2:-0.973282 
1 1:-0.975685 2:-0.973282 
1 1:-0.975685 2:-0.973282 
1 1:-0.975685 2:-0.973282 
1 1:-0.975685 2:-0.973282 
1 1:-0.975685 2:-0.973282 
1 1:-0.975685 2:-0.973282 
1 1:-0.975685 2:-0.973282 
1 1:-0.975685 2:-0.973282 
1 1:-0.975685 2:-0.973282 
1 1:-0.975685 2:-0.973282 
1 1:-0.975685 2:-0.973282 
1 1:-0.975685 2:-0.973282 
1 1:-0.975685 2:-0.973282 
1 1:-0.975685 2:-0.973282 
1 1:-0.975685 2:-0.973282 
1 1:-0.975685 2:-0.973282 
1 1:-0.975685 2:-0.973282 
1 1:-0.975685 2:-0.973282 
1 1:-0.975685 2:-0.973282 
1 1:-0.975685 2:-0.973282 
1 1:-0.975685 2:-0.973282 
1 1:-0.975685 2:-0.973282 
1 1:-0.975685 2:-0.973282 
1 1:-0.975685 2:-0.973282 
1 1:-0.975685 2:-0.973282 
1 1:-0.975685 2:-0.973282 
1 1:-0.975685 2:-0.973282 
1 1:-0.975685 2:-0.973282 
1 1:-0.975685 2:-0.973282 
1 1:-0.975685 2:-0.973282 
1 1:-0.975685 2:-0.973282 
1 1:-0.975685 2:-0.973282 
1 1:-0.975685 2:-0.973282 
1 1:-0.975685 2:-0.973282 
1 1:-0.975685 2:-0.973282 
1 1:-0.975685 2:-0.973282 
1 1:-0.975685 2:-0.973282 
1 1:-0.975685 2:-0.973282 
1 1:-0.975685 2:-0.973282 
1 1:-0.975685 2:-0.973282 
1 1:-0.975685 2:-0.973282 
1 1:-0.975685 2:-0.973282 
1 1:-0.975685 2:-0.973282 
1 1:-0.975685 2:-0.973282 
1 1:-0.975685 2:-0.973282 
1 1:-0.975685 2:-0.973282 
1 1:-0.965335 2:-0.972285 
1 1:-0.985126 2:-0.985327 
1 1:-0.965335 2:-0.972285 
1 1:-0.985126 2:-0.985327 
1 1:-0.965335 2:-0.972285 
1 1:-0.985126 2:-0.985327 
1 1:-0.965335 2:-0.972285 
1 1:-0.985126 2:-0.985327 
1 1:-0.965335 2:-0.972285 
1 1:-0.985126 2:-0.985327 
1 1:-0.965335 2:-0.972285 
1 1:-0.985126 2:-0.985327 
1 1:-0.965335 2:-0.972285 
1 1:-0.985126 2:-0.985327 
1 1:-0.965335 2:-0.972285 
1 1:-0.985126 2:-0.985327 
1 1:-0.965335 2:-0.972285 
1 1:-0.985126 2:-0.985327 
1 1:-0.965335 2:-0.972285 
1 1:-0.985126 2:-0.985327 
1 1:-0.965335 2:-0.972285 
1 1:-0.985126 2:-0.985327 
1 1:-0.965335 2:-0.972285 
1 1:-0.985126 2:-0.985327 
1 1:-0.965335 2:-0.972285 
1 1:-0.985126 2:-0.985327 
1 1:-0.965335 2:-0.972285 
1 1:-0.985126 2:-0.985327 
1 1:-0.965335 2:-0.972285 
1 1:-0.985126 2:-0.985327 
1 1:-0.965335 2:-0.972285 
1 1:-0.985126 2:-0.985327 
1 1:-0.965335 2:-0.972285 
1 1:-0.985126 2:-0.985327 
1 1:-0.965335 2:-0.972285 
1 1:-0.985126 2:-0.985327 
1 1:-0.965335 2:-0.972285 
1 1:-0.985126 2:-0.985327 
1 1:-0.965335 2:-0.972285 
1 1:-0.985126 2:-0.985327 
1 1:-0.965335 2:-0.972285 
1 1:-0.985126 2:-0.985327 
1 1:-0.965335 2:-0.972285 
1 1:-0.985126 2:-0.985327 
1 1:-0.965335 2:-0.972285 
1 1:-0.985126 2:-0.985327 
1 1:-0.965335 2:-0.972285 
1 1:-0.985126 2:-0.985327 
1 1:-0.965335 2:-0.972285 
1 1:-0.985126 2:-0.985327 
1 1:-0.965335 2:-0.972285 
1 1:-0.985126 2:-0.985327 
1 1:-0.965335 2:-0.972285 
1 1:-0.985126 2:-0.985327 
1 1:-0.965335 2:-0.972285 
1 1:-0.985126 2:-0.985327 
1 1:-0.965335 2:-0.972285 
1 1:-0.985126 2:-0.985327 
1 1:-0.965335 2:-0.972285 
1 1:-0.985126 2:-0.985327 
1 1:-0.965335 2:-0.972285 
1 1:-0.985126 2:-0.985327 
1 1:-0.965335 2:-0.972285 
1 1:-0.985126 2:-0.985327 
1 1:-0.965335 2:-0.972285 
1 1:-0.985126 2:-0.985327 
